0.00370678, -0.000616392, -0.55848, 6.38645e-05, -0.000248018, 0.000146017, 0.0316228, 0.0316228, 0.0316228, 0.0316228, 0.0316228, 0.0316228
0.00370678, -0.000616392, -0.55848, 6.38645e-05, -0.000248018, 0.000146017, 0.173642, 0.173642, 0.173642, 0.0316228, 0.0316228, 0.0316228
0.00283987, -0.000564157, -0.559026, 6.11804e-05, -7.30184e-05, 0.000158638, 0.194306, 0.194298, 0.19426, 0.0315696, 0.0315703, 0.0316069
0.00190385, -0.0008751, -0.558667, 1.46487e-05, 1.28403e-05, 0.000153886, 0.212613, 0.212561, 0.212292, 0.0314738, 0.0314788, 0.0315911
0.00259063, -0.000921704, -0.555041, 1.5144e-05, -0.000166455, 0.000159113, 0.228987, 0.228925, 0.227761, 0.0313184, 0.0313249, 0.0315753
0.00270124, -0.000615031, -0.55248, 6.09565e-05, -0.000210679, 0.000173579, 0.243851, 0.243801, 0.240588, 0.0311032, 0.0311085, 0.0315595
0.00191588, -0.00106624, -0.556016, -2.33888e-05, 2.60838e-06, 0.000162847, 0.257549, 0.257505, 0.250833, 0.0308325, 0.0308375, 0.0315437
0.00187664, -0.00106534, -0.563273, -3.03792e-05, -6.01608e-05, 0.000168407, 0.270268, 0.270258, 0.258076, 0.0305074, 0.0305102, 0.0315279
-5.50356e-05, -0.00204018, -0.576005, -0.000237571, 0.000124794, 0.000174119, 0.282311, 0.282175, 0.263758, 0.0301284, 0.0301572, 0.0315116
-0.00253577, -0.00225128, -0.583076, -0.00023047, 0.000448536, 0.000165422, 0.293478, 0.293293, 0.267877, 0.0297048, 0.0297451, 0.0314945
-0.00348594, -0.00327371, -0.583093, -0.000383614, 0.000567377, 0.000160043, 0.303766, 0.303612, 0.270657, 0.0292237, 0.0292605, 0.031478
-0.00300239, -0.00311407, -0.582528, -0.000367873, 0.000528099, 0.00015238, 0.313128, 0.312979, 0.272824, 0.0286513, 0.0286899, 0.031462
-0.00189076, -0.00286013, -0.580929, -0.000342975, 0.000386153, 0.000168169, 0.321639, 0.321303, 0.275101, 0.0279655, 0.0280425, 0.0314461
0.0022741, -0.00218364, -0.587227, -0.000209602, -0.000155851, 0.000171735, 0.330052, 0.328887, 0.278932, 0.0271989, 0.0274336, 0.0314303
0.00450655, -0.00186492, -0.591096, -0.000132496, -0.000432316, 0.000181453, 0.338383, 0.33619, 0.283495, 0.0263995, 0.0268347, 0.0314139
0.00626975, -0.00045764, -0.590771, 4.84239e-05, -0.000621131, 0.000182624, 0.346149, 0.343333, 0.287049, 0.0256226, 0.0261872, 0.0313977
0.00776916, 0.0010767, -0.588697, 0.000221441, -0.000798704, 0.000186839, 0.353299, 0.350355, 0.289047, 0.024909, 0.0255148, 0.0313817
0.0102653, 0.00195711, -0.586073, 0.000324729, -0.0011118, 0.000198061, 0.359863, 0.357311, 0.289016, 0.0242821, 0.0248361, 0.0313649
0.0106975, 0.00340674, -0.578156, 0.000468599, -0.00128093, 0.000214059, 0.365696, 0.364157, 0.285946, 0.0237188, 0.024099, 0.0313463
0.00908662, 0.00523499, -0.565805, 0.000639546, -0.00132164, 0.000225917, 0.371416, 0.370789, 0.281307, 0.0231626, 0.0233487, 0.0313264
0.00758458, 0.00670369, -0.555838, 0.000793322, -0.00128937, 0.000231222, 0.378006, 0.377396, 0.278852, 0.0225869, 0.0227023, 0.0313077
0.006153, 0.00749404, -0.549716, 0.000889155, -0.00123972, 0.000243176, 0.385425, 0.384318, 0.279692, 0.022018, 0.0221656, 0.0312901
0.00508391, 0.00647714, -0.549479, 0.000777179, -0.00112374, 0.000236945, 0.393101, 0.391699, 0.282529, 0.0214688, 0.0216251, 0.0312723
0.0032443, 0.00430119, -0.55036, 0.000544827, -0.000910757, 0.000206898, 0.400679, 0.399616, 0.287491, 0.020985, 0.0210135, 0.0312534
0.00132171, 0.00255223, -0.55428, 0.000312716, -0.000620849, 0.000161306, 0.408069, 0.408039, 0.295282, 0.0206331, 0.0203763, 0.0312346
-0.000447804, 0.00120884, -0.55852, 4.09847e-05, -0.000389285, 9.2714e-05, 0.415349, 0.416703, 0.304591, 0.0204008, 0.0197815, 0.0312153
-0.00117305, 0.000869384, -0.563473, -0.000208076, -0.000297063, 4.84519e-05, 0.422662, 0.425324, 0.314267, 0.0202236, 0.0192614, 0.0311964
-0.0014494, 0.00123769, -0.568166, -0.000531434, -0.000270562, 1.67546e-06, 0.430138, 0.433687, 0.323671, 0.0200416, 0.0188128, 0.0311797
-0.000565646, 0.00264473, -0.573325, -0.000880594, -0.000347992, -4.96995e-05, 0.437786, 0.441467, 0.331831, 0.0197737, 0.0184147, 0.0311637
0.000578563, 0.00331308, -0.57764, -0.00132916, -0.000459841, -0.000145158, 0.445438, 0.448073, 0.337276, 0.0193372, 0.0180234, 0.0311407
0.00124671, 0.00564251, -0.581923, -0.00155767, -0.000499938, -0.000185241, 0.453086, 0.452765, 0.339344, 0.0186825, 0.0176399, 0.0310999
0.00134429, 0.00838809, -0.586499, -0.00185503, -0.000458926, -0.000204041, 0.460787, 0.455078, 0.339012, 0.0178332, 0.0172748, 0.0310335
0.00179514, 0.00749742, -0.587219, -0.00210965, -0.000490675, -0.000281395, 0.468528, 0.454839, 0.337717, 0.0168507, 0.0169344, 0.0309351
0.00131828, 0.00535933, -0.583988, -0.00183496, -0.000458399, -0.000234935, 0.476207, 0.452116, 0.336216, 0.0158873, 0.0166168, 0.0307995
0.000249365, 0.00261585, -0.580282, -0.00154977, -0.000358761, -0.000114264, 0.483758, 0.447487, 0.336204, 0.0150534, 0.0163371, 0.0306168
-0.000463851, -0.000378307, -0.576824, -0.0013097, -0.000292959, -2.27931e-05, 0.491196, 0.441912, 0.338485, 0.0143708, 0.0160966, 0.0303829
-0.000819962, -0.00473738, -0.572324, -0.00105348, -0.000254749, 1.97181e-05, 0.498505, 0.436328, 0.34281, 0.0138459, 0.0158927, 0.0300998
-0.00147245, -0.00856425, -0.567095, -0.000730394, -0.000211119, 9.06532e-05, 0.50564, 0.431564, 0.348767, 0.0134701, 0.015724, 0.029775
-0.00214501, -0.00995283, -0.562897, -0.000468876, -0.000168538, 0.000176224, 0.51259, 0.427869, 0.356024, 0.013196, 0.0155884, 0.0294126
-0.00235619, -0.0110539, -0.559817, -0.000290212, -0.000147357, 0.000209488, 0.519378, 0.424981, 0.364079, 0.0129796, 0.0154811, 0.0290111
-0.0027459, -0.0124249, -0.556333, -9.60294e-05, -0.000128021, 0.000262487, 0.526025, 0.422522, 0.372432, 0.0127961, 0.0153971, 0.0285743
-0.00317779, -0.0134097, -0.553321, 5.21792e-05, -0.000108127, 0.000336812, 0.532533, 0.420169, 0.380773, 0.0126306, 0.0153327, 0.0281098
-0.00374796, -0.0124564, -0.550946, 0.000152841, -8.70227e-05, 0.000440032, 0.538933, 0.417589, 0.388965, 0.0124706, 0.0152838, 0.0276177
-0.00360192, -0.0130066, -0.548928, 0.000245183, -8.28391e-05, 0.000431955, 0.54524, 0.4149, 0.396908, 0.0123154, 0.0152471, 0.0271019
-0.00349551, -0.0145649, -0.546155, 0.00035965, -8.48195e-05, 0.000423491, 0.551479, 0.413034, 0.404479, 0.0121822, 0.0152192, 0.0265777
-0.00395382, -0.0157101, -0.543536, 0.000452248, -8.10006e-05, 0.000513161, 0.557661, 0.412578, 0.411591, 0.0120778, 0.0151978, 0.0260546
-0.00410028, -0.0197214, -0.539658, 0.000536254, -7.90354e-05, 0.000550623, 0.563811, 0.414511, 0.41818, 0.0120015, 0.0151803, 0.0255447
-0.00457216, -0.0229862, -0.535184, 0.000585079, -8.48803e-05, 0.000593771, 0.569952, 0.419117, 0.424053, 0.0119372, 0.0151645, 0.0250616
-0.0042514, -0.0261292, -0.531949, 0.000557222, -9.14552e-05, 0.000528027, 0.576083, 0.425231, 0.429088, 0.0118549, 0.0151501, 0.0245988
-0.00455958, -0.0292349, -0.528002, 0.000485222, -9.88488e-05, 0.000541248, 0.582188, 0.432146, 0.43299, 0.0117365, 0.0151374, 0.0241525
-0.00505962, -0.031465, -0.524232, 0.000350042, -0.000105762, 0.00056041, 0.588242, 0.439783, 0.435401, 0.0115595, 0.0151255, 0.0237251
-0.00524866, -0.0321774, -0.521766, 0.00020081, -0.000116471, 0.000544174, 0.594208, 0.447869, 0.436042, 0.0113065, 0.0151142, 0.0233094
-0.00472157, -0.0314647, -0.522428, 8.21769e-05, -0.000120745, 0.000515539, 0.600045, 0.456051, 0.43462, 0.010973, 0.015103, 0.0229071
-0.00391155, -0.0302644, -0.524354, -3.18449e-05, -0.000121687, 0.000498912, 0.605701, 0.464099, 0.431112, 0.0105742, 0.0150914, 0.0225289
-0.000419015, -0.0285037, -0.537471, 1.57959e-05, -8.12427e-05, 0.00055127, 0.61114, 0.471979, 0.42587, 0.010145, 0.0150795, 0.0221848
0.00248954, -0.0277187, -0.545586, -5.56986e-07, -5.67529e-05, 0.000485823, 0.616332, 0.479804, 0.419567, 0.00973616, 0.0150677, 0.0218768
0.00544482, -0.028093, -0.553445, 2.4795e-05, -4.27619e-05, 0.000418919, 0.621292, 0.487602, 0.412075, 0.00936778, 0.0150555, 0.0216352
0.0064979, -0.0285727, -0.556167, 6.23325e-05, -4.12975e-05, 0.000414864, 0.626086, 0.49503, 0.402673, 0.009036, 0.0150417, 0.021464
0.00697371, -0.0283418, -0.555831, 8.78506e-05, -6.26169e-05, 0.000388327, 0.630782, 0.501387, 0.390991, 0.00870928, 0.0150232, 0.0213537
0.00858397, -0.0286204, -0.55622, 4.93329e-05, -9.15651e-05, 0.00032928, 0.635449, 0.505921, 0.378082, 0.00836215, 0.0149959, 0.0212921
0.0099131, -0.0286784, -0.555237, -1.60274e-05, -0.000112301, 0.000301249, 0.640122, 0.508407, 0.366114, 0.00801841, 0.0149555, 0.0212638
0.0107645, -0.0281627, -0.553578, -6.38774e-05, -0.000135397, 0.00029356, 0.644762, 0.5084, 0.354993, 0.00769172, 0.0148984, 0.0212534
0.0115511, -0.0275999, -0.552297, -9.09462e-05, -0.000170589, 0.000302519, 0.649375, 0.505015, 0.344132, 0.00738011, 0.0148186, 0.0212451
0.0116559, -0.0260567, -0.552262, -7.73837e-05, -0.000213752, 0.000323147, 0.653987, 0.497686, 0.334358, 0.00708727, 0.0147097, 0.0212216
0.0106166, -0.0227902, -0.554241, -2.24812e-05, -0.000253246, 0.000338854, 0.658644, 0.486887, 0.32699, 0.00681553, 0.0145674, 0.0211689
0.00990418, -0.0200794, -0.556099, 1.58965e-05, -0.000301521, 0.000366143, 0.663362, 0.473639, 0.32264, 0.00656537, 0.0143917, 0.0210755
0.00926695, -0.0173259, -0.5581, 4.71505e-05, -0.000352053, 0.000400227, 0.668077, 0.458874, 0.321103, 0.00634317, 0.0141895, 0.020931
0.00797185, -0.0133952, -0.561268, 8.63465e-05, -0.000373116, 0.000402808, 0.672745, 0.443779, 0.321847, 0.00615205, 0.01397, 0.0207306
0.00639292, -0.010523, -0.56617, 0.00014483, -0.000359787, 0.000366039, 0.677378, 0.429492, 0.324225, 0.00598998, 0.0137411, 0.0204791
0.00481099, -0.00553053, -0.571704, 0.000193313, -0.000370408, 0.000360421, 0.681985, 0.416568, 0.3276, 0.00585357, 0.0135117, 0.0201897
0.0037687, -0.00150994, -0.576074, 0.000224703, -0.000381137, 0.000364849, 0.686583, 0.40518, 0.33157, 0.00574019, 0.0132895, 0.0198759
0.00287168, 0.00125622, -0.580476, 0.000257394, -0.00037647, 0.00034769, 0.691154, 0.395814, 0.335861, 0.00565087, 0.0130812, 0.0195455
0.00190625, 0.00444599, -0.584304, 0.000278007, -0.00035797, 0.000309819, 0.695715, 0.389225, 0.340336, 0.00558845, 0.0128887, 0.0192044
0.00113939, 0.00487707, -0.587936, 0.000303981, -0.000317624, 0.000236833, 0.700286, 0.385837, 0.344936, 0.00555144, 0.012712, 0.0188604
0.000699547, 0.00405488, -0.589768, 0.000317611, -0.000282912, 0.000172875, 0.704862, 0.385439, 0.349471, 0.00553348, 0.0125521, 0.0185264
0.000265006, 0.00100417, -0.590439, 0.000323396, -0.000245319, 9.76051e-05, 0.709382, 0.387464, 0.353657, 0.00552538, 0.0124107, 0.0182115
-9.56204e-06, -0.00232947, -0.590039, 0.000314515, -0.000228096, 5.43952e-05, 0.713753, 0.39144, 0.357304, 0.00551858, 0.0122908, 0.0179203
-0.000581816, -0.00469775, -0.587502, 0.000296157, -0.000218246, 2.02581e-05, 0.717876, 0.396652, 0.360066, 0.00550268, 0.0121928, 0.0176558
-0.00136029, -0.00563331, -0.582484, 0.000281664, -0.000224859, 1.42954e-05, 0.721676, 0.402414, 0.361468, 0.00547044, 0.0121143, 0.0174192
-0.00306166, -0.00595729, -0.575468, 0.000274403, -0.000233515, -7.42348e-07, 0.725127, 0.408416, 0.361009, 0.00541938, 0.0120505, 0.0172128
-0.00544483, -0.00723418, -0.568687, 0.000260213, -0.00024504, -3.24723e-05, 0.728284, 0.414748, 0.358249, 0.00534923, 0.011995, 0.0170359
-0.00698547, -0.0104382, -0.564882, 0.000211129, -0.00027596, -4.71923e-05, 0.731212, 0.421444, 0.353414, 0.00526286, 0.0119436, 0.0168906
-0.00846827, -0.0129935, -0.560788, 0.000182794, -0.000315532, -4.28466e-05, 0.734048, 0.428397, 0.347455, 0.00516362, 0.0118925, 0.0167772
-0.0102597, -0.0143486, -0.558345, 0.00018011, -0.000321537, -6.57473e-05, 0.73697, 0.435135, 0.341294, 0.00505815, 0.0118394, 0.0166932
-0.011424, -0.0150781, -0.559846, 0.000151394, -0.000310435, -0.000103965, 0.740112, 0.441147, 0.335565, 0.0049488, 0.011783, 0.0166376
-0.0128383, -0.0158899, -0.562738, 9.84745e-05, -0.000306661, -0.000140199, 0.743564, 0.445843, 0.330646, 0.0048353, 0.0117209, 0.0166046
-0.0143648, -0.0175374, -0.563817, 6.52011e-05, -0.000318385, -0.000158025, 0.747342, 0.448624, 0.326669, 0.00472473, 0.0116509, 0.0165862
-0.0162243, -0.0200166, -0.564636, 3.76491e-05, -0.000322736, -0.000175296, 0.751416, 0.448937, 0.323644, 0.00461859, 0.0115726, 0.0165777
-0.0172904, -0.0216764, -0.565097, 2.50878e-05, -0.000315543, -0.000181384, 0.755735, 0.446497, 0.321838, 0.00451303, 0.01149, 0.0165741
-0.01692, -0.0210026, -0.563707, 3.92598e-05, -0.000278714, -0.000176388, 0.760245, 0.441254, 0.321356, 0.00440721, 0.0114076, 0.0165698
-0.0165656, -0.0212139, -0.561855, 5.5684e-05, -0.000248116, -0.00016797, 0.764889, 0.433176, 0.321818, 0.00430662, 0.0113232, 0.0165606
-0.016489, -0.0221658, -0.561068, 6.2436e-05, -0.000231526, -0.000161743, 0.769609, 0.42238, 0.322924, 0.00421491, 0.0112368, 0.0165449
-0.0161692, -0.0186642, -0.560803, 5.11179e-05, -0.000206346, -0.000147072, 0.774392, 0.409891, 0.324714, 0.00413026, 0.0111559, 0.0165193
-0.0162067, -0.0178312, -0.562092, 3.79553e-05, -0.000197995, -0.000144262, 0.779176, 0.39682, 0.327285, 0.00405042, 0.0110826, 0.0164814
-0.01583, -0.0169912, -0.560204, 4.37154e-05, -0.000177768, -0.000122446, 0.78399, 0.383842, 0.33006, 0.00397951, 0.0110166, 0.0164355
-0.0154456, -0.0121656, -0.554931, 4.66719e-05, -0.000142648, -6.76767e-05, 0.788814, 0.371855, 0.332659, 0.00392033, 0.010957, 0.0163829
-0.0152878, -0.00735762, -0.549749, 4.44354e-05, -0.000110084, -7.11945e-06, 0.7936, 0.362006, 0.335284, 0.00387431, 0.0109007, 0.0163229
-0.0152378, -0.00420946, -0.547027, 3.84885e-05, -9.23385e-05, 3.53058e-05, 0.798357, 0.355117, 0.338089, 0.00383969, 0.0108472, 0.0162535
-0.0149146, -0.00465959, -0.543556, 4.68197e-05, -8.52229e-05, 5.87772e-05, 0.803088, 0.35177, 0.341117, 0.00381545, 0.0107978, 0.0161751
-0.0149674, -0.00445318, -0.541061, 4.638e-05, -7.50668e-05, 9.67842e-05, 0.807788, 0.351615, 0.344316, 0.00379924, 0.0107556, 0.0160839
-0.0148782, -0.00548713, -0.538702, 4.87193e-05, -7.25013e-05, 0.000110848, 0.812435, 0.353406, 0.347509, 0.00378747, 0.0107225, 0.015972
-0.014799, -0.00674676, -0.536768, 5.03659e-05, -7.41244e-05, 0.000109997, 0.81701, 0.356137, 0.350375, 0.00377735, 0.0106997, 0.0158337
-0.0147874, -0.00700671, -0.536607, 4.98724e-05, -7.7725e-05, 0.000109966, 0.821463, 0.359353, 0.352631, 0.00376613, 0.0106851, 0.0156714
-0.0148155, -0.00655076, -0.537812, 4.95685e-05, -8.21749e-05, 0.000116271, 0.825762, 0.363319, 0.354165, 0.00375009, 0.0106759, 0.0154929
-0.0146539, -0.00297677, -0.543858, 6.40257e-05, -9.12137e-05, 0.000133675, 0.829904, 0.368295, 0.354927, 0.00372552, 0.0106698, 0.0153056
-0.014113, 0.000307892, -0.550279, 8.64593e-05, -0.000102219, 0.000129258, 0.833837, 0.374291, 0.35479, 0.00369281, 0.0106661, 0.0151213
-0.0130933, 0.00239302, -0.555053, 0.000109886, -0.000111635, 9.84877e-05, 0.837467, 0.381184, 0.353291, 0.00365219, 0.0106638, 0.0149534
-0.0120175, 0.00318129, -0.557132, 0.000124335, -0.000118588, 5.83962e-05, 0.840766, 0.388588, 0.349786, 0.0036, 0.0106616, 0.0148132
-0.0108799, 0.00266299, -0.557978, 0.000120876, -0.000121727, 3.4309e-05, 0.843777, 0.396084, 0.344264, 0.00353068, 0.0106584, 0.0147066
-0.00934022, 0.00234862, -0.556733, 0.000110155, -0.000122488, 6.9546e-06, 0.846604, 0.403207, 0.337918, 0.00345056, 0.0106527, 0.014634
-0.00758189, 0.00194782, -0.555152, 9.47314e-05, -0.000121506, -1.21663e-05, 0.849269, 0.409416, 0.331799, 0.00336714, 0.0106436, 0.0145902
-0.00675835, 0.0017631, -0.555163, 9.31522e-05, -0.000126, -1.66384e-05, 0.851758, 0.413925, 0.326387, 0.00328779, 0.0106301, 0.0145686
-0.0050931, 0.000535985, -0.553443, 7.31606e-05, -0.00011756, -1.34631e-05, 0.85413, 0.415913, 0.321647, 0.003218, 0.010611, 0.0145607
-0.00498878, 0.00148185, -0.55343, 7.57631e-05, -0.000130594, -1.20576e-05, 0.856503, 0.414997, 0.317348, 0.0031582, 0.0105816, 0.0145567
-0.00509105, 0.00235223, -0.553658, 7.82937e-05, -0.000147317, -6.54597e-06, 0.858934, 0.411204, 0.313622, 0.00310565, 0.0105396, 0.0145449
-0.00655923, 0.00361471, -0.556413, 9.31079e-05, -0.000170921, 1.959e-06, 0.861482, 0.405126, 0.31058, 0.00306002, 0.0104801, 0.0145123
-0.00954837, 0.00788692, -0.560184, 0.000107385, -0.000213191, 1.88743e-05, 0.864197, 0.397812, 0.308736, 0.00301993, 0.0104008, 0.01445
-0.0121648, 0.0108214, -0.564909, 0.000123604, -0.000251322, 3.4845e-05, 0.867121, 0.390078, 0.308338, 0.00298401, 0.0103067, 0.0143552
-0.0142149, 0.0130689, -0.569462, 0.000136955, -0.000275871, 4.11482e-05, 0.870292, 0.382895, 0.309009, 0.00295452, 0.0102011, 0.0142278
-0.014755, 0.0129075, -0.572634, 0.000146715, -0.000289763, 5.1027e-05, 0.873735, 0.37728, 0.31063, 0.00293268, 0.0100909, 0.0140739
-0.0146311, 0.0118412, -0.574607, 0.000153763, -0.000287093, 4.58098e-05, 0.877393, 0.3737, 0.313006, 0.00291768, 0.00998744, 0.0139075
-0.013834, 0.00946453, -0.575266, 0.000158402, -0.000278585, 3.94883e-05, 0.881132, 0.371915, 0.315671, 0.00290737, 0.00989897, 0.0137429
-0.0130436, 0.00741016, -0.575134, 0.000159223, -0.000277222, 4.56762e-05, 0.884756, 0.371289, 0.318076, 0.00289948, 0.0098291, 0.0135913
-0.0127875, 0.00716351, -0.572339, 0.000154343, -0.000272473, 4.53191e-05, 0.888095, 0.371017, 0.319666, 0.00289209, 0.00977506, 0.0134616
-0.0125954, 0.00772188, -0.568355, 0.000145637, -0.000273694, 5.63745e-05, 0.891082, 0.370113, 0.319938, 0.00288326, 0.00972944, 0.0133579
-0.0125188, 0.00721033, -0.565372, 0.000138815, -0.000262282, 4.97054e-05, 0.893778, 0.36849, 0.31897, 0.00287285, 0.00968553, 0.0132808
-0.0129827, 0.00739882, -0.56163, 0.000131507, -0.000253238, 4.11914e-05, 0.896292, 0.367185, 0.317439, 0.00286273, 0.00964197, 0.0132256
-0.0132659, 0.00693395, -0.56024, 0.000128908, -0.000242411, 3.04618e-05, 0.898779, 0.367062, 0.315835, 0.00285416, 0.00959814, 0.0131859
-0.0139044, 0.00693959, -0.559174, 0.000128699, -0.000228483, 1.50019e-05, 0.901389, 0.368351, 0.314339, 0.00284683, 0.00955325, 0.0131571
-0.0144935, 0.00697064, -0.558273, 0.000129093, -0.000216242, 3.07568e-06, 0.904124, 0.370748, 0.313151, 0.00283979, 0.00950718, 0.0131359
-0.0153181, 0.00723215, -0.557438, 0.000130552, -0.000199234, -1.06962e-05, 0.907007, 0.37382, 0.312234, 0.00283235, 0.00946006, 0.0131201
-0.0153438, 0.00656972, -0.557549, 0.000128597, -0.000184588, -1.79044e-05, 0.910049, 0.37717, 0.311459, 0.00282407, 0.00941138, 0.0131078
-0.015593, 0.00638845, -0.557439, 0.000127683, -0.000167839, -2.50163e-05, 0.913146, 0.380607, 0.310801, 0.00281455, 0.00935917, 0.0130975
-0.0156885, 0.00562871, -0.557771, 0.000123199, -0.000144373, -3.65322e-05, 0.916137, 0.384077, 0.310142, 0.00280259, 0.00930152, 0.0130877
-0.0159943, 0.00455128, -0.558246, 0.000116567, -0.000127138, -5.02535e-05, 0.918759, 0.387716, 0.309327, 0.0027869, 0.00923567, 0.0130766
-0.0160646, 0.0036304, -0.560341, 0.000104916, -0.000110919, -6.70208e-05, 0.920627, 0.391735, 0.308381, 0.00276826, 0.00916019, 0.0130649
-0.0184259, 0.00177276, -0.559934, 0.000102335, -0.000129426, -7.91004e-05, 0.921332, 0.396054, 0.3072, 0.00274795, 0.00907277, 0.0130539
-0.0207176, 0.000423994, -0.560409, 9.84782e-05, -0.000150311, -8.80269e-05, 0.919967, 0.400393, 0.305915, 0.00272774, 0.00896631, 0.0130448
-0.0220357, -0.000245129, -0.560778, 9.74754e-05, -0.000167578, -8.88439e-05, 0.914861, 0.404516, 0.304726, 0.00270977, 0.008826, 0.0130379
-0.0228596, -0.000442033, -0.56335, 9.2208e-05, -0.000178805, -9.01402e-05, 0.903327, 0.408325, 0.303494, 0.00269522, 0.00862691, 0.0130325
-0.022508, -0.000359034, -0.564233, 9.13717e-05, -0.000179882, -8.82114e-05, 0.882013, 0.411275, 0.301908, 0.00268246, 0.00833757, 0.013028
-0.0245263, -0.00107435, -0.565674, 9.09507e-05, -0.000206639, -8.94297e-05, 0.848697, 0.413676, 0.300037, 0.0026702, 0.00794226, 0.0130238
-0.0210256, -0.000257786, -0.561075, 9.9615e-05, -0.000176704, -8.38446e-05, 0.804021, 0.415756, 0.298312, 0.00265782, 0.00744933, 0.0130202
-0.0161177, 0.00066943, -0.557705, 0.000104792, -0.000135205, -7.92209e-05, 0.752177, 0.418031, 0.296911, 0.00264359, 0.006898, 0.0130175
-0.0123031, 0.000963545, -0.556045, 0.000108889, -0.000108036, -7.77509e-05, 0.698971, 0.420967, 0.295626, 0.00262661, 0.00634325, 0.0130151
-0.00664361, 0.00145614, -0.555512, 0.000110578, -6.61867e-05, -7.59227e-05, 0.649398, 0.424089, 0.294184, 0.00260662, 0.00583208, 0.0130132
-0.000363879, 0.00249576, -0.557479, 0.000106944, -1.73619e-05, -7.26244e-05, 0.60658, 0.426779, 0.292522, 0.002584, 0.00539801, 0.0130113
0.000658038, 0.00189118, -0.559606, 0.000108993, -1.89291e-05, -7.36965e-05, 0.570885, 0.429026, 0.291037, 0.00256074, 0.00505129, 0.0130094
0.00715727, 0.00257848, -0.559398, 0.00010579, 3.28801e-05, -6.94735e-05, 0.54111, 0.430549, 0.289917, 0.00253897, 0.00478324, 0.0130069
0.0112694, 0.00246839, -0.55794, 0.000105922, 6.26842e-05, -6.657e-05, 0.515608, 0.431307, 0.289103, 0.00251961, 0.00457807, 0.0130025
0.0136243, 0.00249406, -0.556107, 0.000105769, 8.0134e-05, -6.44704e-05, 0.493112, 0.431565, 0.288564, 0.00250335, 0.00441778, 0.0129949
0.0158703, 0.00208589, -0.554465, 0.000106677, 9.37534e-05, -6.0113e-05, 0.473095, 0.431635, 0.288159, 0.0024901, 0.00429055, 0.0129837
0.0162186, 0.000929498, -0.553056, 0.000110252, 9.06811e-05, -5.37926e-05, 0.455488, 0.431845, 0.287763, 0.00247969, 0.00418951, 0.0129697
0.0174989, 0.00204167, -0.553583, 0.000107023, 0.00010334, -6.01154e-05, 0.44043, 0.432472, 0.287342, 0.00247187, 0.00411156, 0.0129545
0.0193431, 0.00241149, -0.556752, 0.000106011, 0.000115546, -6.40572e-05, 0.42813, 0.433723, 0.286934, 0.0024662, 0.00405546, 0.0129403
0.0200722, 0.00297786, -0.556608, 0.000105077, 0.000120626, -6.69101e-05, 0.418751, 0.435718, 0.286711, 0.00246275, 0.00401887, 0.0129271
0.0206406, 0.00337251, -0.555222, 0.000104188, 0.000122892, -6.67735e-05, 0.41244, 0.438497, 0.286699, 0.00246107, 0.00399938, 0.012915
0.0212452, 0.00455907, -0.553876, 0.000103147, 0.000125137, -6.69328e-05, 0.409287, 0.4419, 0.286759, 0.00246023, 0.00399322, 0.0129055
0.0218661, 0.0054692, -0.552325, 0.000102663, 0.000125261, -6.43466e-05, 0.409017, 0.445487, 0.286909, 0.00245946, 0.00399292, 0.0128973
0.0227112, 0.00573626, -0.553892, 0.000103929, 0.000124118, -6.20747e-05, 0.411177, 0.448682, 0.287149, 0.00245812, 0.00398967, 0.0128886
0.023669, 0.00556056, -0.55503, 0.000103783, 0.000120725, -5.77284e-05, 0.415285, 0.450895, 0.287434, 0.00245528, 0.00397397, 0.0128787
0.0239591, 0.00559839, -0.554379, 0.0001035, 0.000117057, -5.58618e-05, 0.42083, 0.45155, 0.287708, 0.00244994, 0.00393739, 0.0128679
0.0240395, 0.00484358, -0.551515, 0.000100337, 0.000112815, -5.51214e-05, 0.427141, 0.450267, 0.287979, 0.00244133, 0.00387323, 0.0128567
0.0245423, 0.0043654, -0.552022, 9.87286e-05, 0.00011146, -5.71568e-05, 0.433611, 0.446948, 0.28816, 0.00242961, 0.00377943, 0.0128435
0.0247675, 0.00351421, -0.550756, 9.67808e-05, 0.00011352, -6.16155e-05, 0.439646, 0.442033, 0.288072, 0.00241508, 0.00365817, 0.0128273
0.0251148, 0.00203469, -0.54987, 9.56444e-05, 0.000124245, -6.91335e-05, 0.444854, 0.435808, 0.287839, 0.00239974, 0.00352276, 0.0128065
0.02571, 0.00121396, -0.551196, 9.43801e-05, 0.00013034, -7.30156e-05, 0.449135, 0.428482, 0.287595, 0.00238498, 0.0033873, 0.0127826
0.0254372, 0.000222959, -0.552289, 9.80943e-05, 0.000142166, -6.4092e-05, 0.452389, 0.420545, 0.287305, 0.00237051, 0.00325932, 0.0127583
0.0258165, -9.37378e-05, -0.552611, 9.68124e-05, 0.000143756, -6.60165e-05, 0.454419, 0.412408, 0.287072, 0.00235595, 0.00314323, 0.0127348
0.0256902, 0.000354058, -0.552327, 9.67463e-05, 0.000140639, -6.73386e-05, 0.455051, 0.404399, 0.286761, 0.00234064, 0.00304031, 0.0127126
0.0253006, 0.000812279, -0.550543, 9.7406e-05, 0.00013786, -6.80618e-05, 0.45397, 0.396829, 0.286263, 0.0023237, 0.00295027, 0.0126929
0.0247126, 0.000817148, -0.548921, 9.90076e-05, 0.000136934, -6.53792e-05, 0.450867, 0.389718, 0.285914, 0.00230431, 0.00287186, 0.0126785
0.0226339, 0.000590994, -0.549194, 0.0001047, 0.000133163, -5.55699e-05, 0.445574, 0.382771, 0.285767, 0.00228229, 0.0028034, 0.0126697
0.0200148, -0.000177627, -0.551128, 0.000112267, 0.000128822, -4.61141e-05, 0.438111, 0.375902, 0.285235, 0.002257, 0.0027422, 0.0126642
0.0163104, -0.000578957, -0.549389, 0.000120382, 0.000121106, -3.76467e-05, 0.428587, 0.369257, 0.284301, 0.00222928, 0.00268752, 0.0126585
0.0142264, -0.00121114, -0.550076, 0.000125457, 0.000116789, -3.39515e-05, 0.41764, 0.363309, 0.283441, 0.00220199, 0.00263975, 0.0126534
0.0119827, -0.00179173, -0.551812, 0.000130395, 0.000111039, -2.99687e-05, 0.406106, 0.358366, 0.282857, 0.00217709, 0.00259896, 0.0126498
0.00908435, -0.00261447, -0.553489, 0.000136399, 0.000104011, -2.70244e-05, 0.394915, 0.354591, 0.282385, 0.00215542, 0.00256499, 0.0126461
0.00583347, -0.00341669, -0.555187, 0.000142342, 9.63165e-05, -2.64957e-05, 0.384939, 0.352116, 0.281916, 0.00213743, 0.00253811, 0.0126414
0.0040736, -0.00354362, -0.55364, 0.000144049, 9.24787e-05, -2.34991e-05, 0.376727, 0.350908, 0.281549, 0.00212402, 0.00251833, 0.0126365
0.00255942, -0.00368588, -0.553289, 0.000145459, 8.90631e-05, -2.07197e-05, 0.370501, 0.350791, 0.281402, 0.00211536, 0.00250525, 0.0126325
0.00155257, -0.00442926, -0.55438, 0.000147491, 8.74853e-05, -2.10551e-05, 0.366421, 0.351585, 0.281416, 0.00211044, 0.00249805, 0.0126284
0.000359833, -0.00537802, -0.55467, 0.000149244, 8.62745e-05, -2.26525e-05, 0.364585, 0.35312, 0.281453, 0.00210813, 0.00249544, 0.0126235
-0.000634725, -0.00598159, -0.554267, 0.000149748, 8.56975e-05, -2.28392e-05, 0.36481, 0.355079, 0.281373, 0.00210736, 0.00249506, 0.0126165
-0.000575571, -0.00615296, -0.552613, 0.000149967, 8.55448e-05, -2.40667e-05, 0.366665, 0.357087, 0.281284, 0.0021069, 0.00249455, 0.0126076
-0.000310808, -0.00612126, -0.553821, 0.000149847, 8.49779e-05, -2.45172e-05, 0.369725, 0.358871, 0.281311, 0.00210557, 0.00249174, 0.0125992
0.000236516, -0.00599532, -0.555844, 0.000149865, 8.43233e-05, -2.47599e-05, 0.373697, 0.36033, 0.281499, 0.00210249, 0.00248431, 0.012593
0.00130891, -0.00614011, -0.559373, 0.000150139, 8.4208e-05, -2.75883e-05, 0.378322, 0.361537, 0.281975, 0.00209745, 0.00246972, 0.0125883
0.00221551, -0.00584955, -0.559563, 0.000152731, 8.07574e-05, -2.38442e-05, 0.383343, 0.362543, 0.2827, 0.00209092, 0.0024476, 0.012582
0.00298421, -0.00578661, -0.557739, 0.000155778, 7.39399e-05, -1.55347e-05, 0.388482, 0.363296, 0.28345, 0.00208339, 0.00242029, 0.0125734
0.00445857, -0.00668147, -0.556727, 0.00016009, 6.29465e-05, -3.50674e-06, 0.393421, 0.363754, 0.284097, 0.00207481, 0.00238997, 0.012564
0.00503407, -0.00675418, -0.556696, 0.000161881, 6.07126e-05, 1.77256e-07, 0.397828, 0.363899, 0.284355, 0.00206538, 0.00235907, 0.0125548
0.00582325, -0.00689603, -0.557545, 0.00016412, 5.84791e-05, 4.63667e-06, 0.401248, 0.363621, 0.284117, 0.00205552, 0.00232914, 0.0125458
0.00676787, -0.00683288, -0.559083, 0.000166596, 5.72806e-05, 9.25926e-06, 0.403279, 0.362766, 0.283604, 0.00204569, 0.00230091, 0.0125357
0.00799331, -0.00718859, -0.558929, 0.000169483, 5.60153e-05, 1.47082e-05, 0.40368, 0.361263, 0.283049, 0.00203644, 0.00227478, 0.0125228
0.00873515, -0.00734556, -0.558386, 0.000171075, 5.61195e-05, 1.69335e-05, 0.402338, 0.359173, 0.282658, 0.00202857, 0.00225054, 0.0125039
0.00914489, -0.00763473, -0.557224, 0.000171964, 5.5737e-05, 1.98514e-05, 0.399264, 0.356664, 0.282455, 0.00202253, 0.00222832, 0.0124773
0.00906397, -0.00780188, -0.557185, 0.000172097, 5.53296e-05, 1.91037e-05, 0.394735, 0.353971, 0.282333, 0.0020184, 0.00220855, 0.0124435
0.00848439, -0.00738903, -0.556869, 0.000171712, 5.57394e-05, 1.12082e-05, 0.389185, 0.351315, 0.282311, 0.00201589, 0.00219165, 0.0124026
0.00797992, -0.00697999, -0.556168, 0.000171492, 5.59443e-05, 4.00009e-06, 0.383326, 0.348986, 0.282305, 0.00201452, 0.00217866, 0.0123589
0.00824048, -0.00629057, -0.554974, 0.0001714, 5.72358e-05, 1.08343e-06, 0.377996, 0.347323, 0.282217, 0.00201379, 0.00217033, 0.0123184
0.00844112, -0.00546409, -0.554042, 0.000171481, 5.85235e-05, -3.62554e-06, 0.373889, 0.346594, 0.282038, 0.00201333, 0.00216577, 0.0122847
0.00911585, -0.00528252, -0.554944, 0.00017238, 5.89421e-05, -3.6297e-06, 0.371377, 0.346831, 0.281856, 0.00201294, 0.00216358, 0.0122548
0.00956699, -0.00550629, -0.555805, 0.00017296, 5.85262e-05, -1.63609e-06, 0.370521, 0.347832, 0.281769, 0.00201208, 0.00216264, 0.0122213
0.010361, -0.00569683, -0.555569, 0.000172808, 5.77976e-05, 5.13892e-06, 0.371151, 0.349343, 0.281782, 0.00201042, 0.00216179, 0.0121863
0.0111849, -0.00628928, -0.55435, 0.000171889, 5.63532e-05, 1.49604e-05, 0.373037, 0.351124, 0.281857, 0.00200826, 0.00215987, 0.0121567
0.0109455, -0.00694721, -0.550878, 0.000170907, 5.51859e-05, 1.79981e-05, 0.37588, 0.35305, 0.28201, 0.00200629, 0.00215605, 0.0121388
0.0101596, -0.00777098, -0.548394, 0.000170099, 5.50222e-05, 1.48262e-05, 0.379389, 0.355011, 0.282244, 0.00200487, 0.00214966, 0.0121281
0.00934942, -0.00843607, -0.550868, 0.000171326, 5.91342e-05, 6.21158e-06, 0.383535, 0.356853, 0.282361, 0.00200386, 0.00214029, 0.0121068
0.00881631, -0.00911318, -0.552758, 0.000172564, 6.19518e-05, -1.37426e-06, 0.388138, 0.358623, 0.282237, 0.00200251, 0.00212664, 0.012061
0.00875936, -0.010059, -0.553322, 0.000173557, 6.43715e-05, -1.42298e-05, 0.39282, 0.360482, 0.281997, 0.00200086, 0.002109, 0.0119996
0.00943415, -0.0114665, -0.552578, 0.000173979, 6.74547e-05, -3.81025e-05, 0.397146, 0.362316, 0.281833, 0.00199935, 0.00208929, 0.0119397
0.010711, -0.0130721, -0.550419, 0.000173663, 7.05516e-05, -6.78064e-05, 0.400647, 0.363864, 0.281886, 0.00199816, 0.00206874, 0.0118864
0.0115574, -0.0136584, -0.550739, 0.000172875, 7.2307e-05, -7.8105e-05, 0.402886, 0.364794, 0.282291, 0.00199703, 0.00204779, 0.0118387
0.0117981, -0.0131568, -0.553056, 0.00017245, 7.19926e-05, -7.61621e-05, 0.403799, 0.364822, 0.282779, 0.00199545, 0.00202697, 0.0117943
0.0114099, -0.0126996, -0.553308, 0.000172442, 7.01743e-05, -7.0718e-05, 0.403188, 0.363847, 0.283086, 0.00199294, 0.00200643, 0.0117579
0.0108073, -0.0121203, -0.552505, 0.000172504, 6.77846e-05, -6.56011e-05, 0.400782, 0.361804, 0.283108, 0.00198928, 0.00198642, 0.0117311
0.0105308, -0.0116733, -0.55243, 0.000172114, 6.6253e-05, -6.25691e-05, 0.396435, 0.358724, 0.282902, 0.00198418, 0.00196668, 0.0117132
0.00991811, -0.0109213, -0.55297, 0.000171717, 6.35231e-05, -5.8637e-05, 0.390341, 0.354834, 0.282327, 0.00197763, 0.00194685, 0.0117015
0.00939082, -0.00997083, -0.551688, 0.000171016, 6.16594e-05, -5.64048e-05, 0.382998, 0.350486, 0.281586, 0.00197026, 0.00192724, 0.0116933
0.00924058, -0.00945943, -0.5508, 0.000170327, 6.09698e-05, -5.48184e-05, 0.375058, 0.346077, 0.281002, 0.00196305, 0.00190901, 0.0116881
0.00784113, -0.00905791, -0.551592, 0.000170625, 5.74197e-05, -4.96106e-05, 0.367053, 0.341959, 0.280707, 0.00195634, 0.00189314, 0.0116851
0.00595, -0.00856564, -0.55286, 0.000171307, 5.31661e-05, -4.57568e-05, 0.359627, 0.338464, 0.28055, 0.00194952, 0.00188025, 0.0116826
0.00432292, -0.00825663, -0.553554, 0.000171984, 5.00265e-05, -4.3916e-05, 0.353359, 0.335841, 0.280416, 0.00194269, 0.0018707, 0.0116779
0.00338159, -0.00872393, -0.554343, 0.000173326, 4.87138e-05, -4.5614e-05, 0.34855, 0.334196, 0.280307, 0.00193663, 0.00186416, 0.0116703
0.00294702, -0.00880559, -0.554259, 0.000173676, 4.79847e-05, -4.50578e-05, 0.345262, 0.333455, 0.280229, 0.00193233, 0.00186018, 0.0116622
0.00290822, -0.00916851, -0.552691, 0.000173818, 4.78806e-05, -4.44794e-05, 0.343473, 0.333471, 0.280133, 0.0019299, 0.00185822, 0.0116554
0.00222596, -0.0087306, -0.553219, 0.000173614, 4.70032e-05, -4.06035e-05, 0.343287, 0.334265, 0.280005, 0.00192867, 0.00185755, 0.0116479
0.00218804, -0.00886554, -0.555124, 0.000173413, 4.58837e-05, -3.8675e-05, 0.344665, 0.335801, 0.279848, 0.00192803, 0.00185679, 0.0116378
0.00233114, -0.00918698, -0.557241, 0.000173067, 4.48272e-05, -3.84671e-05, 0.347296, 0.337928, 0.279769, 0.00192763, 0.00185492, 0.0116276
0.00324757, -0.00925653, -0.55946, 0.000173284, 4.32815e-05, -3.85703e-05, 0.350822, 0.340387, 0.279787, 0.00192691, 0.00185083, 0.011621
0.00396639, -0.00946354, -0.562754, 0.000173272, 4.32719e-05, -4.08017e-05, 0.354914, 0.342943, 0.27994, 0.0019251, 0.00184334, 0.0116182
0.00500167, -0.00987298, -0.564638, 0.000173881, 4.20171e-05, -4.23826e-05, 0.359341, 0.34546, 0.28035, 0.0019217, 0.00183128, 0.0116161
0.00560475, -0.0107382, -0.562371, 0.000173992, 3.55888e-05, -3.34611e-05, 0.36405, 0.347829, 0.280982, 0.00191646, 0.00181478, 0.0116112
0.00566381, -0.0118037, -0.56239, 0.000172474, 3.24931e-05, -2.79458e-05, 0.368815, 0.349884, 0.281676, 0.00190954, 0.00179515, 0.0116018
0.00538442, -0.0130122, -0.561483, 0.000170626, 2.86677e-05, -2.11011e-05, 0.373296, 0.351486, 0.282246, 0.00190145, 0.00177338, 0.0115875
0.00524235, -0.0146702, -0.561232, 0.000168655, 2.35467e-05, -1.11757e-05, 0.376997, 0.352457, 0.282466, 0.00189299, 0.0017515, 0.0115699
0.00506848, -0.0153173, -0.560971, 0.000167974, 2.17926e-05, -8.59866e-06, 0.379395, 0.352586, 0.282337, 0.00188463, 0.00173091, 0.01155
0.00510803, -0.0148016, -0.56205, 0.000168339, 2.29931e-05, -1.24e-05, 0.380161, 0.351763, 0.282007, 0.00187682, 0.00171202, 0.0115283
0.00476778, -0.0133092, -0.562637, 0.000168519, 2.65268e-05, -2.3777e-05, 0.379235, 0.350069, 0.281591, 0.00187039, 0.00169482, 0.0115072
0.00409322, -0.012454, -0.562598, 0.000168164, 2.81633e-05, -3.26245e-05, 0.376666, 0.347626, 0.281288, 0.00186593, 0.00167944, 0.011486
0.00351516, -0.0114344, -0.561923, 0.000168191, 2.99361e-05, -4.32061e-05, 0.372642, 0.344615, 0.281089, 0.00186306, 0.00166598, 0.0114631
0.00241841, -0.0106659, -0.561931, 0.000167859, 3.04101e-05, -5.40236e-05, 0.367639, 0.341346, 0.280939, 0.00186135, 0.00165466, 0.0114376
0.00194509, -0.0108965, -0.562063, 0.000167933, 2.97009e-05, -5.67758e-05, 0.36233, 0.338236, 0.280858, 0.00186049, 0.00164565, 0.0114075
0.000991611, -0.00951792, -0.559449, 0.000168095, 3.04971e-05, -6.9491e-05, 0.357599, 0.335751, 0.280747, 0.00185998, 0.00163937, 0.0113765
0.00024263, -0.00894271, -0.559492, 0.000168568, 3.04781e-05, -7.80889e-05, 0.354164, 0.334259, 0.280571, 0.00185962, 0.00163573, 0.0113518
0.000110786, -0.00752969, -0.557871, 0.000169241, 3.14726e-05, -8.67486e-05, 0.352237, 0.333782, 0.280429, 0.00185931, 0.00163392, 0.0113329
0.000172081, -0.00639352, -0.555387, 0.00016953, 3.22402e-05, -9.05964e-05, 0.351587, 0.334047, 0.280369, 0.00185889, 0.001633, 0.0113178
0.00013427, -0.00642626, -0.554501, 0.000169407, 3.21068e-05, -8.95102e-05, 0.351754, 0.33462, 0.280399, 0.00185832, 0.00163218, 0.0113044
-0.000429464, -0.00766576, -0.55462, 0.000169242, 3.14535e-05, -8.92767e-05, 0.352135, 0.335112, 0.280496, 0.00185753, 0.00163084, 0.011291
-0.000688639, -0.00906618, -0.551602, 0.000167929, 2.94431e-05, -8.21689e-05, 0.352553, 0.335448, 0.28063, 0.00185648, 0.00162873, 0.0112779
-0.00168218, -0.0102544, -0.549351, 0.000166965, 2.79193e-05, -7.93704e-05, 0.353051, 0.33574, 0.280869, 0.00185519, 0.00162585, 0.0112659
-0.00318712, -0.0115571, -0.546991, 0.000166507, 2.69294e-05, -8.17946e-05, 0.353826, 0.336026, 0.281196, 0.00185394, 0.00162272, 0.0112537
-0.00416476, -0.0127522, -0.547188, 0.000167399, 2.78933e-05, -9.2696e-05, 0.354991, 0.336356, 0.28148, 0.00185258, 0.00161979, 0.011234
-0.00527059, -0.0135392, -0.548312, 0.000168961, 2.97412e-05, -0.000104975, 0.356404, 0.336852, 0.28162, 0.00185039, 0.00161674, 0.0111982
-0.00654034, -0.0136155, -0.549099, 0.000169834, 3.09811e-05, -0.000106626, 0.357947, 0.337585, 0.28141, 0.001847, 0.00161285, 0.0111448
-0.00769524, -0.0132217, -0.55013, 0.000169724, 3.08958e-05, -9.79722e-05, 0.359473, 0.338463, 0.280917, 0.0018424, 0.00160694, 0.0110776
-0.00792302, -0.0125144, -0.551882, 0.000168061, 2.82414e-05, -8.27257e-05, 0.36103, 0.33931, 0.280289, 0.00183641, 0.00159759, 0.0109995
-0.0070786, -0.012258, -0.554598, 0.000166077, 2.40687e-05, -7.5935e-05, 0.362588, 0.339972, 0.279918, 0.00182987, 0.00158554, 0.0109213
-0.00613155, -0.0119081, -0.556287, 0.000164429, 2.09646e-05, -7.25984e-05, 0.363982, 0.340297, 0.279966, 0.0018241, 0.00157255, 0.0108563
-0.00375171, -0.0110258, -0.5583, 0.000161498, 1.62064e-05, -7.22244e-05, 0.365168, 0.340215, 0.280404, 0.00181967, 0.00155951, 0.0108096
-0.00101717, -0.0110206, -0.560041, 0.000159738, 1.37202e-05, -8.27181e-05, 0.366035, 0.33972, 0.281127, 0.0018169, 0.00154763, 0.0107819
0.00143106, -0.0115107, -0.562156, 0.00015824, 1.19425e-05, -9.29528e-05, 0.366478, 0.338859, 0.282011, 0.00181548, 0.00153743, 0.0107675
0.00369821, -0.0120479, -0.562863, 0.000157399, 1.21115e-05, -0.000102493, 0.366276, 0.337749, 0.282884, 0.00181486, 0.00152923, 0.0107603
0.00356485, -0.0123733, -0.563437, 0.000157292, 1.18958e-05, -0.000101931, 0.365259, 0.33649, 0.283607, 0.00181435, 0.00152309, 0.0107545
0.00506387, -0.0125316, -0.563145, 0.000156783, 1.27152e-05, -0.000104807, 0.363703, 0.335153, 0.28429, 0.0018132, 0.00151805, 0.0107454
0.00665114, -0.0127085, -0.563052, 0.000156151, 1.34692e-05, -0.000106423, 0.36109, 0.333834, 0.284712, 0.00181096, 0.00151449, 0.0107269
0.00832473, -0.0124332, -0.563239, 0.000155886, 1.39631e-05, -0.000110617, 0.357657, 0.332666, 0.28498, 0.0018074, 0.00151162, 0.0106973
0.0106144, -0.0123592, -0.564788, 0.000155092, 1.39568e-05, -0.000114836, 0.353853, 0.331824, 0.285279, 0.00180294, 0.00150898, 0.0106616
0.0131762, -0.0115627, -0.566341, 0.00015546, 1.45056e-05, -0.000125533, 0.349757, 0.331348, 0.285472, 0.00179751, 0.00150702, 0.0106185
0.0129661, -0.0104957, -0.565901, 0.0001571, 1.44144e-05, -0.000134097, 0.346055, 0.331258, 0.285592, 0.00179051, 0.00150579, 0.0105618
0.0119742, -0.00997125, -0.564572, 0.000157816, 1.36569e-05, -0.000133558, 0.343933, 0.331565, 0.286192, 0.00178242, 0.00150479, 0.0104962
0.00941246, -0.0102775, -0.562189, 0.000157088, 1.18943e-05, -0.000121459, 0.343763, 0.332211, 0.287495, 0.00177393, 0.00150392, 0.0104277
0.00813727, -0.0111884, -0.559948, 0.000155032, 1.0599e-05, -0.000103257, 0.34522, 0.333079, 0.289324, 0.00176637, 0.0015031, 0.0103669
0.00638743, -0.0120252, -0.56084, 0.000154618, 1.10732e-05, -0.000100462, 0.347688, 0.334019, 0.29127, 0.00176044, 0.00150219, 0.0103197
0.00437185, -0.0111966, -0.563399, 0.000157136, 1.30423e-05, -0.000117053, 0.350542, 0.334935, 0.292892, 0.00175582, 0.00150094, 0.0102833
0.00266592, -0.0118517, -0.561445, 0.000156783, 1.38452e-05, -0.000113558, 0.353897, 0.335808, 0.294074, 0.00175178, 0.00149864, 0.0102507
0.000803824, -0.0122415, -0.559764, 0.000157265, 1.55463e-05, -0.000116728, 0.357316, 0.336632, 0.294575, 0.00174834, 0.00149547, 0.0102224
0.000215819, -0.0121759, -0.557721, 0.000157633, 1.57665e-05, -0.000120521, 0.360665, 0.337379, 0.294332, 0.00174556, 0.00149155, 0.0101992
-0.00112055, -0.0114831, -0.555317, 0.000159048, 1.68361e-05, -0.000132382, 0.363981, 0.338086, 0.293459, 0.00174314, 0.00148677, 0.010179
-0.00203983, -0.0114711, -0.553613, 0.000159506, 1.6841e-05, -0.000137768, 0.367177, 0.338759, 0.292139, 0.001741, 0.00148108, 0.0101618
-0.0036504, -0.0113666, -0.552497, 0.000160528, 1.78633e-05, -0.000146083, 0.369896, 0.339349, 0.290548, 0.00173931, 0.001475, 0.0101493
-0.0049346, -0.0117863, -0.552194, 0.000161189, 1.87748e-05, -0.000150857, 0.371683, 0.339785, 0.288832, 0.00173815, 0.00146954, 0.0101413
-0.00676405, -0.0119721, -0.551326, 0.000161998, 1.89528e-05, -0.000157643, 0.37243, 0.340057, 0.287251, 0.00173729, 0.00146479, 0.0101358
-0.00789547, -0.0126028, -0.553234, 0.000163091, 2.15097e-05, -0.000160378, 0.372173, 0.340207, 0.285971, 0.0017366, 0.00146123, 0.0101308
-0.00793648, -0.0139899, -0.55535, 0.000164155, 2.37466e-05, -0.000163046, 0.371343, 0.340204, 0.28521, 0.0017359, 0.00145888, 0.0101233
-0.00657297, -0.0148139, -0.558792, 0.000164695, 2.67044e-05, -0.000159161, 0.370582, 0.340125, 0.285174, 0.00173495, 0.00145709, 0.0101108
-0.00760384, -0.0151958, -0.558434, 0.000165145, 2.6399e-05, -0.000162507, 0.370096, 0.340062, 0.285802, 0.0017338, 0.00145515, 0.0100954
-0.00610926, -0.0149404, -0.561444, 0.000165164, 2.85051e-05, -0.000155709, 0.370125, 0.340027, 0.286934, 0.00173234, 0.00145333, 0.0100764
-0.00610677, -0.0146574, -0.562121, 0.000165049, 2.88241e-05, -0.000152488, 0.370678, 0.339968, 0.288353, 0.00173035, 0.00145159, 0.0100523
-0.0066103, -0.0136624, -0.561462, 0.000164128, 2.77707e-05, -0.000145251, 0.370973, 0.339953, 0.289609, 0.00172832, 0.00144944, 0.0100289
-0.0062805, -0.0129033, -0.561594, 0.000163522, 2.74717e-05, -0.000139693, 0.371645, 0.339964, 0.290666, 0.00172621, 0.00144758, 0.0100057
-0.00456005, -0.012045, -0.562492, 0.000163149, 2.72982e-05, -0.000135816, 0.372291, 0.339998, 0.291278, 0.00172438, 0.00144586, 0.00998622
-0.00224745, -0.0114783, -0.563327, 0.000163, 2.67316e-05, -0.000134422, 0.37299, 0.340069, 0.291401, 0.0017231, 0.00144449, 0.00997286
-0.000220751, -0.010991, -0.563138, 0.000162665, 2.55127e-05, -0.000131765, 0.374061, 0.340142, 0.291099, 0.0017222, 0.00144342, 0.00996386
0.0021129, -0.0106337, -0.561, 0.000162041, 2.41503e-05, -0.000126744, 0.37576, 0.340203, 0.290469, 0.00172146, 0.00144199, 0.00995699
0.00484524, -0.0105585, -0.560069, 0.000161515, 2.25035e-05, -0.000122707, 0.37781, 0.340254, 0.289554, 0.0017209, 0.00143953, 0.00995225
0.00681177, -0.0116068, -0.560829, 0.000161089, 2.03443e-05, -0.000120624, 0.379782, 0.340308, 0.288448, 0.00172052, 0.00143575, 0.00994981
0.00892259, -0.01258, -0.5615, 0.000160495, 1.79554e-05, -0.00011714, 0.381308, 0.340391, 0.287324, 0.00172014, 0.00143036, 0.00994814
0.0108713, -0.0125699, -0.561876, 0.000160073, 1.63833e-05, -0.000114565, 0.381886, 0.340551, 0.286321, 0.00171952, 0.00142381, 0.00994509
0.0130157, -0.012693, -0.562068, 0.000159696, 1.54973e-05, -0.00011208, 0.381192, 0.340865, 0.285557, 0.00171836, 0.00141656, 0.00993845
0.0151122, -0.0127691, -0.563604, 0.00015891, 1.29736e-05, -0.00010849, 0.379195, 0.34139, 0.285155, 0.0017165, 0.0014086, 0.00992745
0.0183123, -0.0128801, -0.56492, 0.000158259, 1.15297e-05, -0.000105201, 0.375993, 0.342178, 0.285172, 0.00171375, 0.00139997, 0.00991111
0.0193061, -0.0129475, -0.565902, 0.000157749, 1.04787e-05, -0.000102427, 0.37178, 0.343302, 0.285509, 0.0017098, 0.001392, 0.00988719
0.018707, -0.0127404, -0.565966, 0.000157792, 1.00273e-05, -0.000101502, 0.367311, 0.344815, 0.286081, 0.00170438, 0.00138589, 0.00985298
0.016819, -0.0120669, -0.565733, 0.000158621, 9.37478e-06, -0.000105443, 0.363606, 0.346679, 0.286992, 0.00169772, 0.00138139, 0.00980979
0.0143493, -0.0117823, -0.565324, 0.000158742, 8.46424e-06, -0.00010539, 0.361297, 0.34882, 0.288296, 0.00169032, 0.00137818, 0.0097605
0.0104305, -0.0123199, -0.564381, 0.000157363, 7.18642e-06, -9.63302e-05, 0.360374, 0.351137, 0.289909, 0.00168299, 0.00137581, 0.00971065
0.00894032, -0.0133609, -0.561649, 0.000155631, 7.55388e-06, -8.1771e-05, 0.36087, 0.353491, 0.291647, 0.0016764, 0.00137416, 0.0096648
0.00595339, -0.014468, -0.562221, 0.000153804, 7.39673e-06, -7.06315e-05, 0.362772, 0.355807, 0.293344, 0.00167061, 0.00137266, 0.00962298
0.00397181, -0.0152267, -0.561635, 0.000152974, 8.42581e-06, -6.46599e-05, 0.365657, 0.357988, 0.294783, 0.00166573, 0.0013706, 0.00958622
0.00212974, -0.0156889, -0.560407, 0.000152927, 1.03133e-05, -6.34645e-05, 0.369363, 0.359917, 0.295792, 0.00166196, 0.00136758, 0.00955667
0.000378691, -0.0153816, -0.559376, 0.000153911, 1.29219e-05, -6.89902e-05, 0.373818, 0.361606, 0.296279, 0.00165899, 0.00136309, 0.00953216
-0.00065401, -0.015284, -0.556916, 0.000154068, 1.34219e-05, -6.96287e-05, 0.378876, 0.363103, 0.296225, 0.00165647, 0.00135655, 0.00951041
-0.00259147, -0.0152719, -0.555713, 0.000154757, 1.6029e-05, -7.48299e-05, 0.383923, 0.364245, 0.295601, 0.00165475, 0.00134853, 0.00949526
-0.00453314, -0.0148706, -0.555547, 0.000155648, 1.88833e-05, -8.12599e-05, 0.3878, 0.364784, 0.294299, 0.00165408, 0.00134183, 0.00948969
-0.00594915, -0.0145368, -0.555934, 0.000156142, 2.08798e-05, -8.43132e-05, 0.390256, 0.364698, 0.292544, 0.00165381, 0.00133597, 0.00948787
-0.00642894, -0.014276, -0.555604, 0.000156073, 2.07186e-05, -8.4041e-05, 0.391506, 0.364392, 0.290763, 0.00165336, 0.00132852, 0.00948527
-0.00926256, -0.0143082, -0.555577, 0.000156673, 2.19436e-05, -8.86162e-05, 0.391303, 0.364175, 0.289277, 0.00165262, 0.00131814, 0.00948129
-0.0109428, -0.01444, -0.55711, 0.00015785, 2.5047e-05, -9.55692e-05, 0.389226, 0.363926, 0.288213, 0.00165169, 0.00130698, 0.00947602
-0.0132798, -0.0152461, -0.558059, 0.00015883, 2.63462e-05, -0.000102485, 0.38548, 0.363625, 0.28771, 0.00165059, 0.00129542, 0.00946835
-0.0147358, -0.0162061, -0.558802, 0.000159565, 2.68809e-05, -0.00010724, 0.380787, 0.363249, 0.287627, 0.00164951, 0.00128673, 0.00945909
-0.0152166, -0.0180777, -0.5597, 0.00016104, 2.81206e-05, -0.000117584, 0.376136, 0.362772, 0.288016, 0.00164829, 0.00128014, 0.00944618
-0.0142848, -0.0193108, -0.563797, 0.000163121, 3.26661e-05, -0.000127379, 0.372415, 0.362225, 0.288871, 0.0016469, 0.0012754, 0.00943039
-0.0114278, -0.0197717, -0.568414, 0.000164816, 3.74279e-05, -0.000133132, 0.370252, 0.361524, 0.290134, 0.00164518, 0.00127242, 0.00941083
-0.0100846, -0.0187357, -0.570181, 0.000164648, 3.88357e-05, -0.000128603, 0.368927, 0.360728, 0.291625, 0.00164322, 0.00126983, 0.00938955
-0.00789879, -0.01863, -0.57105, 0.000165202, 4.03942e-05, -0.000131621, 0.367233, 0.360017, 0.293054, 0.00164142, 0.0012664, 0.00937107
-0.00674233, -0.0185591, -0.570416, 0.00016507, 3.99893e-05, -0.00013053, 0.364771, 0.35951, 0.294288, 0.00163993, 0.00126171, 0.00935632
-0.00617144, -0.0190786, -0.569104, 0.000164626, 3.84131e-05, -0.000127421, 0.361821, 0.359263, 0.295399, 0.00163869, 0.00125613, 0.00934399
-0.00663176, -0.0195105, -0.5666, 0.00016321, 3.50534e-05, -0.00011718, 0.359105, 0.359242, 0.296486, 0.00163765, 0.00125083, 0.00933326
-0.00765431, -0.0199112, -0.564137, 0.000161825, 3.23078e-05, -0.000107124, 0.35733, 0.359379, 0.29749, 0.00163687, 0.00124695, 0.00932444
-0.00853395, -0.0203586, -0.562106, 0.000160965, 3.08393e-05, -0.000101119, 0.356713, 0.359705, 0.298242, 0.00163636, 0.0012446, 0.00931777
-0.00821834, -0.0210361, -0.56301, 0.000161285, 3.12547e-05, -0.000104832, 0.357174, 0.360316, 0.298511, 0.00163612, 0.0012433, 0.00931343
-0.0100589, -0.0211116, -0.560934, 0.000161032, 3.20807e-05, -0.00010272, 0.358407, 0.361285, 0.298217, 0.00163604, 0.0012423, 0.00931101
-0.0114142, -0.0217569, -0.559999, 0.00016094, 3.32645e-05, -0.000103494, 0.360172, 0.362642, 0.297342, 0.00163592, 0.00124102, 0.00931003
-0.0125841, -0.0225365, -0.554388, 0.000161634, 3.6523e-05, -0.000106392, 0.362151, 0.364277, 0.296094, 0.00163558, 0.00123932, 0.00930952
-0.0133145, -0.0233123, -0.550082, 0.000162513, 3.961e-05, -0.000110675, 0.364107, 0.365995, 0.294602, 0.00163506, 0.00123727, 0.00930876
-0.0134724, -0.0236516, -0.549037, 0.000162743, 4.046e-05, -0.000112095, 0.365868, 0.367654, 0.293039, 0.00163445, 0.00123506, 0.00930765
-0.0141791, -0.0238463, -0.552818, 0.000161337, 3.80261e-05, -0.000106527, 0.367346, 0.369154, 0.291574, 0.00163381, 0.00123296, 0.00930627
-0.0139041, -0.0241841, -0.552625, 0.000161312, 3.80645e-05, -0.000106613, 0.36843, 0.370374, 0.29015, 0.00163316, 0.00123092, 0.00930447
-0.0135446, -0.0246435, -0.553163, 0.000160998, 3.75239e-05, -0.000105143, 0.369045, 0.371199, 0.288831, 0.00163254, 0.00122906, 0.00930219
-0.012789, -0.0241882, -0.554149, 0.000160823, 3.68017e-05, -0.000104147, 0.369066, 0.371426, 0.287531, 0.00163206, 0.00122727, 0.00929979
-0.0113979, -0.0230767, -0.5554, 0.000160451, 3.60471e-05, -0.000102204, 0.368438, 0.370918, 0.286226, 0.00163167, 0.0012255, 0.00929761
-0.00956205, -0.0212113, -0.558034, 0.000158957, 3.43842e-05, -9.44212e-05, 0.367168, 0.36966, 0.284791, 0.00163107, 0.00122346, 0.00929481
-0.00772074, -0.0189887, -0.559527, 0.000157107, 3.34892e-05, -8.47421e-05, 0.365562, 0.367878, 0.283331, 0.00162995, 0.00122118, 0.00928977
-0.00461536, -0.0170039, -0.560102, 0.00015507, 3.34309e-05, -7.30794e-05, 0.364062, 0.365973, 0.28207, 0.00162856, 0.00121912, 0.00928308
-0.0017701, -0.0149471, -0.560146, 0.000152886, 3.36009e-05, -6.07842e-05, 0.362928, 0.364267, 0.281153, 0.00162722, 0.00121765, 0.00927583
0.000380367, -0.0132234, -0.561088, 0.000150893, 3.32542e-05, -4.9618e-05, 0.362272, 0.362919, 0.280583, 0.00162599, 0.00121687, 0.00926781
0.00266763, -0.0116586, -0.562454, 0.000148808, 3.27656e-05, -3.74138e-05, 0.36211, 0.361977, 0.280243, 0.00162477, 0.00121648, 0.00925818
0.00441934, -0.0107359, -0.562908, 0.000147476, 3.25194e-05, -2.87495e-05, 0.362364, 0.361417, 0.280051, 0.00162362, 0.00121629, 0.00924818
0.00565119, -0.0106242, -0.55932, 0.00014693, 3.26101e-05, -2.33808e-05, 0.36288, 0.361268, 0.27999, 0.00162278, 0.00121618, 0.00924023
0.00540692, -0.0103972, -0.55637, 0.000146946, 3.24791e-05, -2.27534e-05, 0.363497, 0.361496, 0.280034, 0.00162224, 0.00121607, 0.00923502
0.00456101, -0.0100211, -0.557219, 0.000147235, 3.2688e-05, -2.4812e-05, 0.364131, 0.361966, 0.280071, 0.00162189, 0.00121592, 0.00923227
0.00330774, -0.0105248, -0.556288, 0.000147296, 3.28432e-05, -2.56655e-05, 0.364723, 0.36264, 0.280106, 0.00162166, 0.00121578, 0.00923122
0.00166812, -0.0109786, -0.555977, 0.000147197, 3.30951e-05, -2.53363e-05, 0.365255, 0.363472, 0.28019, 0.00162147, 0.00121557, 0.00923079
-0.000176877, -0.0116806, -0.555982, 0.000146878, 3.3547e-05, -2.41561e-05, 0.365857, 0.364476, 0.280309, 0.00162131, 0.00121527, 0.00922995
-0.00214342, -0.0127403, -0.555212, 0.000146392, 3.40441e-05, -2.25125e-05, 0.366647, 0.365737, 0.280448, 0.00162111, 0.00121483, 0.00922855
-0.00428867, -0.0137528, -0.554292, 0.000145783, 3.46636e-05, -2.00129e-05, 0.36767, 0.36731, 0.280635, 0.00162085, 0.00121421, 0.00922687
-0.00695539, -0.0153551, -0.553761, 0.000144843, 3.59458e-05, -1.72722e-05, 0.368939, 0.369174, 0.28078, 0.00162051, 0.00121353, 0.009225
-0.00949818, -0.0169989, -0.552441, 0.000143839, 3.7338e-05, -1.46291e-05, 0.370412, 0.371281, 0.280828, 0.00162017, 0.00121282, 0.00922222
-0.0122229, -0.0182114, -0.551896, 0.000142878, 3.89236e-05, -1.02377e-05, 0.372108, 0.373615, 0.280815, 0.00161985, 0.00121199, 0.00921782
-0.0137662, -0.0191966, -0.553432, 0.00014227, 4.01418e-05, -8.32446e-06, 0.374037, 0.376157, 0.280849, 0.00161959, 0.00121102, 0.00921161
-0.0142607, -0.0203665, -0.558798, 0.000141914, 4.13388e-05, -8.86215e-06, 0.376208, 0.378885, 0.280903, 0.00161936, 0.00120993, 0.00920433
-0.0156808, -0.0217828, -0.559464, 0.000141304, 4.27706e-05, -9.98932e-06, 0.378536, 0.381749, 0.281002, 0.00161914, 0.00120884, 0.00919785
-0.0169882, -0.0226931, -0.560355, 0.000140875, 4.38943e-05, -9.91408e-06, 0.3809, 0.384584, 0.281094, 0.00161893, 0.00120787, 0.00919229
-0.0179712, -0.0239937, -0.560522, 0.00014046, 4.48488e-05, -1.17169e-05, 0.383171, 0.387233, 0.281159, 0.00161876, 0.00120708, 0.00918831
-0.0195098, -0.025511, -0.556181, 0.000140117, 4.58606e-05, -1.38526e-05, 0.38523, 0.389541, 0.2812, 0.00161861, 0.00120649, 0.00918636
-0.0199544, -0.0265926, -0.555168, 0.000139756, 4.60607e-05, -1.39761e-05, 0.386861, 0.391386, 0.281309, 0.00161843, 0.00120611, 0.00918571
-0.0195797, -0.027481, -0.556092, 0.00013957, 4.60826e-05, -1.40502e-05, 0.387981, 0.392614, 0.281396, 0.00161825, 0.00120591, 0.00918526
-0.0186363, -0.0276494, -0.55557, 0.000139519, 4.59135e-05, -1.37432e-05, 0.388506, 0.393161, 0.281456, 0.00161814, 0.00120584, 0.00918476
-0.0174751, -0.027348, -0.556051, 0.000139642, 4.58854e-05, -1.41656e-05, 0.388423, 0.393054, 0.281516, 0.00161804, 0.00120581, 0.00918409
-0.0160738, -0.0266688, -0.558542, 0.000140014, 4.60842e-05, -1.63513e-05, 0.387755, 0.392299, 0.281519, 0.00161791, 0.00120574, 0.00918319
-0.0137162, -0.0260628, -0.561482, 0.000140514, 4.64233e-05, -1.91789e-05, 0.386568, 0.390947, 0.281446, 0.00161779, 0.00120552, 0.00918182
-0.0113977, -0.0245991, -0.562382, 0.000140789, 4.7148e-05, -2.22443e-05, 0.384995, 0.389102, 0.281341, 0.00161773, 0.00120511, 0.00917891
-0.00845886, -0.0227681, -0.562243, 0.000140783, 4.83082e-05, -2.48066e-05, 0.383209, 0.386935, 0.281175, 0.0016176, 0.0012045, 0.00917184
-0.00515669, -0.0207599, -0.561116, 0.000140317, 4.98127e-05, -2.54424e-05, 0.381404, 0.384644, 0.280936, 0.00161733, 0.00120378, 0.00916149
-0.00162439, -0.0186655, -0.560289, 0.000139225, 5.12527e-05, -2.21475e-05, 0.379796, 0.382366, 0.280676, 0.00161696, 0.00120312, 0.00915172
0.00104158, -0.0157768, -0.559828, 0.000137732, 5.24042e-05, -1.85736e-05, 0.378574, 0.380188, 0.280417, 0.00161636, 0.00120261, 0.00914355
0.0033354, -0.0134823, -0.558211, 0.000136009, 5.33798e-05, -1.16941e-05, 0.377851, 0.378257, 0.280183, 0.00161542, 0.00120225, 0.00913553
0.00616451, -0.0121355, -0.557862, 0.000133986, 5.36338e-05, 1.1183e-06, 0.377668, 0.376729, 0.280036, 0.00161427, 0.00120208, 0.00912623
0.00858147, -0.011109, -0.558698, 0.000132353, 5.34481e-05, 1.26749e-05, 0.37798, 0.375716, 0.27996, 0.00161318, 0.00120196, 0.00911614
0.00996758, -0.0110325, -0.559444, 0.000131696, 5.32585e-05, 1.8189e-05, 0.378557, 0.375232, 0.279964, 0.00161245, 0.00120188, 0.0091084
0.010418, -0.0111021, -0.557798, 0.000131438, 5.31544e-05, 2.01993e-05, 0.379247, 0.375227, 0.279999, 0.00161208, 0.00120178, 0.00910407
0.00989457, -0.0114276, -0.555636, 0.00013146, 5.32051e-05, 2.01387e-05, 0.38001, 0.375682, 0.28002, 0.00161186, 0.00120165, 0.00910223
0.00949118, -0.0121616, -0.552992, 0.000131163, 5.30755e-05, 2.1521e-05, 0.380753, 0.37658, 0.280068, 0.00161153, 0.00120148, 0.00910121
0.00845475, -0.0133729, -0.552638, 0.000130294, 5.31474e-05, 2.52611e-05, 0.381399, 0.377856, 0.280179, 0.00161078, 0.00120126, 0.00909874
0.00668308, -0.0140243, -0.553445, 0.000129182, 5.35666e-05, 3.13478e-05, 0.382085, 0.379408, 0.280255, 0.00160968, 0.00120108, 0.00909455
0.00476374, -0.0150761, -0.552257, 0.00012794, 5.40326e-05, 3.77627e-05, 0.382977, 0.38117, 0.280271, 0.00160854, 0.00120087, 0.00909032
0.00313047, -0.0159646, -0.551016, 0.000127045, 5.46521e-05, 4.18929e-05, 0.384145, 0.383114, 0.280241, 0.00160757, 0.00120055, 0.00908676
0.000799851, -0.0169691, -0.549946, 0.000125947, 5.58004e-05, 4.69779e-05, 0.385626, 0.385253, 0.280161, 0.00160677, 0.00120004, 0.00908373
-0.00109746, -0.0180572, -0.54937, 0.000125026, 5.69769e-05, 4.98956e-05, 0.387454, 0.387609, 0.280086, 0.00160616, 0.00119932, 0.00908119
-0.00274898, -0.018828, -0.548199, 0.000124622, 5.81583e-05, 5.05634e-05, 0.389674, 0.390198, 0.280035, 0.00160568, 0.00119832, 0.00907924
-0.00428519, -0.0192684, -0.548294, 0.000124525, 5.94013e-05, 5.00693e-05, 0.392382, 0.393003, 0.279932, 0.00160534, 0.00119681, 0.00907663
-0.00481398, -0.0205487, -0.552882, 0.00012382, 5.98147e-05, 4.77608e-05, 0.395528, 0.395987, 0.279831, 0.00160505, 0.00119479, 0.009072
-0.0060058, -0.0217397, -0.561626, 0.000123193, 6.03684e-05, 4.54037e-05, 0.398896, 0.399049, 0.279767, 0.00160479, 0.00119255, 0.00906502
-0.00824461, -0.0232102, -0.564654, 0.000123735, 6.28263e-05, 3.44651e-05, 0.402305, 0.402042, 0.279721, 0.00160454, 0.00119033, 0.0090563
-0.00958039, -0.0248336, -0.565758, 0.000123855, 6.45101e-05, 2.61641e-05, 0.405535, 0.404975, 0.279756, 0.00160416, 0.00118864, 0.00905179
-0.00997331, -0.0267549, -0.571598, 0.00012323, 6.61669e-05, 2.07207e-05, 0.408363, 0.407738, 0.27989, 0.00160323, 0.00118736, 0.00904885
-0.0108184, -0.028636, -0.568426, 0.000121459, 6.5342e-05, 2.93682e-05, 0.410624, 0.410139, 0.280124, 0.00160154, 0.00118624, 0.0090422
-0.0113929, -0.0298975, -0.562339, 0.000119743, 6.33165e-05, 4.15709e-05, 0.41223, 0.411998, 0.280423, 0.00159981, 0.00118539, 0.00903347
-0.01131, -0.0301503, -0.560993, 0.000119456, 6.28894e-05, 4.38782e-05, 0.413017, 0.41319, 0.280731, 0.00159854, 0.00118488, 0.0090258
-0.0119546, -0.0299129, -0.556555, 0.000119159, 6.19658e-05, 4.67354e-05, 0.413044, 0.413744, 0.281046, 0.00159744, 0.00118444, 0.00901749
-0.0123985, -0.0292637, -0.552684, 0.000119115, 6.12395e-05, 4.6916e-05, 0.412495, 0.413723, 0.281392, 0.00159645, 0.00118386, 0.00900802
-0.0118264, -0.0279677, -0.552458, 0.000119645, 6.16864e-05, 4.20188e-05, 0.411336, 0.412963, 0.281616, 0.00159594, 0.00118333, 0.00900112
-0.0101064, -0.0265669, -0.552372, 0.000120046, 6.24667e-05, 3.77268e-05, 0.409525, 0.411261, 0.281716, 0.00159584, 0.00118281, 0.00899823
-0.00777646, -0.0243969, -0.553345, 0.000119634, 6.36112e-05, 3.70469e-05, 0.407084, 0.408529, 0.281696, 0.00159554, 0.00118229, 0.00899777
-0.00427911, -0.0219127, -0.554851, 0.000118215, 6.50736e-05, 4.24898e-05, 0.404259, 0.405007, 0.281565, 0.00159427, 0.00118171, 0.00899571
-0.000637701, -0.0195772, -0.555727, 0.000116191, 6.64712e-05, 5.21388e-05, 0.401401, 0.401159, 0.281437, 0.00159186, 0.00118104, 0.0089897
0.00287153, -0.0175754, -0.556712, 0.000114074, 6.77538e-05, 6.34406e-05, 0.398809, 0.3974, 0.281392, 0.00158861, 0.00118033, 0.00897961
0.00568833, -0.0153989, -0.55708, 0.000111501, 6.8533e-05, 7.74957e-05, 0.39677, 0.394039, 0.28141, 0.00158489, 0.00117975, 0.00896555
0.00840893, -0.0140058, -0.560441, 0.000110305, 6.96599e-05, 8.59166e-05, 0.3954, 0.391378, 0.28153, 0.00158178, 0.00117937, 0.00895232
0.0109244, -0.0125744, -0.56096, 0.000108855, 7.02155e-05, 9.52595e-05, 0.394545, 0.389606, 0.281783, 0.0015802, 0.00117901, 0.00894505
0.0123642, -0.0124665, -0.561043, 0.000108504, 7.0396e-05, 9.84969e-05, 0.394081, 0.388714, 0.282118, 0.0015797, 0.00117859, 0.00894163
0.0125222, -0.0123002, -0.556654, 0.000107403, 6.90475e-05, 0.000104857, 0.394016, 0.388586, 0.282464, 0.00157944, 0.00117819, 0.00893831
0.0120349, -0.0124498, -0.553902, 0.000106831, 6.83461e-05, 0.000107587, 0.394266, 0.389094, 0.282747, 0.00157892, 0.00117782, 0.00893404
0.0105385, -0.0129405, -0.550248, 0.000105917, 6.7847e-05, 0.000111407, 0.394794, 0.390174, 0.282919, 0.00157787, 0.00117751, 0.00892851
0.00857096, -0.0137663, -0.550165, 0.000104733, 6.81564e-05, 0.000117048, 0.395701, 0.391809, 0.282955, 0.00157615, 0.00117715, 0.00892171
0.00643583, -0.0147198, -0.549483, 0.000103289, 6.88744e-05, 0.000123077, 0.397126, 0.393922, 0.282898, 0.00157419, 0.00117661, 0.00891625
0.00459031, -0.0160084, -0.547796, 0.000101726, 6.98106e-05, 0.000127861, 0.399019, 0.396382, 0.282828, 0.00157243, 0.00117581, 0.00891336
0.00291716, -0.0170605, -0.547195, 0.000100505, 7.0935e-05, 0.000131143, 0.401298, 0.399096, 0.282738, 0.00157097, 0.00117477, 0.00891198
0.00134296, -0.0184317, -0.544248, 9.91591e-05, 7.24224e-05, 0.000132823, 0.403902, 0.402041, 0.282629, 0.00156974, 0.00117349, 0.0089112
-0.000455851, -0.0199719, -0.545588, 9.78806e-05, 7.40181e-05, 0.000134102, 0.406746, 0.405104, 0.28246, 0.00156901, 0.00117197, 0.00890987
-0.00235445, -0.0208494, -0.545667, 9.7293e-05, 7.58745e-05, 0.000134154, 0.409702, 0.408161, 0.282161, 0.00156875, 0.0011701, 0.00890476
-0.00354427, -0.0219433, -0.544927, 9.69822e-05, 7.76285e-05, 0.000131467, 0.412583, 0.411163, 0.281768, 0.00156853, 0.00116809, 0.00889645
-0.00366217, -0.0235302, -0.546412, 9.64308e-05, 7.7925e-05, 0.000127564, 0.415211, 0.414015, 0.281455, 0.00156829, 0.00116658, 0.00889053
-0.003029, -0.0245248, -0.548411, 9.59153e-05, 7.74138e-05, 0.000126387, 0.41739, 0.416522, 0.281218, 0.00156801, 0.00116565, 0.00888823
-0.00242174, -0.0252658, -0.551658, 9.52907e-05, 7.659e-05, 0.000127655, 0.419008, 0.418489, 0.281047, 0.00156765, 0.00116515, 0.00888734
-0.00188279, -0.0256148, -0.555246, 9.48951e-05, 7.56909e-05, 0.000129007, 0.420059, 0.419707, 0.2809, 0.00156743, 0.00116482, 0.00888685
-0.00231757, -0.0246023, -0.5581, 9.46598e-05, 7.47622e-05, 0.000131352, 0.420564, 0.420075, 0.280699, 0.00156728, 0.00116444, 0.00888612
-0.00143431, -0.0231559, -0.559284, 9.35885e-05, 7.39196e-05, 0.000138095, 0.420836, 0.419626, 0.280413, 0.00156653, 0.00116382, 0.00888088
-0.00113734, -0.0219499, -0.560962, 9.2166e-05, 7.28128e-05, 0.00014771, 0.421586, 0.418549, 0.280068, 0.00156314, 0.00116266, 0.00885398
-0.000243112, -0.020788, -0.563148, 8.9171e-05, 7.09064e-05, 0.000169009, 0.423382, 0.41728, 0.279729, 0.00155489, 0.00116051, 0.00878343
0.00170452, -0.0203082, -0.564174, 8.31934e-05, 6.81884e-05, 0.000212069, 0.426565, 0.416257, 0.279517, 0.00154057, 0.00115715, 0.0086557
0.00276101, -0.0196037, -0.562385, 7.85456e-05, 6.66463e-05, 0.000243941, 0.431094, 0.415631, 0.279477, 0.00151997, 0.00115243, 0.00846767
0.00319951, -0.0193339, -0.561479, 7.61507e-05, 6.57709e-05, 0.000260257, 0.436419, 0.415311, 0.279565, 0.00149752, 0.00114718, 0.00825835
0.00340715, -0.0193548, -0.558774, 7.36993e-05, 6.49097e-05, 0.000275534, 0.441903, 0.415156, 0.279763, 0.00147862, 0.00114257, 0.0080769
0.00332649, -0.0193315, -0.555338, 7.23136e-05, 6.44608e-05, 0.000282611, 0.447144, 0.414987, 0.279997, 0.0014652, 0.00113907, 0.00794234
0.00343161, -0.0194664, -0.556479, 7.25342e-05, 6.45232e-05, 0.000281927, 0.451769, 0.414777, 0.280222, 0.00145706, 0.00113673, 0.00785552
0.00363876, -0.020392, -0.55734, 7.24062e-05, 6.43916e-05, 0.000283554, 0.45507, 0.414613, 0.280444, 0.00145384, 0.00113554, 0.00781733
0.00320662, -0.0209714, -0.559084, 7.26236e-05, 6.47899e-05, 0.000281352, 0.456155, 0.41459, 0.280666, 0.00145338, 0.00113499, 0.00781032
0.00291165, -0.0219267, -0.557639, 7.22628e-05, 6.42128e-05, 0.00028509, 0.454184, 0.414768, 0.280759, 0.00145168, 0.00113439, 0.00779716
0.00172443, -0.0224552, -0.555897, 7.10124e-05, 6.32068e-05, 0.000295584, 0.448596, 0.415156, 0.280729, 0.00144335, 0.0011326, 0.0077255
0.000226265, -0.022969, -0.554925, 6.85542e-05, 6.19008e-05, 0.000313973, 0.440001, 0.415575, 0.280594, 0.00142438, 0.00112876, 0.00755538
-0.00196611, -0.0229966, -0.557419, 6.20016e-05, 6.00674e-05, 0.000355933, 0.430174, 0.415916, 0.28045, 0.00139443, 0.00112283, 0.00727866
-0.00189602, -0.0233241, -0.55852, 6.12219e-05, 6.01649e-05, 0.000358957, 0.421279, 0.416221, 0.280428, 0.00135714, 0.00111553, 0.00692384
-0.00211276, -0.0233362, -0.558714, 6.04137e-05, 5.99224e-05, 0.000364188, 0.414802, 0.41654, 0.280638, 0.00131783, 0.00110784, 0.00653843
-0.00267282, -0.0228936, -0.558171, 5.95171e-05, 5.92881e-05, 0.000372452, 0.411251, 0.416884, 0.281126, 0.00128224, 0.00110088, 0.00618033
-0.00242769, -0.0227476, -0.558641, 5.97061e-05, 5.96388e-05, 0.000370008, 0.410244, 0.417309, 0.281838, 0.00125365, 0.00109538, 0.00588577
-0.00307697, -0.022151, -0.557546, 5.92873e-05, 5.89482e-05, 0.000376449, 0.411006, 0.417889, 0.282717, 0.00123269, 0.00109145, 0.00566634
-0.00281921, -0.0213819, -0.55784, 5.97594e-05, 5.93067e-05, 0.00037347, 0.412769, 0.418629, 0.283637, 0.00121908, 0.00108904, 0.00552256
-0.00210357, -0.0204328, -0.561219, 5.89193e-05, 6.03083e-05, 0.000375388, 0.414849, 0.419468, 0.284498, 0.00121145, 0.0010878, 0.00544258
-0.00195638, -0.0203711, -0.562548, 5.85674e-05, 6.06069e-05, 0.000376547, 0.416709, 0.420309, 0.285222, 0.00120805, 0.00108728, 0.00540894
-0.00155322, -0.0200043, -0.565121, 5.8413e-05, 6.11665e-05, 0.000376715, 0.418015, 0.421031, 0.285686, 0.0012071, 0.00108712, 0.00540116
-0.000946505, -0.0196512, -0.564006, 5.84856e-05, 6.08789e-05, 0.000377234, 0.418585, 0.42163, 0.285901, 0.00120707, 0.00108691, 0.00540052
-0.000511496, -0.0192735, -0.564857, 5.85007e-05, 6.09165e-05, 0.000378116, 0.418489, 0.422164, 0.285875, 0.00120661, 0.00108634, 0.00539161
-0.000399628, -0.0182776, -0.563649, 5.80997e-05, 6.06939e-05, 0.000381083, 0.417966, 0.422706, 0.285608, 0.00120458, 0.00108511, 0.00536048
6.95126e-05, -0.0171815, -0.561481, 5.68824e-05, 6.01898e-05, 0.00038915, 0.417313, 0.423252, 0.285169, 0.00120004, 0.00108292, 0.00529419
0.00015016, -0.0161845, -0.558564, 5.5595e-05, 6.00112e-05, 0.000395447, 0.416999, 0.423765, 0.284625, 0.00119263, 0.00107972, 0.00518775
0.0005452, -0.0159214, -0.556996, 5.41183e-05, 5.95539e-05, 0.00040406, 0.417537, 0.424224, 0.284054, 0.00118244, 0.00107565, 0.00504285
0.000798043, -0.015903, -0.556946, 5.35975e-05, 5.92536e-05, 0.00040807, 0.419275, 0.424694, 0.283606, 0.00117037, 0.0010711, 0.00487277
0.000463945, -0.0152559, -0.556412, 5.40497e-05, 5.97109e-05, 0.000403711, 0.422268, 0.425264, 0.283379, 0.00115764, 0.00106648, 0.00469457
0.000227094, -0.0147583, -0.554928, 5.36281e-05, 5.99238e-05, 0.000403379, 0.426405, 0.425958, 0.283384, 0.00114507, 0.00106198, 0.00451729
-0.000278461, -0.0143513, -0.553068, 5.36375e-05, 6.05391e-05, 0.00039816, 0.431467, 0.426747, 0.283614, 0.0011333, 0.00105776, 0.0043484
-0.000714816, -0.013995, -0.549912, 5.27267e-05, 6.12259e-05, 0.000395859, 0.437078, 0.42759, 0.283939, 0.00112321, 0.00105413, 0.00420216
-0.000733025, -0.01391, -0.548333, 5.19041e-05, 6.14412e-05, 0.000397572, 0.442832, 0.428443, 0.284282, 0.00111529, 0.00105124, 0.00408742
-0.000541795, -0.0149252, -0.546426, 5.03878e-05, 6.14893e-05, 0.00040246, 0.448352, 0.429284, 0.284618, 0.00110956, 0.00104909, 0.00400616
-0.000425223, -0.0155704, -0.545193, 4.95854e-05, 6.15962e-05, 0.000404999, 0.453251, 0.430076, 0.284922, 0.00110588, 0.00104766, 0.00395609
-0.000344378, -0.0171362, -0.547595, 4.97686e-05, 6.08977e-05, 0.000406069, 0.457172, 0.430739, 0.285079, 0.00110394, 0.00104677, 0.00393051
-0.000160615, -0.0182732, -0.548739, 4.96809e-05, 6.05469e-05, 0.000407243, 0.459749, 0.43121, 0.285082, 0.00110322, 0.00104633, 0.00392152
0.000348293, -0.0198114, -0.549295, 4.94439e-05, 6.04253e-05, 0.000408479, 0.460777, 0.431552, 0.284932, 0.00110309, 0.00104617, 0.00392052
0.000501299, -0.0206532, -0.547108, 4.93585e-05, 6.05504e-05, 0.000408928, 0.460166, 0.431895, 0.284748, 0.00110298, 0.00104615, 0.0039189
0.000218314, -0.0220595, -0.547479, 4.90944e-05, 6.06027e-05, 0.000410055, 0.458102, 0.432269, 0.284509, 0.00110241, 0.0010461, 0.00390971
-0.000442571, -0.0231008, -0.548513, 4.84765e-05, 6.06053e-05, 0.000413134, 0.454793, 0.432644, 0.284111, 0.001101, 0.00104597, 0.00388776
-0.000384694, -0.0241546, -0.549263, 4.82146e-05, 6.07312e-05, 0.000413329, 0.45049, 0.432973, 0.28357, 0.00109847, 0.00104568, 0.0038491
-7.27711e-05, -0.0250566, -0.551015, 4.76444e-05, 6.09852e-05, 0.000413099, 0.445629, 0.433314, 0.283002, 0.00109465, 0.00104518, 0.0037901
-0.000231517, -0.0251918, -0.554785, 4.56611e-05, 6.10296e-05, 0.000417991, 0.441003, 0.433712, 0.282441, 0.0010897, 0.00104454, 0.0037138
-9.72029e-05, -0.0252984, -0.558023, 4.39986e-05, 6.11885e-05, 0.000420661, 0.437313, 0.434219, 0.282042, 0.00108402, 0.0010439, 0.00362738
0.00061551, -0.0251646, -0.560167, 4.34213e-05, 6.15519e-05, 0.000417964, 0.434902, 0.434879, 0.281927, 0.00107808, 0.00104331, 0.00353834
0.000560045, -0.0249808, -0.561786, 4.23322e-05, 6.16762e-05, 0.000421002, 0.433823, 0.435699, 0.282121, 0.00107239, 0.0010428, 0.00345418
0.000634149, -0.0252713, -0.559729, 4.37117e-05, 6.14425e-05, 0.000416875, 0.433907, 0.436671, 0.282599, 0.00106744, 0.00104238, 0.00338111
0.000629146, -0.0248657, -0.559941, 4.3683e-05, 6.14281e-05, 0.000417091, 0.434821, 0.437713, 0.283286, 0.00106347, 0.00104203, 0.00332236
0.00101875, -0.0234813, -0.563072, 4.25779e-05, 6.17827e-05, 0.000418525, 0.436222, 0.438708, 0.284031, 0.00106051, 0.00104178, 0.00327897
0.000990085, -0.0223511, -0.563861, 4.24198e-05, 6.17509e-05, 0.000419317, 0.437773, 0.439591, 0.284719, 0.00105855, 0.00104163, 0.00325009
0.000998066, -0.0217678, -0.564859, 4.21861e-05, 6.1777e-05, 0.000419904, 0.439165, 0.440285, 0.285328, 0.00105743, 0.00104153, 0.00323335
0.0014701, -0.0211792, -0.564443, 4.2487e-05, 6.17599e-05, 0.000418412, 0.440176, 0.440752, 0.285839, 0.00105694, 0.00104145, 0.00322568
0.00193559, -0.0203702, -0.56331, 4.27049e-05, 6.1618e-05, 0.000417649, 0.440784, 0.441108, 0.286172, 0.00105683, 0.0010414, 0.00322371
0.00222311, -0.0197934, -0.561979, 4.26987e-05, 6.14138e-05, 0.000417741, 0.441037, 0.441468, 0.286302, 0.00105682, 0.00104133, 0.00322368
0.00206952, -0.0183456, -0.560281, 4.26337e-05, 6.1235e-05, 0.000418085, 0.441028, 0.44189, 0.286188, 0.00105663, 0.00104122, 0.00322191
0.00243407, -0.0171972, -0.561302, 4.28285e-05, 6.11955e-05, 0.000418537, 0.44077, 0.44234, 0.28585, 0.00105602, 0.00104097, 0.00321372
0.00220847, -0.0164803, -0.560567, 4.27331e-05, 6.13001e-05, 0.000418174, 0.440404, 0.442743, 0.285264, 0.00105458, 0.00104045, 0.00319311
0.00283218, -0.0159725, -0.559032, 4.16756e-05, 6.1019e-05, 0.00042264, 0.440182, 0.443043, 0.28461, 0.00105219, 0.00103966, 0.00315782
0.00227389, -0.0142275, -0.555811, 4.04544e-05, 6.13067e-05, 0.000422435, 0.440434, 0.443275, 0.284027, 0.00104889, 0.00103866, 0.00310917
0.00190451, -0.0126727, -0.552443, 3.87743e-05, 6.14079e-05, 0.000423735, 0.441468, 0.443513, 0.283655, 0.00104489, 0.00103749, 0.00305025
0.00203925, -0.0125324, -0.552514, 3.87149e-05, 6.13469e-05, 0.00042462, 0.443474, 0.443888, 0.283564, 0.00104065, 0.00103615, 0.00298639
0.00168304, -0.0123644, -0.552549, 3.91416e-05, 6.16514e-05, 0.000421532, 0.446453, 0.444532, 0.283762, 0.00103655, 0.00103467, 0.00292315
0.0018149, -0.012644, -0.553395, 3.95098e-05, 6.16094e-05, 0.000421684, 0.450138, 0.445455, 0.284228, 0.00103298, 0.00103317, 0.0028674
0.00202906, -0.0151089, -0.55417, 3.90709e-05, 6.12466e-05, 0.000423442, 0.454119, 0.446536, 0.284857, 0.00103015, 0.00103187, 0.00282422
0.00199156, -0.0176285, -0.554835, 3.87067e-05, 6.10621e-05, 0.000423789, 0.457987, 0.447633, 0.28561, 0.00102816, 0.00103088, 0.00279424
0.000930566, -0.0180811, -0.553427, 3.85204e-05, 6.14088e-05, 0.000420498, 0.461364, 0.448622, 0.286369, 0.00102704, 0.00103022, 0.00277657
-0.00018742, -0.0178515, -0.550652, 3.81677e-05, 6.16858e-05, 0.000418771, 0.463911, 0.449358, 0.286887, 0.0010266, 0.00102989, 0.00276839
-0.000681754, -0.0185286, -0.551918, 3.82747e-05, 6.16936e-05, 0.000417803, 0.465427, 0.449772, 0.287077, 0.00102651, 0.00102976, 0.00276586
-0.000882484, -0.0199445, -0.555182, 3.82119e-05, 6.14478e-05, 0.000417175, 0.465884, 0.449904, 0.286968, 0.0010265, 0.00102972, 0.00276558
-0.00023166, -0.0209308, -0.556587, 3.81897e-05, 6.13469e-05, 0.000416492, 0.465363, 0.449857, 0.286682, 0.00102636, 0.0010297, 0.00276488
0.00048157, -0.0212174, -0.557989, 3.80996e-05, 6.13857e-05, 0.000415553, 0.464013, 0.449748, 0.28627, 0.00102593, 0.00102966, 0.0027614
0.00098459, -0.0226101, -0.559602, 3.7795e-05, 6.14895e-05, 0.000414767, 0.462083, 0.449676, 0.285848, 0.00102515, 0.0010296, 0.00275357
0.000930181, -0.0237507, -0.555247, 3.94694e-05, 6.10438e-05, 0.000413037, 0.459865, 0.449642, 0.28545, 0.00102392, 0.00102948, 0.00274087
0.000817366, -0.0253842, -0.551955, 4.09578e-05, 6.06862e-05, 0.000411631, 0.457572, 0.44968, 0.285081, 0.00102216, 0.00102934, 0.00272174
0.000562228, -0.0270534, -0.549368, 4.21434e-05, 6.05086e-05, 0.000411085, 0.455489, 0.449845, 0.284743, 0.00101988, 0.0010292, 0.00269493
0.00094802, -0.0281989, -0.548493, 4.27302e-05, 6.06136e-05, 0.000409052, 0.453958, 0.450198, 0.284503, 0.0010171, 0.00102908, 0.00266053
0.000873394, -0.0281341, -0.549166, 4.22381e-05, 6.06349e-05, 0.000410002, 0.453251, 0.450775, 0.284466, 0.00101394, 0.00102897, 0.00262033
0.000990384, -0.0284075, -0.551159, 4.07458e-05, 6.07707e-05, 0.000411937, 0.453468, 0.451581, 0.284734, 0.00101068, 0.00102887, 0.00257858
0.00146216, -0.0271492, -0.556503, 3.75539e-05, 6.08879e-05, 0.000414803, 0.45451, 0.452586, 0.285291, 0.00100781, 0.00102878, 0.00254141
0.00217961, -0.0261101, -0.559383, 3.63892e-05, 6.08687e-05, 0.000413753, 0.456123, 0.453754, 0.286003, 0.00100563, 0.00102869, 0.00251269
0.00169974, -0.0247634, -0.56047, 3.60562e-05, 6.06574e-05, 0.00041589, 0.457975, 0.454984, 0.286726, 0.0010042, 0.00102858, 0.00249311
0.00122049, -0.0231089, -0.563145, 3.53702e-05, 6.03729e-05, 0.000418314, 0.459763, 0.456146, 0.287337, 0.00100343, 0.00102847, 0.00248151
0.00124851, -0.0212163, -0.567012, 3.48775e-05, 5.99694e-05, 0.000419432, 0.461262, 0.457144, 0.287785, 0.00100315, 0.00102833, 0.00247566
0.00177753, -0.0196947, -0.569029, 3.49014e-05, 5.96162e-05, 0.000419333, 0.46236, 0.457949, 0.288026, 0.00100309, 0.00102817, 0.00247353
0.00234389, -0.0181226, -0.567643, 3.48326e-05, 5.92247e-05, 0.000419658, 0.463007, 0.458593, 0.288065, 0.00100301, 0.001028, 0.00247318
0.00238899, -0.0159296, -0.565487, 3.44331e-05, 5.87488e-05, 0.000420821, 0.463265, 0.459111, 0.287821, 0.00100263, 0.00102778, 0.00247252
0.00240976, -0.0142165, -0.562451, 3.34222e-05, 5.85255e-05, 0.000422281, 0.463182, 0.459482, 0.287272, 0.00100171, 0.00102752, 0.0024687
0.00338958, -0.0125231, -0.559993, 3.18648e-05, 5.82484e-05, 0.000426121, 0.462891, 0.459658, 0.286422, 0.000999973, 0.00102719, 0.00245827
0.00373784, -0.0122721, -0.560087, 3.17198e-05, 5.81027e-05, 0.000427367, 0.462671, 0.459655, 0.285453, 0.000997384, 0.00102676, 0.0024398
0.00390538, -0.0120133, -0.560475, 3.18586e-05, 5.79553e-05, 0.000428038, 0.462821, 0.459564, 0.284554, 0.00099417, 0.00102621, 0.00241458
0.00387898, -0.0114419, -0.560465, 3.18748e-05, 5.79067e-05, 0.000428189, 0.463559, 0.459486, 0.283893, 0.000990696, 0.0010256, 0.00238516
0.00405743, -0.0108252, -0.558825, 3.06808e-05, 5.80602e-05, 0.000429743, 0.464933, 0.459498, 0.283566, 0.000987343, 0.00102497, 0.00235516
0.00398411, -0.0107994, -0.556398, 2.91606e-05, 5.84881e-05, 0.000430082, 0.46688, 0.459638, 0.283555, 0.000984355, 0.00102434, 0.00232738
0.00384365, -0.0117044, -0.555424, 2.85909e-05, 5.87936e-05, 0.000429469, 0.469257, 0.459959, 0.283757, 0.00098191, 0.00102371, 0.00230425
0.00354078, -0.0132224, -0.554204, 2.79893e-05, 5.93179e-05, 0.000428283, 0.47176, 0.460482, 0.284008, 0.000980244, 0.00102308, 0.00228817
0.00342819, -0.0148657, -0.553961, 2.77438e-05, 5.95305e-05, 0.000427933, 0.47405, 0.461163, 0.28419, 0.000979374, 0.00102255, 0.00227952
0.00261224, -0.0166545, -0.553032, 2.75202e-05, 6.00687e-05, 0.000426804, 0.475875, 0.461915, 0.284219, 0.000979047, 0.00102215, 0.00227628
0.00213941, -0.0181514, -0.551704, 2.7326e-05, 6.04931e-05, 0.000426641, 0.477141, 0.462667, 0.284086, 0.000978957, 0.00102189, 0.00227575
0.00214501, -0.0191114, -0.550628, 2.731e-05, 6.06727e-05, 0.00042666, 0.477863, 0.46337, 0.283838, 0.000978883, 0.00102175, 0.0022757
0.00135362, -0.0199621, -0.550932, 2.7132e-05, 6.07815e-05, 0.000427147, 0.478161, 0.464024, 0.283545, 0.000978727, 0.00102168, 0.00227486
0.000598537, -0.0207937, -0.552743, 2.65881e-05, 6.09002e-05, 0.000427894, 0.478141, 0.464635, 0.283215, 0.000978471, 0.00102162, 0.00227269
-8.23246e-05, -0.021108, -0.554099, 2.61088e-05, 6.10043e-05, 0.000428867, 0.477852, 0.465157, 0.282848, 0.000978101, 0.00102152, 0.00226882
-0.00165214, -0.0209256, -0.558817, 2.43475e-05, 6.13462e-05, 0.000431931, 0.477296, 0.465501, 0.282573, 0.000977594, 0.00102136, 0.00226325
-0.000306563, -0.0211238, -0.560423, 2.39165e-05, 6.1768e-05, 0.000429519, 0.4765, 0.465649, 0.282486, 0.00097696, 0.00102111, 0.00225631
0.00190971, -0.0214746, -0.561143, 2.39094e-05, 6.22393e-05, 0.000425375, 0.475616, 0.465715, 0.282615, 0.000976273, 0.00102075, 0.00224855
0.00481445, -0.0214781, -0.559536, 2.48178e-05, 6.19674e-05, 0.000420058, 0.474773, 0.465801, 0.283025, 0.000975576, 0.0010202, 0.00224079
0.0058698, -0.021834, -0.557143, 2.57957e-05, 6.11542e-05, 0.00041736, 0.4742, 0.465996, 0.283608, 0.000974988, 0.00101959, 0.00223455
0.0065723, -0.0212834, -0.555311, 2.6474e-05, 6.04495e-05, 0.000416183, 0.474048, 0.46634, 0.284213, 0.000974519, 0.00101911, 0.00223048
0.00758427, -0.0209422, -0.555722, 2.64118e-05, 6.04789e-05, 0.000415155, 0.47438, 0.466883, 0.284616, 0.000974145, 0.0010189, 0.00222832
0.00849042, -0.0204436, -0.556432, 2.63239e-05, 6.04397e-05, 0.000414443, 0.475129, 0.46764, 0.284795, 0.000973799, 0.00101881, 0.00222723
0.00963528, -0.0202464, -0.557118, 2.62106e-05, 6.02381e-05, 0.00041393, 0.476174, 0.468558, 0.284745, 0.000973382, 0.00101871, 0.00222609
0.0100751, -0.0201821, -0.557168, 2.62055e-05, 6.0148e-05, 0.000413893, 0.477407, 0.469589, 0.284453, 0.000972809, 0.00101849, 0.00222371
0.0110082, -0.020148, -0.555599, 2.64852e-05, 6.02407e-05, 0.000413567, 0.478771, 0.47074, 0.284051, 0.000972024, 0.00101809, 0.00221916
0.0113054, -0.0203184, -0.554439, 2.65348e-05, 6.0442e-05, 0.000413799, 0.480245, 0.472066, 0.283618, 0.000970994, 0.0010175, 0.00221172
0.0115965, -0.0207131, -0.551499, 2.65241e-05, 6.12268e-05, 0.000414443, 0.481794, 0.473621, 0.283212, 0.000969729, 0.00101671, 0.00220118
0.0107383, -0.0205234, -0.5496, 2.65982e-05, 6.22892e-05, 0.000413416, 0.483299, 0.475359, 0.282865, 0.000968373, 0.0010157, 0.0021888
0.00959732, -0.0199558, -0.549395, 2.67466e-05, 6.29008e-05, 0.000411474, 0.484673, 0.477193, 0.2826, 0.000967107, 0.0010145, 0.00217678
0.00804954, -0.0192731, -0.550364, 2.6807e-05, 6.31205e-05, 0.000409513, 0.485871, 0.478991, 0.282437, 0.000966055, 0.00101328, 0.00216679
0.00735001, -0.0185936, -0.550044, 2.69468e-05, 6.36329e-05, 0.000407829, 0.486902, 0.48063, 0.282378, 0.000965277, 0.00101224, 0.00215969
0.00609331, -0.0182705, -0.548509, 2.67081e-05, 6.44671e-05, 0.000406969, 0.487821, 0.482001, 0.282377, 0.000964759, 0.00101146, 0.0021557
0.00431301, -0.0181029, -0.547292, 2.63099e-05, 6.50784e-05, 0.000406328, 0.488682, 0.483016, 0.282365, 0.000964434, 0.00101092, 0.00215416
0.00382196, -0.0186157, -0.547027, 2.61314e-05, 6.50513e-05, 0.000406326, 0.489485, 0.483623, 0.282294, 0.000964228, 0.00101054, 0.00215385
0.0038198, -0.0190115, -0.546987, 2.61205e-05, 6.49551e-05, 0.000406167, 0.490177, 0.483836, 0.282173, 0.000964079, 0.00101027, 0.00215349
0.00412545, -0.0196777, -0.547928, 2.6231e-05, 6.4865e-05, 0.000405726, 0.490766, 0.483722, 0.282001, 0.000963944, 0.00101008, 0.00215226
0.00455928, -0.0202672, -0.548613, 2.63911e-05, 6.48066e-05, 0.000405133, 0.491196, 0.483361, 0.281824, 0.00096379, 0.00100994, 0.00214997
0.00412066, -0.0200085, -0.549853, 2.63321e-05, 6.49975e-05, 0.000405276, 0.491506, 0.482812, 0.281642, 0.000963589, 0.00100983, 0.00214651
0.00382083, -0.0201671, -0.550018, 2.63248e-05, 6.50247e-05, 0.000404961, 0.491803, 0.482211, 0.281457, 0.000963341, 0.00100973, 0.00214185
0.00415397, -0.0196865, -0.551222, 2.63107e-05, 6.51917e-05, 0.000405768, 0.492133, 0.48169, 0.281327, 0.000963068, 0.00100963, 0.00213619
0.00460428, -0.0198533, -0.552184, 2.64325e-05, 6.52696e-05, 0.00040547, 0.492548, 0.481347, 0.281269, 0.000962799, 0.00100952, 0.00212994
0.00451749, -0.0197614, -0.552957, 2.64203e-05, 6.53931e-05, 0.000405574, 0.493056, 0.481231, 0.281296, 0.000962559, 0.00100941, 0.00212366
0.00491488, -0.0200539, -0.554491, 2.6545e-05, 6.55504e-05, 0.000404995, 0.49365, 0.481349, 0.281414, 0.000962354, 0.00100928, 0.00211759
0.00614095, -0.0207454, -0.555799, 2.68185e-05, 6.55686e-05, 0.000403714, 0.49436, 0.48171, 0.281602, 0.000962187, 0.00100915, 0.00211178
0.00725645, -0.0211879, -0.558651, 2.70169e-05, 6.58585e-05, 0.000402704, 0.495181, 0.482315, 0.281885, 0.000962057, 0.00100898, 0.0021063
0.00633342, -0.0213765, -0.560856, 2.69494e-05, 6.64349e-05, 0.000402286, 0.496074, 0.483139, 0.282284, 0.00096196, 0.00100875, 0.00210128
0.00577735, -0.0214715, -0.563106, 2.68906e-05, 6.70438e-05, 0.000402002, 0.496954, 0.48409, 0.282777, 0.00096189, 0.00100849, 0.00209694
0.00567863, -0.0216762, -0.563651, 2.68945e-05, 6.71975e-05, 0.000401678, 0.497761, 0.48509, 0.283309, 0.000961838, 0.00100822, 0.00209326
0.00540334, -0.0217154, -0.563572, 2.68899e-05, 6.72197e-05, 0.000401698, 0.49844, 0.486076, 0.283868, 0.000961793, 0.00100795, 0.00209016
0.0057597, -0.0220767, -0.564508, 2.6888e-05, 6.74419e-05, 0.000401101, 0.498977, 0.487011, 0.284434, 0.000961757, 0.00100769, 0.0020877
0.006401, -0.0221716, -0.566186, 2.68157e-05, 6.77765e-05, 0.00040075, 0.499399, 0.487858, 0.284931, 0.000961735, 0.00100748, 0.00208605
0.00730995, -0.0225274, -0.56768, 2.67214e-05, 6.80441e-05, 0.000400224, 0.499723, 0.488574, 0.285321, 0.000961719, 0.00100731, 0.00208523
0.00817741, -0.0229429, -0.567278, 2.67033e-05, 6.79983e-05, 0.000399868, 0.499994, 0.48915, 0.285581, 0.00096168, 0.00100719, 0.00208494
0.00943478, -0.022674, -0.563901, 2.69626e-05, 6.75852e-05, 0.000399433, 0.500339, 0.489655, 0.285677, 0.000961582, 0.00100709, 0.00208474
0.0105806, -0.0226506, -0.562586, 2.6969e-05, 6.74133e-05, 0.000399132, 0.500883, 0.490205, 0.28564, 0.000961394, 0.00100699, 0.00208429
0.0118029, -0.0223906, -0.560399, 2.70994e-05, 6.7345e-05, 0.000398628, 0.501629, 0.490793, 0.285392, 0.000961071, 0.00100689, 0.00208311
0.0132882, -0.0220674, -0.56009, 2.69587e-05, 6.713e-05, 0.000398325, 0.502507, 0.491392, 0.28495, 0.000960577, 0.00100674, 0.00208053
0.014695, -0.0220618, -0.55873, 2.68161e-05, 6.72553e-05, 0.000398386, 0.503447, 0.492029, 0.284233, 0.000959902, 0.00100635, 0.00207603
0.0155879, -0.0224134, -0.558401, 2.6469e-05, 6.71909e-05, 0.000399426, 0.504412, 0.49276, 0.283408, 0.000959022, 0.00100575, 0.00206907
0.0168148, -0.0223111, -0.555145, 2.63666e-05, 6.85414e-05, 0.000399205, 0.505298, 0.493634, 0.282497, 0.000957947, 0.00100474, 0.00205921
0.0178757, -0.022467, -0.551853, 2.60605e-05, 7.04603e-05, 0.000399687, 0.506045, 0.494734, 0.281586, 0.000956696, 0.00100311, 0.00204623
0.0182288, -0.0226192, -0.550122, 2.58403e-05, 7.17184e-05, 0.00040001, 0.506693, 0.496159, 0.280841, 0.000955299, 0.00100096, 0.00203061
0.0180356, -0.022344, -0.549271, 2.60028e-05, 7.24008e-05, 0.000398914, 0.507371, 0.49793, 0.280413, 0.000953861, 0.000998807, 0.00201392
0.0151527, -0.022587, -0.551577, 2.64255e-05, 7.12029e-05, 0.000398548, 0.507953, 0.49996, 0.280246, 0.000952533, 0.000996355, 0.00199848
0.014587, -0.0225383, -0.552421, 2.66384e-05, 7.06276e-05, 0.000398107, 0.50847, 0.502099, 0.280337, 0.000951392, 0.000993984, 0.00198526
0.0129515, -0.0223065, -0.549508, 2.65078e-05, 7.32598e-05, 0.000396638, 0.508874, 0.504116, 0.280611, 0.000950545, 0.000991855, 0.00197557
0.0139881, -0.0213273, -0.546255, 2.63272e-05, 7.52371e-05, 0.000395045, 0.509301, 0.505843, 0.280952, 0.000949987, 0.000990347, 0.00196983
0.0143358, -0.0207783, -0.545517, 2.63339e-05, 7.55288e-05, 0.000394526, 0.509804, 0.507156, 0.281224, 0.000949654, 0.000989553, 0.00196743
0.013598, -0.0208952, -0.546311, 2.64629e-05, 7.53886e-05, 0.000394404, 0.510324, 0.507984, 0.281332, 0.000949482, 0.000989212, 0.00196698
0.0126937, -0.0212833, -0.549476, 2.68153e-05, 7.52212e-05, 0.000394372, 0.510791, 0.508346, 0.281233, 0.000949412, 0.000989145, 0.00196688
0.0119272, -0.0216125, -0.55212, 2.70217e-05, 7.56441e-05, 0.000394341, 0.511143, 0.508318, 0.280951, 0.000949372, 0.000989028, 0.00196574
0.011023, -0.0220678, -0.552296, 2.70636e-05, 7.57905e-05, 0.000394124, 0.511321, 0.507951, 0.280558, 0.000949324, 0.000988633, 0.00196289
0.0099318, -0.0221259, -0.552587, 2.70894e-05, 7.59656e-05, 0.000394332, 0.511349, 0.507345, 0.280132, 0.000949227, 0.000987955, 0.00195782
0.00899305, -0.0220381, -0.553965, 2.71143e-05, 7.66517e-05, 0.000394791, 0.511281, 0.506681, 0.27975, 0.000949066, 0.00098701, 0.0019504
0.00861691, -0.0219912, -0.555873, 2.71395e-05, 7.77044e-05, 0.00039502, 0.511108, 0.506113, 0.279507, 0.000948854, 0.000985763, 0.00194112
0.00898042, -0.0215316, -0.55983, 2.70767e-05, 8.00684e-05, 0.000395787, 0.510829, 0.505737, 0.279476, 0.000948605, 0.000984216, 0.00193061
0.010291, -0.0209568, -0.561681, 2.69476e-05, 8.12169e-05, 0.000396555, 0.510435, 0.505642, 0.279714, 0.000948354, 0.000982326, 0.00191968
0.0154472, -0.0198944, -0.562521, 2.67079e-05, 8.14538e-05, 0.000397259, 0.509982, 0.505878, 0.28026, 0.000948126, 0.000980156, 0.00190904
0.0134606, -0.0201442, -0.563086, 2.67264e-05, 8.20393e-05, 0.000397277, 0.509555, 0.506427, 0.281082, 0.000947937, 0.00097791, 0.00189921
0.0125797, -0.0203493, -0.563057, 2.6733e-05, 8.2089e-05, 0.000397051, 0.509179, 0.507193, 0.282128, 0.000947783, 0.000975759, 0.00189079
0.0125473, -0.0201442, -0.562299, 2.67033e-05, 8.15128e-05, 0.000397436, 0.50884, 0.508074, 0.283342, 0.000947644, 0.000973789, 0.00188366
0.0135965, -0.0195435, -0.562355, 2.66541e-05, 8.14981e-05, 0.000398641, 0.508612, 0.509012, 0.284614, 0.000947515, 0.000972154, 0.00187774
0.0125119, -0.0188852, -0.559795, 2.65964e-05, 7.9957e-05, 0.000399999, 0.508515, 0.510006, 0.2859, 0.000947414, 0.000970775, 0.00187334
0.0123368, -0.0187349, -0.558601, 2.66323e-05, 7.92827e-05, 0.000400334, 0.508562, 0.511018, 0.287156, 0.000947337, 0.000969598, 0.00187054
0.0126836, -0.0192452, -0.557694, 2.67541e-05, 7.87402e-05, 0.000400017, 0.508801, 0.511978, 0.288274, 0.000947261, 0.000968669, 0.00186914
0.0120989, -0.0203679, -0.558167, 2.65639e-05, 7.88348e-05, 0.000399472, 0.509257, 0.512819, 0.289131, 0.000947149, 0.000968028, 0.00186874
0.0125445, -0.0215416, -0.558434, 2.64835e-05, 7.86172e-05, 0.000399447, 0.509941, 0.513531, 0.289646, 0.000946954, 0.000967615, 0.00186872
0.0132953, -0.022151, -0.559328, 2.64284e-05, 7.84736e-05, 0.000399675, 0.510784, 0.514121, 0.28981, 0.000946647, 0.000967276, 0.00186849
0.014217, -0.0226986, -0.561312, 2.62416e-05, 7.81712e-05, 0.000400109, 0.511716, 0.514588, 0.289627, 0.000946194, 0.00096689, 0.00186758
0.0147279, -0.0229542, -0.562879, 2.60972e-05, 7.77948e-05, 0.000400462, 0.512682, 0.514963, 0.289077, 0.000945594, 0.000966314, 0.00186558
0.0157854, -0.0237774, -0.562273, 2.62218e-05, 7.7495e-05, 0.00040153, 0.513612, 0.515266, 0.288167, 0.00094486, 0.000965419, 0.00186197
0.0168933, -0.0244528, -0.55901, 2.66247e-05, 7.82382e-05, 0.000402288, 0.514494, 0.515555, 0.287077, 0.000943995, 0.000964245, 0.0018563
0.0184119, -0.0252452, -0.555072, 2.69842e-05, 7.96708e-05, 0.000403384, 0.515256, 0.515918, 0.285781, 0.000943022, 0.000962619, 0.00184811
0.0203135, -0.0254115, -0.551546, 2.75451e-05, 8.14546e-05, 0.000403196, 0.515889, 0.516456, 0.284457, 0.000941955, 0.000960547, 0.00183742
0.0208197, -0.0257637, -0.551347, 2.75317e-05, 8.13674e-05, 0.000404048, 0.516406, 0.517276, 0.283257, 0.000940811, 0.000958058, 0.0018248
0.0207485, -0.0256835, -0.550823, 2.74827e-05, 8.18205e-05, 0.000403844, 0.516828, 0.518445, 0.282286, 0.00093963, 0.000955228, 0.00181111
0.0207687, -0.0251638, -0.549627, 2.75834e-05, 8.30304e-05, 0.000402328, 0.517109, 0.519922, 0.281616, 0.000938508, 0.00095213, 0.00179736
0.0202705, -0.0251443, -0.548789, 2.73512e-05, 8.38452e-05, 0.000402355, 0.51732, 0.521652, 0.281296, 0.000937528, 0.000949083, 0.00178464
0.0203011, -0.0250979, -0.546022, 2.68754e-05, 8.62937e-05, 0.000402403, 0.517439, 0.523522, 0.28127, 0.000936733, 0.000946118, 0.00177385
0.0205863, -0.0244965, -0.543922, 2.68613e-05, 8.80559e-05, 0.000401105, 0.517564, 0.5254, 0.281481, 0.000936147, 0.000943602, 0.00176571
0.0188599, -0.0241583, -0.544265, 2.69988e-05, 8.80344e-05, 0.000400453, 0.517778, 0.527132, 0.281812, 0.000935747, 0.000941731, 0.00176073
0.0175794, -0.02409, -0.543922, 2.70579e-05, 8.84087e-05, 0.000400284, 0.518062, 0.528545, 0.282066, 0.00093547, 0.000940294, 0.0017586
0.0161343, -0.0247238, -0.543889, 2.7162e-05, 8.87045e-05, 0.000400457, 0.518506, 0.529537, 0.282108, 0.000935248, 0.000939416, 0.00175831
0.0134814, -0.0256185, -0.548034, 2.80272e-05, 8.82326e-05, 0.000400443, 0.519088, 0.530055, 0.281855, 0.000934996, 0.000938963, 0.00175806
0.0124906, -0.0255586, -0.550526, 2.85385e-05, 8.82589e-05, 0.000400886, 0.519653, 0.530118, 0.281336, 0.000934641, 0.000938535, 0.00175604
0.0121987, -0.0254323, -0.552257, 2.87966e-05, 8.8486e-05, 0.000401297, 0.520031, 0.529796, 0.280677, 0.000934133, 0.000937811, 0.00175142
0.0119658, -0.0257326, -0.555308, 2.92623e-05, 8.94285e-05, 0.000401182, 0.52026, 0.529309, 0.280022, 0.000933466, 0.00093672, 0.00174422
0.0119604, -0.0260311, -0.556937, 2.94879e-05, 9.0174e-05, 0.000400735, 0.520468, 0.528952, 0.279504, 0.000932733, 0.000935278, 0.00173483
0.0124927, -0.0259647, -0.559981, 2.93707e-05, 9.15322e-05, 0.000401048, 0.520742, 0.528912, 0.279242, 0.000932032, 0.00093362, 0.00172428
0.013478, -0.0255825, -0.559979, 2.8962e-05, 9.12898e-05, 0.000400642, 0.521097, 0.529243, 0.279324, 0.000931392, 0.000931832, 0.00171407
0.0142697, -0.0254245, -0.560286, 2.86807e-05, 9.13523e-05, 0.000400347, 0.521559, 0.529872, 0.279752, 0.000930838, 0.000930098, 0.00170502
0.0148219, -0.0258576, -0.559162, 2.88164e-05, 9.06789e-05, 0.000399372, 0.522064, 0.530685, 0.280486, 0.000930337, 0.000928435, 0.00169765
0.0150934, -0.0260827, -0.559141, 2.87807e-05, 9.06734e-05, 0.000398774, 0.522461, 0.531511, 0.281483, 0.000929857, 0.000926734, 0.0016921
0.0163783, -0.0260421, -0.560676, 2.82078e-05, 9.16072e-05, 0.000398068, 0.522544, 0.532084, 0.282656, 0.000929375, 0.00092498, 0.00168827
0.0180366, -0.024719, -0.56269, 2.74292e-05, 9.29141e-05, 0.000398693, 0.522132, 0.532053, 0.283781, 0.000928836, 0.000923465, 0.00168607
0.0198848, -0.023019, -0.564159, 2.67972e-05, 9.41095e-05, 0.000399742, 0.521054, 0.531231, 0.284753, 0.00092819, 0.000922072, 0.00168495
0.0225227, -0.0208105, -0.566248, 2.60354e-05, 9.59211e-05, 0.000401127, 0.519382, 0.529625, 0.285431, 0.000927387, 0.000920811, 0.00168411
0.0247355, -0.0182946, -0.567139, 2.55615e-05, 9.74742e-05, 0.00040229, 0.517315, 0.527367, 0.285835, 0.00092643, 0.000919576, 0.00168313
0.026485, -0.0166881, -0.565022, 2.60108e-05, 9.81834e-05, 0.000402955, 0.515138, 0.524715, 0.28607, 0.000925402, 0.000918295, 0.00168187
0.0278673, -0.0158326, -0.562656, 2.66363e-05, 9.85345e-05, 0.00040366, 0.513049, 0.522024, 0.286296, 0.000924363, 0.000916886, 0.00168022
0.0281431, -0.0156176, -0.559044, 2.719e-05, 9.84254e-05, 0.000403847, 0.5114, 0.519541, 0.28641, 0.000923254, 0.000915525, 0.00167799
0.0282425, -0.0159857, -0.555582, 2.76814e-05, 9.83181e-05, 0.000404104, 0.510202, 0.517389, 0.2864, 0.000922063, 0.000914166, 0.00167548
0.028186, -0.0167362, -0.554656, 2.77843e-05, 9.80555e-05, 0.00040472, 0.509531, 0.51575, 0.286202, 0.000920826, 0.000912756, 0.00167279
0.0273893, -0.0179419, -0.551398, 2.72885e-05, 9.81144e-05, 0.000405411, 0.509485, 0.514851, 0.285787, 0.000919532, 0.000911148, 0.00167016
0.0270654, -0.0185479, -0.549725, 2.68864e-05, 9.831e-05, 0.000405838, 0.510003, 0.514783, 0.285217, 0.000918208, 0.000909382, 0.00166792
0.0263998, -0.0183526, -0.550869, 2.66982e-05, 9.7968e-05, 0.00040561, 0.511086, 0.515595, 0.28447, 0.00091693, 0.000907403, 0.00166594
0.0262031, -0.018747, -0.549808, 2.62296e-05, 9.84955e-05, 0.00040588, 0.51264, 0.517257, 0.283637, 0.000915656, 0.000905149, 0.0016643
0.02586, -0.0197453, -0.549434, 2.54932e-05, 9.85678e-05, 0.000406729, 0.514475, 0.519574, 0.282785, 0.000914354, 0.000902615, 0.00166309
0.0249454, -0.0201765, -0.550927, 2.53251e-05, 9.77251e-05, 0.000407003, 0.516322, 0.52229, 0.281932, 0.000913083, 0.000899637, 0.00166227
0.023643, -0.0204191, -0.551559, 2.51855e-05, 9.78984e-05, 0.000407409, 0.518109, 0.525239, 0.281158, 0.000911806, 0.000896526, 0.00166168
0.0235514, -0.0210133, -0.552304, 2.49494e-05, 9.73646e-05, 0.000407714, 0.519745, 0.528254, 0.280508, 0.000910451, 0.00089328, 0.00166124
0.0227865, -0.0227869, -0.554858, 2.45405e-05, 9.59912e-05, 0.000408105, 0.521077, 0.531094, 0.280009, 0.000909039, 0.000889946, 0.00166092
0.0233906, -0.0240489, -0.553778, 2.34678e-05, 9.728e-05, 0.000408804, 0.522212, 0.533648, 0.279692, 0.000907517, 0.000886882, 0.00166051
0.0209595, -0.0258991, -0.559864, 2.45725e-05, 9.40937e-05, 0.000409118, 0.523051, 0.535865, 0.279532, 0.000905894, 0.000883795, 0.00166025
0.0219127, -0.025673, -0.557519, 2.39602e-05, 9.54798e-05, 0.000409108, 0.523552, 0.537588, 0.279496, 0.000904201, 0.000880843, 0.00165999
0.0216543, -0.0259445, -0.558602, 2.41442e-05, 9.49903e-05, 0.000409041, 0.523904, 0.538865, 0.279542, 0.000902367, 0.00087815, 0.00165975
0.0218162, -0.0258397, -0.558364, 2.40298e-05, 9.50512e-05, 0.000409011, 0.524101, 0.539696, 0.27963, 0.000900437, 0.000875668, 0.00165951
0.0210237, -0.0256825, -0.560124, 2.46901e-05, 9.41506e-05, 0.000409071, 0.524173, 0.540113, 0.279722, 0.000898475, 0.000873455, 0.00165929
0.0209676, -0.0251588, -0.560662, 2.47356e-05, 9.36468e-05, 0.000409063, 0.52413, 0.540191, 0.2798, 0.000896559, 0.00087146, 0.00165908
0.0212095, -0.0250693, -0.559979, 2.45007e-05, 9.37807e-05, 0.00040904, 0.524007, 0.540007, 0.279836, 0.00089477, 0.00086976, 0.00165892
0.0207991, -0.0247413, -0.559875, 2.46783e-05, 9.35705e-05, 0.000409143, 0.523813, 0.539651, 0.279835, 0.000893169, 0.000868312, 0.0016588
0.0210215, -0.0244245, -0.56079, 2.46411e-05, 9.33845e-05, 0.000409091, 0.523555, 0.539196, 0.27979, 0.000891787, 0.000867082, 0.00165871
0.0209508, -0.0241465, -0.561427, 2.47201e-05, 9.32598e-05, 0.000409112, 0.52326, 0.538705, 0.279709, 0.000890643, 0.00086604, 0.00165865
0.0213018, -0.0234536, -0.56172, 2.45221e-05, 9.3036e-05, 0.000409117, 0.52294, 0.538224, 0.279593, 0.000889732, 0.000865162, 0.00165861
0.0209062, -0.0227297, -0.560929, 2.44993e-05, 9.26586e-05, 0.000409183, 0.522632, 0.537791, 0.279465, 0.00088904, 0.000864438, 0.00165859
0.0211005, -0.0223969, -0.561138, 2.44263e-05, 9.25993e-05, 0.000409188, 0.522346, 0.537426, 0.279333, 0.000888539, 0.000863846, 0.00165857
0.0215166, -0.0222917, -0.561277, 2.43194e-05, 9.2624e-05, 0.000409185, 0.522112, 0.537142, 0.279201, 0.000888194, 0.000863378, 0.00165857
0.0218862, -0.0219732, -0.560783, 2.41935e-05, 9.24872e-05, 0.000409193, 0.521936, 0.536946, 0.279073, 0.000887971, 0.000863011, 0.00165857
0.0220902, -0.0220605, -0.560421, 2.41468e-05, 9.24444e-05, 0.000409198, 0.52184, 0.536845, 0.278965, 0.000887838, 0.000862735, 0.00165856
0.0224266, -0.0216318, -0.56044, 2.40974e-05, 9.2397e-05, 0.000409208, 0.521823, 0.536836, 0.278866, 0.000887766, 0.00086253, 0.00165855
0.0224672, -0.0216782, -0.560662, 2.40949e-05, 9.24354e-05, 0.000409214, 0.521894, 0.53692, 0.278783, 0.000887731, 0.000862382, 0.00165855
0.0225118, -0.021581, -0.559921, 2.40916e-05, 9.23257e-05, 0.000409209, 0.522058, 0.537099, 0.278721, 0.000887715, 0.000862276, 0.00165853
0.0227716, -0.0214219, -0.560256, 2.40891e-05, 9.23507e-05, 0.000409217, 0.522302, 0.537361, 0.27867, 0.000887705, 0.0008622, 0.00165852
0.0224428, -0.0209743, -0.559919, 2.41185e-05, 9.23279e-05, 0.000409175, 0.52263, 0.537707, 0.278626, 0.000887692, 0.000862143, 0.0016585
0.022436, -0.0206332, -0.559659, 2.41455e-05, 9.23113e-05, 0.000409149, 0.523033, 0.538131, 0.278596, 0.000887672, 0.000862096, 0.00165849
0.022187, -0.0206341, -0.559535, 2.41417e-05, 9.23173e-05, 0.000409138, 0.523504, 0.538623, 0.278572, 0.000887642, 0.000862053, 0.00165847
0.0222509, -0.0203458, -0.558787, 2.41846e-05, 9.22836e-05, 0.000409115, 0.524035, 0.539179, 0.278554, 0.000887604, 0.000862011, 0.00165845
0.0223532, -0.0202437, -0.558812, 2.4198e-05, 9.22795e-05, 0.000409113, 0.524614, 0.539784, 0.278539, 0.000887557, 0.000861968, 0.00165844
0.0225892, -0.0196532, -0.558941, 2.42715e-05, 9.22832e-05, 0.000409072, 0.525242, 0.54044, 0.278533, 0.000887504, 0.000861922, 0.00165842
0.0226628, -0.0192225, -0.559097, 2.43217e-05, 9.2294e-05, 0.000409044, 0.525908, 0.541135, 0.27853, 0.000887446, 0.000861873, 0.00165841
0.0225093, -0.0196794, -0.559045, 2.42617e-05, 9.22919e-05, 0.000409075, 0.526607, 0.541864, 0.278532, 0.000887385, 0.000861821, 0.00165839
0.0224998, -0.0202424, -0.559182, 2.41935e-05, 9.22721e-05, 0.000409115, 0.527324, 0.542613, 0.278534, 0.000887323, 0.000861768, 0.00165838
0.0227998, -0.0203881, -0.559859, 2.41849e-05, 9.22262e-05, 0.00040913, 0.528052, 0.543373, 0.278532, 0.000887262, 0.000861714, 0.00165837
0.0226049, -0.0206416, -0.559714, 2.41488e-05, 9.22417e-05, 0.000409141, 0.528789, 0.544142, 0.278529, 0.000887201, 0.00086166, 0.00165835
0.0224262, -0.0209585, -0.559605, 2.41065e-05, 9.22561e-05, 0.000409161, 0.52953, 0.544914, 0.278532, 0.000887141, 0.000861607, 0.00165834
0.0223118, -0.0213733, -0.559708, 2.40547e-05, 9.22596e-05, 0.000409185, 0.530272, 0.545685, 0.278541, 0.000887084, 0.000861555, 0.00165833
0.0228873, -0.0217257, -0.559606, 2.40242e-05, 9.21932e-05, 0.000409206, 0.531011, 0.546451, 0.278547, 0.000887028, 0.000861505, 0.00165832
0.0232839, -0.0222153, -0.559551, 2.39709e-05, 9.21471e-05, 0.000409236, 0.531746, 0.547213, 0.278555, 0.000886975, 0.000861456, 0.00165831
0.0235649, -0.0226392, -0.559702, 2.39245e-05, 9.21119e-05, 0.00040926, 0.532478, 0.547969, 0.278565, 0.000886923, 0.000861409, 0.00165831
0.0230993, -0.0228841, -0.560023, 2.38966e-05, 9.21561e-05, 0.000409269, 0.533203, 0.548716, 0.278566, 0.000886872, 0.000861362, 0.0016583
0.0234592, -0.0232017, -0.560227, 2.38629e-05, 9.21174e-05, 0.000409284, 0.533925, 0.54946, 0.278568, 0.000886823, 0.000861317, 0.00165829
0.0236861, -0.0234821, -0.560598, 2.38313e-05, 9.20913e-05, 0.000409298, 0.534645, 0.550199, 0.278573, 0.000886774, 0.000861273, 0.00165828
0.0237622, -0.0236896, -0.560847, 2.38099e-05, 9.20829e-05, 0.000409308, 0.535357, 0.55093, 0.278577, 0.000886727, 0.00086123, 0.00165827
0.0238021, -0.023947, -0.561391, 2.37814e-05, 9.2077e-05, 0.000409321, 0.536061, 0.551652, 0.278578, 0.000886681, 0.000861188, 0.00165827
0.0234412, -0.0237949, -0.561161, 2.37995e-05, 9.21133e-05, 0.000409316, 0.536755, 0.552364, 0.278573, 0.000886636, 0.000861147, 0.00165826
0.0237812, -0.0236711, -0.560862, 2.3813e-05, 9.20775e-05, 0.000409301, 0.53744, 0.553066, 0.278569, 0.000886592, 0.000861107, 0.00165825
0.0233972, -0.0233925, -0.560524, 2.38408e-05, 9.21149e-05, 0.000409293, 0.538117, 0.553759, 0.278566, 0.000886549, 0.000861068, 0.00165824
0.0235357, -0.0237705, -0.560553, 2.38e-05, 9.21029e-05, 0.000409312, 0.53879, 0.554449, 0.278567, 0.000886506, 0.00086103, 0.00165823
0.0237314, -0.023945, -0.560322, 2.37844e-05, 9.20838e-05, 0.000409318, 0.539462, 0.555138, 0.278573, 0.000886464, 0.000860992, 0.00165823
0.0236077, -0.0234754, -0.559449, 2.38345e-05, 9.20919e-05, 0.000409293, 0.540129, 0.555822, 0.278574, 0.000886423, 0.000860955, 0.00165822
