0.00370678, -0.000616392, -0.55848, 6.38645e-05, -0.000248018, 0.000146017, 0.0316228, 0.0316228, 0.0316228, 0.0316228, 0.0316228, 0.0316228
0.00370678, -0.000616392, -0.55848, 6.38645e-05, -0.000248018, 0.000146017, 0.173642, 0.173642, 0.173642, 0.0316228, 0.0316228, 0.0316228
0.00302147, -0.000641935, -0.558925, 7.72973e-05, -9.29711e-05, 0.000117156, 0.194302, 0.1943, 0.194252, 0.0315531, 0.0315647, 0.0315958
0.00239983, -0.000772461, -0.5586, 4.53661e-05, -4.48786e-05, 8.9875e-05, 0.212576, 0.212568, 0.212214, 0.0314424, 0.0314648, 0.0315711
0.00367158, -0.000479, -0.554277, -3.37591e-05, -0.000287812, 0.000127785, 0.22895, 0.22893, 0.227621, 0.0312776, 0.0313079, 0.03155
0.00367929, 0.000243556, -0.550082, -1.67513e-05, -0.000282696, 0.000141964, 0.24382, 0.243787, 0.24039, 0.0310566, 0.0310904, 0.0315325
0.00314959, -0.000108544, -0.556955, 4.66855e-06, -0.000125098, 0.000128315, 0.257487, 0.257443, 0.250489, 0.0307811, 0.0308146, 0.0315167
0.0043833, 7.16932e-05, -0.567168, 0.00011083, -0.000406926, 0.000124516, 0.27016, 0.270108, 0.258105, 0.0304465, 0.0304771, 0.0315008
0.00406105, -0.000683841, -0.583905, 2.67524e-05, -0.000424672, 0.000130935, 0.281941, 0.281881, 0.263632, 0.0300487, 0.0300757, 0.0314844
0.0037405, -0.000704937, -0.588465, 8.33603e-05, -0.000346546, 0.000113868, 0.292865, 0.292792, 0.267574, 0.02959, 0.0296138, 0.0314673
0.00435897, -0.00167202, -0.586553, -5.49573e-05, -0.000430934, 9.76027e-05, 0.302958, 0.302867, 0.270402, 0.0290654, 0.0290866, 0.03145
0.00452328, -0.00165962, -0.586042, -5.37746e-05, -0.000431688, 8.66922e-05, 0.312234, 0.312122, 0.272469, 0.0284723, 0.0284919, 0.0314328
0.0031172, -0.00184452, -0.583048, -8.82728e-05, -0.000264968, 0.000106295, 0.320747, 0.320613, 0.274027, 0.0278179, 0.0278363, 0.0314157
0.00379764, -0.00168959, -0.584544, -6.45769e-05, -0.000379324, 9.65986e-05, 0.328611, 0.328454, 0.275242, 0.0271116, 0.0271288, 0.0313985
0.00276868, -0.00196438, -0.587488, -0.000104732, -0.000286316, 0.000106008, 0.335951, 0.335768, 0.27618, 0.0263655, 0.026381, 0.0313814
0.0015675, -0.0014857, -0.587975, -6.33335e-05, -0.000141113, 0.00010394, 0.342888, 0.342677, 0.27689, 0.0256038, 0.0256168, 0.0313649
-0.000725736, -0.000708013, -0.585823, -8.37632e-06, 9.32264e-05, 0.000105704, 0.34948, 0.349252, 0.277407, 0.0248601, 0.0248691, 0.0313491
-0.00213834, -0.000276977, -0.579408, 3.44544e-05, 0.000157989, 0.000103933, 0.355789, 0.355577, 0.277777, 0.0241586, 0.0241619, 0.0313336
-0.00358688, 0.000270906, -0.573242, 9.0715e-05, 0.000191078, 0.000108089, 0.361928, 0.361795, 0.278053, 0.0235036, 0.0234986, 0.0313175
-0.00639619, 0.000617608, -0.561694, 0.000136822, 0.00022561, 0.00011023, 0.36804, 0.368081, 0.278278, 0.0228872, 0.0228709, 0.0312992
-0.00899253, 0.000774325, -0.5491, 0.000178257, 0.00020907, 0.000106727, 0.374284, 0.374594, 0.278491, 0.0222996, 0.02227, 0.031278
-0.0118025, 0.00105507, -0.537858, 0.000232459, 0.000201825, 0.000119046, 0.38082, 0.38144, 0.278716, 0.0217321, 0.0216891, 0.0312554
-0.0136891, 0.000907785, -0.527076, 0.000264674, 0.000120459, 0.000126189, 0.38775, 0.388667, 0.278963, 0.0211787, 0.0211235, 0.0312326
-0.0153637, -0.000159835, -0.51817, 0.000181853, 9.79205e-05, 0.000118358, 0.395064, 0.396227, 0.279227, 0.0206418, 0.0205757, 0.0312098
-0.0158686, -0.00130773, -0.511815, 0.000126135, 6.92444e-05, 0.000112364, 0.402661, 0.403994, 0.279488, 0.0201291, 0.0200549, 0.0311878
-0.0153094, -0.00315864, -0.510502, -7.51316e-05, 4.97865e-06, 7.76079e-05, 0.410465, 0.411854, 0.279756, 0.0196403, 0.0195634, 0.0311673
-0.0146519, -0.00422433, -0.512049, -0.000234184, -3.97445e-05, 6.66433e-05, 0.418411, 0.419652, 0.280092, 0.0191702, 0.0191016, 0.0311482
-0.0140293, -0.00429489, -0.51598, -0.000423251, -5.29564e-05, 5.19682e-05, 0.426418, 0.4271, 0.280605, 0.0187098, 0.0186699, 0.031129
-0.0129025, -0.00255154, -0.521378, -0.0005661, -0.00011433, 2.58941e-05, 0.434456, 0.433832, 0.281488, 0.0182439, 0.0182639, 0.0311065
-0.0120631, -0.000493705, -0.527057, -0.00083466, -0.000177742, -2.24677e-05, 0.442511, 0.439392, 0.282964, 0.0177564, 0.0178779, 0.0310792
-0.0116426, 0.00361506, -0.532415, -0.00097757, -0.000202713, -3.21427e-05, 0.450545, 0.443229, 0.285297, 0.0172378, 0.017512, 0.0310445
-0.0116228, 0.00951087, -0.538748, -0.00126316, -0.000164952, -3.87604e-05, 0.458534, 0.44483, 0.288774, 0.0166844, 0.0171681, 0.0309984
-0.0114203, 0.0140193, -0.543089, -0.00154553, -0.000157539, -7.22113e-05, 0.466453, 0.443809, 0.293605, 0.0160977, 0.0168485, 0.0309342
-0.0114688, 0.0173964, -0.54512, -0.00163336, -0.000132697, -5.57893e-05, 0.474291, 0.440107, 0.299835, 0.0154859, 0.0165527, 0.0308484
-0.0119076, 0.0214462, -0.546521, -0.00168122, -6.48173e-05, 1.41198e-05, 0.482023, 0.4339, 0.307365, 0.0148645, 0.0162832, 0.0307324
-0.0119225, 0.0252367, -0.547721, -0.00174814, -5.84741e-05, 2.47756e-05, 0.489635, 0.425615, 0.315959, 0.0142517, 0.0160429, 0.0305764
-0.0116473, 0.0267419, -0.548341, -0.00180102, -8.10823e-05, -2.02876e-05, 0.497109, 0.415907, 0.325262, 0.0136677, 0.0158339, 0.0303761
-0.0115778, 0.0270597, -0.547416, -0.00170355, -8.0113e-05, -1.50026e-05, 0.504428, 0.405477, 0.334917, 0.0131284, 0.0156571, 0.030129
-0.0114517, 0.027786, -0.545663, -0.0015493, -6.95947e-05, 9.50429e-06, 0.511576, 0.39496, 0.344624, 0.0126435, 0.015512, 0.0298318
-0.0111443, 0.0290999, -0.544382, -0.00145605, -7.28878e-05, -8.75286e-06, 0.518548, 0.384897, 0.354181, 0.0122172, 0.0153966, 0.0294838
-0.0110108, 0.0293301, -0.542231, -0.00129829, -7.13155e-05, 2.10047e-06, 0.525334, 0.375691, 0.363463, 0.0118502, 0.0153079, 0.0290887
-0.010995, 0.0301845, -0.54006, -0.00117505, -6.46213e-05, 3.31334e-05, 0.531929, 0.367597, 0.372407, 0.0115395, 0.0152419, 0.028651
-0.0113415, 0.0322235, -0.538016, -0.00108222, -5.0562e-05, 0.000117325, 0.538353, 0.360738, 0.381009, 0.0112789, 0.0151945, 0.0281718
-0.0112064, 0.0324773, -0.536402, -0.0010031, -4.98199e-05, 0.000103691, 0.544634, 0.355186, 0.389274, 0.0110624, 0.0151613, 0.0276585
-0.0107577, 0.0322206, -0.535161, -0.000938636, -5.9044e-05, 2.91844e-05, 0.55082, 0.351006, 0.397204, 0.0108839, 0.0151375, 0.0271272
-0.0109971, 0.0327574, -0.533623, -0.000876551, -6.40574e-05, 5.64023e-05, 0.55694, 0.348205, 0.404763, 0.010737, 0.0151202, 0.0265865
-0.011117, 0.0301557, -0.531977, -0.000822607, -6.47291e-05, 6.4495e-05, 0.56304, 0.346848, 0.41188, 0.0106155, 0.0151067, 0.0260496
-0.0113137, 0.0285846, -0.529961, -0.00076832, -7.21138e-05, 5.60157e-05, 0.569158, 0.347032, 0.418408, 0.0105126, 0.015095, 0.0255266
-0.0106205, 0.0271692, -0.529485, -0.00077497, -7.72333e-05, -7.81243e-05, 0.575276, 0.348795, 0.42408, 0.0104204, 0.015085, 0.0250121
-0.0110559, 0.0258167, -0.528541, -0.000779554, -7.85188e-05, -2.31796e-05, 0.581382, 0.352192, 0.428507, 0.0103297, 0.0150767, 0.024506
-0.0114035, 0.024847, -0.528312, -0.000805911, -7.7568e-05, 2.38485e-05, 0.587475, 0.357226, 0.431183, 0.0102293, 0.0150696, 0.0240108
-0.0115747, 0.0244141, -0.528781, -0.000828912, -7.84543e-05, 5.21741e-05, 0.593502, 0.363755, 0.431532, 0.010108, 0.0150632, 0.0235278
-0.0112051, 0.0249738, -0.531926, -0.00082146, -7.31383e-05, 6.96263e-05, 0.599388, 0.371522, 0.428931, 0.00995512, 0.0150567, 0.0230696
-0.0105556, 0.0251143, -0.53521, -0.000803855, -6.98525e-05, 4.69595e-05, 0.605044, 0.380086, 0.42284, 0.00976032, 0.015049, 0.0226518
-0.00770044, 0.0244495, -0.548276, -0.000679119, -2.44546e-05, 9.04953e-05, 0.610375, 0.388793, 0.413041, 0.00951741, 0.015039, 0.0222847
-0.00567379, 0.022899, -0.555193, -0.000617353, 1.46447e-06, 5.88591e-05, 0.615334, 0.396857, 0.399787, 0.00922723, 0.015027, 0.0219753
-0.00387362, 0.0213136, -0.560644, -0.000549459, 1.36751e-05, 1.26051e-05, 0.619998, 0.40351, 0.383726, 0.00889362, 0.015014, 0.0217338
-0.00438026, 0.0222821, -0.561437, -0.000501076, 1.18606e-05, 4.85317e-05, 0.624495, 0.40815, 0.365959, 0.00852459, 0.0149997, 0.0215623
-0.00472952, 0.0240001, -0.561331, -0.000457491, -1.03461e-05, 3.11824e-05, 0.628936, 0.410465, 0.347952, 0.00813355, 0.0149811, 0.0214531
-0.0042538, 0.0248866, -0.560438, -0.000460373, -4.46831e-05, -1.63233e-05, 0.633393, 0.410434, 0.331239, 0.00773764, 0.014953, 0.0213932
-0.00407394, 0.0266716, -0.557992, -0.000497057, -7.56224e-05, -4.33173e-05, 0.637839, 0.408292, 0.317178, 0.00735527, 0.0149105, 0.0213652
-0.00421191, 0.0294462, -0.554984, -0.00054295, -0.000106701, -5.3919e-05, 0.642262, 0.404307, 0.306516, 0.00699771, 0.0148498, 0.0213549
-0.00427825, 0.0321863, -0.552563, -0.000580559, -0.000142286, -4.98886e-05, 0.646703, 0.398778, 0.299477, 0.00666953, 0.014765, 0.0213462
-0.0043036, 0.0339453, -0.551842, -0.000587892, -0.000177999, -3.45833e-05, 0.651211, 0.392066, 0.295915, 0.00637309, 0.0146489, 0.0213194
-0.00521922, 0.0360094, -0.553661, -0.000539641, -0.00021597, -1.63742e-05, 0.655831, 0.384599, 0.295412, 0.00611021, 0.0144969, 0.0212579
-0.0055188, 0.0364819, -0.555383, -0.000502618, -0.000256186, 1.17743e-05, 0.66055, 0.376756, 0.297364, 0.00588141, 0.0143102, 0.0211503
-0.00538963, 0.036351, -0.556626, -0.000478761, -0.000301815, 5.4464e-05, 0.665292, 0.368839, 0.301119, 0.00568593, 0.0140965, 0.0209869
-0.00566388, 0.0365874, -0.558513, -0.000445506, -0.000324431, 7.45543e-05, 0.669987, 0.361156, 0.306075, 0.00552214, 0.0138666, 0.0207644
-0.00611317, 0.0355751, -0.562187, -0.000383129, -0.000319986, 6.51106e-05, 0.674605, 0.354028, 0.311727, 0.00538772, 0.0136314, 0.0204912
-0.00633507, 0.0363787, -0.566174, -0.000328265, -0.000350135, 0.000103181, 0.679153, 0.347702, 0.317669, 0.00527949, 0.0134012, 0.0201847
-0.00609927, 0.0363167, -0.569228, -0.000289742, -0.000371644, 0.00014012, 0.683674, 0.342298, 0.323621, 0.00519331, 0.0131826, 0.0198601
-0.00593647, 0.0352423, -0.572334, -0.000251494, -0.000368517, 0.000142187, 0.688189, 0.337835, 0.32938, 0.00512517, 0.0129784, 0.0195242
-0.00586804, 0.0349502, -0.575354, -0.000220469, -0.000361539, 0.000138175, 0.692695, 0.334333, 0.334826, 0.00507198, 0.0127895, 0.0191807
-0.00572976, 0.032712, -0.577719, -0.000195023, -0.000332882, 0.000100559, 0.697195, 0.331864, 0.339875, 0.00503153, 0.0126169, 0.0188371
-0.00545259, 0.0301822, -0.578563, -0.00018614, -0.000309545, 7.11033e-05, 0.701712, 0.330536, 0.344408, 0.00500201, 0.0124607, 0.0185077
-0.00529004, 0.0261958, -0.578295, -0.000188411, -0.00027669, 2.21523e-05, 0.706228, 0.330435, 0.348251, 0.0049812, 0.0123218, 0.0182015
-0.0050416, 0.0202894, -0.579129, -0.000195136, -0.000252996, -1.96641e-05, 0.710639, 0.331625, 0.351168, 0.00496648, 0.0122034, 0.0179211
-0.00498953, 0.0179764, -0.576183, -0.000209972, -0.0002417, -3.44837e-05, 0.71484, 0.334119, 0.352852, 0.00495421, 0.0121067, 0.0176691
-0.00523913, 0.0181512, -0.570594, -0.000211547, -0.000239133, -2.84018e-05, 0.718762, 0.33782, 0.352967, 0.00493938, 0.0120297, 0.0174459
-0.00644474, 0.0184627, -0.562678, -0.000194351, -0.000231135, -3.88721e-05, 0.722362, 0.342486, 0.351205, 0.00491608, 0.0119682, 0.0172533
-0.00816253, 0.0175463, -0.555899, -0.000171305, -0.000226222, -6.00251e-05, 0.725609, 0.347677, 0.347399, 0.00487844, 0.0119168, 0.0170912
-0.009671, 0.0151666, -0.552202, -0.000163536, -0.000231396, -8.15746e-05, 0.728522, 0.352791, 0.34159, 0.00482191, 0.0118699, 0.0169611
-0.0110762, 0.0122551, -0.548723, -0.000153879, -0.000248549, -9.0763e-05, 0.731217, 0.357212, 0.334157, 0.00474477, 0.0118225, 0.0168621
-0.012739, 0.0110392, -0.546253, -0.000136891, -0.000238405, -0.000115613, 0.733915, 0.360451, 0.325804, 0.00464876, 0.0117694, 0.0167894
-0.0139703, 0.0110751, -0.547966, -0.000153168, -0.000210399, -0.00015772, 0.73673, 0.362159, 0.317435, 0.00453821, 0.0117087, 0.0167406
-0.0152253, 0.0109066, -0.551, -0.000185996, -0.000191265, -0.000195096, 0.739709, 0.362177, 0.310011, 0.00441907, 0.0116402, 0.0167112
-0.0164679, 0.00999831, -0.553028, -0.000210576, -0.000187878, -0.000217346, 0.74294, 0.360579, 0.304297, 0.00429755, 0.0115624, 0.0166945
-0.0179351, 0.00861703, -0.55447, -0.000229743, -0.000178359, -0.000235707, 0.746441, 0.35753, 0.300686, 0.00417861, 0.0114757, 0.0166862
-0.0187744, 0.00791543, -0.555508, -0.000243378, -0.000163957, -0.000240971, 0.75021, 0.353268, 0.299189, 0.00406627, 0.0113849, 0.0166821
-0.0182083, 0.00873074, -0.554099, -0.000231946, -0.000131454, -0.00023361, 0.754252, 0.348087, 0.299587, 0.00396321, 0.0112951, 0.0166772
-0.017899, 0.00865502, -0.552625, -0.000219448, -0.000109114, -0.000227005, 0.758554, 0.342327, 0.301602, 0.00387076, 0.0112065, 0.0166683
-0.0180289, 0.00771623, -0.552256, -0.000215104, -0.000105219, -0.000226435, 0.763065, 0.336281, 0.304859, 0.00378955, 0.0111197, 0.0166543
-0.0173224, 0.0104796, -0.550938, -0.00021224, -8.12737e-05, -0.000213996, 0.767735, 0.330163, 0.308903, 0.00371936, 0.0110402, 0.0166319
-0.0175949, 0.00972147, -0.553999, -0.000232053, -9.4738e-05, -0.000232561, 0.77253, 0.324204, 0.313374, 0.00365983, 0.0109722, 0.0165978
-0.0174499, 0.0101524, -0.55257, -0.000224375, -8.59452e-05, -0.000221647, 0.777418, 0.31868, 0.317966, 0.00361045, 0.0109106, 0.0165572
-0.0173, 0.0133725, -0.548474, -0.000211253, -6.20316e-05, -0.000184959, 0.782344, 0.313754, 0.322516, 0.00357007, 0.0108521, 0.0165112
-0.0174348, 0.0171221, -0.544066, -0.000199337, -4.56595e-05, -0.000147633, 0.787247, 0.309513, 0.326938, 0.00353725, 0.0107963, 0.0164572
-0.0177453, 0.0205735, -0.540996, -0.000192682, -4.5992e-05, -0.000126533, 0.792109, 0.30604, 0.331211, 0.00351078, 0.0107449, 0.0163911
-0.0181198, 0.0213043, -0.537653, -0.000178901, -5.70069e-05, -0.000119577, 0.796917, 0.303423, 0.335278, 0.00348971, 0.0106978, 0.0163123
-0.0185202, 0.0222631, -0.535886, -0.000173681, -6.17948e-05, -0.000110075, 0.801672, 0.301736, 0.339041, 0.00347273, 0.0106568, 0.0162173
-0.0187459, 0.021538, -0.534201, -0.000166954, -6.84467e-05, -0.000119004, 0.806378, 0.30103, 0.34239, 0.00345853, 0.0106255, 0.0160986
-0.0188748, 0.0204337, -0.532665, -0.000161883, -7.45444e-05, -0.000135869, 0.811007, 0.30137, 0.345184, 0.0034459, 0.0106047, 0.0159527
-0.0189619, 0.0192301, -0.531968, -0.000160122, -8.01677e-05, -0.000157078, 0.815502, 0.302786, 0.347205, 0.00343353, 0.0105921, 0.0157838
-0.0191904, 0.0192873, -0.533413, -0.000161963, -8.21139e-05, -0.000148851, 0.819814, 0.305287, 0.348192, 0.00341971, 0.0105847, 0.0156012
-0.019132, 0.0221164, -0.540057, -0.000153429, -8.63628e-05, -0.000125573, 0.823908, 0.30882, 0.347856, 0.00340211, 0.0105804, 0.0154118
-0.0189867, 0.0248713, -0.547561, -0.000132998, -9.39069e-05, -0.000113408, 0.827723, 0.313255, 0.345895, 0.00337835, 0.0105779, 0.015227
-0.0187917, 0.0266038, -0.553755, -0.000108014, -0.000104048, -0.000121643, 0.831234, 0.318329, 0.342068, 0.00334568, 0.0105759, 0.0150577
-0.0187439, 0.0271614, -0.557592, -8.88489e-05, -0.000114742, -0.000138996, 0.834437, 0.323637, 0.336272, 0.00330144, 0.0105724, 0.0149145
-0.0189246, 0.0270004, -0.559873, -7.75421e-05, -0.000124362, -0.000146743, 0.837305, 0.328676, 0.328749, 0.00324453, 0.0105654, 0.0148043
-0.0184586, 0.0271894, -0.559863, -7.4477e-05, -0.000129297, -0.00016837, 0.839822, 0.332918, 0.320208, 0.00317714, 0.0105537, 0.0147281
-0.0180647, 0.0276576, -0.559436, -7.37584e-05, -0.000134126, -0.000184844, 0.841993, 0.33592, 0.311613, 0.00310351, 0.0105365, 0.0146811
-0.018072, 0.0280354, -0.559072, -7.48179e-05, -0.000136715, -0.00018826, 0.843806, 0.337417, 0.303913, 0.00302834, 0.0105126, 0.0146572
-0.017022, 0.0274915, -0.557308, -8.80885e-05, -0.000124395, -0.000187378, 0.845324, 0.337372, 0.297843, 0.00295574, 0.010481, 0.0146489
-0.0170104, 0.0284395, -0.556836, -8.98831e-05, -0.000134491, -0.000187727, 0.846661, 0.33596, 0.293806, 0.00288894, 0.0104384, 0.0146455
-0.0170148, 0.0291888, -0.556748, -9.02773e-05, -0.000150673, -0.000181601, 0.847822, 0.333494, 0.291812, 0.00282978, 0.0103812, 0.014634
-0.0185203, 0.0305718, -0.558318, -8.09935e-05, -0.000174774, -0.000173142, 0.848826, 0.330386, 0.291608, 0.00277876, 0.0103059, 0.0145996
-0.0211733, 0.0330668, -0.561517, -6.50887e-05, -0.000222778, -0.000147582, 0.849818, 0.32708, 0.292792, 0.00273542, 0.010212, 0.0145329
-0.022738, 0.03413, -0.565167, -4.87606e-05, -0.00026653, -0.000111403, 0.851055, 0.32391, 0.294914, 0.00269857, 0.010105, 0.0144314
-0.0236251, 0.0344795, -0.568658, -3.40564e-05, -0.000292544, -8.56122e-05, 0.852626, 0.32115, 0.297633, 0.00266776, 0.00999009, 0.0142953
-0.0227849, 0.033191, -0.570813, -2.61504e-05, -0.00030602, -5.2099e-05, 0.85452, 0.319026, 0.30068, 0.00264282, 0.00987318, 0.0141318
-0.0213775, 0.031326, -0.571687, -2.27007e-05, -0.000298953, -3.97977e-05, 0.85675, 0.317666, 0.303811, 0.00262337, 0.0097642, 0.013956
-0.0191265, 0.0281275, -0.571399, -2.31106e-05, -0.000281711, -3.13143e-05, 0.859353, 0.317112, 0.306815, 0.00260872, 0.00967092, 0.0137837
-0.0173876, 0.0250428, -0.570954, -2.44647e-05, -0.000264256, -2.95967e-05, 0.862307, 0.317346, 0.309495, 0.00259805, 0.00959655, 0.0136266
-0.0170514, 0.0243643, -0.567803, -2.98813e-05, -0.000255275, -3.27373e-05, 0.865495, 0.318389, 0.311685, 0.00259065, 0.00953858, 0.0134947
-0.0167534, 0.0230469, -0.565336, -3.36456e-05, -0.000248951, -3.22431e-05, 0.86885, 0.320233, 0.313208, 0.00258545, 0.00949114, 0.013392
-0.0168888, 0.0213402, -0.564216, -3.54604e-05, -0.000235237, -4.72337e-05, 0.872301, 0.32276, 0.313883, 0.00258098, 0.00944912, 0.0133183
-0.0176743, 0.0206106, -0.562345, -3.46884e-05, -0.000226425, -6.21046e-05, 0.875684, 0.325685, 0.313582, 0.00257555, 0.00941033, 0.0132673
-0.0180925, 0.0202557, -0.56242, -3.48159e-05, -0.000214282, -7.63353e-05, 0.878851, 0.328678, 0.31233, 0.00256787, 0.00937251, 0.0132318
-0.0191978, 0.0208558, -0.561115, -3.04715e-05, -0.000204608, -9.08785e-05, 0.881754, 0.331458, 0.310317, 0.00255744, 0.00933285, 0.0132063
-0.0193288, 0.0213291, -0.56192, -3.12802e-05, -0.000188352, -0.000101931, 0.884499, 0.333846, 0.307818, 0.00254453, 0.00928991, 0.0131873
-0.0194416, 0.0220329, -0.562512, -3.16469e-05, -0.000168962, -0.000112476, 0.887244, 0.335794, 0.30514, 0.00253002, 0.00924398, 0.0131731
-0.0191212, 0.0225278, -0.563741, -3.46004e-05, -0.00014881, -0.000119652, 0.890124, 0.337355, 0.302559, 0.00251494, 0.0091954, 0.013162
-0.0188381, 0.0239776, -0.564518, -3.52465e-05, -0.000129428, -0.000122628, 0.89309, 0.338617, 0.300347, 0.00250031, 0.0091436, 0.0131526
-0.0183575, 0.0251726, -0.565602, -3.74862e-05, -0.000106049, -0.000125732, 0.895975, 0.339623, 0.298719, 0.0024869, 0.00908898, 0.0131433
-0.0178267, 0.0263498, -0.566304, -3.8838e-05, -8.82565e-05, -0.000125328, 0.898626, 0.340372, 0.297778, 0.00247517, 0.00903183, 0.0131326
-0.0166652, 0.0274929, -0.568051, -4.30425e-05, -6.51214e-05, -0.000125553, 0.900916, 0.340802, 0.297443, 0.0024653, 0.00897169, 0.013121
-0.0171302, 0.0276488, -0.566771, -4.01121e-05, -6.87256e-05, -0.000123452, 0.90245, 0.340834, 0.297547, 0.0024573, 0.00890454, 0.0131099
-0.0176905, 0.0273931, -0.565476, -3.74672e-05, -7.40855e-05, -0.000124161, 0.902127, 0.340426, 0.29787, 0.00245088, 0.0088176, 0.0131004
-0.0172692, 0.0277115, -0.564496, -3.56908e-05, -7.19018e-05, -0.000122239, 0.897897, 0.339687, 0.298143, 0.00244548, 0.00868792, 0.013093
-0.0155907, 0.0284682, -0.567282, -3.97089e-05, -5.89223e-05, -0.00012087, 0.8869, 0.338972, 0.298074, 0.0024405, 0.0084875, 0.0130873
-0.0136089, 0.0292084, -0.568205, -4.08357e-05, -4.39472e-05, -0.000118188, 0.86627, 0.338908, 0.297532, 0.00243512, 0.00819574, 0.0130825
-0.0139224, 0.0289481, -0.568277, -3.95733e-05, -5.27866e-05, -0.000118259, 0.834565, 0.340232, 0.296532, 0.0024286, 0.00780986, 0.0130781
-0.0127394, 0.0289359, -0.564576, -3.45111e-05, -5.21087e-05, -0.000114107, 0.792633, 0.343439, 0.295169, 0.00242047, 0.00734681, 0.0130743
-0.0111352, 0.0289659, -0.561141, -3.05033e-05, -4.53515e-05, -0.000110707, 0.743265, 0.348526, 0.293661, 0.00241042, 0.00683782, 0.0130711
-0.0107407, 0.0286679, -0.559027, -2.66974e-05, -4.97874e-05, -0.000109848, 0.690272, 0.354985, 0.292208, 0.00239826, 0.00631922, 0.0130684
-0.00849372, 0.0283138, -0.557466, -2.27068e-05, -4.06828e-05, -0.000108349, 0.637463, 0.362023, 0.2909, 0.00238405, 0.00582396, 0.0130661
-0.00517514, 0.0278615, -0.558459, -2.08649e-05, -2.07841e-05, -0.00010653, 0.587783, 0.368913, 0.289783, 0.00236824, 0.00537492, 0.0130639
-0.00717166, 0.0265389, -0.559733, -1.45859e-05, -5.10782e-05, -0.000107511, 0.543072, 0.375169, 0.288863, 0.0023519, 0.00498346, 0.0130611
-0.00272201, 0.0257348, -0.559168, -1.17953e-05, -2.31496e-05, -0.000101331, 0.504218, 0.380583, 0.288105, 0.00233618, 0.0046516, 0.0130566
-0.000389775, 0.0245602, -0.55776, -6.94935e-06, -1.52648e-05, -9.33479e-05, 0.471427, 0.385183, 0.287484, 0.00232179, 0.00437691, 0.013049
0.000891425, 0.0233842, -0.556335, -2.44542e-06, -1.53422e-05, -8.31398e-05, 0.444457, 0.389154, 0.286985, 0.0023093, 0.0041543, 0.0130369
0.00140619, 0.0211414, -0.554808, 5.4433e-06, -2.92121e-05, -6.27946e-05, 0.422797, 0.392725, 0.286599, 0.00229891, 0.00397812, 0.0130203
0.00277334, 0.0200022, -0.553917, 8.4999e-06, -2.7246e-05, -5.08253e-05, 0.405811, 0.396115, 0.286315, 0.00229065, 0.00384199, 0.013
0.00404405, 0.0190449, -0.554366, 1.05766e-05, -2.42203e-05, -4.28676e-05, 0.392845, 0.399487, 0.286113, 0.00228436, 0.00373972, 0.0129781
0.00596373, 0.0177514, -0.557368, 1.28128e-05, -1.80621e-05, -3.58921e-05, 0.383292, 0.402952, 0.285985, 0.00227978, 0.00366574, 0.0129569
0.00626123, 0.0167442, -0.557308, 1.46452e-05, -2.17942e-05, -2.87734e-05, 0.376641, 0.406594, 0.28591, 0.00227693, 0.00361385, 0.0129368
0.0064618, 0.0157609, -0.556213, 1.58725e-05, -2.64301e-05, -1.98088e-05, 0.372471, 0.410428, 0.285888, 0.00227542, 0.00357964, 0.0129186
0.00688926, 0.0155091, -0.55535, 1.60262e-05, -2.68975e-05, -1.52697e-05, 0.370434, 0.414313, 0.285939, 0.00227471, 0.00356009, 0.0129051
0.00725414, 0.0146643, -0.55593, 1.63466e-05, -2.89936e-05, -1.18954e-05, 0.37025, 0.417921, 0.286089, 0.00227447, 0.00355126, 0.0128956
0.00770747, 0.0145998, -0.557586, 1.66119e-05, -2.85309e-05, -1.16488e-05, 0.371604, 0.420676, 0.286293, 0.00227432, 0.00354745, 0.0128882
0.00783719, 0.014246, -0.558942, 1.66496e-05, -2.81747e-05, -1.21886e-05, 0.374138, 0.42184, 0.286485, 0.00227364, 0.00354169, 0.0128817
0.00729695, 0.0139324, -0.559586, 1.71437e-05, -2.52621e-05, -1.56266e-05, 0.377461, 0.420636, 0.286619, 0.00227166, 0.00352641, 0.0128755
0.00656987, 0.0130724, -0.557995, 1.70567e-05, -1.96411e-05, -2.02549e-05, 0.381065, 0.416402, 0.286616, 0.00226767, 0.0034942, 0.0128693
0.00580229, 0.0124969, -0.559502, 1.89386e-05, -1.3669e-05, -2.25224e-05, 0.384334, 0.408839, 0.28645, 0.00226151, 0.00343856, 0.0128601
0.00440914, 0.0118073, -0.559221, 2.19433e-05, -4.95623e-06, -2.07902e-05, 0.386605, 0.398263, 0.28611, 0.0022534, 0.00335718, 0.0128449
0.00268374, 0.0104099, -0.559339, 2.64691e-05, 8.21211e-06, -1.42817e-05, 0.387347, 0.385599, 0.285635, 0.00224369, 0.00325214, 0.0128196
0.000869481, 0.0100263, -0.561439, 3.16779e-05, 1.25835e-05, 3.39873e-06, 0.386265, 0.372162, 0.285046, 0.00223269, 0.00313121, 0.0127847
-0.00246697, 0.00966543, -0.562735, 4.05548e-05, 1.59439e-05, 3.8774e-05, 0.383406, 0.359284, 0.284377, 0.00222036, 0.00300531, 0.0127453
-0.00362791, 0.00958804, -0.563487, 4.35841e-05, 1.55939e-05, 5.23531e-05, 0.379076, 0.347998, 0.283692, 0.00220663, 0.00288306, 0.0127064
-0.00491101, 0.00985328, -0.56286, 4.65384e-05, 1.28378e-05, 6.27328e-05, 0.373706, 0.338895, 0.283042, 0.00219167, 0.00277026, 0.0126719
-0.00684613, 0.0098518, -0.560838, 5.12257e-05, 1.06846e-05, 7.66487e-05, 0.367757, 0.332116, 0.282446, 0.00217567, 0.00267108, 0.0126444
-0.00756169, 0.00974539, -0.559025, 5.29055e-05, 1.05919e-05, 8.06887e-05, 0.361649, 0.327526, 0.281923, 0.00215845, 0.00258588, 0.0126267
-0.00907663, 0.00963053, -0.558585, 5.67143e-05, 8.07066e-06, 8.854e-05, 0.355751, 0.324824, 0.281496, 0.00214043, 0.00251187, 0.0126176
-0.0102463, 0.00918903, -0.559183, 6.03264e-05, 7.34793e-06, 9.36447e-05, 0.350336, 0.323631, 0.281169, 0.0021218, 0.00244627, 0.0126135
-0.0117151, 0.00919063, -0.55736, 6.32137e-05, 4.37786e-06, 9.72821e-05, 0.345562, 0.323563, 0.280927, 0.00210309, 0.00238915, 0.0126086
-0.0122344, 0.00894009, -0.556819, 6.46618e-05, 4.35914e-06, 9.79579e-05, 0.341496, 0.324279, 0.280735, 0.00208541, 0.00234218, 0.0126032
-0.0124396, 0.00896391, -0.557406, 6.49634e-05, 3.53169e-06, 9.96941e-05, 0.338182, 0.32556, 0.280589, 0.00206932, 0.00230509, 0.0125979
-0.0129678, 0.00869242, -0.558048, 6.63879e-05, 3.1627e-06, 0.000100265, 0.335646, 0.327265, 0.280487, 0.00205502, 0.00227585, 0.012591
-0.0136265, 0.00830833, -0.558788, 6.83745e-05, 3.22639e-06, 9.7715e-05, 0.333852, 0.329278, 0.280417, 0.00204258, 0.00225296, 0.0125808
-0.0146893, 0.00842827, -0.555841, 6.90672e-05, 1.28001e-06, 0.000101579, 0.332762, 0.331479, 0.280359, 0.00203273, 0.00223607, 0.0125698
-0.0151102, 0.00864978, -0.555499, 6.91298e-05, 1.15487e-07, 0.000104273, 0.33236, 0.333777, 0.280315, 0.00202591, 0.00222451, 0.0125605
-0.014648, 0.00873875, -0.556372, 6.84431e-05, 9.89902e-08, 0.000106113, 0.332597, 0.336103, 0.280289, 0.00202174, 0.00221703, 0.0125522
-0.0148532, 0.00861807, -0.556047, 6.86031e-05, 1.26288e-07, 0.000106603, 0.333415, 0.338388, 0.280287, 0.00201965, 0.0022125, 0.0125436
-0.0150216, 0.00862348, -0.554817, 6.86819e-05, 5.19382e-08, 0.000107283, 0.334733, 0.340487, 0.280292, 0.00201906, 0.00221011, 0.0125337
-0.0152279, 0.00874766, -0.552455, 6.89084e-05, -1.5153e-07, 0.000108443, 0.336453, 0.342225, 0.2803, 0.00201889, 0.00220911, 0.0125227
-0.015437, 0.00871762, -0.552978, 6.87399e-05, 1.52186e-07, 0.000108705, 0.338394, 0.34339, 0.280299, 0.00201797, 0.00220808, 0.0125128
-0.0154999, 0.00841462, -0.555016, 6.81631e-05, 1.67071e-07, 0.000107979, 0.340326, 0.343789, 0.280287, 0.00201551, 0.00220508, 0.0125055
-0.0158042, 0.00816302, -0.558858, 6.67939e-05, 3.06365e-07, 0.00010829, 0.341941, 0.343263, 0.280272, 0.0020114, 0.0021982, 0.0125013
-0.0157513, 0.00835191, -0.559407, 6.69527e-05, 7.00426e-07, 0.000107988, 0.342936, 0.341754, 0.280244, 0.00200587, 0.00218634, 0.0124985
-0.015526, 0.00866017, -0.557395, 6.8025e-05, 1.31654e-06, 0.000107493, 0.343121, 0.339306, 0.280208, 0.00199902, 0.00216883, 0.012496
-0.0143151, 0.007967, -0.556276, 7.07815e-05, -1.94858e-06, 0.000109369, 0.342465, 0.336096, 0.280184, 0.00199062, 0.00214554, 0.0124931
-0.0143173, 0.00853438, -0.555758, 7.09753e-05, -1.21412e-09, 0.00010788, 0.340997, 0.332468, 0.280188, 0.00198081, 0.00211781, 0.0124893
-0.0139608, 0.00899494, -0.555974, 7.16888e-05, 1.68161e-06, 0.000106877, 0.338815, 0.328771, 0.280216, 0.00197008, 0.00208722, 0.0124845
-0.0131254, 0.00966865, -0.557019, 7.30455e-05, 4.5161e-06, 0.000105866, 0.3361, 0.325252, 0.280253, 0.0019592, 0.0020548, 0.0124771
-0.0119466, 0.0095162, -0.556878, 7.55946e-05, 4.60913e-06, 0.000109062, 0.333084, 0.322105, 0.280297, 0.00194903, 0.00202168, 0.0124648
-0.0112128, 0.00933567, -0.556655, 7.71615e-05, 4.52511e-06, 0.000111633, 0.329992, 0.319471, 0.280347, 0.00194061, 0.00198917, 0.0124444
-0.0105791, 0.00849019, -0.555934, 7.84994e-05, 1.93854e-06, 0.000120859, 0.327036, 0.317452, 0.280399, 0.00193447, 0.00195867, 0.0124137
-0.0101874, 0.00768681, -0.556394, 7.92123e-05, -2.32756e-07, 0.000128408, 0.324403, 0.316104, 0.280458, 0.00193058, 0.00193146, 0.0123724
-0.010035, 0.00684065, -0.556335, 7.95632e-05, -2.73542e-06, 0.000136046, 0.322244, 0.315393, 0.280509, 0.00192831, 0.00190773, 0.0123201
-0.00985316, 0.00621624, -0.555565, 7.96623e-05, -4.6898e-06, 0.00014407, 0.320664, 0.315282, 0.280558, 0.00192697, 0.00188758, 0.0122604
-0.00899957, 0.00548362, -0.554565, 7.97601e-05, -6.65616e-06, 0.000160304, 0.319704, 0.315717, 0.280611, 0.00192602, 0.00187116, 0.0122002
-0.00825491, 0.00503812, -0.553899, 7.9675e-05, -7.77499e-06, 0.000172224, 0.319366, 0.316627, 0.280685, 0.00192518, 0.0018584, 0.0121459
-0.00740054, 0.00444814, -0.555513, 7.99252e-05, -8.451e-06, 0.000180874, 0.319612, 0.317915, 0.280775, 0.00192426, 0.00184892, 0.0120968
-0.00700253, 0.00324728, -0.558045, 7.98814e-05, -9.9642e-06, 0.00018902, 0.32041, 0.319473, 0.280867, 0.00192297, 0.00184205, 0.0120472
-0.00674986, 0.00207544, -0.560105, 7.95903e-05, -1.12265e-05, 0.000195898, 0.321712, 0.321147, 0.280952, 0.00192121, 0.0018375, 0.0120028
-0.00647648, 0.000897988, -0.560727, 7.88945e-05, -1.22832e-05, 0.00020209, 0.323418, 0.322758, 0.281015, 0.00191936, 0.00183461, 0.011972
-0.00676474, -0.000133739, -0.559482, 7.83317e-05, -1.21541e-05, 0.000201336, 0.325324, 0.324134, 0.281037, 0.00191798, 0.00183244, 0.011958
-0.00753693, -0.000553779, -0.558418, 7.85026e-05, -1.1113e-05, 0.000198089, 0.327151, 0.325108, 0.281016, 0.00191718, 0.00182951, 0.0119504
-0.00898013, -0.000699732, -0.561779, 7.93478e-05, -1.00656e-05, 0.000201798, 0.328651, 0.325514, 0.28096, 0.00191627, 0.00182329, 0.0119262
-0.0104159, -0.000290315, -0.563006, 7.9829e-05, -1.01458e-05, 0.000213718, 0.329617, 0.325356, 0.280874, 0.00191421, 0.00181144, 0.0118699
-0.0115394, -0.000164244, -0.562855, 8.03357e-05, -1.00184e-05, 0.000222953, 0.329897, 0.32477, 0.280751, 0.00191149, 0.00179451, 0.0117921
-0.0119022, -0.000825724, -0.562377, 8.12037e-05, -7.96686e-06, 0.000218442, 0.329519, 0.323823, 0.280591, 0.00190922, 0.00177445, 0.0117116
-0.0117221, -0.00185224, -0.560461, 8.20678e-05, -4.43444e-06, 0.000206722, 0.328624, 0.322505, 0.280397, 0.00190785, 0.0017531, 0.0116359
-0.0119798, -0.00227123, -0.560523, 8.22049e-05, -3.61983e-06, 0.0002099, 0.327408, 0.320868, 0.280186, 0.00190699, 0.00173143, 0.0115669
-0.0125444, -0.00182035, -0.561671, 8.20141e-05, -5.78553e-06, 0.000219619, 0.326004, 0.319145, 0.279994, 0.00190572, 0.00170881, 0.0115085
-0.0129956, -0.00145087, -0.561168, 8.20547e-05, -7.25972e-06, 0.000225218, 0.324442, 0.317489, 0.279817, 0.00190356, 0.00168634, 0.0114673
-0.0135061, -0.000933898, -0.559611, 8.21801e-05, -8.98123e-06, 0.000229163, 0.322757, 0.316015, 0.279672, 0.00190026, 0.00166534, 0.0114432
-0.0130188, -0.000476366, -0.557679, 8.10595e-05, -9.30177e-06, 0.000226979, 0.320986, 0.314838, 0.279555, 0.00189536, 0.00164617, 0.011432
-0.0124721, -0.000234634, -0.557315, 7.99098e-05, -9.21914e-06, 0.000226617, 0.319189, 0.313998, 0.279455, 0.00188889, 0.00162914, 0.0114277
-0.0119312, 0.000262259, -0.555677, 7.82674e-05, -9.56004e-06, 0.000228055, 0.31749, 0.313508, 0.279374, 0.00188146, 0.00161452, 0.0114256
-0.0110346, 0.00055445, -0.554966, 7.64253e-05, -9.17596e-06, 0.000229985, 0.316015, 0.313353, 0.279313, 0.00187391, 0.00160253, 0.0114238
-0.0108925, 0.000847639, -0.555695, 7.57982e-05, -9.69019e-06, 0.000232021, 0.314844, 0.313543, 0.279275, 0.00186648, 0.00159297, 0.0114209
-0.0111004, 0.000852235, -0.557842, 7.62739e-05, -1.00034e-05, 0.000231588, 0.313981, 0.314109, 0.279249, 0.00185859, 0.00158523, 0.0114137
-0.011134, 0.00161609, -0.557402, 7.51133e-05, -1.12619e-05, 0.000236675, 0.313439, 0.315041, 0.279227, 0.00185045, 0.00157897, 0.0113999
-0.010987, 0.00162081, -0.557361, 7.47809e-05, -1.1289e-05, 0.000238315, 0.31327, 0.316289, 0.279213, 0.00184318, 0.00157405, 0.0113819
-0.0103903, 0.00193477, -0.556575, 7.35107e-05, -1.16553e-05, 0.000243757, 0.313483, 0.317739, 0.279206, 0.00183798, 0.00157056, 0.0113657
-0.00990279, 0.00191687, -0.554152, 7.25317e-05, -1.18379e-05, 0.000248233, 0.314037, 0.319264, 0.279208, 0.00183509, 0.00156843, 0.0113543
-0.0100882, 0.00260752, -0.554034, 7.19707e-05, -1.2435e-05, 0.000253391, 0.314876, 0.320867, 0.279231, 0.00183371, 0.00156712, 0.0113443
-0.0100482, 0.00289626, -0.555033, 7.181e-05, -1.25458e-05, 0.000255379, 0.315926, 0.322511, 0.27925, 0.00183305, 0.00156632, 0.0113325
-0.00988269, 0.00269179, -0.557461, 7.19191e-05, -1.2394e-05, 0.000253927, 0.317131, 0.324059, 0.279256, 0.0018325, 0.00156582, 0.01132
-0.00981991, 0.00244704, -0.558292, 7.19779e-05, -1.23948e-05, 0.000252499, 0.318392, 0.325281, 0.279247, 0.0018314, 0.00156511, 0.0113105
-0.0102685, 0.00179591, -0.561473, 7.09236e-05, -1.25439e-05, 0.00025386, 0.319583, 0.325969, 0.279226, 0.00182907, 0.00156321, 0.011305
-0.0106975, 0.00113116, -0.56341, 6.97721e-05, -1.30654e-05, 0.0002556, 0.320552, 0.325989, 0.279201, 0.00182507, 0.00155897, 0.0113021
-0.0112271, 0.000413705, -0.561983, 6.88536e-05, -1.3707e-05, 0.000256059, 0.321177, 0.325296, 0.279186, 0.0018193, 0.00155158, 0.0112989
-0.0118202, -0.00029662, -0.561535, 6.7441e-05, -1.46977e-05, 0.00025862, 0.321376, 0.323923, 0.279186, 0.00181184, 0.00154076, 0.0112933
-0.0124554, -0.000733632, -0.559817, 6.64857e-05, -1.53476e-05, 0.000259159, 0.321101, 0.32201, 0.279202, 0.00180333, 0.00152685, 0.0112851
-0.01318, -0.00100774, -0.558978, 6.53534e-05, -1.58137e-05, 0.000259305, 0.320361, 0.319742, 0.279234, 0.00179444, 0.00151063, 0.0112745
-0.0136161, -0.000573451, -0.557632, 6.53611e-05, -1.47929e-05, 0.000255043, 0.319217, 0.317292, 0.279279, 0.00178556, 0.00149282, 0.011261
-0.0133999, 0.000404411, -0.55803, 6.6215e-05, -1.23234e-05, 0.000248635, 0.317755, 0.314839, 0.279335, 0.00177733, 0.00147424, 0.0112441
-0.0135553, 0.00105752, -0.55868, 6.62599e-05, -1.06932e-05, 0.000243186, 0.316044, 0.312587, 0.279397, 0.00177085, 0.00145621, 0.0112258
-0.013864, 0.0013396, -0.559026, 6.61035e-05, -1.0076e-05, 0.000239077, 0.314177, 0.310635, 0.279453, 0.0017666, 0.00143943, 0.0112036
-0.0138656, 0.00143536, -0.558486, 6.64367e-05, -9.85303e-06, 0.000236891, 0.312338, 0.309043, 0.2795, 0.00176394, 0.00142413, 0.0111744
-0.0142149, 0.00106006, -0.55895, 6.62448e-05, -1.0614e-05, 0.000235986, 0.310705, 0.307861, 0.279538, 0.00176214, 0.00141038, 0.0111364
-0.0142738, 0.000312134, -0.55943, 6.59656e-05, -1.19787e-05, 0.000240475, 0.309402, 0.307137, 0.279568, 0.00176053, 0.00139815, 0.011087
-0.0141815, 0.000170254, -0.557219, 6.57695e-05, -1.25859e-05, 0.000245195, 0.308542, 0.306932, 0.279595, 0.00175865, 0.00138772, 0.0110321
-0.0140072, 0.0002683, -0.557356, 6.58549e-05, -1.23788e-05, 0.000245179, 0.30818, 0.307265, 0.279632, 0.00175681, 0.00137967, 0.0109837
-0.0138181, 9.36964e-05, -0.558692, 6.5803e-05, -1.24235e-05, 0.000246295, 0.308314, 0.308066, 0.27969, 0.00175533, 0.00137415, 0.0109462
-0.0135865, -0.000220089, -0.559414, 6.55077e-05, -1.27567e-05, 0.0002498, 0.308926, 0.309216, 0.279753, 0.0017542, 0.00137079, 0.0109198
-0.0135453, -0.000503894, -0.561714, 6.54898e-05, -1.27551e-05, 0.000249866, 0.309961, 0.310572, 0.279823, 0.00175329, 0.00136895, 0.0109016
-0.0137005, -0.00149672, -0.564317, 6.55293e-05, -1.27903e-05, 0.00024863, 0.31127, 0.311924, 0.279879, 0.00175219, 0.00136774, 0.0108865
-0.0133536, -0.0021561, -0.564062, 6.50107e-05, -1.30551e-05, 0.000251029, 0.312645, 0.313064, 0.279904, 0.00175063, 0.00136634, 0.0108724
-0.0136558, -0.00242027, -0.563567, 6.50956e-05, -1.27643e-05, 0.000249815, 0.313875, 0.313827, 0.279893, 0.00174856, 0.00136413, 0.0108584
-0.0144672, -0.00255705, -0.561497, 6.56011e-05, -1.20856e-05, 0.000246742, 0.314797, 0.314084, 0.279867, 0.00174568, 0.00136028, 0.010838
-0.0148763, -0.00257394, -0.560896, 6.59133e-05, -1.18058e-05, 0.0002458, 0.315277, 0.313848, 0.279835, 0.00174118, 0.00135387, 0.0107978
-0.015131, -0.00248713, -0.56079, 6.5941e-05, -1.18564e-05, 0.000247212, 0.315241, 0.313355, 0.2798, 0.00173469, 0.00134474, 0.0107306
-0.0156727, -0.00174742, -0.559157, 6.49095e-05, -1.30906e-05, 0.000259093, 0.314727, 0.312903, 0.279769, 0.00172687, 0.00133374, 0.010643
-0.016231, -0.000842795, -0.557857, 6.33979e-05, -1.48165e-05, 0.000275206, 0.313896, 0.312699, 0.27975, 0.00171866, 0.00132197, 0.0105477
-0.0163858, 0.000229793, -0.556592, 6.13222e-05, -1.69551e-05, 0.000292611, 0.312952, 0.31285, 0.279735, 0.00171061, 0.00131032, 0.0104537
-0.0163225, 0.000732639, -0.555955, 6.03549e-05, -1.78952e-05, 0.000299513, 0.31211, 0.313335, 0.279735, 0.00170368, 0.00129971, 0.0103724
-0.014313, 0.00108934, -0.554152, 5.91936e-05, -1.82817e-05, 0.000293626, 0.311546, 0.313986, 0.279762, 0.00169889, 0.0012909, 0.0103142
-0.0117955, 0.00144985, -0.554079, 5.80252e-05, -1.87386e-05, 0.000285135, 0.311347, 0.314629, 0.279827, 0.0016962, 0.00128405, 0.0102784
-0.00895777, 0.000962261, -0.554186, 5.76392e-05, -1.80514e-05, 0.00026946, 0.311513, 0.315082, 0.279938, 0.00169519, 0.00127904, 0.0102603
-0.00646397, 5.07426e-05, -0.554938, 5.72925e-05, -1.73433e-05, 0.000256285, 0.311979, 0.315248, 0.280101, 0.001695, 0.00127546, 0.0102509
-0.00450513, -0.00100058, -0.554971, 5.67585e-05, -1.65155e-05, 0.0002496, 0.312627, 0.315125, 0.280327, 0.00169479, 0.0012728, 0.0102433
-0.00427093, -0.00162443, -0.555729, 5.62633e-05, -1.66995e-05, 0.000250527, 0.313281, 0.314716, 0.280624, 0.00169383, 0.0012706, 0.0102322
-0.00181243, -0.00216883, -0.557611, 5.5212e-05, -1.79956e-05, 0.000245666, 0.313739, 0.314068, 0.280992, 0.00169162, 0.00126843, 0.0102135
-0.000198509, -0.00278511, -0.558763, 5.4145e-05, -1.89317e-05, 0.000246428, 0.313862, 0.313246, 0.281455, 0.00168771, 0.00126592, 0.0101828
-0.000817883, -0.0028479, -0.558555, 5.41772e-05, -1.87461e-05, 0.000247893, 0.313568, 0.312398, 0.282029, 0.00168209, 0.00126287, 0.0101394
-0.000498119, -0.00305568, -0.560525, 5.3578e-05, -2.08477e-05, 0.000248559, 0.312854, 0.311722, 0.282742, 0.00167552, 0.00125927, 0.0100893
0.000156237, -0.00232395, -0.561953, 5.45736e-05, -2.21306e-05, 0.000239517, 0.311759, 0.311262, 0.28359, 0.00166802, 0.00125514, 0.0100327
-0.00150797, -0.00146237, -0.56211, 5.67583e-05, -2.2071e-05, 0.000225333, 0.310394, 0.311041, 0.284555, 0.00165922, 0.00125065, 0.00996598
-0.00309287, -0.000846227, -0.561812, 5.86234e-05, -2.15261e-05, 0.000213142, 0.308967, 0.31112, 0.285623, 0.00164981, 0.00124621, 0.00989384
-0.00556229, -0.000884469, -0.560374, 5.96819e-05, -2.01479e-05, 0.000206473, 0.307746, 0.311504, 0.286776, 0.00164045, 0.00124221, 0.00982118
-0.00748911, -0.0016751, -0.559626, 5.89862e-05, -1.98372e-05, 0.000211081, 0.307011, 0.312139, 0.287981, 0.00163239, 0.00123907, 0.00975801
-0.00951369, -0.00234459, -0.560482, 5.83199e-05, -2.04683e-05, 0.000215183, 0.306952, 0.312909, 0.289164, 0.00162623, 0.00123693, 0.00970952
-0.0115377, -0.00256597, -0.561092, 5.84099e-05, -2.0269e-05, 0.000214284, 0.307629, 0.31373, 0.29022, 0.00162159, 0.00123554, 0.00967276
-0.0131177, -0.00285411, -0.560137, 5.83641e-05, -1.96511e-05, 0.000214173, 0.308966, 0.314584, 0.291011, 0.0016178, 0.00123447, 0.00964241
-0.0149707, -0.00292167, -0.559063, 5.859e-05, -1.89192e-05, 0.000212033, 0.310794, 0.315436, 0.291393, 0.00161478, 0.00123331, 0.00961792
-0.015818, -0.00254292, -0.557024, 5.90766e-05, -1.92154e-05, 0.000207465, 0.31288, 0.316234, 0.291257, 0.00161259, 0.00123159, 0.00960011
-0.0169896, -0.00170046, -0.555283, 5.99173e-05, -1.95557e-05, 0.000200399, 0.314954, 0.316986, 0.290575, 0.00161098, 0.00122884, 0.0095872
-0.0179553, -0.0015435, -0.553352, 6.0135e-05, -2.091e-05, 0.00019712, 0.316734, 0.317675, 0.289407, 0.00160982, 0.00122474, 0.00957827
-0.019204, -0.00131071, -0.552175, 6.04033e-05, -2.17167e-05, 0.000194031, 0.317977, 0.318242, 0.287925, 0.00160908, 0.00121915, 0.00957323
-0.0202265, -0.00158908, -0.551273, 6.04225e-05, -2.26251e-05, 0.000192601, 0.318504, 0.318615, 0.286368, 0.00160865, 0.00121215, 0.00957073
-0.0211062, -0.00153576, -0.550721, 6.0456e-05, -2.32759e-05, 0.000191576, 0.318231, 0.318799, 0.284983, 0.00160824, 0.001204, 0.00956817
-0.0215952, -0.00175535, -0.551938, 6.09885e-05, -2.12561e-05, 0.000189158, 0.317195, 0.318833, 0.283954, 0.00160768, 0.0011952, 0.00956393
-0.0213107, -0.00270871, -0.553017, 6.16521e-05, -1.94009e-05, 0.000185037, 0.31555, 0.318695, 0.28339, 0.00160684, 0.00118635, 0.00955625
-0.0210176, -0.00297295, -0.553914, 6.2011e-05, -1.79444e-05, 0.000183365, 0.313562, 0.318461, 0.283321, 0.00160571, 0.00117813, 0.00954459
-0.0204096, -0.00278378, -0.553792, 6.16812e-05, -1.81521e-05, 0.000185703, 0.311554, 0.318238, 0.283708, 0.00160446, 0.00117112, 0.00953087
-0.0176149, -0.00268665, -0.556556, 6.20436e-05, -1.44377e-05, 0.000186883, 0.309832, 0.318039, 0.28448, 0.00160302, 0.00116555, 0.00951468
-0.0171306, -0.00276257, -0.556987, 6.21782e-05, -1.389e-05, 0.000186155, 0.308623, 0.317852, 0.285523, 0.00160126, 0.00116148, 0.00949463
-0.0167226, -0.00233068, -0.55744, 6.17921e-05, -1.3698e-05, 0.000189671, 0.308074, 0.317746, 0.286685, 0.00159955, 0.00115882, 0.00947503
-0.0165777, -0.00180506, -0.557629, 6.12926e-05, -1.37899e-05, 0.000193761, 0.308203, 0.317707, 0.287792, 0.00159785, 0.00115724, 0.00945572
-0.0151024, -0.00140341, -0.559079, 6.1091e-05, -1.37203e-05, 0.000195995, 0.308938, 0.31774, 0.288664, 0.00159644, 0.00115639, 0.00943968
-0.0137796, -0.00132042, -0.560719, 6.10363e-05, -1.4046e-05, 0.000196591, 0.310131, 0.317842, 0.289149, 0.00159557, 0.00115588, 0.00942957
-0.0128374, -0.0012781, -0.560935, 6.08926e-05, -1.44611e-05, 0.000197091, 0.31159, 0.317974, 0.289155, 0.00159506, 0.00115521, 0.00942348
-0.0114958, -0.00140427, -0.558863, 6.0854e-05, -1.39478e-05, 0.00019642, 0.31311, 0.318106, 0.288669, 0.0015947, 0.00115396, 0.00941927
-0.00955561, -0.00178878, -0.557356, 6.08736e-05, -1.3502e-05, 0.000195211, 0.314518, 0.318232, 0.287763, 0.0015945, 0.00115184, 0.00941681
-0.00786384, -0.00264938, -0.557729, 6.07108e-05, -1.43261e-05, 0.000194839, 0.315669, 0.318363, 0.286588, 0.00159441, 0.0011486, 0.00941597
-0.00634558, -0.00351865, -0.558982, 6.03152e-05, -1.60896e-05, 0.000195692, 0.316435, 0.318516, 0.285331, 0.00159429, 0.00114416, 0.00941544
-0.00446574, -0.00387948, -0.560345, 5.98506e-05, -1.81532e-05, 0.00019689, 0.316721, 0.318721, 0.284195, 0.00159392, 0.00113848, 0.00941342
-0.00340027, -0.00418862, -0.561111, 5.94158e-05, -1.9353e-05, 0.00019874, 0.316463, 0.319027, 0.283346, 0.00159305, 0.00113169, 0.00940795
-0.00222398, -0.00437919, -0.562944, 5.8697e-05, -2.2069e-05, 0.000201546, 0.315645, 0.319481, 0.282908, 0.0015916, 0.00112407, 0.00939867
-0.000213944, -0.00415791, -0.564296, 5.83262e-05, -2.38664e-05, 0.000202632, 0.314299, 0.320123, 0.28293, 0.00158949, 0.00111597, 0.00938492
-0.000338189, -0.00374242, -0.564447, 5.87955e-05, -2.39689e-05, 0.000199634, 0.31252, 0.321011, 0.283416, 0.00158643, 0.00110772, 0.00936469
-0.000900778, -0.00296781, -0.564378, 5.99665e-05, -2.36858e-05, 0.000192242, 0.310453, 0.322189, 0.284308, 0.00158215, 0.00109973, 0.0093358
-0.00235263, -0.00189898, -0.563869, 6.20946e-05, -2.27931e-05, 0.000178673, 0.308321, 0.323645, 0.285524, 0.00157688, 0.00109245, 0.00929954
-0.00459022, -0.00126151, -0.563876, 6.35751e-05, -2.28823e-05, 0.000168525, 0.306393, 0.325339, 0.286971, 0.00157098, 0.00108629, 0.00925808
-0.00794477, -0.00119656, -0.563149, 6.44416e-05, -2.23976e-05, 0.000162389, 0.304948, 0.327204, 0.288564, 0.00156506, 0.00108155, 0.00921556
-0.00907731, -0.00159996, -0.561364, 6.45301e-05, -2.09204e-05, 0.000162476, 0.304197, 0.329145, 0.290196, 0.00155965, 0.00107825, 0.00917605
-0.0115338, -0.00234641, -0.562017, 6.35719e-05, -2.14206e-05, 0.000168014, 0.30426, 0.33111, 0.291744, 0.00155483, 0.00107616, 0.00913998
-0.0139115, -0.00296762, -0.561902, 6.3016e-05, -2.10021e-05, 0.000171354, 0.305161, 0.333027, 0.293065, 0.00155076, 0.00107492, 0.00910882
-0.0156161, -0.0033105, -0.560816, 6.28713e-05, -2.03097e-05, 0.000172422, 0.306813, 0.334783, 0.293989, 0.00154769, 0.00107404, 0.00908486
-0.0170524, -0.00258351, -0.558209, 6.3774e-05, -1.98522e-05, 0.000166538, 0.309031, 0.336382, 0.294371, 0.00154533, 0.00107293, 0.00906608
-0.0183515, -0.00219768, -0.554887, 6.41011e-05, -2.07157e-05, 0.000164231, 0.311548, 0.33786, 0.294126, 0.00154341, 0.001071, 0.00905032
-0.0204672, -0.00200286, -0.55323, 6.41069e-05, -2.08987e-05, 0.000163893, 0.31406, 0.339038, 0.293258, 0.00154223, 0.00106773, 0.00904062
-0.0223595, -0.00172648, -0.552319, 6.41032e-05, -2.09287e-05, 0.000163544, 0.316223, 0.339634, 0.291867, 0.00154188, 0.0010627, 0.00903815
-0.0245099, -0.00152395, -0.55239, 6.42035e-05, -1.99426e-05, 0.000162665, 0.317661, 0.33962, 0.290141, 0.00154175, 0.00105573, 0.00903746
-0.0252708, -0.00130442, -0.552389, 6.42811e-05, -1.97175e-05, 0.000162068, 0.31812, 0.339395, 0.288343, 0.00154149, 0.00104711, 0.00903566
-0.0274096, -0.001432, -0.552712, 6.45796e-05, -1.88991e-05, 0.000159327, 0.317544, 0.339246, 0.286747, 0.00154116, 0.00103738, 0.00903347
-0.0285629, -0.00155491, -0.554377, 6.53148e-05, -1.61945e-05, 0.000154549, 0.316033, 0.339015, 0.285598, 0.00154067, 0.00102707, 0.00902972
-0.0295649, -0.00212377, -0.555734, 6.60821e-05, -1.41118e-05, 0.000148902, 0.313793, 0.338687, 0.285044, 0.00153998, 0.00101674, 0.0090236
-0.0299989, -0.00292109, -0.556698, 6.67494e-05, -1.26286e-05, 0.000143588, 0.31109, 0.338229, 0.285116, 0.00153908, 0.00100702, 0.00901439
-0.0297869, -0.00392033, -0.558259, 6.78314e-05, -1.01864e-05, 0.000135624, 0.308218, 0.337643, 0.285729, 0.00153797, 0.000998497, 0.009002
-0.0279289, -0.00435617, -0.562055, 6.93745e-05, -4.74218e-06, 0.000127035, 0.305514, 0.336996, 0.286761, 0.00153673, 0.000991534, 0.00898764
-0.0243181, -0.00482215, -0.566185, 7.10996e-05, 8.62242e-07, 0.000118189, 0.3033, 0.336241, 0.288092, 0.00153522, 0.000986264, 0.00897037
-0.0222255, -0.00475952, -0.568607, 7.17796e-05, 3.48223e-06, 0.000115494, 0.301841, 0.335452, 0.28961, 0.0015336, 0.000982663, 0.00895226
-0.0210001, -0.00525211, -0.569869, 7.24121e-05, 4.57482e-06, 0.000111649, 0.301267, 0.334796, 0.291167, 0.0015323, 0.000980547, 0.00893782
-0.0201367, -0.0057829, -0.570725, 7.28311e-05, 5.02802e-06, 0.000108894, 0.301505, 0.334366, 0.292537, 0.00153152, 0.000979501, 0.00892884
-0.0200035, -0.00633327, -0.570917, 7.30129e-05, 5.12714e-06, 0.00010733, 0.302342, 0.334184, 0.293483, 0.00153116, 0.000979029, 0.00892429
-0.0201632, -0.00695241, -0.56956, 7.30754e-05, 5.19358e-06, 0.000106005, 0.303514, 0.334201, 0.293821, 0.00153101, 0.000978666, 0.00892199
-0.020689, -0.00733276, -0.567555, 7.30492e-05, 5.73821e-06, 0.000105418, 0.304799, 0.334334, 0.293485, 0.00153091, 0.00097807, 0.00892025
-0.0210806, -0.00746105, -0.565783, 7.30752e-05, 6.48013e-06, 0.000104749, 0.30607, 0.334583, 0.292532, 0.00153082, 0.000977055, 0.00891842
-0.0204367, -0.00740662, -0.566932, 7.2986e-05, 5.7044e-06, 0.000105344, 0.307268, 0.334998, 0.291102, 0.00153075, 0.000975601, 0.00891641
-0.0206509, -0.00710164, -0.565528, 7.30528e-05, 6.51801e-06, 0.000105199, 0.308392, 0.335627, 0.289378, 0.00153069, 0.000973786, 0.00891445
-0.0206568, -0.0067362, -0.561671, 7.34373e-05, 8.84524e-06, 0.000102635, 0.309463, 0.336501, 0.287547, 0.00153059, 0.000971724, 0.00891311
-0.0203483, -0.00636998, -0.557016, 7.39907e-05, 1.16996e-05, 9.89433e-05, 0.310477, 0.337543, 0.285758, 0.0015304, 0.000969559, 0.00891216
-0.0200036, -0.00623392, -0.553599, 7.44409e-05, 1.37974e-05, 9.59454e-05, 0.311414, 0.338611, 0.284129, 0.00153017, 0.000967446, 0.00891132
-0.0195549, -0.00598947, -0.552975, 7.46374e-05, 1.40673e-05, 9.49947e-05, 0.312253, 0.33963, 0.282721, 0.00152992, 0.000965515, 0.00891053
-0.0194267, -0.00623026, -0.555009, 7.42631e-05, 1.28335e-05, 9.66744e-05, 0.312996, 0.340576, 0.281572, 0.00152964, 0.000963857, 0.00890967
-0.0193225, -0.00616916, -0.556707, 7.3994e-05, 1.19095e-05, 9.78401e-05, 0.313635, 0.341406, 0.280681, 0.00152932, 0.000962521, 0.00890869
-0.019352, -0.00654375, -0.557645, 7.3715e-05, 1.1461e-05, 9.87834e-05, 0.314147, 0.342072, 0.280027, 0.00152896, 0.00096151, 0.00890749
-0.0194106, -0.00635546, -0.558931, 7.34731e-05, 1.09817e-05, 9.93728e-05, 0.31449, 0.342437, 0.279571, 0.00152866, 0.000960803, 0.00890644
-0.0194792, -0.00603638, -0.560274, 7.31622e-05, 1.05825e-05, 0.000100148, 0.314629, 0.342379, 0.279268, 0.00152844, 0.000960363, 0.00890564
-0.0197076, -0.0053995, -0.562677, 7.25166e-05, 1.00778e-05, 0.000101637, 0.314567, 0.341824, 0.279081, 0.00152816, 0.000960142, 0.00890437
-0.019832, -0.0049739, -0.563158, 7.23252e-05, 1.00307e-05, 0.000102006, 0.314358, 0.340869, 0.278981, 0.00152757, 0.000960051, 0.00890088
-0.0197123, -0.00412134, -0.56371, 7.18815e-05, 1.00033e-05, 0.000103791, 0.314075, 0.339754, 0.278931, 0.00152677, 0.000960011, 0.00889496
-0.0194536, -0.00383497, -0.56376, 7.16763e-05, 9.99741e-06, 0.000105081, 0.313797, 0.338686, 0.278918, 0.00152595, 0.00095997, 0.00888755
-0.0196513, -0.00392088, -0.565117, 7.16911e-05, 1.00375e-05, 0.000103746, 0.313602, 0.337774, 0.278931, 0.00152513, 0.000959895, 0.00887858
-0.0194594, -0.00404016, -0.567056, 7.15356e-05, 1.00793e-05, 0.000103793, 0.313556, 0.337077, 0.278958, 0.00152422, 0.000959771, 0.00886776
-0.0195704, -0.00426264, -0.567603, 7.16543e-05, 1.01273e-05, 0.000102746, 0.313679, 0.336605, 0.27899, 0.00152331, 0.000959616, 0.00885695
-0.0195521, -0.0048958, -0.564461, 7.16382e-05, 9.86404e-06, 0.00010453, 0.313941, 0.336426, 0.27902, 0.00152261, 0.000959458, 0.00884886
-0.0201218, -0.00492747, -0.562387, 7.18471e-05, 9.78747e-06, 0.000103733, 0.314298, 0.336563, 0.279056, 0.00152215, 0.000959318, 0.00884407
-0.0208926, -0.00460366, -0.563413, 7.20509e-05, 9.97005e-06, 0.000102088, 0.314695, 0.33692, 0.279092, 0.00152188, 0.000959206, 0.00884191
-0.0216462, -0.00478516, -0.562411, 7.21477e-05, 1.00094e-05, 0.000101542, 0.315086, 0.337469, 0.279122, 0.00152174, 0.000959119, 0.0088413
-0.0223219, -0.00466437, -0.561841, 7.21808e-05, 1.00256e-05, 0.000101863, 0.315471, 0.33817, 0.279155, 0.00152166, 0.000959035, 0.00884077
-0.0231082, -0.0045193, -0.561147, 7.21288e-05, 1.00333e-05, 0.000102993, 0.315901, 0.339012, 0.279194, 0.00152159, 0.000958913, 0.00883912
-0.0234941, -0.00468592, -0.559576, 7.20928e-05, 9.99994e-06, 0.000102977, 0.316421, 0.34004, 0.279237, 0.0015215, 0.000958745, 0.00883647
-0.0239072, -0.00442431, -0.557874, 7.2045e-05, 9.85624e-06, 0.000103904, 0.317056, 0.341286, 0.279293, 0.00152136, 0.000958545, 0.00883332
-0.0244366, -0.00452341, -0.555834, 7.18591e-05, 9.76618e-06, 0.000104754, 0.317791, 0.342716, 0.279356, 0.00152117, 0.000958319, 0.00882976
-0.024587, -0.00484063, -0.555134, 7.16695e-05, 9.76712e-06, 0.000105039, 0.31859, 0.344274, 0.279426, 0.00152091, 0.000958069, 0.00882496
-0.0248529, -0.00460316, -0.553301, 7.15317e-05, 9.5646e-06, 0.00010619, 0.319464, 0.345932, 0.279504, 0.0015206, 0.000957778, 0.00881831
-0.0234723, -0.0041359, -0.55671, 7.20994e-05, 9.56199e-06, 0.000103938, 0.320438, 0.347674, 0.279585, 0.00152027, 0.000957425, 0.00880973
-0.0211434, -0.0034155, -0.561317, 7.30441e-05, 9.42971e-06, 9.96009e-05, 0.32151, 0.349488, 0.279659, 0.00151994, 0.000957032, 0.00880026
-0.0214357, -0.00335713, -0.557275, 7.28111e-05, 9.15094e-06, 9.94116e-05, 0.322657, 0.351359, 0.279726, 0.00151962, 0.000956665, 0.00879198
-0.0217586, -0.00302859, -0.552959, 7.25757e-05, 8.90182e-06, 9.9909e-05, 0.323812, 0.35318, 0.279777, 0.00151934, 0.00095635, 0.00878518
-0.0212005, -0.00323537, -0.551934, 7.2632e-05, 8.82261e-06, 9.78952e-05, 0.324918, 0.354866, 0.279805, 0.00151911, 0.000956104, 0.00878057
-0.0215406, -0.00377123, -0.549287, 7.23885e-05, 8.9702e-06, 9.7256e-05, 0.325924, 0.356344, 0.279809, 0.00151895, 0.000955921, 0.0087785
-0.0209963, -0.00429715, -0.550076, 7.23454e-05, 8.89449e-06, 9.67091e-05, 0.326775, 0.357569, 0.279787, 0.00151877, 0.000955797, 0.00877788
-0.020436, -0.00494361, -0.552138, 7.2254e-05, 8.71754e-06, 9.69632e-05, 0.327419, 0.358472, 0.279745, 0.00151855, 0.000955706, 0.00877734
-0.0200019, -0.00525715, -0.551827, 7.22054e-05, 8.68721e-06, 9.71147e-05, 0.327836, 0.359018, 0.27969, 0.00151841, 0.000955643, 0.00877673
-0.0194965, -0.0053651, -0.553718, 7.21641e-05, 8.50669e-06, 9.7347e-05, 0.328022, 0.359218, 0.279624, 0.0015183, 0.000955593, 0.00877604
-0.0196177, -0.00531424, -0.557066, 7.20298e-05, 8.25821e-06, 9.75811e-05, 0.327975, 0.35907, 0.279553, 0.00151821, 0.000955537, 0.0087752
-0.0198626, -0.00537153, -0.559831, 7.19076e-05, 8.04608e-06, 9.77069e-05, 0.327695, 0.358593, 0.27948, 0.00151811, 0.000955437, 0.00877358
-0.0196922, -0.00578103, -0.562781, 7.17756e-05, 7.77268e-06, 9.85711e-05, 0.327204, 0.357823, 0.279411, 0.00151795, 0.000955254, 0.00876937
-0.0192261, -0.00627699, -0.564107, 7.15308e-05, 7.56711e-06, 0.000101329, 0.326527, 0.356823, 0.279342, 0.00151752, 0.00095494, 0.00875922
-0.0197139, -0.0069254, -0.564652, 7.15012e-05, 7.34506e-06, 0.000102347, 0.325734, 0.355647, 0.27928, 0.00151687, 0.000954543, 0.00874426
-0.0200839, -0.00747391, -0.564845, 7.15256e-05, 7.18147e-06, 0.000102978, 0.324921, 0.354309, 0.279234, 0.00151619, 0.000954198, 0.0087293
-0.0209072, -0.00734717, -0.565408, 7.19793e-05, 7.21266e-06, 9.86578e-05, 0.324189, 0.352817, 0.279207, 0.00151545, 0.000953981, 0.00871626
-0.021834, -0.00738217, -0.564772, 7.2415e-05, 7.24933e-06, 9.46004e-05, 0.323621, 0.351282, 0.279188, 0.00151452, 0.000953865, 0.00870422
-0.0219166, -0.00784063, -0.564455, 7.25095e-05, 7.20463e-06, 9.45513e-05, 0.323303, 0.349894, 0.279176, 0.00151341, 0.000953786, 0.00869181
-0.021892, -0.00873513, -0.564751, 7.26874e-05, 7.14172e-06, 9.45289e-05, 0.323274, 0.348837, 0.279173, 0.00151231, 0.000953697, 0.00867972
-0.0220261, -0.00927522, -0.565983, 7.29573e-05, 7.10588e-06, 9.32749e-05, 0.323462, 0.348201, 0.279171, 0.00151158, 0.000953605, 0.00867136
-0.0224218, -0.00966428, -0.56524, 7.30315e-05, 7.15421e-06, 9.25092e-05, 0.323776, 0.348003, 0.279158, 0.00151124, 0.000953523, 0.00866744
-0.023253, -0.0101201, -0.563754, 7.30788e-05, 7.3194e-06, 9.16294e-05, 0.324179, 0.34827, 0.279137, 0.00151112, 0.000953449, 0.00866639
-0.0231899, -0.0104291, -0.560938, 7.31187e-05, 7.4836e-06, 9.08434e-05, 0.324634, 0.349012, 0.279103, 0.00151096, 0.000953384, 0.00866583
-0.0234479, -0.0107227, -0.560154, 7.30292e-05, 7.55828e-06, 9.1148e-05, 0.325088, 0.350152, 0.279057, 0.00151044, 0.000953336, 0.00866281
-0.0239182, -0.0104419, -0.559987, 7.29199e-05, 7.56937e-06, 9.27526e-05, 0.325594, 0.351554, 0.279016, 0.00150959, 0.000953293, 0.00865674
-0.0242714, -0.0104149, -0.558407, 7.29452e-05, 7.64089e-06, 9.32891e-05, 0.326251, 0.353132, 0.278997, 0.00150872, 0.000953226, 0.00864959
-0.0244056, -0.0100148, -0.556789, 7.32363e-05, 7.60604e-06, 9.29529e-05, 0.327083, 0.354843, 0.278998, 0.00150796, 0.000953105, 0.00864222
-0.0247031, -0.0096754, -0.555144, 7.33963e-05, 7.54959e-06, 9.36423e-05, 0.328087, 0.356681, 0.279013, 0.00150733, 0.000952912, 0.00863483
-0.0245259, -0.00935831, -0.553044, 7.37563e-05, 7.34747e-06, 9.26418e-05, 0.329265, 0.358648, 0.279044, 0.00150682, 0.000952638, 0.0086278
-0.02396, -0.00854086, -0.550072, 7.43466e-05, 6.8138e-06, 9.17804e-05, 0.330626, 0.360754, 0.279088, 0.00150647, 0.000952265, 0.00862199
-0.0234777, -0.00768469, -0.547231, 7.46524e-05, 6.19547e-06, 9.31508e-05, 0.332187, 0.362972, 0.279143, 0.0015063, 0.000951726, 0.00861697
-0.0209845, -0.00736656, -0.550832, 7.46396e-05, 5.55718e-06, 9.17506e-05, 0.333916, 0.36527, 0.279196, 0.00150625, 0.000951, 0.00861158
-0.0207838, -0.007072, -0.552715, 7.45017e-05, 5.48868e-06, 9.35844e-05, 0.335726, 0.367575, 0.27924, 0.00150621, 0.000950178, 0.00860515
-0.0204055, -0.00685684, -0.556351, 7.44647e-05, 5.4795e-06, 9.40859e-05, 0.337535, 0.369798, 0.279275, 0.00150616, 0.00094935, 0.00859787
-0.01992, -0.00742625, -0.560398, 7.43234e-05, 5.4247e-06, 9.25574e-05, 0.339289, 0.371976, 0.279292, 0.00150603, 0.000948682, 0.00859506
-0.0194236, -0.00857527, -0.567538, 7.36357e-05, 4.8878e-06, 9.35498e-05, 0.340895, 0.374052, 0.279274, 0.0015054, 0.000948163, 0.00859402
-0.0190704, -0.00979113, -0.566695, 7.26828e-05, 4.75413e-06, 9.76382e-05, 0.342231, 0.375906, 0.279218, 0.00150399, 0.000947712, 0.00858897
-0.01867, -0.0105348, -0.562816, 7.22195e-05, 5.00045e-06, 0.000100305, 0.343219, 0.377419, 0.279155, 0.00150237, 0.000947341, 0.0085807
-0.01895, -0.0107755, -0.560053, 7.22748e-05, 5.29375e-06, 0.000100281, 0.343799, 0.378503, 0.279103, 0.00150104, 0.000947091, 0.00857248
-0.0196371, -0.0106806, -0.557752, 7.24588e-05, 5.52005e-06, 9.93981e-05, 0.344018, 0.379183, 0.27908, 0.00149986, 0.000946875, 0.00856359
-0.0204356, -0.010609, -0.555486, 7.25623e-05, 5.59106e-06, 9.88409e-05, 0.343949, 0.379504, 0.279097, 0.00149879, 0.000946615, 0.0085535
-0.0211478, -0.0104319, -0.55576, 7.25394e-05, 5.59765e-06, 9.83746e-05, 0.343585, 0.379319, 0.279164, 0.00149821, 0.000946347, 0.0085457
-0.021551, -0.0104773, -0.556141, 7.25961e-05, 5.60367e-06, 9.77418e-05, 0.34288, 0.378437, 0.279276, 0.00149808, 0.000946085, 0.00854133
-0.0220761, -0.0105402, -0.558234, 7.29046e-05, 5.87478e-06, 9.53541e-05, 0.341788, 0.376708, 0.279409, 0.0014979, 0.000945806, 0.00853888
-0.0220927, -0.010548, -0.560377, 7.32723e-05, 6.34092e-06, 9.29529e-05, 0.340371, 0.374213, 0.279556, 0.00149701, 0.000945464, 0.00853507
-0.0221379, -0.0107587, -0.56198, 7.37243e-05, 6.72678e-06, 9.04876e-05, 0.338763, 0.371226, 0.279723, 0.00149521, 0.000945035, 0.00852787
-0.0220464, -0.0112583, -0.563492, 7.4422e-05, 7.15039e-06, 8.71722e-05, 0.337124, 0.368035, 0.279906, 0.00149259, 0.000944556, 0.00851663
-0.0225174, -0.0112823, -0.564715, 7.491e-05, 7.43422e-06, 8.35979e-05, 0.335637, 0.364911, 0.280103, 0.00148934, 0.000944081, 0.0085007
-0.0227311, -0.0116949, -0.567923, 7.62665e-05, 8.35092e-06, 7.5485e-05, 0.334463, 0.362202, 0.280307, 0.0014864, 0.00094369, 0.00848445
-0.02265, -0.0119577, -0.568762, 7.66286e-05, 8.56465e-06, 7.37672e-05, 0.333638, 0.360176, 0.280499, 0.00148481, 0.000943422, 0.00847445
-0.0230754, -0.0129827, -0.568541, 7.69209e-05, 8.4221e-06, 7.26619e-05, 0.333133, 0.358934, 0.280664, 0.00148432, 0.000943227, 0.00846988
-0.0236599, -0.0136425, -0.565324, 7.64578e-05, 7.85329e-06, 7.5045e-05, 0.332945, 0.358466, 0.280803, 0.00148415, 0.000943061, 0.00846705
-0.0243056, -0.0139861, -0.562899, 7.61143e-05, 7.56369e-06, 7.64004e-05, 0.333029, 0.358728, 0.280907, 0.00148384, 0.000942916, 0.0084644
-0.0253121, -0.0142014, -0.559507, 7.56858e-05, 7.36682e-06, 7.79935e-05, 0.333352, 0.359667, 0.280971, 0.00148309, 0.000942796, 0.00846062
-0.0261343, -0.0141258, -0.558343, 7.54421e-05, 7.42452e-06, 7.93577e-05, 0.333978, 0.361257, 0.281006, 0.00148175, 0.000942683, 0.00845492
-0.0264895, -0.0138588, -0.556683, 7.55305e-05, 7.4898e-06, 7.90457e-05, 0.334987, 0.363377, 0.281018, 0.0014802, 0.000942539, 0.00844924
-0.0266412, -0.0140156, -0.554606, 7.54261e-05, 7.5827e-06, 7.86102e-05, 0.336343, 0.365841, 0.280999, 0.00147879, 0.000942307, 0.00844451
-0.0265972, -0.0138576, -0.553256, 7.55444e-05, 7.62319e-06, 7.79831e-05, 0.337961, 0.368511, 0.280947, 0.0014776, 0.000941955, 0.00844027
-0.0264124, -0.0140431, -0.549409, 7.56123e-05, 7.93881e-06, 7.5276e-05, 0.339783, 0.371337, 0.280857, 0.00147655, 0.000941474, 0.00843607
-0.0263169, -0.0137881, -0.547827, 7.57746e-05, 8.02444e-06, 7.4721e-05, 0.341745, 0.37421, 0.280735, 0.00147581, 0.000940849, 0.0084302
-0.0259513, -0.0132355, -0.547328, 7.60318e-05, 7.79276e-06, 7.50862e-05, 0.343759, 0.376994, 0.280588, 0.00147531, 0.000940066, 0.00841979
-0.0251043, -0.0129405, -0.546186, 7.65283e-05, 7.65821e-06, 7.19357e-05, 0.345724, 0.379648, 0.280411, 0.00147483, 0.000939232, 0.00840657
-0.0240373, -0.0133048, -0.54677, 7.68556e-05, 7.3633e-06, 6.69931e-05, 0.34755, 0.382117, 0.280208, 0.00147442, 0.000938482, 0.00839676
-0.0228511, -0.013655, -0.548891, 7.69172e-05, 6.62718e-06, 6.40547e-05, 0.349096, 0.384259, 0.27997, 0.00147406, 0.000937873, 0.00839205
-0.0223041, -0.0141568, -0.551593, 7.6532e-05, 5.80284e-06, 6.46978e-05, 0.35027, 0.38594, 0.279715, 0.00147369, 0.000937362, 0.00839006
-0.0219817, -0.0145028, -0.555894, 7.59226e-05, 4.51002e-06, 6.72666e-05, 0.351056, 0.38701, 0.279477, 0.00147346, 0.000936905, 0.00838933
-0.0216711, -0.0137214, -0.558834, 7.54742e-05, 3.55741e-06, 6.97848e-05, 0.351477, 0.387387, 0.279272, 0.00147328, 0.000936501, 0.0083887
-0.0215665, -0.0127909, -0.56101, 7.48777e-05, 2.84746e-06, 7.33955e-05, 0.351691, 0.387089, 0.279111, 0.00147243, 0.000936089, 0.00838345
-0.0219572, -0.0117736, -0.562112, 7.4556e-05, 2.49276e-06, 7.54681e-05, 0.352024, 0.386259, 0.278988, 0.00146876, 0.000935436, 0.00835597
-0.0216609, -0.0106551, -0.561894, 7.33025e-05, 2.15763e-06, 8.36827e-05, 0.352872, 0.385252, 0.278884, 0.00146027, 0.00093426, 0.00828627
-0.0202624, -0.0104965, -0.562295, 6.9945e-05, 1.11123e-06, 0.000107759, 0.354673, 0.384433, 0.278795, 0.0014464, 0.000932347, 0.00816394
-0.0193648, -0.0109008, -0.563354, 6.72941e-05, 9.00245e-08, 0.000127977, 0.357679, 0.383937, 0.278732, 0.0014275, 0.00092956, 0.00798815
-0.0188647, -0.0116403, -0.564454, 6.54759e-05, -7.1878e-07, 0.000142506, 0.361633, 0.383694, 0.2787, 0.00140745, 0.000926422, 0.0077943
-0.0185866, -0.0124865, -0.563951, 6.39974e-05, -1.19193e-06, 0.000153314, 0.366002, 0.383583, 0.278701, 0.00139068, 0.000923673, 0.00762625
-0.0184462, -0.0128759, -0.561592, 6.29519e-05, -1.36771e-06, 0.000159686, 0.37037, 0.383449, 0.278736, 0.00137867, 0.000921628, 0.00750141
-0.018515, -0.013345, -0.56225, 6.32426e-05, -1.32636e-06, 0.000157926, 0.374323, 0.383267, 0.278793, 0.00137122, 0.000920276, 0.0074203
-0.0187553, -0.0145146, -0.562965, 6.35556e-05, -1.30454e-06, 0.000155821, 0.377174, 0.383107, 0.278856, 0.00136817, 0.000919586, 0.00738372
-0.0196119, -0.0158955, -0.564909, 6.36607e-05, -1.22405e-06, 0.000154438, 0.378144, 0.383053, 0.278924, 0.00136773, 0.000919283, 0.00737662
-0.0206401, -0.0174292, -0.563847, 6.2584e-05, -1.8639e-06, 0.000162084, 0.376557, 0.383153, 0.27899, 0.00136614, 0.00091886, 0.00736514
-0.0227046, -0.0182972, -0.562035, 5.99358e-05, -3.10909e-06, 0.000181293, 0.372143, 0.383419, 0.279057, 0.00135831, 0.000917697, 0.00730177
-0.0253723, -0.0188743, -0.561151, 5.50787e-05, -4.82617e-06, 0.000215734, 0.365704, 0.383719, 0.279124, 0.00134073, 0.000915419, 0.00715002
-0.0283963, -0.0191941, -0.56236, 4.70196e-05, -6.78449e-06, 0.000269926, 0.358859, 0.38398, 0.27922, 0.00131313, 0.000911999, 0.00689993
-0.029702, -0.0193757, -0.562971, 4.28971e-05, -7.76527e-06, 0.00029776, 0.353376, 0.384253, 0.279385, 0.00127874, 0.000907795, 0.00657429
-0.0309515, -0.0192074, -0.56188, 4.03502e-05, -8.99367e-06, 0.000318847, 0.35037, 0.384607, 0.279656, 0.00124241, 0.000903373, 0.00621518
-0.0321831, -0.0186685, -0.560798, 3.78691e-05, -1.02152e-05, 0.000340057, 0.350027, 0.385056, 0.280051, 0.00120957, 0.000899372, 0.00587693
-0.0328228, -0.0183914, -0.56043, 3.63852e-05, -1.08186e-05, 0.000352021, 0.351774, 0.385608, 0.280543, 0.00118316, 0.000896177, 0.00559486
-0.0339078, -0.0176313, -0.558766, 3.51861e-05, -1.1839e-05, 0.00036515, 0.354822, 0.386285, 0.281094, 0.00116372, 0.000893884, 0.00538193
-0.0342045, -0.0165933, -0.557872, 3.54424e-05, -1.21058e-05, 0.00036607, 0.35839, 0.387062, 0.281654, 0.00115095, 0.000892445, 0.0052406
-0.0339687, -0.0155498, -0.560189, 3.46568e-05, -1.16913e-05, 0.000370283, 0.361814, 0.387874, 0.282169, 0.00114366, 0.000891679, 0.0051609
-0.0317711, 0.0291012, -0.56483, 3.995e-05, -1.00445e-05, 0.000381233, 0.36455, 0.388642, 0.282598, 0.00114037, 0.000891351, 0.00512673
-0.0332962, 0.00907414, -0.565246, 3.85631e-05, -1.01941e-05, 0.000370365, 0.366185, 0.389267, 0.282897, 0.00113947, 0.000891223, 0.00511854
-0.0322082, 0.0294912, -0.560217, 3.84483e-05, -1.04963e-05, 0.000388931, 0.366527, 0.389756, 0.283041, 0.00113943, 0.00089109, 0.00511775
-0.0338264, 0.00330375, -0.562095, 3.87435e-05, -1.12283e-05, 0.000366358, 0.365637, 0.390193, 0.28303, 0.00113899, 0.000890761, 0.00510908
-0.0346467, -0.0143823, -0.56245, 3.85211e-05, -1.21519e-05, 0.000354813, 0.363685, 0.39064, 0.282884, 0.00113703, 0.000890031, 0.0050784
-0.0345149, -0.0254914, -0.562181, 3.73347e-05, -1.3209e-05, 0.000355424, 0.361061, 0.391102, 0.28263, 0.00113248, 0.000888734, 0.00501297
-0.0342627, -0.0318291, -0.561085, 3.58599e-05, -1.39846e-05, 0.000360465, 0.358439, 0.391553, 0.282305, 0.00112492, 0.000886855, 0.00490813
-0.033485, -0.0349241, -0.560806, 3.42315e-05, -1.47828e-05, 0.000370344, 0.356578, 0.391996, 0.281959, 0.00111453, 0.000884467, 0.00476606
-0.0323954, -0.0353691, -0.561503, 3.26351e-05, -1.56962e-05, 0.000384008, 0.356109, 0.392484, 0.281625, 0.00110238, 0.000881765, 0.00459989
-0.0315189, -0.0335164, -0.561796, 3.13188e-05, -1.63314e-05, 0.000396864, 0.357267, 0.393063, 0.281324, 0.00108972, 0.000878973, 0.00442594
-0.030553, -0.0294745, -0.563026, 3.04582e-05, -1.71373e-05, 0.000411444, 0.359981, 0.393747, 0.281074, 0.00107716, 0.00087622, 0.00425254
-0.0298604, -0.0265225, -0.56136, 2.84381e-05, -1.7479e-05, 0.0004263, 0.364028, 0.394527, 0.280894, 0.00106516, 0.000873624, 0.00408674
-0.0292024, -0.0232448, -0.558843, 2.61247e-05, -1.76977e-05, 0.000441496, 0.368955, 0.395364, 0.280778, 0.00105473, 0.000871393, 0.00394266
-0.0283424, -0.0200866, -0.557621, 2.42431e-05, -1.82506e-05, 0.000456718, 0.374254, 0.396208, 0.280728, 0.00104653, 0.000869647, 0.00382954
-0.027513, -0.0181542, -0.556487, 2.2679e-05, -1.86913e-05, 0.000468108, 0.379448, 0.397025, 0.280719, 0.00104067, 0.000868383, 0.00374953
-0.0267352, -0.0161784, -0.556095, 2.19674e-05, -1.90302e-05, 0.000474758, 0.384075, 0.397768, 0.280733, 0.00103699, 0.000867563, 0.00370053
-0.0262341, -0.0147547, -0.557433, 2.22072e-05, -1.93089e-05, 0.000476101, 0.387746, 0.398358, 0.280765, 0.00103507, 0.00086711, 0.00367583
-0.0262003, -0.0139921, -0.558915, 2.25867e-05, -1.94311e-05, 0.000475199, 0.390101, 0.398735, 0.280773, 0.00103436, 0.000866916, 0.00366735
-0.0261012, -0.0132334, -0.558722, 2.26338e-05, -1.94148e-05, 0.000475002, 0.390931, 0.398963, 0.280733, 0.00103425, 0.000866853, 0.00366652
-0.0264183, -0.0125769, -0.55845, 2.26434e-05, -1.94059e-05, 0.000475168, 0.390167, 0.399183, 0.280648, 0.00103413, 0.000866831, 0.00366473
-0.0270997, -0.0126432, -0.55885, 2.23628e-05, -1.94714e-05, 0.000477142, 0.388003, 0.399446, 0.280539, 0.0010335, 0.000866797, 0.00365486
-0.0282622, -0.0128285, -0.559361, 2.1653e-05, -1.95994e-05, 0.000482041, 0.384669, 0.399716, 0.28041, 0.00103201, 0.000866709, 0.0036316
-0.0288737, -0.0135791, -0.560012, 2.10446e-05, -1.96476e-05, 0.00048552, 0.380477, 0.399945, 0.280272, 0.00102937, 0.000866519, 0.00359099
