0.00370678, -0.000616392, -0.55848, 6.38645e-05, -0.000248018, 0.000146017, 0.0316228, 0.0316228, 0.0316228, 0.0316228, 0.0316228, 0.0316228
0.00370678, -0.000616392, -0.55848, 6.38645e-05, -0.000248018, 0.000146017, 0.173642, 0.173642, 0.173642, 0.0316228, 0.0316228, 0.0316228
0.0029021, -0.000500015, -0.561156, 0.000223588, 2.43306e-05, 0.000133211, 0.194302, 0.1943, 0.194252, 0.0315538, 0.0315651, 0.0315962
0.00347193, -0.000316944, -0.56444, 0.000350418, 0.000145248, 0.000164657, 0.212575, 0.212567, 0.212214, 0.031444, 0.0314658, 0.0315716
0.0041479, -4.09446e-06, -0.560639, 0.00028668, -6.78072e-05, 0.00019173, 0.228948, 0.228928, 0.227621, 0.0312799, 0.0313093, 0.0315507
0.00415167, -0.000196176, -0.558317, 0.000221913, -0.000169739, 0.000200463, 0.243816, 0.243784, 0.240389, 0.0310594, 0.0310922, 0.0315332
0.00823304, -0.00159541, -0.556061, 7.26614e-06, -0.000418367, 0.000226138, 0.257483, 0.25744, 0.250488, 0.0307841, 0.0308166, 0.0315174
0.00785309, -0.00166456, -0.555375, -3.2042e-06, -0.000421661, 0.000287713, 0.270155, 0.270105, 0.258104, 0.0304495, 0.0304794, 0.0315016
0.00754745, -0.00110785, -0.562363, 9.15327e-06, -0.00061267, 0.000319434, 0.281936, 0.281879, 0.263631, 0.0300516, 0.030078, 0.0314851
0.00638368, -0.00113177, -0.568014, 3.49407e-05, -0.000435923, 0.000331341, 0.292862, 0.292793, 0.267573, 0.0295925, 0.0296158, 0.0314682
0.00409908, -0.00282107, -0.580725, -0.000158646, -9.71495e-06, 0.000246361, 0.302959, 0.302871, 0.270402, 0.029067, 0.0290878, 0.0314509
0.000781358, -0.00427521, -0.609046, -0.000384408, 0.000463582, 0.000176238, 0.31224, 0.312132, 0.272468, 0.0284727, 0.028492, 0.0314337
-0.000536307, -0.00489777, -0.635137, -0.00053095, 0.000757596, 0.000173065, 0.320759, 0.320631, 0.274026, 0.027817, 0.0278354, 0.0314167
-0.00276358, -0.00526081, -0.63771, -0.00056511, 0.000838439, 0.000193515, 0.328626, 0.328477, 0.275241, 0.0271103, 0.0271276, 0.0313995
-0.00532687, -0.00468572, -0.632629, -0.000512567, 0.00100429, 0.000208964, 0.335964, 0.335789, 0.276179, 0.026365, 0.0263807, 0.0313825
-0.00734069, -0.00508889, -0.630025, -0.000544016, 0.00121856, 0.000173979, 0.34289, 0.342689, 0.276888, 0.0256055, 0.0256187, 0.0313661
-0.00988193, -0.00438259, -0.627342, -0.000472137, 0.00142286, 0.000148189, 0.349462, 0.349245, 0.277404, 0.0248651, 0.0248744, 0.0313504
-0.0133198, -0.00147494, -0.604311, -0.00018901, 0.00138286, 0.000177109, 0.35574, 0.355542, 0.277773, 0.0241676, 0.0241713, 0.0313348
-0.0200196, 0.0015252, -0.571437, 0.00011272, 0.00139825, 0.000217534, 0.361842, 0.361725, 0.278049, 0.0235169, 0.0235123, 0.0313186
-0.0251377, 0.00259957, -0.539731, 0.000249654, 0.00119624, 0.000227456, 0.367915, 0.367975, 0.278275, 0.0229046, 0.0228883, 0.0313
-0.0251671, 0.00386728, -0.525494, 0.000363289, 0.000989556, 0.000219265, 0.374127, 0.374459, 0.278491, 0.0223199, 0.0222899, 0.0312783
-0.0263564, 0.00639464, -0.503913, 0.000572332, 0.000651, 0.000261177, 0.380641, 0.381288, 0.27872, 0.0217538, 0.0217099, 0.0312552
-0.0285478, 0.0090023, -0.476389, 0.00076811, 0.000157057, 0.000323866, 0.387562, 0.388513, 0.278974, 0.0212001, 0.0211434, 0.0312317
-0.0304073, 0.0107906, -0.447146, 0.000933313, -0.000383378, 0.00037199, 0.394882, 0.396086, 0.279245, 0.0206608, 0.0205927, 0.0312082
-0.0284152, 0.0105536, -0.443647, 0.0008933, -0.000633088, 0.00035657, 0.402502, 0.40388, 0.279514, 0.0201437, 0.0200668, 0.0311856
-0.0264242, 0.00936576, -0.443741, 0.000734589, -0.000828941, 0.000309304, 0.410342, 0.411783, 0.279789, 0.0196485, 0.0195685, 0.0311645
-0.0251295, 0.00774767, -0.447563, 0.000388915, -0.000997175, 0.00022226, 0.418333, 0.419636, 0.280131, 0.0191706, 0.0190986, 0.0311451
-0.0239186, 0.007373, -0.458384, -0.000145243, -0.00110954, 0.000138143, 0.42639, 0.42715, 0.280648, 0.0187016, 0.0186581, 0.0311258
-0.0219856, 0.0169081, -0.488644, -0.000940501, -0.000857446, 0.000107548, 0.43448, 0.433963, 0.281528, 0.0182273, 0.018243, 0.0311038
-0.0212876, 0.0275899, -0.512713, -0.0018662, -0.000678105, 2.60504e-06, 0.442581, 0.439614, 0.282992, 0.0177327, 0.0178486, 0.0310778
-0.0216837, 0.0393085, -0.530192, -0.00256366, -0.000577315, -6.85685e-05, 0.450653, 0.443553, 0.285299, 0.0172093, 0.0174756, 0.0310452
-0.0224843, 0.0500629, -0.54207, -0.003101, -0.000540989, -0.000103428, 0.458668, 0.445263, 0.288735, 0.0166544, 0.0171265, 0.0310022
-0.0216448, 0.0670393, -0.558102, -0.00407552, -0.000455525, -0.000182839, 0.466601, 0.44435, 0.293514, 0.0160695, 0.0168038, 0.0309425
-0.0215279, 0.0786439, -0.565105, -0.00436787, -0.000354467, -0.000124854, 0.47444, 0.440748, 0.299685, 0.0154622, 0.016507, 0.0308621
-0.0222484, 0.0868947, -0.568331, -0.00445279, -0.000328631, -7.28563e-05, 0.482159, 0.434616, 0.307154, 0.0148472, 0.0162387, 0.0307517
-0.0223291, 0.0922077, -0.568641, -0.00431388, -0.000312028, -3.59921e-05, 0.489745, 0.42637, 0.31569, 0.0142419, 0.0160013, 0.030601
-0.0221993, 0.0997103, -0.569472, -0.00431358, -0.000240476, 5.88943e-05, 0.497178, 0.416657, 0.324941, 0.0136656, 0.0157967, 0.0304048
-0.0223164, 0.0976077, -0.565904, -0.00395563, -0.000159829, 0.000181554, 0.504443, 0.406191, 0.334545, 0.0131334, 0.0156251, 0.0301599
-0.0223639, 0.0933256, -0.561776, -0.00356938, -0.000107113, 0.000277564, 0.511524, 0.395611, 0.344201, 0.0126548, 0.0154856, 0.0298624
-0.0219582, 0.0879755, -0.55717, -0.00317001, -5.58077e-05, 0.000362265, 0.518417, 0.385467, 0.353706, 0.0122338, 0.0153755, 0.0295115
-0.0212145, 0.0790036, -0.550796, -0.00262456, -2.95496e-05, 0.000394503, 0.525117, 0.376174, 0.362933, 0.0118711, 0.0152915, 0.0291109
-0.0203709, 0.0706756, -0.544823, -0.00216009, -2.79063e-05, 0.000370819, 0.531624, 0.367989, 0.37182, 0.0115637, 0.0152295, 0.0286651
-0.0196944, 0.0653738, -0.539249, -0.00179271, -3.30696e-05, 0.00035426, 0.537965, 0.361046, 0.380366, 0.0113057, 0.0151851, 0.0281759
-0.0193488, 0.0667475, -0.536675, -0.00166254, -1.94002e-05, 0.00040353, 0.544174, 0.355418, 0.388579, 0.0110912, 0.015154, 0.0276511
-0.0189324, 0.069033, -0.535654, -0.00161925, -8.91603e-06, 0.000405709, 0.550307, 0.351178, 0.396466, 0.0109141, 0.0151315, 0.0271075
-0.0194914, 0.0747661, -0.533858, -0.00153597, -2.78933e-05, 0.000478581, 0.556391, 0.348331, 0.403991, 0.0107681, 0.015115, 0.0265545
-0.0198657, 0.0817926, -0.535118, -0.0015432, -3.20849e-05, 0.000579737, 0.562474, 0.346942, 0.411082, 0.0106473, 0.0151018, 0.0260064
-0.0200201, 0.0823606, -0.533576, -0.0014734, -5.01605e-05, 0.000539655, 0.56859, 0.347109, 0.41759, 0.0105448, 0.0150901, 0.0254745
-0.0188466, 0.0869073, -0.533925, -0.00142355, -3.83999e-05, 0.000474821, 0.574717, 0.348868, 0.423247, 0.0104527, 0.0150798, 0.024954
-0.0182509, 0.0880827, -0.530642, -0.00130212, -4.71238e-05, 0.000407538, 0.580841, 0.352273, 0.427656, 0.010362, 0.0150711, 0.0244451
-0.0192989, 0.0861078, -0.523381, -0.00120117, -9.6203e-05, 0.000308771, 0.586956, 0.357325, 0.430307, 0.0102612, 0.0150632, 0.0239508
-0.0205326, 0.0866759, -0.520048, -0.00112664, -0.000143957, 0.000249189, 0.593008, 0.363879, 0.430617, 0.010139, 0.015056, 0.0234723
-0.0224124, 0.0844641, -0.506378, -0.00116238, -0.00019155, 7.15789e-05, 0.598921, 0.371674, 0.427957, 0.00998439, 0.0150485, 0.023022
-0.0290794, 0.0808758, -0.470673, -0.0014954, -0.000325737, -0.000202282, 0.604612, 0.380263, 0.421793, 0.00978685, 0.0150396, 0.0226143
-0.0373085, 0.0806949, -0.431267, -0.00201489, -0.000471969, -0.000429722, 0.609988, 0.388989, 0.411922, 0.00953994, 0.0150284, 0.022258
-0.0429799, 0.0836407, -0.398748, -0.00251454, -0.000561965, -0.000701266, 0.615018, 0.397073, 0.398628, 0.00924457, 0.0150149, 0.0219586
-0.0409922, 0.0826909, -0.403057, -0.00245468, -0.000548669, -0.000785804, 0.619792, 0.403756, 0.382592, 0.0089051, 0.0149999, 0.0217245
-0.0324655, 0.0718387, -0.446725, -0.00165581, -0.00042798, -0.000637078, 0.624445, 0.408444, 0.364925, 0.00853016, 0.0149827, 0.021557
-0.0250949, 0.0566547, -0.491801, -0.000800492, -0.000330304, -0.000485606, 0.629085, 0.410817, 0.347075, 0.00813374, 0.0149595, 0.0214486
-0.0247726, 0.0538821, -0.496146, -0.000739216, -0.000347988, -0.000434236, 0.633766, 0.410848, 0.330556, 0.00773339, 0.0149252, 0.0213872
-0.0245239, 0.0543416, -0.491913, -0.00085653, -0.000343073, -0.000440375, 0.638446, 0.408786, 0.31671, 0.00734795, 0.0148755, 0.0213568
-0.0243236, 0.0551446, -0.489359, -0.000922785, -0.000316589, -0.000459164, 0.643102, 0.404894, 0.306264, 0.0069888, 0.0148074, 0.0213451
-0.0245955, 0.0589747, -0.484239, -0.00102782, -0.000336644, -0.000467147, 0.647763, 0.399461, 0.299424, 0.00666033, 0.0147163, 0.0213377
-0.025758, 0.0611002, -0.485013, -0.00100069, -0.000367202, -0.000454647, 0.652464, 0.392841, 0.296031, 0.0063646, 0.0145958, 0.0213168
-0.0262963, 0.0621519, -0.486231, -0.000970402, -0.000368233, -0.000456571, 0.65724, 0.385455, 0.295665, 0.00610301, 0.0144422, 0.0212669
-0.0261438, 0.0637747, -0.485529, -0.000987734, -0.000412987, -0.000414895, 0.662074, 0.37768, 0.297722, 0.00587581, 0.0142572, 0.0211767
-0.0270454, 0.0632891, -0.489139, -0.0009211, -0.000462604, -0.000375411, 0.666903, 0.369817, 0.301554, 0.00568203, 0.0140479, 0.0210358
-0.0289302, 0.0609583, -0.497426, -0.000770216, -0.000469703, -0.000386227, 0.671659, 0.362173, 0.306566, 0.00551983, 0.0138243, 0.0208392
-0.0301616, 0.0550996, -0.507074, -0.00059926, -0.000445063, -0.000425735, 0.67631, 0.355069, 0.312255, 0.00538681, 0.013596, 0.0205927
-0.02973, 0.0480928, -0.516519, -0.000441491, -0.000412681, -0.000450931, 0.68086, 0.348752, 0.318223, 0.00527971, 0.0133724, 0.0203108
-0.0296623, 0.0476221, -0.525998, -0.000319726, -0.000407697, -0.000444745, 0.685352, 0.343349, 0.324189, 0.00519442, 0.0131598, 0.0200067
-0.0308262, 0.0545692, -0.52993, -0.000301843, -0.000457876, -0.000394928, 0.689809, 0.33888, 0.329953, 0.00512696, 0.0129606, 0.0196865
-0.0322156, 0.0673356, -0.531501, -0.000324483, -0.000529788, -0.000308603, 0.694232, 0.335371, 0.335398, 0.00507427, 0.0127758, 0.0193535
-0.0328904, 0.0745117, -0.53882, -0.000277933, -0.000563087, -0.000263478, 0.698635, 0.332894, 0.340439, 0.00503413, 0.012606, 0.0190149
-0.0328491, 0.0784303, -0.550744, -0.000193187, -0.000549196, -0.000280987, 0.703048, 0.331557, 0.344963, 0.00500473, 0.0124512, 0.0186846
-0.0331894, 0.0786938, -0.566019, -0.000103313, -0.000550259, -0.000302198, 0.707462, 0.331447, 0.3488, 0.00498389, 0.0123125, 0.0183716
-0.0330502, 0.0755202, -0.585299, -2.35557e-05, -0.000562475, -0.000324329, 0.711769, 0.332627, 0.351716, 0.00496904, 0.0121932, 0.0180793
-0.0323239, 0.0670722, -0.609584, 1.48423e-05, -0.000553927, -0.000407014, 0.715859, 0.335107, 0.35341, 0.00495664, 0.0120952, 0.0178105
-0.0316732, 0.0615984, -0.630547, 5.64811e-06, -0.00054439, -0.000490645, 0.71965, 0.338789, 0.353548, 0.0049418, 0.0120169, 0.0175669
-0.032945, 0.0613426, -0.638667, -2.20328e-06, -0.000526329, -0.000573001, 0.723083, 0.343423, 0.351823, 0.00491879, 0.0119548, 0.0173517
-0.0344046, 0.0590295, -0.643297, -2.92855e-05, -0.000497936, -0.000677481, 0.726111, 0.348566, 0.34806, 0.00488183, 0.0119035, 0.0171669
-0.0348727, 0.053901, -0.653635, -0.000123068, -0.000485283, -0.000791058, 0.72874, 0.353611, 0.342296, 0.00482643, 0.0118579, 0.0170155
-0.0343986, 0.0514028, -0.664733, -0.000223454, -0.000454977, -0.000896004, 0.731085, 0.357939, 0.334897, 0.00475073, 0.0118126, 0.0168982
-0.034367, 0.0502832, -0.665797, -0.000238867, -0.000450292, -0.000920068, 0.733384, 0.361059, 0.326557, 0.00465635, 0.011763, 0.016811
-0.0370965, 0.0475797, -0.671171, -0.000299433, -0.000491961, -0.000967623, 0.73577, 0.362619, 0.318175, 0.00454741, 0.0117072, 0.0167519
-0.0413816, 0.0427776, -0.68272, -0.00043181, -0.000556715, -0.00104678, 0.738318, 0.362468, 0.310715, 0.00442971, 0.011645, 0.0167162
-0.0468321, 0.0354105, -0.685717, -0.000477266, -0.000610102, -0.0011006, 0.741148, 0.360689, 0.304948, 0.00430941, 0.0115753, 0.0166964
-0.0550603, 0.0205154, -0.683699, -0.000470334, -0.000713341, -0.001147, 0.744306, 0.357454, 0.301273, 0.00419144, 0.0114983, 0.016687
-0.060323, 0.00590565, -0.676155, -0.000392953, -0.000787562, -0.00115503, 0.747791, 0.353008, 0.299709, 0.00407973, 0.0114181, 0.0166825
-0.0610792, 0.00202514, -0.66984, -0.00032942, -0.000747356, -0.00112629, 0.7516, 0.347656, 0.30004, 0.00397696, 0.0113391, 0.0166766
-0.057733, 0.00710549, -0.662344, -0.000272456, -0.000617435, -0.00107084, 0.755731, 0.341749, 0.301989, 0.00388453, 0.0112611, 0.0166648
-0.0577817, 0.00386115, -0.657299, -0.000229809, -0.000539224, -0.00102999, 0.760129, 0.335587, 0.305182, 0.00380314, 0.0111844, 0.0166456
-0.0561933, -0.00374327, -0.633607, -2.19515e-05, -0.000457366, -0.000943894, 0.764718, 0.329384, 0.309168, 0.00373254, 0.0111139, 0.0166149
-0.0542314, -0.00201214, -0.631011, -1.71269e-05, -0.000385532, -0.000884001, 0.769451, 0.323369, 0.313586, 0.00367238, 0.0110533, 0.0165697
-0.0516705, 0.00765807, -0.628547, -4.19421e-05, -0.000277071, -0.000778811, 0.774308, 0.317813, 0.318133, 0.00362227, 0.0109976, 0.0165167
-0.0504028, 0.0168551, -0.608578, 4.76723e-05, -0.000218809, -0.000645028, 0.779231, 0.31287, 0.322645, 0.0035811, 0.0109437, 0.0164582
-0.0501979, 0.0246322, -0.583173, 0.000158724, -0.000185219, -0.000492192, 0.784152, 0.308623, 0.327037, 0.00354748, 0.0108915, 0.0163926
-0.0508914, 0.0355852, -0.582025, 0.000134898, -0.000163389, -0.00041672, 0.789042, 0.305152, 0.33129, 0.00352029, 0.0108424, 0.0163166
-0.0498672, 0.0424118, -0.586784, 0.000105793, -0.000152652, -0.000446232, 0.79388, 0.302543, 0.335345, 0.00349863, 0.0107965, 0.0162312
-0.0503351, 0.0416109, -0.586666, 0.000115413, -0.000185006, -0.000502436, 0.798667, 0.300864, 0.339102, 0.00348121, 0.0107557, 0.0161333
-0.0503266, 0.0391188, -0.5802, 0.000142662, -0.000209552, -0.000550481, 0.803404, 0.300166, 0.342447, 0.00346673, 0.0107241, 0.0160164
-0.0509423, 0.0341637, -0.568815, 0.000177834, -0.000241433, -0.000626662, 0.80807, 0.300512, 0.345241, 0.00345397, 0.0107027, 0.0158775
-0.0513238, 0.026505, -0.552126, 0.000210921, -0.000270534, -0.000763769, 0.812605, 0.301934, 0.347264, 0.0034416, 0.0106893, 0.0157209
-0.0521994, 0.0084213, -0.520504, 0.000216869, -0.000297382, -0.000996304, 0.816964, 0.304442, 0.348254, 0.00342786, 0.0106812, 0.0155549
-0.0526855, -0.00528254, -0.488494, 0.000185305, -0.000306609, -0.00122022, 0.821118, 0.307985, 0.347924, 0.00341039, 0.0106761, 0.0153853
-0.0507611, -0.00985376, -0.470215, 0.000152392, -0.000282123, -0.00135983, 0.825017, 0.312436, 0.345982, 0.0033867, 0.0106732, 0.0152207
-0.048122, -0.00099961, -0.478092, 0.000220416, -0.000277805, -0.00144498, 0.828647, 0.317535, 0.342193, 0.00335401, 0.0106708, 0.0150697
-0.0490086, 0.013326, -0.496607, 0.000365013, -0.000315345, -0.00150191, 0.832007, 0.322882, 0.336453, 0.00330971, 0.010667, 0.0149411
-0.0515514, 0.0211597, -0.499804, 0.000420111, -0.000350867, -0.00152746, 0.835062, 0.327981, 0.328995, 0.0032528, 0.0106593, 0.0148414
-0.0546951, 0.0266202, -0.500097, 0.000444337, -0.000372756, -0.00151825, 0.837779, 0.332305, 0.320519, 0.00318551, 0.0106464, 0.0147721
-0.0588696, 0.0318237, -0.501949, 0.00047405, -0.000406773, -0.00151279, 0.840148, 0.335408, 0.311978, 0.00311212, 0.0106268, 0.0147292
-0.0554294, 0.0352192, -0.4864, 0.000377666, -0.000336535, -0.00150442, 0.842147, 0.33702, 0.304317, 0.00303733, 0.0105997, 0.0147074
-0.0503891, 0.0391149, -0.466676, 0.000249523, -0.000242806, -0.00150087, 0.843826, 0.337099, 0.298272, 0.00296521, 0.0105633, 0.0146996
-0.0511732, 0.0450828, -0.45674, 0.000190352, -0.000212558, -0.00151283, 0.845281, 0.335818, 0.294248, 0.00289892, 0.0105144, 0.014696
-0.0514872, 0.0514174, -0.444602, 0.000115742, -0.000178026, -0.00153909, 0.846516, 0.333484, 0.292256, 0.00284023, 0.0104493, 0.0146845
-0.0577098, 0.0535518, -0.450534, 0.00015437, -0.000181524, -0.00157579, 0.847557, 0.330509, 0.292049, 0.00278961, 0.0103645, 0.0146511
-0.0606635, 0.0536501, -0.457885, 0.000197161, -0.000190555, -0.00159116, 0.848555, 0.327332, 0.293226, 0.0027466, 0.0102599, 0.0145868
-0.0656301, 0.0587165, -0.459929, 0.000202763, -0.000252745, -0.00157643, 0.849791, 0.324282, 0.295342, 0.00271, 0.0101418, 0.0144893
-0.072297, 0.0659269, -0.464398, 0.000216069, -0.000336742, -0.00155094, 0.851367, 0.32163, 0.298058, 0.00267937, 0.0100154, 0.0143586
-0.0757385, 0.0683938, -0.473953, 0.000251865, -0.000390659, -0.00151744, 0.853283, 0.3196, 0.301108, 0.00265456, 0.00988709, 0.0142008
-0.0747966, 0.0628498, -0.494633, 0.000328094, -0.000406516, -0.00147406, 0.85557, 0.31832, 0.30425, 0.00263517, 0.009767, 0.0140297
-0.0679516, 0.048179, -0.521225, 0.000411367, -0.000372244, -0.00143261, 0.858274, 0.317832, 0.307273, 0.00262051, 0.00966336, 0.0138598
-0.0605011, 0.0326368, -0.548873, 0.000474623, -0.000350307, -0.0013826, 0.861367, 0.318121, 0.309981, 0.00260973, 0.00957992, 0.0137023
-0.0510018, 0.00983264, -0.583797, 0.000524226, -0.000289083, -0.00137982, 0.86471, 0.319207, 0.312204, 0.00260216, 0.00951459, 0.0135669
-0.0427397, -0.0122542, -0.621358, 0.000542369, -0.000220626, -0.00140934, 0.868192, 0.321075, 0.313765, 0.00259676, 0.00946169, 0.0134583
-0.036993, -0.0244732, -0.64652, 0.000531609, -0.000154788, -0.00144847, 0.871702, 0.323601, 0.314481, 0.00259216, 0.00941629, 0.0133775
-0.0348058, -0.0284001, -0.656048, 0.000519939, -0.000124786, -0.00146688, 0.875061, 0.326495, 0.314224, 0.00258671, 0.00937634, 0.0133194
-0.0350838, -0.0301431, -0.658643, 0.000514804, -0.000105584, -0.00149026, 0.878113, 0.32942, 0.313016, 0.00257916, 0.00933954, 0.0132773
-0.0340374, -0.0315073, -0.661575, 0.000507332, -6.99414e-05, -0.0015178, 0.88082, 0.332094, 0.311046, 0.00256897, 0.00930296, 0.013246
-0.0341296, -0.0326536, -0.661148, 0.000506488, -6.06287e-05, -0.00152776, 0.883309, 0.334342, 0.308587, 0.00255643, 0.00926505, 0.0132222
-0.0360995, -0.0328914, -0.655991, 0.000519632, -8.68837e-05, -0.00151883, 0.885772, 0.336122, 0.305942, 0.00254233, 0.00922594, 0.0132041
-0.0371888, -0.027747, -0.649691, 0.00054218, -0.00011188, -0.00147997, 0.888373, 0.337493, 0.303388, 0.00252768, 0.00918573, 0.01319
-0.0398579, -0.013144, -0.638174, 0.000589321, -0.000144042, -0.00140223, 0.891089, 0.338554, 0.301198, 0.00251345, 0.00914356, 0.0131783
-0.0460184, 0.00729402, -0.618236, 0.000661099, -0.000172643, -0.00129451, 0.893756, 0.339359, 0.299591, 0.0025004, 0.00909921, 0.0131672
-0.050147, 0.0224262, -0.602538, 0.000711294, -0.000183207, -0.00120631, 0.896211, 0.339921, 0.298669, 0.00248898, 0.00905213, 0.013155
-0.0608631, 0.028224, -0.577141, 0.000775924, -0.000268321, -0.00114143, 0.898313, 0.340189, 0.298354, 0.00247938, 0.00900105, 0.0131423
-0.0744951, 0.0245293, -0.551297, 0.000832473, -0.00037714, -0.00113294, 0.89965, 0.340094, 0.298474, 0.00247161, 0.00894116, 0.0131301
-0.0800894, 0.0152323, -0.559748, 0.000816518, -0.00042264, -0.00119305, 0.899131, 0.339611, 0.298811, 0.00246543, 0.00885927, 0.0131195
-0.0863347, 0.0045757, -0.59166, 0.000764463, -0.000474498, -0.00126943, 0.894715, 0.338861, 0.299094, 0.0024603, 0.00873232, 0.013111
-0.113293, -0.00970688, -0.600616, 0.00075607, -0.00070851, -0.00132073, 0.883541, 0.338207, 0.299023, 0.00245562, 0.00853239, 0.0131042
-0.144557, -0.0221842, -0.599463, 0.000761788, -0.000978129, -0.00135136, 0.862764, 0.338275, 0.298463, 0.00245053, 0.00823933, 0.0130986
-0.178705, -0.0327611, -0.597004, 0.000772108, -0.00127813, -0.00138596, 0.830986, 0.339788, 0.297431, 0.00244424, 0.00785139, 0.0130937
-0.20775, -0.0392931, -0.58238, 0.000790618, -0.00152461, -0.0014093, 0.789088, 0.343208, 0.296029, 0.00243621, 0.00738665, 0.0130899
-0.221841, -0.0407538, -0.571804, 0.000797525, -0.001628, -0.00142141, 0.739867, 0.348504, 0.294479, 0.00242599, 0.00687709, 0.0130871
-0.245446, -0.0424372, -0.567864, 0.0008002, -0.00180555, -0.00145156, 0.687107, 0.355146, 0.292988, 0.00241326, 0.00635941, 0.0130849
-0.273609, -0.0432366, -0.568246, 0.000800059, -0.0020172, -0.00149253, 0.634578, 0.362339, 0.291646, 0.00239801, 0.00586633, 0.0130829
-0.270302, -0.0387974, -0.563261, 0.000779462, -0.00193288, -0.00149665, 0.585192, 0.369365, 0.290502, 0.00238061, 0.00542054, 0.0130809
-0.273456, -0.0339945, -0.55575, 0.000761471, -0.00190258, -0.0015186, 0.540775, 0.375734, 0.289565, 0.00236217, 0.00503335, 0.0130789
-0.244052, -0.0259618, -0.549346, 0.0007171, -0.00157978, -0.00151443, 0.502197, 0.381241, 0.288799, 0.00234397, 0.00470626, 0.0130771
-0.207334, -0.019116, -0.545139, 0.000673876, -0.00121373, -0.0015159, 0.469657, 0.385905, 0.288179, 0.00232694, 0.0044365, 0.0130746
-0.175074, -0.0132781, -0.543135, 0.000637273, -0.000901883, -0.00153068, 0.442915, 0.389904, 0.287688, 0.00231185, 0.00421861, 0.0130704
-0.147092, -0.00899481, -0.545087, 0.000609574, -0.000645354, -0.00155204, 0.421465, 0.393468, 0.287312, 0.00229917, 0.00404664, 0.0130632
-0.126568, -0.00575794, -0.550405, 0.000591176, -0.000463856, -0.00158171, 0.40467, 0.396817, 0.28704, 0.00228908, 0.00391394, 0.0130527
-0.110725, -0.0042019, -0.554111, 0.00058325, -0.000339348, -0.00160341, 0.391872, 0.400127, 0.286846, 0.00228148, 0.00381418, 0.0130395
-0.0902987, -0.00757737, -0.564513, 0.000587968, -0.000222489, -0.00159435, 0.382459, 0.403522, 0.286722, 0.00227612, 0.00374177, 0.0130248
-0.0663141, -0.0127929, -0.567246, 0.000599136, -0.000116078, -0.001551, 0.375915, 0.40709, 0.286644, 0.00227292, 0.00369044, 0.0130085
-0.0460376, -0.0134399, -0.563216, 0.000606018, -3.35398e-05, -0.00152546, 0.37182, 0.410855, 0.286613, 0.00227137, 0.00365591, 0.0129912
-0.0307061, -0.00945258, -0.557661, 0.0006092, 2.57335e-05, -0.00151827, 0.369837, 0.414698, 0.286648, 0.00227072, 0.00363553, 0.0129759
-0.0193247, -0.00258979, -0.553846, 0.000611858, 6.07682e-05, -0.00151391, 0.369693, 0.418304, 0.286777, 0.00227052, 0.00362569, 0.0129633
-0.0115306, 0.00534014, -0.555923, 0.000616497, 7.39981e-05, -0.0015145, 0.371088, 0.421097, 0.286953, 0.00227021, 0.00362084, 0.0129524
-0.00662982, 0.0139601, -0.560855, 0.000622918, 6.86036e-05, -0.00150897, 0.373675, 0.422327, 0.287109, 0.00226899, 0.00361413, 0.0129423
-0.00204637, 0.0204285, -0.574051, 0.000630169, 4.84182e-05, -0.00149885, 0.377074, 0.421205, 0.287198, 0.00226593, 0.00359805, 0.0129325
-0.00273477, 0.0271096, -0.57385, 0.000637517, 3.03118e-05, -0.0014974, 0.380785, 0.417055, 0.287142, 0.00226028, 0.00356522, 0.0129236
-0.00557775, 0.0276503, -0.574468, 0.000645735, 4.04721e-05, -0.00151697, 0.384187, 0.409565, 0.286915, 0.00225192, 0.00350894, 0.0129142
-0.00767878, 0.0277199, -0.575814, 0.000651201, 4.69548e-05, -0.00150763, 0.386587, 0.399042, 0.286509, 0.00224118, 0.00342674, 0.0129025
-0.00945298, 0.0269683, -0.576783, 0.000655158, 5.4605e-05, -0.00148576, 0.387404, 0.386408, 0.285964, 0.00222857, 0.00332056, 0.0128851
-0.0094213, 0.0250513, -0.58174, 0.000656509, 6.47219e-05, -0.00147624, 0.386302, 0.372984, 0.285307, 0.00221456, 0.00319829, 0.0128612
-0.0715602, 0.0964931, -0.60384, 0.000778938, -0.000410657, -0.000853961, 0.383325, 0.360101, 0.284572, 0.00219929, 0.0030712, 0.0128345
-0.104598, 0.119956, -0.615546, 0.000852174, -0.000582422, -0.00059114, 0.378809, 0.348791, 0.28383, 0.00218281, 0.00294859, 0.012808
-0.106804, 0.112258, -0.623284, 0.000867261, -0.000538789, -0.000554831, 0.373232, 0.339661, 0.283132, 0.00216525, 0.00283506, 0.0127844
-0.0935053, 0.0968937, -0.610285, 0.000846302, -0.000422491, -0.000606007, 0.367096, 0.332851, 0.2825, 0.00214673, 0.00273436, 0.0127667
-0.0606709, 0.0707091, -0.588162, 0.000787955, -0.000209632, -0.000704304, 0.36085, 0.328232, 0.281951, 0.002127, 0.00264673, 0.0127565
-0.0373792, 0.0501484, -0.579082, 0.000755355, -5.24497e-05, -0.000746257, 0.354845, 0.325544, 0.281507, 0.00210642, 0.00256934, 0.0127508
-0.00433887, 0.0299859, -0.577858, 0.000711664, 0.000124313, -0.000861749, 0.349333, 0.324454, 0.28117, 0.00208525, 0.00249968, 0.0127433
0.0304954, 0.0170141, -0.565007, 0.00065651, 0.000272777, -0.000982585, 0.344476, 0.32458, 0.280924, 0.0020643, 0.00243834, 0.0127304
0.0608642, 0.0102229, -0.553136, 0.000603593, 0.000376693, -0.00105178, 0.340361, 0.32552, 0.280731, 0.00204511, 0.00238776, 0.012717
0.0891077, 0.00653068, -0.54449, 0.000552397, 0.000454905, -0.00107816, 0.337049, 0.327006, 0.280586, 0.00202843, 0.0023481, 0.0127064
0.115193, 0.00171541, -0.535607, 0.000511945, 0.000526739, -0.00110105, 0.334551, 0.328896, 0.280486, 0.00201441, 0.00231728, 0.0126968
0.135821, -0.00290598, -0.524964, 0.000483749, 0.000580148, -0.00111483, 0.332823, 0.331073, 0.280414, 0.00200299, 0.00229375, 0.0126872
0.152865, -0.00925322, -0.511702, 0.00046667, 0.000625681, -0.00113617, 0.331819, 0.333373, 0.28035, 0.00199465, 0.00227707, 0.01268
0.243047, -0.0191101, -0.499713, 0.000377245, 0.000766984, -0.00131197, 0.331512, 0.335684, 0.280294, 0.00198944, 0.00226629, 0.0126759
0.319887, -0.00593881, -0.485032, 0.000288639, 0.00079914, -0.00131381, 0.331844, 0.337933, 0.280249, 0.00198673, 0.00226003, 0.0126736
0.355973, -0.00611629, -0.479458, 0.000262908, 0.000810896, -0.00135554, 0.332751, 0.340048, 0.280218, 0.00198569, 0.00225697, 0.0126717
0.352163, -0.00335378, -0.480752, 0.000265196, 0.000809816, -0.0013548, 0.334143, 0.341874, 0.280185, 0.00198544, 0.00225596, 0.0126687
0.325457, 0.00914601, -0.489825, 0.000265925, 0.000820639, -0.00127516, 0.335923, 0.343215, 0.280144, 0.00198456, 0.00225569, 0.0126623
0.2909, 0.0312421, -0.504659, 0.000259499, 0.000862369, -0.00119061, 0.337929, 0.343863, 0.280089, 0.00198158, 0.00225411, 0.0126516
0.248341, 0.0619854, -0.526007, 0.00023906, 0.000950152, -0.00112985, 0.339946, 0.343657, 0.280022, 0.00197574, 0.00224874, 0.0126372
0.206694, 0.0991447, -0.551574, 0.000212535, 0.001078, -0.00117885, 0.341678, 0.342492, 0.279956, 0.00196742, 0.00223757, 0.0126224
0.168569, 0.136144, -0.558304, 0.000181314, 0.00122492, -0.001315, 0.342817, 0.340364, 0.279885, 0.00195759, 0.00221995, 0.0126098
0.141376, 0.168871, -0.554978, 0.000156672, 0.00135975, -0.00150042, 0.343149, 0.33738, 0.279815, 0.00194686, 0.00219579, 0.0125981
0.118822, 0.197078, -0.545858, 0.000129183, 0.00147828, -0.00169273, 0.342607, 0.333791, 0.279768, 0.00193537, 0.00216567, 0.0125845
0.100738, 0.21625, -0.532921, 0.000101087, 0.00155877, -0.00185092, 0.341193, 0.329962, 0.279758, 0.00192377, 0.00213179, 0.0125702
0.0851984, 0.221038, -0.532733, 7.1152e-05, 0.00158113, -0.00194812, 0.338992, 0.326233, 0.27978, 0.00191278, 0.00209627, 0.0125547
0.0741701, 0.216535, -0.53078, 5.25791e-05, 0.00156387, -0.00198942, 0.336186, 0.322857, 0.279819, 0.00190304, 0.00206034, 0.0125347
0.0689314, 0.207491, -0.529169, 4.68796e-05, 0.00152877, -0.00197048, 0.33303, 0.320025, 0.279871, 0.00189507, 0.00202514, 0.0125066
0.0655215, 0.191885, -0.527402, 4.70568e-05, 0.00146976, -0.0018846, 0.329795, 0.317855, 0.27994, 0.00188942, 0.00199181, 0.0124657
0.0632122, 0.17771, -0.522755, 4.76436e-05, 0.00141591, -0.00177444, 0.326763, 0.3164, 0.280022, 0.00188603, 0.00196138, 0.0124085
0.0631868, 0.158019, -0.525496, 5.27407e-05, 0.00135028, -0.0016083, 0.324196, 0.31566, 0.280128, 0.00188439, 0.00193478, 0.0123346
0.0976998, 0.16713, -0.523784, 6.42054e-05, 0.00138692, -0.00124272, 0.322288, 0.315577, 0.280242, 0.00188369, 0.00191185, 0.0122461
0.192993, 0.264325, -0.518196, 7.8072e-05, 0.00169436, -0.000941402, 0.321139, 0.316088, 0.280372, 0.00188329, 0.00189241, 0.01215
0.238916, 0.301463, -0.502909, 8.28863e-05, 0.00179578, -0.000702993, 0.320755, 0.317087, 0.280522, 0.00188285, 0.00187673, 0.0120572
0.252317, 0.295008, -0.49043, 7.55655e-05, 0.00177213, -0.00042583, 0.321091, 0.318504, 0.280702, 0.00188223, 0.00186436, 0.0119732
0.249355, 0.258572, -0.495458, 6.07071e-05, 0.00169277, -0.000110644, 0.322099, 0.320271, 0.280903, 0.0018812, 0.00185469, 0.0118953
0.238768, 0.204745, -0.501949, 2.95253e-05, 0.00159561, 0.000274978, 0.323783, 0.322305, 0.281109, 0.00187919, 0.00184698, 0.0118156
0.229313, 0.140052, -0.520741, -9.21243e-06, 0.00151156, 0.000654444, 0.32607, 0.324409, 0.281299, 0.00187621, 0.00184114, 0.011742
0.224737, 0.067628, -0.5478, -4.802e-05, 0.00145708, 0.000924839, 0.328775, 0.326334, 0.281444, 0.00187298, 0.0018369, 0.0116875
0.228473, -0.00236679, -0.55623, -8.58643e-05, 0.00144022, 0.00102253, 0.331526, 0.327851, 0.281509, 0.0018705, 0.00183364, 0.01166
0.235123, -0.0654746, -0.549391, -0.000105451, 0.00147135, 0.000842289, 0.33389, 0.32874, 0.281487, 0.00186908, 0.00183002, 0.0116481
0.250564, -0.118058, -0.539417, -0.000100507, 0.00153578, 0.00040336, 0.335532, 0.328738, 0.281388, 0.00186793, 0.00182334, 0.0116232
0.270632, -0.15512, -0.534407, -8.26862e-05, 0.00160602, -0.00011901, 0.336174, 0.327858, 0.281223, 0.00186594, 0.00181109, 0.0115627
0.29379, -0.177661, -0.541107, -7.12801e-05, 0.00165796, -0.000563778, 0.335589, 0.326418, 0.280996, 0.00186356, 0.0017937, 0.0114719
0.314923, -0.183482, -0.543834, -7.02971e-05, 0.00167765, -0.00086549, 0.333896, 0.324679, 0.280727, 0.00186177, 0.00177316, 0.0113659
0.332996, -0.175818, -0.539646, -7.20251e-05, 0.00166963, -0.00110185, 0.331444, 0.322742, 0.280428, 0.00186084, 0.00175135, 0.0112487
0.286441, -0.11075, -0.536225, -9.63476e-05, 0.00145124, -0.000204159, 0.328725, 0.320689, 0.280129, 0.00186031, 0.0017293, 0.0111228
0.239452, -0.0541484, -0.547228, -0.000108791, 0.00124762, 0.000520173, 0.326139, 0.318666, 0.279871, 0.00185984, 0.00170711, 0.0109976
0.219304, -0.0209336, -0.553529, -0.00010917, 0.0011402, 0.000719809, 0.32386, 0.31684, 0.279648, 0.00185944, 0.00168563, 0.010892
0.210617, -0.000821372, -0.56062, -0.000110571, 0.00108125, 0.000762733, 0.321884, 0.31535, 0.279479, 0.00185887, 0.00166574, 0.0108153
0.213643, 0.0115886, -0.571926, -0.000118846, 0.00105739, 0.000706983, 0.320118, 0.314226, 0.279353, 0.00185768, 0.00164774, 0.0107689
0.22091, 0.021723, -0.569015, -0.000129909, 0.00104832, 0.000626665, 0.318483, 0.313421, 0.279253, 0.00185542, 0.00163183, 0.0107456
0.227617, 0.0360055, -0.553733, -0.000144368, 0.00103366, 0.000552348, 0.316988, 0.312902, 0.279177, 0.00185204, 0.00161815, 0.010736
0.247183, 0.0419527, -0.525164, -0.000168656, 0.0010514, 0.0004752, 0.315692, 0.312667, 0.279121, 0.00184779, 0.0016069, 0.0107328
0.332184, 0.052334, -0.506367, -0.000272281, 0.00113081, 0.000367449, 0.314643, 0.312694, 0.279084, 0.00184275, 0.00159788, 0.0107321
0.402386, 0.0815513, -0.484541, -0.000395717, 0.00114615, 0.000525282, 0.313838, 0.312922, 0.279055, 0.00183655, 0.00159067, 0.0107294
0.426072, 0.105811, -0.47931, -0.000457311, 0.00112459, 0.000692152, 0.313295, 0.313336, 0.279024, 0.00182952, 0.00158509, 0.0107208
0.416346, 0.12325, -0.474367, -0.000463263, 0.00109849, 0.000726936, 0.313073, 0.313956, 0.278994, 0.00182271, 0.00158094, 0.010707
0.385881, 0.138027, -0.471448, -0.000436123, 0.00107938, 0.000638728, 0.313205, 0.314781, 0.278967, 0.00181731, 0.00157814, 0.0106925
0.33781, 0.155723, -0.466625, -0.000392295, 0.00107036, 0.000475059, 0.313666, 0.315769, 0.278946, 0.00181371, 0.00157647, 0.0106803
0.307078, 0.171235, -0.47599, -0.000367298, 0.00107229, 0.000373566, 0.314413, 0.316824, 0.278946, 0.00181166, 0.00157533, 0.0106705
0.269949, 0.179301, -0.484723, -0.000343176, 0.00109087, 0.000248434, 0.315368, 0.317857, 0.278943, 0.00181077, 0.00157435, 0.0106627
0.263823, 0.201033, -0.496113, -0.000337766, 0.00109578, 0.000267766, 0.316467, 0.318805, 0.278931, 0.00181058, 0.00157323, 0.0106575
0.222703, 0.231998, -0.51928, -0.000329673, 0.00114242, 0.0002144, 0.317611, 0.319578, 0.278911, 0.00181026, 0.00157136, 0.0106549
0.13417, 0.27134, -0.559558, -0.00034076, 0.00125772, 3.19085e-05, 0.318681, 0.320067, 0.278887, 0.00180902, 0.00156778, 0.0106531
0.0727566, 0.308003, -0.57516, -0.000350014, 0.00136415, -0.000171259, 0.319541, 0.320173, 0.278868, 0.00180652, 0.00156168, 0.01065
0.0301333, 0.339536, -0.577535, -0.000358384, 0.0014565, -0.000368977, 0.320076, 0.319842, 0.278868, 0.00180297, 0.00155266, 0.0106445
0.00757816, 0.358557, -0.574963, -0.00036572, 0.00151221, -0.00049669, 0.320199, 0.319064, 0.278887, 0.00179878, 0.00154092, 0.0106372
-0.00309783, 0.364052, -0.557786, -0.000373226, 0.00152977, -0.00054882, 0.319867, 0.317884, 0.278925, 0.0017946, 0.00152711, 0.0106286
-0.00625014, 0.347878, -0.541192, -0.000381595, 0.00149312, -0.000520546, 0.319092, 0.316407, 0.27898, 0.00179084, 0.0015121, 0.0106186
-0.00540697, 0.319385, -0.530168, -0.000384894, 0.00142624, -0.000445867, 0.317943, 0.314783, 0.279046, 0.00178758, 0.00149651, 0.0106063
-0.00159858, 0.285091, -0.522066, -0.000382605, 0.00134589, -0.000326129, 0.316535, 0.313168, 0.279126, 0.00178495, 0.00148097, 0.010591
0.00551559, 0.248331, -0.522566, -0.000372446, 0.00126598, -0.0001912, 0.315033, 0.311673, 0.279219, 0.00178324, 0.00146634, 0.0105709
0.0146919, 0.210862, -0.527641, -0.000359044, 0.00119039, -3.49058e-05, 0.313645, 0.310406, 0.279322, 0.00178238, 0.00145299, 0.0105427
0.0290617, 0.169417, -0.525521, -0.000345269, 0.00110957, 0.000214319, 0.312542, 0.309467, 0.279435, 0.00178199, 0.00144097, 0.0105077
0.0924563, 0.165203, -0.524612, -0.000342173, 0.00110704, 0.000845284, 0.311826, 0.308945, 0.279556, 0.00178178, 0.00143012, 0.0104689
0.15597, 0.2644, -0.528746, -0.000327561, 0.00129888, 0.000837516, 0.311536, 0.308928, 0.279686, 0.0017815, 0.00142015, 0.0104263
0.18595, 0.300425, -0.514158, -0.000315202, 0.00136238, 0.000844119, 0.311661, 0.30937, 0.279822, 0.00178104, 0.00141179, 0.010387
0.195674, 0.288964, -0.507598, -0.000320177, 0.00134409, 0.000992404, 0.312176, 0.310229, 0.279966, 0.00178048, 0.00140526, 0.0103551
0.201613, 0.251681, -0.519479, -0.000335682, 0.001297, 0.00122835, 0.313114, 0.311441, 0.280119, 0.00177987, 0.00140061, 0.0103299
0.209517, 0.198373, -0.54083, -0.000361872, 0.00124117, 0.00152034, 0.314458, 0.312926, 0.280261, 0.00177919, 0.00139756, 0.010311
0.217445, 0.144758, -0.556063, -0.000392695, 0.00119695, 0.00176886, 0.316202, 0.314556, 0.28039, 0.00177843, 0.00139571, 0.0102969
0.230289, 0.0883482, -0.560928, -0.000427827, 0.00116436, 0.00197464, 0.318213, 0.316128, 0.280482, 0.00177746, 0.00139447, 0.0102858
0.246491, 0.0394725, -0.566092, -0.000460121, 0.0011494, 0.00210145, 0.320223, 0.317437, 0.280519, 0.0017762, 0.00139321, 0.0102775
0.264152, -0.00170348, -0.562953, -0.000489347, 0.00114777, 0.00216176, 0.321952, 0.318289, 0.280495, 0.00177477, 0.00139147, 0.0102718
0.282115, -0.0392116, -0.550075, -0.000506752, 0.00116196, 0.00210625, 0.3232, 0.318418, 0.280433, 0.00177327, 0.00138851, 0.0102653
0.299618, -0.0693195, -0.532136, -0.000506263, 0.00118726, 0.00192921, 0.323726, 0.31764, 0.280339, 0.00177134, 0.0013834, 0.0102481
0.314422, -0.0940757, -0.49229, -0.000489238, 0.00122141, 0.00164994, 0.323328, 0.316127, 0.28022, 0.00176844, 0.00137581, 0.0102112
0.324628, -0.111973, -0.455959, -0.000467178, 0.00125308, 0.00138516, 0.322026, 0.314264, 0.280087, 0.00176473, 0.00136636, 0.0101553
0.326903, -0.121442, -0.415025, -0.000449242, 0.00127404, 0.00121977, 0.320101, 0.312404, 0.279958, 0.00176076, 0.00135611, 0.0100885
0.325336, -0.124596, -0.407471, -0.000444481, 0.00128038, 0.00119258, 0.317931, 0.310754, 0.279836, 0.00175699, 0.00134594, 0.0100188
0.321101, -0.123366, -0.415837, -0.000448241, 0.00127628, 0.00124716, 0.315885, 0.309432, 0.27974, 0.00175402, 0.00133678, 0.00995516
0.314749, -0.117411, -0.435435, -0.000459203, 0.00126129, 0.00136088, 0.31424, 0.308467, 0.279691, 0.00175223, 0.00132935, 0.00990342
0.310885, -0.105273, -0.468976, -0.000472863, 0.00123485, 0.00146474, 0.313139, 0.30782, 0.279706, 0.00175123, 0.00132371, 0.0098619
0.305404, -0.0913645, -0.502909, -0.000482405, 0.00120594, 0.00153707, 0.312589, 0.307446, 0.279799, 0.00175036, 0.00131961, 0.00982575
0.298409, -0.0753079, -0.542675, -0.000487305, 0.0011722, 0.00156563, 0.312511, 0.307325, 0.279977, 0.00174895, 0.00131658, 0.00978942
0.289058, -0.0588758, -0.584431, -0.000487578, 0.00113573, 0.00155563, 0.312782, 0.30746, 0.28025, 0.00174677, 0.00131416, 0.00975239
0.27834, -0.0401299, -0.615879, -0.000478329, 0.0011038, 0.00149314, 0.313206, 0.307849, 0.280624, 0.00174374, 0.00131195, 0.00971493
0.263225, -0.0214159, -0.654997, -0.000465955, 0.00106524, 0.00140078, 0.313549, 0.308475, 0.281094, 0.00173989, 0.00130959, 0.00967748
0.244565, -0.00262538, -0.678408, -0.000446483, 0.00103987, 0.00129029, 0.313622, 0.309349, 0.281678, 0.00173501, 0.00130677, 0.00963767
0.226783, 0.0159323, -0.694256, -0.000421677, 0.0010231, 0.0011474, 0.313307, 0.310477, 0.282384, 0.00172915, 0.00130336, 0.00959447
0.20289, 0.0350582, -0.71331, -0.000394118, 0.00100342, 0.000984533, 0.312577, 0.311836, 0.28323, 0.00172305, 0.00129936, 0.00955244
0.171733, 0.0519004, -0.748827, -0.000371154, 0.000964315, 0.000830431, 0.311456, 0.313415, 0.284204, 0.00171652, 0.00129481, 0.00950944
0.14471, 0.0661691, -0.776134, -0.000348597, 0.000935069, 0.000681759, 0.310045, 0.31525, 0.285282, 0.00170902, 0.00128983, 0.00946002
0.122898, 0.0791853, -0.782983, -0.000319486, 0.000932776, 0.000501703, 0.308555, 0.317291, 0.286445, 0.00170101, 0.00128483, 0.00940639
0.10743, 0.0901526, -0.769646, -0.000285862, 0.000954484, 0.000295082, 0.30726, 0.319445, 0.287674, 0.00169315, 0.0012803, 0.00935228
0.0950209, 0.0980494, -0.750857, -0.000257062, 0.000979001, 0.000113018, 0.306448, 0.321507, 0.288933, 0.00168661, 0.00127672, 0.00930606
0.0919219, 0.104842, -0.724976, -0.000234557, 0.00100341, -3.2857e-05, 0.306318, 0.323278, 0.290148, 0.0016819, 0.00127423, 0.00927178
0.0994061, 0.110267, -0.68432, -0.000219605, 0.001024, -0.000137551, 0.306938, 0.324711, 0.291209, 0.00167859, 0.00127257, 0.00924683
0.121977, 0.113945, -0.623091, -0.000217402, 0.00102652, -0.000172551, 0.308241, 0.32587, 0.29198, 0.00167605, 0.00127124, 0.00922698
0.138739, 0.115646, -0.567106, -0.000223086, 0.00100942, -0.000164166, 0.310067, 0.326762, 0.292314, 0.00167406, 0.00126971, 0.00921099
0.148352, 0.116793, -0.521226, -0.000232698, 0.000981121, -0.000132391, 0.312196, 0.327357, 0.292102, 0.00167241, 0.00126744, 0.00919793
0.152646, 0.117922, -0.483653, -0.000244413, 0.000947556, -8.69153e-05, 0.314379, 0.32774, 0.291318, 0.00167077, 0.00126386, 0.0091855
0.152928, 0.118541, -0.452649, -0.000257026, 0.000912555, -3.44875e-05, 0.316347, 0.327961, 0.290024, 0.00166896, 0.00125858, 0.00917252
0.149904, 0.118349, -0.433975, -0.000265072, 0.000888535, -2.47408e-06, 0.317861, 0.32799, 0.288399, 0.00166692, 0.00125146, 0.00915872
0.146514, 0.117943, -0.423942, -0.000269514, 0.000874403, 1.42396e-05, 0.318732, 0.327781, 0.286695, 0.00166457, 0.00124261, 0.00914319
0.144715, 0.118034, -0.419817, -0.000271772, 0.000867756, 2.38518e-05, 0.318863, 0.327386, 0.285179, 0.00166184, 0.00123241, 0.00912514
0.138165, 0.118789, -0.412755, -0.000274738, 0.000856456, 3.37515e-05, 0.318262, 0.326891, 0.284056, 0.00165886, 0.00122149, 0.00910534
0.131482, 0.117506, -0.402593, -0.000280454, 0.000839192, 5.60301e-05, 0.317036, 0.326246, 0.283444, 0.00165584, 0.00121062, 0.00908458
0.127119, 0.115515, -0.399808, -0.000280158, 0.000835338, 4.78252e-05, 0.315416, 0.325543, 0.28337, 0.00165307, 0.00120065, 0.00906452
0.115325, 0.113262, -0.38318, -0.000289288, 0.00080907, 8.34351e-05, 0.313717, 0.324901, 0.283784, 0.00165073, 0.00119222, 0.00904686
0.0969026, 0.112907, -0.367985, -0.000296635, 0.000787013, 0.00011203, 0.312247, 0.32431, 0.284598, 0.00164877, 0.00118562, 0.00903095
0.0929239, 0.113014, -0.378307, -0.00029081, 0.000799901, 8.43133e-05, 0.311234, 0.323693, 0.285679, 0.00164697, 0.00118085, 0.00901487
0.0924023, 0.111173, -0.396168, -0.000282784, 0.000817217, 4.64118e-05, 0.310836, 0.323142, 0.286867, 0.00164543, 0.00117776, 0.00900005
0.0991348, 0.111434, -0.426004, -0.000275064, 0.000836153, 1.91674e-05, 0.311101, 0.32262, 0.28799, 0.00164395, 0.00117592, 0.00898504
0.106197, 0.110917, -0.458891, -0.000269462, 0.000846947, 1.8353e-06, 0.311976, 0.32218, 0.288866, 0.00164267, 0.00117488, 0.00897148
0.111292, 0.109318, -0.491081, -0.00026778, 0.000847455, 2.93031e-06, 0.313306, 0.321895, 0.289339, 0.00164179, 0.00117418, 0.00896168
0.111427, 0.107181, -0.522986, -0.000269241, 0.000839767, 1.97142e-05, 0.314898, 0.321719, 0.289317, 0.00164112, 0.00117325, 0.00895422
0.11294, 0.106147, -0.556059, -0.000275963, 0.000821238, 6.41813e-05, 0.316522, 0.321578, 0.288788, 0.00164046, 0.0011716, 0.00894728
0.118414, 0.105604, -0.593294, -0.000288811, 0.000788934, 0.000139089, 0.317994, 0.321485, 0.287829, 0.0016398, 0.00116886, 0.00894099
0.121355, 0.102695, -0.632122, -0.000305362, 0.000747672, 0.00023064, 0.319156, 0.321496, 0.2866, 0.00163914, 0.00116479, 0.00893586
0.123827, 0.099418, -0.67885, -0.000329956, 0.000689098, 0.000363905, 0.319869, 0.321649, 0.285303, 0.00163842, 0.00115925, 0.0089313
0.126692, 0.0968956, -0.719524, -0.000354799, 0.000631586, 0.000496063, 0.320042, 0.321979, 0.284148, 0.00163741, 0.00115225, 0.00892574
0.125168, 0.0978822, -0.740978, -0.000368818, 0.000598987, 0.000571724, 0.319615, 0.32253, 0.283313, 0.00163583, 0.00114393, 0.00891709
0.124206, 0.0996102, -0.748643, -0.000373236, 0.000587023, 0.000595028, 0.318577, 0.323312, 0.282927, 0.00163358, 0.00113464, 0.00890445
0.120727, 0.101959, -0.756567, -0.000377369, 0.000574408, 0.000616838, 0.316971, 0.32436, 0.283041, 0.00163054, 0.00112481, 0.00888691
0.105518, 0.101792, -0.77973, -0.000396086, 0.000533657, 0.000718182, 0.314905, 0.325755, 0.283653, 0.00162639, 0.00111485, 0.00886214
0.0936334, 0.106429, -0.78865, -0.00039693, 0.000518204, 0.000720026, 0.312543, 0.327568, 0.284696, 0.00162074, 0.00110522, 0.00882714
0.0856707, 0.111657, -0.789124, -0.000388956, 0.000517657, 0.00067199, 0.310136, 0.329736, 0.286076, 0.00161399, 0.0010965, 0.00878415
0.0801052, 0.115444, -0.776709, -0.000372873, 0.000535257, 0.000579647, 0.307967, 0.332174, 0.287687, 0.00160672, 0.00108919, 0.00873648
0.0734738, 0.118089, -0.757795, -0.000355697, 0.000558283, 0.000481744, 0.306315, 0.334757, 0.289429, 0.00159974, 0.00108362, 0.00868956
0.067859, 0.12018, -0.736935, -0.000340757, 0.000579723, 0.00039643, 0.305396, 0.337332, 0.291186, 0.00159371, 0.00107982, 0.00864817
0.0632205, 0.122408, -0.710275, -0.00032615, 0.000600856, 0.000313049, 0.305328, 0.339814, 0.292828, 0.00158876, 0.00107752, 0.00861329
0.0811027, 0.122675, -0.656587, -0.00031253, 0.000621938, 0.000243808, 0.306133, 0.342085, 0.294206, 0.00158505, 0.00107626, 0.00858634
0.0982376, 0.121519, -0.599525, -0.000308328, 0.000623607, 0.000229202, 0.30772, 0.343994, 0.295145, 0.00158264, 0.00107546, 0.0085684
0.12326, 0.120581, -0.53331, -0.000313654, 0.000598089, 0.000271594, 0.30989, 0.34558, 0.295494, 0.00158106, 0.00107438, 0.00855621
0.137405, 0.121423, -0.474252, -0.000324389, 0.000558507, 0.000340287, 0.312366, 0.346944, 0.295169, 0.00157985, 0.00107231, 0.00854672
0.13509, 0.122885, -0.43219, -0.000335628, 0.000523058, 0.000405767, 0.314862, 0.347929, 0.294176, 0.00157902, 0.00106864, 0.00854044
0.128614, 0.124066, -0.418682, -0.000340397, 0.000510699, 0.000431479, 0.317048, 0.348263, 0.292625, 0.00157843, 0.00106285, 0.00853655
0.123049, 0.12458, -0.418727, -0.00033942, 0.000513418, 0.000423711, 0.318552, 0.347956, 0.290711, 0.00157755, 0.00105476, 0.00853077
0.121785, 0.124233, -0.423333, -0.000335935, 0.0005213, 0.000402576, 0.319111, 0.347504, 0.288716, 0.00157626, 0.00104475, 0.00852213
0.11752, 0.123533, -0.428375, -0.000331608, 0.000530281, 0.000374639, 0.318651, 0.347246, 0.286939, 0.00157471, 0.00103346, 0.00851192
0.113099, 0.122965, -0.431905, -0.000328209, 0.000536594, 0.000351004, 0.317261, 0.346984, 0.285651, 0.00157291, 0.00102154, 0.00849984
0.0987939, 0.12518, -0.421873, -0.000336736, 0.00051809, 0.000394663, 0.315137, 0.346687, 0.285013, 0.00157093, 0.00100967, 0.00848603
0.0915079, 0.124789, -0.420274, -0.000338411, 0.000514201, 0.000399668, 0.312529, 0.34632, 0.285061, 0.00156898, 0.000998591, 0.00847168
0.0846322, 0.123681, -0.420174, -0.000338846, 0.000512591, 0.000396302, 0.309726, 0.34583, 0.2857, 0.00156719, 0.000988934, 0.0084575
0.0766979, 0.123269, -0.422932, -0.000338052, 0.000514312, 0.000385916, 0.30708, 0.345272, 0.286794, 0.00156558, 0.000981104, 0.00844401
0.0554728, 0.123902, -0.413001, -0.000347208, 0.000497796, 0.000428797, 0.304928, 0.344549, 0.28821, 0.00156406, 0.000975242, 0.0084303
0.0800233, 0.120814, -0.457403, -0.000320915, 0.000546862, 0.000282734, 0.30354, 0.343729, 0.289821, 0.00156268, 0.000971287, 0.00841723
0.112854, 0.115081, -0.510489, -0.000294609, 0.000590404, 0.000139778, 0.303052, 0.342939, 0.291465, 0.00156154, 0.000968955, 0.00840606
0.134356, 0.111104, -0.551523, -0.000280442, 0.00061078, 6.6341e-05, 0.303391, 0.342344, 0.292909, 0.0015608, 0.000967778, 0.00839834
0.14468, 0.108706, -0.575405, -0.000275798, 0.000615381, 4.46794e-05, 0.304339, 0.342029, 0.293903, 0.00156043, 0.000967225, 0.00839402
0.147506, 0.108097, -0.582696, -0.000275605, 0.000614631, 4.54242e-05, 0.30562, 0.34195, 0.294257, 0.00156027, 0.000966789, 0.00839162
0.147734, 0.107604, -0.580949, -0.000275797, 0.000614801, 4.56938e-05, 0.307003, 0.341992, 0.293907, 0.00156014, 0.000966096, 0.0083896
0.14578, 0.107288, -0.564325, -0.000273894, 0.000621546, 2.88671e-05, 0.308348, 0.342129, 0.292914, 0.00156, 0.000964939, 0.00838723
0.14584, 0.107034, -0.543358, -0.000270183, 0.000631958, -7.08752e-07, 0.309576, 0.342409, 0.291422, 0.00155984, 0.000963293, 0.00838444
0.147266, 0.107004, -0.532266, -0.000267606, 0.00063799, -2.0512e-05, 0.310678, 0.342906, 0.289627, 0.00155965, 0.000961243, 0.00838146
0.151139, 0.108365, -0.522781, -0.00026518, 0.000642689, -3.75362e-05, 0.311694, 0.343696, 0.287725, 0.00155941, 0.000958918, 0.00837889
0.156766, 0.111292, -0.507187, -0.000260584, 0.0006512, -6.6411e-05, 0.312633, 0.344712, 0.285876, 0.00155905, 0.00095648, 0.00837657
0.160598, 0.113721, -0.505004, -0.000259088, 0.000651473, -7.33043e-05, 0.313486, 0.34578, 0.284196, 0.00155863, 0.000954103, 0.0083743
0.162532, 0.115648, -0.51914, -0.000262413, 0.000641516, -5.01539e-05, 0.314241, 0.346831, 0.282748, 0.00155816, 0.000951925, 0.00837205
0.165394, 0.117524, -0.529653, -0.000265159, 0.000634106, -3.25981e-05, 0.314898, 0.347855, 0.281565, 0.0015576, 0.000950042, 0.00836966
0.168165, 0.118765, -0.541685, -0.000268959, 0.000626649, -1.17725e-05, 0.315453, 0.3488, 0.280647, 0.00155698, 0.000948507, 0.00836711
0.16819, 0.119429, -0.557432, -0.000274656, 0.000618602, 1.58407e-05, 0.315888, 0.349628, 0.27997, 0.0015563, 0.000947326, 0.00836426
0.165903, 0.120209, -0.569914, -0.000279297, 0.000613546, 3.58406e-05, 0.316179, 0.350174, 0.279495, 0.00155569, 0.000946483, 0.00836161
0.160726, 0.120579, -0.57265, -0.000279699, 0.000612996, 3.46017e-05, 0.316307, 0.350272, 0.279178, 0.00155524, 0.000945941, 0.00835956
0.154461, 0.120119, -0.573699, -0.000278931, 0.000612995, 2.65296e-05, 0.316273, 0.349777, 0.278979, 0.00155486, 0.000945652, 0.0083579
0.149217, 0.119115, -0.576143, -0.000277859, 0.00061289, 1.50509e-05, 0.31614, 0.34876, 0.278868, 0.00155429, 0.000945528, 0.00835505
0.148159, 0.115979, -0.584327, -0.000277667, 0.000612303, 7.98735e-06, 0.315999, 0.347547, 0.278807, 0.00155354, 0.000945475, 0.00835009
0.14753, 0.114346, -0.587307, -0.000277362, 0.000612243, 4.32793e-06, 0.315912, 0.346409, 0.278782, 0.00155274, 0.000945435, 0.00834351
0.146066, 0.114818, -0.582462, -0.000276308, 0.000612388, -7.51196e-07, 0.315936, 0.34547, 0.278785, 0.00155191, 0.000945377, 0.00833543
0.144504, 0.116155, -0.579513, -0.000275459, 0.000612555, -6.54175e-06, 0.316125, 0.344772, 0.278801, 0.00155101, 0.000945288, 0.00832585
0.142901, 0.114549, -0.583595, -0.000274222, 0.000612971, -1.61652e-05, 0.316472, 0.344276, 0.278823, 0.00155012, 0.000945181, 0.00831646
0.143106, 0.115934, -0.574658, -0.000274459, 0.000612471, -1.08295e-05, 0.316916, 0.344067, 0.278842, 0.00154946, 0.000945069, 0.00830954
0.141752, 0.118192, -0.558383, -0.000274224, 0.000611379, -6.62568e-06, 0.317394, 0.344181, 0.278869, 0.00154903, 0.000944966, 0.00830554
0.139842, 0.119355, -0.547594, -0.000273674, 0.000610838, -7.09064e-06, 0.317857, 0.344487, 0.278895, 0.0015488, 0.000944876, 0.00830379
0.138158, 0.120115, -0.529466, -0.00027335, 0.000609835, -5.54747e-06, 0.318256, 0.344957, 0.278916, 0.0015487, 0.000944798, 0.0083033
0.136502, 0.11991, -0.515004, -0.00027324, 0.000608991, -4.88819e-06, 0.318597, 0.345529, 0.278943, 0.00154864, 0.00094471, 0.00830275
0.134964, 0.118578, -0.503249, -0.000273087, 0.000608511, -7.24272e-06, 0.318949, 0.346188, 0.278976, 0.00154858, 0.000944581, 0.00830112
0.134129, 0.117452, -0.493828, -0.000273158, 0.000608154, -9.25891e-06, 0.319374, 0.347019, 0.279014, 0.0015485, 0.000944405, 0.00829861
0.134239, 0.116413, -0.480975, -0.000273587, 0.000607156, -1.15711e-05, 0.319907, 0.348087, 0.279067, 0.00154836, 0.000944189, 0.0082957
0.13536, 0.115819, -0.458119, -0.000274539, 0.000604928, -1.52004e-05, 0.320536, 0.349367, 0.279126, 0.00154818, 0.000943942, 0.00829249
0.136309, 0.116532, -0.434123, -0.000275473, 0.000602218, -1.72193e-05, 0.321215, 0.350788, 0.279193, 0.00154791, 0.000943672, 0.00828828
0.137012, 0.119474, -0.424842, -0.000275657, 0.00060048, -1.23188e-05, 0.321957, 0.352304, 0.279266, 0.00154758, 0.000943366, 0.0082826
0.138851, 0.122627, -0.417141, -0.000275075, 0.000598553, -1.1822e-05, 0.322797, 0.35388, 0.279343, 0.00154722, 0.000943009, 0.00827547
0.142493, 0.126138, -0.424501, -0.000273045, 0.000597728, -1.38358e-05, 0.323746, 0.355528, 0.279413, 0.00154686, 0.000942618, 0.00826785
0.146956, 0.128288, -0.436029, -0.00027068, 0.000597171, -2.04374e-05, 0.324791, 0.35728, 0.279477, 0.0015465, 0.00094225, 0.00826136
0.152684, 0.130466, -0.455134, -0.000267311, 0.000596681, -3.03138e-05, 0.325872, 0.359029, 0.279528, 0.00154617, 0.000941928, 0.0082562
0.158723, 0.132938, -0.472188, -0.000264128, 0.000595643, -3.94273e-05, 0.326937, 0.360704, 0.279557, 0.00154588, 0.000941668, 0.00825289
0.166462, 0.135838, -0.505102, -0.000259206, 0.000594192, -5.27591e-05, 0.327951, 0.362249, 0.279564, 0.00154563, 0.000941464, 0.00825157
0.170823, 0.137373, -0.531102, -0.000256849, 0.00059255, -5.71594e-05, 0.328852, 0.363639, 0.279548, 0.00154532, 0.000941311, 0.00825106
0.172698, 0.13827, -0.54717, -0.000256008, 0.000591405, -5.78665e-05, 0.329573, 0.364778, 0.279512, 0.00154496, 0.000941191, 0.00825021
0.174195, 0.138994, -0.567428, -0.000255516, 0.000589909, -5.84648e-05, 0.330064, 0.36557, 0.279461, 0.0015447, 0.000941102, 0.00824917
0.175574, 0.139991, -0.581384, -0.000256082, 0.00058858, -5.47864e-05, 0.330309, 0.366016, 0.279398, 0.0015445, 0.000941029, 0.00824798
0.176972, 0.138739, -0.594751, -0.000256958, 0.000587278, -5.04473e-05, 0.330304, 0.366113, 0.279327, 0.00154435, 0.000940953, 0.00824656
0.178072, 0.138236, -0.608783, -0.000257513, 0.00058614, -4.86249e-05, 0.330076, 0.365928, 0.279254, 0.00154419, 0.000940835, 0.00824392
0.175107, 0.13789, -0.614293, -0.000256759, 0.000585711, -5.59515e-05, 0.329675, 0.365531, 0.279187, 0.0015439, 0.000940638, 0.00823822
0.170553, 0.135983, -0.618369, -0.0002556, 0.000584902, -6.42964e-05, 0.329152, 0.365008, 0.279122, 0.00154329, 0.000940326, 0.00822652
0.164318, 0.133869, -0.620717, -0.000253602, 0.000584025, -7.86054e-05, 0.328562, 0.364338, 0.279068, 0.00154245, 0.000939948, 0.0082104
0.158915, 0.132041, -0.618864, -0.000251813, 0.000583389, -9.16096e-05, 0.327989, 0.363405, 0.279031, 0.0015416, 0.000939619, 0.0081946
0.152062, 0.129623, -0.613266, -0.000248633, 0.000582942, -0.000114522, 0.327529, 0.362126, 0.279014, 0.0015407, 0.000939408, 0.00818096
0.146882, 0.128421, -0.61118, -0.00024551, 0.000582949, -0.000137667, 0.327243, 0.36061, 0.279007, 0.00153962, 0.000939296, 0.00816873
0.145524, 0.127546, -0.604918, -0.000245522, 0.000582879, -0.000138553, 0.327206, 0.359107, 0.279007, 0.00153837, 0.000939234, 0.00815659
0.1452, 0.126229, -0.597878, -0.000246131, 0.000582887, -0.000134985, 0.327438, 0.35789, 0.279018, 0.00153716, 0.000939178, 0.00814514
0.145035, 0.123912, -0.57437, -0.000248329, 0.000583202, -0.000125307, 0.32782, 0.357086, 0.279027, 0.00153636, 0.000939123, 0.00813741
0.145815, 0.119103, -0.554468, -0.000249486, 0.00058364, -0.000120737, 0.328233, 0.35672, 0.279025, 0.00153601, 0.000939071, 0.00813387
0.144851, 0.115039, -0.549464, -0.000249484, 0.00058402, -0.000122285, 0.328635, 0.356826, 0.279011, 0.00153592, 0.000939019, 0.00813301
0.145075, 0.11243, -0.543649, -0.000249702, 0.000584481, -0.000123565, 0.328979, 0.357425, 0.27898, 0.00153582, 0.000938963, 0.00813255
0.14739, 0.110057, -0.527639, -0.000248402, 0.000585132, -0.000134758, 0.329218, 0.358452, 0.278932, 0.00153538, 0.000938912, 0.0081298
0.149121, 0.110372, -0.505738, -0.000245093, 0.000585975, -0.000152273, 0.32944, 0.35974, 0.278886, 0.00153459, 0.000938858, 0.00812397
0.149559, 0.111759, -0.492977, -0.000242808, 0.000586123, -0.000160822, 0.329792, 0.361181, 0.278859, 0.00153371, 0.000938775, 0.00811667
0.150139, 0.112806, -0.478311, -0.000239974, 0.000585954, -0.000172415, 0.330327, 0.362734, 0.278848, 0.00153287, 0.000938638, 0.00810878
0.150445, 0.114986, -0.467687, -0.0002377, 0.000585323, -0.000177748, 0.331054, 0.364407, 0.278849, 0.00153212, 0.000938435, 0.00810073
0.152221, 0.117683, -0.453032, -0.000234207, 0.000583825, -0.000188593, 0.331991, 0.36622, 0.278864, 0.00153146, 0.000938157, 0.0080931
0.153593, 0.121587, -0.422334, -0.00022915, 0.000580576, -0.000199582, 0.333162, 0.368191, 0.278892, 0.00153095, 0.00093779, 0.00808687
0.154213, 0.126578, -0.411522, -0.000227069, 0.000578286, -0.000192464, 0.334601, 0.370269, 0.278932, 0.00153065, 0.000937275, 0.00808204
0.1566, 0.131405, -0.397441, -0.000225182, 0.00057505, -0.000184936, 0.336281, 0.372417, 0.278972, 0.00153052, 0.000936596, 0.00807782
0.157724, 0.137011, -0.38929, -0.000224495, 0.000572339, -0.000166785, 0.338093, 0.374567, 0.279005, 0.00153044, 0.000935829, 0.00807341
0.165111, 0.139917, -0.436395, -0.000225702, 0.000570842, -0.000157611, 0.339952, 0.376639, 0.279033, 0.0015304, 0.000935051, 0.0080688
0.173034, 0.14209, -0.495201, -0.000227325, 0.000566861, -0.000146648, 0.341815, 0.378826, 0.279047, 0.00153018, 0.000934382, 0.00806737
0.178983, 0.142682, -0.546818, -0.000229647, 0.000561044, -0.000132885, 0.343581, 0.381151, 0.279033, 0.00152933, 0.000933819, 0.00806629
0.183677, 0.142977, -0.574411, -0.000231757, 0.000556162, -0.000119126, 0.345104, 0.383474, 0.278985, 0.00152759, 0.000933318, 0.00806069
0.187341, 0.142014, -0.592436, -0.000234443, 0.000552627, -0.000103888, 0.346266, 0.385561, 0.278931, 0.00152562, 0.000932908, 0.00805172
0.187994, 0.140358, -0.609721, -0.000237002, 0.000550288, -9.11802e-05, 0.346967, 0.387225, 0.278885, 0.00152401, 0.000932631, 0.00804285
0.188868, 0.140264, -0.618375, -0.000237674, 0.000549558, -8.81306e-05, 0.347255, 0.388473, 0.278862, 0.00152266, 0.00093241, 0.00803364
0.188189, 0.139336, -0.618763, -0.000238555, 0.000549132, -8.28488e-05, 0.347238, 0.389353, 0.278877, 0.00152149, 0.00093217, 0.00802341
0.187601, 0.138937, -0.618596, -0.000239123, 0.000548883, -7.94457e-05, 0.346937, 0.389646, 0.278937, 0.00152083, 0.000931921, 0.00801503
0.184042, 0.137541, -0.62208, -0.000238501, 0.000548718, -8.41116e-05, 0.346332, 0.389087, 0.279039, 0.00152062, 0.000931662, 0.00800942
0.177041, 0.134151, -0.625458, -0.000235388, 0.000548049, -0.000102911, 0.345376, 0.387451, 0.279161, 0.00152032, 0.000931363, 0.00800542
0.169537, 0.131674, -0.627312, -0.00023146, 0.000547139, -0.000128882, 0.344121, 0.384782, 0.279299, 0.00151929, 0.00093098, 0.00800031
0.162463, 0.130174, -0.6281, -0.000228279, 0.000545947, -0.000152227, 0.342683, 0.381382, 0.279458, 0.00151727, 0.0009305, 0.00799224
0.15712, 0.128746, -0.623583, -0.000227156, 0.000543471, -0.000161589, 0.341218, 0.377582, 0.279638, 0.00151437, 0.000929962, 0.00798055
0.153783, 0.127391, -0.620627, -0.000225676, 0.000542086, -0.000171575, 0.339913, 0.373693, 0.279837, 0.00151077, 0.000929436, 0.00796469
0.149549, 0.126342, -0.609238, -0.000226509, 0.000538557, -0.000170684, 0.338925, 0.370215, 0.280049, 0.00150745, 0.000929001, 0.00794849
0.148303, 0.124067, -0.594192, -0.000228805, 0.000534842, -0.000156926, 0.338258, 0.367632, 0.280254, 0.00150552, 0.000928696, 0.00793819
0.14451, 0.121862, -0.571196, -0.000233065, 0.000529791, -0.00013551, 0.337845, 0.366094, 0.280432, 0.00150484, 0.000928486, 0.00793363
0.143589, 0.117975, -0.548236, -0.00023738, 0.000525699, -0.00011111, 0.33767, 0.365507, 0.280585, 0.00150467, 0.000928335, 0.0079315
0.141385, 0.114069, -0.521292, -0.000241525, 0.000522171, -9.18532e-05, 0.337677, 0.365752, 0.280697, 0.00150449, 0.000928223, 0.00793005
0.141128, 0.110993, -0.48666, -0.000244499, 0.000519226, -8.24098e-05, 0.33783, 0.366725, 0.280763, 0.00150394, 0.000928141, 0.00792765
0.139778, 0.110578, -0.463006, -0.000245255, 0.000518308, -8.31985e-05, 0.338214, 0.368367, 0.280796, 0.00150282, 0.000928059, 0.00792319
0.139299, 0.111615, -0.445594, -0.000244188, 0.000518342, -9.12577e-05, 0.338951, 0.370503, 0.280803, 0.00150141, 0.00092793, 0.00791796
0.140622, 0.113373, -0.430236, -0.000241414, 0.000518333, -0.00010677, 0.340037, 0.372929, 0.280779, 0.00150003, 0.000927694, 0.00791267
0.141522, 0.115868, -0.430674, -0.000239361, 0.000517786, -0.000109951, 0.341405, 0.375537, 0.280724, 0.00149878, 0.000927325, 0.00790724
0.144747, 0.116949, -0.426257, -0.000236857, 0.000516911, -0.000123651, 0.343008, 0.378315, 0.280631, 0.0014976, 0.000926815, 0.0079016
0.146414, 0.120312, -0.403558, -0.000232595, 0.000518193, -0.000141588, 0.34477, 0.381097, 0.280508, 0.00149664, 0.000926155, 0.00789427
0.149812, 0.122497, -0.403197, -0.000230401, 0.000516316, -0.000148812, 0.346597, 0.383718, 0.280359, 0.0014959, 0.000925348, 0.0078831
0.155118, 0.125382, -0.439944, -0.000231712, 0.000506726, -0.000127978, 0.348399, 0.386218, 0.280182, 0.00149518, 0.000924498, 0.00786998
0.161413, 0.129333, -0.475868, -0.000232187, 0.000495366, -0.000112966, 0.350115, 0.388655, 0.279984, 0.00149456, 0.000923717, 0.00786042
0.165632, 0.134327, -0.519103, -0.000234712, 0.0004813, -8.692e-05, 0.351617, 0.39094, 0.279755, 0.00149397, 0.000923052, 0.00785557
0.167826, 0.139411, -0.55138, -0.000237424, 0.000470146, -6.45308e-05, 0.352814, 0.392923, 0.279513, 0.00149335, 0.000922475, 0.00785311
0.169254, 0.142729, -0.572365, -0.000240202, 0.000462892, -4.78928e-05, 0.353689, 0.394334, 0.27929, 0.00149291, 0.000921955, 0.00785185
0.171707, 0.146427, -0.585693, -0.000243106, 0.000458146, -3.24091e-05, 0.354258, 0.394979, 0.2791, 0.00149261, 0.000921509, 0.00785094
0.176411, 0.147552, -0.592213, -0.000247192, 0.000455567, -1.07011e-05, 0.354709, 0.394754, 0.278955, 0.00149178, 0.000921091, 0.0078465
0.172077, 0.154594, -0.594333, -0.00024632, 0.000454858, -1.5909e-05, 0.355455, 0.393699, 0.278848, 0.00148829, 0.000920526, 0.00782297
0.165645, 0.163332, -0.601386, -0.000240317, 0.000454875, -5.532e-05, 0.356905, 0.392229, 0.278763, 0.00148003, 0.000919586, 0.00776167
0.159794, 0.172365, -0.602171, -0.000228431, 0.000457876, -0.000136865, 0.359435, 0.390972, 0.278698, 0.00146617, 0.000918078, 0.00765174
0.157559, 0.178116, -0.5922, -0.000221302, 0.000461736, -0.000193558, 0.36318, 0.390204, 0.278663, 0.00144714, 0.000915897, 0.00749286
0.157114, 0.179508, -0.585492, -0.000220217, 0.000463294, -0.000206549, 0.367785, 0.389834, 0.27866, 0.00142681, 0.000913441, 0.00731655
0.157455, 0.174533, -0.5788, -0.000226052, 0.000462207, -0.000170492, 0.372707, 0.389667, 0.278687, 0.00140952, 0.000911272, 0.00716119
0.158868, 0.165644, -0.577913, -0.00023402, 0.000459159, -0.000113642, 0.377562, 0.38942, 0.278741, 0.00139678, 0.000909636, 0.00704277
0.160867, 0.154684, -0.580158, -0.000239571, 0.00045637, -6.99676e-05, 0.381961, 0.389093, 0.27881, 0.00138856, 0.000908529, 0.00696305
0.160685, 0.142252, -0.572125, -0.00024323, 0.000453767, -4.37966e-05, 0.385224, 0.388881, 0.278879, 0.00138489, 0.000907929, 0.0069242
0.156787, 0.124921, -0.57938, -0.000244576, 0.00045184, -3.14759e-05, 0.386542, 0.388922, 0.278946, 0.00138424, 0.000907632, 0.00691494
0.152658, 0.106799, -0.574649, -0.000252239, 0.000446766, 2.43333e-05, 0.385146, 0.389186, 0.279002, 0.00138315, 0.000907263, 0.00690749
0.146869, 0.094456, -0.572021, -0.000263614, 0.000441618, 9.99879e-05, 0.380565, 0.389554, 0.279043, 0.00137667, 0.000906349, 0.00686068
0.143192, 0.0821318, -0.576069, -0.000275586, 0.000438285, 0.000170818, 0.373364, 0.389692, 0.279062, 0.00136093, 0.000904583, 0.0067397
0.144931, 0.070314, -0.568119, -0.00026912, 0.000436356, 0.000138826, 0.365034, 0.389456, 0.279075, 0.00133497, 0.000901898, 0.0065304
0.148546, 0.0600823, -0.556928, -0.000252504, 0.000435959, 4.77301e-05, 0.357479, 0.388975, 0.279128, 0.00130135, 0.000898532, 0.00624767
0.15513, 0.0495456, -0.539692, -0.000219341, 0.000437439, -0.00013794, 0.352166, 0.388496, 0.279265, 0.00126464, 0.000894911, 0.00592607
0.158387, 0.0456698, -0.524293, -0.000194462, 0.000437599, -0.00026915, 0.349688, 0.388155, 0.279518, 0.00123047, 0.000891558, 0.00561481
0.153932, 0.0506708, -0.513821, -0.000196089, 0.000432833, -0.00023079, 0.349702, 0.38805, 0.279872, 0.00120219, 0.000888818, 0.00534833
0.147389, 0.0602158, -0.50398, -0.000202835, 0.000427111, -0.000157117, 0.351462, 0.388268, 0.280299, 0.0011808, 0.00088681, 0.00514192
0.140313, 0.074183, -0.492648, -0.00020777, 0.00042175, -9.10671e-05, 0.354152, 0.388763, 0.280755, 0.00116627, 0.000885518, 0.00500053
0.136825, 0.0909815, -0.492074, -0.000211078, 0.000420507, -5.01367e-05, 0.357057, 0.389428, 0.28119, 0.00115758, 0.000884803, 0.00491698
0.133019, 0.107109, -0.482031, -0.000210266, 0.000418296, -3.10098e-05, 0.359597, 0.390142, 0.281566, 0.00115335, 0.000884475, 0.00487798
0.132433, 0.120098, -0.49264, -0.000211367, 0.000420287, -1.54316e-05, 0.361341, 0.390765, 0.281842, 0.00115193, 0.000884338, 0.00486639
0.13317, 0.129156, -0.495799, -0.000210559, 0.000421128, -1.19725e-05, 0.362075, 0.391288, 0.281993, 0.00115178, 0.000884224, 0.00486556
0.134952, 0.141745, -0.499278, -0.000209918, 0.000421779, -3.77558e-06, 0.361805, 0.391787, 0.282015, 0.00115156, 0.000883968, 0.00486119
0.139329, 0.158199, -0.504033, -0.000210092, 0.000421965, 1.70562e-05, 0.360649, 0.392328, 0.281923, 0.00115005, 0.000883387, 0.00483996
0.143849, 0.171126, -0.520453, -0.000206923, 0.000421924, 2.6431e-05, 0.358906, 0.392885, 0.281741, 0.00114601, 0.000882318, 0.00478871
0.146497, 0.182125, -0.532665, -0.000203401, 0.000421653, 3.03735e-05, 0.35714, 0.393394, 0.281492, 0.00113874, 0.000880723, 0.00470042
0.147925, 0.186806, -0.552608, -0.000195415, 0.000420599, 1.40346e-05, 0.356043, 0.393818, 0.28122, 0.00112819, 0.000878641, 0.00457441
0.149313, 0.189311, -0.571772, -0.000188124, 0.000418433, 3.66744e-06, 0.35622, 0.394204, 0.280957, 0.00111531, 0.000876233, 0.00442114
0.151841, 0.194481, -0.57551, -0.000190936, 0.000416269, 3.68399e-05, 0.357923, 0.394636, 0.280723, 0.00110145, 0.000873707, 0.00425589
0.155159, 0.201914, -0.574591, -0.00019813, 0.00041384, 9.29267e-05, 0.361116, 0.395136, 0.280539, 0.00108739, 0.0008712, 0.00408768
0.15887, 0.204765, -0.555647, -0.000217098, 0.000413133, 0.00017747, 0.365594, 0.3957, 0.280425, 0.00107376, 0.000868833, 0.0039245
0.161347, 0.201339, -0.538827, -0.000232985, 0.00041307, 0.00023664, 0.370916, 0.396329, 0.280377, 0.00106177, 0.0008668, 0.00378084
0.164113, 0.19266, -0.534771, -0.000242765, 0.000411075, 0.000281838, 0.376589, 0.396991, 0.280395, 0.0010522, 0.000865206, 0.00366626
0.166834, 0.179362, -0.528291, -0.000253701, 0.000409641, 0.000325801, 0.382152, 0.397672, 0.280454, 0.00104522, 0.000864045, 0.00358348
0.170265, 0.163911, -0.528708, -0.000262083, 0.00040706, 0.00036862, 0.387158, 0.398339, 0.280536, 0.00104072, 0.00086328, 0.00353108
0.173685, 0.14406, -0.538944, -0.000265917, 0.000404111, 0.000397494, 0.391224, 0.398894, 0.28063, 0.00103825, 0.000862846, 0.00350309
0.173039, 0.128148, -0.543412, -0.000266675, 0.000403539, 0.000401999, 0.393977, 0.399263, 0.280695, 0.00103722, 0.000862647, 0.00349221
0.171789, 0.115155, -0.539505, -0.000268083, 0.00040401, 0.000406839, 0.395167, 0.399489, 0.280699, 0.00103702, 0.000862576, 0.00349047
0.172041, 0.101783, -0.529664, -0.000269347, 0.00040481, 0.000411406, 0.394664, 0.399705, 0.280643, 0.00103695, 0.00086255, 0.00348965
0.173213, 0.0864439, -0.52788, -0.00026987, 0.000405153, 0.000410961, 0.392598, 0.399937, 0.280541, 0.00103644, 0.000862526, 0.00348243
0.171858, 0.0715851, -0.526581, -0.000271121, 0.000405582, 0.0004155, 0.389144, 0.400149, 0.280397, 0.00103502, 0.000862466, 0.00346309
0.167507, 0.0588624, -0.523302, -0.000273555, 0.000405581, 0.000433222, 0.384586, 0.400298, 0.280217, 0.00103236, 0.000862325, 0.00342714
