0.00338254, -0.000938102, -0.565214, 9.64439e-05, 0.00021917, 0.000412132, 0.0316228, 0.0316228, 0.0316228, 0.0316228, 0.0316228, 0.0316228
0.00338254, -0.000938102, -0.565214, 9.64439e-05, 0.00021917, 0.000412132, 0.170851, 0.170851, 0.170851, 0.0316228, 0.0316228, 0.0316228
9.5076e-05, -0.00152575, -0.565815, -2.49166e-05, 0.000861068, 0.000414059, 0.191855, 0.191841, 0.19182, 0.0315746, 0.0315757, 0.031607
0.00173942, -0.0017221, -0.566726, -4.31131e-05, 0.000434889, 0.000415387, 0.210403, 0.210389, 0.210116, 0.0314769, 0.0314781, 0.0315912
0.00123993, -0.00395396, -0.57149, -0.000459863, 0.000497502, 0.000422237, 0.227014, 0.227005, 0.225849, 0.0313215, 0.031323, 0.0315755
-0.000390714, -0.00492888, -0.580801, -0.0005906, 0.00078649, 0.00042434, 0.24225, 0.242096, 0.239322, 0.0311065, 0.0311294, 0.0315596
0.00162775, -0.00517694, -0.592941, -0.000595244, 0.000167547, 0.000431199, 0.256446, 0.255972, 0.251096, 0.0308452, 0.0309162, 0.0315426
0.00265387, -0.00438493, -0.606094, -0.000406701, -8.84078e-05, 0.000407481, 0.269578, 0.268873, 0.261113, 0.0305329, 0.0306392, 0.0315229
0.00291133, -0.00249148, -0.61062, -0.000121428, 3.3293e-06, 0.00036771, 0.281473, 0.280862, 0.268495, 0.0301697, 0.0302583, 0.0315024
0.00424301, -0.000988264, -0.606051, -9.02305e-07, -0.000277748, 0.000363692, 0.292389, 0.291852, 0.274261, 0.0297449, 0.0298239, 0.0314848
0.00530815, 0.000395994, -0.61115, 0.000151414, -0.000372464, 0.000364679, 0.302144, 0.3018, 0.277347, 0.0292575, 0.0293119, 0.0314687
0.0043703, 0.00147306, -0.602274, 0.000187916, -0.000325825, 0.000372736, 0.310826, 0.310778, 0.277509, 0.0287267, 0.0287375, 0.0314525
0.00412959, 0.00145228, -0.596543, 0.000159985, -0.000373749, 0.000362411, 0.318844, 0.318917, 0.277684, 0.028166, 0.0281572, 0.0314349
0.00327415, 0.00198685, -0.591813, 0.000199448, -0.000287499, 0.000355785, 0.326352, 0.326336, 0.277662, 0.0275683, 0.0275648, 0.0314148
0.00182326, 0.00356031, -0.584462, 0.000393014, -0.000185278, 0.000373625, 0.333656, 0.333181, 0.277676, 0.026923, 0.0269752, 0.031392
0.00076096, 0.00571614, -0.577464, 0.000620042, -0.000229197, 0.000412391, 0.340756, 0.339723, 0.277706, 0.0262221, 0.0263593, 0.0313671
-0.000327538, 0.00787777, -0.55979, 0.000844242, -0.000426046, 0.000434907, 0.34752, 0.346487, 0.277872, 0.0255023, 0.0256555, 0.0313402
0.00141308, 0.0104802, -0.547504, 0.00125754, -0.000864752, 0.000491097, 0.354215, 0.354209, 0.28059, 0.0248819, 0.0248544, 0.0313126
0.00229567, 0.0098983, -0.550556, 0.00118486, -0.000914993, 0.000474805, 0.361404, 0.363173, 0.288041, 0.0244339, 0.0240169, 0.0312819
0.00174848, 0.00775188, -0.556462, 0.000855636, -0.000776584, 0.000417351, 0.36888, 0.372756, 0.298788, 0.0241502, 0.0232243, 0.0312585
-0.000171582, 0.00467856, -0.559225, 0.000413299, -0.000469538, 0.00032111, 0.376529, 0.382316, 0.31056, 0.0239362, 0.0225492, 0.0312301
-0.00203121, 0.00120728, -0.560956, -0.000144538, -0.000236119, 0.000146758, 0.384187, 0.391654, 0.322035, 0.0237213, 0.021976, 0.0311961
-0.00316648, -0.00172323, -0.562712, -0.000680096, -0.000108889, -1.44111e-05, 0.391837, 0.400544, 0.332437, 0.0234263, 0.0214782, 0.03116
-0.0023663, -0.00456697, -0.565793, -0.00147455, -0.0001945, -0.000230896, 0.399513, 0.408554, 0.340711, 0.0229275, 0.0210106, 0.0311222
0.000138082, -0.00658492, -0.571296, -0.00242214, -0.000506731, -0.000477375, 0.407111, 0.41502, 0.345398, 0.0221265, 0.0205084, 0.031076
0.00306611, -0.00668051, -0.575063, -0.00292867, -0.00082574, -0.000642293, 0.414776, 0.419468, 0.346571, 0.0210237, 0.019971, 0.0310212
0.0042695, -0.00965809, -0.574801, -0.00329566, -0.00103745, -0.00075633, 0.422476, 0.421534, 0.345151, 0.0197701, 0.0193882, 0.0309527
0.00225525, -0.0130082, -0.56963, -0.00298674, -0.000822549, -0.000631522, 0.430154, 0.42029, 0.340806, 0.0185336, 0.0187953, 0.0308596
-0.00222106, -0.0137441, -0.563349, -0.00231167, -0.000337512, -0.000320129, 0.437777, 0.415982, 0.335675, 0.0175124, 0.0182918, 0.0307242
-0.00409685, -0.0136882, -0.558384, -0.0018592, -0.000119522, -0.000180586, 0.445292, 0.410894, 0.333567, 0.0167384, 0.0179114, 0.0305284
-0.00371502, -0.0109434, -0.555786, -0.0015172, -9.69388e-05, -0.000279584, 0.45269, 0.407022, 0.335938, 0.0161458, 0.0176236, 0.0302642
-0.00274363, -0.0101295, -0.55211, -0.0011278, -0.000143418, -0.00049364, 0.459935, 0.404533, 0.34165, 0.0156747, 0.0174028, 0.029925
-0.00423585, -0.00861376, -0.547543, -0.000703175, -6.82479e-05, -0.000474647, 0.467014, 0.403216, 0.349014, 0.0153243, 0.0172313, 0.0295269
-0.00578196, -0.00583744, -0.540392, -0.000108061, 2.49761e-06, -0.000582846, 0.473946, 0.402995, 0.357088, 0.0150624, 0.0170984, 0.0290867
-0.00697972, -0.00501215, -0.536512, 0.000136724, 6.26584e-05, -0.000557385, 0.480761, 0.404373, 0.365275, 0.014873, 0.016995, 0.0286324
-0.00770873, -0.00670736, -0.532084, 0.000343748, 8.18364e-05, -0.000565299, 0.487577, 0.407642, 0.373407, 0.0147317, 0.0169117, 0.0281658
-0.00854498, -0.00958781, -0.529659, 0.000378967, 0.00011643, -0.000427994, 0.49439, 0.41232, 0.381403, 0.0146113, 0.0168449, 0.027689
-0.00770355, -0.01274, -0.529659, 0.000284785, 0.000104841, -0.000484926, 0.501214, 0.41812, 0.389133, 0.0144925, 0.0167915, 0.0271935
-0.00837453, -0.0150677, -0.527978, 0.00022439, 0.000103816, -0.000380958, 0.508045, 0.424752, 0.396445, 0.0143562, 0.0167501, 0.0266608
-0.00869981, -0.0177808, -0.526462, 1.57863e-05, 0.000106784, -0.000291328, 0.514852, 0.431789, 0.402918, 0.0141829, 0.0167189, 0.026099
-0.00921009, -0.0186805, -0.5263, -0.000158577, 9.31588e-05, -0.000256935, 0.521634, 0.439014, 0.408156, 0.0139425, 0.0166942, 0.0255249
-0.00956648, -0.0190942, -0.525235, -0.000397767, 7.46453e-05, -0.000253866, 0.528384, 0.446384, 0.411569, 0.0136154, 0.0166722, 0.0249633
-0.0094326, -0.0159946, -0.533028, -0.000427052, 6.52961e-05, -0.000222305, 0.535096, 0.453974, 0.412434, 0.0131952, 0.0166499, 0.024442
-0.00882543, -0.011581, -0.547182, -0.000487956, 5.37615e-05, -0.000174009, 0.541728, 0.461763, 0.41034, 0.012704, 0.0166275, 0.0239739
-0.00832664, -0.00884617, -0.562582, -0.000470314, 4.01485e-05, -0.000132331, 0.548247, 0.469746, 0.404811, 0.0121905, 0.0166048, 0.0235832
-0.00738562, -0.00874064, -0.57568, -0.000273528, 5.71698e-05, -7.70394e-05, 0.554656, 0.477858, 0.395815, 0.0116993, 0.0165807, 0.0232784
-0.00724688, -0.00871754, -0.576603, -0.000256142, 4.43645e-05, -9.13209e-05, 0.560963, 0.485665, 0.382953, 0.0112061, 0.0165505, 0.0230577
-0.00693332, -0.00725912, -0.571621, -0.000302287, 1.00181e-05, -0.000163448, 0.567162, 0.492498, 0.36844, 0.0107101, 0.0165108, 0.0229142
-0.00655513, -0.00516208, -0.567581, -0.000306707, -3.58585e-05, -0.000208856, 0.573207, 0.497857, 0.354713, 0.0102411, 0.0164604, 0.0228303
-0.00599154, -0.00354264, -0.566257, -0.000264575, -7.37946e-05, -0.000220793, 0.579045, 0.500994, 0.342113, 0.00982994, 0.0163959, 0.0227886
-0.00538968, -0.00437492, -0.569488, -0.000160971, -7.06852e-05, -0.000201487, 0.584645, 0.500702, 0.330353, 0.00946489, 0.0163108, 0.0227695
-0.00536599, -0.00362329, -0.570084, -0.000121399, -7.04828e-05, -0.000191614, 0.590069, 0.496726, 0.320528, 0.00912308, 0.0162004, 0.0227542
-0.00478812, -0.00437877, -0.570847, -0.000103665, -9.78905e-05, -0.000187862, 0.595405, 0.489449, 0.313541, 0.00879307, 0.0160612, 0.0227265
-0.00426707, -0.00428751, -0.567866, -0.000188389, -0.000173997, -0.000156729, 0.600674, 0.479331, 0.309578, 0.00848024, 0.0158927, 0.0226707
-0.00363351, -0.00247782, -0.566356, -0.000219158, -0.000250301, -9.30274e-05, 0.605836, 0.466899, 0.30838, 0.00819358, 0.0156977, 0.0225713
-0.00303785, 0.000126541, -0.564747, -0.000253675, -0.000343711, -1.36907e-05, 0.610911, 0.452838, 0.309244, 0.00793425, 0.0154791, 0.0224143
-0.0026414, 0.00270514, -0.565254, -0.000248601, -0.000393638, 4.21091e-05, 0.615885, 0.438081, 0.31148, 0.00770283, 0.0152433, 0.0221942
-0.00283594, 0.00558333, -0.570615, -0.000160613, -0.00032337, -1.91848e-05, 0.620772, 0.423507, 0.314647, 0.0075012, 0.0149977, 0.0219125
-0.00200402, 0.00643572, -0.575127, -9.10734e-05, -0.000340238, 2.83328e-05, 0.625583, 0.409829, 0.318592, 0.00733178, 0.0147497, 0.0215754
-0.0013126, 0.00811497, -0.579847, -3.25975e-05, -0.000329254, 4.57752e-05, 0.63034, 0.397736, 0.323105, 0.00719632, 0.0145073, 0.0211943
-0.00065026, 0.0134177, -0.585523, 1.06489e-05, -0.000347144, 0.000103811, 0.635112, 0.387895, 0.328013, 0.00709253, 0.0142739, 0.0207816
-0.000492667, 0.01591, -0.588825, 3.55833e-05, -0.000320157, 8.23587e-05, 0.63997, 0.380738, 0.333037, 0.00701813, 0.0140519, 0.0203553
-0.000740248, 0.0197943, -0.59301, 6.161e-05, -0.000271089, 2.2105e-05, 0.644907, 0.376345, 0.33799, 0.00696967, 0.0138474, 0.0199343
-0.00104992, 0.0206018, -0.59524, 7.88086e-05, -0.000240573, -2.42026e-05, 0.649841, 0.374647, 0.342706, 0.00694099, 0.0136649, 0.0195294
-5.85257e-05, 0.0140715, -0.599993, 0.000104258, -0.000198789, -7.10905e-05, 0.654714, 0.375721, 0.346948, 0.00692709, 0.0135088, 0.019152
-0.00018073, 0.0109252, -0.602332, 0.000107642, -0.000159169, -0.000144957, 0.659415, 0.379295, 0.350476, 0.00691546, 0.0133799, 0.0188075
-0.000462276, 0.00982267, -0.599722, 9.37687e-05, -0.000152599, -0.000164638, 0.66399, 0.384584, 0.353025, 0.00689244, 0.0132715, 0.018502
-0.00106844, 0.0121503, -0.589257, 0.000106044, -0.000156383, -0.000138632, 0.668528, 0.390763, 0.35427, 0.00684816, 0.0131767, 0.0182428
-0.00141704, 0.0126888, -0.580694, 0.000109284, -0.000157694, -0.000117661, 0.673068, 0.397422, 0.354038, 0.00677894, 0.0130909, 0.0180323
-0.00197136, 0.0114681, -0.576403, 8.65969e-05, -0.00016345, -0.00011353, 0.677617, 0.404674, 0.352372, 0.00668493, 0.013013, 0.0178654
-0.00355707, 0.00947752, -0.568503, 8.64478e-05, -0.000134447, -0.000145221, 0.682215, 0.412474, 0.348343, 0.00656127, 0.0129409, 0.0177353
-0.00459509, 0.00644025, -0.565259, 2.77765e-05, -0.000105791, -0.000186093, 0.686852, 0.420138, 0.341598, 0.00640797, 0.0128712, 0.0176342
-0.00530164, 0.00402371, -0.565429, -4.8232e-05, -9.02181e-05, -0.000217845, 0.691534, 0.426937, 0.333375, 0.00623735, 0.0128013, 0.0175621
-0.00613407, 0.00193086, -0.567654, -0.000142558, -5.79455e-05, -0.000264792, 0.696269, 0.43227, 0.325104, 0.0060602, 0.0127291, 0.0175165
-0.00605165, 0.000165255, -0.570392, -0.000234803, -4.30846e-05, -0.000287145, 0.701062, 0.435733, 0.318179, 0.00588418, 0.0126534, 0.0174904
-0.00661909, -0.00192416, -0.570619, -0.000268684, -3.79629e-05, -0.000300382, 0.705941, 0.437068, 0.31339, 0.00571677, 0.0125729, 0.0174771
-0.00709159, -0.00432342, -0.570492, -0.000288282, -2.66817e-05, -0.000306787, 0.710947, 0.436059, 0.310621, 0.00555958, 0.0124854, 0.0174714
-0.00755397, -0.00689643, -0.568107, -0.000258861, -2.45238e-05, -0.000305484, 0.71608, 0.432579, 0.309658, 0.00541078, 0.0123914, 0.0174687
-0.00783226, -0.00930132, -0.567771, -0.000262007, 4.05469e-06, -0.000300472, 0.72129, 0.42667, 0.310443, 0.00526871, 0.0122948, 0.0174642
-0.00797761, -0.00959262, -0.568101, -0.00027188, 3.85825e-05, -0.000286095, 0.726527, 0.418579, 0.312762, 0.00513272, 0.0122008, 0.0174535
-0.00863418, -0.00710032, -0.565885, -0.00025613, 9.01377e-05, -0.000262333, 0.731744, 0.408698, 0.316204, 0.00500526, 0.0121112, 0.0174326
-0.00925323, -0.00576042, -0.562819, -0.000230601, 0.000118441, -0.000247291, 0.736898, 0.397517, 0.320228, 0.00488974, 0.012025, 0.0174006
-0.00977575, -0.0047539, -0.560819, -0.000214524, 0.000118833, -0.000244966, 0.741941, 0.385654, 0.324475, 0.00478741, 0.0119439, 0.0173561
-0.0104732, -0.00220489, -0.557746, -0.000192766, 9.23667e-05, -0.000267768, 0.74684, 0.373984, 0.328767, 0.00469814, 0.011871, 0.0172975
-0.0110986, -0.000954558, -0.556249, -0.00018891, 9.40371e-05, -0.000249796, 0.75157, 0.363502, 0.333031, 0.00462461, 0.0118057, 0.0172278
-0.0132934, 0.00155337, -0.550441, -0.000157936, 6.0645e-05, -0.000244774, 0.756163, 0.355098, 0.337338, 0.00456708, 0.0117447, 0.017149
-0.0142599, 0.00152542, -0.547972, -0.000141413, 4.0262e-05, -0.000249457, 0.760668, 0.34961, 0.341757, 0.00452499, 0.0116855, 0.0170613
-0.016249, 0.0018219, -0.542997, -0.000116676, 1.3133e-06, -0.000249715, 0.765162, 0.347179, 0.346341, 0.00449438, 0.0116299, 0.0169578
-0.015902, 0.000407536, -0.543186, -0.000110763, -5.96358e-06, -0.000278218, 0.769688, 0.347157, 0.350964, 0.00447127, 0.0115828, 0.0168326
-0.0152749, -0.00224388, -0.543262, -0.000107384, -6.16459e-06, -0.000301642, 0.774218, 0.348789, 0.355391, 0.00445192, 0.0115458, 0.0166776
-0.0149143, -0.0035519, -0.543754, -0.000108849, -7.6534e-06, -0.000315659, 0.778684, 0.351571, 0.359095, 0.00443292, 0.0115186, 0.0164913
-0.0150647, -0.00330386, -0.544495, -0.000110672, -8.44785e-06, -0.000307105, 0.783006, 0.355186, 0.361575, 0.00440984, 0.0114987, 0.0162792
-0.0165763, 0.000569593, -0.550773, -9.83447e-05, -3.6798e-05, -0.000299432, 0.78709, 0.359525, 0.362544, 0.00437862, 0.0114824, 0.016056
-0.0180445, 0.00381565, -0.553584, -7.80615e-05, -5.06768e-05, -0.000271816, 0.790869, 0.364703, 0.361756, 0.00433698, 0.0114664, 0.0158374
-0.0194258, 0.00586126, -0.555417, -5.75333e-05, -6.54276e-05, -0.000252962, 0.79437, 0.370936, 0.358598, 0.00428158, 0.0114491, 0.0156405
-0.020708, 0.00785819, -0.558375, -2.43208e-05, -9.09102e-05, -0.000263081, 0.797639, 0.378078, 0.3531, 0.00420961, 0.0114293, 0.0154738
-0.0231406, 0.00945229, -0.563902, 2.14078e-05, -0.000130391, -0.000260794, 0.80067, 0.38561, 0.345892, 0.00412346, 0.0114064, 0.0153419
-0.0244145, 0.0102138, -0.567218, 5.28866e-05, -0.000157798, -0.000272177, 0.803454, 0.392952, 0.337869, 0.00403191, 0.0113792, 0.0152472
-0.0236992, 0.0111963, -0.565806, 5.41991e-05, -0.000157039, -0.000288522, 0.806094, 0.399358, 0.329374, 0.00393925, 0.0113479, 0.0151898
-0.0226355, 0.0127386, -0.562464, 3.97308e-05, -0.000146564, -0.00029974, 0.808769, 0.404354, 0.321181, 0.00384341, 0.0113129, 0.0151605
-0.0208444, 0.0133362, -0.560238, 2.43837e-05, -0.000151282, -0.000315744, 0.811464, 0.407523, 0.314007, 0.00374671, 0.0112727, 0.0151482
-0.019987, 0.0144442, -0.558726, 1.54361e-05, -0.00015204, -0.000319656, 0.814072, 0.408376, 0.308215, 0.00365319, 0.0112267, 0.0151441
-0.0183019, 0.0135546, -0.556834, -5.09467e-06, -0.000139529, -0.000312209, 0.816633, 0.406603, 0.304082, 0.00356606, 0.0111742, 0.0151391
-0.0176868, 0.014176, -0.556255, -9.7206e-06, -0.000156661, -0.000300428, 0.819212, 0.402185, 0.301454, 0.00348785, 0.0111105, 0.0151233
-0.0193876, 0.0168772, -0.557684, 2.0875e-06, -0.000192231, -0.00029365, 0.821731, 0.395576, 0.299952, 0.00341946, 0.0110347, 0.0150883
-0.0222148, 0.0162373, -0.562765, 3.66085e-05, -0.000219607, -0.000305142, 0.824281, 0.387759, 0.299539, 0.00336299, 0.0109507, 0.015023
-0.0229812, 0.0137627, -0.56673, 5.91245e-05, -0.000254502, -0.000279336, 0.826902, 0.380482, 0.300077, 0.00331917, 0.0108598, 0.0149223
-0.0229949, 0.0113717, -0.568951, 7.22818e-05, -0.000259044, -0.00027552, 0.829775, 0.375008, 0.301853, 0.003286, 0.0107681, 0.0147922
-0.0225601, 0.00792052, -0.572624, 8.90149e-05, -0.000281009, -0.000244698, 0.83282, 0.371646, 0.304387, 0.00326211, 0.0106793, 0.0146451
-0.0216727, 0.00452159, -0.576153, 0.000101902, -0.000297489, -0.000210892, 0.835861, 0.370014, 0.30734, 0.00324492, 0.0106009, 0.0144925
-0.0215501, 0.00402478, -0.576245, 0.000103314, -0.000291122, -0.000216776, 0.838709, 0.369501, 0.309963, 0.0032322, 0.0105335, 0.0143476
-0.0204788, 0.00250634, -0.574759, 9.92938e-05, -0.000279455, -0.000209208, 0.841362, 0.369343, 0.311548, 0.00322167, 0.0104688, 0.0142212
-0.020095, 0.00169403, -0.57322, 9.54656e-05, -0.000271656, -0.000208971, 0.843719, 0.369034, 0.31188, 0.00321179, 0.0103986, 0.0141176
-0.0192726, 0.000508889, -0.572991, 9.36375e-05, -0.000260378, -0.000209978, 0.845665, 0.368895, 0.311188, 0.00320255, 0.0103192, 0.0140366
-0.0196172, -0.000602375, -0.568664, 8.41063e-05, -0.000256185, -0.00021269, 0.847154, 0.369449, 0.310044, 0.00319398, 0.0102319, 0.0139741
-0.0225702, 0.0013297, -0.564619, 8.55851e-05, -0.000269916, -0.000230388, 0.848484, 0.371071, 0.308824, 0.00318567, 0.0101402, 0.0139255
-0.0221313, 0.000105964, -0.564099, 8.19395e-05, -0.000223753, -0.000262719, 0.849806, 0.373858, 0.307731, 0.00317706, 0.0100457, 0.0138876
-0.0199957, -0.00335128, -0.564491, 6.78985e-05, -0.000167837, -0.000292617, 0.851352, 0.377772, 0.306812, 0.00316737, 0.00994906, 0.0138579
-0.0187509, -0.00650984, -0.565228, 5.24309e-05, -0.000127256, -0.000323713, 0.853097, 0.382692, 0.305991, 0.0031555, 0.00985133, 0.0138331
-0.0241055, -0.00950339, -0.5591, 5.48327e-05, -0.000161613, -0.000363742, 0.854697, 0.388309, 0.305139, 0.0031411, 0.0097512, 0.0138115
-0.0278342, -0.0120261, -0.556816, 5.42556e-05, -0.00019932, -0.000386896, 0.8554, 0.394356, 0.304412, 0.0031248, 0.00964127, 0.0137915
-0.0282347, -0.013742, -0.560729, 3.86115e-05, -0.000208118, -0.000400872, 0.854707, 0.400459, 0.303778, 0.00310685, 0.00951598, 0.013775
-0.0317671, -0.0154722, -0.561148, 3.11514e-05, -0.000236456, -0.000418718, 0.851504, 0.406125, 0.302926, 0.00308718, 0.00936173, 0.0137631
-0.0387406, -0.0182651, -0.556001, 5.11828e-05, -0.000335267, -0.000417101, 0.843378, 0.411062, 0.301841, 0.00306646, 0.00915503, 0.0137552
-0.0402415, -0.0190956, -0.553453, 6.43466e-05, -0.00037012, -0.00041183, 0.827249, 0.414447, 0.300284, 0.00304543, 0.00886134, 0.0137495
-0.0388666, -0.0190397, -0.551694, 7.30168e-05, -0.000369861, -0.000408324, 0.800255, 0.415663, 0.298331, 0.00302528, 0.00844505, 0.0137441
-0.0304182, -0.016695, -0.550749, 8.10634e-05, -0.00029734, -0.000407484, 0.762378, 0.415094, 0.296379, 0.00300587, 0.0079056, 0.0137383
-0.0183478, -0.0131866, -0.551335, 8.28763e-05, -0.00018426, -0.000413398, 0.717922, 0.413935, 0.294539, 0.00298545, 0.00729471, 0.0137333
-0.0082131, -0.00945071, -0.556086, 7.06328e-05, -8.52539e-05, -0.00041917, 0.67315, 0.41353, 0.292775, 0.00296239, 0.00669189, 0.0137297
0.00115623, -0.00787351, -0.556918, 7.41638e-05, -9.34604e-06, -0.000423147, 0.632462, 0.41452, 0.291571, 0.00293682, 0.0061571, 0.0137274
0.00950865, -0.00505945, -0.554541, 6.88254e-05, 8.95739e-05, -0.000426805, 0.59747, 0.416371, 0.290837, 0.00290849, 0.00571519, 0.0137258
0.0163228, -0.00410017, -0.553326, 6.93052e-05, 0.000152773, -0.000428429, 0.567793, 0.418332, 0.29019, 0.00287773, 0.00536305, 0.0137243
0.020609, -0.00334551, -0.551129, 6.91164e-05, 0.000196767, -0.000428715, 0.542224, 0.419848, 0.289539, 0.00284625, 0.00508572, 0.0137223
0.0245951, -0.00129174, -0.551781, 5.91199e-05, 0.000241046, -0.000422696, 0.519501, 0.420552, 0.288483, 0.00281516, 0.00486572, 0.0137194
0.0260882, 0.00119922, -0.552726, 4.7365e-05, 0.000265787, -0.000416583, 0.498668, 0.420446, 0.287067, 0.00278615, 0.00468835, 0.0137155
0.0286561, 0.0038711, -0.556108, 3.38119e-05, 0.000292604, -0.000403913, 0.479246, 0.419861, 0.285588, 0.00276066, 0.00454219, 0.0137109
0.0294234, 0.00650802, -0.562193, 2.06822e-05, 0.000301088, -0.000392531, 0.461286, 0.419175, 0.284321, 0.00273967, 0.00442204, 0.0137054
0.0302107, 0.00854271, -0.565903, 1.16774e-05, 0.00030913, -0.000385621, 0.445124, 0.418795, 0.283562, 0.00272397, 0.00432735, 0.0136994
0.0306207, 0.0108139, -0.56831, 3.82831e-06, 0.000315535, -0.000381793, 0.431172, 0.419114, 0.283167, 0.00271333, 0.00425593, 0.013693
0.0312392, 0.0118339, -0.5677, 1.35015e-06, 0.000321082, -0.000382096, 0.419834, 0.420366, 0.283043, 0.00270682, 0.00420555, 0.0136872
0.0319258, 0.013322, -0.563068, 1.81625e-07, 0.00032674, -0.000381185, 0.411461, 0.422609, 0.283087, 0.00270367, 0.00417442, 0.0136836
0.0315939, 0.0153858, -0.562029, -1.12551e-06, 0.000326903, -0.000384448, 0.40625, 0.425672, 0.283187, 0.0027026, 0.00415931, 0.0136816
0.0312304, 0.0170459, -0.561465, -1.07766e-06, 0.000326238, -0.000386825, 0.40412, 0.42921, 0.283307, 0.00270231, 0.00415527, 0.0136801
0.0314088, 0.0185504, -0.560537, 4.06733e-09, 0.000324985, -0.000388472, 0.404739, 0.432685, 0.283412, 0.00270168, 0.00415481, 0.0136786
0.0311522, 0.0197616, -0.557569, 1.63926e-06, 0.000324773, -0.000389724, 0.407719, 0.435485, 0.283442, 0.00270003, 0.00414847, 0.0136768
0.0318061, 0.0214192, -0.558963, 3.67744e-06, 0.000315243, -0.000385364, 0.41251, 0.436965, 0.283451, 0.00269683, 0.00412656, 0.0136745
0.0324532, 0.0212838, -0.556783, 2.79553e-06, 0.000311214, -0.000388247, 0.41857, 0.436585, 0.283472, 0.00269143, 0.00408128, 0.0136709
0.0335824, 0.0220045, -0.555827, 7.59605e-07, 0.000292143, -0.000383311, 0.425293, 0.434164, 0.283489, 0.00268255, 0.00400868, 0.0136664
0.0346356, 0.0204633, -0.555065, -5.6875e-06, 0.000287767, -0.000384866, 0.431876, 0.429853, 0.283506, 0.00266926, 0.0039089, 0.0136621
0.035822, 0.0208948, -0.556338, -1.14744e-05, 0.000272177, -0.00038201, 0.437731, 0.424066, 0.283612, 0.00265198, 0.00378726, 0.0136588
0.0373631, 0.0195594, -0.559005, -1.62376e-05, 0.00028702, -0.000387088, 0.442311, 0.417406, 0.284012, 0.00263147, 0.00365282, 0.0136567
0.0376167, 0.0191178, -0.559009, -1.81607e-05, 0.000289572, -0.000386756, 0.445697, 0.410329, 0.284732, 0.00260945, 0.00351701, 0.0136545
0.0377703, 0.0189015, -0.558767, -1.89255e-05, 0.000290151, -0.000387211, 0.448395, 0.403328, 0.285214, 0.00258703, 0.00338709, 0.013651
0.0367177, 0.0193871, -0.557198, -1.45404e-05, 0.000286958, -0.000381821, 0.450094, 0.396709, 0.285186, 0.0025632, 0.00326564, 0.0136458
0.0363675, 0.0196207, -0.560632, -1.29604e-05, 0.000285589, -0.000381409, 0.450298, 0.390575, 0.28486, 0.00253661, 0.00315466, 0.0136404
0.0356404, 0.0188532, -0.556884, -9.01606e-06, 0.000291606, -0.0003798, 0.448738, 0.384843, 0.28428, 0.00250614, 0.00305564, 0.013636
0.0336345, 0.017893, -0.556026, 6.10296e-07, 0.000294608, -0.000379796, 0.445117, 0.379517, 0.283674, 0.00247238, 0.00296934, 0.0136335
0.0322084, 0.0169619, -0.556381, 7.3037e-06, 0.000296143, -0.00037987, 0.439272, 0.374459, 0.28323, 0.00243696, 0.00289539, 0.0136319
0.0312736, 0.0157541, -0.554385, 1.18443e-05, 0.000298819, -0.000378093, 0.431295, 0.369336, 0.282939, 0.00240095, 0.00283231, 0.0136302
0.0293874, 0.0134269, -0.555718, 2.21588e-05, 0.000302353, -0.000380212, 0.421469, 0.36414, 0.28275, 0.00236536, 0.00277774, 0.0136285
0.027206, 0.0126412, -0.557026, 2.88693e-05, 0.000297944, -0.000378353, 0.410443, 0.359126, 0.282566, 0.00233227, 0.00272992, 0.0136269
0.0237711, 0.0108597, -0.557111, 3.97704e-05, 0.000292369, -0.000378941, 0.399063, 0.35462, 0.28232, 0.00230381, 0.00268785, 0.0136255
0.0198684, 0.00888554, -0.558177, 5.0491e-05, 0.000284452, -0.000372668, 0.388025, 0.350778, 0.282051, 0.00228086, 0.00265148, 0.0136234
0.015656, 0.00637205, -0.557529, 6.12858e-05, 0.000276094, -0.000362053, 0.37799, 0.347707, 0.281752, 0.00226325, 0.00262114, 0.0136205
0.0115226, 0.0040148, -0.555762, 7.00269e-05, 0.000267909, -0.000350415, 0.369545, 0.345569, 0.281366, 0.00225017, 0.00259711, 0.0136174
0.00873192, 0.00226207, -0.554802, 7.53892e-05, 0.000262659, -0.000341245, 0.363007, 0.344456, 0.280967, 0.00224131, 0.00257936, 0.0136137
0.00688767, 0.000359374, -0.554816, 7.87897e-05, 0.000259608, -0.000332039, 0.35837, 0.34432, 0.280701, 0.00223631, 0.00256783, 0.0136093
0.00524533, -0.00115154, -0.555093, 8.08774e-05, 0.00025667, -0.000321931, 0.355575, 0.34507, 0.280603, 0.00223416, 0.00256183, 0.0136039
0.00443795, -0.00273513, -0.552867, 8.19671e-05, 0.000255853, -0.000316582, 0.354701, 0.346518, 0.28057, 0.00223355, 0.00255969, 0.0135963
0.00341027, -0.00424048, -0.550691, 8.2009e-05, 0.000255375, -0.00031079, 0.355686, 0.348384, 0.280544, 0.00223301, 0.00255937, 0.0135831
0.00303524, -0.00467394, -0.550404, 8.13768e-05, 0.000255883, -0.000310608, 0.358256, 0.350348, 0.280498, 0.0022311, 0.00255851, 0.0135615
0.00433993, -0.00371216, -0.559092, 8.3235e-05, 0.000253993, -0.00032178, 0.361903, 0.352126, 0.280494, 0.00222683, 0.00255478, 0.0135389
0.00634524, -0.00267132, -0.559642, 8.92243e-05, 0.000249409, -0.000336275, 0.366303, 0.353538, 0.280562, 0.00221929, 0.00254595, 0.0135217
0.00816684, -0.00260673, -0.563326, 9.3399e-05, 0.000242984, -0.000348877, 0.371274, 0.3545, 0.280595, 0.00220828, 0.00253091, 0.0135107
0.0104699, -0.0020793, -0.564125, 0.000101903, 0.000234601, -0.000357744, 0.376502, 0.355069, 0.280702, 0.00219449, 0.00250895, 0.013506
0.0121861, -0.00207536, -0.559492, 0.000111005, 0.000223999, -0.000363348, 0.381762, 0.355348, 0.280917, 0.00217865, 0.00248119, 0.0135037
0.0136042, -0.00225249, -0.56081, 0.000116315, 0.000218173, -0.000364189, 0.386826, 0.355371, 0.281035, 0.00216173, 0.00245042, 0.0135018
0.01566, -0.0022374, -0.562223, 0.00012464, 0.000212207, -0.000362354, 0.391344, 0.355114, 0.281009, 0.00214454, 0.00241866, 0.0134999
0.0173288, -0.00229801, -0.564461, 0.000130891, 0.000208613, -0.00035884, 0.394971, 0.354551, 0.280911, 0.00212775, 0.00238739, 0.0134979
0.0181477, -0.00247545, -0.566927, 0.000133599, 0.000206699, -0.000354846, 0.397418, 0.353674, 0.280731, 0.00211185, 0.0023574, 0.0134952
0.0187943, -0.00250903, -0.566785, 0.000135665, 0.000206687, -0.00035446, 0.3984, 0.35248, 0.280528, 0.00209759, 0.00232883, 0.013491
0.0191919, -0.00161095, -0.565325, 0.000136108, 0.000210571, -0.000357538, 0.397676, 0.350922, 0.280344, 0.00208556, 0.00230257, 0.0134837
0.019643, -0.000973792, -0.563649, 0.000136587, 0.000213318, -0.000359348, 0.395166, 0.348983, 0.280196, 0.00207569, 0.00227962, 0.013473
0.0197109, -0.00102183, -0.560854, 0.000136995, 0.000213639, -0.000362152, 0.390985, 0.346768, 0.280087, 0.00206789, 0.00225996, 0.0134582
0.0199946, -0.00111259, -0.558319, 0.000137572, 0.000213743, -0.000361787, 0.385404, 0.344429, 0.280042, 0.00206215, 0.00224297, 0.0134377
0.0199452, -0.000774046, -0.558025, 0.000137438, 0.000214516, -0.000365266, 0.37895, 0.342145, 0.280027, 0.00205808, 0.00222858, 0.0134131
0.0193695, -0.000752204, -0.558218, 0.000137277, 0.000213992, -0.000371264, 0.372305, 0.340146, 0.280025, 0.00205527, 0.00221664, 0.0133895
0.0188635, -0.000200593, -0.559909, 0.000137199, 0.000214715, -0.000380253, 0.366071, 0.338678, 0.280067, 0.00205352, 0.00220725, 0.0133684
0.017456, 0.00104349, -0.56035, 0.000136564, 0.000214703, -0.000394899, 0.360814, 0.337929, 0.28013, 0.00205253, 0.0022007, 0.0133507
0.0158462, 0.00267549, -0.560892, 0.000136139, 0.000214768, -0.000410504, 0.356911, 0.337985, 0.280218, 0.00205204, 0.00219706, 0.0133367
0.0153419, 0.00430174, -0.564489, 0.00013532, 0.000215294, -0.000416559, 0.354527, 0.338743, 0.280312, 0.00205171, 0.0021958, 0.013327
0.0154192, 0.00486921, -0.562694, 0.000135012, 0.000215357, -0.000415503, 0.353656, 0.339905, 0.280323, 0.0020512, 0.00219566, 0.0133164
0.0142664, 0.00562473, -0.558884, 0.000135595, 0.000216135, -0.000418662, 0.354132, 0.341301, 0.280317, 0.0020506, 0.00219516, 0.0133022
0.0141509, 0.00521303, -0.555604, 0.000135798, 0.00021628, -0.00042323, 0.355622, 0.342723, 0.280352, 0.00205007, 0.00219342, 0.0132856
0.0153567, 0.00413037, -0.55529, 0.000135448, 0.000215261, -0.000428336, 0.357864, 0.344066, 0.280431, 0.00204959, 0.00218964, 0.0132684
0.0169186, 0.00306539, -0.559877, 0.000134651, 0.000216564, -0.000435599, 0.360736, 0.34538, 0.280568, 0.00204899, 0.00218305, 0.0132525
0.0174118, 0.0026222, -0.55821, 0.000134323, 0.000214414, -0.000439785, 0.364088, 0.346664, 0.280807, 0.00204808, 0.0021735, 0.0132384
0.0183938, 0.00187165, -0.557297, 0.000132541, 0.000212049, -0.000448212, 0.367843, 0.34796, 0.281186, 0.00204643, 0.00216104, 0.0132268
0.0191735, 0.000949496, -0.555125, 0.000130531, 0.000210149, -0.00045731, 0.37193, 0.349245, 0.281603, 0.0020437, 0.00214582, 0.0132164
0.0190017, 0.00132103, -0.557786, 0.000131615, 0.000211161, -0.000452545, 0.376118, 0.350468, 0.28189, 0.00203994, 0.00212824, 0.0132058
0.0206796, 0.00152408, -0.564228, 0.000128452, 0.000208995, -0.000456771, 0.380053, 0.351502, 0.281916, 0.0020357, 0.00210896, 0.0131926
0.0208757, 0.00168758, -0.566399, 0.000127987, 0.000208096, -0.000454287, 0.383193, 0.352083, 0.281823, 0.002031, 0.00208899, 0.0131785
0.0199149, 0.00055233, -0.566137, 0.000130072, 0.00021196, -0.000447946, 0.385165, 0.352052, 0.281687, 0.00202568, 0.00206883, 0.0131649
0.0195776, 0.000414105, -0.560175, 0.000129618, 0.000212043, -0.000445543, 0.38556, 0.351234, 0.281602, 0.00201966, 0.0020491, 0.0131525
0.0192501, 0.000389317, -0.55738, 0.000129258, 0.000211336, -0.000441501, 0.384046, 0.349455, 0.281588, 0.00201304, 0.0020303, 0.0131405
0.0192798, 0.000985226, -0.555038, 0.000128219, 0.000210048, -0.000439648, 0.380829, 0.346778, 0.281448, 0.00200576, 0.00201272, 0.0131297
0.0192151, 0.00116602, -0.555229, 0.000128066, 0.000209561, -0.000438821, 0.376186, 0.343522, 0.281253, 0.00199854, 0.00199661, 0.0131218
0.0177079, 0.00131892, -0.555747, 0.000129627, 0.000206648, -0.000433806, 0.370477, 0.340035, 0.281118, 0.00199232, 0.00198179, 0.0131149
0.0142846, -0.000332276, -0.553068, 0.000133879, 0.00020227, -0.000417744, 0.364181, 0.336632, 0.281079, 0.00198723, 0.00196823, 0.0131072
0.0122256, -0.00153858, -0.550278, 0.000136108, 0.00019954, -0.00040599, 0.357948, 0.333561, 0.281039, 0.00198323, 0.00195602, 0.0130987
0.0089464, -0.00344266, -0.549977, 0.000139558, 0.000195203, -0.000390816, 0.352174, 0.330975, 0.281003, 0.00198007, 0.00194552, 0.0130915
0.00904554, -0.00283476, -0.554574, 0.000139627, 0.000195086, -0.000394856, 0.347166, 0.32898, 0.281009, 0.00197736, 0.00193703, 0.0130877
0.00803881, -0.00313414, -0.560706, 0.000140725, 0.000193863, -0.000396488, 0.34322, 0.327603, 0.280938, 0.00197499, 0.00193069, 0.0130857
0.0080972, -0.00248877, -0.562462, 0.000140357, 0.000193396, -0.000396109, 0.34036, 0.326817, 0.280837, 0.00197305, 0.00192639, 0.0130834
0.00829701, -0.00231342, -0.560993, 0.000140029, 0.000193285, -0.000394132, 0.338521, 0.326546, 0.280775, 0.0019718, 0.00192395, 0.0130806
0.00784932, -0.00125341, -0.561469, 0.0001398, 0.000192587, -0.000390965, 0.337782, 0.326682, 0.280583, 0.00197122, 0.00192272, 0.013077
0.00785215, -0.00173431, -0.564815, 0.000139519, 0.000191111, -0.000389594, 0.338125, 0.327155, 0.280275, 0.0019709, 0.00192186, 0.013071
0.00727174, -0.00105699, -0.563412, 0.000139552, 0.000191993, -0.000387757, 0.339382, 0.327893, 0.27999, 0.00197032, 0.00192083, 0.0130599
0.00682333, -0.000568142, -0.55868, 0.000140155, 0.000195318, -0.00039191, 0.341118, 0.328683, 0.279756, 0.00196948, 0.00191925, 0.0130497
0.00840366, 0.0010105, -0.559059, 0.000142121, 0.000193445, -0.000395897, 0.342693, 0.329366, 0.279627, 0.00196818, 0.00191743, 0.0130471
0.0103271, 0.0025888, -0.562673, 0.000144114, 0.000190583, -0.000399197, 0.344002, 0.330109, 0.27958, 0.00196572, 0.00191506, 0.0130444
0.0125578, 0.00343073, -0.562358, 0.000146515, 0.000187707, -0.000400559, 0.345379, 0.331129, 0.279564, 0.00196267, 0.00191174, 0.0130403
0.0121475, 0.00534031, -0.560421, 0.000148973, 0.000188635, -0.00040541, 0.346898, 0.332471, 0.279558, 0.00195969, 0.00190749, 0.0130351
0.0129671, 0.00648972, -0.558602, 0.000150976, 0.00018751, -0.000403864, 0.348475, 0.334048, 0.279586, 0.0019569, 0.00190235, 0.013027
0.0143477, 0.00718984, -0.559305, 0.000152156, 0.000185442, -0.000397406, 0.350161, 0.33572, 0.279566, 0.00195462, 0.00189655, 0.0130164
0.0147005, 0.00710371, -0.55901, 0.000151965, 0.000184808, -0.000393392, 0.351869, 0.337285, 0.279442, 0.0019532, 0.00189039, 0.0130046
0.015056, 0.00802654, -0.564269, 0.000152413, 0.000181845, -0.000387814, 0.353493, 0.338527, 0.279217, 0.00195243, 0.00188382, 0.0129912
0.0137492, 0.00879101, -0.56274, 0.000152336, 0.000185991, -0.000397783, 0.354996, 0.339289, 0.278971, 0.00195202, 0.00187645, 0.0129757
0.0136314, 0.00850539, -0.56684, 0.000151847, 0.000180944, -0.000390052, 0.35639, 0.339479, 0.278883, 0.00195171, 0.00186826, 0.0129595
0.0141261, 0.00847776, -0.565437, 0.000152, 0.000182024, -0.00038943, 0.357555, 0.339185, 0.279066, 0.00195139, 0.0018606, 0.012945
0.0159462, 0.00671003, -0.565722, 0.000152785, 0.000177941, -0.000384698, 0.358481, 0.338555, 0.279495, 0.001951, 0.00185371, 0.0129332
0.0174814, 0.00523697, -0.565965, 0.000153189, 0.000174529, -0.000379622, 0.359082, 0.337711, 0.280059, 0.00195056, 0.00184778, 0.0129258
0.0208042, 0.00375559, -0.567398, 0.000155131, 0.000169443, -0.000375037, 0.359475, 0.336719, 0.280763, 0.00194999, 0.00184217, 0.0129223
0.0208076, 0.00322163, -0.56695, 0.000154948, 0.000169396, -0.000374671, 0.359792, 0.335652, 0.281672, 0.00194927, 0.00183636, 0.0129208
0.0220104, 0.00174634, -0.568407, 0.00015539, 0.000165499, -0.000372833, 0.35993, 0.334607, 0.282731, 0.00194834, 0.00183048, 0.0129188
0.0234587, 0.000368747, -0.570647, 0.000156221, 0.000160953, -0.000373226, 0.35972, 0.333669, 0.28387, 0.00194704, 0.00182476, 0.0129134
0.0232226, -0.000498925, -0.572848, 0.000156089, 0.000157216, -0.000372169, 0.359073, 0.332889, 0.285073, 0.00194515, 0.00181911, 0.0129016
0.0232592, -0.00154736, -0.572178, 0.000154967, 0.000157048, -0.0003637, 0.35781, 0.332285, 0.286306, 0.00194266, 0.0018135, 0.0128825
0.0231514, -0.00220368, -0.572415, 0.000154265, 0.000156135, -0.000358602, 0.355596, 0.331932, 0.287318, 0.00193938, 0.00180855, 0.0128546
0.0215921, -0.00254183, -0.570972, 0.00015303, 0.000156501, -0.000350548, 0.352665, 0.331911, 0.288203, 0.00193516, 0.00180411, 0.0128177
0.0220277, -0.00253914, -0.571313, 0.000153246, 0.000156545, -0.000351973, 0.349338, 0.332226, 0.28913, 0.00193045, 0.00179999, 0.0127764
0.0257829, -0.00227856, -0.571028, 0.000153638, 0.000159132, -0.000350932, 0.345618, 0.332902, 0.28974, 0.00192428, 0.00179655, 0.0127215
0.025462, -0.00172998, -0.570819, 0.000154632, 0.000159483, -0.000358121, 0.342451, 0.334004, 0.290356, 0.00191608, 0.00179341, 0.0126478
0.0236876, -0.00143142, -0.569758, 0.000154933, 0.000158855, -0.000361165, 0.340662, 0.335489, 0.291455, 0.00190694, 0.00179057, 0.0125655
0.0222481, -0.00104307, -0.567252, 0.000154842, 0.000158142, -0.000358976, 0.340552, 0.33729, 0.293122, 0.00189761, 0.00178807, 0.0124814
0.0219897, -0.00123234, -0.565317, 0.000153718, 0.000157072, -0.000349751, 0.342074, 0.339313, 0.295223, 0.00188882, 0.00178573, 0.0124023
0.0190441, -0.00271076, -0.56895, 0.000151582, 0.000158287, -0.000335177, 0.344708, 0.341475, 0.297403, 0.00188077, 0.00178334, 0.0123294
0.01887, -0.00326827, -0.569938, 0.00015045, 0.00015817, -0.000326444, 0.34828, 0.34375, 0.299348, 0.00187306, 0.00178016, 0.0122572
0.0186543, -0.003171, -0.568596, 0.000150592, 0.000157838, -0.000327411, 0.352503, 0.346046, 0.30075, 0.00186616, 0.00177579, 0.0121903
0.0197503, -0.00301371, -0.564695, 0.000151206, 0.000154675, -0.000335833, 0.356648, 0.348145, 0.301124, 0.00186101, 0.00177103, 0.0121389
0.0201026, -0.00360006, -0.562202, 0.000150923, 0.000152649, -0.000336299, 0.360531, 0.349927, 0.300313, 0.00185758, 0.00176596, 0.0121037
0.019408, -0.00380354, -0.561227, 0.00015115, 0.000153119, -0.000337737, 0.364156, 0.35143, 0.298479, 0.00185514, 0.00176036, 0.0120779
0.0186127, -0.00483375, -0.559559, 0.000151031, 0.000152514, -0.000338059, 0.367489, 0.352696, 0.295979, 0.00185335, 0.00175392, 0.0120583
0.0174396, -0.00554029, -0.559483, 0.000151049, 0.000154087, -0.00033626, 0.370273, 0.353707, 0.293177, 0.00185208, 0.00174671, 0.012044
0.0138032, -0.00566685, -0.559027, 0.000152348, 0.000157861, -0.000341732, 0.372281, 0.354501, 0.290498, 0.00185119, 0.00173854, 0.0120335
0.0111202, -0.00619246, -0.559832, 0.000152873, 0.000161701, -0.000341193, 0.373189, 0.355078, 0.288171, 0.00185059, 0.00173035, 0.0120259
0.00963037, -0.00636413, -0.560291, 0.000153217, 0.000163533, -0.000341921, 0.372978, 0.355446, 0.286492, 0.0018502, 0.00172175, 0.0120202
0.00895649, -0.00758739, -0.55999, 0.000153436, 0.000163097, -0.00034502, 0.371616, 0.355656, 0.285635, 0.00184993, 0.00171187, 0.0120155
0.00560702, -0.00908841, -0.56104, 0.000154065, 0.000165441, -0.00034947, 0.369095, 0.355712, 0.285614, 0.00184974, 0.00170078, 0.0120111
0.00344688, -0.0103385, -0.561267, 0.000154568, 0.00016552, -0.000354754, 0.365646, 0.35554, 0.2863, 0.00184949, 0.00168981, 0.012005
0.0015466, -0.0111785, -0.561343, 0.00015513, 0.000165012, -0.000360691, 0.361456, 0.35513, 0.287583, 0.00184903, 0.00167881, 0.0119955
0.00147904, -0.0115076, -0.563273, 0.000155277, 0.00016869, -0.000361411, 0.356923, 0.354553, 0.289257, 0.00184832, 0.00166873, 0.011982
0.00213896, -0.0116345, -0.565177, 0.000155184, 0.000172235, -0.000360267, 0.352597, 0.353942, 0.291088, 0.00184739, 0.0016606, 0.0119652
0.00182599, -0.0121052, -0.567437, 0.000155598, 0.000175434, -0.000364021, 0.348622, 0.353324, 0.292989, 0.00184626, 0.00165378, 0.0119449
0.00117948, -0.0122797, -0.568711, 0.000155774, 0.000176609, -0.000365713, 0.345346, 0.352734, 0.294821, 0.00184493, 0.00164856, 0.0119213
0.00409284, -0.0121892, -0.57224, 0.000155581, 0.000181272, -0.000363863, 0.343117, 0.352122, 0.296485, 0.00184317, 0.00164492, 0.0118915
0.00465448, -0.0117469, -0.570493, 0.000154982, 0.000179888, -0.000357946, 0.341833, 0.351454, 0.297954, 0.00184086, 0.00164218, 0.0118543
0.00757247, -0.0115049, -0.572566, 0.000154638, 0.000181573, -0.000355072, 0.341006, 0.350848, 0.299204, 0.00183842, 0.00163978, 0.0118158
0.0106779, -0.0116001, -0.573092, 0.000154419, 0.00018167, -0.000353801, 0.340882, 0.3503, 0.300127, 0.00183584, 0.00163784, 0.0117768
0.0126776, -0.0114024, -0.572225, 0.000153965, 0.000180641, -0.000349682, 0.341625, 0.349768, 0.300619, 0.00183301, 0.00163607, 0.0117357
0.0121529, -0.0107404, -0.568874, 0.000153089, 0.000180114, -0.000340174, 0.342851, 0.349335, 0.30065, 0.00183042, 0.00163422, 0.0116991
0.00909536, -0.0107129, -0.560366, 0.000152588, 0.000182795, -0.000332599, 0.344491, 0.349034, 0.300196, 0.00182824, 0.0016321, 0.0116685
0.011132, -0.0110009, -0.560835, 0.000152478, 0.000180823, -0.000332637, 0.34669, 0.348842, 0.299224, 0.00182627, 0.00162923, 0.011641
0.0132353, -0.0102985, -0.559503, 0.000151683, 0.000178911, -0.000324372, 0.349414, 0.348738, 0.297715, 0.00182445, 0.00162508, 0.0116158
0.0153634, -0.00980452, -0.55711, 0.000150986, 0.000178324, -0.000316744, 0.35245, 0.348752, 0.295757, 0.00182298, 0.00161953, 0.0115951
0.0184426, -0.00970793, -0.554613, 0.000150397, 0.000177432, -0.000310445, 0.355498, 0.348883, 0.293506, 0.00182193, 0.00161276, 0.01158
0.0212392, -0.00932079, -0.555739, 0.000149755, 0.000172054, -0.000305955, 0.358395, 0.3491, 0.291105, 0.00182119, 0.00160455, 0.0115689
0.022964, -0.00917877, -0.556553, 0.000149291, 0.000168592, -0.000303022, 0.36084, 0.349394, 0.288759, 0.00182075, 0.00159535, 0.0115621
0.0240658, -0.00903305, -0.555643, 0.000149219, 0.000169239, -0.000301275, 0.362634, 0.349773, 0.28665, 0.00182054, 0.00158543, 0.011559
0.0256471, -0.00832204, -0.557124, 0.000148773, 0.000164748, -0.000298292, 0.363715, 0.350229, 0.284904, 0.00182038, 0.00157441, 0.0115576
0.0272673, -0.00784521, -0.560233, 0.000148247, 0.00015713, -0.000296205, 0.363877, 0.350771, 0.283682, 0.00182015, 0.00156332, 0.0115566
0.0275661, -0.00776606, -0.562495, 0.000147666, 0.000152171, -0.000293875, 0.363083, 0.351417, 0.283038, 0.0018196, 0.00155247, 0.0115538
0.0269306, -0.00753867, -0.563877, 0.000147532, 0.000149357, -0.000294232, 0.361384, 0.352172, 0.282971, 0.00181853, 0.00154182, 0.0115476
0.0265023, -0.00666967, -0.567388, 0.000147574, 0.000142482, -0.000297563, 0.358895, 0.353041, 0.283457, 0.00181681, 0.00153113, 0.0115365
0.0274877, -0.00573752, -0.569388, 0.000148235, 0.000139226, -0.000303119, 0.355756, 0.354044, 0.28444, 0.0018144, 0.00152066, 0.0115197
0.026487, -0.00470748, -0.57099, 0.000149254, 0.000136566, -0.000311902, 0.352173, 0.355232, 0.285789, 0.00181107, 0.00151112, 0.0114953
0.0282725, -0.00339428, -0.572035, 0.000151276, 0.000136779, -0.00032588, 0.348477, 0.35669, 0.287337, 0.00180642, 0.00150324, 0.0114593
0.0278981, -0.00245555, -0.571044, 0.000153116, 0.000138464, -0.000338657, 0.345249, 0.35849, 0.28891, 0.00179994, 0.00149757, 0.0114063
0.0241797, -0.0013104, -0.573094, 0.000154861, 0.000136039, -0.000354841, 0.343073, 0.36058, 0.290528, 0.00179236, 0.00149356, 0.0113426
0.0178359, -0.000439862, -0.575281, 0.000155966, 0.000133697, -0.000369211, 0.34208, 0.36281, 0.292207, 0.00178509, 0.00149059, 0.0112809
0.0153784, -0.000520136, -0.57444, 0.000155672, 0.000133689, -0.000368582, 0.342357, 0.365051, 0.293861, 0.00177878, 0.00148845, 0.0112273
0.0161783, -0.00069765, -0.573004, 0.00015551, 0.000133531, -0.000366689, 0.344035, 0.367226, 0.295411, 0.00177349, 0.00148662, 0.0111815
0.0166252, -0.000553754, -0.571348, 0.000155926, 0.000133391, -0.000369588, 0.346799, 0.369285, 0.296708, 0.00176908, 0.00148437, 0.0111423
0.0149358, -0.000860212, -0.570394, 0.000155869, 0.000134698, -0.000369754, 0.350219, 0.371268, 0.297535, 0.00176512, 0.00148127, 0.0111052
0.0147143, -0.00143445, -0.566896, 0.000155428, 0.000132961, -0.000367154, 0.354352, 0.373248, 0.297839, 0.00176127, 0.0014766, 0.0110674
0.0129819, -0.0022421, -0.565602, 0.00015493, 0.000134134, -0.000362792, 0.358528, 0.375038, 0.297374, 0.00175836, 0.00147133, 0.0110383
0.0118134, -0.00273848, -0.566232, 0.000154648, 0.000136136, -0.000359466, 0.362428, 0.376474, 0.296108, 0.00175658, 0.00146587, 0.0110204
0.0108265, -0.00455331, -0.561913, 0.000153492, 0.000131262, -0.000352538, 0.366179, 0.377623, 0.294386, 0.00175543, 0.00145897, 0.0110083
0.0109323, -0.00594005, -0.557402, 0.000152625, 0.000123238, -0.000349488, 0.369385, 0.378509, 0.292478, 0.00175474, 0.00145049, 0.011001
0.00971264, -0.00751768, -0.554888, 0.000152251, 0.000119584, -0.000348074, 0.37143, 0.379041, 0.290541, 0.00175446, 0.0014416, 0.0109982
0.00937913, -0.00878611, -0.554068, 0.000151953, 0.000117915, -0.000346461, 0.372206, 0.379421, 0.288946, 0.00175428, 0.00143162, 0.0109967
0.0059393, -0.00999161, -0.554375, 0.000152274, 0.000119243, -0.000346871, 0.371515, 0.379712, 0.287815, 0.00175413, 0.00142155, 0.010996
0.00406005, -0.0107279, -0.555828, 0.000152752, 0.000121854, -0.000348905, 0.369458, 0.379846, 0.287264, 0.00175399, 0.00141169, 0.010995
0.00336613, -0.0114116, -0.558322, 0.000153557, 0.000126293, -0.000354004, 0.366281, 0.37985, 0.287384, 0.00175379, 0.00140167, 0.0109924
0.00170986, -0.0118272, -0.562434, 0.000154727, 0.000132936, -0.000361157, 0.362188, 0.379832, 0.288165, 0.00175354, 0.00139124, 0.0109885
-0.00132555, -0.0124847, -0.56638, 0.000155787, 0.000137888, -0.000368313, 0.357524, 0.379835, 0.28945, 0.00175329, 0.00138119, 0.0109832
-0.00214087, -0.0128454, -0.570587, 0.000156444, 0.000143709, -0.000372877, 0.352774, 0.379849, 0.291048, 0.001753, 0.00137244, 0.010976
-0.0023666, -0.0130937, -0.573928, 0.000156646, 0.000147856, -0.000374472, 0.348364, 0.379836, 0.292821, 0.0017526, 0.00136526, 0.0109655
-0.00220847, -0.0128719, -0.576392, 0.000156498, 0.000150576, -0.000372732, 0.344495, 0.379838, 0.294662, 0.0017521, 0.00135949, 0.010953
-0.00182203, -0.0129337, -0.577608, 0.000156516, 0.000151918, -0.000373125, 0.341426, 0.379789, 0.296436, 0.00175147, 0.00135521, 0.0109384
-0.00228594, -0.0130478, -0.576574, 0.00015645, 0.000150992, -0.000372959, 0.339294, 0.379492, 0.298052, 0.00175042, 0.00135214, 0.0109178
0.000114241, -0.0132606, -0.57687, 0.000157019, 0.000152134, -0.000378108, 0.33799, 0.378863, 0.299436, 0.00174864, 0.00134973, 0.0108876
0.00362483, -0.0129822, -0.57667, 0.000157074, 0.0001523, -0.000378181, 0.337727, 0.377936, 0.300479, 0.00174591, 0.00134777, 0.010847
0.00266796, -0.0122528, -0.570711, 0.000155597, 0.000150621, -0.000366728, 0.338419, 0.376819, 0.301121, 0.00174229, 0.00134579, 0.0107977
0.00176725, -0.0109957, -0.565246, 0.00015327, 0.000149721, -0.000348219, 0.339922, 0.37568, 0.301315, 0.00173816, 0.00134339, 0.0107447
0.00562394, -0.0108292, -0.56752, 0.000152918, 0.000146904, -0.000343607, 0.341986, 0.374676, 0.301032, 0.00173408, 0.00134042, 0.0106935
0.00918939, -0.01046, -0.5659, 0.000151491, 0.00014392, -0.000330892, 0.344432, 0.373916, 0.300245, 0.00173056, 0.00133685, 0.0106496
0.0111748, -0.0094839, -0.56231, 0.000149264, 0.000143009, -0.000312934, 0.347493, 0.373419, 0.298907, 0.00172762, 0.00133204, 0.0106127
0.0135336, -0.00895429, -0.56094, 0.000147644, 0.000140937, -0.00029907, 0.350673, 0.373175, 0.297112, 0.00172543, 0.00132636, 0.010584
0.0165363, -0.00833378, -0.557571, 0.000145832, 0.000140475, -0.000283717, 0.353853, 0.373144, 0.294934, 0.00172395, 0.00131967, 0.0105635
0.019226, -0.00813872, -0.559126, 0.000144622, 0.000135152, -0.000272465, 0.356879, 0.373293, 0.29251, 0.00172304, 0.00131158, 0.0105501
0.0229716, -0.00819078, -0.557652, 0.000143586, 0.000133635, -0.000262969, 0.359297, 0.373611, 0.290077, 0.00172267, 0.0013027, 0.0105439
0.0231331, -0.0083995, -0.556736, 0.000143523, 0.000135132, -0.000262957, 0.360901, 0.374086, 0.287851, 0.00172246, 0.00129295, 0.0105416
0.0217743, -0.00902049, -0.558124, 0.00014317, 0.000133313, -0.000261705, 0.361457, 0.374709, 0.286064, 0.00172207, 0.00128272, 0.0105393
0.0224896, -0.00908301, -0.55915, 0.000142921, 0.000131208, -0.000259888, 0.360836, 0.375477, 0.284848, 0.00172117, 0.00127233, 0.0105336
0.0227182, -0.0090131, -0.561723, 0.000142396, 0.000126552, -0.000256748, 0.35908, 0.376405, 0.28427, 0.00171967, 0.00126188, 0.0105235
0.0243079, -0.00875932, -0.564574, 0.000142101, 0.000121888, -0.00025496, 0.356305, 0.37752, 0.284325, 0.00171766, 0.0012518, 0.0105098
0.0252963, -0.00829548, -0.567874, 0.000142005, 0.000116912, -0.000255053, 0.352735, 0.378838, 0.284951, 0.00171518, 0.00124212, 0.0104931
0.0249494, -0.00758428, -0.570175, 0.000142295, 0.000113531, -0.000257987, 0.3486, 0.380324, 0.286063, 0.00171233, 0.00123291, 0.0104742
0.0230045, -0.0065911, -0.569318, 0.000143494, 0.000114338, -0.000266189, 0.344152, 0.381958, 0.287536, 0.00170913, 0.0012244, 0.0104526
0.0222941, -0.0060674, -0.569362, 0.000144093, 0.000114195, -0.000270374, 0.339795, 0.383815, 0.289119, 0.00170529, 0.00121771, 0.0104262
0.0216052, -0.00454735, -0.568319, 0.000146685, 0.000115736, -0.000287761, 0.336153, 0.385968, 0.290639, 0.00170045, 0.00121309, 0.0103913
0.0181686, -0.00293195, -0.570677, 0.000148377, 0.000113655, -0.000302348, 0.333693, 0.388359, 0.292141, 0.00169486, 0.00120986, 0.0103492
0.018561, -0.00213653, -0.568651, 0.000150352, 0.000115564, -0.000315178, 0.332445, 0.390851, 0.293652, 0.00168904, 0.00120743, 0.0103032
0.0131781, -0.00127375, -0.572006, 0.000150345, 0.000114207, -0.000318341, 0.332533, 0.393387, 0.295111, 0.00168322, 0.00120553, 0.0102542
0.0127617, -0.00184759, -0.572016, 0.000149381, 0.000113927, -0.000312366, 0.33388, 0.395891, 0.296436, 0.0016778, 0.00120375, 0.0102061
0.0120367, -0.00236311, -0.572401, 0.000148603, 0.000113907, -0.000306977, 0.336283, 0.398234, 0.297487, 0.00167327, 0.00120169, 0.010164
0.0121195, -0.00303133, -0.571537, 0.000147961, 0.000113501, -0.00030217, 0.338883, 0.400219, 0.298004, 0.00167007, 0.00119952, 0.0101331
0.0122719, -0.00388898, -0.56974, 0.00014735, 0.000113006, -0.000297051, 0.34123, 0.401851, 0.297832, 0.0016678, 0.00119738, 0.0101104
0.012373, -0.00365625, -0.56865, 0.000147558, 0.00011301, -0.000298672, 0.343216, 0.403075, 0.297003, 0.00166643, 0.00119542, 0.0100968
0.0116259, -0.00503821, -0.568998, 0.00014716, 0.000113268, -0.000294674, 0.345138, 0.403838, 0.295723, 0.00166576, 0.00119363, 0.0100906
0.00996583, -0.00624368, -0.573361, 0.000147313, 0.000115367, -0.000292234, 0.347135, 0.404382, 0.294202, 0.00166532, 0.00119183, 0.0100866
0.0092865, -0.00708686, -0.576176, 0.000147412, 0.000117004, -0.000290501, 0.349202, 0.404916, 0.292513, 0.00166491, 0.00118971, 0.0100829
0.0092292, -0.0070038, -0.57185, 0.000146808, 0.000113929, -0.00028813, 0.351152, 0.405532, 0.290698, 0.00166447, 0.00118703, 0.010079
0.00687083, -0.00682487, -0.560492, 0.000145087, 0.000105306, -0.000280414, 0.352839, 0.406325, 0.28886, 0.00166394, 0.00118382, 0.0100752
0.00653384, -0.00769698, -0.566045, 0.000145797, 0.000110556, -0.00028252, 0.354247, 0.407327, 0.287134, 0.00166339, 0.0011803, 0.0100721
0.0071503, -0.00837144, -0.566388, 0.000145597, 0.000110645, -0.0002824, 0.355339, 0.408465, 0.285538, 0.00166295, 0.00117655, 0.0100705
0.00748947, -0.00817503, -0.566101, 0.000145612, 0.000110198, -0.000282209, 0.356031, 0.40983, 0.284043, 0.0016625, 0.00117247, 0.0100691
0.00535865, -0.00861366, -0.561777, 0.000144845, 0.000106191, -0.000277344, 0.356475, 0.411371, 0.282842, 0.00166201, 0.00116866, 0.0100678
0.00482069, -0.00894012, -0.56079, 0.000144602, 0.000105265, -0.000276217, 0.356572, 0.413133, 0.281835, 0.00166137, 0.00116501, 0.0100664
0.00212507, -0.00936116, -0.552276, 0.000143652, 9.70444e-05, -0.000267716, 0.356266, 0.415118, 0.280988, 0.00166045, 0.00116149, 0.0100641
0.00186421, -0.0093924, -0.552377, 0.000143508, 9.71289e-05, -0.00026702, 0.355834, 0.417105, 0.280434, 0.00165948, 0.00115867, 0.0100614
0.00339743, -0.00887404, -0.560974, 0.000143514, 0.000103679, -0.000271431, 0.355297, 0.418854, 0.280144, 0.00165871, 0.00115656, 0.0100595
0.00196043, -0.00945634, -0.560161, 0.00014315, 0.000103193, -0.000270862, 0.354668, 0.420239, 0.280052, 0.00165816, 0.00115509, 0.0100582
0.00265083, -0.00984991, -0.562939, 0.000142806, 0.000104655, -0.000270933, 0.353763, 0.421422, 0.280043, 0.00165763, 0.0011538, 0.010056
0.00145879, -0.0104966, -0.558373, 0.000143067, 0.00010226, -0.000269568, 0.352541, 0.422358, 0.280149, 0.00165708, 0.0011526, 0.0100505
0.00176776, -0.0105179, -0.558721, 0.00014307, 0.000102402, -0.000269325, 0.351088, 0.422768, 0.280366, 0.0016567, 0.00115169, 0.0100439
0.00184999, -0.0108698, -0.560467, 0.00014275, 0.000102676, -0.000267969, 0.3495, 0.422327, 0.280579, 0.00165658, 0.00115124, 0.0100405
0.00242532, -0.0119535, -0.563826, 0.000142483, 0.000102898, -0.000265874, 0.34783, 0.421101, 0.280722, 0.00165634, 0.00115096, 0.0100396
0.0037407, -0.0118236, -0.564902, 0.000142676, 0.000103279, -0.000266813, 0.346188, 0.419331, 0.280806, 0.00165564, 0.00115056, 0.0100385
0.00583101, -0.0123116, -0.566108, 0.000143356, 0.000103954, -0.000270171, 0.344734, 0.417576, 0.280875, 0.00165472, 0.00115005, 0.0100363
0.00486682, -0.013275, -0.564735, 0.000143505, 0.000103576, -0.000268796, 0.343591, 0.416458, 0.281007, 0.00165419, 0.00114962, 0.0100344
0.004296, -0.0135975, -0.563319, 0.000143532, 0.00010334, -0.00026766, 0.342842, 0.415947, 0.281152, 0.00165395, 0.00114935, 0.0100328
0.00376292, -0.0137739, -0.565318, 0.000143348, 0.000103334, -0.000267671, 0.342482, 0.415744, 0.281265, 0.00165386, 0.00114925, 0.0100319
0.00419465, -0.0144666, -0.565919, 0.000143406, 0.000103327, -0.000267868, 0.342457, 0.415712, 0.281343, 0.00165382, 0.00114921, 0.010031
0.00276822, -0.0145522, -0.566407, 0.000143525, 0.000103531, -0.000270025, 0.342662, 0.415779, 0.281369, 0.00165375, 0.00114912, 0.010029
0.00361205, -0.0142213, -0.572196, 0.000144008, 0.00010339, -0.000270927, 0.343032, 0.415764, 0.281276, 0.0016536, 0.00114892, 0.0100249
0.00404718, -0.0132868, -0.577523, 0.000144655, 0.000103133, -0.000270284, 0.343565, 0.415745, 0.281131, 0.00165336, 0.00114853, 0.0100175
0.00473694, -0.0129874, -0.574907, 0.000143884, 0.00010259, -0.000265693, 0.344256, 0.416024, 0.28106, 0.00165311, 0.001148, 0.0100098
0.00490891, -0.0123569, -0.570614, 0.000142701, 0.000101966, -0.000259403, 0.345071, 0.416561, 0.280991, 0.00165281, 0.00114736, 0.0100023
0.00495857, -0.0120378, -0.565078, 0.000141034, 0.000101156, -0.000252998, 0.346011, 0.417415, 0.280957, 0.00165244, 0.00114661, 0.00999569
0.00346082, -0.0116418, -0.559212, 0.000139576, 0.000100934, -0.000248794, 0.347114, 0.418577, 0.280925, 0.00165195, 0.00114576, 0.00998956
0.00381567, -0.0105949, -0.555625, 0.000138392, 9.99338e-05, -0.000241145, 0.348394, 0.420066, 0.280918, 0.00165134, 0.00114479, 0.00998392
0.00298659, -0.00989825, -0.551598, 0.000137336, 9.93554e-05, -0.000235915, 0.34982, 0.421916, 0.280973, 0.0016507, 0.00114384, 0.00998
0.00105037, -0.00933759, -0.548364, 0.000136831, 9.95142e-05, -0.000232468, 0.351368, 0.423965, 0.281006, 0.00165013, 0.00114299, 0.00997668
0.00217116, -0.00905848, -0.54879, 0.000136795, 9.89315e-05, -0.000231162, 0.353067, 0.426244, 0.281008, 0.00164953, 0.00114221, 0.0099741
0.00192195, -0.00800555, -0.551283, 0.000137893, 9.86772e-05, -0.000229374, 0.354928, 0.428653, 0.280943, 0.00164896, 0.0011415, 0.00997173
0.00209534, -0.0070888, -0.554982, 0.000139006, 9.80926e-05, -0.000228245, 0.35688, 0.430986, 0.280825, 0.00164854, 0.0011408, 0.0099691
0.00181523, -0.0069168, -0.555753, 0.000139131, 9.81693e-05, -0.000226919, 0.358576, 0.433616, 0.281067, 0.00164772, 0.00114018, 0.00996811
0.00207184, -0.00619377, -0.554504, 0.00013938, 9.77259e-05, -0.000226623, 0.360256, 0.436176, 0.281338, 0.00164696, 0.00113965, 0.00996743
0.00185832, -0.00614051, -0.552739, 0.000139112, 9.74024e-05, -0.000225852, 0.36193, 0.43873, 0.281604, 0.0016461, 0.00113919, 0.00996679
0.0019248, -0.00585017, -0.558633, 0.000139561, 9.792e-05, -0.000225536, 0.363497, 0.441086, 0.281763, 0.00164543, 0.00113894, 0.00996607
0.00173367, -0.00643764, -0.558597, 0.000139369, 9.80351e-05, -0.000226177, 0.364811, 0.443065, 0.281877, 0.00164495, 0.00113885, 0.00996437
0.0022398, -0.00573089, -0.557787, 0.000139875, 9.79087e-05, -0.000227457, 0.365819, 0.444586, 0.281997, 0.00164456, 0.00113881, 0.00996195
0.00182701, -0.00621146, -0.563423, 0.000138297, 9.76541e-05, -0.000221948, 0.366469, 0.445487, 0.281991, 0.00164413, 0.00113877, 0.0099578
0.00169711, -0.00704097, -0.563216, 0.000138427, 9.77855e-05, -0.000223824, 0.366787, 0.445754, 0.281889, 0.00164352, 0.00113866, 0.00995196
0.00136987, -0.00802483, -0.562486, 0.000138566, 9.77982e-05, -0.000224516, 0.366765, 0.445714, 0.28183, 0.00164279, 0.0011385, 0.00994653
0.00100384, -0.00821966, -0.558282, 0.000139865, 9.80097e-05, -0.000228288, 0.366427, 0.445565, 0.281833, 0.001642, 0.00113823, 0.00994104
0.00198047, -0.00824417, -0.560169, 0.000139519, 9.80301e-05, -0.00022775, 0.365894, 0.445262, 0.281871, 0.00164135, 0.00113787, 0.00993594
0.00171278, -0.00903744, -0.56118, 0.000139026, 9.77722e-05, -0.000224808, 0.365207, 0.444723, 0.281985, 0.00164095, 0.00113752, 0.00993203
0.000885575, -0.0101899, -0.560159, 0.000139243, 9.74656e-05, -0.0002241, 0.364422, 0.443891, 0.282099, 0.00164075, 0.00113722, 0.00992821
0.00213735, -0.0104706, -0.562296, 0.000138678, 9.7369e-05, -0.00022005, 0.363566, 0.44263, 0.282204, 0.00164051, 0.00113696, 0.00992254
0.00300404, -0.0112573, -0.562777, 0.000138562, 9.71543e-05, -0.000216213, 0.362595, 0.44092, 0.282297, 0.00164003, 0.00113674, 0.00991377
0.00417687, -0.0118775, -0.562945, 0.00013842, 9.6939e-05, -0.000211028, 0.361546, 0.438701, 0.282307, 0.00163919, 0.00113662, 0.00990367
0.00590834, -0.0119714, -0.563846, 0.000137912, 9.67727e-05, -0.000204135, 0.360523, 0.435977, 0.282212, 0.00163772, 0.00113658, 0.00989204
0.00600871, -0.0131305, -0.565321, 0.00013863, 9.68322e-05, -0.000208044, 0.359664, 0.433206, 0.282091, 0.00163595, 0.00113652, 0.00987917
0.00792848, -0.0129724, -0.569611, 0.000137977, 9.64392e-05, -0.000202205, 0.359095, 0.430815, 0.281984, 0.00163439, 0.00113645, 0.00986671
0.00920583, -0.01326, -0.570397, 0.000137706, 9.62689e-05, -0.000197445, 0.358849, 0.429106, 0.281928, 0.00163342, 0.00113637, 0.00985652
0.0110745, -0.0139213, -0.572161, 0.000137283, 9.59413e-05, -0.000190259, 0.358906, 0.428192, 0.281968, 0.00163289, 0.00113621, 0.00984726
0.0116722, -0.0142085, -0.57211, 0.000137079, 9.57492e-05, -0.000187193, 0.359233, 0.427964, 0.282046, 0.00163252, 0.00113596, 0.00983892
0.0106629, -0.0152621, -0.570015, 0.000137007, 9.57296e-05, -0.000187865, 0.35974, 0.428221, 0.282106, 0.00163228, 0.00113572, 0.00983381
0.00980884, -0.0162038, -0.56593, 0.000136454, 9.54254e-05, -0.000185889, 0.360288, 0.4289, 0.282175, 0.00163211, 0.00113556, 0.00983222
0.00864841, -0.0169559, -0.562275, 0.000135865, 9.53034e-05, -0.000184373, 0.360799, 0.429854, 0.282218, 0.00163187, 0.00113551, 0.00983138
0.00823869, -0.0164417, -0.562835, 0.000135959, 9.53303e-05, -0.000183249, 0.36126, 0.430999, 0.282202, 0.00163132, 0.00113549, 0.00982693
0.00670769, -0.0164431, -0.559207, 0.00013514, 9.53781e-05, -0.000178326, 0.361739, 0.432359, 0.282145, 0.00163039, 0.00113543, 0.00981707
0.0064404, -0.016346, -0.559982, 0.000135024, 9.53153e-05, -0.000176435, 0.362337, 0.433973, 0.282079, 0.00162925, 0.00113535, 0.0098048
0.00799282, -0.0168132, -0.563682, 0.000135642, 9.52423e-05, -0.000182425, 0.363157, 0.435837, 0.282006, 0.00162823, 0.0011353, 0.00979476
0.00758503, -0.0162702, -0.564016, 0.000135835, 9.51812e-05, -0.000180395, 0.364244, 0.438029, 0.281924, 0.00162726, 0.00113522, 0.00978811
0.00782642, -0.0160947, -0.563755, 0.000135942, 9.51049e-05, -0.000181048, 0.365628, 0.440603, 0.281859, 0.00162614, 0.00113507, 0.00978425
0.00640542, -0.0155881, -0.562171, 0.000135926, 9.53439e-05, -0.000177336, 0.367309, 0.443413, 0.281816, 0.00162505, 0.00113472, 0.00978225
0.0055049, -0.0149403, -0.560544, 0.000136127, 9.54286e-05, -0.000174898, 0.36925, 0.446385, 0.281782, 0.00162404, 0.00113415, 0.00978084
0.00629681, -0.0146022, -0.566402, 0.000137182, 9.5075e-05, -0.000174666, 0.371412, 0.44957, 0.281767, 0.00162297, 0.00113345, 0.00977957
0.00566105, -0.0136969, -0.558057, 0.000136729, 9.47523e-05, -0.000172647, 0.373765, 0.452901, 0.281778, 0.00162193, 0.00113267, 0.00977823
0.00418625, -0.0130982, -0.558161, 0.000137244, 9.52195e-05, -0.000169816, 0.376249, 0.456181, 0.281761, 0.0016212, 0.00113175, 0.00977579
0.00262992, -0.012941, -0.554387, 0.000137189, 9.56786e-05, -0.000168283, 0.37875, 0.459385, 0.281804, 0.00162065, 0.00113083, 0.00977267
0.00272961, -0.0123954, -0.555736, 0.000137519, 9.54609e-05, -0.000166606, 0.381199, 0.462512, 0.28187, 0.00162014, 0.00113001, 0.00977024
0.00255603, -0.0117879, -0.555039, 0.00013787, 9.53398e-05, -0.000165538, 0.38348, 0.46541, 0.281944, 0.00161966, 0.00112933, 0.00976856
0.00306586, -0.0112153, -0.55449, 0.000138073, 9.50087e-05, -0.000164609, 0.385404, 0.467869, 0.28206, 0.00161928, 0.00112883, 0.00976734
0.00241126, -0.0120065, -0.550255, 0.000138178, 9.49634e-05, -0.0001657, 0.386826, 0.469687, 0.282221, 0.00161902, 0.0011285, 0.00976632
0.00333814, -0.0116705, -0.54973, 0.000138173, 9.46911e-05, -0.000164585, 0.387677, 0.470711, 0.282376, 0.00161886, 0.00112829, 0.00976512
0.00397697, -0.0113233, -0.550288, 0.00013802, 9.46354e-05, -0.000163696, 0.387942, 0.470879, 0.282501, 0.0016187, 0.00112817, 0.0097635
0.00440293, -0.0114021, -0.551603, 0.000137776, 9.46757e-05, -0.000163288, 0.387675, 0.470279, 0.282588, 0.00161848, 0.0011281, 0.00976152
0.00492002, -0.0117786, -0.552669, 0.000137633, 9.4693e-05, -0.000162776, 0.386995, 0.469026, 0.282663, 0.00161812, 0.00112806, 0.00975872
0.00588604, -0.0121118, -0.553253, 0.000137368, 9.46474e-05, -0.000160274, 0.386041, 0.467416, 0.282797, 0.00161771, 0.00112797, 0.0097548
0.00563191, -0.0125819, -0.555548, 0.000137235, 9.4897e-05, -0.000161733, 0.384854, 0.465496, 0.283036, 0.00161728, 0.00112781, 0.00974986
0.00630629, -0.0131807, -0.556817, 0.000137143, 9.50276e-05, -0.000160682, 0.383374, 0.463073, 0.283282, 0.00161676, 0.00112767, 0.00974635
0.00671694, -0.014155, -0.558849, 0.000137151, 9.52013e-05, -0.000160573, 0.381602, 0.460134, 0.28351, 0.00161598, 0.0011275, 0.00974448
0.00779719, -0.0143792, -0.561697, 0.000136835, 9.56847e-05, -0.000160675, 0.379606, 0.456555, 0.283684, 0.00161429, 0.00112722, 0.00974131
0.00928286, -0.0146205, -0.565847, 0.000136635, 9.64182e-05, -0.000163363, 0.37755, 0.452488, 0.283749, 0.00161107, 0.00112666, 0.00973091
0.0106023, -0.0148497, -0.57128, 0.000136434, 9.71017e-05, -0.000167503, 0.375657, 0.448475, 0.283753, 0.00160699, 0.00112584, 0.00971434
0.0111088, -0.0151381, -0.571943, 0.000136738, 9.73503e-05, -0.00016946, 0.374133, 0.445064, 0.283795, 0.00160348, 0.00112512, 0.00969925
0.0108191, -0.0155641, -0.569954, 0.000137183, 9.72958e-05, -0.000170502, 0.373066, 0.44257, 0.283874, 0.00160136, 0.00112472, 0.00969051
0.0114391, -0.0158131, -0.56885, 0.00013732, 9.72639e-05, -0.000169806, 0.372421, 0.441144, 0.284026, 0.00160072, 0.00112459, 0.00968846
0.0112448, -0.016532, -0.568191, 0.000137392, 9.71712e-05, -0.000169843, 0.372206, 0.440551, 0.284181, 0.0016006, 0.00112453, 0.00968739
0.0115335, -0.016789, -0.567265, 0.000137209, 9.69985e-05, -0.000168145, 0.372426, 0.440618, 0.284276, 0.00160047, 0.00112441, 0.00968495
0.010877, -0.0166105, -0.563, 0.000136703, 9.68116e-05, -0.00016692, 0.373052, 0.441163, 0.284306, 0.00160015, 0.00112414, 0.00968089
0.0112598, -0.0169783, -0.56509, 0.000136842, 9.67936e-05, -0.000166531, 0.373967, 0.442181, 0.284295, 0.00159954, 0.00112368, 0.00967605
0.0100568, -0.0176967, -0.558007, 0.000135, 9.70145e-05, -0.000164634, 0.37519, 0.443563, 0.284193, 0.00159872, 0.00112302, 0.00967096
0.0089991, -0.0169526, -0.559186, 0.0001362, 9.75372e-05, -0.000169261, 0.376588, 0.445262, 0.284012, 0.00159789, 0.00112234, 0.00966785
0.00870522, -0.0168193, -0.561924, 0.000137153, 9.75591e-05, -0.000170419, 0.378065, 0.447508, 0.28383, 0.00159677, 0.00112186, 0.00966699
0.0110059, -0.0174283, -0.565043, 0.000137578, 9.65016e-05, -0.000172549, 0.379699, 0.450316, 0.2836, 0.00159505, 0.0011215, 0.0096647
0.0106451, -0.0168419, -0.565347, 0.000138252, 9.65561e-05, -0.000172439, 0.381545, 0.453587, 0.283349, 0.00159278, 0.00112121, 0.00965913
0.00989279, -0.0164886, -0.565928, 0.000138562, 9.66586e-05, -0.00016978, 0.383593, 0.457238, 0.283118, 0.00158975, 0.00112097, 0.00964946
0.0101896, -0.0167322, -0.571053, 0.000139562, 9.58017e-05, -0.000167872, 0.385831, 0.461096, 0.282923, 0.00158627, 0.00112071, 0.00963889
0.00941829, -0.0161385, -0.568639, 0.000139459, 9.63285e-05, -0.000167268, 0.388264, 0.464877, 0.282768, 0.00158333, 0.00112024, 0.00963405
0.00938142, -0.0150826, -0.561313, 0.000137541, 9.678e-05, -0.000166141, 0.390836, 0.468271, 0.282658, 0.00158107, 0.00111916, 0.00963205
0.009026, -0.0143629, -0.558621, 0.000136968, 9.70695e-05, -0.000165488, 0.393507, 0.471031, 0.28254, 0.00157825, 0.00111688, 0.00961689
0.0094249, -0.0125973, -0.554847, 0.000134371, 9.60766e-05, -0.000149193, 0.396337, 0.472923, 0.282388, 0.00157249, 0.0011125, 0.00956049
0.0112932, -0.0108188, -0.555327, 0.00012956, 9.21733e-05, -0.000103266, 0.399405, 0.473871, 0.28222, 0.00156202, 0.00110582, 0.00944327
0.0120226, -0.0087032, -0.552225, 0.000124537, 8.9983e-05, -6.73746e-05, 0.402781, 0.474078, 0.282086, 0.00154723, 0.00109768, 0.00927376
0.0121843, -0.0073363, -0.550423, 0.000122009, 8.89624e-05, -5.01368e-05, 0.406416, 0.473858, 0.28206, 0.00153104, 0.00108968, 0.00908741
0.0145397, -0.00659061, -0.552805, 0.000116462, 8.50189e-05, 3.29523e-06, 0.410073, 0.473471, 0.282177, 0.00151701, 0.00108329, 0.00892575
0.0155235, -0.00689474, -0.553348, 0.000114608, 8.39392e-05, 2.00298e-05, 0.413521, 0.473084, 0.282361, 0.00150662, 0.00107887, 0.00880671
0.0159651, -0.00758699, -0.550828, 0.000112777, 8.336e-05, 3.15363e-05, 0.416438, 0.472811, 0.282543, 0.00150038, 0.00107639, 0.008736
0.0174301, -0.00728402, -0.550031, 0.000110966, 8.24258e-05, 4.55551e-05, 0.418348, 0.472723, 0.282676, 0.00149785, 0.0010755, 0.00870888
0.01736, -0.00834311, -0.551407, 0.000110842, 8.24166e-05, 4.70209e-05, 0.418936, 0.472767, 0.282697, 0.00149735, 0.00107541, 0.0087042
0.0151983, -0.00962449, -0.551438, 0.000110257, 8.20549e-05, 5.38726e-05, 0.418075, 0.472833, 0.28258, 0.00149714, 0.00107528, 0.00870003
0.0128063, -0.0104672, -0.552525, 0.000108562, 8.09905e-05, 7.00083e-05, 0.415874, 0.472822, 0.282362, 0.00149589, 0.00107448, 0.00867912
0.0136095, -0.010973, -0.560357, 0.000106449, 8.07641e-05, 7.37845e-05, 0.412667, 0.472709, 0.282105, 0.00149287, 0.00107268, 0.0086314
0.0134731, -0.011832, -0.562303, 0.000105362, 8.05274e-05, 7.92277e-05, 0.40876, 0.472583, 0.28184, 0.00148741, 0.00106959, 0.00854636
0.0146909, -0.0138358, -0.562082, 0.000107023, 8.17273e-05, 6.31497e-05, 0.404402, 0.47256, 0.281607, 0.00147815, 0.00106461, 0.00840312
0.014634, -0.0133767, -0.562187, 0.000106971, 8.16906e-05, 6.35004e-05, 0.400011, 0.472621, 0.281403, 0.00146264, 0.00105669, 0.00816637
0.0125304, -0.0148802, -0.561638, 0.000102089, 7.86655e-05, 0.000111871, 0.39657, 0.472781, 0.281312, 0.00143948, 0.00104539, 0.00781414
0.0115531, -0.0121794, -0.562432, 9.95256e-05, 7.68857e-05, 0.00013449, 0.395192, 0.472993, 0.281433, 0.00141132, 0.00103209, 0.00737967
0.0103606, -0.0133003, -0.562333, 9.53885e-05, 7.4577e-05, 0.000172877, 0.396267, 0.473238, 0.281808, 0.00138328, 0.00101928, 0.00693759
0.00863663, -0.0155891, -0.558543, 9.35039e-05, 7.21044e-05, 0.000211515, 0.399348, 0.473605, 0.282418, 0.00135918, 0.00100865, 0.00654651
0.00708231, -0.0159834, -0.556472, 9.09033e-05, 6.96599e-05, 0.000248138, 0.403623, 0.474102, 0.283201, 0.001341, 0.00100086, 0.00624242
0.00552846, -0.01559, -0.554243, 8.92877e-05, 6.76122e-05, 0.00027672, 0.408289, 0.474741, 0.284058, 0.00132903, 0.000995919, 0.00603629
0.00517443, -0.0142209, -0.560043, 8.42587e-05, 6.64229e-05, 0.000300754, 0.412712, 0.475487, 0.284854, 0.0013223, 0.000993253, 0.00591646
0.00525801, -0.0134472, -0.564339, 8.209e-05, 6.6134e-05, 0.000308032, 0.416408, 0.476324, 0.285496, 0.0013192, 0.000992121, 0.00585917
0.00362895, -0.0128427, -0.560272, 8.27623e-05, 6.56254e-05, 0.000313851, 0.41902, 0.47723, 0.285967, 0.00131815, 0.000991842, 0.00583987
0.00274406, -0.0121402, -0.557643, 8.32877e-05, 6.55025e-05, 0.000314135, 0.420283, 0.478212, 0.286222, 0.00131791, 0.00099183, 0.00583807
0.00295664, -0.0115366, -0.558189, 8.33463e-05, 6.54906e-05, 0.000314318, 0.419895, 0.479109, 0.286215, 0.00131744, 0.000991511, 0.00583406
0.00189539, -0.0107261, -0.555873, 8.38326e-05, 6.57155e-05, 0.0003111, 0.417885, 0.47977, 0.286007, 0.00131575, 0.000990408, 0.00580858
0.00302159, -0.00961469, -0.554706, 8.25627e-05, 6.47533e-05, 0.000322548, 0.414789, 0.480222, 0.285693, 0.00131241, 0.000988334, 0.00575218
0.00300579, -0.00856733, -0.55258, 8.18007e-05, 6.43014e-05, 0.000327899, 0.411254, 0.480531, 0.285259, 0.00130747, 0.000985331, 0.00566225
0.00325974, -0.00798426, -0.555133, 8.2331e-05, 6.44189e-05, 0.000327718, 0.407854, 0.480732, 0.284642, 0.00130117, 0.000981507, 0.00553864
0.00413171, -0.00735055, -0.557124, 8.20238e-05, 6.39102e-05, 0.000335445, 0.405174, 0.481029, 0.284001, 0.00129378, 0.000976857, 0.00538585
0.00582397, -0.0072057, -0.556684, 7.93636e-05, 6.20794e-05, 0.000360466, 0.403725, 0.481592, 0.283456, 0.00128548, 0.000971399, 0.0052081
0.00820004, -0.00656546, -0.554277, 7.44337e-05, 5.90081e-05, 0.000403356, 0.403786, 0.482396, 0.283086, 0.00127671, 0.000965445, 0.00501387
0.00941516, -0.00618176, -0.553709, 7.21253e-05, 5.74391e-05, 0.000425366, 0.405392, 0.483369, 0.282925, 0.00126801, 0.000959352, 0.0048135
0.00963227, -0.00623154, -0.554358, 7.2161e-05, 5.72915e-05, 0.000427314, 0.408401, 0.484444, 0.282951, 0.00126006, 0.000953525, 0.00462043
0.0100507, -0.0058168, -0.55465, 7.18387e-05, 5.69691e-05, 0.000433144, 0.412435, 0.48559, 0.283126, 0.0012535, 0.000948445, 0.00445137
0.0108464, -0.00545263, -0.557904, 7.2866e-05, 5.66526e-05, 0.000437469, 0.417093, 0.486795, 0.283449, 0.00124843, 0.000944197, 0.00431154
0.0116035, -0.00610037, -0.562371, 7.40606e-05, 5.59388e-05, 0.000441284, 0.422046, 0.488059, 0.283878, 0.00124475, 0.000940701, 0.00420135
0.0122974, -0.00721779, -0.565572, 7.43376e-05, 5.49314e-05, 0.000447861, 0.42694, 0.489376, 0.28437, 0.00124228, 0.000937965, 0.0041214
0.0126481, -0.0080775, -0.565749, 7.37498e-05, 5.42172e-05, 0.000453572, 0.431442, 0.490674, 0.284861, 0.00124084, 0.00093595, 0.00406948
0.012724, -0.00993034, -0.567703, 7.3531e-05, 5.34473e-05, 0.000455904, 0.435208, 0.491847, 0.285268, 0.00124018, 0.000934583, 0.00404166
0.0133202, -0.0120048, -0.563867, 7.24941e-05, 5.23518e-05, 0.000462415, 0.437828, 0.492798, 0.285567, 0.00123987, 0.000933768, 0.00403189
0.0132736, -0.0135107, -0.559046, 7.22548e-05, 5.18722e-05, 0.000463266, 0.438998, 0.493391, 0.285671, 0.00123938, 0.000933357, 0.00403103
0.0127168, -0.0147931, -0.557516, 7.19881e-05, 5.16345e-05, 0.00046366, 0.43858, 0.493622, 0.285522, 0.00123815, 0.000933158, 0.00402906
0.0122469, -0.0156691, -0.558875, 7.13502e-05, 5.13649e-05, 0.000465645, 0.436624, 0.493538, 0.285207, 0.00123588, 0.00093298, 0.00401774
0.0123156, -0.0171793, -0.556488, 7.21801e-05, 5.13611e-05, 0.000463278, 0.433459, 0.493193, 0.284723, 0.00123251, 0.000932679, 0.00399239
0.0103519, -0.0174679, -0.55859, 6.97197e-05, 5.07104e-05, 0.000474734, 0.42973, 0.492828, 0.284225, 0.00122838, 0.000932241, 0.00395355
0.00894906, -0.018544, -0.560489, 6.76644e-05, 5.01933e-05, 0.000484003, 0.426001, 0.49262, 0.283812, 0.00122384, 0.00093172, 0.00390347
0.00746411, -0.0185431, -0.564276, 6.46076e-05, 4.97745e-05, 0.000497215, 0.422823, 0.492652, 0.283525, 0.00121951, 0.000931205, 0.00384931
0.00786713, -0.0185841, -0.566752, 6.39136e-05, 4.98423e-05, 0.000497125, 0.420397, 0.492831, 0.283284, 0.00121588, 0.000930736, 0.00379859
0.00888181, -0.0184682, -0.572996, 6.23706e-05, 4.98265e-05, 0.000496497, 0.418574, 0.49295, 0.283035, 0.00121329, 0.000930257, 0.00375601
0.0089192, -0.0187637, -0.574019, 6.20581e-05, 4.98659e-05, 0.000497031, 0.417205, 0.493114, 0.282882, 0.00121164, 0.000929766, 0.00372159
0.00930701, -0.01971, -0.569358, 6.35285e-05, 5.008e-05, 0.000491426, 0.416297, 0.493643, 0.282933, 0.0012103, 0.000929287, 0.00368829
0.00774016, -0.0209393, -0.558923, 6.60746e-05, 4.87324e-05, 0.000487511, 0.416023, 0.494732, 0.283287, 0.00120886, 0.000928818, 0.00365251
0.00820349, -0.0217898, -0.55827, 6.62437e-05, 4.88911e-05, 0.000484762, 0.416459, 0.496221, 0.283827, 0.00120726, 0.000928324, 0.00361373
0.00731108, -0.0227992, -0.556302, 6.62447e-05, 4.86334e-05, 0.000488027, 0.417461, 0.497798, 0.284467, 0.00120562, 0.000927752, 0.00357122
0.00603572, -0.0238315, -0.551441, 6.75994e-05, 4.81215e-05, 0.00048918, 0.418827, 0.49906, 0.285067, 0.00120413, 0.000927021, 0.00352505
0.00647732, -0.0235423, -0.55299, 6.70657e-05, 4.82538e-05, 0.000488711, 0.420586, 0.499902, 0.285701, 0.00120264, 0.000926082, 0.00347377
0.00962743, -0.0238624, -0.556451, 6.69958e-05, 4.97624e-05, 0.000469906, 0.422847, 0.500482, 0.286497, 0.00120112, 0.000925052, 0.00341997
0.0102612, -0.0242029, -0.557325, 6.6899e-05, 5.02075e-05, 0.000466385, 0.425519, 0.501057, 0.28757, 0.0011997, 0.00092412, 0.00336969
0.0102175, -0.0231058, -0.559495, 6.58824e-05, 5.01283e-05, 0.000471807, 0.428439, 0.50182, 0.288799, 0.00119857, 0.00092338, 0.00332876
0.0102015, -0.0219031, -0.5604, 6.57075e-05, 4.99152e-05, 0.000473527, 0.431385, 0.502807, 0.289973, 0.00119784, 0.000922856, 0.00330016
0.0105326, -0.0203873, -0.561676, 6.5736e-05, 4.97133e-05, 0.000473651, 0.434008, 0.503918, 0.290874, 0.00119754, 0.000922539, 0.00328507
0.0119377, -0.0183, -0.561679, 6.60133e-05, 4.92597e-05, 0.000471499, 0.435835, 0.50502, 0.291379, 0.00119745, 0.000922331, 0.00328087
0.0135029, -0.0168278, -0.562725, 6.60438e-05, 4.89163e-05, 0.00047174, 0.43656, 0.506042, 0.291446, 0.00119714, 0.000922115, 0.00328063
0.0138539, -0.0163589, -0.56607, 6.70643e-05, 4.90746e-05, 0.000470543, 0.436133, 0.50697, 0.291073, 0.00119619, 0.000921796, 0.00327679
0.0139102, -0.0155964, -0.566163, 6.72234e-05, 4.89661e-05, 0.00047066, 0.434684, 0.507752, 0.290344, 0.00119439, 0.000921336, 0.00326351
0.0141254, -0.0131433, -0.563862, 6.64419e-05, 4.89034e-05, 0.000472495, 0.432586, 0.508335, 0.289151, 0.00119183, 0.000920708, 0.00323735
0.01431, -0.0113889, -0.563133, 6.61922e-05, 4.8958e-05, 0.000473601, 0.430266, 0.508727, 0.287762, 0.00118869, 0.000919866, 0.00319795
0.0139416, -0.0103658, -0.563015, 6.65849e-05, 4.92656e-05, 0.000471076, 0.428224, 0.509046, 0.286435, 0.00118516, 0.000918814, 0.00314711
0.0134984, -0.00944211, -0.562503, 6.67614e-05, 4.96232e-05, 0.000468391, 0.426843, 0.509369, 0.285386, 0.00118142, 0.00091763, 0.00308915
0.0138591, -0.00804308, -0.558612, 6.41289e-05, 4.95747e-05, 0.000474682, 0.426314, 0.50968, 0.284667, 0.0011779, 0.00091641, 0.00303074
0.013228, -0.00885662, -0.557249, 6.35084e-05, 4.96336e-05, 0.000472965, 0.426588, 0.509923, 0.284207, 0.00117497, 0.000915281, 0.00297766
0.0128743, -0.00906305, -0.558169, 6.42508e-05, 4.97864e-05, 0.000469878, 0.427535, 0.510127, 0.284031, 0.00117266, 0.000914286, 0.0029318
0.0122067, -0.00847301, -0.558244, 6.47675e-05, 5.02331e-05, 0.00046578, 0.429039, 0.510337, 0.284148, 0.00117081, 0.000913377, 0.00289229
0.0116634, -0.00867479, -0.558834, 6.53705e-05, 5.05125e-05, 0.000461959, 0.431017, 0.510627, 0.284516, 0.00116923, 0.000912509, 0.002858
0.0103822, -0.00879181, -0.55694, 6.50034e-05, 5.07459e-05, 0.000457437, 0.433332, 0.511045, 0.285057, 0.00116786, 0.00091171, 0.00282924
0.0104686, -0.00983258, -0.558253, 6.5464e-05, 5.06478e-05, 0.000456641, 0.435836, 0.51155, 0.285661, 0.00116672, 0.000911017, 0.00280587
0.0105241, -0.0117803, -0.559654, 6.57353e-05, 5.03448e-05, 0.000456062, 0.438415, 0.512137, 0.286247, 0.00116578, 0.00091043, 0.00278752
0.0103302, -0.013657, -0.561667, 6.62923e-05, 5.01209e-05, 0.000454307, 0.440853, 0.51271, 0.286707, 0.0011651, 0.000909977, 0.00277454
0.0100494, -0.0147998, -0.559606, 6.56582e-05, 5.00712e-05, 0.000454326, 0.442875, 0.5132, 0.287012, 0.00116473, 0.00090969, 0.0027673
0.00946196, -0.0160143, -0.558674, 6.54108e-05, 5.00647e-05, 0.000453767, 0.444326, 0.513665, 0.287161, 0.0011646, 0.000909524, 0.00276469
0.00891247, -0.017534, -0.560809, 6.53232e-05, 4.9824e-05, 0.00045349, 0.445166, 0.514174, 0.28709, 0.00116453, 0.000909411, 0.00276442
0.00939407, -0.0187928, -0.563139, 6.51125e-05, 4.94808e-05, 0.000453686, 0.445357, 0.51475, 0.286817, 0.0011643, 0.000909334, 0.00276402
0.00917868, -0.0207204, -0.559389, 6.54533e-05, 4.95867e-05, 0.000453138, 0.445021, 0.51537, 0.286422, 0.00116378, 0.000909285, 0.00276157
0.00874244, -0.0219477, -0.55809, 6.54527e-05, 4.95335e-05, 0.000453654, 0.444305, 0.516013, 0.285997, 0.0011629, 0.000909263, 0.00275607
0.00859563, -0.0228579, -0.56023, 6.44834e-05, 4.94605e-05, 0.000455082, 0.443362, 0.516638, 0.285571, 0.00116159, 0.000909247, 0.00274698
0.00940479, -0.023808, -0.558417, 6.56469e-05, 4.94173e-05, 0.000451716, 0.442318, 0.517215, 0.285232, 0.00115977, 0.00090923, 0.00273386
0.0107784, -0.025639, -0.553987, 6.88321e-05, 4.93745e-05, 0.000443835, 0.441289, 0.51769, 0.285005, 0.00115741, 0.000909202, 0.00271674
0.0105616, -0.0263412, -0.55396, 6.85731e-05, 4.93595e-05, 0.000444893, 0.440368, 0.518069, 0.284833, 0.00115436, 0.000909156, 0.00269491
0.0103103, -0.026078, -0.559523, 6.38748e-05, 4.9216e-05, 0.000451298, 0.439692, 0.518357, 0.284704, 0.00115057, 0.000909081, 0.00266788
0.00924464, -0.0261366, -0.56146, 6.13144e-05, 4.9034e-05, 0.000457942, 0.439425, 0.518564, 0.284731, 0.00114624, 0.000908985, 0.0026374
0.00909227, -0.0260863, -0.563049, 5.96573e-05, 4.90201e-05, 0.000460379, 0.439611, 0.51863, 0.285058, 0.0011417, 0.00090888, 0.00260621
0.00922648, -0.0257212, -0.564148, 5.87248e-05, 4.90986e-05, 0.000460984, 0.440205, 0.51857, 0.285725, 0.00113725, 0.000908756, 0.00257654
0.0101503, -0.0236689, -0.567837, 5.58831e-05, 4.95186e-05, 0.000461785, 0.441173, 0.518491, 0.286702, 0.00113305, 0.000908615, 0.00254918
0.0109849, -0.0233092, -0.569562, 5.48022e-05, 4.97902e-05, 0.000460295, 0.442522, 0.518555, 0.287879, 0.00112926, 0.000908489, 0.00252451
0.0117246, -0.0238371, -0.566158, 5.82611e-05, 4.96044e-05, 0.000453805, 0.444175, 0.51882, 0.289197, 0.00112603, 0.000908387, 0.00250349
0.0132455, -0.0223818, -0.568271, 5.76623e-05, 4.98498e-05, 0.000450875, 0.446037, 0.519269, 0.290482, 0.00112351, 0.000908333, 0.00248714
0.0119414, -0.0219016, -0.564008, 5.96175e-05, 4.97296e-05, 0.000452392, 0.447949, 0.51988, 0.291574, 0.0011218, 0.000908315, 0.00247591
0.014606, -0.0193394, -0.569703, 5.87735e-05, 4.96798e-05, 0.000448806, 0.44964, 0.520553, 0.292383, 0.00112087, 0.00090831, 0.0024697
0.0153059, -0.0176101, -0.572189, 5.8695e-05, 4.96183e-05, 0.000448389, 0.450904, 0.521251, 0.292835, 0.00112052, 0.000908306, 0.00246733
0.0157508, -0.0161198, -0.568069, 5.88721e-05, 4.97784e-05, 0.00044837, 0.451679, 0.521911, 0.292806, 0.00112042, 0.000908283, 0.002467
0.0159116, -0.014078, -0.561761, 5.78226e-05, 5.00818e-05, 0.000449577, 0.451945, 0.52253, 0.292338, 0.00112022, 0.000908224, 0.00246671
0.014637, -0.0117822, -0.557496, 5.6643e-05, 5.05244e-05, 0.00044931, 0.451786, 0.523124, 0.291456, 0.00111955, 0.000908089, 0.00246437
0.0146654, -0.00954087, -0.552449, 5.40455e-05, 5.08272e-05, 0.000451195, 0.451297, 0.523625, 0.290226, 0.00111798, 0.000907829, 0.00245748
0.0154727, -0.00765724, -0.551969, 5.36454e-05, 5.06259e-05, 0.000453511, 0.450636, 0.523885, 0.288759, 0.00111518, 0.000907398, 0.00244367
0.0155504, -0.00708547, -0.552105, 5.38482e-05, 5.06193e-05, 0.000453457, 0.450067, 0.523891, 0.287221, 0.00111119, 0.000906805, 0.00242246
0.0158069, -0.00736182, -0.552594, 5.40979e-05, 5.04773e-05, 0.000454254, 0.449902, 0.52379, 0.285847, 0.00110648, 0.000906116, 0.00239642
0.0156418, -0.00758352, -0.553908, 5.54553e-05, 5.04327e-05, 0.000452869, 0.450295, 0.523712, 0.284808, 0.00110163, 0.000905415, 0.0023697
0.0156012, -0.0082474, -0.554025, 5.54839e-05, 5.04841e-05, 0.000452479, 0.451193, 0.523735, 0.284172, 0.00109714, 0.000904776, 0.00234573
0.0154267, -0.00907811, -0.55483, 5.61831e-05, 5.0587e-05, 0.000451224, 0.452418, 0.523893, 0.283905, 0.00109333, 0.000904242, 0.00232632
0.0146097, -0.0095642, -0.556613, 5.79849e-05, 5.08875e-05, 0.000447652, 0.453745, 0.524162, 0.283893, 0.00109039, 0.000903841, 0.00231198
0.0143881, -0.0101023, -0.555186, 5.70847e-05, 5.0965e-05, 0.000447589, 0.455047, 0.524565, 0.284069, 0.00108827, 0.000903542, 0.00230243
0.0130551, -0.0111629, -0.554052, 5.69223e-05, 5.12845e-05, 0.000445147, 0.456224, 0.525078, 0.28437, 0.00108685, 0.000903294, 0.00229662
0.0139553, -0.0125108, -0.550686, 5.5087e-05, 5.09844e-05, 0.000446892, 0.45719, 0.52565, 0.284714, 0.00108591, 0.000903038, 0.00229337
0.0150384, -0.0136073, -0.554636, 5.59683e-05, 5.16843e-05, 0.000446292, 0.45785, 0.52619, 0.285127, 0.00108533, 0.000902717, 0.00229151
0.0133904, -0.0141859, -0.554185, 5.62665e-05, 5.18431e-05, 0.000445555, 0.458148, 0.526626, 0.285508, 0.00108502, 0.000902324, 0.00228987
0.0124918, -0.0153613, -0.554335, 5.65512e-05, 5.21821e-05, 0.000444512, 0.458101, 0.526961, 0.285944, 0.00108481, 0.000901793, 0.00228782
0.0137964, -0.0160135, -0.554789, 5.63615e-05, 5.25352e-05, 0.000443115, 0.457782, 0.527288, 0.286493, 0.00108462, 0.000901094, 0.00228525
0.0169386, -0.0158126, -0.554814, 5.56949e-05, 5.26453e-05, 0.000441246, 0.457287, 0.527605, 0.287134, 0.00108441, 0.000900306, 0.00228219
0.0148876, -0.0164606, -0.552838, 5.64214e-05, 5.19503e-05, 0.000442119, 0.456699, 0.527891, 0.287809, 0.00108417, 0.000899534, 0.00227862
0.0147975, -0.0173943, -0.553532, 5.63917e-05, 5.24091e-05, 0.000441417, 0.456026, 0.528107, 0.288473, 0.00108389, 0.000898812, 0.002275
0.0158983, -0.0168294, -0.557215, 5.53492e-05, 5.33672e-05, 0.000441528, 0.455466, 0.528335, 0.288962, 0.00108359, 0.000898315, 0.00227185
0.0173909, -0.0166909, -0.560147, 5.43453e-05, 5.39677e-05, 0.000440747, 0.455127, 0.528681, 0.289208, 0.00108325, 0.000898032, 0.0022691
0.0199385, -0.016346, -0.563624, 5.30608e-05, 5.42739e-05, 0.000438861, 0.455045, 0.529234, 0.289193, 0.00108281, 0.000897889, 0.00226608
0.0212788, -0.0162191, -0.563749, 5.28466e-05, 5.42781e-05, 0.000437576, 0.455249, 0.530072, 0.288852, 0.0010822, 0.000897796, 0.00226197
0.0219087, -0.0161033, -0.559734, 5.38791e-05, 5.49452e-05, 0.000435482, 0.455703, 0.531228, 0.288259, 0.00108132, 0.000897625, 0.00225578
0.023563, -0.0160449, -0.554661, 5.48936e-05, 5.62241e-05, 0.000432748, 0.456387, 0.53277, 0.287494, 0.00108008, 0.000897255, 0.00224649
0.02468, -0.0160183, -0.551365, 5.54536e-05, 5.7239e-05, 0.000431173, 0.457288, 0.53478, 0.28671, 0.00107839, 0.000896653, 0.00223351
0.0251593, -0.0155958, -0.55249, 5.55504e-05, 5.67046e-05, 0.000429913, 0.458352, 0.53722, 0.285995, 0.00107637, 0.00089579, 0.00221782
0.0253687, -0.0153065, -0.556161, 5.51109e-05, 5.50433e-05, 0.000429888, 0.45953, 0.539981, 0.285493, 0.00107422, 0.000894851, 0.00220128
0.0240554, -0.014962, -0.556866, 5.53294e-05, 5.50373e-05, 0.000429279, 0.460735, 0.542861, 0.285165, 0.00107226, 0.000893869, 0.00218674
0.0216518, -0.014385, -0.556859, 5.57504e-05, 5.56396e-05, 0.000428607, 0.461854, 0.545555, 0.284828, 0.00107076, 0.000892706, 0.00217641
0.0200733, -0.0137174, -0.557235, 5.60011e-05, 5.58818e-05, 0.000427576, 0.462977, 0.547863, 0.284577, 0.00106978, 0.000891764, 0.00217102
0.019099, -0.0132169, -0.559504, 5.57617e-05, 5.53317e-05, 0.000427617, 0.464108, 0.549634, 0.28438, 0.00106922, 0.000891119, 0.00216917
0.0192332, -0.0131567, -0.563088, 5.52596e-05, 5.46165e-05, 0.000427723, 0.465176, 0.550865, 0.284262, 0.00106891, 0.000890815, 0.00216895
0.0182497, -0.012668, -0.565109, 5.48442e-05, 5.46946e-05, 0.000428142, 0.466076, 0.551557, 0.284174, 0.00106873, 0.000890676, 0.00216869
0.0178405, -0.0128996, -0.565728, 5.46917e-05, 5.47316e-05, 0.000427863, 0.46678, 0.551619, 0.28405, 0.00106859, 0.00089058, 0.00216742
0.0163973, -0.012702, -0.562278, 5.4767e-05, 5.46939e-05, 0.000428078, 0.467258, 0.550993, 0.283856, 0.00106837, 0.000890509, 0.00216394
0.014172, -0.012863, -0.560829, 5.449e-05, 5.46933e-05, 0.000427128, 0.467539, 0.549762, 0.28366, 0.00106792, 0.000890421, 0.00215718
0.0144255, -0.0130952, -0.562243, 5.45549e-05, 5.48637e-05, 0.000426426, 0.467715, 0.548185, 0.283487, 0.00106719, 0.000890303, 0.00214695
0.0146892, -0.0135402, -0.562461, 5.47523e-05, 5.4852e-05, 0.000425659, 0.467869, 0.546603, 0.283434, 0.00106626, 0.000890121, 0.00213391
0.0127787, -0.0128298, -0.557903, 5.39114e-05, 5.40636e-05, 0.000426789, 0.468102, 0.545234, 0.283529, 0.00106523, 0.000889903, 0.0021191
0.0123002, -0.0133703, -0.559248, 5.40614e-05, 5.43966e-05, 0.000424845, 0.468431, 0.544138, 0.283797, 0.00106415, 0.000889663, 0.00210362
0.0121787, -0.0131806, -0.558794, 5.39507e-05, 5.43085e-05, 0.000425259, 0.468845, 0.543401, 0.28429, 0.00106311, 0.000889378, 0.00208837
0.0156635, -0.0148049, -0.555828, 5.50423e-05, 5.31039e-05, 0.000425141, 0.46935, 0.543079, 0.28501, 0.0010622, 0.000889048, 0.00207444
0.0159433, -0.0153824, -0.559691, 5.56877e-05, 5.40894e-05, 0.000423448, 0.469987, 0.543174, 0.285862, 0.00106147, 0.000888724, 0.00206249
0.0171405, -0.0162067, -0.565202, 5.66741e-05, 5.5139e-05, 0.000422021, 0.470785, 0.543673, 0.286732, 0.00106097, 0.000888457, 0.00205334
0.0177737, -0.0173276, -0.568365, 5.7235e-05, 5.55491e-05, 0.000419983, 0.471667, 0.544463, 0.287496, 0.00106069, 0.000888275, 0.00204739
0.0183876, -0.0190923, -0.571676, 5.75924e-05, 5.57149e-05, 0.000417492, 0.472546, 0.54538, 0.288046, 0.00106056, 0.000888176, 0.00204428
0.0199631, -0.01992, -0.574477, 5.77091e-05, 5.54427e-05, 0.000416583, 0.47336, 0.546321, 0.288254, 0.00106049, 0.000888115, 0.00204322
0.0226964, -0.0201385, -0.569744, 5.83856e-05, 5.56271e-05, 0.000416052, 0.474132, 0.547234, 0.288141, 0.00106037, 0.000888019, 0.00204301
0.0243592, -0.0204601, -0.564236, 5.91564e-05, 5.63255e-05, 0.000415455, 0.474912, 0.548109, 0.287741, 0.00106006, 0.000887854, 0.00204225
0.0272829, -0.0206083, -0.562343, 5.93279e-05, 5.63817e-05, 0.000414619, 0.475693, 0.548965, 0.287025, 0.00105942, 0.00088755, 0.00203931
0.0278852, -0.0207882, -0.564814, 5.86444e-05, 5.54599e-05, 0.00041511, 0.476405, 0.549888, 0.285959, 0.00105837, 0.000886969, 0.00203282
0.0279655, -0.021225, -0.566651, 5.78273e-05, 5.45829e-05, 0.000416935, 0.477027, 0.550992, 0.284694, 0.00105685, 0.000886059, 0.00202198
0.0291321, -0.0209582, -0.563716, 5.86405e-05, 5.59517e-05, 0.000414845, 0.477565, 0.552365, 0.283437, 0.00105493, 0.000884854, 0.0020067
0.0300893, -0.0202963, -0.561803, 5.95663e-05, 5.69903e-05, 0.000411552, 0.478078, 0.554113, 0.282367, 0.00105274, 0.000883412, 0.00198796
0.0302319, -0.0197847, -0.561431, 6.00946e-05, 5.72642e-05, 0.000409441, 0.478679, 0.556291, 0.281654, 0.00105042, 0.000881942, 0.00196743
0.0304345, -0.0189468, -0.559863, 6.11998e-05, 5.82091e-05, 0.000405494, 0.479426, 0.55886, 0.281357, 0.00104813, 0.000880658, 0.00194705
0.0302511, -0.0185595, -0.555253, 6.22171e-05, 6.04631e-05, 0.000402686, 0.480288, 0.561674, 0.281422, 0.00104609, 0.000879638, 0.00192902
0.0283688, -0.017899, -0.559274, 6.28908e-05, 5.9368e-05, 0.000400723, 0.481221, 0.564503, 0.281758, 0.00104446, 0.00087901, 0.00191501
0.0269239, -0.017017, -0.555652, 6.37175e-05, 6.07191e-05, 0.000397803, 0.482106, 0.567141, 0.282162, 0.00104328, 0.000878597, 0.00190573
0.0249531, -0.0165568, -0.553622, 6.39602e-05, 6.1385e-05, 0.000396932, 0.482896, 0.569345, 0.282534, 0.00104257, 0.000878393, 0.00190074
0.0230659, -0.0159312, -0.551865, 6.40656e-05, 6.16404e-05, 0.000396198, 0.483523, 0.570945, 0.282799, 0.00104221, 0.000878346, 0.00189896
0.0211368, -0.0161775, -0.554278, 6.43356e-05, 6.20405e-05, 0.00039591, 0.48387, 0.571781, 0.282908, 0.00104208, 0.00087827, 0.00189878
0.0194942, -0.0168569, -0.555321, 6.44402e-05, 6.23215e-05, 0.0003954, 0.483842, 0.571781, 0.28285, 0.00104204, 0.000878028, 0.0018985
0.0184133, -0.0174541, -0.554842, 6.44488e-05, 6.21652e-05, 0.000394785, 0.483434, 0.571032, 0.282688, 0.00104194, 0.000877489, 0.00189677
0.0204573, -0.0184665, -0.560428, 6.5165e-05, 6.4715e-05, 0.000393327, 0.482762, 0.569807, 0.282539, 0.00104172, 0.000876573, 0.0018927
0.0210256, -0.0187937, -0.560755, 6.53026e-05, 6.49029e-05, 0.00039289, 0.482052, 0.568425, 0.282476, 0.0010414, 0.000875443, 0.00188616
0.0210238, -0.0195597, -0.560693, 6.55104e-05, 6.49307e-05, 0.000391476, 0.481395, 0.567087, 0.282561, 0.00104099, 0.000874224, 0.00187764
0.0188281, -0.0201378, -0.558402, 6.53823e-05, 6.38028e-05, 0.000390065, 0.480854, 0.565959, 0.282834, 0.00104056, 0.000872995, 0.00186782
0.0172409, -0.0213654, -0.555278, 6.54409e-05, 6.23341e-05, 0.000387506, 0.480445, 0.565138, 0.283316, 0.00104012, 0.000871776, 0.00185739
0.0152882, -0.0213182, -0.554642, 6.52262e-05, 6.2074e-05, 0.00038699, 0.480171, 0.564671, 0.284031, 0.00103972, 0.00087056, 0.00184675
0.0165777, -0.0210866, -0.557641, 6.54379e-05, 6.35898e-05, 0.000387533, 0.480018, 0.564596, 0.284992, 0.00103938, 0.000869332, 0.0018365
0.0216844, -0.0221801, -0.560767, 6.62426e-05, 6.50446e-05, 0.000386404, 0.47998, 0.564927, 0.286184, 0.00103912, 0.000868094, 0.00182701
0.0221829, -0.0232269, -0.561322, 6.65315e-05, 6.54372e-05, 0.000384129, 0.480055, 0.565611, 0.287557, 0.00103894, 0.000866891, 0.00181843
0.0218185, -0.0238612, -0.56172, 6.66324e-05, 6.57732e-05, 0.000382779, 0.480185, 0.5665, 0.289042, 0.00103881, 0.000865784, 0.00181112
0.0236605, -0.0243472, -0.564949, 6.68705e-05, 6.71711e-05, 0.000381662, 0.480377, 0.567515, 0.2905, 0.00103873, 0.00086489, 0.00180517
0.0241209, -0.0252581, -0.564285, 6.69283e-05, 6.7055e-05, 0.000380223, 0.480671, 0.568659, 0.29182, 0.00103869, 0.000864232, 0.00180073
0.0241109, -0.0258966, -0.557665, 6.69428e-05, 6.4888e-05, 0.000379806, 0.480981, 0.569842, 0.293024, 0.00103867, 0.000863686, 0.00179812
0.0252689, -0.0267433, -0.556498, 6.68162e-05, 6.46693e-05, 0.000378965, 0.481335, 0.570912, 0.293874, 0.00103863, 0.000863367, 0.00179718
0.0288961, -0.0262802, -0.557, 6.63643e-05, 6.44658e-05, 0.00037852, 0.48177, 0.571803, 0.294261, 0.00103849, 0.000863223, 0.00179704
0.0316115, -0.0260092, -0.556563, 6.59426e-05, 6.42333e-05, 0.000378061, 0.482321, 0.572565, 0.29407, 0.00103813, 0.000863161, 0.00179631
0.0332868, -0.0252168, -0.555487, 6.58682e-05, 6.41829e-05, 0.00037701, 0.482971, 0.573316, 0.293227, 0.00103747, 0.000863016, 0.0017935
0.0366954, -0.0242602, -0.554858, 6.52864e-05, 6.39235e-05, 0.00037559, 0.483702, 0.574193, 0.291908, 0.00103642, 0.000862645, 0.00178763
0.0360869, -0.0243716, -0.55682, 6.52936e-05, 6.33051e-05, 0.000375946, 0.484493, 0.575295, 0.29035, 0.00103499, 0.000861999, 0.00177845
0.0355573, -0.0242517, -0.560282, 6.52808e-05, 6.18921e-05, 0.000375969, 0.485297, 0.576661, 0.288764, 0.00103325, 0.000861076, 0.00176624
0.0345159, -0.0242642, -0.562085, 6.55456e-05, 6.12282e-05, 0.000375998, 0.486135, 0.578317, 0.287389, 0.00103133, 0.00086001, 0.00175199
0.034594, -0.0244489, -0.562464, 6.53172e-05, 6.10332e-05, 0.000376634, 0.487014, 0.580235, 0.286374, 0.00102939, 0.000858962, 0.00173714
0.0340906, -0.02433, -0.560135, 6.58474e-05, 6.21763e-05, 0.000375664, 0.487905, 0.582349, 0.285725, 0.0010276, 0.000857992, 0.00172357
0.0335744, -0.0237379, -0.556674, 6.66663e-05, 6.3709e-05, 0.000373443, 0.4888, 0.584543, 0.285402, 0.0010261, 0.000857186, 0.00171281
0.0329803, -0.0224621, -0.552425, 6.76748e-05, 6.51484e-05, 0.00037009, 0.489657, 0.586608, 0.285363, 0.00102497, 0.000856671, 0.00170531
0.0315416, -0.0215162, -0.55057, 6.85437e-05, 6.56548e-05, 0.000368124, 0.490397, 0.588374, 0.285511, 0.00102422, 0.000856423, 0.00170086
0.029465, -0.0212509, -0.550568, 6.9156e-05, 6.58058e-05, 0.000367676, 0.491019, 0.589802, 0.285734, 0.00102377, 0.000856342, 0.0016989
0.0270966, -0.0210332, -0.550104, 6.96652e-05, 6.59366e-05, 0.000367565, 0.491564, 0.5909, 0.285919, 0.00102352, 0.0008563, 0.00169849
0.024468, -0.021235, -0.553792, 6.98854e-05, 6.65976e-05, 0.000367465, 0.492071, 0.591698, 0.286064, 0.00102341, 0.000856188, 0.00169843
0.0244054, -0.0212227, -0.553076, 6.99325e-05, 6.64373e-05, 0.000367516, 0.492517, 0.59225, 0.286208, 0.00102337, 0.00085591, 0.00169773
0.0234664, -0.0206797, -0.554073, 6.9794e-05, 6.68026e-05, 0.000367795, 0.492729, 0.592455, 0.28644, 0.00102335, 0.000855416, 0.00169588
0.0227618, -0.0212615, -0.553555, 6.98189e-05, 6.66083e-05, 0.000367182, 0.492693, 0.592244, 0.286807, 0.00102322, 0.000854715, 0.00169251
0.0238508, -0.0212187, -0.559097, 6.88391e-05, 6.88271e-05, 0.000365985, 0.492724, 0.591809, 0.28724, 0.00102282, 0.000853965, 0.001687
0.0238792, -0.0221317, -0.559581, 6.88353e-05, 6.89036e-05, 0.000364547, 0.492915, 0.591612, 0.287946, 0.00102211, 0.000852951, 0.00168062
0.0247855, -0.0236522, -0.559206, 6.94939e-05, 6.82582e-05, 0.000362586, 0.493226, 0.59175, 0.289071, 0.00102097, 0.00085153, 0.00167422
0.0241493, -0.0250702, -0.557207, 7.03371e-05, 6.68612e-05, 0.000361366, 0.493633, 0.591997, 0.290521, 0.00101937, 0.000849881, 0.00166875
0.0236411, -0.0265659, -0.554271, 7.18222e-05, 6.50127e-05, 0.000360606, 0.493934, 0.591933, 0.292108, 0.00101733, 0.000848252, 0.00166463
0.0236541, -0.026594, -0.554333, 7.18149e-05, 6.50162e-05, 0.000360501, 0.493788, 0.591072, 0.293589, 0.00101494, 0.000846815, 0.00166173
0.024535, -0.026711, -0.555718, 7.1912e-05, 6.54475e-05, 0.000360044, 0.492882, 0.589017, 0.294696, 0.00101223, 0.000845576, 0.00165963
0.0255645, -0.0269415, -0.556749, 7.22554e-05, 6.57178e-05, 0.000360492, 0.491243, 0.585787, 0.295296, 0.00100922, 0.000844377, 0.00165769
0.0263425, -0.0261973, -0.560376, 7.16369e-05, 6.6378e-05, 0.000360075, 0.489184, 0.581702, 0.295512, 0.001006, 0.000843112, 0.00165584
0.0273869, -0.026358, -0.562839, 7.19631e-05, 6.67942e-05, 0.000360199, 0.486967, 0.577297, 0.295784, 0.00100298, 0.000841806, 0.00165486
0.0286326, -0.0270638, -0.567113, 7.2651e-05, 6.70672e-05, 0.00036046, 0.485018, 0.573083, 0.295959, 0.00100035, 0.000840647, 0.0016541
0.0273929, -0.0272016, -0.56076, 7.21249e-05, 6.71367e-05, 0.000359771, 0.483657, 0.569335, 0.29575, 0.000998136, 0.000839698, 0.00165302
0.0292662, -0.0288135, -0.561495, 7.34558e-05, 6.68975e-05, 0.000361264, 0.482865, 0.566328, 0.295246, 0.000996524, 0.000838887, 0.00165239
0.0290623, -0.0295119, -0.556745, 7.29354e-05, 6.76134e-05, 0.000361312, 0.482728, 0.564534, 0.294562, 0.000995574, 0.000838218, 0.00165201
0.0282022, -0.0289329, -0.550372, 7.11871e-05, 6.96891e-05, 0.000360654, 0.483337, 0.564038, 0.293529, 0.000994964, 0.000837432, 0.00165145
0.0274699, -0.0302556, -0.55344, 7.14775e-05, 6.82108e-05, 0.00036188, 0.484518, 0.5647, 0.292128, 0.000994383, 0.000836233, 0.0016508
0.0296222, -0.0304609, -0.55018, 7.05526e-05, 6.93905e-05, 0.000361704, 0.486071, 0.566381, 0.29049, 0.000993533, 0.000834511, 0.00165016
0.0287702, -0.0314448, -0.555504, 7.18305e-05, 6.63501e-05, 0.000363041, 0.487778, 0.56875, 0.288769, 0.00099218, 0.000832369, 0.00164936
0.0304627, -0.029878, -0.551075, 7.11139e-05, 6.89394e-05, 0.000360893, 0.489332, 0.571454, 0.28686, 0.000990227, 0.000829242, 0.0016485
0.0288566, -0.0307817, -0.560532, 7.36488e-05, 6.13689e-05, 0.000363059, 0.490557, 0.574138, 0.284948, 0.00098767, 0.000825378, 0.00164769
0.0301953, -0.0277034, -0.557299, 7.43062e-05, 6.31353e-05, 0.000358719, 0.491294, 0.576648, 0.283082, 0.000984486, 0.000820433, 0.00164672
0.0371652, -0.0231533, -0.54451, 6.92974e-05, 7.14938e-05, 0.000353955, 0.491942, 0.578977, 0.281627, 0.000980888, 0.000815757, 0.00164584
0.0402636, -0.0212218, -0.538548, 6.69611e-05, 7.55258e-05, 0.000351974, 0.492443, 0.581153, 0.280509, 0.000977053, 0.000811067, 0.00164519
0.0390255, -0.0211195, -0.541872, 6.81541e-05, 7.2511e-05, 0.000352392, 0.492812, 0.583127, 0.279692, 0.000973282, 0.000806468, 0.0016447
0.037149, -0.0222608, -0.551726, 6.85854e-05, 6.4642e-05, 0.000354016, 0.493007, 0.584856, 0.279122, 0.000969719, 0.000801973, 0.00164431
0.0318579, -0.0246125, -0.557932, 7.23215e-05, 6.0821e-05, 0.000355865, 0.493015, 0.586305, 0.278775, 0.000966425, 0.000797617, 0.00164398
0.0306343, -0.0244556, -0.559702, 7.31932e-05, 5.93019e-05, 0.000355998, 0.492901, 0.587469, 0.278656, 0.000963525, 0.000793671, 0.00164378
0.0296517, -0.0243125, -0.561532, 7.37171e-05, 5.79093e-05, 0.000356239, 0.492746, 0.588356, 0.27874, 0.000961092, 0.000790416, 0.00164366
0.0291984, -0.0239492, -0.563578, 7.37533e-05, 5.64688e-05, 0.000356399, 0.492522, 0.588991, 0.278961, 0.000959126, 0.000787743, 0.00164358
0.0292813, -0.0239942, -0.563599, 7.36933e-05, 5.65003e-05, 0.000356406, 0.492219, 0.589402, 0.279267, 0.000957595, 0.000785569, 0.00164353
0.0291811, -0.0239804, -0.56466, 7.36018e-05, 5.5984e-05, 0.000356473, 0.491856, 0.589609, 0.279624, 0.000956444, 0.00078387, 0.00164349
0.0302543, -0.0235332, -0.565841, 7.29578e-05, 5.54622e-05, 0.0003565, 0.491444, 0.589648, 0.280007, 0.000955609, 0.000782555, 0.00164347
0.0267678, -0.0235832, -0.576002, 7.31031e-05, 5.17328e-05, 0.000357104, 0.491016, 0.589551, 0.280391, 0.000955023, 0.000781595, 0.00164344
0.028323, -0.0221058, -0.575082, 7.26507e-05, 5.17503e-05, 0.000357423, 0.49064, 0.589368, 0.280719, 0.000954613, 0.000780995, 0.00164334
0.0297693, -0.0231314, -0.571821, 7.27438e-05, 5.24604e-05, 0.000356265, 0.490348, 0.589058, 0.280924, 0.000954303, 0.000780756, 0.00164276
0.0291177, -0.0228937, -0.569861, 7.30024e-05, 5.26336e-05, 0.000356162, 0.490087, 0.588713, 0.281104, 0.000954155, 0.000780614, 0.00164273
0.0293969, -0.0228763, -0.569218, 7.30189e-05, 5.26808e-05, 0.000356158, 0.489896, 0.588344, 0.281207, 0.000954079, 0.000780561, 0.00164271
0.0296104, -0.0227622, -0.569585, 7.2974e-05, 5.26775e-05, 0.000356148, 0.489778, 0.587995, 0.28122, 0.000954034, 0.00078055, 0.00164267
0.0291979, -0.0226457, -0.570261, 7.28981e-05, 5.27063e-05, 0.000356168, 0.48972, 0.587713, 0.281153, 0.000953991, 0.000780535, 0.00164264
0.0282521, -0.0219122, -0.571385, 7.27322e-05, 5.28225e-05, 0.000356218, 0.489743, 0.587536, 0.281029, 0.000953947, 0.000780485, 0.00164262
0.0272218, -0.0212982, -0.571181, 7.26674e-05, 5.28391e-05, 0.000356212, 0.489893, 0.587474, 0.280845, 0.00095392, 0.00078037, 0.00164261
0.0266367, -0.0213149, -0.571119, 7.26207e-05, 5.28542e-05, 0.000356164, 0.490133, 0.587515, 0.280607, 0.000953894, 0.000780175, 0.00164257
0.0268027, -0.0205502, -0.571908, 7.26731e-05, 5.30641e-05, 0.000356098, 0.490434, 0.587656, 0.28034, 0.000953856, 0.000779901, 0.00164251
0.0270701, -0.0194821, -0.571765, 7.27498e-05, 5.3089e-05, 0.000356084, 0.490796, 0.587902, 0.280067, 0.000953807, 0.000779571, 0.00164244
0.0275745, -0.0188273, -0.571826, 7.28409e-05, 5.31121e-05, 0.000356124, 0.491194, 0.588244, 0.2798, 0.000953747, 0.000779198, 0.00164236
0.0272493, -0.0183112, -0.570802, 7.28081e-05, 5.29089e-05, 0.000356105, 0.491633, 0.58868, 0.279555, 0.000953681, 0.000778815, 0.00164229
0.0276481, -0.0185877, -0.569727, 7.27629e-05, 5.25716e-05, 0.000356248, 0.492104, 0.589199, 0.279336, 0.00095361, 0.000778443, 0.00164222
0.0274174, -0.0184839, -0.569112, 7.27297e-05, 5.24508e-05, 0.000356241, 0.492611, 0.589794, 0.279148, 0.000953539, 0.000778106, 0.00164217
0.0270656, -0.0184751, -0.569142, 7.27099e-05, 5.24915e-05, 0.000356199, 0.493147, 0.590454, 0.278988, 0.000953467, 0.000777813, 0.00164212
0.0265822, -0.0182527, -0.569156, 7.2716e-05, 5.25523e-05, 0.00035613, 0.493715, 0.591171, 0.278859, 0.000953395, 0.00077757, 0.00164208
0.0261842, -0.0183379, -0.569456, 7.26964e-05, 5.26416e-05, 0.000356097, 0.494311, 0.591936, 0.278761, 0.000953324, 0.000777377, 0.00164205
0.0261107, -0.0186672, -0.568826, 7.26332e-05, 5.25424e-05, 0.000356128, 0.494925, 0.592738, 0.278683, 0.000953253, 0.000777228, 0.00164203
0.0262367, -0.0187139, -0.566563, 7.25842e-05, 5.22424e-05, 0.000356164, 0.495551, 0.593564, 0.278626, 0.000953183, 0.000777115, 0.00164201
0.0267356, -0.0190599, -0.564329, 7.25004e-05, 5.19683e-05, 0.000356226, 0.496178, 0.594402, 0.278584, 0.000953115, 0.000777033, 0.001642
0.0277183, -0.0190231, -0.568391, 7.25436e-05, 5.21914e-05, 0.000356254, 0.496794, 0.59525, 0.278552, 0.000953047, 0.00077697, 0.00164199
0.026779, -0.0198323, -0.56536, 7.24173e-05, 5.21325e-05, 0.000356253, 0.497448, 0.596123, 0.278537, 0.000952977, 0.000776922, 0.00164198
0.0259951, -0.0201463, -0.563691, 7.23786e-05, 5.21287e-05, 0.000356277, 0.498076, 0.596981, 0.27852, 0.000952909, 0.000776884, 0.00164197
0.0260245, -0.0202228, -0.563311, 7.23705e-05, 5.21256e-05, 0.000356272, 0.498694, 0.597829, 0.278507, 0.000952843, 0.000776852, 0.00164196
0.0260454, -0.0203443, -0.563575, 7.23518e-05, 5.21157e-05, 0.00035628, 0.499307, 0.598673, 0.2785, 0.000952777, 0.000776822, 0.00164196
0.0261729, -0.0204643, -0.563223, 7.23288e-05, 5.21233e-05, 0.000356291, 0.499923, 0.599518, 0.278501, 0.000952712, 0.000776792, 0.00164195
0.0261393, -0.0203559, -0.563167, 7.23465e-05, 5.21211e-05, 0.000356292, 0.500536, 0.600357, 0.278507, 0.000952647, 0.000776762, 0.00164194
0.0261141, -0.020678, -0.563394, 7.23023e-05, 5.21229e-05, 0.000356307, 0.501143, 0.601186, 0.27851, 0.000952584, 0.000776731, 0.00164194
0.025701, -0.0207489, -0.562985, 7.23111e-05, 5.21629e-05, 0.00035631, 0.501746, 0.602007, 0.278514, 0.000952522, 0.000776701, 0.00164193
0.025391, -0.0208338, -0.563078, 7.23029e-05, 5.2186e-05, 0.00035632, 0.50235, 0.602822, 0.278525, 0.000952462, 0.00077667, 0.00164193
0.025624, -0.0208337, -0.563374, 7.22946e-05, 5.21637e-05, 0.000356316, 0.502956, 0.603634, 0.278541, 0.000952402, 0.000776639, 0.00164192
0.025528, -0.0211952, -0.563335, 7.22454e-05, 5.21776e-05, 0.000356336, 0.503559, 0.604438, 0.27855, 0.000952343, 0.000776608, 0.00164191
0.0254508, -0.0211431, -0.562404, 7.22657e-05, 5.22022e-05, 0.000356329, 0.504162, 0.605237, 0.278557, 0.000952286, 0.000776578, 0.00164191
0.0251951, -0.0213527, -0.562437, 7.22374e-05, 5.22256e-05, 0.00035634, 0.50476, 0.606027, 0.27856, 0.000952229, 0.000776548, 0.0016419
0.0255611, -0.0210097, -0.562675, 7.22794e-05, 5.21881e-05, 0.000356327, 0.50536, 0.606814, 0.278564, 0.000952173, 0.000776518, 0.0016419
0.0259837, -0.0209909, -0.563563, 7.2266e-05, 5.21443e-05, 0.000356333, 0.505964, 0.607603, 0.278567, 0.000952117, 0.000776489, 0.00164189
0.0260746, -0.0206578, -0.562645, 7.23157e-05, 5.21439e-05, 0.000356323, 0.506575, 0.608393, 0.278572, 0.000952061, 0.000776459, 0.00164188
0.0259406, -0.0208386, -0.561882, 7.22948e-05, 5.21629e-05, 0.000356328, 0.50718, 0.609175, 0.278573, 0.000952007, 0.00077643, 0.00164188
0.0264459, -0.0207316, -0.560745, 7.2312e-05, 5.21277e-05, 0.000356335, 0.507781, 0.60995, 0.278572, 0.000951953, 0.000776401, 0.00164187
0.0264559, -0.020711, -0.561168, 7.23099e-05, 5.21258e-05, 0.000356337, 0.508382, 0.610722, 0.278575, 0.0009519, 0.000776372, 0.00164186
0.0263632, -0.0205646, -0.561085, 7.2331e-05, 5.21347e-05, 0.000356327, 0.50899, 0.6115, 0.278583, 0.000951846, 0.000776343, 0.00164186
0.0264455, -0.0203035, -0.56144, 7.23589e-05, 5.2128e-05, 0.000356322, 0.509596, 0.612276, 0.278583, 0.000951792, 0.000776314, 0.00164185
0.0270321, -0.0204457, -0.56087, 7.23432e-05, 5.20817e-05, 0.000356335, 0.510201, 0.613051, 0.278578, 0.000951737, 0.000776285, 0.00164184
