0.00370678, -0.000616392, -0.55848, 6.38645e-05, -0.000248018, 0.000146017, 0.0316228, 0.0316228, 0.0316228, 0.0316228, 0.0316228, 0.0316228
0.00370678, -0.000616392, -0.55848, 6.38645e-05, -0.000248018, 0.000146017, 0.173642, 0.173642, 0.173642, 0.0316228, 0.0316228, 0.0316228
0.0035505, -0.000591632, -0.558794, 6.4071e-05, -0.000201021, 0.000156726, 0.194655, 0.194655, 0.194654, 0.0316114, 0.0316115, 0.0316188
0.00335858, -0.000613818, -0.559181, 5.09739e-05, -0.000121181, 0.000161458, 0.213476, 0.213472, 0.213458, 0.0315858, 0.0315861, 0.0316149
0.00325644, -0.000658084, -0.558285, 4.53912e-05, -0.000139705, 0.000161734, 0.230509, 0.230501, 0.23041, 0.0315302, 0.031531, 0.0316109
0.00285377, -0.000790501, -0.557665, 2.91104e-05, -0.000115662, 0.0001637, 0.246006, 0.245992, 0.245627, 0.031427, 0.0314285, 0.0316069
0.00275867, -0.00102063, -0.556708, -4.89651e-07, -2.14376e-05, 0.000174351, 0.260184, 0.26016, 0.25907, 0.0312646, 0.0312675, 0.031603
0.00261416, -0.00108817, -0.5543, -3.66533e-06, -1.22281e-05, 0.000181074, 0.273254, 0.273248, 0.270548, 0.0310433, 0.0310438, 0.031599
0.0025342, -0.000859554, -0.550672, 1.7088e-05, -5.66092e-05, 0.000189644, 0.285482, 0.285482, 0.280021, 0.0307748, 0.0307748, 0.031595
0.00179783, -0.000757311, -0.548066, 3.42909e-05, 6.85793e-05, 0.000190044, 0.297044, 0.297042, 0.287538, 0.0304752, 0.0304759, 0.031591
0.000592251, -0.00105273, -0.550125, -3.02134e-06, 0.000263022, 0.000166019, 0.308033, 0.308031, 0.293271, 0.0301527, 0.0301534, 0.031587
-0.000657005, -0.00147084, -0.560492, -6.58298e-05, 0.000429171, 0.000141792, 0.318448, 0.318446, 0.297548, 0.0298021, 0.0298033, 0.031583
-0.000886947, -0.00190463, -0.570651, -0.000130603, 0.000486134, 0.000138868, 0.328296, 0.328272, 0.300839, 0.0294127, 0.0294185, 0.0315789
-0.00028715, -0.00211533, -0.57433, -0.000137006, 0.00035015, 0.000142135, 0.337701, 0.337553, 0.303865, 0.0289778, 0.029007, 0.0315746
0.000570245, -0.00211674, -0.575547, -0.000125319, 0.000205806, 0.00014526, 0.346688, 0.346324, 0.307012, 0.0284981, 0.0285686, 0.0315703
0.00142781, -0.00227122, -0.578671, -0.000125173, 0.000103551, 0.000137715, 0.35521, 0.354618, 0.31013, 0.0279775, 0.028092, 0.0315661
0.00239308, -0.00192234, -0.582245, -6.57981e-05, -9.96244e-06, 0.000132008, 0.363221, 0.362435, 0.313056, 0.027425, 0.027578, 0.031562
0.00379384, -0.00130007, -0.577919, 9.71339e-06, -0.000231414, 0.000141588, 0.370712, 0.369827, 0.315528, 0.026853, 0.0270273, 0.0315579
0.0045401, -0.000545175, -0.572272, 9.22015e-05, -0.000401664, 0.0001552, 0.377636, 0.376878, 0.316969, 0.026269, 0.0264216, 0.0315537
0.00475095, -5.41871e-05, -0.565707, 0.000137976, -0.000505888, 0.000162229, 0.384066, 0.383649, 0.317177, 0.0256723, 0.0257596, 0.0315491
0.00535875, 0.000377223, -0.564936, 0.000171526, -0.000545218, 0.000160549, 0.390312, 0.390213, 0.316788, 0.0250593, 0.0250789, 0.0315442
0.00585178, 0.00133693, -0.561809, 0.000244982, -0.000617372, 0.000168785, 0.396681, 0.396699, 0.316791, 0.0244333, 0.0244205, 0.0315386
0.00622836, 0.00246094, -0.557397, 0.000327546, -0.000729172, 0.000181954, 0.40323, 0.403261, 0.317502, 0.0238012, 0.0237747, 0.0315328
0.00665451, 0.00352399, -0.553051, 0.000415073, -0.000852788, 0.000192286, 0.409924, 0.410072, 0.319212, 0.0231869, 0.0231199, 0.031527
0.00701685, 0.0035512, -0.55817, 0.000386065, -0.000798052, 0.000188942, 0.416716, 0.41728, 0.322529, 0.0226373, 0.0224541, 0.0315214
0.00707381, 0.00317001, -0.563783, 0.000296344, -0.000708126, 0.000176378, 0.423552, 0.424885, 0.327595, 0.0221863, 0.0217927, 0.0315157
0.00682582, 0.00245939, -0.568895, 0.000129342, -0.000624044, 0.000152312, 0.430451, 0.432755, 0.334016, 0.0218247, 0.0211574, 0.03151
0.00634095, 0.00142445, -0.574212, -0.000136819, -0.000522522, 0.000124029, 0.437439, 0.440701, 0.341222, 0.0215182, 0.0205707, 0.0315044
0.00573692, 0.0011491, -0.582101, -0.000507263, -0.000312522, 9.79998e-05, 0.444521, 0.448523, 0.348497, 0.0212145, 0.0200415, 0.0314986
0.00533048, 0.00134173, -0.588497, -0.000877146, -0.000172802, 5.56286e-05, 0.451621, 0.456063, 0.35515, 0.020877, 0.0195461, 0.0314917
0.00510759, 0.00203506, -0.59346, -0.00119248, -0.000104464, 1.74859e-05, 0.458738, 0.463104, 0.360795, 0.0204666, 0.0190783, 0.0314831
0.00484175, 0.00277884, -0.597189, -0.00147313, -6.25155e-05, -6.79107e-06, 0.465908, 0.469413, 0.36535, 0.0199556, 0.0186416, 0.0314705
0.00509838, 0.00190453, -0.599426, -0.00174547, -2.61036e-05, -2.38928e-05, 0.473122, 0.474663, 0.36876, 0.0193221, 0.01824, 0.0314502
0.00565971, 0.00386361, -0.603006, -0.00206768, -5.52589e-05, -7.03338e-05, 0.480328, 0.478383, 0.370741, 0.0185735, 0.0178571, 0.0314174
0.00566255, 0.00478413, -0.604815, -0.00218783, -6.30764e-05, -7.46814e-05, 0.487509, 0.480192, 0.371527, 0.0177445, 0.0174931, 0.0313667
0.00554448, 0.00498218, -0.605162, -0.00218698, -5.14914e-05, -6.44132e-05, 0.49466, 0.479897, 0.371674, 0.016883, 0.0171573, 0.0312912
0.00539216, 0.00477984, -0.604703, -0.00212989, -1.55379e-05, -3.54465e-05, 0.501753, 0.477589, 0.37174, 0.0160509, 0.0168543, 0.0311844
0.00472859, 0.00246966, -0.600772, -0.0018295, 4.23074e-05, 1.65344e-05, 0.508764, 0.473863, 0.372508, 0.0153167, 0.0165831, 0.0310413
0.00399565, -0.000942809, -0.595775, -0.00148794, 9.77717e-05, 6.97444e-05, 0.515669, 0.469642, 0.374772, 0.0147139, 0.0163472, 0.0308604
0.00351894, -0.0048927, -0.591003, -0.00119307, 0.000142831, 0.000111779, 0.522469, 0.465674, 0.378726, 0.0142351, 0.016146, 0.0306413
0.002967, -0.00870519, -0.585372, -0.000811995, 0.000189225, 0.000158417, 0.529168, 0.462335, 0.384083, 0.0138586, 0.0159757, 0.0303848
0.00264186, -0.0123801, -0.58042, -0.00049345, 0.000216975, 0.000181693, 0.53575, 0.459713, 0.390452, 0.0135598, 0.0158353, 0.0300912
0.00247689, -0.0154065, -0.576681, -0.00026029, 0.000234588, 0.000199989, 0.542236, 0.457745, 0.397491, 0.0133147, 0.0157208, 0.0297589
0.00244642, -0.0167182, -0.574564, -0.000122036, 0.000252063, 0.000224145, 0.548643, 0.456388, 0.404895, 0.013108, 0.0156284, 0.029387
0.00253445, -0.0173139, -0.573453, -5.14799e-05, 0.000261358, 0.00022821, 0.55499, 0.455855, 0.4124, 0.0129373, 0.0155543, 0.0289792
0.00222674, -0.016286, -0.572248, 3.3892e-05, 0.000271393, 0.000268282, 0.561285, 0.456339, 0.41986, 0.0127997, 0.0154954, 0.0285406
0.00227971, -0.0146612, -0.569919, 0.000118732, 0.000258002, 0.00018802, 0.567528, 0.458273, 0.427191, 0.0126945, 0.0154497, 0.0280777
0.00204704, -0.0150306, -0.569433, 0.000195808, 0.000273031, 0.000256169, 0.573729, 0.461858, 0.434331, 0.0126159, 0.015414, 0.0276024
0.00208245, -0.0141122, -0.568747, 0.000238444, 0.000283559, 0.000270162, 0.579897, 0.466646, 0.441251, 0.0125484, 0.0153863, 0.0271159
0.00226494, -0.0138567, -0.567328, 0.000311265, 0.000280931, 0.000234743, 0.58604, 0.472143, 0.447841, 0.0124808, 0.0153649, 0.0266258
0.00216748, -0.0144563, -0.565107, 0.000391129, 0.000265691, 0.000167384, 0.592157, 0.478271, 0.453953, 0.0124024, 0.015348, 0.0261404
0.0019683, -0.0149845, -0.563186, 0.000463554, 0.000248793, 9.6278e-05, 0.598229, 0.484964, 0.459436, 0.0123003, 0.0153348, 0.025659
0.00148143, -0.0174835, -0.557478, 0.000487484, 0.000230187, -2.04958e-05, 0.604236, 0.492053, 0.464076, 0.0121609, 0.0153244, 0.0251828
-9.18379e-05, -0.021281, -0.546172, 0.000403851, 0.000189075, -0.000215416, 0.610153, 0.499327, 0.46757, 0.0119704, 0.0153155, 0.0247255
-0.002491, -0.0243432, -0.532031, 0.000203725, 0.000141002, -0.000420437, 0.615943, 0.506634, 0.46959, 0.0117207, 0.0153073, 0.0242966
-0.00459129, -0.0259715, -0.518315, -3.86018e-05, 0.000104481, -0.00063563, 0.621585, 0.513893, 0.469859, 0.0114163, 0.0152995, 0.0239026
-0.00570732, -0.0264078, -0.51077, -0.000154412, 8.31371e-05, -0.00074834, 0.62708, 0.521119, 0.468121, 0.0110681, 0.0152921, 0.0235542
-0.00542242, -0.026865, -0.511707, -5.69012e-05, 8.52812e-05, -0.000729643, 0.632432, 0.528335, 0.464087, 0.0106931, 0.0152843, 0.0232523
-0.00450373, -0.0276554, -0.516358, 0.000110024, 9.28947e-05, -0.000684072, 0.637645, 0.535476, 0.457587, 0.0102994, 0.0152749, 0.0229959
-0.00456221, -0.0274755, -0.515562, 9.25129e-05, 7.90148e-05, -0.000700014, 0.642749, 0.542298, 0.448978, 0.00988655, 0.0152622, 0.022788
-0.00469085, -0.0266659, -0.513204, 3.51724e-06, 7.2342e-05, -0.000734521, 0.647768, 0.548523, 0.439149, 0.00947205, 0.0152448, 0.0226284
-0.00487196, -0.0256831, -0.510521, -8.26934e-05, 7.26156e-05, -0.000763581, 0.652711, 0.553889, 0.428362, 0.00907612, 0.015221, 0.0225148
-0.0052103, -0.024173, -0.506735, -0.000168565, 5.94907e-05, -0.000794261, 0.657594, 0.557983, 0.416534, 0.00870918, 0.0151884, 0.0224426
-0.00553628, -0.0229, -0.505355, -0.000157213, 3.83967e-05, -0.000798098, 0.662436, 0.560205, 0.404099, 0.00837579, 0.0151438, 0.0224033
-0.0055876, -0.0215779, -0.504647, -0.000139711, 1.395e-05, -0.000800161, 0.667262, 0.560089, 0.392054, 0.00807329, 0.0150846, 0.0223859
-0.0055752, -0.02033, -0.50478, -0.000113039, -1.67015e-05, -0.000792498, 0.672071, 0.557417, 0.381394, 0.00779694, 0.0150078, 0.02238
-0.00579102, -0.0191542, -0.506586, -5.58992e-05, -5.2642e-05, -0.000769532, 0.676839, 0.552107, 0.372676, 0.00754785, 0.0149119, 0.0223737
-0.00639832, -0.0175566, -0.510356, 3.62559e-05, -8.3677e-05, -0.000738077, 0.681539, 0.544418, 0.366284, 0.00732568, 0.014797, 0.0223544
-0.00716111, -0.0163805, -0.515163, 0.000133835, -0.000101676, -0.000715415, 0.686173, 0.535008, 0.362399, 0.00712689, 0.0146626, 0.0223106
-0.00777071, -0.0153325, -0.519676, 0.000215374, -0.000107032, -0.000705467, 0.690749, 0.524636, 0.360863, 0.00694795, 0.0145096, 0.0222334
-0.00855641, -0.0118541, -0.523416, 0.000273304, -0.000126156, -0.000685344, 0.69529, 0.513927, 0.36127, 0.006788, 0.0143396, 0.0221165
-0.00969947, -0.00472187, -0.524757, 0.000276468, -0.000168122, -0.000646177, 0.699806, 0.503539, 0.363101, 0.00665029, 0.0141556, 0.0219557
-0.01098, 0.00579078, -0.524776, 0.000243741, -0.000224909, -0.000587537, 0.70432, 0.494331, 0.365944, 0.00653981, 0.0139607, 0.0217497
-0.0122433, 0.0151506, -0.52696, 0.000235255, -0.00026349, -0.000547947, 0.708855, 0.487174, 0.369572, 0.00645813, 0.0137583, 0.0215
-0.0131616, 0.0230487, -0.531384, 0.000250263, -0.000289714, -0.000520264, 0.713411, 0.482562, 0.37379, 0.00640222, 0.0135524, 0.0212115
-0.0140247, 0.0285312, -0.538598, 0.000291796, -0.000314602, -0.000499396, 0.71796, 0.480542, 0.378394, 0.00636647, 0.0133489, 0.0208911
-0.0147552, 0.0298927, -0.548801, 0.000357709, -0.000316081, -0.000522376, 0.722458, 0.480928, 0.383214, 0.00634666, 0.0131553, 0.0205482
-0.0151794, 0.0283869, -0.55921, 0.000416728, -0.000304121, -0.000571296, 0.72685, 0.483165, 0.388006, 0.00633571, 0.0129784, 0.020194
-0.0155304, 0.026956, -0.567425, 0.000456205, -0.000284542, -0.000630056, 0.7311, 0.486574, 0.392455, 0.00632596, 0.0128217, 0.0198409
-0.0160442, 0.0259196, -0.57328, 0.000480292, -0.000258704, -0.000696416, 0.735215, 0.490688, 0.396215, 0.00631145, 0.0126851, 0.0195007
-0.0162267, 0.0242326, -0.578353, 0.000488993, -0.000225208, -0.000768853, 0.73922, 0.495387, 0.398912, 0.00628749, 0.0125654, 0.0191825
-0.0158696, 0.0210649, -0.58517, 0.000470362, -0.000188662, -0.0008483, 0.743116, 0.50068, 0.400287, 0.00624964, 0.0124598, 0.0188927
-0.0147949, 0.0180499, -0.593703, 0.000428696, -0.000145396, -0.000930257, 0.746911, 0.506635, 0.400268, 0.00619357, 0.0123649, 0.018635
-0.0135716, 0.0165863, -0.600813, 0.000385918, -0.000118442, -0.000978067, 0.750634, 0.513089, 0.398882, 0.00611765, 0.0122769, 0.0184087
-0.0128723, 0.0157139, -0.608347, 0.000319108, -9.98621e-05, -0.00103092, 0.75432, 0.519836, 0.396225, 0.00602174, 0.0121936, 0.0182159
-0.0126272, 0.0148435, -0.616099, 0.000205377, -8.17951e-05, -0.00110089, 0.758019, 0.526512, 0.392441, 0.00590707, 0.0121129, 0.0180567
-0.013085, 0.0149654, -0.623643, 8.38635e-05, -5.92908e-05, -0.00118851, 0.761772, 0.532613, 0.387782, 0.00578309, 0.0120331, 0.0179267
-0.0134269, 0.0166791, -0.634618, -6.59409e-05, -2.15089e-05, -0.00129783, 0.765623, 0.537658, 0.382567, 0.00565736, 0.0119534, 0.0178257
-0.0139587, 0.0158239, -0.635643, -0.000119752, -6.04548e-05, -0.00129308, 0.769588, 0.541172, 0.377372, 0.00553031, 0.011875, 0.0177528
-0.0140951, 0.0159545, -0.63683, -0.000139882, -7.22237e-05, -0.0012904, 0.773673, 0.542713, 0.372785, 0.0054019, 0.0117998, 0.0177051
-0.0138731, 0.0171632, -0.63767, -0.000140232, -5.56216e-05, -0.00129514, 0.777913, 0.541975, 0.368976, 0.00527953, 0.011726, 0.0176765
-0.0149121, 0.0144967, -0.637418, -0.000149321, -5.27633e-05, -0.00130954, 0.7823, 0.538726, 0.366079, 0.00516886, 0.011653, 0.0176609
-0.0151084, 0.0110365, -0.629812, -6.21098e-05, -3.21114e-05, -0.00128983, 0.786795, 0.532948, 0.36438, 0.00506632, 0.0115827, 0.017654
-0.0153636, 0.00883639, -0.629697, -6.26687e-05, -1.79784e-05, -0.00128999, 0.791356, 0.524892, 0.364223, 0.00496409, 0.0115153, 0.0176512
-0.014913, 0.00942063, -0.628559, -5.46521e-05, 1.42457e-05, -0.00127675, 0.795983, 0.514916, 0.365237, 0.00486829, 0.0114511, 0.0176475
-0.0150962, 0.00571745, -0.623657, -4.77392e-06, 1.97799e-05, -0.00126298, 0.800662, 0.503557, 0.366953, 0.0047832, 0.0113905, 0.0176393
-0.0131153, 0.00733669, -0.611107, 8.83677e-05, 6.91095e-06, -0.00123398, 0.805372, 0.491802, 0.369125, 0.00471028, 0.0113316, 0.0176235
-0.0119961, 0.0156473, -0.601428, 0.000121977, 2.48283e-05, -0.00118635, 0.81009, 0.480768, 0.371634, 0.00464971, 0.0112746, 0.0175968
-0.0126413, 0.0229582, -0.606061, 6.31774e-05, 8.19145e-05, -0.00114388, 0.814794, 0.471749, 0.374362, 0.00460309, 0.0112208, 0.0175581
-0.0132461, 0.0249481, -0.608848, 3.77432e-05, 0.000112732, -0.0011136, 0.819468, 0.465571, 0.37736, 0.00456898, 0.0111719, 0.0175037
-0.0133698, 0.0262156, -0.608066, 3.08712e-05, 0.000135932, -0.00107975, 0.824106, 0.462153, 0.380667, 0.0045439, 0.0111285, 0.0174295
-0.0134392, 0.0261251, -0.604316, 4.10166e-05, 0.000146146, -0.0010625, 0.828712, 0.460972, 0.384212, 0.00452528, 0.0110921, 0.0173324
-0.0132664, 0.023515, -0.597117, 6.7398e-05, 0.000148819, -0.00107391, 0.833282, 0.461613, 0.387849, 0.00451116, 0.0110622, 0.0172125
-0.0128577, 0.0160651, -0.584797, 0.000104905, 0.000145903, -0.00113073, 0.837817, 0.464025, 0.391471, 0.00449929, 0.0110376, 0.0170721
-0.012503, 0.0098098, -0.572868, 0.000128524, 0.000145792, -0.00120022, 0.842314, 0.468012, 0.394954, 0.00448507, 0.0110171, 0.0169144
-0.0117632, 0.00573073, -0.562747, 0.000144918, 0.000153807, -0.00126977, 0.846761, 0.473124, 0.398098, 0.00446408, 0.0110008, 0.016744
-0.0112402, 0.00586712, -0.556509, 0.000177622, 0.000163282, -0.00131818, 0.851121, 0.478962, 0.400579, 0.00443404, 0.0109886, 0.016568
-0.0109698, 0.00773199, -0.551351, 0.000234611, 0.000171661, -0.00135275, 0.855348, 0.48524, 0.402008, 0.0043944, 0.0109801, 0.0163948
-0.0110184, 0.00754373, -0.542861, 0.000269976, 0.000178101, -0.0013815, 0.859423, 0.491845, 0.402062, 0.00434341, 0.0109738, 0.016234
-0.0112134, 0.00773591, -0.534685, 0.000297178, 0.000183695, -0.00140353, 0.863375, 0.498767, 0.400694, 0.00428073, 0.0109679, 0.0160928
-0.0117243, 0.00897086, -0.527028, 0.00032592, 0.000184942, -0.00142575, 0.867206, 0.505903, 0.397967, 0.00420713, 0.0109615, 0.0159741
-0.0113694, 0.0102965, -0.516106, 0.00030179, 0.000193308, -0.0014619, 0.870894, 0.512853, 0.394002, 0.00412732, 0.0109539, 0.0158797
-0.0106336, 0.0127695, -0.503627, 0.000252399, 0.000202289, -0.00150194, 0.874453, 0.51902, 0.388961, 0.00404906, 0.0109441, 0.0158117
-0.0106935, 0.0170756, -0.493713, 0.000223334, 0.000201981, -0.00153063, 0.877933, 0.523777, 0.383014, 0.00397667, 0.0109304, 0.0157677
-0.0105671, 0.0224817, -0.483365, 0.000181632, 0.000200294, -0.00155866, 0.88134, 0.526442, 0.37644, 0.00391066, 0.0109117, 0.0157437
-0.0124863, 0.0284673, -0.479874, 0.000182534, 0.000184471, -0.00156041, 0.884704, 0.526498, 0.369592, 0.00385136, 0.0108857, 0.0157343
-0.0139201, 0.0339596, -0.47785, 0.000182514, 0.000167368, -0.00156405, 0.88806, 0.523896, 0.363149, 0.00379648, 0.0108503, 0.015732
-0.0154356, 0.0407996, -0.474906, 0.000170836, 0.000138744, -0.0015627, 0.891422, 0.518954, 0.357816, 0.00374533, 0.0108051, 0.0157288
-0.0172308, 0.0476524, -0.473733, 0.000163736, 0.000107214, -0.00155456, 0.894833, 0.512389, 0.353812, 0.0037006, 0.0107485, 0.0157164
-0.018998, 0.052296, -0.47591, 0.000170818, 7.69763e-05, -0.00154239, 0.898328, 0.50533, 0.3513, 0.00366396, 0.0106809, 0.0156878
-0.0209458, 0.0524635, -0.484315, 0.000206572, 4.54595e-05, -0.00152825, 0.901905, 0.498917, 0.350306, 0.00363522, 0.0106056, 0.0156387
-0.0222519, 0.0472795, -0.49727, 0.000262572, 1.68854e-05, -0.00151315, 0.905528, 0.493825, 0.350612, 0.00361246, 0.0105273, 0.015569
-0.0227633, 0.0388375, -0.511695, 0.000324589, -1.88571e-06, -0.0015041, 0.909136, 0.490185, 0.351842, 0.00359348, 0.0104509, 0.0154818
-0.022455, 0.025386, -0.528606, 0.000401058, -9.90158e-07, -0.00151502, 0.912656, 0.487535, 0.353523, 0.0035753, 0.0103791, 0.0153834
-0.02139, 0.00774784, -0.546404, 0.000490126, 1.57574e-05, -0.00154136, 0.916012, 0.484733, 0.355101, 0.00355364, 0.0103112, 0.0152808
-0.0197851, -0.00776087, -0.560026, 0.000564571, 3.95172e-05, -0.00156759, 0.919166, 0.480986, 0.35624, 0.00352648, 0.0102452, 0.015181
-0.0182819, -0.0176562, -0.568071, 0.000609013, 5.9922e-05, -0.00158429, 0.922128, 0.476666, 0.35701, 0.00349657, 0.0101804, 0.0150875
-0.0168993, -0.0243106, -0.573066, 0.000634944, 8.12044e-05, -0.00159928, 0.924948, 0.472475, 0.357554, 0.00346772, 0.0101158, 0.0150002
-0.014392, -0.031984, -0.579258, 0.000662552, 0.000116077, -0.00161931, 0.927689, 0.469004, 0.357994, 0.00344267, 0.0100505, 0.0149187
-0.0115478, -0.038735, -0.584843, 0.000682132, 0.000149674, -0.00163233, 0.93038, 0.466562, 0.358481, 0.00342238, 0.00998526, 0.0148438
-0.00904206, -0.0436056, -0.58977, 0.000695279, 0.000175057, -0.00163848, 0.933083, 0.465272, 0.35905, 0.00340689, 0.00992104, 0.0147755
-0.00790072, -0.044884, -0.593356, 0.000704037, 0.00018007, -0.00163092, 0.935858, 0.465081, 0.359652, 0.00339553, 0.00985825, 0.0147132
-0.00989619, -0.0402941, -0.594791, 0.000716493, 0.000168235, -0.0016289, 0.938738, 0.46592, 0.360244, 0.00338739, 0.00979677, 0.014656
-0.0142779, -0.0315128, -0.591859, 0.000731948, 0.000133291, -0.00161358, 0.941748, 0.467734, 0.360716, 0.00338138, 0.00973629, 0.0146034
-0.0169123, -0.0262841, -0.588405, 0.000743754, 0.000112816, -0.00160186, 0.944906, 0.470433, 0.360929, 0.00337536, 0.00967604, 0.0145544
-0.0216616, -0.0236067, -0.578327, 0.000756753, 6.74766e-05, -0.0015864, 0.948115, 0.47387, 0.360793, 0.00336732, 0.00961523, 0.01451
-0.0268495, -0.0240371, -0.567353, 0.000767951, 2.80328e-05, -0.00158842, 0.951188, 0.477909, 0.360182, 0.00335608, 0.00955152, 0.0144703
-0.0273899, -0.0262867, -0.570481, 0.000751588, 2.66642e-05, -0.00160654, 0.95373, 0.482288, 0.359127, 0.00334146, 0.00948156, 0.0144363
-0.0259307, -0.0279801, -0.583749, 0.000711135, 3.41468e-05, -0.00162944, 0.955085, 0.486719, 0.357893, 0.00332455, 0.00940115, 0.0144099
-0.0309569, -0.0306798, -0.587751, 0.000691417, -5.48783e-06, -0.00165532, 0.954322, 0.491132, 0.356728, 0.00330661, 0.00930367, 0.0143895
-0.039778, -0.0339711, -0.587019, 0.000682695, -7.66014e-05, -0.00167719, 0.950112, 0.495324, 0.355431, 0.0032873, 0.0091756, 0.0143738
-0.0519248, -0.0377503, -0.585831, 0.000677583, -0.000178239, -0.00170357, 0.940578, 0.499236, 0.35388, 0.00326613, 0.00900095, 0.0143617
-0.0701811, -0.0431115, -0.580273, 0.000689437, -0.000334956, -0.00173204, 0.923727, 0.502666, 0.352115, 0.00324378, 0.00876118, 0.0143528
-0.0878454, -0.047937, -0.576227, 0.000700235, -0.000485692, -0.00175584, 0.898177, 0.505358, 0.350141, 0.00322021, 0.00844046, 0.0143467
-0.110828, -0.0537117, -0.574048, 0.000708037, -0.000684476, -0.00178579, 0.863992, 0.507319, 0.347971, 0.00319496, 0.00803722, 0.0143427
-0.132191, -0.0585427, -0.572005, 0.000713981, -0.00086151, -0.00181234, 0.822965, 0.508376, 0.345673, 0.0031679, 0.00756633, 0.0143402
-0.146394, -0.061433, -0.569022, 0.00071826, -0.000968373, -0.00182809, 0.778501, 0.508417, 0.343315, 0.00313853, 0.00706016, 0.0143385
-0.152603, -0.0615749, -0.564379, 0.000717601, -0.00098756, -0.00184338, 0.734553, 0.508019, 0.34108, 0.00310695, 0.00656358, 0.0143372
-0.152619, -0.05825, -0.561304, 0.000703634, -0.000941606, -0.00185634, 0.69423, 0.507454, 0.339144, 0.00307445, 0.00611487, 0.0143359
-0.147391, -0.0525239, -0.559195, 0.000680778, -0.000848028, -0.00186497, 0.65907, 0.506852, 0.337549, 0.00304219, 0.00573739, 0.0143345
-0.141039, -0.045887, -0.557281, 0.000654798, -0.000746844, -0.00187201, 0.628954, 0.506313, 0.336306, 0.00301137, 0.0054347, 0.0143326
-0.134397, -0.0392492, -0.556269, 0.000628293, -0.000652143, -0.00187663, 0.603094, 0.505746, 0.335303, 0.00298281, 0.00519828, 0.0143302
-0.129131, -0.0331837, -0.556664, 0.000603451, -0.000578964, -0.00188156, 0.58067, 0.505154, 0.334426, 0.00295748, 0.00501565, 0.0143269
-0.110113, -0.0330104, -0.553345, 0.000600982, -0.000444932, -0.00185951, 0.561102, 0.504683, 0.333608, 0.00293634, 0.00487574, 0.0143229
-0.0928331, -0.0325983, -0.554394, 0.00059355, -0.000333551, -0.00183584, 0.544139, 0.504613, 0.332818, 0.00292004, 0.00477019, 0.014318
-0.0765496, -0.0327323, -0.553406, 0.000589572, -0.000234705, -0.00181249, 0.52967, 0.505293, 0.332192, 0.00290885, 0.00469258, 0.0143124
-0.0653931, -0.0313528, -0.549958, 0.000584132, -0.000165954, -0.00179828, 0.517899, 0.506992, 0.331767, 0.00290228, 0.00463895, 0.0143058
-0.0570133, -0.0290951, -0.546661, 0.00057891, -0.000117094, -0.00178519, 0.509235, 0.509813, 0.33144, 0.00289912, 0.00460631, 0.0142989
-0.0509312, -0.0267823, -0.544429, 0.000575926, -8.65533e-05, -0.00177218, 0.503696, 0.513596, 0.331237, 0.00289797, 0.00458966, 0.0142916
-0.047048, -0.0241177, -0.544747, 0.000575433, -6.97052e-05, -0.0017651, 0.501029, 0.518053, 0.331183, 0.00289774, 0.0045836, 0.0142835
-0.0442576, -0.0218954, -0.547588, 0.000577347, -6.2717e-05, -0.00175716, 0.500916, 0.522913, 0.331278, 0.0028976, 0.00458263, 0.0142745
-0.0423387, -0.0202574, -0.554399, 0.00058171, -5.98028e-05, -0.00175402, 0.502995, 0.527892, 0.331511, 0.00289671, 0.00458045, 0.0142648
-0.0422217, -0.0183571, -0.556956, 0.000586513, -5.80719e-05, -0.00175465, 0.506796, 0.532694, 0.331903, 0.00289417, 0.00457001, 0.0142546
-0.0431598, -0.0167851, -0.560224, 0.000593287, -4.65821e-05, -0.00176636, 0.511895, 0.536967, 0.332363, 0.00288919, 0.00454398, 0.0142442
-0.0432953, -0.016036, -0.562671, 0.000597668, -4.41596e-05, -0.0017617, 0.517825, 0.540381, 0.332727, 0.0028808, 0.00449502, 0.0142343
-0.043057, -0.0160585, -0.565899, 0.000599837, -3.84388e-05, -0.00175433, 0.523878, 0.54248, 0.332995, 0.00286926, 0.00442147, 0.0142244
-0.0421995, -0.0168808, -0.569997, 0.000599462, -2.74497e-05, -0.00175336, 0.529533, 0.542775, 0.333151, 0.00285528, 0.0043267, 0.0142139
-0.0413871, -0.0175929, -0.573945, 0.000600139, -1.89137e-05, -0.00175123, 0.534443, 0.540988, 0.333104, 0.00283897, 0.00421432, 0.0142029
-0.0508789, -0.00722053, -0.580046, 0.000657262, -4.46293e-05, -0.00162636, 0.538294, 0.53704, 0.332917, 0.00282077, 0.00408896, 0.0141909
-0.0585538, -0.00028087, -0.588062, 0.000702924, -6.35784e-05, -0.0015412, 0.540967, 0.531118, 0.332544, 0.0028013, 0.00395653, 0.0141773
-0.0622422, 0.000801645, -0.587017, 0.000722243, -6.17879e-05, -0.00150546, 0.542343, 0.523643, 0.331975, 0.00278041, 0.00382196, 0.0141631
-0.0593361, -0.00603357, -0.581753, 0.000718813, -1.14419e-05, -0.0015134, 0.542266, 0.515004, 0.331464, 0.00275752, 0.00368933, 0.0141505
-0.0584726, -0.0107666, -0.581092, 0.000724027, 2.13677e-05, -0.00150404, 0.540821, 0.505296, 0.331115, 0.00273259, 0.00356363, 0.0141391
-0.0517416, -0.0197185, -0.581969, 0.000718155, 8.38684e-05, -0.00153683, 0.538261, 0.494672, 0.330643, 0.00270519, 0.0034489, 0.0141269
-0.0425594, -0.025817, -0.578257, 0.000700052, 0.000135245, -0.00158641, 0.534497, 0.483393, 0.329978, 0.00267476, 0.00334821, 0.0141132
-0.0335949, -0.0274849, -0.574205, 0.000676365, 0.00016584, -0.00162184, 0.529239, 0.472073, 0.329332, 0.00264165, 0.00326218, 0.0140997
-0.0296351, -0.0248528, -0.570323, 0.00065751, 0.00016545, -0.0016168, 0.522457, 0.461226, 0.328845, 0.00260703, 0.00319011, 0.0140882
0.00458721, -0.0395648, -0.564251, 0.000615885, 0.000319842, -0.00177557, 0.514546, 0.451199, 0.32841, 0.00257251, 0.00313137, 0.0140779
0.0492156, -0.0521708, -0.557871, 0.000560988, 0.000493903, -0.00197924, 0.506123, 0.442394, 0.327912, 0.00254013, 0.00308496, 0.0140671
0.0948189, -0.0715319, -0.546631, 0.00052528, 0.000682508, -0.00216658, 0.497766, 0.435276, 0.327431, 0.0025122, 0.00304902, 0.0140575
0.128319, -0.0776337, -0.538508, 0.000486892, 0.000791104, -0.00227717, 0.490073, 0.430085, 0.327141, 0.0024901, 0.00302184, 0.0140492
0.148316, -0.0765881, -0.530962, 0.000456728, 0.000839226, -0.00232041, 0.48375, 0.426862, 0.327028, 0.00247402, 0.00300299, 0.0140428
0.156759, -0.0728861, -0.525657, 0.000439963, 0.000850677, -0.00232759, 0.47945, 0.425525, 0.32695, 0.00246344, 0.00299171, 0.0140376
0.185631, -0.0848474, -0.527931, 0.000435224, 0.000918823, -0.00251586, 0.477418, 0.425788, 0.326745, 0.00245748, 0.00298602, 0.0140329
0.252478, -0.131105, -0.524034, 0.000428822, 0.0010416, -0.00291671, 0.477389, 0.427253, 0.326572, 0.00245494, 0.0029835, 0.0140274
0.285071, -0.157755, -0.523448, 0.000421566, 0.00107844, -0.00314198, 0.479006, 0.429617, 0.326708, 0.00245424, 0.00298257, 0.0140199
0.304535, -0.170659, -0.523852, 0.000409164, 0.00107876, -0.00325551, 0.481825, 0.432549, 0.327168, 0.0024537, 0.00298161, 0.014014
0.310196, -0.172251, -0.528483, 0.000404405, 0.00107246, -0.00327474, 0.485558, 0.435865, 0.327986, 0.00245196, 0.00297836, 0.0140108
0.301214, -0.16148, -0.529078, 0.000423948, 0.00110153, -0.00328398, 0.490018, 0.43936, 0.328987, 0.00244803, 0.00297064, 0.0140088
0.289579, -0.141708, -0.526741, 0.000468144, 0.00116307, -0.00337116, 0.495036, 0.442788, 0.329871, 0.00244114, 0.0029577, 0.0140054
0.278389, -0.115159, -0.522148, 0.000533665, 0.00125972, -0.00355221, 0.500451, 0.445997, 0.330512, 0.00243064, 0.00293932, 0.0139979
0.270538, -0.0846996, -0.515613, 0.000609234, 0.00138596, -0.00380764, 0.506125, 0.448861, 0.330678, 0.00241648, 0.00291595, 0.0139854
0.266742, -0.0518079, -0.511369, 0.000685876, 0.00153441, -0.00411056, 0.511679, 0.451197, 0.330288, 0.00239934, 0.00288841, 0.0139682
0.266698, -0.0205527, -0.506484, 0.000753544, 0.00167805, -0.00441621, 0.516656, 0.45281, 0.329522, 0.00238047, 0.00285802, 0.0139468
0.26936, 0.00946814, -0.502106, 0.000811601, 0.00181496, -0.00471376, 0.520682, 0.453559, 0.328627, 0.00236148, 0.00282641, 0.0139222
0.274, 0.0355588, -0.498805, 0.000856701, 0.00193156, -0.00497022, 0.523434, 0.453392, 0.327858, 0.00234387, 0.00279468, 0.0138954
0.280163, 0.0577666, -0.495076, 0.000890562, 0.00202751, -0.0051741, 0.524574, 0.452319, 0.327321, 0.00232885, 0.00276402, 0.0138664
0.288557, 0.0714508, -0.494238, 0.000917169, 0.00208575, -0.00528116, 0.523893, 0.45044, 0.326967, 0.00231704, 0.00273539, 0.0138342
0.302846, 0.0759035, -0.492642, 0.000946192, 0.00211178, -0.00526299, 0.521285, 0.447916, 0.326836, 0.00230861, 0.00271016, 0.0137954
0.307663, 0.0741766, -0.490655, 0.000951618, 0.00210946, -0.00521066, 0.516975, 0.445056, 0.326838, 0.00230332, 0.00269016, 0.0137481
0.336296, 0.15494, -0.486885, 0.000976521, 0.00233723, -0.00557627, 0.511597, 0.442289, 0.326833, 0.00230045, 0.0026766, 0.013693
0.484591, 0.255036, -0.464311, 0.00103436, 0.00265349, -0.00481465, 0.506177, 0.440071, 0.326897, 0.00229898, 0.0026684, 0.0136367
0.573418, 0.311132, -0.45457, 0.00104045, 0.00278372, -0.00414419, 0.50182, 0.439168, 0.327387, 0.00229791, 0.00266435, 0.0135676
0.602964, 0.330702, -0.454755, 0.00103209, 0.00280854, -0.00382372, 0.499146, 0.439606, 0.328465, 0.00229614, 0.00266219, 0.0134824
0.535569, 0.329448, -0.478544, 0.00109269, 0.00282222, -0.00487666, 0.498191, 0.441091, 0.329945, 0.0022935, 0.00266037, 0.0133879
0.464566, 0.335359, -0.507813, 0.00117283, 0.00287116, -0.00613503, 0.498376, 0.442803, 0.331342, 0.00229093, 0.00265785, 0.0132967
0.391134, 0.408826, -0.537191, 0.00130648, 0.00305984, -0.00801484, 0.499531, 0.44462, 0.332562, 0.00228839, 0.00265414, 0.0132124
0.330548, 0.437195, -0.555527, 0.00139512, 0.00320518, -0.00933467, 0.501455, 0.446254, 0.333883, 0.00228592, 0.00264845, 0.0131377
0.287868, 0.419188, -0.564278, 0.00143289, 0.00326594, -0.0100175, 0.504269, 0.4478, 0.334877, 0.00228338, 0.00264126, 0.0130714
0.260093, 0.372321, -0.566109, 0.00143498, 0.00327363, -0.0103538, 0.507976, 0.449489, 0.335254, 0.0022804, 0.00263213, 0.0130077
0.250075, 0.307468, -0.566646, 0.00139483, 0.00324458, -0.0104284, 0.512391, 0.451547, 0.334996, 0.00227652, 0.00262017, 0.0129461
0.248434, 0.238166, -0.561171, 0.00132604, 0.00325176, -0.0104913, 0.517253, 0.453993, 0.334215, 0.00227133, 0.00260512, 0.0128885
0.243409, 0.193958, -0.56747, 0.00130437, 0.00335096, -0.010766, 0.522122, 0.456625, 0.333117, 0.00226477, 0.00258721, 0.0128409
0.247676, 0.178789, -0.583602, 0.00128869, 0.00339553, -0.0108088, 0.526429, 0.459057, 0.332169, 0.00225745, 0.00256774, 0.0128102
0.271838, 0.154823, -0.592774, 0.00121844, 0.00340554, -0.0107383, 0.530024, 0.460818, 0.331407, 0.00225001, 0.00254825, 0.0127922
0.316492, 0.13155, -0.595715, 0.00110521, 0.00340055, -0.0106598, 0.532602, 0.461664, 0.330578, 0.00224207, 0.00252861, 0.0127793
0.37797, 0.11438, -0.593802, 0.000968583, 0.00341055, -0.0106547, 0.533731, 0.461412, 0.32962, 0.00223354, 0.00250887, 0.0127686
0.450817, 0.10778, -0.583695, 0.000827614, 0.00344616, -0.0107537, 0.532922, 0.459898, 0.328647, 0.00222462, 0.00248906, 0.0127579
0.531215, 0.113799, -0.568028, 0.000691237, 0.00350992, -0.0109613, 0.529885, 0.457129, 0.327585, 0.0022157, 0.00246863, 0.012746
0.613402, 0.129317, -0.54744, 0.00057226, 0.00360406, -0.0112818, 0.524511, 0.453285, 0.326582, 0.00220731, 0.0024472, 0.0127313
0.689882, 0.154193, -0.528442, 0.000472621, 0.0037035, -0.0116655, 0.51703, 0.448708, 0.325912, 0.00219997, 0.00242515, 0.0127128
0.749615, 0.183004, -0.509612, 0.000402126, 0.00378702, -0.0120374, 0.507944, 0.443737, 0.325736, 0.00219387, 0.00240336, 0.0126897
0.787915, 0.215837, -0.484315, 0.000361046, 0.00383953, -0.0123736, 0.498139, 0.438685, 0.325897, 0.00218878, 0.00238256, 0.0126641
0.924592, 0.266124, -0.454973, 0.000251566, 0.00409706, -0.0133013, 0.488645, 0.433928, 0.326184, 0.00218455, 0.00236372, 0.0126387
1.00089, 0.300132, -0.431054, 0.000206707, 0.00424574, -0.0138927, 0.480431, 0.430494, 0.326701, 0.00218196, 0.00234874, 0.0126126
1.08059, 0.332467, -0.414274, 0.000168612, 0.00439306, -0.0145008, 0.473947, 0.42838, 0.327379, 0.0021803, 0.00233726, 0.0125865
1.16792, 0.402051, -0.386195, 0.000146597, 0.00453989, -0.0154014, 0.46951, 0.427758, 0.32818, 0.00217912, 0.00232926, 0.01256
1.35456, 0.455894, -0.353952, 7.96306e-05, 0.00476668, -0.0165666, 0.467742, 0.428789, 0.329044, 0.00217772, 0.00232472, 0.0125354
1.50457, 0.425282, -0.334803, -4.21775e-05, 0.00480222, -0.016889, 0.468504, 0.432012, 0.330432, 0.00217514, 0.00232095, 0.0125121
1.58182, 0.389337, -0.323946, -0.000134217, 0.00475574, -0.0169541, 0.470862, 0.436745, 0.33255, 0.00217136, 0.00231787, 0.0124927
1.60436, 0.36336, -0.311313, -0.000200084, 0.00472641, -0.0168388, 0.474544, 0.442263, 0.334996, 0.00216577, 0.00231504, 0.0124761
1.60665, 0.334796, -0.297462, -0.000293395, 0.00472228, -0.0165233, 0.479202, 0.448099, 0.337275, 0.00215713, 0.00231041, 0.0124562
1.57697, 0.325696, -0.293484, -0.000312857, 0.00483651, -0.0164974, 0.484469, 0.454067, 0.339171, 0.00214408, 0.00230155, 0.0124214
1.53567, 0.334874, -0.297102, -0.000220117, 0.00510334, -0.0171968, 0.490408, 0.460065, 0.340173, 0.00212467, 0.00228549, 0.0123517
1.49986, 0.360158, -0.306981, -1.60425e-05, 0.00552457, -0.0187499, 0.497013, 0.466047, 0.339914, 0.00209794, 0.00225987, 0.0122316
1.4805, 0.397084, -0.315625, 0.000260122, 0.00607072, -0.0209739, 0.504043, 0.472009, 0.338255, 0.00206482, 0.00222261, 0.0120612
1.47884, 0.439506, -0.326262, 0.000554047, 0.0066691, -0.0235034, 0.511037, 0.477898, 0.335347, 0.00202823, 0.00217525, 0.0118533
1.48803, 0.482981, -0.338464, 0.000824932, 0.00723039, -0.0259767, 0.51756, 0.48361, 0.331761, 0.00199206, 0.00212307, 0.0116279
1.50138, 0.524737, -0.352778, 0.00104855, 0.00769435, -0.0281152, 0.523346, 0.489011, 0.328255, 0.00195984, 0.00207204, 0.0114085
1.51479, 0.562158, -0.369196, 0.00121072, 0.00804004, -0.0297476, 0.52816, 0.493933, 0.325417, 0.00193383, 0.00202571, 0.0112163
1.52626, 0.592207, -0.384779, 0.00131332, 0.00826409, -0.0308242, 0.531637, 0.498133, 0.323627, 0.00191457, 0.00198626, 0.011058
1.53366, 0.611064, -0.395845, 0.00136469, 0.00837669, -0.0313825, 0.533315, 0.501392, 0.322912, 0.00190088, 0.00195449, 0.010927
1.53905, 0.608838, -0.407164, 0.00137738, 0.0083791, -0.0313989, 0.532755, 0.503579, 0.32309, 0.00189134, 0.00193003, 0.010815
1.53683, 0.590706, -0.415683, 0.00136246, 0.00833076, -0.0311316, 0.529594, 0.504727, 0.323916, 0.00188471, 0.00191176, 0.0107156
1.52778, 0.55797, -0.418164, 0.0013289, 0.00825377, -0.0306499, 0.524157, 0.50507, 0.325055, 0.00187984, 0.00189852, 0.010626
1.52208, 0.514421, -0.421664, 0.00129501, 0.00818377, -0.0300648, 0.517351, 0.504987, 0.326221, 0.00187601, 0.00188896, 0.0105513
1.51853, 0.461623, -0.428772, 0.00126464, 0.00812624, -0.0294563, 0.51022, 0.504876, 0.327291, 0.00187293, 0.00188165, 0.0104955
1.51157, 0.399544, -0.439525, 0.00123569, 0.00807234, -0.0288651, 0.503541, 0.504936, 0.328182, 0.00187031, 0.00187583, 0.0104581
1.50546, 0.330977, -0.448841, 0.00121421, 0.00802225, -0.0283512, 0.497521, 0.505062, 0.328853, 0.00186804, 0.00187094, 0.0104358
1.49171, 0.258087, -0.454406, 0.00119731, 0.0079575, -0.0279536, 0.491713, 0.505127, 0.329265, 0.00186618, 0.0018661, 0.0104222
1.47076, 0.182465, -0.460305, 0.001189, 0.00787549, -0.027698, 0.485856, 0.504981, 0.329369, 0.00186479, 0.00186082, 0.0104125
1.44213, 0.108253, -0.460687, 0.00118752, 0.0077784, -0.0276048, 0.479887, 0.504465, 0.329224, 0.00186382, 0.0018549, 0.010403
1.40991, 0.0361167, -0.455603, 0.00120048, 0.0076728, -0.027695, 0.47405, 0.503234, 0.328887, 0.00186309, 0.00184846, 0.0103897
1.38104, -0.0346884, -0.44765, 0.00123344, 0.00757008, -0.0279547, 0.468731, 0.500919, 0.328378, 0.00186211, 0.00184201, 0.0103676
1.35921, -0.0989579, -0.436197, 0.0012796, 0.00748283, -0.0283181, 0.464223, 0.497486, 0.327706, 0.00186035, 0.00183602, 0.0103345
1.34734, -0.151422, -0.431812, 0.00132653, 0.00742158, -0.0286781, 0.460897, 0.493257, 0.326828, 0.00185766, 0.00183088, 0.010293
1.34292, -0.19105, -0.433504, 0.00136629, 0.0073801, -0.0289776, 0.458783, 0.488686, 0.325829, 0.00185428, 0.0018263, 0.010247
1.34748, -0.197557, -0.434582, 0.00137472, 0.00737424, -0.0290133, 0.457834, 0.484046, 0.32481, 0.00185042, 0.00182114, 0.0101976
1.35463, -0.197961, -0.437962, 0.00137793, 0.00736521, -0.0290126, 0.457852, 0.479686, 0.32402, 0.00184669, 0.00181505, 0.0101488
1.3595, -0.193724, -0.449449, 0.00137692, 0.00734156, -0.0289915, 0.458504, 0.475648, 0.323595, 0.00184333, 0.0018083, 0.0100999
1.36134, -0.183143, -0.468432, 0.00137036, 0.00730033, -0.0289401, 0.459555, 0.471833, 0.323589, 0.00184033, 0.00180033, 0.010048
1.3594, -0.166703, -0.490542, 0.00135904, 0.00724835, -0.0288601, 0.460761, 0.468243, 0.324014, 0.00183774, 0.00179103, 0.00999202
1.35309, -0.143411, -0.515221, 0.00134334, 0.00718435, -0.0287483, 0.461938, 0.464875, 0.324849, 0.00183553, 0.00178042, 0.00993105
1.34392, -0.119491, -0.5377, 0.00132913, 0.00712231, -0.0286391, 0.462827, 0.461804, 0.32602, 0.00183376, 0.00176909, 0.00986677
1.32723, -0.0910714, -0.564972, 0.00131337, 0.00704626, -0.0285022, 0.46318, 0.459162, 0.327419, 0.00183246, 0.00175756, 0.0098023
1.30444, -0.0641772, -0.59743, 0.0012994, 0.00695889, -0.0283829, 0.463025, 0.45691, 0.329039, 0.00183152, 0.00174516, 0.00973941
1.27761, -0.0383876, -0.62856, 0.00128944, 0.00687389, -0.0282782, 0.46183, 0.455267, 0.330659, 0.00183089, 0.00173345, 0.00968084
1.24396, -0.0125825, -0.660955, 0.00128349, 0.00678282, -0.0281814, 0.459506, 0.454204, 0.332223, 0.00183033, 0.00172207, 0.00962619
1.21235, 0.00894865, -0.686313, 0.00128335, 0.00670505, -0.0281214, 0.456183, 0.453646, 0.333743, 0.00182974, 0.00171083, 0.00957789
1.1752, 0.0207321, -0.72376, 0.00128174, 0.00662554, -0.0280881, 0.451621, 0.453723, 0.334925, 0.00182884, 0.00170081, 0.00953681
1.13988, 0.0289386, -0.754029, 0.00128259, 0.00656792, -0.0280533, 0.445896, 0.454552, 0.335378, 0.00182705, 0.00169264, 0.00950036
1.10833, 0.0343784, -0.779908, 0.00128561, 0.00652797, -0.0280338, 0.440209, 0.455898, 0.335354, 0.0018245, 0.00168576, 0.00946782
1.08206, 0.0388719, -0.801684, 0.00129025, 0.00650235, -0.0280354, 0.435609, 0.457536, 0.335235, 0.00182156, 0.00168013, 0.00943964
1.0531, 0.0413853, -0.833612, 0.00129163, 0.00648653, -0.0280406, 0.432645, 0.459208, 0.335345, 0.00181875, 0.00167582, 0.00941744
1.03106, 0.0440545, -0.864141, 0.00129319, 0.00648082, -0.028056, 0.43127, 0.460734, 0.335814, 0.00181635, 0.00167256, 0.00940095
1.0148, 0.0487558, -0.892891, 0.00129487, 0.00647681, -0.0280764, 0.43114, 0.462033, 0.336618, 0.00181436, 0.00167004, 0.00938909
1.00693, 0.0523466, -0.915029, 0.00129313, 0.00647753, -0.0280786, 0.432238, 0.463034, 0.337588, 0.00181267, 0.00166782, 0.00938083
1.00581, 0.0551068, -0.930617, 0.00128924, 0.00647735, -0.0280667, 0.434157, 0.463707, 0.338611, 0.00181122, 0.00166557, 0.00937497
1.01141, 0.0569924, -0.938882, 0.00128237, 0.00647272, -0.0280452, 0.436654, 0.463964, 0.339528, 0.00180992, 0.001663, 0.00937065
1.02344, 0.0522586, -0.941911, 0.00127126, 0.00646446, -0.0280064, 0.439618, 0.463757, 0.340191, 0.00180859, 0.00165984, 0.00936638
1.04022, 0.0444096, -0.935165, 0.00125831, 0.00644542, -0.0279759, 0.442893, 0.46305, 0.340472, 0.00180713, 0.0016559, 0.00936071
1.05768, 0.0404791, -0.917841, 0.00124431, 0.00641108, -0.0279631, 0.446184, 0.461822, 0.340293, 0.00180545, 0.00165129, 0.0093524
1.0753, 0.0380241, -0.891163, 0.00122917, 0.00636654, -0.0279643, 0.449084, 0.460117, 0.339618, 0.00180349, 0.0016466, 0.00934076
1.09121, 0.041259, -0.857791, 0.00121136, 0.00631603, -0.0279619, 0.451369, 0.458019, 0.338472, 0.00180121, 0.00164215, 0.00932566
1.10344, 0.0495783, -0.808999, 0.00119078, 0.00625972, -0.0279791, 0.452845, 0.45574, 0.336937, 0.00179878, 0.00163856, 0.00930876
1.11457, 0.0592588, -0.758135, 0.00116924, 0.00621277, -0.0279994, 0.453608, 0.453406, 0.335202, 0.00179639, 0.00163607, 0.0092916
1.126, 0.0714322, -0.710724, 0.00114667, 0.00617573, -0.0280064, 0.454074, 0.451136, 0.333522, 0.00179427, 0.00163431, 0.0092755
1.1348, 0.0834206, -0.663944, 0.00112725, 0.00614089, -0.028021, 0.454587, 0.448979, 0.332064, 0.00179251, 0.00163272, 0.00926063
1.14135, 0.0952506, -0.619053, 0.00111111, 0.00610964, -0.0280408, 0.455444, 0.446987, 0.331006, 0.0017911, 0.00163129, 0.00924715
1.13969, 0.110111, -0.558622, 0.00109634, 0.006074, -0.028092, 0.45683, 0.445101, 0.330419, 0.00178992, 0.00162987, 0.0092342
1.13298, 0.12514, -0.494926, 0.00108431, 0.00602711, -0.0281445, 0.458317, 0.443356, 0.330099, 0.00178897, 0.00162804, 0.00922219
1.13312, 0.138344, -0.446652, 0.00107498, 0.00598741, -0.028165, 0.460226, 0.441753, 0.330115, 0.00178813, 0.001626, 0.00921078
1.1365, 0.149931, -0.407031, 0.00106864, 0.00594988, -0.0281678, 0.462221, 0.440298, 0.330284, 0.00178739, 0.00162369, 0.00919991
1.14336, 0.159471, -0.377653, 0.00106487, 0.00591864, -0.0281604, 0.464293, 0.439083, 0.330541, 0.00178678, 0.00162127, 0.0091904
1.15447, 0.168337, -0.360465, 0.00106234, 0.00589628, -0.0281395, 0.466652, 0.438094, 0.330899, 0.00178628, 0.00161897, 0.00918195
1.1695, 0.175755, -0.354641, 0.00106112, 0.00587819, -0.028115, 0.469593, 0.437253, 0.331392, 0.0017858, 0.00161681, 0.00917364
1.18807, 0.17854, -0.368583, 0.0010631, 0.00586107, -0.0280973, 0.473007, 0.436562, 0.331951, 0.00178535, 0.00161454, 0.00916547
1.20467, 0.175961, -0.420166, 0.00106822, 0.0058376, -0.0280896, 0.476639, 0.436076, 0.332493, 0.00178499, 0.00161199, 0.00915794
1.21534, 0.171886, -0.47192, 0.00107305, 0.00580062, -0.0280991, 0.48025, 0.43584, 0.332984, 0.00178476, 0.001609, 0.00915142
1.22067, 0.167923, -0.521964, 0.00107673, 0.00575498, -0.0281154, 0.483382, 0.435932, 0.333348, 0.00178467, 0.00160571, 0.0091465
1.22087, 0.163507, -0.570332, 0.00107915, 0.00570389, -0.0281358, 0.485587, 0.436443, 0.333547, 0.00178465, 0.00160223, 0.00914335
1.21728, 0.159581, -0.615573, 0.00108009, 0.0056485, -0.0281535, 0.486591, 0.437381, 0.333633, 0.00178455, 0.00159831, 0.00914108
1.21262, 0.156764, -0.654345, 0.00107919, 0.00559403, -0.0281605, 0.486162, 0.43876, 0.333673, 0.00178421, 0.00159363, 0.00913871
1.22259, 0.147496, -0.672478, 0.00106916, 0.0055654, -0.0281152, 0.483894, 0.440665, 0.333576, 0.00178326, 0.00158877, 0.00913451
1.23629, 0.143128, -0.683567, 0.00105971, 0.00555461, -0.0280519, 0.479835, 0.443113, 0.33324, 0.00178121, 0.00158447, 0.00912525
1.2353, 0.134553, -0.703825, 0.00104201, 0.00553072, -0.0279852, 0.474892, 0.445985, 0.33283, 0.00177794, 0.0015807, 0.00910862
1.23689, 0.125714, -0.718929, 0.00102218, 0.00551457, -0.0278922, 0.470102, 0.449153, 0.332573, 0.00177361, 0.00157752, 0.00908446
1.22277, 0.116137, -0.746079, 0.00100073, 0.00548281, -0.0278204, 0.466214, 0.45248, 0.332726, 0.00176872, 0.0015748, 0.0090555
1.20881, 0.106205, -0.773354, 0.000977775, 0.00545346, -0.0277325, 0.463656, 0.45583, 0.333316, 0.00176366, 0.00157275, 0.00902373
1.1899, 0.0956549, -0.808034, 0.000953174, 0.00542232, -0.0276408, 0.462686, 0.459098, 0.334325, 0.00175881, 0.00157137, 0.00899133
1.17094, 0.0853268, -0.845629, 0.000930138, 0.005394, -0.0275478, 0.463095, 0.462223, 0.33571, 0.00175442, 0.00157018, 0.00896007
1.16884, 0.0608477, -0.867057, 0.000887542, 0.00537264, -0.0273016, 0.46474, 0.465087, 0.337339, 0.00175077, 0.00156888, 0.00893216
1.1725, 0.0346402, -0.881898, 0.000848326, 0.00535421, -0.0270568, 0.467543, 0.467627, 0.339069, 0.00174795, 0.00156718, 0.0089088
1.17823, 0.0168125, -0.8944, 0.000825194, 0.00533703, -0.026896, 0.471438, 0.469765, 0.340744, 0.00174596, 0.0015646, 0.00889046
1.18572, 0.00798477, -0.905609, 0.000814908, 0.00531912, -0.026807, 0.47599, 0.471425, 0.342197, 0.00174473, 0.00156094, 0.0088771
1.19569, 0.00421039, -0.91268, 0.000809577, 0.00530039, -0.0267486, 0.480297, 0.47272, 0.343237, 0.00174396, 0.00155736, 0.00886705
1.20895, 0.00233116, -0.911675, 0.000805124, 0.00527914, -0.0266945, 0.484176, 0.47357, 0.3437, 0.00174355, 0.00155404, 0.00886013
1.22315, 0.001616, -0.898205, 0.00079977, 0.00524838, -0.0266326, 0.487829, 0.473872, 0.343481, 0.00174337, 0.00155006, 0.00885589
1.23323, 0.00268391, -0.870386, 0.000792963, 0.00519827, -0.0265595, 0.491011, 0.473611, 0.342535, 0.00174325, 0.00154434, 0.00885335
1.23795, 0.00401669, -0.831717, 0.000784841, 0.00513325, -0.0264763, 0.493013, 0.47296, 0.340951, 0.0017431, 0.00153772, 0.00885134
1.23288, 0.0127148, -0.780478, 0.000773936, 0.00505094, -0.0263724, 0.493519, 0.471973, 0.338902, 0.00174285, 0.00153024, 0.00884913
1.22451, 0.0224948, -0.728728, 0.000761917, 0.00497841, -0.0262712, 0.49246, 0.471037, 0.336665, 0.00174256, 0.00152419, 0.00884687
1.21186, 0.0311323, -0.67471, 0.000749244, 0.00491056, -0.0261708, 0.490372, 0.470105, 0.3345, 0.00174222, 0.00151921, 0.00884427
1.19643, 0.0389593, -0.619689, 0.00073619, 0.00484795, -0.0260737, 0.487993, 0.469193, 0.332656, 0.00174182, 0.00151523, 0.00884117
1.1892, 0.0490387, -0.578522, 0.000726987, 0.00480884, -0.0260109, 0.48614, 0.468251, 0.331339, 0.00174132, 0.00151234, 0.00883731
1.18205, 0.0620424, -0.543623, 0.000719927, 0.00477442, -0.0259555, 0.484697, 0.467085, 0.330514, 0.00174072, 0.00150925, 0.00883225
1.1663, 0.0716007, -0.500408, 0.000712683, 0.00471803, -0.0258957, 0.482799, 0.465665, 0.329987, 0.00173998, 0.00150444, 0.00882597
1.1497, 0.0778082, -0.459048, 0.000709436, 0.00465158, -0.0258577, 0.479873, 0.4641, 0.329633, 0.00173908, 0.0014971, 0.008819
1.13737, 0.0819053, -0.426506, 0.000709793, 0.00459207, -0.0258423, 0.475832, 0.46251, 0.329442, 0.00173808, 0.00148718, 0.00881158
1.11934, 0.0843977, -0.390136, 0.000711406, 0.00451866, -0.0258299, 0.471153, 0.461013, 0.32948, 0.00173703, 0.00147581, 0.00880401
1.09987, 0.086094, -0.352867, 0.000713924, 0.0044431, -0.0258216, 0.466616, 0.45967, 0.329797, 0.00173597, 0.0014648, 0.00879622
1.07914, 0.0870692, -0.313141, 0.000716906, 0.00436692, -0.0258168, 0.462756, 0.458566, 0.330355, 0.00173493, 0.00145535, 0.00878834
1.06089, 0.0887835, -0.273754, 0.000719965, 0.00430033, -0.0258133, 0.459936, 0.457803, 0.331048, 0.00173391, 0.00144808, 0.00878032
1.04746, 0.0911432, -0.236994, 0.000724022, 0.00424774, -0.0258128, 0.458159, 0.457479, 0.331762, 0.00173289, 0.00144282, 0.00877249
1.04528, 0.0921792, -0.21574, 0.000729505, 0.00422261, -0.0258233, 0.457402, 0.457708, 0.332395, 0.00173188, 0.00143929, 0.00876574
1.0464, 0.0924461, -0.199631, 0.00073541, 0.00420666, -0.0258364, 0.457392, 0.458507, 0.332892, 0.00173084, 0.00143689, 0.00876064
1.04995, 0.0931508, -0.189659, 0.000741335, 0.00419843, -0.0258488, 0.457975, 0.459774, 0.333209, 0.00172971, 0.00143532, 0.00875699
1.05435, 0.0944783, -0.185183, 0.000746362, 0.00419492, -0.025859, 0.458947, 0.4614, 0.333333, 0.00172851, 0.00143427, 0.00875453
1.05833, 0.0961534, -0.188316, 0.00074912, 0.00419448, -0.0258654, 0.460134, 0.463286, 0.3333, 0.00172723, 0.00143351, 0.00875287
1.06124, 0.097545, -0.197943, 0.00075011, 0.0041941, -0.0258682, 0.461433, 0.465366, 0.333075, 0.00172589, 0.00143286, 0.00875167
1.06171, 0.0994632, -0.213776, 0.000749623, 0.00419208, -0.0258656, 0.462654, 0.467546, 0.332685, 0.00172451, 0.00143219, 0.00875043
1.0601, 0.100881, -0.232193, 0.000748378, 0.00418656, -0.0258588, 0.463604, 0.469697, 0.33209, 0.00172322, 0.00143136, 0.00874875
1.05653, 0.103091, -0.253562, 0.000747304, 0.00417661, -0.0258503, 0.464102, 0.471688, 0.331277, 0.00172212, 0.00143021, 0.0087465
1.05062, 0.106905, -0.283167, 0.000746663, 0.00415621, -0.0258384, 0.464024, 0.473416, 0.330153, 0.00172127, 0.00142836, 0.00874394
1.04506, 0.110414, -0.309965, 0.000746341, 0.00413217, -0.0258253, 0.46336, 0.474843, 0.32877, 0.00172066, 0.00142557, 0.00874133
1.04156, 0.111825, -0.329806, 0.000745446, 0.00411161, -0.0258108, 0.462231, 0.476039, 0.327305, 0.00172016, 0.0014221, 0.00873819
1.03944, 0.11081, -0.348976, 0.00074272, 0.00409084, -0.0257869, 0.460848, 0.477085, 0.325955, 0.00171963, 0.0014185, 0.00873435
1.03872, 0.108909, -0.366726, 0.000738662, 0.00407243, -0.0257589, 0.459412, 0.478028, 0.324826, 0.00171905, 0.00141522, 0.00872995
1.03811, 0.105643, -0.385991, 0.000733058, 0.00405342, -0.0257252, 0.458054, 0.478921, 0.323899, 0.00171838, 0.00141229, 0.008725
1.03829, 0.1023, -0.406643, 0.000726881, 0.00403432, -0.0256892, 0.456871, 0.479763, 0.323143, 0.0017177, 0.00140971, 0.00871996
1.04017, 0.0967953, -0.420724, 0.000721341, 0.00402259, -0.0256557, 0.455947, 0.480583, 0.322566, 0.00171709, 0.00140767, 0.00871528
1.04177, 0.0903715, -0.428892, 0.00071738, 0.00401636, -0.0256306, 0.455308, 0.481449, 0.322155, 0.00171656, 0.00140616, 0.0087111
1.04316, 0.0843519, -0.43492, 0.000714316, 0.00401165, -0.025612, 0.454906, 0.482366, 0.321813, 0.00171615, 0.00140479, 0.00870757
1.0446, 0.0787365, -0.434724, 0.000712317, 0.00401107, -0.0256023, 0.45473, 0.483293, 0.321539, 0.00171585, 0.00140365, 0.00870513
1.04559, 0.0756323, -0.435665, 0.000711253, 0.00401001, -0.0255981, 0.454793, 0.484142, 0.321353, 0.00171566, 0.00140287, 0.00870386
1.04688, 0.0744512, -0.433443, 0.000711431, 0.00401059, -0.0255988, 0.455101, 0.484897, 0.321225, 0.00171552, 0.00140234, 0.00870336
1.05065, 0.0646429, -0.403455, 0.00071412, 0.00401844, -0.0256109, 0.455652, 0.485599, 0.321133, 0.00171541, 0.00140193, 0.00870312
1.05418, 0.0590051, -0.380475, 0.000716198, 0.00402221, -0.0256207, 0.456421, 0.486279, 0.321086, 0.00171528, 0.00140159, 0.00870281
1.05768, 0.0568059, -0.360493, 0.000717992, 0.00402496, -0.0256282, 0.457431, 0.487012, 0.321043, 0.00171509, 0.00140118, 0.00870217
1.06164, 0.0675391, -0.365734, 0.000721264, 0.00402295, -0.0256206, 0.458718, 0.487831, 0.32099, 0.00171476, 0.00140061, 0.00870068
1.0657, 0.0820005, -0.379177, 0.000725669, 0.00401835, -0.025607, 0.460363, 0.488748, 0.320939, 0.00171429, 0.00139986, 0.00869748
1.07093, 0.0977457, -0.394526, 0.00073089, 0.00401346, -0.0255883, 0.462374, 0.489727, 0.320908, 0.00171369, 0.00139901, 0.00869206
1.07768, 0.114248, -0.41508, 0.000737418, 0.00400753, -0.0255684, 0.464727, 0.490812, 0.320882, 0.00171299, 0.001398, 0.0086845
1.08511, 0.129925, -0.436345, 0.000744542, 0.00400232, -0.025551, 0.467349, 0.492045, 0.320871, 0.00171219, 0.00139687, 0.00867532
1.0931, 0.14415, -0.453948, 0.000752286, 0.00399701, -0.0255411, 0.470163, 0.493419, 0.320867, 0.00171133, 0.00139566, 0.00866521
1.10043, 0.155926, -0.464653, 0.000759524, 0.00399213, -0.0255369, 0.473071, 0.494915, 0.32087, 0.00171047, 0.00139443, 0.00865535
1.10918, 0.166243, -0.477442, 0.000767499, 0.00398684, -0.0255453, 0.475962, 0.496506, 0.320882, 0.00170972, 0.00139326, 0.0086473
1.11702, 0.174553, -0.488557, 0.000773838, 0.00398388, -0.0255533, 0.478638, 0.498101, 0.320905, 0.0017091, 0.00139222, 0.00864148
1.12313, 0.180925, -0.496953, 0.000778547, 0.00398238, -0.0255595, 0.481058, 0.49965, 0.320933, 0.0017086, 0.00139135, 0.00863778
1.12772, 0.186937, -0.498079, 0.000781995, 0.00398098, -0.0255613, 0.483172, 0.501047, 0.320964, 0.0017082, 0.00139066, 0.00863543
1.1312, 0.192049, -0.500447, 0.000784405, 0.00398067, -0.0255621, 0.484909, 0.50223, 0.32099, 0.00170788, 0.00139014, 0.0086341
1.13275, 0.195343, -0.504147, 0.000785991, 0.00398141, -0.0255642, 0.486236, 0.503224, 0.321005, 0.00170763, 0.00138977, 0.0086336
1.13348, 0.197402, -0.507559, 0.000787193, 0.00398213, -0.0255678, 0.487063, 0.504044, 0.321007, 0.00170742, 0.00138954, 0.0086333
1.13257, 0.197415, -0.51103, 0.000787891, 0.00398255, -0.0255711, 0.487282, 0.504673, 0.321005, 0.00170721, 0.0013894, 0.00863196
1.12966, 0.194385, -0.514903, 0.000788077, 0.00398206, -0.0255697, 0.486835, 0.505117, 0.320989, 0.00170689, 0.0013893, 0.00862789
1.12527, 0.18796, -0.519916, 0.000787973, 0.0039803, -0.0255587, 0.485772, 0.505353, 0.320952, 0.00170641, 0.00138918, 0.00862045
1.12064, 0.179222, -0.524801, 0.000787895, 0.00397771, -0.0255394, 0.484221, 0.50533, 0.320906, 0.0017058, 0.00138896, 0.00861065
1.11761, 0.169972, -0.527884, 0.000787677, 0.00397537, -0.0255164, 0.482374, 0.505057, 0.320859, 0.00170512, 0.00138861, 0.00859963
1.11765, 0.160636, -0.528695, 0.000786346, 0.00397429, -0.0254854, 0.480421, 0.504591, 0.320812, 0.00170438, 0.00138816, 0.00858823
1.11968, 0.149632, -0.526281, 0.000783754, 0.00397436, -0.0254432, 0.478502, 0.504038, 0.320781, 0.00170354, 0.00138772, 0.00857637
1.1228, 0.13758, -0.524352, 0.000780502, 0.00397438, -0.0253933, 0.476759, 0.503586, 0.320773, 0.00170265, 0.00138733, 0.00856382
1.12467, 0.125461, -0.516821, 0.000776801, 0.00397448, -0.0253479, 0.475245, 0.503304, 0.320782, 0.0017019, 0.00138703, 0.00855227
1.12545, 0.114242, -0.507309, 0.000773624, 0.00397402, -0.0253113, 0.474021, 0.50322, 0.320791, 0.00170138, 0.00138681, 0.00854306
1.12583, 0.105372, -0.501653, 0.000771627, 0.00397346, -0.0252865, 0.473158, 0.503366, 0.3208, 0.00170107, 0.00138666, 0.00853652
1.12365, 0.0890921, -0.463155, 0.000765141, 0.0039718, -0.0252459, 0.472639, 0.503717, 0.320805, 0.0017009, 0.00138656, 0.00853231
1.11965, 0.0764185, -0.432228, 0.000760091, 0.00396751, -0.0252206, 0.472356, 0.504178, 0.320797, 0.00170077, 0.00138647, 0.00852985
1.11617, 0.0684437, -0.406621, 0.00075663, 0.00396506, -0.0252076, 0.472388, 0.504774, 0.320788, 0.00170056, 0.00138639, 0.00852846
1.11387, 0.0649089, -0.394864, 0.000754942, 0.00396481, -0.0252028, 0.472788, 0.505516, 0.320785, 0.00170022, 0.00138625, 0.00852757
1.11342, 0.0650214, -0.387248, 0.000754968, 0.00396545, -0.0252041, 0.473589, 0.506397, 0.320784, 0.00169973, 0.001386, 0.00852681
1.11417, 0.0683524, -0.383093, 0.000756508, 0.00396657, -0.0252074, 0.474806, 0.507425, 0.320778, 0.00169906, 0.00138559, 0.00852569
1.11693, 0.0740624, -0.382091, 0.000760079, 0.00396688, -0.0252124, 0.476444, 0.508593, 0.320777, 0.00169822, 0.00138499, 0.00852371
1.12209, 0.0874798, -0.399521, 0.000767057, 0.00396435, -0.0252123, 0.478511, 0.509925, 0.320781, 0.00169723, 0.00138417, 0.00852057
1.12852, 0.101532, -0.424904, 0.000775353, 0.00395623, -0.0252096, 0.481069, 0.511465, 0.320788, 0.00169617, 0.00138292, 0.00851612
1.13698, 0.114821, -0.448198, 0.000785109, 0.00394442, -0.0252058, 0.484065, 0.513154, 0.3208, 0.00169513, 0.00138125, 0.00850998
1.14669, 0.127047, -0.471739, 0.000795189, 0.00392986, -0.0252006, 0.487387, 0.514936, 0.320817, 0.00169412, 0.00137931, 0.00850166
1.15796, 0.137754, -0.503968, 0.00080535, 0.00390954, -0.0252036, 0.49094, 0.516809, 0.320848, 0.00169316, 0.00137715, 0.00849163
1.17126, 0.144335, -0.528446, 0.00081541, 0.00389302, -0.0252223, 0.494517, 0.518898, 0.320874, 0.00169225, 0.00137514, 0.00848273
1.1822, 0.140231, -0.506854, 0.000824377, 0.0038786, -0.0252679, 0.497928, 0.521222, 0.320868, 0.00169134, 0.00137335, 0.00847685
1.19055, 0.13522, -0.493481, 0.000829515, 0.0038658, -0.0252989, 0.501077, 0.523659, 0.320837, 0.00169038, 0.00137167, 0.00847389
1.19684, 0.130897, -0.485811, 0.000832146, 0.0038569, -0.025317, 0.503985, 0.526091, 0.320824, 0.00168942, 0.00137017, 0.0084724
1.20149, 0.128224, -0.483952, 0.000833749, 0.00385237, -0.0253272, 0.506619, 0.528404, 0.320831, 0.00168844, 0.00136893, 0.0084714
1.20476, 0.125766, -0.485093, 0.000834031, 0.00385016, -0.0253315, 0.508914, 0.530552, 0.320861, 0.00168747, 0.00136794, 0.00847047
1.20639, 0.122547, -0.489438, 0.000832602, 0.00384966, -0.0253279, 0.510792, 0.532517, 0.320924, 0.00168657, 0.0013671, 0.00846934
1.20669, 0.118064, -0.494456, 0.00082986, 0.00384915, -0.0253167, 0.512147, 0.534259, 0.321005, 0.00168581, 0.00136655, 0.0084674
1.20653, 0.114136, -0.502495, 0.000827598, 0.00384904, -0.025305, 0.512822, 0.535642, 0.321088, 0.00168523, 0.00136621, 0.00846441
1.20651, 0.111727, -0.511216, 0.000826408, 0.00384898, -0.0252983, 0.512675, 0.536484, 0.321142, 0.0016849, 0.00136598, 0.0084607
1.20719, 0.110932, -0.519767, 0.000826093, 0.00384894, -0.0252961, 0.511705, 0.536706, 0.321157, 0.00168475, 0.00136579, 0.00845681
1.20874, 0.109745, -0.526467, 0.000825814, 0.00384895, -0.025292, 0.51004, 0.53633, 0.321152, 0.00168468, 0.0013655, 0.00845309
1.21118, 0.107346, -0.530378, 0.000825507, 0.00384933, -0.0252838, 0.507876, 0.53546, 0.321143, 0.00168457, 0.00136508, 0.00844957
1.21544, 0.1038, -0.532292, 0.000824976, 0.00385042, -0.025271, 0.505475, 0.53427, 0.321123, 0.00168436, 0.00136455, 0.00844599
1.22061, 0.0986913, -0.531012, 0.000824249, 0.00385185, -0.0252519, 0.50302, 0.532987, 0.321105, 0.00168405, 0.00136395, 0.00844179
1.22377, 0.0908611, -0.523521, 0.000823615, 0.00385144, -0.0252258, 0.50057, 0.531853, 0.321092, 0.00168375, 0.00136326, 0.00843692
1.22286, 0.0810944, -0.513017, 0.000823186, 0.00384807, -0.0251965, 0.498251, 0.531024, 0.321084, 0.00168355, 0.0013625, 0.00843174
1.21838, 0.0703677, -0.501248, 0.000822397, 0.00384258, -0.0251652, 0.49625, 0.530559, 0.321087, 0.00168344, 0.00136179, 0.00842647
1.21128, 0.0604838, -0.487868, 0.00082047, 0.00383606, -0.0251347, 0.494683, 0.530464, 0.321091, 0.00168337, 0.00136121, 0.0084214
1.20246, 0.0516971, -0.472211, 0.000816803, 0.00382955, -0.0251031, 0.493619, 0.530713, 0.321087, 0.00168324, 0.00136081, 0.00841679
1.19564, 0.0502142, -0.457933, 0.000813667, 0.00382662, -0.0250907, 0.493141, 0.531296, 0.32108, 0.00168294, 0.00136058, 0.00841253
1.19003, 0.0466736, -0.444905, 0.000809722, 0.00382459, -0.0250722, 0.493268, 0.532113, 0.321072, 0.00168243, 0.0013604, 0.00840917
1.18704, 0.0450129, -0.432601, 0.000807354, 0.00382341, -0.0250623, 0.493903, 0.533026, 0.321065, 0.00168173, 0.00136019, 0.00840674
1.18687, 0.0460799, -0.423988, 0.000807425, 0.00382301, -0.0250618, 0.495001, 0.534021, 0.321064, 0.00168083, 0.00135988, 0.00840447
1.18803, 0.048527, -0.414738, 0.000808662, 0.0038225, -0.0250639, 0.49655, 0.535121, 0.321068, 0.00167975, 0.00135943, 0.00840166
1.19383, 0.0611213, -0.444818, 0.000818731, 0.00382445, -0.0250733, 0.498589, 0.536252, 0.321071, 0.00167845, 0.00135879, 0.00839732
1.2003, 0.0739787, -0.467405, 0.000829564, 0.00382185, -0.0250749, 0.501173, 0.537439, 0.321063, 0.00167691, 0.00135787, 0.00838923
1.208, 0.086354, -0.494345, 0.000842187, 0.0038137, -0.0250843, 0.504143, 0.53874, 0.321048, 0.00167514, 0.00135668, 0.00837693
1.21569, 0.0967074, -0.512053, 0.000853925, 0.00380703, -0.0250959, 0.507241, 0.540244, 0.321042, 0.00167336, 0.00135547, 0.0083634
1.22207, 0.104634, -0.526344, 0.000863787, 0.00380214, -0.0251096, 0.510254, 0.541941, 0.321025, 0.00167173, 0.00135439, 0.00835163
1.22702, 0.109878, -0.534579, 0.00087084, 0.00379897, -0.025122, 0.513058, 0.543746, 0.321001, 0.00167036, 0.00135349, 0.00834281
1.23084, 0.113731, -0.53822, 0.000875351, 0.00379686, -0.0251295, 0.515603, 0.545513, 0.32098, 0.00166935, 0.00135273, 0.00833703
1.23561, 0.116996, -0.539532, 0.000878939, 0.00379454, -0.0251361, 0.517855, 0.547128, 0.320959, 0.00166872, 0.00135202, 0.00833358
1.24506, 0.120917, -0.537582, 0.000881906, 0.00379122, -0.0251378, 0.519808, 0.548524, 0.320942, 0.00166847, 0.00135118, 0.00833193
1.25994, 0.12184, -0.536862, 0.000880474, 0.00378408, -0.0251148, 0.521463, 0.549666, 0.320928, 0.00166839, 0.00135003, 0.00832923
1.28198, 0.117744, -0.537043, 0.00086823, 0.00377051, -0.0250276, 0.522842, 0.550564, 0.320922, 0.00166776, 0.00134861, 0.00831903
1.3173, 0.104307, -0.498245, 0.000829467, 0.00376577, -0.0248333, 0.523971, 0.551335, 0.320931, 0.00166572, 0.00134726, 0.0082952
1.35465, 0.0864635, -0.470084, 0.000769207, 0.00375115, -0.0245016, 0.524884, 0.552009, 0.320963, 0.00166151, 0.00134614, 0.00825226
1.3921, 0.0646369, -0.452441, 0.000694628, 0.00373302, -0.0240718, 0.525711, 0.552628, 0.32103, 0.00165544, 0.00134515, 0.00819296
1.4281, 0.0390429, -0.4393, 0.000614845, 0.00371523, -0.0236009, 0.526564, 0.553271, 0.32114, 0.0016485, 0.00134431, 0.00812507
1.46163, 0.0135798, -0.435365, 0.000539606, 0.00369733, -0.0231265, 0.527512, 0.553986, 0.321294, 0.00164159, 0.00134358, 0.00805456
1.49082, -0.010782, -0.440502, 0.000475386, 0.00367969, -0.0226896, 0.528538, 0.554902, 0.321478, 0.00163541, 0.00134295, 0.00798834
1.51397, -0.0336192, -0.443685, 0.000426329, 0.00366627, -0.0223511, 0.529511, 0.556154, 0.321666, 0.00163079, 0.00134252, 0.0079366
1.52833, -0.0523839, -0.4523, 0.000398124, 0.00365808, -0.0221466, 0.530268, 0.557764, 0.321844, 0.00162797, 0.00134228, 0.00790409
1.5326, -0.0645926, -0.461608, 0.000386272, 0.00365428, -0.0220606, 0.530642, 0.559682, 0.322006, 0.00162641, 0.00134213, 0.00788752
1.52345, -0.0662074, -0.473624, 0.000381168, 0.00365221, -0.0220368, 0.530563, 0.561694, 0.322159, 0.00162481, 0.00134195, 0.00787492
1.50158, -0.0532116, -0.485008, 0.000368077, 0.00364996, -0.0219824, 0.530077, 0.563467, 0.322274, 0.00162142, 0.00134156, 0.00785022
1.46828, -0.0217478, -0.49411, 0.000332172, 0.00364729, -0.0218032, 0.529333, 0.564643, 0.322318, 0.00161441, 0.00134086, 0.00779647
1.42498, 0.0298875, -0.500395, 0.000262185, 0.00364347, -0.0214207, 0.528581, 0.565025, 0.322273, 0.00160231, 0.00133983, 0.00769785
1.37282, 0.101194, -0.503531, 0.000152414, 0.0036365, -0.0207848, 0.528139, 0.564568, 0.322136, 0.00158473, 0.00133858, 0.00754529
1.31707, 0.189066, -0.50687, 1.51073e-05, 0.00362727, -0.0199741, 0.528317, 0.563415, 0.321933, 0.00156324, 0.00133724, 0.00734799
1.26208, 0.286745, -0.509767, -0.000130646, 0.00361747, -0.0191029, 0.52929, 0.561841, 0.321709, 0.00154055, 0.00133601, 0.00712825
1.21077, 0.38744, -0.511538, -0.000266787, 0.00360933, -0.0182879, 0.531023, 0.56019, 0.321531, 0.00151928, 0.00133499, 0.00691209
1.16479, 0.483037, -0.511769, -0.000380696, 0.00360405, -0.0176071, 0.53333, 0.558744, 0.321455, 0.00150152, 0.00133425, 0.00672388
1.12506, 0.567934, -0.514091, -0.000471301, 0.00360207, -0.0170799, 0.535928, 0.557613, 0.321509, 0.00148813, 0.00133374, 0.00657842
1.09094, 0.638245, -0.512003, -0.000535675, 0.00360382, -0.0167088, 0.538504, 0.556835, 0.321702, 0.0014791, 0.00133335, 0.00648132
1.06382, 0.696441, -0.514296, -0.000580345, 0.00361125, -0.0164879, 0.54079, 0.556345, 0.322017, 0.00147383, 0.001333, 0.00642821
1.04229, 0.739012, -0.513653, -0.000606081, 0.00362017, -0.016378, 0.542486, 0.556032, 0.322393, 0.0014714, 0.00133258, 0.00640787
1.02771, 0.765926, -0.511314, -0.00061688, 0.00362747, -0.0163486, 0.543398, 0.555759, 0.322775, 0.00147072, 0.00133206, 0.00640496
1.02217, 0.777901, -0.507566, -0.000618823, 0.00363111, -0.0163519, 0.543448, 0.555478, 0.323138, 0.00147058, 0.00133137, 0.00640248
1.02695, 0.776656, -0.507403, -0.000621066, 0.00362912, -0.0163248, 0.542547, 0.555078, 0.323437, 0.00146955, 0.00133033, 0.00637917
1.04297, 0.765197, -0.506434, -0.000634909, 0.00361576, -0.0161784, 0.540878, 0.554329, 0.323617, 0.00146617, 0.0013289, 0.00631408
1.07105, 0.746789, -0.506572, -0.000670867, 0.00358936, -0.0158423, 0.53889, 0.552955, 0.323646, 0.00145916, 0.00132708, 0.00619204
1.10985, 0.722772, -0.507491, -0.000734424, 0.00355082, -0.0153004, 0.537166, 0.550863, 0.323513, 0.0014482, 0.00132493, 0.00601367
1.15778, 0.695502, -0.504766, -0.000831623, 0.00350032, -0.0145574, 0.53623, 0.548291, 0.323256, 0.00143407, 0.00132247, 0.00579312
1.21203, 0.665826, -0.499438, -0.000962297, 0.0034397, -0.0136459, 0.53641, 0.545617, 0.322935, 0.00141772, 0.00131975, 0.00554366
1.26613, 0.633029, -0.488833, -0.00111878, 0.00336939, -0.0126588, 0.537837, 0.543225, 0.322628, 0.00140026, 0.00131686, 0.0052796
1.31716, 0.594948, -0.481261, -0.00128042, 0.00330106, -0.0117141, 0.540452, 0.541477, 0.322395, 0.00138322, 0.00131422, 0.00502363
1.36457, 0.551963, -0.481044, -0.00143254, 0.0032405, -0.0108631, 0.543992, 0.540551, 0.32231, 0.00136776, 0.00131204, 0.00479321
1.40683, 0.506941, -0.481156, -0.00157076, 0.0031872, -0.010148, 0.548103, 0.540447, 0.322431, 0.00135452, 0.00131032, 0.00459908
1.44431, 0.460639, -0.483653, -0.00168663, 0.00314313, -0.00957703, 0.55247, 0.541082, 0.3228, 0.00134383, 0.00130902, 0.00444482
1.47688, 0.414525, -0.489332, -0.00177636, 0.00310655, -0.00913829, 0.55689, 0.542367, 0.323387, 0.00133572, 0.00130811, 0.0043275
1.50552, 0.373747, -0.493286, -0.00184322, 0.00307654, -0.00880734, 0.561127, 0.544079, 0.324132, 0.00133002, 0.00130746, 0.00424319
1.53114, 0.338913, -0.49511, -0.00188913, 0.0030541, -0.00858097, 0.564995, 0.545975, 0.324956, 0.00132634, 0.00130699, 0.00418751
1.55276, 0.30981, -0.491553, -0.00191849, 0.00303749, -0.00845124, 0.568343, 0.547887, 0.325843, 0.0013243, 0.00130662, 0.00415522
1.56806, 0.28764, -0.488498, -0.00193153, 0.00302585, -0.00839588, 0.571096, 0.54975, 0.3267, 0.00132337, 0.00130628, 0.00413959
1.57602, 0.2753, -0.48596, -0.00193477, 0.00302008, -0.00838511, 0.573101, 0.551509, 0.327362, 0.001323, 0.00130594, 0.00413495
1.57513, 0.27542, -0.483418, -0.00193548, 0.00302052, -0.00838549, 0.574146, 0.553028, 0.327719, 0.00132258, 0.00130559, 0.00413474
1.56092, 0.289433, -0.486576, -0.00194253, 0.00302443, -0.00835368, 0.574059, 0.554172, 0.327754, 0.00132141, 0.00130525, 0.00413082
1.53287, 0.317366, -0.49205, -0.00196392, 0.00302999, -0.00824737, 0.572934, 0.554885, 0.327434, 0.00131892, 0.00130473, 0.00411524
1.49279, 0.358424, -0.494783, -0.00200221, 0.00303836, -0.00804409, 0.571028, 0.555163, 0.326811, 0.00131479, 0.00130405, 0.0040826
1.4416, 0.411358, -0.495683, -0.00205759, 0.00304831, -0.00773611, 0.568679, 0.555068, 0.325987, 0.00130899, 0.00130334, 0.00403022
1.3816, 0.47458, -0.496541, -0.00212669, 0.00305761, -0.00733854, 0.566284, 0.554664, 0.325053, 0.00130197, 0.00130267, 0.00395969
1.31734, 0.543665, -0.491566, -0.00219864, 0.00306679, -0.00689316, 0.564202, 0.554019, 0.324103, 0.00129444, 0.00130212, 0.00387651
1.25041, 0.615775, -0.491901, -0.00227316, 0.00306945, -0.00642774, 0.562632, 0.553159, 0.323215, 0.0012871, 0.00130166, 0.00378785
1.18522, 0.68856, -0.496511, -0.00234308, 0.00306688, -0.00599055, 0.561675, 0.552151, 0.322459, 0.00128041, 0.00130117, 0.0037014
1.12461, 0.757405, -0.497575, -0.00239993, 0.00306293, -0.00561345, 0.561293, 0.551108, 0.32191, 0.00127476, 0.00130065, 0.00362376
1.06983, 0.821803, -0.497873, -0.00244532, 0.00305732, -0.00530723, 0.561351, 0.550076, 0.321602, 0.00127032, 0.00130023, 0.0035595
1.02165, 0.882181, -0.500279, -0.00248162, 0.00305027, -0.00507478, 0.56169, 0.549095, 0.321525, 0.00126704, 0.00129997, 0.00351071
0.980429, 0.933926, -0.50017, -0.0025064, 0.00304466, -0.0049101, 0.562203, 0.548275, 0.321634, 0.00126487, 0.00129983, 0.00347706
0.946863, 0.975424, -0.493801, -0.0025187, 0.00304067, -0.00480871, 0.562781, 0.547658, 0.32186, 0.00126362, 0.00129976, 0.00345646
0.924145, 1.01042, -0.492029, -0.00252418, 0.00303817, -0.00476702, 0.563406, 0.547276, 0.322148, 0.00126301, 0.00129969, 0.00344645
0.913523, 1.03857, -0.495526, -0.00252583, 0.0030383, -0.00476439, 0.564041, 0.547179, 0.322445, 0.00126285, 0.00129961, 0.00344418
0.915517, 1.05774, -0.497715, -0.0025263, 0.00303868, -0.00476572, 0.564633, 0.547252, 0.322672, 0.0012628, 0.00129942, 0.00344386
0.930006, 1.06866, -0.49925, -0.00253175, 0.00303622, -0.00473134, 0.565107, 0.547301, 0.322795, 0.00126232, 0.00129904, 0.00343809
0.957113, 1.07481, -0.500251, -0.00254843, 0.00302871, -0.00462367, 0.565492, 0.547155, 0.322806, 0.00126092, 0.00129838, 0.00342079
0.995773, 1.07806, -0.496533, -0.00258369, 0.00301286, -0.00441097, 0.565968, 0.546749, 0.322759, 0.00125823, 0.00129739, 0.00338765
1.0431, 1.07755, -0.495085, -0.00263577, 0.0029912, -0.00409511, 0.566807, 0.546175, 0.322717, 0.00125422, 0.00129603, 0.00333747
1.09566, 1.07316, -0.495918, -0.00270286, 0.00296409, -0.00369303, 0.568208, 0.545612, 0.322739, 0.00124914, 0.00129435, 0.00327278
1.14898, 1.06403, -0.500341, -0.00277673, 0.00293578, -0.00325685, 0.570184, 0.545178, 0.322882, 0.00124343, 0.00129243, 0.0032
1.2007, 1.05162, -0.505186, -0.00285269, 0.00290818, -0.00282781, 0.572637, 0.544896, 0.323195, 0.00123749, 0.00129051, 0.00312675
1.24859, 1.03609, -0.505543, -0.00292785, 0.00288119, -0.00244092, 0.575401, 0.544773, 0.323742, 0.00123175, 0.00128865, 0.00305809
1.2911, 1.01554, -0.506246, -0.00299084, 0.00285983, -0.00212949, 0.57836, 0.544914, 0.324525, 0.00122669, 0.00128699, 0.00299745
1.32818, 0.992695, -0.508396, -0.00303871, 0.00284449, -0.00189173, 0.581424, 0.545395, 0.325424, 0.00122256, 0.00128583, 0.00294688
1.36056, 0.968419, -0.515363, -0.00307042, 0.00283511, -0.00171761, 0.584457, 0.546151, 0.32634, 0.00121939, 0.00128516, 0.00290664
1.38742, 0.946268, -0.519765, -0.00309249, 0.00282739, -0.00159702, 0.587336, 0.547115, 0.327198, 0.00121714, 0.0012848, 0.0028763
1.40795, 0.92649, -0.522796, -0.00310519, 0.0028216, -0.00152544, 0.589941, 0.548187, 0.327981, 0.00121571, 0.00128458, 0.00285505
1.42191, 0.910925, -0.522626, -0.00311192, 0.00281746, -0.00149142, 0.59214, 0.549286, 0.328642, 0.00121492, 0.00128444, 0.00284209
1.42932, 0.89877, -0.514171, -0.00311706, 0.0028137, -0.00148165, 0.5938, 0.550351, 0.329168, 0.00121458, 0.00128431, 0.00283573
1.42786, 0.889869, -0.506886, -0.00311912, 0.00281142, -0.00148629, 0.594878, 0.551371, 0.329492, 0.00121448, 0.00128421, 0.00283368
1.41503, 0.885002, -0.503176, -0.00312186, 0.00281075, -0.00148899, 0.595274, 0.552267, 0.329554, 0.00121436, 0.00128415, 0.00283363
1.3892, 0.886323, -0.502029, -0.00313, 0.00281128, -0.00146583, 0.59494, 0.552953, 0.329317, 0.00121393, 0.00128412, 0.00283244
1.35059, 0.894746, -0.500939, -0.00314675, 0.00281288, -0.00139469, 0.593934, 0.553394, 0.328789, 0.00121296, 0.00128402, 0.00282668
1.30116, 0.909464, -0.496269, -0.00317264, 0.00281671, -0.00126295, 0.592418, 0.553606, 0.328025, 0.00121126, 0.00128379, 0.00281339
1.24292, 0.929514, -0.492428, -0.0032078, 0.0028218, -0.00106901, 0.590656, 0.553609, 0.327137, 0.0012088, 0.00128343, 0.00279136
1.18081, 0.954045, -0.4905, -0.00324837, 0.00282774, -0.000835611, 0.589024, 0.553461, 0.32624, 0.00120581, 0.00128294, 0.00276252
1.11996, 0.980771, -0.487161, -0.00328724, 0.0028356, -0.000594687, 0.587796, 0.553239, 0.325414, 0.00120264, 0.00128235, 0.00273033
1.06285, 1.01248, -0.491073, -0.00332371, 0.00284078, -0.000372843, 0.587069, 0.552994, 0.324713, 0.00119959, 0.00128167, 0.00269806
1.00926, 1.04901, -0.505417, -0.00335883, 0.00284152, -0.000177923, 0.586841, 0.552785, 0.324178, 0.0011969, 0.00128096, 0.00266866
0.959193, 1.08772, -0.539754, -0.00339735, 0.00283433, -9.74347e-06, 0.586981, 0.552624, 0.323827, 0.00119474, 0.00128031, 0.00264367
0.91689, 1.12334, -0.567248, -0.0034233, 0.00282954, 0.000116244, 0.58739, 0.552579, 0.323661, 0.00119318, 0.00127978, 0.00262412
0.883602, 1.15461, -0.586132, -0.00343679, 0.00282701, 0.000198595, 0.587943, 0.552668, 0.323658, 0.0011922, 0.0012794, 0.00261022
0.859857, 1.18189, -0.59496, -0.00343959, 0.00282514, 0.000241, 0.588599, 0.552887, 0.323756, 0.00119172, 0.00127907, 0.00260179
0.84649, 1.20652, -0.594399, -0.0034365, 0.00282301, 0.000253028, 0.589382, 0.553228, 0.323873, 0.00119158, 0.00127876, 0.00259835
0.84385, 1.22831, -0.591755, -0.00343353, 0.00281941, 0.000252801, 0.590284, 0.553601, 0.323929, 0.00119149, 0.00127843, 0.00259795
0.851437, 1.24706, -0.588974, -0.00343478, 0.00281335, 0.000261235, 0.591265, 0.55389, 0.323924, 0.00119112, 0.00127804, 0.0025975
0.869047, 1.26428, -0.587317, -0.00344317, 0.00280375, 0.00029688, 0.592324, 0.554018, 0.323889, 0.00119015, 0.00127756, 0.00259414
0.894935, 1.27974, -0.58511, -0.00346095, 0.00279076, 0.000371089, 0.593535, 0.553997, 0.323884, 0.00118842, 0.00127699, 0.0025858
0.927829, 1.29385, -0.582221, -0.00348905, 0.00277446, 0.000487978, 0.594917, 0.553823, 0.323962, 0.00118592, 0.0012763, 0.00257176
0.964498, 1.30715, -0.573908, -0.00352833, 0.00275487, 0.000638578, 0.596527, 0.553551, 0.324171, 0.00118273, 0.00127553, 0.00255243
1.00234, 1.31733, -0.564832, -0.0035729, 0.00273476, 0.000803884, 0.598397, 0.553255, 0.324533, 0.00117905, 0.00127471, 0.00252953
1.03904, 1.32264, -0.559387, -0.00361453, 0.00271729, 0.00096049, 0.600475, 0.553078, 0.325025, 0.00117532, 0.00127394, 0.00250614
1.07287, 1.32357, -0.556645, -0.00364943, 0.0027033, 0.0010915, 0.602649, 0.553128, 0.325612, 0.001172, 0.00127327, 0.00248511
1.10284, 1.32196, -0.554297, -0.00367718, 0.0026925, 0.00119179, 0.604813, 0.553427, 0.326247, 0.00116927, 0.0012727, 0.00246777
1.12742, 1.3193, -0.551778, -0.00369715, 0.00268465, 0.00126062, 0.60691, 0.55395, 0.326898, 0.00116716, 0.00127224, 0.00245423
1.14615, 1.31739, -0.549981, -0.00370972, 0.00267908, 0.00130491, 0.608892, 0.554639, 0.327538, 0.00116561, 0.00127187, 0.00244402
1.15832, 1.31714, -0.547799, -0.0037168, 0.00267549, 0.00132916, 0.610702, 0.555402, 0.328138, 0.0011645, 0.00127156, 0.00243649
1.16534, 1.31828, -0.54556, -0.00372035, 0.00267328, 0.00134118, 0.61229, 0.556187, 0.328637, 0.00116373, 0.00127126, 0.00243117
1.16867, 1.32335, -0.541353, -0.00372213, 0.00267135, 0.00135044, 0.613604, 0.556949, 0.328954, 0.00116325, 0.00127093, 0.00242743
1.16906, 1.33198, -0.539368, -0.00372225, 0.00266901, 0.00136171, 0.614629, 0.557635, 0.329086, 0.001163, 0.00127062, 0.00242458
1.16451, 1.34316, -0.54062, -0.00372145, 0.00266708, 0.0013748, 0.61536, 0.558202, 0.329058, 0.00116288, 0.00127038, 0.00242214
1.16029, 1.35621, -0.507381, -0.00371955, 0.00266391, 0.00138868, 0.615818, 0.558657, 0.328931, 0.00116282, 0.00127019, 0.00241996
1.15075, 1.37042, -0.484491, -0.00371699, 0.00265991, 0.00140486, 0.616034, 0.55898, 0.328781, 0.00116274, 0.00127003, 0.00241808
1.13903, 1.38484, -0.46451, -0.00371426, 0.00265562, 0.00142045, 0.616134, 0.55925, 0.328625, 0.00116264, 0.00126985, 0.00241662
1.12592, 1.39809, -0.451773, -0.00371196, 0.00265359, 0.00143437, 0.616312, 0.55957, 0.328428, 0.0011625, 0.00126968, 0.00241559
1.11415, 1.40848, -0.445852, -0.00371028, 0.00265425, 0.00144398, 0.616717, 0.560026, 0.328149, 0.00116234, 0.00126955, 0.00241491
1.10283, 1.41687, -0.448261, -0.00370986, 0.00265586, 0.00144983, 0.617366, 0.560658, 0.327828, 0.00116214, 0.00126937, 0.00241437
1.0936, 1.4211, -0.452918, -0.00371005, 0.00265721, 0.00145259, 0.618208, 0.56148, 0.327485, 0.00116185, 0.00126909, 0.00241357
1.0853, 1.42175, -0.461177, -0.00371159, 0.00265731, 0.0014557, 0.619197, 0.562506, 0.327108, 0.00116138, 0.00126862, 0.00241194
1.07755, 1.41829, -0.473965, -0.00371568, 0.00265527, 0.00146376, 0.620306, 0.563761, 0.326732, 0.00116068, 0.00126801, 0.00240886
1.07048, 1.40975, -0.488209, -0.00372307, 0.00265169, 0.00148322, 0.621483, 0.565258, 0.326391, 0.00115968, 0.0012673, 0.00240368
1.06433, 1.39535, -0.500487, -0.00373483, 0.0026474, 0.00152144, 0.622688, 0.567018, 0.326107, 0.00115835, 0.00126649, 0.00239587
1.05598, 1.37682, -0.514764, -0.00375102, 0.00264076, 0.00157867, 0.623891, 0.569039, 0.325881, 0.00115673, 0.00126551, 0.00238558
1.04469, 1.35654, -0.533048, -0.00376943, 0.0026302, 0.00164676, 0.625072, 0.571279, 0.325725, 0.00115495, 0.0012643, 0.00237386
1.03085, 1.33666, -0.553056, -0.00378738, 0.00261738, 0.0017147, 0.626213, 0.573652, 0.325658, 0.00115315, 0.00126295, 0.00236194
1.01687, 1.31801, -0.571507, -0.00380325, 0.00260528, 0.00177509, 0.627321, 0.576045, 0.325689, 0.00115151, 0.00126166, 0.00235105
1.00426, 1.30113, -0.586637, -0.00381619, 0.00259548, 0.00182303, 0.62844, 0.578364, 0.325811, 0.00115014, 0.00126054, 0.00234223
0.994102, 1.28702, -0.598266, -0.00382543, 0.00258825, 0.0018554, 0.629603, 0.580512, 0.325992, 0.00114907, 0.00125964, 0.00233601
0.986993, 1.27625, -0.605876, -0.00383126, 0.00258358, 0.00187351, 0.630809, 0.58241, 0.326176, 0.00114829, 0.00125895, 0.0023323
0.981637, 1.26968, -0.611018, -0.00383436, 0.0025812, 0.00188038, 0.631969, 0.583968, 0.326321, 0.00114778, 0.00125848, 0.00233052
0.979688, 1.26736, -0.6159, -0.00383504, 0.00258012, 0.00188149, 0.633008, 0.585131, 0.326409, 0.00114747, 0.00125817, 0.00232995
0.981133, 1.2676, -0.620041, -0.00383463, 0.0025798, 0.00188171, 0.633832, 0.585881, 0.326444, 0.0011473, 0.00125796, 0.00232989
0.984156, 1.27125, -0.626245, -0.00383406, 0.00258046, 0.00188327, 0.634476, 0.586238, 0.326439, 0.00114718, 0.0012578, 0.00232975
0.988729, 1.27942, -0.629393, -0.00383404, 0.00258222, 0.00188943, 0.634996, 0.586237, 0.326395, 0.00114707, 0.00125764, 0.00232901
0.995155, 1.2912, -0.62999, -0.003835, 0.00258451, 0.00190225, 0.635392, 0.585914, 0.326309, 0.0011469, 0.00125747, 0.0023272
1.00337, 1.3069, -0.628819, -0.0038373, 0.00258708, 0.0019237, 0.635704, 0.585354, 0.32619, 0.00114665, 0.00125728, 0.00232403
1.01283, 1.32583, -0.627557, -0.00384111, 0.0025898, 0.00195385, 0.635942, 0.584638, 0.326053, 0.00114634, 0.00125707, 0.00231948
1.02224, 1.3472, -0.624621, -0.00384631, 0.00259204, 0.00199166, 0.63611, 0.583832, 0.325903, 0.00114595, 0.00125682, 0.00231355
1.03215, 1.3713, -0.621626, -0.00385297, 0.00259396, 0.00203834, 0.636269, 0.583009, 0.325759, 0.00114551, 0.00125655, 0.00230627
1.04186, 1.39749, -0.619126, -0.00386093, 0.00259541, 0.00209279, 0.636428, 0.582234, 0.325648, 0.00114501, 0.00125624, 0.00229779
1.05121, 1.42538, -0.614214, -0.00386968, 0.00259521, 0.00215298, 0.636564, 0.581552, 0.325595, 0.0011445, 0.00125585, 0.00228838
1.06009, 1.45403, -0.607539, -0.00387866, 0.00259303, 0.00221593, 0.63664, 0.580977, 0.325589, 0.00114397, 0.00125537, 0.00227842
1.06844, 1.48311, -0.599757, -0.00388757, 0.0025891, 0.0022804, 0.63667, 0.580527, 0.325607, 0.00114343, 0.00125486, 0.00226824
1.0767, 1.51214, -0.595554, -0.00389682, 0.0025856, 0.00234494, 0.636668, 0.580217, 0.325656, 0.00114291, 0.00125433, 0.00225819
1.08525, 1.54004, -0.594245, -0.00390586, 0.00258264, 0.00240553, 0.636662, 0.580066, 0.325749, 0.00114242, 0.00125379, 0.00224873
1.09379, 1.56593, -0.593957, -0.00391379, 0.00257967, 0.00245818, 0.636699, 0.580079, 0.325883, 0.00114202, 0.00125332, 0.0022405
1.10167, 1.58918, -0.592965, -0.00391989, 0.0025763, 0.00250018, 0.636779, 0.58024, 0.326037, 0.00114173, 0.00125292, 0.002234
1.10882, 1.60967, -0.592971, -0.00392422, 0.00257301, 0.00253106, 0.636889, 0.580519, 0.326179, 0.00114154, 0.00125258, 0.0022294
1.11506, 1.62725, -0.592698, -0.0039266, 0.00256956, 0.00255184, 0.637131, 0.580936, 0.326287, 0.00114144, 0.00125231, 0.00222655
1.12225, 1.63995, -0.59213, -0.00392748, 0.00256625, 0.00256241, 0.637627, 0.581528, 0.326386, 0.0011414, 0.00125208, 0.00222507
1.13009, 1.64909, -0.590739, -0.00392739, 0.00256334, 0.00256675, 0.638468, 0.582328, 0.326442, 0.00114134, 0.0012519, 0.00222464
1.13684, 1.65243, -0.588351, -0.00392755, 0.00256136, 0.00256781, 0.639587, 0.583282, 0.326454, 0.00114118, 0.00125171, 0.00222461
1.14207, 1.65127, -0.584602, -0.00392906, 0.00256071, 0.00257019, 0.640946, 0.584384, 0.326392, 0.00114077, 0.00125134, 0.00222398
1.14643, 1.64421, -0.581654, -0.00393358, 0.00256032, 0.00258086, 0.642375, 0.585554, 0.326291, 0.00114001, 0.00125078, 0.00222172
1.14881, 1.63193, -0.583252, -0.00394091, 0.00255877, 0.00260467, 0.643759, 0.586814, 0.326168, 0.00113877, 0.00124983, 0.0022168
1.15063, 1.61558, -0.58388, -0.00395319, 0.00255805, 0.00264613, 0.64499, 0.588221, 0.3261, 0.00113692, 0.00124827, 0.00220827
1.14934, 1.59539, -0.588098, -0.00396877, 0.0025555, 0.00270703, 0.646034, 0.589817, 0.326182, 0.00113443, 0.00124613, 0.00219558
1.14642, 1.57144, -0.590697, -0.00399018, 0.00255489, 0.00278984, 0.646982, 0.591618, 0.326462, 0.00113148, 0.0012438, 0.00217922
1.14087, 1.54671, -0.595453, -0.00401244, 0.00255275, 0.00288149, 0.647739, 0.593687, 0.326965, 0.00112819, 0.00124089, 0.00216055
1.13182, 1.52159, -0.602047, -0.00403398, 0.00254958, 0.00297551, 0.648363, 0.59596, 0.327709, 0.00112479, 0.00123771, 0.00214081
1.12007, 1.49869, -0.609948, -0.00405108, 0.00254588, 0.00305585, 0.648864, 0.598352, 0.328681, 0.00112155, 0.00123437, 0.00212188
1.10565, 1.47839, -0.62039, -0.00406168, 0.00254054, 0.00311665, 0.649394, 0.600741, 0.329843, 0.00111866, 0.00123134, 0.00210544
1.09102, 1.45973, -0.631767, -0.00406796, 0.00253557, 0.00316248, 0.650039, 0.60299, 0.331103, 0.00111623, 0.00122899, 0.00209252
1.07844, 1.44444, -0.640713, -0.00407166, 0.00253319, 0.00319173, 0.650784, 0.605049, 0.332383, 0.00111431, 0.0012272, 0.00208335
1.06678, 1.43306, -0.649883, -0.00407204, 0.0025315, 0.00320652, 0.651643, 0.606852, 0.333519, 0.00111295, 0.00122609, 0.00207761
1.05696, 1.42609, -0.655065, -0.00407185, 0.00253233, 0.00321121, 0.652575, 0.608328, 0.334397, 0.00111209, 0.00122557, 0.00207463
1.04791, 1.4236, -0.656018, -0.00407123, 0.00253413, 0.00321045, 0.653482, 0.609429, 0.334983, 0.00111162, 0.00122534, 0.00207353
1.03707, 1.42675, -0.65708, -0.00406935, 0.00253568, 0.00320833, 0.65431, 0.610124, 0.335308, 0.0011114, 0.0012252, 0.0020734
1.02583, 1.43553, -0.658197, -0.00406759, 0.00253663, 0.00321107, 0.655024, 0.610392, 0.335395, 0.00111132, 0.00122506, 0.00207328
1.01411, 1.45028, -0.657677, -0.00406699, 0.00253643, 0.00322345, 0.655572, 0.61025, 0.335238, 0.0011113, 0.00122484, 0.00207229
1.00132, 1.47131, -0.659562, -0.00406824, 0.00253573, 0.00324995, 0.655904, 0.609736, 0.334834, 0.00111127, 0.00122443, 0.00206972
0.989113, 1.49792, -0.660235, -0.00407187, 0.00253299, 0.00329193, 0.655893, 0.608899, 0.334194, 0.00111114, 0.0012237, 0.0020651
0.977594, 1.52827, -0.658839, -0.00407755, 0.00252771, 0.00334734, 0.655509, 0.607859, 0.333414, 0.00111088, 0.00122252, 0.00205827
0.966888, 1.56099, -0.654963, -0.00408461, 0.00251954, 0.00341318, 0.654799, 0.606753, 0.332589, 0.00111049, 0.00122088, 0.00204942
0.957573, 1.59455, -0.650547, -0.00409282, 0.00251021, 0.00348532, 0.653809, 0.605681, 0.331787, 0.00110997, 0.00121882, 0.00203889
0.949155, 1.6289, -0.646705, -0.00410232, 0.00250117, 0.00356319, 0.65261, 0.604718, 0.331073, 0.00110931, 0.00121642, 0.00202707
0.943254, 1.66424, -0.6445, -0.00411305, 0.00249341, 0.0036457, 0.651331, 0.603932, 0.330463, 0.00110855, 0.00121386, 0.00201443
0.941238, 1.69944, -0.643584, -0.00412413, 0.00248686, 0.0037274, 0.649975, 0.603391, 0.330009, 0.00110774, 0.00121112, 0.00200176
0.944279, 1.73119, -0.644753, -0.00413442, 0.00248306, 0.00379793, 0.648573, 0.60313, 0.329777, 0.00110696, 0.00120818, 0.00198985
0.95022, 1.75885, -0.64412, -0.00414211, 0.0024788, 0.00385587, 0.647257, 0.603153, 0.329778, 0.00110629, 0.00120524, 0.00197945
0.959003, 1.78083, -0.640508, -0.0041462, 0.00247289, 0.00389736, 0.646131, 0.603415, 0.329959, 0.00110574, 0.00120252, 0.00197103
0.969721, 1.7982, -0.636195, -0.00414782, 0.002468, 0.00392686, 0.645391, 0.603906, 0.33027, 0.00110533, 0.00120029, 0.00196465
0.982682, 1.81007, -0.631677, -0.00414732, 0.0024641, 0.00394471, 0.645051, 0.604565, 0.330654, 0.00110505, 0.00119853, 0.0019602
0.996896, 1.81669, -0.625742, -0.00414482, 0.00246002, 0.00395449, 0.645108, 0.605357, 0.331022, 0.00110486, 0.00119722, 0.00195749
1.01175, 1.81847, -0.621184, -0.00414151, 0.00245702, 0.00396, 0.645609, 0.606256, 0.331311, 0.0011047, 0.00119634, 0.00195614
1.02729, 1.81562, -0.614441, -0.00413751, 0.00245286, 0.00396563, 0.646475, 0.607208, 0.33145, 0.00110454, 0.00119575, 0.00195563
1.04192, 1.80736, -0.610336, -0.00413436, 0.00244791, 0.00397409, 0.647499, 0.60814, 0.331456, 0.0011043, 0.00119525, 0.00195522
1.05629, 1.79529, -0.604168, -0.00413277, 0.00244186, 0.00399013, 0.648638, 0.609063, 0.331295, 0.00110392, 0.00119477, 0.00195406
1.06919, 1.7778, -0.601963, -0.00413349, 0.00243357, 0.00401838, 0.649754, 0.609981, 0.331026, 0.00110331, 0.00119412, 0.00195125
1.08004, 1.75606, -0.59973, -0.00413758, 0.00242341, 0.0040618, 0.650764, 0.610959, 0.330724, 0.0011024, 0.00119316, 0.00194608
1.08821, 1.73079, -0.600691, -0.00414457, 0.00241036, 0.00412115, 0.651607, 0.612073, 0.330439, 0.00110116, 0.00119177, 0.00193827
1.09351, 1.70332, -0.605578, -0.0041538, 0.00239398, 0.00419441, 0.652231, 0.613392, 0.330245, 0.00109963, 0.00118986, 0.00192787
1.09737, 1.67492, -0.609782, -0.00416616, 0.00237823, 0.00427799, 0.652642, 0.614921, 0.330259, 0.00109785, 0.00118755, 0.00191545
1.09998, 1.64869, -0.613795, -0.0041796, 0.00236458, 0.00435982, 0.65282, 0.616663, 0.330535, 0.0010959, 0.00118479, 0.00190191
1.09806, 1.62735, -0.619622, -0.00419099, 0.00235319, 0.00442563, 0.652876, 0.618584, 0.331089, 0.00109393, 0.00118188, 0.00188839
1.09029, 1.60816, -0.628336, -0.00420026, 0.00234188, 0.00447976, 0.652951, 0.620653, 0.331914, 0.00109206, 0.00117902, 0.00187605
1.08086, 1.59284, -0.634509, -0.00420823, 0.0023352, 0.00451709, 0.653083, 0.622839, 0.332929, 0.00109033, 0.00117605, 0.00186598
1.06936, 1.58255, -0.639163, -0.00421282, 0.00233286, 0.00453495, 0.653433, 0.625012, 0.334023, 0.00108886, 0.00117338, 0.00185883
1.05634, 1.57617, -0.644704, -0.00421337, 0.00233202, 0.0045404, 0.65411, 0.627019, 0.335075, 0.00108768, 0.00117139, 0.00185467
1.04295, 1.57431, -0.648166, -0.00421128, 0.00233404, 0.00453822, 0.655068, 0.628762, 0.335985, 0.0010868, 0.00117006, 0.00185283
1.02822, 1.57639, -0.650905, -0.00420676, 0.00233696, 0.00453515, 0.656139, 0.630166, 0.336651, 0.00108615, 0.00116912, 0.00185234
1.01137, 1.58258, -0.652274, -0.00420035, 0.00234032, 0.00453615, 0.657229, 0.631226, 0.337044, 0.00108565, 0.00116834, 0.0018523
0.992792, 1.59289, -0.650545, -0.00419308, 0.00234367, 0.00454548, 0.658317, 0.632005, 0.337113, 0.00108526, 0.00116762, 0.00185186
0.970903, 1.60683, -0.654881, -0.00418491, 0.00234584, 0.00456797, 0.659359, 0.632613, 0.336778, 0.00108491, 0.00116686, 0.00185037
0.947553, 1.62541, -0.656638, -0.00417674, 0.00234663, 0.00460361, 0.66027, 0.6331, 0.33609, 0.00108449, 0.00116604, 0.00184752
0.923223, 1.64527, -0.6638, -0.00417091, 0.00234835, 0.00464885, 0.661043, 0.633505, 0.335181, 0.00108397, 0.00116517, 0.00184334
0.899942, 1.66619, -0.671035, -0.00416708, 0.00235034, 0.0046991, 0.661661, 0.63385, 0.334131, 0.00108333, 0.00116425, 0.00183816
0.878122, 1.68849, -0.674322, -0.00416436, 0.00235035, 0.00475109, 0.662018, 0.634078, 0.333043, 0.00108258, 0.00116325, 0.00183238
0.859184, 1.70851, -0.669275, -0.00416116, 0.00234625, 0.00479617, 0.662037, 0.634107, 0.332017, 0.00108178, 0.00116217, 0.00182649
0.845411, 1.72799, -0.665184, -0.00416083, 0.0023415, 0.00483307, 0.661629, 0.633756, 0.331102, 0.00108093, 0.0011612, 0.00182096
0.834335, 1.74567, -0.653871, -0.00415958, 0.002333, 0.00486291, 0.660714, 0.632948, 0.330329, 0.00108003, 0.0011603, 0.00181615
0.832275, 1.76278, -0.660622, -0.00416663, 0.00233401, 0.00488185, 0.659415, 0.63171, 0.329676, 0.00107908, 0.00115956, 0.00181214
0.837956, 1.78103, -0.688038, -0.00418137, 0.00234389, 0.00489249, 0.657877, 0.630158, 0.329117, 0.00107811, 0.00115892, 0.00180888
0.85024, 1.79495, -0.709338, -0.00419248, 0.00235339, 0.00490001, 0.656196, 0.628419, 0.328652, 0.00107714, 0.00115826, 0.00180625
0.869301, 1.80251, -0.710769, -0.00419546, 0.00235933, 0.00491106, 0.654252, 0.626583, 0.328294, 0.00107621, 0.00115731, 0.00180407
0.893743, 1.80415, -0.701025, -0.00419285, 0.00236342, 0.00492607, 0.652344, 0.624761, 0.328008, 0.00107534, 0.00115632, 0.00180215
0.922219, 1.80053, -0.685045, -0.00418596, 0.0023672, 0.00494509, 0.65055, 0.623009, 0.327772, 0.00107453, 0.0011553, 0.00180041
0.951586, 1.79259, -0.664737, -0.00417617, 0.00237035, 0.00496697, 0.649097, 0.621436, 0.327602, 0.00107386, 0.00115438, 0.00179874
0.979814, 1.78021, -0.646661, -0.00416559, 0.00237294, 0.004989, 0.648205, 0.620187, 0.327518, 0.00107332, 0.0011536, 0.00179703
1.00623, 1.76515, -0.626539, -0.00415464, 0.00237308, 0.00501154, 0.647792, 0.619329, 0.327491, 0.00107287, 0.00115286, 0.0017953
1.03407, 1.75115, -0.611399, -0.00414496, 0.0023733, 0.00503543, 0.647946, 0.618963, 0.32748, 0.00107251, 0.00115228, 0.00179367
1.06145, 1.73972, -0.592274, -0.00413746, 0.00237266, 0.00505753, 0.648629, 0.619185, 0.327507, 0.00107218, 0.00115177, 0.0017922
1.087, 1.73054, -0.576808, -0.00413188, 0.00237077, 0.00507652, 0.649745, 0.61998, 0.327582, 0.00107179, 0.00115119, 0.0017909
1.10811, 1.7242, -0.572254, -0.00412718, 0.00236614, 0.00509234, 0.651211, 0.621321, 0.327695, 0.00107127, 0.00115037, 0.0017898
1.13443, 1.72174, -0.551898, -0.00412685, 0.00236583, 0.00510215, 0.652872, 0.623125, 0.327862, 0.00107056, 0.00114933, 0.00178891
1.17063, 1.72506, -0.514064, -0.0041326, 0.00237257, 0.00510433, 0.654619, 0.625283, 0.328141, 0.00106959, 0.00114796, 0.00178818
1.19126, 1.72835, -0.501879, -0.00413446, 0.0023712, 0.00510604, 0.65629, 0.627668, 0.328565, 0.00106832, 0.00114616, 0.00178754
1.20874, 1.73216, -0.497041, -0.00413498, 0.00236493, 0.00510717, 0.657919, 0.630224, 0.329116, 0.00106676, 0.00114406, 0.00178693
1.21527, 1.73668, -0.500154, -0.00413142, 0.00235696, 0.00510687, 0.65944, 0.63296, 0.32979, 0.00106488, 0.00114131, 0.00178635
1.21065, 1.74069, -0.514251, -0.0041217, 0.00234266, 0.00510837, 0.660771, 0.635739, 0.330567, 0.00106275, 0.00113789, 0.00178569
1.1967, 1.74321, -0.532105, -0.00410729, 0.00232871, 0.00511103, 0.661971, 0.638449, 0.331511, 0.00106029, 0.00113399, 0.0017849
1.1749, 1.74387, -0.55234, -0.00408807, 0.00231568, 0.00511573, 0.662991, 0.640993, 0.332607, 0.00105756, 0.0011296, 0.00178392
1.15416, 1.74515, -0.558642, -0.00406923, 0.00231897, 0.00511842, 0.663866, 0.643279, 0.333824, 0.00105466, 0.00112492, 0.00178274
1.12411, 1.74355, -0.574343, -0.00404326, 0.00231467, 0.00512546, 0.664528, 0.645251, 0.335145, 0.00105166, 0.00111992, 0.00178135
1.09149, 1.74063, -0.592114, -0.00401518, 0.00230882, 0.00513397, 0.665124, 0.646875, 0.336505, 0.00104867, 0.00111505, 0.00177979
1.05554, 1.73639, -0.613305, -0.0039847, 0.00230075, 0.0051441, 0.665679, 0.648171, 0.337883, 0.00104577, 0.00111039, 0.00177814
1.01781, 1.73105, -0.636824, -0.00395323, 0.002292, 0.00515531, 0.66623, 0.649154, 0.339231, 0.001043, 0.00110611, 0.00177645
0.980207, 1.72577, -0.661231, -0.00392241, 0.0022831, 0.0051664, 0.666762, 0.649853, 0.34052, 0.00104042, 0.00110221, 0.00177482
0.944349, 1.72088, -0.685047, -0.00389372, 0.00227536, 0.00517692, 0.667283, 0.650295, 0.341708, 0.00103806, 0.00109878, 0.00177329
0.910429, 1.71697, -0.708791, -0.00386745, 0.00226803, 0.00518641, 0.667771, 0.65052, 0.342787, 0.00103595, 0.00109579, 0.00177192
0.879024, 1.71391, -0.731223, -0.00384417, 0.00226217, 0.00519507, 0.668221, 0.650556, 0.343735, 0.0010341, 0.00109326, 0.00177075
0.850886, 1.71273, -0.751853, -0.00382437, 0.00225705, 0.00520219, 0.668601, 0.650428, 0.344538, 0.0010325, 0.00109113, 0.00176979
0.825605, 1.7125, -0.770807, -0.00380777, 0.00225315, 0.00520849, 0.668894, 0.650157, 0.345183, 0.00103115, 0.00108937, 0.00176903
0.803667, 1.71377, -0.787353, -0.00379453, 0.00225005, 0.00521372, 0.669088, 0.649767, 0.345682, 0.00103002, 0.00108792, 0.00176845
0.784581, 1.71611, -0.802031, -0.0037841, 0.00224763, 0.00521817, 0.669163, 0.649268, 0.346025, 0.0010291, 0.00108673, 0.00176802
0.768346, 1.71964, -0.813668, -0.00377633, 0.00224567, 0.00522201, 0.669115, 0.648679, 0.346225, 0.00102835, 0.00108574, 0.00176771
0.754677, 1.72396, -0.823361, -0.0037707, 0.00224401, 0.00522533, 0.668941, 0.648014, 0.346299, 0.00102776, 0.00108491, 0.00176747
0.743575, 1.72878, -0.831035, -0.00376692, 0.00224258, 0.00522823, 0.668642, 0.647282, 0.34625, 0.00102728, 0.0010842, 0.00176727
0.734596, 1.73427, -0.836445, -0.00376456, 0.0022411, 0.0052309, 0.668228, 0.646501, 0.346094, 0.0010269, 0.00108357, 0.00176708
0.72787, 1.74005, -0.839747, -0.00376338, 0.00223957, 0.00523336, 0.667713, 0.645686, 0.345851, 0.0010266, 0.001083, 0.00176686
0.722864, 1.74613, -0.84154, -0.00376298, 0.00223797, 0.00523578, 0.667115, 0.644854, 0.345535, 0.00102635, 0.00108247, 0.00176661
0.719361, 1.75206, -0.841482, -0.00376308, 0.00223627, 0.00523812, 0.666457, 0.644022, 0.345164, 0.00102615, 0.00108197, 0.0017663
0.717441, 1.75792, -0.840592, -0.00376355, 0.00223463, 0.00524044, 0.665763, 0.643208, 0.344753, 0.00102599, 0.00108149, 0.00176594
0.716688, 1.76366, -0.838195, -0.0037642, 0.00223283, 0.00524278, 0.665063, 0.642434, 0.344325, 0.00102586, 0.00108104, 0.00176553
0.716923, 1.76932, -0.83471, -0.00376491, 0.00223094, 0.00524519, 0.664382, 0.641715, 0.343891, 0.00102575, 0.00108062, 0.00176508
0.71811, 1.77461, -0.830868, -0.00376561, 0.00222919, 0.00524754, 0.663743, 0.641069, 0.343464, 0.00102566, 0.00108022, 0.0017646
0.720347, 1.77972, -0.826222, -0.00376627, 0.00222742, 0.00524991, 0.663169, 0.640508, 0.343054, 0.00102559, 0.00107986, 0.0017641
0.723181, 1.78452, -0.821577, -0.00376683, 0.00222582, 0.00525222, 0.662674, 0.64004, 0.342662, 0.00102554, 0.00107954, 0.00176361
0.726381, 1.7892, -0.816439, -0.00376729, 0.00222424, 0.00525453, 0.66228, 0.639678, 0.342299, 0.0010255, 0.00107926, 0.00176313
0.729941, 1.7934, -0.811366, -0.00376762, 0.00222281, 0.00525665, 0.662001, 0.63943, 0.341979, 0.00102548, 0.00107902, 0.00176269
0.733641, 1.79762, -0.806321, -0.00376787, 0.0022215, 0.00525875, 0.661847, 0.639303, 0.341705, 0.00102547, 0.00107882, 0.00176228
0.737495, 1.80169, -0.801776, -0.00376804, 0.00222038, 0.00526074, 0.661822, 0.639293, 0.341474, 0.00102546, 0.00107865, 0.00176191
0.741632, 1.80575, -0.797009, -0.00376812, 0.00221928, 0.00526267, 0.661931, 0.639405, 0.34129, 0.00102546, 0.00107852, 0.0017616
0.745754, 1.80967, -0.792658, -0.00376814, 0.00221832, 0.00526443, 0.662171, 0.639634, 0.341151, 0.00102546, 0.00107841, 0.00176133
0.749668, 1.81334, -0.789152, -0.00376808, 0.00221755, 0.00526598, 0.662535, 0.639971, 0.341045, 0.00102546, 0.00107832, 0.00176111
0.753405, 1.81687, -0.786066, -0.00376796, 0.00221687, 0.00526734, 0.663022, 0.640416, 0.340978, 0.00102545, 0.00107825, 0.00176094
0.757074, 1.82044, -0.78313, -0.00376777, 0.00221623, 0.00526856, 0.663625, 0.640961, 0.34095, 0.00102543, 0.00107818, 0.00176081
0.760514, 1.82407, -0.780451, -0.00376753, 0.00221565, 0.00526961, 0.66433, 0.641595, 0.340956, 0.0010254, 0.00107812, 0.00176071
0.763879, 1.82761, -0.778825, -0.00376722, 0.00221515, 0.00527051, 0.665127, 0.642306, 0.34099, 0.00102536, 0.00107805, 0.00176064
0.766756, 1.83118, -0.777328, -0.00376685, 0.0022147, 0.0052712, 0.666003, 0.643085, 0.341046, 0.00102531, 0.00107797, 0.00176059
0.769542, 1.83466, -0.776487, -0.00376643, 0.00221427, 0.00527175, 0.66695, 0.643922, 0.341127, 0.00102524, 0.00107789, 0.00176055
0.771831, 1.83818, -0.77578, -0.00376595, 0.0022139, 0.00527211, 0.667958, 0.644812, 0.341232, 0.00102516, 0.00107779, 0.00176052
0.773694, 1.84155, -0.775416, -0.00376544, 0.00221358, 0.0052723, 0.66902, 0.645746, 0.341363, 0.00102506, 0.00107768, 0.0017605
0.775661, 1.84503, -0.775506, -0.00376487, 0.00221321, 0.0052724, 0.670127, 0.646716, 0.341519, 0.00102495, 0.00107756, 0.00176048
0.777315, 1.84861, -0.776081, -0.00376421, 0.00221285, 0.00527236, 0.671265, 0.647712, 0.341688, 0.00102483, 0.00107743, 0.00176045
