-0.00517139, -0.000615339, -0.55855, -7.2655e-05, 0.000487252, 0.000295508, 0.0316228, 0.0316228, 0.0316228, 0.0316228, 0.0316228, 0.0316228
-0.00517139, -0.000615339, -0.55855, -7.2655e-05, 0.000487252, 0.000295508, 0.172256, 0.172256, 0.172256, 0.0316228, 0.0316228, 0.0316228
-0.00535141, -0.00061715, -0.559659, -7.89122e-05, 0.000662083, 0.000315075, 0.193424, 0.193422, 0.193422, 0.031612, 0.0316121, 0.0316188
-0.00534547, -0.000730192, -0.560359, -0.00010269, 0.000685311, 0.000309062, 0.212359, 0.212349, 0.212343, 0.0315871, 0.0315881, 0.0316149
-0.00504492, -0.000861542, -0.56034, -0.000123428, 0.000633211, 0.000301691, 0.229465, 0.229445, 0.229376, 0.0315328, 0.031535, 0.0316109
-0.00425104, -0.000940293, -0.5586, -0.000134922, 0.000565737, 0.000301789, 0.245018, 0.245003, 0.244661, 0.0314307, 0.0314323, 0.031607
-0.00290391, -0.000773592, -0.554312, -0.000125268, 0.000407571, 0.000297429, 0.259253, 0.25926, 0.258165, 0.0312683, 0.0312672, 0.031603
-0.00105729, -0.000137345, -0.549267, -6.62818e-05, 0.000197559, 0.000288923, 0.272478, 0.272438, 0.26992, 0.0310456, 0.0310528, 0.0315989
0.000780247, 0.000790086, -0.544778, 5.23904e-05, -0.000123238, 0.000286817, 0.28501, 0.284748, 0.280258, 0.0307726, 0.0308178, 0.0315948
0.00199447, 0.00148157, -0.539445, 0.000145216, -0.00031074, 0.000284854, 0.296901, 0.29636, 0.289295, 0.0304658, 0.0305601, 0.0315907
0.00213926, 0.00153876, -0.540544, 0.000172294, -0.000325716, 0.000278817, 0.308079, 0.307375, 0.296767, 0.0301382, 0.0302607, 0.0315866
0.00218364, 0.00125666, -0.544241, 0.000157389, -0.000250974, 0.000269661, 0.318565, 0.317823, 0.302703, 0.0297908, 0.0299184, 0.0315825
0.00221349, 0.000894728, -0.551018, 0.000139553, -0.000239551, 0.000261902, 0.328485, 0.327691, 0.307846, 0.029416, 0.0295508, 0.0315782
0.00267326, 0.000730886, -0.556146, 0.000123082, -0.000280912, 0.000263936, 0.337788, 0.336971, 0.312181, 0.029011, 0.0291489, 0.0315739
0.00287451, 0.000607292, -0.559393, 9.5723e-05, -0.000323383, 0.000270646, 0.346422, 0.345683, 0.315421, 0.0285781, 0.0287017, 0.0315696
0.00244839, 0.000229534, -0.561106, 4.88604e-05, -0.000272879, 0.000280001, 0.35434, 0.353851, 0.317, 0.0281165, 0.0281951, 0.0315656
0.00104059, -0.000527675, -0.564174, -1.60661e-05, -7.97181e-05, 0.000279452, 0.361663, 0.3615, 0.316987, 0.0276207, 0.0276382, 0.0315613
-0.00078809, -0.00129732, -0.564509, -0.000115427, 0.00014427, 0.000277842, 0.368652, 0.368707, 0.316212, 0.027086, 0.0270589, 0.031556
-0.00317438, -0.00148654, -0.559578, -0.000174703, 0.000310947, 0.000270469, 0.375537, 0.375571, 0.315682, 0.0265085, 0.0264798, 0.0315491
-0.00490906, -0.00131797, -0.556234, -0.0001938, 0.000455419, 0.000278827, 0.382432, 0.382187, 0.315593, 0.0258853, 0.0259027, 0.0315408
-0.00593646, -0.000894703, -0.557744, -0.000173427, 0.000643749, 0.000283542, 0.389302, 0.388692, 0.316059, 0.0252196, 0.025306, 0.0315306
-0.00709957, -0.000790649, -0.558698, -0.000179648, 0.000789199, 0.000273333, 0.395992, 0.39529, 0.317177, 0.02454, 0.0246549, 0.0315184
-0.00827976, -0.00120585, -0.558656, -0.000254666, 0.000903232, 0.000248911, 0.402537, 0.402187, 0.319384, 0.0238993, 0.023958, 0.031505
-0.00922924, -0.00208967, -0.560185, -0.00037697, 0.00100611, 0.000216399, 0.409073, 0.409508, 0.323395, 0.0233485, 0.0232512, 0.0314914
-0.00943948, -0.00394805, -0.565828, -0.000598711, 0.00114623, 0.000182141, 0.415757, 0.417228, 0.329449, 0.0229065, 0.0225808, 0.0314777
-0.00932701, -0.00586637, -0.573575, -0.000879867, 0.00133897, 0.000132175, 0.422577, 0.425162, 0.336759, 0.0225405, 0.0219608, 0.0314622
-0.0090208, -0.00739295, -0.58119, -0.00121047, 0.00149862, 6.20065e-05, 0.429429, 0.43311, 0.344304, 0.0222032, 0.0213759, 0.0314441
-0.0082686, -0.00815178, -0.587131, -0.00151653, 0.00153861, -4.54572e-06, 0.436283, 0.440905, 0.351372, 0.0218501, 0.0208145, 0.0314251
-0.00769938, -0.00815983, -0.590663, -0.00172367, 0.00152082, -4.21177e-05, 0.443191, 0.448415, 0.35764, 0.0214466, 0.0202765, 0.0314066
-0.00680762, -0.00789663, -0.593594, -0.00193145, 0.00146204, -8.44544e-05, 0.450176, 0.455507, 0.363206, 0.0209809, 0.0197729, 0.0313875
-0.00583696, -0.00891454, -0.597304, -0.0023294, 0.00140952, -0.000174464, 0.457214, 0.461962, 0.368053, 0.0204412, 0.0193012, 0.0313651
-0.00452434, -0.00697358, -0.602475, -0.00278169, 0.00130931, -0.000258044, 0.464293, 0.467368, 0.371448, 0.0197861, 0.0188438, 0.0313349
-0.00350885, -0.00528586, -0.606028, -0.00299287, 0.00123246, -0.000305502, 0.471374, 0.471224, 0.372858, 0.0190059, 0.0183899, 0.0312913
-0.00294759, -0.00402432, -0.606883, -0.00293419, 0.00118214, -0.000322383, 0.478439, 0.473239, 0.372865, 0.0181545, 0.0179559, 0.0312304
-0.00252849, -0.00241957, -0.607313, -0.00278404, 0.00116518, -0.000320088, 0.485474, 0.473338, 0.37235, 0.0172978, 0.0175586, 0.0311475
-0.00208487, -0.00139223, -0.606155, -0.00253357, 0.00116326, -0.000306107, 0.492475, 0.471647, 0.371818, 0.016486, 0.017202, 0.031037
-0.00181633, -0.00168433, -0.603214, -0.00222349, 0.00114977, -0.00031077, 0.499414, 0.468763, 0.372017, 0.0157756, 0.016883, 0.0308956
-0.00175514, -0.0032887, -0.597931, -0.0017895, 0.00113597, -0.000315958, 0.50628, 0.465561, 0.373695, 0.0151956, 0.0166033, 0.0307228
-0.00153696, -0.00513351, -0.592467, -0.00137373, 0.00112401, -0.000333011, 0.51306, 0.462716, 0.377163, 0.0147405, 0.0163658, 0.0305196
-0.00103516, -0.00546051, -0.589818, -0.00114285, 0.00110807, -0.000370525, 0.519755, 0.460584, 0.382115, 0.0143864, 0.0161662, 0.0302857
-0.000583364, -0.00345158, -0.587999, -0.000996217, 0.00108092, -0.000447163, 0.52639, 0.459655, 0.387961, 0.0141166, 0.0159966, 0.030018
-0.000314306, -0.0033867, -0.585713, -0.000769347, 0.00110591, -0.000430926, 0.532968, 0.460413, 0.3944, 0.0139191, 0.0158543, 0.0297125
-0.000331748, -0.00213058, -0.581034, -0.000534567, 0.00108713, -0.000514386, 0.539464, 0.462817, 0.401302, 0.0137742, 0.0157386, 0.0293724
-7.80703e-06, -0.000323647, -0.581049, -0.000392605, 0.00110592, -0.000518346, 0.54588, 0.466677, 0.408508, 0.0136624, 0.0156472, 0.0289975
-4.06989e-05, 0.00249662, -0.580234, -0.000244952, 0.00111787, -0.000544959, 0.552247, 0.472069, 0.415843, 0.0135725, 0.0155747, 0.0285808
-0.000114957, 0.00280074, -0.577056, -6.18281e-05, 0.00111128, -0.000636464, 0.558557, 0.478699, 0.423179, 0.01349, 0.0155181, 0.0281288
-0.000809409, 0.000939949, -0.571766, 7.25373e-05, 0.00107667, -0.000774612, 0.564793, 0.485968, 0.430313, 0.0133978, 0.0154736, 0.0276641
-0.00118653, -0.000998975, -0.566755, 0.000180728, 0.00104571, -0.000933913, 0.570956, 0.493429, 0.437021, 0.0132822, 0.0154381, 0.0271986
-0.0017041, -0.00284458, -0.56165, 0.000249731, 0.00101053, -0.00109125, 0.577036, 0.50089, 0.442997, 0.0131275, 0.0154097, 0.0267404
-0.00298525, -0.00515061, -0.552972, 0.000205444, 0.000954854, -0.0013128, 0.583002, 0.508247, 0.447848, 0.0129222, 0.0153875, 0.0262937
-0.00539889, -0.00754549, -0.538992, 3.51048e-05, 0.000886153, -0.00157308, 0.588835, 0.515506, 0.451117, 0.01266, 0.0153697, 0.025871
-0.00650827, -0.00885297, -0.53123, 3.45063e-05, 0.000867113, -0.00166736, 0.594556, 0.522701, 0.452408, 0.0123362, 0.0153536, 0.0254895
-0.00854578, -0.00901301, -0.520673, -7.8471e-05, 0.000826027, -0.00175555, 0.600119, 0.529828, 0.451108, 0.0119532, 0.0153383, 0.0251479
-0.0107268, -0.00788377, -0.508931, -0.000271581, 0.000791188, -0.00186564, 0.605539, 0.536854, 0.446972, 0.0115268, 0.015322, 0.0248521
-0.0119644, -0.0073192, -0.503901, -0.000265813, 0.000784422, -0.00185881, 0.610845, 0.543561, 0.440138, 0.0110777, 0.0153031, 0.0246049
-0.0124347, -0.00709381, -0.502796, -0.000230188, 0.000791361, -0.00184007, 0.616059, 0.549681, 0.430585, 0.0106222, 0.0152802, 0.0244061
-0.0125382, -0.00541738, -0.498055, -0.000337587, 0.000776894, -0.00191682, 0.621229, 0.554764, 0.418827, 0.0101729, 0.015251, 0.0242593
-0.0126972, -0.00362683, -0.49448, -0.00039053, 0.000751, -0.00196233, 0.626391, 0.558337, 0.406197, 0.00975036, 0.0152131, 0.0241615
-0.0131619, -0.00154318, -0.492145, -0.0003861, 0.000717873, -0.00197731, 0.631562, 0.560004, 0.393906, 0.00937086, 0.0151636, 0.0241035
-0.0134615, 0.000522461, -0.491693, -0.000335226, 0.000674457, -0.00197734, 0.636735, 0.559406, 0.382851, 0.00903986, 0.0150994, 0.0240754
-0.0138112, 0.00228622, -0.493202, -0.000251691, 0.000627521, -0.00195699, 0.641886, 0.556341, 0.37377, 0.00875142, 0.0150179, 0.0240654
-0.0138874, 0.00278595, -0.496007, -0.000169719, 0.000584579, -0.00192753, 0.646982, 0.550831, 0.367126, 0.00849828, 0.0149173, 0.0240594
-0.0144622, 0.00394285, -0.499754, -7.08761e-05, 0.000546482, -0.0018917, 0.651986, 0.543109, 0.363023, 0.00827422, 0.0147968, 0.0240415
-0.0155032, 0.00902244, -0.501165, -2.89795e-05, 0.000493927, -0.00185061, 0.656883, 0.533725, 0.361233, 0.00807791, 0.014657, 0.0239966
-0.0170115, 0.0202634, -0.499224, -7.12537e-05, 0.000408827, -0.00178889, 0.661698, 0.523586, 0.361309, 0.00791397, 0.0144988, 0.0239097
-0.018617, 0.031894, -0.499283, -9.7741e-05, 0.000332669, -0.00172154, 0.666476, 0.514049, 0.362878, 0.00778725, 0.0143239, 0.0237677
-0.0200972, 0.0422182, -0.5021, -9.4398e-05, 0.000286533, -0.00167486, 0.671245, 0.506384, 0.365741, 0.00769317, 0.0141352, 0.0235624
-0.0210032, 0.0505932, -0.508069, -5.90263e-05, 0.000249308, -0.00162162, 0.676016, 0.501298, 0.369667, 0.00762457, 0.0139371, 0.023293
-0.020956, 0.0566254, -0.515503, -1.40141e-05, 0.000201123, -0.00153212, 0.680761, 0.499001, 0.374347, 0.00757702, 0.0137374, 0.0229681
-0.0201892, 0.0591672, -0.523789, 4.2351e-05, 0.00017098, -0.00145761, 0.685436, 0.499334, 0.379459, 0.00754592, 0.0135453, 0.0226033
-0.0188835, 0.0579656, -0.533397, 0.000106902, 0.00016652, -0.00142006, 0.690018, 0.501775, 0.384662, 0.00752365, 0.0133668, 0.0222177
-0.0166628, 0.0530305, -0.545444, 0.000169477, 0.000199701, -0.00143476, 0.694504, 0.505721, 0.389607, 0.00750111, 0.0132048, 0.0218298
-0.0141805, 0.0475364, -0.558282, 0.000208837, 0.000244572, -0.0014764, 0.69885, 0.510761, 0.394012, 0.00746922, 0.0130608, 0.0214518
-0.0117762, 0.0423294, -0.571381, 0.000213336, 0.000287866, -0.0015298, 0.703059, 0.516653, 0.397621, 0.00741953, 0.0129334, 0.0210946
-0.00930121, 0.0376809, -0.585221, 0.000175389, 0.00033982, -0.00161233, 0.707185, 0.523139, 0.400184, 0.00734671, 0.0128192, 0.0207658
-0.0067681, 0.03397, -0.600357, 8.84852e-05, 0.000390961, -0.00170661, 0.711293, 0.529986, 0.40138, 0.0072493, 0.0127147, 0.0204713
-0.00424793, 0.0315863, -0.615403, -5.08196e-05, 0.000443387, -0.00181032, 0.71544, 0.536995, 0.400893, 0.0071319, 0.0126166, 0.0202143
-0.00243034, 0.0309825, -0.628193, -0.000180281, 0.00050291, -0.00192636, 0.719616, 0.543978, 0.398694, 0.00699924, 0.0125228, 0.0199938
-0.00159192, 0.031716, -0.639056, -0.000339352, 0.000565852, -0.00206373, 0.723797, 0.550573, 0.395083, 0.00685259, 0.0124324, 0.0198128
0.0022536, 0.0380888, -0.659799, -0.0005458, 0.000663643, -0.00221411, 0.727983, 0.556192, 0.39044, 0.00669633, 0.0123452, 0.0196706
0.00317775, 0.0394745, -0.662034, -0.000565779, 0.000649913, -0.0021992, 0.732213, 0.560238, 0.38517, 0.00654114, 0.0122612, 0.0195656
0.00371409, 0.039956, -0.662663, -0.000568438, 0.000642312, -0.00218661, 0.736516, 0.562156, 0.379816, 0.00639395, 0.0121805, 0.0194931
0.00362181, 0.0391744, -0.660439, -0.000533316, 0.000630997, -0.00216551, 0.740906, 0.561499, 0.375017, 0.00625802, 0.0121034, 0.0194463
0.00261953, 0.0359093, -0.654111, -0.000447484, 0.000608338, -0.00212957, 0.74539, 0.558032, 0.371324, 0.00613358, 0.0120297, 0.0194192
0.00145232, 0.0304241, -0.645669, -0.000338611, 0.000583861, -0.00209103, 0.749961, 0.551776, 0.369104, 0.00601704, 0.0119588, 0.0194064
0.000460273, 0.0245179, -0.636706, -0.000221653, 0.00055945, -0.00205392, 0.754602, 0.543021, 0.368486, 0.00590552, 0.0118915, 0.0194014
-0.000401914, 0.0211814, -0.628109, -0.00011249, 0.000550928, -0.00202074, 0.759306, 0.532311, 0.369303, 0.00579956, 0.0118279, 0.0193976
-0.000561253, 0.0185856, -0.621697, -4.03613e-05, 0.000539452, -0.00200985, 0.764083, 0.520652, 0.37115, 0.00570575, 0.0117664, 0.019389
-0.000384252, 0.0201913, -0.615512, 1.50343e-05, 0.0005191, -0.00200314, 0.768909, 0.509283, 0.373653, 0.00562873, 0.0117066, 0.0193715
-0.000338468, 0.0210842, -0.616978, 3.17171e-07, 0.000540861, -0.00198467, 0.773731, 0.499291, 0.376564, 0.00556824, 0.0116501, 0.0193414
-0.000710402, 0.0209508, -0.616716, 8.16117e-07, 0.000547417, -0.00196879, 0.778532, 0.49141, 0.379833, 0.00552109, 0.0115973, 0.0192927
-0.00119265, 0.0214585, -0.61402, 1.47131e-05, 0.000548925, -0.00195861, 0.783303, 0.485769, 0.383427, 0.00548319, 0.011549, 0.0192195
-0.00222371, 0.0197775, -0.607584, 5.6124e-05, 0.000535606, -0.00196209, 0.788025, 0.482448, 0.387259, 0.00545322, 0.0115056, 0.0191185
-0.00346102, 0.019023, -0.600849, 9.32686e-05, 0.000522674, -0.00197007, 0.792681, 0.481495, 0.391246, 0.00542982, 0.0114674, 0.0189899
-0.005106, 0.0187092, -0.594578, 0.000127468, 0.000503896, -0.0019866, 0.79724, 0.482652, 0.395262, 0.00540953, 0.0114352, 0.0188351
-0.00770735, 0.0133081, -0.583735, 0.000174704, 0.000465781, -0.00204876, 0.801695, 0.485477, 0.399182, 0.00538787, 0.0114092, 0.0186569
-0.00983798, 0.0102704, -0.574009, 0.000211924, 0.0004432, -0.00208573, 0.80605, 0.489672, 0.402846, 0.00536044, 0.0113885, 0.0184644
-0.0117536, 0.00954062, -0.566344, 0.000252204, 0.000426289, -0.00210814, 0.810272, 0.495037, 0.40601, 0.00532333, 0.0113723, 0.0182655
-0.0132034, 0.0104658, -0.561451, 0.000303683, 0.000418142, -0.00210448, 0.814369, 0.501405, 0.408381, 0.00527263, 0.0113591, 0.0180658
-0.0158706, 0.00991338, -0.553746, 0.000332794, 0.000396, -0.002103, 0.818342, 0.508458, 0.409606, 0.0052055, 0.011348, 0.0178696
-0.0188178, 0.00926476, -0.542306, 0.000325197, 0.000371518, -0.00213449, 0.822244, 0.515819, 0.409549, 0.00512448, 0.0113377, 0.0176872
-0.0220958, 0.00992269, -0.529409, 0.000300811, 0.000345734, -0.00217096, 0.826092, 0.523151, 0.408033, 0.0050371, 0.0113271, 0.017532
-0.0245995, 0.0120006, -0.518062, 0.000270795, 0.000327016, -0.00220488, 0.8299, 0.530092, 0.405089, 0.00494962, 0.0113143, 0.0174099
-0.0269205, 0.0149519, -0.51126, 0.00026585, 0.000310857, -0.00220868, 0.833644, 0.536139, 0.400935, 0.00486088, 0.0112979, 0.0173199
-0.0288458, 0.0189722, -0.504767, 0.000249214, 0.000294785, -0.00221941, 0.837285, 0.540616, 0.395911, 0.00476983, 0.0112771, 0.0172585
-0.0304487, 0.0238835, -0.498985, 0.000227614, 0.000276789, -0.00223307, 0.840807, 0.542795, 0.390436, 0.00467873, 0.0112508, 0.0172231
-0.0320402, 0.0288843, -0.494832, 0.000208742, 0.000257662, -0.00223813, 0.844189, 0.542011, 0.385014, 0.00458968, 0.0112182, 0.0172074
-0.033333, 0.0333805, -0.492186, 0.000193821, 0.000242221, -0.00224076, 0.847447, 0.537807, 0.380151, 0.00450284, 0.0111773, 0.0172027
-0.0347782, 0.0383886, -0.490402, 0.000180348, 0.0002193, -0.0022388, 0.850624, 0.530153, 0.376264, 0.00441777, 0.0111266, 0.0171987
-0.0368231, 0.0456346, -0.489331, 0.000164371, 0.000177694, -0.00222556, 0.853796, 0.519468, 0.373523, 0.00433572, 0.0110648, 0.0171849
-0.038483, 0.0542897, -0.487867, 0.0001354, 0.000126335, -0.00219663, 0.857051, 0.506675, 0.371847, 0.00425991, 0.0109923, 0.0171505
-0.0403559, 0.0618846, -0.489122, 0.000119069, 6.26165e-05, -0.00214869, 0.860447, 0.493151, 0.371125, 0.00419234, 0.0109117, 0.0170866
-0.0420541, 0.0685921, -0.491673, 0.000106859, -3.13832e-06, -0.00208855, 0.864004, 0.480343, 0.371264, 0.0041335, 0.0108266, 0.0169887
-0.0438609, 0.0715416, -0.497317, 0.000120175, -4.88911e-05, -0.00205337, 0.86771, 0.469274, 0.372186, 0.0040831, 0.0107409, 0.0168588
-0.0454062, 0.0691365, -0.506831, 0.000165776, -7.25865e-05, -0.00204957, 0.871522, 0.460363, 0.373802, 0.00404058, 0.010658, 0.0167048
-0.0461883, 0.0646206, -0.518043, 0.000220973, -8.30967e-05, -0.00205423, 0.875378, 0.453659, 0.375976, 0.00400492, 0.0105802, 0.0165357
-0.045801, 0.0541394, -0.531352, 0.00029612, -6.79198e-05, -0.00208776, 0.879219, 0.448976, 0.378553, 0.00397502, 0.0105092, 0.016359
-0.0430374, 0.0368319, -0.546641, 0.000387034, -3.14197e-05, -0.00212843, 0.883013, 0.44552, 0.381297, 0.00394842, 0.0104439, 0.0161845
-0.0387948, 0.0141004, -0.563818, 0.000489629, 1.70993e-05, -0.00218043, 0.886731, 0.442394, 0.383959, 0.00392177, 0.0103843, 0.0160182
-0.0356353, -0.00288876, -0.57626, 0.000558684, 4.3955e-05, -0.00220866, 0.890415, 0.439297, 0.386429, 0.00389409, 0.01033, 0.0158648
-0.0335836, -0.0142709, -0.584332, 0.000596525, 5.19024e-05, -0.0022158, 0.894131, 0.436475, 0.388717, 0.00386681, 0.0102794, 0.0157252
-0.0321587, -0.022025, -0.58941, 0.000612349, 4.8417e-05, -0.00220761, 0.897909, 0.434406, 0.390791, 0.00384218, 0.0102313, 0.0155992
-0.0307704, -0.0268414, -0.593689, 0.000618836, 3.59677e-05, -0.00217981, 0.901744, 0.433354, 0.392522, 0.00382133, 0.010185, 0.0154871
-0.029676, -0.0293368, -0.598214, 0.000625585, 2.4744e-05, -0.00215595, 0.905597, 0.433363, 0.393794, 0.00380449, 0.0101404, 0.015387
-0.0289313, -0.0258837, -0.601389, 0.000643634, 4.36877e-05, -0.00216759, 0.909428, 0.434419, 0.394479, 0.00379158, 0.0100967, 0.0152975
-0.0279991, -0.0203949, -0.602686, 0.000663607, 8.19235e-05, -0.00219347, 0.913172, 0.436436, 0.394465, 0.00378184, 0.0100526, 0.015217
-0.0269512, -0.016897, -0.60308, 0.000675228, 0.000116024, -0.00221718, 0.916715, 0.439335, 0.393641, 0.00377385, 0.010007, 0.0151451
-0.0265416, -0.0157406, -0.603885, 0.00067757, 0.00014081, -0.00224429, 0.919889, 0.443008, 0.391979, 0.00376581, 0.00995773, 0.0150819
-0.0276398, -0.0162641, -0.60559, 0.000670752, 0.000151125, -0.00227644, 0.922426, 0.447305, 0.389582, 0.00375637, 0.00990159, 0.0150299
-0.0301159, -0.0174748, -0.607773, 0.000659667, 0.000141228, -0.00230248, 0.92387, 0.452034, 0.386546, 0.00374446, 0.00983379, 0.0149908
-0.0340682, -0.0191549, -0.606357, 0.000653666, 0.000115364, -0.00231173, 0.923468, 0.456963, 0.382868, 0.0037293, 0.00974678, 0.0149633
-0.0398598, -0.0215246, -0.604162, 0.00064975, 6.89436e-05, -0.00231825, 0.920123, 0.461879, 0.378514, 0.00371028, 0.00962939, 0.014945
-0.0483936, -0.0250913, -0.599974, 0.000652696, -7.83861e-06, -0.00231958, 0.912437, 0.466533, 0.373642, 0.00368805, 0.00946624, 0.0149333
-0.057406, -0.0290717, -0.594135, 0.000661399, -8.79659e-05, -0.00231397, 0.898711, 0.470691, 0.368411, 0.00366386, 0.00923669, 0.0149255
-0.0691155, -0.0335889, -0.588811, 0.000671593, -0.000196059, -0.0023094, 0.877283, 0.474347, 0.362874, 0.00363815, 0.00892117, 0.0149198
-0.083799, -0.0390983, -0.58262, 0.000689625, -0.000336027, -0.00230453, 0.847739, 0.477582, 0.357346, 0.00361216, 0.00851402, 0.0149146
-0.100025, -0.0445975, -0.576595, 0.000708508, -0.000486633, -0.0023021, 0.81173, 0.480431, 0.35229, 0.00358741, 0.00803416, 0.0149094
-0.118036, -0.0508276, -0.568939, 0.000734289, -0.000649312, -0.00230116, 0.772411, 0.482875, 0.347983, 0.00356471, 0.00751926, 0.0149034
-0.133341, -0.0552993, -0.562378, 0.000752813, -0.000771327, -0.00230795, 0.733571, 0.484909, 0.344352, 0.00354397, 0.00701659, 0.0148968
-0.149469, -0.0577103, -0.559241, 0.0007588, -0.000891176, -0.00232528, 0.69822, 0.486759, 0.341252, 0.00352534, 0.00656781, 0.0148896
-0.162505, -0.0580442, -0.558225, 0.000758111, -0.000975438, -0.00235153, 0.667974, 0.488717, 0.338598, 0.00350968, 0.00619914, 0.0148817
-0.155361, -0.0581461, -0.556757, 0.000763739, -0.000919762, -0.00235828, 0.642929, 0.491104, 0.336425, 0.00349723, 0.00591718, 0.0148735
-0.139684, -0.0588567, -0.552994, 0.000772585, -0.000807915, -0.00235019, 0.622484, 0.494126, 0.334714, 0.00348759, 0.00571416, 0.014866
-0.125127, -0.0592365, -0.550446, 0.000777705, -0.000710689, -0.00234284, 0.606261, 0.497894, 0.33329, 0.0034807, 0.00557629, 0.0148598
-0.113634, -0.0599277, -0.544668, 0.000786051, -0.000630751, -0.00233656, 0.594002, 0.502453, 0.332157, 0.00347612, 0.005489, 0.0148547
-0.104402, -0.0600279, -0.537136, 0.000795361, -0.000561464, -0.00233565, 0.585484, 0.507679, 0.331235, 0.00347306, 0.00543697, 0.0148507
-0.0964989, -0.0590142, -0.531716, 0.000801096, -0.000506972, -0.00232754, 0.58064, 0.513421, 0.330421, 0.00347109, 0.00540895, 0.0148473
-0.0922779, -0.0572409, -0.53316, 0.000801204, -0.000486889, -0.00231612, 0.578999, 0.519454, 0.329749, 0.0034698, 0.00539424, 0.0148439
-0.064531, -0.0395814, -0.535207, 0.000817734, -0.000369168, -0.00220048, 0.579911, 0.525474, 0.32934, 0.00346865, 0.00538575, 0.0148404
-0.0564162, 0.000819958, -0.541529, 0.000871234, -0.000183551, -0.00204868, 0.582951, 0.531216, 0.329245, 0.00346758, 0.0053776, 0.0148349
-0.0591736, 0.029987, -0.544965, 0.000923636, -8.3898e-05, -0.00188349, 0.587551, 0.536388, 0.329481, 0.00346625, 0.00536066, 0.0148257
-0.0656898, 0.0479873, -0.548991, 0.000977187, -1.56391e-05, -0.00182778, 0.592983, 0.540615, 0.330003, 0.00346326, 0.00532477, 0.0148177
-0.0700408, 0.0539005, -0.552886, 0.0010123, 5.52317e-05, -0.00184335, 0.598492, 0.543464, 0.330612, 0.00345691, 0.00526161, 0.0148125
-0.0678434, 0.0489579, -0.558611, 0.00101187, 0.000154771, -0.00186161, 0.603328, 0.544491, 0.331059, 0.00344634, 0.00516697, 0.0148098
-0.0586246, 0.0351208, -0.558726, 0.000969071, 0.000260274, -0.00186429, 0.606903, 0.543166, 0.331254, 0.00343255, 0.00504353, 0.0148085
-0.041967, 0.0145905, -0.559442, 0.000896774, 0.000386806, -0.00187594, 0.608967, 0.539122, 0.331085, 0.00341681, 0.00489718, 0.0148077
-0.0214684, -0.00771866, -0.558066, 0.000819256, 0.000532633, -0.00188961, 0.609129, 0.532633, 0.330495, 0.0033991, 0.00473098, 0.0148072
0.00232154, -0.0282461, -0.556808, 0.000732686, 0.000673512, -0.00189243, 0.606908, 0.524471, 0.329685, 0.00337837, 0.00454802, 0.0148065
0.0205326, -0.0405932, -0.555664, 0.00066436, 0.000773774, -0.00184409, 0.602005, 0.515583, 0.328841, 0.00335375, 0.00435321, 0.0148048
0.0586961, -0.0547801, -0.549574, 0.0005208, 0.000911559, -0.00186233, 0.594833, 0.50659, 0.328129, 0.00332622, 0.00415875, 0.0148022
0.121577, -0.0815138, -0.541608, 0.00033014, 0.00121434, -0.00184451, 0.586581, 0.49733, 0.32757, 0.00329792, 0.00398121, 0.0148006
0.169939, -0.0910101, -0.537764, 0.000182316, 0.00138304, -0.00188969, 0.578004, 0.487574, 0.327149, 0.00327016, 0.00383145, 0.0147996
0.260952, -0.0832415, -0.527089, -0.00011312, 0.00158337, -0.00206768, 0.569033, 0.477728, 0.326913, 0.00324307, 0.0037103, 0.0147975
0.30096, -0.0574307, -0.521586, -0.000283195, 0.00157724, -0.00214647, 0.559634, 0.46834, 0.326979, 0.00321688, 0.00361587, 0.0147939
0.343689, -0.0391978, -0.512848, -0.00041537, 0.00163579, -0.00230176, 0.550197, 0.459976, 0.327328, 0.00319327, 0.00354557, 0.0147888
0.365024, -0.0067861, -0.511233, -0.000520099, 0.00158966, -0.0024228, 0.541405, 0.453209, 0.327767, 0.00317364, 0.00349497, 0.014782
0.44302, -0.0339877, -0.500455, -0.000590807, 0.00191013, -0.00267823, 0.53381, 0.448323, 0.328153, 0.00315846, 0.00345952, 0.0147746
0.470955, -0.0383685, -0.495001, -0.00061867, 0.00199951, -0.00280348, 0.528018, 0.445525, 0.328735, 0.00314839, 0.00343622, 0.0147638
0.484946, -0.0215454, -0.495454, -0.000657922, 0.00199724, -0.00289487, 0.524422, 0.444595, 0.329383, 0.00314229, 0.00342283, 0.0147518
0.473876, 0.00135488, -0.496313, -0.000671006, 0.0019375, -0.00287708, 0.523017, 0.445219, 0.329893, 0.00313897, 0.00341627, 0.014742
0.450641, 0.0278367, -0.50015, -0.000657411, 0.00186901, -0.00286301, 0.523287, 0.44694, 0.330179, 0.00313708, 0.00341278, 0.0147347
0.409929, 0.05503, -0.509439, -0.000600227, 0.00181489, -0.00286605, 0.524939, 0.449443, 0.330149, 0.00313548, 0.00340986, 0.0147282
0.365072, 0.0852946, -0.514738, -0.000509839, 0.00180373, -0.00297105, 0.527767, 0.452471, 0.329694, 0.00313314, 0.00340528, 0.0147212
0.325436, 0.119309, -0.519107, -0.000396212, 0.00183314, -0.0031952, 0.531528, 0.455828, 0.328895, 0.00312913, 0.00339747, 0.0147131
0.29353, 0.155643, -0.522848, -0.000268173, 0.00190119, -0.00350925, 0.536054, 0.45935, 0.327933, 0.00312296, 0.00338561, 0.0147034
0.269786, 0.193355, -0.527813, -0.00013371, 0.00200277, -0.00388477, 0.541182, 0.462864, 0.326943, 0.00311428, 0.00336919, 0.0146908
0.256182, 0.22953, -0.534667, -7.36729e-06, 0.00212444, -0.00426043, 0.546749, 0.466196, 0.326166, 0.00310312, 0.00334816, 0.0146759
0.251482, 0.262168, -0.538562, 0.000101914, 0.00225098, -0.00459832, 0.552418, 0.469124, 0.325675, 0.00308958, 0.0033222, 0.0146588
0.252319, 0.287819, -0.538621, 0.000182042, 0.00236053, -0.00485598, 0.557791, 0.471398, 0.325424, 0.0030741, 0.00329191, 0.01464
0.25658, 0.305718, -0.537968, 0.000237553, 0.0024351, -0.00502355, 0.562473, 0.472807, 0.325304, 0.00305764, 0.00325903, 0.0146208
0.261005, 0.314137, -0.534358, 0.000267142, 0.00246817, -0.00509892, 0.56599, 0.473291, 0.325421, 0.00304115, 0.00322414, 0.0146012
0.263222, 0.314292, -0.533616, 0.000276791, 0.00246587, -0.00510333, 0.567983, 0.472817, 0.325637, 0.00302599, 0.00318993, 0.0145815
0.264484, 0.306751, -0.532296, 0.00027924, 0.00242977, -0.005045, 0.568238, 0.47146, 0.325826, 0.00301319, 0.00315769, 0.0145615
0.264707, 0.298344, -0.528646, 0.000276655, 0.00239437, -0.00496992, 0.566616, 0.469451, 0.325978, 0.00300316, 0.0031283, 0.0145385
0.271059, 0.294061, -0.523804, 0.000280361, 0.00238559, -0.00486742, 0.563286, 0.467247, 0.32611, 0.00299599, 0.00310494, 0.0145081
0.278132, 0.305433, -0.519677, 0.000286344, 0.00242649, -0.00487124, 0.558824, 0.465531, 0.326258, 0.00299129, 0.00308933, 0.0144666
0.333104, 0.418092, -0.521392, 0.000439747, 0.0027365, -0.00556884, 0.554144, 0.464918, 0.32655, 0.00298794, 0.00308045, 0.0144148
0.349985, 0.507079, -0.52259, 0.00051645, 0.00289315, -0.00604028, 0.550419, 0.465447, 0.327364, 0.00298586, 0.00307542, 0.0143644
0.320406, 0.547121, -0.536051, 0.000557207, 0.00291374, -0.00655443, 0.548525, 0.467021, 0.328466, 0.0029837, 0.00307325, 0.0143111
0.215908, 0.556536, -0.553541, 0.000625144, 0.00288948, -0.00791912, 0.548533, 0.469324, 0.329614, 0.00298106, 0.00307235, 0.0142564
0.116057, 0.567379, -0.56943, 0.000705538, 0.0029313, -0.00938219, 0.550011, 0.471757, 0.330477, 0.00297863, 0.00307111, 0.0142063
0.0636951, 0.541363, -0.575253, 0.000731153, 0.00296501, -0.0101186, 0.552827, 0.474345, 0.331068, 0.00297624, 0.00306841, 0.0141597
0.0438415, 0.492877, -0.573439, 0.000685219, 0.00296333, -0.0102308, 0.556837, 0.477514, 0.331297, 0.00297343, 0.00306288, 0.014116
0.0461842, 0.433479, -0.569931, 0.000560896, 0.00290504, -0.0098448, 0.561803, 0.481372, 0.331059, 0.00296948, 0.00305285, 0.014075
0.0630284, 0.371369, -0.566957, 0.000364637, 0.00278721, -0.00914863, 0.567407, 0.485755, 0.330304, 0.00296384, 0.00303727, 0.0140369
0.0906732, 0.313365, -0.560606, 0.000120122, 0.00262411, -0.00834479, 0.573279, 0.490294, 0.3291, 0.00295679, 0.00301668, 0.0140011
0.127583, 0.264322, -0.558275, -0.000143371, 0.00244163, -0.0075883, 0.579034, 0.494549, 0.327666, 0.00294868, 0.00299363, 0.013965
0.175191, 0.227922, -0.55661, -0.000415874, 0.00226809, -0.0069131, 0.584285, 0.498166, 0.326243, 0.00293938, 0.0029703, 0.0139282
0.233377, 0.207763, -0.556914, -0.000685383, 0.00212753, -0.00633391, 0.588473, 0.500815, 0.325149, 0.00292876, 0.00294842, 0.0138926
0.299613, 0.203407, -0.555007, -0.000936636, 0.00203407, -0.00590913, 0.590963, 0.502182, 0.324502, 0.00291717, 0.00292803, 0.0138607
0.369596, 0.212731, -0.553088, -0.00115702, 0.00198973, -0.00566164, 0.59121, 0.501981, 0.324318, 0.00290504, 0.00290919, 0.0138326
0.433398, 0.232119, -0.55291, -0.00132948, 0.001985, -0.005556, 0.588828, 0.499951, 0.324546, 0.0028926, 0.00289221, 0.0138063
0.510639, 0.273584, -0.548349, -0.00152027, 0.00199595, -0.00552378, 0.583861, 0.496007, 0.32497, 0.00288024, 0.00287715, 0.0137802
0.535309, 0.279878, -0.542607, -0.00155165, 0.00202589, -0.00563291, 0.576742, 0.490636, 0.325512, 0.00286885, 0.00286365, 0.0137561
0.542755, 0.322108, -0.534646, -0.00161352, 0.0019859, -0.0055567, 0.568392, 0.484368, 0.326083, 0.00285912, 0.00285124, 0.0137309
0.661214, 0.544228, -0.525432, -0.00199085, 0.00196521, -0.00573353, 0.560056, 0.478173, 0.326595, 0.0028517, 0.00284004, 0.0137085
0.772493, 0.737092, -0.517824, -0.00221248, 0.00197637, -0.00660672, 0.553236, 0.473524, 0.327083, 0.00284725, 0.00283181, 0.013695
0.970717, 0.784192, -0.500046, -0.00244116, 0.0022199, -0.00734176, 0.54888, 0.470752, 0.327717, 0.00284335, 0.00282722, 0.0136784
1.11637, 0.780361, -0.48945, -0.00261983, 0.00237, -0.00760736, 0.546693, 0.470575, 0.328974, 0.00283982, 0.00282467, 0.013654
1.23073, 0.747574, -0.483787, -0.0028176, 0.00246527, -0.00741191, 0.546183, 0.472327, 0.330727, 0.00283547, 0.00282292, 0.0136273
1.27604, 0.717263, -0.479543, -0.00295093, 0.00251847, -0.00700355, 0.546711, 0.475443, 0.332764, 0.00282931, 0.00282041, 0.0135986
1.27497, 0.691935, -0.475837, -0.00301536, 0.00257003, -0.00664405, 0.548214, 0.479389, 0.334667, 0.00281997, 0.00281645, 0.013563
1.22759, 0.67293, -0.477136, -0.00295355, 0.00265944, -0.00672905, 0.55082, 0.483863, 0.33609, 0.00280614, 0.0028109, 0.0135121
1.1605, 0.664616, -0.481696, -0.00276665, 0.00282883, -0.00750119, 0.554559, 0.488565, 0.336565, 0.00278726, 0.00280268, 0.0134371
1.09703, 0.670322, -0.486278, -0.00248251, 0.00311136, -0.00898992, 0.559576, 0.493419, 0.335923, 0.00276288, 0.00279134, 0.0133301
1.05128, 0.689962, -0.49126, -0.00214458, 0.00350676, -0.0110463, 0.565512, 0.498356, 0.33416, 0.00273346, 0.00277496, 0.0131887
1.02711, 0.720122, -0.495284, -0.00181206, 0.00397222, -0.0133392, 0.571773, 0.503281, 0.331542, 0.00270092, 0.00275245, 0.0130202
1.01866, 0.75631, -0.502751, -0.00152231, 0.00443919, -0.0155721, 0.577791, 0.508026, 0.328556, 0.00266827, 0.00272517, 0.0128398
1.01678, 0.795421, -0.51024, -0.00129029, 0.00484514, -0.0175441, 0.583195, 0.51239, 0.325798, 0.00263822, 0.00269753, 0.0126615
1.01338, 0.831788, -0.518522, -0.00113359, 0.0051556, -0.0190902, 0.58772, 0.516197, 0.323716, 0.00261245, 0.00267287, 0.0124967
1.02547, 0.884507, -0.526839, -0.000919368, 0.00541227, -0.0207116, 0.591, 0.519276, 0.322503, 0.00259167, 0.00265462, 0.0123483
1.08121, 0.99927, -0.539821, -0.000484056, 0.0057914, -0.0234991, 0.592546, 0.521681, 0.322128, 0.00257533, 0.00264295, 0.0122136
1.11429, 1.10724, -0.539359, -0.000173354, 0.0060881, -0.0257998, 0.592303, 0.523608, 0.322606, 0.00256299, 0.00263398, 0.0120945
1.12365, 1.16891, -0.538155, -3.87813e-05, 0.00620887, -0.0269081, 0.590776, 0.52499, 0.324013, 0.00255444, 0.00262732, 0.0119938
1.11194, 1.18297, -0.529497, -3.31558e-05, 0.00621035, -0.0270901, 0.588608, 0.526021, 0.326122, 0.00254836, 0.00262285, 0.0119106
1.10907, 1.15802, -0.539638, -7.24261e-05, 0.00620083, -0.0267462, 0.586409, 0.527026, 0.32848, 0.0025435, 0.00262025, 0.0118436
1.0998, 1.11939, -0.55161, -0.000127825, 0.00618082, -0.0262895, 0.584279, 0.528281, 0.330693, 0.0025391, 0.00261839, 0.0117894
1.06691, 1.09524, -0.554448, -0.000168609, 0.0061369, -0.0261387, 0.581916, 0.529375, 0.332553, 0.0025358, 0.002616, 0.0117486
1.04007, 1.03743, -0.559041, -0.000203887, 0.00605228, -0.025841, 0.579073, 0.529632, 0.334048, 0.0025341, 0.00261177, 0.0117182
1.0168, 0.951317, -0.565449, -0.000213038, 0.00591811, -0.0255469, 0.575754, 0.529071, 0.334951, 0.00253305, 0.00260544, 0.0116924
0.993941, 0.841204, -0.571734, -0.000176095, 0.00572356, -0.0254307, 0.57206, 0.527504, 0.335149, 0.00253197, 0.0025962, 0.0116679
0.97299, 0.716161, -0.571914, -8.41838e-05, 0.00548005, -0.0255991, 0.56799, 0.524763, 0.334678, 0.00253014, 0.00258297, 0.0116386
0.950876, 0.581298, -0.577681, 6.88922e-05, 0.00518301, -0.0261054, 0.563765, 0.520865, 0.333706, 0.00252679, 0.00256528, 0.0115991
0.930551, 0.446904, -0.579953, 0.000266857, 0.00486633, -0.0269063, 0.559732, 0.515875, 0.332509, 0.00252109, 0.00254324, 0.0115452
0.917929, 0.323263, -0.575816, 0.000479951, 0.00457841, -0.0278479, 0.556445, 0.510281, 0.331459, 0.00251319, 0.00251867, 0.0114813
0.917046, 0.21855, -0.562911, 0.000670394, 0.00436054, -0.0287508, 0.554207, 0.504849, 0.330905, 0.00250459, 0.00249349, 0.0114181
0.925836, 0.132525, -0.549268, 0.000820337, 0.00421208, -0.0294961, 0.552648, 0.500325, 0.330908, 0.00249758, 0.00247275, 0.0113678
0.939167, 0.0631684, -0.541163, 0.000928273, 0.00411206, -0.0300648, 0.551306, 0.496822, 0.331433, 0.00249259, 0.00245702, 0.0113317
0.954483, 0.00917059, -0.540229, 0.000997909, 0.00404539, -0.0304646, 0.549786, 0.49426, 0.332446, 0.00248938, 0.00244442, 0.0113066
0.968938, -0.0315105, -0.546602, 0.00103505, 0.00399917, -0.0307203, 0.547673, 0.492523, 0.333883, 0.00248753, 0.002433, 0.0112885
0.977527, -0.0602887, -0.563498, 0.00104565, 0.00394901, -0.0308558, 0.544571, 0.491482, 0.33565, 0.00248638, 0.00242099, 0.0112726
0.978858, -0.0786765, -0.588497, 0.0010368, 0.0038867, -0.0309076, 0.540189, 0.491037, 0.337652, 0.00248533, 0.00240695, 0.0112551
0.970514, -0.08852, -0.621214, 0.00101345, 0.00380166, -0.0308998, 0.534368, 0.491137, 0.3398, 0.00248389, 0.00239005, 0.011233
0.94791, -0.0920801, -0.668082, 0.000972299, 0.00367279, -0.0308329, 0.527033, 0.491775, 0.341901, 0.00248166, 0.00237099, 0.0112048
0.917245, -0.0911282, -0.722654, 0.000917759, 0.00353914, -0.0307159, 0.518342, 0.492976, 0.343469, 0.00247827, 0.00235287, 0.0111705
0.887458, -0.0867171, -0.775574, 0.000862797, 0.00343247, -0.0305889, 0.50917, 0.494791, 0.344322, 0.00247325, 0.00233645, 0.0111294
0.855303, -0.0799122, -0.825599, 0.000808867, 0.00334154, -0.030441, 0.500719, 0.4972, 0.344789, 0.00246643, 0.00232109, 0.01108
0.824931, -0.0721564, -0.868159, 0.000764137, 0.00326956, -0.0303031, 0.493789, 0.500095, 0.345189, 0.00245795, 0.00230676, 0.0110215
0.801915, -0.0648412, -0.899344, 0.000734475, 0.003221, -0.0302096, 0.48881, 0.503337, 0.345731, 0.00244827, 0.00229373, 0.0109544
0.790338, -0.0582916, -0.91481, 0.000732705, 0.00319178, -0.0302202, 0.485873, 0.506775, 0.346519, 0.00243802, 0.00228198, 0.0108807
0.770078, -0.0500851, -0.935741, 0.000717684, 0.00316517, -0.0301413, 0.484852, 0.510283, 0.347573, 0.00242786, 0.00227114, 0.0108023
0.747595, -0.0413723, -0.959057, 0.000695983, 0.00315498, -0.0300013, 0.48569, 0.513787, 0.348708, 0.00241798, 0.00226049, 0.0107196
0.728866, -0.0336172, -0.980384, 0.000673203, 0.00316432, -0.02984, 0.488131, 0.517236, 0.349781, 0.00240859, 0.00224907, 0.0106334
0.715394, -0.0267634, -0.993473, 0.00066039, 0.00318078, -0.0297184, 0.491669, 0.520474, 0.350726, 0.00240033, 0.00223674, 0.0105488
0.707255, -0.0207774, -0.997554, 0.000657822, 0.00319518, -0.0296603, 0.496098, 0.523302, 0.351333, 0.0023937, 0.00222337, 0.0104723
0.702353, -0.0162228, -0.992136, 0.000663818, 0.00320172, -0.0296599, 0.501255, 0.525564, 0.351362, 0.00238876, 0.00220822, 0.0104082
0.697129, -0.0122624, -0.980537, 0.000673512, 0.00319919, -0.029686, 0.506775, 0.527151, 0.350675, 0.00238527, 0.00219066, 0.0103574
0.690529, -0.0110168, -0.951881, 0.000697114, 0.0031517, -0.0298163, 0.512154, 0.527903, 0.349255, 0.00238301, 0.00217138, 0.0103195
0.679735, -0.0108498, -0.914918, 0.000723526, 0.00307937, -0.0299718, 0.516938, 0.527616, 0.347176, 0.00238145, 0.00215174, 0.0102924
0.663839, -0.0123835, -0.868908, 0.000753043, 0.00297387, -0.0301591, 0.520745, 0.526238, 0.344537, 0.00237992, 0.0021318, 0.0102711
0.643734, -0.0138037, -0.818473, 0.000780048, 0.00285662, -0.0303403, 0.523337, 0.523735, 0.341632, 0.00237775, 0.00211393, 0.0102501
0.620039, -0.0164386, -0.75123, 0.000811732, 0.00271835, -0.03057, 0.524886, 0.520092, 0.338874, 0.00237426, 0.00210158, 0.0102234
0.59897, -0.0175368, -0.682452, 0.000838582, 0.00260509, -0.0307815, 0.525887, 0.515538, 0.336565, 0.00236924, 0.00209381, 0.0101887
0.579398, -0.0158903, -0.615243, 0.000856656, 0.0025185, -0.0309522, 0.526987, 0.510614, 0.334922, 0.00236343, 0.00208864, 0.01015
0.560302, -0.00877412, -0.565, 0.000857549, 0.0024678, -0.0310107, 0.528535, 0.505789, 0.333949, 0.00235776, 0.00208419, 0.0101125
0.54392, -0.00258075, -0.510117, 0.000859576, 0.00243, -0.0310866, 0.531359, 0.50112, 0.333874, 0.00235212, 0.0020804, 0.0100762
0.529601, 0.00772471, -0.465943, 0.000849231, 0.00239758, -0.0310982, 0.534794, 0.496936, 0.33427, 0.00234732, 0.0020756, 0.0100449
0.519003, 0.0178242, -0.434614, 0.000837996, 0.00236539, -0.0310792, 0.538217, 0.493391, 0.334797, 0.00234357, 0.00206946, 0.0100195
0.513625, 0.0256631, -0.412347, 0.000830053, 0.00233189, -0.031055, 0.541338, 0.490475, 0.335282, 0.00234066, 0.00206214, 0.00999865
0.51355, 0.0321219, -0.397273, 0.000824992, 0.00230228, -0.0310261, 0.544297, 0.488043, 0.335695, 0.00233823, 0.00205423, 0.00997978
0.517817, 0.0381984, -0.387849, 0.000822049, 0.00227844, -0.0309933, 0.547407, 0.48603, 0.336039, 0.00233611, 0.00204655, 0.00996187
0.526192, 0.0428132, -0.385856, 0.000823389, 0.0022619, -0.0309708, 0.550561, 0.484481, 0.336197, 0.00233432, 0.00203971, 0.00994511
0.535194, 0.0469803, -0.388548, 0.000827031, 0.00224952, -0.0309563, 0.554029, 0.483386, 0.336205, 0.00233278, 0.00203394, 0.00992931
0.545378, 0.0490784, -0.399715, 0.000837275, 0.00223469, -0.030974, 0.557594, 0.482758, 0.336019, 0.00233142, 0.00202894, 0.00991452
0.553652, 0.049449, -0.419144, 0.000853683, 0.0022117, -0.0310267, 0.560827, 0.482614, 0.33562, 0.00233019, 0.00202419, 0.00990088
0.557141, 0.0468745, -0.448618, 0.000877774, 0.00217141, -0.0311287, 0.5632, 0.48295, 0.335054, 0.00232904, 0.00201896, 0.00988833
0.55589, 0.0418486, -0.486072, 0.000908184, 0.00211203, -0.03127, 0.564038, 0.483792, 0.334341, 0.00232791, 0.00201326, 0.0098768
0.564631, 0.0385866, -0.508416, 0.000929222, 0.00207293, -0.0313401, 0.562797, 0.485191, 0.33344, 0.00232667, 0.00200783, 0.00986603
0.55399, 0.0250924, -0.575236, 0.000970933, 0.00197737, -0.0316086, 0.559549, 0.48714, 0.332367, 0.00232511, 0.00200325, 0.0098553
0.573245, 0.0205649, -0.585064, 0.00097845, 0.00197368, -0.0315997, 0.555085, 0.48962, 0.331308, 0.00232292, 0.00199925, 0.00984424
0.596058, 0.0109065, -0.604717, 0.000981849, 0.00196843, -0.0315867, 0.55084, 0.492474, 0.330403, 0.00232, 0.00199687, 0.00983185
0.614604, -0.00156928, -0.631717, 0.000981507, 0.00196016, -0.0315766, 0.548061, 0.495653, 0.329995, 0.00231619, 0.00199573, 0.00981786
0.619726, -0.0154443, -0.670045, 0.00097599, 0.00194559, -0.031593, 0.547328, 0.499094, 0.330278, 0.00231126, 0.0019953, 0.00980075
0.627916, -0.0297548, -0.699537, 0.000959089, 0.00192727, -0.0315177, 0.548237, 0.502764, 0.331273, 0.00230518, 0.00199471, 0.00977826
0.630393, -0.043844, -0.729604, 0.000933196, 0.00190173, -0.0314054, 0.550357, 0.506587, 0.332806, 0.00229818, 0.00199338, 0.00974977
0.623833, -0.0563776, -0.767419, 0.000907286, 0.00187468, -0.0313052, 0.553639, 0.510457, 0.334658, 0.00229065, 0.00199087, 0.00971599
0.59876, -0.0619637, -0.81103, 0.000893811, 0.00187761, -0.0313194, 0.557551, 0.514223, 0.336577, 0.0022835, 0.00198721, 0.00968076
0.579726, -0.0666608, -0.860715, 0.000875491, 0.00189137, -0.0312989, 0.562181, 0.51769, 0.338333, 0.00227734, 0.00198234, 0.00964713
0.570975, -0.0711583, -0.894529, 0.000855055, 0.00190521, -0.0312403, 0.566945, 0.520742, 0.339686, 0.00227254, 0.00197722, 0.00961826
0.569454, -0.0766125, -0.910801, 0.000839173, 0.00191198, -0.0311765, 0.571463, 0.523196, 0.340446, 0.00226934, 0.00197248, 0.00959761
0.572123, -0.0833506, -0.912022, 0.000831914, 0.00190614, -0.0311349, 0.57515, 0.524868, 0.340471, 0.00226761, 0.00196885, 0.00958617
0.57934, -0.0912906, -0.898334, 0.000836211, 0.00189319, -0.0311398, 0.577201, 0.525515, 0.339732, 0.0022668, 0.00196729, 0.00958214
0.595963, -0.108047, -0.834701, 0.00087513, 0.0018821, -0.0312732, 0.577512, 0.524931, 0.338456, 0.0022659, 0.00196698, 0.00957959
0.603334, -0.120928, -0.781135, 0.000917789, 0.00189356, -0.0314116, 0.577093, 0.52344, 0.33708, 0.00226428, 0.0019667, 0.00957352
0.611509, -0.133858, -0.710561, 0.000971405, 0.00190774, -0.0316036, 0.577149, 0.521412, 0.335938, 0.00226199, 0.00196631, 0.00956365
0.613671, -0.144741, -0.647923, 0.00102324, 0.00190637, -0.031791, 0.578135, 0.519348, 0.335118, 0.00225952, 0.00196577, 0.00955219
0.616399, -0.149808, -0.592068, 0.0010658, 0.00190221, -0.0319644, 0.580622, 0.517306, 0.334871, 0.00225676, 0.00196427, 0.00953854
0.619169, -0.152015, -0.550267, 0.00110074, 0.00188402, -0.0321161, 0.58422, 0.515468, 0.335068, 0.00225399, 0.00196134, 0.00952398
0.619225, -0.150007, -0.519908, 0.00112444, 0.00186105, -0.0322211, 0.588307, 0.513973, 0.33554, 0.00225137, 0.00195705, 0.0095095
0.617293, -0.138709, -0.51556, 0.00112038, 0.00186497, -0.0321982, 0.593203, 0.512817, 0.336403, 0.00224883, 0.00195061, 0.00949489
0.619984, -0.131506, -0.513117, 0.00112577, 0.00185269, -0.0322251, 0.598088, 0.5121, 0.337377, 0.00224659, 0.00194394, 0.00948148
0.624417, -0.126962, -0.509766, 0.00113639, 0.00183657, -0.0322726, 0.602646, 0.51184, 0.338306, 0.00224447, 0.00193835, 0.00946978
0.63064, -0.124175, -0.512329, 0.00114924, 0.00182095, -0.0323295, 0.607201, 0.511991, 0.339235, 0.00224224, 0.00193338, 0.00945876
0.637486, -0.122323, -0.517008, 0.00116425, 0.0018058, -0.0323941, 0.61111, 0.512631, 0.339978, 0.00223978, 0.00192969, 0.00944779
0.641564, -0.123786, -0.531936, 0.00118241, 0.00178486, -0.032478, 0.613948, 0.513754, 0.340562, 0.00223692, 0.00192614, 0.00943647
0.642166, -0.127843, -0.554165, 0.00120468, 0.00175552, -0.0325856, 0.614628, 0.515438, 0.340794, 0.00223342, 0.00192278, 0.00942378
0.655008, -0.143345, -0.580947, 0.0012307, 0.00171601, -0.0327103, 0.612587, 0.51766, 0.34059, 0.00222908, 0.00191903, 0.00940931
0.674991, -0.162, -0.615096, 0.00126416, 0.00167799, -0.0328482, 0.60806, 0.52043, 0.340104, 0.00222361, 0.00191399, 0.00939253
0.727885, -0.172474, -0.606006, 0.00125381, 0.00172029, -0.0327641, 0.601878, 0.523763, 0.339355, 0.0022165, 0.00190861, 0.0093712
0.77354, -0.181853, -0.598894, 0.00123474, 0.00176016, -0.0326462, 0.59529, 0.52758, 0.338758, 0.00220789, 0.00190304, 0.00934437
0.797805, -0.192812, -0.604413, 0.00121462, 0.00177015, -0.0325392, 0.589282, 0.531787, 0.33859, 0.00219791, 0.00189771, 0.00931102
0.798341, -0.204397, -0.620313, 0.00119407, 0.00175078, -0.0324455, 0.584693, 0.536277, 0.338954, 0.0021868, 0.00189325, 0.00927046
0.787943, -0.216861, -0.641829, 0.00117076, 0.00171837, -0.0323359, 0.581781, 0.540925, 0.339901, 0.00217517, 0.00188945, 0.00922372
0.790483, -0.227132, -0.646138, 0.00113414, 0.00171024, -0.0321635, 0.580264, 0.545627, 0.341418, 0.00216377, 0.00188557, 0.00917338
0.786107, -0.235905, -0.649246, 0.0011017, 0.00170139, -0.0320159, 0.578053, 0.550212, 0.343607, 0.00215388, 0.00187888, 0.00912634
0.773402, -0.24321, -0.65521, 0.00107853, 0.00168282, -0.031908, 0.574845, 0.554519, 0.346275, 0.00214586, 0.00186913, 0.00908527
0.739259, -0.248469, -0.677678, 0.00106409, 0.00161944, -0.0318298, 0.571548, 0.558488, 0.349123, 0.0021395, 0.00185845, 0.00904962
0.643513, -0.246905, -0.760063, 0.00105413, 0.00141118, -0.0317461, 0.568705, 0.561987, 0.351888, 0.00213482, 0.00184861, 0.00902106
0.595489, -0.246079, -0.800787, 0.00104351, 0.00132934, -0.0316818, 0.566858, 0.564758, 0.354209, 0.002132, 0.00184148, 0.00900276
0.566906, -0.246759, -0.826691, 0.00103408, 0.00129181, -0.0316256, 0.5659, 0.567086, 0.355964, 0.00212992, 0.00183693, 0.00898776
0.544049, -0.246435, -0.852109, 0.00102452, 0.00127149, -0.0315738, 0.565874, 0.569177, 0.356947, 0.00212812, 0.00183473, 0.00897421
0.522612, -0.245949, -0.892859, 0.0010051, 0.00125908, -0.0314819, 0.566542, 0.571104, 0.357061, 0.00212648, 0.00183385, 0.00896253
0.513276, -0.248244, -0.911041, 0.000992906, 0.00126502, -0.0314272, 0.567642, 0.572985, 0.356103, 0.00212486, 0.00183322, 0.00895227
0.507357, -0.25259, -0.915428, 0.000985744, 0.00126949, -0.0313926, 0.568697, 0.57495, 0.354092, 0.00212308, 0.00183149, 0.00894217
0.500525, -0.257962, -0.905791, 0.000986621, 0.00125979, -0.0313866, 0.569298, 0.576893, 0.351263, 0.00212115, 0.00182797, 0.00893265
0.490017, -0.264824, -0.88388, 0.000995533, 0.00122902, -0.0314041, 0.569158, 0.578735, 0.347815, 0.00211912, 0.00182219, 0.00892405
0.472355, -0.271556, -0.850911, 0.00101192, 0.00117435, -0.0314452, 0.568155, 0.580392, 0.343994, 0.0021172, 0.00181397, 0.00891698
0.430001, -0.282116, -0.77035, 0.00105627, 0.00102173, -0.031569, 0.566219, 0.581792, 0.339999, 0.00211551, 0.00180334, 0.00891158
0.390591, -0.290436, -0.702903, 0.00109228, 0.000881556, -0.0316711, 0.563419, 0.582683, 0.336077, 0.00211413, 0.0017907, 0.00890829
0.357034, -0.297353, -0.647284, 0.00112241, 0.000762087, -0.0317546, 0.560112, 0.583075, 0.332554, 0.0021129, 0.00177753, 0.00890586
0.331783, -0.303462, -0.605804, 0.00114463, 0.000669864, -0.0318158, 0.556315, 0.583112, 0.329469, 0.00211174, 0.00176386, 0.0089035
0.312497, -0.307223, -0.577278, 0.00115834, 0.000604895, -0.0318545, 0.552057, 0.58282, 0.326854, 0.00211066, 0.00174988, 0.00890109
0.29289, -0.310556, -0.55026, 0.00116976, 0.000541687, -0.0318872, 0.547265, 0.5822, 0.324715, 0.00210969, 0.00173573, 0.00889885
0.278816, -0.313187, -0.533018, 0.00117634, 0.000502172, -0.0319056, 0.542248, 0.581026, 0.323185, 0.00210872, 0.00172318, 0.00889635
0.27087, -0.315195, -0.524799, 0.00117948, 0.000483982, -0.0319138, 0.537188, 0.579183, 0.322221, 0.00210757, 0.00171297, 0.0088931
0.264348, -0.318518, -0.51644, 0.00118364, 0.000467304, -0.0319252, 0.532031, 0.576889, 0.321654, 0.00210629, 0.00170428, 0.00888953
0.252711, -0.322486, -0.496498, 0.00119099, 0.000434953, -0.031946, 0.527053, 0.57419, 0.321399, 0.00210482, 0.00169741, 0.00888536
0.231633, -0.328593, -0.436884, 0.00120818, 0.000367527, -0.0320039, 0.522601, 0.570978, 0.321361, 0.00210286, 0.00169278, 0.00887914
0.212229, -0.333345, -0.375704, 0.00122291, 0.000310264, -0.0320568, 0.518604, 0.567516, 0.321418, 0.00210059, 0.00168925, 0.00887095
0.19337, -0.337865, -0.318136, 0.00123466, 0.000257385, -0.0321008, 0.515, 0.564345, 0.32151, 0.00209862, 0.00168614, 0.00886334
0.176622, -0.341051, -0.269662, 0.00124192, 0.000214003, -0.0321299, 0.511974, 0.561665, 0.321634, 0.00209707, 0.00168357, 0.00885665
0.185155, -0.342144, -0.305489, 0.0012385, 0.000245889, -0.0321207, 0.509559, 0.559682, 0.321797, 0.00209601, 0.00168113, 0.00885129
0.219543, -0.346516, -0.405428, 0.00123143, 0.000347267, -0.0321173, 0.507866, 0.558792, 0.322036, 0.00209547, 0.00167857, 0.00884825
0.244879, -0.350531, -0.486262, 0.00122572, 0.000422513, -0.0321233, 0.507098, 0.559016, 0.32235, 0.00209505, 0.00167643, 0.00884643
0.260884, -0.352547, -0.550227, 0.00122094, 0.000469668, -0.0321304, 0.50725, 0.559855, 0.322662, 0.00209449, 0.00167494, 0.00884448
0.270627, -0.352508, -0.600128, 0.001217, 0.000498756, -0.0321336, 0.508208, 0.561096, 0.322957, 0.00209372, 0.00167372, 0.00884194
0.27569, -0.352289, -0.632994, 0.00121528, 0.000509428, -0.0321355, 0.509903, 0.562636, 0.323162, 0.00209274, 0.00167271, 0.00883848
0.277608, -0.350919, -0.654675, 0.00121446, 0.000511755, -0.0321335, 0.512227, 0.56451, 0.323256, 0.0020915, 0.0016715, 0.00883452
0.278281, -0.349047, -0.661619, 0.00121522, 0.000511996, -0.0321307, 0.515098, 0.566633, 0.323276, 0.00209003, 0.00166974, 0.00882988
0.279925, -0.347996, -0.654474, 0.00121884, 0.000511553, -0.0321347, 0.51845, 0.568899, 0.323267, 0.00208834, 0.00166725, 0.00882397
0.281777, -0.346791, -0.639377, 0.00122453, 0.000510952, -0.0321401, 0.522176, 0.5713, 0.323266, 0.00208646, 0.00166403, 0.00881718
0.283783, -0.345316, -0.621891, 0.00123168, 0.000508336, -0.0321448, 0.526171, 0.573842, 0.323296, 0.0020844, 0.00166023, 0.00881004
0.285064, -0.343563, -0.604647, 0.00123877, 0.000504452, -0.0321461, 0.530353, 0.576495, 0.323372, 0.0020822, 0.00165599, 0.00880273
0.286614, -0.341627, -0.5853, 0.00124663, 0.000500172, -0.0321477, 0.534686, 0.579198, 0.323435, 0.00207988, 0.00165156, 0.00879499
0.288651, -0.340411, -0.566834, 0.001254, 0.00049578, -0.0321543, 0.53909, 0.581963, 0.32347, 0.00207733, 0.00164722, 0.00878739
0.290353, -0.340059, -0.549427, 0.00125989, 0.000492876, -0.0321624, 0.543475, 0.584782, 0.323487, 0.00207453, 0.00164316, 0.0087804
0.2924, -0.339392, -0.536937, 0.00126551, 0.000492449, -0.0321686, 0.547743, 0.587543, 0.323453, 0.00207163, 0.00163952, 0.00877389
0.293863, -0.337738, -0.531116, 0.00126995, 0.000493524, -0.0321709, 0.551774, 0.590214, 0.323393, 0.00206882, 0.00163635, 0.00876854
0.29459, -0.335218, -0.528495, 0.00127318, 0.000495494, -0.0321706, 0.555472, 0.592754, 0.323326, 0.00206619, 0.00163378, 0.00876427
0.293891, -0.332424, -0.528013, 0.00127415, 0.00049823, -0.0321676, 0.558767, 0.595125, 0.323274, 0.00206363, 0.00163186, 0.0087603
0.292485, -0.330294, -0.532725, 0.00127359, 0.000500145, -0.0321642, 0.561586, 0.597221, 0.32323, 0.00206121, 0.0016305, 0.00875598
0.289842, -0.32804, -0.539888, 0.00127183, 0.000502404, -0.0321584, 0.563849, 0.598961, 0.323211, 0.002059, 0.00162953, 0.00875139
0.286181, -0.326314, -0.545475, 0.00126885, 0.000503877, -0.0321494, 0.565429, 0.600284, 0.3232, 0.00205707, 0.00162887, 0.00874632
0.279493, -0.323951, -0.547671, 0.00126339, 0.000504464, -0.0321324, 0.566182, 0.60109, 0.323181, 0.00205545, 0.0016284, 0.00874061
0.270705, -0.320459, -0.552274, 0.00125718, 0.000502862, -0.0321127, 0.565947, 0.60114, 0.323124, 0.00205424, 0.00162791, 0.00873514
0.260415, -0.315253, -0.561132, 0.00125075, 0.000497752, -0.0320933, 0.564648, 0.60024, 0.323007, 0.00205332, 0.00162708, 0.00873093
0.250816, -0.309698, -0.56669, 0.00124493, 0.000492031, -0.0320773, 0.562411, 0.59846, 0.322862, 0.00205249, 0.00162584, 0.00872807
0.242144, -0.303714, -0.574498, 0.00123958, 0.000484901, -0.0320641, 0.559475, 0.595938, 0.322708, 0.00205152, 0.00162421, 0.0087262
0.237388, -0.300654, -0.578348, 0.00123687, 0.000480767, -0.032057, 0.556131, 0.592969, 0.322555, 0.00205039, 0.00162234, 0.00872492
0.236028, -0.301257, -0.573668, 0.00123681, 0.000481219, -0.032056, 0.552674, 0.589859, 0.322431, 0.00204915, 0.00162043, 0.00872419
0.234665, -0.302656, -0.567868, 0.00123749, 0.000481306, -0.032057, 0.549315, 0.586936, 0.322349, 0.00204797, 0.00161865, 0.00872388
0.232544, -0.304106, -0.559233, 0.00123814, 0.000480811, -0.0320579, 0.546208, 0.584522, 0.322284, 0.00204713, 0.00161704, 0.00872376
0.23062, -0.306492, -0.554752, 0.00123907, 0.000479917, -0.0320571, 0.543484, 0.582765, 0.322217, 0.00204667, 0.00161564, 0.00872339
0.22827, -0.309484, -0.550804, 0.00123982, 0.000478687, -0.0320542, 0.54127, 0.581711, 0.322169, 0.00204649, 0.00161456, 0.00872243
0.225508, -0.313527, -0.546581, 0.00123994, 0.000476674, -0.032048, 0.539652, 0.581405, 0.32216, 0.00204644, 0.00161386, 0.00872059
0.221915, -0.317563, -0.54729, 0.00123906, 0.000474484, -0.0320403, 0.538697, 0.581781, 0.322185, 0.00204636, 0.00161343, 0.00871807
0.218991, -0.321874, -0.546162, 0.00123702, 0.000472638, -0.0320299, 0.538457, 0.582711, 0.32221, 0.00204608, 0.00161315, 0.00871546
0.215981, -0.326844, -0.541737, 0.00123376, 0.000470072, -0.0320179, 0.538878, 0.584102, 0.322246, 0.00204552, 0.0016128, 0.00871298
0.213139, -0.330315, -0.538337, 0.00123088, 0.000468951, -0.0320111, 0.539896, 0.585798, 0.322269, 0.0020447, 0.00161233, 0.00871121
0.210529, -0.331927, -0.539238, 0.00122827, 0.000469082, -0.0320064, 0.541514, 0.587778, 0.322255, 0.00204356, 0.0016115, 0.00870991
0.209632, -0.333727, -0.531062, 0.00122737, 0.000470774, -0.0320071, 0.543783, 0.590091, 0.322244, 0.00204197, 0.00161012, 0.00870878
0.21012, -0.335261, -0.519391, 0.00122848, 0.000472338, -0.0320127, 0.546675, 0.592745, 0.322257, 0.00203985, 0.00160811, 0.0087076
0.21165, -0.336653, -0.507382, 0.00123096, 0.000472101, -0.0320205, 0.550122, 0.595749, 0.322289, 0.0020371, 0.0016054, 0.00870613
0.215352, -0.337375, -0.516058, 0.00123306, 0.000465532, -0.0320272, 0.554021, 0.599106, 0.322344, 0.00203371, 0.00160203, 0.00870445
0.221764, -0.339009, -0.536975, 0.00123507, 0.000455653, -0.0320395, 0.558278, 0.602759, 0.322416, 0.00202988, 0.00159794, 0.00870284
0.226233, -0.338856, -0.556379, 0.00123913, 0.000448731, -0.032051, 0.562826, 0.606527, 0.322472, 0.00202599, 0.00159337, 0.00870094
0.229108, -0.337235, -0.564292, 0.00124599, 0.000444442, -0.0320596, 0.567526, 0.610247, 0.322504, 0.00202228, 0.00158868, 0.00869817
0.230787, -0.334477, -0.569703, 0.00125221, 0.000443437, -0.0320615, 0.572199, 0.613829, 0.322518, 0.00201888, 0.00158425, 0.00869462
0.231824, -0.328608, -0.576981, 0.00126038, 0.000445332, -0.0320574, 0.576686, 0.617206, 0.322513, 0.00201584, 0.00158031, 0.00869071
0.232161, -0.32345, -0.579681, 0.00126705, 0.000448455, -0.0320558, 0.580838, 0.620485, 0.322481, 0.00201305, 0.00157723, 0.00868755
0.231892, -0.319154, -0.582938, 0.00127156, 0.000451244, -0.0320558, 0.584586, 0.62351, 0.322448, 0.00201062, 0.00157496, 0.0086846
0.229737, -0.31601, -0.548589, 0.00126819, 0.000456715, -0.032032, 0.587874, 0.626197, 0.322418, 0.00200854, 0.00157336, 0.00868159
0.226547, -0.313666, -0.527599, 0.00126383, 0.000458846, -0.0320137, 0.590564, 0.628483, 0.322384, 0.0020068, 0.00157239, 0.00867853
0.222308, -0.313035, -0.51276, 0.00125883, 0.000458435, -0.0319951, 0.592536, 0.630349, 0.322374, 0.00200533, 0.00157186, 0.00867477
0.215735, -0.312399, -0.50599, 0.00125398, 0.000457979, -0.0319764, 0.593588, 0.631576, 0.3224, 0.0020043, 0.00157164, 0.00867052
0.206277, -0.309694, -0.516183, 0.00125078, 0.00045657, -0.0319658, 0.593401, 0.631755, 0.322402, 0.00200384, 0.0015715, 0.00866721
0.196807, -0.30539, -0.52681, 0.00124797, 0.000451764, -0.0319559, 0.59189, 0.630619, 0.322371, 0.00200355, 0.00157101, 0.00866519
0.1882, -0.300583, -0.537611, 0.00124505, 0.000445356, -0.0319447, 0.589279, 0.628194, 0.322334, 0.00200293, 0.00157005, 0.00866389
0.182103, -0.296996, -0.546053, 0.00124267, 0.000439757, -0.0319342, 0.585893, 0.624647, 0.322288, 0.0020016, 0.00156861, 0.0086624
0.176947, -0.290833, -0.55036, 0.00123788, 0.000434976, -0.0319201, 0.582092, 0.620329, 0.32224, 0.00199945, 0.00156683, 0.00865992
0.174355, -0.284246, -0.548559, 0.0012324, 0.000433057, -0.0319074, 0.578227, 0.615747, 0.322203, 0.00199688, 0.00156504, 0.00865679
0.172802, -0.28081, -0.542564, 0.00122986, 0.000432295, -0.031903, 0.574557, 0.611488, 0.322193, 0.00199457, 0.00156344, 0.00865433
0.171783, -0.280474, -0.538638, 0.00122989, 0.00043202, -0.031904, 0.571348, 0.607956, 0.322193, 0.00199293, 0.00156214, 0.00865305
0.171096, -0.283148, -0.537793, 0.00123149, 0.000431984, -0.0319065, 0.56895, 0.605413, 0.322208, 0.00199204, 0.00156127, 0.00865253
0.171546, -0.287819, -0.533793, 0.00123312, 0.000432922, -0.0319084, 0.567559, 0.604112, 0.322241, 0.00199178, 0.00156083, 0.00865242
0.1728, -0.294011, -0.530018, 0.0012332, 0.000433201, -0.0319039, 0.567111, 0.604079, 0.322268, 0.00199176, 0.00156065, 0.00865201
0.17527, -0.300058, -0.528183, 0.0012314, 0.000432124, -0.0318933, 0.567478, 0.60508, 0.322276, 0.00199153, 0.00156045, 0.0086508
0.179491, -0.306524, -0.527507, 0.00122693, 0.000428748, -0.0318714, 0.568447, 0.606981, 0.322251, 0.00199074, 0.00156006, 0.00864799
0.186485, -0.312594, -0.5278, 0.0012194, 0.000422279, -0.0318307, 0.569784, 0.609585, 0.322192, 0.00198919, 0.00155924, 0.00864179
0.201433, -0.321237, -0.561242, 0.00120997, 0.000412203, -0.0317548, 0.571293, 0.612626, 0.322101, 0.00198668, 0.00155786, 0.00862857
0.218068, -0.32783, -0.587256, 0.00119329, 0.000398292, -0.0316296, 0.572933, 0.615844, 0.321993, 0.00198306, 0.00155586, 0.00860425
0.236932, -0.330461, -0.610711, 0.00117109, 0.000379942, -0.0314483, 0.574606, 0.618872, 0.321878, 0.0019785, 0.00155346, 0.00856607
0.257866, -0.328119, -0.626137, 0.00113985, 0.000358252, -0.031201, 0.576239, 0.621511, 0.321758, 0.00197285, 0.00155094, 0.0085128
0.279484, -0.322939, -0.635919, 0.00110186, 0.000336601, -0.030917, 0.577828, 0.623746, 0.321656, 0.0019663, 0.00154853, 0.00844832
0.299964, -0.316194, -0.640095, 0.00106395, 0.000317373, -0.030643, 0.579416, 0.625694, 0.321577, 0.00195972, 0.00154641, 0.00838287
0.31828, -0.311694, -0.639424, 0.00102923, 0.000300276, -0.0304135, 0.581023, 0.627548, 0.321533, 0.00195412, 0.00154466, 0.00832743
0.333716, -0.309546, -0.635896, 0.00100313, 0.000286774, -0.0302461, 0.582623, 0.629449, 0.321541, 0.00195008, 0.0015433, 0.00828701
0.344741, -0.309471, -0.632395, 0.000988986, 0.000278719, -0.0301534, 0.584149, 0.63142, 0.321584, 0.00194768, 0.00154235, 0.00826273
0.350098, -0.310819, -0.625295, 0.0009851, 0.000275476, -0.0301242, 0.585598, 0.633454, 0.321651, 0.00194656, 0.00154168, 0.0082529
0.344657, -0.314092, -0.584472, 0.000992858, 0.000281507, -0.0301462, 0.587003, 0.635433, 0.32173, 0.00194581, 0.0015412, 0.00825142
0.333144, -0.316366, -0.550141, 0.000995189, 0.000291808, -0.0301322, 0.588404, 0.637006, 0.321824, 0.00194355, 0.00154082, 0.00824332
0.315477, -0.313479, -0.523968, 0.000978956, 0.000302778, -0.0300107, 0.589946, 0.637836, 0.321956, 0.00193746, 0.00154041, 0.00820975
0.292484, -0.302244, -0.506179, 0.000934004, 0.000311034, -0.0297316, 0.591807, 0.637734, 0.322147, 0.00192581, 0.00153999, 0.00813601
0.265829, -0.28133, -0.494787, 0.000856423, 0.000316633, -0.0292765, 0.594139, 0.636676, 0.32242, 0.00190803, 0.00153953, 0.0080156
0.237193, -0.25133, -0.487758, 0.000748564, 0.00032006, -0.0286558, 0.597034, 0.634873, 0.322778, 0.00188484, 0.00153909, 0.00784956
0.208323, -0.213133, -0.485089, 0.000614709, 0.000321699, -0.0278934, 0.600521, 0.632506, 0.323233, 0.00185742, 0.00153869, 0.00764332
0.180646, -0.16762, -0.485748, 0.000464185, 0.000322433, -0.0270389, 0.604579, 0.629793, 0.323799, 0.00182739, 0.00153827, 0.00740613
0.155553, -0.121552, -0.485031, 0.000315399, 0.000324232, -0.0261761, 0.609082, 0.627056, 0.324477, 0.00179689, 0.00153787, 0.00715318
0.13313, -0.0739472, -0.48995, 0.000167966, 0.000324622, -0.0253348, 0.613854, 0.624551, 0.325274, 0.00176823, 0.00153753, 0.0069069
0.113614, -0.0297543, -0.499357, 3.3552e-05, 0.000324296, -0.0245784, 0.618757, 0.622506, 0.326175, 0.00174332, 0.00153718, 0.00668598
0.0967488, 0.00607949, -0.506362, -6.85344e-05, 0.000325868, -0.0239968, 0.623671, 0.621166, 0.327143, 0.00172308, 0.00153683, 0.00650272
0.0821666, 0.0334264, -0.513991, -0.000145366, 0.000328761, -0.0235673, 0.628482, 0.620655, 0.328117, 0.00170763, 0.00153658, 0.0063643
0.0688891, 0.0527942, -0.519051, -0.000197107, 0.000333259, -0.0232813, 0.63304, 0.620945, 0.329024, 0.00169673, 0.00153636, 0.00627133
0.0569337, 0.0673044, -0.525242, -0.000230194, 0.000338151, -0.0231105, 0.637149, 0.621888, 0.329802, 0.00168973, 0.00153611, 0.00621717
0.0469592, 0.0786701, -0.53483, -0.000248365, 0.000343504, -0.0230304, 0.640562, 0.623336, 0.330402, 0.00168586, 0.00153575, 0.00619237
0.0394834, 0.0872059, -0.546718, -0.000254872, 0.000350398, -0.0230126, 0.642963, 0.625138, 0.330746, 0.00168428, 0.00153519, 0.00618612
0.0366947, 0.0929871, -0.559234, -0.000252995, 0.000357603, -0.0230263, 0.644027, 0.626946, 0.330789, 0.00168395, 0.00153441, 0.00618537
0.04099, 0.0974291, -0.570143, -0.000249903, 0.000363651, -0.0230245, 0.64343, 0.62841, 0.330493, 0.00168336, 0.00153335, 0.00617449
0.0537861, 0.102649, -0.576781, -0.000255365, 0.000366239, -0.0229544, 0.641029, 0.629205, 0.329837, 0.0016807, 0.00153203, 0.0061368
0.0770952, 0.109916, -0.584895, -0.000274836, 0.000367705, -0.0227768, 0.636976, 0.629035, 0.328874, 0.00167442, 0.00153054, 0.00605961
0.109554, 0.121728, -0.587477, -0.000317382, 0.000364717, -0.0224633, 0.631627, 0.627685, 0.327666, 0.00166346, 0.00152873, 0.00593544
0.151736, 0.140888, -0.582856, -0.000391979, 0.000355521, -0.021981, 0.625517, 0.625014, 0.326312, 0.00164724, 0.00152665, 0.00576275
0.201003, 0.165513, -0.576333, -0.000491386, 0.000345099, -0.021361, 0.61942, 0.621358, 0.324981, 0.00162654, 0.00152457, 0.00554811
0.249986, 0.188509, -0.569458, -0.000599629, 0.00033452, -0.0207055, 0.614123, 0.617312, 0.323825, 0.00160341, 0.00152241, 0.00530841
0.294867, 0.20294, -0.565013, -0.000701659, 0.000326337, -0.0201004, 0.610099, 0.613337, 0.322944, 0.00158, 0.00152027, 0.00506604
0.336123, 0.212449, -0.563031, -0.000794534, 0.000322259, -0.0195497, 0.607445, 0.609621, 0.322393, 0.0015578, 0.00151828, 0.00483953
0.371249, 0.216059, -0.561207, -0.000873624, 0.000319733, -0.0190918, 0.606065, 0.606371, 0.322223, 0.00153804, 0.00151633, 0.00464027
0.400747, 0.21487, -0.557479, -0.000941514, 0.00031648, -0.0187209, 0.60575, 0.603753, 0.322425, 0.00152146, 0.00151458, 0.00447436
0.425688, 0.20856, -0.556439, -0.000991773, 0.000315826, -0.0184343, 0.606251, 0.601876, 0.322928, 0.00150837, 0.00151319, 0.00434307
0.445712, 0.202737, -0.550547, -0.00103539, 0.000311846, -0.0182126, 0.607319, 0.600677, 0.323641, 0.00149846, 0.00151213, 0.0042441
0.460997, 0.19234, -0.545571, -0.0010656, 0.000307859, -0.0180643, 0.608707, 0.600049, 0.32447, 0.00149137, 0.00151133, 0.0041743
0.471966, 0.177509, -0.543959, -0.00108193, 0.00030423, -0.0179769, 0.610243, 0.600033, 0.325297, 0.00148694, 0.00151079, 0.00413009
0.477561, 0.163176, -0.54657, -0.00108584, 0.000300825, -0.0179429, 0.611773, 0.60057, 0.325983, 0.00148468, 0.00151039, 0.00410606
0.478519, 0.152554, -0.545945, -0.00108802, 0.000296205, -0.0179355, 0.613144, 0.601444, 0.326446, 0.00148371, 0.00150993, 0.00409628
0.473745, 0.147973, -0.541821, -0.00109121, 0.000293166, -0.0179402, 0.61424, 0.602476, 0.326673, 0.00148317, 0.00150936, 0.00409437
0.463397, 0.147859, -0.53817, -0.00109759, 0.000293023, -0.0179345, 0.614937, 0.603467, 0.326636, 0.00148235, 0.00150883, 0.00409405
0.44913, 0.149535, -0.533469, -0.00110905, 0.000294572, -0.0178998, 0.615212, 0.604297, 0.326352, 0.00148066, 0.0015084, 0.00408834
0.429287, 0.153533, -0.537757, -0.00113082, 0.000297053, -0.0178147, 0.615167, 0.604917, 0.325869, 0.00147754, 0.00150801, 0.0040705
0.404274, 0.161331, -0.543483, -0.00116402, 0.000300747, -0.0176672, 0.614931, 0.605244, 0.325151, 0.00147271, 0.00150751, 0.00403487
0.375859, 0.173073, -0.549696, -0.00120694, 0.000305632, -0.0174606, 0.614753, 0.605247, 0.324271, 0.00146616, 0.0015067, 0.0039789
0.345883, 0.189275, -0.555465, -0.00125607, 0.000312369, -0.0172114, 0.614928, 0.604966, 0.323352, 0.00145826, 0.00150549, 0.0039055
0.31737, 0.205987, -0.55578, -0.001302, 0.000323591, -0.0169517, 0.615647, 0.604502, 0.322534, 0.00144972, 0.00150391, 0.00382124
0.291867, 0.222054, -0.548319, -0.00133716, 0.000340454, -0.016712, 0.617005, 0.603987, 0.321963, 0.00144111, 0.00150232, 0.00373397
0.268719, 0.23876, -0.5441, -0.00136833, 0.000353898, -0.0164998, 0.618908, 0.603518, 0.321694, 0.00143301, 0.0015009, 0.00365099
0.248656, 0.254996, -0.538386, -0.0013897, 0.000366836, -0.0163322, 0.62123, 0.603214, 0.321716, 0.00142588, 0.00149962, 0.0035782
0.230946, 0.271504, -0.535439, -0.0014062, 0.000376583, -0.0162034, 0.623819, 0.603168, 0.321994, 0.00141988, 0.00149857, 0.00351841
0.215375, 0.288216, -0.536427, -0.00141944, 0.000382991, -0.0161097, 0.626506, 0.603421, 0.322439, 0.00141517, 0.00149765, 0.00347228
0.20152, 0.304863, -0.536691, -0.00142556, 0.000388368, -0.0160511, 0.629137, 0.60397, 0.32295, 0.00141182, 0.00149677, 0.00343933
0.191255, 0.318605, -0.536256, -0.00142568, 0.000391525, -0.0160263, 0.631566, 0.604793, 0.323451, 0.00140967, 0.00149603, 0.00341796
0.183628, 0.331317, -0.535399, -0.00142269, 0.000393365, -0.0160214, 0.633706, 0.605806, 0.323851, 0.00140847, 0.00149538, 0.0034062
0.179101, 0.344048, -0.535193, -0.00141811, 0.000393242, -0.0160287, 0.63547, 0.606898, 0.3241, 0.00140785, 0.00149482, 0.00340115
0.17812, 0.357942, -0.539633, -0.00141364, 0.000390778, -0.0160396, 0.636824, 0.607998, 0.324196, 0.0014075, 0.00149438, 0.00339994
0.180158, 0.372432, -0.543004, -0.00140922, 0.000388565, -0.0160452, 0.637762, 0.609113, 0.324109, 0.00140714, 0.00149405, 0.00339944
0.18576, 0.387871, -0.538607, -0.0014082, 0.00038483, -0.0160334, 0.638231, 0.610064, 0.32381, 0.00140642, 0.00149366, 0.00339561
0.195504, 0.403804, -0.533609, -0.00141243, 0.000379393, -0.0159946, 0.638262, 0.610651, 0.323354, 0.00140497, 0.00149314, 0.00338426
0.2103, 0.419289, -0.532014, -0.00142124, 0.000373711, -0.0159215, 0.637996, 0.610825, 0.322823, 0.0014026, 0.00149253, 0.00336257
0.228928, 0.433763, -0.533959, -0.00143331, 0.000368732, -0.0158163, 0.6376, 0.610605, 0.322311, 0.00139932, 0.00149172, 0.00332969
0.251275, 0.445743, -0.540385, -0.00144716, 0.000365857, -0.0156827, 0.637234, 0.609999, 0.321909, 0.00139515, 0.00149069, 0.00328713
0.276016, 0.456481, -0.544453, -0.00146659, 0.000361968, -0.0155259, 0.63708, 0.609093, 0.321709, 0.00139029, 0.00148943, 0.00323866
0.301673, 0.463947, -0.547819, -0.00148795, 0.000358436, -0.0153639, 0.63724, 0.608027, 0.321758, 0.00138511, 0.00148805, 0.00318897
0.326014, 0.466708, -0.549863, -0.0015087, 0.000355197, -0.0152177, 0.637776, 0.607043, 0.32205, 0.0013801, 0.00148679, 0.00314233
0.34639, 0.464007, -0.550888, -0.00152529, 0.000352263, -0.0151077, 0.638652, 0.606349, 0.322543, 0.00137579, 0.00148576, 0.00310235
0.362132, 0.457768, -0.551647, -0.00153634, 0.000349787, -0.0150359, 0.639747, 0.606054, 0.323141, 0.0013725, 0.00148503, 0.00307151
0.373679, 0.449411, -0.5541, -0.00154121, 0.000348263, -0.0149952, 0.640948, 0.606151, 0.323743, 0.00137026, 0.00148458, 0.00305001
0.381808, 0.440824, -0.555419, -0.00154382, 0.000346197, -0.0149745, 0.642172, 0.606553, 0.324299, 0.00136886, 0.00148424, 0.00303674
0.386988, 0.432362, -0.555843, -0.00154504, 0.000343546, -0.0149663, 0.643365, 0.607179, 0.324786, 0.00136803, 0.00148391, 0.00302967
0.388247, 0.424875, -0.555237, -0.00154586, 0.000340724, -0.014967, 0.644469, 0.607954, 0.325152, 0.00136749, 0.00148355, 0.00302663
0.386526, 0.418992, -0.554131, -0.00154699, 0.000338401, -0.0149697, 0.645431, 0.608811, 0.32536, 0.00136706, 0.00148318, 0.00302581
0.382108, 0.414249, -0.555425, -0.00154866, 0.000336696, -0.0149709, 0.646247, 0.60968, 0.325423, 0.00136659, 0.00148278, 0.00302577
0.374891, 0.411897, -0.558437, -0.00155214, 0.000335896, -0.0149677, 0.646963, 0.610509, 0.325355, 0.00136592, 0.0014823, 0.00302545
0.364785, 0.412058, -0.560235, -0.00155838, 0.000336059, -0.0149571, 0.647603, 0.611228, 0.325193, 0.00136495, 0.00148174, 0.00302411
0.353049, 0.415128, -0.56092, -0.0015667, 0.00033748, -0.0149382, 0.64814, 0.61174, 0.324945, 0.00136366, 0.00148116, 0.00302113
0.342276, 0.421198, -0.560156, -0.00157516, 0.000340366, -0.014914, 0.648614, 0.612029, 0.32464, 0.00136206, 0.00148056, 0.00301626
0.334415, 0.428218, -0.555458, -0.00158117, 0.000344097, -0.0148914, 0.649136, 0.612203, 0.324345, 0.00136018, 0.00147993, 0.00300975
0.328306, 0.436284, -0.549941, -0.00158603, 0.000348466, -0.0148695, 0.649745, 0.612353, 0.324114, 0.001358, 0.00147918, 0.00300227
0.324509, 0.446164, -0.547189, -0.00159086, 0.000354094, -0.0148488, 0.650423, 0.612505, 0.323947, 0.00135565, 0.00147833, 0.00299455
0.322257, 0.456649, -0.545317, -0.00159526, 0.00036043, -0.0148294, 0.651151, 0.612731, 0.323892, 0.00135319, 0.00147735, 0.00298717
0.322053, 0.467211, -0.546468, -0.00159993, 0.000367497, -0.0148134, 0.651897, 0.613082, 0.323966, 0.00135065, 0.00147618, 0.00298038
0.324783, 0.476162, -0.551087, -0.00160349, 0.000374458, -0.0148059, 0.652689, 0.613595, 0.32412, 0.00134827, 0.00147493, 0.0029747
0.329153, 0.481295, -0.549825, -0.00160106, 0.000377833, -0.0148098, 0.653493, 0.614279, 0.324331, 0.00134619, 0.0014737, 0.00297047
0.333857, 0.483252, -0.547222, -0.00159709, 0.000379417, -0.0148178, 0.654303, 0.61505, 0.324445, 0.00134446, 0.00147265, 0.00296726
0.337015, 0.485016, -0.556508, -0.00159777, 0.000380044, -0.0148218, 0.655056, 0.615885, 0.32443, 0.00134304, 0.0014717, 0.00296435
0.334218, 0.484749, -0.556169, -0.00159957, 0.000379857, -0.0148175, 0.655652, 0.616759, 0.324172, 0.00134195, 0.00147068, 0.00296086
0.336677, 0.479425, -0.517691, -0.00160073, 0.000397369, -0.0148134, 0.656008, 0.617657, 0.32372, 0.00134112, 0.00146938, 0.00295594
0.345701, 0.47013, -0.487264, -0.00160339, 0.000410997, -0.014799, 0.656172, 0.618588, 0.323242, 0.00134038, 0.00146808, 0.00294835
0.354885, 0.457685, -0.467916, -0.00160784, 0.000416376, -0.0147635, 0.656296, 0.61972, 0.322841, 0.00133954, 0.00146695, 0.00293739
0.363711, 0.442298, -0.456754, -0.0016132, 0.000416747, -0.0147081, 0.656337, 0.621054, 0.322524, 0.00133856, 0.00146587, 0.00292362
0.369698, 0.425563, -0.455352, -0.00161661, 0.000411475, -0.0146439, 0.656366, 0.622584, 0.322342, 0.00133748, 0.00146488, 0.00290892
0.370225, 0.409502, -0.465595, -0.00161611, 0.000400981, -0.0145873, 0.656526, 0.62429, 0.322299, 0.00133641, 0.00146402, 0.00289546
0.369395, 0.39602, -0.478929, -0.00161387, 0.000391057, -0.014546, 0.656893, 0.626132, 0.322371, 0.00133538, 0.00146329, 0.00288445
0.36806, 0.385111, -0.493123, -0.00161105, 0.000383353, -0.0145193, 0.657515, 0.628041, 0.322539, 0.00133445, 0.00146268, 0.00287632
0.367864, 0.377165, -0.504755, -0.00160856, 0.000378876, -0.0145045, 0.658363, 0.629926, 0.322764, 0.00133364, 0.00146213, 0.00287097
0.368795, 0.371086, -0.515825, -0.00160623, 0.000376852, -0.0144967, 0.659351, 0.631692, 0.323014, 0.00133302, 0.00146159, 0.00286787
0.370309, 0.367189, -0.530868, -0.00160352, 0.000378074, -0.0144951, 0.660403, 0.633281, 0.323255, 0.00133257, 0.00146094, 0.00286647
0.372554, 0.366334, -0.54879, -0.00160189, 0.000383515, -0.0144962, 0.661437, 0.634624, 0.323457, 0.00133222, 0.00146011, 0.00286594
0.375516, 0.368954, -0.563381, -0.0016019, 0.000390855, -0.0144948, 0.662392, 0.635687, 0.323609, 0.00133191, 0.00145913, 0.00286538
0.37809, 0.375393, -0.572795, -0.00160343, 0.000398747, -0.0144878, 0.663211, 0.636459, 0.323736, 0.00133156, 0.00145797, 0.00286401
0.379933, 0.386384, -0.579791, -0.00160684, 0.000407953, -0.0144707, 0.663789, 0.636878, 0.32385, 0.00133109, 0.00145661, 0.00286099
0.381672, 0.400909, -0.584635, -0.00161162, 0.000417126, -0.0144418, 0.664019, 0.6369, 0.323992, 0.00133046, 0.00145505, 0.00285565
0.384396, 0.417491, -0.587698, -0.00161694, 0.000424983, -0.0144027, 0.663834, 0.636539, 0.324209, 0.00132959, 0.00145324, 0.00284766
0.389078, 0.434192, -0.592609, -0.00162394, 0.000433505, -0.0143588, 0.663213, 0.6359, 0.32458, 0.00132844, 0.00145109, 0.00283702
0.394444, 0.451484, -0.590998, -0.00162762, 0.00043608, -0.0143106, 0.662336, 0.635165, 0.325094, 0.001327, 0.0014489, 0.00282416
0.397015, 0.469153, -0.582699, -0.00162711, 0.000432311, -0.0142592, 0.661285, 0.634529, 0.325797, 0.00132532, 0.00144653, 0.00281007
0.399292, 0.486371, -0.571422, -0.00162399, 0.000425294, -0.0142093, 0.660184, 0.6341, 0.326696, 0.00132358, 0.00144407, 0.00279583
0.397632, 0.501725, -0.551928, -0.00161371, 0.000409147, -0.0141675, 0.659045, 0.633883, 0.327774, 0.00132184, 0.0014416, 0.00278291
0.40277, 0.514627, -0.542217, -0.00160901, 0.000401935, -0.0141376, 0.657971, 0.633857, 0.328957, 0.00132013, 0.00143941, 0.00277208
0.407928, 0.526166, -0.533593, -0.00160421, 0.000396103, -0.0141148, 0.657142, 0.634121, 0.33017, 0.00131856, 0.00143759, 0.00276408
0.414124, 0.535946, -0.530466, -0.00160258, 0.000394925, -0.0141009, 0.656752, 0.634669, 0.331263, 0.00131738, 0.00143629, 0.00275933
0.418281, 0.54247, -0.524187, -0.00159872, 0.000391494, -0.0140972, 0.656773, 0.635448, 0.332181, 0.00131661, 0.00143536, 0.00275749
0.420114, 0.546335, -0.51138, -0.00159293, 0.00038641, -0.0140989, 0.657164, 0.63634, 0.332778, 0.00131614, 0.00143489, 0.00275714
0.422961, 0.546788, -0.507369, -0.00159175, 0.000385474, -0.0141006, 0.657823, 0.637267, 0.332917, 0.00131583, 0.00143476, 0.00275672
0.425467, 0.544186, -0.505746, -0.00159256, 0.000385107, -0.0140981, 0.658629, 0.63826, 0.332624, 0.00131552, 0.00143462, 0.00275475
0.429083, 0.538514, -0.499341, -0.00159568, 0.000386355, -0.0140866, 0.659442, 0.639337, 0.332041, 0.00131497, 0.00143429, 0.00274972
0.431821, 0.528662, -0.503361, -0.00160058, 0.000385199, -0.014058, 0.66023, 0.640546, 0.331376, 0.00131406, 0.00143384, 0.00274062
0.434615, 0.515573, -0.510885, -0.00160668, 0.000382791, -0.0140134, 0.660984, 0.641945, 0.33062, 0.00131275, 0.00143317, 0.00272802
0.434462, 0.501013, -0.520166, -0.00161262, 0.000379672, -0.0139615, 0.661765, 0.643584, 0.329883, 0.00131112, 0.00143239, 0.0027132
0.433846, 0.48737, -0.524899, -0.0016197, 0.000378246, -0.0139111, 0.662472, 0.645384, 0.329121, 0.00130926, 0.00143136, 0.00269779
0.429225, 0.474748, -0.531534, -0.0016245, 0.000376135, -0.0138699, 0.663222, 0.647305, 0.328455, 0.00130731, 0.00143028, 0.00268346
0.422843, 0.46535, -0.53821, -0.00162664, 0.000373953, -0.013846, 0.664102, 0.649295, 0.327907, 0.00130548, 0.00142922, 0.00267194
0.416904, 0.458603, -0.542888, -0.00162798, 0.000373108, -0.013834, 0.665175, 0.651224, 0.327528, 0.00130385, 0.00142841, 0.00266365
0.410473, 0.454047, -0.548578, -0.00162734, 0.000372636, -0.0138316, 0.666445, 0.653014, 0.32731, 0.0013025, 0.00142784, 0.00265843
0.405442, 0.452168, -0.55318, -0.00162612, 0.000372906, -0.0138337, 0.667848, 0.654608, 0.327195, 0.00130146, 0.00142744, 0.00265571
0.400298, 0.452701, -0.55822, -0.00162434, 0.000373945, -0.0138381, 0.669334, 0.655979, 0.327149, 0.00130072, 0.00142713, 0.00265467
0.395842, 0.456092, -0.562355, -0.00162286, 0.000375791, -0.0138408, 0.670837, 0.657124, 0.327119, 0.00130022, 0.00142683, 0.00265441
0.391697, 0.46292, -0.563333, -0.00162261, 0.00037876, -0.0138392, 0.672328, 0.658072, 0.327085, 0.0012999, 0.00142652, 0.00265413
0.387535, 0.473567, -0.559496, -0.00162376, 0.000382656, -0.0138305, 0.673765, 0.658794, 0.327067, 0.0012997, 0.00142618, 0.00265311
0.382877, 0.487249, -0.555226, -0.00162555, 0.00038687, -0.0138124, 0.675063, 0.65923, 0.327113, 0.00129954, 0.00142578, 0.00265068
0.378686, 0.503692, -0.552071, -0.00162797, 0.000391256, -0.013783, 0.676128, 0.659361, 0.327239, 0.00129934, 0.00142532, 0.00264622
0.375155, 0.522432, -0.547908, -0.00163076, 0.000394707, -0.0137429, 0.676882, 0.659211, 0.327493, 0.001299, 0.00142475, 0.00263942
0.372725, 0.541836, -0.543459, -0.00163355, 0.000396636, -0.0136963, 0.677268, 0.65883, 0.327899, 0.00129848, 0.00142402, 0.00263028
0.3734, 0.562161, -0.542543, -0.00163781, 0.000399373, -0.0136439, 0.67731, 0.658307, 0.328411, 0.00129772, 0.00142328, 0.0026191
0.374516, 0.581736, -0.536487, -0.00163943, 0.000398985, -0.0135909, 0.677141, 0.65782, 0.329021, 0.00129678, 0.00142254, 0.00260657
0.377564, 0.599357, -0.525334, -0.00163729, 0.000395177, -0.0135434, 0.676848, 0.657486, 0.329744, 0.00129574, 0.00142177, 0.00259376
0.382756, 0.614211, -0.511745, -0.00163236, 0.000389426, -0.0135059, 0.676501, 0.657372, 0.330554, 0.00129466, 0.00142101, 0.00258197
0.391183, 0.627356, -0.498722, -0.0016267, 0.000383825, -0.0134777, 0.67622, 0.657519, 0.3314, 0.00129363, 0.0014203, 0.00257225
0.399396, 0.63709, -0.483491, -0.0016192, 0.000376342, -0.0134627, 0.676084, 0.657976, 0.332273, 0.00129281, 0.00141959, 0.00256555
0.407613, 0.644763, -0.478329, -0.00161675, 0.000373951, -0.0134549, 0.676173, 0.658666, 0.333037, 0.00129224, 0.00141902, 0.0025618
0.414842, 0.650153, -0.472927, -0.00161437, 0.000371749, -0.0134536, 0.676542, 0.659453, 0.333505, 0.00129191, 0.00141872, 0.00256045
0.420966, 0.651856, -0.4701, -0.00161357, 0.000370063, -0.0134554, 0.677108, 0.660292, 0.333705, 0.00129169, 0.00141856, 0.00256029
0.425336, 0.650932, -0.470566, -0.00161411, 0.00036906, -0.0134554, 0.6779, 0.661211, 0.333505, 0.00129147, 0.00141843, 0.00255988
0.429001, 0.647416, -0.474377, -0.0016156, 0.000367329, -0.0134506, 0.678784, 0.662203, 0.332917, 0.00129102, 0.00141809, 0.00255789
0.432814, 0.639578, -0.479282, -0.00161903, 0.000365158, -0.0134341, 0.679634, 0.663278, 0.332053, 0.00129013, 0.00141737, 0.00255317
0.436425, 0.62769, -0.483491, -0.00162528, 0.000363873, -0.013402, 0.680404, 0.664482, 0.331067, 0.00128866, 0.00141628, 0.00254511
0.437493, 0.612677, -0.491033, -0.00163185, 0.000361891, -0.0133571, 0.680989, 0.665789, 0.330021, 0.0012867, 0.00141476, 0.00253413
0.43416, 0.597415, -0.501588, -0.00163577, 0.000358542, -0.013312, 0.681309, 0.667183, 0.328957, 0.00128436, 0.00141268, 0.00252143
0.428247, 0.58277, -0.512307, -0.00163768, 0.00035527, -0.0132709, 0.681389, 0.668624, 0.327967, 0.0012817, 0.00141015, 0.00250828
0.424904, 0.567908, -0.520393, -0.00164139, 0.000353721, -0.013228, 0.681488, 0.670119, 0.327207, 0.00127883, 0.00140765, 0.00249577
0.417129, 0.555398, -0.530123, -0.0016407, 0.000351405, -0.0132006, 0.681764, 0.671728, 0.326658, 0.00127608, 0.00140525, 0.00248527
0.405517, 0.545556, -0.540956, -0.00163595, 0.000349602, -0.0131892, 0.682321, 0.673347, 0.326296, 0.00127349, 0.00140313, 0.00247764
0.393595, 0.539069, -0.549667, -0.0016302, 0.00035021, -0.0131888, 0.683187, 0.67488, 0.32607, 0.0012711, 0.00140128, 0.00247318
0.385018, 0.536261, -0.55091, -0.00162855, 0.000355246, -0.0131919, 0.684483, 0.676336, 0.325974, 0.00126902, 0.00139974, 0.00247122
0.377153, 0.535665, -0.550107, -0.00162756, 0.000361186, -0.0131947, 0.686219, 0.677794, 0.325939, 0.00126743, 0.00139838, 0.00247075
0.36821, 0.537749, -0.549989, -0.00162501, 0.000367599, -0.0131937, 0.688219, 0.679268, 0.325843, 0.00126639, 0.00139703, 0.00247073
0.359543, 0.543928, -0.551136, -0.001621, 0.000372839, -0.0131852, 0.690359, 0.680679, 0.325659, 0.00126576, 0.0013957, 0.00247003
0.352994, 0.553221, -0.551305, -0.00161704, 0.000376638, -0.0131689, 0.692588, 0.682015, 0.325406, 0.00126537, 0.00139445, 0.00246772
0.346921, 0.566231, -0.555239, -0.00161348, 0.000379885, -0.0131433, 0.69487, 0.683314, 0.325134, 0.00126505, 0.00139335, 0.00246351
0.339651, 0.581631, -0.56101, -0.00161164, 0.000385087, -0.0131079, 0.697088, 0.684531, 0.324867, 0.00126468, 0.00139245, 0.0024579
0.332707, 0.599107, -0.563338, -0.00161026, 0.000390842, -0.0130677, 0.699104, 0.685562, 0.324636, 0.00126422, 0.00139176, 0.00245166
0.326714, 0.618265, -0.567201, -0.00161107, 0.000396378, -0.0130267, 0.700813, 0.686358, 0.324465, 0.00126365, 0.00139129, 0.00244545
0.322266, 0.637869, -0.572537, -0.00161429, 0.000401452, -0.0129895, 0.702088, 0.686867, 0.324357, 0.00126301, 0.00139101, 0.00244001
0.319915, 0.655658, -0.571959, -0.00161652, 0.000405094, -0.0129606, 0.70275, 0.686967, 0.324293, 0.0012624, 0.00139087, 0.00243571
0.319711, 0.671859, -0.567894, -0.00161872, 0.000408095, -0.0129371, 0.702705, 0.686612, 0.32423, 0.00126172, 0.00139073, 0.00243224
0.323074, 0.685827, -0.56965, -0.00162328, 0.000411468, -0.01292, 0.701982, 0.685828, 0.324123, 0.00126094, 0.00139049, 0.00242929
0.330807, 0.694475, -0.571748, -0.00162648, 0.000415431, -0.0129086, 0.700691, 0.68477, 0.32407, 0.00126015, 0.00139005, 0.00242671
0.342394, 0.6978, -0.566971, -0.00162587, 0.000419621, -0.0128974, 0.698878, 0.683489, 0.324135, 0.00125934, 0.0013893, 0.00242427
0.356264, 0.695903, -0.556055, -0.00162155, 0.000423243, -0.0128848, 0.696608, 0.681991, 0.324281, 0.00125847, 0.00138822, 0.00242186
0.371474, 0.691602, -0.54979, -0.0016173, 0.00042928, -0.0128718, 0.694023, 0.680299, 0.324407, 0.00125749, 0.00138691, 0.0024195
0.387051, 0.684399, -0.546169, -0.00161218, 0.000436156, -0.0128584, 0.691314, 0.678569, 0.324518, 0.00125648, 0.00138538, 0.00241715
0.402599, 0.67559, -0.540846, -0.00160575, 0.00044264, -0.0128426, 0.688626, 0.676914, 0.324646, 0.0012555, 0.00138367, 0.0024147
0.41698, 0.665384, -0.536703, -0.00159879, 0.000447948, -0.0128261, 0.686126, 0.675471, 0.324817, 0.0012546, 0.00138183, 0.00241209
0.430153, 0.65415, -0.531306, -0.00159128, 0.000451179, -0.0128086, 0.684056, 0.674393, 0.325011, 0.00125381, 0.00138, 0.00240935
0.441423, 0.642448, -0.51956, -0.00158344, 0.000450191, -0.0127897, 0.682497, 0.673732, 0.325244, 0.00125314, 0.00137825, 0.00240662
0.453938, 0.631204, -0.506309, -0.00157632, 0.000449, -0.0127695, 0.681488, 0.673447, 0.32543, 0.00125261, 0.00137687, 0.00240407
0.465365, 0.621414, -0.497585, -0.00157136, 0.000448502, -0.012753, 0.681066, 0.67356, 0.325517, 0.00125218, 0.0013759, 0.0024018
0.476212, 0.612667, -0.494236, -0.00156721, 0.000447503, -0.0127384, 0.681241, 0.674137, 0.32555, 0.0012518, 0.00137518, 0.00239994
0.485917, 0.605649, -0.489494, -0.0015643, 0.000445093, -0.0127261, 0.681995, 0.675204, 0.325582, 0.00125135, 0.00137456, 0.00239851
0.493258, 0.600851, -0.486317, -0.00156259, 0.000442337, -0.0127181, 0.683274, 0.676727, 0.325565, 0.00125077, 0.00137395, 0.00239747
0.499782, 0.596514, -0.485978, -0.00156097, 0.000438643, -0.0127118, 0.684988, 0.678648, 0.325496, 0.00125001, 0.00137325, 0.00239672
0.504698, 0.593688, -0.484815, -0.00156042, 0.000435153, -0.0127082, 0.687071, 0.680893, 0.325407, 0.00124901, 0.0013724, 0.00239613
0.50666, 0.592195, -0.484677, -0.00156061, 0.000433163, -0.0127068, 0.689413, 0.683362, 0.325288, 0.00124774, 0.00137133, 0.00239558
0.508088, 0.591729, -0.484987, -0.00156042, 0.000431739, -0.0127066, 0.691887, 0.685937, 0.325125, 0.00124625, 0.00137, 0.00239496
0.505579, 0.591276, -0.49632, -0.00155548, 0.000428176, -0.0127062, 0.694389, 0.688528, 0.324928, 0.00124459, 0.00136835, 0.00239424
0.501064, 0.591413, -0.509692, -0.0015488, 0.000424652, -0.012706, 0.696909, 0.69112, 0.324729, 0.00124276, 0.00136639, 0.00239333
0.497732, 0.593175, -0.514546, -0.00154436, 0.000424798, -0.0127069, 0.6994, 0.693673, 0.324541, 0.00124074, 0.00136412, 0.00239223
0.489858, 0.593988, -0.526538, -0.00153629, 0.00042377, -0.0127054, 0.701731, 0.696079, 0.324345, 0.00123866, 0.00136159, 0.00239098
0.480524, 0.595159, -0.540645, -0.00152642, 0.00042129, -0.0127037, 0.703865, 0.698272, 0.32416, 0.00123659, 0.00135889, 0.00238961
0.470303, 0.596556, -0.553852, -0.00151617, 0.000419247, -0.0127012, 0.705806, 0.700271, 0.324013, 0.0012345, 0.00135603, 0.00238815
0.459284, 0.598193, -0.566003, -0.00150578, 0.000417792, -0.012698, 0.707541, 0.702052, 0.323903, 0.00123248, 0.00135311, 0.0023867
0.448174, 0.60018, -0.576769, -0.00149576, 0.000416558, -0.0126946, 0.709052, 0.703588, 0.323833, 0.00123057, 0.00135021, 0.00238528
0.437088, 0.60267, -0.586642, -0.00148611, 0.00041508, -0.0126912, 0.710347, 0.704884, 0.323797, 0.0012288, 0.00134741, 0.00238394
0.427096, 0.605552, -0.594665, -0.00147778, 0.000413615, -0.0126883, 0.711442, 0.705944, 0.323794, 0.00122721, 0.00134476, 0.00238274
0.41768, 0.608601, -0.601212, -0.00147051, 0.00041248, -0.0126853, 0.712352, 0.706782, 0.323818, 0.00122581, 0.00134233, 0.00238169
0.409045, 0.611808, -0.606769, -0.00146428, 0.0004113, -0.0126827, 0.713099, 0.707415, 0.32387, 0.00122461, 0.00134014, 0.00238083
0.40107, 0.615028, -0.610813, -0.00145908, 0.000410623, -0.0126802, 0.713703, 0.707862, 0.323942, 0.00122359, 0.00133821, 0.00238014
0.393559, 0.618082, -0.614418, -0.00145466, 0.000409978, -0.0126778, 0.714179, 0.708141, 0.324025, 0.00122275, 0.00133656, 0.00237962
0.387113, 0.621301, -0.61673, -0.00145119, 0.000409477, -0.0126758, 0.714548, 0.708278, 0.324119, 0.00122206, 0.00133517, 0.00237924
0.381585, 0.624523, -0.617893, -0.00144852, 0.000409168, -0.0126743, 0.71482, 0.708292, 0.324212, 0.00122152, 0.00133404, 0.00237898
0.37703, 0.627734, -0.618054, -0.00144654, 0.000408963, -0.012673, 0.715006, 0.7082, 0.324295, 0.00122109, 0.00133313, 0.00237881
0.373437, 0.630853, -0.617526, -0.00144513, 0.000408779, -0.0126721, 0.715121, 0.708027, 0.324369, 0.00122076, 0.00133243, 0.0023787
0.370467, 0.633662, -0.616973, -0.00144412, 0.000408566, -0.0126713, 0.715178, 0.707795, 0.324426, 0.00122051, 0.00133191, 0.00237863
0.368408, 0.636258, -0.61506, -0.00144348, 0.000408571, -0.0126708, 0.71519, 0.707527, 0.324463, 0.00122033, 0.00133153, 0.00237857
0.366868, 0.638687, -0.612515, -0.00144304, 0.000408619, -0.0126703, 0.71517, 0.707244, 0.324485, 0.0012202, 0.00133128, 0.0023785
0.366044, 0.640961, -0.609137, -0.00144277, 0.000408687, -0.0126699, 0.715129, 0.706963, 0.324484, 0.00122011, 0.00133111, 0.00237842
0.365895, 0.642973, -0.605823, -0.00144262, 0.00040868, -0.0126695, 0.715083, 0.706704, 0.324471, 0.00122005, 0.00133101, 0.00237832
0.366364, 0.644914, -0.601586, -0.00144249, 0.000408649, -0.012669, 0.715046, 0.706486, 0.324443, 0.00122001, 0.00133096, 0.00237819
0.367239, 0.646767, -0.597393, -0.00144236, 0.000408549, -0.0126685, 0.715028, 0.70632, 0.324402, 0.00121998, 0.00133093, 0.00237803
0.368427, 0.648278, -0.593061, -0.00144222, 0.000408409, -0.0126679, 0.715044, 0.706221, 0.324351, 0.00121997, 0.00133092, 0.00237785
0.370173, 0.649678, -0.589184, -0.00144206, 0.000408219, -0.0126673, 0.715108, 0.706201, 0.324297, 0.00121996, 0.00133092, 0.00237767
0.372137, 0.650921, -0.585573, -0.00144186, 0.000408001, -0.0126666, 0.715232, 0.70627, 0.324243, 0.00121995, 0.00133091, 0.00237747
0.374078, 0.651775, -0.582829, -0.00144167, 0.000407795, -0.012666, 0.715425, 0.706433, 0.324189, 0.00121994, 0.00133089, 0.00237727
0.376203, 0.652505, -0.580327, -0.00144143, 0.000407571, -0.0126653, 0.715696, 0.706696, 0.32414, 0.00121992, 0.00133085, 0.00237707
0.37855, 0.653076, -0.578211, -0.00144116, 0.000407335, -0.0126646, 0.716049, 0.707059, 0.324092, 0.0012199, 0.0013308, 0.00237689
0.380673, 0.65355, -0.576325, -0.00144089, 0.0004071, -0.012664, 0.716485, 0.70752, 0.324048, 0.00121987, 0.00133073, 0.00237673
0.382848, 0.653958, -0.575277, -0.00144062, 0.000406914, -0.0126635, 0.717006, 0.708077, 0.324009, 0.00121984, 0.00133064, 0.00237658
0.384917, 0.654081, -0.574828, -0.00144036, 0.000406734, -0.012663, 0.717612, 0.708728, 0.323978, 0.00121979, 0.00133054, 0.00237646
0.386784, 0.654212, -0.574368, -0.00144011, 0.000406547, -0.0126626, 0.718302, 0.709468, 0.323957, 0.00121972, 0.00133042, 0.00237636
0.388373, 0.654443, -0.574214, -0.00143987, 0.000406413, -0.0126622, 0.719069, 0.710287, 0.323943, 0.00121965, 0.00133028, 0.00237628
