0.00338254, -0.000938102, -0.565214, 9.64439e-05, 0.00021917, 0.000412132, 0.0316228, 0.0316228, 0.0316228, 0.0316228, 0.0316228, 0.0316228
0.00338254, -0.000938102, -0.565214, 9.64439e-05, 0.00021917, 0.000412132, 0.170851, 0.170851, 0.170851, 0.0316228, 0.0316228, 0.0316228
0.00296269, -0.000982856, -0.564971, 6.19366e-05, 0.000332769, 0.000414337, 0.191855, 0.191841, 0.19182, 0.0315746, 0.0315757, 0.031607
0.00307278, -0.00172798, -0.564752, -5.65884e-05, 0.000278417, 0.000417466, 0.210395, 0.210383, 0.210111, 0.0314843, 0.0314853, 0.0315912
0.00323466, -0.00255428, -0.564137, -0.000178061, 0.000198596, 0.000424188, 0.227, 0.226988, 0.225853, 0.031335, 0.0313367, 0.0315755
0.00247914, -0.00274035, -0.565199, -0.000199331, 0.000328356, 0.000427323, 0.242235, 0.24207, 0.239347, 0.0311229, 0.0311462, 0.0315598
0.00252986, -0.00264839, -0.568919, -0.000174558, 0.000251692, 0.000427216, 0.256443, 0.255954, 0.251164, 0.0308602, 0.0309324, 0.0315442
0.002462, -0.00187444, -0.575141, -5.12114e-05, 0.00024125, 0.000417632, 0.269572, 0.268865, 0.261196, 0.0305529, 0.030661, 0.0315282
0.00156112, -0.00103841, -0.577451, 8.00528e-05, 0.000428219, 0.000403517, 0.28146, 0.280869, 0.268554, 0.0301956, 0.0302863, 0.0315117
0.00178823, -0.000730482, -0.579108, 7.76034e-05, 0.000369212, 0.000397421, 0.292381, 0.291881, 0.274257, 0.0297726, 0.0298509, 0.0314956
0.0023518, -0.00079765, -0.587081, 5.39066e-05, 0.000345411, 0.000400505, 0.302152, 0.301847, 0.277259, 0.0292832, 0.0293341, 0.0314796
0.00150733, -0.000949389, -0.583984, 2.11418e-05, 0.000453068, 0.000398836, 0.310874, 0.310842, 0.277378, 0.0287476, 0.0287558, 0.0314636
0.00120209, -0.00125729, -0.580541, -3.26102e-05, 0.000428633, 0.000390394, 0.318951, 0.319015, 0.277563, 0.0281785, 0.0281687, 0.0314471
0.00117897, -0.00112343, -0.58076, -3.75582e-05, 0.000442161, 0.000388497, 0.326526, 0.326478, 0.277604, 0.0275739, 0.0275724, 0.0314292
0.000942358, -0.00109352, -0.581173, -2.73652e-05, 0.000505145, 0.000385935, 0.333887, 0.33337, 0.277702, 0.0269252, 0.0269822, 0.0314091
0.0012323, 0.000240819, -0.57969, 0.000137002, 0.000443395, 0.000408838, 0.341039, 0.339974, 0.277789, 0.0262213, 0.026364, 0.0313862
0.00277361, 0.00256925, -0.570422, 0.000409014, 0.000104088, 0.000441165, 0.347866, 0.346801, 0.277947, 0.0254954, 0.0256544, 0.0313617
0.0051371, 0.00408274, -0.567437, 0.000638998, -0.000233944, 0.000472104, 0.354646, 0.354573, 0.280612, 0.024866, 0.0248445, 0.0313379
0.00605351, 0.003423, -0.572161, 0.000542781, -0.00026829, 0.000461427, 0.36186, 0.363507, 0.288015, 0.0244238, 0.0240167, 0.0313157
0.00528808, 0.00190231, -0.574962, 0.000345643, -0.000136203, 0.00043872, 0.369307, 0.37304, 0.298744, 0.0241482, 0.0232429, 0.0312952
0.00397335, -0.000171717, -0.577562, -5.95179e-06, 7.77215e-05, 0.000381304, 0.376925, 0.382597, 0.310517, 0.0239277, 0.0225772, 0.031274
0.00290111, -0.00233733, -0.578924, -0.000404324, 0.000217494, 0.000284264, 0.384576, 0.391935, 0.321992, 0.0237018, 0.0220041, 0.0312493
0.00236598, -0.00396725, -0.580787, -0.000843917, 0.000298335, 0.000191435, 0.392248, 0.400813, 0.3324, 0.0233892, 0.0214973, 0.031223
0.00306879, -0.00516502, -0.582773, -0.00126888, 0.000231349, 8.8354e-05, 0.399943, 0.408779, 0.340699, 0.0228736, 0.0210205, 0.0311915
0.00422689, -0.00661977, -0.585339, -0.00180206, 7.40029e-05, -4.05827e-05, 0.40757, 0.415166, 0.345483, 0.0220581, 0.0205113, 0.0311485
0.00532864, -0.00804266, -0.587425, -0.00229658, -7.89806e-05, -0.00014209, 0.41523, 0.41948, 0.346854, 0.0209537, 0.0199764, 0.031093
0.00642774, -0.0109042, -0.587081, -0.00264912, -0.000252707, -0.000238586, 0.422909, 0.421429, 0.345603, 0.0197056, 0.0194008, 0.0310224
0.00566877, -0.0145451, -0.582961, -0.00251037, -0.000187468, -0.000195613, 0.430566, 0.420116, 0.341343, 0.0184765, 0.018814, 0.0309323
0.00395203, -0.0163961, -0.575999, -0.00192961, 8.07262e-06, -9.36911e-05, 0.438191, 0.415822, 0.336121, 0.0174569, 0.0183092, 0.0308109
0.00181953, -0.0167416, -0.568638, -0.00129155, 0.00019963, 3.16939e-05, 0.445714, 0.410806, 0.333863, 0.0166849, 0.0179235, 0.0306393
0.00228671, -0.017147, -0.564874, -0.000989015, 0.000197429, -5.23284e-05, 0.453067, 0.406907, 0.336161, 0.0161014, 0.0176366, 0.0304003
0.00350064, -0.0188806, -0.562637, -0.000837407, 0.00013255, -0.000203354, 0.460275, 0.404406, 0.341812, 0.0156376, 0.0174162, 0.0300853
0.00277216, -0.0192296, -0.558692, -0.000516703, 0.000177849, -0.000197306, 0.467371, 0.403145, 0.349149, 0.0152899, 0.0172422, 0.0297051
0.00193555, -0.0189697, -0.555241, -0.000244016, 0.000223107, -0.000188625, 0.474342, 0.402983, 0.357221, 0.0150296, 0.0171067, 0.0292777
0.000979165, -0.0189539, -0.551269, 8.76783e-06, 0.000262055, -0.000184704, 0.481245, 0.404442, 0.365449, 0.0148387, 0.0169997, 0.028822
0.000257685, -0.0197966, -0.546858, 0.000235363, 0.000268114, -0.000216811, 0.488108, 0.407711, 0.373616, 0.0146974, 0.0169152, 0.0283487
-0.000300635, -0.0220623, -0.544572, 0.000294542, 0.000292244, -0.00014126, 0.494924, 0.41232, 0.381639, 0.0145787, 0.0168499, 0.0278583
-0.000390269, -0.0241342, -0.543505, 0.000294643, 0.000293061, -0.000130189, 0.501722, 0.418016, 0.389395, 0.0144632, 0.0167997, 0.0273432
-0.000541996, -0.0266634, -0.541608, 0.000250055, 0.000295463, -9.98931e-05, 0.508503, 0.424539, 0.396717, 0.0143331, 0.0167622, 0.0267933
-0.000982019, -0.0289313, -0.539426, 0.00017819, 0.000286206, -4.87417e-05, 0.515266, 0.431489, 0.403203, 0.0141668, 0.0167341, 0.0262145
-0.00141736, -0.0303713, -0.538186, 2.69872e-05, 0.00027711, -1.5031e-05, 0.522004, 0.438635, 0.40845, 0.0139349, 0.0167119, 0.0256248
-0.00189731, -0.031034, -0.53693, -0.000150164, 0.00026232, 3.88285e-06, 0.528716, 0.445962, 0.411861, 0.0136163, 0.0166917, 0.025051
-0.00191954, -0.0296539, -0.540092, -0.00020735, 0.000247108, -2.0023e-05, 0.535394, 0.453543, 0.41271, 0.0132032, 0.0166705, 0.0245197
-0.0012827, -0.0259216, -0.552765, -0.000226594, 0.000234325, -2.38884e-05, 0.541992, 0.461356, 0.410556, 0.0127154, 0.0166485, 0.0240486
-0.000870461, -0.0244942, -0.56124, -0.000224612, 0.000217408, -6.37797e-05, 0.548474, 0.469364, 0.404959, 0.0122031, 0.0166263, 0.0236556
-3.17299e-05, -0.0242072, -0.57, -0.000156857, 0.000209846, -0.000113231, 0.554839, 0.477492, 0.395894, 0.0117108, 0.0166025, 0.0233518
0.000528707, -0.0244601, -0.573473, -0.00010059, 0.00019603, -0.00014915, 0.561134, 0.485285, 0.382958, 0.0112106, 0.0165707, 0.0231359
0.00107374, -0.0238372, -0.57231, -0.00010668, 0.000154985, -0.000221603, 0.567362, 0.492091, 0.368403, 0.0107071, 0.016528, 0.0229952
0.00140983, -0.0231159, -0.571339, -9.15885e-05, 0.000127522, -0.000242592, 0.573469, 0.497431, 0.354652, 0.0102322, 0.0164736, 0.0229128
0.00193615, -0.0225817, -0.571776, -3.18396e-05, 0.00010025, -0.000245232, 0.579363, 0.500564, 0.342038, 0.00981865, 0.016406, 0.0228716
0.00221811, -0.02255, -0.573716, 4.87113e-05, 0.000106695, -0.00022645, 0.584992, 0.500284, 0.33028, 0.0094542, 0.0163197, 0.0228518
0.00211839, -0.0208521, -0.57328, 7.21366e-05, 9.92576e-05, -0.000216104, 0.590427, 0.496371, 0.320471, 0.00911476, 0.0162102, 0.0228357
0.0023769, -0.020177, -0.573032, 7.77249e-05, 7.05894e-05, -0.000207366, 0.595772, 0.489218, 0.313486, 0.00878811, 0.0160738, 0.0228094
0.00255855, -0.0182373, -0.570945, 3.42897e-05, 2.08632e-05, -0.000188332, 0.601054, 0.479261, 0.309494, 0.00847864, 0.0159092, 0.0227581
0.00264063, -0.0158514, -0.57, 1.96488e-05, -1.89198e-05, -0.000161742, 0.606244, 0.466975, 0.308237, 0.00819413, 0.0157176, 0.022665
0.00279501, -0.0138027, -0.569336, 5.57755e-06, -6.07149e-05, -0.000127949, 0.611328, 0.452992, 0.309045, 0.00793612, 0.015501, 0.0225121
0.00273678, -0.00998977, -0.570189, 1.55722e-05, -8.06744e-05, -0.000105253, 0.616279, 0.438228, 0.311247, 0.00770538, 0.0152657, 0.0222904
0.00267823, -0.0059487, -0.571651, 2.67013e-05, -9.14708e-05, -8.94303e-05, 0.621118, 0.423595, 0.314407, 0.00750382, 0.0150193, 0.022001
0.00294245, -0.00161227, -0.573945, 4.28887e-05, -0.000112428, -5.03268e-05, 0.625873, 0.409845, 0.318351, 0.00733426, 0.0147701, 0.0216523
0.00311436, 0.00310924, -0.576967, 6.08684e-05, -0.000115903, -2.91949e-05, 0.630582, 0.397686, 0.322873, 0.00719852, 0.014526, 0.0212577
0.00333933, 0.00814681, -0.579294, 6.22032e-05, -0.000139644, 1.76775e-05, 0.63532, 0.387798, 0.327796, 0.00709454, 0.0142902, 0.0208318
0.0035175, 0.0101681, -0.580835, 6.81929e-05, -0.000146154, 3.71378e-05, 0.640146, 0.380605, 0.332831, 0.00702019, 0.0140667, 0.0203935
0.00349769, 0.012532, -0.581801, 6.71144e-05, -0.000142432, 3.91228e-05, 0.645038, 0.376184, 0.33779, 0.00697201, 0.0138616, 0.0199622
0.00356603, 0.0121733, -0.582786, 7.54597e-05, -0.000129608, 2.60234e-05, 0.64993, 0.374486, 0.342499, 0.00694388, 0.0136793, 0.0195518
0.00366298, 0.0109256, -0.584443, 8.59365e-05, -9.44011e-05, -2.11903e-05, 0.654749, 0.375575, 0.346721, 0.00693064, 0.0135242, 0.0191731
0.00393207, 0.00698847, -0.588037, 8.61075e-05, -4.95175e-05, -9.30193e-05, 0.65944, 0.379191, 0.350226, 0.00691914, 0.0133943, 0.018831
0.00368062, 0.00583911, -0.587137, 7.57218e-05, -3.30069e-05, -0.00012738, 0.664034, 0.384537, 0.352753, 0.00689581, 0.0132836, 0.0185287
0.00325747, 0.00603289, -0.582673, 7.20125e-05, -2.03272e-05, -0.000146033, 0.66863, 0.390777, 0.353989, 0.00685067, 0.0131852, 0.0182713
0.00327298, 0.00535799, -0.578584, 5.38396e-05, -2.45317e-05, -0.000134276, 0.673268, 0.397485, 0.353757, 0.00678009, 0.0130945, 0.0180584
0.00285699, 0.00438961, -0.574171, 3.68315e-05, -2.53738e-05, -0.000131043, 0.677932, 0.404775, 0.352103, 0.00668457, 0.0130112, 0.0178866
0.00254948, 0.00205491, -0.573667, -2.9173e-05, -3.51647e-06, -0.000167018, 0.682597, 0.412598, 0.348108, 0.00656006, 0.012936, 0.0177531
0.00208741, 0.000117722, -0.573151, -8.51783e-05, 1.45751e-05, -0.00019872, 0.687268, 0.420257, 0.341378, 0.00640652, 0.0128652, 0.0176504
0.00152014, -0.00168908, -0.573042, -0.000136684, 3.44817e-05, -0.000230333, 0.691944, 0.427029, 0.333184, 0.0062359, 0.0127956, 0.0175789
0.00082661, -0.00325116, -0.57293, -0.000172408, 5.93944e-05, -0.000258089, 0.696645, 0.432311, 0.324951, 0.00605864, 0.0127246, 0.0175349
0.000471665, -0.00541629, -0.573399, -0.000224926, 7.52382e-05, -0.00027787, 0.701398, 0.4357, 0.318073, 0.00588218, 0.012651, 0.0175108
-0.000312831, -0.00760632, -0.572827, -0.000244175, 0.00010162, -0.000293209, 0.706255, 0.436965, 0.313329, 0.00571425, 0.0125721, 0.0174986
-0.00081928, -0.0103107, -0.572, -0.000252385, 0.00010871, -0.000297544, 0.711252, 0.43591, 0.310606, 0.00555677, 0.0124852, 0.0174932
-0.00120492, -0.0144676, -0.572114, -0.000275229, 0.000114905, -0.000298359, 0.716381, 0.432414, 0.309689, 0.0054081, 0.0123909, 0.0174904
-0.00156403, -0.0172784, -0.57199, -0.000282446, 0.000140757, -0.000291266, 0.721591, 0.426531, 0.310493, 0.00526664, 0.0122936, 0.0174864
-0.00154127, -0.0185915, -0.571646, -0.000277822, 0.000145471, -0.000288913, 0.726827, 0.418478, 0.312826, 0.00513149, 0.0121988, 0.0174768
-0.00188682, -0.0178161, -0.570365, -0.000266048, 0.000168328, -0.00027733, 0.732042, 0.408639, 0.316278, 0.00500498, 0.0121085, 0.0174577
-0.00243379, -0.0173204, -0.567019, -0.000229411, 0.000167402, -0.000281084, 0.737198, 0.397489, 0.320302, 0.00489018, 0.0120217, 0.0174271
-0.00316334, -0.0153644, -0.564066, -0.000205773, 0.000158386, -0.000285256, 0.742247, 0.38564, 0.324551, 0.00478824, 0.01194, 0.0173828
-0.00344564, -0.0149397, -0.562929, -0.000198542, 0.000163568, -0.000278678, 0.747152, 0.373966, 0.328843, 0.00469915, 0.0118671, 0.0173226
-0.00502614, -0.0122581, -0.558537, -0.00017535, 0.000147779, -0.000269121, 0.751894, 0.363483, 0.333109, 0.00462546, 0.0118018, 0.0172497
-0.00817311, -0.00787671, -0.550369, -0.000137222, 0.000109982, -0.000251871, 0.756505, 0.355079, 0.337409, 0.00456791, 0.011741, 0.0171672
-0.0101641, -0.005639, -0.545653, -0.000118253, 8.39301e-05, -0.000240734, 0.761037, 0.349596, 0.341816, 0.00452588, 0.011682, 0.0170756
-0.0115515, -0.00486621, -0.542279, -0.000105597, 6.80527e-05, -0.000227586, 0.765558, 0.347165, 0.346383, 0.00449532, 0.0116268, 0.0169682
-0.0114305, -0.00585049, -0.542347, -0.000101439, 6.42644e-05, -0.00024437, 0.7701, 0.347131, 0.351006, 0.00447202, 0.0115802, 0.0168371
-0.0111081, -0.00719318, -0.542231, -9.71727e-05, 5.94473e-05, -0.00026902, 0.774641, 0.348746, 0.355434, 0.0044526, 0.011544, 0.0166766
-0.0108152, -0.00866448, -0.542208, -9.78541e-05, 5.9636e-05, -0.000280628, 0.779117, 0.351515, 0.359139, 0.00443377, 0.0115175, 0.0164874
-0.0106438, -0.00908004, -0.543216, -9.9724e-05, 5.63816e-05, -0.000293746, 0.783457, 0.355123, 0.361619, 0.00441107, 0.0114982, 0.0162758
-0.0113201, -0.00742392, -0.546747, -9.66449e-05, 4.53937e-05, -0.000284831, 0.787565, 0.35946, 0.362583, 0.00438036, 0.0114825, 0.0160563
-0.0124152, -0.00509113, -0.551003, -8.11951e-05, 2.55972e-05, -0.000285296, 0.79136, 0.364642, 0.361773, 0.00433918, 0.0114669, 0.0158444
-0.0137626, -0.00349678, -0.555039, -6.19866e-05, 2.0194e-06, -0.000283318, 0.794897, 0.370888, 0.358582, 0.00428386, 0.0114497, 0.0156552
-0.0149261, -0.00245172, -0.558719, -3.88527e-05, -2.24962e-05, -0.000292816, 0.798223, 0.378048, 0.353045, 0.00421147, 0.0114294, 0.0154957
-0.0165167, -0.00120932, -0.562331, -5.27715e-06, -5.03164e-05, -0.000296663, 0.801321, 0.385599, 0.3458, 0.00412461, 0.0114058, 0.0153693
-0.0173768, -0.000795505, -0.564847, 1.67999e-05, -7.04251e-05, -0.000307496, 0.804175, 0.392949, 0.337768, 0.00403269, 0.0113784, 0.0152788
-0.0173606, -0.000274699, -0.565252, 2.68072e-05, -7.88878e-05, -0.000319664, 0.806878, 0.399356, 0.329278, 0.00393981, 0.011347, 0.0152237
-0.0171271, -0.000185369, -0.565451, 3.07701e-05, -8.91851e-05, -0.000331118, 0.809609, 0.404357, 0.321101, 0.00384383, 0.0113119, 0.015195
-0.0168483, 0.000308518, -0.565438, 3.51076e-05, -0.00010152, -0.000340471, 0.812342, 0.407536, 0.313941, 0.00374706, 0.0112715, 0.0151824
-0.0164435, 0.00135483, -0.565086, 3.7276e-05, -0.000117427, -0.000345451, 0.814976, 0.408409, 0.308169, 0.0036537, 0.0112257, 0.015178
-0.0163996, 0.00176332, -0.565073, 3.82655e-05, -0.000126665, -0.000344103, 0.817554, 0.406668, 0.304056, 0.003567, 0.0111739, 0.0151737
-0.0165195, 0.00287988, -0.565054, 3.95732e-05, -0.000145507, -0.000338065, 0.820125, 0.402278, 0.301441, 0.00348927, 0.0111119, 0.0151602
-0.0169091, 0.00444675, -0.565338, 4.15445e-05, -0.00016949, -0.000326147, 0.822615, 0.395677, 0.299941, 0.00342148, 0.011039, 0.0151288
-0.0183227, 0.00556448, -0.567332, 5.38663e-05, -0.000196107, -0.000320402, 0.825118, 0.387853, 0.29952, 0.00336583, 0.0109588, 0.0150682
-0.0191871, 0.00606478, -0.569209, 6.29846e-05, -0.000218035, -0.000309725, 0.82768, 0.380556, 0.300041, 0.00332267, 0.0108723, 0.0149723
-0.0195412, 0.00562154, -0.570806, 7.01962e-05, -0.000233094, -0.000298394, 0.830499, 0.375062, 0.301799, 0.00328994, 0.0107843, 0.0148464
-0.0194812, 0.00517755, -0.572005, 7.45983e-05, -0.000243117, -0.000285848, 0.833492, 0.371678, 0.30432, 0.00326628, 0.0106983, 0.0147012
-0.0190075, 0.00378431, -0.573459, 7.97036e-05, -0.000251055, -0.000268087, 0.836495, 0.370032, 0.307267, 0.00324917, 0.010621, 0.0145479
-0.0177213, 0.000559153, -0.575019, 8.56081e-05, -0.000240273, -0.000259575, 0.839302, 0.369505, 0.30989, 0.0032364, 0.0105537, 0.0144
-0.0164159, -0.00197519, -0.575479, 8.69561e-05, -0.000223454, -0.000257656, 0.84188, 0.369329, 0.31147, 0.00322587, 0.0104892, 0.0142697
-0.0165836, -0.00196541, -0.572631, 8.07061e-05, -0.000219391, -0.000260065, 0.84414, 0.369014, 0.311799, 0.00321611, 0.0104189, 0.0141625
-0.0164103, -0.00252349, -0.571327, 7.79115e-05, -0.000207797, -0.000269463, 0.845996, 0.368879, 0.311104, 0.00320698, 0.0103392, 0.014078
-0.0174611, -0.00230805, -0.568553, 7.45073e-05, -0.000202619, -0.000285641, 0.847413, 0.36945, 0.309958, 0.00319849, 0.0102513, 0.0140124
-0.017408, -0.00290627, -0.567367, 7.22333e-05, -0.000184375, -0.000300937, 0.84867, 0.371098, 0.308737, 0.00319027, 0.0101589, 0.0139617
-0.0186165, -0.00275735, -0.56555, 7.24785e-05, -0.000174348, -0.000317973, 0.849928, 0.373928, 0.307631, 0.00318171, 0.0100629, 0.0139236
-0.020738, -0.00264858, -0.562418, 7.36235e-05, -0.000175304, -0.000334281, 0.851427, 0.37788, 0.306682, 0.00317187, 0.00996487, 0.0138955
-0.0206537, -0.00249295, -0.562508, 7.09024e-05, -0.000145396, -0.000350271, 0.853192, 0.382817, 0.305808, 0.00315947, 0.00986733, 0.0138742
-0.0225274, -0.00219017, -0.559885, 7.32018e-05, -0.000130024, -0.000370034, 0.854958, 0.388428, 0.304867, 0.00314411, 0.0097695, 0.0138576
-0.0238356, -0.00195818, -0.557979, 7.66389e-05, -0.000123645, -0.000379042, 0.855979, 0.39446, 0.304007, 0.0031266, 0.00966257, 0.0138437
-0.0234349, -0.00180537, -0.558962, 7.14344e-05, -0.000107122, -0.000383692, 0.855642, 0.400545, 0.303213, 0.00310749, 0.00953945, 0.0138326
-0.0230092, -0.00155294, -0.559446, 6.78683e-05, -9.35882e-05, -0.000386358, 0.852699, 0.406188, 0.302212, 0.00308692, 0.00938569, 0.0138244
-0.0235134, -0.00164579, -0.557986, 7.07502e-05, -9.17171e-05, -0.000390222, 0.844695, 0.411096, 0.301008, 0.00306554, 0.00917647, 0.0138183
-0.0226749, -0.00127224, -0.557567, 7.04172e-05, -7.51312e-05, -0.000394197, 0.828553, 0.414453, 0.299385, 0.00304432, 0.00887788, 0.0138127
-0.0212573, -0.000780432, -0.55864, 6.86926e-05, -6.4359e-05, -0.000393656, 0.801448, 0.415645, 0.297449, 0.00302444, 0.00845606, 0.0138059
-0.0191636, -0.000367256, -0.558003, 7.36529e-05, -5.15958e-05, -0.000391645, 0.763409, 0.415053, 0.295578, 0.00300568, 0.00791173, 0.0137982
-0.0159937, 0.000350207, -0.556848, 7.75129e-05, -2.21522e-05, -0.000392778, 0.718773, 0.413882, 0.293867, 0.00298627, 0.00729738, 0.0137914
-0.0124791, 0.00165813, -0.558948, 7.27002e-05, 1.12077e-05, -0.000394426, 0.673834, 0.413493, 0.292257, 0.00296461, 0.00669251, 0.0137865
-0.0115852, 0.00142564, -0.558155, 7.65151e-05, 1.50474e-05, -0.000394663, 0.632991, 0.414526, 0.291196, 0.00294064, 0.00615656, 0.0137832
-0.00961265, 0.00174073, -0.557535, 7.76025e-05, 3.39096e-05, -0.000395176, 0.597857, 0.416437, 0.290593, 0.0029141, 0.00571421, 0.0137811
-0.00774357, 0.00172949, -0.556763, 7.9688e-05, 4.95545e-05, -0.000396019, 0.568044, 0.418464, 0.290061, 0.00288522, 0.00536244, 0.0137794
-0.00643087, 0.00182579, -0.556073, 8.04564e-05, 6.17966e-05, -0.000396463, 0.54234, 0.420036, 0.289506, 0.00285541, 0.00508611, 0.0137772
-0.00532153, 0.00181075, -0.5559, 8.0834e-05, 7.05953e-05, -0.000396577, 0.519489, 0.420775, 0.288519, 0.00282566, 0.00486779, 0.0137739
-0.00449624, 0.00196474, -0.555983, 8.00499e-05, 7.77313e-05, -0.000396279, 0.498546, 0.420683, 0.28715, 0.00279764, 0.00469241, 0.0137693
-0.00355921, 0.00238994, -0.557034, 7.75181e-05, 8.54258e-05, -0.000394296, 0.47903, 0.420088, 0.285694, 0.00277277, 0.00454827, 0.0137636
-0.00252529, 0.00333875, -0.560195, 7.20542e-05, 9.29621e-05, -0.000389457, 0.461, 0.419379, 0.284431, 0.00275207, 0.00442992, 0.0137568
-0.00103175, 0.00354271, -0.562211, 6.96536e-05, 0.00010161, -0.000385431, 0.444792, 0.418975, 0.283671, 0.0027364, 0.00433668, 0.0137492
0.00020533, 0.00380651, -0.563151, 6.78323e-05, 0.000109041, -0.000382418, 0.430824, 0.419273, 0.283277, 0.0027256, 0.00426639, 0.0137411
0.0013248, 0.00377511, -0.564499, 6.71193e-05, 0.000114684, -0.000381793, 0.419495, 0.420512, 0.28316, 0.00271887, 0.00421678, 0.013734
0.00284328, 0.00322511, -0.564415, 6.75811e-05, 0.000120799, -0.00038014, 0.411134, 0.422748, 0.283221, 0.00271549, 0.0041861, 0.0137298
0.00388645, 0.00308189, -0.566148, 6.74555e-05, 0.000124484, -0.000380633, 0.405932, 0.425809, 0.283338, 0.00271427, 0.00417115, 0.0137277
0.00407026, 0.00268104, -0.564191, 6.79968e-05, 0.000124875, -0.000381892, 0.4038, 0.429347, 0.283475, 0.00271392, 0.00416707, 0.0137263
0.00385604, 0.00272824, -0.562776, 6.81596e-05, 0.000124893, -0.000382728, 0.404411, 0.432819, 0.283591, 0.00271329, 0.00416654, 0.0137246
0.00368346, 0.00277596, -0.561778, 6.81488e-05, 0.000125775, -0.000383359, 0.407377, 0.435611, 0.283625, 0.00271169, 0.00416029, 0.0137222
0.00369333, 0.00271276, -0.562361, 6.82032e-05, 0.000125624, -0.000382955, 0.412159, 0.437073, 0.283635, 0.00270871, 0.00413875, 0.0137189
0.00371443, 0.00219042, -0.563057, 6.76576e-05, 0.000127229, -0.000384691, 0.418221, 0.436674, 0.28365, 0.00270371, 0.00409424, 0.0137145
0.00384095, 0.00195952, -0.56315, 6.75919e-05, 0.000127303, -0.000385237, 0.424958, 0.434235, 0.28366, 0.00269548, 0.00402266, 0.0137097
0.00384287, 0.000888078, -0.561845, 6.59783e-05, 0.000132186, -0.000387498, 0.431571, 0.429919, 0.283666, 0.00268296, 0.00392411, 0.0137058
0.00410665, 3.98273e-05, -0.562052, 6.45235e-05, 0.000138467, -0.00038933, 0.437462, 0.424137, 0.283754, 0.00266653, 0.00380374, 0.0137027
0.00427407, -0.000691596, -0.562557, 6.43523e-05, 0.000148233, -0.000389537, 0.44208, 0.417492, 0.284131, 0.00264684, 0.00367054, 0.0137003
0.00380068, -0.00103536, -0.562341, 6.67011e-05, 0.000154907, -0.000387233, 0.445493, 0.410433, 0.284832, 0.00262575, 0.00353548, 0.0136973
0.00331193, -0.00131366, -0.562409, 6.97785e-05, 0.000160423, -0.00038481, 0.448208, 0.403437, 0.2853, 0.00260437, 0.00340601, 0.0136924
0.00255515, -0.00107971, -0.562256, 7.31468e-05, 0.000159961, -0.000380771, 0.449921, 0.396809, 0.285262, 0.00258163, 0.00328463, 0.0136853
0.00118363, -0.00056257, -0.561828, 7.83431e-05, 0.00015653, -0.000375002, 0.450142, 0.390656, 0.284934, 0.00255605, 0.0031733, 0.0136779
0.000841557, -0.000356025, -0.559816, 7.878e-05, 0.000155434, -0.000372434, 0.448608, 0.384914, 0.284354, 0.00252642, 0.00307367, 0.0136716
-0.000195637, -0.000729802, -0.559651, 8.35049e-05, 0.000156165, -0.000371017, 0.445019, 0.379579, 0.283752, 0.00249328, 0.00298662, 0.0136679
-0.000151669, -0.000398637, -0.559087, 8.23377e-05, 0.000154522, -0.000369655, 0.439208, 0.374513, 0.283316, 0.00245828, 0.00291184, 0.0136659
1.25473e-05, -0.0004478, -0.558533, 8.16191e-05, 0.000155005, -0.000367972, 0.431263, 0.369388, 0.283035, 0.00242248, 0.00284787, 0.0136641
-0.000193384, -0.000446746, -0.558864, 8.21639e-05, 0.000154359, -0.000367442, 0.421464, 0.364189, 0.282858, 0.00238694, 0.00279238, 0.013662
-0.000593037, 3.13755e-05, -0.561066, 8.26028e-05, 0.000151689, -0.000368346, 0.410462, 0.359177, 0.282685, 0.0023538, 0.00274373, 0.01366
-0.00106862, -3.84485e-05, -0.562149, 8.3787e-05, 0.000150277, -0.000367141, 0.399103, 0.354673, 0.282448, 0.00232526, 0.00270092, 0.0136584
-0.00208635, -0.000451678, -0.561915, 8.60997e-05, 0.000147853, -0.000363672, 0.388088, 0.350828, 0.282185, 0.00230227, 0.00266397, 0.0136565
-0.00373498, -0.000764304, -0.560955, 8.88247e-05, 0.00014332, -0.000358696, 0.378079, 0.34775, 0.281888, 0.00228461, 0.00263315, 0.0136538
-0.00561616, -0.00106215, -0.561808, 9.15065e-05, 0.000137894, -0.000352871, 0.369659, 0.345603, 0.281499, 0.00227147, 0.00260876, 0.0136506
-0.00706801, -0.00126968, -0.562808, 9.30313e-05, 0.000133863, -0.000347903, 0.363143, 0.344479, 0.28109, 0.00226253, 0.00259074, 0.0136466
-0.00778454, -0.00162003, -0.562321, 9.36615e-05, 0.0001326, -0.000343605, 0.358526, 0.344332, 0.280816, 0.00225744, 0.00257904, 0.0136422
-0.0081611, -0.00222515, -0.561403, 9.44211e-05, 0.000132083, -0.000339973, 0.35575, 0.345075, 0.280712, 0.00225524, 0.00257298, 0.0136369
-0.00813857, -0.00231394, -0.5598, 9.47367e-05, 0.000132286, -0.000339326, 0.354896, 0.346523, 0.280676, 0.00225458, 0.00257083, 0.0136295
-0.008693, -0.00261878, -0.558344, 9.4844e-05, 0.000132376, -0.000336044, 0.355893, 0.348397, 0.280643, 0.00225403, 0.00257049, 0.0136171
-0.00927366, -0.0023193, -0.560307, 9.38219e-05, 0.000132833, -0.000331943, 0.358464, 0.350373, 0.280585, 0.00225215, 0.00256957, 0.0135975
-0.00891467, -0.00175484, -0.562327, 9.46978e-05, 0.000132552, -0.000334373, 0.3621, 0.352163, 0.280571, 0.00224798, 0.00256569, 0.0135778
-0.00817732, -0.00133344, -0.564369, 9.65832e-05, 0.000131388, -0.000339689, 0.36648, 0.353586, 0.280629, 0.00224056, 0.0025565, 0.0135638
-0.0073291, -0.00135387, -0.56527, 9.85859e-05, 0.000128204, -0.000345115, 0.371418, 0.354549, 0.280652, 0.00222965, 0.00254087, 0.0135557
-0.00620982, -0.00177154, -0.564914, 0.000101748, 0.000122126, -0.000349819, 0.376616, 0.355116, 0.280749, 0.00221589, 0.00251807, 0.0135527
-0.00542548, -0.00240343, -0.565229, 0.000104126, 0.000116922, -0.000351485, 0.381855, 0.355393, 0.280954, 0.00220006, 0.00248927, 0.0135513
-0.00445333, -0.00298809, -0.565366, 0.000107843, 0.000111062, -0.000352582, 0.386903, 0.355402, 0.281061, 0.00218322, 0.00245733, 0.0135499
-0.00345236, -0.00361127, -0.565715, 0.000111639, 0.000105499, -0.000351961, 0.391412, 0.355128, 0.281026, 0.00216618, 0.00242453, 0.0135482
-0.00308701, -0.00417249, -0.565328, 0.000113132, 0.000102499, -0.000352128, 0.395036, 0.354551, 0.280921, 0.00214958, 0.00239238, 0.013546
-0.00312831, -0.00466848, -0.565209, 0.000113174, 0.000100534, -0.000352306, 0.397483, 0.353662, 0.280738, 0.00213389, 0.00236167, 0.013543
-0.00337764, -0.00487206, -0.563294, 0.000112808, 0.000100395, -0.000356485, 0.398467, 0.352462, 0.280532, 0.00211984, 0.0023326, 0.0135385
-0.00352095, -0.00467981, -0.561845, 0.000112563, 0.000101439, -0.000360733, 0.397745, 0.350903, 0.280347, 0.00210797, 0.00230605, 0.0135312
-0.00348713, -0.00439008, -0.562184, 0.000112515, 0.000102467, -0.000362386, 0.395234, 0.348968, 0.2802, 0.00209822, 0.00228301, 0.0135209
-0.00314201, -0.00461385, -0.561367, 0.000113413, 0.000102408, -0.000362011, 0.391049, 0.34676, 0.280093, 0.00209048, 0.00226341, 0.0135066
-0.00301435, -0.004568, -0.560398, 0.000113697, 0.000102749, -0.00036306, 0.385463, 0.344431, 0.280049, 0.00208474, 0.00224659, 0.0134868
-0.00274124, -0.00462655, -0.559942, 0.000114229, 0.000103108, -0.000363568, 0.379004, 0.34216, 0.280036, 0.00208061, 0.00223239, 0.0134631
-0.00277038, -0.00485723, -0.559062, 0.000114579, 0.000102716, -0.00036477, 0.372351, 0.340172, 0.280036, 0.00207775, 0.00222065, 0.0134403
-0.00248998, -0.00411942, -0.560157, 0.000114601, 0.000104575, -0.000368804, 0.366107, 0.338714, 0.280079, 0.00207596, 0.00221142, 0.0134202
-0.00237613, -0.0040195, -0.55907, 0.000114652, 0.000104864, -0.000370017, 0.36084, 0.33797, 0.280144, 0.00207495, 0.00220499, 0.0134031
-0.00234209, -0.00377983, -0.558944, 0.000114849, 0.000105318, -0.000372316, 0.356929, 0.338031, 0.280237, 0.00207444, 0.00220141, 0.0133895
-0.00243856, -0.00345576, -0.55821, 0.000114269, 0.000105255, -0.000372616, 0.354541, 0.338793, 0.280337, 0.00207409, 0.00220016, 0.0133798
-0.00283933, -0.00301786, -0.560349, 0.000114501, 0.000105318, -0.000374852, 0.353665, 0.339957, 0.280354, 0.00207353, 0.00220001, 0.0133691
-0.00313651, -0.00304193, -0.560967, 0.000114715, 0.00010555, -0.000376187, 0.354135, 0.341348, 0.280352, 0.00207287, 0.0021995, 0.0133548
-0.00293585, -0.00337143, -0.562465, 0.000114864, 0.000105655, -0.000377421, 0.355624, 0.342765, 0.280393, 0.0020723, 0.00219778, 0.0133381
-0.00250333, -0.00408722, -0.563017, 0.000114787, 0.000105899, -0.000382267, 0.357871, 0.344104, 0.280477, 0.00207181, 0.00219404, 0.0133208
-0.00242282, -0.00483251, -0.563405, 0.0001148, 0.00010694, -0.000388379, 0.360753, 0.345416, 0.28062, 0.00207126, 0.00218753, 0.013305
-0.00244615, -0.00522831, -0.561938, 0.00011484, 0.000106231, -0.000391436, 0.364122, 0.346704, 0.280862, 0.0020704, 0.00217807, 0.0132911
-0.00284608, -0.00560528, -0.562133, 0.000114857, 0.000108046, -0.000391161, 0.3679, 0.348003, 0.281245, 0.00206879, 0.00216573, 0.0132796
-0.00339501, -0.00627614, -0.560353, 0.000114731, 0.000109106, -0.000391305, 0.372013, 0.349288, 0.28166, 0.00206607, 0.0021507, 0.0132693
-0.0035762, -0.00647724, -0.562681, 0.000114885, 0.000111647, -0.000387864, 0.376223, 0.35051, 0.281943, 0.00206231, 0.00213333, 0.013259
-0.00340857, -0.00690679, -0.562984, 0.000114267, 0.000112883, -0.000387871, 0.380173, 0.351538, 0.281963, 0.0020581, 0.0021142, 0.0132459
-0.00325447, -0.00694771, -0.563191, 0.000113944, 0.000112795, -0.000387917, 0.383328, 0.352119, 0.281865, 0.00205344, 0.00209432, 0.0132322
-0.00328642, -0.00697092, -0.562791, 0.000113852, 0.000112802, -0.000386561, 0.385313, 0.35209, 0.281726, 0.00204816, 0.00207413, 0.0132187
-0.0030412, -0.00714581, -0.562227, 0.000113223, 0.00011342, -0.000386717, 0.385718, 0.351276, 0.28164, 0.00204212, 0.00205425, 0.0132064
-0.00327165, -0.00666146, -0.562124, 0.000112918, 0.00011168, -0.000383113, 0.384209, 0.349501, 0.281628, 0.0020354, 0.00203521, 0.0131943
-0.0035482, -0.00603072, -0.561998, 0.000112462, 0.000109733, -0.000379172, 0.380993, 0.34683, 0.28149, 0.00202796, 0.00201732, 0.0131831
-0.0032975, -0.00553481, -0.561404, 0.000111538, 0.000109241, -0.000379503, 0.376347, 0.343587, 0.281298, 0.00202055, 0.00200089, 0.0131751
-0.00343528, -0.00529393, -0.559576, 0.0001111, 0.000108614, -0.000377496, 0.370636, 0.34012, 0.281167, 0.00201416, 0.0019858, 0.0131686
-0.00404804, -0.00486724, -0.557653, 0.000111008, 0.000106746, -0.000374456, 0.364339, 0.336737, 0.281132, 0.00200894, 0.00197203, 0.0131618
-0.00409997, -0.00421546, -0.557173, 0.000110457, 0.000105874, -0.000375039, 0.358103, 0.333675, 0.281096, 0.00200485, 0.0019597, 0.0131544
-0.00498544, -0.00402405, -0.556856, 0.000110783, 0.000104044, -0.000371987, 0.352322, 0.331091, 0.281062, 0.0020016, 0.00194912, 0.0131481
-0.00507239, -0.00372021, -0.559089, 0.00011078, 0.000103658, -0.0003726, 0.347306, 0.329099, 0.281067, 0.00199879, 0.00194061, 0.0131448
-0.00560174, -0.00373628, -0.561728, 0.000111238, 0.000102996, -0.00037329, 0.343353, 0.32773, 0.280997, 0.0019963, 0.00193423, 0.0131428
-0.00553747, -0.00318756, -0.560855, 0.000110641, 0.0001027, -0.000371252, 0.340484, 0.326958, 0.280894, 0.00199423, 0.00192991, 0.0131403
-0.00515432, -0.00257513, -0.561992, 0.000110295, 0.000102544, -0.000370348, 0.338635, 0.326703, 0.280832, 0.00199288, 0.00192747, 0.0131373
-0.00527382, -0.00215741, -0.56399, 0.000110204, 0.000101952, -0.000369013, 0.33788, 0.32685, 0.280637, 0.00199225, 0.00192624, 0.0131338
-0.00544358, -0.00205776, -0.564044, 0.000110146, 0.00010182, -0.000367981, 0.338206, 0.327327, 0.280323, 0.00199192, 0.00192539, 0.013128
-0.00623584, -0.00168022, -0.564801, 0.000109919, 0.000101684, -0.000365266, 0.339446, 0.32807, 0.28003, 0.00199137, 0.00192437, 0.0131179
0.0106047, 0.0115616, -0.55951, 0.000127052, 9.40893e-05, -0.000438918, 0.341171, 0.328858, 0.279787, 0.00199056, 0.00192278, 0.0131087
0.00458856, 0.00674093, -0.561406, 0.000115752, 9.60076e-05, -0.000379467, 0.342721, 0.329536, 0.27964, 0.00198931, 0.00192091, 0.0131063
0.000681499, 0.0037359, -0.562471, 0.000110646, 0.000100578, -0.000373032, 0.343997, 0.330254, 0.279589, 0.00198668, 0.00191842, 0.0131029
-0.00224513, 0.00177147, -0.563193, 0.000106766, 0.000104552, -0.000371899, 0.345341, 0.331243, 0.279575, 0.00198324, 0.00191489, 0.0130967
-0.00432653, 0.000807616, -0.564018, 0.00010452, 0.000107668, -0.000376014, 0.346836, 0.332558, 0.27957, 0.00197977, 0.00191038, 0.0130891
-0.00552448, 0.000343127, -0.563134, 0.000103528, 0.000109356, -0.000379545, 0.348399, 0.334114, 0.279599, 0.00197652, 0.00190494, 0.0130783
-0.00517681, -0.000191326, -0.56415, 0.000102884, 0.000108313, -0.000376299, 0.350081, 0.33577, 0.279577, 0.00197387, 0.00189886, 0.0130656
-0.00515306, -0.000424162, -0.562467, 0.000102629, 0.000108581, -0.000374849, 0.351795, 0.337321, 0.279449, 0.00197223, 0.0018925, 0.0130529
-0.00481503, -0.000469914, -0.562074, 0.000102646, 0.000108203, -0.000372211, 0.353426, 0.33855, 0.279221, 0.00197139, 0.00188582, 0.0130395
-0.00416907, -0.000362794, -0.563477, 0.000102618, 0.000105991, -0.000364481, 0.354939, 0.339298, 0.27897, 0.00197094, 0.00187842, 0.0130246
-0.0030716, -0.000621619, -0.566134, 0.000102612, 0.00010111, -0.000351726, 0.356341, 0.339477, 0.27888, 0.00197062, 0.00187032, 0.013009
-0.00135286, -0.0011249, -0.566887, 0.000102991, 9.7615e-05, -0.000340774, 0.357513, 0.339173, 0.27906, 0.00197026, 0.00186279, 0.0129951
0.000995074, -0.00177399, -0.567374, 0.000103917, 9.41225e-05, -0.000330893, 0.358445, 0.338537, 0.279486, 0.0019698, 0.00185608, 0.0129836
0.00362494, -0.00246407, -0.566851, 0.000104851, 9.17678e-05, -0.00032238, 0.359053, 0.337689, 0.280046, 0.00196928, 0.00185032, 0.0129764
0.00641509, -0.00288024, -0.567098, 0.00010645, 8.95461e-05, -0.00031865, 0.359453, 0.336696, 0.280745, 0.00196861, 0.00184486, 0.0129731
0.00822661, -0.0030692, -0.566802, 0.000107405, 8.89104e-05, -0.000317585, 0.359779, 0.335628, 0.281649, 0.00196777, 0.00183915, 0.0129718
0.00914587, -0.00343736, -0.566921, 0.00010782, 8.80782e-05, -0.000317197, 0.359929, 0.33458, 0.282701, 0.00196672, 0.00183334, 0.0129698
0.0101128, -0.00384944, -0.567769, 0.000108424, 8.64129e-05, -0.000318211, 0.359737, 0.33364, 0.283834, 0.0019653, 0.00182766, 0.0129641
0.012372, -0.00405798, -0.568613, 0.000109621, 8.50537e-05, -0.000321222, 0.359112, 0.332861, 0.285033, 0.00196326, 0.00182203, 0.0129518
0.0141039, -0.00458208, -0.569151, 0.000110028, 8.4099e-05, -0.000320753, 0.357875, 0.332261, 0.286263, 0.00196062, 0.00181644, 0.0129322
0.015826, -0.00479901, -0.569714, 0.000110498, 8.37937e-05, -0.00032156, 0.35569, 0.331915, 0.287274, 0.00195726, 0.00181155, 0.0129045
0.0167295, -0.00484444, -0.569519, 0.000110541, 8.43208e-05, -0.000320546, 0.352789, 0.331903, 0.288162, 0.00195299, 0.00180717, 0.012868
0.0269287, -0.00510263, -0.569288, 0.000111877, 9.10601e-05, -0.000318999, 0.34949, 0.332224, 0.289094, 0.00194825, 0.00180313, 0.0128275
0.0251816, -0.00503658, -0.573309, 0.000113507, 8.80619e-05, -0.000336679, 0.345806, 0.332914, 0.289719, 0.00194211, 0.00179983, 0.0127744
0.0193675, -0.0042975, -0.570442, 0.000112926, 8.39557e-05, -0.000333129, 0.342668, 0.33402, 0.290352, 0.0019339, 0.00179681, 0.0127022
0.0151967, -0.00367758, -0.567496, 0.000113248, 8.22951e-05, -0.000335923, 0.340905, 0.335489, 0.291461, 0.00192479, 0.00179411, 0.0126219
0.0113411, -0.00327655, -0.565148, 0.000113492, 8.11301e-05, -0.00033814, 0.340824, 0.337267, 0.293137, 0.00191546, 0.0017917, 0.0125396
0.00898303, -0.00351667, -0.564259, 0.000112761, 8.06729e-05, -0.000332928, 0.342376, 0.33927, 0.295243, 0.00190655, 0.00178938, 0.012461
0.00632594, -0.00386068, -0.566894, 0.000112873, 8.25032e-05, -0.000334489, 0.345037, 0.341429, 0.297427, 0.00189819, 0.00178691, 0.0123866
0.00608012, -0.00460688, -0.56758, 0.000111353, 8.22158e-05, -0.00032294, 0.348634, 0.343719, 0.299374, 0.00189008, 0.0017836, 0.0123119
0.00463917, -0.00469529, -0.567295, 0.000111333, 8.39228e-05, -0.000320822, 0.352873, 0.346055, 0.300778, 0.00188267, 0.00177906, 0.012241
0.00366194, -0.00481749, -0.566148, 0.000111429, 8.48622e-05, -0.000320462, 0.357026, 0.348222, 0.301149, 0.00187698, 0.00177413, 0.0121849
0.00209284, -0.00530465, -0.565646, 0.000111216, 8.70133e-05, -0.000316259, 0.360904, 0.350094, 0.300334, 0.00187306, 0.00176895, 0.012145
0.00144104, -0.00576724, -0.564235, 0.000111242, 8.6935e-05, -0.00031643, 0.364518, 0.351695, 0.298493, 0.00187022, 0.00176329, 0.0121152
0.00109242, -0.00642805, -0.562222, 0.000111324, 8.52882e-05, -0.000319518, 0.367832, 0.353052, 0.295987, 0.00186815, 0.00175683, 0.0120927
0.000303708, -0.00716408, -0.560954, 0.000111442, 8.46058e-05, -0.000321281, 0.370593, 0.354135, 0.293181, 0.0018667, 0.00174966, 0.0120766
-0.00153086, -0.00757097, -0.560376, 0.000112039, 8.58463e-05, -0.000324214, 0.372575, 0.354982, 0.290499, 0.00186571, 0.00174153, 0.012065
-0.00387462, -0.0084869, -0.560668, 0.000112478, 8.84211e-05, -0.000324402, 0.37345, 0.355576, 0.288171, 0.00186505, 0.00173339, 0.0120569
-0.00603135, -0.00911528, -0.559928, 0.000113106, 8.81159e-05, -0.000329052, 0.373202, 0.355941, 0.286492, 0.00186463, 0.00172484, 0.012051
-0.00711172, -0.00973878, -0.560553, 0.000113293, 8.97376e-05, -0.000329437, 0.371805, 0.356141, 0.285637, 0.00186435, 0.00171498, 0.012046
-0.00832684, -0.0107639, -0.56189, 0.000113472, 9.26978e-05, -0.000329805, 0.36925, 0.356183, 0.285623, 0.00186414, 0.0017039, 0.0120413
-0.00925173, -0.0114308, -0.562387, 0.000113684, 9.35875e-05, -0.000331764, 0.365768, 0.355981, 0.286317, 0.00186385, 0.00169293, 0.012035
-0.010476, -0.0118165, -0.562802, 0.000113977, 9.3949e-05, -0.000334405, 0.361546, 0.355532, 0.287609, 0.00186336, 0.0016819, 0.012025
-0.0118952, -0.0118533, -0.564233, 0.000114041, 9.57194e-05, -0.000334337, 0.356985, 0.354912, 0.289292, 0.00186259, 0.00167177, 0.0120109
-0.0121827, -0.012189, -0.565651, 0.000114231, 9.79526e-05, -0.000335974, 0.35263, 0.354254, 0.291132, 0.00186158, 0.00166358, 0.0119933
-0.0127687, -0.012579, -0.565907, 0.000114538, 9.80356e-05, -0.000339158, 0.348628, 0.353593, 0.293041, 0.00186037, 0.0016567, 0.0119721
-0.0147044, -0.012667, -0.567695, 0.000114765, 9.89489e-05, -0.000340854, 0.345327, 0.352965, 0.294879, 0.00185894, 0.00165141, 0.0119475
-0.0128032, -0.012606, -0.571506, 0.000114755, 0.000103413, -0.000340094, 0.343073, 0.352318, 0.296546, 0.00185709, 0.00164772, 0.0119168
-0.0128236, -0.0129147, -0.570723, 0.000115044, 0.000103102, -0.000342972, 0.341769, 0.351621, 0.298019, 0.00185467, 0.00164493, 0.0118787
-0.0112098, -0.0126389, -0.571083, 0.000114605, 0.000103385, -0.000338959, 0.340927, 0.350996, 0.299274, 0.00185213, 0.0016425, 0.0118396
-0.00823491, -0.0127301, -0.571913, 0.00011442, 0.00010363, -0.000337848, 0.340797, 0.350437, 0.300202, 0.00184949, 0.00164054, 0.0118001
-0.00701853, -0.0125637, -0.57217, 0.000114112, 0.000103219, -0.000335235, 0.34154, 0.349897, 0.300698, 0.00184659, 0.00163876, 0.0117589
-0.0060784, -0.0121467, -0.571224, 0.000113534, 0.000102312, -0.000329511, 0.342772, 0.349457, 0.300733, 0.00184395, 0.00163691, 0.0117222
-0.00585159, -0.0116918, -0.568243, 0.000112824, 0.000101988, -0.000321843, 0.344422, 0.349149, 0.300282, 0.00184173, 0.00163478, 0.0116916
-0.00521835, -0.0111674, -0.566958, 0.000112152, 0.000101481, -0.000315126, 0.346631, 0.348947, 0.299307, 0.00183971, 0.0016319, 0.011664
-0.00370436, -0.0106448, -0.564685, 0.000111404, 0.000100894, -0.000307122, 0.349367, 0.348836, 0.297795, 0.00183786, 0.00162774, 0.0116389
-0.00189048, -0.0101487, -0.563575, 0.000110735, 9.94468e-05, -0.000300509, 0.352415, 0.348843, 0.29583, 0.00183637, 0.00162217, 0.0116183
0.000849278, -0.00995767, -0.562444, 0.000110152, 9.72096e-05, -0.000295036, 0.355475, 0.348966, 0.29357, 0.0018353, 0.00161538, 0.0116032
0.00338171, -0.00973418, -0.562351, 0.000109678, 9.40992e-05, -0.00029101, 0.358381, 0.349175, 0.291158, 0.00183454, 0.00160715, 0.0115922
0.00562548, -0.00950035, -0.562337, 0.000109268, 9.1493e-05, -0.000287438, 0.360835, 0.349462, 0.288801, 0.00183409, 0.00159792, 0.0115854
0.0075604, -0.00947975, -0.562979, 0.000108851, 8.83224e-05, -0.000284671, 0.362637, 0.349835, 0.286679, 0.00183388, 0.00158797, 0.0115823
0.00888235, -0.00904165, -0.562893, 0.000108665, 8.73901e-05, -0.000282499, 0.363723, 0.350283, 0.28492, 0.00183372, 0.0015769, 0.0115809
0.0096903, -0.00848208, -0.563275, 0.000108595, 8.60698e-05, -0.000281522, 0.36389, 0.350819, 0.283686, 0.00183348, 0.00156577, 0.0115798
0.0112237, -0.00799763, -0.564204, 0.000108568, 8.36343e-05, -0.000281112, 0.363103, 0.351462, 0.28303, 0.00183293, 0.00155488, 0.0115771
0.0138674, -0.00737423, -0.562805, 0.000109035, 8.63152e-05, -0.000281468, 0.361412, 0.352217, 0.282954, 0.00183186, 0.00154421, 0.0115709
0.0131473, -0.00665409, -0.565872, 0.000109148, 8.02767e-05, -0.000285051, 0.358932, 0.353088, 0.283432, 0.00183015, 0.0015335, 0.01156
0.0134051, -0.00591575, -0.567896, 0.000109549, 7.67026e-05, -0.00028918, 0.355803, 0.354094, 0.284407, 0.00182774, 0.00152305, 0.0115436
0.0129325, -0.00523816, -0.568881, 0.000110234, 7.51478e-05, -0.00029484, 0.35223, 0.355284, 0.285751, 0.00182444, 0.00151355, 0.0115198
0.0148496, -0.00446908, -0.566569, 0.000112834, 8.13294e-05, -0.000310799, 0.34855, 0.356741, 0.287294, 0.00181988, 0.00150573, 0.0114852
0.0152419, -0.0039996, -0.568523, 0.0001128, 7.86214e-05, -0.000310413, 0.345347, 0.358534, 0.288864, 0.00181359, 0.00150022, 0.0114351
0.0159837, -0.00327503, -0.569283, 0.000114322, 7.90901e-05, -0.000320835, 0.343199, 0.360607, 0.290481, 0.00180626, 0.00149637, 0.0113751
0.0126304, -0.0025892, -0.571217, 0.000115326, 7.7613e-05, -0.000331208, 0.342237, 0.362824, 0.292161, 0.00179916, 0.00149355, 0.0113166
0.00993174, -0.00247751, -0.572433, 0.000115244, 7.70357e-05, -0.000332554, 0.342544, 0.365055, 0.293819, 0.00179293, 0.0014915, 0.0112649
0.0099466, -0.00275123, -0.573727, 0.000114681, 7.66594e-05, -0.000328611, 0.344249, 0.367231, 0.295373, 0.00178759, 0.00148968, 0.0112198
0.00791004, -0.00265786, -0.576193, 0.000114734, 7.82595e-05, -0.00033009, 0.347032, 0.369312, 0.296674, 0.00178299, 0.00148737, 0.0111794
0.00634317, -0.00269299, -0.57537, 0.000115029, 7.9627e-05, -0.000332163, 0.35046, 0.371343, 0.297504, 0.00177871, 0.00148417, 0.0111397
0.0046848, -0.00321721, -0.573521, 0.000114868, 8.05923e-05, -0.000330732, 0.354597, 0.37339, 0.297812, 0.00177448, 0.00147939, 0.0110983
0.00276516, -0.00370929, -0.572254, 0.000114738, 8.21904e-05, -0.000329002, 0.358769, 0.37527, 0.297349, 0.00177117, 0.00147403, 0.0110654
0.00192501, -0.00459529, -0.570276, 0.00011408, 8.12332e-05, -0.000324294, 0.362658, 0.3768, 0.296086, 0.00176909, 0.00146853, 0.0110443
7.15793e-05, -0.00558803, -0.567684, 0.000113569, 8.00654e-05, -0.000320142, 0.366394, 0.37805, 0.294367, 0.00176772, 0.00146163, 0.0110297
-0.000618604, -0.00637671, -0.565409, 0.000113172, 7.6897e-05, -0.000318043, 0.369583, 0.379039, 0.292462, 0.00176687, 0.00145317, 0.0110205
-0.00189218, -0.00719173, -0.564207, 0.00011301, 7.57314e-05, -0.000316849, 0.371604, 0.379664, 0.29053, 0.00176651, 0.00144434, 0.0110167
-0.00413294, -0.00798858, -0.563357, 0.000113027, 7.52283e-05, -0.00031598, 0.372355, 0.380115, 0.28894, 0.00176629, 0.00143441, 0.0110147
-0.00710707, -0.00860862, -0.563479, 0.000113337, 7.61376e-05, -0.000316426, 0.371636, 0.380452, 0.287816, 0.00176613, 0.00142437, 0.0110138
-0.00800152, -0.00930073, -0.563303, 0.000113424, 7.57621e-05, -0.00031723, 0.369547, 0.380587, 0.28727, 0.00176599, 0.00141453, 0.0110129
-0.0100568, -0.00984086, -0.563661, 0.000113806, 7.59068e-05, -0.000319467, 0.366336, 0.380555, 0.287396, 0.00176578, 0.00140449, 0.0110103
-0.011976, -0.0104354, -0.565502, 0.000114513, 7.84127e-05, -0.000324129, 0.362212, 0.380487, 0.288182, 0.00176552, 0.001394, 0.0110061
-0.0154647, -0.0111571, -0.568329, 0.000115432, 8.12885e-05, -0.000330442, 0.357519, 0.38043, 0.289472, 0.00176522, 0.00138387, 0.0110003
-0.016632, -0.0118507, -0.570091, 0.000115842, 8.32811e-05, -0.000334178, 0.352743, 0.380376, 0.291075, 0.00176489, 0.00137504, 0.0109923
-0.0179738, -0.012144, -0.572701, 0.000115934, 8.57422e-05, -0.000334734, 0.348311, 0.380297, 0.292853, 0.00176443, 0.00136776, 0.0109808
-0.0189655, -0.0122615, -0.575307, 0.000115859, 8.79582e-05, -0.000333822, 0.344423, 0.38024, 0.294701, 0.00176387, 0.0013619, 0.0109673
-0.0189893, -0.0123599, -0.575905, 0.00011579, 8.84915e-05, -0.000333631, 0.341339, 0.380144, 0.296483, 0.00176318, 0.00135754, 0.0109517
-0.0181828, -0.0122518, -0.576389, 0.000115811, 8.92127e-05, -0.000333624, 0.339198, 0.379807, 0.298106, 0.00176206, 0.0013544, 0.0109299
-0.01717, -0.0124803, -0.575849, 0.000116146, 8.9374e-05, -0.000336684, 0.337887, 0.379142, 0.299497, 0.00176017, 0.00135193, 0.0108988
-0.0145316, -0.0124824, -0.575772, 0.000116438, 8.96691e-05, -0.00033876, 0.337625, 0.378184, 0.300546, 0.00175734, 0.00134993, 0.0108574
-0.0120671, -0.0121084, -0.575969, 0.000116176, 8.91171e-05, -0.000335625, 0.338323, 0.377041, 0.301193, 0.00175362, 0.00134792, 0.0108076
-0.0116391, -0.0113561, -0.57284, 0.000114756, 8.81911e-05, -0.000324025, 0.339832, 0.37587, 0.301387, 0.0017494, 0.00134552, 0.0107543
-0.0102839, -0.0102402, -0.571257, 0.000112931, 8.66138e-05, -0.000308333, 0.341908, 0.374839, 0.301104, 0.00174523, 0.00134255, 0.0107033
-0.00830295, -0.00943295, -0.568917, 0.000111113, 8.48677e-05, -0.000293109, 0.344371, 0.374063, 0.300317, 0.00174168, 0.00133898, 0.0106598
-0.00613244, -0.00847388, -0.565643, 0.000108909, 8.36006e-05, -0.000275144, 0.34745, 0.373555, 0.298976, 0.00173874, 0.00133416, 0.0106234
-0.00369805, -0.00779085, -0.563198, 0.000106979, 8.21215e-05, -0.000259087, 0.350648, 0.373301, 0.297175, 0.00173654, 0.00132847, 0.0105951
-0.00068488, -0.00734771, -0.560695, 0.00010525, 8.07953e-05, -0.000244531, 0.353843, 0.373261, 0.29499, 0.00173505, 0.00132174, 0.0105749
0.00172367, -0.00703502, -0.561416, 0.000104135, 7.6873e-05, -0.000234133, 0.356881, 0.373404, 0.292555, 0.00173414, 0.00131362, 0.0105617
0.00368345, -0.00710839, -0.562049, 0.000103358, 7.38411e-05, -0.000227401, 0.359311, 0.373719, 0.29011, 0.00173376, 0.0013047, 0.0105556
0.00508317, -0.00704591, -0.5623, 0.000102935, 7.22439e-05, -0.000223612, 0.360922, 0.374195, 0.287872, 0.00173355, 0.00129492, 0.0105533
0.00645025, -0.00737435, -0.562632, 0.000102485, 7.08211e-05, -0.00022015, 0.361484, 0.37482, 0.286074, 0.00173316, 0.00128466, 0.010551
0.00811545, -0.00757372, -0.563907, 0.000101991, 6.79013e-05, -0.000216326, 0.36087, 0.375594, 0.284845, 0.00173226, 0.00127423, 0.0105454
0.00933355, -0.00743622, -0.564905, 0.000101846, 6.60143e-05, -0.000215073, 0.359119, 0.376528, 0.284256, 0.00173078, 0.00126374, 0.0105356
0.0103708, -0.00713731, -0.565392, 0.000102074, 6.53926e-05, -0.000216296, 0.356349, 0.37765, 0.284302, 0.00172877, 0.00125363, 0.0105222
0.0110231, -0.00672013, -0.566251, 0.000102391, 6.43076e-05, -0.000218401, 0.352784, 0.378975, 0.284922, 0.00172629, 0.00124392, 0.0105057
0.0107455, -0.00623337, -0.56728, 0.000102712, 6.28208e-05, -0.000220996, 0.348655, 0.38047, 0.286029, 0.00172341, 0.0012347, 0.0104868
0.0106212, -0.00570387, -0.567933, 0.000103225, 6.21057e-05, -0.000224602, 0.344214, 0.382114, 0.287499, 0.00172017, 0.00122619, 0.0104654
0.00824763, -0.00539987, -0.571849, 0.000103126, 5.7506e-05, -0.000229646, 0.339868, 0.383974, 0.28908, 0.00171636, 0.00121952, 0.0104397
0.00980461, -0.0045467, -0.568928, 0.0001045, 6.02504e-05, -0.000232899, 0.33624, 0.386121, 0.290599, 0.00171164, 0.00121497, 0.0104063
0.00945614, -0.00351976, -0.567977, 0.000106515, 6.1443e-05, -0.000245707, 0.333803, 0.388507, 0.292102, 0.00170618, 0.00121183, 0.0103663
0.00736826, -0.00255893, -0.566825, 0.000108163, 6.20388e-05, -0.000257226, 0.332579, 0.391001, 0.293616, 0.00170046, 0.00120948, 0.0103222
0.0048274, -0.00216384, -0.567259, 0.000108445, 6.18741e-05, -0.000260256, 0.332691, 0.393539, 0.295077, 0.00169466, 0.00120763, 0.0102746
0.00481292, -0.00246673, -0.567575, 0.000107837, 6.15553e-05, -0.000255562, 0.334062, 0.396061, 0.296406, 0.00168919, 0.00120587, 0.0102271
0.00476728, -0.00309827, -0.567745, 0.000106853, 6.11129e-05, -0.000248317, 0.336484, 0.398442, 0.297461, 0.0016845, 0.00120378, 0.0101843
0.00312754, -0.00338111, -0.56875, 0.000106635, 6.19652e-05, -0.000246734, 0.339095, 0.400483, 0.297981, 0.00168108, 0.00120154, 0.0101518
0.00206783, -0.00379268, -0.568595, 0.000106481, 6.24899e-05, -0.000244873, 0.341441, 0.402188, 0.297809, 0.00167859, 0.00119934, 0.0101269
0.000367304, -0.004138, -0.568941, 0.000106614, 6.35674e-05, -0.000244367, 0.343416, 0.40349, 0.296978, 0.00167703, 0.00119735, 0.0101113
-0.00073338, -0.00474304, -0.569416, 0.000106625, 6.42511e-05, -0.000243078, 0.345319, 0.404333, 0.295696, 0.00167624, 0.00119554, 0.0101036
-0.00224572, -0.00525414, -0.570327, 0.000106848, 6.5446e-05, -0.000242542, 0.347292, 0.404956, 0.294175, 0.00167572, 0.00119375, 0.0100985
-0.00301049, -0.00575251, -0.56977, 0.000106729, 6.55129e-05, -0.000240788, 0.349338, 0.405582, 0.292489, 0.00167522, 0.00119162, 0.0100935
-0.00354225, -0.00590079, -0.568293, 0.000106514, 6.46796e-05, -0.000239298, 0.351274, 0.406295, 0.290676, 0.00167469, 0.00118893, 0.0100886
-0.00452333, -0.00620639, -0.566136, 0.00010608, 6.31976e-05, -0.000236582, 0.352948, 0.407163, 0.28884, 0.00167409, 0.00118571, 0.0100839
-0.00536399, -0.00648608, -0.565992, 0.000105979, 6.33336e-05, -0.000235397, 0.354339, 0.408207, 0.287114, 0.0016735, 0.00118219, 0.0100805
-0.00699966, -0.00645491, -0.562521, 0.000105307, 6.02973e-05, -0.000231138, 0.355422, 0.409385, 0.285517, 0.00167302, 0.00117842, 0.0100787
-0.0082654, -0.00665415, -0.559848, 0.000104758, 5.76984e-05, -0.000227601, 0.35611, 0.41079, 0.284022, 0.00167253, 0.00117431, 0.0100772
-0.00920761, -0.00712478, -0.557465, 0.000104209, 5.53714e-05, -0.00022462, 0.356554, 0.412363, 0.282821, 0.00167201, 0.00117045, 0.0100758
-0.00996117, -0.00746002, -0.556219, 0.000103888, 5.42289e-05, -0.000222981, 0.356652, 0.414151, 0.281817, 0.00167136, 0.00116675, 0.0100743
-0.0107867, -0.00797932, -0.553219, 0.000103279, 5.12041e-05, -0.000219085, 0.356353, 0.416158, 0.280975, 0.00167043, 0.00116318, 0.0100721
-0.0107757, -0.00825509, -0.553015, 0.000103081, 5.09658e-05, -0.000218266, 0.355926, 0.418167, 0.280427, 0.00166945, 0.00116034, 0.0100695
-0.0100487, -0.00815152, -0.557685, 0.000102976, 5.4518e-05, -0.000220369, 0.355395, 0.419921, 0.280144, 0.00166869, 0.00115822, 0.0100677
-0.00974092, -0.00806139, -0.559384, 0.000102965, 5.56467e-05, -0.000221496, 0.354779, 0.421288, 0.280058, 0.00166817, 0.00115675, 0.0100666
-0.00877922, -0.00806554, -0.561847, 0.000102876, 5.70348e-05, -0.000222189, 0.353884, 0.422453, 0.280056, 0.00166768, 0.00115548, 0.0100646
-0.00863056, -0.00860587, -0.562172, 0.000102679, 5.70624e-05, -0.000221012, 0.352674, 0.423365, 0.280168, 0.00166717, 0.00115431, 0.0100597
-0.00831255, -0.00882181, -0.561918, 0.000102683, 5.6903e-05, -0.000219984, 0.351218, 0.423751, 0.28039, 0.00166683, 0.00115342, 0.0100535
-0.00820982, -0.00897858, -0.563991, 0.00010238, 5.7307e-05, -0.000219279, 0.34962, 0.423257, 0.280607, 0.00166671, 0.00115299, 0.0100505
-0.00827329, -0.00896931, -0.566852, 0.000101905, 5.74959e-05, -0.00021825, 0.347932, 0.421957, 0.280753, 0.00166643, 0.00115272, 0.0100497
-0.00824734, -0.00876069, -0.568625, 0.000101532, 5.7477e-05, -0.0002173, 0.346267, 0.420093, 0.280839, 0.00166565, 0.00115232, 0.0100485
-0.00718881, -0.00892543, -0.569822, 0.000101755, 5.77955e-05, -0.000218608, 0.344789, 0.418246, 0.280908, 0.00166465, 0.00115178, 0.0100462
-0.00736374, -0.00913487, -0.569692, 0.00010176, 5.77062e-05, -0.000218099, 0.343621, 0.417051, 0.281041, 0.00166408, 0.00115135, 0.0100444
-0.00728244, -0.00921509, -0.570667, 0.000101601, 5.7672e-05, -0.000217123, 0.34285, 0.416483, 0.281185, 0.00166383, 0.00115108, 0.0100428
-0.0085881, -0.00915539, -0.567032, 0.000101721, 5.75052e-05, -0.000217642, 0.342473, 0.416243, 0.281297, 0.00166374, 0.00115099, 0.0100421
-0.0083548, -0.00905395, -0.566236, 0.000101751, 5.74952e-05, -0.000217616, 0.342426, 0.416169, 0.281374, 0.00166369, 0.00115095, 0.010041
-0.00850721, -0.00893946, -0.567261, 0.000101797, 5.75396e-05, -0.000217955, 0.342615, 0.416201, 0.281399, 0.00166361, 0.00115085, 0.010039
-0.00895274, -0.00839302, -0.56925, 0.000101961, 5.75521e-05, -0.000217996, 0.342977, 0.416162, 0.281304, 0.00166345, 0.00115065, 0.0100348
-0.00880894, -0.00788334, -0.569265, 0.000101885, 5.74267e-05, -0.000216183, 0.343503, 0.416124, 0.281159, 0.00166319, 0.00115026, 0.0100274
-0.00900726, -0.00740657, -0.56849, 0.000101643, 5.72439e-05, -0.000213586, 0.344188, 0.416395, 0.281087, 0.00166293, 0.00114972, 0.0100197
-0.0094758, -0.00668857, -0.567248, 0.000101365, 5.7067e-05, -0.000210388, 0.345012, 0.416941, 0.281017, 0.00166261, 0.00114906, 0.0100123
-0.00928162, -0.00630958, -0.564839, 0.000100594, 5.65738e-05, -0.000206394, 0.345975, 0.417819, 0.280984, 0.0016622, 0.00114829, 0.0100058
-0.00920434, -0.00643846, -0.563681, 0.000100162, 5.64404e-05, -0.000205622, 0.34711, 0.419015, 0.280953, 0.00166167, 0.00114742, 0.00999966
-0.00874242, -0.00604269, -0.56112, 9.91581e-05, 5.57492e-05, -0.000200885, 0.348429, 0.420542, 0.280949, 0.00166101, 0.00114642, 0.00999401
-0.00865547, -0.00592359, -0.559317, 9.84611e-05, 5.53284e-05, -0.00019831, 0.34989, 0.422431, 0.281007, 0.00166031, 0.00114544, 0.00999011
-0.00923488, -0.00605393, -0.559102, 9.8369e-05, 5.55553e-05, -0.000198223, 0.351469, 0.424513, 0.281043, 0.00165969, 0.00114456, 0.00998687
-0.00936238, -0.00575799, -0.557393, 9.79498e-05, 5.53269e-05, -0.000195943, 0.35319, 0.426817, 0.281047, 0.00165905, 0.00114377, 0.00998439
-0.00937023, -0.00542539, -0.558758, 9.83946e-05, 5.51999e-05, -0.000195366, 0.355063, 0.42925, 0.280982, 0.00165843, 0.00114305, 0.00998217
-0.00918978, -0.00471363, -0.557621, 9.84772e-05, 5.50967e-05, -0.000193312, 0.35702, 0.431602, 0.280864, 0.00165797, 0.00114234, 0.00997975
-0.00913936, -0.00497187, -0.560061, 9.86505e-05, 5.55563e-05, -0.000193191, 0.358733, 0.434263, 0.281108, 0.00165711, 0.00114171, 0.00997878
-0.00887428, -0.00499396, -0.558262, 9.82873e-05, 5.50735e-05, -0.000192662, 0.360429, 0.436851, 0.281383, 0.00165631, 0.00114118, 0.00997812
-0.00889892, -0.00499247, -0.555298, 9.78169e-05, 5.44777e-05, -0.000191665, 0.36212, 0.439432, 0.281652, 0.00165541, 0.0011407, 0.00997747
-0.00880112, -0.00524143, -0.555076, 9.76015e-05, 5.44401e-05, -0.000191322, 0.363701, 0.441813, 0.281812, 0.00165471, 0.00114046, 0.0099767
-0.00919928, -0.00548918, -0.55624, 9.73341e-05, 5.45622e-05, -0.000190054, 0.365035, 0.443817, 0.281927, 0.00165421, 0.00114036, 0.0099749
-0.00931853, -0.0055024, -0.556485, 9.72632e-05, 5.45482e-05, -0.000189633, 0.366055, 0.445359, 0.282047, 0.00165379, 0.00114033, 0.00997229
-0.00932742, -0.00576646, -0.560344, 9.63043e-05, 5.43777e-05, -0.000186701, 0.366702, 0.446273, 0.282041, 0.00165332, 0.00114029, 0.00996786
-0.00929998, -0.00598112, -0.560666, 9.62974e-05, 5.44081e-05, -0.000187368, 0.367012, 0.446545, 0.281937, 0.00165266, 0.00114017, 0.00996163
-0.00945213, -0.00628632, -0.562109, 9.58313e-05, 5.42769e-05, -0.000186041, 0.36698, 0.446507, 0.281876, 0.00165185, 0.00114, 0.0099557
-0.00958036, -0.00601638, -0.562147, 9.57884e-05, 5.42781e-05, -0.000185854, 0.366629, 0.446362, 0.281878, 0.00165099, 0.0011397, 0.00994969
-0.00979488, -0.00598113, -0.56167, 9.5913e-05, 5.42934e-05, -0.000186189, 0.366073, 0.446061, 0.281917, 0.00165028, 0.00113932, 0.0099442
-0.00960172, -0.00577736, -0.56342, 9.54171e-05, 5.43291e-05, -0.000185118, 0.365372, 0.445525, 0.282031, 0.00164985, 0.00113896, 0.00994018
-0.00977167, -0.00576595, -0.564688, 9.50904e-05, 5.43505e-05, -0.000184805, 0.364567, 0.444686, 0.282146, 0.00164964, 0.00113865, 0.00993648
-0.0093723, -0.00540362, -0.566045, 9.47557e-05, 5.44529e-05, -0.000184249, 0.363683, 0.443407, 0.282251, 0.00164939, 0.00113841, 0.0099311
-0.00894858, -0.00568823, -0.566285, 9.47002e-05, 5.43817e-05, -0.000182692, 0.362682, 0.441663, 0.282342, 0.00164891, 0.0011382, 0.00992263
-0.00841168, -0.00589319, -0.566519, 9.45885e-05, 5.42932e-05, -0.000180361, 0.361599, 0.439389, 0.28235, 0.00164803, 0.0011381, 0.00991268
-0.00754046, -0.00580108, -0.567355, 9.42214e-05, 5.42229e-05, -0.000176958, 0.36054, 0.436588, 0.282252, 0.00164647, 0.00113806, 0.00990089
-0.00652913, -0.00584675, -0.569281, 9.38924e-05, 5.40889e-05, -0.000173984, 0.35965, 0.433729, 0.282128, 0.00164459, 0.001138, 0.00988765
-0.00571709, -0.00598863, -0.570919, 9.37608e-05, 5.39792e-05, -0.000172126, 0.359058, 0.431257, 0.282017, 0.00164293, 0.00113793, 0.00987471
-0.0046797, -0.00646876, -0.571149, 9.36499e-05, 5.38597e-05, -0.00016836, 0.358791, 0.429476, 0.281959, 0.00164187, 0.00113785, 0.00986401
-0.00388375, -0.00715569, -0.570876, 9.34878e-05, 5.36578e-05, -0.000164425, 0.358834, 0.428506, 0.281995, 0.00164128, 0.00113769, 0.00985428
-0.0033497, -0.00736538, -0.571074, 9.33066e-05, 5.35055e-05, -0.000161828, 0.359149, 0.428231, 0.282071, 0.00164088, 0.00113743, 0.0098455
-0.00306125, -0.00766266, -0.570536, 9.31382e-05, 5.33697e-05, -0.000160158, 0.359654, 0.428454, 0.28213, 0.00164061, 0.00113718, 0.00984005
-0.00301889, -0.00823576, -0.568368, 9.27648e-05, 5.30956e-05, -0.000158032, 0.360211, 0.429117, 0.282201, 0.00164044, 0.00113701, 0.00983831
-0.00385819, -0.00855471, -0.56781, 9.25331e-05, 5.31434e-05, -0.000157331, 0.360741, 0.430071, 0.282245, 0.00164021, 0.00113695, 0.00983759
-0.00375309, -0.00857457, -0.566751, 9.25264e-05, 5.3117e-05, -0.000157785, 0.361229, 0.43123, 0.282233, 0.0016397, 0.00113693, 0.00983354
-0.00445793, -0.00885466, -0.566748, 9.20619e-05, 5.31148e-05, -0.000154908, 0.361729, 0.432602, 0.282177, 0.00163881, 0.00113687, 0.0098243
-0.00485352, -0.00889798, -0.565086, 9.1858e-05, 5.31768e-05, -0.000154181, 0.36235, 0.434238, 0.282113, 0.0016377, 0.00113681, 0.00981269
-0.00527301, -0.00880936, -0.563938, 9.17062e-05, 5.32158e-05, -0.000152971, 0.363186, 0.436121, 0.282042, 0.0016367, 0.00113676, 0.00980323
-0.00594934, -0.00845842, -0.561359, 9.15561e-05, 5.33264e-05, -0.000151418, 0.364284, 0.438335, 0.28196, 0.00163572, 0.00113668, 0.00979703
-0.00655035, -0.00829546, -0.5581, 9.1178e-05, 5.34844e-05, -0.000150303, 0.365683, 0.440935, 0.281895, 0.00163456, 0.00113651, 0.00979347
-0.00748064, -0.00812106, -0.556689, 9.09402e-05, 5.36581e-05, -0.000147642, 0.367386, 0.443777, 0.281854, 0.00163342, 0.00113614, 0.00979169
-0.00786022, -0.00781454, -0.555404, 9.09232e-05, 5.3664e-05, -0.000146322, 0.369358, 0.446786, 0.281821, 0.00163235, 0.00113554, 0.00979046
-0.00761219, -0.00806052, -0.555987, 9.07594e-05, 5.36463e-05, -0.000146641, 0.371557, 0.450015, 0.281808, 0.00163121, 0.00113482, 0.00978935
-0.00789304, -0.00811949, -0.555395, 9.06043e-05, 5.37498e-05, -0.000146211, 0.373953, 0.453395, 0.281822, 0.00163009, 0.001134, 0.00978817
-0.00824858, -0.00780216, -0.556108, 9.09407e-05, 5.38071e-05, -0.000145076, 0.376478, 0.456726, 0.281806, 0.0016293, 0.00113307, 0.00978599
-0.00856897, -0.00781424, -0.559585, 9.12797e-05, 5.41418e-05, -0.000145208, 0.379015, 0.459977, 0.281852, 0.0016287, 0.00113213, 0.00978314
-0.00814155, -0.00777153, -0.561442, 9.13574e-05, 5.40285e-05, -0.000145418, 0.381489, 0.463144, 0.281919, 0.00162813, 0.00113131, 0.00978093
-0.00817051, -0.00756476, -0.562438, 9.15004e-05, 5.40479e-05, -0.000145158, 0.383786, 0.466077, 0.281993, 0.00162761, 0.00113063, 0.00977941
-0.00806984, -0.00748012, -0.562508, 9.15317e-05, 5.40065e-05, -0.000145083, 0.385718, 0.468562, 0.28211, 0.0016272, 0.00113014, 0.00977832
-0.00821215, -0.00759247, -0.559875, 9.16905e-05, 5.38383e-05, -0.000145195, 0.387141, 0.470398, 0.282271, 0.00162693, 0.00112982, 0.00977742
-0.00758336, -0.00749286, -0.55946, 9.16742e-05, 5.36787e-05, -0.000144663, 0.387983, 0.471428, 0.282426, 0.00162677, 0.00112962, 0.00977636
-0.00762613, -0.00735278, -0.558284, 9.18487e-05, 5.36328e-05, -0.000144796, 0.388232, 0.471589, 0.28255, 0.00162662, 0.00112951, 0.00977493
-0.00734907, -0.00725103, -0.557699, 9.18776e-05, 5.35877e-05, -0.000144354, 0.387944, 0.470967, 0.282637, 0.00162641, 0.00112946, 0.00977316
-0.00698742, -0.00698268, -0.558939, 9.15869e-05, 5.36423e-05, -0.000143681, 0.387241, 0.46968, 0.282712, 0.00162605, 0.00112942, 0.00977062
-0.0066028, -0.00682591, -0.560118, 9.13143e-05, 5.37358e-05, -0.000143152, 0.386259, 0.468027, 0.282845, 0.00162564, 0.00112935, 0.00976705
-0.00671884, -0.00683736, -0.562094, 9.10691e-05, 5.3979e-05, -0.000144133, 0.385037, 0.466059, 0.283084, 0.0016252, 0.0011292, 0.00976253
-0.00665369, -0.00686181, -0.563643, 9.08635e-05, 5.41834e-05, -0.0001448, 0.383516, 0.463572, 0.283329, 0.00162466, 0.00112906, 0.00975934
-0.00649482, -0.0070437, -0.564697, 9.07316e-05, 5.4278e-05, -0.000144643, 0.381694, 0.460549, 0.283555, 0.00162382, 0.00112888, 0.00975759
-0.00601826, -0.0070192, -0.566553, 9.04192e-05, 5.45466e-05, -0.000144661, 0.379644, 0.456859, 0.283728, 0.00162198, 0.00112858, 0.00975416
-0.00525315, -0.00699731, -0.567833, 9.03161e-05, 5.48742e-05, -0.000145318, 0.377532, 0.452655, 0.28379, 0.00161854, 0.00112796, 0.00974308
-0.00449151, -0.00660618, -0.571565, 8.95754e-05, 5.51575e-05, -0.000145131, 0.375587, 0.448498, 0.28379, 0.0016142, 0.00112709, 0.00972566
-0.0039161, -0.00607864, -0.573431, 8.89516e-05, 5.52731e-05, -0.000143433, 0.374017, 0.444954, 0.283829, 0.00161047, 0.00112633, 0.00970982
-0.00323109, -0.00589391, -0.574503, 8.87931e-05, 5.54679e-05, -0.000143184, 0.372917, 0.442357, 0.283906, 0.00160821, 0.0011259, 0.00970052
-0.00263934, -0.00639306, -0.572433, 8.90641e-05, 5.53894e-05, -0.000142875, 0.37226, 0.440871, 0.284057, 0.0016075, 0.00112576, 0.00969819
-0.00322435, -0.00648098, -0.569963, 8.9027e-05, 5.5129e-05, -0.000142521, 0.372039, 0.440241, 0.284213, 0.00160736, 0.00112571, 0.00969699
-0.00294953, -0.00644276, -0.570132, 8.89765e-05, 5.50925e-05, -0.000141823, 0.372261, 0.440284, 0.284309, 0.00160722, 0.00112559, 0.00969438
-0.00306584, -0.00618292, -0.569256, 8.88868e-05, 5.50594e-05, -0.000141557, 0.372902, 0.440823, 0.284341, 0.00160687, 0.00112529, 0.00968997
-0.0029146, -0.0062989, -0.568119, 8.84367e-05, 5.48431e-05, -0.000139351, 0.37385, 0.441857, 0.284333, 0.00160622, 0.0011248, 0.0096847
-0.00326579, -0.00629468, -0.56659, 8.81391e-05, 5.49255e-05, -0.000139336, 0.375103, 0.443252, 0.284235, 0.00160533, 0.0011241, 0.00967911
-0.00401336, -0.00607862, -0.564794, 8.80097e-05, 5.53405e-05, -0.000141023, 0.376549, 0.444984, 0.284058, 0.00160444, 0.00112337, 0.0096756
-0.00448625, -0.00592751, -0.561543, 8.7196e-05, 5.56177e-05, -0.000140687, 0.378063, 0.447261, 0.28388, 0.00160327, 0.00112284, 0.00967461
-0.00428684, -0.00625638, -0.558986, 8.61041e-05, 5.57689e-05, -0.000140068, 0.379724, 0.450094, 0.283653, 0.0016015, 0.00112245, 0.00967252
-0.0046174, -0.00598801, -0.557183, 8.58765e-05, 5.60951e-05, -0.000139902, 0.381591, 0.453391, 0.283403, 0.00159918, 0.00112212, 0.00966738
-0.00444474, -0.00595299, -0.555582, 8.55417e-05, 5.62539e-05, -0.000141057, 0.383664, 0.457079, 0.283172, 0.00159608, 0.00112185, 0.00965824
-0.00484262, -0.00599727, -0.557165, 8.57083e-05, 5.61333e-05, -0.000138265, 0.385935, 0.460982, 0.282979, 0.00159252, 0.00112156, 0.00964811
-0.00474209, -0.0053272, -0.556846, 8.65195e-05, 5.60741e-05, -0.000140182, 0.38841, 0.464811, 0.282826, 0.00158946, 0.00112104, 0.00964335
-0.00438193, -0.00451416, -0.554289, 8.61138e-05, 5.59073e-05, -0.000139327, 0.391042, 0.468259, 0.282719, 0.00158708, 0.0011199, 0.00964103
-0.00427196, -0.00398879, -0.555052, 8.66369e-05, 5.55757e-05, -0.000138083, 0.393787, 0.471078, 0.282606, 0.00158409, 0.00111754, 0.00962533
-0.00430207, -0.00334195, -0.556022, 8.72312e-05, 5.52279e-05, -0.000136447, 0.396702, 0.473017, 0.282459, 0.00157812, 0.00111309, 0.00956837
-0.00353121, -0.00259553, -0.55652, 8.53799e-05, 5.35787e-05, -0.000117706, 0.399858, 0.47399, 0.282297, 0.00156739, 0.00110633, 0.00945072
-0.00241837, -0.00212604, -0.558289, 8.29596e-05, 5.12586e-05, -9.12297e-05, 0.403321, 0.474199, 0.28217, 0.0015523, 0.00109814, 0.00928056
-0.00150156, -0.00164214, -0.558302, 7.99161e-05, 4.94161e-05, -6.55811e-05, 0.407031, 0.47397, 0.282151, 0.00153581, 0.0010901, 0.00909375
-0.00041058, -0.00115061, -0.558784, 7.68842e-05, 4.75112e-05, -3.87939e-05, 0.410748, 0.473575, 0.282274, 0.00152152, 0.0010837, 0.008932
0.000360312, -0.0012657, -0.55882, 7.51224e-05, 4.65563e-05, -2.40203e-05, 0.41424, 0.473176, 0.282464, 0.00151099, 0.00107929, 0.00881309
0.00156922, -0.00199995, -0.558329, 7.27592e-05, 4.54294e-05, -5.24759e-06, 0.417183, 0.472891, 0.28265, 0.00150469, 0.00107683, 0.00874278
0.00186269, -0.00253518, -0.555899, 7.17408e-05, 4.51173e-05, 1.13511e-06, 0.419094, 0.472796, 0.282785, 0.00150216, 0.00107597, 0.00871609
0.0022656, -0.00319243, -0.555366, 7.13976e-05, 4.50169e-05, 3.86572e-06, 0.419654, 0.472826, 0.282805, 0.00150168, 0.00107588, 0.00871163
0.00137397, -0.00363486, -0.555613, 7.11456e-05, 4.48425e-05, 6.69934e-06, 0.418734, 0.472869, 0.282683, 0.00150146, 0.00107574, 0.00870721
0.000399012, -0.0041817, -0.556422, 7.0324e-05, 4.43781e-05, 1.38818e-05, 0.416445, 0.472825, 0.28246, 0.00150013, 0.00107489, 0.00868544
-0.000203329, -0.00458112, -0.558005, 6.91845e-05, 4.38651e-05, 2.17563e-05, 0.413129, 0.47267, 0.282196, 0.00149694, 0.00107302, 0.00863625
-0.000528379, -0.00521821, -0.559182, 6.82375e-05, 4.35376e-05, 2.7884e-05, 0.409102, 0.472492, 0.281923, 0.00149121, 0.00106983, 0.00854922
-0.00159791, -0.00619395, -0.560207, 6.59223e-05, 4.24234e-05, 4.67947e-05, 0.404624, 0.472421, 0.281682, 0.00148157, 0.00106474, 0.00840361
-0.00298419, -0.00683854, -0.561288, 6.23549e-05, 4.06226e-05, 7.6352e-05, 0.400126, 0.47245, 0.28147, 0.00146557, 0.00105671, 0.00816423
-0.00415362, -0.00769325, -0.561473, 5.9132e-05, 3.88453e-05, 0.00010543, 0.396596, 0.472588, 0.281371, 0.00144185, 0.00104535, 0.00780979
-0.00592641, -0.00823276, -0.561661, 5.35793e-05, 3.56603e-05, 0.000156075, 0.39515, 0.472767, 0.281486, 0.00141304, 0.00103203, 0.00737401
-0.00740637, -0.00821681, -0.561854, 4.85796e-05, 3.27557e-05, 0.000201654, 0.396178, 0.472987, 0.281861, 0.00138446, 0.00101925, 0.00693171
-0.00826968, -0.00786833, -0.561895, 4.57587e-05, 3.10238e-05, 0.000228134, 0.399226, 0.473331, 0.282473, 0.0013599, 0.00100866, 0.00654075
-0.00900636, -0.00650268, -0.563466, 4.1956e-05, 2.92201e-05, 0.000256054, 0.403483, 0.473814, 0.283257, 0.00134137, 0.00100093, 0.00623687
-0.00973132, -0.00545831, -0.56351, 4.03441e-05, 2.80321e-05, 0.000272803, 0.408139, 0.474452, 0.284115, 0.00132918, 0.000996024, 0.00603096
-0.0103087, -0.00408286, -0.565593, 3.79109e-05, 2.70387e-05, 0.000289006, 0.412555, 0.4752, 0.284911, 0.00132232, 0.000993388, 0.00591135
-0.0107303, -0.00297353, -0.566507, 3.71359e-05, 2.65946e-05, 0.000295584, 0.416244, 0.476027, 0.285552, 0.00131916, 0.000992268, 0.00585413
-0.0111981, -0.00206093, -0.566123, 3.71968e-05, 2.63894e-05, 0.000297958, 0.418845, 0.476918, 0.28602, 0.0013181, 0.000991992, 0.0058349
-0.0115189, -0.0013274, -0.566121, 3.73388e-05, 2.63681e-05, 0.000298169, 0.420101, 0.477896, 0.286274, 0.00131787, 0.000991979, 0.00583317
-0.0117879, -0.000733706, -0.56502, 3.75485e-05, 2.63663e-05, 0.000297901, 0.419707, 0.478794, 0.286265, 0.00131739, 0.000991655, 0.00582907
-0.0123285, 6.43762e-06, -0.564516, 3.79193e-05, 2.65477e-05, 0.000295835, 0.417693, 0.479445, 0.286054, 0.00131566, 0.000990548, 0.00580331
-0.0120739, 0.000509986, -0.561963, 3.70544e-05, 2.59137e-05, 0.000301865, 0.414598, 0.479887, 0.285739, 0.00131223, 0.000988469, 0.00574643
-0.0118944, 0.00139882, -0.560266, 3.62379e-05, 2.54116e-05, 0.000307956, 0.411071, 0.480177, 0.285305, 0.00130717, 0.00098547, 0.00565596
-0.011752, 0.00238861, -0.56093, 3.62219e-05, 2.53944e-05, 0.000310186, 0.407689, 0.480353, 0.284687, 0.0013007, 0.000981664, 0.00553192
-0.0105041, 0.00344203, -0.561947, 3.49963e-05, 2.44638e-05, 0.000324905, 0.405035, 0.480623, 0.284046, 0.00129314, 0.000977044, 0.0053789
-0.0093857, 0.00376385, -0.56061, 3.27648e-05, 2.31753e-05, 0.000343547, 0.403617, 0.481162, 0.2835, 0.00128465, 0.000971627, 0.0052011
-0.008131, 0.00419107, -0.557914, 2.93656e-05, 2.13278e-05, 0.000369714, 0.40371, 0.481944, 0.28313, 0.0012757, 0.000965713, 0.005007
-0.00702445, 0.00464385, -0.556008, 2.6391e-05, 1.9602e-05, 0.000393716, 0.405348, 0.4829, 0.282969, 0.00126684, 0.000959655, 0.00480692
-0.00602793, 0.00455743, -0.556619, 2.49301e-05, 1.83097e-05, 0.000410516, 0.408385, 0.483959, 0.282996, 0.00125874, 0.000953862, 0.00461421
-0.0054275, 0.00457856, -0.558014, 2.48475e-05, 1.77827e-05, 0.000417392, 0.412445, 0.485094, 0.28317, 0.00125204, 0.000948814, 0.00444553
-0.00478327, 0.00452957, -0.559239, 2.45507e-05, 1.70857e-05, 0.000425858, 0.417124, 0.486296, 0.283493, 0.00124686, 0.000944591, 0.00430611
-0.00463796, 0.00443159, -0.559777, 2.46234e-05, 1.69313e-05, 0.000427188, 0.422094, 0.487556, 0.283919, 0.00124309, 0.000941113, 0.00419622
-0.0041738, 0.00362563, -0.560858, 2.42442e-05, 1.6118e-05, 0.000433777, 0.427, 0.488867, 0.284408, 0.00124056, 0.000938388, 0.00411653
-0.00374968, 0.00275364, -0.562444, 2.41809e-05, 1.5439e-05, 0.00043822, 0.431513, 0.490161, 0.284896, 0.00123909, 0.000936379, 0.00406484
-0.00368563, 0.00141617, -0.563081, 2.38131e-05, 1.48526e-05, 0.000440717, 0.435289, 0.49134, 0.285303, 0.00123841, 0.000935014, 0.00403718
-0.00329877, -0.000484974, -0.562178, 2.31945e-05, 1.39879e-05, 0.000444887, 0.437918, 0.492301, 0.285603, 0.0012381, 0.000934198, 0.00402749
-0.00316173, -0.00193951, -0.560865, 2.30286e-05, 1.35262e-05, 0.00044583, 0.439097, 0.492916, 0.285708, 0.0012376, 0.000933785, 0.00402666
-0.00335928, -0.00311643, -0.560933, 2.28196e-05, 1.32653e-05, 0.000446173, 0.438689, 0.493177, 0.285561, 0.00123637, 0.000933584, 0.00402468
-0.00315562, -0.00423888, -0.562017, 2.27327e-05, 1.30543e-05, 0.000445878, 0.436742, 0.493124, 0.285246, 0.00123408, 0.00093341, 0.00401342
-0.0033043, -0.00536676, -0.562117, 2.26354e-05, 1.28902e-05, 0.000446097, 0.433579, 0.492799, 0.284761, 0.00123069, 0.000933115, 0.00398819
-0.00444282, -0.00626322, -0.561261, 2.19573e-05, 1.25571e-05, 0.00045086, 0.42985, 0.492456, 0.284263, 0.00122653, 0.000932685, 0.00394959
-0.005644, -0.00697319, -0.560431, 2.12029e-05, 1.21781e-05, 0.000456602, 0.426111, 0.492252, 0.283849, 0.00122195, 0.000932172, 0.00389979
-0.00596607, -0.00710975, -0.560459, 2.08827e-05, 1.20649e-05, 0.00045858, 0.422916, 0.492277, 0.283564, 0.00121756, 0.000931662, 0.0038459
-0.0061191, -0.00676807, -0.562773, 1.97705e-05, 1.19768e-05, 0.000461939, 0.420466, 0.492435, 0.283325, 0.00121388, 0.000931196, 0.00379537
-0.00648875, -0.00629509, -0.566681, 1.80365e-05, 1.16673e-05, 0.000467471, 0.418621, 0.492536, 0.283076, 0.00121126, 0.000930721, 0.00375296
-0.00723444, -0.00677567, -0.567818, 1.71657e-05, 1.14819e-05, 0.000472333, 0.417228, 0.492677, 0.282923, 0.00120958, 0.00093023, 0.00371865
-0.00661049, -0.00747864, -0.564781, 1.83358e-05, 1.1734e-05, 0.000466908, 0.4163, 0.493194, 0.282973, 0.00120821, 0.000929753, 0.00368545
-0.00691618, -0.00852866, -0.561138, 1.9175e-05, 1.13969e-05, 0.000465188, 0.416014, 0.494291, 0.283328, 0.00120674, 0.000929289, 0.00364978
-0.00712598, -0.00931748, -0.560582, 1.89606e-05, 1.14223e-05, 0.000466591, 0.416449, 0.495817, 0.28387, 0.0012051, 0.000928803, 0.00361115
-0.00743468, -0.0104297, -0.558012, 1.95472e-05, 1.12122e-05, 0.000465132, 0.417445, 0.497427, 0.284511, 0.00120343, 0.000928237, 0.00356885
-0.00749369, -0.0111998, -0.559084, 1.87087e-05, 1.15399e-05, 0.000467704, 0.418797, 0.498711, 0.285111, 0.00120192, 0.000927514, 0.00352298
-0.00738309, -0.0112334, -0.560849, 1.78418e-05, 1.16778e-05, 0.000469796, 0.420538, 0.499582, 0.285743, 0.00120042, 0.000926584, 0.00347213
-0.00697627, -0.0114921, -0.562296, 1.73058e-05, 1.19913e-05, 0.000468921, 0.422773, 0.500177, 0.286539, 0.00119888, 0.000925561, 0.00341884
-0.00642709, -0.0112848, -0.563057, 1.72129e-05, 1.22114e-05, 0.000466265, 0.425413, 0.500757, 0.287612, 0.00119745, 0.000924631, 0.00336906
-0.00986286, 0.0227418, -0.57156, 1.47983e-05, 2.06743e-06, 0.000525934, 0.428303, 0.501518, 0.288843, 0.0011963, 0.000923892, 0.0033285
-0.00726068, 0.00917513, -0.56821, 1.45896e-05, 5.97525e-06, 0.000503924, 0.431213, 0.502514, 0.289949, 0.0011955, 0.000923351, 0.00329876
-0.00554717, 3.51964e-05, -0.567371, 1.34542e-05, 8.4465e-06, 0.000493289, 0.4338, 0.503612, 0.290819, 0.0011952, 0.000923032, 0.00328363
-0.00377661, -0.00586644, -0.567404, 1.24618e-05, 9.77732e-06, 0.000487207, 0.435587, 0.504686, 0.291326, 0.00119512, 0.000922825, 0.00327967
-0.00270413, -0.00931241, -0.566735, 1.16303e-05, 1.02159e-05, 0.000485781, 0.436275, 0.505674, 0.291419, 0.00119479, 0.000922607, 0.00327938
-0.00192346, -0.0108326, -0.566448, 1.09874e-05, 1.02491e-05, 0.000486824, 0.435817, 0.506557, 0.291082, 0.00119378, 0.000922283, 0.00327506
-0.0014796, -0.0109081, -0.565139, 1.01481e-05, 1.00234e-05, 0.000489257, 0.43435, 0.507284, 0.290386, 0.00119193, 0.000921818, 0.00326106
-0.00152153, -0.0105278, -0.564151, 9.65107e-06, 1.00517e-05, 0.000490233, 0.432255, 0.507809, 0.289217, 0.00118928, 0.000921188, 0.0032342
-0.00130499, -0.00871792, -0.56404, 9.74255e-06, 1.0052e-05, 0.000490856, 0.429966, 0.508151, 0.287845, 0.00118607, 0.000920346, 0.00319427
-0.00142005, -0.00651972, -0.563825, 1.01037e-05, 1.03926e-05, 0.00048925, 0.427975, 0.508432, 0.286522, 0.00118248, 0.000919297, 0.00314332
-0.00207192, -0.00424127, -0.561888, 9.80264e-06, 1.11198e-05, 0.000485669, 0.426653, 0.50873, 0.285469, 0.00117871, 0.00091812, 0.00308575
-0.00252156, -0.00217139, -0.559855, 9.21575e-06, 1.17278e-05, 0.000483531, 0.426178, 0.509023, 0.284742, 0.00117519, 0.00091691, 0.00302807
-0.00340205, -0.000671282, -0.559467, 9.89152e-06, 1.25352e-05, 0.00047709, 0.426501, 0.509261, 0.284271, 0.00117228, 0.000915789, 0.00297593
-0.00430526, 0.000692282, -0.559645, 1.07995e-05, 1.33173e-05, 0.00047052, 0.427487, 0.509471, 0.284087, 0.00116999, 0.000914802, 0.00293118
-0.00457269, 0.00211988, -0.560272, 1.14916e-05, 1.38519e-05, 0.000467743, 0.429019, 0.509689, 0.284203, 0.00116817, 0.0009139, 0.00289273
-0.00474599, 0.00313536, -0.560363, 1.17647e-05, 1.4195e-05, 0.000466465, 0.431019, 0.509995, 0.284575, 0.0011666, 0.000913039, 0.00285937
-0.00512293, 0.00411024, -0.559545, 1.16435e-05, 1.44499e-05, 0.000465395, 0.43335, 0.51043, 0.285125, 0.00116526, 0.000912246, 0.00283142
-0.00511234, 0.00433536, -0.559171, 1.14756e-05, 1.4433e-05, 0.000465857, 0.435866, 0.510957, 0.285743, 0.00116413, 0.000911558, 0.00280871
-0.00488499, 0.00446556, -0.557921, 1.0834e-05, 1.42363e-05, 0.000467979, 0.438453, 0.511558, 0.286345, 0.0011632, 0.000910975, 0.00279084
-0.00500501, 0.0040775, -0.559167, 1.12989e-05, 1.42468e-05, 0.000466762, 0.440897, 0.512136, 0.286824, 0.00116252, 0.000910526, 0.00277818
-0.00471661, 0.0031846, -0.560198, 1.14418e-05, 1.40262e-05, 0.000467108, 0.442923, 0.512626, 0.287147, 0.00116215, 0.000910242, 0.00277113
-0.00492844, 0.00224613, -0.561381, 1.15896e-05, 1.39036e-05, 0.000466463, 0.444384, 0.513104, 0.287311, 0.00116202, 0.000910076, 0.00276858
-0.00540132, 0.00136796, -0.562142, 1.15173e-05, 1.38193e-05, 0.000466209, 0.445236, 0.513631, 0.28725, 0.00116195, 0.000909963, 0.00276832
-0.00538965, 1.89772e-05, -0.563366, 1.12579e-05, 1.35941e-05, 0.000466537, 0.445439, 0.51422, 0.286981, 0.00116173, 0.000909887, 0.00276792
-0.00626561, -0.00121095, -0.563134, 1.0842e-05, 1.35406e-05, 0.000467794, 0.445114, 0.514849, 0.286584, 0.00116121, 0.000909838, 0.00276555
-0.00634478, -0.00261729, -0.561459, 1.10569e-05, 1.34768e-05, 0.000467468, 0.444411, 0.515515, 0.286156, 0.00116034, 0.000909816, 0.0027602
-0.0062089, -0.00379754, -0.562803, 1.04603e-05, 1.34052e-05, 0.000467928, 0.443477, 0.51616, 0.285721, 0.00115904, 0.000909801, 0.00275136
-0.00635238, -0.00508086, -0.561698, 1.069e-05, 1.33212e-05, 0.000467977, 0.442434, 0.516752, 0.28537, 0.00115724, 0.000909784, 0.00273858
-0.00565403, -0.00706984, -0.559379, 1.21567e-05, 1.32734e-05, 0.000464199, 0.441399, 0.517243, 0.285127, 0.00115489, 0.000909757, 0.00272185
-0.00614402, -0.00829701, -0.560136, 1.10615e-05, 1.32397e-05, 0.000467055, 0.440466, 0.517641, 0.284935, 0.00115186, 0.000909713, 0.00270045
-0.00621845, -0.00904143, -0.561753, 9.53862e-06, 1.32128e-05, 0.000469075, 0.439767, 0.517941, 0.284785, 0.00114809, 0.000909639, 0.00267386
-0.00613931, -0.00946865, -0.56348, 7.95755e-06, 1.31997e-05, 0.000470513, 0.439463, 0.518131, 0.284792, 0.00114375, 0.000909543, 0.00264371
-0.00627517, -0.00981389, -0.563984, 7.30382e-06, 1.31901e-05, 0.000471657, 0.439607, 0.518176, 0.285102, 0.0011392, 0.000909437, 0.0026128
-0.00591021, -0.0102326, -0.563584, 7.92183e-06, 1.32387e-05, 0.000469455, 0.440158, 0.518089, 0.285757, 0.00113473, 0.000909312, 0.00258335
-0.00561231, -0.00956842, -0.564371, 7.40411e-06, 1.33435e-05, 0.000469257, 0.441084, 0.51798, 0.286724, 0.0011305, 0.000909168, 0.00255612
-0.00479317, -0.00903183, -0.566346, 6.09446e-06, 1.36364e-05, 0.000468117, 0.442393, 0.518005, 0.287893, 0.00112669, 0.000909039, 0.00253153
-0.00783186, 0.0147464, -0.567233, 5.90097e-06, 1.2864e-05, 0.000489363, 0.444015, 0.518242, 0.289207, 0.00112343, 0.000908936, 0.00251053
-0.00986008, 0.0523231, -0.567182, 1.00301e-05, 1.21379e-05, 0.000504293, 0.445854, 0.518665, 0.290465, 0.00112079, 0.000908877, 0.00249322
-0.00584436, 0.0243774, -0.566704, 8.58015e-06, 1.31882e-05, 0.000485372, 0.447744, 0.519224, 0.291486, 0.00111889, 0.000908853, 0.00248013
-0.00281774, 0.00467934, -0.566874, 6.77493e-06, 1.36872e-05, 0.000477167, 0.449419, 0.519909, 0.29226, 0.00111795, 0.000908847, 0.00247376
-0.000579677, -0.00894269, -0.565699, 5.76547e-06, 1.39376e-05, 0.000473586, 0.450659, 0.52061, 0.292711, 0.00111763, 0.000908843, 0.00247174
0.00135811, -0.0170212, -0.564427, 4.97898e-06, 1.40441e-05, 0.000473111, 0.451408, 0.521258, 0.292707, 0.00111754, 0.000908816, 0.00247157
0.00279166, -0.0208351, -0.562801, 4.08808e-06, 1.40432e-05, 0.000474525, 0.451663, 0.521873, 0.29228, 0.00111729, 0.000908747, 0.00247104
0.00337823, -0.0219464, -0.562904, 3.86976e-06, 1.39479e-05, 0.000475438, 0.451515, 0.522478, 0.291443, 0.00111652, 0.000908597, 0.00246809
0.00440991, -0.0200182, -0.559587, 1.88139e-06, 1.38965e-05, 0.000478917, 0.451064, 0.522997, 0.290254, 0.00111482, 0.000908318, 0.00246043
0.0045098, -0.0173088, -0.558252, 1.30387e-06, 1.40023e-05, 0.000479243, 0.450462, 0.523278, 0.288816, 0.00111191, 0.00090787, 0.00244598
0.00351994, -0.0140661, -0.558561, 2.737e-06, 1.4412e-05, 0.000475056, 0.44996, 0.523302, 0.287291, 0.00110786, 0.000907266, 0.00242449
0.00249791, -0.0102988, -0.558437, 3.95155e-06, 1.48254e-05, 0.000470971, 0.44986, 0.523226, 0.285915, 0.00110314, 0.000906576, 0.00239878
0.00177119, -0.00676401, -0.558552, 5.13586e-06, 1.4988e-05, 0.000468423, 0.450303, 0.523176, 0.284866, 0.00109837, 0.000905884, 0.00237296
0.00145515, -0.00369537, -0.558018, 5.31292e-06, 1.49316e-05, 0.000468216, 0.451232, 0.523224, 0.284223, 0.00109399, 0.000905259, 0.00235021
0.000639755, -0.00106065, -0.558215, 6.35238e-06, 1.4971e-05, 0.000466095, 0.45247, 0.523404, 0.283956, 0.00109033, 0.000904744, 0.0023321
0.000101249, 0.00094549, -0.558692, 7.24507e-06, 1.49329e-05, 0.000464879, 0.453794, 0.523686, 0.28395, 0.00108753, 0.00090436, 0.00231895
-0.00046386, 0.00241425, -0.557971, 7.20473e-06, 1.49097e-05, 0.000464244, 0.45508, 0.524089, 0.284138, 0.00108554, 0.000904075, 0.00231032
-0.00167316, 0.00348561, -0.557011, 7.29082e-06, 1.49524e-05, 0.000462771, 0.456237, 0.524598, 0.284455, 0.0010842, 0.000903838, 0.00230518
-0.00272192, 0.00420028, -0.554646, 6.73043e-06, 1.47286e-05, 0.000462561, 0.457181, 0.525161, 0.284818, 0.00108333, 0.000903589, 0.00230237
-0.00331565, 0.00413403, -0.555997, 7.27477e-06, 1.5008e-05, 0.000461896, 0.457821, 0.525691, 0.285252, 0.0010828, 0.000903272, 0.00230077
-0.00370447, 0.00397505, -0.559521, 7.92603e-06, 1.57579e-05, 0.000461346, 0.4581, 0.526098, 0.285652, 0.00108251, 0.00090288, 0.00229923
-0.00384715, 0.00396437, -0.561559, 8.07199e-06, 1.62827e-05, 0.000461305, 0.458041, 0.526423, 0.286105, 0.00108231, 0.000902344, 0.00229719
-0.00356876, 0.00378419, -0.561119, 8.03882e-06, 1.62035e-05, 0.000460959, 0.457716, 0.526749, 0.286669, 0.00108212, 0.000901634, 0.00229456
-0.00375408, 0.0035045, -0.560618, 8.12716e-06, 1.60873e-05, 0.000460812, 0.457215, 0.527062, 0.287324, 0.00108191, 0.000900835, 0.00229147
-0.00378544, 0.00262071, -0.559957, 8.33032e-06, 1.60664e-05, 0.000459746, 0.456623, 0.527338, 0.288011, 0.00108168, 0.000900055, 0.00228795
-0.00289458, 0.00171202, -0.559391, 8.37174e-06, 1.61544e-05, 0.000457812, 0.455947, 0.527556, 0.288682, 0.0010814, 0.000899323, 0.00228441
-0.00179562, 0.00150845, -0.560099, 8.05382e-06, 1.64908e-05, 0.000456607, 0.455382, 0.527779, 0.289171, 0.00108111, 0.000898821, 0.00228139
-0.000390445, 0.000975063, -0.559672, 7.93123e-06, 1.66463e-05, 0.000454804, 0.455033, 0.528109, 0.289412, 0.00108078, 0.000898535, 0.00227883
0.00154529, 0.000815227, -0.5616, 7.08529e-06, 1.69088e-05, 0.000453445, 0.454941, 0.528636, 0.289389, 0.00108036, 0.000898392, 0.00227605
0.00268505, 0.000624592, -0.562397, 6.63817e-06, 1.69114e-05, 0.000452923, 0.455135, 0.529447, 0.289036, 0.00107978, 0.0008983, 0.00227217
0.00361784, 0.000430924, -0.562301, 6.43217e-06, 1.69088e-05, 0.000452588, 0.455586, 0.530587, 0.288426, 0.00107892, 0.000898126, 0.00226616
0.0051757, 0.000394584, -0.562165, 6.22052e-06, 1.68096e-05, 0.000451762, 0.456276, 0.532137, 0.287643, 0.00107767, 0.000897747, 0.00225698
0.00624037, 2.0713e-05, -0.561799, 5.84967e-06, 1.67714e-05, 0.000452439, 0.457191, 0.534176, 0.286841, 0.00107594, 0.00089713, 0.00224401
0.00638667, 0.000141168, -0.561423, 5.99262e-06, 1.69275e-05, 0.000451969, 0.458271, 0.536653, 0.286107, 0.00107387, 0.000896247, 0.00222825
0.00653013, -0.00010443, -0.560474, 5.91024e-06, 1.72924e-05, 0.00045257, 0.459459, 0.539437, 0.285586, 0.00107168, 0.000895285, 0.0022116
0.00553605, -8.58395e-05, -0.560783, 5.88276e-06, 1.73493e-05, 0.000452939, 0.460665, 0.542318, 0.285238, 0.0010697, 0.00089428, 0.00219694
0.00445612, 0.000203274, -0.560387, 6.16091e-06, 1.78256e-05, 0.000452582, 0.461782, 0.545008, 0.284882, 0.0010682, 0.000893097, 0.00218654
0.00266208, 0.000881416, -0.561805, 6.22319e-06, 1.76392e-05, 0.000452024, 0.462901, 0.547309, 0.284621, 0.00106722, 0.000892142, 0.00218115
0.00149113, 0.00153679, -0.563111, 6.2105e-06, 1.74892e-05, 0.0004516, 0.464029, 0.549075, 0.284417, 0.00106666, 0.000891492, 0.00217931
0.000757856, 0.00175468, -0.563916, 6.07638e-06, 1.74836e-05, 0.00045161, 0.465093, 0.550296, 0.284294, 0.00106636, 0.000891188, 0.00217909
-0.000418334, 0.00187433, -0.564324, 5.84491e-06, 1.76456e-05, 0.000451705, 0.465987, 0.550968, 0.284202, 0.00106618, 0.00089105, 0.00217883
-0.00167464, 0.00192188, -0.564138, 5.66055e-06, 1.77985e-05, 0.000451562, 0.466682, 0.551005, 0.284077, 0.00106604, 0.000890956, 0.00217752
-0.00187499, 0.00206883, -0.563173, 5.70096e-06, 1.77647e-05, 0.000451816, 0.467151, 0.550352, 0.283884, 0.00106581, 0.000890885, 0.00217398
-0.00287022, 0.00188472, -0.563179, 5.56844e-06, 1.78288e-05, 0.00045105, 0.467428, 0.549116, 0.283696, 0.00106535, 0.000890794, 0.00216711
-0.00349112, 0.00166093, -0.563399, 5.50408e-06, 1.78941e-05, 0.00045015, 0.467603, 0.547549, 0.283535, 0.00106461, 0.00089067, 0.0021567
-0.00435224, 0.00143459, -0.561495, 5.4069e-06, 1.75563e-05, 0.000449467, 0.467755, 0.545975, 0.283494, 0.00106367, 0.000890481, 0.00214346
-0.00484469, 0.00201174, -0.559355, 5.01326e-06, 1.71307e-05, 0.000450946, 0.467985, 0.544608, 0.283602, 0.00106262, 0.000890253, 0.00212847
-0.00542237, 0.00216519, -0.560472, 4.83738e-06, 1.74471e-05, 0.000450765, 0.468318, 0.543537, 0.283884, 0.00106154, 0.000890001, 0.00211279
-0.00562466, 0.00193448, -0.561025, 4.93388e-06, 1.76218e-05, 0.000449887, 0.468738, 0.542831, 0.28439, 0.00106049, 0.000889703, 0.00209735
-0.00432611, 0.000762959, -0.559404, 5.53345e-06, 1.70152e-05, 0.000448268, 0.46925, 0.542546, 0.285125, 0.00105957, 0.000889359, 0.00208325
-0.00311162, -0.0005393, -0.561154, 6.4152e-06, 1.73307e-05, 0.000445948, 0.469896, 0.542683, 0.285994, 0.00105884, 0.000889022, 0.00207124
-0.0023153, -0.00172061, -0.563725, 7.15257e-06, 1.78088e-05, 0.000443707, 0.470699, 0.54321, 0.286878, 0.00105834, 0.000888746, 0.00206198
-0.000973907, -0.00331382, -0.565186, 7.80981e-06, 1.78394e-05, 0.000441188, 0.471579, 0.54401, 0.287654, 0.00105805, 0.000888558, 0.00205593
0.000558121, -0.00435482, -0.565726, 8.19513e-06, 1.76623e-05, 0.000440112, 0.472453, 0.54493, 0.288208, 0.00105792, 0.000888457, 0.00205274
0.00218686, -0.00531752, -0.565351, 8.41684e-06, 1.74669e-05, 0.000439228, 0.473261, 0.545864, 0.288414, 0.00105785, 0.000888396, 0.00205164
0.00440105, -0.00557944, -0.563912, 8.70167e-06, 1.73664e-05, 0.000438753, 0.474025, 0.546761, 0.288294, 0.00105773, 0.000888302, 0.00205142
0.00578663, -0.00568733, -0.564411, 8.6303e-06, 1.71183e-05, 0.000438448, 0.47481, 0.54764, 0.287885, 0.00105742, 0.000888136, 0.00205066
0.00800092, -0.00536005, -0.563959, 8.75031e-06, 1.69348e-05, 0.000437548, 0.475609, 0.548524, 0.287157, 0.00105676, 0.000887825, 0.0020477
0.00934736, -0.00501913, -0.563874, 8.80966e-06, 1.68104e-05, 0.000436523, 0.476339, 0.549468, 0.286077, 0.00105567, 0.000887229, 0.00204112
0.01021, -0.00476769, -0.564299, 8.70484e-06, 1.65149e-05, 0.000435926, 0.476969, 0.55057, 0.284794, 0.00105412, 0.000886295, 0.00203015
0.0113027, -0.00415499, -0.562902, 9.36072e-06, 1.71516e-05, 0.00043334, 0.477511, 0.551928, 0.283516, 0.00105217, 0.00088506, 0.00201471
0.0115777, -0.0035376, -0.562, 1.01073e-05, 1.77189e-05, 0.000430695, 0.478028, 0.553666, 0.282426, 0.00104994, 0.000883583, 0.00199579
0.0111446, -0.0028272, -0.561112, 1.11235e-05, 1.84349e-05, 0.000427502, 0.478633, 0.555837, 0.281694, 0.00104758, 0.000882075, 0.00197503
0.0110484, -0.00206664, -0.561239, 1.18466e-05, 1.8496e-05, 0.000424481, 0.479383, 0.558397, 0.28138, 0.00104526, 0.000880755, 0.00195439
0.0107794, -0.00157567, -0.559867, 1.25555e-05, 1.92224e-05, 0.000422127, 0.480251, 0.561211, 0.28143, 0.00104319, 0.000879705, 0.00193615
0.00858096, -0.000871747, -0.560974, 1.34911e-05, 1.92594e-05, 0.000419587, 0.481196, 0.564051, 0.281755, 0.00104153, 0.000879059, 0.00192202
0.00672864, -0.000319628, -0.562177, 1.41591e-05, 1.92422e-05, 0.000418054, 0.482084, 0.566684, 0.282149, 0.00104035, 0.000878633, 0.00191264
0.00470207, 4.09181e-05, -0.562032, 1.45414e-05, 1.95623e-05, 0.000417193, 0.482883, 0.568894, 0.282513, 0.00103963, 0.000878422, 0.0019076
0.00267385, 0.000270439, -0.562329, 1.47612e-05, 1.97579e-05, 0.000416744, 0.483516, 0.570498, 0.282776, 0.00103926, 0.000878374, 0.0019058
0.000698999, 0.000145888, -0.564132, 1.49876e-05, 2.00849e-05, 0.000416425, 0.483862, 0.571337, 0.282886, 0.00103914, 0.000878299, 0.00190561
-0.00112623, -0.000129402, -0.564855, 1.50725e-05, 2.03021e-05, 0.000416049, 0.483821, 0.571324, 0.282833, 0.00103909, 0.000878055, 0.00190532
-0.00261012, -0.000523557, -0.563291, 1.49406e-05, 1.97549e-05, 0.000415613, 0.48339, 0.570551, 0.28268, 0.00103898, 0.000877507, 0.00190355
-0.00284415, -0.00128931, -0.56206, 1.49861e-05, 1.92303e-05, 0.000414728, 0.482682, 0.569288, 0.282544, 0.00103875, 0.000876575, 0.00189941
-0.00356883, -0.00184133, -0.561485, 1.5062e-05, 1.8978e-05, 0.00041368, 0.481914, 0.567832, 0.282495, 0.00103839, 0.000875421, 0.00189273
-0.00420063, -0.00258428, -0.560856, 1.51921e-05, 1.86949e-05, 0.000412257, 0.481199, 0.566426, 0.282596, 0.00103796, 0.000874177, 0.00188407
-0.00439012, -0.00326191, -0.560859, 1.53681e-05, 1.87521e-05, 0.000410845, 0.480606, 0.565247, 0.282889, 0.00103749, 0.000872922, 0.00187411
-0.00423699, -0.00382631, -0.561273, 1.55653e-05, 1.90292e-05, 0.00040961, 0.480158, 0.564408, 0.283394, 0.00103704, 0.000871674, 0.00186348
-0.00506366, -0.00358283, -0.56216, 1.5463e-05, 1.95167e-05, 0.0004097, 0.479862, 0.563957, 0.284133, 0.00103663, 0.000870429, 0.00185265
-0.00459989, -0.0038075, -0.563057, 1.56092e-05, 2.00162e-05, 0.000409251, 0.479694, 0.563914, 0.285116, 0.00103628, 0.000869169, 0.0018422
-0.00356046, -0.0048055, -0.56231, 1.59019e-05, 1.96421e-05, 0.000407475, 0.479636, 0.564269, 0.28633, 0.00103602, 0.000867901, 0.00183252
-0.002541, -0.00584529, -0.562105, 1.61809e-05, 1.95752e-05, 0.000405506, 0.479682, 0.56496, 0.287727, 0.00103583, 0.000866675, 0.00182383
-0.00192859, -0.00634637, -0.561048, 1.62653e-05, 1.90295e-05, 0.000404742, 0.479786, 0.565864, 0.289235, 0.0010357, 0.000865545, 0.00181641
-0.00127179, -0.00704907, -0.561914, 1.64228e-05, 1.9491e-05, 0.00040344, 0.479955, 0.566895, 0.290712, 0.00103561, 0.000864631, 0.00181033
0.000103641, -0.00791653, -0.561817, 1.6486e-05, 1.95051e-05, 0.000402066, 0.480228, 0.56805, 0.29205, 0.00103557, 0.000863958, 0.00180579
0.00186534, -0.00887778, -0.560784, 1.64376e-05, 1.91671e-05, 0.000400747, 0.480527, 0.569254, 0.293268, 0.00103555, 0.0008634, 0.0018031
0.00356975, -0.00938488, -0.560585, 1.62514e-05, 1.91e-05, 0.000400141, 0.480899, 0.570372, 0.294123, 0.00103551, 0.000863072, 0.00180214
0.00608452, -0.00943492, -0.560135, 1.59171e-05, 1.88911e-05, 0.000399753, 0.481355, 0.571309, 0.294511, 0.00103536, 0.000862924, 0.00180199
0.00868033, -0.0092944, -0.560939, 1.54065e-05, 1.86939e-05, 0.000399511, 0.481925, 0.572096, 0.294318, 0.001035, 0.00086286, 0.00180127
0.0104339, -0.00860121, -0.559891, 1.52737e-05, 1.86283e-05, 0.000398611, 0.482598, 0.57286, 0.293468, 0.00103432, 0.00086271, 0.00179845
0.0116305, -0.00865815, -0.558481, 1.49192e-05, 1.88597e-05, 0.000398738, 0.483348, 0.573733, 0.292137, 0.00103326, 0.000862327, 0.00179256
0.0123857, -0.00844287, -0.559367, 1.46813e-05, 1.84206e-05, 0.000398565, 0.484151, 0.574812, 0.290564, 0.00103182, 0.00086166, 0.00178327
0.0128746, -0.00774192, -0.560063, 1.48937e-05, 1.80373e-05, 0.000396878, 0.484961, 0.576145, 0.288955, 0.00103008, 0.000860713, 0.001771
0.0126323, -0.00713397, -0.560844, 1.53513e-05, 1.77068e-05, 0.000395166, 0.485796, 0.577756, 0.287557, 0.00102818, 0.000859622, 0.00175673
0.0124771, -0.00665492, -0.560202, 1.58436e-05, 1.80348e-05, 0.000393515, 0.48667, 0.579631, 0.286521, 0.00102625, 0.00085855, 0.00174188
0.0114917, -0.00604782, -0.558808, 1.68796e-05, 1.88381e-05, 0.000391071, 0.487556, 0.581705, 0.285852, 0.00102448, 0.000857559, 0.00172829
0.0102252, -0.00532042, -0.559904, 1.78491e-05, 1.85669e-05, 0.000388858, 0.488452, 0.583871, 0.285511, 0.00102299, 0.000856735, 0.0017175
0.00879393, -0.00495437, -0.560642, 1.85896e-05, 1.85172e-05, 0.000387807, 0.489327, 0.585929, 0.285459, 0.00102186, 0.000856207, 0.00170995
0.00673336, -0.0049263, -0.560267, 1.92898e-05, 1.88152e-05, 0.000387371, 0.490097, 0.587709, 0.285598, 0.00102109, 0.00085595, 0.00170544
0.00539066, -0.00479013, -0.559955, 1.96802e-05, 1.89428e-05, 0.000387033, 0.490744, 0.589153, 0.285813, 0.00102062, 0.000855864, 0.00170345
0.00315657, -0.00432113, -0.560898, 2.0231e-05, 1.90593e-05, 0.000386746, 0.491305, 0.590263, 0.285996, 0.00102037, 0.000855821, 0.00170304
0.000422128, -0.00390325, -0.562475, 2.06087e-05, 1.94115e-05, 0.000386707, 0.491822, 0.591074, 0.286145, 0.00102026, 0.000855707, 0.00170298
-0.000644663, -0.00362254, -0.560528, 2.07728e-05, 1.90135e-05, 0.000386975, 0.492259, 0.591627, 0.286297, 0.00102022, 0.000855427, 0.00170227
-0.00214336, -0.00365623, -0.558657, 2.08899e-05, 1.84807e-05, 0.000387118, 0.492449, 0.591826, 0.286536, 0.0010202, 0.000854928, 0.00170039
-0.00321826, -0.00409032, -0.559402, 2.06594e-05, 1.88518e-05, 0.000386246, 0.492373, 0.591598, 0.286914, 0.00102007, 0.000854218, 0.00169698
-0.00338409, -0.0040525, -0.562049, 2.01155e-05, 1.99377e-05, 0.000385531, 0.492371, 0.591156, 0.287358, 0.00101967, 0.000853456, 0.00169142
-0.00279721, -0.0049785, -0.562721, 2.02361e-05, 2.00746e-05, 0.000384075, 0.492518, 0.590948, 0.288076, 0.00101896, 0.000852431, 0.00168496
-0.00294999, -0.00623219, -0.560588, 2.11866e-05, 1.8644e-05, 0.000383537, 0.492787, 0.591098, 0.289218, 0.00101783, 0.000850994, 0.00167846
-0.00355716, -0.00728782, -0.558172, 2.21869e-05, 1.70856e-05, 0.000383223, 0.49315, 0.591359, 0.290684, 0.00101624, 0.000849332, 0.00167289
-0.00334487, -0.00764591, -0.557559, 2.26968e-05, 1.66441e-05, 0.000383247, 0.493414, 0.591316, 0.292288, 0.00101421, 0.000847691, 0.00166867
-0.00244599, -0.00824055, -0.557036, 2.36775e-05, 1.62726e-05, 0.000383212, 0.493248, 0.590486, 0.293782, 0.00101182, 0.000846245, 0.00166572
-0.00117821, -0.00777059, -0.559391, 2.34293e-05, 1.72016e-05, 0.000383177, 0.492326, 0.588449, 0.294899, 0.00100911, 0.000844998, 0.00166357
3.73667e-05, -0.00781172, -0.561198, 2.36039e-05, 1.76891e-05, 0.000383459, 0.490685, 0.585225, 0.295504, 0.00100611, 0.000843798, 0.00166159
0.00094734, -0.00706503, -0.564182, 2.31273e-05, 1.83528e-05, 0.000383485, 0.488635, 0.581134, 0.295721, 0.00100289, 0.000842537, 0.00165972
0.00194871, -0.00722072, -0.564698, 2.36262e-05, 1.86399e-05, 0.000383985, 0.486421, 0.576712, 0.295995, 0.000999849, 0.000841233, 0.00165874
0.00198115, -0.00781943, -0.565635, 2.39111e-05, 1.84596e-05, 0.000384125, 0.484469, 0.572465, 0.296171, 0.000997194, 0.000840072, 0.00165797
0.00192245, -0.00840551, -0.564868, 2.40495e-05, 1.82785e-05, 0.000384627, 0.483099, 0.568665, 0.295958, 0.000994959, 0.000839122, 0.00165689
0.0023681, -0.00893545, -0.561282, 2.4165e-05, 1.87537e-05, 0.000384872, 0.482331, 0.565648, 0.295448, 0.000993347, 0.000838315, 0.00165625
0.00287565, -0.00954928, -0.557471, 2.4042e-05, 1.93495e-05, 0.000385344, 0.482195, 0.563823, 0.294758, 0.000992391, 0.000837645, 0.00165586
0.00260358, -0.0101098, -0.555415, 2.34115e-05, 1.97972e-05, 0.000385703, 0.482815, 0.563313, 0.293719, 0.000991785, 0.000836859, 0.00165528
0.0021896, -0.0102023, -0.556876, 2.36603e-05, 1.9234e-05, 0.000385734, 0.484029, 0.56399, 0.29231, 0.000991208, 0.000835657, 0.00165464
0.00363362, -0.0104509, -0.554174, 2.27712e-05, 2.03075e-05, 0.0003857, 0.485603, 0.565681, 0.290663, 0.000990357, 0.000833928, 0.00165401
0.00420663, -0.0103147, -0.555937, 2.34432e-05, 1.89195e-05, 0.000385983, 0.487325, 0.568064, 0.288932, 0.000988995, 0.000831776, 0.00165322
0.00462079, -0.0102226, -0.556784, 2.35921e-05, 1.80434e-05, 0.00038599, 0.488884, 0.570767, 0.28701, 0.000987042, 0.000828644, 0.00165238
-0.000257503, -0.0120808, -0.571874, 2.89187e-05, 6.91509e-06, 0.000389329, 0.490134, 0.573463, 0.285082, 0.000984459, 0.000824765, 0.00165158
0.00446872, -0.00988827, -0.564513, 2.53215e-05, 1.22162e-05, 0.000386428, 0.49091, 0.575989, 0.283194, 0.000981233, 0.000819794, 0.00165062
0.00786557, -0.00844225, -0.55944, 2.24974e-05, 1.55994e-05, 0.000384982, 0.491572, 0.578316, 0.281717, 0.000977603, 0.000815103, 0.00164976
0.0100806, -0.00696591, -0.556035, 2.08883e-05, 1.75939e-05, 0.000383695, 0.492101, 0.5805, 0.280578, 0.000973702, 0.000810386, 0.00164912
0.0100278, -0.00627147, -0.556485, 2.12084e-05, 1.67382e-05, 0.000383482, 0.492495, 0.582476, 0.27974, 0.000969878, 0.000805763, 0.00164864
0.00908751, -0.00610643, -0.557326, 2.21412e-05, 1.59102e-05, 0.000383754, 0.492695, 0.584187, 0.279149, 0.000966298, 0.00080126, 0.00164825
0.00685644, -0.00610899, -0.559596, 2.39969e-05, 1.39615e-05, 0.000384281, 0.492667, 0.585587, 0.278779, 0.000963042, 0.000796905, 0.00164791
0.00582875, -0.00608029, -0.561003, 2.46879e-05, 1.28163e-05, 0.000384571, 0.492513, 0.586689, 0.278639, 0.000960197, 0.000792976, 0.00164768
0.00553738, -0.00577542, -0.561277, 2.49111e-05, 1.24424e-05, 0.000384616, 0.492321, 0.587516, 0.278704, 0.000957808, 0.000789736, 0.00164754
0.00588571, -0.00541563, -0.561711, 2.4611e-05, 1.20426e-05, 0.000384569, 0.49206, 0.588094, 0.278906, 0.00095588, 0.000787077, 0.00164745
0.00434657, -0.00572314, -0.564054, 2.5225e-05, 1.08095e-05, 0.00038491, 0.491726, 0.588452, 0.279194, 0.000954377, 0.000784914, 0.00164738
0.00401357, -0.00554174, -0.56492, 2.52831e-05, 1.03119e-05, 0.000385, 0.491348, 0.588624, 0.279535, 0.00095324, 0.000783221, 0.00164734
0.00275664, -0.00528095, -0.567399, 2.55271e-05, 9.13961e-06, 0.000385233, 0.490928, 0.588637, 0.279901, 0.000952413, 0.000781912, 0.00164731
0.00297406, -0.00516357, -0.568904, 2.52709e-05, 8.61208e-06, 0.000385292, 0.490503, 0.588528, 0.28027, 0.000951832, 0.000780953, 0.00164728
0.00394094, -0.00463519, -0.569244, 2.49285e-05, 8.47521e-06, 0.000385577, 0.490102, 0.588313, 0.280586, 0.000951431, 0.000780356, 0.00164718
0.00421583, -0.00520707, -0.570002, 2.4865e-05, 8.48202e-06, 0.000385206, 0.489794, 0.587999, 0.280786, 0.000951133, 0.000780118, 0.0016466
0.00426897, -0.0056706, -0.5701, 2.48694e-05, 8.52431e-06, 0.000385161, 0.489548, 0.587677, 0.28096, 0.000950987, 0.000779976, 0.00164657
0.00482359, -0.00555409, -0.569695, 2.48325e-05, 8.55404e-06, 0.000385179, 0.489388, 0.587346, 0.281058, 0.000950913, 0.000779923, 0.00164654
0.00511063, -0.00561698, -0.569199, 2.48671e-05, 8.55951e-06, 0.000385166, 0.489305, 0.587039, 0.281067, 0.00095087, 0.000779913, 0.00164651
0.00479994, -0.0056915, -0.568329, 2.49345e-05, 8.51266e-06, 0.00038523, 0.489278, 0.586793, 0.280998, 0.000950829, 0.000779897, 0.00164648
0.00385929, -0.00525576, -0.567553, 2.49383e-05, 8.44422e-06, 0.000385358, 0.489325, 0.586643, 0.280874, 0.000950787, 0.000779847, 0.00164645
0.00310545, -0.00472695, -0.566894, 2.4914e-05, 8.38402e-06, 0.000385379, 0.489493, 0.5866, 0.280693, 0.000950761, 0.000779731, 0.00164644
0.00233758, -0.00419384, -0.566522, 2.48614e-05, 8.37995e-06, 0.000385311, 0.489751, 0.586657, 0.280461, 0.000950734, 0.000779534, 0.00164641
0.00165745, -0.00360888, -0.565527, 2.47977e-05, 8.23239e-06, 0.000385278, 0.49007, 0.586816, 0.280201, 0.000950695, 0.00077926, 0.00164635
0.00105065, -0.00284842, -0.566175, 2.48016e-05, 8.4954e-06, 0.000385081, 0.490445, 0.587073, 0.279938, 0.000950644, 0.00077893, 0.00164628
0.000793001, -0.00216339, -0.564793, 2.47694e-05, 8.20566e-06, 0.000385094, 0.49086, 0.587434, 0.279683, 0.000950582, 0.000778558, 0.0016462
0.00016619, -0.00162881, -0.564656, 2.47464e-05, 8.26637e-06, 0.000384968, 0.491313, 0.587885, 0.279449, 0.000950513, 0.000778176, 0.00164612
2.36134e-05, -0.00150795, -0.563097, 2.46769e-05, 7.88113e-06, 0.000385028, 0.491802, 0.588426, 0.279241, 0.000950439, 0.000777805, 0.00164605
-0.000415687, -0.00119803, -0.562474, 2.46443e-05, 7.78859e-06, 0.000384986, 0.492325, 0.589041, 0.279064, 0.000950364, 0.000777468, 0.00164599
-0.000706851, -0.000973487, -0.561953, 2.46337e-05, 7.71328e-06, 0.000384958, 0.492877, 0.589722, 0.278914, 0.000950289, 0.000777175, 0.00164595
-0.000922369, -0.00116383, -0.561605, 2.45817e-05, 7.65095e-06, 0.000384965, 0.493458, 0.590458, 0.278794, 0.000950214, 0.000776931, 0.00164591
-0.00130031, -0.000961634, -0.561853, 2.46034e-05, 7.74133e-06, 0.000384913, 0.494064, 0.591241, 0.278702, 0.000950141, 0.000776736, 0.00164588
-0.00134305, -0.00110038, -0.562358, 2.45958e-05, 7.82059e-06, 0.000384906, 0.49469, 0.59206, 0.278631, 0.000950068, 0.000776585, 0.00164586
-0.0013925, -0.00128822, -0.563282, 2.45914e-05, 7.93798e-06, 0.000384905, 0.495331, 0.592907, 0.278578, 0.000949995, 0.00077647, 0.00164585
-0.00102369, -0.00163325, -0.562696, 2.45339e-05, 7.84109e-06, 0.00038494, 0.495983, 0.593777, 0.27854, 0.000949923, 0.000776384, 0.00164583
-0.000670739, -0.00185948, -0.561429, 2.4484e-05, 7.69154e-06, 0.000384967, 0.496626, 0.594658, 0.278511, 0.000949851, 0.000776319, 0.00164582
-0.00117137, -0.00233827, -0.563996, 2.44482e-05, 7.88976e-06, 0.000384938, 0.497278, 0.595532, 0.278499, 0.000949782, 0.000776271, 0.00164582
-0.00160929, -0.00236701, -0.564955, 2.44515e-05, 7.95809e-06, 0.000384945, 0.497925, 0.596411, 0.278483, 0.000949711, 0.000776231, 0.00164581
-0.00167379, -0.00256315, -0.565186, 2.44258e-05, 7.97193e-06, 0.000384955, 0.498564, 0.597282, 0.27847, 0.000949642, 0.000776196, 0.0016458
-0.00149204, -0.00274778, -0.56484, 2.43949e-05, 7.95063e-06, 0.000384961, 0.499191, 0.598139, 0.278463, 0.000949575, 0.000776164, 0.0016458
-0.00156469, -0.00281847, -0.565414, 2.43815e-05, 7.95897e-06, 0.00038497, 0.499809, 0.598982, 0.278464, 0.000949511, 0.000776134, 0.00164579
-0.00161441, -0.00268295, -0.565046, 2.44068e-05, 7.96579e-06, 0.000384963, 0.500421, 0.599814, 0.278469, 0.000949448, 0.000776104, 0.00164579
-0.00156699, -0.00315467, -0.564571, 2.4345e-05, 7.97601e-06, 0.000384977, 0.501016, 0.600625, 0.27847, 0.000949388, 0.000776075, 0.00164578
-0.00127907, -0.00292275, -0.563931, 2.43811e-05, 7.9637e-06, 0.000384962, 0.5016, 0.601418, 0.278474, 0.000949331, 0.000776047, 0.00164578
-0.00130594, -0.00272922, -0.563063, 2.44142e-05, 7.98231e-06, 0.000384953, 0.502179, 0.6022, 0.278483, 0.000949275, 0.000776018, 0.00164577
-0.000942155, -0.00252582, -0.562104, 2.44448e-05, 7.97361e-06, 0.00038494, 0.502756, 0.602971, 0.278498, 0.000949222, 0.00077599, 0.00164577
-0.000756532, -0.00226817, -0.561293, 2.44811e-05, 7.97467e-06, 0.00038493, 0.503325, 0.603732, 0.278505, 0.00094917, 0.000775962, 0.00164576
-0.000463775, -0.00222819, -0.56041, 2.44884e-05, 7.96936e-06, 0.000384928, 0.503894, 0.604487, 0.27851, 0.000949118, 0.000775935, 0.00164576
-0.00027995, -0.00204254, -0.560079, 2.45112e-05, 7.96097e-06, 0.000384921, 0.504464, 0.60524, 0.278512, 0.000949067, 0.000775908, 0.00164575
-0.00027983, -0.00185465, -0.560589, 2.45296e-05, 7.95199e-06, 0.000384917, 0.505039, 0.605995, 0.278515, 0.000949015, 0.00077588, 0.00164575
