-0.00517139, -0.000615339, -0.55855, -7.2655e-05, 0.000487252, 0.000295508, 0.0316228, 0.0316228, 0.0316228, 0.0316228, 0.0316228, 0.0316228
-0.00517139, -0.000615339, -0.55855, -7.2655e-05, 0.000487252, 0.000295508, 0.172256, 0.172256, 0.172256, 0.0316228, 0.0316228, 0.0316228
-0.0059637, -0.000683243, -0.558196, -9.9313e-05, 0.000653192, 0.000303221, 0.19313, 0.193087, 0.193096, 0.0315721, 0.0315756, 0.031607
-0.00651544, -0.000810399, -0.557696, -0.000126997, 0.000711481, 0.000299297, 0.211627, 0.211489, 0.211382, 0.031477, 0.0314902, 0.0315912
-0.00585149, -0.000915288, -0.554943, -0.000143855, 0.000601994, 0.00029131, 0.228094, 0.227961, 0.227062, 0.0313239, 0.0313377, 0.0315752
-0.00600702, -0.00114291, -0.555801, -0.000193719, 0.000666973, 0.000281482, 0.242958, 0.242947, 0.239851, 0.0311098, 0.0311105, 0.031559
-0.00515674, -0.00139045, -0.557576, -0.000257808, 0.000519702, 0.00026997, 0.256809, 0.256768, 0.250099, 0.0308374, 0.03085, 0.0315426
-0.00438111, -0.000694586, -0.55998, -0.000143233, 0.00037447, 0.000257094, 0.270125, 0.269591, 0.259617, 0.0305045, 0.0306078, 0.0315258
-0.00374549, 0.000292933, -0.562979, 1.83198e-05, 0.000210315, 0.000245465, 0.282953, 0.281509, 0.269582, 0.0301161, 0.0303869, 0.0315083
-0.00382595, 0.000940979, -0.563896, 0.000113006, 0.000218397, 0.000238288, 0.294676, 0.292592, 0.278211, 0.0296795, 0.0300721, 0.03149
-0.00374345, 0.00159138, -0.567866, 0.000228996, 0.000227093, 0.000234616, 0.304752, 0.302815, 0.283474, 0.0291934, 0.029565, 0.0314727
-0.00367404, 0.00221013, -0.564942, 0.000277889, 0.000239024, 0.000224926, 0.313431, 0.312115, 0.285555, 0.0286435, 0.0289046, 0.0314562
-0.00212089, 0.0025439, -0.562415, 0.000319449, 1.06047e-05, 0.000228068, 0.321492, 0.320496, 0.287106, 0.0280269, 0.0282284, 0.0314405
0.000230423, 0.00249019, -0.557991, 0.000308212, -0.00033689, 0.000226794, 0.328899, 0.328063, 0.287567, 0.0273644, 0.0275397, 0.031425
0.001762, 0.00184535, -0.55584, 0.000227479, -0.000535696, 0.000229066, 0.335648, 0.335035, 0.286502, 0.0266972, 0.0268461, 0.0314087
0.00258828, 0.00148183, -0.553601, 0.000199931, -0.00066022, 0.000231753, 0.341932, 0.341579, 0.283547, 0.0260362, 0.026143, 0.0313905
0.0024485, 0.000981203, -0.55272, 0.000154196, -0.000653321, 0.000233801, 0.348336, 0.347835, 0.280531, 0.0253734, 0.0254802, 0.0313686
0.00161289, 2.12667e-06, -0.55089, 3.34521e-05, -0.000580684, 0.000211036, 0.355281, 0.354107, 0.279809, 0.0247101, 0.0248999, 0.0313407
0.00150362, -0.0012786, -0.552807, -9.8994e-05, -0.000528278, 0.000191481, 0.362672, 0.360601, 0.281253, 0.0240473, 0.0243659, 0.0313078
0.00118828, -0.00202741, -0.55485, -0.000160205, -0.000428682, 0.000184384, 0.370336, 0.367391, 0.283404, 0.0233807, 0.0238311, 0.0312688
0.000667867, -0.00311695, -0.561379, -0.00023775, -0.000163049, 0.000166849, 0.377764, 0.374565, 0.285436, 0.0227163, 0.0232054, 0.0312262
0.000171829, -0.00398563, -0.568328, -0.000269101, 7.03248e-05, 0.000139597, 0.384522, 0.38228, 0.287852, 0.0221099, 0.0224386, 0.0311828
0.000648917, -0.00515541, -0.57531, -0.00034642, 0.000190448, 0.000104584, 0.391104, 0.390558, 0.292973, 0.021622, 0.0216495, 0.0311438
0.0014946, -0.00648588, -0.580897, -0.000488189, 0.000204925, 7.25273e-05, 0.398002, 0.39924, 0.301434, 0.0212686, 0.0209421, 0.0311106
0.00172478, -0.00781937, -0.585356, -0.000716, 0.000215909, 3.45313e-05, 0.405369, 0.408094, 0.311916, 0.0210175, 0.0203498, 0.0310822
0.00216092, -0.00854037, -0.588251, -0.00095313, 0.000170286, -9.63899e-06, 0.41297, 0.416843, 0.322381, 0.0207937, 0.0198417, 0.031055
0.00273073, -0.00879887, -0.590708, -0.00118387, 0.000116, -6.64189e-05, 0.420594, 0.425186, 0.331358, 0.0205169, 0.0193658, 0.0310299
0.00286202, -0.00881681, -0.592502, -0.00136924, 0.00010448, -0.000113926, 0.428184, 0.4327, 0.337552, 0.0201128, 0.0188972, 0.0310008
0.00247807, -0.0091058, -0.593336, -0.00152262, 0.000128293, -0.000141922, 0.43579, 0.438906, 0.340486, 0.019539, 0.0184389, 0.0309587
0.0026456, -0.00922456, -0.594482, -0.0017155, 0.000101271, -0.000191624, 0.443427, 0.44341, 0.341435, 0.0188172, 0.0180092, 0.0308987
0.00256931, -0.0094417, -0.595215, -0.00188653, 0.00010245, -0.000217758, 0.451082, 0.445897, 0.341409, 0.0179827, 0.0176077, 0.0308164
0.00209642, -0.0119358, -0.592457, -0.00178818, 0.000111161, -0.000203281, 0.458751, 0.446039, 0.339736, 0.0170612, 0.0172227, 0.030704
0.0013492, -0.0155158, -0.587118, -0.00144733, 0.000142592, -0.000145226, 0.466353, 0.44405, 0.337054, 0.0161557, 0.0168609, 0.0305545
0.000732659, -0.0198368, -0.581654, -0.00114931, 0.000146233, -0.000113296, 0.473845, 0.440793, 0.33608, 0.0153802, 0.0165448, 0.0303709
0.000392536, -0.0229978, -0.576907, -0.000839163, 0.000158973, -7.40495e-05, 0.48123, 0.436976, 0.337849, 0.0147603, 0.0162784, 0.0301559
0.000267392, -0.025644, -0.572508, -0.0005611, 0.000167913, -4.88557e-05, 0.488506, 0.43313, 0.341769, 0.0142905, 0.0160566, 0.0299054
6.27759e-05, -0.0270287, -0.567786, -0.000271749, 0.000187131, -3.18064e-06, 0.495639, 0.429944, 0.34733, 0.0139556, 0.0158725, 0.0296196
-0.0001446, -0.0271247, -0.56415, -6.63015e-05, 0.000207544, 4.54359e-05, 0.50262, 0.427622, 0.354159, 0.0137164, 0.0157224, 0.0293003
-0.000316243, -0.0269292, -0.561431, 7.50817e-05, 0.000233269, 9.87284e-05, 0.509477, 0.425954, 0.361841, 0.013528, 0.0156006, 0.0289494
-0.000335856, -0.0270154, -0.559852, 0.000151954, 0.000250572, 0.00013042, 0.516229, 0.424783, 0.369891, 0.013368, 0.0155016, 0.0285693
-0.000528611, -0.0271356, -0.556537, 0.000286983, 0.000266831, 0.000179199, 0.522914, 0.425001, 0.377887, 0.0132447, 0.0154191, 0.0281646
-0.000653454, -0.0282653, -0.553329, 0.000391104, 0.000265911, 0.000187282, 0.529523, 0.427328, 0.385668, 0.0131598, 0.0153508, 0.0277416
-0.00116667, -0.0290809, -0.550089, 0.000469677, 0.000264136, 0.00023295, 0.536042, 0.431326, 0.393213, 0.0130926, 0.0152961, 0.0272971
-0.00121718, -0.0307363, -0.547215, 0.000532012, 0.000248323, 0.000189451, 0.54249, 0.436652, 0.400449, 0.0130234, 0.0152531, 0.0268247
-0.00163418, -0.0321139, -0.544756, 0.000544492, 0.000241057, 0.000203857, 0.548891, 0.443593, 0.407172, 0.0129401, 0.0152172, 0.0263265
-0.00212544, -0.0335979, -0.541256, 0.00050591, 0.00022294, 0.000159851, 0.555231, 0.451604, 0.413188, 0.0128116, 0.0151874, 0.0258014
-0.0027782, -0.0343274, -0.538142, 0.000431733, 0.000207429, 0.000138937, 0.561427, 0.459819, 0.418142, 0.0126103, 0.015164, 0.0252664
-0.00290811, -0.034433, -0.536269, 0.000337195, 0.000203013, 0.000123207, 0.567448, 0.467757, 0.42156, 0.0123296, 0.0151469, 0.0247347
-0.00202683, -0.0333051, -0.53885, 0.000277847, 0.000213711, 0.000144645, 0.57323, 0.475427, 0.42272, 0.0119607, 0.0151338, 0.0242321
-0.00131887, -0.0323655, -0.540879, 0.000203661, 0.000221367, 0.00015173, 0.57872, 0.482958, 0.420919, 0.0115275, 0.0151237, 0.0237718
-0.000147524, -0.0316867, -0.543765, 0.000164235, 0.000225365, 0.000120154, 0.583948, 0.490557, 0.41582, 0.0110733, 0.0151153, 0.0233784
0.000854497, -0.0313911, -0.544782, 0.00010754, 0.000229745, 7.31672e-05, 0.589034, 0.498211, 0.407861, 0.0106279, 0.0151059, 0.0230752
0.00235141, -0.03198, -0.549777, 0.000146589, 0.000236133, 7.05562e-05, 0.59392, 0.50553, 0.396983, 0.0101864, 0.0150926, 0.0228571
0.00378302, -0.0329246, -0.553531, 0.000156778, 0.000242374, 4.94775e-05, 0.59872, 0.512018, 0.384364, 0.00977035, 0.015073, 0.022711
0.0050523, -0.0339867, -0.555986, 0.000189368, 0.000236919, 2.64817e-05, 0.603499, 0.516916, 0.371361, 0.00938719, 0.0150441, 0.0226229
0.00620253, -0.03499, -0.557423, 0.000196671, 0.000227405, 5.60154e-06, 0.608256, 0.519268, 0.358039, 0.00901925, 0.0150027, 0.0225786
0.00778402, -0.0353966, -0.556779, 0.000148296, 0.000205002, -1.25251e-05, 0.613016, 0.51804, 0.345237, 0.0086553, 0.0149439, 0.0225622
0.00900212, -0.0345566, -0.555547, 0.0001155, 0.00016396, -5.60904e-06, 0.6178, 0.512964, 0.334761, 0.00831134, 0.0148616, 0.0225515
0.00950782, -0.0327768, -0.554432, 9.54103e-05, 0.000120293, 9.31255e-06, 0.622637, 0.504208, 0.327386, 0.00799813, 0.0147487, 0.022526
0.0095538, -0.0309035, -0.55466, 0.000102392, 7.00633e-05, 3.45522e-05, 0.627512, 0.492107, 0.322989, 0.0077168, 0.0145998, 0.0224669
0.00882707, -0.0283209, -0.555621, 0.000121186, 3.98268e-05, 4.08276e-05, 0.632399, 0.47739, 0.321218, 0.00746093, 0.0144155, 0.0223572
0.0080682, -0.0251948, -0.556817, 0.000133955, 4.42186e-06, 5.62595e-05, 0.637264, 0.461104, 0.321614, 0.00722846, 0.0142031, 0.0221852
0.00700221, -0.022418, -0.558684, 0.000155157, -6.43835e-06, 4.35302e-05, 0.642069, 0.444367, 0.32364, 0.00702035, 0.0139738, 0.0219466
0.00578341, -0.0182109, -0.561302, 0.000171977, -3.31673e-05, 4.90747e-05, 0.64679, 0.428375, 0.326782, 0.00684146, 0.0137398, 0.0216444
0.00461164, -0.0145353, -0.564525, 0.000192482, -4.19527e-05, 3.71435e-05, 0.65147, 0.4145, 0.330629, 0.00669917, 0.0135099, 0.0212817
0.00387098, -0.0123134, -0.568076, 0.000216528, -4.20474e-05, 2.49099e-05, 0.656152, 0.404136, 0.335015, 0.00659733, 0.0132928, 0.020864
0.00348555, -0.0113903, -0.570631, 0.00023381, -2.97031e-05, 5.19235e-07, 0.660849, 0.397825, 0.339867, 0.00652955, 0.0130952, 0.0204136
0.00353807, -0.0119366, -0.572193, 0.000246502, -2.33987e-05, -7.90741e-06, 0.665544, 0.395219, 0.344985, 0.0064875, 0.0129207, 0.0199612
0.0038294, -0.0134891, -0.573299, 0.000254856, -2.2849e-05, -6.09295e-06, 0.670153, 0.395776, 0.350021, 0.00646443, 0.0127724, 0.0195354
0.00421116, -0.0161014, -0.574486, 0.000254491, -2.73895e-05, 6.36848e-07, 0.674573, 0.39889, 0.354555, 0.00644983, 0.0126502, 0.0191531
0.00457292, -0.0188505, -0.574876, 0.000235091, -4.94257e-05, 2.67377e-05, 0.678778, 0.403811, 0.358096, 0.0064279, 0.0125488, 0.0188229
0.0038089, -0.0201201, -0.571735, 0.000210689, -6.98341e-05, 3.44306e-05, 0.682812, 0.409924, 0.360138, 0.00638273, 0.0124624, 0.0185476
0.00260207, -0.020992, -0.56735, 0.000182268, -9.99214e-05, 4.78601e-05, 0.68658, 0.416858, 0.360188, 0.00630541, 0.0123882, 0.0183234
0.000768885, -0.0221839, -0.562973, 0.000143777, -0.000128979, 4.48693e-05, 0.690108, 0.424456, 0.358199, 0.00619573, 0.0123229, 0.0181468
-0.00104929, -0.0236343, -0.559609, 9.71654e-05, -0.000155674, 3.40153e-05, 0.693561, 0.432462, 0.354586, 0.00606385, 0.0122616, 0.0180107
-0.00297119, -0.0248599, -0.557027, 7.09528e-05, -0.000163924, 7.18952e-06, 0.697157, 0.440415, 0.34971, 0.00592342, 0.0122005, 0.0179108
-0.00457508, -0.026254, -0.55606, 3.83006e-05, -0.000158085, -2.84888e-05, 0.701037, 0.447723, 0.343901, 0.00578398, 0.0121357, 0.0178415
-0.00587489, -0.0273383, -0.556065, 1.26474e-05, -0.000137847, -6.43709e-05, 0.70517, 0.45373, 0.337953, 0.00564944, 0.0120656, 0.0177954
-0.00695238, -0.0282182, -0.55638, -8.71911e-06, -0.000114344, -9.39201e-05, 0.70948, 0.457743, 0.332847, 0.00551537, 0.0119894, 0.0177689
-0.00786211, -0.0291956, -0.556756, -2.77281e-05, -9.11295e-05, -0.000113233, 0.713938, 0.459043, 0.329077, 0.00538098, 0.0119083, 0.0177562
-0.00833013, -0.0298012, -0.557582, -4.61894e-05, -7.00671e-05, -0.000122098, 0.718574, 0.457079, 0.326708, 0.00525231, 0.0118246, 0.0177503
-0.0084427, -0.0294546, -0.558001, -5.27579e-05, -4.73452e-05, -0.000122316, 0.723385, 0.451583, 0.32571, 0.00513261, 0.0117399, 0.017745
-0.00847871, -0.0286917, -0.557852, -5.33821e-05, -2.43751e-05, -0.000116589, 0.728333, 0.442751, 0.326062, 0.00502244, 0.0116568, 0.017736
-0.00843811, -0.0272829, -0.557686, -5.57216e-05, -1.10525e-05, -0.00011221, 0.733362, 0.431311, 0.327583, 0.00492129, 0.0115765, 0.0177201
-0.00827526, -0.0250627, -0.557376, -6.03879e-05, -1.68613e-06, -0.000109257, 0.738423, 0.418303, 0.330031, 0.00482693, 0.011499, 0.0176938
-0.00812265, -0.0227026, -0.557765, -7.37909e-05, 1.01096e-05, -0.000102007, 0.743486, 0.404725, 0.333096, 0.00473915, 0.0114275, 0.0176546
-0.00793845, -0.0197586, -0.557666, -8.55374e-05, 1.6979e-05, -9.76852e-05, 0.748539, 0.391466, 0.33645, 0.00465989, 0.0113627, 0.0176018
-0.00762828, -0.0196421, -0.559671, -9.86615e-05, 1.82256e-05, -0.000102691, 0.753595, 0.37965, 0.339867, 0.00459417, 0.0113016, 0.0175381
-0.00739303, -0.0198926, -0.559288, -9.2724e-05, 7.28967e-06, -0.00012226, 0.758631, 0.37035, 0.34321, 0.00454435, 0.0112427, 0.0174643
-0.00783973, -0.0180045, -0.555704, -8.52097e-05, 5.73126e-06, -0.000109907, 0.763591, 0.364131, 0.346291, 0.00450928, 0.0111895, 0.0173782
-0.00788756, -0.016887, -0.554638, -8.43934e-05, 2.90696e-06, -0.000111019, 0.768466, 0.360768, 0.349287, 0.00448471, 0.0111429, 0.0172733
-0.00799905, -0.0161786, -0.553285, -8.24107e-05, 2.58171e-06, -0.000107352, 0.77325, 0.35958, 0.352273, 0.0044657, 0.0111036, 0.017143
-0.008194, -0.0156923, -0.551716, -7.74494e-05, -4.10006e-06, -0.000116278, 0.777907, 0.360125, 0.355149, 0.00444969, 0.0110715, 0.0169869
-0.00827704, -0.0146372, -0.550583, -7.37253e-05, -6.69226e-06, -0.000116625, 0.782388, 0.362276, 0.357793, 0.00443367, 0.0110457, 0.0168099
-0.00816713, -0.0130306, -0.551047, -7.08418e-05, -2.25973e-06, -9.49754e-05, 0.786595, 0.365897, 0.359946, 0.00441321, 0.0110268, 0.0166166
-0.00765495, -0.011157, -0.552696, -6.3765e-05, 4.88402e-06, -7.11058e-05, 0.790511, 0.37065, 0.361461, 0.00438472, 0.0110138, 0.0164146
-0.00740654, -0.00958683, -0.55415, -5.45107e-05, 1.08033e-05, -3.7435e-05, 0.794115, 0.376513, 0.36222, 0.00434657, 0.0110043, 0.016219
-0.00705447, -0.0088365, -0.554834, -4.51173e-05, 1.14757e-05, -3.56547e-05, 0.797344, 0.383561, 0.36185, 0.00429653, 0.0109961, 0.0160414
-0.00698943, -0.00833209, -0.555173, -3.6851e-05, 1.00428e-05, -3.04732e-05, 0.800359, 0.391491, 0.359975, 0.00423138, 0.0109881, 0.0158863
-0.00660827, -0.00802596, -0.554423, -3.37471e-05, 4.40834e-06, -5.87608e-05, 0.803268, 0.399686, 0.356407, 0.00414961, 0.0109797, 0.0157543
-0.00575427, -0.00777357, -0.553386, -3.5707e-05, 5.50434e-07, -9.53894e-05, 0.806179, 0.407375, 0.351872, 0.00406099, 0.0109694, 0.0156513
-0.00472505, -0.00784405, -0.553352, -3.46617e-05, -4.35725e-06, -0.000121754, 0.809073, 0.413818, 0.346747, 0.00397492, 0.0109557, 0.015586
-0.0041669, -0.00795768, -0.554113, -2.73401e-05, -1.31929e-05, -0.000131986, 0.811934, 0.418309, 0.341562, 0.00389747, 0.0109351, 0.0155544
-0.00325174, -0.00808411, -0.554152, -2.65753e-05, -2.28404e-05, -0.000140379, 0.814686, 0.420352, 0.336866, 0.00382547, 0.0109047, 0.0155433
-0.00368035, -0.00730442, -0.555969, -9.78905e-06, -5.326e-05, -0.000134292, 0.817252, 0.419548, 0.333064, 0.00375598, 0.0108637, 0.0155394
-0.00480355, -0.00540419, -0.55757, 2.71082e-06, -9.03659e-05, -0.000123975, 0.819618, 0.415572, 0.330253, 0.00368859, 0.0108114, 0.0155288
-0.00509898, -0.00460485, -0.5585, 6.52633e-06, -0.000116922, -0.000107798, 0.821831, 0.408456, 0.328481, 0.00362323, 0.0107481, 0.0154968
-0.00677902, -0.00260106, -0.560799, 1.58057e-05, -0.000150627, -9.42119e-05, 0.824014, 0.398747, 0.327635, 0.00355997, 0.0106719, 0.0154301
-0.00761122, -0.00122699, -0.561769, 1.66036e-05, -0.000170473, -8.34579e-05, 0.826348, 0.387416, 0.327587, 0.00349854, 0.0105833, 0.0153226
-0.00933656, 0.000878593, -0.564573, 2.18423e-05, -0.000208298, -6.1567e-05, 0.829007, 0.375565, 0.328102, 0.00344007, 0.0104837, 0.0151725
-0.0106408, 0.00229358, -0.566963, 2.63422e-05, -0.000232101, -5.04707e-05, 0.832104, 0.364364, 0.328988, 0.00338657, 0.0103788, 0.0149814
-0.0113451, 0.00260798, -0.568628, 3.06356e-05, -0.000244563, -4.60051e-05, 0.835642, 0.354972, 0.33028, 0.00333987, 0.0102776, 0.0147579
-0.0118307, 0.00236494, -0.570177, 3.62458e-05, -0.000248691, -4.9665e-05, 0.839508, 0.348069, 0.332043, 0.00330113, 0.0101868, 0.014518
-0.0120961, 0.00105131, -0.571104, 4.44106e-05, -0.000239968, -7.31485e-05, 0.84354, 0.34364, 0.334248, 0.00327079, 0.0101102, 0.0142817
-0.0120754, -0.000869074, -0.571432, 5.01454e-05, -0.000233232, -8.73242e-05, 0.847576, 0.341204, 0.336763, 0.00324858, 0.0100478, 0.0140678
-0.0119578, -0.00349149, -0.571477, 5.43568e-05, -0.000226748, -0.000100922, 0.851465, 0.340221, 0.33935, 0.00323266, 0.00999722, 0.0138842
-0.0117575, -0.00646298, -0.571414, 5.53969e-05, -0.000224132, -0.000108948, 0.85505, 0.340278, 0.341708, 0.00322094, 0.00995586, 0.0137317
-0.0119646, -0.00833077, -0.570119, 5.2608e-05, -0.000226619, -0.000114923, 0.858387, 0.340739, 0.343448, 0.00321124, 0.00991906, 0.0136115
-0.0125203, -0.00904148, -0.567481, 4.67476e-05, -0.000237182, -0.000110386, 0.861592, 0.340925, 0.344181, 0.00320116, 0.00988594, 0.0135195
-0.0136856, -0.00876202, -0.563592, 4.04236e-05, -0.000249098, -0.000104595, 0.864817, 0.340927, 0.343994, 0.0031898, 0.0098557, 0.0134507
-0.0149196, -0.00831053, -0.559753, 3.65553e-05, -0.000255598, -0.000102749, 0.868169, 0.34148, 0.343331, 0.00317789, 0.00982597, 0.0134001
-0.0158748, -0.00796602, -0.5566, 3.56145e-05, -0.000259643, -0.0001002, 0.871667, 0.343127, 0.342301, 0.00316593, 0.0097949, 0.0133638
-0.0167938, -0.00848211, -0.554297, 3.49938e-05, -0.000256194, -0.000103369, 0.875263, 0.345829, 0.340686, 0.00315347, 0.00976136, 0.0133384
-0.0173803, -0.00855447, -0.552506, 3.67002e-05, -0.000253012, -0.000103134, 0.87884, 0.349268, 0.338506, 0.00314019, 0.00972481, 0.0133193
-0.01793, -0.00883488, -0.551321, 3.76503e-05, -0.000246399, -0.000105406, 0.882274, 0.353167, 0.335855, 0.00312603, 0.00968327, 0.0133035
-0.0186041, -0.00931106, -0.550627, 3.70888e-05, -0.000239069, -0.000110084, 0.885374, 0.357393, 0.332895, 0.00311147, 0.00963414, 0.0132892
-0.0193337, -0.00968333, -0.550811, 3.39293e-05, -0.000228831, -0.000119895, 0.887835, 0.362009, 0.329716, 0.00309673, 0.00957523, 0.0132753
-0.0201987, -0.00997311, -0.549487, 3.467e-05, -0.000215769, -0.000129005, 0.889265, 0.367105, 0.326355, 0.00308178, 0.00950351, 0.0132622
-0.0213598, -0.0103368, -0.549361, 3.1752e-05, -0.000209946, -0.00013852, 0.888941, 0.372612, 0.322874, 0.00306635, 0.00941182, 0.0132522
-0.021712, -0.0102403, -0.549461, 2.92791e-05, -0.000201143, -0.000142462, 0.885495, 0.37823, 0.319231, 0.00305024, 0.00928688, 0.0132463
-0.0218058, -0.00967299, -0.550934, 2.22506e-05, -0.000188451, -0.000146298, 0.876745, 0.38358, 0.315264, 0.00303357, 0.00910798, 0.0132432
-0.0215982, -0.00933703, -0.551153, 1.9244e-05, -0.000176422, -0.000147849, 0.860056, 0.388495, 0.310898, 0.00301646, 0.00885028, 0.0132414
-0.0197809, -0.00828795, -0.55226, 1.42245e-05, -0.000150329, -0.000149463, 0.833096, 0.392902, 0.306362, 0.00299969, 0.00848993, 0.01324
-0.0174552, -0.00738735, -0.553072, 1.13381e-05, -0.000125717, -0.000151434, 0.795033, 0.396893, 0.30189, 0.00298397, 0.00801527, 0.0132386
-0.01304, -0.00635166, -0.553302, 1.08011e-05, -8.34768e-05, -0.000153554, 0.74819, 0.401059, 0.297726, 0.00296943, 0.00745069, 0.0132372
-0.00838863, -0.00580845, -0.552354, 1.34633e-05, -4.12152e-05, -0.000155317, 0.698371, 0.405714, 0.294348, 0.00295635, 0.0068587, 0.0132352
-0.00475216, -0.00567535, -0.551144, 1.64877e-05, -9.88517e-06, -0.000156084, 0.651723, 0.410689, 0.292025, 0.00294476, 0.0063094, 0.0132318
-0.00213563, -0.00573051, -0.550252, 1.88448e-05, 1.11246e-05, -0.000156618, 0.611655, 0.415549, 0.290536, 0.00293461, 0.00584617, 0.0132262
0.000981379, -0.00553278, -0.549722, 1.95903e-05, 3.8581e-05, -0.000158523, 0.57887, 0.419941, 0.289324, 0.00292567, 0.0054834, 0.0132186
0.00272415, -0.00515309, -0.550485, 1.87386e-05, 5.3924e-05, -0.000161989, 0.552207, 0.423873, 0.288095, 0.00291817, 0.00521281, 0.0132098
0.00399106, -0.00472622, -0.551904, 1.76018e-05, 6.46164e-05, -0.000165422, 0.530266, 0.427551, 0.286834, 0.00291253, 0.00501802, 0.0132002
0.00507466, -0.00451841, -0.552013, 1.73868e-05, 7.40264e-05, -0.000168526, 0.512093, 0.431317, 0.285801, 0.00290889, 0.00488195, 0.01319
0.00600547, -0.00423302, -0.551972, 1.68664e-05, 8.18465e-05, -0.000171551, 0.497389, 0.435485, 0.285094, 0.00290679, 0.00479008, 0.0131802
0.00736638, -0.00423143, -0.552356, 1.69255e-05, 8.90857e-05, -0.000172467, 0.486416, 0.44025, 0.284531, 0.00290563, 0.0047329, 0.0131728
0.00837129, -0.00430772, -0.551392, 1.68875e-05, 9.35903e-05, -0.000172403, 0.47944, 0.445589, 0.284165, 0.00290507, 0.00470372, 0.013167
0.00933728, -0.00438269, -0.551967, 1.66226e-05, 9.51945e-05, -0.000171088, 0.476267, 0.451237, 0.283938, 0.00290457, 0.0046931, 0.0131626
0.0102826, -0.00424288, -0.552046, 1.62973e-05, 9.51668e-05, -0.000168829, 0.476595, 0.456772, 0.283754, 0.00290365, 0.00469138, 0.0131587
0.0106533, -0.0045254, -0.553662, 1.56817e-05, 9.21793e-05, -0.000165062, 0.479701, 0.461533, 0.283676, 0.00290189, 0.00468711, 0.0131543
0.0109299, -0.00454408, -0.554426, 1.54133e-05, 8.97246e-05, -0.0001636, 0.484712, 0.464648, 0.283795, 0.00289899, 0.00467075, 0.0131491
0.0112184, -0.0048975, -0.555859, 1.48657e-05, 8.98435e-05, -0.000163354, 0.490854, 0.465322, 0.284039, 0.00289445, 0.00463062, 0.0131447
0.0114048, -0.00545284, -0.555336, 1.26992e-05, 8.82084e-05, -0.000162437, 0.497085, 0.462949, 0.284379, 0.00288741, 0.00455523, 0.0131414
0.0117126, -0.00583125, -0.555722, 1.09185e-05, 8.93368e-05, -0.000162772, 0.50226, 0.457345, 0.284827, 0.00287686, 0.00443782, 0.0131382
0.0121653, -0.0066329, -0.55544, 7.81873e-06, 9.13437e-05, -0.000162072, 0.505589, 0.449076, 0.285246, 0.00286241, 0.00428045, 0.0131352
0.0124856, -0.00717858, -0.554506, 4.80735e-06, 9.10153e-05, -0.000160319, 0.50689, 0.439147, 0.285412, 0.00284556, 0.00409658, 0.0131331
0.0126841, -0.00750174, -0.554247, 3.41358e-06, 9.32406e-05, -0.000159182, 0.50656, 0.428334, 0.28535, 0.00282881, 0.00390763, 0.01313
0.0130439, -0.0076454, -0.555474, 2.23125e-06, 9.35102e-05, -0.000159351, 0.505073, 0.41741, 0.284984, 0.00281248, 0.00372988, 0.0131239
0.0133038, -0.00778728, -0.557178, 1.32321e-06, 9.32527e-05, -0.000159777, 0.502162, 0.407401, 0.284288, 0.00279622, 0.00356687, 0.0131157
0.0131397, -0.00735216, -0.557654, 9.37518e-07, 8.92229e-05, -0.00016083, 0.497298, 0.398901, 0.283613, 0.00277916, 0.00341722, 0.0131068
0.0128513, -0.00649459, -0.557406, -1.15567e-07, 8.25951e-05, -0.000164164, 0.490084, 0.39203, 0.283185, 0.00276023, 0.00327897, 0.0130961
0.0120588, -0.00587695, -0.556227, 2.05099e-07, 7.63816e-05, -0.000164707, 0.480649, 0.386448, 0.283067, 0.00273938, 0.00315443, 0.013085
0.01006, -0.00534931, -0.555992, 3.54681e-06, 6.7242e-05, -0.000161412, 0.469852, 0.381265, 0.283095, 0.00271725, 0.0030503, 0.0130777
0.00777795, -0.00453814, -0.555751, 6.17487e-06, 5.60267e-05, -0.000158115, 0.458041, 0.375906, 0.283106, 0.0026937, 0.00296749, 0.0130745
0.00560294, -0.00412852, -0.555134, 8.72883e-06, 4.70449e-05, -0.000153909, 0.445355, 0.370699, 0.283067, 0.00266944, 0.00290067, 0.0130724
0.00264043, -0.00378111, -0.55341, 1.18065e-05, 3.56172e-05, -0.000148719, 0.43244, 0.366151, 0.283113, 0.0026457, 0.00284669, 0.0130704
0.000107955, -0.00338013, -0.552194, 1.38151e-05, 2.58898e-05, -0.00014454, 0.420422, 0.362748, 0.283225, 0.00262422, 0.00280468, 0.0130669
-0.00171587, -0.00328859, -0.554289, 1.62407e-05, 2.01272e-05, -0.000143577, 0.410353, 0.360786, 0.283206, 0.00260661, 0.00277394, 0.0130622
-0.00342663, -0.00298861, -0.554619, 1.70307e-05, 1.49492e-05, -0.000140376, 0.402762, 0.360222, 0.283038, 0.00259346, 0.00275353, 0.0130564
-0.00440436, -0.00247271, -0.553302, 1.62739e-05, 1.21988e-05, -0.000136162, 0.397766, 0.360838, 0.282946, 0.00258469, 0.0027423, 0.0130496
-0.00531981, -0.00216888, -0.554541, 1.64287e-05, 1.06627e-05, -0.000133407, 0.395404, 0.362338, 0.282912, 0.00257932, 0.00273828, 0.0130401
-0.00519545, -0.00189661, -0.555463, 1.56166e-05, 1.05353e-05, -0.000131353, 0.395421, 0.364339, 0.282873, 0.00257623, 0.00273787, 0.0130262
-0.00460277, -0.00197761, -0.555719, 1.4972e-05, 1.00664e-05, -0.000131428, 0.397244, 0.366406, 0.282884, 0.00257505, 0.00273703, 0.0130109
-0.00425082, -0.00227252, -0.557337, 1.46964e-05, 9.40922e-06, -0.000132024, 0.400549, 0.368271, 0.282907, 0.00257475, 0.00273238, 0.0129963
-0.00383328, -0.00252402, -0.558528, 1.44647e-05, 7.5399e-06, -0.000132516, 0.405075, 0.369789, 0.28287, 0.00257401, 0.00272114, 0.0129818
-0.00364134, -0.00258033, -0.561562, 1.4329e-05, 5.928e-06, -0.000129905, 0.410392, 0.370859, 0.282807, 0.00257195, 0.00270219, 0.0129679
-0.00298276, -0.00303991, -0.565185, 1.50458e-05, 5.38737e-07, -0.000128004, 0.416053, 0.37142, 0.282737, 0.0025682, 0.00267628, 0.0129556
-0.00238802, -0.00376188, -0.566113, 1.58222e-05, -5.38609e-06, -0.0001266, 0.42164, 0.371445, 0.282606, 0.00256228, 0.00264501, 0.012947
-0.00206511, -0.0049508, -0.56528, 1.65013e-05, -1.20279e-05, -0.000126617, 0.426679, 0.371024, 0.282513, 0.00255373, 0.00260961, 0.0129417
-0.00188419, -0.00611767, -0.562914, 1.80175e-05, -1.90306e-05, -0.000125249, 0.430724, 0.370206, 0.282461, 0.0025422, 0.00257135, 0.0129388
-0.00166022, -0.00695601, -0.561786, 1.95765e-05, -2.38244e-05, -0.000123967, 0.433453, 0.369018, 0.282384, 0.00252741, 0.00253243, 0.012937
-0.00147975, -0.00779533, -0.561726, 2.08246e-05, -2.78196e-05, -0.000123494, 0.434685, 0.367498, 0.282178, 0.00250956, 0.00249521, 0.0129335
-0.00136738, -0.00857756, -0.560951, 2.23398e-05, -3.10795e-05, -0.000124036, 0.434121, 0.365715, 0.28203, 0.0024896, 0.00245953, 0.012926
-0.00135953, -0.00821867, -0.5598, 2.24633e-05, -2.94329e-05, -0.000126394, 0.431837, 0.363712, 0.281858, 0.0024692, 0.00242724, 0.0129141
-0.00114094, -0.00836336, -0.558033, 2.35157e-05, -2.89215e-05, -0.000128243, 0.428035, 0.361594, 0.281591, 0.00245045, 0.00239825, 0.0129009
-0.000637992, -0.00831708, -0.555757, 2.51023e-05, -2.69205e-05, -0.000133127, 0.423015, 0.359503, 0.281297, 0.00243487, 0.00237266, 0.0128879
-2.97155e-05, -0.00831248, -0.554731, 2.67367e-05, -2.54511e-05, -0.000138591, 0.417448, 0.357696, 0.281037, 0.00242283, 0.00235291, 0.0128708
0.000737889, -0.00793858, -0.554273, 2.84212e-05, -2.34179e-05, -0.000146558, 0.412193, 0.356609, 0.280843, 0.00241423, 0.00234012, 0.0128445
0.000969685, -0.00726303, -0.553422, 2.88832e-05, -2.24354e-05, -0.000155007, 0.408124, 0.356719, 0.280806, 0.00240773, 0.00233349, 0.0128069
0.00151221, -0.00657765, -0.552363, 2.9512e-05, -2.16629e-05, -0.000163334, 0.405918, 0.358188, 0.280853, 0.00240229, 0.0023309, 0.0127663
0.00191751, -0.00658778, -0.551781, 2.91987e-05, -2.1658e-05, -0.000163288, 0.405812, 0.36076, 0.28079, 0.00239798, 0.00233004, 0.0127363
0.00166425, -0.00625994, -0.551459, 2.88689e-05, -2.1894e-05, -0.000165564, 0.407619, 0.363922, 0.280679, 0.00239488, 0.0023291, 0.0127213
0.000837001, -0.00607943, -0.5531, 2.86466e-05, -2.19903e-05, -0.000166695, 0.411091, 0.367305, 0.280555, 0.00239274, 0.00232611, 0.012717
0.00037288, -0.00670585, -0.557438, 2.78629e-05, -2.24207e-05, -0.000164144, 0.41599, 0.370765, 0.280428, 0.00239113, 0.0023186, 0.0127158
-0.000170853, -0.00699973, -0.556793, 2.71445e-05, -1.98958e-05, -0.000164356, 0.421872, 0.374169, 0.280341, 0.00238947, 0.00230531, 0.0127124
-0.000120077, -0.00757209, -0.556109, 2.59341e-05, -1.94827e-05, -0.000167159, 0.428275, 0.377412, 0.280287, 0.00238728, 0.00228621, 0.0127067
-0.000168032, -0.00833972, -0.555166, 2.48774e-05, -1.74486e-05, -0.000169473, 0.434716, 0.380297, 0.28024, 0.00238435, 0.00226279, 0.0126991
-0.000295069, -0.00928476, -0.554893, 2.42762e-05, -1.35766e-05, -0.000170456, 0.440676, 0.382519, 0.280179, 0.00238091, 0.0022376, 0.0126891
-2.19347e-05, -0.00853773, -0.553729, 2.00562e-05, -1.70598e-05, -0.000139852, 0.445524, 0.383742, 0.280122, 0.00237678, 0.00221292, 0.0126778
-3.72615e-05, -0.00917849, -0.554651, 2.37683e-05, -1.4941e-05, -0.000170408, 0.448624, 0.383753, 0.28009, 0.00237128, 0.00218958, 0.0126676
-0.000296952, -0.00988255, -0.555027, 2.48352e-05, -1.24345e-05, -0.000169559, 0.44913, 0.382344, 0.280185, 0.00236391, 0.0021672, 0.0126615
-0.000981209, -0.0100125, -0.55315, 2.56074e-05, -1.37383e-05, -0.000166597, 0.446593, 0.37948, 0.280381, 0.00235446, 0.00214494, 0.0126581
-0.00143462, -0.00957112, -0.55205, 2.52238e-05, -1.60348e-05, -0.000163164, 0.441059, 0.375342, 0.280623, 0.00234274, 0.00212236, 0.0126558
-0.00258921, -0.00926438, -0.552679, 2.65509e-05, -1.86287e-05, -0.000160978, 0.432949, 0.370259, 0.280849, 0.0023283, 0.00209988, 0.0126529
-0.00316104, -0.00863221, -0.554832, 2.64921e-05, -2.06134e-05, -0.000158784, 0.423255, 0.364774, 0.280881, 0.00231143, 0.00207852, 0.0126463
-0.00411522, -0.00832704, -0.556158, 2.70988e-05, -2.29803e-05, -0.000158149, 0.413104, 0.359599, 0.280788, 0.00229406, 0.00205926, 0.0126351
-0.00443637, -0.00778453, -0.556057, 2.61152e-05, -2.41351e-05, -0.000155565, 0.403775, 0.355371, 0.280672, 0.00227906, 0.00204311, 0.0126228
-0.00501941, -0.00748522, -0.556538, 2.59814e-05, -2.53986e-05, -0.000154971, 0.396132, 0.352416, 0.280632, 0.00226778, 0.00203091, 0.0126122
-0.00540337, -0.00763471, -0.557798, 2.64193e-05, -2.59635e-05, -0.000156322, 0.39065, 0.350772, 0.280665, 0.00226008, 0.00202309, 0.0126038
-0.00496259, -0.00721384, -0.559269, 2.54267e-05, -2.56269e-05, -0.000154189, 0.38741, 0.350307, 0.280756, 0.00225563, 0.00201909, 0.0125983
-0.00453914, -0.006801, -0.560245, 2.44001e-05, -2.55418e-05, -0.00015222, 0.386249, 0.350813, 0.280859, 0.00225342, 0.00201761, 0.0125948
-0.00416843, -0.00654655, -0.562484, 2.40062e-05, -2.53484e-05, -0.000151619, 0.386883, 0.352078, 0.280981, 0.00225236, 0.0020168, 0.0125925
-0.00363204, -0.00651124, -0.563876, 2.32969e-05, -2.58288e-05, -0.000150072, 0.388964, 0.353819, 0.281008, 0.00225152, 0.00201493, 0.012591
-0.00331526, -0.0067136, -0.563093, 2.24187e-05, -2.6231e-05, -0.000149149, 0.392306, 0.355919, 0.28096, 0.0022499, 0.00201058, 0.0125894
-0.00322572, -0.00710939, -0.564144, 2.16887e-05, -2.66127e-05, -0.0001479, 0.39668, 0.358268, 0.280936, 0.002247, 0.00200254, 0.0125873
-0.00322616, -0.00701187, -0.564806, 2.15492e-05, -2.67419e-05, -0.00014799, 0.401658, 0.360597, 0.280866, 0.0022429, 0.00199072, 0.012585
-0.00286676, -0.00694258, -0.563833, 2.20836e-05, -2.82232e-05, -0.000147983, 0.406751, 0.362668, 0.280864, 0.00223777, 0.00197539, 0.0125821
-0.00266713, -0.00763038, -0.563007, 2.17273e-05, -3.08932e-05, -0.000146236, 0.411429, 0.364241, 0.280898, 0.00223218, 0.00195737, 0.0125779
-0.00264278, -0.00818516, -0.563119, 2.14909e-05, -3.26312e-05, -0.000146112, 0.415231, 0.365136, 0.280888, 0.00222653, 0.00193799, 0.0125736
-0.002411, -0.00869891, -0.562397, 2.21824e-05, -3.44176e-05, -0.000146725, 0.417737, 0.365228, 0.280759, 0.00222071, 0.00191855, 0.0125703
-0.00187299, -0.00901616, -0.562254, 2.34759e-05, -3.54938e-05, -0.000146746, 0.418585, 0.364446, 0.280575, 0.00221418, 0.00190051, 0.0125683
-0.0015272, -0.00955776, -0.561148, 2.49015e-05, -3.65215e-05, -0.000150024, 0.417611, 0.362814, 0.280384, 0.00220658, 0.00188412, 0.012567
-0.00124449, -0.00989704, -0.559544, 2.63785e-05, -3.67981e-05, -0.000155354, 0.414824, 0.360468, 0.280249, 0.00219817, 0.00187031, 0.0125652
-0.000636801, -0.00988257, -0.559275, 2.80514e-05, -3.62925e-05, -0.000161589, 0.410571, 0.357763, 0.280229, 0.00218985, 0.0018601, 0.0125597
-0.000722122, -0.00976644, -0.558112, 2.80277e-05, -3.66535e-05, -0.000163579, 0.405739, 0.355332, 0.280392, 0.00218251, 0.00185324, 0.0125461
-0.000921232, -0.00925506, -0.556955, 2.77177e-05, -3.70196e-05, -0.000165997, 0.401598, 0.353809, 0.280657, 0.00217653, 0.00184884, 0.0125248
-0.00125785, -0.00873778, -0.556382, 2.69412e-05, -3.73806e-05, -0.000167264, 0.398929, 0.35341, 0.280883, 0.00217176, 0.00184634, 0.0125018
-0.00168791, -0.00867454, -0.554051, 2.57582e-05, -3.74923e-05, -0.000164013, 0.397824, 0.353922, 0.280894, 0.00216763, 0.00184491, 0.0124812
-0.00208265, -0.00857017, -0.552262, 2.4796e-05, -3.70023e-05, -0.000161388, 0.397747, 0.354787, 0.280735, 0.0021638, 0.00184308, 0.0124652
-0.00341204, -0.00781805, -0.551696, 2.3438e-05, -3.61122e-05, -0.00016002, 0.397744, 0.355358, 0.280537, 0.00216117, 0.00183967, 0.0124573
-0.00500769, -0.00766064, -0.55285, 2.20758e-05, -3.63229e-05, -0.000158618, 0.397371, 0.355476, 0.280355, 0.00216006, 0.00183446, 0.0124548
-0.00645206, -0.00777553, -0.55437, 2.09631e-05, -3.67574e-05, -0.000157463, 0.397038, 0.355436, 0.280155, 0.0021597, 0.00182824, 0.0124502
-0.00801885, -0.00740808, -0.554076, 2.03727e-05, -3.5164e-05, -0.000158589, 0.39713, 0.355472, 0.279936, 0.0021591, 0.00182154, 0.0124354
-0.0091431, -0.00755288, -0.554743, 1.98401e-05, -3.50239e-05, -0.000158096, 0.397824, 0.355753, 0.279791, 0.00215765, 0.00181487, 0.0124068
-0.00914974, -0.00782444, -0.55532, 1.93204e-05, -3.60717e-05, -0.000157095, 0.399234, 0.356337, 0.27981, 0.00215521, 0.00180837, 0.012367
-0.00858528, -0.00854242, -0.557495, 1.81515e-05, -4.10576e-05, -0.000156142, 0.401306, 0.357091, 0.280099, 0.00215188, 0.00180147, 0.0123202
-0.00602326, -0.00895626, -0.557659, 1.66937e-05, -4.59775e-05, -0.000162024, 0.403981, 0.357741, 0.280787, 0.00214806, 0.00179305, 0.0122742
-0.00342743, -0.00946885, -0.556188, 1.55977e-05, -4.67596e-05, -0.000173679, 0.406976, 0.358003, 0.281979, 0.00214446, 0.0017818, 0.0122384
-0.00187334, -0.0100376, -0.555157, 1.46066e-05, -4.59923e-05, -0.000178511, 0.409461, 0.357769, 0.283362, 0.00214208, 0.00177097, 0.0122215
-0.000434688, -0.0101492, -0.554591, 1.3102e-05, -4.58812e-05, -0.000178069, 0.410766, 0.357094, 0.284645, 0.00214016, 0.00176111, 0.0122153
0.00107195, -0.0102887, -0.554801, 1.12979e-05, -4.64939e-05, -0.000176849, 0.410538, 0.356078, 0.285753, 0.00213762, 0.00175133, 0.0122109
0.00208911, -0.0106881, -0.555547, 9.99593e-06, -4.6963e-05, -0.000176073, 0.408594, 0.354839, 0.286699, 0.00213365, 0.00174103, 0.012201
0.00376053, -0.0100769, -0.556861, 8.07648e-06, -4.91582e-05, -0.000177131, 0.405015, 0.353573, 0.287542, 0.00212792, 0.00173014, 0.0121805
0.00414205, -0.00966074, -0.557802, 7.86205e-06, -5.08172e-05, -0.000181046, 0.400076, 0.352457, 0.288371, 0.00212051, 0.00171871, 0.0121476
0.00551125, -0.00981179, -0.55963, 5.92626e-06, -5.20276e-05, -0.000179816, 0.394181, 0.351641, 0.289273, 0.00211183, 0.00170699, 0.0121031
0.0037802, -0.00868558, -0.559594, 9.83058e-06, -5.4851e-05, -0.000200757, 0.387704, 0.351242, 0.290183, 0.00210219, 0.0016958, 0.0120469
0.0024032, -0.00705158, -0.559985, 1.45358e-05, -5.83458e-05, -0.000231539, 0.381186, 0.351365, 0.290808, 0.00209148, 0.00168692, 0.0119742
0.00150527, -0.00522713, -0.559381, 1.90473e-05, -6.07799e-05, -0.000260999, 0.375669, 0.352055, 0.291302, 0.00207908, 0.00168052, 0.011881
5.7739e-05, -0.003602, -0.55835, 2.34829e-05, -6.31481e-05, -0.000288315, 0.371925, 0.353266, 0.292087, 0.00206579, 0.00167625, 0.011778
-0.00199047, -0.0023877, -0.55806, 2.79158e-05, -6.52069e-05, -0.00031743, 0.37006, 0.354877, 0.293263, 0.00205279, 0.00167375, 0.0116763
-0.00255519, -0.0019282, -0.557068, 2.8813e-05, -6.55192e-05, -0.000324396, 0.369874, 0.356738, 0.294698, 0.00204109, 0.00167254, 0.0115841
-0.00223104, -0.00200631, -0.556827, 2.8422e-05, -6.54383e-05, -0.000324489, 0.371055, 0.358686, 0.296171, 0.00203132, 0.00167186, 0.0115063
-0.0015485, -0.00266993, -0.557853, 2.72973e-05, -6.55071e-05, -0.000320638, 0.373292, 0.360577, 0.297447, 0.0020236, 0.00167094, 0.0114434
-0.00103414, -0.00327658, -0.557456, 2.59306e-05, -6.58165e-05, -0.000314322, 0.37657, 0.362345, 0.298307, 0.00201729, 0.00166891, 0.0113902
-0.002094, -0.00431808, -0.55775, 2.4438e-05, -6.37931e-05, -0.000304745, 0.380679, 0.364011, 0.298593, 0.00201184, 0.00166499, 0.0113422
-0.00304964, -0.00547654, -0.557552, 2.28442e-05, -6.20457e-05, -0.000293697, 0.385107, 0.365533, 0.298192, 0.00200753, 0.00165943, 0.011302
-0.00405724, -0.00657577, -0.557058, 2.18109e-05, -6.04854e-05, -0.00028655, 0.389675, 0.366858, 0.29708, 0.00200434, 0.00165212, 0.0112703
-0.00479974, -0.00764527, -0.557043, 2.10854e-05, -5.90283e-05, -0.000281585, 0.394217, 0.367991, 0.295368, 0.00200196, 0.00164247, 0.0112455
-0.00570665, -0.00828382, -0.556785, 2.11077e-05, -5.77405e-05, -0.000281583, 0.398327, 0.368988, 0.293276, 0.00200006, 0.00163046, 0.0112255
-0.00642511, -0.00904157, -0.557066, 2.1041e-05, -5.60165e-05, -0.000280122, 0.401432, 0.369823, 0.291056, 0.00199851, 0.00161728, 0.0112091
-0.00757505, -0.00983141, -0.55678, 2.14256e-05, -5.54907e-05, -0.000282086, 0.40308, 0.370455, 0.288966, 0.00199723, 0.00160428, 0.0111957
-0.00805297, -0.0104469, -0.558175, 2.11834e-05, -5.20699e-05, -0.000276933, 0.403108, 0.370908, 0.287269, 0.00199618, 0.00159142, 0.0111844
-0.00913394, -0.0108338, -0.559961, 2.07421e-05, -4.84619e-05, -0.000269027, 0.401548, 0.371196, 0.28609, 0.00199528, 0.00158042, 0.0111736
-0.01101, -0.0113752, -0.561116, 1.98843e-05, -4.75324e-05, -0.000260697, 0.399036, 0.371246, 0.285492, 0.00199402, 0.00157347, 0.011157
-0.0121781, -0.0110126, -0.56101, 1.92353e-05, -4.8316e-05, -0.000257798, 0.396762, 0.371, 0.285678, 0.00199211, 0.00156959, 0.0111311
-0.0116807, -0.0108883, -0.560214, 1.88682e-05, -4.86154e-05, -0.000260997, 0.395703, 0.37055, 0.286735, 0.00198975, 0.0015676, 0.0110999
-0.0101128, -0.0108201, -0.561885, 1.62906e-05, -4.71643e-05, -0.000245966, 0.395982, 0.369983, 0.288422, 0.00198749, 0.00156649, 0.01107
-0.0101961, -0.010366, -0.562818, 1.4211e-05, -4.69245e-05, -0.000234781, 0.398246, 0.369193, 0.290644, 0.00198456, 0.00156627, 0.0110353
-0.00921086, -0.0104772, -0.564009, 1.26431e-05, -4.68666e-05, -0.00022596, 0.4013, 0.368375, 0.292778, 0.00198194, 0.00156554, 0.0110053
-0.00910383, -0.0119195, -0.559727, 1.3856e-05, -4.91356e-05, -0.000240639, 0.404277, 0.367791, 0.294317, 0.00198019, 0.0015638, 0.0109858
-0.00855198, -0.0116356, -0.560084, 1.25273e-05, -5.00077e-05, -0.000233581, 0.406899, 0.367529, 0.295034, 0.00197913, 0.00156115, 0.0109742
-0.00732376, -0.0117881, -0.560133, 1.20575e-05, -5.1408e-05, -0.000230492, 0.40939, 0.367433, 0.294957, 0.00197822, 0.0015581, 0.0109646
-0.00601646, -0.0118909, -0.5593, 1.13562e-05, -5.33795e-05, -0.000224763, 0.412004, 0.367416, 0.294204, 0.00197734, 0.00155497, 0.0109551
-0.0046125, -0.0122905, -0.559152, 1.11033e-05, -5.51827e-05, -0.000221967, 0.414389, 0.367545, 0.292823, 0.00197652, 0.00155187, 0.0109458
-0.00374752, -0.0127237, -0.558413, 1.06262e-05, -5.57138e-05, -0.00021769, 0.416532, 0.367809, 0.291072, 0.00197578, 0.00154793, 0.0109375
-0.00207197, -0.0127324, -0.558035, 1.06615e-05, -5.68753e-05, -0.000215445, 0.41788, 0.368268, 0.289181, 0.00197504, 0.00154229, 0.0109301
-0.00136427, -0.0124538, -0.557769, 1.07699e-05, -5.68434e-05, -0.00021485, 0.417882, 0.368993, 0.287438, 0.00197403, 0.00153445, 0.010922
-0.000264848, -0.0118671, -0.557054, 1.12199e-05, -5.56185e-05, -0.000215273, 0.416196, 0.370033, 0.28614, 0.00197254, 0.0015242, 0.010912
0.000483285, -0.0107533, -0.556369, 1.23788e-05, -5.3938e-05, -0.000220238, 0.412736, 0.371504, 0.28545, 0.0019701, 0.00151288, 0.0108968
-0.00243864, -0.00759154, -0.55199, 1.29568e-05, -4.6313e-05, -0.000218308, 0.407847, 0.373562, 0.285332, 0.00196562, 0.0015027, 0.0108682
-0.00376161, -0.0060197, -0.547807, 1.27447e-05, -4.0893e-05, -0.000212999, 0.402508, 0.37621, 0.285711, 0.00195848, 0.00149522, 0.0108212
-0.00243116, -0.00539767, -0.550561, 1.74858e-05, -4.29041e-05, -0.00025097, 0.397902, 0.379293, 0.28658, 0.0019495, 0.00149026, 0.0107613
-0.00236195, -0.00474578, -0.552974, 2.08892e-05, -4.39535e-05, -0.000281283, 0.395361, 0.382607, 0.287915, 0.00193985, 0.00148832, 0.0106953
-0.00205943, -0.00450614, -0.555731, 2.35331e-05, -4.44271e-05, -0.000307946, 0.395258, 0.385875, 0.289709, 0.00193121, 0.00148786, 0.0106352
-0.00160697, -0.00485703, -0.558893, 2.48967e-05, -4.47886e-05, -0.000325017, 0.397382, 0.388927, 0.29181, 0.00192412, 0.0014875, 0.0105837
-0.00103674, -0.00531593, -0.559379, 2.43849e-05, -4.52929e-05, -0.000325227, 0.400768, 0.391769, 0.293875, 0.00191838, 0.00148631, 0.0105398
-0.000871513, -0.00613066, -0.558346, 2.31224e-05, -4.53054e-05, -0.000319352, 0.404888, 0.394433, 0.295566, 0.00191361, 0.00148387, 0.0105016
-0.00109398, -0.00690852, -0.557222, 2.23057e-05, -4.48599e-05, -0.000316139, 0.409815, 0.396931, 0.296704, 0.00190952, 0.00147961, 0.0104677
-0.000718504, -0.00793361, -0.555676, 2.17572e-05, -4.58643e-05, -0.000314344, 0.414959, 0.399136, 0.297052, 0.00190619, 0.00147417, 0.0104405
-0.00108673, -0.00856281, -0.555324, 2.15692e-05, -4.52507e-05, -0.000314302, 0.420317, 0.401048, 0.296641, 0.00190339, 0.00146701, 0.0104181
-0.00188814, -0.0090231, -0.555804, 2.14151e-05, -4.31318e-05, -0.000312546, 0.424908, 0.402617, 0.295433, 0.00190099, 0.00145967, 0.0104003
-0.0027446, -0.0093104, -0.556023, 2.16163e-05, -4.16886e-05, -0.000312474, 0.428003, 0.403696, 0.293619, 0.00189913, 0.0014525, 0.0103874
-0.00416229, -0.00917054, -0.556968, 2.16287e-05, -3.94706e-05, -0.000309218, 0.428845, 0.404163, 0.29148, 0.00189778, 0.001446, 0.010378
-0.00667037, -0.00876148, -0.558674, 2.04801e-05, -3.77352e-05, -0.000296887, 0.427019, 0.40378, 0.289344, 0.00189626, 0.00144163, 0.0103635
-0.00837657, -0.00774063, -0.560572, 1.76232e-05, -3.72232e-05, -0.000275889, 0.423646, 0.402301, 0.287798, 0.00189317, 0.00143897, 0.0103293
-0.0070833, -0.00684627, -0.562753, 1.38883e-05, -3.56099e-05, -0.000254695, 0.420778, 0.400044, 0.287361, 0.00188831, 0.00143715, 0.0102754
-0.0061251, -0.00676105, -0.563624, 1.22365e-05, -3.47567e-05, -0.000248134, 0.419484, 0.397611, 0.288003, 0.00188299, 0.00143586, 0.0102173
-0.00561454, -0.00680933, -0.563651, 1.13436e-05, -3.46297e-05, -0.00024694, 0.419568, 0.395508, 0.289254, 0.00187869, 0.00143457, 0.0101703
-0.00465231, -0.00685138, -0.563314, 1.01566e-05, -3.49585e-05, -0.000245786, 0.421767, 0.393746, 0.291016, 0.00187511, 0.00143359, 0.0101319
-0.00478953, -0.00642835, -0.556587, 1.18016e-05, -3.9109e-05, -0.000260402, 0.42523, 0.392409, 0.292814, 0.00187274, 0.00143169, 0.0101065
-0.00295882, -0.00742398, -0.556479, 1.03391e-05, -4.17401e-05, -0.000257849, 0.429221, 0.391626, 0.294248, 0.00187167, 0.00142858, 0.0100949
-0.000264429, -0.00655143, -0.552054, 9.72342e-06, -4.91111e-05, -0.000255562, 0.434364, 0.391316, 0.295396, 0.00187117, 0.00142377, 0.0100903
-0.00253566, -0.00481332, -0.53879, 4.94832e-06, -4.80359e-05, -0.000228973, 0.439295, 0.391519, 0.295819, 0.00187088, 0.00141874, 0.0100885
-0.00319682, -0.00671661, -0.545701, 7.22906e-06, -4.81134e-05, -0.000245613, 0.443377, 0.392147, 0.295399, 0.00187028, 0.00141462, 0.0100841
-0.00563575, -0.00813872, -0.550327, 8.35078e-06, -4.82249e-05, -0.000257534, 0.446647, 0.39309, 0.294442, 0.00186927, 0.00141027, 0.0100764
-0.00819693, -0.0090758, -0.554214, 9.13419e-06, -5.07747e-05, -0.000267232, 0.447897, 0.394425, 0.293041, 0.00186763, 0.00140582, 0.0100636
-0.0105461, -0.00946146, -0.555859, 9.25117e-06, -5.25755e-05, -0.000271435, 0.446588, 0.39615, 0.291622, 0.00186521, 0.00139939, 0.0100454
-0.0104485, -0.00916538, -0.556413, 1.01611e-05, -5.3174e-05, -0.00027802, 0.442152, 0.398403, 0.290335, 0.00186146, 0.00139184, 0.0100178
-0.011047, -0.00850743, -0.556501, 1.14467e-05, -5.33e-05, -0.00028777, 0.435332, 0.401173, 0.289367, 0.00185631, 0.00138377, 0.00998194
-0.0140566, -0.00767625, -0.556856, 1.28494e-05, -5.49448e-05, -0.00030248, 0.427523, 0.404433, 0.288943, 0.00184994, 0.00137537, 0.00993978
-0.0119894, -0.00602944, -0.555629, 1.71104e-05, -5.20887e-05, -0.000327997, 0.420441, 0.408174, 0.289056, 0.00184217, 0.0013687, 0.00988922
-0.0115351, -0.00422689, -0.554251, 2.12681e-05, -4.98626e-05, -0.000354427, 0.414948, 0.412192, 0.289809, 0.00183385, 0.00136351, 0.00983544
-0.0111143, -0.00291531, -0.553285, 2.44804e-05, -4.82475e-05, -0.000376274, 0.411362, 0.416298, 0.291115, 0.00182566, 0.00135967, 0.00978166
-0.0122225, -0.00238591, -0.555148, 2.64358e-05, -4.98904e-05, -0.000393507, 0.409912, 0.420353, 0.292795, 0.00181804, 0.0013571, 0.00972966
-0.0108907, -0.00234181, -0.55494, 2.7109e-05, -4.96142e-05, -0.00040089, 0.41033, 0.424214, 0.294637, 0.00181144, 0.001355, 0.00968223
-0.0100232, -0.00258563, -0.55457, 2.68982e-05, -4.96688e-05, -0.000400917, 0.412035, 0.427706, 0.29641, 0.00180631, 0.00135263, 0.00964341
-0.00978945, -0.00294535, -0.554323, 2.65933e-05, -4.95745e-05, -0.000399131, 0.41285, 0.430305, 0.297937, 0.00180343, 0.00134935, 0.00962082
-0.0100143, -0.00330814, -0.553838, 2.64968e-05, -4.89456e-05, -0.000398304, 0.4127, 0.431793, 0.299141, 0.00180192, 0.00134561, 0.0096081
-0.0109455, -0.00365904, -0.554189, 2.60462e-05, -4.90333e-05, -0.000394623, 0.412551, 0.432355, 0.299924, 0.00180085, 0.0013427, 0.00959861
-0.0125527, -0.00384045, -0.554987, 2.55546e-05, -4.90212e-05, -0.000389881, 0.412729, 0.432114, 0.300193, 0.00179988, 0.00134106, 0.00958991
-0.0141435, -0.00437436, -0.556415, 2.51132e-05, -4.87969e-05, -0.000385073, 0.413333, 0.431417, 0.299812, 0.00179896, 0.00134046, 0.00958169
-0.0157064, -0.00464291, -0.558669, 2.46006e-05, -4.78418e-05, -0.000379035, 0.414126, 0.430633, 0.298746, 0.00179816, 0.00133997, 0.00957475
-0.0173439, -0.00486674, -0.55642, 2.55443e-05, -4.87096e-05, -0.000385444, 0.414919, 0.430139, 0.296939, 0.00179759, 0.00133844, 0.00956988
-0.0196131, -0.00468339, -0.553685, 2.63333e-05, -5.06846e-05, -0.000390315, 0.415525, 0.43012, 0.294574, 0.00179724, 0.00133509, 0.00956669
-0.0219592, -0.00414098, -0.552247, 2.68703e-05, -5.18421e-05, -0.000392015, 0.415699, 0.430834, 0.291707, 0.00179704, 0.00132906, 0.0095655
-0.02375, -0.00319883, -0.553084, 2.74195e-05, -4.98963e-05, -0.000392334, 0.415255, 0.43232, 0.288635, 0.00179663, 0.00132049, 0.00956494
-0.0245052, -0.00198298, -0.555246, 2.8158e-05, -4.58832e-05, -0.000393766, 0.414283, 0.434273, 0.285795, 0.00179579, 0.00131076, 0.00956305
-0.0258703, -0.000725274, -0.555309, 2.87223e-05, -4.53917e-05, -0.00039343, 0.412895, 0.436502, 0.283391, 0.00179452, 0.00130068, 0.00955901
-0.0272623, 0.00032522, -0.555975, 2.91629e-05, -4.38638e-05, -0.000393707, 0.411301, 0.438819, 0.281536, 0.00179302, 0.00129096, 0.00955366
-0.0278192, 0.00130625, -0.556695, 3.00007e-05, -4.24345e-05, -0.000396988, 0.409621, 0.441127, 0.28023, 0.00179145, 0.00128202, 0.00954774
-0.0288451, 0.00173552, -0.556973, 3.01296e-05, -4.18526e-05, -0.000397329, 0.408009, 0.443235, 0.279467, 0.00179009, 0.00127445, 0.00954242
-0.0292141, 0.00202089, -0.557654, 3.04548e-05, -4.0869e-05, -0.000399486, 0.406555, 0.444999, 0.279171, 0.00178911, 0.0012689, 0.00953816
-0.0289571, 0.00159194, -0.559656, 3.08014e-05, -3.8568e-05, -0.000403257, 0.405052, 0.446472, 0.27919, 0.0017883, 0.00126469, 0.00953377
-0.0295001, 0.000885094, -0.559319, 3.04755e-05, -3.90321e-05, -0.000401857, 0.403334, 0.447474, 0.279424, 0.00178769, 0.00126142, 0.00952916
-0.0289245, -0.000836216, -0.560116, 3.03683e-05, -3.85041e-05, -0.00040009, 0.401219, 0.447904, 0.279809, 0.00178725, 0.00125872, 0.00952349
-0.0275453, -0.00365895, -0.562426, 3.07621e-05, -3.7106e-05, -0.000397168, 0.398638, 0.447472, 0.280216, 0.00178704, 0.00125694, 0.00951857
-0.0261319, -0.00719527, -0.56356, 3.153e-05, -3.65363e-05, -0.000391817, 0.395626, 0.446073, 0.2805, 0.00178683, 0.00125569, 0.00951566
-0.024444, -0.0113589, -0.563287, 3.25676e-05, -3.6169e-05, -0.00038363, 0.392444, 0.444199, 0.280667, 0.00178647, 0.00125446, 0.00951325
-0.0227664, -0.0155371, -0.563701, 3.39861e-05, -3.57633e-05, -0.00037692, 0.38941, 0.44203, 0.280659, 0.00178584, 0.00125322, 0.00951122
-0.0214599, -0.0190322, -0.56257, 3.57442e-05, -3.50787e-05, -0.000376494, 0.386712, 0.439472, 0.280392, 0.00178471, 0.00125176, 0.00950908
-0.0208051, -0.0222327, -0.561868, 3.75953e-05, -3.47481e-05, -0.000379174, 0.384586, 0.437114, 0.280086, 0.00178357, 0.00125043, 0.00950669
-0.020174, -0.0249266, -0.561114, 3.85705e-05, -3.45087e-05, -0.000378721, 0.383166, 0.435716, 0.279896, 0.00178305, 0.00124966, 0.00950504
-0.0196907, -0.026621, -0.558014, 3.87068e-05, -3.39005e-05, -0.000377062, 0.382433, 0.435331, 0.279792, 0.00178291, 0.00124933, 0.00950321
-0.0193531, -0.0276094, -0.557456, 3.85584e-05, -3.39243e-05, -0.000375481, 0.382353, 0.435964, 0.279818, 0.00178271, 0.00124929, 0.0094999
-0.0192042, -0.0278686, -0.55588, 3.8401e-05, -3.42799e-05, -0.000374674, 0.382895, 0.43768, 0.280001, 0.00178181, 0.00124907, 0.00949271
-0.0195868, -0.0276163, -0.554583, 3.86832e-05, -3.44875e-05, -0.000375922, 0.384002, 0.440075, 0.28025, 0.0017801, 0.00124851, 0.00948382
-0.0204317, -0.0271687, -0.553838, 3.92312e-05, -3.41917e-05, -0.000378085, 0.385519, 0.442566, 0.280422, 0.00177832, 0.00124775, 0.00947847
-0.0209695, -0.0263023, -0.553912, 4.01388e-05, -3.38358e-05, -0.00038046, 0.387361, 0.445078, 0.280526, 0.00177663, 0.00124673, 0.00947601
-0.0220089, -0.0246504, -0.552414, 4.17995e-05, -3.31413e-05, -0.000382279, 0.389454, 0.447693, 0.280472, 0.00177492, 0.00124552, 0.00947476
-0.0234466, -0.0224577, -0.549857, 4.45764e-05, -3.16601e-05, -0.000385725, 0.391876, 0.450672, 0.280277, 0.0017728, 0.00124388, 0.00947349
-0.0253086, -0.0197164, -0.547668, 4.83049e-05, -2.97311e-05, -0.000388368, 0.394737, 0.453909, 0.280047, 0.00177054, 0.00124175, 0.0094725
-0.0267679, -0.0166117, -0.546669, 5.19539e-05, -2.87411e-05, -0.000385141, 0.398075, 0.457224, 0.279875, 0.00176859, 0.00123918, 0.00947143
-0.0280893, -0.0136478, -0.548555, 5.48112e-05, -2.82643e-05, -0.000376628, 0.40183, 0.46059, 0.279802, 0.001767, 0.00123628, 0.00946964
-0.0292171, -0.0106044, -0.551284, 5.75783e-05, -2.78011e-05, -0.000366415, 0.405836, 0.464013, 0.279832, 0.00176568, 0.00123322, 0.0094672
-0.0302149, -0.00776807, -0.553192, 5.99067e-05, -2.72849e-05, -0.000356319, 0.409915, 0.467377, 0.279958, 0.00176468, 0.00123016, 0.00946398
-0.0310381, -0.0052954, -0.552229, 6.14984e-05, -2.75323e-05, -0.000346117, 0.413904, 0.470551, 0.28009, 0.00176396, 0.00122748, 0.00945989
-0.031467, -0.00322478, -0.554033, 6.26126e-05, -2.74932e-05, -0.000338637, 0.417619, 0.473552, 0.280194, 0.00176331, 0.00122542, 0.00945627
-0.0320361, -0.00184541, -0.558492, 6.29638e-05, -2.69198e-05, -0.000333955, 0.420869, 0.476293, 0.280263, 0.00176262, 0.00122404, 0.0094534
-0.03231, -0.000426952, -0.560341, 6.33599e-05, -2.69597e-05, -0.000331118, 0.423468, 0.478474, 0.28024, 0.001762, 0.00122323, 0.00945058
-0.0324335, 0.000377619, -0.563359, 6.32906e-05, -2.72053e-05, -0.000329794, 0.425339, 0.48002, 0.28017, 0.00176155, 0.00122278, 0.00944883
-0.0323847, 0.000197713, -0.565699, 6.32146e-05, -2.73991e-05, -0.00033044, 0.426442, 0.48097, 0.280106, 0.00176123, 0.00122255, 0.00944784
-0.032039, -0.000598176, -0.566748, 6.32463e-05, -2.75623e-05, -0.000331056, 0.426736, 0.481408, 0.280086, 0.00176089, 0.00122244, 0.00944635
-0.0317115, -0.00185759, -0.567497, 6.32788e-05, -2.77506e-05, -0.000330395, 0.426232, 0.481261, 0.280093, 0.00176053, 0.00122231, 0.00944376
-0.0314475, -0.00363441, -0.567275, 6.34102e-05, -2.80851e-05, -0.000328499, 0.42502, 0.480453, 0.280147, 0.00176018, 0.00122206, 0.00944076
-0.0303194, -0.0059774, -0.566327, 6.39221e-05, -2.83913e-05, -0.000325692, 0.423103, 0.479105, 0.280212, 0.00175983, 0.00122158, 0.00943699
-0.0292912, -0.00911883, -0.565647, 6.46906e-05, -2.87773e-05, -0.000320423, 0.420448, 0.477238, 0.280243, 0.00175942, 0.00122077, 0.00943237
-0.0282598, -0.0129575, -0.567222, 6.61133e-05, -2.92613e-05, -0.000315209, 0.41708, 0.474548, 0.280182, 0.00175881, 0.00121954, 0.0094291
-0.0273101, -0.0169865, -0.568682, 6.84975e-05, -2.96381e-05, -0.000314924, 0.413218, 0.470828, 0.280002, 0.00175753, 0.00121785, 0.00942763
-0.0259431, -0.0217032, -0.568947, 7.21496e-05, -2.93901e-05, -0.000320096, 0.409344, 0.466526, 0.279789, 0.00175557, 0.00121601, 0.00942621
-0.0243716, -0.0258682, -0.566959, 7.59656e-05, -2.82894e-05, -0.000329179, 0.405801, 0.462045, 0.279589, 0.00175307, 0.00121426, 0.00942346
-0.0226585, -0.0297151, -0.56407, 7.9369e-05, -2.69244e-05, -0.000338037, 0.402835, 0.45798, 0.279428, 0.00175068, 0.00121281, 0.00942018
-0.0216873, -0.0329556, -0.560984, 8.18931e-05, -2.61572e-05, -0.000345095, 0.400579, 0.454521, 0.279337, 0.00174866, 0.00121186, 0.00941647
-0.0212157, -0.0356352, -0.560381, 8.36631e-05, -2.61647e-05, -0.000349706, 0.399024, 0.451868, 0.279321, 0.00174724, 0.00121136, 0.0094127
-0.0204403, -0.0378778, -0.559487, 8.4361e-05, -2.6304e-05, -0.000348941, 0.398062, 0.450542, 0.279336, 0.0017468, 0.00121107, 0.00941069
-0.0199704, -0.0390888, -0.556639, 8.41256e-05, -2.65151e-05, -0.000345032, 0.397649, 0.450629, 0.27934, 0.00174671, 0.00121091, 0.00940755
-0.020085, -0.0396884, -0.554472, 8.38326e-05, -2.66694e-05, -0.000342597, 0.397786, 0.451887, 0.279354, 0.00174614, 0.00121078, 0.00940053
-0.0212419, -0.0401435, -0.551872, 8.36591e-05, -2.68216e-05, -0.000342082, 0.398506, 0.454149, 0.279421, 0.00174448, 0.00121049, 0.00938836
-0.0216944, -0.039893, -0.552002, 8.41934e-05, -2.65527e-05, -0.000345292, 0.399792, 0.457157, 0.279516, 0.00174161, 0.00120989, 0.00937328
-0.0220765, -0.0392386, -0.550849, 8.54166e-05, -2.63554e-05, -0.00035096, 0.401573, 0.460627, 0.279593, 0.00173795, 0.00120895, 0.00935943
-0.02313, -0.0380281, -0.549485, 8.7603e-05, -2.57044e-05, -0.000359468, 0.403764, 0.464319, 0.279684, 0.00173402, 0.0012076, 0.0093486
-0.0240565, -0.0366557, -0.546857, 9.02437e-05, -2.49734e-05, -0.000367626, 0.406262, 0.467943, 0.279685, 0.00173054, 0.0012061, 0.0093425
-0.0253408, -0.0348917, -0.54498, 9.33138e-05, -2.36404e-05, -0.000374048, 0.409059, 0.471537, 0.279574, 0.00172737, 0.0012043, 0.00933897
-0.0266686, -0.0326256, -0.54466, 9.65404e-05, -2.25523e-05, -0.000376842, 0.412254, 0.475188, 0.27945, 0.00172441, 0.00120208, 0.00933672
-0.0280156, -0.0300638, -0.545631, 9.9615e-05, -2.17763e-05, -0.000375293, 0.415876, 0.478934, 0.279374, 0.00172172, 0.00119951, 0.00933501
-0.0288602, -0.0272757, -0.546116, 0.000103251, -2.16671e-05, -0.000373219, 0.419853, 0.482849, 0.27934, 0.00171912, 0.00119669, 0.00933328
-0.0293395, -0.024651, -0.547396, 0.000106664, -2.19338e-05, -0.000371286, 0.424093, 0.486916, 0.279371, 0.00171665, 0.00119372, 0.00933196
-0.0297687, -0.0224407, -0.550998, 0.000108991, -2.16076e-05, -0.000368683, 0.42848, 0.490963, 0.27945, 0.00171459, 0.00119065, 0.00933119
-0.0304271, -0.0202702, -0.554396, 0.000110635, -2.1376e-05, -0.000362686, 0.432806, 0.494614, 0.279496, 0.00171336, 0.0011879, 0.00932944
-0.0308203, -0.0182122, -0.557703, 0.000111405, -2.17997e-05, -0.000354062, 0.436817, 0.497587, 0.279495, 0.00171289, 0.0011857, 0.00932497
-0.0313372, -0.0165409, -0.561916, 0.000111454, -2.23084e-05, -0.00034646, 0.44025, 0.499773, 0.279461, 0.00171274, 0.00118416, 0.00931841
-0.0316321, -0.0154204, -0.565381, 0.000111204, -2.31918e-05, -0.000341871, 0.442829, 0.501185, 0.279366, 0.00171266, 0.00118317, 0.00931239
-0.031468, -0.0150531, -0.567589, 0.000111218, -2.37159e-05, -0.000341686, 0.444517, 0.50242, 0.279278, 0.00171254, 0.00118269, 0.0093112
-0.0314026, -0.0152963, -0.568233, 0.00011127, -2.37759e-05, -0.000342317, 0.445295, 0.503083, 0.279225, 0.00171243, 0.00118254, 0.00931067
-0.031218, -0.016143, -0.568079, 0.000111339, -2.37677e-05, -0.000342809, 0.445195, 0.503065, 0.279216, 0.00171233, 0.00118253, 0.00930983
-0.0304398, -0.0178906, -0.567536, 0.000111351, -2.38299e-05, -0.00034095, 0.444203, 0.502588, 0.279235, 0.00171218, 0.00118246, 0.00930746
-0.0298561, -0.0207673, -0.566207, 0.000110924, -2.42378e-05, -0.000331598, 0.442324, 0.501854, 0.279307, 0.00171195, 0.00118213, 0.00930092
-0.0293707, -0.0236447, -0.566529, 0.000110895, -2.45648e-05, -0.000321715, 0.439451, 0.500479, 0.279404, 0.00171176, 0.00118137, 0.00929232
-0.028696, -0.027635, -0.56929, 0.00011199, -2.49306e-05, -0.00031246, 0.43546, 0.49783, 0.279397, 0.00171152, 0.00118002, 0.00928747
-0.0275293, -0.032521, -0.571396, 0.000114708, -2.49685e-05, -0.000309146, 0.430735, 0.493746, 0.279287, 0.00171048, 0.00117803, 0.00928631
-0.0264052, -0.0374264, -0.570945, 0.000118629, -2.44064e-05, -0.000314764, 0.425974, 0.488579, 0.279172, 0.0017081, 0.00117578, 0.00928484
-0.0252301, -0.0420566, -0.568981, 0.000123252, -2.34134e-05, -0.000328394, 0.42165, 0.482737, 0.279062, 0.00170423, 0.00117364, 0.00927894
-0.0248242, -0.0456468, -0.566943, 0.000127266, -2.2818e-05, -0.000344002, 0.418061, 0.47675, 0.278965, 0.00169932, 0.00117189, 0.00926665
-0.0240169, -0.048851, -0.565244, 0.000130745, -2.21188e-05, -0.000358777, 0.415365, 0.471586, 0.278914, 0.00169502, 0.00117073, 0.00925364
-0.0233447, -0.0508703, -0.56363, 0.000132366, -2.18897e-05, -0.000364933, 0.413557, 0.468063, 0.278923, 0.00169266, 0.00117009, 0.00924667
-0.0235427, -0.0520238, -0.559094, 0.000132777, -2.21519e-05, -0.000366403, 0.412623, 0.466487, 0.278943, 0.00169207, 0.00116986, 0.0092452
-0.0236693, -0.0522835, -0.554105, 0.000132815, -2.21064e-05, -0.000366899, 0.412605, 0.466688, 0.278958, 0.00169203, 0.00116984, 0.0092445
-0.0235827, -0.0518399, -0.55003, 0.000133315, -2.17973e-05, -0.000369756, 0.413524, 0.468565, 0.27897, 0.00169111, 0.00116967, 0.00924026
-0.0238986, -0.0510294, -0.548401, 0.000134633, -2.13745e-05, -0.000375838, 0.415328, 0.471887, 0.278969, 0.00168792, 0.0011689, 0.00922821
-0.0237671, -0.0497795, -0.546428, 0.00013734, -2.10481e-05, -0.000387001, 0.417904, 0.476087, 0.27895, 0.00168256, 0.00116728, 0.00921037
-0.0239426, -0.0482872, -0.546287, 0.000141443, -2.06205e-05, -0.000403498, 0.421124, 0.480853, 0.278923, 0.00167508, 0.00116477, 0.00918525
-0.0241272, -0.046846, -0.546999, 0.000146154, -2.01105e-05, -0.000422584, 0.424922, 0.485755, 0.278899, 0.00166547, 0.00116124, 0.00914611
-0.0239968, -0.0455877, -0.548874, 0.000149847, -2.00156e-05, -0.000436135, 0.429256, 0.490243, 0.278882, 0.00165301, 0.00115674, 0.00907816
-0.0250213, -0.0599995, -0.556382, 0.000124042, -1.79499e-05, -0.000376704, 0.434093, 0.493612, 0.278889, 0.00163735, 0.00115159, 0.0089667
-0.0246319, -0.0505485, -0.556681, 0.000134266, -1.95212e-05, -0.000378389, 0.439338, 0.495307, 0.278888, 0.00161851, 0.00114641, 0.0088044
-0.0245915, -0.0424019, -0.557883, 0.00013742, -2.14572e-05, -0.000351503, 0.444805, 0.495496, 0.278896, 0.00159794, 0.00114183, 0.00860841
-0.0241435, -0.0361755, -0.560598, 0.000134983, -2.39533e-05, -0.000304652, 0.450285, 0.49478, 0.278951, 0.00157806, 0.00113824, 0.00840937
-0.0239341, -0.0317979, -0.56152, 0.000132752, -2.53879e-05, -0.000273025, 0.455435, 0.493818, 0.279045, 0.00156228, 0.00113578, 0.00824723
-0.0232666, -0.0296498, -0.563573, 0.00013059, -2.63082e-05, -0.000252034, 0.45982, 0.493058, 0.279166, 0.00155261, 0.00113434, 0.00814603
-0.0179811, -0.066066, -0.566678, 0.000135503, -2.26215e-05, -0.000354434, 0.463036, 0.492492, 0.279292, 0.00154827, 0.00113367, 0.00809903
-0.0108279, -0.10724, -0.563876, 0.000142706, -2.0757e-05, -0.000443845, 0.464652, 0.491964, 0.279324, 0.00154724, 0.00113348, 0.00808648
-0.00700755, -0.124577, -0.555092, 0.000148416, -2.07114e-05, -0.00047838, 0.464237, 0.491417, 0.279263, 0.0015469, 0.00113348, 0.00808392
-0.0128106, -0.0721281, -0.560373, 0.00013849, -2.0202e-05, -0.000429624, 0.461383, 0.490711, 0.279155, 0.00154297, 0.00113333, 0.00804781
-0.0180079, -0.0358314, -0.563285, 0.000131042, -2.03575e-05, -0.000401947, 0.45637, 0.489416, 0.279096, 0.00152935, 0.00113282, 0.0079131
-0.0229697, -0.0107825, -0.565356, 0.000121118, -2.08785e-05, -0.000352849, 0.450667, 0.487101, 0.279129, 0.00150425, 0.00113192, 0.00765963
-0.0267564, 0.0044232, -0.566701, 0.000111559, -2.13598e-05, -0.000298577, 0.446031, 0.484028, 0.279306, 0.00147132, 0.00113083, 0.00732193
-0.0291429, 0.0118832, -0.566783, 0.00010529, -2.17275e-05, -0.00025788, 0.443461, 0.480755, 0.279641, 0.00143614, 0.00112975, 0.00695563
-0.0310505, 0.0130931, -0.5649, 0.000101428, -2.26805e-05, -0.000222296, 0.443106, 0.477872, 0.280123, 0.00140296, 0.00112882, 0.0066027
-0.0320856, 0.0100298, -0.561657, 0.000100829, -2.39159e-05, -0.000203622, 0.444627, 0.475588, 0.280736, 0.00137344, 0.00112808, 0.00628038
-0.0330535, 0.00516752, -0.557941, 9.95734e-05, -2.54109e-05, -0.000179711, 0.447614, 0.473984, 0.281461, 0.001348, 0.00112755, 0.00599407
-0.0336427, -0.0003748, -0.554898, 9.73356e-05, -2.67008e-05, -0.000153804, 0.451612, 0.473145, 0.282285, 0.00132705, 0.0011272, 0.00574885
-0.0336614, -0.00615735, -0.553812, 9.38255e-05, -2.74732e-05, -0.000127572, 0.456122, 0.472982, 0.283194, 0.00131109, 0.00112697, 0.00555507
-0.0333336, -0.0119281, -0.553293, 9.05166e-05, -2.77411e-05, -0.000106434, 0.460738, 0.473425, 0.284097, 0.00130004, 0.00112685, 0.00541519
-0.0331688, -0.0172171, -0.552637, 8.71612e-05, -2.76772e-05, -8.5821e-05, 0.465075, 0.474437, 0.284904, 0.00129337, 0.00112681, 0.00532628
-0.0327195, -0.0220895, -0.551534, 8.50412e-05, -2.74958e-05, -7.50551e-05, 0.468719, 0.475861, 0.285525, 0.00129013, 0.00112679, 0.00528169
-0.0321991, -0.0265791, -0.550111, 8.33393e-05, -2.72746e-05, -6.88391e-05, 0.471257, 0.477394, 0.285855, 0.0012891, 0.00112674, 0.00526815
-0.0320076, -0.0300672, -0.549996, 8.22082e-05, -2.69657e-05, -6.6028e-05, 0.472408, 0.478706, 0.285857, 0.0012888, 0.00112663, 0.00526735
-0.0365823, -0.00871633, -0.551227, 8.85998e-05, -2.8501e-05, -7.37734e-05, 0.472031, 0.479564, 0.285557, 0.0012879, 0.00112643, 0.0052624
-0.0340839, -0.0214376, -0.549604, 8.48693e-05, -2.74312e-05, -7.18617e-05, 0.470156, 0.479826, 0.284971, 0.00128528, 0.00112608, 0.00523934
-0.031892, -0.0308246, -0.548849, 8.23454e-05, -2.62936e-05, -7.11447e-05, 0.466979, 0.479246, 0.284186, 0.00127983, 0.00112561, 0.0051849
-0.0298318, -0.0369304, -0.547883, 7.97679e-05, -2.55912e-05, -6.55438e-05, 0.462969, 0.477863, 0.283261, 0.00127098, 0.00112502, 0.00509067
-0.028301, -0.0410499, -0.550252, 7.99105e-05, -2.49773e-05, -6.32499e-05, 0.458895, 0.475969, 0.282263, 0.00125883, 0.00112434, 0.00495547
-0.0268661, -0.0433301, -0.551823, 7.92844e-05, -2.48334e-05, -5.49672e-05, 0.455592, 0.4739, 0.281301, 0.00124456, 0.00112365, 0.00479015
-0.0259213, -0.0444115, -0.554496, 8.0293e-05, -2.47941e-05, -5.00305e-05, 0.453585, 0.471844, 0.280518, 0.00122939, 0.00112296, 0.00460653
-0.0247312, -0.0441813, -0.557209, 8.07884e-05, -2.50791e-05, -3.78449e-05, 0.453091, 0.469896, 0.27998, 0.00121412, 0.00112232, 0.00441506
-0.024195, -0.0425337, -0.558644, 8.09494e-05, -2.55037e-05, -2.79626e-05, 0.454125, 0.468212, 0.279734, 0.00119991, 0.0011218, 0.00422623
-0.0237499, -0.0415499, -0.560915, 8.22858e-05, -2.57343e-05, -2.24422e-05, 0.456519, 0.466991, 0.279835, 0.00118773, 0.00112137, 0.00405257
-0.0232352, -0.0400059, -0.563073, 8.33476e-05, -2.60147e-05, -1.50752e-05, 0.459883, 0.466251, 0.280244, 0.00117798, 0.00112103, 0.00390591
-0.0229454, -0.0388709, -0.565268, 8.4883e-05, -2.62147e-05, -1.25945e-05, 0.463782, 0.465876, 0.280895, 0.00117048, 0.00112076, 0.00379171
-0.0225031, -0.0385176, -0.568642, 8.72211e-05, -2.63718e-05, -1.19498e-05, 0.467867, 0.46583, 0.281738, 0.00116508, 0.00112056, 0.00370925
-0.0221324, -0.0382597, -0.571911, 8.93401e-05, -2.64848e-05, -1.27348e-05, 0.47179, 0.466114, 0.282635, 0.00116158, 0.00112039, 0.00365597
-0.021651, -0.0375664, -0.573362, 9.00008e-05, -2.66322e-05, -1.13837e-05, 0.475208, 0.466707, 0.28342, 0.00115966, 0.00112025, 0.00362686
-0.0211111, -0.0374656, -0.571567, 8.90814e-05, -2.66699e-05, -8.09522e-06, 0.477846, 0.467552, 0.284002, 0.00115875, 0.00112013, 0.00361432
-0.0207846, -0.0377893, -0.568876, 8.82681e-05, -2.66501e-05, -5.99242e-06, 0.479447, 0.468598, 0.284313, 0.0011583, 0.00112001, 0.0036108
-0.0261049, -0.0704937, -0.565345, 7.67611e-05, -2.8486e-05, 4.22019e-05, 0.479781, 0.469728, 0.284279, 0.00115783, 0.00111989, 0.0036084
-0.0248587, -0.0551769, -0.564921, 8.14564e-05, -2.66179e-05, 2.52783e-05, 0.478815, 0.470742, 0.283804, 0.00115681, 0.00111976, 0.00359972
-0.0234996, -0.0620464, -0.56621, 8.06711e-05, -2.78008e-05, 2.21702e-05, 0.476866, 0.471486, 0.283124, 0.00115471, 0.0011196, 0.00357718
-0.0232126, -0.0460369, -0.565534, 8.34859e-05, -2.48889e-05, 2.33354e-05, 0.474385, 0.471955, 0.282324, 0.00115149, 0.0011194, 0.00353902
-0.0226793, -0.0357261, -0.563518, 8.65853e-05, -2.35932e-05, 2.1242e-05, 0.471795, 0.47223, 0.281538, 0.0011472, 0.00111923, 0.00348265
-0.0225925, -0.0293445, -0.561931, 8.8857e-05, -2.33289e-05, 1.94071e-05, 0.469551, 0.472393, 0.280864, 0.00114211, 0.00111907, 0.00340999
-0.0237899, -0.0252054, -0.562115, 8.8289e-05, -2.30504e-05, 2.86481e-05, 0.468041, 0.472458, 0.280409, 0.00113646, 0.00111891, 0.00332619
-0.0244213, -0.0238159, -0.560689, 8.92388e-05, -2.31765e-05, 3.15059e-05, 0.467474, 0.4725, 0.280148, 0.00113063, 0.00111885, 0.00323617
-0.0250734, -0.0241368, -0.558985, 9.01226e-05, -2.32806e-05, 3.50553e-05, 0.467976, 0.472586, 0.280137, 0.00112493, 0.00111883, 0.00314615
-0.0258957, -0.0250981, -0.556956, 9.1015e-05, -2.32906e-05, 4.01884e-05, 0.469478, 0.472764, 0.280418, 0.00111971, 0.00111883, 0.00306421
-0.0267168, -0.0266557, -0.554413, 9.21994e-05, -2.3174e-05, 4.51499e-05, 0.471763, 0.473108, 0.280986, 0.0011153, 0.00111882, 0.00299571
-0.0274089, -0.0283866, -0.551699, 9.35958e-05, -2.31288e-05, 4.83293e-05, 0.474525, 0.473606, 0.281837, 0.00111181, 0.0011188, 0.00294292
-0.0291836, -0.00276936, -0.553531, 9.81537e-05, -2.56193e-05, 4.13932e-05, 0.477413, 0.474233, 0.282859, 0.0011093, 0.00111874, 0.00290594
-0.028683, -0.0169568, -0.55083, 9.64869e-05, -2.39948e-05, 4.61199e-05, 0.480162, 0.474983, 0.283842, 0.00110761, 0.00111863, 0.00288234
-0.0281831, -0.0269931, -0.550353, 9.44935e-05, -2.24313e-05, 4.94574e-05, 0.482494, 0.475851, 0.284724, 0.00110673, 0.00111847, 0.00287118
-0.027647, -0.0345969, -0.54916, 9.32885e-05, -2.11471e-05, 5.11808e-05, 0.484225, 0.476796, 0.285355, 0.00110634, 0.00111828, 0.00286774
-0.0271145, -0.0400591, -0.547007, 9.2473e-05, -2.00612e-05, 5.22655e-05, 0.485218, 0.477734, 0.285603, 0.00110608, 0.00111807, 0.0028675
-0.0267167, -0.0432639, -0.545025, 9.1771e-05, -1.93152e-05, 5.33124e-05, 0.485424, 0.478561, 0.285489, 0.00110562, 0.00111782, 0.00286644
-0.0265813, -0.0450213, -0.544554, 9.14292e-05, -1.88483e-05, 5.35735e-05, 0.484901, 0.479185, 0.284992, 0.00110468, 0.00111754, 0.00286133
-0.0265218, -0.0457524, -0.544086, 9.12106e-05, -1.85995e-05, 5.36923e-05, 0.483853, 0.479574, 0.284226, 0.00110319, 0.00111722, 0.00285068
-0.0265853, -0.0459605, -0.544979, 9.16104e-05, -1.86607e-05, 5.32063e-05, 0.482497, 0.479738, 0.283331, 0.00110124, 0.00111691, 0.002834
-0.0268676, -0.0453775, -0.546038, 9.23496e-05, -1.88385e-05, 5.19621e-05, 0.481081, 0.479724, 0.282415, 0.0010988, 0.00111667, 0.00280986
-0.0264758, -0.0440921, -0.546334, 9.23123e-05, -1.91484e-05, 5.42509e-05, 0.47991, 0.47955, 0.28154, 0.00109572, 0.00111643, 0.00277715
-0.026134, -0.0439162, -0.550677, 9.521e-05, -1.95293e-05, 5.40543e-05, 0.47926, 0.479259, 0.280787, 0.0010921, 0.00111617, 0.00273711
-0.0258944, -0.0427678, -0.553273, 9.70437e-05, -2.00483e-05, 5.54035e-05, 0.479314, 0.478958, 0.280246, 0.00108831, 0.00111589, 0.00269333
-0.0252395, -0.0415357, -0.556033, 9.87883e-05, -2.06855e-05, 5.92708e-05, 0.480131, 0.478755, 0.280016, 0.00108466, 0.00111559, 0.0026496
-0.0176641, -0.0720072, -0.556663, 9.3637e-05, -1.81373e-05, 7.22612e-05, 0.481646, 0.478693, 0.280128, 0.00108129, 0.0011153, 0.00260942
-0.00721745, -0.107352, -0.560516, 8.87829e-05, -1.66673e-05, 9.66307e-05, 0.483701, 0.478728, 0.280545, 0.00107813, 0.00111502, 0.00257407
-0.013963, -0.0746514, -0.563511, 9.72002e-05, -1.7898e-05, 8.33862e-05, 0.486048, 0.478872, 0.281146, 0.00107541, 0.00111477, 0.0025462
-0.0159662, -0.0750437, -0.561097, 9.6017e-05, -1.71947e-05, 7.65711e-05, 0.488396, 0.479223, 0.281846, 0.00107368, 0.00111457, 0.00252995
-0.0166104, -0.110774, -0.555241, 8.80845e-05, -1.95252e-05, 7.5103e-05, 0.490421, 0.47968, 0.282453, 0.00107272, 0.00111438, 0.00252194
-0.0159233, -0.128269, -0.549596, 8.37491e-05, -2.13421e-05, 7.90662e-05, 0.49184, 0.480204, 0.282737, 0.00107228, 0.0011142, 0.00251929
-0.0156136, -0.13148, -0.549726, 8.35311e-05, -2.17917e-05, 7.92988e-05, 0.492546, 0.48079, 0.282663, 0.00107206, 0.001114, 0.00251916
-0.0171595, -0.114637, -0.55698, 8.52103e-05, -1.94333e-05, 7.82267e-05, 0.492674, 0.481438, 0.282328, 0.0010717, 0.00111381, 0.00251774
-0.0186844, -0.0925638, -0.560596, 8.70604e-05, -1.48038e-05, 7.8719e-05, 0.492459, 0.482116, 0.281873, 0.00107087, 0.00111359, 0.00251184
-0.0194159, -0.0795423, -0.561861, 8.80822e-05, -1.14926e-05, 7.96974e-05, 0.492103, 0.482743, 0.281364, 0.00106951, 0.00111334, 0.00250073
-0.0160398, -0.00231514, -0.570542, 9.73137e-05, 8.24954e-06, 6.91188e-05, 0.491791, 0.483296, 0.280841, 0.00106773, 0.00111306, 0.00248585
-0.0141297, 0.0470598, -0.576511, 0.000102386, 2.10224e-05, 6.45409e-05, 0.491741, 0.483758, 0.280434, 0.00106538, 0.00111279, 0.00246648
-0.0134533, 0.0740306, -0.57861, 0.000105316, 2.82926e-05, 6.71586e-05, 0.49204, 0.484186, 0.280153, 0.00106286, 0.00111248, 0.00244654
-0.0136557, 0.0844303, -0.57917, 0.000106122, 3.12221e-05, 7.21899e-05, 0.492648, 0.484613, 0.280019, 0.0010605, 0.00111211, 0.00242849
-0.0146769, 0.0832734, -0.578795, 0.000105667, 3.10011e-05, 7.44416e-05, 0.493434, 0.485024, 0.280017, 0.00105848, 0.0011117, 0.00241327
-0.0154376, 0.0736606, -0.575716, 0.000106287, 2.82266e-05, 6.6264e-05, 0.494336, 0.48547, 0.280138, 0.00105687, 0.00111129, 0.00240123
-0.0169365, 0.0590889, -0.572003, 0.000106468, 2.41192e-05, 5.13276e-05, 0.495353, 0.486053, 0.280382, 0.00105573, 0.00111078, 0.00239253
-0.0190063, 0.0422042, -0.568996, 0.000106012, 1.92104e-05, 3.18861e-05, 0.496367, 0.486736, 0.280758, 0.00105494, 0.00111012, 0.00238681
-0.0207217, 0.0243834, -0.565418, 0.0001058, 1.3615e-05, 9.39258e-06, 0.497298, 0.487476, 0.281209, 0.00105443, 0.00110942, 0.00238322
-0.0224007, 0.00695191, -0.56502, 0.000104954, 8.98737e-06, -1.23375e-05, 0.498096, 0.488246, 0.281736, 0.00105411, 0.00110864, 0.00238075
-0.0240588, -0.00923538, -0.562694, 0.000104343, 3.47458e-06, -3.07381e-05, 0.498771, 0.48903, 0.282328, 0.00105388, 0.00110775, 0.00237875
-0.0247961, -0.0241069, -0.560126, 0.000103445, -1.93788e-06, -4.18476e-05, 0.499449, 0.489805, 0.282854, 0.00105371, 0.00110696, 0.00237752
-0.0253214, -0.0374353, -0.557641, 0.000101866, -6.73593e-06, -4.29019e-05, 0.500154, 0.49048, 0.283259, 0.00105352, 0.00110629, 0.00237673
-0.0253373, -0.0483583, -0.557228, 0.000100211, -1.01732e-05, -3.59159e-05, 0.500806, 0.491006, 0.28333, 0.00105329, 0.0011059, 0.00237527
-0.0226751, -0.0514317, -0.555176, 9.97543e-05, -1.1692e-05, -3.0386e-05, 0.501337, 0.491436, 0.283084, 0.001053, 0.00110549, 0.00237155
-0.0265243, -0.0544249, -0.543712, 9.7175e-05, -8.15043e-06, -3.00246e-05, 0.501556, 0.491859, 0.282434, 0.00105263, 0.00110468, 0.00236466
-0.0245576, -0.0633644, -0.544855, 9.4707e-05, -1.09014e-05, -5.4303e-06, 0.501511, 0.492393, 0.281572, 0.00105218, 0.00110316, 0.0023543
-0.0235493, -0.0698121, -0.547467, 9.33163e-05, -1.42698e-05, 1.40711e-05, 0.501615, 0.493254, 0.280839, 0.0010516, 0.0011015, 0.00234055
-0.0233844, -0.0735511, -0.550672, 9.28521e-05, -1.71504e-05, 2.59724e-05, 0.501981, 0.494485, 0.280378, 0.00105089, 0.0011, 0.00232422
-0.0237481, -0.0756193, -0.551585, 9.22665e-05, -1.81427e-05, 3.24461e-05, 0.502397, 0.495979, 0.280153, 0.00105017, 0.00109856, 0.00230776
-0.0247225, -0.0759544, -0.552174, 9.21755e-05, -1.84019e-05, 3.26667e-05, 0.502789, 0.497539, 0.280149, 0.00104956, 0.00109738, 0.00229429
-0.0267761, -0.0750989, -0.553926, 9.24972e-05, -1.85887e-05, 2.90016e-05, 0.503215, 0.499005, 0.280276, 0.00104911, 0.00109657, 0.00228559
-0.0284777, -0.0735975, -0.555709, 9.288e-05, -1.84145e-05, 2.53158e-05, 0.503757, 0.50031, 0.280432, 0.00104879, 0.00109607, 0.00228116
-0.030026, -0.0713728, -0.557769, 9.3322e-05, -1.78554e-05, 2.23881e-05, 0.504504, 0.501424, 0.280561, 0.00104854, 0.00109579, 0.00227964
-0.0306204, -0.0685226, -0.558576, 9.37313e-05, -1.71295e-05, 2.14718e-05, 0.505428, 0.502312, 0.280626, 0.00104837, 0.00109556, 0.00227942
-0.0319019, -0.065403, -0.559148, 9.38948e-05, -1.62783e-05, 2.24822e-05, 0.506375, 0.502903, 0.280645, 0.00104825, 0.00109524, 0.00227906
-0.0330259, -0.0621137, -0.55895, 9.39171e-05, -1.56832e-05, 2.56676e-05, 0.507223, 0.503173, 0.280634, 0.00104817, 0.0010947, 0.00227735
-0.0337803, -0.0590637, -0.559324, 9.38058e-05, -1.50001e-05, 3.02714e-05, 0.507898, 0.503178, 0.280642, 0.00104809, 0.00109384, 0.00227341
-0.0346273, -0.0557924, -0.558914, 9.36603e-05, -1.47435e-05, 3.65434e-05, 0.508406, 0.50307, 0.280723, 0.00104797, 0.00109268, 0.00226726
-0.0356561, -0.0525629, -0.558878, 9.33598e-05, -1.43086e-05, 4.36637e-05, 0.508735, 0.502962, 0.280958, 0.0010478, 0.00109119, 0.00225923
-0.0364033, -0.0497611, -0.558222, 9.32132e-05, -1.4499e-05, 5.04355e-05, 0.508854, 0.502908, 0.281391, 0.00104758, 0.00108937, 0.00224952
-0.0368697, -0.0471007, -0.558467, 9.28788e-05, -1.41484e-05, 5.72139e-05, 0.508734, 0.502957, 0.282077, 0.00104733, 0.0010872, 0.0022386
-0.0367434, -0.0451103, -0.559109, 9.25609e-05, -1.36176e-05, 6.2249e-05, 0.508399, 0.503174, 0.283038, 0.00104708, 0.00108473, 0.00222721
-0.0358575, -0.0435369, -0.561155, 9.19799e-05, -1.18323e-05, 6.60768e-05, 0.507861, 0.503588, 0.284306, 0.00104682, 0.00108194, 0.00221597
-0.035741, -0.0421129, -0.561265, 9.18248e-05, -1.18309e-05, 6.95912e-05, 0.50727, 0.5042, 0.285742, 0.00104657, 0.00107937, 0.00220555
-0.0356466, -0.0410726, -0.560315, 9.19983e-05, -1.27358e-05, 7.19309e-05, 0.506676, 0.505025, 0.287327, 0.00104635, 0.00107691, 0.00219678
-0.0354716, -0.0405192, -0.561017, 9.18287e-05, -1.21741e-05, 7.30424e-05, 0.506176, 0.506043, 0.28898, 0.0010462, 0.0010747, 0.00219008
-0.0344396, -0.0400484, -0.561025, 9.18077e-05, -1.22456e-05, 7.33678e-05, 0.505809, 0.507132, 0.290594, 0.00104608, 0.00107282, 0.00218593
-0.0325239, -0.0395455, -0.563606, 9.12794e-05, -1.07108e-05, 7.34807e-05, 0.505606, 0.508165, 0.291995, 0.00104594, 0.00107148, 0.00218387
-0.0306601, -0.0392984, -0.564823, 9.09547e-05, -1.02288e-05, 7.32821e-05, 0.50561, 0.509123, 0.293075, 0.00104578, 0.00107067, 0.00218328
-0.0292454, -0.0391091, -0.565344, 9.07982e-05, -1.01953e-05, 7.31188e-05, 0.505901, 0.509989, 0.29366, 0.00104559, 0.00107034, 0.00218322
-0.02755, -0.0392748, -0.566196, 9.04759e-05, -1.02673e-05, 7.33049e-05, 0.506465, 0.510728, 0.293782, 0.00104532, 0.00107021, 0.00218201
-0.026291, -0.0392764, -0.564902, 9.03212e-05, -1.03492e-05, 7.3416e-05, 0.507144, 0.511334, 0.293316, 0.00104495, 0.00107012, 0.00217817
-0.0251525, -0.039527, -0.564407, 9.0099e-05, -1.03505e-05, 7.40559e-05, 0.507769, 0.511902, 0.292221, 0.00104448, 0.00106966, 0.00217101
-0.0244421, -0.0399532, -0.564238, 8.98424e-05, -1.03598e-05, 7.52381e-05, 0.508333, 0.512593, 0.290724, 0.00104392, 0.00106854, 0.0021605
-0.0238807, -0.0401483, -0.564032, 8.9614e-05, -1.03206e-05, 7.6064e-05, 0.508903, 0.513511, 0.289145, 0.00104325, 0.00106686, 0.0021467
-0.0239755, -0.0402007, -0.562949, 8.94739e-05, -9.53279e-06, 7.63224e-05, 0.509601, 0.514709, 0.287801, 0.00104251, 0.00106504, 0.0021307
-0.0239335, -0.0403778, -0.560856, 8.90657e-05, -7.96557e-06, 7.71256e-05, 0.510261, 0.516121, 0.286647, 0.00104181, 0.00106301, 0.00211519
-0.0242797, -0.0410288, -0.558445, 8.83791e-05, -6.11031e-06, 7.91912e-05, 0.510896, 0.517628, 0.28576, 0.00104121, 0.00106108, 0.0021022
-0.0246755, -0.0416425, -0.555521, 8.7598e-05, -3.83541e-06, 8.09348e-05, 0.511388, 0.51909, 0.285001, 0.00104072, 0.00105911, 0.00209267
-0.0257553, -0.04211, -0.553198, 8.69915e-05, -2.06313e-06, 8.16831e-05, 0.511941, 0.520443, 0.284422, 0.00104033, 0.00105748, 0.00208686
-0.026853, -0.0424518, -0.552034, 8.66806e-05, -1.19917e-06, 8.17055e-05, 0.512614, 0.52157, 0.283946, 0.00104003, 0.00105627, 0.0020844
-0.028158, -0.0431171, -0.552252, 8.66305e-05, -1.03678e-06, 8.14564e-05, 0.513511, 0.522414, 0.283585, 0.0010398, 0.00105561, 0.00208379
-0.0294765, -0.0440838, -0.553934, 8.6835e-05, -1.11916e-06, 8.06697e-05, 0.514597, 0.522979, 0.283319, 0.00103964, 0.00105533, 0.00208343
-0.0302153, -0.0449802, -0.554937, 8.6899e-05, -1.00357e-06, 7.97185e-05, 0.515765, 0.523307, 0.283117, 0.00103954, 0.00105517, 0.00208214
-0.0309293, -0.0456298, -0.556245, 8.69626e-05, -7.25403e-07, 7.87416e-05, 0.516934, 0.523469, 0.282997, 0.00103949, 0.00105499, 0.00207917
-0.0311419, -0.0463786, -0.556587, 8.69508e-05, -6.33552e-07, 7.74934e-05, 0.518047, 0.523565, 0.282957, 0.00103946, 0.00105473, 0.0020745
-0.0315335, -0.0465826, -0.556526, 8.6924e-05, -5.76594e-07, 7.71259e-05, 0.519089, 0.523709, 0.283019, 0.00103941, 0.00105435, 0.00206849
-0.0322851, -0.0462836, -0.556898, 8.68021e-05, -2.62453e-07, 7.77025e-05, 0.520048, 0.523971, 0.283244, 0.00103931, 0.0010538, 0.00206152
-0.0326379, -0.0457643, -0.557758, 8.66219e-05, 2.39e-07, 7.88491e-05, 0.520863, 0.524364, 0.283715, 0.00103914, 0.00105295, 0.00205377
-0.0325148, -0.0448556, -0.55902, 8.63551e-05, 9.98487e-07, 8.06803e-05, 0.521477, 0.524891, 0.28444, 0.00103892, 0.00105183, 0.00204554
-0.0320145, -0.0441232, -0.561243, 8.58282e-05, 2.43182e-06, 8.19853e-05, 0.52184, 0.525554, 0.285446, 0.00103865, 0.00105039, 0.00203723
-0.031217, -0.0435168, -0.563517, 8.5288e-05, 3.99149e-06, 8.29341e-05, 0.521943, 0.52636, 0.286705, 0.00103838, 0.00104871, 0.00202935
-0.0301203, -0.0431729, -0.56474, 8.50694e-05, 4.75906e-06, 8.32918e-05, 0.521834, 0.527289, 0.288071, 0.00103813, 0.00104708, 0.00202226
-0.0295113, -0.0426964, -0.564339, 8.52244e-05, 4.44494e-06, 8.4032e-05, 0.521603, 0.528354, 0.289463, 0.00103792, 0.0010456, 0.00201626
-0.0281952, -0.0419136, -0.564964, 8.51383e-05, 4.75453e-06, 8.50031e-05, 0.521334, 0.529521, 0.290842, 0.00103777, 0.0010443, 0.00201177
-0.0264953, -0.0416018, -0.566387, 8.48516e-05, 5.49835e-06, 8.50166e-05, 0.521082, 0.530664, 0.2921, 0.00103764, 0.00104325, 0.00200902
-8.80264e-05, -0.0361508, -0.566401, 8.34131e-05, 4.80534e-06, 8.40319e-05, 0.52093, 0.53169, 0.293118, 0.00103752, 0.00104254, 0.00200782
-0.0103212, -0.0388681, -0.566357, 8.40596e-05, 5.21118e-06, 8.46961e-05, 0.520902, 0.532526, 0.293873, 0.00103739, 0.00104204, 0.00200758
-0.0172243, -0.0406611, -0.566358, 8.48401e-05, 5.62782e-06, 8.55796e-05, 0.521022, 0.53308, 0.294188, 0.00103724, 0.00104186, 0.00200739
-0.0211655, -0.0424484, -0.564792, 8.52828e-05, 6.06324e-06, 8.70402e-05, 0.521228, 0.533326, 0.293858, 0.001037, 0.0010418, 0.00200573
-0.0235817, -0.0435143, -0.562079, 8.55751e-05, 6.90988e-06, 8.81242e-05, 0.521465, 0.53337, 0.293039, 0.00103666, 0.00104155, 0.00200143
-0.0244048, -0.0444162, -0.559349, 8.54661e-05, 8.31186e-06, 8.95025e-05, 0.521678, 0.533452, 0.291683, 0.00103619, 0.00104072, 0.00199421
-0.0238198, -0.0443744, -0.556322, 8.51339e-05, 1.01907e-05, 8.94749e-05, 0.521839, 0.533746, 0.289965, 0.00103555, 0.00103902, 0.0019843
-0.0228157, -0.0445626, -0.55608, 8.47116e-05, 1.02501e-05, 9.05614e-05, 0.521988, 0.534346, 0.288166, 0.00103476, 0.00103651, 0.00197228
-0.0541754, -0.0484226, -0.560004, 9.43889e-05, 1.3692e-05, 8.17694e-05, 0.522193, 0.535276, 0.28654, 0.00103388, 0.00103354, 0.00195931
-0.0728622, -0.05245, -0.553478, 9.88176e-05, 2.442e-05, 8.10808e-05, 0.522253, 0.536431, 0.285081, 0.00103304, 0.00103007, 0.00194605
-0.0458443, -0.0483864, -0.552882, 9.15115e-05, 1.97136e-05, 8.52833e-05, 0.52202, 0.537618, 0.283799, 0.00103234, 0.00102621, 0.00193472
-0.0260447, -0.0454412, -0.552183, 8.60332e-05, 1.65305e-05, 8.91803e-05, 0.52184, 0.538771, 0.282856, 0.00103173, 0.00102265, 0.00192762
-0.0124782, -0.0433302, -0.551589, 8.23246e-05, 1.44113e-05, 9.17185e-05, 0.521965, 0.539845, 0.28228, 0.0010312, 0.0010199, 0.00192379
-0.00424588, -0.0421759, -0.550565, 8.01585e-05, 1.36204e-05, 9.3371e-05, 0.522342, 0.540771, 0.281912, 0.00103079, 0.00101786, 0.00192238
-0.000282795, -0.0415586, -0.550325, 7.919e-05, 1.29182e-05, 9.40941e-05, 0.523068, 0.541533, 0.281632, 0.00103044, 0.00101652, 0.0019222
0.000777943, -0.0416093, -0.550877, 7.89953e-05, 1.24666e-05, 9.41345e-05, 0.524184, 0.54219, 0.28135, 0.0010301, 0.00101566, 0.00192188
0.000279952, -0.0422957, -0.552159, 7.92567e-05, 1.2489e-05, 9.33724e-05, 0.525725, 0.542907, 0.281078, 0.00102977, 0.00101507, 0.00192022
-0.00112272, -0.0432352, -0.554428, 7.9694e-05, 1.31644e-05, 9.25118e-05, 0.527567, 0.543819, 0.280828, 0.00102952, 0.00101449, 0.0019168
-0.00306746, -0.0440428, -0.55679, 7.9937e-05, 1.43476e-05, 9.21725e-05, 0.529499, 0.54491, 0.280572, 0.00102933, 0.00101383, 0.0019115
-0.00499419, -0.0444264, -0.558863, 7.99218e-05, 1.55653e-05, 9.28061e-05, 0.531396, 0.546117, 0.280372, 0.00102911, 0.0010131, 0.00190464
-0.00696885, -0.0451521, -0.560281, 7.96663e-05, 1.68474e-05, 9.31324e-05, 0.533185, 0.54737, 0.280313, 0.00102882, 0.00101237, 0.00189673
-0.00919201, -0.0453135, -0.560379, 7.96459e-05, 1.75558e-05, 9.50532e-05, 0.534765, 0.548564, 0.280465, 0.00102841, 0.00101169, 0.00188884
-0.0116784, -0.0453781, -0.559327, 7.99148e-05, 1.77611e-05, 9.73906e-05, 0.536032, 0.549589, 0.280806, 0.0010279, 0.00101109, 0.00188222
-0.0137204, -0.044873, -0.559284, 7.97797e-05, 1.80871e-05, 9.9789e-05, 0.536928, 0.550364, 0.281306, 0.00102734, 0.00101053, 0.00187743
-0.0160801, -0.0449473, -0.558787, 7.96588e-05, 1.81165e-05, 0.000101073, 0.537391, 0.55081, 0.281922, 0.00102673, 0.00100994, 0.0018744
-0.0182024, -0.0444112, -0.558483, 7.93797e-05, 1.80966e-05, 0.00010222, 0.537317, 0.550835, 0.282562, 0.00102615, 0.00100931, 0.00187292
-0.0198622, -0.0440325, -0.557913, 7.91604e-05, 1.78641e-05, 0.000102436, 0.536598, 0.550335, 0.283103, 0.00102567, 0.00100863, 0.0018724
-0.0208468, -0.042966, -0.560815, 7.81437e-05, 1.87204e-05, 0.00010216, 0.535263, 0.549332, 0.283486, 0.00102519, 0.00100788, 0.00187201
-0.0219511, -0.0425021, -0.561852, 7.7664e-05, 1.88209e-05, 0.000101392, 0.533604, 0.548055, 0.283654, 0.00102467, 0.0010071, 0.00187113
-0.0228265, -0.0426665, -0.560865, 7.75404e-05, 1.84143e-05, 0.000100823, 0.531955, 0.546738, 0.283762, 0.00102419, 0.00100625, 0.00186966
-0.0231544, -0.0429439, -0.560729, 7.75008e-05, 1.82019e-05, 0.000100694, 0.530446, 0.545454, 0.283937, 0.00102368, 0.0010053, 0.00186758
-0.0233097, -0.043315, -0.561657, 7.74894e-05, 1.82164e-05, 0.000100685, 0.529094, 0.544212, 0.284148, 0.00102311, 0.00100433, 0.00186528
-0.0233359, -0.0439307, -0.563599, 7.74976e-05, 1.8193e-05, 0.000100876, 0.527882, 0.543018, 0.284262, 0.00102244, 0.00100343, 0.00186307
-0.0236554, -0.044771, -0.56298, 7.75097e-05, 1.77682e-05, 0.000101314, 0.526856, 0.541983, 0.284298, 0.00102172, 0.00100255, 0.00186105
-0.0241726, -0.0458453, -0.561858, 7.7421e-05, 1.72133e-05, 0.000101935, 0.52612, 0.541235, 0.284316, 0.00102102, 0.00100173, 0.00185925
-0.0244917, -0.0467707, -0.560583, 7.73277e-05, 1.67511e-05, 0.00010254, 0.525766, 0.540884, 0.284352, 0.00102037, 0.00100096, 0.00185771
-0.0244603, -0.0477154, -0.558403, 7.71891e-05, 1.62822e-05, 0.000103285, 0.525937, 0.541083, 0.284368, 0.00101974, 0.00100026, 0.00185646
-0.0247962, -0.0477155, -0.557489, 7.69907e-05, 1.62505e-05, 0.000103324, 0.526684, 0.541861, 0.284394, 0.00101916, 0.000999641, 0.00185554
-0.0250191, -0.0477221, -0.557182, 7.69234e-05, 1.63014e-05, 0.000103311, 0.527926, 0.54313, 0.284299, 0.00101862, 0.000999145, 0.00185491
-0.025265, -0.0475438, -0.555559, 7.67727e-05, 1.67395e-05, 0.000103071, 0.529535, 0.544798, 0.284017, 0.0010181, 0.00099861, 0.00185438
-0.025764, -0.0473875, -0.555669, 7.67645e-05, 1.69349e-05, 0.000102949, 0.53144, 0.546796, 0.283649, 0.00101754, 0.000997944, 0.0018541
-0.025197, -0.0471941, -0.554458, 7.67339e-05, 1.70015e-05, 0.000102939, 0.533615, 0.549061, 0.283285, 0.00101689, 0.000997176, 0.00185396
-0.0253897, -0.0471081, -0.555058, 7.68763e-05, 1.69069e-05, 0.000102909, 0.535904, 0.551462, 0.282868, 0.00101615, 0.000996223, 0.00185383
-0.0251127, -0.046968, -0.555106, 7.68991e-05, 1.67301e-05, 0.000102804, 0.538193, 0.553883, 0.282412, 0.00101534, 0.000995107, 0.00185368
-0.0247231, -0.0468819, -0.5542, 7.67245e-05, 1.68556e-05, 0.000102702, 0.540459, 0.556267, 0.281962, 0.00101443, 0.000993871, 0.00185346
-0.0240323, -0.0467768, -0.554192, 7.64901e-05, 1.64978e-05, 0.000102402, 0.542612, 0.558538, 0.281504, 0.00101342, 0.000992464, 0.00185316
-0.0226242, -0.0460166, -0.554199, 7.60942e-05, 1.5582e-05, 0.000101737, 0.544536, 0.560585, 0.281035, 0.00101233, 0.000990858, 0.00185285
-0.0234697, -0.045807, -0.558374, 7.68564e-05, 1.36975e-05, 0.000101913, 0.546159, 0.562354, 0.280577, 0.00101118, 0.000989053, 0.00185253
-0.0236912, -0.0456584, -0.561032, 7.7136e-05, 1.24098e-05, 0.000101862, 0.547546, 0.563852, 0.280173, 0.00101001, 0.000987262, 0.00185222
-0.0232059, -0.0450728, -0.560946, 7.69472e-05, 1.20235e-05, 0.000101688, 0.548752, 0.565119, 0.279827, 0.00100885, 0.000985545, 0.00185195
-0.0233023, -0.0450273, -0.56292, 7.70975e-05, 1.1157e-05, 0.000101662, 0.549684, 0.566089, 0.279518, 0.00100774, 0.000983903, 0.0018517
-0.0226956, -0.0451207, -0.562968, 7.67714e-05, 1.1147e-05, 0.000101514, 0.550336, 0.566751, 0.279262, 0.0010067, 0.000982381, 0.00185149
-0.0221396, -0.0449185, -0.563333, 7.65058e-05, 1.08733e-05, 0.000101379, 0.550839, 0.56723, 0.279062, 0.00100574, 0.000981006, 0.00185134
-0.0214827, -0.0450857, -0.563239, 7.61858e-05, 1.0966e-05, 0.000101229, 0.551214, 0.567552, 0.278906, 0.00100489, 0.000979813, 0.00185123
-0.0214374, -0.0455445, -0.564161, 7.61986e-05, 1.08904e-05, 0.000101162, 0.551474, 0.567745, 0.278785, 0.00100415, 0.000978796, 0.00185116
-0.0206627, -0.0457855, -0.563712, 7.58935e-05, 1.11003e-05, 0.000101065, 0.551651, 0.567851, 0.278691, 0.00100354, 0.000977961, 0.00185112
-0.020012, -0.045987, -0.563126, 7.56728e-05, 1.12985e-05, 0.000101015, 0.551766, 0.567893, 0.278616, 0.00100305, 0.000977302, 0.0018511
-0.0201113, -0.0462083, -0.562868, 7.57158e-05, 1.1423e-05, 0.000101003, 0.551844, 0.5679, 0.278556, 0.00100267, 0.000976801, 0.00185108
-0.0200387, -0.0465638, -0.562211, 7.57265e-05, 1.16175e-05, 0.000100977, 0.551913, 0.567903, 0.278513, 0.00100239, 0.000976435, 0.00185107
-0.0199536, -0.0468183, -0.561394, 7.57475e-05, 1.17763e-05, 0.000100958, 0.551991, 0.567923, 0.278479, 0.00100219, 0.000976179, 0.00185106
-0.0194738, -0.0473533, -0.561107, 7.56747e-05, 1.18966e-05, 0.000100979, 0.552093, 0.567974, 0.278452, 0.00100205, 0.000976008, 0.00185105
-0.0195496, -0.0480278, -0.560732, 7.56964e-05, 1.20251e-05, 0.000100976, 0.552238, 0.568076, 0.278436, 0.00100195, 0.000975901, 0.00185103
-0.0192432, -0.0483268, -0.56074, 7.56606e-05, 1.20492e-05, 0.000100999, 0.552432, 0.568237, 0.278423, 0.00100188, 0.000975837, 0.00185101
-0.0194922, -0.0487083, -0.559977, 7.57156e-05, 1.21182e-05, 0.000100988, 0.55268, 0.568462, 0.278411, 0.00100183, 0.0009758, 0.00185099
-0.019143, -0.0487287, -0.559148, 7.57585e-05, 1.21254e-05, 0.000101002, 0.552986, 0.568754, 0.278406, 0.00100179, 0.000975777, 0.00185097
-0.019328, -0.0491704, -0.558826, 7.57545e-05, 1.21536e-05, 0.000101011, 0.553351, 0.569113, 0.278401, 0.00100176, 0.000975759, 0.00185095
-0.0195253, -0.0494491, -0.558374, 7.57679e-05, 1.21725e-05, 0.000101006, 0.553779, 0.569545, 0.278397, 0.00100172, 0.00097574, 0.00185093
-0.0198272, -0.0495372, -0.557864, 7.57926e-05, 1.2195e-05, 0.000100989, 0.55427, 0.570047, 0.278398, 0.00100168, 0.000975716, 0.00185091
-0.0198146, -0.0494617, -0.557491, 7.58203e-05, 1.2192e-05, 0.000100991, 0.554817, 0.570612, 0.278396, 0.00100164, 0.000975686, 0.00185089
-0.0197279, -0.0495347, -0.557103, 7.58334e-05, 1.21773e-05, 0.000100997, 0.555421, 0.57124, 0.278399, 0.00100159, 0.000975647, 0.00185087
-0.019619, -0.0496283, -0.556738, 7.5841e-05, 1.21577e-05, 0.000101004, 0.556074, 0.571922, 0.278401, 0.00100153, 0.000975602, 0.00185086
-0.019688, -0.0497553, -0.556033, 7.5851e-05, 1.21489e-05, 0.000101011, 0.556769, 0.572649, 0.278402, 0.00100147, 0.000975551, 0.00185084
-0.0198946, -0.0498031, -0.555637, 7.58514e-05, 1.21659e-05, 0.000101007, 0.557501, 0.573415, 0.278402, 0.00100141, 0.000975494, 0.00185083
-0.0194691, -0.0499601, -0.555607, 7.58435e-05, 1.21092e-05, 0.000101018, 0.558266, 0.574216, 0.278403, 0.00100134, 0.000975433, 0.00185082
-0.0195577, -0.0497527, -0.555261, 7.58753e-05, 1.21192e-05, 0.000101016, 0.55906, 0.575047, 0.278407, 0.00100127, 0.000975369, 0.00185081
-0.0197176, -0.0501943, -0.555842, 7.57999e-05, 1.21397e-05, 0.000101032, 0.559873, 0.575896, 0.278409, 0.00100119, 0.000975302, 0.0018508
-0.0197064, -0.0503404, -0.555695, 7.57816e-05, 1.21306e-05, 0.000101042, 0.560708, 0.576767, 0.278413, 0.00100112, 0.000975234, 0.00185079
-0.0197239, -0.050496, -0.555706, 7.57582e-05, 1.21296e-05, 0.000101049, 0.561552, 0.577645, 0.278414, 0.00100105, 0.000975165, 0.00185078
-0.0198697, -0.0506206, -0.555845, 7.57379e-05, 1.21493e-05, 0.000101056, 0.562402, 0.578528, 0.278414, 0.00100097, 0.000975095, 0.00185078
-0.0200548, -0.0509171, -0.556102, 7.56931e-05, 1.21719e-05, 0.000101072, 0.563254, 0.579413, 0.278415, 0.0010009, 0.000975026, 0.00185077
-0.0202965, -0.0511135, -0.556269, 7.5664e-05, 1.22041e-05, 0.000101079, 0.564106, 0.580297, 0.278416, 0.00100082, 0.000974958, 0.00185076
-0.0205887, -0.0513249, -0.556489, 7.56348e-05, 1.22439e-05, 0.000101091, 0.564957, 0.581179, 0.278422, 0.00100075, 0.000974891, 0.00185075
-0.020878, -0.0515058, -0.556662, 7.56096e-05, 1.22831e-05, 0.000101099, 0.565804, 0.582056, 0.278426, 0.00100068, 0.000974824, 0.00185075
