-0.00848229, 0.00233912, -0.561964, 3.77506e-05, 0.0026024, -0.000218969, 0.0316228, 0.0316228, 0.0316228, 0.0316228, 0.0316228, 0.0316228
-0.00848229, 0.00233912, -0.561964, 3.77506e-05, 0.0026024, -0.000218969, 0.172293, 0.172293, 0.172293, 0.0316228, 0.0316228, 0.0316228
-0.00850285, 0.00230571, -0.561853, 3.67631e-05, 0.00260242, -0.000210434, 0.193099, 0.193099, 0.193056, 0.0315723, 0.0315723, 0.031607
-0.00855647, 0.00222345, -0.561533, 2.60621e-05, 0.00260986, -0.000213483, 0.211458, 0.211459, 0.211137, 0.0314831, 0.0314831, 0.0315912
-0.00874608, 0.00208476, -0.560541, 9.83061e-06, 0.00263221, -0.000212221, 0.22787, 0.22787, 0.226662, 0.0313433, 0.0313433, 0.0315754
-0.00852112, 0.0017316, -0.559265, -3.20981e-05, 0.00260761, -0.000214777, 0.242735, 0.242736, 0.239566, 0.0311502, 0.0311501, 0.0315597
-0.00780825, 0.00151979, -0.558395, -5.76337e-05, 0.00252365, -0.000214068, 0.256356, 0.256358, 0.249813, 0.0309052, 0.0309051, 0.031544
-0.00711992, 0.00121402, -0.557824, -9.14036e-05, 0.00244444, -0.000209863, 0.268928, 0.268931, 0.257566, 0.0306073, 0.0306071, 0.0315282
-0.00612238, 0.00111065, -0.557372, -0.000102841, 0.00232581, -0.000213816, 0.280573, 0.280577, 0.263217, 0.0302505, 0.0302502, 0.0315125
-0.00506647, 0.00110891, -0.557943, -0.000105144, 0.00219538, -0.000213879, 0.291347, 0.291353, 0.267255, 0.0298255, 0.0298251, 0.0314968
-0.00389677, 0.00112473, -0.557797, -0.000104755, 0.00204806, -0.000219817, 0.301306, 0.301314, 0.270158, 0.0293227, 0.0293223, 0.031481
-0.00277379, 0.00100974, -0.559156, -0.000124374, 0.00191722, -0.000219708, 0.31051, 0.310519, 0.272292, 0.0287358, 0.0287352, 0.0314652
-0.00055488, 0.00092391, -0.556761, -0.000140778, 0.00162286, -0.000229323, 0.319043, 0.319053, 0.273897, 0.0280655, 0.0280648, 0.0314495
0.000654278, 0.0014229, -0.556384, -8.15313e-05, 0.00148578, -0.000217973, 0.327036, 0.327045, 0.275147, 0.0273199, 0.0273196, 0.0314338
0.000921179, 0.00254714, -0.559655, 7.01429e-05, 0.00147863, -0.000215118, 0.334749, 0.334679, 0.276431, 0.0265084, 0.0265242, 0.0314182
0.00245977, 0.00318607, -0.556036, 0.000149741, 0.00122301, -0.000213306, 0.342255, 0.34228, 0.27684, 0.0256218, 0.0256183, 0.0314026
0.00206046, 0.00310783, -0.558229, 0.000122142, 0.00128184, -0.000215048, 0.35015, 0.35005, 0.277741, 0.0246708, 0.024705, 0.0313871
0.00165981, 0.00240386, -0.571267, -5.06537e-05, 0.00136068, -0.000222702, 0.358406, 0.358009, 0.279492, 0.0237298, 0.0238608, 0.0313715
0.000172219, 0.00270912, -0.569116, 2.7441e-05, 0.00155885, -0.000218231, 0.366896, 0.366148, 0.282106, 0.0228537, 0.0231144, 0.031355
-0.000407101, 0.00317622, -0.561423, 8.57723e-05, 0.00158742, -0.000223966, 0.375074, 0.374274, 0.28329, 0.0220544, 0.0223463, 0.0313395
-0.000669205, 0.00351338, -0.562581, 0.00013001, 0.00160527, -0.000225727, 0.382963, 0.382295, 0.283215, 0.0213204, 0.0215803, 0.0313241
2.65583e-05, 0.00395672, -0.564898, 0.000195537, 0.00153506, -0.000223814, 0.390582, 0.390179, 0.282185, 0.0206585, 0.0208418, 0.0313085
0.00092314, 0.00410953, -0.564912, 0.000214201, 0.00144617, -0.000217183, 0.397834, 0.397794, 0.279832, 0.0200618, 0.0201275, 0.0312928
0.00136065, 0.0036798, -0.559399, 0.000133975, 0.00132593, -0.00021349, 0.405101, 0.405188, 0.278549, 0.0195424, 0.0195528, 0.0312767
0.00323553, 0.00318098, -0.563641, 0.000109019, 0.00115029, -0.000210542, 0.412409, 0.412498, 0.278289, 0.0190864, 0.0190775, 0.0312608
0.00582026, 0.00317658, -0.566176, 0.000154187, 0.000931386, -0.000211171, 0.419648, 0.419765, 0.278261, 0.0186763, 0.018662, 0.0312455
0.00733938, 0.00278024, -0.567426, 0.000130232, 0.000795968, -0.000208107, 0.426838, 0.427015, 0.27833, 0.0183215, 0.0183062, 0.0312302
0.00880916, 0.00191665, -0.567815, 5.79704e-05, 0.000673362, -0.000221611, 0.433973, 0.4342, 0.278487, 0.0180125, 0.0179999, 0.0312145
0.00984448, 0.0015554, -0.568759, 2.97256e-05, 0.000595571, -0.00022716, 0.440993, 0.441305, 0.278643, 0.0177345, 0.0177208, 0.0311983
0.0105156, 0.00150363, -0.567972, 4.09223e-05, 0.000526666, -0.000228904, 0.447943, 0.44835, 0.278657, 0.0174736, 0.0174552, 0.0311812
0.010945, 0.00145002, -0.567787, 4.00751e-05, 0.000511575, -0.000232159, 0.454913, 0.455407, 0.278852, 0.0172216, 0.0171978, 0.0311627
0.0109045, 0.00142043, -0.566698, 3.47866e-05, 0.00050038, -0.000232328, 0.46195, 0.462528, 0.279416, 0.0169748, 0.0169502, 0.0311431
0.0108469, 0.00140255, -0.56512, 2.37268e-05, 0.00047761, -0.000235373, 0.469035, 0.469736, 0.27993, 0.0167277, 0.016703, 0.0311232
0.0107386, 0.00145462, -0.565168, 2.99948e-05, 0.000474639, -0.000235307, 0.476163, 0.477028, 0.280212, 0.0164786, 0.0164501, 0.0311029
0.0106624, 0.00182729, -0.564837, 8.83883e-05, 0.000463329, -0.000221135, 0.48338, 0.484413, 0.281218, 0.0162378, 0.0161937, 0.0310824
0.0112697, 0.00218381, -0.570837, 0.000104202, 0.000495185, -0.00021598, 0.490695, 0.491926, 0.285253, 0.0160377, 0.0159389, 0.031062
0.0117282, 0.00232332, -0.576986, 7.52467e-05, 0.000537184, -0.000224393, 0.498029, 0.499531, 0.293114, 0.015904, 0.0156888, 0.0310408
0.0122632, 0.00260342, -0.581698, 1.01222e-06, 0.000527203, -0.00024482, 0.505284, 0.507102, 0.303122, 0.015819, 0.0154503, 0.0310134
0.0127621, 0.00326264, -0.584663, -8.74097e-05, 0.000506208, -0.000265534, 0.512429, 0.514506, 0.313637, 0.0157491, 0.0152287, 0.0309839
0.0130747, 0.00453182, -0.587156, -0.000200907, 0.000495867, -0.000289139, 0.519476, 0.521512, 0.323805, 0.0156605, 0.0150199, 0.0309603
0.0130209, 0.00576055, -0.588742, -0.000287781, 0.000511288, -0.000307534, 0.526451, 0.527662, 0.332936, 0.0155114, 0.0148199, 0.0309393
0.0134471, 0.00806852, -0.591178, -0.000472129, 0.000526353, -0.000350497, 0.533367, 0.532067, 0.340146, 0.0152374, 0.0146249, 0.0309109
0.0136364, 0.00920307, -0.592484, -0.000627205, 0.000524211, -0.000400802, 0.540219, 0.533671, 0.344667, 0.0147977, 0.0144382, 0.0308637
0.0134146, 0.00794068, -0.591786, -0.000711788, 0.000509457, -0.000449908, 0.547019, 0.531789, 0.347065, 0.0142239, 0.0142607, 0.0307889
0.0131991, 0.00694273, -0.591653, -0.000878669, 0.000479274, -0.000528324, 0.55379, 0.526484, 0.348947, 0.013582, 0.0140899, 0.0306817
0.0129749, 0.00201062, -0.588976, -0.000877117, 0.000456258, -0.0005722, 0.560528, 0.517705, 0.35007, 0.0128834, 0.0139141, 0.0305366
0.0128972, -0.00463298, -0.584318, -0.000679254, 0.000482, -0.000525639, 0.567189, 0.505516, 0.349256, 0.0121544, 0.0137318, 0.0303537
0.0129606, -0.0104594, -0.579539, -0.000473587, 0.000513558, -0.000466085, 0.573704, 0.4928, 0.34877, 0.011549, 0.0135656, 0.0301422
0.0130272, -0.0133555, -0.576227, -0.000311509, 0.00055027, -0.000394566, 0.580052, 0.482385, 0.35176, 0.0111302, 0.0134303, 0.0299048
0.0135421, -0.0159791, -0.573971, -0.000207833, 0.000557448, -0.000394342, 0.586237, 0.47429, 0.357738, 0.0108395, 0.0133219, 0.029631
0.0139851, -0.0178777, -0.571784, -0.000109666, 0.000574744, -0.000374562, 0.592262, 0.468028, 0.365043, 0.0106245, 0.0132321, 0.0293307
0.0143634, -0.0193303, -0.569759, -2.33148e-05, 0.00059632, -0.000341397, 0.598127, 0.462725, 0.373066, 0.0104488, 0.0131587, 0.0289914
0.0146864, -0.0201405, -0.568358, 3.31059e-05, 0.000614257, -0.000316179, 0.603845, 0.457609, 0.38136, 0.0102902, 0.0130985, 0.0286041
0.0149352, -0.0205377, -0.567072, 8.03542e-05, 0.000631734, -0.000288788, 0.609422, 0.451933, 0.389641, 0.0101322, 0.0130495, 0.0281657
0.0151889, -0.0216002, -0.566583, 0.000106485, 0.000641269, -0.000284929, 0.614856, 0.445272, 0.397699, 0.00996788, 0.0130099, 0.0276783
0.015146, -0.0210008, -0.566085, 0.00011566, 0.000648917, -0.000257681, 0.62019, 0.438103, 0.40541, 0.00980635, 0.012978, 0.0271522
0.0157438, -0.0203092, -0.56291, 0.000196782, 0.00067124, -0.000266596, 0.625466, 0.431676, 0.412712, 0.00966608, 0.0129532, 0.0266061
0.0160612, -0.0202344, -0.561916, 0.000220185, 0.000680412, -0.000275282, 0.630753, 0.428106, 0.419524, 0.0095713, 0.0129347, 0.0260745
0.0154735, -0.016421, -0.555342, 0.000322958, 0.000691159, -0.000216198, 0.636073, 0.427862, 0.425762, 0.00951758, 0.0129218, 0.0255704
0.0150761, -0.0141114, -0.550724, 0.000376434, 0.000707453, -0.000145929, 0.641387, 0.430331, 0.431359, 0.00948317, 0.012913, 0.0250924
0.0151461, -0.0164161, -0.549705, 0.000357974, 0.000715916, -0.000141384, 0.646716, 0.435165, 0.436208, 0.00945028, 0.0129062, 0.0246327
0.0150167, -0.0185412, -0.548766, 0.000312814, 0.000713187, -0.000142872, 0.652117, 0.44178, 0.440207, 0.00939969, 0.0128992, 0.0241802
0.0146638, -0.0195675, -0.547479, 0.000255718, 0.000705779, -0.000135407, 0.657566, 0.44967, 0.443082, 0.00930827, 0.0128901, 0.023727
0.0141084, -0.0198731, -0.5459, 0.000185483, 0.000691774, -0.000141065, 0.662957, 0.457962, 0.444613, 0.00915935, 0.0128794, 0.0232677
0.0132293, -0.0199141, -0.543741, 9.17026e-05, 0.000670457, -0.000158348, 0.66821, 0.466049, 0.444682, 0.00895675, 0.0128677, 0.0228042
0.0124674, -0.0197367, -0.542755, 1.3513e-05, 0.000652564, -0.000170264, 0.673321, 0.473763, 0.443223, 0.00870886, 0.012855, 0.0223595
0.0118897, -0.0191375, -0.542902, -5.49601e-05, 0.0006367, -0.000192585, 0.678347, 0.481309, 0.440597, 0.00840968, 0.0128405, 0.0219541
0.0113293, -0.0186167, -0.542299, -0.000121089, 0.000613527, -0.00026286, 0.683302, 0.488846, 0.435912, 0.00808261, 0.0128241, 0.0216042
0.0114209, -0.0186681, -0.544503, -0.000115775, 0.000605982, -0.000294111, 0.688248, 0.496292, 0.428948, 0.00776763, 0.0128081, 0.0213187
0.011969, -0.0194446, -0.549737, -6.07398e-05, 0.000602094, -0.000326825, 0.693156, 0.503657, 0.418143, 0.00748962, 0.0127934, 0.0211018
0.0124444, -0.0201866, -0.553232, -2.04053e-05, 0.000596135, -0.000356156, 0.698016, 0.51018, 0.402808, 0.00723214, 0.0127778, 0.0209532
0.0130184, -0.0210882, -0.556608, 2.17321e-05, 0.000584827, -0.000386481, 0.702822, 0.514974, 0.384299, 0.00697095, 0.0127592, 0.0208586
0.0138122, -0.0213424, -0.558524, 6.07233e-05, 0.000572454, -0.000413969, 0.707598, 0.517549, 0.365786, 0.0067032, 0.0127354, 0.0208028
0.0145885, -0.0212571, -0.559435, 8.47572e-05, 0.000553597, -0.00043537, 0.712375, 0.517731, 0.349812, 0.00643887, 0.0127044, 0.0207719
0.0153544, -0.0206876, -0.558849, 8.19359e-05, 0.000518221, -0.000452497, 0.717166, 0.515317, 0.337432, 0.00619626, 0.0126641, 0.0207577
0.015911, -0.0206654, -0.559312, 9.54264e-05, 0.000497462, -0.000451793, 0.721954, 0.509721, 0.328097, 0.00597759, 0.0126113, 0.0207498
0.0162307, -0.0227093, -0.559704, 9.63737e-05, 0.000467614, -0.000444501, 0.726693, 0.500337, 0.320866, 0.00577266, 0.0125417, 0.0207313
0.0166923, -0.0229454, -0.561123, 0.000120357, 0.000451844, -0.000420862, 0.731339, 0.487506, 0.315698, 0.00557622, 0.0124528, 0.0206827
0.0168177, -0.0172606, -0.562498, 0.000136523, 0.000455133, -0.000403607, 0.735843, 0.472117, 0.312742, 0.00539075, 0.0123459, 0.0205887
0.0172945, -0.0125007, -0.562181, 0.000125578, 0.000418096, -0.000351552, 0.740182, 0.45514, 0.312062, 0.00522336, 0.0122251, 0.0204414
0.0173346, -0.00737461, -0.564165, 0.000131829, 0.000418085, -0.000337098, 0.744308, 0.437632, 0.313051, 0.00507606, 0.0120969, 0.0202372
0.0173328, -0.00310339, -0.565988, 0.000134206, 0.000413825, -0.000319694, 0.74828, 0.420983, 0.31537, 0.0049506, 0.0119644, 0.0199811
0.0178261, -0.00243861, -0.568651, 0.000155715, 0.000402931, -0.000284345, 0.752201, 0.406102, 0.318608, 0.00484604, 0.0118312, 0.0196904
0.0175379, 0.00215746, -0.568617, 0.000136526, 0.00039323, -0.0002715, 0.756144, 0.393154, 0.322344, 0.00476037, 0.0116988, 0.0193767
0.0176761, 0.00550348, -0.569647, 0.000130144, 0.000377963, -0.000240034, 0.760184, 0.382534, 0.326376, 0.00469417, 0.0115673, 0.0190453
0.0177318, 0.00820023, -0.570369, 0.000123372, 0.000370671, -0.000224471, 0.764287, 0.375017, 0.330705, 0.00464899, 0.0114387, 0.0186946
0.0183117, 0.00776811, -0.570011, 0.00012328, 0.000344168, -0.000165726, 0.768412, 0.37139, 0.335412, 0.00462447, 0.0113169, 0.0183306
0.0186229, 0.00786646, -0.570949, 0.000124617, 0.000346573, -0.000158822, 0.77251, 0.371622, 0.340427, 0.00461565, 0.0112077, 0.0179735
0.0190784, 0.00605274, -0.571822, 0.000127179, 0.000341716, -0.000141354, 0.776561, 0.374731, 0.345489, 0.00461439, 0.0111113, 0.0176402
0.0195717, 0.00387124, -0.572588, 0.000123591, 0.000331203, -0.000112275, 0.780543, 0.37958, 0.350105, 0.00461328, 0.011028, 0.0173394
0.0197726, 0.00215238, -0.571677, 0.000115908, 0.000328071, -0.000100826, 0.78447, 0.385092, 0.353595, 0.00460501, 0.0109563, 0.0170752
0.0203057, 0.00106822, -0.568302, 0.000105254, 0.000314414, -6.11037e-05, 0.788321, 0.390665, 0.355204, 0.00458339, 0.0108953, 0.0168519
0.0206668, -0.00105476, -0.567569, 8.16442e-05, 0.000318042, -5.71462e-05, 0.791976, 0.396572, 0.354548, 0.00454311, 0.0108466, 0.0166749
0.0206882, -0.00307862, -0.566397, 5.30478e-05, 0.000329374, -7.2725e-05, 0.795383, 0.40318, 0.351577, 0.00448007, 0.0108087, 0.0165438
0.0214977, -0.00563494, -0.566093, 8.27877e-06, 0.000336179, -7.75777e-05, 0.798565, 0.410298, 0.346597, 0.00439771, 0.0107773, 0.0164483
0.0209915, -0.00688516, -0.563967, -5.45238e-06, 0.000348431, -0.000101599, 0.801686, 0.417536, 0.340261, 0.00430644, 0.0107463, 0.0163776
0.0204352, -0.0075578, -0.562056, -4.6947e-06, 0.000353568, -0.000112781, 0.80486, 0.424594, 0.333605, 0.00421348, 0.0107127, 0.0163268
0.0203764, -0.0085394, -0.560916, -1.0496e-05, 0.000361077, -0.000119873, 0.808278, 0.431003, 0.327363, 0.00412003, 0.0106759, 0.0162936
0.0198357, -0.00941386, -0.559162, -2.92305e-06, 0.000365442, -0.000123527, 0.811925, 0.436085, 0.3219, 0.00403235, 0.0106319, 0.0162707
0.0199186, -0.0109716, -0.558053, -5.38539e-06, 0.000376502, -0.000127308, 0.815752, 0.439238, 0.317436, 0.00394715, 0.0105803, 0.0162568
0.0211794, -0.0139017, -0.557983, -2.36285e-05, 0.000394807, -0.000129044, 0.81967, 0.439877, 0.314179, 0.0038616, 0.0105215, 0.0162502
0.0217781, -0.0154425, -0.557978, -2.92816e-05, 0.000407365, -0.000129129, 0.823547, 0.437496, 0.312223, 0.00377801, 0.0104545, 0.0162472
0.0227289, -0.0160322, -0.559244, -4.35479e-05, 0.000437063, -0.000128754, 0.82722, 0.43203, 0.31165, 0.00369872, 0.0103784, 0.0162431
0.0231803, -0.0162443, -0.559734, -4.8928e-05, 0.000453107, -0.000127125, 0.830651, 0.423969, 0.31248, 0.00362251, 0.010297, 0.0162341
0.0227663, -0.0155042, -0.55936, -4.81728e-05, 0.000462094, -0.000118556, 0.833883, 0.414052, 0.314527, 0.00354908, 0.0102148, 0.0162176
0.022621, -0.014237, -0.559569, -5.29331e-05, 0.000468145, -0.000113014, 0.836982, 0.403013, 0.317508, 0.00347876, 0.0101369, 0.0161907
0.0214211, -0.0122805, -0.558597, -5.12277e-05, 0.000459985, -0.000105545, 0.840009, 0.391456, 0.321081, 0.00341282, 0.0100669, 0.016152
0.0212567, -0.011283, -0.558719, -5.56424e-05, 0.000466336, -9.64222e-05, 0.842997, 0.379884, 0.324918, 0.00335272, 0.0100065, 0.0161012
0.0214489, -0.00987874, -0.559592, -6.53987e-05, 0.000475369, -8.79334e-05, 0.845972, 0.368791, 0.328764, 0.00329984, 0.00995511, 0.016039
0.0194507, -0.00666551, -0.557887, -6.73241e-05, 0.000464293, -6.61717e-05, 0.848944, 0.358779, 0.332356, 0.00325588, 0.00991116, 0.0159666
0.0180761, -0.00459743, -0.556257, -6.6359e-05, 0.000452522, -6.06291e-05, 0.85208, 0.350586, 0.335661, 0.00322211, 0.00987332, 0.0158875
0.0160581, -0.00148072, -0.553747, -6.79013e-05, 0.000441772, -3.37143e-05, 0.85548, 0.345059, 0.338585, 0.00319887, 0.00983776, 0.0158042
0.0139764, 0.0026032, -0.550609, -6.99482e-05, 0.000424261, -1.09392e-05, 0.859194, 0.342305, 0.341294, 0.00318338, 0.00980479, 0.0157137
0.013686, 0.00308893, -0.5501, -7.08211e-05, 0.000426385, -2.54429e-06, 0.863199, 0.34206, 0.343884, 0.0031731, 0.00977573, 0.0156143
0.0136602, 0.00370305, -0.550426, -7.1888e-05, 0.000428128, 4.61509e-07, 0.8674, 0.343668, 0.346297, 0.0031656, 0.00975178, 0.0155014
0.0136809, 0.00420294, -0.551242, -7.17436e-05, 0.000427775, -3.87433e-06, 0.871668, 0.34631, 0.348265, 0.00315934, 0.00973392, 0.0153734
0.0137494, 0.00394889, -0.552235, -7.13279e-05, 0.000425406, -1.54268e-05, 0.875875, 0.349406, 0.349562, 0.00315242, 0.00972133, 0.0152294
0.0137944, 0.00358136, -0.551996, -7.1453e-05, 0.000422395, -2.72957e-05, 0.879916, 0.353065, 0.350107, 0.00314181, 0.00971168, 0.0150689
0.0135798, 0.00431601, -0.5525, -6.82896e-05, 0.000419981, -2.64754e-05, 0.883596, 0.357025, 0.349982, 0.0031258, 0.00970337, 0.0148918
0.0140971, 0.00388445, -0.551045, -7.01744e-05, 0.000424163, -4.01103e-05, 0.886769, 0.361307, 0.349043, 0.00310461, 0.00969469, 0.0147081
0.014027, 0.00474053, -0.551573, -6.44979e-05, 0.000421872, -4.49907e-05, 0.889312, 0.366402, 0.347423, 0.00307857, 0.00968272, 0.0145403
0.0143431, 0.00570397, -0.551627, -5.7029e-05, 0.000421316, -5.71879e-05, 0.891336, 0.372745, 0.344786, 0.00304572, 0.0096684, 0.0143982
0.0149472, 0.00644174, -0.551564, -5.02723e-05, 0.000421331, -7.64896e-05, 0.892912, 0.379798, 0.340019, 0.00299963, 0.00965211, 0.0142855
0.0160003, 0.00735394, -0.551517, -4.13899e-05, 0.000421454, -0.000104124, 0.894146, 0.386821, 0.33361, 0.00293857, 0.00963338, 0.0142037
0.0170565, 0.00818642, -0.552248, -2.80895e-05, 0.000415199, -0.000135033, 0.895284, 0.393203, 0.326784, 0.00286665, 0.00961304, 0.014151
0.0170665, 0.0088252, -0.554217, -8.76335e-06, 0.000400993, -0.000148025, 0.896385, 0.398327, 0.320636, 0.00279534, 0.00958939, 0.0141226
0.0169573, 0.00920093, -0.556235, 8.85446e-06, 0.000382582, -0.000155515, 0.897643, 0.401636, 0.315301, 0.0027283, 0.00956256, 0.0141111
0.0168426, 0.00933437, -0.558084, 2.27211e-05, 0.000363014, -0.000154549, 0.899131, 0.402589, 0.310678, 0.00266841, 0.00953103, 0.0141077
0.0167645, 0.00920392, -0.559801, 3.37492e-05, 0.000342305, -0.000146903, 0.900927, 0.400854, 0.30685, 0.00261485, 0.00949518, 0.014103
0.0165304, 0.0090513, -0.561718, 4.48359e-05, 0.000320681, -0.000134229, 0.903139, 0.396611, 0.304233, 0.00256604, 0.00945633, 0.0140894
0.0168446, 0.00797913, -0.562442, 4.88938e-05, 0.000301742, -0.000117134, 0.905794, 0.390458, 0.303053, 0.00252144, 0.00941473, 0.0140625
0.0168321, 0.00768635, -0.563337, 5.3256e-05, 0.000291488, -0.000106725, 0.908838, 0.38304, 0.3031, 0.00248084, 0.00936959, 0.0140199
0.0171724, 0.00718258, -0.563291, 5.34969e-05, 0.000278968, -9.03162e-05, 0.912232, 0.374787, 0.304085, 0.00244386, 0.00932095, 0.0139594
0.0171641, 0.0081697, -0.56451, 5.65364e-05, 0.000270393, -7.95153e-05, 0.915852, 0.366044, 0.305513, 0.00241111, 0.00926877, 0.0138785
0.0172548, 0.00954036, -0.565462, 5.71857e-05, 0.000261387, -6.55495e-05, 0.919619, 0.357267, 0.30722, 0.0023832, 0.00921292, 0.0137723
0.0173971, 0.0108773, -0.566928, 5.86708e-05, 0.000258755, -5.82421e-05, 0.923357, 0.349157, 0.308956, 0.00236157, 0.00915329, 0.0136314
0.0177799, 0.0115528, -0.568378, 6.01093e-05, 0.000257056, -4.70694e-05, 0.92682, 0.342622, 0.310679, 0.00234699, 0.00909242, 0.0134527
0.0183948, 0.011034, -0.56895, 6.10288e-05, 0.000252922, -2.77173e-05, 0.929836, 0.338429, 0.312378, 0.00233865, 0.0090346, 0.0132479
0.0191327, 0.00978062, -0.569181, 6.20793e-05, 0.000249739, -8.64168e-06, 0.932361, 0.336837, 0.314433, 0.00233462, 0.00898293, 0.0130411
0.0200199, 0.0075948, -0.568997, 6.29145e-05, 0.000247112, 9.45273e-06, 0.93453, 0.337304, 0.31695, 0.00233285, 0.00894044, 0.0128602
0.02073, 0.00527894, -0.568397, 6.24308e-05, 0.000242141, 2.83362e-05, 0.936539, 0.338842, 0.319653, 0.00233174, 0.00890717, 0.0127183
0.0208842, 0.00297874, -0.567268, 6.08903e-05, 0.000236477, 4.08447e-05, 0.938357, 0.340259, 0.321716, 0.00233037, 0.00887725, 0.012614
0.01973, 0.00181352, -0.564774, 5.9484e-05, 0.000228408, 4.22462e-05, 0.940338, 0.340815, 0.322299, 0.00232792, 0.00884855, 0.0125406
0.0183118, 0.00111335, -0.561881, 5.75151e-05, 0.000221121, 4.0652e-05, 0.942714, 0.340529, 0.321183, 0.0023239, 0.00881784, 0.0124902
0.0167215, 0.00111863, -0.558997, 5.6327e-05, 0.000219201, 3.14981e-05, 0.945362, 0.34016, 0.318899, 0.00231825, 0.00878225, 0.0124573
0.0157078, 0.0010858, -0.557315, 5.57022e-05, 0.000223339, 2.17916e-05, 0.948163, 0.340582, 0.316303, 0.00231127, 0.00874204, 0.0124362
0.0149186, 0.00124839, -0.556086, 5.58593e-05, 0.000231213, 1.28467e-05, 0.951087, 0.342255, 0.313983, 0.00230328, 0.00869927, 0.0124223
0.0144579, 0.000908179, -0.555222, 5.50126e-05, 0.000243936, 3.42528e-06, 0.954176, 0.345163, 0.312086, 0.00229431, 0.00865552, 0.012412
0.0139096, 0.00174238, -0.554287, 5.74554e-05, 0.000252039, 4.75164e-07, 0.957254, 0.349008, 0.310497, 0.00228417, 0.00860955, 0.0124027
0.0137776, 0.0024692, -0.553932, 5.86766e-05, 0.000264434, -1.98728e-06, 0.960325, 0.35358, 0.309082, 0.00227256, 0.00856178, 0.0123934
0.0138054, 0.00301596, -0.553734, 5.88989e-05, 0.000277509, -4.51589e-06, 0.963144, 0.358867, 0.307675, 0.00225927, 0.0085108, 0.0123836
0.014493, 0.00384893, -0.554363, 5.71129e-05, 0.000296843, -4.35683e-06, 0.965407, 0.36474, 0.306115, 0.00224469, 0.00845484, 0.0123732
0.0159096, 0.00479101, -0.556292, 5.17858e-05, 0.000320107, -4.5355e-06, 0.96663, 0.371018, 0.304346, 0.00222943, 0.00838752, 0.0123624
0.0168001, 0.00527312, -0.556651, 4.99716e-05, 0.000334619, -4.12448e-06, 0.965703, 0.377706, 0.302564, 0.00221421, 0.00829685, 0.0123513
0.0178508, 0.00568489, -0.557143, 4.84369e-05, 0.000346129, -3.11182e-06, 0.961076, 0.384718, 0.300924, 0.00219974, 0.00817307, 0.0123386
0.017895, 0.00573187, -0.557953, 4.66119e-05, 0.000347123, -5.05088e-06, 0.950696, 0.391679, 0.299245, 0.00218639, 0.00800658, 0.0123249
0.0177594, 0.00574495, -0.558998, 4.47531e-05, 0.000345388, -6.76943e-06, 0.931361, 0.397847, 0.297372, 0.0021743, 0.00777544, 0.0123127
0.0151272, 0.00497371, -0.557762, 4.87668e-05, 0.000320539, -5.79056e-06, 0.899046, 0.402579, 0.295475, 0.00216334, 0.00744368, 0.0123031
0.0102698, 0.00337745, -0.554728, 5.75339e-05, 0.000274838, -2.04815e-06, 0.852076, 0.405766, 0.293738, 0.00215231, 0.00699297, 0.0122963
0.00607733, 0.00237954, -0.5562, 5.88937e-05, 0.000233186, 1.2232e-06, 0.794673, 0.408414, 0.291926, 0.00213956, 0.00645864, 0.012292
-0.00288665, 0.00111906, -0.559852, 5.94625e-05, 0.000156474, 2.1671e-06, 0.735081, 0.411198, 0.289847, 0.002125, 0.00591165, 0.0122889
-0.00958969, -0.000626019, -0.559906, 6.45792e-05, 9.68791e-05, 6.43768e-06, 0.681151, 0.414447, 0.287977, 0.00211, 0.00542096, 0.0122858
-0.00313658, 0.000353803, -0.559919, 6.19819e-05, 0.000145103, 5.02993e-06, 0.63621, 0.418152, 0.286408, 0.00209538, 0.00502259, 0.0122828
-0.000100973, 0.000534572, -0.560691, 6.12864e-05, 0.000163879, 4.71005e-06, 0.599484, 0.421846, 0.285126, 0.00208132, 0.0047158, 0.0122805
0.00222286, 0.000243046, -0.559708, 6.21218e-05, 0.000178308, 4.26619e-06, 0.568787, 0.425199, 0.28424, 0.00206826, 0.00448077, 0.0122784
0.00349116, -0.000484367, -0.558155, 6.43942e-05, 0.000183816, 3.843e-06, 0.542117, 0.427929, 0.283584, 0.00205635, 0.0042967, 0.0122764
0.0030626, -0.00110303, -0.556959, 6.66441e-05, 0.000178548, 3.50214e-06, 0.518354, 0.430023, 0.283116, 0.00204577, 0.00414923, 0.0122742
0.00290803, -0.00181, -0.556326, 6.87779e-05, 0.000174596, 3.03311e-06, 0.497136, 0.431596, 0.282694, 0.00203673, 0.00403084, 0.0122718
0.00273047, -0.00158052, -0.556491, 6.82857e-05, 0.000174445, 2.4212e-06, 0.478573, 0.432954, 0.282283, 0.00202949, 0.00393806, 0.0122694
0.00155389, -0.00163496, -0.557245, 6.89489e-05, 0.000167617, -6.31674e-07, 0.463029, 0.434458, 0.281912, 0.00202421, 0.00386993, 0.0122669
0.00207841, -0.00141259, -0.558033, 6.83791e-05, 0.000170009, 7.36739e-07, 0.451161, 0.436482, 0.281666, 0.00202105, 0.00382635, 0.0122648
0.00252169, -0.00181702, -0.55611, 6.87333e-05, 0.000171961, -7.68224e-07, 0.443319, 0.439281, 0.281578, 0.00201968, 0.00380362, 0.0122634
0.00273778, -0.00216252, -0.554512, 6.87543e-05, 0.000173257, -2.354e-06, 0.439312, 0.442754, 0.281544, 0.00201927, 0.00379477, 0.012262
0.00254375, -0.00230569, -0.555044, 6.88055e-05, 0.000172773, -2.39006e-06, 0.438807, 0.446479, 0.281566, 0.00201913, 0.00379325, 0.0122598
0.00246987, -0.0025994, -0.555846, 6.87616e-05, 0.000173023, -2.80737e-06, 0.441341, 0.449855, 0.281634, 0.00201863, 0.00379105, 0.012256
0.00240191, -0.00322004, -0.555863, 6.80455e-05, 0.000174957, -2.94014e-06, 0.446387, 0.452208, 0.281706, 0.00201693, 0.00377638, 0.0122501
0.00238483, -0.00340824, -0.556068, 6.78422e-05, 0.000176179, -2.21658e-06, 0.452986, 0.452797, 0.28176, 0.00201319, 0.00373781, 0.0122439
0.00233341, -0.00313842, -0.556851, 6.84695e-05, 0.000176498, -1.27074e-06, 0.460063, 0.450937, 0.281795, 0.00200708, 0.00366997, 0.0122396
0.00224554, -0.00276514, -0.558304, 6.98985e-05, 0.000178152, -5.22436e-07, 0.466943, 0.44619, 0.28176, 0.00199853, 0.00357343, 0.012237
0.00192916, -0.00190512, -0.55884, 7.14254e-05, 0.000174411, 1.74933e-06, 0.473058, 0.438745, 0.281571, 0.00198753, 0.00345255, 0.0122331
0.00179429, -0.00138356, -0.559816, 7.17472e-05, 0.00017033, 4.22571e-06, 0.478175, 0.429337, 0.28128, 0.00197524, 0.00331817, 0.0122245
0.00149403, -0.000227792, -0.559249, 7.1361e-05, 0.000160418, 1.04957e-05, 0.482269, 0.418966, 0.280942, 0.00196214, 0.00318092, 0.0122103
0.00152473, 0.000487621, -0.558863, 6.98146e-05, 0.000152986, 1.38581e-05, 0.485138, 0.40854, 0.280629, 0.00194791, 0.00305013, 0.0121974
0.00180482, 0.00143103, -0.558523, 6.68502e-05, 0.000143978, 1.69842e-05, 0.486437, 0.398608, 0.280388, 0.00193216, 0.00293119, 0.0121902
0.00157046, 0.0023857, -0.558908, 6.62501e-05, 0.00013786, 1.78417e-05, 0.485609, 0.389442, 0.280307, 0.0019149, 0.00282583, 0.0121873
0.00116723, 0.00328421, -0.559735, 6.64084e-05, 0.000133005, 1.65657e-05, 0.482409, 0.3812, 0.280395, 0.00189601, 0.00273517, 0.012185
0.000420405, 0.00387775, -0.560548, 6.76716e-05, 0.000129509, 1.55331e-05, 0.476728, 0.373947, 0.28062, 0.00187566, 0.00265917, 0.012181
-0.000284306, 0.00467537, -0.561065, 6.81274e-05, 0.000124994, 1.40034e-05, 0.468658, 0.367535, 0.280823, 0.00185431, 0.00259677, 0.012176
-0.00159261, 0.00528765, -0.561346, 6.9793e-05, 0.000119926, 1.31374e-05, 0.458255, 0.361981, 0.280999, 0.00183282, 0.00254445, 0.0121702
-0.00301577, 0.0056132, -0.560682, 7.17004e-05, 0.000115354, 1.34949e-05, 0.446122, 0.35738, 0.281042, 0.00181238, 0.00249987, 0.0121625
-0.00405973, 0.00569073, -0.560096, 7.31133e-05, 0.000112428, 1.48082e-05, 0.433251, 0.353781, 0.28084, 0.0017942, 0.00246204, 0.0121536
-0.00590107, 0.0055741, -0.560317, 7.57537e-05, 0.000107889, 1.64386e-05, 0.420823, 0.351275, 0.280417, 0.00177933, 0.00243064, 0.0121456
-0.00760186, 0.00537732, -0.561335, 7.80645e-05, 0.000103727, 1.81904e-05, 0.410031, 0.349971, 0.279993, 0.0017683, 0.00240631, 0.01214
-0.00898142, 0.00527206, -0.56221, 7.95911e-05, 0.000100534, 1.99752e-05, 0.401683, 0.349817, 0.279689, 0.00176121, 0.00238898, 0.0121357
-0.0103381, 0.00533782, -0.562545, 8.05833e-05, 9.77597e-05, 2.28398e-05, 0.39602, 0.350545, 0.279501, 0.00175748, 0.00237801, 0.0121309
-0.0110658, 0.00557687, -0.562317, 8.09032e-05, 9.66037e-05, 2.42691e-05, 0.392841, 0.351797, 0.279421, 0.001756, 0.00237243, 0.0121249
-0.0114894, 0.00595487, -0.562049, 8.0986e-05, 9.605e-05, 2.53461e-05, 0.391734, 0.353199, 0.279416, 0.00175564, 0.00237042, 0.0121184
-0.0113075, 0.00619487, -0.562032, 8.10484e-05, 9.5938e-05, 2.44191e-05, 0.392368, 0.354527, 0.279471, 0.00175545, 0.00236992, 0.0121128
-0.0111394, 0.00608638, -0.561422, 8.10861e-05, 9.57623e-05, 2.35985e-05, 0.394625, 0.355671, 0.27952, 0.00175473, 0.00236851, 0.0121084
-0.0113961, 0.00640703, -0.561436, 8.11506e-05, 9.6351e-05, 2.54548e-05, 0.398347, 0.356601, 0.279489, 0.00175294, 0.00236352, 0.0121029
-0.0113063, 0.00683546, -0.561938, 8.15936e-05, 9.6227e-05, 2.67799e-05, 0.40318, 0.35742, 0.279436, 0.00174959, 0.00235253, 0.0120963
-0.0109922, 0.00721183, -0.561505, 8.24961e-05, 9.55387e-05, 2.88119e-05, 0.408617, 0.358172, 0.279407, 0.00174431, 0.00233444, 0.0120891
-0.0105931, 0.00742988, -0.561957, 8.35741e-05, 9.43948e-05, 3.1009e-05, 0.414182, 0.358869, 0.279371, 0.00173712, 0.00230889, 0.0120813
-0.01025, 0.00732362, -0.562804, 8.43818e-05, 9.264e-05, 3.30251e-05, 0.419393, 0.359506, 0.27933, 0.00172858, 0.00227729, 0.0120717
-0.00979524, 0.00683583, -0.562854, 8.59035e-05, 8.86392e-05, 3.64032e-05, 0.423844, 0.360112, 0.27933, 0.00171886, 0.0022413, 0.0120612
-0.00938881, 0.00587233, -0.562207, 8.79219e-05, 8.22668e-05, 4.18394e-05, 0.427201, 0.360627, 0.279387, 0.00170791, 0.0022027, 0.0120517
-0.00925972, 0.00457144, -0.561462, 8.96414e-05, 7.50777e-05, 4.82584e-05, 0.429213, 0.360953, 0.279516, 0.00169595, 0.00216385, 0.012043
-0.00935559, 0.00305893, -0.559236, 9.17588e-05, 6.71354e-05, 5.42554e-05, 0.429757, 0.361086, 0.279649, 0.00168303, 0.00212587, 0.0120354
-0.0100504, 0.00146124, -0.558093, 9.228e-05, 5.98912e-05, 5.94372e-05, 0.428672, 0.360956, 0.279675, 0.00166947, 0.00208922, 0.0120284
-0.0121255, 3.67071e-05, -0.558908, 9.00125e-05, 5.18386e-05, 6.45975e-05, 0.425776, 0.360404, 0.27951, 0.00165565, 0.00205471, 0.0120227
-0.0113937, 0.000357864, -0.558936, 9.0772e-05, 5.40365e-05, 6.39438e-05, 0.420989, 0.359285, 0.2793, 0.00164224, 0.00202281, 0.0120183
-0.0105988, 0.000759996, -0.55881, 9.13171e-05, 5.67058e-05, 6.21424e-05, 0.414375, 0.357527, 0.279126, 0.00162987, 0.0019936, 0.0120148
-0.0105971, 0.00114683, -0.558627, 9.07688e-05, 5.75391e-05, 6.11367e-05, 0.40612, 0.355148, 0.27903, 0.00161893, 0.0019672, 0.0120123
-0.00976035, 0.00148625, -0.558347, 9.09172e-05, 5.99162e-05, 6.16263e-05, 0.3966, 0.352322, 0.278999, 0.0016094, 0.00194326, 0.0120093
-0.00975594, 0.0018396, -0.558397, 9.04078e-05, 6.04146e-05, 6.13157e-05, 0.38644, 0.349268, 0.278993, 0.00160085, 0.00192165, 0.012005
-0.00926648, 0.0018581, -0.558596, 9.05497e-05, 6.14662e-05, 6.25262e-05, 0.37627, 0.34625, 0.279012, 0.00159301, 0.00190208, 0.011999
-0.00915066, 0.0017848, -0.559104, 9.06961e-05, 6.17097e-05, 6.22548e-05, 0.366629, 0.343446, 0.279038, 0.00158591, 0.00188477, 0.0119913
-0.00867776, 0.00209126, -0.558553, 9.03092e-05, 6.2761e-05, 6.46438e-05, 0.357884, 0.340971, 0.279072, 0.00157958, 0.00186998, 0.0119819
-0.00827571, 0.00210838, -0.55852, 9.0321e-05, 6.35311e-05, 6.5683e-05, 0.350263, 0.338886, 0.279111, 0.00157407, 0.00185787, 0.0119708
-0.00805587, 0.00200906, -0.559107, 9.04606e-05, 6.40018e-05, 6.54313e-05, 0.343872, 0.337141, 0.279142, 0.00156951, 0.00184863, 0.0119592
-0.00785385, 0.00218722, -0.560299, 9.02782e-05, 6.46431e-05, 6.50745e-05, 0.338714, 0.33564, 0.279177, 0.00156634, 0.00184231, 0.0119483
-0.00799898, 0.00177293, -0.559889, 9.07201e-05, 6.43992e-05, 6.31956e-05, 0.334766, 0.334344, 0.279253, 0.0015647, 0.0018383, 0.0119407
-0.00801133, 0.00179722, -0.559032, 9.07271e-05, 6.41833e-05, 6.29558e-05, 0.332036, 0.333309, 0.279372, 0.00156415, 0.00183606, 0.0119362
-0.00819981, 0.00187653, -0.558356, 9.0698e-05, 6.39371e-05, 6.26861e-05, 0.330525, 0.332712, 0.279489, 0.00156401, 0.00183506, 0.011934
-0.00855949, 0.00206673, -0.558204, 9.06988e-05, 6.37881e-05, 6.25858e-05, 0.330201, 0.332684, 0.279575, 0.00156392, 0.00183448, 0.0119329
-0.00926087, 0.00216953, -0.559009, 9.07327e-05, 6.40269e-05, 6.40574e-05, 0.331032, 0.333217, 0.279607, 0.00156363, 0.00183337, 0.0119304
-0.00993591, 0.00196326, -0.559683, 9.05121e-05, 6.47861e-05, 6.672e-05, 0.332966, 0.334225, 0.279619, 0.00156288, 0.00183087, 0.0119249
-0.0100966, 0.00133475, -0.55826, 9.00247e-05, 6.57574e-05, 6.56888e-05, 0.335981, 0.335593, 0.279595, 0.00156131, 0.00182582, 0.0119168
-0.0103846, 0.000852016, -0.559556, 8.94198e-05, 6.66152e-05, 6.82939e-05, 0.340007, 0.337226, 0.279535, 0.00155893, 0.0018169, 0.0119082
-0.0107009, 0.000219644, -0.560028, 8.87782e-05, 6.83326e-05, 6.92055e-05, 0.344925, 0.339071, 0.279498, 0.00155565, 0.00180336, 0.0119006
-0.0110806, -0.000107616, -0.560742, 8.87216e-05, 7.01707e-05, 7.06585e-05, 0.350453, 0.341053, 0.279524, 0.00155136, 0.00178583, 0.0118939
-0.0116007, -0.000262322, -0.559232, 8.9195e-05, 7.19368e-05, 7.05833e-05, 0.356094, 0.342953, 0.279585, 0.00154642, 0.00176581, 0.011887
-0.0116473, -0.000270549, -0.560156, 8.92769e-05, 7.26275e-05, 7.10305e-05, 0.361546, 0.344704, 0.279679, 0.00154095, 0.00174372, 0.0118781
-0.0118438, -0.000203946, -0.560612, 8.9671e-05, 7.3164e-05, 7.2895e-05, 0.366697, 0.346288, 0.279802, 0.00153516, 0.00172012, 0.0118653
-0.011738, -0.000414377, -0.560305, 8.93222e-05, 7.34997e-05, 7.17601e-05, 0.371276, 0.347592, 0.279935, 0.00152887, 0.00169617, 0.0118505
-0.0114794, -0.0003064, -0.559748, 8.86443e-05, 7.26824e-05, 7.24077e-05, 0.374935, 0.348451, 0.280004, 0.0015218, 0.00167227, 0.0118333
-0.0114105, -7.10516e-05, -0.561184, 8.85069e-05, 7.19064e-05, 7.43426e-05, 0.377279, 0.348677, 0.279963, 0.0015136, 0.00164902, 0.0118128
-0.0108265, -4.808e-05, -0.560025, 8.72476e-05, 7.18578e-05, 7.38629e-05, 0.377952, 0.348117, 0.279896, 0.00150423, 0.00162731, 0.0117935
-0.0104915, 0.000177738, -0.560914, 8.65902e-05, 7.14749e-05, 7.45393e-05, 0.376612, 0.346637, 0.279912, 0.00149377, 0.00160768, 0.0117789
-0.0100678, 0.000485383, -0.561375, 8.57159e-05, 7.1127e-05, 7.52837e-05, 0.373331, 0.344294, 0.279893, 0.00148251, 0.00159004, 0.011767
-0.00950085, 0.000809533, -0.562457, 8.47539e-05, 7.10955e-05, 7.53152e-05, 0.368433, 0.341308, 0.279828, 0.00147148, 0.00157442, 0.0117584
-0.00870619, 0.00115958, -0.563301, 8.35807e-05, 7.14951e-05, 7.4298e-05, 0.362421, 0.33794, 0.279766, 0.00146173, 0.00156073, 0.0117537
-0.00803962, 0.00140706, -0.562634, 8.25409e-05, 7.19351e-05, 7.45221e-05, 0.355913, 0.334424, 0.279735, 0.00145415, 0.00154898, 0.0117511
-0.00783919, 0.00139967, -0.56188, 8.22043e-05, 7.20718e-05, 7.5811e-05, 0.349446, 0.331092, 0.27974, 0.00144835, 0.00153905, 0.011748
-0.0076998, 0.00166756, -0.561885, 8.18641e-05, 7.19689e-05, 7.59102e-05, 0.34358, 0.328249, 0.279712, 0.00144393, 0.00153099, 0.0117444
-0.00773678, 0.00191985, -0.562144, 8.17118e-05, 7.17457e-05, 7.59095e-05, 0.338702, 0.326149, 0.279637, 0.00144052, 0.00152476, 0.0117421
-0.00788555, 0.0019674, -0.56269, 8.18636e-05, 7.16362e-05, 7.49576e-05, 0.334983, 0.324891, 0.279597, 0.00143811, 0.00152021, 0.0117402
-0.00710392, 0.00207252, -0.563496, 8.16002e-05, 7.24257e-05, 7.20299e-05, 0.332329, 0.324177, 0.279604, 0.00143704, 0.00151717, 0.0117372
-0.00674465, 0.0017871, -0.564984, 8.15375e-05, 7.30128e-05, 7.07852e-05, 0.330633, 0.323796, 0.27967, 0.00143679, 0.00151545, 0.0117321
-0.00649584, 0.00168044, -0.565508, 8.15376e-05, 7.33206e-05, 6.93943e-05, 0.329745, 0.323574, 0.279823, 0.0014366, 0.0015147, 0.0117246
-0.00578253, 0.000839026, -0.565533, 8.10529e-05, 7.35028e-05, 7.22996e-05, 0.329304, 0.323146, 0.280021, 0.00143558, 0.00151448, 0.0117107
-0.00595624, 0.000623268, -0.563405, 8.12371e-05, 7.31187e-05, 7.31444e-05, 0.329081, 0.322538, 0.280276, 0.00143293, 0.00151423, 0.0116878
-0.00925504, -0.00691142, -0.564039, 7.48217e-05, 7.58596e-05, 0.000114183, 0.329068, 0.322038, 0.280491, 0.00142906, 0.00151345, 0.0116619
-0.00765638, -0.00369434, -0.559904, 7.69638e-05, 7.36724e-05, 0.000111391, 0.329331, 0.321954, 0.28053, 0.00142515, 0.00151172, 0.0116412
-0.00580692, -0.00143799, -0.558607, 7.8576e-05, 7.1438e-05, 0.000111978, 0.329914, 0.322478, 0.280206, 0.00142255, 0.00150864, 0.011629
-0.00467592, 0.000204253, -0.558238, 7.92255e-05, 6.96937e-05, 0.000120908, 0.330953, 0.323534, 0.279615, 0.00142135, 0.00150373, 0.011616
-0.00439146, 0.00106349, -0.559193, 7.93116e-05, 6.81495e-05, 0.000131252, 0.332575, 0.324924, 0.279301, 0.00142096, 0.00149798, 0.0115962
-0.00427726, 0.00163994, -0.560497, 7.92188e-05, 6.65279e-05, 0.00014204, 0.334822, 0.326391, 0.279464, 0.00142084, 0.00149178, 0.0115709
-0.00411595, 0.00189011, -0.560591, 7.9161e-05, 6.61837e-05, 0.000145928, 0.337473, 0.327727, 0.280125, 0.00142072, 0.00148612, 0.0115456
-0.0035124, 0.00175019, -0.559971, 7.92712e-05, 6.58577e-05, 0.00014702, 0.340029, 0.32881, 0.281001, 0.00142042, 0.0014817, 0.0115253
-0.00223942, 0.00104352, -0.559804, 7.98247e-05, 6.43321e-05, 0.000147306, 0.342281, 0.329559, 0.281882, 0.0014199, 0.00147803, 0.011512
-0.000816656, 0.000173852, -0.559258, 8.05287e-05, 6.29892e-05, 0.000146479, 0.344134, 0.329924, 0.282673, 0.00141919, 0.00147467, 0.011505
0.000798738, -0.00111125, -0.559403, 8.13143e-05, 6.09223e-05, 0.000145877, 0.345329, 0.329889, 0.283212, 0.0014183, 0.00147157, 0.0115027
0.00262307, -0.00239989, -0.559312, 8.20909e-05, 5.90066e-05, 0.000146858, 0.346037, 0.329458, 0.283628, 0.00141726, 0.00146827, 0.0115015
0.0042747, -0.00335918, -0.559706, 8.27443e-05, 5.72445e-05, 0.000148374, 0.346233, 0.328713, 0.283955, 0.00141608, 0.00146473, 0.0114993
0.00535282, -0.0042688, -0.560616, 8.30408e-05, 5.54306e-05, 0.000149788, 0.345868, 0.327772, 0.284224, 0.00141471, 0.00146097, 0.0114932
0.00588836, -0.00504879, -0.561214, 8.29167e-05, 5.41225e-05, 0.000152818, 0.345008, 0.32676, 0.284559, 0.00141313, 0.00145699, 0.0114818
0.00664739, -0.00562169, -0.562437, 8.30278e-05, 5.25017e-05, 0.000153466, 0.343595, 0.325746, 0.285015, 0.0014114, 0.00145282, 0.0114651
0.00750122, -0.00597113, -0.563278, 8.31926e-05, 5.15392e-05, 0.000153746, 0.341604, 0.324841, 0.285593, 0.00140953, 0.00144859, 0.0114427
0.0082485, -0.00605948, -0.564396, 8.34237e-05, 5.06287e-05, 0.000151932, 0.339152, 0.324157, 0.286344, 0.00140745, 0.00144437, 0.0114143
0.00886093, -0.00579008, -0.566083, 8.3865e-05, 4.9526e-05, 0.000145943, 0.336351, 0.323734, 0.287297, 0.00140522, 0.00144017, 0.0113816
0.00897088, -0.00585418, -0.566437, 8.37852e-05, 4.91865e-05, 0.000146377, 0.333348, 0.32358, 0.288486, 0.00140289, 0.00143592, 0.0113467
0.0091439, -0.00545466, -0.566986, 8.41399e-05, 4.90364e-05, 0.000141862, 0.33026, 0.323695, 0.289911, 0.00140053, 0.00143164, 0.0113111
0.00881995, -0.00529096, -0.567281, 8.42612e-05, 4.87312e-05, 0.000139375, 0.327144, 0.324048, 0.291498, 0.00139815, 0.00142738, 0.0112758
0.00860676, -0.00469345, -0.568245, 8.47031e-05, 4.81261e-05, 0.000132646, 0.324098, 0.324623, 0.293164, 0.00139578, 0.00142336, 0.0112412
0.00877851, -0.00474354, -0.570537, 8.41517e-05, 4.63383e-05, 0.000134604, 0.321348, 0.32544, 0.294679, 0.0013932, 0.0014202, 0.0112046
0.00634899, -0.00538622, -0.570909, 8.38025e-05, 4.49591e-05, 0.000135351, 0.319338, 0.326551, 0.29598, 0.00139014, 0.00141811, 0.0111614
0.00459336, -0.00377082, -0.569347, 8.63177e-05, 4.57563e-05, 0.000108818, 0.318509, 0.327941, 0.297231, 0.00138676, 0.0014168, 0.0111136
0.0019575, -0.00269814, -0.568547, 8.80518e-05, 4.61513e-05, 8.87423e-05, 0.319333, 0.329596, 0.29864, 0.00138314, 0.00141581, 0.0110616
-0.000162638, -0.00229649, -0.567623, 8.88528e-05, 4.65697e-05, 7.96185e-05, 0.321519, 0.331541, 0.300353, 0.00137911, 0.00141458, 0.0110021
-0.000853751, -0.00283813, -0.567942, 8.8129e-05, 4.65783e-05, 8.63681e-05, 0.324709, 0.333692, 0.302215, 0.00137496, 0.00141282, 0.0109392
-0.00155879, -0.00383696, -0.56874, 8.68446e-05, 4.66483e-05, 9.94756e-05, 0.328352, 0.335907, 0.303861, 0.00137122, 0.0014105, 0.0108813
-0.00216069, -0.00469517, -0.567981, 8.59003e-05, 4.65572e-05, 0.000110352, 0.332327, 0.338171, 0.305017, 0.00136782, 0.00140724, 0.0108273
-0.00265765, -0.00539164, -0.565636, 8.51827e-05, 4.57004e-05, 0.000118255, 0.33699, 0.340533, 0.305697, 0.00136461, 0.00140211, 0.0107748
-0.00302486, -0.00586311, -0.563314, 8.47806e-05, 4.46184e-05, 0.000120765, 0.34159, 0.342708, 0.305452, 0.00136222, 0.00139598, 0.010736
-0.00305819, -0.00634105, -0.561381, 8.44368e-05, 4.32169e-05, 0.000120988, 0.345297, 0.344301, 0.303832, 0.00136101, 0.00139027, 0.010717
-0.00292649, -0.00713779, -0.560146, 8.39972e-05, 4.17277e-05, 0.000122539, 0.348608, 0.345485, 0.301374, 0.0013603, 0.00138399, 0.010706
-0.00309243, -0.00765986, -0.558803, 8.37091e-05, 4.01759e-05, 0.000122325, 0.351601, 0.346513, 0.298555, 0.00135975, 0.00137661, 0.0106976
-0.00398116, -0.00834026, -0.55827, 8.36716e-05, 4.03341e-05, 0.000122185, 0.35365, 0.347197, 0.295507, 0.00135942, 0.00136917, 0.010693
-0.00494171, -0.00923534, -0.557859, 8.37301e-05, 4.04565e-05, 0.000120937, 0.354705, 0.347498, 0.292665, 0.00135921, 0.00136134, 0.0106906
-0.0057314, -0.00986849, -0.558056, 8.3929e-05, 4.12095e-05, 0.000119626, 0.354598, 0.347418, 0.290264, 0.00135905, 0.00135373, 0.0106882
-0.00566912, -0.010453, -0.557473, 8.38645e-05, 4.02755e-05, 0.000118041, 0.353501, 0.347129, 0.288557, 0.00135887, 0.00134573, 0.0106849
-0.00647763, -0.0108464, -0.558494, 8.42584e-05, 4.21088e-05, 0.000116308, 0.351458, 0.346689, 0.28759, 0.00135865, 0.00133714, 0.0106805
-0.00754751, -0.0112437, -0.559779, 8.47106e-05, 4.40882e-05, 0.000114181, 0.348578, 0.346127, 0.287297, 0.00135838, 0.00132859, 0.0106745
-0.00835027, -0.0114962, -0.560304, 8.49036e-05, 4.4672e-05, 0.000112965, 0.345111, 0.345504, 0.287574, 0.00135808, 0.00132053, 0.010667
-0.00943512, -0.0118215, -0.560537, 8.50882e-05, 4.45948e-05, 0.000111129, 0.341491, 0.344829, 0.288294, 0.00135773, 0.00131371, 0.0106573
-0.0102438, -0.0128879, -0.556924, 8.49833e-05, 4.0293e-05, 0.000104754, 0.338143, 0.344065, 0.289338, 0.00135727, 0.00130833, 0.0106436
-0.0115511, -0.012527, -0.559453, 8.49716e-05, 4.17501e-05, 0.000110093, 0.335542, 0.343203, 0.29061, 0.00135665, 0.00130454, 0.0106246
-0.0111215, -0.0120021, -0.561279, 8.47178e-05, 4.28304e-05, 0.000116304, 0.334013, 0.342235, 0.292048, 0.00135579, 0.00130208, 0.010599
-0.00952072, -0.0115846, -0.562903, 8.44504e-05, 4.38141e-05, 0.000121046, 0.333448, 0.341235, 0.293513, 0.00135476, 0.00130046, 0.0105694
-0.00762748, -0.0108202, -0.564576, 8.39339e-05, 4.41322e-05, 0.000128733, 0.333757, 0.340205, 0.294859, 0.00135352, 0.00129935, 0.0105359
-0.00714547, -0.0101077, -0.564603, 8.33096e-05, 4.36421e-05, 0.000136847, 0.335087, 0.339169, 0.296011, 0.00135206, 0.00129843, 0.0104993
-0.0065218, -0.00933252, -0.564655, 8.26193e-05, 4.29462e-05, 0.00014566, 0.337083, 0.338199, 0.296794, 0.00135056, 0.00129728, 0.0104634
-0.00474485, -0.00880765, -0.563911, 8.20991e-05, 4.16378e-05, 0.000152239, 0.339772, 0.337315, 0.297161, 0.00134909, 0.00129547, 0.0104301
-0.00182236, -0.0089343, -0.561875, 8.20628e-05, 3.98935e-05, 0.000154383, 0.342471, 0.336624, 0.296908, 0.00134795, 0.00129318, 0.0104045
0.00119027, -0.00962335, -0.559155, 8.23119e-05, 3.85288e-05, 0.00015487, 0.345229, 0.336187, 0.296081, 0.00134723, 0.00129024, 0.010388
0.00415514, -0.0104043, -0.558105, 8.24707e-05, 3.64488e-05, 0.000155196, 0.347964, 0.335962, 0.294776, 0.00134685, 0.00128651, 0.0103786
0.0114434, -0.0108417, -0.55486, 8.27327e-05, 3.26598e-05, 0.000162223, 0.350537, 0.335942, 0.293161, 0.00134668, 0.00128184, 0.0103745
0.0219401, -0.0107813, -0.551657, 8.32862e-05, 2.7513e-05, 0.000171003, 0.352618, 0.336131, 0.291409, 0.00134658, 0.00127631, 0.0103733
0.017648, -0.0106701, -0.555249, 8.22808e-05, 2.51857e-05, 0.000171057, 0.353723, 0.336551, 0.28966, 0.00134635, 0.00127053, 0.0103721
0.0144588, -0.0105869, -0.558291, 8.17099e-05, 2.24129e-05, 0.00016775, 0.353848, 0.337213, 0.288169, 0.00134583, 0.00126432, 0.0103684
0.0130166, -0.0103975, -0.561547, 8.10692e-05, 1.80003e-05, 0.00016685, 0.353017, 0.338072, 0.28712, 0.001345, 0.00125748, 0.0103615
0.011585, -0.00959926, -0.564505, 8.08976e-05, 1.38428e-05, 0.000162633, 0.351228, 0.339112, 0.286592, 0.00134384, 0.00125015, 0.0103509
0.014706, -0.00823424, -0.563572, 8.23916e-05, 1.64152e-05, 0.000153045, 0.348579, 0.340311, 0.28659, 0.0013424, 0.00124244, 0.0103368
0.0164075, -0.00712168, -0.571781, 8.1957e-05, 5.75192e-06, 0.000148086, 0.345287, 0.341679, 0.287058, 0.00134069, 0.00123499, 0.0103193
0.0214732, -0.00584933, -0.572951, 8.32108e-05, 6.74997e-06, 0.000139364, 0.341708, 0.343259, 0.287912, 0.00133865, 0.00122823, 0.0102974
0.0190447, -0.00431934, -0.571583, 8.47732e-05, 7.80808e-06, 0.000124653, 0.338379, 0.345049, 0.289065, 0.00133631, 0.00122291, 0.0102713
0.0111771, -0.00437311, -0.572556, 8.38664e-05, 3.17712e-06, 0.000126464, 0.335813, 0.347036, 0.290445, 0.00133367, 0.00121911, 0.0102402
0.00474686, -0.00446259, -0.572718, 8.35473e-05, 8.66707e-07, 0.000124008, 0.334391, 0.349252, 0.292011, 0.00133064, 0.00121656, 0.0102022
0.000280568, -0.0047639, -0.573246, 8.29982e-05, -2.61992e-07, 0.000125637, 0.334505, 0.351733, 0.293756, 0.00132715, 0.00121496, 0.0101554
-0.000959077, -0.00549264, -0.573876, 8.2067e-05, -8.20082e-07, 0.000134005, 0.33567, 0.354365, 0.295467, 0.00132358, 0.00121359, 0.0101051
-0.00141951, -0.00655734, -0.574479, 8.08397e-05, -1.44407e-06, 0.000146445, 0.337527, 0.356948, 0.296905, 0.00132045, 0.00121217, 0.0100592
-0.00196052, -0.00744839, -0.574621, 8.0012e-05, -1.62825e-06, 0.000155153, 0.34003, 0.359387, 0.297949, 0.00131788, 0.00121041, 0.0100202
-0.00274342, -0.00791242, -0.573001, 7.98694e-05, -1.2314e-06, 0.000156644, 0.343103, 0.361607, 0.298492, 0.00131587, 0.00120802, 0.00998897
-0.00311707, -0.00812304, -0.57109, 7.98539e-05, -1.40366e-06, 0.000156448, 0.346605, 0.363558, 0.298459, 0.00131439, 0.00120482, 0.00996515
-0.00310311, -0.00821372, -0.569157, 7.98086e-05, -2.28263e-06, 0.00015592, 0.350044, 0.365089, 0.297738, 0.00131347, 0.00120116, 0.00995033
-0.00308949, -0.00879358, -0.567062, 7.94186e-05, -4.07122e-06, 0.000158811, 0.353617, 0.366317, 0.296557, 0.00131284, 0.00119635, 0.00994008
-0.00363799, -0.00937615, -0.564596, 7.90468e-05, -6.17336e-06, 0.000160788, 0.356776, 0.367228, 0.294974, 0.00131245, 0.0011908, 0.00993419
-0.0044507, -0.00993457, -0.561875, 7.86776e-05, -8.84718e-06, 0.000162059, 0.358952, 0.367694, 0.293095, 0.00131226, 0.00118508, 0.00993217
-0.00570766, -0.0104174, -0.560019, 7.84672e-05, -1.07101e-05, 0.000162962, 0.360065, 0.367774, 0.291264, 0.00131215, 0.0011787, 0.00993151
-0.00710311, -0.0108177, -0.558337, 7.82944e-05, -1.27195e-05, 0.000163606, 0.359839, 0.367539, 0.289688, 0.00131207, 0.00117191, 0.00993048
-0.00915784, -0.011376, -0.557271, 7.82388e-05, -1.41911e-05, 0.000164224, 0.358285, 0.367091, 0.288565, 0.00131195, 0.00116458, 0.00992768
-0.0116916, -0.01213, -0.558, 7.83742e-05, -1.3531e-05, 0.000165014, 0.355553, 0.366548, 0.288067, 0.00131182, 0.00115627, 0.00992311
-0.0160824, -0.0127093, -0.55964, 7.83498e-05, -1.27092e-05, 0.000169632, 0.351725, 0.365973, 0.288212, 0.00131167, 0.00114717, 0.00991739
-0.016797, -0.0133392, -0.559688, 7.85419e-05, -1.28339e-05, 0.000166934, 0.34699, 0.3653, 0.288905, 0.00131146, 0.00113788, 0.00990985
-0.0202074, -0.0146109, -0.559478, 7.8768e-05, -1.49687e-05, 0.000163893, 0.341643, 0.364535, 0.290057, 0.0013112, 0.00112871, 0.00990037
-0.0190805, -0.0150197, -0.560821, 7.90604e-05, -1.23923e-05, 0.000159745, 0.336071, 0.36368, 0.291481, 0.00131084, 0.00112034, 0.00988786
-0.0186257, -0.015347, -0.562189, 7.9367e-05, -1.04222e-05, 0.000155713, 0.330614, 0.362817, 0.293061, 0.00131041, 0.0011129, 0.00987244
-0.0181172, -0.0155875, -0.56371, 7.96171e-05, -8.45678e-06, 0.000152154, 0.325521, 0.361993, 0.294712, 0.00130993, 0.00110649, 0.00985459
-0.0176288, -0.0159821, -0.565188, 7.98576e-05, -6.83735e-06, 0.000148319, 0.321295, 0.361154, 0.2962, 0.00130934, 0.00110179, 0.00983245
-0.0184334, -0.0160705, -0.566965, 7.98775e-05, -6.29562e-06, 0.000148283, 0.318194, 0.360267, 0.297493, 0.00130855, 0.00109855, 0.00980397
-0.019831, -0.0160144, -0.568191, 7.97143e-05, -6.51581e-06, 0.000150698, 0.316125, 0.359417, 0.29866, 0.00130764, 0.0010963, 0.00977246
-0.0205496, -0.0160241, -0.568405, 7.95822e-05, -6.71654e-06, 0.000152315, 0.315103, 0.358592, 0.299689, 0.0013066, 0.00109481, 0.00973869
-0.0199881, -0.0156109, -0.569134, 7.9291e-05, -6.73926e-06, 0.000156512, 0.315146, 0.357775, 0.300547, 0.0013054, 0.0010938, 0.00970329
-0.0184779, -0.0153031, -0.569362, 7.9152e-05, -6.96952e-06, 0.00015901, 0.315789, 0.356988, 0.301224, 0.00130416, 0.0010929, 0.00966995
-0.0168323, -0.0151566, -0.569841, 7.91079e-05, -7.3378e-06, 0.000160535, 0.316421, 0.356258, 0.301707, 0.00130303, 0.00109192, 0.00964181
-0.0150504, -0.0148445, -0.570595, 7.89559e-05, -7.94422e-06, 0.000163631, 0.316933, 0.355583, 0.301966, 0.00130204, 0.00109075, 0.00961804
-0.0130929, -0.0143143, -0.571533, 7.87071e-05, -8.8367e-06, 0.000168149, 0.317475, 0.355032, 0.302023, 0.00130127, 0.00108942, 0.00959938
-0.0122221, -0.0139357, -0.57017, 7.84193e-05, -9.70442e-06, 0.000173334, 0.318271, 0.35468, 0.301924, 0.00130077, 0.00108801, 0.00958645
-0.0116501, -0.0134675, -0.569073, 7.81371e-05, -1.02791e-05, 0.000178109, 0.319621, 0.354518, 0.30157, 0.0013004, 0.00108636, 0.00957527
-0.0112437, -0.0128383, -0.566984, 7.77546e-05, -1.05213e-05, 0.000184424, 0.321534, 0.354571, 0.300864, 0.00130002, 0.00108427, 0.00956171
-0.0109325, -0.0119974, -0.566972, 7.74302e-05, -1.10587e-05, 0.00019045, 0.323865, 0.354934, 0.29981, 0.00129961, 0.00108171, 0.00954423
-0.0105913, -0.0106867, -0.56693, 7.69717e-05, -1.18087e-05, 0.000200202, 0.326464, 0.355683, 0.298409, 0.00129927, 0.00107876, 0.00952486
-0.0101966, -0.0100241, -0.567971, 7.67351e-05, -1.30362e-05, 0.000205466, 0.329158, 0.35678, 0.2967, 0.00129902, 0.00107555, 0.00950634
-0.00931071, -0.00893279, -0.559709, 7.68507e-05, -8.78417e-06, 0.000210651, 0.331766, 0.358084, 0.294833, 0.00129881, 0.00107235, 0.00948976
-0.00968009, -0.00791978, -0.562394, 7.64842e-05, -1.06511e-05, 0.000218603, 0.334158, 0.359431, 0.29318, 0.00129865, 0.0010698, 0.00947869
-0.00999049, -0.00640292, -0.561429, 7.63893e-05, -1.00333e-05, 0.00022398, 0.336183, 0.360639, 0.29149, 0.00129842, 0.00106761, 0.00947064
-0.00996645, -0.00554839, -0.561364, 7.64613e-05, -9.99795e-06, 0.000225338, 0.33777, 0.361609, 0.289834, 0.00129813, 0.00106575, 0.00946587
-0.00970889, -0.00501269, -0.561864, 7.66148e-05, -1.03246e-05, 0.000225075, 0.338878, 0.362223, 0.288323, 0.00129781, 0.00106415, 0.00946391
-0.00925212, -0.00520265, -0.561843, 7.66838e-05, -1.04225e-05, 0.000224936, 0.339437, 0.362377, 0.286907, 0.00129747, 0.00106262, 0.00946151
-0.00842037, -0.00603889, -0.561028, 7.66533e-05, -1.02366e-05, 0.000226835, 0.339389, 0.362038, 0.28549, 0.00129719, 0.00106107, 0.00945673
-0.00765929, -0.0071697, -0.561577, 7.65188e-05, -1.08754e-05, 0.000231245, 0.338789, 0.361267, 0.284056, 0.001297, 0.00105953, 0.0094506
-0.00647247, -0.00832491, -0.562152, 7.65115e-05, -1.14497e-05, 0.000235727, 0.337806, 0.360201, 0.282659, 0.00129692, 0.00105806, 0.00944523
-0.0053661, -0.00937311, -0.562335, 7.65412e-05, -1.17072e-05, 0.000239647, 0.336692, 0.35901, 0.281453, 0.00129688, 0.00105673, 0.00944058
-0.00382264, -0.0110313, -0.562829, 7.65466e-05, -1.21755e-05, 0.000246361, 0.335676, 0.357897, 0.280518, 0.00129685, 0.00105558, 0.00943556
-0.00234286, -0.0126274, -0.563473, 7.6382e-05, -1.27104e-05, 0.00025453, 0.334924, 0.357055, 0.279929, 0.00129681, 0.00105475, 0.00942884
-0.00116322, -0.014477, -0.563925, 7.60478e-05, -1.32396e-05, 0.000263888, 0.334457, 0.356577, 0.27961, 0.00129673, 0.00105421, 0.00942099
-0.000439841, -0.015416, -0.563963, 7.58892e-05, -1.34165e-05, 0.000267868, 0.334229, 0.356402, 0.279431, 0.00129665, 0.00105391, 0.00941607
0.000329289, -0.0162338, -0.562706, 7.57541e-05, -1.34046e-05, 0.000270239, 0.33417, 0.356511, 0.279373, 0.00129659, 0.00105381, 0.00941341
0.000247213, -0.0165985, -0.562056, 7.56866e-05, -1.34576e-05, 0.000270812, 0.334245, 0.356898, 0.279411, 0.00129649, 0.00105376, 0.00941187
0.00030111, -0.016764, -0.559311, 7.56439e-05, -1.36202e-05, 0.000271078, 0.334451, 0.357444, 0.279455, 0.00129641, 0.00105369, 0.00941095
-0.000437298, -0.0162889, -0.560054, 7.57213e-05, -1.35526e-05, 0.000271786, 0.334778, 0.35811, 0.279467, 0.00129633, 0.00105348, 0.009408
-0.000838312, -0.0158635, -0.559403, 7.57816e-05, -1.36383e-05, 0.000273042, 0.335216, 0.358904, 0.279516, 0.00129619, 0.00105306, 0.00940171
-0.001588, -0.0154422, -0.559143, 7.59892e-05, -1.35622e-05, 0.000273426, 0.335798, 0.359894, 0.279554, 0.00129595, 0.00105243, 0.00939333
-0.00235219, -0.0146712, -0.558262, 7.62413e-05, -1.36304e-05, 0.000275437, 0.336553, 0.361126, 0.279587, 0.00129561, 0.00105162, 0.00938322
-0.00368234, -0.013454, -0.557396, 7.6615e-05, -1.36989e-05, 0.000280098, 0.337499, 0.362638, 0.27961, 0.0012953, 0.00105066, 0.0093711
-0.0050652, -0.0121884, -0.557778, 7.69497e-05, -1.37202e-05, 0.000286704, 0.338637, 0.364416, 0.279605, 0.00129507, 0.00104963, 0.00935695
-0.00609382, -0.0112194, -0.557315, 7.71159e-05, -1.38344e-05, 0.000293052, 0.339981, 0.366432, 0.279594, 0.0012949, 0.00104861, 0.00934255
-0.00273282, -0.0102103, -0.568298, 7.71207e-05, -1.44608e-05, 0.000288996, 0.341505, 0.368669, 0.279597, 0.00129481, 0.00104767, 0.00932843
-0.00547972, -0.00943115, -0.565141, 7.69166e-05, -1.47496e-05, 0.000303722, 0.343123, 0.37109, 0.279643, 0.00129477, 0.00104687, 0.00931672
-0.00738575, -0.00914154, -0.561726, 7.724e-05, -1.47328e-05, 0.000308339, 0.344778, 0.373609, 0.279731, 0.00129465, 0.00104627, 0.00930942
-0.00966933, -0.00859915, -0.558439, 7.76196e-05, -1.48655e-05, 0.000314613, 0.346502, 0.376231, 0.279863, 0.00129438, 0.0010458, 0.0093045
-0.0111337, -0.00843988, -0.555086, 7.78739e-05, -1.49317e-05, 0.000317061, 0.348323, 0.378878, 0.27999, 0.00129404, 0.00104542, 0.00930063
-0.0124124, -0.00809769, -0.552497, 7.80721e-05, -1.50408e-05, 0.000319121, 0.350074, 0.38135, 0.280141, 0.00129363, 0.00104514, 0.00929871
-0.0136645, -0.00770478, -0.552841, 7.80831e-05, -1.4784e-05, 0.000320971, 0.351604, 0.383436, 0.280318, 0.00129318, 0.00104494, 0.00929768
-0.014732, -0.00751079, -0.554762, 7.78302e-05, -1.45224e-05, 0.000323188, 0.352775, 0.384971, 0.280434, 0.00129287, 0.00104485, 0.00929657
-0.0150837, -0.00737832, -0.557275, 7.75702e-05, -1.45101e-05, 0.000324712, 0.353483, 0.385871, 0.280463, 0.0012927, 0.00104482, 0.00929487
-0.015408, -0.00724062, -0.559558, 7.73658e-05, -1.45511e-05, 0.000325666, 0.353692, 0.386105, 0.280446, 0.00129249, 0.00104481, 0.00929244
-0.0151059, -0.0075395, -0.561112, 7.7494e-05, -1.45411e-05, 0.000324429, 0.353441, 0.385691, 0.280425, 0.00129229, 0.00104478, 0.00929122
-0.0146534, -0.00809752, -0.562459, 7.76584e-05, -1.45227e-05, 0.000323948, 0.352766, 0.38465, 0.280456, 0.00129217, 0.00104465, 0.00929044
-0.0137916, -0.00907729, -0.562282, 7.76662e-05, -1.47528e-05, 0.000327339, 0.351687, 0.382959, 0.28052, 0.00129211, 0.00104432, 0.00928575
-0.0125524, -0.0105203, -0.56237, 7.74856e-05, -1.51669e-05, 0.000335793, 0.350302, 0.380737, 0.280511, 0.00129204, 0.00104389, 0.00927514
-0.0111575, -0.0121714, -0.563238, 7.73624e-05, -1.56436e-05, 0.000345869, 0.348819, 0.37828, 0.280381, 0.00129196, 0.0010435, 0.00926344
-0.00919697, -0.0136979, -0.565011, 7.73488e-05, -1.61186e-05, 0.000356404, 0.347518, 0.375932, 0.280208, 0.0012918, 0.00104319, 0.00925276
-0.00731539, -0.0152925, -0.565763, 7.7219e-05, -1.6543e-05, 0.000367619, 0.346574, 0.373966, 0.280063, 0.00129165, 0.00104287, 0.00924132
-0.0053343, -0.0166996, -0.565892, 7.67953e-05, -1.69695e-05, 0.000380502, 0.346028, 0.372516, 0.279965, 0.0012915, 0.00104251, 0.00922732
-0.00360431, -0.0180337, -0.565409, 7.63375e-05, -1.73489e-05, 0.000391689, 0.345851, 0.371602, 0.279907, 0.00129135, 0.00104216, 0.00921473
-0.00216387, -0.0189464, -0.565275, 7.60475e-05, -1.7633e-05, 0.000398701, 0.345939, 0.37117, 0.279889, 0.00129123, 0.00104189, 0.00920629
-0.00118158, -0.0195366, -0.564315, 7.5874e-05, -1.77751e-05, 0.000401908, 0.346193, 0.371156, 0.279895, 0.00129109, 0.0010417, 0.00920128
-0.000974691, -0.0198296, -0.564257, 7.57989e-05, -1.78603e-05, 0.000402913, 0.346538, 0.37151, 0.279926, 0.0012909, 0.00104157, 0.00919852
-0.000993291, -0.019802, -0.563425, 7.57691e-05, -1.7851e-05, 0.000402795, 0.346993, 0.372112, 0.279926, 0.00129072, 0.00104149, 0.00919764
-0.00107466, -0.0194233, -0.56129, 7.57866e-05, -1.78473e-05, 0.000402618, 0.347529, 0.372923, 0.279924, 0.00129054, 0.00104141, 0.00919712
-0.00199098, -0.0191341, -0.558999, 7.57666e-05, -1.78348e-05, 0.000403205, 0.348129, 0.373906, 0.279964, 0.0012904, 0.00104129, 0.00919641
-0.00275095, -0.0187568, -0.558077, 7.58072e-05, -1.77859e-05, 0.000404383, 0.348864, 0.375047, 0.279994, 0.00129033, 0.00104106, 0.00919403
-0.00353306, -0.0184018, -0.556884, 7.5877e-05, -1.76873e-05, 0.000405791, 0.349753, 0.376382, 0.279974, 0.00129028, 0.00104067, 0.00918953
-0.00434817, -0.0181734, -0.555922, 7.5974e-05, -1.75614e-05, 0.000406901, 0.350769, 0.377923, 0.279966, 0.00129022, 0.00104016, 0.00918428
-0.00535568, -0.0177043, -0.555854, 7.60831e-05, -1.74679e-05, 0.000409762, 0.351916, 0.379612, 0.279907, 0.00129017, 0.00103945, 0.0091754
-0.00598791, -0.0169435, -0.555133, 7.60972e-05, -1.7607e-05, 0.000414823, 0.353181, 0.38145, 0.279807, 0.00129011, 0.00103855, 0.00916275
-0.00642409, -0.0163784, -0.554546, 7.60828e-05, -1.77677e-05, 0.000419136, 0.354552, 0.383465, 0.279738, 0.00129004, 0.00103758, 0.00914873
-0.00726711, -0.0154764, -0.555589, 7.60106e-05, -1.80798e-05, 0.000426554, 0.356072, 0.38569, 0.279685, 0.00128997, 0.00103652, 0.00913314
-0.00825674, -0.0147234, -0.557872, 7.58972e-05, -1.82818e-05, 0.000433192, 0.357768, 0.388151, 0.27966, 0.00128987, 0.00103536, 0.00911586
-0.0087624, -0.0143652, -0.560031, 7.57738e-05, -1.83756e-05, 0.000436199, 0.359589, 0.390778, 0.279647, 0.00128975, 0.00103412, 0.00909719
-0.00937521, -0.0144036, -0.560714, 7.58419e-05, -1.81112e-05, 0.000436021, 0.361482, 0.393541, 0.279716, 0.00128966, 0.00103302, 0.00908326
-0.0101524, -0.0140033, -0.559167, 7.60787e-05, -1.8195e-05, 0.00043875, 0.363431, 0.396341, 0.279837, 0.00128956, 0.00103213, 0.00907496
-0.0110339, -0.0136272, -0.559747, 7.62284e-05, -1.80188e-05, 0.000440168, 0.365331, 0.398979, 0.279929, 0.00128943, 0.00103146, 0.00907007
-0.0122066, -0.0134662, -0.560336, 7.63389e-05, -1.77321e-05, 0.000440802, 0.366997, 0.401227, 0.279998, 0.00128927, 0.00103102, 0.00906789
-0.0130438, -0.0134894, -0.560938, 7.6334e-05, -1.75562e-05, 0.000441091, 0.368243, 0.402879, 0.280062, 0.00128907, 0.00103081, 0.0090673
-0.0135549, -0.0135686, -0.561012, 7.63447e-05, -1.74888e-05, 0.000441232, 0.368976, 0.403857, 0.280126, 0.00128891, 0.00103075, 0.00906694
-0.0142205, -0.0136831, -0.562492, 7.6142e-05, -1.74145e-05, 0.000442146, 0.369187, 0.404153, 0.280216, 0.00128874, 0.00103073, 0.00906572
-0.0146814, -0.0139694, -0.563995, 7.58907e-05, -1.73637e-05, 0.000443595, 0.368901, 0.403753, 0.280338, 0.00128848, 0.00103063, 0.00906158
-0.0150281, -0.0147529, -0.565092, 7.55129e-05, -1.74649e-05, 0.000447521, 0.368185, 0.402687, 0.280514, 0.00128806, 0.0010303, 0.0090514
-0.015415, -0.015742, -0.564674, 7.5204e-05, -1.78666e-05, 0.000453128, 0.367047, 0.401006, 0.280696, 0.00128754, 0.00102973, 0.00903406
-0.0154405, -0.0167662, -0.56495, 7.49004e-05, -1.81717e-05, 0.000459027, 0.365493, 0.398826, 0.280814, 0.00128719, 0.00102909, 0.00901571
-0.0149234, -0.0179576, -0.564713, 7.48539e-05, -1.83227e-05, 0.000463565, 0.363648, 0.396369, 0.280769, 0.00128715, 0.00102861, 0.00900625
-0.0134274, -0.0188949, -0.565971, 7.50806e-05, -1.80687e-05, 0.000464524, 0.361804, 0.393884, 0.280632, 0.00128695, 0.00102827, 0.00900443
-0.0115917, -0.0196736, -0.565721, 7.54115e-05, -1.76086e-05, 0.000463926, 0.360239, 0.391644, 0.280501, 0.00128633, 0.001028, 0.00900352
-0.00967995, -0.0206659, -0.565401, 7.57392e-05, -1.72235e-05, 0.000463969, 0.359041, 0.389855, 0.280494, 0.00128578, 0.00102782, 0.00900265
-0.0079496, -0.021444, -0.565634, 7.58944e-05, -1.69665e-05, 0.000464759, 0.358293, 0.388629, 0.280539, 0.00128539, 0.00102772, 0.00900159
-0.00647549, -0.0221973, -0.565774, 7.59298e-05, -1.68748e-05, 0.000466006, 0.357974, 0.388017, 0.280625, 0.00128524, 0.00102767, 0.00900056
-0.00553278, -0.0223283, -0.565631, 7.58997e-05, -1.69069e-05, 0.000466562, 0.358033, 0.388033, 0.280742, 0.00128518, 0.0010276, 0.00899972
-0.00516855, -0.0220867, -0.564562, 7.58167e-05, -1.70877e-05, 0.000466974, 0.358432, 0.388627, 0.280862, 0.00128511, 0.00102748, 0.00899897
-0.00508541, -0.0217221, -0.563678, 7.57459e-05, -1.72601e-05, 0.000467783, 0.359122, 0.389638, 0.280955, 0.00128496, 0.00102723, 0.0089979
-0.00497318, -0.0210983, -0.562321, 7.56443e-05, -1.75263e-05, 0.000469481, 0.360107, 0.390964, 0.281013, 0.00128469, 0.00102675, 0.00899506
-0.00513901, -0.0204672, -0.560657, 7.55e-05, -1.7739e-05, 0.000471046, 0.361436, 0.392539, 0.28106, 0.00128396, 0.00102579, 0.00898544
-0.00526381, -0.0198549, -0.559343, 7.53396e-05, -1.79443e-05, 0.000472941, 0.363177, 0.394287, 0.281118, 0.00128212, 0.00102399, 0.00895841
-0.00556933, -0.0190866, -0.559001, 7.56702e-05, -1.78782e-05, 0.000472124, 0.365451, 0.396123, 0.281184, 0.00127843, 0.00102107, 0.00889988
-0.00379235, -0.0373117, -0.55825, 7.17151e-05, -1.48912e-05, 0.000430816, 0.36837, 0.39797, 0.281261, 0.00127229, 0.00101695, 0.00879866
-0.00455403, -0.0285045, -0.558744, 7.22274e-05, -1.69848e-05, 0.000463655, 0.37199, 0.399777, 0.281336, 0.00126379, 0.00101182, 0.0086529
-0.00533698, -0.0223713, -0.559433, 7.2629e-05, -1.8429e-05, 0.000485098, 0.376195, 0.401522, 0.281459, 0.00125402, 0.00100638, 0.00848427
-0.00328976, -0.0336915, -0.554829, 6.904e-05, -1.68706e-05, 0.00047057, 0.380679, 0.403177, 0.281643, 0.00124496, 0.00100157, 0.00832826
0.00193385, -0.0501669, -0.549065, 5.97134e-05, -1.80754e-05, 0.00050562, 0.385087, 0.404692, 0.281864, 0.00123787, 0.000997898, 0.00820646
0.00392567, -0.0588513, -0.54212, 5.53272e-05, -1.79906e-05, 0.000515317, 0.389064, 0.406024, 0.282048, 0.00123318, 0.000995442, 0.0081259
-0.00186505, -0.0324371, -0.55274, 6.22802e-05, -1.93653e-05, 0.000514807, 0.39223, 0.407156, 0.282177, 0.00123073, 0.000994088, 0.00808451
-0.00435315, -0.0425876, -0.558578, 6.38557e-05, -1.71056e-05, 0.000485452, 0.394105, 0.408084, 0.282249, 0.00123009, 0.000993634, 0.00807514
-0.00810927, -0.0172598, -0.563798, 6.6633e-05, -1.91639e-05, 0.000493644, 0.394377, 0.408809, 0.282152, 0.00123004, 0.000993571, 0.00807451
-0.0103547, -0.000781702, -0.567054, 6.86442e-05, -2.02497e-05, 0.000491858, 0.392849, 0.409368, 0.281984, 0.00122908, 0.000993384, 0.00805518
-0.0120327, 0.00890546, -0.567761, 7.01553e-05, -2.06918e-05, 0.00048747, 0.38945, 0.409776, 0.281714, 0.00122525, 0.000992408, 0.00798023
-0.0136621, 0.0132531, -0.568058, 6.9881e-05, -2.13922e-05, 0.000496757, 0.384766, 0.41009, 0.281358, 0.001217, 0.000990088, 0.00781914
-0.0147104, 0.0137767, -0.568567, 6.83162e-05, -2.22205e-05, 0.000514387, 0.379997, 0.41038, 0.280994, 0.00120427, 0.000986357, 0.00756806
-0.015215, 0.0118034, -0.566541, 6.77634e-05, -2.26307e-05, 0.000526155, 0.376445, 0.410708, 0.280735, 0.001189, 0.000981831, 0.0072616
-0.0157476, 0.00816619, -0.565577, 6.57263e-05, -2.34215e-05, 0.000548658, 0.374818, 0.411103, 0.280611, 0.0011744, 0.000977479, 0.00695993
-0.0156833, 0.00351027, -0.563604, 6.50066e-05, -2.35105e-05, 0.000558173, 0.374988, 0.411567, 0.280617, 0.00116248, 0.000973908, 0.00670385
-0.0153558, -0.00177614, -0.562171, 6.4081e-05, -2.34905e-05, 0.000566315, 0.376467, 0.412098, 0.280771, 0.00115307, 0.000971101, 0.0064945
-0.0149386, -0.00678406, -0.561162, 6.33337e-05, -2.33328e-05, 0.000571156, 0.378889, 0.412653, 0.281038, 0.0011454, 0.000968806, 0.00631868
-0.0145806, -0.0115637, -0.560222, 6.28077e-05, -2.31167e-05, 0.000573866, 0.382019, 0.41319, 0.281403, 0.00113897, 0.000966876, 0.00616815
-0.0139259, -0.015783, -0.559286, 6.29696e-05, -2.26348e-05, 0.000568963, 0.385599, 0.413743, 0.281886, 0.00113373, 0.000965341, 0.00604374
-0.0196215, 0.017802, -0.561343, 6.40323e-05, -2.60789e-05, 0.000602759, 0.389349, 0.414344, 0.282441, 0.00112974, 0.000964227, 0.00594781
-0.0283167, 0.055846, -0.562926, 6.39658e-05, -3.05823e-05, 0.000660744, 0.392922, 0.414981, 0.282936, 0.001127, 0.000963522, 0.00588091
-0.021277, 0.0638426, -0.571784, 6.77532e-05, -2.83577e-05, 0.00060241, 0.395924, 0.415606, 0.283263, 0.0011255, 0.000963197, 0.0058442
-0.0176017, 0.0542986, -0.571694, 6.85634e-05, -2.74062e-05, 0.000579731, 0.397947, 0.416203, 0.283414, 0.00112505, 0.000963137, 0.00583253
-0.0151593, -0.00345931, -0.561861, 6.97969e-05, -2.44149e-05, 0.0004955, 0.398568, 0.41678, 0.283466, 0.00112503, 0.000963087, 0.00583105
-0.0161174, -0.0108576, -0.559318, 7.03287e-05, -2.38859e-05, 0.000480084, 0.39765, 0.417346, 0.283474, 0.00112469, 0.000962733, 0.00582003
-0.0171831, -0.0216605, -0.565348, 7.26524e-05, -2.23003e-05, 0.00044649, 0.395365, 0.41792, 0.283325, 0.00112341, 0.00096183, 0.00578388
-0.0181533, -0.00950338, -0.570354, 7.39624e-05, -2.13695e-05, 0.000454047, 0.392248, 0.418504, 0.283106, 0.00112098, 0.000960287, 0.00571606
-0.0154403, -0.0549833, -0.560163, 7.00979e-05, -2.49524e-05, 0.00042205, 0.38892, 0.419076, 0.282808, 0.00111751, 0.000958195, 0.00561841
-0.0137164, -0.0833294, -0.553434, 6.72724e-05, -2.7902e-05, 0.000409392, 0.386028, 0.419588, 0.282502, 0.00111327, 0.000955784, 0.00549417
-0.0120831, -0.0985911, -0.549901, 6.47815e-05, -3.04995e-05, 0.000416732, 0.384022, 0.42002, 0.282133, 0.00110878, 0.000953264, 0.00535639
-0.0109373, -0.103761, -0.548196, 6.29331e-05, -3.21517e-05, 0.000430987, 0.383093, 0.420387, 0.281795, 0.00110438, 0.000950725, 0.00521442
-0.00996903, -0.102088, -0.546774, 6.15058e-05, -3.282e-05, 0.000447486, 0.383258, 0.420733, 0.28158, 0.00110022, 0.000948244, 0.00507603
-0.00919545, -0.0955724, -0.54655, 6.13937e-05, -3.21723e-05, 0.000456769, 0.384437, 0.421089, 0.281516, 0.00109646, 0.000945897, 0.00494663
-0.00841839, -0.085722, -0.548961, 6.28853e-05, -3.01528e-05, 0.000457242, 0.386472, 0.421476, 0.281582, 0.00109335, 0.000943809, 0.00483357
-0.00738855, -0.0746244, -0.551651, 6.43842e-05, -2.79798e-05, 0.000460188, 0.389202, 0.42191, 0.281745, 0.00109083, 0.000941976, 0.00473641
-0.00616136, -0.0627711, -0.553832, 6.5712e-05, -2.58699e-05, 0.000466864, 0.392449, 0.422435, 0.282077, 0.00108876, 0.000940335, 0.00465338
-0.00930817, -0.0758262, -0.558984, 6.7899e-05, -2.52405e-05, 0.000422107, 0.396016, 0.423074, 0.282556, 0.00108714, 0.000938924, 0.00458623
-0.00733504, -0.0811983, -0.56666, 6.8132e-05, -2.5951e-05, 0.000425962, 0.39975, 0.423793, 0.28313, 0.00108586, 0.000937654, 0.00453095
-0.0032905, -0.0792267, -0.569778, 6.69743e-05, -2.7414e-05, 0.000456917, 0.403497, 0.424566, 0.283732, 0.00108488, 0.000936548, 0.00448715
0.00444124, -0.0738797, -0.577053, 6.57573e-05, -2.9563e-05, 0.000506926, 0.407069, 0.425324, 0.284286, 0.00108419, 0.000935689, 0.00445542
0.0127149, -0.0690513, -0.578322, 6.37084e-05, -3.20759e-05, 0.000556075, 0.410262, 0.425977, 0.284722, 0.00108378, 0.000935088, 0.00443495
0.00656422, -0.0252223, -0.568284, 6.55504e-05, -2.38566e-05, 0.000561312, 0.412749, 0.426492, 0.28503, 0.00108364, 0.000934725, 0.00442512
0.00139094, 0.00501509, -0.561142, 6.58709e-05, -1.8839e-05, 0.000569605, 0.414191, 0.426876, 0.285268, 0.00108362, 0.000934547, 0.00442349
-0.0110956, -0.0105383, -0.550313, 6.28417e-05, -1.86417e-05, 0.00057264, 0.414332, 0.427177, 0.285319, 0.0010834, 0.000934452, 0.00442242
-0.00462773, -0.0379548, -0.538886, 6.58875e-05, -1.93971e-05, 0.000542243, 0.413047, 0.427408, 0.285057, 0.00108268, 0.000934354, 0.0044145
-0.00187031, -0.0650652, -0.525321, 6.75299e-05, -1.99057e-05, 0.000521604, 0.410538, 0.427655, 0.284539, 0.00108127, 0.000934214, 0.00439475
-0.00396972, -0.00903008, -0.540962, 6.89596e-05, -1.6422e-05, 0.000521791, 0.407257, 0.427931, 0.283951, 0.00107909, 0.00093401, 0.00436125
-0.00608536, 0.0273687, -0.551728, 6.97432e-05, -1.42052e-05, 0.000521447, 0.403852, 0.428315, 0.283565, 0.00107606, 0.000933725, 0.00430994
-0.00842632, 0.0484832, -0.559132, 6.94392e-05, -1.41129e-05, 0.000529961, 0.400803, 0.428854, 0.283242, 0.00107255, 0.000933404, 0.00424514
-0.010508, 0.0581493, -0.564577, 6.78603e-05, -1.50694e-05, 0.000546031, 0.398419, 0.429562, 0.282845, 0.00106895, 0.000933046, 0.00417346
-0.0113163, 0.0583645, -0.568079, 6.60716e-05, -1.57968e-05, 0.000556301, 0.396879, 0.43038, 0.282388, 0.0010656, 0.000932678, 0.00410341
-0.0126623, 0.0540836, -0.570586, 6.34241e-05, -1.64283e-05, 0.00057035, 0.396119, 0.431222, 0.281925, 0.00106264, 0.000932307, 0.00403789
-0.0131396, 0.0456766, -0.570786, 6.11418e-05, -1.62714e-05, 0.000578835, 0.396039, 0.432078, 0.281574, 0.00105986, 0.000931941, 0.00397281
-0.0129458, 0.0350608, -0.569791, 5.8886e-05, -1.55222e-05, 0.000585323, 0.396666, 0.432973, 0.281402, 0.00105706, 0.000931555, 0.00390423
-0.0126225, 0.0231457, -0.569491, 5.56623e-05, -1.46882e-05, 0.000595532, 0.398068, 0.433965, 0.281538, 0.00105413, 0.000931193, 0.00383115
-0.0122071, 0.0116554, -0.568236, 5.29362e-05, -1.37766e-05, 0.000602156, 0.400255, 0.435052, 0.281988, 0.0010512, 0.000930861, 0.00375754
-0.0116855, 0.000943402, -0.567034, 5.06394e-05, -1.28565e-05, 0.000604004, 0.403112, 0.436214, 0.282671, 0.00104859, 0.00093058, 0.00369043
-0.0114119, -0.00845783, -0.56586, 4.87005e-05, -1.21479e-05, 0.000604839, 0.406357, 0.43739, 0.28352, 0.00104652, 0.000930369, 0.0036355
-0.0145184, 0.018216, -0.571818, 5.18107e-05, -1.43447e-05, 0.000622957, 0.409631, 0.438544, 0.284444, 0.00104509, 0.000930229, 0.00359622
-0.0307884, 0.067867, -0.578973, 5.4156e-05, -1.96295e-05, 0.000703532, 0.412552, 0.43961, 0.285216, 0.00104427, 0.000930145, 0.00357149
-0.0491131, 0.131693, -0.586645, 6.08198e-05, -2.45555e-05, 0.000754469, 0.414718, 0.440493, 0.285623, 0.00104392, 0.000930106, 0.00355958
-0.0297048, 0.170315, -0.583599, 6.74363e-05, -2.75049e-05, 0.000713726, 0.415806, 0.44119, 0.285546, 0.00104384, 0.00093008, 0.00355671
0.00269828, 0.205631, -0.579323, 6.48951e-05, -3.43028e-05, 0.000738412, 0.415633, 0.441761, 0.285065, 0.00104366, 0.000929995, 0.00355636
0.00764248, 0.0442849, -0.557223, 5.50141e-05, -1.42285e-05, 0.00062735, 0.414196, 0.442179, 0.284276, 0.00104288, 0.000929757, 0.00354851
0.0100851, -0.0660808, -0.542819, 5.09198e-05, -5.28301e-07, 0.000532532, 0.411857, 0.442341, 0.283662, 0.00104079, 0.00092925, 0.00351704
0.0114569, -0.137796, -0.536213, 4.8902e-05, 6.67548e-06, 0.000474175, 0.409227, 0.442372, 0.28319, 0.00103744, 0.000928477, 0.00345898
0.0124441, -0.179212, -0.533031, 4.63068e-05, 9.71433e-06, 0.000451547, 0.407046, 0.442383, 0.282769, 0.00103318, 0.000927485, 0.0033812
0.0126085, -0.197772, -0.533527, 4.60248e-05, 1.08688e-05, 0.000441923, 0.405761, 0.442433, 0.282412, 0.00102865, 0.000926424, 0.00329689
0.0120275, -0.199444, -0.533823, 4.6616e-05, 1.12401e-05, 0.000436216, 0.405459, 0.442516, 0.282118, 0.0010244, 0.000925426, 0.00321645
0.0116471, -0.189492, -0.536982, 4.91325e-05, 1.11309e-05, 0.000436316, 0.406047, 0.442637, 0.281872, 0.00102074, 0.00092456, 0.00314585
0.0109025, -0.171845, -0.540833, 5.18217e-05, 1.06443e-05, 0.000442314, 0.407357, 0.442857, 0.281717, 0.00101776, 0.000923824, 0.00308733
0.0102947, -0.149604, -0.543425, 5.32419e-05, 9.40957e-06, 0.000459427, 0.409245, 0.443225, 0.281717, 0.00101534, 0.000923181, 0.00303975
0.00926451, -0.125932, -0.547746, 5.5603e-05, 7.96271e-06, 0.000476859, 0.411563, 0.443764, 0.281932, 0.00101343, 0.000922612, 0.00300231
0.0106834, -0.116506, -0.551016, 5.6069e-05, 6.67751e-06, 0.000492017, 0.414147, 0.444458, 0.282331, 0.00101201, 0.000922126, 0.00297501
0.00866095, -0.0871904, -0.553512, 5.92665e-05, 4.85423e-06, 0.000506946, 0.416805, 0.445254, 0.282881, 0.001011, 0.000921729, 0.00295607
0.00689585, -0.0618058, -0.557188, 6.24806e-05, 3.84682e-06, 0.000515322, 0.419341, 0.446043, 0.283512, 0.00101037, 0.000921438, 0.00294451
0.00573346, -0.040188, -0.559852, 6.47465e-05, 3.29832e-06, 0.000520052, 0.421578, 0.446712, 0.284115, 0.00101003, 0.00092124, 0.00293827
0.00509899, -0.02293, -0.56241, 6.64372e-05, 2.80522e-06, 0.000520536, 0.423295, 0.447268, 0.284597, 0.00100987, 0.000921111, 0.00293616
0.00486074, -0.00955239, -0.564978, 6.77272e-05, 2.32378e-06, 0.000518484, 0.42433, 0.447779, 0.284845, 0.00100979, 0.000921004, 0.00293602
0.00458261, 0.000805013, -0.566909, 6.87492e-05, 1.95084e-06, 0.000515266, 0.424622, 0.448255, 0.284782, 0.00100963, 0.000920868, 0.00293498
0.0044677, 0.007761, -0.567444, 6.95568e-05, 1.92901e-06, 0.00051243, 0.42422, 0.448684, 0.284457, 0.00100925, 0.000920729, 0.00293108
0.00423391, 0.0118596, -0.567602, 7.0071e-05, 1.9526e-06, 0.000510622, 0.423208, 0.449073, 0.283932, 0.00100857, 0.000920637, 0.00292307
0.00441717, 0.0135897, -0.566681, 7.07759e-05, 2.06326e-06, 0.000508539, 0.421871, 0.449494, 0.283299, 0.00100758, 0.000920576, 0.00291097
0.00435395, 0.0130053, -0.565813, 7.10279e-05, 2.13156e-06, 0.000508751, 0.420514, 0.449973, 0.282643, 0.00100633, 0.000920534, 0.002896
0.00389396, 0.0114515, -0.565443, 7.07379e-05, 2.13533e-06, 0.000511297, 0.419303, 0.450516, 0.282025, 0.00100487, 0.000920506, 0.00287852
0.00318536, 0.00878128, -0.564638, 7.03245e-05, 2.18725e-06, 0.000515675, 0.418308, 0.451099, 0.281442, 0.0010032, 0.000920471, 0.00285814
0.00234363, 0.00540739, -0.564321, 6.94484e-05, 2.25719e-06, 0.000521433, 0.417614, 0.451693, 0.280914, 0.0010014, 0.000920411, 0.00283548
0.00141955, 0.00149862, -0.564062, 6.84592e-05, 2.40246e-06, 0.000527515, 0.417297, 0.452273, 0.280513, 0.000999534, 0.000920334, 0.00281122
0.000773848, -0.00264679, -0.564668, 6.70239e-05, 2.56522e-06, 0.000532718, 0.41742, 0.45283, 0.280343, 0.000997611, 0.000920266, 0.00278547
0.000282726, -0.00692415, -0.563405, 6.68227e-05, 2.85854e-06, 0.000536394, 0.41802, 0.453376, 0.280477, 0.000995619, 0.00092021, 0.00275834
0.000103794, -0.0107626, -0.562587, 6.65053e-05, 3.12803e-06, 0.000538597, 0.419117, 0.453963, 0.280945, 0.00099364, 0.000920152, 0.00273077
-0.00590843, 0.0175309, -0.565774, 6.88589e-05, 4.3043e-07, 0.000554524, 0.420669, 0.45466, 0.281721, 0.000991826, 0.000920072, 0.00270499
0.000689435, 0.0508537, -0.567535, 7.75612e-05, -2.01786e-06, 0.000510554, 0.422558, 0.455468, 0.282661, 0.000990246, 0.000919965, 0.00268171
0.00445946, 0.0603473, -0.581021, 7.3218e-05, -1.02521e-06, 0.000501289, 0.42462, 0.456391, 0.283578, 0.00098904, 0.000919859, 0.00266268
0.0019918, 0.0519175, -0.582363, 7.0528e-05, 8.58287e-08, 0.000511077, 0.426651, 0.457419, 0.284372, 0.000988292, 0.000919771, 0.0026502
0.000359533, 0.000110034, -0.568521, 6.46867e-05, 5.17929e-06, 0.000507882, 0.428393, 0.458445, 0.284966, 0.00098796, 0.000919698, 0.00264433
-0.000825166, -0.0353738, -0.558064, 6.03341e-05, 8.81972e-06, 0.000501294, 0.42962, 0.459376, 0.28534, 0.000987878, 0.000919622, 0.00264331
-0.00708613, -0.0238106, -0.554541, 6.19696e-05, 8.3566e-06, 0.000500734, 0.430207, 0.460138, 0.285447, 0.000987724, 0.000919529, 0.00264311
-0.0115235, -0.01084, -0.558803, 6.48205e-05, 7.9062e-06, 0.000497978, 0.43009, 0.460702, 0.285265, 0.000987342, 0.000919409, 0.00264129
-0.00629822, -0.0473777, -0.548038, 5.75452e-05, 8.70542e-06, 0.000503065, 0.42941, 0.461059, 0.284763, 0.00098662, 0.000919271, 0.00263611
-0.00250949, -0.0702525, -0.543907, 5.40804e-05, 8.93565e-06, 0.000506937, 0.428318, 0.461079, 0.284036, 0.000985308, 0.000919115, 0.00262353
0.000755203, -0.0825759, -0.542896, 5.24367e-05, 8.49541e-06, 0.000513537, 0.427107, 0.460871, 0.283175, 0.000983352, 0.000918892, 0.00260195
0.00324961, -0.0874113, -0.543364, 5.18378e-05, 7.95652e-06, 0.000521248, 0.426182, 0.460596, 0.282345, 0.000980953, 0.000918591, 0.00257371
0.00552726, -0.086414, -0.544077, 5.14733e-05, 7.3489e-06, 0.00053134, 0.425841, 0.460371, 0.281658, 0.000978454, 0.000918243, 0.00254355
0.00715564, -0.0822373, -0.546188, 5.23594e-05, 6.93567e-06, 0.000539667, 0.42612, 0.460271, 0.281202, 0.000976201, 0.000917895, 0.00251581
0.00777602, -0.0757719, -0.548734, 5.38991e-05, 6.84136e-06, 0.000544487, 0.426919, 0.460336, 0.280992, 0.000974408, 0.000917579, 0.00249358
0.00855139, -0.0678772, -0.550994, 5.52134e-05, 6.75368e-06, 0.000550225, 0.428049, 0.460549, 0.280966, 0.000973136, 0.000917316, 0.00247794
0.00933255, -0.0595597, -0.553373, 5.65663e-05, 6.82777e-06, 0.000554997, 0.429317, 0.460894, 0.281074, 0.000972331, 0.000917104, 0.00246817
0.00960373, -0.051321, -0.555405, 5.78378e-05, 7.11538e-06, 0.000557332, 0.430586, 0.461373, 0.281242, 0.000971882, 0.000916934, 0.00246305
0.00987438, -0.0433957, -0.557424, 5.90856e-05, 7.44691e-06, 0.000558603, 0.431762, 0.461985, 0.281417, 0.000971656, 0.000916796, 0.00246103
0.00996115, -0.0366156, -0.559506, 6.0209e-05, 7.79283e-06, 0.000558861, 0.432804, 0.462703, 0.281559, 0.000971529, 0.000916679, 0.00246056
0.0101334, -0.0304273, -0.560892, 6.11804e-05, 8.12937e-06, 0.000558618, 0.433687, 0.463483, 0.281638, 0.000971418, 0.000916581, 0.00246054
0.0100216, -0.025449, -0.562205, 6.19228e-05, 8.40739e-06, 0.000558179, 0.434424, 0.464297, 0.281643, 0.000971284, 0.000916497, 0.00246035
0.00995705, -0.0217005, -0.563083, 6.24752e-05, 8.5897e-06, 0.000557662, 0.435038, 0.465127, 0.281577, 0.00097111, 0.000916424, 0.00245968
0.00962677, -0.01882, -0.563685, 6.28593e-05, 8.73709e-06, 0.000557406, 0.435563, 0.465969, 0.281462, 0.000970897, 0.000916362, 0.00245845
0.00961332, -0.0170898, -0.563314, 6.3202e-05, 8.83972e-06, 0.000556914, 0.43604, 0.466818, 0.281315, 0.000970657, 0.000916309, 0.00245679
0.00945826, -0.0160112, -0.563097, 6.33973e-05, 8.89735e-06, 0.000556719, 0.436503, 0.467671, 0.281171, 0.000970411, 0.000916267, 0.00245494
0.00921541, -0.0154121, -0.563236, 6.34521e-05, 8.92638e-06, 0.000556835, 0.43696, 0.4685, 0.28104, 0.000970184, 0.000916233, 0.00245315
0.0091819, -0.0155739, -0.563331, 6.34151e-05, 8.92163e-06, 0.000556892, 0.437436, 0.469304, 0.280921, 0.00096999, 0.000916203, 0.00245164
0.00873912, -0.0160691, -0.562801, 6.33442e-05, 8.96727e-06, 0.000557242, 0.437962, 0.470105, 0.280823, 0.000969842, 0.000916172, 0.00245054
0.00860976, -0.0172056, -0.56261, 6.3202e-05, 8.99287e-06, 0.000557198, 0.438516, 0.47091, 0.280775, 0.000969739, 0.000916138, 0.00244979
0.00810639, -0.018091, -0.56183, 6.31204e-05, 9.03077e-06, 0.000557127, 0.439085, 0.471739, 0.2808, 0.000969679, 0.000916074, 0.00244915
0.0078275, -0.0191527, -0.560344, 6.31193e-05, 8.95017e-06, 0.000556522, 0.439604, 0.47255, 0.280911, 0.000969649, 0.000915955, 0.00244815
0.00753097, -0.0204083, -0.561584, 6.30261e-05, 9.32714e-06, 0.000555343, 0.439994, 0.473289, 0.281108, 0.00096963, 0.00091576, 0.00244622
0.0070823, -0.0215948, -0.562625, 6.2999e-05, 9.72624e-06, 0.000553956, 0.440246, 0.473974, 0.281386, 0.000969599, 0.000915493, 0.00244304
0.00729468, -0.0233687, -0.563881, 6.30634e-05, 1.02782e-05, 0.000550998, 0.440339, 0.474618, 0.281779, 0.000969545, 0.000915141, 0.00243899
0.00747976, -0.0245689, -0.56443, 6.31521e-05, 1.05713e-05, 0.000548932, 0.440312, 0.475245, 0.282248, 0.000969479, 0.000914745, 0.00243478
0.00799431, -0.0260453, -0.562596, 6.34296e-05, 1.02611e-05, 0.000546627, 0.440213, 0.475816, 0.28269, 0.000969421, 0.000914409, 0.00243151
0.00778675, -0.0265765, -0.563561, 6.33858e-05, 1.05153e-05, 0.00054616, 0.440077, 0.476262, 0.283084, 0.000969371, 0.000914166, 0.00242961
0.00867496, -0.0274165, -0.563946, 6.33183e-05, 1.06309e-05, 0.000545524, 0.440098, 0.476645, 0.28327, 0.000969333, 0.000914083, 0.00242888
0.00915317, -0.0281475, -0.5644, 6.32081e-05, 1.06819e-05, 0.000545467, 0.440336, 0.477042, 0.283291, 0.000969275, 0.000914055, 0.00242879
0.0100945, -0.0290175, -0.564019, 6.30043e-05, 1.06596e-05, 0.000546076, 0.440846, 0.477511, 0.28315, 0.000969118, 0.000914019, 0.00242793
0.0109232, -0.0299794, -0.563884, 6.26644e-05, 1.05838e-05, 0.000547526, 0.44158, 0.478067, 0.282855, 0.000968777, 0.000913904, 0.00242477
0.0118432, -0.0310183, -0.563246, 6.22115e-05, 1.05293e-05, 0.000549827, 0.442498, 0.478768, 0.282443, 0.0009682, 0.000913641, 0.0024183
0.0124114, -0.0313305, -0.562645, 6.20363e-05, 1.05561e-05, 0.000550733, 0.443585, 0.47971, 0.281987, 0.000967367, 0.000913188, 0.00240815
0.0127718, -0.0315449, -0.561209, 6.19219e-05, 1.09158e-05, 0.000551333, 0.444825, 0.480979, 0.28156, 0.000966258, 0.000912542, 0.00239391
0.013271, -0.0318317, -0.559305, 6.1691e-05, 1.14808e-05, 0.00055237, 0.446196, 0.48264, 0.281216, 0.000964906, 0.000911694, 0.00237592
0.01397, -0.0322003, -0.556365, 6.12853e-05, 1.25048e-05, 0.000553887, 0.447672, 0.484695, 0.28102, 0.000963416, 0.00091069, 0.00235582
0.0136817, -0.0319907, -0.554559, 6.14331e-05, 1.33756e-05, 0.000552679, 0.449171, 0.486989, 0.281014, 0.000962027, 0.000909728, 0.0023371
0.0130159, -0.0321231, -0.554078, 6.14525e-05, 1.37383e-05, 0.00055282, 0.450512, 0.489233, 0.281076, 0.000960977, 0.000908809, 0.00232325
0.0118593, -0.032268, -0.554603, 6.15739e-05, 1.37887e-05, 0.000552608, 0.451627, 0.491136, 0.281171, 0.000960344, 0.000908131, 0.00231539
0.0107628, -0.0326625, -0.554023, 6.1571e-05, 1.40962e-05, 0.000552834, 0.452487, 0.492516, 0.281263, 0.000960047, 0.000907811, 0.0023124
0.00981239, -0.0326621, -0.552883, 6.16408e-05, 1.42825e-05, 0.000552713, 0.453015, 0.493284, 0.281314, 0.000959951, 0.000907746, 0.00231191
0.00895444, -0.0325243, -0.552734, 6.16993e-05, 1.4304e-05, 0.000552749, 0.453215, 0.493453, 0.281279, 0.000959933, 0.00090773, 0.00231181
0.00827372, -0.0326564, -0.55168, 6.17707e-05, 1.41725e-05, 0.000552732, 0.453134, 0.493109, 0.281182, 0.000959902, 0.000907634, 0.00231036
0.00765122, -0.0327492, -0.551643, 6.17903e-05, 1.41514e-05, 0.000552659, 0.452853, 0.492404, 0.281066, 0.000959806, 0.000907359, 0.0023061
0.00723264, -0.0323385, -0.552483, 6.16672e-05, 1.43439e-05, 0.000553397, 0.452527, 0.491517, 0.280922, 0.000959615, 0.000906964, 0.00229777
0.00706073, -0.0321485, -0.552346, 6.16254e-05, 1.42856e-05, 0.000553886, 0.452227, 0.490651, 0.280816, 0.000959321, 0.000906506, 0.00228547
0.00709445, -0.0318008, -0.553408, 6.14549e-05, 1.46199e-05, 0.000554533, 0.451973, 0.490041, 0.280831, 0.000958957, 0.000905972, 0.00227045
0.00753537, -0.0315769, -0.55511, 6.12579e-05, 1.52294e-05, 0.000554586, 0.451796, 0.489864, 0.281025, 0.00095857, 0.000905354, 0.00225434
0.00773354, -0.0313661, -0.55465, 6.12849e-05, 1.50199e-05, 0.000555248, 0.451791, 0.490196, 0.281409, 0.000958224, 0.000904709, 0.00223888
0.00802331, -0.0311542, -0.55426, 6.13259e-05, 1.48153e-05, 0.000555874, 0.452012, 0.491003, 0.281949, 0.000957962, 0.000904072, 0.00222508
0.00835289, -0.0303297, -0.556129, 6.10941e-05, 1.53105e-05, 0.000557812, 0.452566, 0.492255, 0.282581, 0.000957793, 0.000903518, 0.0022127
0.00890947, -0.0301572, -0.558159, 6.10468e-05, 1.58541e-05, 0.000557912, 0.453348, 0.493849, 0.28329, 0.000957701, 0.000903005, 0.00220197
0.00933224, -0.0300217, -0.560293, 6.10374e-05, 1.63812e-05, 0.00055798, 0.454201, 0.495603, 0.284043, 0.000957654, 0.000902552, 0.0021931
0.0366747, -0.0312478, -0.558512, 6.22992e-05, 1.20863e-05, 0.000558819, 0.455024, 0.497335, 0.284754, 0.000957631, 0.000902217, 0.00218608
0.0439354, -0.0322984, -0.556109, 6.23127e-05, 1.09177e-05, 0.00055781, 0.455728, 0.498926, 0.285312, 0.000957616, 0.00090198, 0.00218049
0.0257863, -0.032098, -0.558637, 6.3199e-05, 1.29941e-05, 0.000557956, 0.456329, 0.50031, 0.285726, 0.000957603, 0.000901822, 0.00217704
0.0135148, -0.0323484, -0.562137, 6.43733e-05, 1.43217e-05, 0.000559285, 0.456864, 0.501477, 0.28609, 0.000957567, 0.000901689, 0.00217561
0.00536022, -0.0325876, -0.564697, 6.55243e-05, 1.49464e-05, 0.000560892, 0.457349, 0.502344, 0.286303, 0.000957479, 0.000901589, 0.00217532
0.000449159, -0.03249, -0.566865, 6.64564e-05, 1.50462e-05, 0.000562024, 0.45777, 0.502836, 0.286239, 0.000957315, 0.000901496, 0.00217512
-0.00195516, -0.0322094, -0.567114, 6.70249e-05, 1.50556e-05, 0.000562161, 0.458125, 0.502948, 0.285894, 0.000957043, 0.000901365, 0.00217387
-0.00223733, -0.0321399, -0.567269, 6.7121e-05, 1.50159e-05, 0.000562104, 0.458418, 0.502747, 0.285228, 0.000956653, 0.000901116, 0.0021707
-0.00119987, -0.031877, -0.567121, 6.6905e-05, 1.49827e-05, 0.000561704, 0.458753, 0.502448, 0.284333, 0.000956126, 0.0009007, 0.00216529
0.00066989, -0.031721, -0.566319, 6.63584e-05, 1.50836e-05, 0.000561874, 0.459237, 0.502252, 0.283366, 0.000955418, 0.000900162, 0.00215724
0.0030522, -0.0316061, -0.565543, 6.56179e-05, 1.50627e-05, 0.000562656, 0.459898, 0.502291, 0.282453, 0.000954529, 0.00089956, 0.00214617
0.00583134, -0.0316264, -0.563709, 6.46461e-05, 1.53691e-05, 0.000564165, 0.460716, 0.50267, 0.281604, 0.000953484, 0.000898789, 0.00213209
0.00844758, -0.0316902, -0.561776, 6.3757e-05, 1.56924e-05, 0.000565837, 0.461708, 0.503492, 0.280928, 0.000952306, 0.000897914, 0.0021153
0.0107002, -0.0318612, -0.560216, 6.29883e-05, 1.58464e-05, 0.000567701, 0.462895, 0.504833, 0.280501, 0.00095102, 0.000896979, 0.00209673
-0.0233129, -0.0372125, -0.573563, 6.76662e-05, 1.8077e-05, 0.000567982, 0.464222, 0.506636, 0.280327, 0.000949731, 0.000895957, 0.00207836
-0.00516736, -0.0348717, -0.565224, 6.56426e-05, 1.7476e-05, 0.000568565, 0.46556, 0.508699, 0.280314, 0.000948533, 0.000894882, 0.00206032
0.00777222, -0.0332224, -0.557468, 6.453e-05, 1.80912e-05, 0.000568269, 0.466724, 0.510748, 0.280485, 0.000947662, 0.00089392, 0.00204681
0.0159754, -0.0322289, -0.553937, 6.4247e-05, 1.80355e-05, 0.000567881, 0.467687, 0.512559, 0.280767, 0.000947125, 0.000893134, 0.00203847
0.0216243, -0.031914, -0.551167, 6.40201e-05, 1.80773e-05, 0.000568298, 0.468547, 0.514053, 0.281081, 0.000946817, 0.000892593, 0.0020345
0.0246543, -0.0317174, -0.54848, 6.39234e-05, 1.8274e-05, 0.000568312, 0.469325, 0.515176, 0.281345, 0.000946666, 0.00089234, 0.00203342
0.0262202, -0.0316296, -0.547485, 6.39778e-05, 1.82215e-05, 0.000568203, 0.469934, 0.515855, 0.281454, 0.00094661, 0.000892264, 0.00203339
0.0260279, -0.0315196, -0.546466, 6.39827e-05, 1.82155e-05, 0.000568302, 0.47029, 0.51607, 0.281374, 0.000946585, 0.000892245, 0.00203284
0.0250261, -0.0317412, -0.546937, 6.38736e-05, 1.83003e-05, 0.000568329, 0.470377, 0.515864, 0.281125, 0.000946534, 0.000892168, 0.0020306
0.0235081, -0.0318963, -0.549222, 6.3563e-05, 1.8763e-05, 0.000568207, 0.47035, 0.515386, 0.280769, 0.000946434, 0.000892012, 0.00202604
0.0219954, -0.0322109, -0.550729, 6.33251e-05, 1.91599e-05, 0.000567635, 0.47031, 0.514849, 0.280393, 0.000946291, 0.000891773, 0.00201898
0.0206024, -0.0323054, -0.55263, 6.30374e-05, 1.97215e-05, 0.000567198, 0.470268, 0.514388, 0.280084, 0.000946111, 0.000891438, 0.00200963
0.0187503, -0.0327761, -0.5534, 6.28622e-05, 2.00601e-05, 0.000565801, 0.470273, 0.514111, 0.279893, 0.000945907, 0.000891054, 0.00199851
0.0167094, -0.032825, -0.554528, 6.25818e-05, 2.05321e-05, 0.000565058, 0.470316, 0.514106, 0.279879, 0.000945694, 0.000890594, 0.0019862
0.0153834, -0.0328782, -0.555308, 6.241e-05, 2.08963e-05, 0.000564317, 0.470445, 0.514449, 0.280072, 0.00094549, 0.000890074, 0.00197309
0.0142295, -0.0325115, -0.556673, 6.21742e-05, 2.14546e-05, 0.000564489, 0.470625, 0.515127, 0.280479, 0.000945305, 0.000889496, 0.00196006
0.0135332, -0.0321687, -0.558795, 6.19756e-05, 2.23019e-05, 0.000564515, 0.47082, 0.51608, 0.281105, 0.000945142, 0.000888875, 0.00194811
0.0131589, -0.0321691, -0.559975, 6.18853e-05, 2.27931e-05, 0.000564067, 0.471045, 0.517253, 0.281904, 0.00094501, 0.000888245, 0.00193784
0.0127625, -0.03284, -0.561602, 6.18408e-05, 2.35527e-05, 0.000561968, 0.47129, 0.518605, 0.282866, 0.000944908, 0.000887554, 0.00192925
0.0126705, -0.0333349, -0.563322, 6.17746e-05, 2.4317e-05, 0.000560558, 0.471604, 0.520104, 0.283925, 0.000944841, 0.000886848, 0.00192252
0.0123728, -0.0337606, -0.563722, 6.17389e-05, 2.45093e-05, 0.000559859, 0.471959, 0.521616, 0.284995, 0.000944789, 0.00088618, 0.00191801
0.0126892, -0.0340923, -0.564343, 6.17039e-05, 2.47095e-05, 0.000559353, 0.472317, 0.522993, 0.285954, 0.000944728, 0.000885629, 0.00191557
0.0127151, -0.033937, -0.564855, 6.16355e-05, 2.48754e-05, 0.000559376, 0.472614, 0.524059, 0.286727, 0.000944627, 0.000885189, 0.00191466
0.0131307, -0.033741, -0.566285, 6.14374e-05, 2.51567e-05, 0.000559312, 0.472881, 0.524688, 0.287104, 0.000944465, 0.000884966, 0.0019144
0.0139184, -0.033522, -0.566393, 6.14986e-05, 2.51382e-05, 0.00055898, 0.473181, 0.524897, 0.287121, 0.000944233, 0.000884859, 0.00191372
0.0145448, -0.0335165, -0.565613, 6.16716e-05, 2.50673e-05, 0.000558758, 0.473617, 0.52483, 0.286811, 0.000943939, 0.000884789, 0.00191144
0.0150419, -0.0338448, -0.56415, 6.18103e-05, 2.50322e-05, 0.000559032, 0.474236, 0.524638, 0.286217, 0.000943549, 0.000884673, 0.00190638
0.0153587, -0.0340444, -0.562617, 6.19393e-05, 2.51445e-05, 0.000559235, 0.474977, 0.524444, 0.285442, 0.000943052, 0.000884448, 0.0018983
0.015887, -0.0341817, -0.561323, 6.20522e-05, 2.53069e-05, 0.000559325, 0.475794, 0.524383, 0.284605, 0.000942473, 0.000884088, 0.00188789
0.0162288, -0.0343718, -0.560519, 6.20786e-05, 2.5411e-05, 0.000559645, 0.476702, 0.524617, 0.283854, 0.00094183, 0.000883633, 0.00187604
0.0163136, -0.0348046, -0.560296, 6.19177e-05, 2.53792e-05, 0.000560681, 0.477744, 0.525268, 0.283255, 0.00094113, 0.000883097, 0.00186349
0.0163588, -0.0347493, -0.558709, 6.20364e-05, 2.58326e-05, 0.000560238, 0.478971, 0.526417, 0.282839, 0.000940351, 0.000882498, 0.00185054
-0.0135819, -0.0384735, -0.576749, 6.07838e-05, 2.71595e-05, 0.000565848, 0.480393, 0.528054, 0.282608, 0.000939488, 0.000881839, 0.00183773
-0.0229032, -0.0460644, -0.594456, 5.80208e-05, 2.24368e-05, 0.000585993, 0.481974, 0.530069, 0.282467, 0.000938532, 0.000881041, 0.00182451
-0.00178107, -0.039402, -0.574546, 5.7729e-05, 2.46652e-05, 0.000575569, 0.483594, 0.532301, 0.282424, 0.000937589, 0.00088019, 0.00181271
0.0129826, -0.0342574, -0.560252, 5.65209e-05, 2.67562e-05, 0.000568905, 0.485012, 0.534447, 0.282501, 0.000936835, 0.000879375, 0.00180418
0.0225969, -0.0304644, -0.549711, 5.49952e-05, 2.87711e-05, 0.000564913, 0.486175, 0.536322, 0.282676, 0.000936279, 0.000878701, 0.00179882
0.0283125, -0.0279971, -0.542029, 5.35364e-05, 3.01219e-05, 0.00056301, 0.487069, 0.537791, 0.282886, 0.000935888, 0.000878297, 0.00179626
-0.00265932, -0.0268734, -0.543499, 5.77379e-05, 3.28069e-05, 0.000563173, 0.487707, 0.538765, 0.283, 0.00093562, 0.000878098, 0.00179566
0.0134943, -0.025756, -0.539633, 5.51608e-05, 3.22306e-05, 0.000560397, 0.488102, 0.539219, 0.282862, 0.000935438, 0.000878017, 0.00179559
0.0237701, -0.0254162, -0.537402, 5.35568e-05, 3.20715e-05, 0.000557714, 0.488167, 0.539225, 0.282678, 0.000935292, 0.00087792, 0.00179461
0.0299222, -0.025579, -0.535797, 5.26128e-05, 3.20372e-05, 0.000555382, 0.487892, 0.538874, 0.282464, 0.000935138, 0.000877623, 0.00179151
0.0327155, -0.0260751, -0.535004, 5.22821e-05, 3.20632e-05, 0.000553573, 0.487401, 0.538306, 0.282251, 0.000934977, 0.000877102, 0.00178566
0.0341151, -0.0269206, -0.538461, 5.26447e-05, 3.33874e-05, 0.000551677, 0.486927, 0.537835, 0.282083, 0.000934835, 0.000876412, 0.00177651
0.0337943, -0.0279043, -0.541562, 5.29942e-05, 3.4813e-05, 0.000549749, 0.486639, 0.537842, 0.282077, 0.000934753, 0.00087553, 0.00176489
0.0323073, -0.0285716, -0.542525, 5.30465e-05, 3.54703e-05, 0.000548643, 0.486511, 0.538462, 0.282388, 0.000934721, 0.000874376, 0.00175274
0.0305054, -0.0291321, -0.544477, 5.28279e-05, 3.68052e-05, 0.000547465, 0.486502, 0.539556, 0.283075, 0.000934687, 0.000873026, 0.00174148
0.0286854, -0.0290858, -0.547441, 5.2195e-05, 3.86747e-05, 0.000547273, 0.48663, 0.5409, 0.284024, 0.000934588, 0.000871727, 0.00173218
0.0266566, -0.0290066, -0.550758, 5.11392e-05, 4.06773e-05, 0.000546601, 0.486772, 0.542226, 0.285152, 0.000934364, 0.000870533, 0.00172533
0.0243131, -0.0292468, -0.552841, 5.00581e-05, 4.18514e-05, 0.000545521, 0.48676, 0.543238, 0.286372, 0.000933987, 0.000869411, 0.00172098
0.0217856, -0.0294347, -0.553835, 4.91147e-05, 4.22424e-05, 0.000544607, 0.486361, 0.543595, 0.28755, 0.000933481, 0.000868336, 0.00171866
0.0193561, -0.0289997, -0.556857, 4.7671e-05, 4.31915e-05, 0.000543584, 0.485358, 0.54294, 0.28848, 0.000932818, 0.00086738, 0.00171747
0.0180981, -0.0283769, -0.562726, 4.59845e-05, 4.45126e-05, 0.000542468, 0.483766, 0.541163, 0.289029, 0.000931863, 0.000866527, 0.00171646
0.0171348, -0.0284231, -0.56549, 4.51977e-05, 4.47319e-05, 0.00054157, 0.481818, 0.538498, 0.289376, 0.000930642, 0.000865605, 0.00171578
0.0164856, -0.0288347, -0.56633, 4.49877e-05, 4.4556e-05, 0.000541194, 0.479894, 0.535496, 0.28968, 0.000929376, 0.000864619, 0.0017153
0.0164748, -0.0291104, -0.567097, 4.49225e-05, 4.45188e-05, 0.000541289, 0.478307, 0.532521, 0.289882, 0.00092819, 0.000863689, 0.00171462
0.0164029, -0.0298143, -0.566777, 4.51007e-05, 4.42684e-05, 0.000541682, 0.477258, 0.52985, 0.289881, 0.000927201, 0.0008629, 0.0017135
0.0163958, -0.0310976, -0.564067, 4.55331e-05, 4.40404e-05, 0.000542561, 0.476918, 0.527898, 0.289682, 0.000926471, 0.000862226, 0.00171181
0.0161778, -0.0319821, -0.561875, 4.55658e-05, 4.39905e-05, 0.000543153, 0.477352, 0.526998, 0.289369, 0.000925872, 0.000861562, 0.00170975
0.0164683, -0.0322393, -0.560582, 4.56088e-05, 4.41448e-05, 0.000543544, 0.478517, 0.527062, 0.288806, 0.000925259, 0.000860703, 0.0017076
0.0169374, -0.0324754, -0.560211, 4.56623e-05, 4.40697e-05, 0.000544033, 0.480186, 0.527931, 0.287952, 0.000924587, 0.000859517, 0.00170542
0.0174931, -0.0327851, -0.559627, 4.56271e-05, 4.40627e-05, 0.000544471, 0.482197, 0.52955, 0.286923, 0.000923785, 0.000857989, 0.00170348
0.0180997, -0.0333017, -0.559383, 4.54495e-05, 4.38442e-05, 0.000545093, 0.484362, 0.531719, 0.285817, 0.000922835, 0.000856104, 0.001702
0.0185427, -0.0337504, -0.560014, 4.53486e-05, 4.31923e-05, 0.000545552, 0.486415, 0.534154, 0.284599, 0.00092184, 0.00085379, 0.00170095
0.0197943, -0.0340108, -0.559154, 4.5035e-05, 4.32225e-05, 0.000545626, 0.488372, 0.536826, 0.283443, 0.000920744, 0.000851459, 0.00170008
0.0208996, -0.0340322, -0.55838, 4.4759e-05, 4.32645e-05, 0.000545486, 0.490281, 0.539671, 0.282434, 0.000919513, 0.000849164, 0.0016993
0.0222399, -0.0334709, -0.556795, 4.45279e-05, 4.37977e-05, 0.000544836, 0.491915, 0.542377, 0.281509, 0.000918319, 0.000846767, 0.00169876
0.03795, -0.0311997, -0.545293, 3.91743e-05, 4.67471e-05, 0.000536725, 0.493171, 0.54478, 0.280647, 0.000917201, 0.000844255, 0.00169824
0.0299683, -0.0317716, -0.552812, 4.24957e-05, 4.31392e-05, 0.000542174, 0.494053, 0.546936, 0.279866, 0.000916161, 0.000841476, 0.00169746
0.0250593, -0.0322006, -0.557114, 4.46281e-05, 4.12393e-05, 0.000544335, 0.494913, 0.549017, 0.279331, 0.000915124, 0.000839054, 0.00169692
0.0226295, -0.0323474, -0.559403, 4.58279e-05, 4.01759e-05, 0.000545235, 0.495644, 0.550819, 0.278987, 0.000914104, 0.000837, 0.00169641
0.0358005, -0.0291952, -0.554106, 4.0413e-05, 4.02755e-05, 0.000539931, 0.496348, 0.552323, 0.278848, 0.000913096, 0.000835588, 0.00169568
0.03724, -0.0265478, -0.554574, 4.02024e-05, 3.90432e-05, 0.000539638, 0.496892, 0.553557, 0.278774, 0.000912201, 0.000834287, 0.00169551
0.0355063, -0.0260481, -0.561322, 4.15172e-05, 3.63189e-05, 0.000540406, 0.497337, 0.554524, 0.278744, 0.000911436, 0.00083322, 0.00169538
0.0335481, -0.0255863, -0.564703, 4.25434e-05, 3.51398e-05, 0.000540972, 0.497705, 0.555238, 0.278718, 0.000910775, 0.000832388, 0.00169525
0.0308949, -0.0259707, -0.566194, 4.35882e-05, 3.48966e-05, 0.000541407, 0.497985, 0.555713, 0.27869, 0.000910197, 0.000831761, 0.00169515
0.0280446, -0.0265957, -0.566336, 4.45574e-05, 3.50121e-05, 0.000541647, 0.498177, 0.55598, 0.278654, 0.0009097, 0.000831302, 0.00169506
0.0233553, -0.0286618, -0.573116, 4.63597e-05, 3.48095e-05, 0.00054179, 0.498283, 0.556079, 0.278611, 0.000909277, 0.000830965, 0.00169499
0.0195697, -0.0303101, -0.576147, 4.7599e-05, 3.50024e-05, 0.000541732, 0.498347, 0.556083, 0.278565, 0.000908919, 0.000830705, 0.00169493
0.00852834, -0.0349051, -0.573147, 5.05777e-05, 3.56984e-05, 0.000541249, 0.498365, 0.556016, 0.278524, 0.000908624, 0.000830492, 0.00169488
0.00204052, -0.0374607, -0.570401, 5.21294e-05, 3.58256e-05, 0.000540967, 0.49833, 0.555884, 0.278488, 0.000908389, 0.000830309, 0.00169486
-0.00151978, -0.0388074, -0.568035, 5.28827e-05, 3.57262e-05, 0.000540819, 0.498262, 0.55573, 0.278457, 0.000908208, 0.000830141, 0.00169483
-0.00184459, -0.0388277, -0.566024, 5.29463e-05, 3.54758e-05, 0.000540872, 0.498186, 0.55559, 0.278434, 0.000908073, 0.000829978, 0.00169481
-0.00057061, -0.0386348, -0.564025, 5.27761e-05, 3.51868e-05, 0.000541002, 0.498121, 0.555493, 0.278415, 0.000907976, 0.000829816, 0.00169479
0.00121472, -0.0383531, -0.562846, 5.25741e-05, 3.49879e-05, 0.000541132, 0.498092, 0.555464, 0.278408, 0.00090791, 0.000829657, 0.00169476
0.00459602, -0.0377349, -0.561592, 5.22731e-05, 3.4723e-05, 0.000541324, 0.498119, 0.555519, 0.278415, 0.000907867, 0.000829506, 0.00169474
0.00768793, -0.0369475, -0.560845, 5.20668e-05, 3.45059e-05, 0.000541504, 0.498208, 0.555663, 0.278431, 0.000907839, 0.000829365, 0.00169471
0.0112883, -0.0365755, -0.559912, 5.18995e-05, 3.4253e-05, 0.000541624, 0.498369, 0.555899, 0.278454, 0.00090782, 0.000829239, 0.00169468
0.0140682, -0.0360624, -0.558809, 5.18434e-05, 3.39705e-05, 0.000541742, 0.498604, 0.556225, 0.278483, 0.000907804, 0.000829129, 0.00169466
0.0168419, -0.0355259, -0.557935, 5.1828e-05, 3.37114e-05, 0.000541834, 0.498911, 0.556633, 0.27851, 0.000907789, 0.000829036, 0.00169464
0.0196872, -0.0355965, -0.557334, 5.18042e-05, 3.34845e-05, 0.000541854, 0.499287, 0.557119, 0.278535, 0.000907769, 0.000828959, 0.00169462
0.0217713, -0.0350107, -0.557025, 5.1854e-05, 3.33096e-05, 0.000541915, 0.499734, 0.557679, 0.278562, 0.000907744, 0.000828895, 0.00169461
0.0235398, -0.0345633, -0.556815, 5.19072e-05, 3.31597e-05, 0.000541946, 0.500244, 0.558304, 0.278589, 0.000907711, 0.000828841, 0.00169461
0.0247265, -0.0347581, -0.556367, 5.19058e-05, 3.30356e-05, 0.000541948, 0.500809, 0.558983, 0.278612, 0.000907672, 0.000828794, 0.0016946
0.0258927, -0.034394, -0.556274, 5.19683e-05, 3.29294e-05, 0.000541957, 0.501418, 0.559706, 0.278632, 0.000907626, 0.000828751, 0.0016946
0.0261889, -0.0345067, -0.556143, 5.19559e-05, 3.28979e-05, 0.000541965, 0.502065, 0.560463, 0.278648, 0.000907574, 0.000828709, 0.0016946
0.0268522, -0.0344267, -0.556061, 5.19833e-05, 3.28321e-05, 0.000541966, 0.502737, 0.561244, 0.278656, 0.000907517, 0.000828667, 0.00169459
0.0265222, -0.0344766, -0.555971, 5.19694e-05, 3.28642e-05, 0.000541967, 0.503433, 0.562045, 0.278659, 0.000907456, 0.000828624, 0.00169459
0.0261378, -0.0344425, -0.555909, 5.19687e-05, 3.29029e-05, 0.000541961, 0.504144, 0.562858, 0.27866, 0.000907393, 0.000828579, 0.00169458
0.0256874, -0.0344098, -0.556107, 5.19656e-05, 3.2948e-05, 0.000541953, 0.504864, 0.563677, 0.278656, 0.000907328, 0.000828534, 0.00169457
0.0254069, -0.0345516, -0.55636, 5.19442e-05, 3.29718e-05, 0.000541958, 0.505593, 0.564503, 0.278657, 0.000907262, 0.000828487, 0.00169455
0.0250138, -0.0346696, -0.556697, 5.19241e-05, 3.3006e-05, 0.000541961, 0.506321, 0.565324, 0.278652, 0.000907197, 0.00082844, 0.00169454
0.0246217, -0.0346099, -0.556776, 5.19298e-05, 3.30444e-05, 0.000541951, 0.507046, 0.566141, 0.278647, 0.000907133, 0.000828393, 0.00169453
0.0242844, -0.0347243, -0.556831, 5.1913e-05, 3.30771e-05, 0.000541952, 0.507763, 0.566946, 0.278639, 0.000907071, 0.000828346, 0.00169452
0.0244738, -0.0352869, -0.557185, 5.18471e-05, 3.30499e-05, 0.000541987, 0.508469, 0.567739, 0.278627, 0.000907011, 0.000828302, 0.0016945
0.0238536, -0.0358646, -0.557169, 5.17719e-05, 3.31119e-05, 0.000542008, 0.509165, 0.56852, 0.278612, 0.000906954, 0.000828258, 0.00169449
0.0234304, -0.0363984, -0.557031, 5.17065e-05, 3.31554e-05, 0.000542021, 0.509851, 0.569288, 0.2786, 0.000906899, 0.000828216, 0.00169449
0.0231742, -0.037062, -0.557787, 5.16313e-05, 3.31717e-05, 0.000542042, 0.510529, 0.570047, 0.278593, 0.000906846, 0.000828176, 0.00169448
0.0229182, -0.0372851, -0.557756, 5.16065e-05, 3.31949e-05, 0.000542046, 0.511205, 0.570803, 0.278591, 0.000906795, 0.000828136, 0.00169447
0.0228883, -0.0376674, -0.558325, 5.15633e-05, 3.31958e-05, 0.000542055, 0.511874, 0.571553, 0.278592, 0.000906745, 0.000828098, 0.00169447
0.022724, -0.0378496, -0.558521, 5.15443e-05, 3.32099e-05, 0.000542055, 0.512537, 0.572297, 0.27859, 0.000906696, 0.000828061, 0.00169446
0.0225111, -0.0380021, -0.558581, 5.15275e-05, 3.32299e-05, 0.000542054, 0.513193, 0.573035, 0.278587, 0.000906649, 0.000828024, 0.00169446
0.022369, -0.0380564, -0.558516, 5.15224e-05, 3.32424e-05, 0.000542053, 0.513843, 0.573767, 0.278585, 0.000906603, 0.000827988, 0.00169445
0.0222186, -0.0381554, -0.558686, 5.15113e-05, 3.3257e-05, 0.000542051, 0.514487, 0.574494, 0.278582, 0.000906558, 0.000827953, 0.00169445
0.0221872, -0.0386907, -0.558307, 5.14544e-05, 3.32624e-05, 0.000542055, 0.51513, 0.575219, 0.278585, 0.000906513, 0.000827919, 0.00169445
0.0217891, -0.0385989, -0.558749, 5.14648e-05, 3.32973e-05, 0.000542053, 0.515769, 0.575941, 0.278588, 0.000906469, 0.000827884, 0.00169444
