0.00370678, -0.000616392, -0.55848, 6.38645e-05, -0.000248018, 0.000146017, 0.0316228, 0.0316228, 0.0316228, 0.0316228, 0.0316228, 0.0316228
0.00370678, -0.000616392, -0.55848, 6.38645e-05, -0.000248018, 0.000146017, 0.173642, 0.173642, 0.173642, 0.0316228, 0.0316228, 0.0316228
0.00281055, -0.000757889, -0.55819, 4.42093e-05, -0.000114344, 0.000158836, 0.194306, 0.194298, 0.19426, 0.0315696, 0.0315703, 0.0316069
0.00190354, -0.001042, -0.557639, -1.26914e-06, 6.62872e-06, 0.000159003, 0.212614, 0.212561, 0.212292, 0.0314737, 0.0314787, 0.0315911
0.00217911, -0.00127878, -0.554476, -2.35095e-05, -0.000118765, 0.000164901, 0.228987, 0.228925, 0.227761, 0.0313184, 0.0313248, 0.0315753
0.00177976, -0.00120856, -0.551658, -2.4052e-05, -2.1233e-05, 0.000168638, 0.243852, 0.243802, 0.240591, 0.0311031, 0.0311084, 0.0315595
0.00116534, -0.00145584, -0.551301, -6.67412e-05, 0.000101379, 0.000168838, 0.257551, 0.257506, 0.250841, 0.0308325, 0.0308375, 0.0315437
0.000645155, -0.00131206, -0.551059, -3.96903e-05, 0.000151568, 0.000171183, 0.270269, 0.27026, 0.25808, 0.0305079, 0.0305104, 0.0315278
-0.000895673, -0.00142152, -0.552047, -7.21634e-05, 0.000356808, 0.000174554, 0.28231, 0.282177, 0.263747, 0.0301316, 0.0301595, 0.0315119
-0.00259896, -0.00161074, -0.554305, -0.000105144, 0.000581955, 0.000169288, 0.293488, 0.293303, 0.267854, 0.0297106, 0.0297507, 0.0314961
-0.00341958, -0.00163075, -0.554254, -0.000111009, 0.000689323, 0.000162223, 0.303795, 0.303635, 0.270633, 0.0292314, 0.0292688, 0.0314803
-0.00317592, -0.00155491, -0.556393, -0.000105346, 0.000675736, 0.000158888, 0.313175, 0.313015, 0.272796, 0.0286596, 0.0286993, 0.0314645
-0.000624457, -0.00127601, -0.556224, -4.58214e-05, 0.000357768, 0.000167347, 0.321702, 0.321354, 0.275063, 0.0279716, 0.02805, 0.0314486
0.00288589, -0.000669197, -0.555297, 8.48327e-05, -9.81024e-05, 0.000179483, 0.330145, 0.328968, 0.278898, 0.0271979, 0.0274353, 0.0314327
0.00582985, -0.000585556, -0.558755, 0.000132968, -0.000451166, 0.000185973, 0.338497, 0.336296, 0.283471, 0.0263945, 0.0268334, 0.0314169
0.0090521, -0.000547807, -0.562958, 0.000192774, -0.000804917, 0.000187795, 0.346291, 0.343466, 0.287051, 0.0256102, 0.0261798, 0.0314008
0.0117273, -5.85864e-05, -0.56526, 0.000276866, -0.00108471, 0.000201353, 0.353473, 0.350505, 0.289099, 0.0248878, 0.0255019, 0.0313846
0.0144009, 0.000307088, -0.566016, 0.000337543, -0.00136919, 0.000213594, 0.360065, 0.35747, 0.289121, 0.0242543, 0.0248193, 0.0313683
0.0159949, 0.000629658, -0.568424, 0.000381443, -0.00149866, 0.000222503, 0.365916, 0.364318, 0.286064, 0.0236873, 0.0240781, 0.0313509
0.0158484, 0.00107822, -0.566914, 0.000425386, -0.0015046, 0.00022454, 0.371633, 0.370953, 0.281391, 0.023132, 0.0233253, 0.0313311
0.0155994, 0.00109535, -0.567402, 0.000421536, -0.00144703, 0.000221481, 0.378186, 0.37756, 0.278899, 0.022565, 0.0226816, 0.0313097
0.0152661, 0.00100618, -0.569259, 0.000400386, -0.0013751, 0.000225534, 0.385556, 0.384483, 0.279734, 0.0220116, 0.0221508, 0.0312871
0.0149993, 0.000286288, -0.575315, 0.000293419, -0.00121803, 0.000217147, 0.393195, 0.391856, 0.282581, 0.0214809, 0.0216186, 0.0312644
0.0138519, -0.000811572, -0.582488, 0.000125339, -0.000942059, 0.000186266, 0.400752, 0.399759, 0.287548, 0.0210134, 0.0210199, 0.0312421
0.0121197, -0.00169067, -0.589776, -4.6061e-05, -0.000600872, 0.000143444, 0.408113, 0.408168, 0.295327, 0.0206734, 0.0204037, 0.0312216
0.0107272, -0.00227561, -0.594052, -0.000192543, -0.000408888, 0.000100621, 0.415353, 0.416824, 0.304613, 0.020448, 0.0198327, 0.0312006
0.00997196, -0.00235165, -0.59707, -0.000339495, -0.000324479, 7.80052e-05, 0.422655, 0.425438, 0.314268, 0.0202712, 0.0193239, 0.0311833
0.00939783, -0.00218844, -0.59914, -0.000515971, -0.000276253, 6.1762e-05, 0.430128, 0.43375, 0.323663, 0.0200835, 0.0188752, 0.0311697
0.00925285, -0.00214537, -0.600419, -0.000687648, -0.000254064, 4.61582e-05, 0.437767, 0.4414, 0.331837, 0.019802, 0.0184701, 0.0311537
0.00912072, -0.00289436, -0.600584, -0.000849071, -0.000243608, 2.2699e-05, 0.445408, 0.447782, 0.337349, 0.0193487, 0.0180711, 0.0311247
0.00889955, -0.00436644, -0.599405, -0.000911009, -0.00022847, 9.98082e-06, 0.45304, 0.452189, 0.339586, 0.0186819, 0.017683, 0.0310738
0.00847622, -0.00680306, -0.597147, -0.000918189, -0.000205767, 7.77387e-06, 0.460702, 0.454214, 0.339468, 0.0178284, 0.0173184, 0.0309968
0.00818153, -0.0116465, -0.592992, -0.000886476, -0.00019264, -6.7063e-06, 0.468388, 0.453708, 0.338436, 0.0168504, 0.0169833, 0.0308904
0.00762134, -0.0169279, -0.587541, -0.000634423, -0.000168309, 1.85773e-05, 0.476011, 0.450784, 0.337153, 0.0158944, 0.0166726, 0.0307541
0.00712922, -0.0223367, -0.58268, -0.000430551, -0.000144438, 4.09951e-05, 0.483536, 0.446114, 0.337161, 0.0150618, 0.0163942, 0.0305828
0.00672191, -0.027207, -0.57833, -0.000213649, -0.000119353, 7.24216e-05, 0.490979, 0.440629, 0.339332, 0.0143771, 0.0161499, 0.0303715
0.00646179, -0.0318482, -0.574781, -5.7618e-05, -8.69693e-05, 0.000109566, 0.498311, 0.435184, 0.343524, 0.0138499, 0.0159401, 0.0301173
0.00593081, -0.0345769, -0.571023, 0.00017119, -5.58451e-05, 0.000162713, 0.505503, 0.430624, 0.34937, 0.0134711, 0.015763, 0.0298221
0.00540533, -0.0358701, -0.568461, 0.000325917, -1.95294e-05, 0.000237218, 0.512533, 0.427145, 0.356572, 0.0131945, 0.0156191, 0.0294844
0.00535101, -0.0368057, -0.567117, 0.000403189, -9.87414e-06, 0.000251183, 0.51942, 0.424492, 0.364616, 0.0129758, 0.0155042, 0.0291032
0.0050242, -0.0364408, -0.565081, 0.000518791, -5.81006e-07, 0.000291481, 0.526173, 0.422272, 0.372984, 0.0127907, 0.0154139, 0.0286826
0.00496853, -0.0364576, -0.563963, 0.000576579, 9.80059e-07, 0.000298185, 0.532768, 0.420104, 0.381354, 0.0126243, 0.0153457, 0.0282284
0.00486539, -0.036172, -0.563663, 0.000589371, 5.41293e-06, 0.000320356, 0.53924, 0.417676, 0.389578, 0.0124635, 0.0152947, 0.0277413
0.00483967, -0.0357361, -0.563452, 0.000597861, 7.0956e-06, 0.000329866, 0.545603, 0.415112, 0.397556, 0.0123073, 0.0152571, 0.0272267
0.00515889, -0.0362644, -0.564046, 0.000579659, 3.02219e-06, 0.000287002, 0.551878, 0.413335, 0.405154, 0.0121737, 0.0152292, 0.0267019
0.00490874, -0.0354638, -0.562455, 0.000637817, -3.80198e-06, 0.000318945, 0.558084, 0.412966, 0.412287, 0.0120691, 0.0152081, 0.0261765
0.00476662, -0.036464, -0.560552, 0.000689365, -7.88385e-06, 0.000339086, 0.564237, 0.414918, 0.418889, 0.0119929, 0.0151914, 0.0256627
0.00476932, -0.0376836, -0.558765, 0.000714532, -1.62475e-05, 0.000322762, 0.570366, 0.419493, 0.424775, 0.011929, 0.0151767, 0.0251722
0.00495556, -0.0389386, -0.557447, 0.000708067, -2.21524e-05, 0.000288867, 0.576474, 0.425542, 0.429836, 0.0118481, 0.0151639, 0.0246973
0.00506204, -0.0400817, -0.556191, 0.000680729, -3.02967e-05, 0.000263713, 0.582553, 0.432379, 0.433761, 0.0117316, 0.0151528, 0.0242386
0.00510542, -0.0408762, -0.55488, 0.000628525, -4.0705e-05, 0.000228491, 0.588586, 0.439945, 0.436192, 0.0115568, 0.0151424, 0.0237976
0.0051237, -0.041042, -0.554357, 0.000568538, -4.80957e-05, 0.0002183, 0.594528, 0.447974, 0.436848, 0.011307, 0.0151326, 0.0233668
0.00488059, -0.0411143, -0.552729, 0.000485973, -5.73386e-05, 0.000213789, 0.600331, 0.456126, 0.435434, 0.010979, 0.0151232, 0.022949
0.00428671, -0.0410302, -0.549718, 0.000380722, -7.2415e-05, 0.000195772, 0.605931, 0.464183, 0.431889, 0.0105859, 0.0151134, 0.0225607
0.00466707, -0.0404649, -0.551437, 0.000343475, -6.82967e-05, 0.000219515, 0.611292, 0.472103, 0.426565, 0.010162, 0.0151032, 0.0222135
0.00500625, -0.0401404, -0.552063, 0.000298225, -6.73837e-05, 0.000208315, 0.616405, 0.479968, 0.420118, 0.00975567, 0.0150932, 0.0219141
0.00608771, -0.0401736, -0.554597, 0.000281966, -6.19528e-05, 0.000178177, 0.621286, 0.487776, 0.412487, 0.0093874, 0.015083, 0.0216819
0.00676048, -0.0404178, -0.555685, 0.000295338, -6.89508e-05, 0.000158667, 0.626001, 0.495175, 0.40298, 0.00905372, 0.0150706, 0.0215185
0.00773106, -0.0410133, -0.557954, 0.000334929, -7.59167e-05, 0.000142727, 0.630628, 0.501477, 0.391226, 0.00872354, 0.0150525, 0.0214137
0.00864446, -0.0418621, -0.560251, 0.000370034, -8.95149e-05, 0.000132769, 0.635256, 0.505954, 0.378267, 0.00837248, 0.0150243, 0.0213546
0.00935002, -0.0421243, -0.560695, 0.000372703, -0.00010822, 0.000122679, 0.639907, 0.508425, 0.366286, 0.00802694, 0.0149831, 0.0213257
0.00985799, -0.0421531, -0.560744, 0.000373769, -0.000126373, 0.000121791, 0.644541, 0.508434, 0.355152, 0.00769954, 0.0149254, 0.0213143
0.0105456, -0.0422052, -0.560729, 0.000373151, -0.000157848, 0.000130812, 0.649169, 0.505078, 0.344257, 0.00738738, 0.0148449, 0.0213055
0.0109441, -0.0420544, -0.561278, 0.000388172, -0.00019251, 0.000150051, 0.653807, 0.49777, 0.334431, 0.00709392, 0.0147341, 0.0212814
0.010562, -0.0401273, -0.562066, 0.000412778, -0.000225721, 0.000170053, 0.658484, 0.486959, 0.327009, 0.00682163, 0.0145884, 0.0212261
0.0102789, -0.037779, -0.562423, 0.000421871, -0.000268171, 0.000201439, 0.663209, 0.473691, 0.322621, 0.00657142, 0.0144089, 0.0211286
0.0104035, -0.0361176, -0.561576, 0.000405308, -0.000307795, 0.000237156, 0.667921, 0.458908, 0.321057, 0.00634958, 0.0142034, 0.0209789
0.00945871, -0.0320319, -0.562417, 0.000407955, -0.000322664, 0.000240546, 0.672565, 0.443787, 0.321776, 0.00615929, 0.013982, 0.0207723
0.00824673, -0.0277175, -0.564196, 0.000417449, -0.000324179, 0.000227162, 0.677163, 0.429467, 0.324125, 0.00599806, 0.0137519, 0.0205134
0.00712452, -0.022668, -0.565264, 0.00040966, -0.000328317, 0.000218471, 0.681736, 0.416509, 0.327463, 0.0058623, 0.0135215, 0.0202158
0.006475, -0.0189159, -0.565769, 0.000398202, -0.000333366, 0.000217767, 0.686309, 0.405095, 0.331381, 0.00574953, 0.0132993, 0.0198957
0.00578058, -0.015816, -0.566746, 0.000394337, -0.00032726, 0.000200223, 0.690872, 0.395716, 0.335613, 0.00566075, 0.0130911, 0.0195618
0.00517469, -0.0134206, -0.567612, 0.00039238, -0.00030936, 0.000167286, 0.695434, 0.389122, 0.340032, 0.00559877, 0.0128982, 0.019219
0.00475616, -0.0125837, -0.568904, 0.000399597, -0.000285115, 0.000124608, 0.700006, 0.385742, 0.34458, 0.00556224, 0.0127215, 0.0188755
0.00467323, -0.0128573, -0.569532, 0.000404301, -0.000268746, 9.59346e-05, 0.70459, 0.385365, 0.349071, 0.00554467, 0.0125612, 0.0185445
0.00463958, -0.0149302, -0.57086, 0.000410093, -0.000253911, 6.38847e-05, 0.709141, 0.387429, 0.353228, 0.00553677, 0.0124185, 0.0182344
0.00464737, -0.0177451, -0.572602, 0.00040619, -0.000245034, 3.65793e-05, 0.713566, 0.391447, 0.35686, 0.00552989, 0.0122965, 0.0179485
0.00457614, -0.0203925, -0.573452, 0.000389148, -0.000240305, 1.22955e-05, 0.717768, 0.396694, 0.359616, 0.00551367, 0.0121961, 0.0176891
0.00427784, -0.0222666, -0.57236, 0.000367522, -0.000240658, -4.30056e-06, 0.721671, 0.402484, 0.361018, 0.00548094, 0.012115, 0.0174565
0.00346933, -0.0235638, -0.569564, 0.000347474, -0.000243288, -2.34838e-05, 0.725247, 0.408509, 0.36056, 0.00542934, 0.0120488, 0.0172529
0.00212453, -0.024657, -0.566384, 0.000332751, -0.00024426, -5.39719e-05, 0.728524, 0.414858, 0.357793, 0.00535878, 0.0119918, 0.0170787
0.00068808, -0.0263314, -0.564058, 0.000309833, -0.000247867, -8.83624e-05, 0.731553, 0.42157, 0.352951, 0.00527214, 0.0119396, 0.0169368
-0.00108612, -0.0280071, -0.561471, 0.000293681, -0.000252843, -0.000122235, 0.734466, 0.428531, 0.346997, 0.00517265, 0.0118882, 0.0168274
-0.0026813, -0.0296312, -0.559012, 0.000284863, -0.000262548, -0.000142348, 0.737457, 0.435271, 0.340873, 0.00506699, 0.0118345, 0.0167461
-0.00404673, -0.0307558, -0.559204, 0.000263598, -0.000257119, -0.000174794, 0.740657, 0.441278, 0.335206, 0.00495755, 0.0117771, 0.0166908
-0.00554181, -0.0320746, -0.559695, 0.000237277, -0.000253529, -0.000202614, 0.744144, 0.445958, 0.330357, 0.00484389, 0.0117145, 0.0166579
-0.00698348, -0.0337021, -0.559917, 0.000216389, -0.000252925, -0.000221063, 0.747947, 0.448724, 0.326457, 0.00473291, 0.011644, 0.0166396
-0.00817791, -0.0352954, -0.560131, 0.000202386, -0.000247626, -0.000234671, 0.752042, 0.449028, 0.32351, 0.0046263, 0.0115651, 0.0166312
-0.00886643, -0.036168, -0.560685, 0.000190926, -0.000235345, -0.000240421, 0.756378, 0.44659, 0.321785, 0.00452043, 0.0114818, 0.0166277
-0.00883747, -0.0362733, -0.559974, 0.000197596, -0.000215209, -0.000237562, 0.760903, 0.441359, 0.321376, 0.00441458, 0.0113987, 0.0166236
-0.00868593, -0.0362796, -0.559116, 0.000204227, -0.000192155, -0.00023056, 0.765559, 0.433288, 0.321888, 0.00431394, 0.0113137, 0.0166149
-0.0087376, -0.0370434, -0.559003, 0.000205344, -0.000180986, -0.000227433, 0.770285, 0.422497, 0.323028, 0.0042221, 0.0112266, 0.0165999
-0.00860447, -0.034968, -0.558721, 0.000198849, -0.00016159, -0.000215074, 0.775069, 0.410013, 0.324841, 0.00413744, 0.011145, 0.0165751
-0.00866594, -0.0337576, -0.560203, 0.000182398, -0.00015043, -0.000209488, 0.779849, 0.396924, 0.327423, 0.00405737, 0.0110713, 0.0165374
-0.00780666, -0.0463298, -0.559962, 0.000235648, -0.000168509, -0.000231668, 0.784659, 0.383952, 0.330206, 0.00398651, 0.0110045, 0.0164922
-0.0090523, -0.0367625, -0.559916, 0.000193369, -0.000151612, -0.00019376, 0.789489, 0.371994, 0.332834, 0.00392695, 0.0109414, 0.0164411
-0.00949393, -0.0283043, -0.557892, 0.000163509, -0.000118755, -0.000133447, 0.794267, 0.362168, 0.335469, 0.00388078, 0.0108827, 0.0163814
-0.00984927, -0.022961, -0.55713, 0.000143366, -0.000102926, -9.5779e-05, 0.799007, 0.355288, 0.338268, 0.00384592, 0.0108282, 0.0163103
-0.0100106, -0.0201565, -0.5554, 0.000136531, -9.42423e-05, -6.32943e-05, 0.803723, 0.351939, 0.341287, 0.00382137, 0.0107787, 0.0162286
-0.0101916, -0.0193439, -0.554981, 0.000133973, -9.22071e-05, -4.67497e-05, 0.808412, 0.351779, 0.344472, 0.00380494, 0.0107367, 0.0161341
-0.0101511, -0.0198306, -0.554392, 0.00013657, -9.83635e-05, -5.46384e-05, 0.813053, 0.353554, 0.347657, 0.00379291, 0.0107043, 0.0160177
-0.0100552, -0.0207742, -0.553291, 0.000139097, -0.000104564, -6.74265e-05, 0.817622, 0.356265, 0.350521, 0.00378265, 0.0106825, 0.0158751
-0.00995214, -0.0215905, -0.552708, 0.000140082, -0.000111648, -8.62471e-05, 0.822057, 0.359454, 0.352776, 0.00377151, 0.0106688, 0.0157098
-0.00993893, -0.0225176, -0.552256, 0.00013755, -0.000116904, -9.64357e-05, 0.82632, 0.363393, 0.354302, 0.00375578, 0.0106603, 0.0155309
-0.00995917, -0.0220962, -0.553321, 0.000138277, -0.000120803, -9.13464e-05, 0.830404, 0.368342, 0.355036, 0.00373164, 0.0106549, 0.0153466
-0.0100255, -0.0210832, -0.555113, 0.00014418, -0.000125373, -8.06343e-05, 0.834263, 0.374318, 0.354826, 0.00369901, 0.0106516, 0.0151683
-0.0098278, -0.0204814, -0.556091, 0.000150379, -0.000128951, -8.5218e-05, 0.837832, 0.381201, 0.353236, 0.00365805, 0.0106495, 0.0150065
-0.00967406, -0.0198105, -0.557357, 0.000160523, -0.000133636, -9.04331e-05, 0.841104, 0.388607, 0.349663, 0.00360528, 0.0106473, 0.01487
-0.00923618, -0.0194099, -0.559247, 0.000172927, -0.000140833, -0.00010689, 0.844141, 0.396114, 0.344136, 0.00353556, 0.0106443, 0.0147638
-0.00884924, -0.0189314, -0.560364, 0.000185417, -0.00014957, -0.000124719, 0.847032, 0.403251, 0.337825, 0.0034553, 0.0106391, 0.0146891
-0.00861905, -0.0186321, -0.561692, 0.000198698, -0.000159937, -0.000138421, 0.849773, 0.409477, 0.331739, 0.00337182, 0.0106306, 0.0146422
-0.0085858, -0.0183576, -0.563168, 0.000213163, -0.000173066, -0.000146094, 0.852329, 0.414005, 0.326344, 0.00329239, 0.010618, 0.0146175
-0.00860111, -0.0184091, -0.563981, 0.000219328, -0.000181189, -0.000146068, 0.854745, 0.416011, 0.321613, 0.00322265, 0.0106002, 0.0146083
-0.00823983, -0.018006, -0.564147, 0.00022182, -0.000193514, -0.000144994, 0.857122, 0.415091, 0.317302, 0.00316283, 0.0105728, 0.0146048
-0.0086234, -0.0165198, -0.564536, 0.000225976, -0.000213818, -0.000139057, 0.859522, 0.411283, 0.313572, 0.00311052, 0.010533, 0.0145948
-0.00975358, -0.0142219, -0.565202, 0.000229421, -0.000233335, -0.000133048, 0.862011, 0.405174, 0.310525, 0.00306514, 0.0104762, 0.0145639
-0.0112269, -0.0108795, -0.566106, 0.000230427, -0.000262221, -0.000117511, 0.864659, 0.397828, 0.308675, 0.00302527, 0.0104001, 0.0145026
-0.0120715, -0.00891907, -0.566998, 0.000230777, -0.000287048, -9.90573e-05, 0.867519, 0.390073, 0.308268, 0.00298959, 0.0103092, 0.0144076
-0.0132236, -0.0066446, -0.568289, 0.00023214, -0.000294436, -0.000103072, 0.870637, 0.382875, 0.308924, 0.00296031, 0.010207, 0.014279
-0.0136992, -0.00519621, -0.569163, 0.000231459, -0.00031171, -8.64962e-05, 0.87404, 0.377251, 0.310528, 0.00293864, 0.0100999, 0.0141234
-0.0132563, -0.00607843, -0.569832, 0.000233826, -0.000315971, -7.68069e-05, 0.877664, 0.373665, 0.312886, 0.00292375, 0.0099988, 0.0139551
-0.0123313, -0.00818043, -0.570559, 0.000236894, -0.000319622, -6.23754e-05, 0.881364, 0.37188, 0.315538, 0.00291353, 0.00991165, 0.013789
-0.0112507, -0.0108101, -0.571601, 0.000239473, -0.000323628, -4.48442e-05, 0.884954, 0.371258, 0.317935, 0.00290571, 0.00984181, 0.0136359
-0.0102594, -0.0130138, -0.57125, 0.000238355, -0.000322748, -3.29959e-05, 0.888273, 0.370997, 0.319525, 0.0028984, 0.00978677, 0.0135049
-0.00969507, -0.0136921, -0.568614, 0.000232047, -0.000320892, -2.33667e-05, 0.891256, 0.370114, 0.319793, 0.00288964, 0.00973963, 0.0133999
-0.0095517, -0.0140115, -0.565335, 0.000224399, -0.000312444, -2.58885e-05, 0.893956, 0.368534, 0.318821, 0.00287929, 0.00969401, 0.0133218
-0.0104024, -0.0130272, -0.560561, 0.000215983, -0.000305421, -3.57876e-05, 0.896469, 0.367289, 0.317293, 0.00286922, 0.00964873, 0.0132657
-0.0114556, -0.0124485, -0.55748, 0.000212714, -0.00029769, -4.94422e-05, 0.898948, 0.367232, 0.315698, 0.00286067, 0.00960343, 0.0132252
-0.0125071, -0.0120406, -0.555243, 0.000212346, -0.000289075, -6.33264e-05, 0.901548, 0.36858, 0.31421, 0.0028533, 0.00955747, 0.0131956
-0.013432, -0.0119476, -0.553666, 0.00021295, -0.000276768, -7.75005e-05, 0.904283, 0.37102, 0.313028, 0.00284618, 0.00951052, 0.0131739
-0.0144795, -0.0116894, -0.552062, 0.000214934, -0.000264526, -8.98993e-05, 0.907178, 0.374126, 0.312112, 0.00283862, 0.00946247, 0.0131579
-0.0150644, -0.0118372, -0.551143, 0.000215606, -0.000251941, -9.77974e-05, 0.910238, 0.377502, 0.311339, 0.00283019, 0.00941266, 0.0131458
-0.0158092, -0.0113008, -0.550191, 0.000217894, -0.000236657, -0.000105055, 0.913353, 0.380962, 0.310684, 0.00282046, 0.00935914, 0.013136
-0.0156957, -0.0106718, -0.550715, 0.000215835, -0.000209435, -0.000113431, 0.916357, 0.384446, 0.310019, 0.00280815, 0.00930028, 0.0131273
-0.0155179, -0.00984952, -0.550903, 0.000213829, -0.000184151, -0.000119371, 0.919003, 0.388084, 0.309173, 0.00279188, 0.00923373, 0.0131183
-0.014857, -0.00889447, -0.551795, 0.00020867, -0.000153693, -0.000126115, 0.920929, 0.392089, 0.308158, 0.00277248, 0.00915802, 0.0131096
-0.0146448, -0.00837753, -0.551876, 0.000205613, -0.000134221, -0.000131332, 0.921728, 0.396386, 0.306868, 0.0027514, 0.00907059, 0.013102
-0.0137811, -0.00752331, -0.552371, 0.00020126, -0.000109314, -0.000135988, 0.920466, 0.400695, 0.305451, 0.00273061, 0.00896372, 0.0130957
-0.0128487, -0.00680131, -0.55291, 0.000196818, -8.79418e-05, -0.000138803, 0.915428, 0.404784, 0.304141, 0.00271231, 0.00882191, 0.0130908
-0.0123378, -0.00624206, -0.554968, 0.000189744, -7.25421e-05, -0.000142748, 0.903883, 0.408559, 0.302838, 0.00269758, 0.00862004, 0.0130864
-0.0126818, -0.00620629, -0.555731, 0.000187012, -7.08401e-05, -0.000144244, 0.882517, 0.411475, 0.301233, 0.00268473, 0.00832788, 0.0130822
-0.0138315, -0.00643008, -0.556559, 0.000184781, -7.83839e-05, -0.00014686, 0.849144, 0.413844, 0.299393, 0.00267238, 0.00793051, 0.0130779
-0.0144233, -0.00645685, -0.55629, 0.000184566, -7.98721e-05, -0.000148617, 0.804427, 0.41589, 0.297724, 0.00265991, 0.00743642, 0.0130738
-0.0152154, -0.00655453, -0.556264, 0.000184416, -8.49223e-05, -0.000149789, 0.752573, 0.418124, 0.296393, 0.00264581, 0.00688488, 0.0130703
-0.0170193, -0.00696193, -0.55645, 0.000185602, -0.000101533, -0.000152323, 0.699353, 0.421021, 0.295185, 0.00262909, 0.00633067, 0.0130672
-0.0166535, -0.00702426, -0.556727, 0.000186304, -0.000100832, -0.000153001, 0.64974, 0.424111, 0.293823, 0.00260947, 0.00582046, 0.0130645
-0.0147642, -0.00645257, -0.558464, 0.000183413, -8.54455e-05, -0.000152068, 0.606866, 0.426773, 0.292239, 0.00258729, 0.00538754, 0.0130621
-0.013862, -0.00629887, -0.559373, 0.000182495, -7.89875e-05, -0.000152551, 0.571116, 0.428992, 0.290822, 0.00256449, 0.00504203, 0.0130593
-0.012393, -0.00634881, -0.560508, 0.00018205, -6.99881e-05, -0.000151748, 0.541286, 0.430484, 0.289759, 0.00254303, 0.00477545, 0.0130555
-0.011584, -0.00677529, -0.560369, 0.000183532, -6.69293e-05, -0.00015035, 0.515738, 0.431214, 0.288999, 0.00252396, 0.00457168, 0.0130495
-0.0107047, -0.00717925, -0.560047, 0.000184741, -6.30179e-05, -0.000148123, 0.493206, 0.431451, 0.288506, 0.0025079, 0.00441276, 0.0130401
-0.00959667, -0.0076915, -0.559534, 0.000186086, -5.79906e-05, -0.000144821, 0.473165, 0.431506, 0.288142, 0.00249473, 0.00428688, 0.0130272
-0.00874155, -0.0077017, -0.559202, 0.000185897, -5.22493e-05, -0.000144414, 0.455549, 0.431705, 0.287782, 0.00248426, 0.00418713, 0.0130119
-0.00797767, -0.00780077, -0.559335, 0.000185926, -4.78124e-05, -0.000144256, 0.440492, 0.432315, 0.28739, 0.00247622, 0.00411044, 0.0129961
-0.00640903, -0.0081707, -0.560688, 0.000186411, -3.98443e-05, -0.000142596, 0.428205, 0.433546, 0.287006, 0.00247037, 0.0040553, 0.0129814
-0.00580153, -0.00837996, -0.559563, 0.000186742, -3.75309e-05, -0.00014078, 0.418845, 0.435522, 0.286804, 0.00246678, 0.00401934, 0.0129678
-0.00549404, -0.00858362, -0.558649, 0.000186786, -3.71654e-05, -0.000139229, 0.412552, 0.438284, 0.28681, 0.00246502, 0.00400022, 0.0129557
-0.00509957, -0.008757, -0.557357, 0.00018637, -3.70165e-05, -0.000136196, 0.40941, 0.441664, 0.286887, 0.00246413, 0.00399419, 0.0129463
-0.00495253, -0.00874127, -0.555921, 0.000185928, -3.72881e-05, -0.000134927, 0.409144, 0.445227, 0.287049, 0.00246336, 0.0039939, 0.0129381
-0.00468149, -0.00894522, -0.557159, 0.000186878, -3.7149e-05, -0.000135791, 0.411302, 0.448399, 0.2873, 0.00246209, 0.00399065, 0.0129294
-0.00426756, -0.00966561, -0.557958, 0.000186533, -3.70804e-05, -0.00013656, 0.415402, 0.450594, 0.287592, 0.00245941, 0.00397502, 0.0129196
-0.00403761, -0.0107303, -0.558283, 0.000185671, -3.45667e-05, -0.000140563, 0.420934, 0.451237, 0.28787, 0.00245435, 0.00393872, 0.0129091
-0.00392035, -0.01252, -0.556457, 0.000182456, -2.99881e-05, -0.000146991, 0.427232, 0.449948, 0.28814, 0.00244616, 0.00387504, 0.012898
-0.00343455, -0.0137486, -0.557047, 0.000180567, -2.40614e-05, -0.000153967, 0.433688, 0.446624, 0.288314, 0.00243497, 0.0037819, 0.0128846
-0.00294282, -0.0154571, -0.556226, 0.000178006, -1.45859e-05, -0.000163856, 0.439707, 0.441703, 0.288213, 0.00242107, 0.00366135, 0.0128673
-0.00244898, -0.017313, -0.55511, 0.000176109, -1.48346e-06, -0.000173898, 0.444896, 0.435472, 0.287964, 0.00240642, 0.00352653, 0.0128443
-0.00196615, -0.0183348, -0.556084, 0.000175482, 7.10717e-06, -0.000177186, 0.449152, 0.428151, 0.287707, 0.00239239, 0.00339139, 0.012817
-0.00174436, -0.0190994, -0.555215, 0.000175023, 1.19606e-05, -0.00017997, 0.45238, 0.420236, 0.287406, 0.00237865, 0.00326358, 0.012789
-0.00158813, -0.0195378, -0.555593, 0.000174957, 1.52026e-05, -0.000178787, 0.454385, 0.412135, 0.287171, 0.00236476, 0.00314726, 0.0127621
-0.00155619, -0.019087, -0.555677, 0.000174412, 1.20476e-05, -0.000181117, 0.454997, 0.404169, 0.286859, 0.00235011, 0.00304408, 0.0127371
-0.00126096, -0.0188203, -0.554626, 0.000173157, 1.08441e-05, -0.00018581, 0.453902, 0.396638, 0.28636, 0.00233382, 0.0029537, 0.0127154
-0.00123697, -0.0183592, -0.553666, 0.00017232, 8.47977e-06, -0.000187483, 0.450792, 0.38956, 0.286013, 0.00231501, 0.00287481, 0.0126998
-0.00194838, -0.0179346, -0.553246, 0.000173117, 4.78353e-06, -0.000184343, 0.445495, 0.382646, 0.28587, 0.00229348, 0.00280572, 0.0126901
-0.00290763, -0.0171083, -0.554582, 0.000173617, -1.65591e-06, -0.000179723, 0.438033, 0.37581, 0.285342, 0.00226859, 0.00274381, 0.0126835
-0.00348015, -0.016034, -0.554625, 0.000172369, -7.16201e-06, -0.000176125, 0.428515, 0.369201, 0.284409, 0.00224118, 0.00268845, 0.0126766
-0.00396133, -0.0147619, -0.554778, 0.000170197, -1.27342e-05, -0.000171137, 0.417574, 0.363289, 0.283549, 0.00221413, 0.00264009, 0.0126705
-0.00447673, -0.0138878, -0.554966, 0.000168846, -1.69892e-05, -0.000166426, 0.406049, 0.358385, 0.282964, 0.0021894, 0.00259883, 0.0126662
-0.00533606, -0.0127838, -0.555438, 0.000167436, -2.25588e-05, -0.000160406, 0.394867, 0.354652, 0.28249, 0.00216781, 0.00256451, 0.0126621
-0.00644545, -0.0116665, -0.556672, 0.000166381, -2.83379e-05, -0.000154881, 0.384898, 0.352216, 0.282016, 0.00214987, 0.0025374, 0.012657
-0.00648215, -0.0109127, -0.55621, 0.000164665, -2.97847e-05, -0.000150753, 0.376692, 0.351043, 0.281644, 0.00213647, 0.00251752, 0.012652
-0.00674194, -0.0105581, -0.555715, 0.000164047, -3.11325e-05, -0.000147092, 0.370472, 0.350954, 0.281494, 0.00212777, 0.00250441, 0.0126478
-0.00713119, -0.0105036, -0.555715, 0.00016436, -3.24492e-05, -0.000144701, 0.366399, 0.351773, 0.281506, 0.00212279, 0.00249723, 0.0126436
-0.00774309, -0.0107629, -0.556525, 0.000165259, -3.34266e-05, -0.000144522, 0.364568, 0.35333, 0.281539, 0.00212044, 0.00249465, 0.0126387
-0.00791383, -0.0108092, -0.556391, 0.000165334, -3.38717e-05, -0.000144115, 0.364798, 0.355306, 0.281451, 0.00211965, 0.00249429, 0.0126321
-0.0080066, -0.0109587, -0.555658, 0.00016526, -3.39732e-05, -0.000144638, 0.366662, 0.357324, 0.281353, 0.00211922, 0.00249373, 0.012624
-0.00785431, -0.0110584, -0.556901, 0.000165035, -3.43158e-05, -0.000145358, 0.369731, 0.35911, 0.281372, 0.00211792, 0.00249078, 0.0126167
-0.00767845, -0.0113868, -0.558216, 0.000164436, -3.45912e-05, -0.000146282, 0.373712, 0.360564, 0.281554, 0.00211485, 0.00248306, 0.0126116
-0.00759937, -0.0118114, -0.560726, 0.000163166, -3.25139e-05, -0.000149103, 0.378345, 0.361757, 0.282027, 0.00210978, 0.00246803, 0.0126077
-0.00744338, -0.0120457, -0.560995, 0.000163436, -3.34346e-05, -0.000149831, 0.383373, 0.36274, 0.282747, 0.00210317, 0.0024453, 0.0126021
-0.00737682, -0.0125275, -0.559453, 0.000164016, -3.79005e-05, -0.000147459, 0.388516, 0.363454, 0.283489, 0.00209553, 0.00241725, 0.0125937
-0.00753806, -0.0129968, -0.558566, 0.000163821, -4.02538e-05, -0.000146949, 0.393457, 0.363863, 0.284127, 0.00208682, 0.0023861, 0.0125841
-0.00756047, -0.0134698, -0.558451, 0.000163876, -4.22424e-05, -0.00014707, 0.397865, 0.363954, 0.284376, 0.00207726, 0.0023543, 0.0125743
-0.00765927, -0.0134732, -0.558722, 0.000163746, -4.21294e-05, -0.000148342, 0.40128, 0.363625, 0.284131, 0.00206733, 0.0023236, 0.0125645
-0.00758174, -0.0136002, -0.559265, 0.000164099, -4.28807e-05, -0.000148359, 0.403308, 0.362732, 0.283614, 0.00205746, 0.00229476, 0.0125535
-0.00748788, -0.0138081, -0.559379, 0.000164438, -4.36038e-05, -0.000148038, 0.403705, 0.361205, 0.283057, 0.0020482, 0.00226821, 0.0125396
-0.00726653, -0.0133961, -0.558645, 0.000164923, -4.1804e-05, -0.00015103, 0.402358, 0.359109, 0.282666, 0.00204031, 0.00224376, 0.0125201
-0.00708851, -0.0132876, -0.558024, 0.000165338, -4.12014e-05, -0.000151999, 0.399272, 0.356608, 0.282463, 0.00203425, 0.0022215, 0.0124937
-0.00719003, -0.0132448, -0.558198, 0.000165402, -4.10444e-05, -0.000154607, 0.394721, 0.353929, 0.282342, 0.00203012, 0.00220182, 0.0124607
-0.00748412, -0.0130156, -0.557915, 0.000165306, -4.07569e-05, -0.000159516, 0.389141, 0.351286, 0.28232, 0.00202761, 0.00218508, 0.0124211
-0.00792524, -0.0131456, -0.557226, 0.000165251, -4.15956e-05, -0.000162519, 0.383242, 0.348965, 0.282315, 0.00202624, 0.00217226, 0.0123787
-0.00751847, -0.0129703, -0.556039, 0.000165217, -4.10076e-05, -0.00016071, 0.37787, 0.347303, 0.282228, 0.00202552, 0.00216407, 0.0123392
-0.00719783, -0.0126301, -0.555681, 0.000165534, -4.01854e-05, -0.00016231, 0.373721, 0.346568, 0.28205, 0.00202506, 0.00215959, 0.0123062
-0.0068421, -0.0121751, -0.556531, 0.00016626, -3.97723e-05, -0.000165064, 0.371168, 0.346797, 0.281869, 0.00202465, 0.00215746, 0.0122768
-0.00633505, -0.0124023, -0.55696, 0.000166691, -3.99838e-05, -0.000162255, 0.37027, 0.347791, 0.281782, 0.00202377, 0.00215656, 0.0122439
-0.00566986, -0.0132053, -0.558266, 0.000166801, -4.09938e-05, -0.000155507, 0.370861, 0.349294, 0.281795, 0.0020221, 0.00215577, 0.0122097
-0.00513329, -0.0141286, -0.558972, 0.000166668, -4.20815e-05, -0.000150137, 0.37271, 0.351067, 0.281872, 0.00201995, 0.00215392, 0.0121807
-0.00558457, -0.0151266, -0.555857, 0.000165776, -4.26742e-05, -0.000149833, 0.375523, 0.352984, 0.282027, 0.00201802, 0.00215017, 0.0121631
-0.0066339, -0.0159027, -0.553287, 0.000165257, -4.23317e-05, -0.000154336, 0.379012, 0.354938, 0.282265, 0.00201665, 0.00214383, 0.0121523
-0.0077264, -0.0161724, -0.554364, 0.00016624, -3.88089e-05, -0.000159433, 0.383141, 0.356773, 0.282385, 0.00201567, 0.00213453, 0.0121306
-0.00851752, -0.0165747, -0.555411, 0.000167605, -3.57973e-05, -0.000164116, 0.387734, 0.358539, 0.282263, 0.00201435, 0.00212098, 0.012084
-0.00861174, -0.0173693, -0.556274, 0.000168515, -3.37428e-05, -0.000174151, 0.392417, 0.360395, 0.282026, 0.00201272, 0.00210346, 0.012022
-0.00824611, -0.0185772, -0.555635, 0.000169213, -3.0747e-05, -0.000192691, 0.39676, 0.362229, 0.281862, 0.00201124, 0.00208383, 0.0119615
-0.00718686, -0.0202609, -0.552828, 0.000169204, -2.74067e-05, -0.000221592, 0.400298, 0.363782, 0.281917, 0.00201009, 0.00206332, 0.0119079
-0.00513384, -0.0191394, -0.549969, 0.000161209, -3.69197e-05, -0.000222444, 0.402596, 0.364735, 0.282325, 0.00200897, 0.00204231, 0.0118605
-0.00567785, -0.0203866, -0.552426, 0.000167606, -2.92817e-05, -0.000240143, 0.403561, 0.364787, 0.282815, 0.00200737, 0.0020214, 0.0118165
-0.00609839, -0.0212446, -0.554017, 0.000168505, -2.695e-05, -0.000234377, 0.403004, 0.363835, 0.283122, 0.00200482, 0.00200086, 0.0117808
-0.00640012, -0.0214942, -0.554456, 0.000168851, -2.68749e-05, -0.00023081, 0.400646, 0.361813, 0.283144, 0.00200113, 0.0019809, 0.0117548
-0.006182, -0.0212147, -0.553815, 0.000168187, -2.71154e-05, -0.000231187, 0.396338, 0.358753, 0.282939, 0.00199595, 0.00196121, 0.0117375
-0.0062375, -0.0204419, -0.555001, 0.000167137, -2.91812e-05, -0.00022894, 0.390272, 0.354884, 0.282364, 0.00198929, 0.00194145, 0.0117263
-0.00576827, -0.0190603, -0.554979, 0.000164839, -3.05354e-05, -0.00022848, 0.382946, 0.350555, 0.281622, 0.00198182, 0.00192189, 0.0117185
-0.00538001, -0.0179754, -0.554554, 0.000162882, -3.11798e-05, -0.000227181, 0.375016, 0.346167, 0.281038, 0.00197448, 0.00190369, 0.0117135
-0.00610011, -0.0169349, -0.554746, 0.000161837, -3.40237e-05, -0.000222681, 0.367017, 0.342073, 0.280743, 0.00196764, 0.00188783, 0.0117105
-0.00641463, -0.0157005, -0.555846, 0.000160414, -3.61464e-05, -0.000219135, 0.359591, 0.338605, 0.280587, 0.00196068, 0.00187494, 0.0117079
-0.00683431, -0.0146225, -0.556728, 0.00015922, -3.80893e-05, -0.000214899, 0.353316, 0.336007, 0.280453, 0.00195374, 0.00186538, 0.0117031
-0.00693228, -0.0139572, -0.557043, 0.000158348, -3.90624e-05, -0.000211198, 0.348497, 0.334384, 0.280344, 0.00194762, 0.00185884, 0.0116953
-0.00660465, -0.0133112, -0.556795, 0.000157345, -3.94642e-05, -0.000206902, 0.345199, 0.333662, 0.280264, 0.00194327, 0.00185486, 0.0116872
-0.0058966, -0.0130272, -0.554647, 0.000156494, -3.92898e-05, -0.00020335, 0.343403, 0.333689, 0.280165, 0.00194084, 0.00185292, 0.0116805
-0.0059753, -0.0122613, -0.556449, 0.000155884, -4.04723e-05, -0.000197558, 0.343212, 0.334486, 0.280032, 0.00193963, 0.00185227, 0.0116732
-0.00575245, -0.0119776, -0.558429, 0.00015551, -4.17642e-05, -0.000193482, 0.344586, 0.336019, 0.279868, 0.00193901, 0.00185152, 0.0116637
-0.00574262, -0.01184, -0.559684, 0.000155192, -4.24193e-05, -0.000191301, 0.347215, 0.338136, 0.279784, 0.00193861, 0.00184966, 0.0116541
-0.00521068, -0.0118795, -0.560934, 0.000155296, -4.34165e-05, -0.000191476, 0.350745, 0.340581, 0.279799, 0.00193784, 0.00184555, 0.011648
-0.00501837, -0.0123466, -0.563723, 0.000154629, -4.27354e-05, -0.000193962, 0.354845, 0.343119, 0.27995, 0.00193594, 0.00183803, 0.0116455
-0.00468088, -0.0128486, -0.565473, 0.000154355, -4.23587e-05, -0.000196343, 0.359282, 0.345615, 0.28036, 0.00193237, 0.00182593, 0.0116436
-0.00505546, -0.0136415, -0.563621, 0.000153125, -4.52285e-05, -0.000191425, 0.363997, 0.34796, 0.280992, 0.00192689, 0.00180938, 0.0116387
-0.00578148, -0.0145652, -0.562669, 0.000150728, -4.68273e-05, -0.000187441, 0.368766, 0.349987, 0.281686, 0.00191968, 0.00178965, 0.011629
-0.00678343, -0.0153861, -0.561054, 0.000148173, -4.84372e-05, -0.000184352, 0.373247, 0.351565, 0.282254, 0.00191129, 0.00176777, 0.0116142
-0.00773283, -0.0158467, -0.560856, 0.000146022, -4.8537e-05, -0.000184973, 0.376945, 0.352517, 0.282474, 0.00190254, 0.00174579, 0.0115961
-0.00848361, -0.015899, -0.560778, 0.000144778, -4.8064e-05, -0.000187728, 0.379341, 0.352631, 0.282344, 0.00189391, 0.00172509, 0.0115756
-0.0089977, -0.0155135, -0.561395, 0.00014416, -4.70465e-05, -0.000191596, 0.380106, 0.351797, 0.282015, 0.0018859, 0.00170616, 0.0115535
-0.00945552, -0.0148892, -0.561595, 0.000143881, -4.55985e-05, -0.000197725, 0.379176, 0.350097, 0.281599, 0.00187936, 0.00168897, 0.0115324
-0.0101857, -0.0144916, -0.561832, 0.000143261, -4.50849e-05, -0.000203363, 0.376594, 0.347648, 0.281297, 0.00187485, 0.00167368, 0.0115118
-0.0106341, -0.013917, -0.561835, 0.000143211, -4.41784e-05, -0.000210402, 0.37255, 0.344629, 0.2811, 0.00187197, 0.00166035, 0.0114897
-0.0111294, -0.0131862, -0.562423, 0.000143186, -4.33073e-05, -0.000218799, 0.367522, 0.341349, 0.280951, 0.00187027, 0.00164918, 0.0114653
-0.0114535, -0.0128461, -0.562752, 0.000143443, -4.3027e-05, -0.000225129, 0.362184, 0.338222, 0.280871, 0.00186944, 0.00164032, 0.0114364
-0.011844, -0.0121684, -0.560723, 0.000143617, -4.261e-05, -0.000231265, 0.357422, 0.335717, 0.280761, 0.00186896, 0.00163415, 0.0114064
-0.0121245, -0.0118721, -0.560037, 0.000143891, -4.24907e-05, -0.000235357, 0.353958, 0.334201, 0.280584, 0.00186863, 0.00163058, 0.0113823
-0.0121578, -0.0115059, -0.55933, 0.000144342, -4.22483e-05, -0.000238314, 0.352002, 0.333704, 0.280442, 0.00186832, 0.00162881, 0.0113638
-0.0120357, -0.0116587, -0.558526, 0.000144343, -4.23845e-05, -0.000236972, 0.351324, 0.333952, 0.280382, 0.00186792, 0.00162792, 0.011349
-0.0121738, -0.0117975, -0.558085, 0.00014428, -4.25849e-05, -0.00023627, 0.351465, 0.334514, 0.280412, 0.00186736, 0.00162714, 0.0113359
-0.0218356, -0.0171739, -0.557083, 0.000143914, -4.34385e-05, -0.000256795, 0.351824, 0.335003, 0.280509, 0.00186659, 0.00162585, 0.0113229
-0.017738, -0.0153334, -0.555853, 0.000144629, -4.42848e-05, -0.000253126, 0.352201, 0.335324, 0.280636, 0.00186559, 0.0016238, 0.0113101
-0.0157156, -0.013628, -0.554795, 0.000143993, -4.52499e-05, -0.000240929, 0.352664, 0.335614, 0.280872, 0.00186437, 0.00162101, 0.0112986
-0.015423, -0.0123889, -0.553147, 0.000143384, -4.6136e-05, -0.000232584, 0.353401, 0.335913, 0.281199, 0.00186319, 0.00161797, 0.011287
-0.0153845, -0.0115234, -0.553335, 0.000143174, -4.60347e-05, -0.000227564, 0.354525, 0.33627, 0.281486, 0.00186188, 0.00161511, 0.0112678
-0.0157581, -0.0111469, -0.554182, 0.000143316, -4.55357e-05, -0.000225822, 0.355902, 0.3368, 0.281628, 0.00185973, 0.00161215, 0.0112325
-0.0164317, -0.0106444, -0.55502, 0.00014311, -4.54325e-05, -0.000219235, 0.35742, 0.337567, 0.281421, 0.00185637, 0.00160835, 0.0111796
-0.017441, -0.0100348, -0.556526, 0.000142444, -4.61882e-05, -0.00020648, 0.358938, 0.338474, 0.280929, 0.00185177, 0.00160255, 0.0111131
-0.0181536, -0.00960375, -0.558141, 0.000141502, -4.79101e-05, -0.00019388, 0.3605, 0.339343, 0.280301, 0.00184582, 0.00159338, 0.0110364
-0.0180348, -0.00932806, -0.559437, 0.000140513, -4.99737e-05, -0.000187463, 0.36208, 0.34002, 0.279925, 0.00183933, 0.00158156, 0.0109602
-0.0167827, -0.00951476, -0.559944, 0.000140183, -5.07096e-05, -0.000194854, 0.36351, 0.340356, 0.279967, 0.00183366, 0.00156881, 0.0108976
-0.0141816, -0.00959371, -0.560005, 0.000139233, -5.13509e-05, -0.000207972, 0.364741, 0.340279, 0.280395, 0.00182932, 0.00155601, 0.0108531
-0.0109836, -0.0101132, -0.559798, 0.000138476, -5.07261e-05, -0.000225982, 0.365659, 0.339784, 0.281109, 0.00182661, 0.00154434, 0.0108274
-0.00790334, -0.0109332, -0.559489, 0.000137843, -4.92536e-05, -0.000242132, 0.366154, 0.338918, 0.281986, 0.00182522, 0.0015343, 0.0108144
-0.00505569, -0.0122324, -0.559268, 0.000137095, -4.71095e-05, -0.00025366, 0.366004, 0.337802, 0.282854, 0.00182459, 0.00152621, 0.0108082
-0.00282072, -0.0126113, -0.559361, 0.000136227, -4.64362e-05, -0.000259903, 0.365036, 0.336539, 0.283576, 0.00182401, 0.00152013, 0.0108029
-0.000593234, -0.0134495, -0.559188, 0.000134966, -4.50748e-05, -0.000260929, 0.363524, 0.335201, 0.284257, 0.00182275, 0.00151511, 0.010794
0.00208601, -0.0139134, -0.559364, 0.000133587, -4.40747e-05, -0.000262223, 0.360952, 0.333886, 0.28468, 0.00182041, 0.00151155, 0.0107757
0.00412081, -0.0142743, -0.559529, 0.00013246, -4.32068e-05, -0.000261354, 0.357558, 0.332724, 0.28495, 0.00181677, 0.0015087, 0.0107463
0.0048017, -0.014619, -0.560178, 0.000131668, -4.32666e-05, -0.000259088, 0.353788, 0.331884, 0.285251, 0.00181224, 0.00150609, 0.010711
0.00593084, -0.0141459, -0.560432, 0.000131975, -4.28171e-05, -0.000263415, 0.349724, 0.331407, 0.285447, 0.00180677, 0.00150418, 0.0106683
0.00496778, -0.0138165, -0.561003, 0.000132859, -4.3475e-05, -0.000267911, 0.346051, 0.331311, 0.285568, 0.00179983, 0.00150302, 0.0106128
0.00323988, -0.0135692, -0.56065, 0.000133658, -4.43927e-05, -0.00026913, 0.343954, 0.331602, 0.286167, 0.00179184, 0.00150209, 0.0105487
0.000358234, -0.0138649, -0.559603, 0.000133668, -4.56513e-05, -0.00026399, 0.343805, 0.332223, 0.287466, 0.00178344, 0.00150128, 0.0104816
-0.00106562, -0.0144906, -0.558496, 0.000132654, -4.6324e-05, -0.000254054, 0.345275, 0.333059, 0.289292, 0.00177592, 0.00150049, 0.0104216
-0.00226147, -0.0151673, -0.558364, 0.000131975, -4.62925e-05, -0.000248171, 0.34775, 0.333969, 0.291235, 0.00177, 0.0014996, 0.0103748
-0.00352095, -0.015584, -0.557823, 0.000131819, -4.57989e-05, -0.000245725, 0.350608, 0.334862, 0.292857, 0.00176536, 0.00149837, 0.0103385
-0.00557389, -0.0158067, -0.556466, 0.000132346, -4.42432e-05, -0.000248016, 0.353966, 0.335727, 0.294041, 0.00176127, 0.00149609, 0.0103057
-0.00759904, -0.0159672, -0.555314, 0.000133193, -4.21611e-05, -0.000253114, 0.357382, 0.336553, 0.294545, 0.00175773, 0.00149294, 0.0102768
-0.00887694, -0.0160125, -0.553377, 0.000133863, -4.10378e-05, -0.0002584, 0.36072, 0.337314, 0.294307, 0.00175483, 0.00148906, 0.0102527
-0.00963923, -0.016156, -0.551755, 0.000134141, -4.08336e-05, -0.000261588, 0.364021, 0.338049, 0.293439, 0.00175229, 0.00148433, 0.0102315
-0.0102009, -0.016462, -0.550908, 0.00013414, -4.08657e-05, -0.000262244, 0.3672, 0.338762, 0.292125, 0.00175003, 0.0014787, 0.0102134
-0.0111162, -0.0165257, -0.551081, 0.000134791, -3.95078e-05, -0.000265689, 0.369898, 0.339399, 0.29054, 0.00174825, 0.00147268, 0.0102001
-0.0117604, -0.0170545, -0.551287, 0.000135047, -3.87426e-05, -0.000266901, 0.37166, 0.339884, 0.288829, 0.00174706, 0.00146728, 0.010192
-0.012507, -0.0173764, -0.551885, 0.000135582, -3.7555e-05, -0.000269066, 0.372377, 0.340201, 0.28725, 0.00174622, 0.00146257, 0.0101866
-0.0142159, -0.0177932, -0.553727, 0.000136833, -3.49391e-05, -0.000272565, 0.372085, 0.340387, 0.28597, 0.00174556, 0.00145905, 0.0101821
-0.0158058, -0.0183349, -0.555701, 0.000137924, -3.29901e-05, -0.000274065, 0.371218, 0.340411, 0.285206, 0.00174494, 0.00145672, 0.0101755
-0.0165074, -0.0186053, -0.557489, 0.000138425, -3.16827e-05, -0.000272081, 0.370422, 0.340351, 0.285167, 0.0017441, 0.00145497, 0.0101643
-0.0163614, -0.018654, -0.558142, 0.000138617, -3.11544e-05, -0.000271223, 0.369908, 0.340301, 0.285791, 0.00174307, 0.00145307, 0.0101504
-0.0145776, -0.0185139, -0.561737, 0.000138691, -2.85659e-05, -0.000263711, 0.369907, 0.340257, 0.286918, 0.00174171, 0.0014513, 0.0101326
-0.0136448, -0.0181606, -0.563339, 0.000138539, -2.76561e-05, -0.00025864, 0.370435, 0.340174, 0.288331, 0.00173981, 0.0014496, 0.0101095
-0.0133492, -0.0173654, -0.565, 0.00013807, -2.68807e-05, -0.000251752, 0.37071, 0.340123, 0.289584, 0.00173781, 0.00144749, 0.0100867
-0.0126754, -0.0164922, -0.56622, 0.000137569, -2.65586e-05, -0.000245654, 0.371365, 0.340091, 0.290639, 0.0017357, 0.00144566, 0.0100638
-0.0108624, -0.0157378, -0.568348, 0.000137485, -2.59131e-05, -0.000243251, 0.371999, 0.340085, 0.291251, 0.00173386, 0.00144397, 0.0100444
-0.00925236, -0.015337, -0.568977, 0.00013745, -2.626e-05, -0.000242526, 0.372689, 0.340124, 0.291375, 0.00173255, 0.00144262, 0.0100309
-0.00750956, -0.0150315, -0.568302, 0.000137122, -2.73983e-05, -0.000239825, 0.373756, 0.340174, 0.291076, 0.00173163, 0.00144156, 0.0100217
-0.00547953, -0.0149347, -0.565613, 0.000136578, -2.83891e-05, -0.000235197, 0.375454, 0.340218, 0.290448, 0.00173088, 0.00144014, 0.0100147
-0.00287987, -0.0148611, -0.563529, 0.000136073, -2.92651e-05, -0.000230813, 0.377504, 0.340259, 0.289534, 0.0017303, 0.0014377, 0.0100098
-0.000224079, -0.0149338, -0.562095, 0.000135688, -3.00107e-05, -0.000227231, 0.379477, 0.34031, 0.288428, 0.00172993, 0.00143394, 0.0100074
0.0028067, -0.0153138, -0.560761, 0.000135432, -3.04304e-05, -0.000224265, 0.381006, 0.340401, 0.287304, 0.00172958, 0.00142858, 0.0100058
0.00600511, -0.0157669, -0.560604, 0.000134805, -3.19323e-05, -0.000219779, 0.381591, 0.340575, 0.286301, 0.00172899, 0.00142206, 0.010003
0.00840935, -0.0162711, -0.560781, 0.000134198, -3.29567e-05, -0.000215777, 0.380908, 0.340908, 0.285536, 0.0017279, 0.00141486, 0.00999683
0.00966066, -0.0163988, -0.560862, 0.000134013, -3.31227e-05, -0.0002145, 0.378924, 0.341454, 0.285132, 0.00172613, 0.00140697, 0.0099865
0.0114827, -0.0164742, -0.561769, 0.000133549, -3.4191e-05, -0.000212196, 0.375741, 0.342261, 0.285149, 0.00172347, 0.00139842, 0.00997094
0.012095, -0.0165582, -0.562893, 0.000132981, -3.55782e-05, -0.000209403, 0.371551, 0.343401, 0.285485, 0.00171966, 0.00139056, 0.00994814
0.0116191, -0.0165495, -0.563336, 0.000132679, -3.64191e-05, -0.000206998, 0.367108, 0.344924, 0.286059, 0.00171445, 0.00138458, 0.00991571
0.00931898, -0.0163482, -0.562962, 0.000132654, -3.74716e-05, -0.000205494, 0.363434, 0.346787, 0.286972, 0.00170806, 0.00138021, 0.00987481
-0.00124322, -0.0162786, -0.569971, 0.000130369, -4.71237e-05, -0.000208007, 0.361156, 0.348917, 0.288277, 0.00170094, 0.00137713, 0.009828
-0.00250861, -0.0165343, -0.566412, 0.000130202, -4.59142e-05, -0.000198934, 0.360255, 0.351204, 0.289886, 0.0016938, 0.00137485, 0.00977978
-0.00213862, -0.0171057, -0.562429, 0.00012959, -4.44535e-05, -0.000188916, 0.360772, 0.353527, 0.291621, 0.00168742, 0.00137327, 0.0097357
-0.00279907, -0.0179557, -0.56034, 0.000128318, -4.4088e-05, -0.000177791, 0.362693, 0.355813, 0.293315, 0.00168178, 0.00137182, 0.00969541
-0.00382786, -0.018555, -0.557511, 0.000127856, -4.28728e-05, -0.000172583, 0.365593, 0.357977, 0.294753, 0.00167698, 0.00136979, 0.00965968
-0.00574896, -0.0189311, -0.554984, 0.000128118, -4.05303e-05, -0.00017305, 0.369312, 0.359906, 0.295762, 0.00167323, 0.00136677, 0.00963049
-0.00756212, -0.0189833, -0.552206, 0.000128775, -3.81392e-05, -0.0001763, 0.373773, 0.361616, 0.29625, 0.00167018, 0.00136227, 0.00960568
-0.0091217, -0.0192601, -0.550128, 0.000128862, -3.65668e-05, -0.000176155, 0.378835, 0.363159, 0.296198, 0.00166754, 0.00135572, 0.00958305
-0.0141716, -0.0178897, -0.544304, 0.000131333, -3.30644e-05, -0.000196011, 0.383879, 0.364373, 0.295578, 0.00166567, 0.0013477, 0.00956672
-0.0139941, -0.0184806, -0.546488, 0.000131459, -2.97468e-05, -0.000196362, 0.387751, 0.365014, 0.294279, 0.0016649, 0.001341, 0.00956018
-0.0144087, -0.0189119, -0.549335, 0.000132116, -2.58917e-05, -0.000198006, 0.390197, 0.365023, 0.292527, 0.00166462, 0.00133516, 0.00955826
-0.0140654, -0.0191257, -0.551692, 0.000132813, -2.25252e-05, -0.00020005, 0.391435, 0.364811, 0.29075, 0.00166421, 0.00132776, 0.00955592
-0.0143376, -0.0196288, -0.553363, 0.000133779, -1.9312e-05, -0.0002049, 0.391223, 0.364688, 0.28927, 0.00166351, 0.00131743, 0.0095523
-0.0149195, -0.0200099, -0.555291, 0.00013505, -1.5589e-05, -0.000211963, 0.389138, 0.364518, 0.288211, 0.00166266, 0.00130634, 0.00954767
-0.0160218, -0.0207328, -0.556816, 0.000136215, -1.30294e-05, -0.000219328, 0.385387, 0.364284, 0.28771, 0.00166164, 0.00129486, 0.00954095
-0.0176848, -0.0216434, -0.55886, 0.000137415, -1.08062e-05, -0.000225704, 0.380689, 0.363954, 0.287625, 0.00166067, 0.00128624, 0.00953289
-0.0198322, -0.0220532, -0.561188, 0.000138202, -9.51815e-06, -0.000227592, 0.376028, 0.363504, 0.28801, 0.00165956, 0.0012797, 0.00952142
-0.0199691, -0.0221977, -0.564891, 0.000139244, -6.39818e-06, -0.000228906, 0.372296, 0.36297, 0.288861, 0.00165829, 0.00127501, 0.00950714
-0.0180243, -0.0223738, -0.568394, 0.000140384, -2.95454e-06, -0.000231212, 0.370121, 0.362267, 0.29012, 0.0016567, 0.00127208, 0.00948919
-0.0143042, -0.0217573, -0.572008, 0.000141157, 8.51452e-07, -0.000231778, 0.368786, 0.361454, 0.291608, 0.00165485, 0.00126953, 0.0094693
-0.0128537, -0.0215542, -0.57255, 0.000141442, 1.82179e-06, -0.000233065, 0.367085, 0.360707, 0.293035, 0.0016531, 0.00126614, 0.00945156
-0.0121491, -0.0214681, -0.572339, 0.000141421, 1.76856e-06, -0.000232756, 0.36462, 0.360163, 0.294269, 0.00165161, 0.00126147, 0.00943697
-0.0122409, -0.0217421, -0.571035, 0.000140795, 6.99487e-08, -0.000228443, 0.361669, 0.359883, 0.295381, 0.00165035, 0.00125591, 0.0094245
-0.0127294, -0.0220666, -0.568966, 0.000139611, -2.7102e-06, -0.000219922, 0.358954, 0.35983, 0.296469, 0.00164929, 0.0012506, 0.00941351
-0.0139193, -0.0224893, -0.56635, 0.000138151, -5.59418e-06, -0.00020945, 0.357178, 0.359933, 0.297474, 0.00164847, 0.00124672, 0.00940434
-0.0152836, -0.0228023, -0.564205, 0.000137201, -7.01627e-06, -0.000202796, 0.356559, 0.360223, 0.298227, 0.00164793, 0.00124434, 0.0093972
-0.0164139, -0.0229984, -0.562236, 0.000136682, -7.41056e-06, -0.000199131, 0.357017, 0.360796, 0.2985, 0.00164767, 0.00124302, 0.00939235
-0.0176065, -0.0231068, -0.562313, 0.000136672, -6.66591e-06, -0.000199666, 0.35825, 0.361732, 0.298212, 0.00164759, 0.001242, 0.00938941
-0.0185614, -0.0237585, -0.560611, 0.00013663, -5.58358e-06, -0.000200307, 0.360017, 0.363064, 0.297343, 0.00164749, 0.0012407, 0.00938816
-0.0193569, -0.0247438, -0.557931, 0.000136748, -3.8054e-06, -0.000202022, 0.362, 0.364682, 0.296102, 0.00164719, 0.00123901, 0.00938757
-0.0198719, -0.0256227, -0.555932, 0.000136972, -2.22972e-06, -0.000204202, 0.36396, 0.366382, 0.294616, 0.00164673, 0.00123696, 0.00938684
-0.0203235, -0.0263999, -0.555282, 0.000136909, -1.48578e-06, -0.000205205, 0.365723, 0.368018, 0.293058, 0.00164617, 0.00123476, 0.00938582
-0.0206748, -0.0270228, -0.557501, 0.000135942, -2.92521e-06, -0.000202039, 0.367202, 0.369496, 0.291597, 0.00164559, 0.00123268, 0.00938456
-0.0207019, -0.0274115, -0.558806, 0.00013534, -3.90389e-06, -0.000199643, 0.36829, 0.370698, 0.290176, 0.00164498, 0.00123065, 0.00938289
-0.0209108, -0.0273379, -0.559637, 0.000135054, -4.45783e-06, -0.00019816, 0.368905, 0.371503, 0.288858, 0.00164439, 0.00122881, 0.00938077
-0.0206529, -0.0267459, -0.560121, 0.000135026, -4.75299e-06, -0.000198033, 0.368922, 0.37171, 0.287558, 0.00164393, 0.00122702, 0.00937848
-0.0197252, -0.0255697, -0.560682, 0.000134867, -5.00876e-06, -0.000197408, 0.368285, 0.371181, 0.286252, 0.00164354, 0.00122526, 0.00937634
-0.0184571, -0.0236337, -0.562553, 0.000133601, -6.16398e-06, -0.000191167, 0.367001, 0.369898, 0.284815, 0.0016429, 0.00122322, 0.00937343
-0.0164748, -0.0213516, -0.563659, 0.00013182, -6.73796e-06, -0.000181945, 0.365378, 0.368087, 0.283353, 0.00164173, 0.00122093, 0.00936817
-0.0137734, -0.01903, -0.563444, 0.000129903, -6.28313e-06, -0.000171796, 0.363859, 0.366152, 0.282088, 0.00164028, 0.00121886, 0.0093612
-0.010949, -0.0172077, -0.562263, 0.000128248, -5.29937e-06, -0.000162573, 0.362707, 0.364421, 0.281169, 0.00163888, 0.00121739, 0.00935368
-0.00887832, -0.0158388, -0.562227, 0.000126672, -5.16663e-06, -0.000153426, 0.362034, 0.363051, 0.280596, 0.0016376, 0.0012166, 0.00934542
-0.00713214, -0.0144784, -0.563388, 0.000124971, -5.57378e-06, -0.000143735, 0.361852, 0.362089, 0.280255, 0.00163633, 0.00121622, 0.00933561
-0.00577864, -0.0136821, -0.563137, 0.000124006, -5.6248e-06, -0.00013734, 0.362088, 0.361511, 0.28006, 0.00163515, 0.00121603, 0.00932544
-0.0046519, -0.013775, -0.55928, 0.000123556, -5.48918e-06, -0.000132486, 0.362591, 0.361345, 0.279997, 0.00163428, 0.00121593, 0.00931735
-0.00481506, -0.0136347, -0.556212, 0.000123535, -5.64099e-06, -0.000131547, 0.3632, 0.361563, 0.28004, 0.00163372, 0.00121581, 0.00931207
-0.00555794, -0.0135117, -0.556072, 0.000123743, -5.52209e-06, -0.000132992, 0.363831, 0.362027, 0.280078, 0.00163337, 0.00121567, 0.00930929
-0.00626288, -0.0139616, -0.554791, 0.000123758, -5.49132e-06, -0.000133374, 0.36442, 0.362701, 0.280113, 0.00163314, 0.00121552, 0.00930825
-0.00767419, -0.0143121, -0.553887, 0.000123688, -5.38303e-06, -0.000132887, 0.364951, 0.363534, 0.2802, 0.00163296, 0.00121532, 0.00930782
-0.00924507, -0.0145645, -0.554338, 0.000123467, -4.91899e-06, -0.000131684, 0.365551, 0.364542, 0.280322, 0.00163279, 0.00121501, 0.0093069
-0.0108288, -0.0152617, -0.553756, 0.000123121, -4.51427e-06, -0.000130247, 0.366347, 0.365812, 0.280464, 0.00163259, 0.00121457, 0.00930541
-0.0131143, -0.0161972, -0.551945, 0.000122455, -4.11031e-06, -0.000126971, 0.36738, 0.367397, 0.280654, 0.00163232, 0.00121394, 0.00930365
-0.0148523, -0.0175181, -0.551091, 0.000121711, -3.30717e-06, -0.000125422, 0.368665, 0.369276, 0.280803, 0.00163197, 0.00121325, 0.00930172
-0.0167843, -0.0189134, -0.551225, 0.000120832, -2.09472e-06, -0.000122943, 0.370157, 0.3714, 0.280853, 0.0016316, 0.00121254, 0.00929891
-0.0190709, -0.0201024, -0.551874, 0.000119893, -6.56661e-07, -0.000118819, 0.371872, 0.37375, 0.28084, 0.00163126, 0.00121172, 0.00929451
-0.0211644, -0.0212722, -0.552622, 0.000119046, 8.39565e-07, -0.000115886, 0.373819, 0.376304, 0.280875, 0.00163097, 0.00121075, 0.00928838
-0.0228532, -0.022389, -0.554886, 0.00011832, 2.33413e-06, -0.00011372, 0.376008, 0.379043, 0.280928, 0.00163072, 0.00120967, 0.00928128
-0.0243163, -0.0234245, -0.557065, 0.000117758, 3.77764e-06, -0.000112731, 0.378356, 0.381921, 0.281027, 0.00163046, 0.00120859, 0.00927501
-0.0255704, -0.0241869, -0.557727, 0.000117357, 4.79339e-06, -0.000112281, 0.380735, 0.384767, 0.281119, 0.00163023, 0.00120762, 0.00926963
-0.0262358, -0.0250727, -0.558629, 0.000117047, 5.47042e-06, -0.00011324, 0.383019, 0.387426, 0.281185, 0.00163004, 0.00120684, 0.00926578
-0.0265935, -0.0260068, -0.559113, 0.000116827, 5.91835e-06, -0.000114675, 0.385086, 0.389742, 0.281226, 0.00162987, 0.00120626, 0.00926391
-0.0263191, -0.0267858, -0.561053, 0.0001167, 6.11633e-06, -0.000115698, 0.386717, 0.391583, 0.281334, 0.00162968, 0.00120587, 0.00926328
-0.0255078, -0.0275038, -0.562998, 0.000116631, 6.10054e-06, -0.000116216, 0.387833, 0.392801, 0.28142, 0.00162949, 0.00120567, 0.00926281
-0.0245818, -0.027838, -0.562281, 0.000116545, 5.9278e-06, -0.000115812, 0.388353, 0.393336, 0.281478, 0.00162938, 0.0012056, 0.0092623
-0.0234094, -0.0276519, -0.562895, 0.000116682, 5.90869e-06, -0.000116309, 0.38827, 0.393219, 0.281537, 0.00162928, 0.00120557, 0.00926164
-0.0223991, -0.0267818, -0.564389, 0.000116928, 6.08541e-06, -0.000117926, 0.387604, 0.392458, 0.281539, 0.00162915, 0.00120549, 0.00926076
-0.0209343, -0.0258368, -0.565644, 0.000117216, 6.42022e-06, -0.0001202, 0.386419, 0.391107, 0.281466, 0.00162904, 0.00120527, 0.00925941
-0.0187528, -0.0247701, -0.566763, 0.000117468, 7.02678e-06, -0.00012253, 0.384849, 0.389273, 0.281361, 0.00162898, 0.00120486, 0.00925644
-0.0159842, -0.0235613, -0.56616, 0.000117368, 8.02704e-06, -0.000123139, 0.38306, 0.387121, 0.281195, 0.00162884, 0.00120424, 0.00924919
-0.0133205, -0.0222108, -0.565258, 0.00011691, 9.15917e-06, -0.000122375, 0.381246, 0.384844, 0.280957, 0.00162855, 0.00120351, 0.00923852
-0.0107215, -0.0205223, -0.564107, 0.000116066, 1.03872e-05, -0.000120339, 0.379623, 0.382571, 0.280697, 0.00162815, 0.00120284, 0.00922842
-0.00837099, -0.0192816, -0.561084, 0.000114942, 1.17943e-05, -0.000115598, 0.378383, 0.380387, 0.280436, 0.00162751, 0.00120233, 0.00921996
-0.0062297, -0.0170213, -0.560778, 0.000113215, 1.24185e-05, -0.000108394, 0.377635, 0.378438, 0.280198, 0.00162653, 0.00120197, 0.00921168
-0.00424374, -0.0155554, -0.560434, 0.00011158, 1.26785e-05, -9.92192e-05, 0.377429, 0.376886, 0.280049, 0.00162533, 0.0012018, 0.00920214
-0.00277831, -0.0141872, -0.560847, 0.00011037, 1.26481e-05, -9.2104e-05, 0.377717, 0.375848, 0.27997, 0.0016242, 0.00120169, 0.00919186
-0.00170226, -0.0138157, -0.561245, 0.000109796, 1.25438e-05, -8.78346e-05, 0.378269, 0.375339, 0.279972, 0.00162344, 0.00120161, 0.00918409
-0.00112414, -0.013592, -0.560229, 0.000109527, 1.24564e-05, -8.58104e-05, 0.378931, 0.375313, 0.280006, 0.00162307, 0.00120151, 0.00917988
-0.00154915, -0.01404, -0.558017, 0.000109514, 1.24828e-05, -8.5645e-05, 0.379669, 0.375755, 0.280028, 0.00162288, 0.00120139, 0.00917819
-0.00154724, -0.0148109, -0.55509, 0.000109212, 1.2246e-05, -8.41538e-05, 0.380393, 0.376643, 0.280078, 0.00162257, 0.00120123, 0.00917727
-0.00294687, -0.0157301, -0.552593, 0.000108441, 1.20984e-05, -8.0027e-05, 0.381024, 0.377913, 0.280191, 0.00162184, 0.00120102, 0.00917482
-0.00427231, -0.0163226, -0.553291, 0.000107515, 1.24099e-05, -7.51434e-05, 0.381698, 0.379459, 0.280271, 0.00162073, 0.00120084, 0.00917052
-0.00596894, -0.0172486, -0.55299, 0.000106278, 1.28359e-05, -6.88575e-05, 0.382585, 0.381221, 0.28029, 0.00161958, 0.00120063, 0.00916605
-0.007727, -0.0177746, -0.552914, 0.000105378, 1.34588e-05, -6.37946e-05, 0.383757, 0.383169, 0.280262, 0.00161858, 0.00120031, 0.00916224
-0.00946501, -0.018473, -0.552866, 0.00010446, 1.4266e-05, -5.93629e-05, 0.385249, 0.385317, 0.280184, 0.00161776, 0.0011998, 0.00915897
-0.0111513, -0.0194846, -0.551464, 0.000103707, 1.53685e-05, -5.72251e-05, 0.38709, 0.387681, 0.280111, 0.00161713, 0.00119908, 0.00915626
-0.0129621, -0.0202972, -0.549401, 0.000103319, 1.66826e-05, -5.65877e-05, 0.389322, 0.390278, 0.280061, 0.00161664, 0.00119807, 0.00915423
-0.0145641, -0.0211255, -0.547424, 0.000103285, 1.83682e-05, -5.90361e-05, 0.392042, 0.393092, 0.279958, 0.00161628, 0.00119656, 0.00915169
-0.015885, -0.0223843, -0.547639, 0.00010319, 2.00329e-05, -6.43518e-05, 0.395201, 0.396084, 0.279857, 0.00161598, 0.00119453, 0.00914723
-0.017242, -0.023569, -0.550986, 0.000103115, 2.14378e-05, -6.98615e-05, 0.398583, 0.399155, 0.279792, 0.00161571, 0.00119228, 0.00914051
-0.018554, -0.0241524, -0.557117, 0.000103055, 2.21329e-05, -7.28754e-05, 0.402011, 0.402163, 0.279745, 0.00161546, 0.00119006, 0.00913207
-0.0189275, -0.025134, -0.562713, 0.00010283, 2.28741e-05, -7.72781e-05, 0.405259, 0.405109, 0.27978, 0.00161508, 0.00118834, 0.00912757
-0.0191104, -0.0264364, -0.567055, 0.000102352, 2.40179e-05, -8.05832e-05, 0.408102, 0.407886, 0.279915, 0.00161413, 0.00118703, 0.00912461
-0.0193413, -0.0280174, -0.567079, 0.000101, 2.39516e-05, -7.5528e-05, 0.410383, 0.410307, 0.280152, 0.00161245, 0.00118589, 0.00911802
-0.0197313, -0.0291645, -0.564179, 9.96759e-05, 2.28899e-05, -6.7159e-05, 0.412008, 0.412186, 0.280453, 0.00161071, 0.00118503, 0.00910933
-0.0201326, -0.0297068, -0.561833, 9.90613e-05, 2.22192e-05, -6.26983e-05, 0.412812, 0.413394, 0.280762, 0.00160941, 0.00118451, 0.00910162
-0.0206185, -0.0295594, -0.55939, 9.8887e-05, 2.17261e-05, -6.10837e-05, 0.41286, 0.413964, 0.281079, 0.0016083, 0.00118408, 0.00909333
-0.0210353, -0.0293739, -0.557276, 9.8722e-05, 2.12546e-05, -6.00295e-05, 0.412326, 0.413959, 0.281427, 0.00160729, 0.0011835, 0.0090838
-0.0204411, -0.0286298, -0.557186, 9.90971e-05, 2.15599e-05, -6.31936e-05, 0.411175, 0.413214, 0.281651, 0.00160677, 0.00118297, 0.00907674
-0.0192637, -0.0272241, -0.55785, 9.94078e-05, 2.22769e-05, -6.71512e-05, 0.409362, 0.411523, 0.281752, 0.00160667, 0.00118245, 0.00907371
-0.0173328, -0.0264637, -0.55753, 9.93769e-05, 2.29923e-05, -6.75969e-05, 0.406912, 0.408793, 0.281733, 0.00160638, 0.00118192, 0.00907321
-0.013968, -0.0239003, -0.559363, 9.78537e-05, 2.4426e-05, -6.17418e-05, 0.404073, 0.405261, 0.281601, 0.0016051, 0.00118133, 0.00907115
-0.0103665, -0.0214249, -0.560216, 9.56892e-05, 2.58253e-05, -5.16728e-05, 0.4012, 0.401388, 0.281472, 0.00160266, 0.00118063, 0.00906509
-0.00712116, -0.0184323, -0.558178, 9.21944e-05, 2.67124e-05, -3.49726e-05, 0.398592, 0.397595, 0.281425, 0.00159933, 0.00117991, 0.00905482
-0.00407083, -0.0162539, -0.560316, 8.98268e-05, 2.77698e-05, -2.16648e-05, 0.396531, 0.394191, 0.281441, 0.00159552, 0.00117931, 0.00904056
-0.00179185, -0.0147183, -0.561955, 8.81966e-05, 2.85033e-05, -1.1713e-05, 0.39514, 0.391488, 0.281559, 0.00159232, 0.00117891, 0.009027
0.000464577, -0.0136905, -0.562812, 8.71719e-05, 2.9139e-05, -4.74232e-06, 0.394256, 0.389679, 0.281811, 0.00159067, 0.00117855, 0.00901951
0.00160137, -0.0138165, -0.561875, 8.66715e-05, 2.89572e-05, -6.29448e-07, 0.393764, 0.388759, 0.282146, 0.00159016, 0.00117813, 0.00901606
0.00172977, -0.0139649, -0.558802, 8.58583e-05, 2.79744e-05, 4.30541e-06, 0.393667, 0.388611, 0.282491, 0.0015899, 0.00117773, 0.00901282
0.00114366, -0.0144305, -0.55648, 8.52313e-05, 2.73116e-05, 7.52061e-06, 0.393894, 0.389112, 0.282774, 0.00158939, 0.00117737, 0.00900861
-0.000610244, -0.014965, -0.553333, 8.43156e-05, 2.69211e-05, 1.13682e-05, 0.394402, 0.390196, 0.282946, 0.00158832, 0.00117706, 0.00900302
-0.00253577, -0.0155087, -0.551875, 8.32922e-05, 2.71911e-05, 1.59991e-05, 0.395296, 0.391842, 0.282981, 0.00158655, 0.00117671, 0.00899597
-0.0047912, -0.0162683, -0.550078, 8.19713e-05, 2.8007e-05, 2.13606e-05, 0.396706, 0.393968, 0.282925, 0.00158452, 0.00117616, 0.00899022
-0.00652456, -0.0174139, -0.549628, 8.04721e-05, 2.88481e-05, 2.64945e-05, 0.398584, 0.396437, 0.282857, 0.00158271, 0.00117538, 0.00898711
-0.00815124, -0.0182321, -0.549208, 7.94224e-05, 2.99116e-05, 2.97032e-05, 0.400855, 0.399161, 0.282769, 0.00158122, 0.00117434, 0.0089856
-0.00997866, -0.0197474, -0.547053, 7.78717e-05, 3.15424e-05, 3.21665e-05, 0.403456, 0.402116, 0.282663, 0.00157996, 0.00117307, 0.00898472
-0.00517962, -0.0186734, -0.587198, 7.79865e-05, 2.14102e-05, 5.13911e-05, 0.406303, 0.405188, 0.282495, 0.00157922, 0.00117155, 0.00898332
-0.00943716, -0.0208132, -0.568702, 7.85394e-05, 3.09987e-05, 3.37493e-05, 0.409287, 0.408279, 0.282201, 0.00157893, 0.00116967, 0.00897781
-0.0112228, -0.0227915, -0.555764, 7.99178e-05, 3.83804e-05, 1.64433e-05, 0.412162, 0.411274, 0.281808, 0.00157868, 0.00116769, 0.0089694
-0.0120482, -0.0247759, -0.548294, 8.05704e-05, 4.23104e-05, 5.80221e-06, 0.414767, 0.414104, 0.281492, 0.00157843, 0.00116621, 0.00896348
-0.01196, -0.0261517, -0.543911, 8.06724e-05, 4.39378e-05, 1.37913e-06, 0.416924, 0.416588, 0.281253, 0.00157813, 0.00116532, 0.00896117
-0.0119921, -0.026984, -0.542691, 8.03693e-05, 4.43489e-05, 1.76394e-06, 0.418527, 0.418535, 0.28108, 0.00157777, 0.00116483, 0.00896027
-0.011829, -0.0274461, -0.543812, 8.01403e-05, 4.41004e-05, 2.43233e-06, 0.419571, 0.419736, 0.280932, 0.00157755, 0.0011645, 0.00895978
-0.0115218, -0.0266857, -0.545259, 7.98797e-05, 4.35162e-05, 4.2683e-06, 0.420074, 0.420087, 0.280729, 0.0015774, 0.00116412, 0.008959
-0.0112246, -0.0252172, -0.547479, 7.88577e-05, 4.23672e-05, 1.09422e-05, 0.420346, 0.41962, 0.280441, 0.00157661, 0.00116351, 0.00895355
-0.0109629, -0.0234537, -0.549534, 7.70071e-05, 4.09634e-05, 2.33297e-05, 0.421094, 0.418523, 0.280094, 0.00157309, 0.00116234, 0.00892583
-0.0100168, -0.0215295, -0.55115, 7.33789e-05, 3.90396e-05, 4.85221e-05, 0.422891, 0.417235, 0.279754, 0.00156453, 0.00116016, 0.00885323
-0.00800192, -0.0204453, -0.552523, 6.6664e-05, 3.59659e-05, 9.65736e-05, 0.426083, 0.416202, 0.27954, 0.00154964, 0.00115672, 0.00872164
-0.00651562, -0.0199984, -0.554287, 6.06034e-05, 3.31348e-05, 0.000141132, 0.430631, 0.41558, 0.279501, 0.00152824, 0.00115187, 0.00852826
-0.00533739, -0.019886, -0.555007, 5.51273e-05, 3.0754e-05, 0.000181065, 0.435985, 0.41528, 0.279591, 0.00150495, 0.00114648, 0.00831361
-0.00595088, -0.0490485, -0.55466, 4.21244e-05, 2.54557e-05, 0.000280626, 0.441507, 0.415158, 0.279791, 0.00148533, 0.00114177, 0.00812769
-0.00972059, -0.0787853, -0.550068, 4.35602e-05, 2.54235e-05, 0.000268777, 0.446769, 0.415039, 0.280003, 0.00147129, 0.0011382, 0.00798891
-0.00639868, -0.0490015, -0.553258, 4.33724e-05, 2.8028e-05, 0.000271292, 0.451362, 0.414864, 0.280177, 0.0014629, 0.00113587, 0.00790016
-0.00351853, -0.0279322, -0.555347, 4.44855e-05, 3.11956e-05, 0.000263131, 0.454582, 0.414737, 0.280381, 0.00145979, 0.00113472, 0.00786362
-0.00116356, -0.0140183, -0.559206, 4.87145e-05, 3.55085e-05, 0.000230994, 0.455519, 0.414745, 0.280615, 0.00145941, 0.0011342, 0.00785792
0.000329753, -0.00582941, -0.560579, 5.2547e-05, 3.82301e-05, 0.000202514, 0.453351, 0.414939, 0.280736, 0.00145736, 0.00113355, 0.0078422
0.000411727, -0.00151193, -0.560395, 5.4395e-05, 3.9208e-05, 0.000190045, 0.447594, 0.415328, 0.280739, 0.00144808, 0.00113162, 0.00776282
-0.00111595, 0.000114654, -0.560409, 5.19973e-05, 3.83503e-05, 0.000207258, 0.438957, 0.415733, 0.280629, 0.00142779, 0.00112762, 0.00758205
-0.00336372, -0.000161432, -0.561287, 4.61769e-05, 3.628e-05, 0.000246499, 0.429263, 0.416057, 0.280497, 0.00139657, 0.00112158, 0.0072958
-0.00504803, -0.00178814, -0.56181, 4.10746e-05, 3.4304e-05, 0.000280176, 0.420623, 0.416345, 0.280475, 0.00135844, 0.00111425, 0.00693566
-0.00522507, 0.0198767, -0.567768, 3.89121e-05, 3.77226e-05, 0.000301413, 0.414433, 0.416661, 0.280673, 0.00131879, 0.00110661, 0.0065496
-0.00787836, 0.0477721, -0.568601, 3.59879e-05, 3.91051e-05, 0.000348617, 0.411139, 0.417016, 0.281133, 0.00128301, 0.00109974, 0.00619171
-0.00863448, 0.0559596, -0.567272, 3.71892e-05, 3.94764e-05, 0.000353129, 0.410313, 0.417457, 0.281784, 0.00125439, 0.00109434, 0.00589816
-0.00857531, 0.0941795, -0.568941, 4.36393e-05, 4.54364e-05, 0.000349413, 0.411159, 0.41804, 0.282578, 0.00123368, 0.00109053, 0.00568289
-0.01065, 0.0305533, -0.564895, 2.85194e-05, 3.50345e-05, 0.000383017, 0.412928, 0.418785, 0.283366, 0.00122036, 0.00108824, 0.00554331
-0.012048, 0.0156399, -0.565782, 2.28854e-05, 3.31407e-05, 0.000401875, 0.414914, 0.419616, 0.284184, 0.00121359, 0.00108713, 0.0054737
-0.0106499, 0.0153547, -0.56422, 2.48415e-05, 3.31387e-05, 0.000389651, 0.416616, 0.420437, 0.284904, 0.0012109, 0.00108669, 0.0054482
-0.0104139, 0.00472538, -0.563533, 2.44809e-05, 3.27035e-05, 0.000381247, 0.417726, 0.421122, 0.285381, 0.00121032, 0.00108654, 0.0054441
-0.0104475, -0.0141007, -0.562483, 2.42941e-05, 3.17877e-05, 0.000365287, 0.4181, 0.421671, 0.285636, 0.00121029, 0.00108627, 0.00544239
-0.0118943, -0.0298957, -0.55919, 2.37119e-05, 3.0947e-05, 0.00035309, 0.417867, 0.422152, 0.285686, 0.00120945, 0.00108558, 0.00542782
-0.0079374, -0.0339592, -0.556407, 1.91764e-05, 2.80196e-05, 0.000384337, 0.417309, 0.422639, 0.285511, 0.00120673, 0.00108419, 0.00538749
-0.00856993, -0.0289778, -0.553642, 1.92451e-05, 2.862e-05, 0.000383905, 0.416753, 0.423147, 0.285154, 0.00120139, 0.00108184, 0.00531108
-0.0102602, -0.0300276, -0.557797, 2.37399e-05, 3.04511e-05, 0.000354552, 0.416648, 0.423634, 0.284657, 0.00119332, 0.00107855, 0.00519678
-0.0130581, -0.0381641, -0.556735, 2.72877e-05, 3.24281e-05, 0.000316046, 0.417469, 0.424086, 0.284108, 0.00118272, 0.00107445, 0.00504759
-0.012381, -0.0444449, -0.554152, 2.36812e-05, 3.07222e-05, 0.000330775, 0.419485, 0.424551, 0.283663, 0.00117048, 0.00106993, 0.00487632
-0.0116613, -0.0580937, -0.548595, 1.60552e-05, 2.78401e-05, 0.000358383, 0.422707, 0.425123, 0.28342, 0.00115775, 0.0010654, 0.00469978
-0.0117156, -0.0922403, -0.556559, 1.64415e-05, 2.61944e-05, 0.00033299, 0.427006, 0.425821, 0.28339, 0.00114522, 0.00106101, 0.00452527
-0.0115915, -0.109019, -0.560962, 1.64913e-05, 2.51274e-05, 0.000320623, 0.432172, 0.426636, 0.283547, 0.0011335, 0.00105689, 0.00435875
-0.0114321, -0.114144, -0.56083, 1.49137e-05, 2.43658e-05, 0.000324131, 0.437819, 0.427518, 0.283758, 0.00112357, 0.00105337, 0.00421631
-0.0106953, -0.109246, -0.561088, 1.43446e-05, 2.3704e-05, 0.000336898, 0.443535, 0.428417, 0.283967, 0.00111597, 0.00105058, 0.00410739
-0.00961663, -0.0997214, -0.55959, 1.38253e-05, 2.33714e-05, 0.000350799, 0.448936, 0.429304, 0.284181, 0.0011107, 0.00104854, 0.00403366
-0.00866965, -0.0867149, -0.558118, 1.51928e-05, 2.34893e-05, 0.000353686, 0.453627, 0.430136, 0.284403, 0.00110753, 0.00104723, 0.00399157
-0.00774874, -0.0718948, -0.557927, 1.75199e-05, 2.35757e-05, 0.000349792, 0.457238, 0.430825, 0.284533, 0.00110605, 0.00104645, 0.00397284
-0.00664628, -0.05661, -0.557696, 1.9525e-05, 2.37276e-05, 0.000343822, 0.459406, 0.4313, 0.284568, 0.00110564, 0.00104609, 0.00396815
-0.0126624, -0.0837016, -0.54956, 1.64479e-05, 2.63611e-05, 0.000356007, 0.45996, 0.431626, 0.284501, 0.0011056, 0.00104597, 0.00396795
-0.00883008, -0.0515555, -0.550649, 2.0494e-05, 2.46482e-05, 0.000337166, 0.458836, 0.431925, 0.284343, 0.00110534, 0.00104594, 0.00396388
-0.00691438, -0.026322, -0.552475, 2.30124e-05, 2.3641e-05, 0.000328162, 0.456335, 0.432255, 0.28421, 0.00110436, 0.00104586, 0.0039487
-0.00617743, -0.00732399, -0.554246, 2.42805e-05, 2.27123e-05, 0.000326217, 0.452739, 0.432584, 0.283955, 0.00110233, 0.00104567, 0.00391801
-0.00591163, 0.00624026, -0.555352, 2.49912e-05, 2.17504e-05, 0.000326099, 0.448351, 0.432865, 0.28356, 0.00109907, 0.00104531, 0.00386938
-0.00633467, 0.0152724, -0.55667, 2.48536e-05, 2.069e-05, 0.000329583, 0.443629, 0.433161, 0.283108, 0.00109455, 0.00104474, 0.00380089
-0.00784358, 0.021205, -0.558926, 2.28681e-05, 1.95187e-05, 0.000343171, 0.439323, 0.43352, 0.282616, 0.00108907, 0.00104405, 0.00371751
-0.00895576, 0.0238318, -0.560602, 2.11126e-05, 1.88873e-05, 0.000354113, 0.436042, 0.433998, 0.282233, 0.00108309, 0.00104338, 0.00362751
-0.00965589, 0.0240059, -0.561704, 1.97336e-05, 1.87005e-05, 0.000361354, 0.434042, 0.434641, 0.282088, 0.00107709, 0.00104279, 0.00353841
-0.0108012, 0.0225335, -0.562654, 1.76277e-05, 1.85394e-05, 0.000372356, 0.433318, 0.43546, 0.282223, 0.00107155, 0.0010423, 0.0034571
-0.0119469, 0.0475229, -0.571465, 1.70663e-05, 1.73992e-05, 0.000388981, 0.433675, 0.436445, 0.282629, 0.00106687, 0.00104191, 0.00338878
-0.00717372, 0.0673425, -0.584385, 1.90099e-05, 1.86332e-05, 0.000367545, 0.434801, 0.437528, 0.283235, 0.00106313, 0.00104158, 0.0033339
0.000964996, 0.0653049, -0.600737, 1.61545e-05, 2.24949e-05, 0.000339116, 0.436346, 0.438588, 0.283882, 0.00106039, 0.00104136, 0.00329404
-0.0017862, 0.0665136, -0.594003, 1.76583e-05, 2.15559e-05, 0.000345478, 0.437967, 0.439554, 0.284485, 0.0010587, 0.00104124, 0.00326944
-0.00762841, 0.0521132, -0.580611, 1.65894e-05, 2.10353e-05, 0.000360445, 0.439328, 0.440285, 0.285021, 0.00105784, 0.00104116, 0.00325659
-0.013671, 0.0419264, -0.564488, 1.69754e-05, 1.97928e-05, 0.000365934, 0.440211, 0.44073, 0.285496, 0.00105756, 0.0010411, 0.0032521
-0.01776, 0.0274693, -0.555524, 1.63591e-05, 1.9623e-05, 0.000366136, 0.440622, 0.44101, 0.285825, 0.00105754, 0.00104106, 0.00325164
-0.0201733, 0.0164828, -0.546906, 1.53066e-05, 1.93796e-05, 0.000365616, 0.440661, 0.441273, 0.285991, 0.00105746, 0.00104099, 0.00325103
-0.0155638, 0.00925272, -0.541791, 1.27144e-05, 1.86122e-05, 0.000376505, 0.440465, 0.441595, 0.285934, 0.00105706, 0.00104086, 0.00324645
-0.0170336, 0.0261772, -0.538147, 1.37798e-05, 1.86977e-05, 0.00037283, 0.440092, 0.441961, 0.285669, 0.00105609, 0.00104055, 0.00323319
-0.0191785, 0.0191657, -0.53882, 1.46441e-05, 1.93042e-05, 0.000363085, 0.439714, 0.44229, 0.285125, 0.00105421, 0.00103996, 0.00320661
-0.0204721, -0.0114583, -0.541728, 1.44825e-05, 1.71807e-05, 0.00035198, 0.439608, 0.44254, 0.284522, 0.00105133, 0.00103908, 0.00316444
-0.0223227, -0.0623888, -0.54272, 1.16631e-05, 1.30049e-05, 0.000339534, 0.440097, 0.442746, 0.284014, 0.00104744, 0.00103799, 0.00310767
-0.0228613, -0.0925132, -0.542621, 8.73861e-06, 1.01785e-05, 0.000335849, 0.44145, 0.442972, 0.283715, 0.00104275, 0.00103672, 0.003039
-0.0221602, -0.108617, -0.545338, 7.72761e-06, 8.08871e-06, 0.00033822, 0.443793, 0.44336, 0.28364, 0.00103794, 0.0010353, 0.00296686
-0.0211902, -0.112704, -0.549046, 8.57576e-06, 7.18002e-06, 0.000342325, 0.447064, 0.444051, 0.283782, 0.00103348, 0.00103376, 0.00289874
-0.0195793, -0.109591, -0.552931, 1.04167e-05, 6.62741e-06, 0.000350533, 0.45096, 0.445056, 0.28414, 0.00102981, 0.00103224, 0.00284211
-0.0180182, -0.101969, -0.555045, 1.25643e-05, 6.3672e-06, 0.000357453, 0.455057, 0.446241, 0.284649, 0.0010271, 0.00103094, 0.00280126
-0.0165978, -0.0916075, -0.557027, 1.55717e-05, 6.54879e-06, 0.000360269, 0.458944, 0.447447, 0.285307, 0.00102536, 0.00102996, 0.00277554
-0.0139637, -0.103909, -0.551177, 9.40098e-06, 3.01245e-06, 0.000380187, 0.462244, 0.448535, 0.286019, 0.00102452, 0.00102933, 0.00276248
-0.00622337, -0.109082, -0.541269, 5.36852e-06, -5.52952e-07, 0.000402599, 0.464622, 0.449332, 0.286497, 0.00102425, 0.00102903, 0.00275738
0.00924115, -0.104114, -0.514862, 4.27263e-06, -2.27802e-06, 0.000421623, 0.465879, 0.449767, 0.286661, 0.00102422, 0.00102894, 0.00275641
0.0177648, -0.10305, -0.491116, 7.11713e-06, -1.33854e-06, 0.00042076, 0.46598, 0.449838, 0.286561, 0.00102414, 0.00102891, 0.00275608
0.0216445, -0.13275, -0.473651, 1.2893e-05, -2.62583e-06, 0.000402802, 0.465052, 0.449665, 0.286306, 0.00102379, 0.00102888, 0.00275365
0.0207666, -0.173888, -0.463303, 1.78975e-05, -4.88931e-06, 0.00038681, 0.463308, 0.449412, 0.285883, 0.00102309, 0.00102882, 0.00274757
-9.46376e-05, -0.208864, -0.465558, 1.08625e-05, -8.77022e-06, 0.000428521, 0.461067, 0.449219, 0.28542, 0.00102203, 0.00102873, 0.00273724
-0.0174463, -0.111175, -0.540817, -2.50609e-05, -3.41906e-06, 0.000506019, 0.458684, 0.449115, 0.284985, 0.00102055, 0.00102861, 0.0027223
-0.0284422, -0.0329869, -0.581276, -4.21092e-05, -3.00346e-06, 0.000537907, 0.456549, 0.449311, 0.284744, 0.00101816, 0.00102849, 0.00269589
-0.0369839, 0.0280655, -0.597981, -4.46615e-05, -7.14148e-06, 0.000548024, 0.454855, 0.449702, 0.284597, 0.00101494, 0.00102836, 0.00265769
-0.0513521, 0.112566, -0.627995, -5.51797e-05, -1.56026e-05, 0.00059068, 0.45385, 0.450246, 0.284544, 0.00101108, 0.00102824, 0.00261005
-0.059133, 0.16161, -0.644868, -5.94951e-05, -2.1819e-05, 0.000615978, 0.453768, 0.450986, 0.284649, 0.00100673, 0.00102812, 0.00255522
-0.0610494, 0.183951, -0.650819, -5.82552e-05, -2.49479e-05, 0.000616297, 0.454563, 0.451903, 0.284953, 0.00100253, 0.001028, 0.00250205
-0.0596979, 0.188103, -0.652178, -5.71175e-05, -2.53952e-05, 0.000607384, 0.456013, 0.452957, 0.285431, 0.00099915, 0.0010279, 0.00245901
-0.0558889, 0.178802, -0.645994, -5.41206e-05, -2.41701e-05, 0.000588046, 0.457809, 0.454105, 0.285984, 0.000996901, 0.0010278, 0.00242974
-0.0522983, 0.191432, -0.640154, -4.6949e-05, -2.66339e-05, 0.00056719, 0.459613, 0.455233, 0.286518, 0.000995706, 0.00102771, 0.00241315
-0.0453415, 0.154853, -0.626343, -4.84745e-05, -2.06061e-05, 0.000546627, 0.461166, 0.456202, 0.286942, 0.00099523, 0.00102761, 0.00240512
-0.0407849, 0.158476, -0.613448, -4.68787e-05, -2.12516e-05, 0.000540296, 0.462224, 0.456901, 0.287258, 0.00099517, 0.00102749, 0.00240289
-0.0310005, 0.143138, -0.597184, -4.89577e-05, -1.84127e-05, 0.000530099, 0.462766, 0.457308, 0.287411, 0.000995114, 0.00102736, 0.00240234
-0.0256906, 0.116506, -0.583061, -5.17818e-05, -1.36352e-05, 0.000517585, 0.462788, 0.45748, 0.28743, 0.000994746, 0.00102721, 0.00240099
-0.0166335, 0.05834, -0.570502, -5.53925e-05, -2.60153e-06, 0.000494197, 0.462443, 0.457485, 0.287247, 0.000993751, 0.00102701, 0.00239621
-0.00989294, 0.0167691, -0.557455, -6.18664e-05, 4.5913e-06, 0.00048642, 0.461878, 0.457324, 0.286872, 0.000991815, 0.00102677, 0.00238395
-0.00417185, -0.0143703, -0.549742, -6.75215e-05, 8.92702e-06, 0.000487254, 0.46133, 0.45698, 0.286259, 0.000988794, 0.00102644, 0.00236177
-0.000855966, -0.0361391, -0.545165, -7.14652e-05, 1.15667e-05, 0.000487814, 0.461119, 0.456514, 0.285528, 0.000984878, 0.00102598, 0.00233091
0.00114247, -0.0496544, -0.542677, -7.40779e-05, 1.30793e-05, 0.000489215, 0.461495, 0.456054, 0.284814, 0.000980539, 0.0010254, 0.00229532
0.00191763, -0.0570727, -0.541201, -7.56217e-05, 1.39125e-05, 0.000489231, 0.462588, 0.455723, 0.284255, 0.000976279, 0.00102475, 0.00225914
0.00202277, -0.0598472, -0.539669, -7.68733e-05, 1.44328e-05, 0.000488905, 0.464352, 0.455605, 0.283948, 0.000972506, 0.00102408, 0.00222629
0.00142504, -0.0593239, -0.538466, -7.72607e-05, 1.48783e-05, 0.000486594, 0.466661, 0.455732, 0.283893, 0.000969415, 0.00102342, 0.00219901
0.000403463, -0.0572872, -0.537674, -7.69095e-05, 1.53355e-05, 0.000482918, 0.469333, 0.456142, 0.284017, 0.000967096, 0.00102274, 0.00217868
-0.000467783, -0.0533852, -0.538108, -7.57639e-05, 1.53175e-05, 0.00048018, 0.472042, 0.45682, 0.284183, 0.000965665, 0.00102208, 0.00216629
-0.00202558, -0.0477805, -0.539753, -7.39021e-05, 1.50807e-05, 0.000476337, 0.474442, 0.457693, 0.28429, 0.000965014, 0.00102151, 0.0021609
-0.00370861, -0.0418453, -0.540449, -7.25443e-05, 1.50451e-05, 0.000473734, 0.476293, 0.458641, 0.284267, 0.000964798, 0.00102109, 0.00215969
-0.00556543, -0.0353772, -0.540457, -7.13889e-05, 1.51172e-05, 0.000472539, 0.477517, 0.459571, 0.284106, 0.000964675, 0.00102081, 0.00215962
-0.00748525, -0.0284487, -0.54118, -7.05537e-05, 1.49859e-05, 0.000473044, 0.47816, 0.460422, 0.283851, 0.000964432, 0.00102066, 0.00215864
-0.00943527, -0.0218673, -0.542926, -7.03241e-05, 1.46339e-05, 0.000475286, 0.478373, 0.461195, 0.283565, 0.000964024, 0.00102059, 0.00215595
-0.0113271, -0.0158283, -0.546215, -7.09585e-05, 1.40439e-05, 0.000479027, 0.478284, 0.461897, 0.28325, 0.000963479, 0.00102053, 0.00215144
-0.0130684, -0.0101855, -0.54785, -7.13714e-05, 1.31452e-05, 0.000483653, 0.477952, 0.462482, 0.282898, 0.000962819, 0.00102042, 0.00214519
-0.0143328, -0.0046654, -0.551889, -7.31348e-05, 1.23933e-05, 0.000489082, 0.477383, 0.46286, 0.282636, 0.000962044, 0.00102025, 0.00213758
0.0180378, 0.0017163, -0.541914, -6.54211e-05, 1.16503e-05, 0.000431149, 0.476597, 0.463017, 0.282562, 0.000961185, 0.00101999, 0.00212915
0.00300066, 0.00396029, -0.550458, -7.10479e-05, 1.2026e-05, 0.000462217, 0.475717, 0.463054, 0.282691, 0.000960311, 0.00101963, 0.00211999
-0.00712258, 0.00572746, -0.556321, -7.48242e-05, 1.28339e-05, 0.000483742, 0.474909, 0.463134, 0.283099, 0.000959501, 0.00101907, 0.00211184
-0.0135049, 0.00706154, -0.558842, -7.64583e-05, 1.31983e-05, 0.000495781, 0.474388, 0.463345, 0.283684, 0.000958856, 0.00101846, 0.0021058
-0.0178101, 0.00852181, -0.560232, -7.7199e-05, 1.34454e-05, 0.000502542, 0.474285, 0.463712, 0.284293, 0.000958358, 0.00101799, 0.00210208
-0.0199805, 0.00979099, -0.561713, -7.75882e-05, 1.37723e-05, 0.000505078, 0.474652, 0.464275, 0.2847, 0.000957976, 0.00101779, 0.00210023
-0.0205947, 0.0109364, -0.563287, -7.77724e-05, 1.39654e-05, 0.000505363, 0.475415, 0.465041, 0.284883, 0.00095764, 0.0010177, 0.00209935
-0.020311, 0.011755, -0.563945, -7.76964e-05, 1.39084e-05, 0.000504818, 0.476455, 0.465951, 0.284833, 0.000957257, 0.00101759, 0.00209838
-0.0193862, 0.0123853, -0.563614, -7.74502e-05, 1.37804e-05, 0.000504087, 0.477667, 0.466957, 0.284536, 0.000956752, 0.00101737, 0.00209628
-0.0176117, 0.0128398, -0.56202, -7.70624e-05, 1.37081e-05, 0.000503519, 0.478997, 0.468069, 0.284123, 0.000956077, 0.00101697, 0.00209228
-0.0157801, 0.0129658, -0.560546, -7.68224e-05, 1.35863e-05, 0.000503677, 0.480431, 0.469343, 0.283673, 0.000955199, 0.00101639, 0.00208581
-0.0139525, 0.0130624, -0.556978, -7.65181e-05, 1.41742e-05, 0.000503815, 0.481935, 0.470837, 0.283247, 0.000954126, 0.00101561, 0.00207675
-0.0127648, 0.0133659, -0.554245, -7.62075e-05, 1.49276e-05, 0.000503275, 0.483395, 0.472508, 0.28288, 0.000952981, 0.00101461, 0.00206617
-0.0126754, 0.0139849, -0.552736, -7.58945e-05, 1.57493e-05, 0.000501616, 0.484725, 0.47427, 0.2826, 0.000951919, 0.00101344, 0.00205597
-0.012353, 0.0145028, -0.552045, -7.56395e-05, 1.61465e-05, 0.000500558, 0.485879, 0.475993, 0.282426, 0.000951041, 0.00101224, 0.00204751
-0.0123336, 0.0148465, -0.550978, -7.55807e-05, 1.6674e-05, 0.000499916, 0.486868, 0.477553, 0.282366, 0.000950396, 0.00101122, 0.00204154
-0.0127698, 0.0148132, -0.549487, -7.57934e-05, 1.72089e-05, 0.000499855, 0.487751, 0.47885, 0.282367, 0.000949964, 0.00101046, 0.00203817
-0.0132783, 0.0147643, -0.548287, -7.59977e-05, 1.75287e-05, 0.000499764, 0.488582, 0.4798, 0.282364, 0.000949685, 0.00100993, 0.00203685
-0.0137512, 0.0144373, -0.547919, -7.61489e-05, 1.75557e-05, 0.000499674, 0.489363, 0.480356, 0.282307, 0.000949501, 0.00100956, 0.0020365
-0.0139023, 0.0137339, -0.548521, -7.61539e-05, 1.74119e-05, 0.000499341, 0.490038, 0.480528, 0.2822, 0.000949361, 0.0010093, 0.00203606
-0.0357708, 0.0131271, -0.552412, -7.96641e-05, 2.00668e-05, 0.00049197, 0.490618, 0.480388, 0.282039, 0.000949232, 0.00100911, 0.00203482
-0.0246374, 0.0121097, -0.55122, -7.78556e-05, 1.87512e-05, 0.000493871, 0.491045, 0.479999, 0.281824, 0.000949094, 0.00100897, 0.00203295
-0.0169585, 0.0116081, -0.551698, -7.66514e-05, 1.82562e-05, 0.000495049, 0.491351, 0.479434, 0.281643, 0.000948911, 0.00100886, 0.00202987
-0.011465, 0.010771, -0.551096, -7.57633e-05, 1.77733e-05, 0.000495038, 0.491646, 0.47883, 0.281478, 0.000948683, 0.00100876, 0.00202557
-0.00793806, 0.010254, -0.551246, -7.51853e-05, 1.75085e-05, 0.000494866, 0.491973, 0.478316, 0.281374, 0.000948432, 0.00100865, 0.00202027
-0.00535044, 0.00957947, -0.551548, -7.47117e-05, 1.72922e-05, 0.000494126, 0.492384, 0.477986, 0.281337, 0.000948187, 0.00100854, 0.00201443
-0.00409008, 0.00886034, -0.551969, -7.44138e-05, 1.71946e-05, 0.000493046, 0.492889, 0.477889, 0.281377, 0.000947971, 0.00100842, 0.00200862
-0.00357969, 0.00798354, -0.553998, -7.4178e-05, 1.73983e-05, 0.000491531, 0.493481, 0.47803, 0.2815, 0.000947789, 0.00100829, 0.00200305
-0.00377914, 0.00719708, -0.555259, -7.40688e-05, 1.75866e-05, 0.000490145, 0.494193, 0.478419, 0.281686, 0.000947646, 0.00100815, 0.00199782
-0.00436927, 0.00644978, -0.556727, -7.40312e-05, 1.79043e-05, 0.000488846, 0.495018, 0.479053, 0.281963, 0.000947538, 0.00100798, 0.001993
-0.00508628, 0.00554956, -0.559433, -7.4012e-05, 1.85538e-05, 0.000487319, 0.495913, 0.479899, 0.282355, 0.00094746, 0.00100776, 0.00198867
-0.00574861, 0.00508421, -0.561403, -7.40563e-05, 1.91169e-05, 0.000486648, 0.496797, 0.480873, 0.282841, 0.000947405, 0.0010075, 0.00198495
-0.00636197, 0.00448715, -0.562925, -7.41072e-05, 1.95976e-05, 0.000485884, 0.497609, 0.481893, 0.283365, 0.000947364, 0.00100724, 0.00198181
0.00830321, 0.00782418, -0.562244, -7.35054e-05, 1.72983e-05, 0.000487097, 0.498296, 0.482898, 0.283917, 0.000947329, 0.00100698, 0.00197919
0.0344721, 0.0110073, -0.558988, -7.24819e-05, 1.35423e-05, 0.0004839, 0.498837, 0.483852, 0.284459, 0.000947296, 0.00100671, 0.00197689
0.0440022, 0.0149104, -0.555242, -7.23261e-05, 1.16722e-05, 0.000485064, 0.499248, 0.484705, 0.284895, 0.000947271, 0.00100649, 0.00197506
0.0146661, 0.00715745, -0.563345, -7.26336e-05, 1.552e-05, 0.000489082, 0.499554, 0.485403, 0.285216, 0.000947252, 0.00100632, 0.00197407
-0.0060367, 0.00143683, -0.567878, -7.24845e-05, 1.76644e-05, 0.000494305, 0.499839, 0.485964, 0.285461, 0.000947208, 0.00100621, 0.00197385
-0.00449121, 0.00326832, -0.565078, -7.20451e-05, 1.71621e-05, 0.000493492, 0.500212, 0.486457, 0.285576, 0.000947091, 0.00100612, 0.00197359
-0.0192485, -0.00201691, -0.568544, -7.17973e-05, 1.92145e-05, 0.000499359, 0.500782, 0.486999, 0.285556, 0.000946879, 0.00100603, 0.00197295
-0.0277468, -0.00505055, -0.568728, -7.14458e-05, 2.05895e-05, 0.00050301, 0.501555, 0.487587, 0.285341, 0.000946521, 0.00100591, 0.00197139
-0.0324265, -0.00627405, -0.569807, -7.12466e-05, 2.12541e-05, 0.000504559, 0.502453, 0.488188, 0.284932, 0.000945996, 0.00100573, 0.00196835
-0.0336014, -0.00591403, -0.567953, -7.07832e-05, 2.2018e-05, 0.000503588, 0.5034, 0.488826, 0.284235, 0.000945316, 0.00100529, 0.00196356
-0.0324978, -0.00514047, -0.567144, -7.06265e-05, 2.2079e-05, 0.000502375, 0.504363, 0.489548, 0.283412, 0.00094447, 0.00100466, 0.00195672
-0.0292221, -0.00347075, -0.563901, -7.03759e-05, 2.29723e-05, 0.000499582, 0.505245, 0.490404, 0.282483, 0.000943484, 0.00100364, 0.00194766
-0.0246398, -0.00156206, -0.559679, -7.02658e-05, 2.46635e-05, 0.000496367, 0.50599, 0.491479, 0.281537, 0.000942374, 0.00100202, 0.0019363
-0.0195899, 0.000839254, -0.555501, -6.99602e-05, 2.66263e-05, 0.000491643, 0.506642, 0.492866, 0.280752, 0.000941169, 0.000999927, 0.00192312
-0.0160473, 0.00312594, -0.553522, -6.92815e-05, 2.73074e-05, 0.000486424, 0.507324, 0.494586, 0.280288, 0.000939955, 0.000997862, 0.0019094
-0.0131352, 0.00554435, -0.553012, -6.82769e-05, 2.71298e-05, 0.000480698, 0.507917, 0.496556, 0.280098, 0.000938846, 0.000995525, 0.00189697
-0.0299922, 0.00162719, -0.554377, -6.85841e-05, 2.95475e-05, 0.000484531, 0.508446, 0.498623, 0.280185, 0.000937909, 0.000993284, 0.00188658
-0.0185044, 0.00604314, -0.551315, -6.79299e-05, 2.99496e-05, 0.000478886, 0.508851, 0.50056, 0.280426, 0.000937194, 0.000991233, 0.00187854
-0.0447598, 0.00552456, -0.555015, -6.59489e-05, 3.17992e-05, 0.000471641, 0.509291, 0.502212, 0.280776, 0.000936737, 0.000989823, 0.00187419
-0.0229019, 0.00999629, -0.55168, -6.65291e-05, 3.04351e-05, 0.000472333, 0.509802, 0.503463, 0.280998, 0.000936441, 0.000989066, 0.00187215
-0.00765362, 0.0129577, -0.548813, -6.71774e-05, 2.96101e-05, 0.000473365, 0.510329, 0.504234, 0.281131, 0.000936294, 0.000988769, 0.00187191
0.00252364, 0.0149369, -0.548411, -6.74519e-05, 2.8746e-05, 0.000474028, 0.510782, 0.504542, 0.281106, 0.000936233, 0.000988716, 0.0018717
0.00855734, 0.0156141, -0.549505, -6.75228e-05, 2.84682e-05, 0.000473919, 0.511095, 0.504471, 0.280921, 0.000936194, 0.000988568, 0.00187024
0.0115746, 0.0155441, -0.549326, -6.75816e-05, 2.8239e-05, 0.000473382, 0.511225, 0.504083, 0.280623, 0.000936139, 0.000988116, 0.00186704
0.0123005, 0.0150013, -0.549204, -6.75208e-05, 2.82137e-05, 0.000472418, 0.511212, 0.503485, 0.280271, 0.000936041, 0.000987382, 0.00186184
0.0113489, 0.0143514, -0.54985, -6.73705e-05, 2.86629e-05, 0.000471563, 0.511114, 0.502852, 0.279933, 0.000935891, 0.000986395, 0.00185474
0.00962122, 0.0135209, -0.550626, -6.71568e-05, 2.92879e-05, 0.000470509, 0.510925, 0.502328, 0.279706, 0.000935705, 0.000985131, 0.00184629
0.00753154, 0.0127602, -0.55367, -6.69008e-05, 3.13586e-05, 0.000469562, 0.510644, 0.502, 0.279669, 0.000935498, 0.000983596, 0.00183707
0.00578454, 0.0119592, -0.556146, -6.66683e-05, 3.32507e-05, 0.000468372, 0.510266, 0.501952, 0.279886, 0.000935297, 0.00098175, 0.00182779
0.00420741, 0.0111138, -0.55938, -6.64545e-05, 3.58547e-05, 0.000467028, 0.509848, 0.502238, 0.280408, 0.000935126, 0.000979655, 0.00181901
0.00216319, 0.0100723, -0.560009, -6.62771e-05, 3.66086e-05, 0.000465437, 0.509487, 0.502841, 0.281208, 0.000934996, 0.000977515, 0.00181122
0.000496381, 0.00898426, -0.560838, -6.61545e-05, 3.74714e-05, 0.000463709, 0.509179, 0.503655, 0.282238, 0.000934893, 0.000975465, 0.00180457
-0.00076243, 0.00809509, -0.562019, -6.61064e-05, 3.84876e-05, 0.00046229, 0.508909, 0.504578, 0.283443, 0.0009348, 0.000973591, 0.00179897
-0.00212051, 0.00731856, -0.562545, -6.61138e-05, 3.89564e-05, 0.000461129, 0.508753, 0.505557, 0.284709, 0.000934713, 0.000972039, 0.00179435
-0.00307917, 0.0068709, -0.562121, -6.61422e-05, 3.87761e-05, 0.000460668, 0.508721, 0.506586, 0.285996, 0.000934643, 0.00097073, 0.00179095
-0.00335263, 0.00638889, -0.562709, -6.61735e-05, 3.91147e-05, 0.000460109, 0.50883, 0.507633, 0.287255, 0.000934584, 0.000969605, 0.0017888
-0.00313428, 0.00567399, -0.563234, -6.61727e-05, 3.9286e-05, 0.000459576, 0.509119, 0.508624, 0.288378, 0.000934513, 0.000968711, 0.00178774
-0.00290416, 0.00492778, -0.564264, -6.62723e-05, 3.95457e-05, 0.000459302, 0.509611, 0.509491, 0.289239, 0.000934399, 0.00096809, 0.00178745
-0.00271879, 0.00403402, -0.563718, -6.62852e-05, 3.92169e-05, 0.000459342, 0.510314, 0.510218, 0.289754, 0.0009342, 0.000967685, 0.00178744
-0.00245198, 0.00379749, -0.563457, -6.62387e-05, 3.9091e-05, 0.000459441, 0.511159, 0.510809, 0.289916, 0.000933895, 0.00096735, 0.00178722
-0.00204223, 0.00369011, -0.56441, -6.63104e-05, 3.89952e-05, 0.000459536, 0.512076, 0.511262, 0.289729, 0.000933454, 0.000966968, 0.00178639
-0.00187488, 0.00413774, -0.565808, -6.6359e-05, 3.89314e-05, 0.000459219, 0.513018, 0.511611, 0.289172, 0.000932881, 0.000966395, 0.00178461
-0.00117401, 0.00422127, -0.56422, -6.59566e-05, 3.93036e-05, 0.000459004, 0.51392, 0.511881, 0.288253, 0.000932191, 0.000965502, 0.00178143
-0.000210919, 0.00435893, -0.561538, -6.53858e-05, 4.01872e-05, 0.000458539, 0.514768, 0.512131, 0.28715, 0.000931385, 0.000964329, 0.00177644
0.00142752, 0.00447312, -0.557663, -6.4653e-05, 4.19267e-05, 0.000457907, 0.515501, 0.512456, 0.285839, 0.000930488, 0.000962702, 0.00176924
0.00308296, 0.00493612, -0.555045, -6.39339e-05, 4.34411e-05, 0.000456536, 0.516106, 0.512958, 0.284499, 0.000929512, 0.000960626, 0.00175985
0.00382307, 0.0055973, -0.554048, -6.34741e-05, 4.42612e-05, 0.000454847, 0.516601, 0.513747, 0.283281, 0.000928468, 0.000958131, 0.00174875
0.00453956, 0.00654227, -0.553268, -6.28946e-05, 4.5077e-05, 0.000452345, 0.516999, 0.514881, 0.282293, 0.000927394, 0.000955291, 0.0017367
0.00479685, 0.0076661, -0.551873, -6.248e-05, 4.66034e-05, 0.000449399, 0.517259, 0.516325, 0.281607, 0.000926381, 0.000952182, 0.00172462
0.00444679, 0.00833745, -0.551494, -6.23193e-05, 4.71572e-05, 0.000447783, 0.517453, 0.518022, 0.281274, 0.000925499, 0.000949124, 0.00171343
0.00549915, 0.00928413, -0.547371, -6.23672e-05, 5.07859e-05, 0.000445677, 0.517563, 0.519859, 0.281238, 0.000924789, 0.000946152, 0.00170395
0.00547515, 0.0100072, -0.545016, -6.24342e-05, 5.28056e-05, 0.00044432, 0.517678, 0.521699, 0.281442, 0.000924271, 0.000943634, 0.00169682
0.00328289, 0.0104395, -0.54568, -6.22505e-05, 5.26137e-05, 0.00044356, 0.517884, 0.523394, 0.281769, 0.000923916, 0.000941763, 0.00169245
0.00126313, 0.0108814, -0.545117, -6.20769e-05, 5.31845e-05, 0.000442987, 0.518167, 0.524775, 0.28202, 0.000923664, 0.000940327, 0.0016906
-0.000531793, 0.0109296, -0.544705, -6.18439e-05, 5.35818e-05, 0.00044289, 0.518612, 0.525739, 0.28206, 0.000923452, 0.000939451, 0.00169035
-0.00237856, 0.0106858, -0.54656, -6.13022e-05, 5.33986e-05, 0.000443049, 0.519192, 0.526236, 0.281809, 0.0009232, 0.000938999, 0.00169012
-0.00388727, 0.0107102, -0.548556, -6.06848e-05, 5.34941e-05, 0.000443499, 0.519741, 0.52628, 0.281299, 0.000922844, 0.000938567, 0.00168827
-0.00436412, 0.0103905, -0.550662, -6.02802e-05, 5.39649e-05, 0.000443424, 0.520098, 0.52595, 0.280649, 0.000922339, 0.00093783, 0.00168409
-0.00458972, 0.00973617, -0.552124, -5.99385e-05, 5.46408e-05, 0.000442695, 0.520306, 0.525471, 0.280005, 0.00092168, 0.000936716, 0.00167761
-0.00438798, 0.00897277, -0.55398, -5.96865e-05, 5.56909e-05, 0.000441412, 0.520485, 0.525131, 0.279498, 0.000920957, 0.000935245, 0.00166914
-0.00357936, 0.00836618, -0.556274, -5.98026e-05, 5.70072e-05, 0.000440206, 0.520733, 0.525126, 0.279243, 0.000920268, 0.000933557, 0.00165967
-0.00202752, 0.00782255, -0.557793, -6.03149e-05, 5.80063e-05, 0.000437926, 0.521059, 0.525497, 0.27933, 0.000919637, 0.00093174, 0.00165052
-0.00067139, 0.00756527, -0.559096, -6.08271e-05, 5.87904e-05, 0.000436463, 0.521502, 0.526178, 0.27976, 0.00091909, 0.00092998, 0.00164243
0.000253315, 0.00658066, -0.559539, -6.10451e-05, 5.92678e-05, 0.000434386, 0.521994, 0.527047, 0.280496, 0.000918598, 0.000928295, 0.00163585
0.000991327, 0.00649078, -0.559361, -6.11103e-05, 5.90441e-05, 0.000433923, 0.522385, 0.527929, 0.281493, 0.000918132, 0.000926575, 0.0016309
0.0186622, 0.0366582, -0.559871, -6.44381e-05, 5.55802e-05, 0.000464408, 0.522457, 0.528547, 0.282667, 0.000917672, 0.000924804, 0.00162749
0.0116223, 0.0235411, -0.561747, -6.34357e-05, 5.63154e-05, 0.000453062, 0.52201, 0.528524, 0.283779, 0.000917107, 0.000923202, 0.0016252
0.0119525, 0.0292452, -0.540261, -5.83752e-05, 4.6092e-05, 0.000462527, 0.520914, 0.527701, 0.284743, 0.000916475, 0.000921787, 0.00162416
-0.00193613, 0.00337695, -0.501871, -4.38515e-05, 2.23814e-05, 0.000460265, 0.51911, 0.525986, 0.285413, 0.000915655, 0.000920476, 0.00162339
-0.015817, -0.019033, -0.455606, -2.99787e-05, 1.41092e-07, 0.000459899, 0.516729, 0.523479, 0.285812, 0.000914684, 0.00091915, 0.0016224
-0.0456603, -0.0317827, -0.411624, -2.63286e-05, -2.02429e-05, 0.000449036, 0.514079, 0.520451, 0.286031, 0.00091363, 0.000917727, 0.00162098
-0.0378764, -0.0300348, -0.458802, -3.05397e-05, -1.09435e-05, 0.00044873, 0.511479, 0.517346, 0.28623, 0.000912576, 0.000916174, 0.00161899
-0.0273802, -0.0144612, -0.544202, -3.95403e-05, 4.545e-06, 0.00043883, 0.509804, 0.514845, 0.286311, 0.000911505, 0.000914789, 0.00161655
-0.0210572, -0.00426892, -0.596941, -4.33781e-05, 9.8327e-06, 0.000434089, 0.509148, 0.513137, 0.286283, 0.000910333, 0.000913497, 0.00161401
-0.0199721, 0.002902, -0.633072, -4.53145e-05, 9.28341e-06, 0.000430016, 0.509252, 0.512142, 0.286083, 0.00090906, 0.000912147, 0.00161149
-0.0200346, 0.00641203, -0.650453, -4.48932e-05, 7.02862e-06, 0.000428093, 0.510008, 0.51191, 0.285683, 0.000907676, 0.000910552, 0.00160916
-0.0191374, 0.0076649, -0.654145, -4.38872e-05, 6.43089e-06, 0.000427511, 0.511217, 0.512405, 0.285138, 0.000906238, 0.000908761, 0.0016073
-0.0182865, 0.00937712, -0.653528, -4.31086e-05, 7.46281e-06, 0.000426105, 0.512788, 0.513588, 0.284415, 0.000904872, 0.000906747, 0.00160572
-0.0156263, 0.0101768, -0.64464, -4.32207e-05, 1.23221e-05, 0.000425116, 0.51461, 0.515419, 0.283601, 0.000903576, 0.000904484, 0.00160446
-0.0116721, 0.00987316, -0.631612, -4.46625e-05, 1.97031e-05, 0.000425005, 0.516505, 0.517719, 0.282763, 0.000902341, 0.000902, 0.00160356
-0.00727755, 0.0107028, -0.619262, -4.59713e-05, 2.80226e-05, 0.000424146, 0.51823, 0.52026, 0.281915, 0.000901232, 0.00089915, 0.00160295
-0.0024889, 0.0115344, -0.605896, -4.78921e-05, 3.73419e-05, 0.000423612, 0.519751, 0.522916, 0.281139, 0.000900194, 0.000896235, 0.00160251
0.0040603, 0.0131004, -0.590411, -5.0581e-05, 4.78859e-05, 0.000422758, 0.521023, 0.525562, 0.280484, 0.00089913, 0.000893235, 0.00160216
0.00832541, 0.0128221, -0.580045, -5.349e-05, 5.56021e-05, 0.000422459, 0.52192, 0.527985, 0.279973, 0.000898023, 0.000890166, 0.00160188
0.0157453, 0.0136694, -0.563785, -5.81859e-05, 6.62817e-05, 0.000422108, 0.522591, 0.530115, 0.279641, 0.000896791, 0.000887351, 0.00160152
0.0161693, 0.013629, -0.559658, -5.87498e-05, 6.93865e-05, 0.000422462, 0.522969, 0.53192, 0.279461, 0.000895422, 0.000884495, 0.00160127
0.0183036, 0.0142244, -0.551975, -6.01736e-05, 7.41992e-05, 0.000422621, 0.523046, 0.533272, 0.279403, 0.000893923, 0.000881719, 0.00160102
0.0182066, 0.0140531, -0.552955, -6.01003e-05, 7.36472e-05, 0.000422493, 0.523048, 0.534252, 0.27943, 0.000892221, 0.000879147, 0.00160081
0.0183742, 0.014304, -0.552696, -6.02103e-05, 7.36428e-05, 0.000422435, 0.522995, 0.534878, 0.279504, 0.000890365, 0.000876733, 0.00160062
0.0251388, 0.0174305, -0.541221, -6.55518e-05, 7.71387e-05, 0.000421434, 0.522907, 0.535173, 0.27959, 0.000888432, 0.000874545, 0.00160045
0.0211286, 0.0166087, -0.538709, -6.32072e-05, 7.81855e-05, 0.000422567, 0.522747, 0.535171, 0.279667, 0.000886526, 0.00087257, 0.0016003
0.0183428, 0.0157915, -0.535987, -6.177e-05, 7.90046e-05, 0.000423211, 0.522582, 0.534981, 0.279708, 0.000884726, 0.000870865, 0.00160021
0.0161353, 0.0154664, -0.534852, -6.06332e-05, 7.90952e-05, 0.000423585, 0.522419, 0.534686, 0.279719, 0.000883107, 0.000869402, 0.00160014
0.0141466, 0.0146674, -0.535864, -5.93709e-05, 7.91858e-05, 0.000423804, 0.522261, 0.534352, 0.27969, 0.000881703, 0.000868158, 0.0016001
0.0131178, 0.014101, -0.537463, -5.86062e-05, 7.93278e-05, 0.000423874, 0.522126, 0.534034, 0.279626, 0.000880539, 0.000867104, 0.00160008
0.0121894, 0.0139118, -0.539268, -5.79626e-05, 7.94137e-05, 0.000423922, 0.522013, 0.533766, 0.279528, 0.000879612, 0.000866219, 0.00160007
0.0116168, 0.0139637, -0.541073, -5.75417e-05, 7.95247e-05, 0.00042393, 0.521948, 0.533575, 0.279417, 0.000878908, 0.000865491, 0.00160007
0.0116239, 0.0138523, -0.54288, -5.73566e-05, 7.97981e-05, 0.000423927, 0.52193, 0.533471, 0.2793, 0.000878397, 0.000864896, 0.00160007
0.0120365, 0.0136391, -0.545215, -5.72698e-05, 8.0228e-05, 0.000423929, 0.521967, 0.533449, 0.279179, 0.000878046, 0.000864425, 0.00160006
0.012412, 0.0134923, -0.547132, -5.72262e-05, 8.05847e-05, 0.000423938, 0.52206, 0.533508, 0.279061, 0.000877818, 0.000864055, 0.00160006
0.0128474, 0.0133299, -0.548735, -5.72265e-05, 8.08811e-05, 0.000423955, 0.522219, 0.533647, 0.278959, 0.000877681, 0.000863774, 0.00160005
0.0133807, 0.0132097, -0.550974, -5.72308e-05, 8.12587e-05, 0.000423978, 0.522434, 0.533852, 0.278864, 0.000877603, 0.000863562, 0.00160005
0.0138759, 0.0130005, -0.552348, -5.72593e-05, 8.14754e-05, 0.000424009, 0.522709, 0.534121, 0.278783, 0.000877563, 0.000863406, 0.00160004
0.0142241, 0.0127491, -0.55389, -5.72817e-05, 8.16952e-05, 0.000424034, 0.523041, 0.53445, 0.278722, 0.000877541, 0.000863291, 0.00160003
0.0144846, 0.0125336, -0.555395, -5.73055e-05, 8.18763e-05, 0.000424057, 0.523423, 0.53483, 0.278671, 0.000877526, 0.000863206, 0.00160001
0.0146825, 0.012451, -0.556697, -5.73236e-05, 8.20039e-05, 0.00042407, 0.523852, 0.535258, 0.278627, 0.000877509, 0.000863141, 0.0016
0.0146716, 0.0123581, -0.5581, -5.735e-05, 8.21249e-05, 0.000424077, 0.524325, 0.535732, 0.278595, 0.000877486, 0.000863087, 0.00159999
0.0147974, 0.0122507, -0.559081, -5.73714e-05, 8.21814e-05, 0.00042409, 0.524836, 0.536246, 0.278569, 0.000877456, 0.000863041, 0.00159998
0.0151197, 0.0126777, -0.559803, -5.73329e-05, 8.22066e-05, 0.000424075, 0.525379, 0.536796, 0.278551, 0.000877419, 0.000862997, 0.00159997
0.0151457, 0.0127163, -0.560453, -5.73411e-05, 8.22265e-05, 0.00042408, 0.525949, 0.537374, 0.278534, 0.000877376, 0.000862955, 0.00159996
0.0150845, 0.0126006, -0.561535, -5.73718e-05, 8.22543e-05, 0.000424085, 0.526545, 0.537982, 0.278526, 0.00087733, 0.000862912, 0.00159995
0.0151367, 0.0129308, -0.561884, -5.73385e-05, 8.22661e-05, 0.000424067, 0.527163, 0.538615, 0.278523, 0.00087728, 0.000862867, 0.00159994
0.0150415, 0.0130251, -0.562541, -5.73425e-05, 8.2281e-05, 0.000424062, 0.527799, 0.539268, 0.278524, 0.000877229, 0.000862822, 0.00159993
0.0150139, 0.0125035, -0.562827, -5.74048e-05, 8.22632e-05, 0.000424091, 0.528446, 0.539933, 0.278525, 0.000877177, 0.000862777, 0.00159992
0.0149386, 0.0125619, -0.562771, -5.73953e-05, 8.22731e-05, 0.000424088, 0.529097, 0.540604, 0.278522, 0.000877127, 0.000862732, 0.00159991
0.0149222, 0.0124721, -0.562552, -5.74048e-05, 8.22755e-05, 0.000424093, 0.529751, 0.541279, 0.278518, 0.000877077, 0.000862687, 0.0015999
0.014887, 0.0123185, -0.562259, -5.74211e-05, 8.22793e-05, 0.000424102, 0.53041, 0.541958, 0.278521, 0.00087703, 0.000862644, 0.00159989
0.0148864, 0.0121219, -0.561834, -5.74403e-05, 8.22833e-05, 0.000424112, 0.531072, 0.542639, 0.278529, 0.000876983, 0.000862601, 0.00159988
0.0148669, 0.0119458, -0.56146, -5.7459e-05, 8.22885e-05, 0.000424121, 0.531736, 0.543321, 0.278535, 0.000876938, 0.000862559, 0.00159988
0.0150984, 0.0119099, -0.56072, -5.74583e-05, 8.22759e-05, 0.000424119, 0.532403, 0.544006, 0.278544, 0.000876894, 0.000862518, 0.00159987
0.0149832, 0.0118975, -0.560818, -5.74627e-05, 8.2288e-05, 0.00042412, 0.533074, 0.544692, 0.278554, 0.000876851, 0.000862478, 0.00159986
0.0150166, 0.0118582, -0.560787, -5.74664e-05, 8.22844e-05, 0.000424121, 0.533748, 0.54538, 0.278555, 0.000876807, 0.000862438, 0.00159985
0.0150878, 0.0118919, -0.560817, -5.74623e-05, 8.22767e-05, 0.000424118, 0.534429, 0.546074, 0.278557, 0.000876764, 0.000862397, 0.00159985
0.0151637, 0.0119424, -0.560871, -5.7457e-05, 8.2269e-05, 0.000424116, 0.535116, 0.546772, 0.278562, 0.000876721, 0.000862356, 0.00159984
0.0151815, 0.0120036, -0.56089, -5.74507e-05, 8.22669e-05, 0.000424114, 0.535806, 0.547472, 0.278566, 0.000876677, 0.000862316, 0.00159983
0.0152141, 0.0120322, -0.560832, -5.74478e-05, 8.22642e-05, 0.000424112, 0.536495, 0.54817, 0.278567, 0.000876634, 0.000862275, 0.00159982
0.014836, 0.0120447, -0.560087, -5.74467e-05, 8.2304e-05, 0.000424111, 0.537181, 0.548863, 0.278563, 0.000876592, 0.000862235, 0.00159982
0.0151927, 0.012197, -0.560186, -5.74331e-05, 8.22672e-05, 0.000424104, 0.537862, 0.549553, 0.278559, 0.000876549, 0.000862196, 0.00159981
0.0151715, 0.0123111, -0.559548, -5.74204e-05, 8.22684e-05, 0.000424095, 0.538545, 0.550242, 0.278556, 0.000876507, 0.000862156, 0.0015998
0.0151951, 0.0123689, -0.559047, -5.7416e-05, 8.2265e-05, 0.000424093, 0.539227, 0.550932, 0.278557, 0.000876466, 0.000862117, 0.0015998
0.0152059, 0.0121704, -0.559655, -5.74378e-05, 8.22665e-05, 0.000424104, 0.539911, 0.551623, 0.278563, 0.000876424, 0.000862078, 0.00159979
0.0154691, 0.0124108, -0.559192, -5.74109e-05, 8.22371e-05, 0.00042409, 0.540597, 0.552315, 0.278564, 0.000876382, 0.000862038, 0.00159978
