0.00370678, -0.000616392, -0.55848, 6.38645e-05, -0.000248018, 0.000146017, 0.0316228, 0.0316228, 0.0316228, 0.0316228, 0.0316228, 0.0316228
0.00370678, -0.000616392, -0.55848, 6.38645e-05, -0.000248018, 0.000146017, 0.173642, 0.173642, 0.173642, 0.0316228, 0.0316228, 0.0316228
0.00260174, -0.000620909, -0.558094, 5.38273e-05, -5.42896e-05, 0.000160012, 0.194306, 0.194298, 0.19426, 0.0315696, 0.0315703, 0.0316069
0.00196211, -0.000887643, -0.557578, 1.18518e-05, 1.16488e-05, 0.000159985, 0.212614, 0.212562, 0.212292, 0.0314734, 0.0314784, 0.0315911
0.00227759, -0.000921816, -0.556287, 1.60124e-05, -9.66306e-05, 0.000161955, 0.228987, 0.228925, 0.227761, 0.0313183, 0.0313247, 0.0315753
0.00130032, -0.00104935, -0.556069, -1.10249e-05, 4.07906e-05, 0.000175578, 0.243851, 0.243801, 0.240591, 0.0311032, 0.0311085, 0.0315595
0.00182043, -0.00180798, -0.558307, -0.00014265, 8.98265e-06, 0.000160944, 0.25755, 0.257504, 0.250843, 0.0308327, 0.0308379, 0.0315438
0.00171651, -0.00197468, -0.55939, -0.000165981, -5.55916e-05, 0.000167904, 0.270265, 0.270255, 0.258078, 0.0305077, 0.0305105, 0.031528
-0.000264743, -0.00261431, -0.566582, -0.000290309, 0.000196488, 0.000173165, 0.282309, 0.282173, 0.263753, 0.0301295, 0.0301582, 0.0315121
-0.00300516, -0.00283757, -0.579918, -0.000339477, 0.000522293, 0.00016732, 0.29348, 0.293292, 0.267868, 0.0297076, 0.0297485, 0.0314958
-0.00447845, -0.0023949, -0.581286, -0.000275908, 0.000719453, 0.000155011, 0.303768, 0.303609, 0.270649, 0.0292273, 0.0292651, 0.0314796
-0.00462501, -0.00207101, -0.580917, -0.000269028, 0.000748229, 0.000152224, 0.31313, 0.312973, 0.272813, 0.0286547, 0.0286944, 0.0314636
-0.00237394, -0.00150078, -0.581495, -0.00018841, 0.000458211, 0.000169029, 0.321641, 0.321298, 0.275076, 0.027968, 0.0280458, 0.0314476
0.00117643, -0.000381924, -0.581516, 1.08421e-05, 2.87888e-06, 0.000174529, 0.330066, 0.328894, 0.278896, 0.0271976, 0.0274333, 0.0314316
0.00376038, 0.000513409, -0.584044, 0.000143546, -0.000308636, 0.000184297, 0.338406, 0.33621, 0.283451, 0.0263978, 0.0268336, 0.0314157
0.00673782, 0.001083, -0.587181, 0.000260626, -0.000627464, 0.000184996, 0.346187, 0.343371, 0.287011, 0.0256187, 0.0261832, 0.0313998
0.00952435, 0.00208502, -0.58243, 0.000385286, -0.000989836, 0.000199427, 0.353361, 0.350406, 0.289041, 0.0249017, 0.0255089, 0.0313837
0.0117521, 0.00243503, -0.58067, 0.000438805, -0.00123822, 0.000204919, 0.359946, 0.357367, 0.289064, 0.0242728, 0.0248305, 0.031367
0.0131546, 0.00346225, -0.570699, 0.000536121, -0.00154787, 0.000220705, 0.365784, 0.364209, 0.286021, 0.0237087, 0.0240929, 0.031349
0.0126809, 0.00443007, -0.561934, 0.000627863, -0.00163178, 0.000222759, 0.371471, 0.370806, 0.281386, 0.0231565, 0.0233462, 0.0313304
0.0124927, 0.00514274, -0.554474, 0.000707431, -0.00171422, 0.000219692, 0.378004, 0.377365, 0.278896, 0.022588, 0.0227038, 0.0313119
0.0109737, 0.0051458, -0.55209, 0.000712448, -0.00158303, 0.000228683, 0.385352, 0.384222, 0.279698, 0.0220303, 0.022174, 0.0312939
0.0098856, 0.00473917, -0.552524, 0.000682576, -0.00145886, 0.000230944, 0.393005, 0.391581, 0.282514, 0.0214875, 0.021636, 0.0312751
0.00839419, 0.0034853, -0.557146, 0.000506927, -0.0012127, 0.000205833, 0.400587, 0.3995, 0.287472, 0.0210056, 0.021026, 0.0312558
0.00610385, 0.00220704, -0.562936, 0.00030268, -0.000835234, 0.00016226, 0.407991, 0.407935, 0.295267, 0.0206555, 0.0203927, 0.0312365
0.0040543, 0.00103511, -0.566766, 8.77801e-05, -0.000581237, 9.90543e-05, 0.415281, 0.416613, 0.304577, 0.020425, 0.0198048, 0.0312159
0.00253567, 0.000903524, -0.57092, -0.000107289, -0.000398821, 5.52597e-05, 0.422611, 0.425241, 0.314253, 0.0202476, 0.0192876, 0.0311977
0.00166632, 0.00091569, -0.574027, -0.000382245, -0.000318018, 1.46714e-05, 0.430098, 0.433591, 0.323661, 0.020064, 0.0188394, 0.0311825
0.00181878, 0.00173462, -0.577651, -0.00070054, -0.000321764, -2.62543e-05, 0.437748, 0.441314, 0.33183, 0.0197907, 0.0184397, 0.031167
0.00219139, 0.00221749, -0.580909, -0.00107275, -0.000348797, -9.25117e-05, 0.445399, 0.447824, 0.337296, 0.0193465, 0.0180462, 0.0311418
0.00217408, 0.00358507, -0.584025, -0.0013086, -0.000311615, -0.000111843, 0.453047, 0.4524, 0.339416, 0.0186846, 0.0176606, 0.0310969
0.00205268, 0.00436677, -0.586456, -0.00157441, -0.000273987, -0.000132431, 0.460744, 0.454601, 0.339138, 0.0178295, 0.0172946, 0.0310259
0.0026601, 0.00302107, -0.586384, -0.0017614, -0.000328297, -0.000211834, 0.46848, 0.454277, 0.337914, 0.0168442, 0.0169542, 0.030924
0.00228046, 2.41616e-05, -0.583094, -0.00158604, -0.000312449, -0.000190554, 0.476154, 0.4515, 0.336486, 0.0158805, 0.0166367, 0.0307871
0.00187859, -0.00349518, -0.580227, -0.00148714, -0.000284552, -0.000164959, 0.483716, 0.44691, 0.33647, 0.0150452, 0.0163542, 0.030609
0.00153956, -0.00726094, -0.576288, -0.00124996, -0.000270196, -0.000144829, 0.491188, 0.441478, 0.338683, 0.0143605, 0.0161075, 0.0303863
0.00160747, -0.011576, -0.572285, -0.00103321, -0.0002709, -0.000166717, 0.498522, 0.436028, 0.342961, 0.0138364, 0.015899, 0.0301176
0.000933214, -0.0147575, -0.567864, -0.000764701, -0.000227582, -9.00968e-05, 0.505686, 0.431388, 0.34889, 0.0134613, 0.015726, 0.0298071
0.00018578, -0.0156081, -0.563685, -0.000490871, -0.00018503, -2.48117e-06, 0.512667, 0.427792, 0.356141, 0.0131876, 0.015587, 0.0294562
0.00031753, -0.0161835, -0.561013, -0.00033068, -0.000173116, -1.23679e-05, 0.519471, 0.424949, 0.364197, 0.012972, 0.0154782, 0.0290645
-0.000591736, -0.014967, -0.556136, -6.57796e-05, -0.000150681, 8.74532e-05, 0.526128, 0.42252, 0.372551, 0.0127892, 0.0153934, 0.0286354
-0.00109271, -0.0147969, -0.552779, 9.43333e-05, -0.000128666, 0.000166735, 0.53261, 0.420114, 0.380878, 0.0126255, 0.0153302, 0.0281777
-0.00157873, -0.0142321, -0.549844, 0.000224867, -0.000112181, 0.000247824, 0.538984, 0.41748, 0.389052, 0.0124669, 0.0152823, 0.0276907
-0.00160306, -0.0150542, -0.547313, 0.000339737, -0.000107475, 0.000266529, 0.545271, 0.414749, 0.396981, 0.0123127, 0.0152464, 0.0271798
-0.000937727, -0.0168354, -0.546527, 0.000384537, -0.000116484, 0.000178905, 0.551501, 0.412856, 0.404542, 0.0121803, 0.0152186, 0.0266607
-0.00126134, -0.0187046, -0.545093, 0.000435869, -0.000113832, 0.000249311, 0.557693, 0.412429, 0.411656, 0.0120759, 0.0151969, 0.0261405
-0.00131833, -0.0217782, -0.542132, 0.000503529, -0.000116007, 0.000267205, 0.563863, 0.414403, 0.418251, 0.0119992, 0.015179, 0.0256321
-0.00162813, -0.0241472, -0.539325, 0.000529007, -0.000121392, 0.000304555, 0.570025, 0.419041, 0.424128, 0.0119342, 0.0151626, 0.025149
-0.00155137, -0.0261539, -0.537029, 0.000516819, -0.000126522, 0.000278908, 0.576177, 0.425174, 0.42917, 0.0118511, 0.0151479, 0.0246826
-0.00147613, -0.0279535, -0.535667, 0.000444987, -0.000129366, 0.000278586, 0.582298, 0.432093, 0.433074, 0.0117319, 0.0151351, 0.0242315
-0.00158762, -0.0294868, -0.533244, 0.000337364, -0.000143165, 0.000241245, 0.588373, 0.439728, 0.435489, 0.011554, 0.0151233, 0.0237966
-0.00138631, -0.0295896, -0.532894, 0.000218311, -0.000147898, 0.00021706, 0.594356, 0.447808, 0.436131, 0.0113002, 0.0151122, 0.0233722
-0.00113001, -0.0290187, -0.533342, 9.83681e-05, -0.000148927, 0.000227027, 0.600204, 0.455982, 0.434715, 0.0109671, 0.0151014, 0.0229595
-0.000778632, -0.0281637, -0.534375, 7.32001e-06, -0.000151588, 0.000230847, 0.605859, 0.464032, 0.431202, 0.0105693, 0.0150903, 0.0225727
0.00246712, -0.0267459, -0.548159, 0.000115761, -0.00010241, 0.000351665, 0.611283, 0.471926, 0.42596, 0.0101422, 0.015079, 0.0222208
0.00486663, -0.0260757, -0.556964, 0.00014181, -6.92233e-05, 0.000390761, 0.616445, 0.479772, 0.419675, 0.00973679, 0.0150679, 0.0219034
0.00683623, -0.0262679, -0.562362, 0.000150743, -5.34873e-05, 0.000357913, 0.621363, 0.487585, 0.412204, 0.0093716, 0.0150564, 0.0216537
0.00744938, -0.0263228, -0.562428, 0.000122444, -6.06698e-05, 0.000318649, 0.626114, 0.495008, 0.402797, 0.00904124, 0.0150435, 0.0214786
0.00789699, -0.026078, -0.561566, 0.000106642, -7.43591e-05, 0.000290158, 0.630772, 0.501329, 0.391066, 0.00871328, 0.0150261, 0.0213686
0.00843479, -0.0255144, -0.560629, 9.88646e-05, -0.000103309, 0.000264662, 0.635405, 0.505813, 0.378102, 0.00836387, 0.0149997, 0.0213078
0.00898204, -0.0245957, -0.558631, 5.14858e-05, -0.000125977, 0.000242623, 0.640034, 0.508279, 0.366128, 0.00801938, 0.0149612, 0.0212786
0.00968618, -0.0233308, -0.556667, 2.09546e-05, -0.000161662, 0.000235203, 0.644627, 0.508266, 0.355011, 0.00769238, 0.0149066, 0.0212677
0.0103518, -0.022337, -0.554795, -1.62339e-05, -0.000194197, 0.000240576, 0.649201, 0.504881, 0.344145, 0.00738038, 0.0148294, 0.0212595
0.0103754, -0.0213179, -0.555092, 2.04384e-07, -0.000224163, 0.000255618, 0.653781, 0.497551, 0.334364, 0.00708708, 0.014722, 0.0212358
0.00962433, -0.0176325, -0.556083, 3.64422e-05, -0.000277089, 0.000283946, 0.658413, 0.48674, 0.326985, 0.00681483, 0.0145799, 0.021181
0.00931823, -0.0166607, -0.55717, 5.78992e-05, -0.000299157, 0.00029734, 0.663115, 0.473499, 0.322639, 0.00656444, 0.0144032, 0.0210842
0.00868196, -0.0149493, -0.558836, 8.45883e-05, -0.000320255, 0.00030764, 0.667807, 0.458733, 0.321106, 0.0063424, 0.0141995, 0.0209337
0.00813269, -0.0126719, -0.560153, 9.88298e-05, -0.00034698, 0.000325709, 0.672453, 0.443631, 0.321852, 0.00615148, 0.0139781, 0.0207255
0.00696923, -0.0098439, -0.563375, 0.0001338, -0.000344292, 0.00030705, 0.677058, 0.429345, 0.324228, 0.00598989, 0.0137481, 0.0204658
0.00593327, -0.00515422, -0.567047, 0.000159446, -0.000374495, 0.00033321, 0.681647, 0.416429, 0.327594, 0.00585383, 0.0135175, 0.0201687
0.00495877, -0.000676691, -0.571019, 0.000183855, -0.000385937, 0.000340483, 0.686242, 0.405056, 0.331548, 0.00574072, 0.0132943, 0.0198489
0.00397324, 0.00179874, -0.573372, 0.000197361, -0.000366804, 0.000300606, 0.690826, 0.395707, 0.335827, 0.00565157, 0.0130845, 0.019514
0.00332912, 0.00426, -0.575487, 0.00020564, -0.000355569, 0.00027714, 0.695407, 0.389145, 0.340287, 0.0055894, 0.0128909, 0.0191712
0.00289204, 0.00460734, -0.577827, 0.000221982, -0.000329195, 0.000230196, 0.699996, 0.385788, 0.344871, 0.00555272, 0.012714, 0.0188279
0.00244309, 0.00382047, -0.580055, 0.000237583, -0.000285353, 0.000155337, 0.704592, 0.385425, 0.349391, 0.00553506, 0.012554, 0.018497
0.00230023, 0.00149965, -0.580654, 0.000241111, -0.000272167, 0.000121813, 0.709139, 0.387486, 0.353569, 0.00552717, 0.0124124, 0.0181863
0.00221931, -0.00126646, -0.581915, 0.000236972, -0.00026006, 8.97777e-05, 0.713547, 0.391498, 0.357213, 0.00552042, 0.0122921, 0.0179009
0.00217526, -0.00330372, -0.581758, 0.000223407, -0.00026138, 7.94576e-05, 0.717719, 0.396735, 0.359975, 0.00550442, 0.0121934, 0.0176423
0.00190733, -0.00459411, -0.579528, 0.000207766, -0.000268872, 7.82284e-05, 0.721584, 0.402513, 0.361376, 0.00547196, 0.0121141, 0.0174117
0.000757947, -0.00504511, -0.574188, 0.000198633, -0.000277418, 7.08686e-05, 0.725115, 0.408521, 0.36091, 0.00542066, 0.0120496, 0.0172105
-0.000992162, -0.00600178, -0.568401, 0.000188923, -0.000289962, 5.34911e-05, 0.728348, 0.414855, 0.358137, 0.00535038, 0.0119938, 0.0170387
-0.00304831, -0.00782195, -0.564634, 0.000168249, -0.000295688, 1.37235e-05, 0.731337, 0.421551, 0.353289, 0.00526398, 0.0119423, 0.0168982
-0.00505671, -0.00964854, -0.561372, 0.000152971, -0.000304767, -1.84876e-05, 0.73422, 0.428504, 0.34732, 0.00516468, 0.0118914, 0.0167898
-0.00693423, -0.0117811, -0.559337, 0.000130196, -0.000316316, -4.65601e-05, 0.737187, 0.435245, 0.341165, 0.00505916, 0.0118383, 0.0167094
-0.00824594, -0.0128143, -0.559983, 0.000105359, -0.000311712, -7.94163e-05, 0.740369, 0.441259, 0.335451, 0.00494988, 0.0117814, 0.0166548
-0.00998325, -0.014234, -0.561732, 5.93363e-05, -0.000310402, -0.000113694, 0.743846, 0.445958, 0.330549, 0.00483644, 0.0117191, 0.0166222
-0.0111433, -0.0151554, -0.562479, 3.86879e-05, -0.000303143, -0.000133477, 0.747641, 0.448742, 0.326589, 0.00472582, 0.0116488, 0.0166039
-0.0120436, -0.0161633, -0.562342, 3.28765e-05, -0.000286604, -0.000146274, 0.751728, 0.449058, 0.323587, 0.00461962, 0.0115702, 0.0165955
-0.0134752, -0.0181198, -0.564182, 2.14631e-06, -0.000288895, -0.000156415, 0.756055, 0.446629, 0.321812, 0.00451411, 0.0114874, 0.0165919
-0.0130678, -0.0174483, -0.562605, 1.8892e-05, -0.000253891, -0.000151604, 0.760573, 0.441396, 0.321345, 0.00440843, 0.0114047, 0.0165877
-0.0123339, -0.0167197, -0.560398, 3.91139e-05, -0.00022755, -0.000146389, 0.765222, 0.433325, 0.321814, 0.00430803, 0.0113202, 0.016579
-0.0122534, -0.0175707, -0.559711, 4.50012e-05, -0.000211693, -0.000141541, 0.769945, 0.42253, 0.322925, 0.00421654, 0.0112338, 0.0165641
-0.0119012, -0.0145808, -0.558446, 4.16973e-05, -0.000179109, -0.000119559, 0.774729, 0.410037, 0.324712, 0.00413215, 0.0111529, 0.0165396
-0.0128839, -0.018343, -0.563809, 1.81417e-05, -0.000197172, -0.000142438, 0.779511, 0.396955, 0.327274, 0.00405251, 0.0110797, 0.016503
-0.0120567, -0.0149096, -0.558745, 3.32738e-05, -0.000169068, -0.000103914, 0.784328, 0.383948, 0.330053, 0.00398135, 0.0110132, 0.0164582
-0.0117972, -0.0132445, -0.555755, 3.94775e-05, -0.000150457, -7.53535e-05, 0.78915, 0.37197, 0.332646, 0.00392246, 0.010953, 0.016408
-0.0116599, -0.00994419, -0.551066, 4.21018e-05, -0.00012432, -2.38301e-05, 0.793935, 0.36212, 0.335273, 0.00387647, 0.0108955, 0.0163498
-0.0114917, -0.0078315, -0.54785, 4.24863e-05, -0.000108938, 1.31779e-05, 0.798691, 0.355225, 0.338081, 0.00384176, 0.0108409, 0.0162812
-0.011246, -0.00834163, -0.545501, 4.82568e-05, -0.000101835, 3.16248e-05, 0.803422, 0.351869, 0.341116, 0.00381743, 0.0107908, 0.0162028
-0.0112945, -0.00831559, -0.544022, 4.92181e-05, -9.9963e-05, 4.94433e-05, 0.808123, 0.351708, 0.344322, 0.00380113, 0.0107479, 0.0161111
-0.0112268, -0.00893924, -0.543562, 5.10822e-05, -0.000104275, 4.46984e-05, 0.812771, 0.353491, 0.347518, 0.00378926, 0.0107145, 0.0159977
-0.0111773, -0.00969573, -0.542493, 5.29025e-05, -0.000109382, 3.75019e-05, 0.817347, 0.356214, 0.350382, 0.00377907, 0.0106919, 0.0158571
-0.0111913, -0.00915306, -0.542986, 5.40158e-05, -0.000114928, 3.37952e-05, 0.821795, 0.359422, 0.35263, 0.00376783, 0.0106776, 0.0156923
-0.0111573, -0.00870056, -0.544577, 5.52496e-05, -0.000124114, 2.08692e-05, 0.826082, 0.36338, 0.354148, 0.00375184, 0.0106686, 0.0155117
-0.0112343, -0.0060086, -0.54888, 6.51869e-05, -0.000129213, 4.82819e-05, 0.830203, 0.368353, 0.354883, 0.00372732, 0.0106629, 0.0153233
-0.0112951, -0.00314105, -0.55354, 8.34459e-05, -0.000135437, 7.4592e-05, 0.834107, 0.374348, 0.354702, 0.00369451, 0.0106594, 0.0151388
-0.0109134, -0.00168811, -0.556158, 9.89009e-05, -0.000140858, 6.62455e-05, 0.837712, 0.38124, 0.353157, 0.00365368, 0.0106573, 0.0149706
-0.0103474, -0.00100669, -0.55819, 0.00011098, -0.000146335, 4.72751e-05, 0.841002, 0.388649, 0.349614, 0.0036011, 0.0106551, 0.0148293
-0.00971232, -0.000694826, -0.559332, 0.000119527, -0.000152051, 2.59065e-05, 0.844032, 0.396152, 0.344084, 0.00353141, 0.010652, 0.0147206
-0.00893676, -0.00072932, -0.55851, 0.000114458, -0.000154431, 1.03369e-05, 0.846891, 0.403285, 0.337755, 0.00345106, 0.0106466, 0.0146451
-0.00801349, -0.000558124, -0.557845, 0.000111784, -0.000158027, -6.31267e-06, 0.849594, 0.409507, 0.331658, 0.00336749, 0.0106378, 0.0145986
-0.00750464, -0.000347674, -0.557321, 0.000109288, -0.000161188, -1.12519e-05, 0.852117, 0.414032, 0.326263, 0.00328801, 0.010625, 0.0145749
-0.00636311, -0.00115256, -0.55656, 9.89992e-05, -0.000160185, -1.01821e-05, 0.854513, 0.416041, 0.321545, 0.00321826, 0.0106066, 0.0145663
-0.00598452, -0.000640156, -0.556478, 9.99289e-05, -0.000170927, -8.6314e-06, 0.856892, 0.415132, 0.317258, 0.00315848, 0.0105783, 0.0145627
-0.00665983, 0.000786915, -0.557616, 0.000108751, -0.000194665, -1.63391e-06, 0.859311, 0.411337, 0.313547, 0.00310606, 0.0105375, 0.0145517
-0.00832243, 0.0031159, -0.559354, 0.000118138, -0.000215764, 2.83006e-06, 0.861838, 0.405237, 0.310517, 0.00306047, 0.0104795, 0.0145197
-0.0105268, 0.00683245, -0.561915, 0.000126764, -0.000254381, 2.21532e-05, 0.86453, 0.397897, 0.308683, 0.00302036, 0.0104019, 0.0144576
-0.0122069, 0.00901697, -0.564608, 0.000135186, -0.000279064, 3.26712e-05, 0.867433, 0.390142, 0.308293, 0.00298445, 0.0103093, 0.0143621
-0.0132685, 0.0104248, -0.56693, 0.000141225, -0.000295155, 4.05362e-05, 0.870586, 0.382945, 0.308966, 0.00295498, 0.0102052, 0.0142331
-0.0137591, 0.0106218, -0.569525, 0.000148556, -0.000306802, 4.91254e-05, 0.874014, 0.377321, 0.310582, 0.00293319, 0.0100967, 0.0140777
-0.0136524, 0.00922513, -0.57241, 0.000158811, -0.000297355, 3.58582e-05, 0.877655, 0.373734, 0.312953, 0.00291825, 0.00999452, 0.0139097
-0.0127322, 0.00650961, -0.57378, 0.000164635, -0.000295908, 4.09835e-05, 0.881368, 0.37195, 0.315618, 0.00290801, 0.00990677, 0.0137437
-0.011547, 0.00322917, -0.575065, 0.000168114, -0.000300618, 6.0443e-05, 0.884968, 0.371326, 0.318024, 0.00290022, 0.00983701, 0.0135914
-0.0103187, 0.000758359, -0.574701, 0.000166275, -0.000306061, 8.44917e-05, 0.888291, 0.371058, 0.319619, 0.00289296, 0.0097825, 0.0134616
-0.00999807, 0.000994859, -0.570917, 0.000157802, -0.000308112, 9.78735e-05, 0.891277, 0.370155, 0.319893, 0.00288426, 0.00973603, 0.0133581
-0.00973094, 0.000784167, -0.567221, 0.00014882, -0.000303382, 0.000102018, 0.893982, 0.368548, 0.318929, 0.00287392, 0.00969092, 0.0132813
-0.0101649, 0.00100185, -0.563127, 0.000140728, -0.000293662, 9.32896e-05, 0.896502, 0.367268, 0.317407, 0.00286384, 0.00964601, 0.0132262
-0.0106366, 0.000763311, -0.56119, 0.000137617, -0.00028421, 8.26509e-05, 0.898995, 0.367174, 0.315813, 0.00285527, 0.00960103, 0.0131866
-0.0113882, 0.000859438, -0.560108, 0.000137801, -0.000263796, 6.11511e-05, 0.901608, 0.368487, 0.314321, 0.00284789, 0.00955533, 0.013158
-0.0113568, 0.000120394, -0.56067, 0.000136379, -0.000241584, 4.54446e-05, 0.904352, 0.370903, 0.313134, 0.00284079, 0.00950867, 0.013137
-0.0132015, 0.000589105, -0.557391, 0.00014025, -0.000236221, 3.36788e-05, 0.907246, 0.37399, 0.312212, 0.00283328, 0.00946099, 0.0131217
-0.0146114, 0.000673212, -0.554663, 0.000144046, -0.000233679, 2.82003e-05, 0.910306, 0.377355, 0.311433, 0.00282489, 0.00941174, 0.0131097
-0.0150453, 0.000902359, -0.554255, 0.000144603, -0.000219118, 2.20866e-05, 0.913417, 0.38081, 0.310773, 0.00281523, 0.00935899, 0.0130998
-0.0144511, 0.00145642, -0.555793, 0.000140491, -0.000192807, 1.55191e-05, 0.916416, 0.38429, 0.310107, 0.00280304, 0.00930097, 0.0130907
-0.0147906, 0.00153995, -0.55531, 0.000139314, -0.000177061, 8.8802e-06, 0.919059, 0.387926, 0.309265, 0.00278698, 0.0092353, 0.0130811
-0.0148168, 0.00162669, -0.555735, 0.000135701, -0.000163051, 2.95468e-06, 0.920971, 0.391932, 0.308274, 0.00276783, 0.00916045, 0.0130715
-0.0160569, 0.00128366, -0.553429, 0.000140146, -0.000159454, -1.4292e-06, 0.921749, 0.396233, 0.307023, 0.00274697, 0.00907394, 0.0130627
-0.0164716, 0.00120766, -0.552706, 0.000139525, -0.000152604, -6.15225e-06, 0.920488, 0.400553, 0.305639, 0.00272632, 0.00896816, 0.0130557
-0.0162113, 0.00145122, -0.552595, 0.000138121, -0.000142399, -7.90501e-06, 0.915458, 0.404655, 0.304359, 0.00270809, 0.0088276, 0.0130502
-0.0157891, 0.00188249, -0.555254, 0.000131099, -0.00013531, -1.00729e-05, 0.903932, 0.408443, 0.303075, 0.00269338, 0.00862714, 0.0130455
-0.0150076, 0.00216834, -0.555915, 0.000129995, -0.000128792, -8.7529e-06, 0.882582, 0.411375, 0.301479, 0.00268052, 0.00833623, 0.0130412
-0.0156669, 0.00196465, -0.55884, 0.000125582, -0.000139675, -1.07345e-05, 0.849211, 0.413763, 0.299634, 0.00266816, 0.00793969, 0.0130369
-0.0142826, 0.00230661, -0.557185, 0.000128962, -0.000127112, -8.82123e-06, 0.804478, 0.415829, 0.297949, 0.00265572, 0.00744594, 0.0130328
-0.0124461, 0.00256628, -0.555372, 0.000132687, -0.000113401, -6.63433e-06, 0.752578, 0.418086, 0.296596, 0.00264158, 0.00689423, 0.0130294
-0.0116482, 0.00251546, -0.556001, 0.000133403, -0.000111383, -6.90118e-06, 0.699306, 0.421006, 0.295363, 0.00262476, 0.00633949, 0.0130266
-0.00880079, 0.00264084, -0.555846, 0.000135099, -9.23669e-05, -5.81456e-06, 0.649657, 0.424115, 0.293975, 0.00260506, 0.00582855, 0.0130242
-0.00472145, 0.00343981, -0.558127, 0.000131639, -6.125e-05, -3.21507e-06, 0.606768, 0.426798, 0.292364, 0.00258282, 0.00539484, 0.013022
-0.00378727, 0.00335322, -0.560586, 0.000131214, -5.90277e-05, -3.97198e-06, 0.571017, 0.429038, 0.290922, 0.00255999, 0.00504862, 0.0130196
-0.00186468, 0.00335918, -0.561693, 0.000130509, -4.63493e-05, -2.66133e-06, 0.541195, 0.430553, 0.289839, 0.00253855, 0.00478132, 0.0130162
0.00014477, 0.00314611, -0.560628, 0.000131287, -3.28239e-05, -8.76899e-08, 0.515662, 0.431305, 0.289059, 0.00251956, 0.00457678, 0.0130105
0.00100185, 0.00281752, -0.559512, 0.000132586, -2.84791e-05, 2.08835e-06, 0.493146, 0.431561, 0.28855, 0.0025036, 0.00441715, 0.0130014
0.00168099, 0.00255911, -0.55824, 0.000133565, -2.50896e-05, 4.35972e-06, 0.473121, 0.431633, 0.28817, 0.00249055, 0.00429058, 0.0129888
0.0023542, 0.00275324, -0.55716, 0.000133044, -1.96925e-05, 3.9969e-06, 0.455518, 0.431847, 0.287797, 0.00248022, 0.00419023, 0.0129735
0.00228618, 0.00276311, -0.557592, 0.000133204, -1.9861e-05, 1.44867e-06, 0.440473, 0.432473, 0.287396, 0.00247233, 0.00411303, 0.0129577
0.00324892, 0.0027609, -0.560188, 0.000133333, -1.37607e-05, -1.99315e-06, 0.428194, 0.433722, 0.287004, 0.00246662, 0.0040575, 0.0129429
0.00315332, 0.00250763, -0.561323, 0.000134506, -1.41547e-05, -5.90927e-06, 0.418839, 0.435714, 0.286796, 0.00246312, 0.0040213, 0.0129293
0.002942, 0.00270173, -0.559874, 0.000133947, -1.52056e-05, -5.97765e-06, 0.412547, 0.438489, 0.286797, 0.00246141, 0.00400204, 0.012917
0.00271214, 0.00305715, -0.560037, 0.000134305, -1.52059e-05, -9.31283e-06, 0.409408, 0.441883, 0.286868, 0.00246055, 0.00399596, 0.0129074
0.00272131, 0.00295077, -0.559648, 0.000134447, -1.50706e-05, -9.90094e-06, 0.409144, 0.445456, 0.287027, 0.00245978, 0.00399567, 0.0128992
0.00297397, 0.0024228, -0.560952, 0.000135129, -1.4575e-05, -1.13556e-05, 0.411304, 0.448635, 0.287272, 0.00245848, 0.00399241, 0.0128905
0.00328822, 0.00219295, -0.559905, 0.000134546, -1.65952e-05, -9.79735e-06, 0.415408, 0.450831, 0.287558, 0.00245573, 0.00397677, 0.0128808
0.00361935, 0.00149278, -0.559527, 0.000133877, -1.70781e-05, -1.12532e-05, 0.420944, 0.451473, 0.287831, 0.00245056, 0.00394036, 0.0128701
0.00357019, 0.000694504, -0.558089, 0.000132396, -1.57999e-05, -1.38435e-05, 0.427243, 0.450178, 0.288099, 0.00244223, 0.00387647, 0.012859
0.0039989, -0.000242292, -0.557412, 0.00012933, -1.58314e-05, -1.81785e-05, 0.433697, 0.446847, 0.288273, 0.00243087, 0.00378309, 0.0128456
0.00422078, -0.00117918, -0.555786, 0.000127466, -1.38861e-05, -2.33141e-05, 0.439709, 0.441922, 0.288175, 0.00241679, 0.00366217, 0.0128284
0.00442926, -0.0023345, -0.55563, 0.000127586, -3.6173e-06, -2.77118e-05, 0.44489, 0.435694, 0.287933, 0.00240194, 0.00352696, 0.0128056
0.00421295, -0.00323103, -0.554467, 0.000128886, 5.59055e-06, -2.72359e-05, 0.449141, 0.428373, 0.287679, 0.00238769, 0.00339161, 0.012779
0.00464843, -0.00408777, -0.556401, 0.000129428, 1.32849e-05, -2.58596e-05, 0.452366, 0.42046, 0.287381, 0.0023737, 0.00326364, 0.012752
0.00477523, -0.00445839, -0.556528, 0.00012912, 1.58496e-05, -2.48365e-05, 0.454371, 0.412345, 0.287144, 0.0023596, 0.00314732, 0.0127261
0.0046906, -0.00434102, -0.556808, 0.000129557, 1.50254e-05, -2.4286e-05, 0.454984, 0.404361, 0.28683, 0.00234472, 0.00304412, 0.012702
0.00411083, -0.00408063, -0.553974, 0.000131143, 1.35213e-05, -2.39203e-05, 0.453891, 0.39681, 0.286329, 0.00232818, 0.00295373, 0.012681
0.00351762, -0.00481033, -0.552609, 0.000133956, 1.63217e-05, -1.83377e-05, 0.450782, 0.389718, 0.285979, 0.00230913, 0.00287488, 0.012666
0.0029476, -0.00409901, -0.551612, 0.000133603, 1.1602e-05, -1.59504e-05, 0.445489, 0.382787, 0.285831, 0.00228735, 0.00280586, 0.0126567
0.00189836, -0.00411248, -0.55233, 0.000135898, 8.59875e-06, -1.11325e-05, 0.438028, 0.375928, 0.285301, 0.00226218, 0.00274407, 0.0126506
0.00105808, -0.0043704, -0.552027, 0.000138049, 7.39035e-06, -8.97257e-06, 0.428509, 0.369295, 0.284368, 0.00223449, 0.00268886, 0.0126441
0.00018089, -0.0041072, -0.550816, 0.000138686, 4.60218e-06, -5.57072e-06, 0.417567, 0.363356, 0.28351, 0.00220718, 0.0026406, 0.0126383
-0.000445448, -0.00400958, -0.55138, 0.000139316, 1.96372e-06, -1.96811e-06, 0.40604, 0.35843, 0.282927, 0.00218222, 0.00259946, 0.0126341
-0.0015081, -0.00434402, -0.553477, 0.000141743, -1.28062e-06, 3.70534e-07, 0.394857, 0.354676, 0.282457, 0.00216047, 0.00256523, 0.0126301
-0.00250922, -0.00391256, -0.557062, 0.000142548, -6.07774e-06, 2.85021e-06, 0.384886, 0.352222, 0.281987, 0.0021424, 0.00253817, 0.012625
-0.00300104, -0.00417036, -0.555845, 0.000143193, -6.72985e-06, 4.34757e-06, 0.376676, 0.351031, 0.281619, 0.00212893, 0.0025183, 0.0126199
-0.00335561, -0.00412535, -0.554086, 0.000143031, -7.76144e-06, 8.05195e-06, 0.370453, 0.35093, 0.281471, 0.00212021, 0.00250517, 0.0126157
-0.00327272, -0.00454816, -0.5539, 0.000143864, -7.916e-06, 8.77456e-06, 0.366377, 0.351739, 0.281484, 0.00211525, 0.00249798, 0.0126116
-0.00384117, -0.00490903, -0.553976, 0.00014475, -8.79225e-06, 8.91361e-06, 0.364543, 0.353287, 0.281519, 0.00211293, 0.00249539, 0.0126067
-0.00404123, -0.00552111, -0.554061, 0.00014497, -9.21305e-06, 6.94393e-06, 0.36477, 0.355256, 0.281433, 0.00211217, 0.00249504, 0.0126002
-0.00388508, -0.00563011, -0.553761, 0.000145046, -9.49577e-06, 5.77966e-06, 0.366629, 0.357268, 0.281337, 0.00211173, 0.0024945, 0.012592
-0.00418604, -0.00556944, -0.55533, 0.000144416, -8.91145e-06, 7.28614e-06, 0.369693, 0.359049, 0.281357, 0.0021104, 0.00249161, 0.0125845
-0.00415208, -0.00556745, -0.555768, 0.00014447, -9.15976e-06, 8.03131e-06, 0.37367, 0.360499, 0.281541, 0.00210726, 0.00248402, 0.0125793
-0.00416134, -0.00577731, -0.559057, 0.000142772, -5.58926e-06, 5.11404e-06, 0.378303, 0.361693, 0.282015, 0.00210211, 0.00246917, 0.0125754
-0.00357845, -0.00565199, -0.559474, 0.000144535, -7.50294e-06, 6.55337e-06, 0.383335, 0.36268, 0.282735, 0.0020954, 0.00244667, 0.0125699
-0.00321067, -0.00554869, -0.558856, 0.000145841, -1.00748e-05, 9.96241e-06, 0.388483, 0.363404, 0.28348, 0.00208766, 0.00241889, 0.0125619
-0.00309042, -0.00605827, -0.557356, 0.000146887, -1.45802e-05, 1.32434e-05, 0.393431, 0.363828, 0.28412, 0.00207884, 0.00238803, 0.0125528
-0.00270024, -0.0061369, -0.557979, 0.000148059, -1.57978e-05, 1.47135e-05, 0.397845, 0.363938, 0.284371, 0.0020692, 0.00235652, 0.0125435
-0.00250549, -0.00592674, -0.559056, 0.000148724, -1.5387e-05, 1.44622e-05, 0.401267, 0.363628, 0.284127, 0.00205917, 0.00232607, 0.0125343
-0.00195487, -0.00603341, -0.55972, 0.000150296, -1.65583e-05, 1.67145e-05, 0.403301, 0.362752, 0.28361, 0.00204923, 0.00229744, 0.0125238
-0.00148122, -0.00581474, -0.560142, 0.000151413, -1.59003e-05, 1.68263e-05, 0.403703, 0.361237, 0.283052, 0.00203992, 0.00227104, 0.0125104
-0.00082226, -0.00540712, -0.560012, 0.000152701, -1.4079e-05, 1.57781e-05, 0.402361, 0.359148, 0.28266, 0.00203199, 0.00224669, 0.0124914
-0.000557307, -0.00537059, -0.559145, 0.000153285, -1.3595e-05, 1.56105e-05, 0.399284, 0.35665, 0.282457, 0.00202592, 0.00222449, 0.0124652
-0.000476954, -0.00543426, -0.55904, 0.000153584, -1.35441e-05, 1.48912e-05, 0.394746, 0.353971, 0.282336, 0.00202177, 0.00220483, 0.012432
-0.00136437, -0.00504887, -0.558958, 0.000152978, -1.35279e-05, 5.10881e-06, 0.389182, 0.351326, 0.282314, 0.00201925, 0.00218809, 0.0123921
-0.00226216, -0.00494658, -0.557144, 0.000152386, -1.46752e-05, -7.16762e-08, 0.383306, 0.349005, 0.282311, 0.00201788, 0.00217525, 0.0123492
-0.00249957, -0.00445214, -0.555785, 0.000152098, -1.43018e-05, -4.32414e-06, 0.37796, 0.347345, 0.282227, 0.00201715, 0.00216705, 0.0123092
-0.00196592, -0.00447732, -0.555593, 0.000152523, -1.37165e-05, -2.77332e-06, 0.373838, 0.346613, 0.282051, 0.0020167, 0.00216258, 0.0122759
-0.0018291, -0.00413365, -0.555386, 0.000153087, -1.31997e-05, -5.91476e-06, 0.371313, 0.346848, 0.281872, 0.0020163, 0.00216045, 0.0122461
-0.00152296, -0.00454851, -0.555805, 0.000153587, -1.35497e-05, -3.86308e-06, 0.370445, 0.347846, 0.281787, 0.00201542, 0.00215954, 0.0122127
-0.00136895, -0.00543839, -0.55763, 0.000154309, -1.4363e-05, -2.3178e-06, 0.371064, 0.349355, 0.281802, 0.00201377, 0.00215872, 0.012178
-0.00102028, -0.00651055, -0.558067, 0.000154176, -1.5302e-05, 1.90951e-06, 0.372937, 0.351129, 0.281879, 0.00201162, 0.00215683, 0.0121487
-0.00123045, -0.00776738, -0.556261, 0.000153555, -1.57813e-05, 2.14225e-06, 0.375768, 0.353046, 0.282032, 0.00200967, 0.00215304, 0.0121308
-0.00239261, -0.00843829, -0.552319, 0.000152505, -1.63839e-05, -1.19299e-07, 0.379268, 0.354999, 0.282267, 0.00200828, 0.00214667, 0.0121199
-0.0031278, -0.00892149, -0.554513, 0.000153488, -1.28443e-05, -6.47029e-06, 0.383404, 0.356838, 0.282385, 0.00200728, 0.00213732, 0.0120982
-0.00360419, -0.00962592, -0.556192, 0.000154741, -1.00517e-05, -1.45664e-05, 0.387998, 0.358606, 0.28226, 0.00200594, 0.00212371, 0.0120519
-0.00357352, -0.0103574, -0.556411, 0.000155596, -8.38053e-06, -2.53385e-05, 0.392672, 0.360463, 0.28202, 0.0020043, 0.00210612, 0.0119901
-0.00329448, -0.011396, -0.55494, 0.000156472, -5.70602e-06, -4.21488e-05, 0.396998, 0.362299, 0.281856, 0.0020028, 0.00208644, 0.0119297
-0.00257901, -0.0127231, -0.552574, 0.000156591, -3.09911e-06, -6.30256e-05, 0.400509, 0.363854, 0.281911, 0.00200162, 0.0020659, 0.0118762
-0.00241065, -0.0131009, -0.551572, 0.000156147, -3.11405e-06, -6.5603e-05, 0.402767, 0.364798, 0.282318, 0.00200049, 0.0020449, 0.0118285
-0.00215676, -0.0124107, -0.553131, 0.000155567, -4.42889e-06, -6.45565e-05, 0.403703, 0.364846, 0.282809, 0.0019989, 0.00202403, 0.0117844
-0.00199104, -0.0119902, -0.55331, 0.000155058, -5.58248e-06, -6.45957e-05, 0.403115, 0.363888, 0.283116, 0.00199634, 0.00200344, 0.0117485
-0.00177068, -0.0120561, -0.553074, 0.000154801, -5.1774e-06, -6.55369e-05, 0.40073, 0.36186, 0.283138, 0.00199262, 0.00198342, 0.0117223
-0.00193921, -0.011877, -0.552166, 0.000154629, -5.78345e-06, -6.38161e-05, 0.396398, 0.35879, 0.282933, 0.00198741, 0.00196369, 0.0117049
-0.00136788, -0.0111326, -0.554648, 0.00015288, -7.24133e-06, -6.32589e-05, 0.390314, 0.354911, 0.282357, 0.00198073, 0.00194389, 0.0116935
-0.000571317, -0.0102527, -0.554891, 0.000150876, -7.34238e-06, -6.39739e-05, 0.382974, 0.350568, 0.281614, 0.00197323, 0.00192431, 0.0116857
2.69753e-05, -0.00996394, -0.554168, 0.000149777, -6.40465e-06, -6.39209e-05, 0.375033, 0.346166, 0.281029, 0.00196588, 0.00190611, 0.0116807
-0.000259678, -0.00904981, -0.555672, 0.000148642, -8.57043e-06, -6.00422e-05, 0.367026, 0.342056, 0.280735, 0.00195903, 0.00189025, 0.0116778
-0.00153129, -0.00847986, -0.555169, 0.000148542, -1.15873e-05, -5.58561e-05, 0.359596, 0.338571, 0.280578, 0.00195209, 0.00187739, 0.0116752
-0.00235525, -0.00810829, -0.554816, 0.000148404, -1.34432e-05, -5.32286e-05, 0.353323, 0.335962, 0.280444, 0.00194517, 0.00186785, 0.0116704
-0.00278233, -0.00826133, -0.554656, 0.000148802, -1.41711e-05, -5.28855e-05, 0.34851, 0.33433, 0.280335, 0.00193908, 0.00186133, 0.0116628
-0.00231252, -0.00780892, -0.553243, 0.000147887, -1.41327e-05, -4.90147e-05, 0.345218, 0.3336, 0.280256, 0.00193476, 0.00185737, 0.0116547
-0.0015487, -0.00795842, -0.551873, 0.000147526, -1.38456e-05, -4.74321e-05, 0.343427, 0.333621, 0.280158, 0.00193235, 0.00185544, 0.0116482
-0.00147465, -0.00797597, -0.55271, 0.000147447, -1.45113e-05, -4.53289e-05, 0.343237, 0.334412, 0.280026, 0.00193117, 0.00185479, 0.011641
-0.0010868, -0.00779211, -0.555605, 0.000146972, -1.61109e-05, -4.10155e-05, 0.344611, 0.335942, 0.279864, 0.00193056, 0.00185404, 0.0116316
-0.00103223, -0.0077077, -0.559066, 0.000146257, -1.7342e-05, -3.72089e-05, 0.347239, 0.338056, 0.279779, 0.00193017, 0.00185218, 0.011622
-8.14491e-05, -0.00761411, -0.561418, 0.000146588, -1.88626e-05, -3.68878e-05, 0.350763, 0.340497, 0.279794, 0.0019294, 0.0018481, 0.0116159
-4.76038e-05, -0.00769193, -0.564352, 0.000146117, -1.74396e-05, -3.84683e-05, 0.354858, 0.343034, 0.279945, 0.0019275, 0.00184062, 0.0116135
0.000374022, -0.00784303, -0.566352, 0.000146409, -1.66376e-05, -4.12362e-05, 0.359291, 0.34553, 0.280355, 0.00192391, 0.00182855, 0.0116115
0.000105076, -0.00832729, -0.564923, 0.000145689, -1.86744e-05, -3.76252e-05, 0.364005, 0.347878, 0.280987, 0.00191843, 0.00181203, 0.0116066
-0.000316438, -0.00902409, -0.563813, 0.000144216, -2.07214e-05, -3.31735e-05, 0.368775, 0.34991, 0.281682, 0.00191122, 0.00179232, 0.0115969
-0.00140996, -0.00935716, -0.562597, 0.000142111, -2.03262e-05, -3.40907e-05, 0.373259, 0.351498, 0.28225, 0.00190284, 0.00177048, 0.0115823
-0.00165373, -0.00979105, -0.561631, 0.000141599, -2.165e-05, -3.29053e-05, 0.376961, 0.35246, 0.28247, 0.00189411, 0.00174851, 0.0115643
-0.00230576, -0.00955965, -0.56155, 0.000140839, -2.03538e-05, -3.7833e-05, 0.379362, 0.352587, 0.28234, 0.00188551, 0.00172783, 0.0115441
-0.00282759, -0.00931275, -0.562016, 0.000140174, -1.96638e-05, -4.10999e-05, 0.380131, 0.351765, 0.28201, 0.00187752, 0.00170889, 0.0115222
-0.00311057, -0.00883942, -0.561322, 0.000140355, -1.82318e-05, -4.73596e-05, 0.379208, 0.350076, 0.281592, 0.00187101, 0.00169169, 0.0115011
-0.00403557, -0.0083177, -0.561619, 0.000139504, -1.75595e-05, -5.40932e-05, 0.376636, 0.347637, 0.28129, 0.00186653, 0.00167636, 0.0114803
-0.00441524, -0.00764425, -0.561853, 0.000139501, -1.64194e-05, -6.16219e-05, 0.372607, 0.34463, 0.281092, 0.00186366, 0.00166301, 0.0114579
-0.00507868, -0.00710821, -0.562408, 0.000139365, -1.59942e-05, -6.95456e-05, 0.3676, 0.341361, 0.280943, 0.00186198, 0.00165182, 0.0114331
-0.00606936, -0.0065381, -0.561497, 0.000139296, -1.60492e-05, -7.8644e-05, 0.362286, 0.338247, 0.280864, 0.00186115, 0.00164294, 0.0114038
-0.00717038, -0.00573233, -0.560125, 0.000139577, -1.59898e-05, -9.01472e-05, 0.357551, 0.335756, 0.280755, 0.00186067, 0.00163676, 0.0113735
-0.00781411, -0.00516671, -0.559106, 0.000139833, -1.58022e-05, -9.72133e-05, 0.354113, 0.334252, 0.280579, 0.00186034, 0.00163319, 0.0113492
-0.00778705, -0.00512962, -0.558079, 0.000140257, -1.56596e-05, -9.84282e-05, 0.352182, 0.333765, 0.280438, 0.00186004, 0.00163143, 0.0113305
-0.00819374, -0.00500422, -0.557794, 0.000140662, -1.58213e-05, -0.000101345, 0.351529, 0.334023, 0.280379, 0.00185963, 0.00163053, 0.0113156
-0.00855495, -0.00580414, -0.557306, 0.000140443, -1.63285e-05, -9.96215e-05, 0.351694, 0.334588, 0.28041, 0.00185907, 0.00162974, 0.0113023
-0.00883453, -0.00680635, -0.557236, 0.000140115, -1.69881e-05, -9.77342e-05, 0.352072, 0.335074, 0.280507, 0.00185831, 0.00162843, 0.0112891
-0.00889763, -0.00804571, -0.555114, 0.000139124, -1.86008e-05, -9.17557e-05, 0.352485, 0.335405, 0.280643, 0.00185729, 0.00162637, 0.0112762
-0.00975478, -0.0086472, -0.554174, 0.00013888, -1.9028e-05, -9.21114e-05, 0.352975, 0.335694, 0.280883, 0.00185604, 0.00162354, 0.0112644
-0.0110591, -0.0094178, -0.553441, 0.000139038, -1.88463e-05, -9.67869e-05, 0.353738, 0.33598, 0.281212, 0.00185482, 0.00162045, 0.0112523
-0.0120539, -0.00981382, -0.552068, 0.000139345, -1.86761e-05, -0.000100692, 0.354885, 0.336317, 0.281497, 0.00185347, 0.00161755, 0.0112326
-0.0126957, -0.0103596, -0.553189, 0.000140382, -1.74288e-05, -0.000109002, 0.35628, 0.33683, 0.281637, 0.00185129, 0.00161454, 0.0111968
-0.0128759, -0.0105916, -0.553992, 0.000140776, -1.71516e-05, -0.000111874, 0.357805, 0.337583, 0.281427, 0.00184792, 0.00161071, 0.0111436
-0.013705, -0.0102356, -0.553481, 0.000140965, -1.66035e-05, -0.000107045, 0.359314, 0.338479, 0.280931, 0.00184335, 0.00160486, 0.0110769
-0.0142462, -0.00980531, -0.551747, 0.000141594, -1.50734e-05, -0.000104738, 0.360858, 0.339342, 0.2803, 0.00183746, 0.00159563, 0.011
-0.0134457, -0.00940075, -0.551993, 0.000140718, -1.6467e-05, -0.000102721, 0.362416, 0.340015, 0.279923, 0.00183111, 0.00158375, 0.0109242
-0.0116329, -0.00906829, -0.552452, 0.000139497, -1.83367e-05, -0.000107499, 0.363821, 0.340342, 0.279968, 0.00182556, 0.00157095, 0.0108617
-0.0088557, -0.00864055, -0.553362, 0.000137519, -2.09949e-05, -0.000115636, 0.365022, 0.340254, 0.280401, 0.00182128, 0.00155806, 0.0108169
-0.00606545, -0.00852855, -0.554507, 0.000135797, -2.29957e-05, -0.000125963, 0.365909, 0.33975, 0.28112, 0.00181859, 0.0015463, 0.0107905
-0.00371439, -0.00847368, -0.55584, 0.000134399, -2.47149e-05, -0.000134939, 0.366373, 0.338879, 0.282001, 0.0018172, 0.00153616, 0.0107768
-0.00140563, -0.00860123, -0.556606, 0.000133453, -2.517e-05, -0.000144342, 0.366192, 0.337767, 0.282871, 0.00181657, 0.00152799, 0.01077
0.000590605, -0.00832328, -0.558266, 0.000132492, -2.67333e-05, -0.00015238, 0.365197, 0.336513, 0.283593, 0.00181604, 0.00152185, 0.0107645
0.00220149, -0.00841594, -0.558907, 0.000131699, -2.69171e-05, -0.000156066, 0.363664, 0.335188, 0.284273, 0.00181488, 0.00151679, 0.0107558
0.00385388, -0.0085964, -0.560255, 0.000130766, -2.74162e-05, -0.000159384, 0.361075, 0.333885, 0.284693, 0.00181266, 0.00151321, 0.0107379
0.00482107, -0.00866079, -0.560942, 0.000130305, -2.75026e-05, -0.000161047, 0.357665, 0.332731, 0.28496, 0.00180917, 0.00151035, 0.0107092
0.0121651, -0.00722607, -0.557902, 0.000130864, -2.08671e-05, -0.000177547, 0.353882, 0.331895, 0.285259, 0.0018048, 0.00150773, 0.0106745
0.0105728, -0.00748272, -0.559888, 0.000130229, -2.3848e-05, -0.000172797, 0.349816, 0.331432, 0.285453, 0.0017995, 0.00150581, 0.0106329
0.00856633, -0.00785977, -0.561558, 0.000130368, -2.53244e-05, -0.00017321, 0.346134, 0.331338, 0.285572, 0.00179266, 0.00150463, 0.0105776
0.00618717, -0.00802585, -0.56243, 0.000130989, -2.64078e-05, -0.000175207, 0.344026, 0.331625, 0.286172, 0.00178471, 0.00150366, 0.0105132
0.00313726, -0.00854082, -0.562064, 0.000130897, -2.75994e-05, -0.000170362, 0.343867, 0.332241, 0.287473, 0.00177633, 0.00150281, 0.0104455
-0.000114899, -0.00904341, -0.564116, 0.000132007, -2.68853e-05, -0.000178841, 0.345332, 0.333073, 0.289301, 0.00176882, 0.001502, 0.010385
-0.00225918, -0.00938854, -0.566172, 0.000132897, -2.57143e-05, -0.000185358, 0.3478, 0.333972, 0.291245, 0.00176288, 0.00150108, 0.0103376
-0.00390503, -0.00936339, -0.566655, 0.000133717, -2.46759e-05, -0.000189636, 0.350653, 0.334851, 0.292865, 0.00175825, 0.00149982, 0.010301
-0.00591483, -0.00920229, -0.56498, 0.000134721, -2.30613e-05, -0.000195339, 0.354011, 0.335698, 0.294047, 0.00175423, 0.00149754, 0.0102685
-0.00752798, -0.00886237, -0.562958, 0.000135917, -2.13784e-05, -0.00020356, 0.357432, 0.336501, 0.294548, 0.00175079, 0.00149437, 0.0102402
-0.0076796, -0.00871883, -0.56027, 0.000136108, -2.18778e-05, -0.000206987, 0.360781, 0.337236, 0.294307, 0.00174799, 0.00149046, 0.0102168
-0.00878991, -0.00898276, -0.557452, 0.000136511, -2.17656e-05, -0.000212668, 0.364099, 0.33794, 0.293438, 0.00174555, 0.0014857, 0.0101965
-0.00985131, -0.00940465, -0.555077, 0.000136639, -2.22744e-05, -0.000216749, 0.367295, 0.338619, 0.292122, 0.00174336, 0.00148002, 0.010179
-0.0116518, -0.00995999, -0.55362, 0.000137348, -2.15978e-05, -0.000223777, 0.370014, 0.339223, 0.290537, 0.00174163, 0.00147395, 0.0101661
-0.0137744, -0.0103721, -0.55244, 0.000138357, -2.08452e-05, -0.00023243, 0.371796, 0.339682, 0.288826, 0.00174043, 0.00146851, 0.0101579
-0.0153052, -0.0107159, -0.552139, 0.000139118, -2.02077e-05, -0.000237851, 0.372536, 0.339985, 0.287249, 0.00173958, 0.00146378, 0.0101524
-0.0161498, -0.0114722, -0.553727, 0.000140023, -1.81044e-05, -0.000240297, 0.372269, 0.340167, 0.285971, 0.00173891, 0.00146024, 0.0101477
-0.0166947, -0.0119477, -0.556009, 0.000140847, -1.59241e-05, -0.000239742, 0.371425, 0.340197, 0.28521, 0.00173827, 0.00145792, 0.0101408
-0.0170809, -0.0122616, -0.557851, 0.000141367, -1.45091e-05, -0.000238045, 0.370649, 0.34015, 0.285174, 0.00173742, 0.00145617, 0.0101293
-0.0160508, -0.0128093, -0.559674, 0.000141933, -1.27739e-05, -0.00023794, 0.370151, 0.34012, 0.285802, 0.00173638, 0.00145428, 0.0101151
-0.0127139, -0.0132073, -0.564369, 0.000142445, -8.96307e-06, -0.00023247, 0.370162, 0.340097, 0.286932, 0.00173501, 0.0014525, 0.0100971
-0.0121193, -0.0133616, -0.564531, 0.000142795, -8.61893e-06, -0.00023417, 0.370696, 0.340037, 0.288348, 0.0017331, 0.00145081, 0.0100738
-0.0112971, -0.0130975, -0.566115, 0.000142883, -7.55223e-06, -0.000232023, 0.370976, 0.340014, 0.289602, 0.00173112, 0.00144869, 0.0100509
-0.0110232, -0.0124192, -0.565186, 0.000142293, -8.48455e-06, -0.000227564, 0.371633, 0.340008, 0.290657, 0.00172904, 0.00144686, 0.0100282
-0.00986427, -0.0118546, -0.564578, 0.000141873, -9.3234e-06, -0.000224234, 0.372269, 0.340028, 0.291267, 0.00172722, 0.00144517, 0.0100089
-0.00774088, -0.0111995, -0.564223, 0.000141494, -1.0452e-05, -0.000221208, 0.372961, 0.34009, 0.29139, 0.00172594, 0.00144381, 0.00999543
-0.00591533, -0.0106857, -0.562853, 0.00014102, -1.18584e-05, -0.00021727, 0.374029, 0.340158, 0.291089, 0.00172504, 0.00144274, 0.0099863
-0.0037714, -0.0100586, -0.560397, 0.000140321, -1.31228e-05, -0.000211374, 0.375729, 0.340217, 0.29046, 0.00172429, 0.00144132, 0.00997934
-0.00152385, -0.0096427, -0.559059, 0.000139807, -1.4229e-05, -0.000206974, 0.377782, 0.340269, 0.289545, 0.00172372, 0.00143887, 0.00997455
0.000726066, -0.00925877, -0.558467, 0.00013937, -1.55222e-05, -0.000203412, 0.379757, 0.340325, 0.288439, 0.00172336, 0.0014351, 0.00997212
0.00376438, -0.00919077, -0.558825, 0.000138655, -1.82155e-05, -0.000198807, 0.381289, 0.340413, 0.287314, 0.00172299, 0.00142972, 0.00997053
0.00720043, -0.00928683, -0.559442, 0.000137888, -2.09877e-05, -0.000194075, 0.381874, 0.340579, 0.28631, 0.0017224, 0.00142319, 0.00996772
0.00952622, -0.00957445, -0.560213, 0.000137173, -2.29004e-05, -0.000190045, 0.381189, 0.340897, 0.285545, 0.00172131, 0.00141598, 0.00996157
0.0109345, -0.00977182, -0.56087, 0.000136711, -2.40227e-05, -0.000187651, 0.3792, 0.341424, 0.285139, 0.00171954, 0.00140807, 0.00995126
0.0126164, -0.0100824, -0.561661, 0.000136032, -2.50294e-05, -0.000183931, 0.376008, 0.34221, 0.285155, 0.0017169, 0.0013995, 0.0099357
0.0192468, -0.00990941, -0.559393, 0.00013811, -1.78139e-05, -0.00019436, 0.371803, 0.343325, 0.28549, 0.00171309, 0.0013916, 0.00991277
0.0206143, -0.00978248, -0.558147, 0.000138697, -1.57984e-05, -0.000194114, 0.367345, 0.344826, 0.286062, 0.00170787, 0.00138558, 0.00988018
0.0145014, -0.00957417, -0.559954, 0.000137783, -2.09222e-05, -0.000193047, 0.363653, 0.346672, 0.286974, 0.00170145, 0.00138117, 0.00983886
0.00825015, -0.0103488, -0.5614, 0.000134976, -2.64998e-05, -0.000174942, 0.361356, 0.348784, 0.288277, 0.00169427, 0.00137805, 0.00979123
0.00265925, -0.0110883, -0.562022, 0.000132836, -2.94344e-05, -0.000163271, 0.360448, 0.351064, 0.289887, 0.00168711, 0.00137575, 0.00974266
-0.00064334, -0.0117309, -0.561749, 0.000131551, -3.01021e-05, -0.000154654, 0.360958, 0.353378, 0.291622, 0.00168066, 0.00137414, 0.00969783
-0.00373691, -0.0123872, -0.564431, 0.000130305, -3.07566e-05, -0.000148359, 0.362873, 0.355651, 0.293313, 0.00167498, 0.00137267, 0.00965677
-0.00618745, -0.0124875, -0.564681, 0.000130575, -2.9253e-05, -0.000149761, 0.365769, 0.357795, 0.294749, 0.00167016, 0.00137063, 0.00962047
-0.00844945, -0.0126196, -0.563461, 0.000131151, -2.66937e-05, -0.000152553, 0.369485, 0.359697, 0.295756, 0.00166642, 0.00136759, 0.0095911
-0.00941857, -0.0125849, -0.560981, 0.00013152, -2.55953e-05, -0.000153744, 0.373948, 0.361371, 0.296243, 0.00166343, 0.00136309, 0.00956654
-0.0110107, -0.0126797, -0.557562, 0.000131672, -2.46497e-05, -0.000154455, 0.379017, 0.362867, 0.296191, 0.00166088, 0.00135652, 0.00954461
-0.0125241, -0.012531, -0.555618, 0.000132134, -2.35492e-05, -0.00015837, 0.384072, 0.364028, 0.295571, 0.0016591, 0.00134846, 0.00952902
-0.0134613, -0.0123556, -0.554617, 0.000132396, -2.31846e-05, -0.000161065, 0.387957, 0.364606, 0.294274, 0.00165839, 0.00134175, 0.00952306
-0.0150163, -0.0122641, -0.555544, 0.000133064, -2.03875e-05, -0.000164799, 0.390418, 0.364573, 0.292524, 0.0016581, 0.00133588, 0.00952114
-0.0161204, -0.0123016, -0.556522, 0.000133653, -1.808e-05, -0.000167757, 0.39167, 0.364328, 0.29075, 0.00165767, 0.00132844, 0.00951865
-0.0175162, -0.0127141, -0.556503, 0.000133979, -1.75113e-05, -0.00017028, 0.391466, 0.364178, 0.289273, 0.00165695, 0.00131807, 0.00951482
-0.0197786, -0.0130654, -0.557149, 0.000134706, -1.60725e-05, -0.000175286, 0.389385, 0.363989, 0.288218, 0.00165605, 0.00130692, 0.00950988
-0.021544, -0.0137827, -0.558379, 0.000135801, -1.41635e-05, -0.000182568, 0.385632, 0.363749, 0.287722, 0.001655, 0.00129539, 0.0095028
-0.0235366, -0.0145391, -0.560264, 0.000136886, -1.23519e-05, -0.000188307, 0.380931, 0.363433, 0.287643, 0.00165401, 0.00128674, 0.00949448
-0.0246147, -0.0154275, -0.563041, 0.000138282, -9.72725e-06, -0.000194486, 0.376268, 0.363011, 0.288033, 0.00165289, 0.00128019, 0.00948287
-0.0238623, -0.0159982, -0.56731, 0.00013996, -5.39892e-06, -0.000200131, 0.372533, 0.362511, 0.288886, 0.00165162, 0.0012755, 0.00946852
-0.0199464, -0.0163407, -0.571843, 0.000141761, -1.53602e-07, -0.000206113, 0.370358, 0.361845, 0.290147, 0.00165004, 0.00127257, 0.00945054
-0.0165763, -0.0161701, -0.573719, 0.000142576, 2.53681e-06, -0.00020886, 0.369022, 0.361062, 0.291635, 0.0016482, 0.00127002, 0.00943056
-0.0140413, -0.0165605, -0.574392, 0.000143514, 4.23323e-06, -0.000214975, 0.367317, 0.360341, 0.293063, 0.00164643, 0.00126662, 0.00941262
-0.0116657, -0.016703, -0.574665, 0.000144124, 5.26772e-06, -0.000218762, 0.364843, 0.359809, 0.2943, 0.00164492, 0.00126192, 0.0093977
-0.0119821, -0.0171064, -0.572561, 0.000143062, 2.47346e-06, -0.000211429, 0.361878, 0.35953, 0.295417, 0.00164362, 0.00125633, 0.00938488
-0.0123471, -0.0174905, -0.569543, 0.000141346, -1.58204e-06, -0.00019895, 0.359148, 0.359473, 0.296512, 0.00164253, 0.00125098, 0.0093735
-0.0131303, -0.0177809, -0.566539, 0.00013967, -5.03121e-06, -0.00018649, 0.35736, 0.359572, 0.297525, 0.00164169, 0.00124707, 0.00936404
-0.0148332, -0.01806, -0.562522, 0.000137886, -8.01881e-06, -0.000173298, 0.356732, 0.359862, 0.298286, 0.00164114, 0.00124469, 0.00935674
-0.0161455, -0.018129, -0.560916, 0.000137447, -8.15686e-06, -0.00017018, 0.357184, 0.36044, 0.298564, 0.00164087, 0.00124337, 0.00935181
-0.0174068, -0.018244, -0.560637, 0.000137418, -7.4234e-06, -0.000170432, 0.358413, 0.361385, 0.298278, 0.00164079, 0.00124235, 0.00934893
-0.0183905, -0.0187352, -0.560054, 0.000137341, -6.5705e-06, -0.000171027, 0.360173, 0.362728, 0.297407, 0.00164068, 0.00124107, 0.00934776
-0.0192369, -0.0192756, -0.556474, 0.000137753, -4.42983e-06, -0.000172809, 0.362148, 0.364353, 0.296161, 0.00164038, 0.00123939, 0.00934721
-0.0196574, -0.020032, -0.553519, 0.000138264, -2.35132e-06, -0.000175742, 0.364099, 0.366061, 0.294669, 0.00163989, 0.00123735, 0.00934647
-0.0199861, -0.0201438, -0.552885, 0.00013845, -1.69645e-06, -0.000176666, 0.365855, 0.367708, 0.293104, 0.0016393, 0.00123515, 0.00934541
-0.0204248, -0.0206382, -0.553546, 0.000138029, -1.99811e-06, -0.00017552, 0.367328, 0.369196, 0.291636, 0.00163868, 0.00123307, 0.00934407
-0.0208999, -0.0204283, -0.554121, 0.000137852, -2.24048e-06, -0.000174379, 0.368413, 0.370412, 0.290209, 0.00163804, 0.00123103, 0.00934231
-0.0209573, -0.0204984, -0.553687, 0.000137956, -1.94799e-06, -0.000174854, 0.369032, 0.371231, 0.288885, 0.00163743, 0.00122917, 0.00934006
-0.0206334, -0.01997, -0.555041, 0.000137635, -2.8819e-06, -0.000173166, 0.369059, 0.371456, 0.287581, 0.00163694, 0.00122737, 0.00933765
-0.020177, -0.0191059, -0.556554, 0.000137143, -3.83443e-06, -0.000170826, 0.368435, 0.370945, 0.286271, 0.00163655, 0.0012256, 0.00933544
-0.0192478, -0.0173037, -0.559559, 0.000135517, -5.86322e-06, -0.000162559, 0.367169, 0.369683, 0.28483, 0.00163594, 0.00122355, 0.00933256
-0.0170602, -0.015346, -0.56154, 0.000133545, -7.09895e-06, -0.000151656, 0.365568, 0.367898, 0.283365, 0.00163481, 0.00122127, 0.00932742
-0.0144008, -0.0132876, -0.562438, 0.000131409, -7.46875e-06, -0.000139678, 0.364075, 0.36599, 0.282098, 0.00163341, 0.0012192, 0.00932052
-0.011559, -0.0117028, -0.562387, 0.000129506, -7.20665e-06, -0.000128449, 0.362952, 0.364281, 0.281177, 0.00163204, 0.00121774, 0.009313
-0.00934884, -0.0102511, -0.563652, 0.000127451, -7.70406e-06, -0.000116487, 0.362308, 0.362928, 0.280603, 0.00163077, 0.00121695, 0.0093047
-0.00740963, -0.00894851, -0.566394, 0.000125285, -8.65994e-06, -0.000104151, 0.362156, 0.361981, 0.280261, 0.00162952, 0.00121656, 0.00929486
-0.00620888, -0.00816256, -0.56639, 0.000124392, -8.75314e-06, -9.83384e-05, 0.36242, 0.361415, 0.280067, 0.00162834, 0.00121637, 0.00928468
-0.00527053, -0.00820534, -0.562917, 0.000124016, -8.63003e-06, -9.4182e-05, 0.362947, 0.361258, 0.280004, 0.00162748, 0.00121627, 0.00927661
-0.00528924, -0.00822936, -0.559444, 0.000123882, -8.84573e-06, -9.2322e-05, 0.363572, 0.361476, 0.280048, 0.00162694, 0.00121615, 0.00927135
-0.00598806, -0.00805417, -0.559573, 0.0001241, -8.71093e-06, -9.38446e-05, 0.36421, 0.361935, 0.280086, 0.00162659, 0.00121601, 0.00926861
-0.00671823, -0.0088239, -0.557902, 0.000124039, -8.72013e-06, -9.40064e-05, 0.364798, 0.362599, 0.280121, 0.00162637, 0.00121586, 0.00926759
-0.00811995, -0.00913484, -0.555615, 0.000124016, -8.85738e-06, -9.32102e-05, 0.365319, 0.363418, 0.280208, 0.0016262, 0.00121566, 0.00926716
-0.010187, -0.00941151, -0.554519, 0.000123811, -8.62487e-06, -9.12961e-05, 0.365901, 0.364409, 0.280329, 0.00162604, 0.00121535, 0.00926622
-0.0113224, -0.0101184, -0.553306, 0.000123517, -8.51304e-06, -9.02203e-05, 0.366672, 0.365662, 0.280471, 0.00162585, 0.00121492, 0.00926468
-0.0133242, -0.0113739, -0.552562, 0.000122855, -7.83397e-06, -8.83042e-05, 0.367681, 0.36723, 0.280662, 0.00162559, 0.0012143, 0.00926286
-0.0155999, -0.0125919, -0.552012, 0.000122093, -6.80819e-06, -8.56801e-05, 0.368943, 0.369098, 0.28081, 0.00162526, 0.00121362, 0.00926089
-0.0177681, -0.0140499, -0.550775, 0.00012117, -5.62713e-06, -8.32812e-05, 0.370412, 0.371215, 0.280859, 0.0016249, 0.00121292, 0.00925805
-0.0206138, -0.0153765, -0.551627, 0.000120061, -3.91025e-06, -7.78007e-05, 0.372107, 0.373563, 0.280845, 0.00162456, 0.0012121, 0.00925362
-0.0229881, -0.0164088, -0.552882, 0.000119194, -2.34006e-06, -7.34842e-05, 0.374036, 0.37612, 0.280879, 0.00162427, 0.00121115, 0.00924749
-0.0248983, -0.0178226, -0.554765, 0.000118363, -6.27361e-07, -7.19795e-05, 0.376208, 0.378865, 0.280931, 0.00162402, 0.00121008, 0.00924038
-0.0267723, -0.0185837, -0.5563, 0.000117764, 8.08956e-07, -6.91623e-05, 0.378542, 0.38175, 0.281031, 0.00162378, 0.00120901, 0.00923411
-0.0281724, -0.0192399, -0.55822, 0.000117347, 1.93475e-06, -6.76042e-05, 0.380909, 0.384603, 0.281123, 0.00162355, 0.00120806, 0.00922871
-0.0288153, -0.0200341, -0.558235, 0.000117095, 2.52937e-06, -6.87062e-05, 0.383182, 0.387265, 0.281189, 0.00162336, 0.00120728, 0.00922482
-0.0294992, -0.0209725, -0.557991, 0.000116848, 3.10468e-06, -6.98392e-05, 0.385241, 0.389584, 0.281231, 0.0016232, 0.0012067, 0.00922291
-0.028885, -0.0216419, -0.559517, 0.000116749, 3.12896e-06, -7.0844e-05, 0.386867, 0.391425, 0.28134, 0.00162301, 0.00120632, 0.00922226
-0.0279687, -0.0221512, -0.560916, 0.000116684, 3.02763e-06, -7.11315e-05, 0.387981, 0.39264, 0.281427, 0.00162283, 0.00120611, 0.0092218
-0.0273983, -0.0223454, -0.560518, 0.000116638, 2.93558e-06, -7.09136e-05, 0.388503, 0.393173, 0.281486, 0.00162273, 0.00120604, 0.00922131
-0.0261999, -0.0221258, -0.561735, 0.000116804, 2.937e-06, -7.15756e-05, 0.388423, 0.393052, 0.281546, 0.00162264, 0.00120601, 0.00922067
-0.0252193, -0.0213242, -0.563203, 0.00011703, 3.0999e-06, -7.30176e-05, 0.387761, 0.392284, 0.28155, 0.00162251, 0.00120594, 0.00921984
-0.0234867, -0.020437, -0.566306, 0.000117419, 3.39243e-06, -7.57038e-05, 0.386585, 0.390925, 0.281478, 0.0016224, 0.00120573, 0.00921858
-0.0207354, -0.0192216, -0.566968, 0.000117662, 4.12716e-06, -7.7839e-05, 0.385024, 0.389073, 0.281374, 0.00162234, 0.00120533, 0.00921577
-0.0178118, -0.0178344, -0.566167, 0.000117551, 5.21766e-06, -7.86914e-05, 0.383253, 0.3869, 0.281208, 0.00162221, 0.00120474, 0.00920873
-0.0149502, -0.0164602, -0.564263, 0.000117061, 6.55633e-06, -7.77617e-05, 0.381463, 0.384604, 0.280969, 0.00162193, 0.00120402, 0.00919828
-0.0118393, -0.0150184, -0.565127, 0.000116016, 7.35396e-06, -7.2687e-05, 0.379869, 0.382321, 0.28071, 0.00162154, 0.00120337, 0.00918829
-0.00949356, -0.0130124, -0.564496, 0.000114779, 8.31641e-06, -6.86043e-05, 0.378659, 0.380136, 0.280449, 0.0016209, 0.00120286, 0.00917989
-0.00731721, -0.0114524, -0.56283, 0.000113308, 9.20023e-06, -6.16446e-05, 0.377945, 0.378198, 0.280212, 0.00161993, 0.00120251, 0.00917165
-0.0049573, -0.0101491, -0.561359, 0.000111494, 9.65648e-06, -5.0954e-05, 0.377768, 0.376661, 0.280064, 0.00161875, 0.00120234, 0.00916215
-0.00342309, -0.00931764, -0.560301, 0.000110292, 9.79789e-06, -4.34755e-05, 0.378081, 0.375636, 0.279986, 0.00161764, 0.00120222, 0.00915191
-0.00202763, -0.00896048, -0.560108, 0.000109487, 9.66397e-06, -3.74663e-05, 0.378648, 0.375132, 0.279988, 0.00161689, 0.00120214, 0.00914415
-0.00146257, -0.00914137, -0.558369, 0.000109166, 9.53096e-06, -3.50004e-05, 0.379319, 0.375105, 0.280022, 0.00161653, 0.00120204, 0.00913993
-0.00178269, -0.00943384, -0.557079, 0.000109169, 9.55985e-06, -3.4909e-05, 0.380058, 0.375541, 0.280044, 0.00161633, 0.00120192, 0.00913822
-0.00160677, -0.0103474, -0.555816, 0.00010881, 9.38959e-06, -3.34704e-05, 0.38078, 0.376424, 0.280093, 0.00161602, 0.00120176, 0.00913727
-0.0020105, -0.0110063, -0.555712, 0.000108371, 9.40683e-06, -3.16072e-05, 0.381408, 0.377688, 0.280206, 0.00161528, 0.00120155, 0.00913483
-0.00355093, -0.0116472, -0.555952, 0.000107388, 9.71735e-06, -2.62395e-05, 0.382076, 0.379233, 0.280286, 0.00161418, 0.00120137, 0.00913053
-0.0054949, -0.0125297, -0.553829, 0.000106298, 1.01345e-05, -2.00182e-05, 0.382951, 0.380992, 0.280304, 0.00161303, 0.00120117, 0.00912608
-0.00769, -0.0131741, -0.552962, 0.000105273, 1.09077e-05, -1.40433e-05, 0.384105, 0.382936, 0.280274, 0.00161203, 0.00120085, 0.00912229
-0.0105356, -0.0137135, -0.550534, 0.000104439, 1.22494e-05, -8.24252e-06, 0.385578, 0.385083, 0.280194, 0.00161121, 0.00120036, 0.00911908
-0.0126317, -0.0146901, -0.548812, 0.000103647, 1.35451e-05, -5.32625e-06, 0.3874, 0.387448, 0.280118, 0.00161056, 0.00119965, 0.00911645
-0.014435, -0.0156581, -0.546377, 0.000103229, 1.49002e-05, -5.0883e-06, 0.389617, 0.39005, 0.280067, 0.00161005, 0.00119866, 0.00911452
-0.016046, -0.01635, -0.545736, 0.000103152, 1.63992e-05, -6.80479e-06, 0.392326, 0.392873, 0.279962, 0.00160968, 0.00119717, 0.00911208
-0.01779, -0.0176192, -0.545148, 0.000103236, 1.85348e-05, -1.30037e-05, 0.395477, 0.395877, 0.27986, 0.00160938, 0.00119516, 0.00910775
-0.0194639, -0.0189845, -0.549937, 0.000103071, 2.01178e-05, -1.88799e-05, 0.398855, 0.398962, 0.279794, 0.00160911, 0.00119294, 0.00910118
-0.0212316, -0.0199964, -0.554402, 0.000103282, 2.16656e-05, -2.55657e-05, 0.40228, 0.401984, 0.279747, 0.00160886, 0.00119073, 0.00909285
-0.0211669, -0.0208769, -0.560418, 0.00010289, 2.19991e-05, -2.84629e-05, 0.405527, 0.404937, 0.279783, 0.00160847, 0.00118903, 0.00908839
-0.0203865, -0.0217825, -0.569748, 0.000102585, 2.34528e-05, -3.35377e-05, 0.408368, 0.40771, 0.279919, 0.00160755, 0.00118773, 0.00908546
-0.0208644, -0.0230795, -0.568573, 0.000101395, 2.3136e-05, -2.82998e-05, 0.410641, 0.410109, 0.280156, 0.00160591, 0.0011866, 0.00907907
-0.0210272, -0.0239572, -0.564879, 0.000100176, 2.17791e-05, -1.97953e-05, 0.412258, 0.411961, 0.280459, 0.00160423, 0.00118575, 0.00907072
-0.0212214, -0.024345, -0.562416, 9.96695e-05, 2.10689e-05, -1.58045e-05, 0.413057, 0.413141, 0.28077, 0.00160299, 0.00118523, 0.00906337
-0.0218486, -0.0238818, -0.561806, 9.97239e-05, 2.10793e-05, -1.61552e-05, 0.413103, 0.413684, 0.281088, 0.00160193, 0.0011848, 0.00905544
-0.0222266, -0.0234773, -0.558326, 9.95476e-05, 2.03235e-05, -1.49777e-05, 0.412567, 0.413648, 0.281438, 0.00160096, 0.00118423, 0.00904625
-0.0219895, -0.0223285, -0.557262, 9.9935e-05, 2.05643e-05, -1.88565e-05, 0.411424, 0.41288, 0.281664, 0.00160046, 0.00118371, 0.00903948
-0.0206859, -0.02115, -0.558588, 0.000100251, 2.1307e-05, -2.23739e-05, 0.409627, 0.411176, 0.281766, 0.00160037, 0.0011832, 0.00903659
-0.0185329, -0.0195869, -0.559879, 0.000100029, 2.23174e-05, -2.307e-05, 0.407199, 0.408447, 0.281748, 0.00160007, 0.00118269, 0.0090361
-0.0149599, -0.0175674, -0.560683, 9.88729e-05, 2.37709e-05, -1.82955e-05, 0.404387, 0.404934, 0.281616, 0.00159881, 0.00118211, 0.00903403
-0.0108379, -0.0158526, -0.560555, 9.72447e-05, 2.53506e-05, -9.72459e-06, 0.401544, 0.401098, 0.281488, 0.00159641, 0.00118144, 0.00902803
-0.00702545, -0.0142808, -0.561643, 9.54972e-05, 2.67915e-05, 4.03325e-07, 0.398964, 0.397348, 0.281442, 0.00159314, 0.00118074, 0.0090179
-0.00381427, -0.0124811, -0.563813, 9.34972e-05, 2.79223e-05, 1.24257e-05, 0.396933, 0.393992, 0.281461, 0.0015894, 0.00118016, 0.00900377
-0.00116255, -0.0112765, -0.565596, 9.21456e-05, 2.87962e-05, 2.16513e-05, 0.395571, 0.391333, 0.281581, 0.00158626, 0.00117977, 0.00899036
0.000968358, -0.0103157, -0.56467, 9.07256e-05, 2.89474e-05, 3.07659e-05, 0.394711, 0.389553, 0.281836, 0.00158465, 0.00117941, 0.00898296
0.00196709, -0.010274, -0.563308, 9.00909e-05, 2.86278e-05, 3.53623e-05, 0.394229, 0.388641, 0.282173, 0.00158414, 0.00117899, 0.00897952
0.0018346, -0.0104145, -0.55976, 8.91908e-05, 2.74839e-05, 4.06077e-05, 0.394136, 0.388487, 0.282521, 0.00158388, 0.00117859, 0.00897625
0.000994207, -0.0106837, -0.557003, 8.85762e-05, 2.67693e-05, 4.34829e-05, 0.394357, 0.388975, 0.282805, 0.00158337, 0.00117823, 0.00897199
-0.000579401, -0.0114978, -0.553077, 8.7392e-05, 2.61524e-05, 4.86988e-05, 0.394853, 0.390039, 0.282976, 0.00158229, 0.00117792, 0.00896631
-0.00257734, -0.0121172, -0.551089, 8.62988e-05, 2.64029e-05, 5.34679e-05, 0.395727, 0.391664, 0.28301, 0.00158053, 0.00117756, 0.00895917
-0.00477662, -0.0126891, -0.548891, 8.52152e-05, 2.72401e-05, 5.77283e-05, 0.397115, 0.39377, 0.282952, 0.00157849, 0.00117703, 0.00895333
-0.0066649, -0.0136529, -0.547546, 8.38818e-05, 2.81878e-05, 6.2309e-05, 0.398971, 0.396224, 0.28288, 0.00157668, 0.00117626, 0.00895014
-0.00859744, -0.0145569, -0.545333, 8.2772e-05, 2.95267e-05, 6.52454e-05, 0.40122, 0.398937, 0.28279, 0.00157518, 0.00117524, 0.00894858
-0.0108039, -0.0159545, -0.542961, 8.12768e-05, 3.14179e-05, 6.7972e-05, 0.403801, 0.401884, 0.282681, 0.00157392, 0.001174, 0.00894767
-0.0132161, -0.0169901, -0.54339, 8.02404e-05, 3.34436e-05, 7.02383e-05, 0.406631, 0.404957, 0.28251, 0.00157316, 0.0011725, 0.00894629
-0.0154878, -0.0176296, -0.544012, 7.95722e-05, 3.5285e-05, 7.25e-05, 0.409578, 0.408026, 0.282209, 0.00157287, 0.00117066, 0.00894121
-0.016059, -0.0184796, -0.544937, 7.91533e-05, 3.5824e-05, 7.11521e-05, 0.412454, 0.411041, 0.281814, 0.00157263, 0.00116868, 0.00893289
-0.0158365, -0.0193667, -0.547789, 7.8556e-05, 3.51529e-05, 7.01358e-05, 0.415078, 0.413903, 0.2815, 0.00157239, 0.00116718, 0.00892678
-0.0147693, -0.0201761, -0.550438, 7.80853e-05, 3.42183e-05, 6.86736e-05, 0.417259, 0.416414, 0.281263, 0.0015721, 0.00116625, 0.00892432
-0.0140825, -0.0207378, -0.554422, 7.74747e-05, 3.31778e-05, 7.01121e-05, 0.418884, 0.418379, 0.281092, 0.00157177, 0.00116575, 0.00892342
-0.0139693, -0.0209691, -0.558947, 7.70908e-05, 3.2147e-05, 7.18212e-05, 0.419949, 0.419592, 0.280946, 0.00157156, 0.0011654, 0.00892296
-0.0136062, -0.0201484, -0.562344, 7.66754e-05, 3.09925e-05, 7.46233e-05, 0.420472, 0.419956, 0.280743, 0.00157141, 0.00116502, 0.00892215
-0.0135698, -0.0190237, -0.562646, 7.61269e-05, 3.06316e-05, 7.83837e-05, 0.420763, 0.419506, 0.280456, 0.00157062, 0.00116439, 0.00891656
-0.0130447, -0.017425, -0.562247, 7.46353e-05, 3.02331e-05, 8.81324e-05, 0.421534, 0.418433, 0.280107, 0.00156712, 0.00116321, 0.00888875
-0.0123831, -0.0158763, -0.561367, 7.24679e-05, 2.98048e-05, 0.000102576, 0.423354, 0.417171, 0.279766, 0.00155865, 0.00116102, 0.00881649
-0.0104723, -0.0146321, -0.561481, 6.61803e-05, 2.72746e-05, 0.000147013, 0.426564, 0.416147, 0.279552, 0.00154399, 0.0011576, 0.00868599
-0.00895694, -0.0140259, -0.561696, 5.98229e-05, 2.46124e-05, 0.000192525, 0.431123, 0.415514, 0.279514, 0.00152294, 0.00115279, 0.00849443
-0.00806611, -0.0138435, -0.56149, 5.54384e-05, 2.28088e-05, 0.000223836, 0.436481, 0.415188, 0.279606, 0.00150003, 0.00114745, 0.00828163
-0.00780402, -0.0138329, -0.558722, 5.26624e-05, 2.18178e-05, 0.000241408, 0.442002, 0.415028, 0.279809, 0.00148074, 0.00114277, 0.00809717
-0.00753333, -0.0135282, -0.556413, 5.05781e-05, 2.10101e-05, 0.000254621, 0.44728, 0.414855, 0.280048, 0.00146703, 0.00113922, 0.00796022
-0.0077503, -0.0137493, -0.557553, 5.16313e-05, 2.14587e-05, 0.000247631, 0.451944, 0.414646, 0.280277, 0.0014587, 0.00113684, 0.00787178
-0.00775534, -0.014447, -0.558354, 5.17994e-05, 2.14987e-05, 0.000246785, 0.455277, 0.414481, 0.280502, 0.00145539, 0.00113563, 0.00783282
-0.00819804, -0.0154616, -0.557846, 5.15812e-05, 2.11616e-05, 0.000248425, 0.456383, 0.414451, 0.280729, 0.00145493, 0.00113507, 0.00782573
-0.00881004, -0.0166454, -0.557862, 5.07684e-05, 2.077e-05, 0.000254078, 0.454411, 0.41462, 0.280823, 0.00145323, 0.00113447, 0.00781264
-0.0104066, -0.01777, -0.557046, 4.84332e-05, 1.95527e-05, 0.000271018, 0.448807, 0.415004, 0.280792, 0.00144484, 0.00113267, 0.00774075
-0.0118927, -0.0189451, -0.557082, 4.52512e-05, 1.8209e-05, 0.000292915, 0.440183, 0.415433, 0.280651, 0.00142575, 0.00112883, 0.00757
-0.0136679, -0.0197095, -0.5576, 4.07465e-05, 1.65037e-05, 0.00032335, 0.430318, 0.41579, 0.2805, 0.0013956, 0.00112288, 0.00729232
-0.013941, -0.0200918, -0.559072, 3.8773e-05, 1.62534e-05, 0.000334051, 0.421373, 0.416105, 0.280473, 0.00135804, 0.00111555, 0.00693619
-0.0149441, -0.0202423, -0.560002, 3.50225e-05, 1.51277e-05, 0.000358322, 0.414854, 0.416436, 0.280681, 0.00131844, 0.00110784, 0.00654912
-0.0145565, -0.0203802, -0.560632, 3.54167e-05, 1.56076e-05, 0.000353667, 0.411275, 0.416797, 0.281169, 0.00128259, 0.00110085, 0.00618928
-0.0152344, -0.019865, -0.561191, 3.29195e-05, 1.49233e-05, 0.000370549, 0.410253, 0.417233, 0.281886, 0.00125375, 0.00109532, 0.00589307
-0.016908, 0.0139176, -0.565467, 3.01294e-05, 1.82157e-05, 0.000421705, 0.41101, 0.417823, 0.282769, 0.00123262, 0.00109138, 0.00567229
-0.0140872, 0.0318706, -0.567594, 3.83298e-05, 2.30716e-05, 0.000382771, 0.412778, 0.41859, 0.283646, 0.00121871, 0.00108895, 0.005525
-0.0134513, 0.0451128, -0.571006, 3.94327e-05, 2.50075e-05, 0.000387379, 0.414854, 0.41944, 0.284438, 0.00121083, 0.00108769, 0.00544247
-0.013034, 0.0573776, -0.572127, 4.12232e-05, 2.59054e-05, 0.00038945, 0.416688, 0.420286, 0.285079, 0.00120735, 0.00108716, 0.00540799
-0.0139423, 0.0535838, -0.568598, 4.11126e-05, 2.51628e-05, 0.000387763, 0.417939, 0.421006, 0.285458, 0.00120643, 0.001087, 0.00540038
-0.0150774, 0.0394611, -0.564058, 4.08376e-05, 2.39805e-05, 0.000376176, 0.418413, 0.421584, 0.28562, 0.00120641, 0.00108676, 0.00539958
-0.0151437, 0.0239365, -0.558396, 3.91708e-05, 2.2106e-05, 0.000372678, 0.418204, 0.422082, 0.28559, 0.00120578, 0.00108611, 0.00538803
-0.0166642, 0.0378056, -0.552229, 3.85155e-05, 2.23452e-05, 0.000381616, 0.417588, 0.422576, 0.285361, 0.00120327, 0.00108474, 0.00535028
-0.0183564, 0.0426294, -0.547734, 3.90818e-05, 2.35457e-05, 0.000374089, 0.416921, 0.423072, 0.284957, 0.00119806, 0.00108237, 0.00527498
-0.0207954, 0.0467414, -0.541004, 4.0231e-05, 2.58779e-05, 0.000356007, 0.416706, 0.423539, 0.284462, 0.00118987, 0.00107897, 0.00515793
-0.0222546, 0.0214682, -0.533511, 3.50407e-05, 2.31263e-05, 0.000357619, 0.417455, 0.423954, 0.283955, 0.00117891, 0.00107472, 0.00500227
-0.0218099, -0.0149803, -0.531809, 2.7991e-05, 1.75554e-05, 0.000372568, 0.419474, 0.42438, 0.283593, 0.00116597, 0.00107001, 0.00482004
-0.0196682, -0.0503745, -0.534706, 1.99095e-05, 1.16501e-05, 0.00040332, 0.422773, 0.42492, 0.283439, 0.0011524, 0.0010653, 0.00462976
-0.0161, -0.106149, -0.558078, 1.97655e-05, 4.87176e-06, 0.00040301, 0.427193, 0.42561, 0.283471, 0.00113914, 0.00106077, 0.00444278
-0.0140398, -0.136852, -0.57194, 1.94468e-05, 6.43597e-07, 0.000403737, 0.432486, 0.426451, 0.283647, 0.0011269, 0.00105656, 0.00426682
-0.012962, -0.1489, -0.577358, 1.77616e-05, -2.18333e-06, 0.000414759, 0.438235, 0.42737, 0.283835, 0.00111672, 0.00105299, 0.00411878
-0.0125804, -0.147885, -0.581552, 1.94521e-05, -3.16219e-06, 0.00041649, 0.444014, 0.428305, 0.283991, 0.00110909, 0.00105021, 0.0040077
-0.0119871, -0.138344, -0.580275, 1.99639e-05, -2.98889e-06, 0.000423561, 0.449429, 0.42922, 0.284131, 0.00110393, 0.0010482, 0.00393418
-0.0118043, -0.122929, -0.577085, 2.22786e-05, -1.75977e-06, 0.000419127, 0.454075, 0.430064, 0.284277, 0.00110094, 0.00104692, 0.00389353
-0.0117848, -0.104503, -0.577095, 2.59455e-05, -1.0818e-06, 0.000408581, 0.45757, 0.430745, 0.284338, 0.00109963, 0.00104617, 0.00387647
-0.0117339, -0.0843832, -0.574492, 2.86968e-05, 4.53199e-08, 0.000398126, 0.459553, 0.431197, 0.284323, 0.00109931, 0.00104583, 0.00387285
-0.0148899, -0.0935291, -0.562999, 2.76965e-05, 2.68061e-06, 0.000403252, 0.459864, 0.431482, 0.284233, 0.00109927, 0.00104572, 0.00387254
-0.0141109, -0.0621043, -0.561243, 3.09428e-05, 1.13773e-06, 0.000390111, 0.458479, 0.431724, 0.284115, 0.00109892, 0.00104569, 0.00386685
-0.0143712, -0.0361465, -0.560384, 3.28256e-05, -1.40296e-07, 0.000387029, 0.455738, 0.431986, 0.284021, 0.00109777, 0.00104559, 0.00384909
-0.0154835, -0.0157826, -0.559603, 3.3638e-05, -1.52137e-06, 0.000391512, 0.451968, 0.432242, 0.283806, 0.00109557, 0.00104538, 0.00381569
-0.017062, -0.00035834, -0.558099, 3.40617e-05, -3.14546e-06, 0.000399221, 0.447502, 0.43245, 0.283453, 0.00109222, 0.001045, 0.003765
-0.0185134, 0.0109053, -0.557665, 3.40619e-05, -4.83372e-06, 0.000407031, 0.442805, 0.432677, 0.283045, 0.00108772, 0.00104441, 0.00369581
-0.0204291, 0.0188496, -0.559087, 3.2304e-05, -6.38676e-06, 0.000422281, 0.438602, 0.432978, 0.282593, 0.00108239, 0.00104373, 0.00361337
-0.0218392, 0.0231946, -0.56025, 3.0752e-05, -7.31672e-06, 0.000434755, 0.435464, 0.433413, 0.282244, 0.00107667, 0.00104308, 0.0035258
-0.0217674, 0.0247963, -0.560257, 3.10525e-05, -7.45206e-06, 0.000434262, 0.433606, 0.434025, 0.282121, 0.00107101, 0.00104252, 0.00344015
-0.0222836, 0.0247324, -0.561161, 2.99449e-05, -7.51445e-06, 0.000439748, 0.432999, 0.434823, 0.282268, 0.00106582, 0.00104206, 0.00336275
-0.0229225, 0.0508532, -0.569879, 3.01227e-05, -8.55957e-06, 0.000452437, 0.43344, 0.435799, 0.282676, 0.00106148, 0.00104169, 0.00329828
-0.0217786, 0.0707851, -0.583519, 2.824e-05, -8.10519e-06, 0.000459229, 0.434621, 0.436884, 0.283278, 0.00105804, 0.00104138, 0.00324698
-0.0179397, 0.0734638, -0.596323, 2.51448e-05, -6.01159e-06, 0.000451557, 0.4362, 0.437959, 0.283918, 0.00105554, 0.00104118, 0.00321014
-0.0148596, 0.0736562, -0.604596, 2.35699e-05, -4.83794e-06, 0.000445565, 0.437832, 0.438938, 0.284507, 0.00105401, 0.00104107, 0.00318751
-0.0150111, 0.0651935, -0.603277, 2.23933e-05, -4.22259e-06, 0.000447364, 0.439214, 0.439725, 0.285035, 0.00105325, 0.001041, 0.00317604
-0.01746, 0.0447783, -0.589095, 2.23283e-05, -4.37973e-06, 0.00044515, 0.440124, 0.44025, 0.2855, 0.00105302, 0.00104094, 0.00317213
-0.0201367, 0.000326724, -0.561244, 2.06e-05, -4.78384e-06, 0.000438114, 0.440551, 0.440597, 0.28584, 0.001053, 0.00104089, 0.00317184
-0.021969, 0.0137323, -0.543368, 1.90501e-05, -7.24939e-06, 0.000441987, 0.440566, 0.440857, 0.286067, 0.00105288, 0.00104082, 0.00317079
-0.0245603, 0.0444764, -0.536898, 1.99181e-05, -8.72432e-06, 0.000442284, 0.440342, 0.441153, 0.286026, 0.00105247, 0.00104069, 0.00316599
-0.0303379, 0.077328, -0.532334, 2.33437e-05, -7.42835e-06, 0.00042715, 0.43995, 0.441495, 0.28571, 0.0010516, 0.0010404, 0.00315398
-0.0348058, 0.0897491, -0.52906, 2.55784e-05, -5.00207e-06, 0.000410066, 0.439564, 0.44181, 0.285112, 0.00104992, 0.00103983, 0.00312995
-0.0344271, 0.0495498, -0.528527, 2.18092e-05, -9.12911e-06, 0.000411926, 0.439457, 0.442052, 0.284473, 0.00104733, 0.00103899, 0.00309176
-0.0346738, 0.0101588, -0.526271, 1.70166e-05, -1.31239e-05, 0.000413263, 0.439949, 0.442246, 0.283982, 0.00104367, 0.00103793, 0.00303823
-0.0344655, -0.0371743, -0.526386, 1.16124e-05, -1.81483e-05, 0.000415436, 0.441305, 0.442466, 0.283722, 0.00103922, 0.00103669, 0.00297316
-0.0302788, -0.0980579, -0.533576, 3.89229e-06, -2.73876e-05, 0.000441979, 0.443664, 0.442845, 0.283711, 0.00103449, 0.0010353, 0.00290245
-0.0277876, -0.13326, -0.540873, -3.81626e-07, -3.28337e-05, 0.000456999, 0.446978, 0.443524, 0.283911, 0.00102986, 0.00103377, 0.00283208
-0.0262635, -0.149622, -0.54818, -1.03885e-06, -3.53628e-05, 0.000464315, 0.450933, 0.44452, 0.284285, 0.00102593, 0.00103225, 0.00277186
-0.025639, -0.151671, -0.552525, 5.67524e-07, -3.57372e-05, 0.000464782, 0.45509, 0.445709, 0.284759, 0.00102299, 0.00103094, 0.00272778
-0.0251288, -0.144609, -0.555319, 3.77681e-06, -3.52204e-05, 0.000462871, 0.459024, 0.446932, 0.285344, 0.00102111, 0.00102996, 0.00270001
-0.0252005, -0.13116, -0.558205, 8.14747e-06, -3.3645e-05, 0.000456722, 0.462344, 0.448048, 0.285964, 0.00102021, 0.00102932, 0.00268605
-0.0251966, -0.112975, -0.558665, 1.12319e-05, -3.20276e-05, 0.000454104, 0.464708, 0.448895, 0.286392, 0.00101995, 0.00102902, 0.00268135
-0.0251946, -0.0930479, -0.560744, 1.28461e-05, -3.05595e-05, 0.00045466, 0.465929, 0.449385, 0.286555, 0.00101992, 0.00102891, 0.0026808
-0.0252585, -0.0724446, -0.564947, 1.26219e-05, -2.94055e-05, 0.000458595, 0.466017, 0.449546, 0.286485, 0.00101979, 0.00102889, 0.00268029
-0.0258113, -0.0530009, -0.566736, 1.1604e-05, -2.82312e-05, 0.00046482, 0.465115, 0.449482, 0.286298, 0.00101935, 0.00102886, 0.00267698
-0.02572, -0.035223, -0.56849, 1.053e-05, -2.73166e-05, 0.000469401, 0.463436, 0.449317, 0.286025, 0.00101848, 0.00102881, 0.0026688
-0.0262395, -0.0202622, -0.56966, 9.76717e-06, -2.68849e-05, 0.000472765, 0.46128, 0.449155, 0.285762, 0.00101717, 0.00102871, 0.00265511
-0.0267921, -0.00834065, -0.5673, 1.10524e-05, -2.70867e-05, 0.000472067, 0.458962, 0.448999, 0.28552, 0.00101542, 0.00102856, 0.00263647
-0.0275858, 0.000314991, -0.567003, 1.14884e-05, -2.7393e-05, 0.000472469, 0.456706, 0.448907, 0.285285, 0.00101319, 0.00102839, 0.00261209
-0.0284642, 0.00621686, -0.564945, 1.30512e-05, -2.80566e-05, 0.00047186, 0.454781, 0.448953, 0.285041, 0.00101057, 0.00102823, 0.00258155
-0.029171, 0.0100384, -0.564946, 1.32572e-05, -2.85024e-05, 0.000473416, 0.453479, 0.449194, 0.284847, 0.00100763, 0.0010281, 0.00254563
-0.0297923, 0.0126377, -0.564771, 1.35683e-05, -2.88713e-05, 0.000474958, 0.45302, 0.449677, 0.28481, 0.00100449, 0.00102799, 0.00250639
-0.030102, 0.0525672, -0.568686, 2.04332e-05, -3.40692e-05, 0.000459889, 0.453455, 0.450403, 0.285046, 0.00100142, 0.00102789, 0.00246775
-0.0313856, 0.0824346, -0.576752, 2.21499e-05, -3.79792e-05, 0.000460342, 0.454668, 0.451321, 0.285551, 0.000998682, 0.0010278, 0.00243291
-0.0309293, 0.0863033, -0.58415, 1.87385e-05, -3.81446e-05, 0.000463824, 0.456385, 0.452416, 0.286172, 0.000996642, 0.00102772, 0.00240632
-0.0295639, 0.0869087, -0.592951, 1.50956e-05, -3.8018e-05, 0.000465061, 0.458269, 0.45361, 0.286782, 0.000995412, 0.00102761, 0.00238962
-0.0284792, 0.0361864, -0.579656, 7.67333e-06, -2.85085e-05, 0.000467061, 0.460022, 0.45477, 0.287285, 0.000994836, 0.00102749, 0.00238098
-0.031244, 0.0437455, -0.571412, 9.80841e-06, -2.96114e-05, 0.000469622, 0.461378, 0.455716, 0.287699, 0.000994702, 0.00102735, 0.00237832
-0.0303712, 0.0423852, -0.562552, 9.49002e-06, -2.90121e-05, 0.000468891, 0.462288, 0.456419, 0.287919, 0.000994651, 0.00102719, 0.00237773
-0.0292749, 0.0321893, -0.553666, 7.66452e-06, -2.69449e-05, 0.00046599, 0.462725, 0.456928, 0.28796, 0.000994433, 0.00102702, 0.00237743
-0.0314227, 0.0380888, -0.548654, 6.78163e-06, -2.7888e-05, 0.000467504, 0.462785, 0.457296, 0.28775, 0.000993776, 0.0010268, 0.00237532
-0.0344173, 0.042259, -0.547543, 7.41616e-06, -2.81793e-05, 0.000464012, 0.462556, 0.45753, 0.287234, 0.000992502, 0.00102654, 0.00236903
-0.0355617, 0.0307982, -0.547579, 8.05106e-06, -2.60412e-05, 0.0004555, 0.462204, 0.457602, 0.286417, 0.000990395, 0.00102619, 0.00235575
-0.0341276, 0.00419032, -0.5475, 7.25195e-06, -2.27779e-05, 0.000447582, 0.462019, 0.457521, 0.285502, 0.000987423, 0.00102573, 0.00233431
-0.031033, -0.0231086, -0.545862, 4.12989e-06, -2.00135e-05, 0.000447309, 0.462283, 0.457363, 0.284677, 0.000983806, 0.00102516, 0.00230593
-0.0254721, -0.0782325, -0.555137, 6.12272e-06, -1.80033e-05, 0.000444323, 0.463184, 0.457231, 0.284082, 0.000979952, 0.00102452, 0.00227362
-0.0215222, -0.111461, -0.564092, 8.59241e-06, -1.82273e-05, 0.000446808, 0.464751, 0.457222, 0.283794, 0.000976166, 0.00102386, 0.00224016
-0.0193669, -0.126593, -0.567478, 8.45355e-06, -1.85952e-05, 0.000451014, 0.466884, 0.457398, 0.283762, 0.000972856, 0.0010232, 0.00221009
-0.0181903, -0.129526, -0.568883, 8.32592e-06, -1.91995e-05, 0.00045516, 0.469397, 0.457803, 0.283888, 0.000970278, 0.00102254, 0.00218658
-0.0181849, -0.124293, -0.568439, 8.76014e-06, -1.94854e-05, 0.000456008, 0.471963, 0.458437, 0.284036, 0.000968656, 0.00102192, 0.00217173
-0.0193937, -0.113513, -0.568342, 1.06044e-05, -1.97742e-05, 0.000453742, 0.474234, 0.45923, 0.28412, 0.00096792, 0.0010214, 0.00216496
-0.020423, -0.0998016, -0.566376, 1.24761e-05, -1.98673e-05, 0.000452174, 0.475965, 0.460067, 0.284083, 0.000967709, 0.00102102, 0.00216328
-0.0220251, -0.0842382, -0.565193, 1.46239e-05, -2.00779e-05, 0.000451142, 0.477077, 0.460854, 0.283925, 0.000967635, 0.00102079, 0.00216326
-0.0231823, -0.0682616, -0.563675, 1.66655e-05, -2.04516e-05, 0.000451676, 0.477616, 0.461542, 0.283694, 0.000967448, 0.00102068, 0.00216243
-0.0249435, -0.0528369, -0.562827, 1.81846e-05, -2.12732e-05, 0.000454759, 0.477735, 0.462136, 0.28345, 0.000967078, 0.00102063, 0.00215973
-0.0269362, -0.0390617, -0.5617, 1.93356e-05, -2.27295e-05, 0.000459947, 0.477568, 0.462651, 0.283189, 0.000966543, 0.00102058, 0.00215497
-0.0292532, -0.0269214, -0.561653, 1.94556e-05, -2.47188e-05, 0.000468023, 0.47718, 0.463045, 0.282896, 0.000965869, 0.00102048, 0.00214828
-0.0308992, -0.0166341, -0.562759, 1.8606e-05, -2.6648e-05, 0.000476572, 0.476582, 0.463249, 0.282692, 0.00096506, 0.00102032, 0.00214014
0.00106379, -0.00541749, -0.551531, 2.66043e-05, -2.81484e-05, 0.000421121, 0.475791, 0.463252, 0.282671, 0.000964161, 0.00102005, 0.00213124
-0.0141698, -0.00115818, -0.556968, 2.18528e-05, -2.90363e-05, 0.000455078, 0.47493, 0.463157, 0.282845, 0.00096325, 0.00101967, 0.00212171
-0.0244486, 0.00192692, -0.560779, 1.87011e-05, -2.91901e-05, 0.000477895, 0.474154, 0.463131, 0.283288, 0.000962425, 0.00101911, 0.0021134
-0.0309558, 0.00340019, -0.561666, 1.7663e-05, -2.94921e-05, 0.000489762, 0.473671, 0.463263, 0.283898, 0.000961788, 0.00101849, 0.00210738
-0.0351526, 0.00444895, -0.562431, 1.71628e-05, -2.94124e-05, 0.000496008, 0.473606, 0.463577, 0.284523, 0.000961313, 0.00101802, 0.0021038
-0.0373224, 0.00448028, -0.562626, 1.70722e-05, -2.92769e-05, 0.000498109, 0.474007, 0.464113, 0.284936, 0.00096096, 0.00101782, 0.00210213
-0.0375531, 0.00386205, -0.563659, 1.67116e-05, -2.91086e-05, 0.000498566, 0.474798, 0.46487, 0.285117, 0.000960648, 0.00101773, 0.00210139
-0.0368131, 0.00232056, -0.564067, 1.6179e-05, -2.92415e-05, 0.000499563, 0.475864, 0.465787, 0.28506, 0.000960278, 0.00101762, 0.00210048
-0.0354283, 0.000283087, -0.563678, 1.5441e-05, -2.95796e-05, 0.000502038, 0.4771, 0.466812, 0.284751, 0.000959773, 0.00101738, 0.00209834
-0.0334223, -0.00203517, -0.562132, 1.45717e-05, -3.00142e-05, 0.000506099, 0.478459, 0.467953, 0.284325, 0.000959088, 0.00101696, 0.00209422
-0.0311854, -0.00452084, -0.560375, 1.34549e-05, -3.0594e-05, 0.000511871, 0.479925, 0.46926, 0.283863, 0.000958192, 0.00101636, 0.00208757
-0.029399, -0.00718632, -0.556556, 1.20879e-05, -3.04664e-05, 0.000518783, 0.481467, 0.470784, 0.283425, 0.000957095, 0.00101557, 0.00207834
-0.0287772, -0.0091549, -0.554258, 1.09534e-05, -3.02777e-05, 0.000524077, 0.482967, 0.472482, 0.283047, 0.000955926, 0.00101456, 0.0020676
-0.0289661, -0.0107037, -0.553024, 9.98809e-06, -3.01458e-05, 0.00052798, 0.484341, 0.474272, 0.282755, 0.00095484, 0.00101338, 0.00205726
-0.0290158, -0.0119833, -0.552033, 9.26691e-06, -3.01063e-05, 0.000530951, 0.485541, 0.476023, 0.282571, 0.00095394, 0.00101218, 0.0020487
-0.0288586, -0.013125, -0.551227, 8.75697e-06, -3.01976e-05, 0.000533262, 0.486571, 0.477611, 0.282501, 0.000953277, 0.00101117, 0.00204265
-0.0299671, -0.0145654, -0.549562, 7.96916e-06, -2.98924e-05, 0.000534892, 0.487492, 0.478939, 0.282496, 0.000952831, 0.0010104, 0.00203923
-0.0309335, -0.0156458, -0.54784, 7.43271e-06, -2.96749e-05, 0.00053538, 0.488354, 0.479923, 0.282486, 0.000952542, 0.00100987, 0.00203789
-0.0320428, -0.0171619, -0.547353, 7.01868e-06, -2.98476e-05, 0.000535306, 0.48916, 0.480514, 0.282423, 0.000952352, 0.0010095, 0.00203754
-0.0325469, -0.0185438, -0.548698, 6.96778e-06, -3.01075e-05, 0.000534591, 0.489854, 0.480725, 0.282311, 0.000952208, 0.00100923, 0.00203712
-0.0320403, -0.0197891, -0.549896, 7.15739e-06, -3.03159e-05, 0.000533758, 0.490449, 0.480629, 0.282147, 0.000952078, 0.00100904, 0.00203594
-0.0315409, -0.0209927, -0.550747, 7.38521e-06, -3.04568e-05, 0.000532592, 0.490885, 0.480296, 0.28198, 0.000951932, 0.00100889, 0.00203383
-0.0317563, -0.021623, -0.551542, 7.46501e-06, -3.04335e-05, 0.00053173, 0.4912, 0.479783, 0.281806, 0.000951746, 0.00100877, 0.00203072
-0.0317644, -0.0225392, -0.552305, 7.64535e-06, -3.0441e-05, 0.000530381, 0.491501, 0.479223, 0.281629, 0.000951521, 0.00100866, 0.00202658
-0.0316142, -0.0230383, -0.553698, 7.79172e-06, -3.03224e-05, 0.00052955, 0.491835, 0.478749, 0.281507, 0.000951276, 0.00100855, 0.00202157
-0.0314126, -0.0237677, -0.55374, 7.96176e-06, -3.03894e-05, 0.000528359, 0.492252, 0.478456, 0.281457, 0.000951038, 0.00100844, 0.00201607
-0.0315073, -0.0243698, -0.554235, 8.06713e-06, -3.03435e-05, 0.000527305, 0.492759, 0.478384, 0.281489, 0.000950826, 0.00100833, 0.00201059
-0.031136, -0.0253123, -0.557599, 8.28324e-06, -2.9955e-05, 0.000525557, 0.49335, 0.478543, 0.281614, 0.000950646, 0.0010082, 0.00200528
-0.0310353, -0.0258652, -0.561193, 8.37005e-06, -2.94662e-05, 0.000524419, 0.494061, 0.47895, 0.281809, 0.000950502, 0.00100806, 0.00200022
-0.0307102, -0.0264755, -0.56352, 8.46741e-06, -2.91521e-05, 0.000523282, 0.494886, 0.479605, 0.2821, 0.000950392, 0.00100789, 0.00199548
-0.0303265, -0.0271727, -0.565267, 8.56378e-06, -2.88835e-05, 0.000522055, 0.49578, 0.480469, 0.282509, 0.00095031, 0.00100767, 0.00199114
-0.0301025, -0.0277021, -0.566669, 8.59904e-06, -2.85872e-05, 0.000521208, 0.496658, 0.481451, 0.283013, 0.000950251, 0.0010074, 0.00198735
-0.0297656, -0.0280487, -0.568546, 8.57892e-06, -2.81778e-05, 0.000520582, 0.49746, 0.482473, 0.283555, 0.000950205, 0.00100714, 0.0019841
-0.0293993, -0.028677, -0.569348, 8.59992e-06, -2.79859e-05, 0.000519676, 0.498137, 0.48348, 0.284123, 0.000950164, 0.00100687, 0.00198136
-0.0288176, -0.0291841, -0.570078, 8.61052e-06, -2.78227e-05, 0.000518935, 0.498674, 0.484433, 0.284696, 0.000950132, 0.00100661, 0.00197917
-0.0281003, -0.0293235, -0.570931, 8.58585e-06, -2.76718e-05, 0.000518563, 0.499095, 0.485287, 0.2852, 0.000950111, 0.0010064, 0.00197769
-0.0270898, -0.0294552, -0.57218, 8.49797e-06, -2.74769e-05, 0.000518168, 0.499414, 0.485996, 0.285594, 0.000950092, 0.00100624, 0.00197695
-0.026017, -0.0295427, -0.573405, 8.34832e-06, -2.73284e-05, 0.00051781, 0.499681, 0.486555, 0.285858, 0.000950051, 0.00100611, 0.00197667
0.0124318, -0.0204953, -0.566335, 7.12689e-06, -3.09914e-05, 0.00050582, 0.500025, 0.487041, 0.285957, 0.000949953, 0.00100601, 0.00197648
-0.00362319, -0.0247247, -0.567403, 8.02132e-06, -2.91163e-05, 0.000510928, 0.500558, 0.487563, 0.285867, 0.000949793, 0.00100592, 0.00197621
-0.0150061, -0.0274141, -0.567129, 8.93191e-06, -2.74602e-05, 0.00051451, 0.5013, 0.488118, 0.285603, 0.000949493, 0.00100581, 0.00197522
-0.0230416, -0.0295089, -0.567215, 9.44634e-06, -2.60877e-05, 0.000517017, 0.502175, 0.488676, 0.285167, 0.00094902, 0.00100565, 0.00197278
-0.0281846, -0.0304244, -0.565048, 1.01393e-05, -2.4484e-05, 0.000517223, 0.503102, 0.489263, 0.284457, 0.000948372, 0.00100524, 0.00196838
-0.0309494, -0.0307943, -0.564453, 1.05183e-05, -2.36998e-05, 0.000517034, 0.504044, 0.489933, 0.283635, 0.000947535, 0.00100461, 0.0019616
-0.0315593, -0.0302463, -0.560876, 1.10161e-05, -2.17776e-05, 0.000515043, 0.504902, 0.49074, 0.282712, 0.000946532, 0.00100356, 0.00195221
-0.0304479, -0.0295646, -0.555128, 1.11729e-05, -1.82332e-05, 0.000512992, 0.505618, 0.491771, 0.281771, 0.000945386, 0.00100189, 0.00194016
-0.0292832, -0.0287001, -0.552643, 1.13679e-05, -1.65911e-05, 0.000510715, 0.506235, 0.493118, 0.280984, 0.000944131, 0.000999721, 0.001926
-0.0287783, -0.0277024, -0.551523, 1.18216e-05, -1.58699e-05, 0.000507825, 0.506891, 0.494814, 0.280509, 0.000942856, 0.000997569, 0.00191117
-0.0287094, -0.0262217, -0.551529, 1.26997e-05, -1.58317e-05, 0.000503433, 0.507461, 0.496773, 0.280294, 0.000941685, 0.000995137, 0.00189768
-0.028484, -0.0254106, -0.552134, 1.31905e-05, -1.63539e-05, 0.000501341, 0.507972, 0.498837, 0.280345, 0.000940692, 0.000992806, 0.00188635
-0.0279514, -0.0240576, -0.549421, 1.34159e-05, -1.42988e-05, 0.000498321, 0.50838, 0.500787, 0.280586, 0.000939956, 0.000990724, 0.00187817
-0.0274007, -0.0228436, -0.546347, 1.33433e-05, -1.23859e-05, 0.000496439, 0.508816, 0.502456, 0.28091, 0.000939472, 0.000989265, 0.00187345
-0.027152, -0.0222823, -0.546295, 1.34585e-05, -1.24175e-05, 0.000495965, 0.509331, 0.503724, 0.281174, 0.000939176, 0.000988505, 0.00187154
-0.0272656, -0.0219274, -0.546651, 1.35662e-05, -1.24964e-05, 0.000495739, 0.509865, 0.504527, 0.281283, 0.000939016, 0.000988183, 0.00187122
-0.0271424, -0.0217608, -0.550088, 1.39447e-05, -1.2778e-05, 0.000495854, 0.510345, 0.504878, 0.281195, 0.000938948, 0.00098812, 0.00187111
-0.0269032, -0.0218706, -0.552722, 1.41152e-05, -1.24087e-05, 0.000495872, 0.51071, 0.504861, 0.280937, 0.000938911, 0.000987992, 0.00187001
-0.0267539, -0.022277, -0.554911, 1.42401e-05, -1.1714e-05, 0.000495464, 0.5109, 0.504524, 0.280576, 0.00093887, 0.000987576, 0.00186734
-0.0265793, -0.0225092, -0.554941, 1.42617e-05, -1.16979e-05, 0.000495142, 0.510948, 0.503975, 0.280185, 0.00093879, 0.000986878, 0.00186271
-0.0272283, -0.02302, -0.556166, 1.44023e-05, -1.10019e-05, 0.000494428, 0.510899, 0.503378, 0.279838, 0.000938657, 0.000985915, 0.00185601
-0.0275848, -0.0235721, -0.557963, 1.45454e-05, -9.91781e-06, 0.000493541, 0.510746, 0.502883, 0.279629, 0.000938482, 0.000984658, 0.00184774
-0.0272558, -0.0238034, -0.56045, 1.46335e-05, -8.35289e-06, 0.000492921, 0.510486, 0.50258, 0.279629, 0.000938279, 0.000983108, 0.00183845
-0.0264923, -0.0242739, -0.562613, 1.47507e-05, -6.80357e-06, 0.000491659, 0.510106, 0.502549, 0.279898, 0.000938073, 0.000981223, 0.00182885
-0.025231, -0.0246611, -0.564703, 1.484e-05, -5.23083e-06, 0.000490471, 0.509668, 0.502847, 0.280475, 0.000937892, 0.000979067, 0.00181957
-0.0237442, -0.0252032, -0.565474, 1.49666e-05, -4.63774e-06, 0.000488976, 0.509266, 0.503455, 0.281328, 0.000937748, 0.000976851, 0.00181117
-0.0224721, -0.0257801, -0.565882, 1.51025e-05, -4.33806e-06, 0.00048758, 0.508907, 0.504275, 0.282403, 0.00093763, 0.000974718, 0.00180388
-0.0215989, -0.0264399, -0.566052, 1.52447e-05, -4.20832e-06, 0.00048624, 0.50858, 0.505203, 0.283645, 0.000937522, 0.000972761, 0.00179768
-0.0213129, -0.0271773, -0.566301, 1.53535e-05, -4.01702e-06, 0.000485077, 0.508363, 0.506184, 0.284938, 0.00093742, 0.000971138, 0.00179253
-0.0207249, -0.0277627, -0.565253, 1.55093e-05, -4.70411e-06, 0.000484434, 0.508274, 0.507211, 0.286244, 0.00093734, 0.000969774, 0.00178874
-0.0195632, -0.0281387, -0.565293, 1.5658e-05, -4.79479e-06, 0.000484076, 0.508328, 0.508254, 0.287515, 0.000937274, 0.000968607, 0.00178632
-0.0180139, -0.0284518, -0.564877, 1.58917e-05, -5.19288e-06, 0.000484003, 0.50857, 0.509237, 0.288644, 0.000937202, 0.000967686, 0.00178511
-0.0175501, -0.0292653, -0.565097, 1.58947e-05, -5.27633e-06, 0.000483711, 0.509023, 0.510089, 0.289509, 0.000937089, 0.000967052, 0.00178476
-0.016892, -0.0301115, -0.564333, 1.60033e-05, -5.71571e-06, 0.00048377, 0.509698, 0.510799, 0.290026, 0.000936894, 0.000966645, 0.00178475
-0.0164274, -0.03048, -0.564598, 1.60014e-05, -5.83719e-06, 0.000483904, 0.510524, 0.511371, 0.290189, 0.000936593, 0.000966314, 0.00178455
-0.0162743, -0.0305786, -0.565373, 1.58942e-05, -5.8958e-06, 0.000484014, 0.511435, 0.511808, 0.290001, 0.000936155, 0.000965938, 0.00178374
-0.0164851, -0.0301813, -0.567401, 1.56434e-05, -6.00703e-06, 0.00048382, 0.512375, 0.51214, 0.289443, 0.000935581, 0.000965372, 0.00178196
-0.0162205, -0.030295, -0.565392, 1.59203e-05, -5.52023e-06, 0.000483792, 0.51328, 0.512397, 0.28852, 0.000934887, 0.000964486, 0.00177874
-0.0155429, -0.0300142, -0.564553, 1.62703e-05, -5.2138e-06, 0.000483269, 0.514132, 0.51263, 0.287415, 0.000934076, 0.000963321, 0.00177369
-0.0145274, -0.0298025, -0.560077, 1.68882e-05, -3.00937e-06, 0.000482331, 0.514877, 0.512943, 0.286097, 0.000933171, 0.000961703, 0.00176641
-0.0138025, -0.0293735, -0.55878, 1.72878e-05, -2.17055e-06, 0.000481222, 0.515491, 0.513427, 0.284749, 0.000932188, 0.000959637, 0.00175693
-0.0137099, -0.0284923, -0.55658, 1.7581e-05, -3.13063e-07, 0.000479018, 0.516, 0.514198, 0.28352, 0.000931137, 0.000957155, 0.00174576
-0.014028, -0.0275268, -0.557073, 1.79189e-05, -3.22491e-07, 0.000476743, 0.516407, 0.515306, 0.282517, 0.000930058, 0.00095433, 0.00173365
-0.0140572, -0.0264959, -0.553483, 1.7933e-05, 3.09784e-06, 0.000474114, 0.51668, 0.516724, 0.281813, 0.00092904, 0.000951239, 0.00172153
-0.014826, -0.0259798, -0.552626, 1.78492e-05, 4.07189e-06, 0.000472999, 0.516874, 0.518386, 0.281458, 0.000928158, 0.000948195, 0.00171032
-0.0138601, -0.0250336, -0.547366, 1.76069e-05, 8.71888e-06, 0.000470891, 0.516981, 0.520189, 0.281396, 0.000927448, 0.000945235, 0.00170083
-0.0143464, -0.024287, -0.545455, 1.75487e-05, 1.04448e-05, 0.000469478, 0.51709, 0.521996, 0.281575, 0.000926931, 0.000942726, 0.0016937
-0.0167505, -0.0235716, -0.544833, 1.76555e-05, 1.1192e-05, 0.000468305, 0.517294, 0.523667, 0.281877, 0.000926577, 0.000940861, 0.00168932
-0.0191155, -0.0232158, -0.544543, 1.784e-05, 1.16459e-05, 0.000467813, 0.517571, 0.52503, 0.282103, 0.000926325, 0.000939428, 0.00168746
-0.021328, -0.0233175, -0.544312, 1.81212e-05, 1.20403e-05, 0.000467743, 0.518018, 0.525989, 0.282123, 0.000926112, 0.000938554, 0.0016872
-0.0234428, -0.0241063, -0.547084, 1.8758e-05, 1.18082e-05, 0.000467751, 0.518609, 0.526497, 0.281856, 0.000925858, 0.000938106, 0.00168698
-0.0246761, -0.0242396, -0.549322, 1.93174e-05, 1.19287e-05, 0.000468059, 0.519183, 0.526567, 0.281336, 0.0009255, 0.000937683, 0.0016852
-0.0251744, -0.0248514, -0.551776, 1.97942e-05, 1.25641e-05, 0.000467629, 0.519576, 0.526272, 0.280685, 0.000924993, 0.000936966, 0.00168114
-0.0245799, -0.0256699, -0.554261, 1.99672e-05, 1.35539e-05, 0.000466273, 0.51983, 0.525833, 0.280045, 0.000924334, 0.000935881, 0.00167482
-0.0238379, -0.0269335, -0.557444, 2.02308e-05, 1.53048e-05, 0.000463879, 0.520064, 0.525534, 0.27955, 0.00092361, 0.000934445, 0.00166654
-0.0232071, -0.027556, -0.560625, 2.01934e-05, 1.70212e-05, 0.00046325, 0.520374, 0.525568, 0.279314, 0.00092292, 0.000932792, 0.00165725
-0.0207922, -0.0280343, -0.562527, 1.93542e-05, 1.8117e-05, 0.000459822, 0.520765, 0.525971, 0.279425, 0.000922289, 0.000931006, 0.00164828
-0.0192327, -0.0286747, -0.56339, 1.88622e-05, 1.87605e-05, 0.00045742, 0.521266, 0.526675, 0.279883, 0.000921742, 0.00092927, 0.00164032
-0.0129835, 0.000375739, -0.580893, 1.19906e-05, 2.02655e-05, 0.000502012, 0.521804, 0.527557, 0.280648, 0.00092125, 0.0009276, 0.00163383
-0.00107737, 0.0442652, -0.601809, 2.60236e-06, 2.42365e-05, 0.000556052, 0.522294, 0.528484, 0.281668, 0.000920759, 0.000925832, 0.00162873
-0.0111058, 0.00635269, -0.584761, 1.09574e-05, 1.61472e-05, 0.000512983, 0.522521, 0.529168, 0.28285, 0.000920226, 0.000923962, 0.00162489
-0.0191836, -0.0206461, -0.574134, 1.73783e-05, 7.43897e-06, 0.00049147, 0.522112, 0.529157, 0.283995, 0.000919704, 0.000922417, 0.00162288
-0.025439, -0.0389894, -0.567513, 2.22416e-05, 3.75586e-08, 0.000481221, 0.520931, 0.528289, 0.284992, 0.000919113, 0.000921017, 0.00162186
-0.0284483, -0.0495933, -0.565007, 2.49731e-05, -4.28332e-06, 0.000477871, 0.519093, 0.526588, 0.285688, 0.00091838, 0.000919741, 0.00162093
-0.0300915, -0.0545676, -0.563852, 2.61913e-05, -6.56369e-06, 0.000477303, 0.516836, 0.524214, 0.286095, 0.000917488, 0.000918476, 0.00161973
-0.0307848, -0.0558898, -0.560454, 2.69442e-05, -7.754e-06, 0.000477432, 0.514481, 0.521443, 0.286316, 0.000916505, 0.000917161, 0.00161819
-0.0301363, -0.0546644, -0.556923, 2.73554e-05, -7.61041e-06, 0.000477704, 0.51224, 0.518648, 0.286517, 0.000915485, 0.000915727, 0.00161636
-0.0284994, -0.0518276, -0.554929, 2.75741e-05, -6.12324e-06, 0.000477148, 0.51047, 0.516083, 0.2866, 0.000914378, 0.000914347, 0.00161418
-0.0261934, -0.0483238, -0.552127, 2.82428e-05, -3.94638e-06, 0.000475696, 0.509199, 0.513882, 0.286563, 0.000913171, 0.00091298, 0.00161195
-0.0250103, -0.0443999, -0.549327, 2.84714e-05, -1.50379e-06, 0.000472902, 0.508493, 0.51222, 0.286346, 0.000911905, 0.000911575, 0.00160973
-0.024429, -0.0407942, -0.546894, 2.84935e-05, 1.00176e-06, 0.000470011, 0.508435, 0.511309, 0.285927, 0.000910578, 0.000909984, 0.00160767
-0.0215451, -0.0388042, -0.542231, 2.98376e-05, 3.55699e-06, 0.000468913, 0.508975, 0.511249, 0.285367, 0.000909225, 0.000908244, 0.00160599
-0.0205992, -0.0358488, -0.543871, 3.10699e-05, 4.2075e-06, 0.000466566, 0.510095, 0.512066, 0.284638, 0.000907936, 0.000906304, 0.00160452
-0.0207715, -0.0322615, -0.5461, 3.26318e-05, 4.4982e-06, 0.000463771, 0.511713, 0.513743, 0.283825, 0.000906667, 0.000904096, 0.00160332
-0.0213246, -0.0303639, -0.550148, 3.42393e-05, 2.5045e-06, 0.000462481, 0.513641, 0.516092, 0.282993, 0.000905375, 0.000901601, 0.00160242
-0.0222487, -0.028793, -0.553341, 3.5581e-05, 6.53972e-07, 0.000461489, 0.515609, 0.518855, 0.28215, 0.00090412, 0.000898657, 0.00160178
-0.0237007, -0.0274198, -0.555253, 3.6766e-05, -2.52559e-07, 0.000461034, 0.517517, 0.52185, 0.281373, 0.000902871, 0.000895575, 0.00160129
-0.0232468, -0.027154, -0.556698, 3.71566e-05, -1.84502e-06, 0.000460796, 0.519267, 0.524908, 0.280708, 0.000901553, 0.000892351, 0.00160088
-0.0238384, -0.0278891, -0.558231, 3.71077e-05, -2.67233e-06, 0.000460765, 0.520701, 0.527786, 0.280178, 0.000900182, 0.00088904, 0.00160057
-0.0234027, -0.0286944, -0.558681, 3.65482e-05, -2.81977e-06, 0.000461151, 0.521909, 0.530365, 0.279824, 0.000898702, 0.000885994, 0.00160017
-0.0240795, -0.0295423, -0.561644, 3.68082e-05, -4.50262e-06, 0.000461098, 0.522812, 0.532604, 0.279617, 0.000897104, 0.000882917, 0.00159992
-0.0247878, -0.0297901, -0.561683, 3.71672e-05, -4.28806e-06, 0.000461535, 0.523348, 0.53433, 0.27953, 0.000895431, 0.000879982, 0.00159967
-0.0248212, -0.0305763, -0.562052, 3.70864e-05, -4.03179e-06, 0.000461579, 0.523726, 0.535612, 0.279525, 0.000893596, 0.000877291, 0.00159947
-0.0245507, -0.031353, -0.562393, 3.68859e-05, -3.71469e-06, 0.000461515, 0.523933, 0.536439, 0.279566, 0.000891653, 0.000874808, 0.00159929
-0.0247966, -0.0322706, -0.564164, 3.72174e-05, -3.91745e-06, 0.000461442, 0.524005, 0.536848, 0.279618, 0.000889668, 0.000872591, 0.00159914
-0.0256888, -0.0332548, -0.566006, 3.80369e-05, -4.02922e-06, 0.000461524, 0.523953, 0.536912, 0.279662, 0.000887721, 0.000870593, 0.001599
-0.0251853, -0.0341453, -0.566051, 3.78387e-05, -3.47555e-06, 0.000461395, 0.523819, 0.536716, 0.279673, 0.0008859, 0.000868887, 0.0015989
-0.0251626, -0.0348159, -0.565909, 3.78968e-05, -3.08282e-06, 0.000461369, 0.523609, 0.536345, 0.279657, 0.000884269, 0.000867436, 0.00159883
-0.0248562, -0.0356674, -0.565699, 3.78255e-05, -2.61101e-06, 0.000461293, 0.523331, 0.535871, 0.279606, 0.000882862, 0.000866206, 0.00159879
-0.0250513, -0.0363722, -0.56556, 3.79974e-05, -2.31086e-06, 0.000461269, 0.523007, 0.535356, 0.279524, 0.000881699, 0.000865167, 0.00159876
-0.0247169, -0.0366933, -0.564566, 3.77714e-05, -2.21238e-06, 0.000461237, 0.522654, 0.534847, 0.279413, 0.000880775, 0.000864293, 0.00159874
-0.0248201, -0.0369858, -0.563502, 3.77217e-05, -2.22675e-06, 0.000461225, 0.52231, 0.534382, 0.279294, 0.000880075, 0.000863575, 0.00159873
-0.0241152, -0.0373433, -0.562457, 3.74364e-05, -2.20852e-06, 0.000461201, 0.521991, 0.533988, 0.279174, 0.000879569, 0.000862987, 0.00159872
-0.023722, -0.03794, -0.562446, 3.73793e-05, -2.02521e-06, 0.000461186, 0.521722, 0.533673, 0.279053, 0.000879223, 0.000862523, 0.00159872
-0.0234105, -0.0381038, -0.561206, 3.72481e-05, -2.18921e-06, 0.000461186, 0.521519, 0.533451, 0.278938, 0.000879002, 0.000862159, 0.00159871
-0.023415, -0.0383727, -0.560366, 3.72245e-05, -2.28938e-06, 0.000461182, 0.521399, 0.533327, 0.278841, 0.000878871, 0.000861885, 0.00159871
-0.0231628, -0.0382723, -0.559841, 3.71784e-05, -2.38414e-06, 0.000461186, 0.521364, 0.533298, 0.278754, 0.000878802, 0.000861682, 0.0015987
-0.0232062, -0.0383494, -0.559305, 3.71757e-05, -2.46255e-06, 0.000461184, 0.521423, 0.533368, 0.278681, 0.00087877, 0.000861534, 0.0015987
-0.0231792, -0.0385633, -0.558851, 3.7168e-05, -2.50941e-06, 0.000461186, 0.521579, 0.533535, 0.278628, 0.000878755, 0.000861429, 0.00159869
-0.0229266, -0.0384813, -0.557884, 3.7176e-05, -2.64443e-06, 0.000461185, 0.521824, 0.533792, 0.278585, 0.000878746, 0.000861352, 0.00159868
-0.0233686, -0.0385154, -0.557555, 3.7177e-05, -2.65304e-06, 0.000461172, 0.522153, 0.534133, 0.278548, 0.000878733, 0.000861293, 0.00159867
-0.0231842, -0.0381565, -0.557855, 3.72014e-05, -2.63774e-06, 0.00046116, 0.522564, 0.534557, 0.278524, 0.000878712, 0.000861245, 0.00159866
-0.0230133, -0.0382235, -0.557509, 3.72075e-05, -2.67589e-06, 0.000461163, 0.523051, 0.535056, 0.278504, 0.000878681, 0.000861201, 0.00159865
-0.0227499, -0.0381692, -0.556776, 3.72398e-05, -2.73293e-06, 0.00046116, 0.5236, 0.53562, 0.27849, 0.000878641, 0.000861157, 0.00159864
-0.0225407, -0.0383587, -0.557044, 3.72243e-05, -2.75115e-06, 0.000461175, 0.524199, 0.536235, 0.278477, 0.000878592, 0.000861112, 0.00159862
-0.0221336, -0.038234, -0.557405, 3.72542e-05, -2.77645e-06, 0.000461173, 0.524849, 0.536903, 0.278473, 0.000878537, 0.000861063, 0.00159861
-0.0222058, -0.0382607, -0.557366, 3.72467e-05, -2.77401e-06, 0.000461174, 0.525538, 0.537612, 0.278471, 0.000878478, 0.000861012, 0.0015986
-0.022726, -0.0385566, -0.557715, 3.71822e-05, -2.72515e-06, 0.00046119, 0.526257, 0.538351, 0.278473, 0.000878415, 0.000860958, 0.00159859
-0.0229158, -0.0386861, -0.558629, 3.71505e-05, -2.71624e-06, 0.000461199, 0.526995, 0.539112, 0.278476, 0.000878352, 0.000860903, 0.00159858
-0.0230773, -0.038906, -0.558138, 3.7124e-05, -2.6999e-06, 0.000461211, 0.527745, 0.539884, 0.278473, 0.000878289, 0.000860846, 0.00159857
-0.0231004, -0.0389718, -0.558517, 3.71108e-05, -2.70454e-06, 0.000461216, 0.528495, 0.540656, 0.278469, 0.000878227, 0.000860791, 0.00159856
-0.0232986, -0.0390415, -0.558666, 3.70988e-05, -2.68672e-06, 0.000461218, 0.529249, 0.541432, 0.278472, 0.000878167, 0.000860737, 0.00159855
-0.0235402, -0.0395173, -0.558151, 3.70385e-05, -2.65885e-06, 0.000461248, 0.530002, 0.542205, 0.278479, 0.00087811, 0.000860684, 0.00159854
-0.0238023, -0.0400338, -0.558303, 3.69726e-05, -2.63912e-06, 0.000461277, 0.530746, 0.542969, 0.278484, 0.000878055, 0.000860633, 0.00159853
-0.023674, -0.0400422, -0.558136, 3.69771e-05, -2.65298e-06, 0.000461274, 0.531487, 0.543727, 0.278491, 0.000878002, 0.000860584, 0.00159852
-0.0237442, -0.0399785, -0.558793, 3.69834e-05, -2.65369e-06, 0.000461271, 0.532221, 0.544477, 0.2785, 0.000877951, 0.000860537, 0.00159851
-0.0238651, -0.0400159, -0.559247, 3.69789e-05, -2.6457e-06, 0.000461272, 0.532948, 0.545219, 0.2785, 0.000877901, 0.00086049, 0.00159851
-0.0240104, -0.0402777, -0.559046, 3.69503e-05, -2.62812e-06, 0.000461285, 0.533672, 0.545956, 0.278501, 0.000877853, 0.000860445, 0.0015985
-0.0238673, -0.0403701, -0.559661, 3.69416e-05, -2.64922e-06, 0.000461287, 0.534389, 0.546685, 0.278505, 0.000877806, 0.000860401, 0.00159849
-0.024108, -0.0404887, -0.559547, 3.69285e-05, -2.62129e-06, 0.000461296, 0.5351, 0.547405, 0.278509, 0.000877761, 0.000860358, 0.00159849
-0.0242899, -0.0406071, -0.559506, 3.69169e-05, -2.60241e-06, 0.000461302, 0.535799, 0.548114, 0.278509, 0.000877716, 0.000860317, 0.00159848
-0.0244188, -0.0406754, -0.559471, 3.69102e-05, -2.5895e-06, 0.000461307, 0.536486, 0.548811, 0.278504, 0.000877674, 0.000860277, 0.00159847
-0.024506, -0.0407772, -0.559464, 3.69006e-05, -2.57961e-06, 0.000461312, 0.537165, 0.549498, 0.2785, 0.000877632, 0.000860237, 0.00159847
-0.0244042, -0.0405107, -0.558854, 3.69273e-05, -2.59308e-06, 0.000461293, 0.537837, 0.550179, 0.278496, 0.000877591, 0.000860199, 0.00159846
-0.0246506, -0.0406819, -0.559126, 3.69084e-05, -2.56724e-06, 0.000461309, 0.538505, 0.550856, 0.278497, 0.000877551, 0.000860161, 0.00159846
-0.0247423, -0.0408696, -0.559216, 3.68905e-05, -2.55757e-06, 0.000461316, 0.539175, 0.551533, 0.278503, 0.000877511, 0.000860124, 0.00159845
-0.0247818, -0.040648, -0.558655, 3.69149e-05, -2.55526e-06, 0.000461302, 0.539841, 0.552207, 0.278504, 0.000877471, 0.000860086, 0.00159844
