-0.00517139, -0.000615339, -0.55855, -7.2655e-05, 0.000487252, 0.000295508, 0.0316228, 0.0316228, 0.0316228, 0.0316228, 0.0316228, 0.0316228
-0.00517139, -0.000615339, -0.55855, -7.2655e-05, 0.000487252, 0.000295508, 0.172256, 0.172256, 0.172256, 0.0316228, 0.0316228, 0.0316228
-0.00556326, -0.000773075, -0.557402, -0.000117397, 0.000613158, 0.00029509, 0.19313, 0.193087, 0.193096, 0.0315721, 0.0315756, 0.031607
-0.00816961, -0.000772185, -0.56002, -0.0001358, 0.00102526, 0.000286244, 0.211625, 0.211488, 0.211381, 0.0314786, 0.0314915, 0.031591
-0.00833239, -0.000103759, -0.559668, -7.34547e-06, 0.000871651, 0.000304752, 0.228099, 0.227963, 0.227068, 0.0313218, 0.0313359, 0.0315752
-0.0104783, -0.000346499, -0.568245, -4.30522e-05, 0.00126113, 0.000281432, 0.242968, 0.242952, 0.239861, 0.0311047, 0.0311062, 0.0315593
-0.00885395, -0.00172745, -0.586295, -0.000287952, 0.000828523, 0.000262528, 0.256808, 0.256769, 0.250077, 0.0308329, 0.0308453, 0.031543
-0.00783854, -0.00252391, -0.599057, -0.000434479, 0.000357152, 0.000264955, 0.270107, 0.269591, 0.259547, 0.0304946, 0.0305966, 0.031522
-0.00670772, -0.00131357, -0.600684, -0.000206158, 0.000107275, 0.000237741, 0.282923, 0.281494, 0.269506, 0.0301015, 0.0303712, 0.0314957
-0.00710859, -0.000549524, -0.613294, 2.26602e-07, 5.76665e-06, 0.000240173, 0.294651, 0.292564, 0.278154, 0.0296588, 0.0300545, 0.0314741
-0.00673888, 0.000565575, -0.632034, 0.0002628, -7.74169e-05, 0.000213669, 0.30472, 0.302762, 0.283457, 0.0291694, 0.0295475, 0.0314523
-0.00529927, 0.00245796, -0.601939, 0.000267326, -0.000268229, 0.000194948, 0.313375, 0.312029, 0.285592, 0.0286187, 0.0288906, 0.0314329
-0.00442987, 0.00461839, -0.582555, 0.000528277, -0.000458319, 0.000198602, 0.321411, 0.320382, 0.287193, 0.0280143, 0.0282308, 0.0314172
-0.00520854, 0.00552802, -0.55995, 0.000524546, -0.000712804, 0.00019221, 0.32877, 0.327914, 0.287687, 0.02737, 0.0275616, 0.0314015
-0.00463833, 0.00544176, -0.547332, 0.000502324, -0.000961542, 0.000192564, 0.33544, 0.33484, 0.286615, 0.0267194, 0.0268827, 0.0313837
-0.00482634, 0.00509574, -0.539273, 0.00045651, -0.00115119, 0.000196555, 0.34163, 0.341322, 0.283626, 0.0260666, 0.0261838, 0.0313625
-0.00578292, 0.00573747, -0.528517, 0.000508048, -0.00118325, 0.000193983, 0.347969, 0.347514, 0.280528, 0.0253979, 0.0255115, 0.0313367
-0.00377403, 0.00492964, -0.527482, 0.000402189, -0.00145081, 0.000180938, 0.354897, 0.353711, 0.279709, 0.0247173, 0.0249166, 0.0313063
-0.00220858, 0.00273108, -0.533765, 0.000122943, -0.00138019, 0.000121581, 0.362234, 0.360093, 0.281077, 0.0240408, 0.0243742, 0.0312669
-0.00224563, 8.2292e-05, -0.542304, -7.79243e-05, -0.00113892, 8.18721e-05, 0.369875, 0.366833, 0.283178, 0.0233582, 0.0238274, 0.0312152
-0.00361305, -0.00200711, -0.547921, -0.000263086, -0.000713942, 1.45436e-05, 0.377306, 0.37402, 0.285219, 0.0226834, 0.0231895, 0.0311552
-0.00694093, -0.00170016, -0.539541, -0.000242797, -0.00073238, 1.24893e-05, 0.384041, 0.381752, 0.28767, 0.0220751, 0.022418, 0.0310986
-0.00661245, -0.0023705, -0.539102, -0.000275543, -0.000835133, -1.33975e-05, 0.39059, 0.390068, 0.292799, 0.0215794, 0.0216148, 0.0310582
-0.00705687, -0.00383847, -0.543226, -0.00045253, -0.000775067, -6.75755e-05, 0.397511, 0.398814, 0.301267, 0.0212111, 0.0208784, 0.0310278
-0.00828422, -0.00568035, -0.547011, -0.000714528, -0.000615434, -0.000136128, 0.404954, 0.407724, 0.311759, 0.0209467, 0.0202581, 0.0310027
-0.00797036, -0.00592388, -0.552633, -0.00103335, -0.000610746, -0.000221361, 0.412653, 0.41653, 0.322234, 0.0207144, 0.0197283, 0.0309759
-0.00747694, -0.00652272, -0.559343, -0.0015835, -0.000617962, -0.000380942, 0.420359, 0.424977, 0.331225, 0.0204432, 0.0192466, 0.030945
-0.00694937, -0.00397914, -0.567055, -0.00186098, -0.000554883, -0.000449847, 0.427977, 0.432672, 0.337382, 0.0200625, 0.018789, 0.030915
-0.00622254, -0.00154695, -0.574867, -0.0022833, -0.000521916, -0.000556445, 0.435617, 0.439158, 0.340249, 0.0195186, 0.0183435, 0.0308846
-0.00524449, 0.00261561, -0.583685, -0.00281953, -0.000516487, -0.000649276, 0.443305, 0.444007, 0.341018, 0.0188235, 0.0179226, 0.0308457
-0.00481405, 0.006082, -0.592497, -0.00377875, -0.000546344, -0.000793068, 0.451022, 0.446825, 0.340717, 0.0180061, 0.017524, 0.0307889
-0.0043751, 0.00936805, -0.595571, -0.00375818, -0.000508212, -0.000782608, 0.458754, 0.447301, 0.338599, 0.0170862, 0.0171353, 0.0307031
-0.00513723, 0.00981154, -0.59405, -0.00349696, -0.00038116, -0.000667343, 0.46638, 0.44543, 0.335699, 0.0161785, 0.0167727, 0.0305667
-0.00658555, 0.00627415, -0.587356, -0.00296918, -0.000267204, -0.000528969, 0.473865, 0.442123, 0.33474, 0.0153996, 0.016459, 0.0303801
-0.00694075, 0.00342129, -0.581584, -0.00253804, -0.000227017, -0.000471607, 0.481188, 0.438086, 0.336695, 0.0147799, 0.0162006, 0.03015
-0.0069089, 0.00257414, -0.574542, -0.00197417, -0.000198925, -0.000442139, 0.488375, 0.433961, 0.340827, 0.0143082, 0.0159881, 0.0298768
-0.00763964, 0.00260622, -0.564654, -0.0013086, -0.000141924, -0.000334573, 0.495357, 0.430359, 0.346585, 0.0139718, 0.0158179, 0.0295597
-0.00829044, 0.00563173, -0.557943, -0.000903454, -7.72946e-05, -0.000210786, 0.502115, 0.427523, 0.353535, 0.0137329, 0.0156845, 0.0292095
-0.00839408, 0.00703719, -0.553646, -0.000680967, -4.26435e-05, -0.000153066, 0.508757, 0.425378, 0.361276, 0.0135441, 0.0155773, 0.0288282
-0.00905601, 0.00571502, -0.548889, -0.000464068, -3.98957e-06, -4.8404e-05, 0.515355, 0.423878, 0.369354, 0.0133823, 0.0154882, 0.0284217
-0.00974569, 0.00260834, -0.543623, -0.000267806, 2.8269e-05, 6.59175e-05, 0.521928, 0.423899, 0.377364, 0.0132579, 0.0154118, 0.0280017
-0.0106285, -0.000138689, -0.536956, -6.76615e-05, 3.97429e-05, 0.000133475, 0.528477, 0.42617, 0.385162, 0.0131718, 0.0153457, 0.0275728
-0.0113455, -0.00164988, -0.530174, 0.000108495, 2.88612e-05, 0.000150138, 0.534963, 0.430191, 0.392713, 0.0131039, 0.0152906, 0.0271352
-0.0114718, -0.00399714, -0.525941, 0.000212595, -7.61267e-06, 4.76248e-05, 0.541417, 0.435612, 0.399936, 0.0130329, 0.0152445, 0.0266833
-0.0120063, -0.00656, -0.520413, 0.000272406, -6.04132e-05, -9.02138e-05, 0.547865, 0.442662, 0.406652, 0.0129445, 0.0152039, 0.0262071
-0.0121813, -0.00814869, -0.516774, 0.000208753, -7.54699e-05, -0.000173771, 0.554287, 0.450752, 0.412653, 0.0128066, 0.0151682, 0.025709
-0.012103, -0.00796425, -0.51633, 0.000104577, -6.99806e-05, -0.000138438, 0.560586, 0.458994, 0.417628, 0.0125947, 0.0151395, 0.0251915
-0.0107308, -0.00635233, -0.520491, 2.8115e-05, -3.29642e-05, -1.88291e-05, 0.566735, 0.46692, 0.421141, 0.0123052, 0.0151185, 0.0246592
-0.00943551, -0.00399272, -0.524949, -0.000115511, -7.95484e-06, 8.97549e-05, 0.572645, 0.47456, 0.422483, 0.0119341, 0.0151031, 0.0241401
-0.00719735, -0.00132893, -0.531738, -0.000258471, 1.12855e-05, 0.000102145, 0.57827, 0.482078, 0.420865, 0.0115017, 0.0150915, 0.0236678
-0.00654805, -0.000430263, -0.531149, -0.000413722, 1.30751e-05, 3.66608e-05, 0.583652, 0.489677, 0.41592, 0.0110493, 0.015082, 0.0232647
-0.00555458, 0.000175091, -0.53286, -0.000507732, 3.11518e-05, 3.58222e-05, 0.588902, 0.49734, 0.408057, 0.0106046, 0.0150715, 0.0229542
-0.00474952, -0.00048341, -0.536757, -0.0004462, 2.90832e-05, 6.89066e-05, 0.593917, 0.504684, 0.397187, 0.0101657, 0.0150571, 0.022733
-0.00325501, -0.00157061, -0.541178, -0.000416034, 3.67843e-05, 5.23514e-05, 0.598823, 0.511196, 0.384502, 0.00975137, 0.0150365, 0.022585
-0.00228981, -0.00314755, -0.544843, -0.000388369, 5.06899e-05, 6.24254e-05, 0.603695, 0.516109, 0.371398, 0.0093687, 0.0150062, 0.0224959
-0.000741985, -0.00465536, -0.547575, -0.000349278, 3.16488e-05, 3.54927e-05, 0.608505, 0.518434, 0.357987, 0.00900062, 0.0149632, 0.0224529
0.000612786, -0.00335108, -0.542911, -0.00049934, 2.32289e-05, 1.38663e-05, 0.613263, 0.517139, 0.345149, 0.00863657, 0.0149034, 0.0224375
0.00197477, -0.00139941, -0.539826, -0.000575064, -2.21325e-05, 2.53461e-05, 0.617999, 0.511984, 0.334759, 0.00829299, 0.0148204, 0.0224264
0.00321339, -0.00172244, -0.538383, -0.000625407, -4.79616e-05, 4.65127e-05, 0.622787, 0.503178, 0.327511, 0.00798006, 0.0147079, 0.0223997
0.00310921, -0.000984496, -0.540746, -0.000572649, -0.000110156, 7.62868e-05, 0.627626, 0.491081, 0.323232, 0.00769936, 0.0145608, 0.0223401
0.00236474, 0.000395822, -0.544224, -0.000504634, -0.000174374, 0.000105816, 0.632505, 0.47645, 0.321538, 0.00744392, 0.0143798, 0.022233
0.00107763, 0.00123542, -0.550326, -0.000396966, -0.000233016, 0.000130022, 0.637389, 0.460318, 0.321983, 0.00721159, 0.0141708, 0.0220671
-0.000783068, 0.00320896, -0.556765, -0.000294454, -0.000248526, 0.000105826, 0.642241, 0.443759, 0.324045, 0.00700315, 0.0139436, 0.0218369
-0.00256646, 0.00471337, -0.563937, -0.000193113, -0.000248585, 6.96206e-05, 0.647028, 0.427948, 0.327224, 0.00682371, 0.0137105, 0.0215454
-0.00339771, 0.00414176, -0.569989, -0.000112712, -0.000251175, 5.4756e-05, 0.651772, 0.414243, 0.331104, 0.00668122, 0.0134816, 0.0211961
-0.00387321, 0.00609471, -0.579371, -3.26352e-05, -0.000285203, 0.000104924, 0.656507, 0.404057, 0.335508, 0.0065799, 0.0132667, 0.0207959
-0.00468769, 0.00857731, -0.586945, 1.8795e-05, -0.000263885, 6.29812e-05, 0.661257, 0.397886, 0.340385, 0.00651225, 0.0130699, 0.0203619
-0.00431518, 0.0062558, -0.592722, 6.67332e-05, -0.000241677, 3.80417e-05, 0.666, 0.395373, 0.345536, 0.00646996, 0.0128953, 0.0199222
-0.00420234, 0.00602845, -0.596049, 8.47173e-05, -0.000229868, 2.02594e-05, 0.670622, 0.395968, 0.3506, 0.00644655, 0.0127483, 0.0195052
-0.0028884, -0.00316772, -0.604582, 0.000105475, -0.00018852, -4.35033e-05, 0.675026, 0.399077, 0.35516, 0.00643166, 0.0126277, 0.0191273
-0.00243091, -0.00542522, -0.607319, 0.000101279, -0.000189722, -5.42577e-05, 0.679146, 0.403936, 0.358717, 0.00641027, 0.0125292, 0.0187966
-0.00480497, -0.00178864, -0.59633, 0.000127178, -0.000212378, -3.16891e-05, 0.68308, 0.409983, 0.360763, 0.00636613, 0.0124452, 0.0185207
-0.00764059, 0.000560701, -0.584237, 0.000152608, -0.000255389, 9.80501e-06, 0.686687, 0.416865, 0.36079, 0.00628983, 0.0123745, 0.0182999
-0.011682, -0.000426034, -0.574214, 0.00012545, -0.000300396, 6.84174e-06, 0.689964, 0.424421, 0.358767, 0.00618175, 0.012314, 0.0181296
-0.0149339, -0.00166741, -0.563513, 0.00010855, -0.000361648, 4.33645e-05, 0.693122, 0.432388, 0.355129, 0.00605207, 0.0122574, 0.017998
-0.0182081, -0.00345184, -0.555796, 0.000104678, -0.000397426, 4.40245e-05, 0.696434, 0.440313, 0.350259, 0.00591375, 0.0122006, 0.0179014
-0.0204213, -0.00488619, -0.552024, 0.000107765, -0.000397545, 2.17184e-05, 0.700109, 0.447606, 0.34447, 0.00577583, 0.0121389, 0.0178329
-0.0214538, -0.00567489, -0.552801, 7.69601e-05, -0.000380493, -1.15013e-05, 0.704112, 0.453613, 0.338538, 0.00564231, 0.0120712, 0.017787
-0.0228972, -0.007421, -0.557291, -3.37041e-05, -0.000380347, -5.53172e-05, 0.708354, 0.457642, 0.333425, 0.00550913, 0.0119964, 0.0177601
-0.0245493, -0.0102101, -0.561383, -0.000143778, -0.000360321, -0.000105366, 0.712785, 0.458975, 0.329599, 0.00537585, 0.0119157, 0.0177457
-0.0250296, -0.011529, -0.564266, -0.000199341, -0.000357999, -0.000122962, 0.717411, 0.457045, 0.327139, 0.00524823, 0.0118317, 0.0177386
-0.0252066, -0.0107225, -0.564728, -0.000205826, -0.000325644, -0.000124456, 0.722224, 0.451577, 0.326044, 0.00512927, 0.0117463, 0.0177337
-0.0253868, -0.00906108, -0.564077, -0.000203147, -0.000278161, -0.000110054, 0.727184, 0.442763, 0.326305, 0.00501944, 0.0116629, 0.0177261
-0.0254757, -0.00649461, -0.562335, -0.000194114, -0.000245293, -9.42411e-05, 0.732227, 0.43134, 0.327753, 0.00491844, 0.0115827, 0.0177121
-0.0252202, -0.00325835, -0.560429, -0.00018765, -0.000231834, -8.96869e-05, 0.737303, 0.418374, 0.330135, 0.0048244, 0.0115054, 0.0176884
-0.0251086, -0.00182368, -0.560643, -0.000195188, -0.000224651, -8.61868e-05, 0.74238, 0.404843, 0.333144, 0.00473697, 0.0114341, 0.0176522
-0.0252724, 0.00112448, -0.557817, -0.000189671, -0.000208875, -6.28814e-05, 0.747443, 0.391622, 0.336456, 0.00465788, 0.0113694, 0.0176027
-0.0247784, -0.00400877, -0.562817, -0.000197861, -0.000217918, -8.89296e-05, 0.75251, 0.379849, 0.339834, 0.00459257, 0.0113078, 0.0175436
-0.0244847, -0.00723862, -0.561876, -0.000175799, -0.000237788, -0.000118796, 0.757551, 0.370573, 0.343165, 0.00454278, 0.0112485, 0.0174739
-0.0250371, -0.00979658, -0.557812, -0.000151023, -0.000241354, -0.000108923, 0.762501, 0.364338, 0.34625, 0.00450739, 0.0111963, 0.01739
-0.02538, -0.0102384, -0.554843, -0.000140031, -0.000248211, -0.000109035, 0.767356, 0.36095, 0.34926, 0.00448248, 0.0111507, 0.0172863
-0.0249801, -0.0117492, -0.555769, -0.000144297, -0.000232381, -9.14092e-05, 0.772119, 0.35975, 0.352261, 0.0044634, 0.0111116, 0.0171579
-0.0252355, -0.0116391, -0.554469, -0.000140493, -0.000239041, -9.72438e-05, 0.776768, 0.360293, 0.355153, 0.00444736, 0.0110791, 0.0170027
-0.024584, -0.0084949, -0.556065, -0.000138294, -0.000236479, -9.63449e-05, 0.781259, 0.362455, 0.357812, 0.0044312, 0.0110522, 0.0168254
-0.0248667, -0.00823882, -0.555845, -0.000141141, -0.000232123, -6.8453e-05, 0.785487, 0.366086, 0.359994, 0.00441049, 0.0110323, 0.0166284
-0.0217498, -0.000600305, -0.565783, -0.000111117, -0.000202723, -1.47113e-06, 0.789462, 0.370856, 0.361542, 0.00438132, 0.0110182, 0.0164189
-0.0208882, 0.00284839, -0.570114, -9.19565e-05, -0.000184553, 7.85523e-05, 0.793118, 0.37673, 0.362399, 0.00434287, 0.0110074, 0.0162098
-0.0199146, 0.00503911, -0.574115, -6.62324e-05, -0.000177848, 0.000114776, 0.796367, 0.383781, 0.362143, 0.00429294, 0.0109982, 0.0160182
-0.0206751, 0.00560787, -0.571583, -6.53018e-05, -0.00018443, 0.000109109, 0.799342, 0.391705, 0.360383, 0.00422843, 0.0109893, 0.0158511
-0.0205212, 0.00593067, -0.566972, -8.41136e-05, -0.000192469, 5.02652e-05, 0.802129, 0.399882, 0.356894, 0.00414748, 0.0109806, 0.015712
-0.0199062, 0.00648896, -0.562207, -0.000112701, -0.00019097, 1.81866e-06, 0.804884, 0.407548, 0.352409, 0.00405958, 0.0109701, 0.0156066
-0.0186463, 0.0070394, -0.556491, -0.000156939, -0.000180271, -3.64964e-05, 0.807612, 0.41395, 0.347322, 0.00397414, 0.0109562, 0.0155426
-0.0178827, 0.00779737, -0.554072, -0.000171734, -0.000180769, -5.38975e-05, 0.810328, 0.418398, 0.342185, 0.00389725, 0.0109352, 0.0155127
-0.0170124, 0.00890647, -0.551413, -0.000188629, -0.000182882, -6.79348e-05, 0.812971, 0.420403, 0.337516, 0.00382548, 0.0109043, 0.0155023
-0.0167364, 0.00989237, -0.551152, -0.000188479, -0.000199457, -6.785e-05, 0.815456, 0.419575, 0.333722, 0.00375596, 0.0108624, 0.0154981
-0.0169294, 0.0104351, -0.552191, -0.000181176, -0.000221183, -5.90859e-05, 0.817768, 0.415593, 0.330897, 0.00368841, 0.0108091, 0.0154868
-0.0169021, 0.0106964, -0.55314, -0.000177299, -0.000248813, -3.9345e-05, 0.819949, 0.408475, 0.329096, 0.00362275, 0.0107445, 0.0154532
-0.019558, 0.0124514, -0.557339, -0.000155591, -0.000293073, -2.80671e-05, 0.822128, 0.39878, 0.328209, 0.00355917, 0.0106667, 0.0153851
-0.0229269, 0.0154716, -0.563049, -0.000136625, -0.00037292, 1.54762e-05, 0.824473, 0.387463, 0.328116, 0.00349741, 0.0105763, 0.015277
-0.0275051, 0.0186275, -0.571779, -0.000108316, -0.000462479, 5.70544e-05, 0.82715, 0.375615, 0.328586, 0.00343854, 0.0104747, 0.0151277
-0.0328064, 0.0241372, -0.580267, -8.39333e-05, -0.000508028, 2.51459e-05, 0.830259, 0.364409, 0.329427, 0.00338468, 0.0103681, 0.0149385
-0.0366269, 0.0286842, -0.588668, -6.90514e-05, -0.000566083, 3.77635e-05, 0.833811, 0.355013, 0.330688, 0.00333763, 0.0102649, 0.0147175
-0.0394215, 0.0314993, -0.596148, -4.90401e-05, -0.000577151, -6.9725e-06, 0.837704, 0.348106, 0.332435, 0.00329852, 0.010172, 0.0144801
-0.0406201, 0.0315207, -0.600557, -3.40037e-05, -0.00057372, -4.39982e-05, 0.841781, 0.343675, 0.334639, 0.00326787, 0.0100933, 0.0142462
-0.0406685, 0.0277805, -0.604266, -1.61382e-05, -0.000562027, -7.49324e-05, 0.845878, 0.341235, 0.337169, 0.00324537, 0.0100287, 0.0140337
-0.0405407, 0.0237205, -0.605886, -4.1626e-06, -0.000541561, -0.000116176, 0.849816, 0.340242, 0.339784, 0.00322916, 0.00997653, 0.0138501
-0.0403064, 0.018228, -0.605176, -3.13867e-06, -0.000537839, -0.000131471, 0.853407, 0.340277, 0.342184, 0.00321715, 0.00993447, 0.0136955
-0.0407168, 0.0144986, -0.602853, -9.03069e-06, -0.000545939, -0.000136543, 0.856712, 0.340705, 0.343976, 0.00320718, 0.00989736, 0.0135718
-0.042253, 0.0125211, -0.596844, -2.2409e-05, -0.000567852, -0.000131592, 0.859821, 0.340845, 0.344773, 0.00319693, 0.00986473, 0.0134759
-0.042993, 0.0095658, -0.593304, -3.64088e-05, -0.000591474, -0.000112509, 0.862884, 0.340793, 0.344661, 0.00318556, 0.00983578, 0.0134033
-0.0459374, 0.0100018, -0.584125, -4.81521e-05, -0.000613059, -0.000101576, 0.866072, 0.341283, 0.344065, 0.00317376, 0.00980766, 0.0133498
-0.049562, 0.0131402, -0.571108, -4.78028e-05, -0.000634255, -8.18513e-05, 0.869424, 0.342884, 0.34313, 0.00316197, 0.00977767, 0.0133103
-0.0492056, 0.00778671, -0.577291, -6.58579e-05, -0.000631431, -0.00010037, 0.872906, 0.345569, 0.341641, 0.00314968, 0.00974448, 0.0132817
-0.0516162, 0.00684748, -0.570843, -6.11737e-05, -0.000621871, -0.000105357, 0.87641, 0.348983, 0.339546, 0.00313661, 0.00970786, 0.0132607
-0.0532282, 0.00272549, -0.575735, -8.24758e-05, -0.000637711, -0.000117109, 0.879768, 0.352868, 0.336983, 0.00312267, 0.00966581, 0.0132422
-0.0565125, -0.000469684, -0.568248, -7.5468e-05, -0.000650063, -0.000114715, 0.882769, 0.35708, 0.33416, 0.00310871, 0.00961594, 0.0132243
-0.0607107, -0.0041486, -0.560086, -6.43814e-05, -0.000669775, -0.000117899, 0.885083, 0.361697, 0.331157, 0.00309484, 0.00955616, 0.0132051
-0.066141, -0.00904661, -0.556121, -6.10179e-05, -0.000738209, -0.000119623, 0.886321, 0.366806, 0.328014, 0.00308103, 0.00948406, 0.013186
-0.072042, -0.013098, -0.556258, -6.48444e-05, -0.000816821, -0.000128698, 0.885803, 0.372329, 0.324806, 0.00306685, 0.00939329, 0.0131708
-0.0769354, -0.0154454, -0.559427, -7.28477e-05, -0.000888755, -0.000136567, 0.882226, 0.377976, 0.321419, 0.0030518, 0.00927055, 0.0131615
-0.0797615, -0.0165009, -0.561828, -7.60608e-05, -0.000938759, -0.000138129, 0.873431, 0.383368, 0.317615, 0.00303581, 0.00909451, 0.013157
-0.079431, -0.0165937, -0.562458, -7.42249e-05, -0.000951537, -0.000138442, 0.856758, 0.38834, 0.313277, 0.00301885, 0.00883946, 0.0131549
-0.0738918, -0.0154555, -0.56196, -6.96995e-05, -0.000909187, -0.000139208, 0.82989, 0.392811, 0.308627, 0.00300169, 0.00848136, 0.0131535
-0.0580726, -0.0121092, -0.560336, -6.28014e-05, -0.000761037, -0.000142357, 0.792024, 0.396861, 0.303922, 0.00298499, 0.00800872, 0.013152
-0.0441222, -0.00985674, -0.557835, -5.7075e-05, -0.000629473, -0.000148865, 0.745492, 0.401054, 0.29945, 0.00296899, 0.0074467, 0.0131505
-0.0189382, -0.00626971, -0.551287, -4.53793e-05, -0.000375962, -0.000156491, 0.696034, 0.405702, 0.295749, 0.00295411, 0.00685721, 0.0131489
-6.9527e-05, -0.00316998, -0.548931, -4.48581e-05, -0.000187038, -0.000167729, 0.649723, 0.410643, 0.293118, 0.00294027, 0.00630949, 0.0131471
0.0161668, 0.000376312, -0.549357, -5.10365e-05, -2.01182e-05, -0.00018334, 0.609968, 0.41545, 0.291357, 0.00292781, 0.00584664, 0.0131443
0.0287688, 0.00384888, -0.547897, -5.79324e-05, 0.000123411, -0.000204378, 0.577471, 0.419781, 0.289916, 0.00291666, 0.00548314, 0.0131403
0.0367269, 0.00688817, -0.546206, -6.47453e-05, 0.000223182, -0.000225616, 0.551081, 0.423655, 0.288503, 0.00290722, 0.00521103, 0.0131352
0.0383531, 0.0105172, -0.547032, -7.39363e-05, 0.000269951, -0.000249548, 0.529396, 0.427286, 0.287099, 0.00290014, 0.00501431, 0.0131292
0.0404376, 0.0144436, -0.548838, -8.25173e-05, 0.000315063, -0.000275303, 0.511446, 0.43101, 0.285957, 0.00289561, 0.00487647, 0.0131216
0.04267, 0.0177982, -0.552341, -8.8434e-05, 0.000348355, -0.000299186, 0.496913, 0.43514, 0.285166, 0.00289302, 0.00478329, 0.0131135
0.044823, 0.0199129, -0.557737, -9.01107e-05, 0.000368118, -0.000315549, 0.486061, 0.439882, 0.28454, 0.00289166, 0.00472512, 0.0131061
0.0455154, 0.02184, -0.556092, -9.03869e-05, 0.000381765, -0.000333167, 0.479165, 0.445208, 0.284125, 0.002891, 0.0046953, 0.0130987
0.0458072, 0.0242395, -0.555721, -8.83403e-05, 0.000391283, -0.000352054, 0.476034, 0.450851, 0.283853, 0.00289034, 0.00468424, 0.0130918
0.0470123, 0.0261268, -0.554029, -8.64177e-05, 0.000396296, -0.000362435, 0.476368, 0.456392, 0.283634, 0.00288908, 0.00468221, 0.0130852
0.0479808, 0.0278545, -0.558633, -8.24458e-05, 0.000388737, -0.000364248, 0.479451, 0.46117, 0.283523, 0.00288661, 0.00467771, 0.0130773
0.0486731, 0.0290754, -0.55801, -8.08249e-05, 0.000383234, -0.000364319, 0.484419, 0.464297, 0.283611, 0.00288253, 0.0046613, 0.0130674
0.0495049, 0.0297952, -0.561476, -7.93938e-05, 0.000376386, -0.00036146, 0.490512, 0.464978, 0.283818, 0.00287622, 0.00462131, 0.0130579
0.047148, 0.0325079, -0.549239, -8.08414e-05, 0.000336172, -0.000349982, 0.496696, 0.462598, 0.284122, 0.00286686, 0.00454636, 0.0130495
0.0482901, 0.0331108, -0.550921, -8.79326e-05, 0.000315074, -0.000337752, 0.501823, 0.457, 0.284561, 0.00285353, 0.0044295, 0.0130408
0.0501748, 0.0340951, -0.555421, -9.65344e-05, 0.000294599, -0.000326474, 0.505121, 0.448737, 0.284993, 0.00283597, 0.00427277, 0.0130329
0.0495218, 0.0346005, -0.553039, -9.69364e-05, 0.000284441, -0.000322437, 0.506415, 0.438812, 0.285186, 0.00281593, 0.00408944, 0.0130284
0.0480816, 0.034629, -0.544064, -9.76395e-05, 0.000277659, -0.000320781, 0.50611, 0.428016, 0.285152, 0.00279611, 0.00390094, 0.0130258
0.047497, 0.035943, -0.545009, -9.78159e-05, 0.000264722, -0.00031937, 0.504678, 0.417137, 0.284811, 0.00277686, 0.00372354, 0.0130225
0.0479216, 0.0356562, -0.53857, -9.85746e-05, 0.000271176, -0.000324959, 0.501826, 0.407174, 0.284131, 0.00275794, 0.00356067, 0.0130185
0.04677, 0.0356651, -0.537075, -9.305e-05, 0.000271455, -0.000323204, 0.497025, 0.398726, 0.283459, 0.00273848, 0.00341098, 0.0130132
0.0485038, 0.0337034, -0.536767, -9.49172e-05, 0.000289049, -0.000317538, 0.489872, 0.391895, 0.283028, 0.00271743, 0.00327255, 0.0130044
0.0527272, 0.0320308, -0.542948, -0.000103118, 0.000311567, -0.000310858, 0.480498, 0.386342, 0.282901, 0.00269477, 0.00314785, 0.0129938
0.0535431, 0.0306876, -0.55112, -0.000100422, 0.00032259, -0.000304768, 0.469748, 0.381176, 0.28292, 0.00267117, 0.00304375, 0.0129866
0.051045, 0.0294212, -0.554233, -9.15655e-05, 0.000320167, -0.000299672, 0.457967, 0.375833, 0.282917, 0.00264645, 0.00296115, 0.0129837
0.0458987, 0.0275027, -0.549447, -7.85796e-05, 0.000309639, -0.000292396, 0.445303, 0.370642, 0.282863, 0.00262124, 0.00289464, 0.0129822
0.0398643, 0.0237266, -0.549326, -5.97399e-05, 0.000300252, -0.000292288, 0.43241, 0.366111, 0.28289, 0.00259668, 0.00284103, 0.0129807
0.0399069, 0.0203394, -0.561764, -4.73028e-05, 0.000309517, -0.000308677, 0.42041, 0.36271, 0.28298, 0.00257455, 0.00279937, 0.0129777
0.0382038, 0.0182465, -0.567009, -3.84954e-05, 0.00030854, -0.000317519, 0.410352, 0.360734, 0.282942, 0.00255671, 0.00276887, 0.0129735
0.0358684, 0.01661, -0.565661, -3.2872e-05, 0.000304807, -0.000321023, 0.402778, 0.360156, 0.282761, 0.00254352, 0.00274863, 0.0129684
0.0317642, 0.0149709, -0.557894, -2.77248e-05, 0.000298096, -0.00032348, 0.397801, 0.360757, 0.28266, 0.00253483, 0.00273751, 0.0129622
0.0284428, 0.0138571, -0.550134, -2.47547e-05, 0.000294549, -0.00032808, 0.395468, 0.362246, 0.282627, 0.00252962, 0.00273357, 0.0129532
0.026577, 0.0122751, -0.544875, -2.33929e-05, 0.000294312, -0.000339852, 0.395528, 0.364247, 0.282599, 0.00252676, 0.0027332, 0.0129397
0.0268878, 0.0114525, -0.544109, -2.34111e-05, 0.000293947, -0.000346175, 0.397399, 0.366324, 0.282629, 0.00252577, 0.00273235, 0.0129246
0.02795, 0.0113514, -0.546805, -2.30552e-05, 0.000292022, -0.000345976, 0.400746, 0.368199, 0.282675, 0.00252552, 0.00272769, 0.0129099
0.0285035, 0.0112226, -0.548719, -2.35613e-05, 0.0002896, -0.000345806, 0.40531, 0.36973, 0.282665, 0.00252462, 0.00271645, 0.0128948
0.029419, 0.0113009, -0.552137, -2.2341e-05, 0.000284382, -0.000342093, 0.410666, 0.370819, 0.282629, 0.00252219, 0.00269758, 0.01288
0.0320607, 0.0116559, -0.558554, -1.61522e-05, 0.000269077, -0.000328644, 0.416367, 0.37141, 0.282582, 0.00251787, 0.00267181, 0.0128669
0.0335275, 0.0126833, -0.560852, -1.17578e-05, 0.000264061, -0.000316508, 0.421991, 0.371471, 0.28247, 0.00251124, 0.0026408, 0.0128579
0.0355838, 0.0130995, -0.560244, -4.10703e-06, 0.000256579, -0.000308964, 0.427056, 0.371087, 0.282391, 0.00250189, 0.00260573, 0.0128528
0.0374273, 0.012606, -0.563175, 1.58544e-06, 0.000249277, -0.000305116, 0.431109, 0.370299, 0.28235, 0.00248957, 0.00256781, 0.0128505
0.03889, 0.012295, -0.564131, 6.96632e-06, 0.000245575, -0.000305025, 0.43383, 0.369124, 0.282282, 0.00247409, 0.00252919, 0.0128493
0.0399871, 0.0120058, -0.561896, 1.20051e-05, 0.000243933, -0.000308568, 0.435036, 0.367604, 0.282083, 0.00245573, 0.00249212, 0.0128464
0.0425407, 0.0110713, -0.557896, 2.32615e-05, 0.000241254, -0.000317457, 0.434414, 0.365805, 0.28194, 0.00243547, 0.00245639, 0.0128393
0.0432735, 0.0116456, -0.555782, 2.55859e-05, 0.000244779, -0.000323453, 0.432048, 0.363775, 0.28177, 0.00241492, 0.00242385, 0.0128277
0.0429891, 0.0114758, -0.556153, 2.5142e-05, 0.000243787, -0.000323441, 0.428158, 0.361627, 0.281506, 0.00239617, 0.00239453, 0.0128143
0.0418373, 0.0120531, -0.555011, 2.2477e-05, 0.000244026, -0.000325265, 0.423052, 0.359503, 0.281214, 0.0023807, 0.00236861, 0.0128006
0.0414567, 0.0125024, -0.554617, 2.17814e-05, 0.0002445, -0.000329046, 0.417404, 0.35766, 0.280956, 0.00236877, 0.00234856, 0.0127819
0.0426172, 0.0150833, -0.550028, 2.33487e-05, 0.000252355, -0.000353087, 0.41208, 0.356541, 0.280765, 0.00236021, 0.0023355, 0.0127532
0.0439602, 0.0172429, -0.542395, 2.48443e-05, 0.000258352, -0.000374418, 0.407956, 0.356624, 0.280731, 0.00235369, 0.00232867, 0.0127126
0.0424784, 0.0198936, -0.541389, 2.67972e-05, 0.000258523, -0.000403964, 0.405717, 0.358078, 0.280783, 0.00234825, 0.00232598, 0.0126696
0.0413735, 0.021812, -0.539098, 2.85466e-05, 0.000258769, -0.000423765, 0.405598, 0.360643, 0.280725, 0.00234401, 0.00232511, 0.0126386
0.0423955, 0.0220702, -0.542376, 2.83117e-05, 0.000255525, -0.000425582, 0.407398, 0.363802, 0.280614, 0.00234099, 0.00232421, 0.0126233
0.0423341, 0.0219358, -0.547492, 3.01159e-05, 0.000253455, -0.000426619, 0.410868, 0.367184, 0.280488, 0.0023389, 0.00232125, 0.0126189
0.0434234, 0.0234987, -0.540118, 2.99437e-05, 0.000250507, -0.00042993, 0.415767, 0.370642, 0.280356, 0.00233731, 0.00231378, 0.0126176
0.0434272, 0.0237919, -0.539504, 3.01255e-05, 0.000250756, -0.000428571, 0.421646, 0.374059, 0.280263, 0.00233562, 0.00230048, 0.0126143
0.0446416, 0.0228337, -0.546059, 2.68376e-05, 0.000247048, -0.000428976, 0.428042, 0.377313, 0.280202, 0.00233336, 0.00228135, 0.0126085
0.0456706, 0.0219465, -0.549175, 2.35842e-05, 0.000244622, -0.000433562, 0.43447, 0.380192, 0.280151, 0.00233035, 0.00225794, 0.0126009
0.0464116, 0.0217429, -0.549847, 2.18886e-05, 0.000241675, -0.000438622, 0.440411, 0.382401, 0.280089, 0.00232673, 0.00223276, 0.012591
0.046089, 0.0218404, -0.544999, 2.30626e-05, 0.00024075, -0.000440273, 0.44523, 0.383604, 0.280033, 0.00232232, 0.00220816, 0.0125797
0.0468812, 0.0221719, -0.54334, 2.09703e-05, 0.000237786, -0.000445166, 0.448308, 0.38362, 0.28, 0.00231646, 0.00218477, 0.0125698
0.0493083, 0.0223404, -0.549351, 1.63852e-05, 0.000240193, -0.000451982, 0.448783, 0.382215, 0.280091, 0.00230871, 0.00216237, 0.0125642
0.0463323, 0.0223409, -0.542586, 2.01041e-05, 0.000233975, -0.000441894, 0.446202, 0.37934, 0.280282, 0.00229894, 0.00214014, 0.0125611
0.0437324, 0.021766, -0.539311, 2.39838e-05, 0.000229955, -0.000435443, 0.440633, 0.375211, 0.280512, 0.00228699, 0.00211759, 0.0125592
0.0400395, 0.0198946, -0.538787, 3.21215e-05, 0.000226672, -0.000435561, 0.4325, 0.370149, 0.280724, 0.00227251, 0.00209516, 0.0125568
0.0374552, 0.0163742, -0.5409, 4.2008e-05, 0.000227025, -0.000446908, 0.422809, 0.364694, 0.280746, 0.00225583, 0.00207391, 0.0125512
0.0348387, 0.0103819, -0.551148, 5.73018e-05, 0.000228361, -0.00047581, 0.412693, 0.359543, 0.280647, 0.00223882, 0.0020548, 0.0125411
0.033201, 0.00704133, -0.561423, 6.65445e-05, 0.000227522, -0.000494886, 0.40342, 0.355319, 0.280533, 0.00222424, 0.00203882, 0.0125298
0.0332626, 0.00618055, -0.570181, 6.93333e-05, 0.000228076, -0.00050092, 0.395836, 0.352352, 0.280497, 0.00221336, 0.00202675, 0.0125201
0.0341, 0.00643632, -0.577096, 6.94926e-05, 0.000229338, -0.000500788, 0.390408, 0.350687, 0.280529, 0.00220607, 0.00201901, 0.0125127
0.034481, 0.00732064, -0.577246, 6.82225e-05, 0.000229303, -0.000497199, 0.387205, 0.350195, 0.280616, 0.00220195, 0.00201504, 0.0125081
0.0352573, 0.00877253, -0.573361, 6.63288e-05, 0.000228396, -0.000491661, 0.386077, 0.35068, 0.280715, 0.00219997, 0.00201359, 0.0125052
0.036273, 0.0107026, -0.572779, 6.57103e-05, 0.000226951, -0.000487774, 0.38674, 0.351933, 0.280833, 0.00219907, 0.00201278, 0.0125034
0.0374957, 0.0124464, -0.575914, 6.57036e-05, 0.000224993, -0.000485513, 0.388848, 0.353673, 0.28086, 0.00219835, 0.00201093, 0.0125022
0.0351176, 0.0130607, -0.556373, 6.54328e-05, 0.000229863, -0.000494653, 0.392213, 0.355776, 0.280815, 0.00219687, 0.00200662, 0.0125009
0.0348788, 0.0126556, -0.556214, 6.44466e-05, 0.000229812, -0.000494841, 0.396614, 0.358157, 0.2808, 0.0021941, 0.00199856, 0.0124994
0.0360021, 0.0124151, -0.563966, 6.54383e-05, 0.000225525, -0.000490763, 0.401613, 0.360517, 0.280741, 0.00219017, 0.00198672, 0.0124978
0.0381286, 0.0134098, -0.562845, 7.07297e-05, 0.000219666, -0.000488131, 0.406715, 0.362602, 0.280746, 0.00218533, 0.00197144, 0.0124955
0.0404541, 0.0134836, -0.559946, 7.57942e-05, 0.000212031, -0.0004804, 0.411395, 0.364182, 0.280786, 0.0021801, 0.00195346, 0.0124921
0.0410701, 0.0137565, -0.560389, 7.70961e-05, 0.00021176, -0.000479947, 0.415197, 0.36508, 0.280783, 0.00217476, 0.0019341, 0.012488
0.040192, 0.0139485, -0.56054, 7.54975e-05, 0.000213482, -0.000485749, 0.417703, 0.365175, 0.280662, 0.0021692, 0.00191467, 0.0124843
0.0391218, 0.013645, -0.561581, 7.34363e-05, 0.000212899, -0.000488419, 0.418542, 0.364397, 0.280486, 0.00216297, 0.00189664, 0.0124818
0.0380552, 0.013321, -0.560426, 7.21037e-05, 0.000212085, -0.000492989, 0.417545, 0.362769, 0.2803, 0.00215583, 0.00188024, 0.0124803
0.0382855, 0.0125547, -0.551495, 7.41017e-05, 0.000211973, -0.000500588, 0.414707, 0.360424, 0.280167, 0.002148, 0.00186639, 0.0124787
0.0386007, 0.0114594, -0.55598, 7.51137e-05, 0.000210321, -0.00050326, 0.410366, 0.35772, 0.280145, 0.00214027, 0.00185607, 0.0124733
0.0381901, 0.0123401, -0.54881, 7.4861e-05, 0.000209326, -0.000503735, 0.405424, 0.355283, 0.280302, 0.00213348, 0.0018491, 0.0124592
0.0380858, 0.0126859, -0.540008, 7.42417e-05, 0.000207491, -0.000497254, 0.401181, 0.353763, 0.280563, 0.00212788, 0.0018446, 0.0124373
0.0364398, 0.0128318, -0.541315, 7.24863e-05, 0.000206458, -0.000494627, 0.398443, 0.353385, 0.280789, 0.00212337, 0.00184204, 0.0124136
0.0359264, 0.0122713, -0.545256, 7.09568e-05, 0.000204743, -0.00048813, 0.397296, 0.353922, 0.280802, 0.00211945, 0.00184058, 0.0123927
0.0341251, 0.013723, -0.535709, 7.01701e-05, 0.000209072, -0.000494782, 0.397187, 0.354806, 0.280649, 0.00211584, 0.00183873, 0.0123767
0.0328267, 0.0107773, -0.550756, 6.56161e-05, 0.000198898, -0.000463539, 0.397162, 0.355402, 0.280452, 0.00211336, 0.00183526, 0.0123688
0.0303051, 0.0101746, -0.545196, 6.47356e-05, 0.000199876, -0.00047148, 0.396794, 0.355516, 0.280275, 0.00211241, 0.00183008, 0.0123662
0.0294522, 0.00871738, -0.539656, 6.50326e-05, 0.00019925, -0.000482612, 0.396485, 0.355476, 0.280075, 0.00211211, 0.00182385, 0.0123609
0.0273989, 0.00704874, -0.542137, 6.46396e-05, 0.000196328, -0.000489409, 0.396624, 0.355522, 0.279859, 0.00211155, 0.00181712, 0.012345
0.0273401, 0.00375421, -0.547947, 6.43626e-05, 0.000186107, -0.000496786, 0.397377, 0.355808, 0.279721, 0.00211009, 0.00181043, 0.0123141
0.0261496, 0.00172899, -0.555359, 6.30451e-05, 0.000176431, -0.000494582, 0.398844, 0.356391, 0.279755, 0.00210751, 0.00180393, 0.01227
0.0272044, -5.98236e-05, -0.560794, 6.17052e-05, 0.000164573, -0.000497312, 0.400969, 0.357152, 0.280066, 0.00210392, 0.00179702, 0.0122177
0.0301559, -0.000506851, -0.560474, 6.13057e-05, 0.000160047, -0.000509853, 0.403689, 0.357828, 0.280784, 0.00209983, 0.00178857, 0.012166
0.0324855, -0.000921908, -0.562344, 5.8757e-05, 0.00015122, -0.000514276, 0.406724, 0.358137, 0.282019, 0.00209607, 0.00177722, 0.0121259
0.0340278, -0.00119911, -0.563798, 5.70022e-05, 0.00014612, -0.000518124, 0.409229, 0.357943, 0.283446, 0.00209365, 0.00176634, 0.0121062
0.034895, -0.00120705, -0.566038, 5.59991e-05, 0.000141349, -0.000522793, 0.410539, 0.35729, 0.284765, 0.00209185, 0.00175647, 0.0120991
0.0364077, -0.000770499, -0.566828, 5.43444e-05, 0.000139045, -0.00052421, 0.410311, 0.356276, 0.285901, 0.00208964, 0.00174672, 0.0120952
0.0354682, -0.000496326, -0.567445, 5.56338e-05, 0.000137744, -0.000529092, 0.408374, 0.355019, 0.286866, 0.00208616, 0.00173646, 0.0120866
0.0364561, 0.000538506, -0.56867, 5.48897e-05, 0.000134866, -0.000534672, 0.404804, 0.353721, 0.287721, 0.00208102, 0.00172564, 0.0120677
0.038197, 0.000899567, -0.570413, 5.29657e-05, 0.000133067, -0.000536539, 0.399873, 0.352563, 0.288557, 0.00207423, 0.00171428, 0.0120362
0.0389148, 0.00208436, -0.571979, 5.32851e-05, 0.000129889, -0.000548437, 0.393975, 0.351703, 0.289461, 0.00206614, 0.00170262, 0.0119927
0.0420126, 0.00201243, -0.569689, 4.98881e-05, 0.000137016, -0.000528977, 0.387483, 0.351265, 0.29037, 0.00205704, 0.0016915, 0.0119367
0.037344, 0.00425418, -0.569158, 5.84342e-05, 0.000128938, -0.000573726, 0.38092, 0.351363, 0.290985, 0.0020466, 0.00168261, 0.011862
0.0353854, 0.00691752, -0.568575, 6.5678e-05, 0.000124596, -0.000619172, 0.375345, 0.352039, 0.291466, 0.00203441, 0.00167623, 0.0117655
0.0341985, 0.00901977, -0.565725, 6.96335e-05, 0.000122436, -0.000639127, 0.371548, 0.353245, 0.292241, 0.0020214, 0.00167199, 0.0116595
0.0296311, 0.0103387, -0.567103, 7.72204e-05, 0.000118486, -0.000689685, 0.369639, 0.354861, 0.293411, 0.0020088, 0.00166953, 0.0115564
0.0282385, 0.0113164, -0.564066, 7.8481e-05, 0.000117815, -0.000694397, 0.369417, 0.35672, 0.294842, 0.00199759, 0.00166838, 0.0114641
0.0265901, 0.0109579, -0.566361, 7.99843e-05, 0.000118003, -0.000707207, 0.370571, 0.358657, 0.29631, 0.00198842, 0.00166776, 0.011388
0.0258084, 0.010859, -0.567623, 8.05879e-05, 0.000118497, -0.000713159, 0.372785, 0.360516, 0.297581, 0.00198128, 0.00166691, 0.0113277
0.0236674, 0.0103449, -0.571919, 8.16516e-05, 0.000121461, -0.000719364, 0.376046, 0.362229, 0.298431, 0.00197559, 0.00166493, 0.0112781
0.0239503, 0.00981538, -0.568414, 8.03304e-05, 0.000119862, -0.000714183, 0.380143, 0.36381, 0.298705, 0.00197079, 0.00166103, 0.0112342
0.0231273, 0.00865791, -0.566721, 7.90647e-05, 0.00012047, -0.000706765, 0.384572, 0.365225, 0.298292, 0.00196714, 0.00165545, 0.011199
0.0236985, 0.00823138, -0.562879, 7.90652e-05, 0.000115606, -0.000714116, 0.389149, 0.366426, 0.297169, 0.00196453, 0.00164807, 0.0111721
0.023219, 0.00668203, -0.560857, 7.85708e-05, 0.000113427, -0.000714242, 0.393718, 0.367408, 0.295448, 0.00196265, 0.00163832, 0.0111516
0.0210231, 0.00550378, -0.559476, 7.92363e-05, 0.000115226, -0.000718744, 0.397867, 0.368241, 0.293349, 0.00196114, 0.00162621, 0.011135
0.019833, 0.00448063, -0.558126, 7.96825e-05, 0.000114032, -0.000723611, 0.401024, 0.368924, 0.291122, 0.00195987, 0.00161298, 0.0111209
0.0166883, 0.00321284, -0.556716, 8.13575e-05, 0.000114221, -0.000734754, 0.402741, 0.369423, 0.289024, 0.00195878, 0.00159998, 0.0111088
0.0171793, 0.00252575, -0.555942, 8.10999e-05, 0.000111967, -0.000735757, 0.40285, 0.369781, 0.287316, 0.00195786, 0.00158718, 0.0110983
0.0175601, 0.00225593, -0.55753, 8.04441e-05, 0.000115115, -0.000728151, 0.401377, 0.370002, 0.286121, 0.00195705, 0.00157632, 0.0110877
0.0169585, 0.00149167, -0.55919, 7.96002e-05, 0.000117256, -0.000719035, 0.398957, 0.370046, 0.285509, 0.00195589, 0.00156956, 0.0110711
0.0175, 0.00124136, -0.562876, 7.66125e-05, 0.000121199, -0.000692483, 0.396775, 0.369854, 0.285687, 0.00195409, 0.00156585, 0.0110451
0.0221012, 0.000851236, -0.567515, 7.17519e-05, 0.000126637, -0.000657655, 0.395804, 0.369482, 0.286747, 0.00195189, 0.00156398, 0.0110138
0.0207617, 0.000873002, -0.565652, 7.33327e-05, 0.000125086, -0.000672705, 0.396155, 0.36898, 0.288439, 0.00194976, 0.00156295, 0.010984
0.0197316, 0.00143589, -0.565172, 7.32095e-05, 0.000125048, -0.000673484, 0.398491, 0.368296, 0.290677, 0.00194705, 0.00156274, 0.0109498
0.0209446, 0.00135179, -0.564788, 7.22858e-05, 0.000124278, -0.000670773, 0.401602, 0.367579, 0.292823, 0.00194466, 0.00156198, 0.0109205
0.0205728, 0.00179753, -0.560063, 7.17895e-05, 0.000121338, -0.00067286, 0.404615, 0.367062, 0.294362, 0.00194304, 0.00156023, 0.0109013
0.0200458, 0.00221895, -0.556108, 7.02397e-05, 0.000118569, -0.000664689, 0.407248, 0.366833, 0.295068, 0.00194203, 0.00155757, 0.0108899
0.0214112, 0.00191486, -0.553487, 6.87035e-05, 0.000115217, -0.000654032, 0.409733, 0.366751, 0.294973, 0.00194114, 0.00155452, 0.01088
0.0235835, 0.00147257, -0.552779, 6.81791e-05, 0.000112221, -0.000648636, 0.412331, 0.366733, 0.294206, 0.00194027, 0.0015514, 0.01087
0.0268328, 0.00128373, -0.553411, 6.87149e-05, 0.000108035, -0.000648524, 0.414691, 0.366848, 0.292816, 0.00193948, 0.00154834, 0.0108604
0.0276005, 0.000723623, -0.55422, 6.90333e-05, 0.000106518, -0.000651013, 0.416812, 0.367087, 0.291068, 0.00193879, 0.00154445, 0.010852
0.0286565, 0.000178493, -0.555991, 6.98774e-05, 0.00010314, -0.000657284, 0.418141, 0.367517, 0.28919, 0.00193812, 0.0015389, 0.0108448
0.0311494, 0.00022459, -0.558368, 7.18418e-05, 9.74659e-05, -0.000668877, 0.418125, 0.368204, 0.287466, 0.00193724, 0.00153115, 0.0108374
0.0306127, 0.00083122, -0.558828, 7.22178e-05, 9.68154e-05, -0.00067182, 0.416423, 0.369192, 0.286189, 0.00193593, 0.001521, 0.0108283
0.0329819, 0.00104176, -0.558544, 7.34724e-05, 9.87659e-05, -0.000678171, 0.412944, 0.370608, 0.285516, 0.00193368, 0.00150975, 0.010814
0.0409699, 0.00305049, -0.550759, 7.55479e-05, 0.000116084, -0.000671883, 0.408026, 0.372601, 0.285406, 0.00192943, 0.0014996, 0.010786
0.03606, 0.00439701, -0.554728, 7.89992e-05, 0.000107093, -0.00070451, 0.402652, 0.375196, 0.285785, 0.00192248, 0.00149206, 0.0107388
0.0280208, 0.00500521, -0.558445, 7.75256e-05, 9.92007e-05, -0.00071414, 0.397993, 0.378218, 0.286651, 0.00191368, 0.00148702, 0.0106777
0.0277687, 0.00580716, -0.55536, 7.93638e-05, 0.000100096, -0.000724258, 0.395397, 0.381466, 0.287975, 0.00190419, 0.00148502, 0.0106097
0.0245883, 0.00616247, -0.560403, 8.24956e-05, 9.82819e-05, -0.000761791, 0.395258, 0.384671, 0.28976, 0.00189577, 0.00148455, 0.0105484
0.0235134, 0.00629554, -0.565758, 8.58212e-05, 9.82521e-05, -0.000794647, 0.397354, 0.387647, 0.291854, 0.00188892, 0.0014842, 0.0104964
0.022291, 0.00594245, -0.566834, 8.57985e-05, 9.8977e-05, -0.000799582, 0.400723, 0.390396, 0.293916, 0.00188347, 0.00148303, 0.010453
0.0238772, 0.0058655, -0.564818, 8.60013e-05, 9.75956e-05, -0.000799835, 0.40483, 0.392949, 0.295606, 0.00187906, 0.00148063, 0.0104164
0.0251339, 0.00535356, -0.560056, 8.63815e-05, 9.60456e-05, -0.000802161, 0.409752, 0.395308, 0.296745, 0.0018754, 0.00147638, 0.0103852
0.0259621, 0.00474389, -0.556547, 8.71996e-05, 9.40511e-05, -0.000808509, 0.414896, 0.397368, 0.297097, 0.00187249, 0.00147092, 0.0103608
0.0256553, 0.00377825, -0.555042, 8.738e-05, 9.37082e-05, -0.000811004, 0.420257, 0.399129, 0.296688, 0.00187005, 0.00146372, 0.0103411
0.0262381, 0.0030769, -0.554334, 8.68693e-05, 9.1637e-05, -0.000808686, 0.424858, 0.400567, 0.295481, 0.00186794, 0.00145636, 0.0103253
0.0256604, 0.00255549, -0.554606, 8.68017e-05, 9.28084e-05, -0.000807431, 0.427975, 0.401549, 0.293664, 0.00186628, 0.00144917, 0.0103137
0.0257596, 0.00211394, -0.554216, 8.68266e-05, 9.20768e-05, -0.000808241, 0.428849, 0.401991, 0.29152, 0.00186504, 0.00144272, 0.0103048
0.0239948, 0.00157477, -0.556885, 8.55245e-05, 9.50636e-05, -0.000795164, 0.427063, 0.401688, 0.28938, 0.00186364, 0.00143844, 0.0102907
0.0207313, 0.00156506, -0.560649, 8.2956e-05, 9.63859e-05, -0.000770121, 0.423734, 0.400419, 0.287834, 0.00186086, 0.00143591, 0.0102582
0.0199313, 0.00128562, -0.567123, 7.80297e-05, 9.91612e-05, -0.000731993, 0.420917, 0.398446, 0.287405, 0.00185656, 0.00143418, 0.0102074
0.0223745, 0.00134419, -0.57278, 7.35922e-05, 0.000102637, -0.000703129, 0.41967, 0.396274, 0.288058, 0.0018518, 0.00143296, 0.0101523
0.0204174, 0.00143453, -0.570974, 7.45208e-05, 0.00010102, -0.000709919, 0.419783, 0.394353, 0.289315, 0.00184788, 0.00143169, 0.0101069
0.021294, 0.00113855, -0.569104, 7.47889e-05, 9.99281e-05, -0.000717992, 0.422005, 0.392736, 0.291086, 0.00184457, 0.00143072, 0.0100695
0.0209026, 0.000936992, -0.565345, 7.5881e-05, 9.76824e-05, -0.000729059, 0.42548, 0.391484, 0.292887, 0.00184232, 0.00142882, 0.0100442
0.0225082, 0.000915103, -0.561501, 7.57342e-05, 9.26081e-05, -0.000731242, 0.429465, 0.390718, 0.294316, 0.00184125, 0.00142573, 0.0100321
0.0226845, 0.00248148, -0.547805, 7.49981e-05, 8.64283e-05, -0.000728027, 0.434595, 0.390372, 0.29546, 0.00184071, 0.00142094, 0.0100269
0.0238317, 0.00377778, -0.537871, 7.07214e-05, 8.12208e-05, -0.000702765, 0.439511, 0.390512, 0.295876, 0.00184042, 0.00141593, 0.0100248
0.0254933, 0.002648, -0.54459, 7.37218e-05, 7.68131e-05, -0.000721034, 0.443562, 0.391026, 0.295446, 0.00183989, 0.00141188, 0.0100207
0.0261175, 0.0019892, -0.550335, 7.58474e-05, 7.16997e-05, -0.000735907, 0.446801, 0.391835, 0.294486, 0.00183904, 0.00140761, 0.0100139
0.0233063, 0.00162209, -0.554639, 7.73053e-05, 6.89786e-05, -0.000750293, 0.448022, 0.393025, 0.293089, 0.00183763, 0.00140323, 0.0100025
0.020437, 0.00122175, -0.556728, 7.74171e-05, 6.66591e-05, -0.000755206, 0.446694, 0.394617, 0.291684, 0.00183548, 0.00139686, 0.0099857
0.0210972, 0.00106444, -0.559274, 7.86706e-05, 6.31384e-05, -0.000764243, 0.44224, 0.396754, 0.29041, 0.00183199, 0.00138934, 0.00995922
0.0201427, 0.00098372, -0.561046, 7.94311e-05, 6.03631e-05, -0.000771637, 0.435401, 0.399424, 0.28945, 0.00182708, 0.00138127, 0.00992368
0.0203555, 0.00168272, -0.561556, 8.15042e-05, 6.01879e-05, -0.000785641, 0.427572, 0.402601, 0.289031, 0.0018209, 0.00137285, 0.0098812
0.0204225, 0.00253848, -0.560809, 8.35247e-05, 6.12743e-05, -0.000799286, 0.420469, 0.406277, 0.289146, 0.00181326, 0.00136613, 0.00982962
0.0231245, 0.0038992, -0.55586, 8.51406e-05, 6.80985e-05, -0.000806271, 0.414954, 0.410234, 0.289898, 0.00180511, 0.00136091, 0.00977475
0.021747, 0.00464673, -0.554288, 8.64814e-05, 6.89205e-05, -0.00081631, 0.411348, 0.414291, 0.291206, 0.00179708, 0.00135706, 0.00972006
0.0129848, 0.00429286, -0.562644, 8.68912e-05, 5.90291e-05, -0.000829781, 0.40988, 0.41829, 0.292886, 0.00178967, 0.0013545, 0.00966771
0.0122841, 0.00423912, -0.56489, 8.74277e-05, 5.70849e-05, -0.000835939, 0.410284, 0.422069, 0.294725, 0.00178336, 0.00135242, 0.00962075
0.011324, 0.00399902, -0.565047, 8.69618e-05, 5.73307e-05, -0.000834389, 0.411975, 0.425468, 0.296499, 0.00177852, 0.00135007, 0.00958292
0.0146301, 0.00432503, -0.56107, 8.90929e-05, 6.06584e-05, -0.000849049, 0.412772, 0.428005, 0.298033, 0.00177579, 0.0013468, 0.00956094
0.0135627, 0.00416828, -0.560411, 8.9084e-05, 6.18656e-05, -0.000848344, 0.412598, 0.429485, 0.299256, 0.00177431, 0.00134301, 0.0095482
0.0102299, 0.00380798, -0.5644, 8.61981e-05, 5.87024e-05, -0.000826709, 0.412434, 0.430073, 0.300063, 0.00177324, 0.00134004, 0.00953842
0.00805832, 0.00342935, -0.568333, 8.37441e-05, 5.65457e-05, -0.000807967, 0.412611, 0.429857, 0.300356, 0.00177228, 0.00133837, 0.00952934
0.00729351, 0.00331904, -0.568496, 8.38733e-05, 5.67531e-05, -0.000807824, 0.413226, 0.429178, 0.299997, 0.00177137, 0.00133773, 0.00952075
0.00432876, 0.00194431, -0.56952, 8.45989e-05, 5.82468e-05, -0.000809802, 0.414038, 0.428418, 0.29895, 0.0017706, 0.00133724, 0.00951358
0.00384701, 0.00154445, -0.569786, 8.46465e-05, 5.85045e-05, -0.000809699, 0.414849, 0.427936, 0.297156, 0.00177006, 0.00133572, 0.0095086
0.00236201, 0.00153324, -0.563742, 8.54403e-05, 5.30008e-05, -0.000817128, 0.415455, 0.427888, 0.294795, 0.00176973, 0.0013324, 0.00950527
0.000823739, 0.00182576, -0.563943, 8.58184e-05, 5.3818e-05, -0.000818242, 0.415611, 0.428532, 0.29192, 0.00176957, 0.00132643, 0.00950394
0.000277142, 0.00168754, -0.568053, 8.60742e-05, 6.06725e-05, -0.000820016, 0.41513, 0.429914, 0.288829, 0.00176922, 0.00131795, 0.00950337
0.00174675, 0.00169139, -0.573486, 8.64542e-05, 6.96403e-05, -0.000824466, 0.414103, 0.431751, 0.285963, 0.00176849, 0.0013083, 0.00950155
0.00484604, 0.00316294, -0.581201, 8.84554e-05, 8.27025e-05, -0.000837696, 0.41265, 0.433859, 0.283526, 0.00176736, 0.0012983, 0.00949763
-0.00846567, 0.00399482, -0.56015, 8.35829e-05, 4.83697e-05, -0.000791091, 0.410982, 0.436069, 0.281636, 0.00176596, 0.00128867, 0.0094922
-0.0101568, 0.00437126, -0.558148, 8.30508e-05, 4.51751e-05, -0.000785978, 0.409239, 0.438197, 0.280288, 0.00176462, 0.00127969, 0.00948683
-0.0094482, 0.00456456, -0.560927, 8.39943e-05, 4.94773e-05, -0.000792938, 0.407579, 0.44015, 0.27949, 0.00176345, 0.00127209, 0.0094819
-0.0145913, 0.00535946, -0.551218, 8.12309e-05, 3.67539e-05, -0.000769931, 0.406089, 0.441805, 0.279167, 0.00176256, 0.00126652, 0.00947777
-0.0175779, 0.00550362, -0.544584, 7.92315e-05, 2.89776e-05, -0.000754389, 0.404579, 0.443165, 0.279165, 0.00176184, 0.00126228, 0.00947373
-0.0177829, 0.00564606, -0.543496, 7.90574e-05, 2.78874e-05, -0.000752789, 0.402887, 0.444069, 0.279384, 0.00176131, 0.00125898, 0.00946954
-0.0160866, 0.00457987, -0.545923, 7.97144e-05, 3.01374e-05, -0.00075647, 0.40082, 0.444439, 0.279757, 0.0017609, 0.00125627, 0.00946413
-0.0142164, 0.00291831, -0.546139, 7.96637e-05, 3.05672e-05, -0.000751622, 0.398309, 0.444, 0.280157, 0.00176069, 0.00125451, 0.0094592
-0.0141503, 0.00123335, -0.542977, 7.93909e-05, 2.93668e-05, -0.000744204, 0.395395, 0.442649, 0.280437, 0.00176051, 0.00125332, 0.00945618
-0.00937209, -0.0017901, -0.552818, 8.10252e-05, 3.28642e-05, -0.00074412, 0.392334, 0.440855, 0.280605, 0.0017602, 0.00125219, 0.0094536
-0.00614052, -0.0047838, -0.561998, 8.24429e-05, 3.38281e-05, -0.000740474, 0.389428, 0.43882, 0.2806, 0.00175969, 0.00125107, 0.00945138
-0.00495012, -0.00731596, -0.563538, 8.3596e-05, 3.37477e-05, -0.000738662, 0.386872, 0.436451, 0.280339, 0.00175873, 0.00124972, 0.0094494
-0.0037057, -0.008524, -0.549023, 8.48014e-05, 3.94304e-05, -0.000746804, 0.384895, 0.434289, 0.280043, 0.00175776, 0.00124848, 0.00944723
-0.00377166, -0.0103983, -0.54912, 8.54943e-05, 3.92783e-05, -0.000746917, 0.383597, 0.433052, 0.279858, 0.00175733, 0.00124778, 0.00944546
-0.0026817, -0.01103, -0.543159, 8.52815e-05, 4.06262e-05, -0.000745308, 0.382972, 0.432766, 0.279761, 0.00175719, 0.00124748, 0.00944333
-0.00115597, -0.0120206, -0.548555, 8.52532e-05, 4.05317e-05, -0.000744202, 0.38298, 0.433432, 0.279789, 0.00175697, 0.00124745, 0.00943972
0.00113137, -0.0122247, -0.550893, 8.50661e-05, 4.05904e-05, -0.000743147, 0.383606, 0.435132, 0.279973, 0.00175608, 0.00124721, 0.00943246
0.000785283, -0.0117456, -0.551878, 8.57516e-05, 4.11152e-05, -0.000747453, 0.384781, 0.437481, 0.280223, 0.00175445, 0.00124663, 0.00942379
-0.000727376, -0.0117173, -0.554448, 8.60243e-05, 4.24091e-05, -0.00075043, 0.386341, 0.43992, 0.280394, 0.00175278, 0.00124586, 0.00941869
-0.000612265, -0.0116784, -0.555487, 8.60471e-05, 4.24212e-05, -0.000750673, 0.388201, 0.442379, 0.280495, 0.0017512, 0.00124486, 0.00941647
-0.00175297, -0.0106564, -0.557597, 8.69617e-05, 4.31638e-05, -0.000751498, 0.390277, 0.444934, 0.280439, 0.00174961, 0.00124368, 0.00941549
-0.00496093, -0.00957969, -0.550475, 8.90049e-05, 4.69668e-05, -0.000756623, 0.392655, 0.447843, 0.280242, 0.00174766, 0.0012421, 0.00941449
-0.0064443, -0.00848426, -0.554405, 8.96018e-05, 4.7231e-05, -0.000752815, 0.39544, 0.451007, 0.280008, 0.00174555, 0.00124004, 0.00941367
-0.00854218, -0.006056, -0.552276, 9.27683e-05, 4.92158e-05, -0.000751644, 0.398688, 0.454238, 0.279831, 0.00174376, 0.00123759, 0.00941257
-0.0110999, -0.00422911, -0.55635, 9.41952e-05, 5.13474e-05, -0.000744011, 0.402342, 0.457523, 0.279753, 0.00174232, 0.00123483, 0.0094105
-0.0118175, -0.00346551, -0.557744, 9.46444e-05, 5.19674e-05, -0.000740336, 0.406242, 0.460869, 0.279779, 0.00174113, 0.00123192, 0.00940765
-0.0112535, -0.0024961, -0.562542, 9.53033e-05, 5.19526e-05, -0.000736962, 0.410215, 0.464152, 0.2799, 0.00174024, 0.00122903, 0.00940387
-0.0113302, -0.00126016, -0.562855, 9.59998e-05, 5.16036e-05, -0.000731524, 0.414097, 0.467246, 0.280027, 0.00173962, 0.0012265, 0.00939916
-0.0117605, 0.000171006, -0.563897, 9.67182e-05, 5.17155e-05, -0.000725988, 0.417701, 0.470167, 0.280127, 0.00173906, 0.00122456, 0.00939503
-0.0124271, 0.000434918, -0.568496, 9.63171e-05, 5.25816e-05, -0.000723352, 0.420845, 0.472831, 0.280193, 0.00173843, 0.00122327, 0.00939178
-0.0132845, 0.00174841, -0.564209, 9.7017e-05, 5.31499e-05, -0.000720649, 0.423347, 0.474943, 0.28017, 0.00173784, 0.00122254, 0.00938858
-0.0148988, 0.0027679, -0.551782, 9.81288e-05, 5.52392e-05, -0.000719765, 0.425147, 0.476439, 0.280102, 0.00173739, 0.00122212, 0.0093865
-0.013917, 0.00287074, -0.556634, 9.8199e-05, 5.45762e-05, -0.000721299, 0.426224, 0.477378, 0.28004, 0.00173704, 0.00122191, 0.00938527
-0.0142675, 0.00216651, -0.560294, 9.79801e-05, 5.44624e-05, -0.000721369, 0.426501, 0.477792, 0.280021, 0.00173668, 0.00122181, 0.00938355
-0.0149777, 0.0013793, -0.556226, 9.76308e-05, 5.42592e-05, -0.000718528, 0.42599, 0.477624, 0.28003, 0.00173627, 0.00122168, 0.0093806
-0.0143955, 0.000267483, -0.554285, 9.78417e-05, 5.39927e-05, -0.00071773, 0.424798, 0.476811, 0.280085, 0.00173587, 0.00122143, 0.00937722
-0.0124092, -0.00121458, -0.560784, 9.88657e-05, 5.44454e-05, -0.000720219, 0.422925, 0.475469, 0.280151, 0.00173546, 0.00122096, 0.00937301
-0.0103968, -0.00260736, -0.562943, 9.98156e-05, 5.48233e-05, -0.000721097, 0.420327, 0.473624, 0.280183, 0.00173502, 0.00122018, 0.00936773
-0.00905892, -0.00473166, -0.5632, 0.000100827, 5.49491e-05, -0.000719466, 0.417048, 0.471006, 0.280123, 0.00173441, 0.00121901, 0.00936381
-0.00773889, -0.0071653, -0.566046, 0.000102203, 5.47559e-05, -0.000718748, 0.413305, 0.467432, 0.279946, 0.00173325, 0.00121741, 0.00936205
-0.00626828, -0.00964166, -0.564342, 0.000104361, 5.57008e-05, -0.000722997, 0.409568, 0.463333, 0.279737, 0.00173151, 0.00121568, 0.00936079
-0.0033206, -0.0120121, -0.561419, 0.000106836, 5.78091e-05, -0.00072963, 0.406165, 0.459092, 0.279541, 0.00172931, 0.00121405, 0.00935859
-0.00203748, -0.0139394, -0.554625, 0.000108765, 5.97984e-05, -0.0007366, 0.403331, 0.455271, 0.279385, 0.00172722, 0.00121272, 0.00935599
-0.000923994, -0.0152344, -0.549639, 0.000109705, 6.09542e-05, -0.000739664, 0.401189, 0.452032, 0.279297, 0.00172546, 0.00121185, 0.00935289
0.00172095, -0.01664, -0.55485, 0.000110525, 6.15688e-05, -0.000738419, 0.399737, 0.449555, 0.279284, 0.00172422, 0.0012114, 0.00934939
0.0033952, -0.0184817, -0.560771, 0.000111245, 6.20147e-05, -0.000737753, 0.398888, 0.448357, 0.279302, 0.00172383, 0.00121115, 0.0093471
0.00379123, -0.0190345, -0.559996, 0.000111176, 6.19657e-05, -0.000735991, 0.398596, 0.448534, 0.279309, 0.00172371, 0.001211, 0.00934333
0.00416575, -0.0194327, -0.557551, 0.000110874, 6.17929e-05, -0.000733152, 0.398839, 0.449832, 0.279326, 0.0017231, 0.00121086, 0.00933559
0.00238951, -0.0195582, -0.54774, 0.000110932, 6.10134e-05, -0.000733259, 0.399638, 0.452084, 0.279394, 0.00172144, 0.00121056, 0.00932278
0.00184098, -0.0196215, -0.54999, 0.00011113, 6.16433e-05, -0.000735643, 0.400952, 0.455029, 0.279488, 0.00171864, 0.00120993, 0.00930736
0.0013385, -0.0196218, -0.549463, 0.000111257, 6.18628e-05, -0.000736638, 0.402744, 0.458434, 0.279562, 0.0017151, 0.00120898, 0.00929343
-0.000294925, -0.0193147, -0.54402, 0.000111962, 6.20393e-05, -0.000739777, 0.404927, 0.462058, 0.279648, 0.00171133, 0.00120764, 0.0092828
-0.00162457, -0.0183031, -0.549219, 0.000113011, 6.33426e-05, -0.000742871, 0.407387, 0.465614, 0.279644, 0.00170802, 0.00120616, 0.00927703
-0.00273661, -0.0175681, -0.542311, 0.000115863, 6.53156e-05, -0.000751773, 0.410144, 0.469163, 0.279526, 0.00170499, 0.00120438, 0.00927389
-0.00332523, -0.0166897, -0.545549, 0.000115953, 6.50521e-05, -0.000748359, 0.41327, 0.472763, 0.279396, 0.0017022, 0.00120222, 0.00927209
-0.00314043, -0.0148731, -0.549907, 0.000117279, 6.36106e-05, -0.000745258, 0.416818, 0.476456, 0.279314, 0.00169967, 0.00119973, 0.00927081
-0.00472811, -0.0136717, -0.553074, 0.000117611, 6.48099e-05, -0.000739155, 0.420715, 0.480308, 0.279275, 0.00169727, 0.00119699, 0.00926943
-0.00452878, -0.0119873, -0.554075, 0.000119727, 6.39468e-05, -0.000737908, 0.424873, 0.484316, 0.2793, 0.00169497, 0.00119413, 0.00926832
-0.00658196, -0.0102483, -0.54561, 0.000122936, 6.47026e-05, -0.000733852, 0.429176, 0.488295, 0.279373, 0.00169306, 0.00119118, 0.00926751
-0.00787527, -0.00933769, -0.545915, 0.000123491, 6.59557e-05, -0.000729705, 0.433414, 0.491881, 0.279414, 0.00169195, 0.00118857, 0.00926547
-0.00783859, -0.00822012, -0.550748, 0.000123661, 6.52254e-05, -0.000724934, 0.437342, 0.494817, 0.279411, 0.00169151, 0.00118648, 0.00926058
-0.00847587, -0.00709136, -0.555252, 0.000123589, 6.49066e-05, -0.000719614, 0.440704, 0.496988, 0.279376, 0.00169138, 0.00118501, 0.00925358
-0.00926752, -0.00664262, -0.564491, 0.000122557, 6.29481e-05, -0.00071563, 0.443226, 0.498407, 0.279284, 0.00169128, 0.00118406, 0.0092472
-0.00975553, -0.00621897, -0.563739, 0.000122705, 6.32773e-05, -0.000715177, 0.444878, 0.499639, 0.279199, 0.00169116, 0.0011836, 0.00924587
-0.0104796, -0.00641938, -0.571081, 0.000122757, 6.24692e-05, -0.000716008, 0.445638, 0.500308, 0.27915, 0.00169105, 0.00118345, 0.00924525
-0.00942047, -0.0067021, -0.574415, 0.000123151, 6.22699e-05, -0.000718188, 0.445539, 0.500299, 0.279144, 0.00169094, 0.00118344, 0.00924428
-0.00823714, -0.00810739, -0.576367, 0.000123613, 6.23391e-05, -0.000719489, 0.44457, 0.499826, 0.279165, 0.00169077, 0.00118337, 0.00924171
-0.00729293, -0.00990628, -0.57658, 0.000123636, 6.23149e-05, -0.000715355, 0.442737, 0.499081, 0.279237, 0.00169052, 0.00118305, 0.00923485
-0.00670048, -0.0113718, -0.571586, 0.000123245, 6.17717e-05, -0.000708143, 0.43994, 0.4977, 0.279334, 0.00169031, 0.00118232, 0.00922586
-0.00674749, -0.0131539, -0.563071, 0.000123487, 6.1679e-05, -0.000703678, 0.436051, 0.495081, 0.27933, 0.00169006, 0.00118104, 0.0092206
-0.00555239, -0.0158749, -0.565901, 0.000124941, 6.17782e-05, -0.000701177, 0.431424, 0.491082, 0.279225, 0.00168908, 0.00117911, 0.00921917
-0.00326613, -0.0188965, -0.568667, 0.000127384, 6.26888e-05, -0.000703563, 0.426765, 0.486066, 0.279115, 0.00168687, 0.00117696, 0.00921786
-0.00246072, -0.0206169, -0.558877, 0.000129352, 6.44909e-05, -0.000714849, 0.422548, 0.480438, 0.27901, 0.00168331, 0.00117492, 0.00921272
-0.00228224, -0.0230546, -0.558716, 0.000131852, 6.4695e-05, -0.000723659, 0.419026, 0.474679, 0.278919, 0.0016788, 0.00117325, 0.00920178
2.95232e-05, -0.0251551, -0.56816, 0.00013402, 6.52235e-05, -0.000727288, 0.416397, 0.469724, 0.278871, 0.00167485, 0.00117215, 0.00918999
0.00174589, -0.0262649, -0.568044, 0.000134863, 6.59009e-05, -0.000729734, 0.414701, 0.46639, 0.278882, 0.0016727, 0.00117158, 0.00918361
0.00262262, -0.0268332, -0.562934, 0.000134924, 6.58369e-05, -0.000729608, 0.413867, 0.464942, 0.278904, 0.00167217, 0.00117137, 0.0091822
0.00131612, -0.0264378, -0.544862, 0.000135242, 6.60451e-05, -0.000733987, 0.413913, 0.465204, 0.278921, 0.00167212, 0.00117137, 0.00918133
0.00139974, -0.0262651, -0.542133, 0.00013547, 6.62532e-05, -0.000735561, 0.414808, 0.467039, 0.278934, 0.00167121, 0.00117118, 0.00917696
0.000241087, -0.0254195, -0.539135, 0.000137099, 6.73341e-05, -0.000744014, 0.416591, 0.470289, 0.278933, 0.00166814, 0.00117041, 0.00916503
0.000206937, -0.0245302, -0.534737, 0.000139083, 6.80467e-05, -0.000752639, 0.419146, 0.474398, 0.278914, 0.001663, 0.0011688, 0.00914748
7.75161e-05, -0.0238864, -0.540692, 0.000140995, 6.80947e-05, -0.000761089, 0.422358, 0.47906, 0.278886, 0.00165583, 0.00116632, 0.00912258
0.000652201, -0.0232069, -0.542642, 0.000142126, 6.74639e-05, -0.000763655, 0.426199, 0.483872, 0.27886, 0.00164653, 0.00116281, 0.00908314
0.00134478, -0.0223838, -0.547003, 0.000143306, 6.68262e-05, -0.000764982, 0.430609, 0.48828, 0.278842, 0.00163441, 0.00115835, 0.00901434
0.00180276, -0.0212522, -0.549016, 0.000144286, 6.61331e-05, -0.000762802, 0.435552, 0.491611, 0.27885, 0.00161919, 0.00115324, 0.00890183
0.00181207, -0.0209901, -0.552478, 0.000145479, 6.60612e-05, -0.000766356, 0.440901, 0.493343, 0.278861, 0.00160142, 0.00114815, 0.0087424
0.00179501, -0.020647, -0.554725, 0.000146281, 6.58409e-05, -0.000767445, 0.44649, 0.493615, 0.278877, 0.00158163, 0.00114361, 0.00854615
0.00266241, -0.0197784, -0.556456, 0.000142494, 6.41991e-05, -0.00073725, 0.452093, 0.493009, 0.278933, 0.00156238, 0.00114005, 0.00834547
0.00340948, -0.0199408, -0.564781, 0.000141678, 6.32399e-05, -0.000726392, 0.457357, 0.492168, 0.279021, 0.00154706, 0.00113761, 0.00818167
0.00381572, -0.0197079, -0.561457, 0.000139895, 6.26964e-05, -0.000714692, 0.461854, 0.491537, 0.279129, 0.00153768, 0.00113617, 0.00807955
0.00487377, -0.0206985, -0.565539, 0.000139049, 6.2676e-05, -0.000711684, 0.465149, 0.491076, 0.279239, 0.00153349, 0.00113549, 0.00803229
0.00509817, -0.0213209, -0.566526, 0.000138995, 6.27619e-05, -0.000712642, 0.466823, 0.490686, 0.279295, 0.00153253, 0.00113531, 0.0080208
0.00549943, -0.0226114, -0.563055, 0.000140078, 6.26642e-05, -0.00071597, 0.466479, 0.490292, 0.279293, 0.00153221, 0.00113529, 0.00801857
0.00618254, -0.0241831, -0.56293, 0.0001408, 6.27362e-05, -0.000720761, 0.463703, 0.489738, 0.279233, 0.0015286, 0.00113517, 0.00798403
0.00552236, -0.0253887, -0.561031, 0.000140614, 6.24954e-05, -0.000713909, 0.458623, 0.488605, 0.279144, 0.00151647, 0.0011347, 0.00786025
0.00265246, -0.0248538, -0.564001, 0.000132074, 6.13139e-05, -0.000658305, 0.452637, 0.486524, 0.279108, 0.00149401, 0.00113383, 0.00762682
0.00121348, -0.0245922, -0.566516, 0.000126082, 6.06547e-05, -0.000621589, 0.447534, 0.483731, 0.279206, 0.0014641, 0.00113275, 0.00731116
-0.000495598, -0.0240962, -0.567464, 0.000120117, 5.98517e-05, -0.000580315, 0.444415, 0.480681, 0.279475, 0.00143146, 0.00113168, 0.00696174
-0.00179056, -0.0244816, -0.56694, 0.000116465, 5.9059e-05, -0.000550594, 0.443548, 0.477946, 0.279916, 0.0014, 0.00113075, 0.00661741
-0.00311298, -0.0249212, -0.563407, 0.000116148, 5.81041e-05, -0.000534076, 0.444667, 0.475731, 0.280516, 0.00137141, 0.00112999, 0.0062959
-0.00538527, -0.0252813, -0.558127, 0.000114214, 5.66891e-05, -0.00049937, 0.447375, 0.47413, 0.281253, 0.0013463, 0.00112944, 0.00600423
-0.00772824, -0.0240018, -0.553697, 0.000111626, 5.56417e-05, -0.000463206, 0.451209, 0.473251, 0.282104, 0.0013253, 0.00112908, 0.00574972
-0.00896601, -0.0229058, -0.551271, 0.000111003, 5.50869e-05, -0.00044895, 0.455649, 0.473014, 0.283041, 0.00130905, 0.00112884, 0.00554487
-0.0103324, -0.0215215, -0.550118, 0.00010889, 5.47494e-05, -0.000428128, 0.460269, 0.473354, 0.283969, 0.00129758, 0.00112872, 0.00539401
-0.0109301, -0.0195582, -0.553025, 0.000106713, 5.48712e-05, -0.000416501, 0.464673, 0.474265, 0.284791, 0.00129046, 0.00112868, 0.00529548
-0.0118101, -0.018102, -0.550452, 0.000107522, 5.45882e-05, -0.000415886, 0.468453, 0.475615, 0.285416, 0.00128686, 0.00112865, 0.00524375
-0.012453, -0.0174453, -0.545044, 0.000108206, 5.42769e-05, -0.000416776, 0.471181, 0.477098, 0.285739, 0.00128562, 0.00112861, 0.00522609
-0.0120803, -0.0172763, -0.547889, 0.000108445, 5.42914e-05, -0.000417579, 0.472553, 0.478393, 0.285732, 0.00128534, 0.00112851, 0.0052244
-0.0107961, -0.0166008, -0.554744, 0.000109607, 5.40826e-05, -0.000418443, 0.47242, 0.479296, 0.285425, 0.0012847, 0.00112832, 0.00522144
-0.0105238, -0.0157252, -0.555448, 0.000109778, 5.39264e-05, -0.000417157, 0.470785, 0.479644, 0.28487, 0.00128245, 0.00112797, 0.00520174
-0.0112499, -0.0148895, -0.553419, 0.000109481, 5.38319e-05, -0.000418326, 0.46782, 0.479208, 0.284095, 0.00127763, 0.00112749, 0.00515261
-0.0107333, -0.0130935, -0.551049, 0.000107284, 5.32082e-05, -0.000407688, 0.463949, 0.477997, 0.28317, 0.00126961, 0.0011269, 0.0050648
-0.0102806, -0.0120012, -0.551055, 0.00010653, 5.2858e-05, -0.000400856, 0.459923, 0.476276, 0.28217, 0.00125836, 0.00112621, 0.00493582
-0.00927478, -0.011534, -0.553208, 0.000106655, 5.25183e-05, -0.000391394, 0.456584, 0.474353, 0.281211, 0.00124494, 0.00112551, 0.00477515
-0.00662983, -0.0136501, -0.564296, 0.000112508, 5.25945e-05, -0.000380412, 0.454507, 0.472419, 0.280439, 0.00123047, 0.00112482, 0.00459405
-0.00358279, -0.0152369, -0.573405, 0.000116326, 5.24444e-05, -0.000358395, 0.453961, 0.470592, 0.279921, 0.00121575, 0.00112416, 0.00440317
-0.00208161, -0.0147586, -0.574564, 0.000114624, 5.18899e-05, -0.000337373, 0.454956, 0.46902, 0.279702, 0.00120194, 0.00112362, 0.00421343
-0.00123469, -0.0128143, -0.570061, 0.000108177, 5.12721e-05, -0.000313339, 0.457309, 0.467868, 0.279831, 0.00119003, 0.00112319, 0.00403766
-0.000319026, -0.0111686, -0.566273, 0.000102656, 5.07921e-05, -0.000290709, 0.460623, 0.467134, 0.280264, 0.00118044, 0.00112286, 0.00388824
0.000513905, -0.0101754, -0.562827, 9.80021e-05, 5.04912e-05, -0.000272617, 0.464475, 0.466719, 0.280932, 0.00117301, 0.00112261, 0.00377106
0.0016962, -0.0116345, -0.565962, 9.90257e-05, 5.01682e-05, -0.000263668, 0.468523, 0.466597, 0.281783, 0.0011676, 0.00112242, 0.00368577
0.00300952, -0.013685, -0.570624, 0.000100918, 4.98048e-05, -0.000256783, 0.472432, 0.466801, 0.282679, 0.00116406, 0.00112227, 0.00363004
0.00352921, -0.0147999, -0.570868, 0.000100484, 4.96655e-05, -0.000252719, 0.475858, 0.467324, 0.283454, 0.00116209, 0.00112214, 0.00359905
0.00460536, -0.0166472, -0.570584, 9.9471e-05, 4.9342e-05, -0.000245791, 0.478522, 0.468102, 0.284022, 0.00116114, 0.00112202, 0.00358527
0.00518722, -0.0187729, -0.568805, 9.82835e-05, 4.91805e-05, -0.00024107, 0.480171, 0.469096, 0.284316, 0.00116067, 0.0011219, 0.00358128
0.00441758, -0.0194773, -0.557445, 9.70121e-05, 4.96258e-05, -0.00023871, 0.480566, 0.470195, 0.284265, 0.00116024, 0.00112179, 0.00357924
0.00155054, -0.0198925, -0.543364, 9.72293e-05, 5.0566e-05, -0.000233651, 0.479653, 0.471151, 0.283854, 0.00115925, 0.00112165, 0.00357095
-0.000113983, -0.020826, -0.540129, 9.69016e-05, 5.06386e-05, -0.000228132, 0.477705, 0.471839, 0.283179, 0.0011573, 0.00112148, 0.00354986
0.000143233, -0.0216164, -0.547071, 9.40334e-05, 5.07968e-05, -0.000225748, 0.475222, 0.472286, 0.282383, 0.00115426, 0.00112128, 0.00351337
0.000868626, -0.0238775, -0.543929, 9.61213e-05, 5.00726e-05, -0.000233301, 0.472651, 0.472626, 0.281561, 0.00115031, 0.0011211, 0.0034605
0.00055377, -0.0247924, -0.542733, 9.6507e-05, 4.98765e-05, -0.000232224, 0.470391, 0.472882, 0.280837, 0.00114565, 0.00112095, 0.00339233
-0.000141528, -0.0243053, -0.546873, 9.26047e-05, 5.066e-05, -0.000221453, 0.468838, 0.473066, 0.280336, 0.00114046, 0.0011208, 0.00331302
-0.00143978, -0.025176, -0.546479, 9.15345e-05, 5.06574e-05, -0.000211209, 0.468217, 0.473255, 0.280044, 0.00113505, 0.00112074, 0.00322684
-0.000825739, -0.0259009, -0.54586, 9.25279e-05, 5.05677e-05, -0.000216964, 0.468652, 0.473492, 0.280016, 0.0011297, 0.00112072, 0.00313956
-0.000638974, -0.0248777, -0.550455, 8.86761e-05, 5.05767e-05, -0.00021322, 0.470089, 0.473801, 0.280293, 0.00112473, 0.00112072, 0.00305905
-0.00201614, -0.022636, -0.556043, 8.29461e-05, 5.05333e-05, -0.000196288, 0.472335, 0.474282, 0.280864, 0.00112045, 0.00112071, 0.00299092
-0.00262628, -0.020743, -0.560573, 7.90119e-05, 5.06028e-05, -0.000187288, 0.475089, 0.474923, 0.281715, 0.00111701, 0.00112068, 0.00293773
-0.00281933, -0.0197914, -0.560303, 7.94574e-05, 5.04563e-05, -0.000187301, 0.477991, 0.475685, 0.282731, 0.00111448, 0.00112061, 0.00289993
-0.00361851, -0.0191582, -0.557119, 8.14756e-05, 5.00268e-05, -0.000186862, 0.480743, 0.47654, 0.283743, 0.00111284, 0.0011205, 0.00287655
-0.00457894, -0.0178305, -0.552182, 8.41798e-05, 4.91192e-05, -0.000187767, 0.483093, 0.477449, 0.284628, 0.00111191, 0.00112033, 0.00286467
-0.0048841, -0.0163818, -0.549546, 8.53904e-05, 4.84984e-05, -0.0001889, 0.484847, 0.478378, 0.285243, 0.00111147, 0.00112014, 0.00286048
-0.00531991, -0.0154495, -0.549942, 8.55421e-05, 4.84003e-05, -0.00018885, 0.485876, 0.479287, 0.285465, 0.00111121, 0.00111994, 0.00286
-0.00646446, -0.0145411, -0.548162, 8.59806e-05, 4.82953e-05, -0.00018961, 0.486135, 0.480099, 0.285322, 0.0011108, 0.00111969, 0.00285936
-0.00723043, -0.0124567, -0.541975, 8.54705e-05, 4.82759e-05, -0.000190166, 0.485664, 0.480716, 0.2848, 0.00110999, 0.00111941, 0.0028552
-0.00702744, -0.0127722, -0.54629, 8.6566e-05, 4.78575e-05, -0.000190322, 0.484641, 0.481078, 0.284017, 0.00110866, 0.00111911, 0.00284575
-0.00708012, -0.0130056, -0.549205, 8.77135e-05, 4.75166e-05, -0.000191263, 0.483317, 0.481233, 0.28312, 0.00110685, 0.00111881, 0.00283019
-0.00736301, -0.0121916, -0.546826, 8.6754e-05, 4.76126e-05, -0.000191134, 0.481933, 0.481212, 0.282214, 0.00110455, 0.00111858, 0.00280695
-0.00729343, -0.0100855, -0.541292, 8.33182e-05, 4.74679e-05, -0.000186984, 0.480778, 0.481009, 0.28136, 0.00110159, 0.00111835, 0.00277471
-0.007115, -0.0102551, -0.544921, 8.57961e-05, 4.72506e-05, -0.00018793, 0.480125, 0.48066, 0.280635, 0.00109805, 0.0011181, 0.00273465
-0.0059696, -0.0106282, -0.549552, 8.85363e-05, 4.65556e-05, -0.000183714, 0.480182, 0.480305, 0.280127, 0.00109432, 0.00111782, 0.00269043
-0.00461066, -0.0118533, -0.557166, 9.35767e-05, 4.56171e-05, -0.000179749, 0.481017, 0.480059, 0.279931, 0.0010907, 0.00111753, 0.0026459
-0.00410956, -0.0109703, -0.555521, 9.19643e-05, 4.55275e-05, -0.00017539, 0.482571, 0.479978, 0.280071, 0.00108733, 0.00111723, 0.00260472
-0.0019613, -0.0143492, -0.56489, 9.80753e-05, 4.48046e-05, -0.00017047, 0.484669, 0.480036, 0.280534, 0.00108433, 0.00111695, 0.00257014
-0.000244233, -0.0177635, -0.573349, 0.000103488, 4.43754e-05, -0.000167969, 0.487086, 0.480272, 0.281217, 0.00108187, 0.00111669, 0.00254416
0.000894739, -0.0187918, -0.572904, 0.000102668, 4.40617e-05, -0.000163602, 0.489513, 0.480656, 0.281959, 0.0010801, 0.00111648, 0.00252716
0.00191297, -0.0205584, -0.573193, 0.000102426, 4.36793e-05, -0.000161069, 0.491619, 0.481135, 0.2826, 0.00107907, 0.00111629, 0.00251841
0.00273559, -0.0235667, -0.575312, 0.000102719, 4.29927e-05, -0.000159975, 0.493133, 0.481719, 0.282959, 0.00107863, 0.0011161, 0.00251583
0.00249663, -0.0238201, -0.562947, 0.00010097, 4.44299e-05, -0.000159099, 0.493943, 0.482375, 0.282959, 0.00107842, 0.00111591, 0.00251572
0.00180843, -0.0252719, -0.557597, 0.000100726, 4.48403e-05, -0.000158134, 0.494103, 0.483001, 0.282667, 0.00107807, 0.00111571, 0.00251445
0.00165847, -0.0266739, -0.560977, 9.99228e-05, 4.43615e-05, -0.000157503, 0.493852, 0.483601, 0.282199, 0.00107735, 0.00111551, 0.0025096
0.00134438, -0.0278679, -0.561817, 9.93966e-05, 4.40702e-05, -0.000156588, 0.493436, 0.484185, 0.281636, 0.00107623, 0.00111525, 0.00250082
0.000242917, -0.0282329, -0.560695, 9.91996e-05, 4.41152e-05, -0.00015387, 0.493032, 0.484728, 0.281046, 0.00107477, 0.00111498, 0.00248897
-0.000331971, -0.0280651, -0.556839, 0.000100559, 4.42408e-05, -0.000153243, 0.49281, 0.485229, 0.280528, 0.00107308, 0.00111472, 0.00247548
-0.00198721, -0.0283903, -0.552355, 0.000101692, 4.42373e-05, -0.000149627, 0.492871, 0.485702, 0.280142, 0.00107129, 0.00111443, 0.00246182
-0.00294733, -0.0284268, -0.552016, 0.000101338, 4.42936e-05, -0.000147059, 0.493226, 0.486163, 0.279934, 0.00106953, 0.00111407, 0.00244875
-0.00388334, -0.0283607, -0.551664, 0.000101036, 4.43579e-05, -0.000144573, 0.493803, 0.486607, 0.279896, 0.00106788, 0.00111369, 0.00243647
-0.00465467, -0.028327, -0.552363, 0.000100308, 4.46108e-05, -0.000142397, 0.494571, 0.48708, 0.280016, 0.00106642, 0.00111329, 0.0024253
-0.00434575, -0.0278534, -0.557409, 9.8251e-05, 4.59598e-05, -0.000141143, 0.495558, 0.487703, 0.280288, 0.00106521, 0.0011128, 0.00241588
-0.00354712, -0.027209, -0.560051, 9.75549e-05, 4.68143e-05, -0.000141069, 0.496657, 0.488467, 0.280698, 0.00106423, 0.00111215, 0.00240862
-0.00345725, -0.0265835, -0.55956, 9.77926e-05, 4.68107e-05, -0.000140348, 0.497748, 0.489305, 0.281174, 0.00106346, 0.00111145, 0.00240342
-0.00264956, -0.0254031, -0.563792, 9.68799e-05, 4.85571e-05, -0.000139118, 0.498747, 0.490174, 0.281712, 0.00106289, 0.00111067, 0.00239989
-0.00482823, -0.0243885, -0.555557, 9.82042e-05, 4.58334e-05, -0.000136958, 0.499641, 0.491069, 0.282298, 0.00106244, 0.00110976, 0.00239754
-0.00296855, -0.0235981, -0.556095, 9.87246e-05, 4.59332e-05, -0.000136749, 0.500493, 0.491918, 0.282809, 0.0010621, 0.00110896, 0.00239656
-0.00230589, -0.0232033, -0.554608, 9.91028e-05, 4.54696e-05, -0.000136733, 0.50135, 0.492679, 0.283189, 0.00106181, 0.00110827, 0.00239644
-0.00179378, -0.0227013, -0.55452, 9.92964e-05, 4.5533e-05, -0.000136953, 0.502121, 0.493287, 0.283233, 0.00106153, 0.00110785, 0.00239585
-0.00063107, -0.0227194, -0.555995, 9.96025e-05, 4.52414e-05, -0.000136648, 0.502734, 0.49378, 0.282965, 0.00106122, 0.00110744, 0.00239303
0.000633606, -0.0229412, -0.557046, 9.99437e-05, 4.46667e-05, -0.000135818, 0.503012, 0.494262, 0.282305, 0.00106084, 0.00110664, 0.00238683
0.00132102, -0.0222086, -0.550178, 9.92758e-05, 4.87873e-05, -0.000138154, 0.503037, 0.494882, 0.281448, 0.00106038, 0.00110518, 0.00237709
0.000872202, -0.0226761, -0.551954, 9.93778e-05, 4.76316e-05, -0.000137201, 0.50314, 0.49575, 0.280719, 0.00105982, 0.00110356, 0.00236362
0.00129022, -0.0227509, -0.551583, 9.93229e-05, 4.77209e-05, -0.000136309, 0.503476, 0.49695, 0.280263, 0.00105913, 0.00110209, 0.00234718
0.00148277, -0.0230807, -0.551276, 9.91237e-05, 4.7785e-05, -0.000134938, 0.503836, 0.498373, 0.280048, 0.00105841, 0.0011007, 0.0023303
0.000491037, -0.0238119, -0.554334, 9.9691e-05, 4.61895e-05, -0.000134268, 0.504167, 0.499846, 0.280059, 0.00105779, 0.00109954, 0.00231622
-0.00205191, -0.0258509, -0.561742, 0.000100853, 4.3175e-05, -0.000133022, 0.504544, 0.501236, 0.280206, 0.0010573, 0.00109876, 0.00230684
-0.00328844, -0.0271715, -0.564006, 0.000100926, 4.2399e-05, -0.000132128, 0.505062, 0.502495, 0.280383, 0.00105693, 0.00109828, 0.00230176
-0.00536597, -0.0263389, -0.556198, 9.92472e-05, 4.36253e-05, -0.000133002, 0.505784, 0.503564, 0.280533, 0.00105665, 0.001098, 0.00229967
-0.00768384, -0.0259056, -0.549823, 9.8005e-05, 4.37981e-05, -0.000133691, 0.506646, 0.504361, 0.280613, 0.00105645, 0.00109779, 0.002299
-0.00818967, -0.0268567, -0.554083, 9.83299e-05, 4.46286e-05, -0.000134949, 0.507519, 0.504844, 0.28064, 0.00105634, 0.0010975, 0.00229833
-0.00935104, -0.0273869, -0.552358, 9.80808e-05, 4.41486e-05, -0.000135901, 0.508326, 0.505058, 0.280632, 0.00105627, 0.00109699, 0.00229645
-0.0103402, -0.0274282, -0.549468, 9.79948e-05, 4.29176e-05, -0.000135961, 0.508972, 0.505027, 0.280636, 0.00105621, 0.00109616, 0.00229249
-0.0123898, -0.0277657, -0.546057, 9.79772e-05, 4.12912e-05, -0.00013674, 0.509454, 0.504889, 0.280706, 0.00105614, 0.00109504, 0.00228647
-0.0128858, -0.0283502, -0.548954, 9.75648e-05, 4.31908e-05, -0.000138152, 0.509764, 0.504761, 0.28092, 0.00105602, 0.00109361, 0.00227867
-0.0121935, -0.0288959, -0.553272, 9.6932e-05, 4.62101e-05, -0.000139661, 0.509892, 0.504727, 0.281326, 0.00105586, 0.00109185, 0.00226925
-0.0107148, -0.0287778, -0.558189, 9.60741e-05, 5.00104e-05, -0.000139818, 0.509814, 0.504832, 0.281976, 0.00105566, 0.00108976, 0.00225861
-0.0107796, -0.028432, -0.558783, 9.59248e-05, 5.05269e-05, -0.000138856, 0.509544, 0.505125, 0.282896, 0.00105545, 0.00108737, 0.00224747
-0.0104365, -0.0281209, -0.557827, 9.62482e-05, 4.95207e-05, -0.000137961, 0.509065, 0.505598, 0.284119, 0.00105523, 0.00108467, 0.00223639
-0.00915911, -0.0274081, -0.559319, 9.58454e-05, 5.07899e-05, -0.000136701, 0.508509, 0.506237, 0.285512, 0.00105498, 0.00108216, 0.00222601
-0.00839883, -0.027111, -0.558448, 9.60886e-05, 4.99717e-05, -0.000136366, 0.507953, 0.507086, 0.287054, 0.00105475, 0.00107976, 0.00221721
-0.00793378, -0.0263984, -0.559308, 9.58873e-05, 5.0661e-05, -0.00013508, 0.507487, 0.50812, 0.288669, 0.00105458, 0.00107759, 0.00221042
-0.00723978, -0.0263792, -0.558657, 9.60112e-05, 5.00982e-05, -0.00013547, 0.507146, 0.509217, 0.290251, 0.00105443, 0.00107573, 0.00220617
-0.00533717, -0.0259634, -0.559988, 9.56805e-05, 5.0813e-05, -0.000135688, 0.506959, 0.51025, 0.291627, 0.00105427, 0.00107441, 0.00220401
-0.00341358, -0.0254526, -0.559819, 9.56386e-05, 5.05406e-05, -0.000136234, 0.506968, 0.511199, 0.292691, 0.00105408, 0.00107359, 0.00220334
-0.00210787, -0.0258294, -0.562123, 9.51449e-05, 5.12119e-05, -0.000136109, 0.507257, 0.512057, 0.293272, 0.00105387, 0.00107326, 0.00220323
-0.000792467, -0.0263014, -0.561225, 9.49104e-05, 5.09268e-05, -0.000135837, 0.507831, 0.51281, 0.293398, 0.00105359, 0.00107313, 0.00220195
-0.000135976, -0.0264555, -0.564151, 9.46625e-05, 5.0644e-05, -0.000135416, 0.508514, 0.513431, 0.292949, 0.00105322, 0.00107304, 0.00219802
0.00113836, -0.0268557, -0.561292, 9.43824e-05, 5.1385e-05, -0.000134559, 0.50916, 0.514043, 0.29188, 0.00105275, 0.00107259, 0.00219069
0.00186546, -0.0264167, -0.557977, 9.448e-05, 5.30059e-05, -0.000136364, 0.509733, 0.514766, 0.290415, 0.00105218, 0.0010715, 0.00217997
0.00208218, -0.0267174, -0.557849, 9.42456e-05, 5.30708e-05, -0.000135302, 0.510299, 0.515701, 0.28887, 0.00105151, 0.00106985, 0.00216589
0.00213612, -0.0265049, -0.555947, 9.41175e-05, 5.43484e-05, -0.000135779, 0.510998, 0.516914, 0.287562, 0.00105077, 0.00106808, 0.00214959
0.00267103, -0.025881, -0.551792, 9.36785e-05, 5.72599e-05, -0.000137116, 0.511661, 0.518336, 0.286443, 0.00105008, 0.0010661, 0.00213378
0.00258446, -0.0255055, -0.547268, 9.29642e-05, 6.05405e-05, -0.000137611, 0.512297, 0.519843, 0.285588, 0.00104949, 0.00106421, 0.00212058
0.00127933, -0.0276302, -0.554943, 9.3971e-05, 5.5178e-05, -0.000133633, 0.512785, 0.521301, 0.284857, 0.001049, 0.00106228, 0.00211092
-0.00110741, -0.0297544, -0.560411, 9.47262e-05, 5.20007e-05, -0.000131173, 0.513389, 0.522702, 0.284308, 0.00104859, 0.00106068, 0.00210505
-0.00320981, -0.0298341, -0.555726, 9.374e-05, 5.51032e-05, -0.000131484, 0.514135, 0.523903, 0.283857, 0.00104827, 0.00105949, 0.00210259
-0.0040119, -0.0297347, -0.553621, 9.33202e-05, 5.60811e-05, -0.000131843, 0.515069, 0.524785, 0.283504, 0.00104804, 0.00105883, 0.00210198
-0.00519616, -0.0306952, -0.551727, 9.28541e-05, 5.67121e-05, -0.000132676, 0.516173, 0.525361, 0.28324, 0.00104787, 0.00105853, 0.00210163
-0.00565228, -0.0317378, -0.555406, 9.32937e-05, 5.66521e-05, -0.000133672, 0.517337, 0.525671, 0.283034, 0.00104777, 0.00105838, 0.00210032
-0.00554628, -0.0320719, -0.554657, 9.3214e-05, 5.65283e-05, -0.000134129, 0.518516, 0.525823, 0.282905, 0.00104772, 0.0010582, 0.00209731
-0.00492958, -0.0321832, -0.552221, 9.3177e-05, 5.59037e-05, -0.000134225, 0.519627, 0.525894, 0.282855, 0.00104769, 0.00105794, 0.00209252
-0.00529139, -0.03217, -0.555818, 9.30605e-05, 5.69773e-05, -0.000134279, 0.520656, 0.525997, 0.282906, 0.00104764, 0.00105759, 0.00208634
-0.00484223, -0.0318851, -0.560867, 9.26271e-05, 5.86932e-05, -0.000134043, 0.521623, 0.526242, 0.283113, 0.00104754, 0.00105705, 0.00207922
-0.00611333, -0.0309026, -0.556052, 9.32323e-05, 5.67131e-05, -0.000131163, 0.522466, 0.526641, 0.283562, 0.00104737, 0.00105622, 0.00207134
-0.00691795, -0.0297699, -0.556603, 9.2933e-05, 5.72854e-05, -0.000128801, 0.523077, 0.527133, 0.284262, 0.00104713, 0.00105513, 0.00206294
-0.00509467, -0.0286122, -0.562329, 9.16388e-05, 6.07953e-05, -0.000127232, 0.523437, 0.527756, 0.285239, 0.00104686, 0.00105373, 0.00205453
-0.00411409, -0.0275653, -0.562667, 9.17014e-05, 6.08973e-05, -0.000125029, 0.523552, 0.528544, 0.286466, 0.00104658, 0.00105209, 0.00204657
-0.00382817, -0.0268616, -0.564894, 9.09985e-05, 6.24602e-05, -0.000123888, 0.523439, 0.529442, 0.287799, 0.00104632, 0.0010505, 0.00203938
-0.00321168, -0.0263447, -0.563048, 9.16188e-05, 6.11563e-05, -0.000122924, 0.523206, 0.530487, 0.289161, 0.0010461, 0.00104907, 0.00203336
-0.00264064, -0.0258877, -0.563882, 9.14011e-05, 6.16618e-05, -0.000122322, 0.522922, 0.531628, 0.290511, 0.00104594, 0.00104779, 0.00202883
-0.00335418, -0.0254798, -0.56124, 9.19833e-05, 6.01609e-05, -0.000121773, 0.522656, 0.532754, 0.291746, 0.0010458, 0.00104676, 0.00202608
-0.00339683, -0.0250929, -0.559162, 9.23351e-05, 5.91991e-05, -0.000121586, 0.52247, 0.53375, 0.292749, 0.00104568, 0.00104607, 0.00202488
-0.0022486, -0.0252433, -0.555949, 9.24291e-05, 5.80546e-05, -0.000121956, 0.52243, 0.534562, 0.293496, 0.00104556, 0.00104562, 0.00202475
0.00106075, -0.0257592, -0.558731, 9.17564e-05, 5.85673e-05, -0.000121805, 0.522517, 0.535096, 0.293814, 0.0010454, 0.00104544, 0.00202453
0.00318656, -0.0266454, -0.559501, 9.11851e-05, 5.8587e-05, -0.00012076, 0.522718, 0.535362, 0.293497, 0.00104517, 0.00104539, 0.00202292
0.00473355, -0.0264832, -0.557295, 9.08138e-05, 5.88831e-05, -0.000120813, 0.52298, 0.535453, 0.292705, 0.00104482, 0.00104516, 0.00201881
0.00691333, -0.0259541, -0.55332, 9.01591e-05, 6.02502e-05, -0.000121236, 0.523236, 0.53559, 0.291389, 0.00104433, 0.00104439, 0.00201187
0.00818317, -0.0260715, -0.552363, 8.96303e-05, 6.07367e-05, -0.000120357, 0.523445, 0.535931, 0.289721, 0.00104368, 0.00104277, 0.00200223
0.0102779, -0.0256191, -0.547565, 8.86758e-05, 6.40305e-05, -0.000120342, 0.523655, 0.536584, 0.287978, 0.00104285, 0.00104037, 0.00199036
0.010536, -0.0251781, -0.545853, 8.85317e-05, 6.53726e-05, -0.000121307, 0.523895, 0.537538, 0.286405, 0.00104194, 0.00103749, 0.00197738
0.0105068, -0.0250854, -0.544875, 8.84872e-05, 6.62745e-05, -0.00012161, 0.524026, 0.538681, 0.285057, 0.00104109, 0.00103424, 0.00196506
0.00691307, -0.027099, -0.553576, 8.97493e-05, 5.87662e-05, -0.000118304, 0.523932, 0.539883, 0.283924, 0.00104037, 0.00103066, 0.00195492
0.00770636, -0.0271953, -0.548938, 8.91136e-05, 6.32637e-05, -0.00011807, 0.523832, 0.54112, 0.283037, 0.0010397, 0.0010271, 0.00194758
0.00723863, -0.0270853, -0.546516, 8.90052e-05, 6.54837e-05, -0.000118433, 0.523946, 0.542268, 0.282442, 0.00103912, 0.0010242, 0.00194299
0.00564383, -0.0272827, -0.545037, 8.92734e-05, 6.69486e-05, -0.000118718, 0.524275, 0.543264, 0.282005, 0.00103867, 0.00102196, 0.00194093
0.00303319, -0.0284579, -0.551064, 9.0479e-05, 6.39086e-05, -0.000118835, 0.524954, 0.544091, 0.281635, 0.00103828, 0.00102044, 0.0019405
0.00175161, -0.0289412, -0.552551, 9.09686e-05, 6.36238e-05, -0.000119042, 0.526071, 0.544827, 0.281267, 0.00103791, 0.00101945, 0.00194035
0.00104892, -0.0299494, -0.550854, 9.08044e-05, 6.45021e-05, -0.000120341, 0.52763, 0.545597, 0.280928, 0.00103755, 0.00101879, 0.0019391
0.000970376, -0.0317036, -0.560493, 9.15315e-05, 6.44931e-05, -0.000122363, 0.529476, 0.546511, 0.280634, 0.00103728, 0.0010182, 0.00193606
0.000782184, -0.0327201, -0.564248, 9.13735e-05, 6.5177e-05, -0.000123787, 0.531436, 0.547615, 0.280358, 0.00103708, 0.00101754, 0.00193095
-0.000370603, -0.0331607, -0.559591, 9.20892e-05, 6.48276e-05, -0.00012365, 0.533345, 0.548811, 0.280158, 0.00103687, 0.00101681, 0.00192399
-0.00107314, -0.0340165, -0.554286, 9.32856e-05, 6.37478e-05, -0.000124311, 0.535094, 0.55, 0.280109, 0.00103658, 0.0010161, 0.00191567
-0.000305307, -0.0335906, -0.555592, 9.289e-05, 6.3923e-05, -0.000124513, 0.536595, 0.551093, 0.280274, 0.00103618, 0.00101542, 0.00190713
0.000477191, -0.0334628, -0.557205, 9.2376e-05, 6.4448e-05, -0.00012512, 0.537793, 0.552037, 0.280629, 0.00103567, 0.00101482, 0.00189977
0.000133535, -0.0333511, -0.553466, 9.3862e-05, 6.29369e-05, -0.000124185, 0.538637, 0.552758, 0.281138, 0.0010351, 0.00101421, 0.0018943
0.000766809, -0.0329243, -0.552719, 9.42613e-05, 6.26124e-05, -0.000124057, 0.539034, 0.553143, 0.281758, 0.00103447, 0.00101357, 0.00189071
0.00192035, -0.0319575, -0.553335, 9.41568e-05, 6.29667e-05, -0.00012355, 0.538904, 0.553124, 0.282401, 0.00103386, 0.00101288, 0.00188883
0.0026289, -0.0310195, -0.553258, 9.42153e-05, 6.32311e-05, -0.000123055, 0.538151, 0.552607, 0.282947, 0.00103335, 0.00101214, 0.00188808
0.00369284, -0.0294094, -0.561504, 9.23286e-05, 6.60691e-05, -0.000123112, 0.5368, 0.551608, 0.283336, 0.00103283, 0.00101134, 0.00188758
0.00306035, -0.0291429, -0.559586, 9.24594e-05, 6.56665e-05, -0.000123368, 0.535168, 0.55038, 0.283513, 0.0010323, 0.00101054, 0.00188668
0.00276647, -0.0287952, -0.559651, 9.23297e-05, 6.57453e-05, -0.000123894, 0.533526, 0.549092, 0.28363, 0.00103181, 0.00100966, 0.00188521
0.00426947, -0.028837, -0.559281, 9.28175e-05, 6.59267e-05, -0.000122382, 0.532037, 0.547838, 0.283815, 0.0010313, 0.00100869, 0.00188314
0.00441653, -0.0288254, -0.559473, 9.28541e-05, 6.59983e-05, -0.000122326, 0.530703, 0.546615, 0.284035, 0.00103072, 0.0010077, 0.00188082
0.00456967, -0.0291387, -0.557658, 9.31104e-05, 6.57016e-05, -0.000121995, 0.529504, 0.54543, 0.284157, 0.00103005, 0.00100679, 0.00187857
0.00367875, -0.0300994, -0.555827, 9.29352e-05, 6.50644e-05, -0.000121558, 0.528469, 0.544381, 0.2842, 0.00102931, 0.0010059, 0.00187648
0.00221102, -0.0304442, -0.552607, 9.24586e-05, 6.46077e-05, -0.000121841, 0.527724, 0.543618, 0.284222, 0.00102861, 0.00100507, 0.00187459
0.00208277, -0.031309, -0.55292, 9.24553e-05, 6.42394e-05, -0.000121245, 0.527358, 0.543248, 0.284256, 0.00102794, 0.0010043, 0.00187294
0.00188956, -0.0326198, -0.552965, 9.23307e-05, 6.36525e-05, -0.000120407, 0.527537, 0.543448, 0.284268, 0.00102731, 0.00100359, 0.00187158
0.00241986, -0.0337253, -0.555562, 9.2644e-05, 6.31795e-05, -0.000119502, 0.528306, 0.544241, 0.284285, 0.00102671, 0.00100296, 0.00187055
0.00143002, -0.033118, -0.54834, 9.17071e-05, 6.40451e-05, -0.000120255, 0.529583, 0.545543, 0.28418, 0.00102616, 0.00100245, 0.00186981
0.0017091, -0.0342808, -0.551951, 9.18564e-05, 6.29196e-05, -0.000119288, 0.531173, 0.547205, 0.283887, 0.00102562, 0.0010019, 0.0018692
0.000988765, -0.0335526, -0.548121, 9.15433e-05, 6.44634e-05, -0.000120135, 0.533083, 0.549225, 0.28351, 0.00102504, 0.00100122, 0.00186886
0.000410649, -0.0333925, -0.546058, 9.12986e-05, 6.53041e-05, -0.000120162, 0.535244, 0.55149, 0.283138, 0.00102437, 0.00100044, 0.00186866
0.000632081, -0.0332263, -0.546154, 9.14146e-05, 6.513e-05, -0.000120183, 0.537516, 0.55389, 0.282713, 0.00102361, 0.000999466, 0.00186849
0.000503089, -0.0335281, -0.544218, 9.10248e-05, 6.60136e-05, -0.000120093, 0.539789, 0.556309, 0.282253, 0.00102279, 0.000998335, 0.00186832
0.00378674, -0.0331339, -0.537273, 8.93715e-05, 6.70082e-05, -0.000120976, 0.542036, 0.558685, 0.281802, 0.00102187, 0.000997084, 0.00186808
0.00516907, -0.0327776, -0.539011, 8.92059e-05, 6.54917e-05, -0.000121691, 0.544154, 0.560926, 0.281348, 0.00102086, 0.000995681, 0.00186778
0.00421322, -0.0330984, -0.545719, 9.01858e-05, 6.28811e-05, -0.000121523, 0.546063, 0.562961, 0.280889, 0.00101976, 0.00099407, 0.00186746
0.00280593, -0.0341141, -0.554788, 9.12338e-05, 5.93097e-05, -0.000121352, 0.547702, 0.564754, 0.280441, 0.00101858, 0.000992231, 0.00186714
0.000680226, -0.0352816, -0.56312, 9.26385e-05, 5.65234e-05, -0.000120819, 0.549128, 0.566298, 0.280049, 0.00101737, 0.000990395, 0.00186684
0.000765061, -0.0353818, -0.561566, 9.24686e-05, 5.72682e-05, -0.000120779, 0.55039, 0.567629, 0.279715, 0.00101616, 0.000988627, 0.00186656
-0.00145223, -0.0368313, -0.57265, 9.4137e-05, 5.34627e-05, -0.000120538, 0.551355, 0.568646, 0.279418, 0.00101501, 0.000986945, 0.00186632
-0.00224209, -0.0364291, -0.57859, 9.48312e-05, 5.08975e-05, -0.000120455, 0.552069, 0.569383, 0.279175, 0.00101394, 0.000985378, 0.00186612
-0.00211477, -0.0372189, -0.579555, 9.47687e-05, 5.09133e-05, -0.00012059, 0.552638, 0.569941, 0.278989, 0.00101295, 0.000983966, 0.00186597
-0.001202, -0.0378683, -0.578151, 9.4273e-05, 5.16657e-05, -0.000120835, 0.553049, 0.570313, 0.278846, 0.00101208, 0.000982749, 0.00186586
-0.000840897, -0.0384858, -0.576457, 9.40881e-05, 5.24414e-05, -0.000120937, 0.55331, 0.57052, 0.278737, 0.00101133, 0.00098172, 0.00186579
-0.000579968, -0.0388683, -0.57463, 9.39826e-05, 5.30732e-05, -0.000121001, 0.553451, 0.5706, 0.278653, 0.00101071, 0.000980882, 0.00186575
-3.45051e-05, -0.0389069, -0.570646, 9.38236e-05, 5.39782e-05, -0.000121052, 0.553505, 0.570591, 0.278587, 0.00101022, 0.000980223, 0.00186572
0.000468664, -0.0386553, -0.567724, 9.37236e-05, 5.44625e-05, -0.000121061, 0.553494, 0.570518, 0.278534, 0.00100985, 0.000979725, 0.0018657
0.000477526, -0.0380276, -0.56705, 9.37274e-05, 5.44162e-05, -0.000121025, 0.553461, 0.570425, 0.278496, 0.00100957, 0.000979364, 0.00186569
0.000583862, -0.0374407, -0.564868, 9.37962e-05, 5.45578e-05, -0.000121016, 0.553443, 0.570353, 0.278466, 0.00100937, 0.000979113, 0.00186568
0.000694977, -0.0370451, -0.562681, 9.38991e-05, 5.46995e-05, -0.000121027, 0.553452, 0.570314, 0.278441, 0.00100923, 0.000978947, 0.00186567
0.0014302, -0.0366243, -0.560392, 9.39337e-05, 5.48033e-05, -0.000120999, 0.553508, 0.570331, 0.278427, 0.00100913, 0.000978844, 0.00186565
0.00130464, -0.0363008, -0.558082, 9.4123e-05, 5.48947e-05, -0.000121046, 0.553622, 0.570412, 0.278415, 0.00100906, 0.000978784, 0.00186564
0.00118829, -0.0362322, -0.556725, 9.42283e-05, 5.49406e-05, -0.000121065, 0.553799, 0.570567, 0.278403, 0.00100901, 0.000978751, 0.00186562
0.00166898, -0.0361687, -0.554552, 9.43675e-05, 5.49696e-05, -0.000121062, 0.554054, 0.57081, 0.278398, 0.00100898, 0.000978732, 0.0018656
0.00169948, -0.036514, -0.553386, 9.44236e-05, 5.49889e-05, -0.000121053, 0.554383, 0.571136, 0.278393, 0.00100894, 0.000978717, 0.00186559
0.00170842, -0.036271, -0.552157, 9.45312e-05, 5.49912e-05, -0.000121081, 0.554793, 0.571553, 0.278389, 0.00100891, 0.000978699, 0.00186557
0.00217155, -0.0364704, -0.552558, 9.44861e-05, 5.49548e-05, -0.00012103, 0.555284, 0.572057, 0.278389, 0.00100887, 0.000978675, 0.00186555
0.00253412, -0.0366977, -0.553204, 9.44298e-05, 5.49232e-05, -0.000120986, 0.555852, 0.572647, 0.278386, 0.00100882, 0.000978642, 0.00186553
0.00200735, -0.0368839, -0.553547, 9.43794e-05, 5.49827e-05, -0.000121002, 0.556496, 0.573318, 0.278388, 0.00100876, 0.000978599, 0.00186551
0.00226838, -0.0372222, -0.552981, 9.43686e-05, 5.49308e-05, -0.000120972, 0.557201, 0.574057, 0.27839, 0.0010087, 0.000978547, 0.00186549
0.00179121, -0.0378969, -0.553076, 9.42588e-05, 5.49719e-05, -0.000120935, 0.55795, 0.574844, 0.27839, 0.00100863, 0.000978488, 0.00186547
0.00194539, -0.0379907, -0.553551, 9.42405e-05, 5.49562e-05, -0.000120927, 0.558741, 0.575675, 0.278389, 0.00100856, 0.000978423, 0.00186546
0.00244456, -0.0384056, -0.554028, 9.41779e-05, 5.48782e-05, -0.000120884, 0.559567, 0.576544, 0.278389, 0.00100848, 0.000978353, 0.00186544
0.00257209, -0.0381877, -0.554489, 9.42111e-05, 5.48738e-05, -0.000120886, 0.56042, 0.577438, 0.278392, 0.0010084, 0.00097828, 0.00186543
0.00252273, -0.0385347, -0.554374, 9.41547e-05, 5.4872e-05, -0.000120873, 0.56129, 0.578349, 0.278394, 0.00100832, 0.000978205, 0.00186542
0.00269816, -0.0383028, -0.555032, 9.41975e-05, 5.48563e-05, -0.000120885, 0.562168, 0.579267, 0.278396, 0.00100823, 0.00097813, 0.00186541
0.00275969, -0.0387854, -0.555772, 9.4116e-05, 5.48435e-05, -0.000120853, 0.563051, 0.580189, 0.278397, 0.00100815, 0.000978055, 0.0018654
0.00243673, -0.0391789, -0.55556, 9.40509e-05, 5.48846e-05, -0.000120832, 0.563934, 0.581111, 0.278397, 0.00100807, 0.00097798, 0.00186539
0.00247017, -0.0394691, -0.555651, 9.40059e-05, 5.48711e-05, -0.000120813, 0.564808, 0.582023, 0.278397, 0.00100799, 0.000977907, 0.00186538
0.00188093, -0.0393705, -0.555813, 9.40237e-05, 5.49601e-05, -0.000120819, 0.565674, 0.582925, 0.278399, 0.00100791, 0.000977837, 0.00186537
0.00151176, -0.0397076, -0.556477, 9.39713e-05, 5.50079e-05, -0.000120801, 0.566532, 0.583819, 0.278404, 0.00100784, 0.000977768, 0.00186536
0.0012317, -0.0399344, -0.55621, 9.39388e-05, 5.50469e-05, -0.000120795, 0.567382, 0.584705, 0.278408, 0.00100776, 0.000977701, 0.00186535
