-0.00848229, 0.00233912, -0.561964, 3.77506e-05, 0.0026024, -0.000218969, 0.0316228, 0.0316228, 0.0316228, 0.0316228, 0.0316228, 0.0316228
-0.00848229, 0.00233912, -0.561964, 3.77506e-05, 0.0026024, -0.000218969, 0.172293, 0.172293, 0.172293, 0.0316228, 0.0316228, 0.0316228
-0.0084991, 0.00233839, -0.561801, 3.46821e-05, 0.00260731, -0.00021779, 0.193435, 0.193435, 0.193433, 0.031612, 0.031612, 0.0316188
-0.00853039, 0.0023145, -0.561499, 3.17279e-05, 0.0026128, -0.000218432, 0.212333, 0.212333, 0.212316, 0.0315881, 0.0315881, 0.0316149
-0.00854734, 0.00220667, -0.560973, 1.95391e-05, 0.00261566, -0.000217753, 0.229424, 0.229424, 0.229334, 0.0315381, 0.0315381, 0.0316109
-0.00852094, 0.00202534, -0.560218, -1.922e-06, 0.00261454, -0.000218176, 0.244969, 0.244969, 0.244622, 0.0314467, 0.0314466, 0.031607
-0.0083178, 0.00178286, -0.559339, -3.08848e-05, 0.0025924, -0.000216882, 0.259171, 0.259171, 0.258145, 0.0313028, 0.0313027, 0.031603
-0.00808027, 0.00162952, -0.558314, -4.87115e-05, 0.00256631, -0.000216116, 0.272237, 0.272237, 0.269775, 0.0311048, 0.0311047, 0.031599
-0.00771775, 0.00136779, -0.557171, -8.02152e-05, 0.00252452, -0.000215941, 0.284393, 0.284395, 0.27942, 0.0308589, 0.0308588, 0.031595
-0.00724841, 0.00125008, -0.556382, -9.51884e-05, 0.00246922, -0.00021608, 0.295814, 0.295816, 0.287084, 0.0305733, 0.0305731, 0.031591
-0.00664703, 0.00107358, -0.555637, -0.000116465, 0.00239608, -0.000216293, 0.306629, 0.306632, 0.292948, 0.0302531, 0.0302528, 0.031587
-0.0059941, 0.000988962, -0.555136, -0.000127666, 0.00231988, -0.000216872, 0.316908, 0.316912, 0.297333, 0.0298989, 0.0298986, 0.031583
-0.00527479, 0.000857836, -0.554222, -0.00014297, 0.00222376, -0.00021597, 0.326682, 0.326688, 0.300618, 0.0295079, 0.0295075, 0.0315789
-0.00427002, 0.00126537, -0.549725, -8.85503e-05, 0.00205431, -0.000227388, 0.335976, 0.335983, 0.303185, 0.029075, 0.0290746, 0.0315749
-0.00284151, 0.00208821, -0.551617, -1.85426e-06, 0.00198292, -0.000217842, 0.344824, 0.34482, 0.305375, 0.0285916, 0.0285935, 0.0315709
-0.00150919, 0.00252417, -0.548843, 7.24109e-05, 0.00181533, -0.000201718, 0.353277, 0.353288, 0.307199, 0.0280413, 0.0280405, 0.0315669
-0.000945727, 0.00246984, -0.549989, 7.27031e-05, 0.00168908, -0.000197315, 0.361465, 0.361465, 0.308953, 0.0274142, 0.0274165, 0.0315629
-0.000282612, 0.00250024, -0.549641, 6.21185e-05, 0.00164359, -0.000197683, 0.369442, 0.369383, 0.310793, 0.0267209, 0.0267387, 0.0315589
-0.000242637, 0.00266824, -0.54513, 7.55536e-05, 0.00158182, -0.000208742, 0.377266, 0.377098, 0.312808, 0.0259811, 0.0260296, 0.0315549
-0.000207124, 0.00301164, -0.542064, 0.000113484, 0.00155868, -0.000219543, 0.384868, 0.384629, 0.314613, 0.0252151, 0.0252857, 0.031551
-1.6797e-05, 0.00324271, -0.541313, 0.000145525, 0.00153845, -0.00021809, 0.392267, 0.391997, 0.31612, 0.02444, 0.0245216, 0.0315471
1.1703e-05, 0.00319207, -0.543353, 0.000159229, 0.00149371, -0.000232112, 0.399488, 0.399237, 0.317271, 0.0236731, 0.0237504, 0.0315432
0.000993457, 0.00379575, -0.55105, 0.000260238, 0.00145985, -0.000224318, 0.406468, 0.40632, 0.317772, 0.0229279, 0.0229745, 0.0315392
0.00191489, 0.00342038, -0.55834, 0.000225476, 0.00139609, -0.000217727, 0.413366, 0.4133, 0.318119, 0.0222164, 0.022238, 0.0315351
0.00237383, 0.00255513, -0.562514, 8.88955e-05, 0.00136853, -0.000242179, 0.420241, 0.420225, 0.31846, 0.021542, 0.0215487, 0.0315311
0.00447176, 0.00180731, -0.573591, 3.54741e-05, 0.00123698, -0.000243692, 0.427096, 0.42711, 0.318779, 0.0209059, 0.0209064, 0.0315272
0.00625236, 0.00131402, -0.582026, 2.23725e-05, 0.00108296, -0.000231803, 0.433952, 0.433987, 0.319168, 0.0203208, 0.0203214, 0.0315233
0.00797527, 0.000929664, -0.587515, -3.08787e-05, 0.00091781, -0.000224608, 0.440793, 0.440854, 0.319484, 0.0197908, 0.0197913, 0.0315193
0.0093311, 0.000889561, -0.588027, -4.84877e-05, 0.000769388, -0.000227299, 0.44759, 0.447697, 0.319651, 0.0193121, 0.0193095, 0.0315152
0.0102759, 0.000944362, -0.587644, -3.47117e-05, 0.000661093, -0.000227135, 0.454352, 0.454521, 0.319649, 0.0188768, 0.0188686, 0.0315111
0.01117, 0.000883424, -0.589235, -3.03275e-05, 0.000602802, -0.000229437, 0.461114, 0.461356, 0.319573, 0.0184775, 0.0184626, 0.0315067
0.0119144, 0.000908869, -0.58922, -2.08415e-05, 0.00054941, -0.000231321, 0.467899, 0.468215, 0.319589, 0.0181084, 0.0180895, 0.031502
0.0121256, 0.00104983, -0.586234, -1.12255e-05, 0.000490471, -0.000232135, 0.474714, 0.47511, 0.319724, 0.0177636, 0.0177433, 0.031497
0.0113898, 0.00143536, -0.575714, -1.39581e-05, 0.000400064, -0.000231502, 0.481558, 0.482045, 0.319919, 0.017439, 0.0174171, 0.0314917
0.0103328, 0.00211524, -0.562724, 1.3923e-05, 0.000294373, -0.000229057, 0.488433, 0.489022, 0.320303, 0.0171347, 0.0171068, 0.0314863
0.0098477, 0.00248025, -0.556232, 4.6239e-05, 0.000251684, -0.000226879, 0.495348, 0.496074, 0.321463, 0.0168597, 0.0168105, 0.0314804
0.00989729, 0.00283058, -0.556162, 7.90687e-05, 0.000255268, -0.000221286, 0.502298, 0.503232, 0.324183, 0.016628, 0.0165257, 0.0314739
0.00993395, 0.00295331, -0.557981, 7.45671e-05, 0.000275056, -0.000221546, 0.509251, 0.510462, 0.328732, 0.0164435, 0.0162517, 0.031467
0.010191, 0.00316865, -0.561647, 2.86081e-05, 0.000311261, -0.00023306, 0.516179, 0.517685, 0.334767, 0.0162963, 0.0159909, 0.0314598
0.0105103, 0.00370222, -0.566269, -6.6562e-05, 0.000347097, -0.000254528, 0.523065, 0.524817, 0.341716, 0.0161708, 0.0157448, 0.0314518
0.0108341, 0.00468906, -0.57078, -0.000186098, 0.000384972, -0.000276271, 0.529902, 0.531748, 0.348974, 0.0160469, 0.0155146, 0.0314425
0.0112164, 0.00635224, -0.575305, -0.000335922, 0.000422453, -0.000304976, 0.536685, 0.538279, 0.355935, 0.0158979, 0.0153, 0.0314315
0.0118441, 0.00859622, -0.579594, -0.000524186, 0.000444864, -0.00034299, 0.543413, 0.544084, 0.362112, 0.0156961, 0.0151003, 0.0314181
0.0123022, 0.0109928, -0.583166, -0.000731191, 0.000447437, -0.000384501, 0.550086, 0.548769, 0.367393, 0.0154257, 0.0149135, 0.0314013
0.0134071, 0.0158935, -0.589859, -0.00104099, 0.000477622, -0.000434276, 0.55672, 0.551923, 0.372012, 0.0150811, 0.0147366, 0.0313788
0.0139537, 0.0239566, -0.597964, -0.00169228, 0.000428952, -0.000583973, 0.563322, 0.553013, 0.375591, 0.0146493, 0.0145604, 0.0313469
0.0142685, 0.0311316, -0.605415, -0.0021332, 0.000419742, -0.000655635, 0.56989, 0.551176, 0.377053, 0.0141104, 0.014376, 0.0313003
0.013983, 0.0332265, -0.606933, -0.00216421, 0.000458147, -0.000626811, 0.576411, 0.546069, 0.376569, 0.0134941, 0.0141875, 0.0312359
0.0135654, 0.0299776, -0.602935, -0.00189004, 0.000515254, -0.000545452, 0.582839, 0.538654, 0.376308, 0.0128911, 0.0140117, 0.0311466
0.0137609, 0.0282663, -0.601332, -0.00179544, 0.000538965, -0.000524957, 0.589138, 0.530205, 0.377752, 0.0123615, 0.0138594, 0.031027
0.0140645, 0.0236606, -0.59694, -0.00155348, 0.000581613, -0.000467765, 0.59532, 0.521706, 0.380835, 0.0119155, 0.0137241, 0.0308773
0.0145663, 0.0178589, -0.591843, -0.00128411, 0.000618684, -0.000423788, 0.601366, 0.513825, 0.385563, 0.011552, 0.0136068, 0.0306933
0.0152811, 0.0121214, -0.586936, -0.00102516, 0.000651758, -0.000390172, 0.607283, 0.506809, 0.391606, 0.0112553, 0.0135066, 0.0304703
0.0161959, 0.00624277, -0.582371, -0.000784258, 0.000679957, -0.000375383, 0.613081, 0.500547, 0.398573, 0.0110063, 0.0134217, 0.0302038
0.0171351, 0.00144225, -0.579033, -0.00060438, 0.000705995, -0.000370557, 0.618769, 0.494814, 0.406084, 0.0107895, 0.0133505, 0.0298898
0.0179803, -0.000974662, -0.576035, -0.000443035, 0.000735479, -0.000358958, 0.624366, 0.489599, 0.413805, 0.0105983, 0.0132909, 0.0295259
0.0182458, 0.000646755, -0.573851, -0.000340846, 0.000766927, -0.000309782, 0.629888, 0.4852, 0.421509, 0.0104344, 0.0132423, 0.0291138
0.0182382, 0.00424566, -0.572285, -0.000288306, 0.000797263, -0.000249314, 0.63536, 0.482497, 0.429028, 0.0103074, 0.0132034, 0.0286637
0.0186526, 0.0032799, -0.568761, -0.00019581, 0.000806738, -0.000299784, 0.640796, 0.481881, 0.436303, 0.0102168, 0.0131732, 0.02819
0.0185654, 0.00477372, -0.566608, -0.000109559, 0.000829784, -0.000211975, 0.646212, 0.483254, 0.443372, 0.0101519, 0.01315, 0.027701
0.0185877, 0.00551936, -0.564578, -6.02044e-05, 0.000844915, -0.00018135, 0.6516, 0.486491, 0.450212, 0.0101047, 0.0131327, 0.0271984
0.0185537, 0.00739767, -0.56474, -4.08571e-05, 0.000851491, -0.000176548, 0.656991, 0.491289, 0.456783, 0.0100658, 0.0131191, 0.0266893
0.0187206, 0.00916122, -0.565177, -2.55988e-06, 0.000857873, -0.000191699, 0.662408, 0.497382, 0.463025, 0.010025, 0.0131078, 0.0261698
0.0188596, 0.00884207, -0.563126, 4.32481e-05, 0.000854917, -0.000251906, 0.667812, 0.50421, 0.468811, 0.00997033, 0.0130981, 0.0256436
0.0187227, 0.0068914, -0.558147, 5.58678e-05, 0.000844166, -0.000327418, 0.673158, 0.511207, 0.473955, 0.0098924, 0.0130894, 0.0251222
0.0186015, 0.00567551, -0.555137, 6.02051e-05, 0.000844431, -0.000353462, 0.67843, 0.518103, 0.478191, 0.00978373, 0.0130803, 0.0246197
0.0184554, 0.00392643, -0.549054, 1.48754e-05, 0.000843028, -0.000404991, 0.683631, 0.524995, 0.481298, 0.00962979, 0.0130692, 0.0241413
0.0170393, 0.00268191, -0.538511, -0.000134757, 0.000807514, -0.000500983, 0.688755, 0.531887, 0.482845, 0.00942124, 0.0130551, 0.0237046
0.0157589, 0.0024962, -0.527675, -0.000304148, 0.000773729, -0.000592782, 0.693805, 0.538655, 0.482493, 0.00916546, 0.0130384, 0.0233172
0.015104, 0.00261506, -0.517356, -0.000445192, 0.000750272, -0.000693537, 0.698795, 0.545487, 0.479523, 0.00888616, 0.0130204, 0.0229828
0.0151838, 0.00296047, -0.508819, -0.00053324, 0.000739889, -0.000782028, 0.703743, 0.552404, 0.473177, 0.00859666, 0.0130022, 0.0227024
0.0156585, 0.0036315, -0.502697, -0.00057905, 0.000733094, -0.000863807, 0.708657, 0.55916, 0.463182, 0.00829803, 0.0129843, 0.0224701
0.0163703, 0.00407087, -0.500791, -0.00057599, 0.000728183, -0.000925583, 0.713559, 0.565368, 0.450239, 0.0079903, 0.0129666, 0.0222805
0.0169273, 0.00471612, -0.499201, -0.000576205, 0.000716888, -0.000979319, 0.718466, 0.570617, 0.435633, 0.00767786, 0.012948, 0.0221288
0.0171927, 0.00637348, -0.495436, -0.000618398, 0.000691455, -0.00104465, 0.723388, 0.574578, 0.420724, 0.00737594, 0.0129272, 0.0220128
0.0175703, 0.0083945, -0.491597, -0.000657911, 0.000665869, -0.00110558, 0.728316, 0.576902, 0.406431, 0.00709862, 0.0129027, 0.0219321
0.0183472, 0.00948845, -0.49151, -0.000618839, 0.000652811, -0.00111915, 0.733229, 0.577112, 0.393038, 0.00684844, 0.0128721, 0.0218826
0.0195088, 0.00973025, -0.494945, -0.000519157, 0.000646554, -0.00109533, 0.73811, 0.574836, 0.381003, 0.00662086, 0.0128335, 0.0218571
0.0206033, 0.00970278, -0.497716, -0.000454557, 0.000633644, -0.0010781, 0.742932, 0.569896, 0.370828, 0.00641143, 0.0127853, 0.0218464
0.021601, 0.0101697, -0.500404, -0.000396586, 0.000605465, -0.00104265, 0.747669, 0.562273, 0.362868, 0.0062188, 0.0127263, 0.0218386
0.0226382, 0.0100877, -0.505214, -0.000315124, 0.000590329, -0.000991481, 0.752289, 0.552122, 0.357207, 0.00604234, 0.0126567, 0.021821
0.023665, 0.00880426, -0.512681, -0.000205892, 0.000590012, -0.000934985, 0.756775, 0.540068, 0.353917, 0.00588054, 0.0125758, 0.021782
0.0244601, 0.00845253, -0.518936, -0.000121909, 0.000592692, -0.000891125, 0.761147, 0.526986, 0.352863, 0.00573209, 0.0124833, 0.0217126
0.0249688, 0.0124071, -0.523089, -7.85285e-05, 0.000586316, -0.000846344, 0.765437, 0.513575, 0.353603, 0.00559769, 0.0123793, 0.0216068
0.0252212, 0.0209625, -0.523737, -9.4757e-05, 0.000561252, -0.000798906, 0.76968, 0.500477, 0.355609, 0.00548169, 0.0122642, 0.0214597
0.0252882, 0.0362488, -0.520162, -0.00017917, 0.000502836, -0.000721764, 0.773893, 0.488647, 0.358523, 0.00538896, 0.0121392, 0.0212675
0.0248952, 0.0528372, -0.517816, -0.000260018, 0.000455981, -0.000659884, 0.778089, 0.479294, 0.362197, 0.00532257, 0.0120067, 0.0210291
0.0252591, 0.0655582, -0.521298, -0.000289182, 0.000429514, -0.000600159, 0.782269, 0.473331, 0.366553, 0.00528113, 0.0118705, 0.0207484
0.025627, 0.0747839, -0.528144, -0.000291354, 0.000398051, -0.000531836, 0.786422, 0.470815, 0.371472, 0.00525856, 0.0117339, 0.0204312
0.0259418, 0.0800217, -0.538121, -0.000273242, 0.000373999, -0.000480778, 0.790525, 0.471184, 0.376699, 0.0052488, 0.0116015, 0.0200864
0.0256515, 0.0795232, -0.551124, -0.000238514, 0.000374473, -0.000492222, 0.794567, 0.4735, 0.381866, 0.0052453, 0.0114775, 0.0197257
0.0252993, 0.0780315, -0.562874, -0.000209994, 0.000369843, -0.000502853, 0.798517, 0.476931, 0.386529, 0.0052423, 0.0113658, 0.0193659
0.0248408, 0.0773827, -0.572613, -0.000187632, 0.000367362, -0.000519576, 0.802345, 0.481254, 0.390376, 0.00523503, 0.0112696, 0.0190281
0.0246427, 0.0751537, -0.58415, -0.000177644, 0.00037798, -0.000556794, 0.806037, 0.48643, 0.393161, 0.00521775, 0.0111891, 0.0187263
0.025031, 0.0725747, -0.597442, -0.000182075, 0.000404337, -0.000611226, 0.809598, 0.492223, 0.394619, 0.00518504, 0.0111213, 0.0184611
0.0261854, 0.0693747, -0.611511, -0.000218003, 0.000444011, -0.000681279, 0.813087, 0.498421, 0.394542, 0.00513482, 0.0110613, 0.0182297
0.0282671, 0.0661037, -0.623055, -0.00029739, 0.000469932, -0.000724057, 0.816542, 0.505003, 0.392962, 0.00506683, 0.0110061, 0.0180296
0.031522, 0.0634595, -0.635663, -0.000419117, 0.00050006, -0.000759484, 0.820028, 0.51186, 0.389956, 0.00498183, 0.0109539, 0.017859
0.031754, 0.063201, -0.648238, -0.000496391, 0.000570111, -0.000889424, 0.823587, 0.518638, 0.385705, 0.00488745, 0.0109026, 0.0177129
0.0330778, 0.0638562, -0.652155, -0.000528418, 0.000563755, -0.000876282, 0.827232, 0.524957, 0.380452, 0.00478774, 0.0108515, 0.0175944
0.0332755, 0.0641724, -0.65408, -0.000538522, 0.000573402, -0.000882982, 0.830932, 0.53033, 0.374619, 0.00468544, 0.0108004, 0.0175049
0.0321275, 0.0629295, -0.652194, -0.000526649, 0.000608624, -0.000926856, 0.834668, 0.534197, 0.368658, 0.00458587, 0.0107482, 0.0174426
0.0312136, 0.061916, -0.650871, -0.000517143, 0.000638166, -0.00095556, 0.838413, 0.536079, 0.363126, 0.00449289, 0.0106938, 0.0174025
0.0312068, 0.0603679, -0.648942, -0.000509049, 0.000622243, -0.000949557, 0.842136, 0.535641, 0.358604, 0.00440509, 0.0106379, 0.0173795
0.0299824, 0.0565698, -0.643392, -0.00046257, 0.00059786, -0.000930877, 0.845819, 0.532715, 0.355492, 0.00432039, 0.0105812, 0.0173686
0.0290603, 0.0503718, -0.637548, -0.000414106, 0.000582324, -0.000917802, 0.849443, 0.527299, 0.353998, 0.00423677, 0.0105251, 0.0173649
0.0266435, 0.0431779, -0.629083, -0.000332499, 0.000552884, -0.00089867, 0.852991, 0.519573, 0.3541, 0.00415368, 0.0104706, 0.0173629
0.025049, 0.0352528, -0.622351, -0.000264619, 0.000537866, -0.000883133, 0.856458, 0.509854, 0.3556, 0.00407162, 0.0104186, 0.0173579
0.0235537, 0.0284265, -0.61658, -0.000204484, 0.00052625, -0.000866928, 0.859847, 0.498613, 0.358178, 0.00399225, 0.0103695, 0.0173455
0.0203543, 0.0258609, -0.610382, -0.000149879, 0.000501139, -0.000841784, 0.863161, 0.486498, 0.361411, 0.00391863, 0.0103229, 0.0173224
0.0178153, 0.020266, -0.602792, -8.2258e-05, 0.000458371, -0.000845467, 0.866451, 0.474403, 0.364942, 0.00385468, 0.0102788, 0.0172867
0.0121885, 0.0235666, -0.593207, -3.41966e-05, 0.000382219, -0.000836001, 0.869784, 0.463458, 0.368423, 0.00380379, 0.0102356, 0.0172381
0.00861627, 0.0249689, -0.586369, -5.90785e-06, 0.000338166, -0.000826273, 0.87322, 0.45448, 0.37181, 0.00376486, 0.0101945, 0.0171753
0.00846504, 0.0266125, -0.587592, -2.0767e-05, 0.000376228, -0.000758802, 0.876815, 0.44801, 0.375169, 0.00373617, 0.0101562, 0.0170973
0.00936184, 0.0292069, -0.59168, -4.47345e-05, 0.000413745, -0.000717596, 0.880581, 0.444082, 0.378543, 0.00371558, 0.010122, 0.0170014
0.0094017, 0.0322317, -0.594002, -5.9247e-05, 0.000431769, -0.000687438, 0.884498, 0.442341, 0.381871, 0.00370155, 0.010093, 0.016886
0.0086764, 0.0345493, -0.593164, -6.21778e-05, 0.000435765, -0.000658866, 0.888539, 0.442371, 0.385079, 0.00369263, 0.0100696, 0.0167512
0.00772107, 0.0321859, -0.587207, -5.33189e-05, 0.000429999, -0.000646532, 0.892672, 0.444066, 0.388122, 0.00368666, 0.0100512, 0.0165976
0.00748686, 0.0298576, -0.580458, -4.729e-05, 0.000431712, -0.000645177, 0.896827, 0.446956, 0.391035, 0.00368011, 0.0100377, 0.0164259
0.00816523, 0.0250268, -0.569608, -4.26264e-05, 0.000442656, -0.000664029, 0.900904, 0.450589, 0.393622, 0.00367049, 0.010028, 0.0162414
0.00955163, 0.0231533, -0.561024, -3.62792e-05, 0.000464962, -0.000675126, 0.90481, 0.455056, 0.39576, 0.00365554, 0.0100201, 0.0160555
0.0100556, 0.0263972, -0.558796, -7.98391e-06, 0.000473653, -0.000686889, 0.908487, 0.46061, 0.397138, 0.00363283, 0.0100125, 0.0158752
0.011202, 0.0281992, -0.554448, 1.64475e-05, 0.000485353, -0.000702679, 0.911936, 0.46704, 0.397186, 0.00360079, 0.0100046, 0.0157063
0.0139563, 0.0290508, -0.546059, 2.56572e-05, 0.00051525, -0.000722672, 0.915136, 0.474044, 0.39573, 0.00355762, 0.00999483, 0.0155563
0.018184, 0.0295691, -0.534201, 6.37103e-06, 0.00055941, -0.000756418, 0.91812, 0.481331, 0.39283, 0.00350281, 0.00998259, 0.0154308
0.0238275, 0.0313763, -0.520577, -2.36532e-05, 0.000615475, -0.000802732, 0.920902, 0.488534, 0.388793, 0.00344052, 0.00996734, 0.0153324
0.0293052, 0.0347752, -0.507203, -5.46705e-05, 0.000668935, -0.000842816, 0.923563, 0.495241, 0.383784, 0.00337427, 0.00994931, 0.01526
0.0351741, 0.0386441, -0.494157, -0.000102373, 0.000724114, -0.000891439, 0.92614, 0.50092, 0.37799, 0.00330875, 0.00992837, 0.0152108
0.0390147, 0.0435309, -0.485779, -0.000121983, 0.000753009, -0.000923538, 0.928681, 0.504978, 0.371624, 0.00324605, 0.0099045, 0.0151813
0.0413846, 0.0475828, -0.48118, -0.000131122, 0.000761191, -0.000944822, 0.931249, 0.506915, 0.365136, 0.00318575, 0.00987817, 0.0151661
0.0422805, 0.0488832, -0.480178, -0.000131809, 0.000751271, -0.000954734, 0.933924, 0.506447, 0.359111, 0.00312703, 0.00984975, 0.0151598
0.0411878, 0.0490838, -0.48389, -0.000105407, 0.000725161, -0.000950571, 0.936761, 0.50352, 0.354021, 0.00306882, 0.00981907, 0.0151577
0.0387673, 0.0480771, -0.49081, -6.1001e-05, 0.000689131, -0.000941519, 0.939805, 0.49819, 0.350167, 0.00301047, 0.00978596, 0.0151552
0.0372569, 0.0470329, -0.496822, -2.40832e-05, 0.000658844, -0.000932436, 0.94305, 0.490662, 0.347598, 0.00295285, 0.00974996, 0.0151472
0.03736, 0.0485261, -0.498459, -1.56374e-05, 0.000635019, -0.000916284, 0.946508, 0.481326, 0.346286, 0.00289798, 0.0097103, 0.0151279
0.0381106, 0.0538125, -0.497328, -2.75404e-05, 0.000610281, -0.000889726, 0.950118, 0.470845, 0.345985, 0.00284964, 0.00966578, 0.0150891
0.0383684, 0.0644957, -0.495702, -5.14517e-05, 0.000578234, -0.000853609, 0.95378, 0.460251, 0.34643, 0.00281131, 0.00961629, 0.0150232
0.038168, 0.0761029, -0.494388, -7.73036e-05, 0.000544245, -0.000812056, 0.95739, 0.450827, 0.347339, 0.00278391, 0.00956319, 0.0149269
0.0381699, 0.0816246, -0.497884, -7.95918e-05, 0.00052399, -0.000779638, 0.960889, 0.443642, 0.348706, 0.00276621, 0.00950881, 0.0148041
0.0400214, 0.0801158, -0.506921, -6.16141e-05, 0.000520091, -0.000741114, 0.964239, 0.43904, 0.350545, 0.00275579, 0.00945663, 0.0146662
0.0441675, 0.0735493, -0.522496, -3.11373e-05, 0.000548405, -0.00071717, 0.967438, 0.436593, 0.35281, 0.00274978, 0.00940857, 0.0145242
0.050494, 0.0613077, -0.540536, 5.58611e-06, 0.000602997, -0.00070505, 0.970486, 0.435284, 0.355299, 0.00274535, 0.00936302, 0.0143856
0.0574602, 0.0466125, -0.559243, 4.66875e-05, 0.00067912, -0.000720885, 0.973455, 0.43409, 0.357545, 0.00274048, 0.00931902, 0.0142568
0.0644253, 0.0317018, -0.577039, 8.98852e-05, 0.000763178, -0.000752725, 0.976414, 0.432319, 0.359266, 0.00273384, 0.00927478, 0.0141407
0.0704244, 0.0192781, -0.591206, 0.000125591, 0.00083854, -0.00078649, 0.979347, 0.42997, 0.360459, 0.00272535, 0.00922905, 0.0140389
0.0756414, 0.00933625, -0.602658, 0.000152528, 0.000900413, -0.000811175, 0.982243, 0.427501, 0.361262, 0.00271592, 0.00918198, 0.0139509
0.0787665, 0.00416518, -0.609808, 0.000167287, 0.000940446, -0.000829512, 0.985126, 0.42551, 0.361835, 0.00270667, 0.00913453, 0.0138751
0.0812009, 0.00256353, -0.614898, 0.000177069, 0.000963477, -0.000829742, 0.988036, 0.424492, 0.36226, 0.0026985, 0.00908748, 0.0138085
0.0823214, 0.00440143, -0.617555, 0.000185349, 0.000973041, -0.000822734, 0.990921, 0.424662, 0.362499, 0.00269135, 0.00904027, 0.0137491
0.083878, 0.0105773, -0.620835, 0.000202977, 0.000995189, -0.000817923, 0.993785, 0.426072, 0.362491, 0.00268457, 0.00899323, 0.0136967
0.0842971, 0.0143459, -0.621543, 0.00021184, 0.00101712, -0.000830854, 0.996616, 0.428764, 0.362131, 0.00267718, 0.00894665, 0.0136519
0.0834094, 0.0187895, -0.618159, 0.000223073, 0.00102704, -0.000835886, 0.99934, 0.432646, 0.361336, 0.00266852, 0.00889964, 0.0136144
0.0834898, 0.0210215, -0.615828, 0.000230684, 0.00103546, -0.000833812, 1.00186, 0.437525, 0.360072, 0.00265799, 0.00884979, 0.0135823
0.0855658, 0.0218515, -0.619248, 0.000224908, 0.00106686, -0.000844543, 1.00386, 0.443177, 0.358437, 0.00264515, 0.00879246, 0.0135541
0.084038, 0.0218019, -0.616756, 0.000225236, 0.00106868, -0.000858187, 1.00482, 0.449363, 0.356582, 0.00262997, 0.00872428, 0.0135289
0.0784437, 0.0200258, -0.613191, 0.000226776, 0.00102639, -0.000873964, 1.00401, 0.455842, 0.354533, 0.00261255, 0.00864291, 0.0135065
0.0675123, 0.0166835, -0.609235, 0.000230111, 0.000936827, -0.000898567, 1.0003, 0.462235, 0.352261, 0.00259349, 0.00854167, 0.0134882
0.0492705, 0.011459, -0.601655, 0.000246017, 0.00078838, -0.000928591, 0.991781, 0.468149, 0.349881, 0.00257388, 0.00840349, 0.0134741
0.0254606, 0.00485924, -0.594361, 0.000265592, 0.000594317, -0.000954053, 0.975781, 0.473157, 0.347528, 0.00255489, 0.00820193, 0.0134639
-0.00535309, -0.00366913, -0.587109, 0.000288474, 0.00034462, -0.000978623, 0.949925, 0.47708, 0.345092, 0.00253615, 0.00791423, 0.0134571
-0.040836, -0.0123996, -0.58494, 0.000301734, 5.74146e-05, -0.00100036, 0.91354, 0.479818, 0.342508, 0.00251713, 0.0075329, 0.0134525
-0.0728983, -0.0209557, -0.579528, 0.000323567, -0.000199134, -0.00100924, 0.868743, 0.48166, 0.340065, 0.00249809, 0.00707511, 0.0134482
-0.0985431, -0.0283774, -0.571114, 0.000349119, -0.000393463, -0.00101623, 0.820243, 0.483224, 0.337804, 0.00247863, 0.00658684, 0.0134437
-0.113443, -0.0326964, -0.563932, 0.000366813, -0.000494791, -0.00102543, 0.772999, 0.484945, 0.335725, 0.00245879, 0.00611928, 0.0134391
-0.120409, -0.0348729, -0.556856, 0.00037978, -0.000528872, -0.0010378, 0.730187, 0.487065, 0.333948, 0.00243902, 0.00570794, 0.0134351
-0.122362, -0.0354044, -0.550245, 0.000387314, -0.000519802, -0.00105238, 0.692864, 0.489395, 0.332406, 0.00241965, 0.00536639, 0.0134321
-0.121462, -0.0342725, -0.546021, 0.000387103, -0.000489284, -0.0010653, 0.660687, 0.49169, 0.331084, 0.00240102, 0.00509207, 0.0134299
-0.122029, -0.0330707, -0.54311, 0.0003859, -0.000474022, -0.00107678, 0.63296, 0.493701, 0.329888, 0.00238373, 0.00487664, 0.0134281
-0.12397, -0.0326252, -0.539194, 0.00038841, -0.000471544, -0.00109037, 0.609036, 0.49543, 0.328789, 0.00236865, 0.00471062, 0.0134264
-0.113067, -0.0341216, -0.535836, 0.000391866, -0.000407354, -0.00109272, 0.588516, 0.497078, 0.32779, 0.00235648, 0.00458617, 0.0134244
-0.10174, -0.0345782, -0.53375, 0.000390724, -0.000342359, -0.00109012, 0.571412, 0.499056, 0.326969, 0.00234784, 0.00449825, 0.0134225
-0.0909259, -0.0352203, -0.528599, 0.000391519, -0.000282675, -0.0010848, 0.557863, 0.501803, 0.326405, 0.00234259, 0.00444066, 0.0134208
-0.0826247, -0.0349509, -0.527674, 0.000389466, -0.000244717, -0.00107808, 0.547945, 0.50542, 0.325975, 0.00233986, 0.00440495, 0.0134195
-0.0781244, -0.0335367, -0.534252, 0.000384919, -0.000234263, -0.00107185, 0.541623, 0.509809, 0.325684, 0.00233867, 0.00438538, 0.0134181
-0.0768819, -0.0316584, -0.535358, 0.000384205, -0.000227934, -0.00107184, 0.538748, 0.514765, 0.325551, 0.00233821, 0.00437778, 0.0134164
-0.0772886, -0.0294503, -0.537827, 0.000384513, -0.000227332, -0.00106677, 0.53917, 0.520063, 0.325506, 0.00233787, 0.0043765, 0.013414
-0.0764488, -0.0272283, -0.544317, 0.000385926, -0.000233339, -0.00105739, 0.54229, 0.52538, 0.325525, 0.00233689, 0.00437391, 0.0134107
-0.0757066, -0.0244291, -0.547921, 0.000390069, -0.000242101, -0.00104683, 0.547228, 0.530298, 0.325617, 0.00233482, 0.00436248, 0.0134072
-0.0760477, -0.021143, -0.549935, 0.000397056, -0.000251428, -0.00103944, 0.553244, 0.534298, 0.32569, 0.00233141, 0.0043351, 0.0134037
-0.0770132, -0.0158512, -0.552515, 0.000408035, -0.000279469, -0.00102198, 0.559642, 0.536839, 0.325675, 0.00232623, 0.0042859, 0.0133999
-0.0796533, -0.00813687, -0.559495, 0.000424297, -0.000311531, -0.000977628, 0.565807, 0.537401, 0.325604, 0.00231943, 0.00421326, 0.0133939
-0.0829597, -0.00330203, -0.563107, 0.000444564, -0.000291183, -0.000921725, 0.571322, 0.535568, 0.325456, 0.0023112, 0.004118, 0.0133845
-0.0877002, 0.00254509, -0.570532, 0.000472684, -0.000268201, -0.000854011, 0.575816, 0.531143, 0.325214, 0.00230138, 0.00400374, 0.0133737
-0.0922534, 0.00682858, -0.579024, 0.000499048, -0.0002494, -0.000801795, 0.578967, 0.524237, 0.324884, 0.00228992, 0.00387511, 0.0133636
-0.0967815, 0.0104589, -0.584797, 0.000521571, -0.000243257, -0.000760653, 0.580446, 0.515276, 0.324527, 0.00227687, 0.00373764, 0.0133551
-0.101708, 0.0141673, -0.587197, 0.00053949, -0.000252765, -0.000728052, 0.580236, 0.504892, 0.324207, 0.0022623, 0.00359877, 0.0133479
-0.105635, 0.0162253, -0.586538, 0.000550615, -0.000262186, -0.000702528, 0.57848, 0.493759, 0.324004, 0.00224624, 0.00346629, 0.0133419
-0.107462, 0.0169718, -0.586499, 0.000555226, -0.000266826, -0.000688794, 0.575486, 0.482305, 0.323906, 0.00222877, 0.0033473, 0.0133364
-0.106204, 0.0166341, -0.584907, 0.000550995, -0.000265286, -0.000687152, 0.571116, 0.471059, 0.32391, 0.00220954, 0.00324455, 0.0133315
-0.102665, 0.0163043, -0.581008, 0.00054021, -0.000260775, -0.000685455, 0.565309, 0.460534, 0.323952, 0.00218849, 0.00315863, 0.0133279
-0.0993511, 0.0168031, -0.575048, 0.000529091, -0.000258264, -0.00067671, 0.558293, 0.451008, 0.323926, 0.00216632, 0.00308954, 0.0133251
-0.0969765, 0.016523, -0.572142, 0.000523301, -0.00025243, -0.000667984, 0.550498, 0.442736, 0.32376, 0.00214432, 0.0030362, 0.0133226
-0.0954699, 0.014433, -0.573786, 0.000524087, -0.000243094, -0.000667991, 0.54255, 0.436032, 0.323519, 0.00212407, 0.00299691, 0.01332
-0.0906892, 0.00990944, -0.574837, 0.000523997, -0.000220402, -0.000680869, 0.535138, 0.431189, 0.323267, 0.00210698, 0.00296841, 0.013317
-0.0843145, 0.00479566, -0.578037, 0.000523588, -0.000195053, -0.000703752, 0.528894, 0.428223, 0.323033, 0.00209379, 0.0029479, 0.0133135
-0.0752499, -0.00202565, -0.580523, 0.000522362, -0.000162556, -0.000739717, 0.524165, 0.426908, 0.322858, 0.00208434, 0.00293343, 0.0133097
-0.0673818, -0.00758744, -0.584032, 0.000520322, -0.000138057, -0.000769597, 0.520969, 0.426883, 0.322748, 0.00207792, 0.0029232, 0.0133059
-0.059474, -0.0130612, -0.580664, 0.000515631, -0.000117929, -0.000789625, 0.519279, 0.427846, 0.322735, 0.00207384, 0.00291639, 0.0133027
-0.0523232, -0.0191729, -0.571638, 0.0005101, -0.000102537, -0.00080498, 0.519184, 0.429586, 0.322738, 0.00207146, 0.0029121, 0.0133001
-0.0471397, -0.0252139, -0.568672, 0.000505708, -9.11405e-05, -0.000823296, 0.520653, 0.431922, 0.322652, 0.00207014, 0.0029086, 0.0132978
-0.043464, -0.0320491, -0.57173, 0.000500435, -8.46622e-05, -0.00084529, 0.523553, 0.434748, 0.322544, 0.00206921, 0.00290428, 0.013296
-0.0413868, -0.0376755, -0.569612, 0.000493942, -8.23889e-05, -0.000855747, 0.527656, 0.437913, 0.322503, 0.00206786, 0.00289771, 0.0132948
-0.0401962, -0.0441314, -0.567794, 0.000484994, -8.44983e-05, -0.000867319, 0.532706, 0.441252, 0.322482, 0.00206534, 0.0028868, 0.0132939
-0.040397, -0.0503166, -0.568096, 0.000474074, -8.77529e-05, -0.000878521, 0.538339, 0.444578, 0.322459, 0.00206109, 0.00287012, 0.0132927
-0.0411627, -0.0556434, -0.571359, 0.000462843, -9.50189e-05, -0.000885894, 0.544194, 0.447744, 0.322472, 0.00205465, 0.00284688, 0.0132909
-0.0427447, -0.0587909, -0.571685, 0.000453336, -9.70773e-05, -0.000890806, 0.549842, 0.450567, 0.322532, 0.00204567, 0.00281712, 0.013288
-0.0449578, -0.0608506, -0.567182, 0.00044657, -0.000101845, -0.000894951, 0.554864, 0.452859, 0.322642, 0.00203423, 0.00278194, 0.0132838
-0.0478553, -0.0630668, -0.56435, 0.000437367, -0.000107582, -0.000897298, 0.558977, 0.45454, 0.322734, 0.00202036, 0.00274221, 0.0132787
-0.0481988, -0.060713, -0.564004, 0.000433456, -9.17294e-05, -0.000911041, 0.561871, 0.455534, 0.322734, 0.00200446, 0.00269905, 0.0132729
-0.0499945, -0.0590179, -0.564369, 0.000424423, -8.10252e-05, -0.000923728, 0.563207, 0.455748, 0.322575, 0.00198704, 0.00265422, 0.0132671
-0.0534292, -0.05791, -0.563628, 0.000412179, -7.7868e-05, -0.000932039, 0.562623, 0.455097, 0.322358, 0.00196893, 0.00260937, 0.0132617
-0.0575485, -0.0561032, -0.56115, 0.000398483, -7.57173e-05, -0.000943148, 0.55985, 0.453525, 0.322143, 0.00195086, 0.00256559, 0.0132571
-0.0616973, -0.0531474, -0.557695, 0.000384578, -7.26431e-05, -0.000956943, 0.55467, 0.451006, 0.321976, 0.00193338, 0.00252334, 0.0132535
-0.0653405, -0.0497832, -0.554056, 0.000372765, -7.02099e-05, -0.000972337, 0.547001, 0.447612, 0.321867, 0.00191659, 0.00248206, 0.0132505
-0.0675737, -0.0460598, -0.551898, 0.000363091, -6.58551e-05, -0.000983767, 0.537052, 0.443464, 0.321783, 0.00190031, 0.00244145, 0.0132478
-0.0683727, -0.0422958, -0.550596, 0.000355195, -5.95771e-05, -0.000991226, 0.525204, 0.438764, 0.321733, 0.00188438, 0.002401, 0.0132446
-0.0669917, -0.0376173, -0.549608, 0.000346884, -4.7272e-05, -0.000991818, 0.512015, 0.433716, 0.321703, 0.00186889, 0.0023611, 0.0132406
-0.0643348, -0.0331686, -0.549043, 0.000339277, -3.31962e-05, -0.000986974, 0.498087, 0.428529, 0.321689, 0.00185406, 0.00232249, 0.0132353
-0.0604852, -0.0284236, -0.54876, 0.000331005, -1.66512e-05, -0.000976711, 0.48402, 0.423396, 0.321688, 0.00184008, 0.00228609, 0.0132285
-0.0547308, -0.0296798, -0.547153, 0.000335022, -2.58706e-06, -0.000968547, 0.470385, 0.418443, 0.321682, 0.00182744, 0.00225343, 0.0132203
-0.0505123, -0.0316215, -0.548329, 0.000339059, 6.90964e-06, -0.000963422, 0.457671, 0.41377, 0.321683, 0.00181701, 0.00222594, 0.0132114
-0.0510508, -0.0332583, -0.551712, 0.000342002, 5.72903e-06, -0.000974214, 0.446273, 0.409508, 0.321732, 0.00180937, 0.00220405, 0.0132031
-0.0524478, -0.0335809, -0.551205, 0.000343133, 2.93963e-06, -0.00098554, 0.436613, 0.405847, 0.321829, 0.00180438, 0.00218784, 0.0131963
-0.0536395, -0.0325875, -0.550668, 0.000342563, 9.27796e-07, -0.000992795, 0.429025, 0.40304, 0.321947, 0.00180138, 0.00217691, 0.0131916
-0.0549486, -0.0313891, -0.552015, 0.000341926, -8.53806e-07, -0.000998813, 0.423609, 0.401254, 0.322069, 0.00179973, 0.00217036, 0.0131887
-0.031984, -0.0191187, -0.553122, 0.000331341, 1.93518e-05, -0.000934782, 0.420364, 0.400528, 0.322167, 0.00179901, 0.00216715, 0.0131872
-0.023681, -0.000114374, -0.558234, 0.000321818, 1.3467e-05, -0.00085018, 0.419147, 0.400799, 0.322256, 0.00179886, 0.00216609, 0.0131864
-0.00367689, 0.0538858, -0.557597, 0.000323781, -1.78529e-05, -0.000726967, 0.41982, 0.401978, 0.322304, 0.0017988, 0.00216569, 0.0131855
-0.00998802, 0.0905288, -0.56323, 0.000332475, -3.83019e-05, -0.000576968, 0.422192, 0.40394, 0.322283, 0.00179847, 0.00216392, 0.0131839
-0.0206231, 0.112783, -0.571785, 0.000344192, -3.84499e-05, -0.000444389, 0.426081, 0.406583, 0.322229, 0.00179743, 0.00215875, 0.0131817
-0.0319023, 0.126468, -0.577143, 0.000355514, -1.88715e-05, -0.000329492, 0.431141, 0.409754, 0.32222, 0.00179522, 0.00214897, 0.0131795
-0.0410158, 0.141291, -0.578837, 0.000375757, -1.6833e-06, -0.000223226, 0.436841, 0.413199, 0.322277, 0.00179188, 0.0021349, 0.0131775
-0.0491155, 0.142628, -0.576178, 0.000378809, 3.26356e-05, -0.000152247, 0.442859, 0.416766, 0.322414, 0.00178726, 0.0021161, 0.0131755
-0.0463272, 0.11706, -0.551367, 0.000326229, 5.9429e-05, -0.000195608, 0.449036, 0.420319, 0.322579, 0.00178126, 0.0020926, 0.0131734
-0.0191967, 0.0553091, -0.517003, 0.000166035, 9.55637e-05, -0.00034918, 0.455096, 0.423643, 0.322733, 0.00177379, 0.00206495, 0.0131715
0.00871338, 0.014001, -0.488331, 3.57193e-05, 0.00011067, -0.000425017, 0.46073, 0.426455, 0.322784, 0.00176459, 0.00203387, 0.0131674
0.0356824, -0.0117577, -0.474461, -6.56131e-05, 0.000116839, -0.000456572, 0.465655, 0.42855, 0.322744, 0.00175412, 0.00200142, 0.0131591
0.0580024, -0.0234698, -0.46996, -0.000136126, 0.000109223, -0.000452014, 0.469514, 0.429756, 0.322715, 0.00174268, 0.00196948, 0.0131483
0.0735159, -0.0262964, -0.472046, -0.000179187, 9.88463e-05, -0.000433257, 0.471884, 0.429895, 0.322814, 0.00173044, 0.00193932, 0.0131372
0.0824826, -0.0234562, -0.477436, -0.000202116, 8.4931e-05, -0.000412142, 0.472566, 0.428828, 0.322918, 0.0017178, 0.00191169, 0.0131263
0.084815, -0.0172034, -0.489352, -0.000209655, 6.64663e-05, -0.000386208, 0.471405, 0.426538, 0.322979, 0.0017051, 0.00188671, 0.0131164
0.0808595, -0.00873549, -0.50357, -0.000206843, 4.14005e-05, -0.00035058, 0.468354, 0.423104, 0.323016, 0.00169269, 0.0018641, 0.0131079
0.0690592, 0.00125465, -0.515401, -0.000194343, 6.36532e-06, -0.000293021, 0.463562, 0.418723, 0.323049, 0.00168105, 0.00184344, 0.0131008
0.0509162, 0.00909537, -0.527916, -0.000173618, -3.18515e-05, -0.000221738, 0.457364, 0.413681, 0.323077, 0.00167029, 0.00182444, 0.0130937
0.0298782, 0.0144985, -0.539322, -0.00015083, -7.08665e-05, -0.000142269, 0.450379, 0.408333, 0.323019, 0.00166063, 0.00180717, 0.0130857
0.00956419, 0.0172621, -0.553957, -0.000129981, -0.000105604, -6.73368e-05, 0.443264, 0.403091, 0.322845, 0.00165215, 0.00179187, 0.0130763
-0.00615772, 0.0178661, -0.570747, -0.000114098, -0.000130084, -1.56026e-05, 0.436558, 0.39839, 0.32266, 0.00164509, 0.00177861, 0.0130647
-0.0177731, 0.020444, -0.586259, -0.000106337, -0.000149538, 3.31735e-05, 0.430573, 0.394444, 0.322549, 0.00163996, 0.0017673, 0.0130516
-0.0247884, 0.0251693, -0.600306, -0.000105251, -0.000161836, 6.65138e-05, 0.425542, 0.391335, 0.322572, 0.00163669, 0.00175811, 0.0130382
-0.0264658, 0.0319898, -0.611008, -0.000107828, -0.000166129, 5.95971e-05, 0.421537, 0.389039, 0.322737, 0.00163479, 0.00175099, 0.0130256
-0.0286577, 0.0433556, -0.61783, -0.000109386, -0.000174369, 2.54907e-05, 0.418178, 0.387277, 0.322978, 0.00163353, 0.00174548, 0.0130141
-0.0341089, 0.0574494, -0.616088, -0.000103873, -0.000190155, -4.67101e-05, 0.41509, 0.385905, 0.323297, 0.0016319, 0.00174113, 0.0130027
-0.0427628, 0.069624, -0.611574, -9.23307e-05, -0.000207991, -0.000126104, 0.412121, 0.384896, 0.323601, 0.00162931, 0.00173739, 0.0129906
-0.057703, 0.0731712, -0.607008, -7.64389e-05, -0.000219914, -0.000167042, 0.409345, 0.384316, 0.323765, 0.0016259, 0.00173373, 0.0129802
-0.0729585, 0.071119, -0.596633, -6.18804e-05, -0.000219539, -0.000202169, 0.406947, 0.384234, 0.323579, 0.00162215, 0.00172961, 0.0129727
-0.0800688, 0.066041, -0.586299, -5.7544e-05, -0.000205095, -0.000222914, 0.405178, 0.384688, 0.322969, 0.00161864, 0.00172422, 0.0129673
-0.0843764, 0.0586466, -0.575513, -5.81922e-05, -0.000182199, -0.000245827, 0.40422, 0.385657, 0.322334, 0.00161557, 0.00171792, 0.0129613
-0.0868837, 0.0499952, -0.568066, -6.15141e-05, -0.000158381, -0.000272808, 0.404194, 0.387021, 0.321884, 0.00161306, 0.00171075, 0.012954
-0.0890909, 0.0419209, -0.566439, -6.42046e-05, -0.000143584, -0.000300965, 0.405033, 0.3886, 0.321811, 0.00161126, 0.00170353, 0.0129465
-0.0899279, 0.0344813, -0.565628, -6.75174e-05, -0.000134333, -0.00032332, 0.406409, 0.390214, 0.322094, 0.00161008, 0.00169732, 0.0129387
-0.0903681, 0.0294861, -0.567505, -6.92092e-05, -0.000133001, -0.000336151, 0.408096, 0.391723, 0.322624, 0.00160933, 0.00169187, 0.0129311
-0.0911312, 0.0262822, -0.572456, -6.92877e-05, -0.000136897, -0.000345081, 0.409941, 0.393019, 0.323332, 0.00160883, 0.00168684, 0.0129237
-0.0908812, 0.0251529, -0.575833, -6.92144e-05, -0.000141017, -0.000343288, 0.411669, 0.394041, 0.324107, 0.00160849, 0.00168238, 0.0129168
-0.0900057, 0.0257894, -0.576747, -6.86934e-05, -0.000142874, -0.000337867, 0.413293, 0.394704, 0.32495, 0.00160816, 0.00167782, 0.0129107
-0.0895151, 0.0282023, -0.578306, -6.76593e-05, -0.000143948, -0.000333139, 0.414689, 0.394995, 0.325826, 0.00160778, 0.00167303, 0.0129055
-0.0886039, 0.0327731, -0.579216, -6.59686e-05, -0.000142766, -0.000328535, 0.415719, 0.394953, 0.326699, 0.0016073, 0.00166809, 0.0129012
-0.0868699, 0.0379951, -0.578336, -6.39177e-05, -0.000138867, -0.000324799, 0.416341, 0.394623, 0.327584, 0.00160667, 0.00166289, 0.0128976
-0.0844476, 0.0447455, -0.576951, -6.09475e-05, -0.000132393, -0.000326574, 0.416422, 0.394007, 0.328463, 0.00160591, 0.00165746, 0.0128943
-0.0820538, 0.0504426, -0.574713, -5.81247e-05, -0.000125, -0.000332109, 0.415826, 0.393193, 0.329293, 0.00160507, 0.001652, 0.0128906
-0.0792098, 0.0563, -0.572189, -5.48488e-05, -0.000116685, -0.000341242, 0.414552, 0.392296, 0.330077, 0.00160415, 0.00164658, 0.0128858
-0.0754364, 0.0622209, -0.569333, -5.09643e-05, -0.000107572, -0.000352367, 0.412614, 0.391363, 0.330831, 0.0016032, 0.00164116, 0.0128793
-0.0715472, 0.0666943, -0.566391, -4.74021e-05, -9.93156e-05, -0.000362042, 0.410114, 0.390423, 0.331611, 0.0016022, 0.0016356, 0.0128709
-0.0674553, 0.0712913, -0.563871, -4.35998e-05, -9.08746e-05, -0.000375719, 0.407176, 0.389529, 0.332484, 0.00160116, 0.00162981, 0.0128602
-0.0644651, 0.0739733, -0.561392, -4.10263e-05, -8.43817e-05, -0.000384582, 0.403872, 0.388719, 0.333459, 0.00160006, 0.00162384, 0.0128467
-0.0662493, 0.0768504, -0.564756, -4.00347e-05, -8.57497e-05, -0.000407353, 0.400293, 0.388058, 0.334511, 0.0015989, 0.00161793, 0.0128304
-0.0704405, 0.0815143, -0.573031, -3.93571e-05, -9.1117e-05, -0.00044495, 0.396466, 0.3876, 0.335397, 0.00159754, 0.00161287, 0.0128103
-0.0766274, 0.0880411, -0.586591, -4.00003e-05, -9.81108e-05, -0.000493431, 0.392693, 0.387347, 0.335967, 0.00159572, 0.00160904, 0.0127852
-0.0825341, 0.0921191, -0.598432, -4.27305e-05, -0.00010262, -0.000522883, 0.389528, 0.387267, 0.336345, 0.00159333, 0.00160619, 0.0127551
-0.0859039, 0.091945, -0.60673, -4.86068e-05, -0.000105226, -0.000507904, 0.387621, 0.387327, 0.336725, 0.00159025, 0.00160402, 0.0127194
-0.0885629, 0.0883784, -0.610337, -5.54931e-05, -0.000108787, -0.00046112, 0.387223, 0.387592, 0.337499, 0.00158641, 0.00160201, 0.0126747
-0.08701, 0.08245, -0.604682, -5.82823e-05, -0.000115313, -0.000398199, 0.388282, 0.388074, 0.338784, 0.00158199, 0.00159992, 0.0126212
-0.0858614, 0.077461, -0.597575, -5.93105e-05, -0.000121321, -0.000351487, 0.390423, 0.388789, 0.340486, 0.00157751, 0.00159769, 0.0125641
-0.0889923, 0.0757376, -0.596548, -6.14097e-05, -0.000120906, -0.000334444, 0.393457, 0.389758, 0.342411, 0.00157294, 0.00159503, 0.0125026
-0.0894519, 0.0751526, -0.5876, -5.72277e-05, -0.00012317, -0.000350755, 0.397534, 0.391011, 0.344456, 0.00156804, 0.0015911, 0.0124333
-0.0894048, 0.0740226, -0.574693, -5.39978e-05, -0.000127813, -0.000356959, 0.402019, 0.392457, 0.3463, 0.00156364, 0.00158632, 0.0123682
-0.0900774, 0.0712627, -0.565299, -5.63093e-05, -0.000130608, -0.00032695, 0.406222, 0.393902, 0.347527, 0.00156038, 0.00158165, 0.0123181
-0.0909666, 0.0684292, -0.555929, -5.97714e-05, -0.000133987, -0.000293506, 0.410456, 0.395355, 0.348115, 0.00155764, 0.00157633, 0.0122756
-0.0928855, 0.0663211, -0.544932, -6.3415e-05, -0.000138644, -0.000265658, 0.414827, 0.396876, 0.348069, 0.00155507, 0.00156985, 0.0122362
-0.095378, 0.0637425, -0.535102, -6.80951e-05, -0.000143713, -0.000232555, 0.418864, 0.398347, 0.347235, 0.00155291, 0.00156302, 0.0122048
-0.098533, 0.059631, -0.526182, -7.40379e-05, -0.000149918, -0.000188757, 0.422475, 0.399709, 0.345698, 0.00155113, 0.00155563, 0.0121814
-0.100765, 0.0540773, -0.520979, -7.96433e-05, -0.000154766, -0.000144076, 0.425358, 0.400902, 0.343526, 0.00154968, 0.00154825, 0.0121659
-0.102451, 0.0481883, -0.518382, -8.39977e-05, -0.000157605, -0.000107745, 0.427517, 0.401958, 0.340994, 0.00154844, 0.00154024, 0.0121555
-0.103684, 0.0431305, -0.516366, -8.71543e-05, -0.000160507, -8.33846e-05, 0.428845, 0.402871, 0.338377, 0.00154741, 0.00153126, 0.0121489
-0.104713, 0.0381693, -0.514445, -8.96645e-05, -0.00016364, -6.69624e-05, 0.42919, 0.403611, 0.335893, 0.00154658, 0.0015217, 0.0121454
-0.106329, 0.0338045, -0.511528, -9.18808e-05, -0.000168473, -5.74555e-05, 0.42854, 0.404187, 0.333745, 0.0015459, 0.00151197, 0.0121438
-0.107058, 0.0304306, -0.508221, -9.37698e-05, -0.00017406, -5.33074e-05, 0.427049, 0.404586, 0.332052, 0.00154531, 0.00150299, 0.012143
-0.107993, 0.0276627, -0.502528, -9.6422e-05, -0.000183029, -5.03886e-05, 0.42504, 0.404779, 0.330898, 0.00154474, 0.00149525, 0.0121414
-0.108971, 0.0243681, -0.495162, -9.95182e-05, -0.000192884, -5.27909e-05, 0.42299, 0.404736, 0.330315, 0.00154411, 0.0014892, 0.0121371
-0.109584, 0.0214699, -0.48591, -0.00010318, -0.000202959, -5.89318e-05, 0.421405, 0.404454, 0.33033, 0.00154331, 0.00148481, 0.0121282
-0.113495, 0.0171021, -0.472768, -0.000107622, -0.000215539, -7.47274e-05, 0.420492, 0.404002, 0.330899, 0.00154243, 0.00148153, 0.0121146
-0.118735, 0.0105644, -0.45848, -0.000110648, -0.000226276, -0.000111352, 0.420384, 0.403412, 0.331922, 0.00154145, 0.00147908, 0.0120962
-0.116835, 0.00240981, -0.455905, -0.000107001, -0.000224632, -0.0001787, 0.421332, 0.402708, 0.333316, 0.00154033, 0.00147739, 0.0120727
-0.114003, -0.00675469, -0.458279, -0.000100539, -0.00021979, -0.000262587, 0.423097, 0.401906, 0.33491, 0.00153908, 0.00147601, 0.0120448
-0.103437, -0.0134077, -0.476988, -9.09344e-05, -0.000211901, -0.000340539, 0.425698, 0.401027, 0.336595, 0.00153767, 0.00147475, 0.012013
-0.0954989, -0.0178654, -0.493291, -8.52513e-05, -0.000206827, -0.000393948, 0.428486, 0.400152, 0.338125, 0.00153622, 0.0014734, 0.0119798
-0.0885116, -0.0188371, -0.510896, -8.36394e-05, -0.000204661, -0.000411278, 0.431462, 0.399412, 0.3394, 0.00153489, 0.00147196, 0.0119489
-0.0829614, -0.0170269, -0.529506, -8.54345e-05, -0.000205581, -0.000401972, 0.434582, 0.398822, 0.34032, 0.00153371, 0.00147042, 0.0119216
-0.0801024, -0.0131926, -0.547747, -8.97951e-05, -0.00020909, -0.000374383, 0.437816, 0.398413, 0.340815, 0.00153273, 0.00146867, 0.0118993
-0.0806597, -0.00872557, -0.563586, -9.51435e-05, -0.000213266, -0.000341376, 0.44096, 0.398203, 0.340814, 0.00153198, 0.00146667, 0.0118829
-0.0830383, -0.00284798, -0.576921, -0.000100882, -0.000218288, -0.000303261, 0.443523, 0.398197, 0.340237, 0.00153143, 0.00146462, 0.0118718
-0.0864432, 0.00383145, -0.587415, -0.00010574, -0.000223991, -0.000268449, 0.445435, 0.398386, 0.339158, 0.001531, 0.0014623, 0.0118649
-0.0902, 0.0116013, -0.596646, -0.000109682, -0.000231239, -0.000239225, 0.446635, 0.398729, 0.337707, 0.00153066, 0.00145935, 0.011861
-0.0941333, 0.0196395, -0.603158, -0.000111851, -0.000237645, -0.000220567, 0.446935, 0.399202, 0.336032, 0.00153033, 0.00145557, 0.0118593
-0.0982534, 0.0294758, -0.610563, -0.000113115, -0.000246643, -0.000211684, 0.446213, 0.399777, 0.334311, 0.00152998, 0.00145074, 0.0118587
-0.102967, 0.0388735, -0.617336, -0.000113081, -0.000255613, -0.000215615, 0.44432, 0.400447, 0.332702, 0.00152954, 0.00144514, 0.0118583
-0.110135, 0.0516022, -0.630094, -0.00011279, -0.000273355, -0.000235043, 0.441343, 0.401228, 0.331354, 0.00152893, 0.00143912, 0.0118569
-0.1161, 0.0613623, -0.639198, -0.000111479, -0.000285486, -0.000260445, 0.437576, 0.402101, 0.330375, 0.00152805, 0.0014336, 0.0118535
-0.121142, 0.0692233, -0.645736, -0.000109443, -0.000293339, -0.00029021, 0.433611, 0.403056, 0.329861, 0.0015268, 0.00142901, 0.0118471
-0.128287, 0.0745732, -0.652081, -0.000108016, -0.000300871, -0.000318502, 0.430136, 0.404121, 0.329891, 0.00152507, 0.00142553, 0.0118356
-0.129102, 0.0761911, -0.64746, -0.000103602, -0.000296988, -0.000344617, 0.427882, 0.405326, 0.330533, 0.00152272, 0.00142336, 0.0118168
-0.126048, 0.0757881, -0.634827, -9.66427e-05, -0.000287418, -0.000373987, 0.426866, 0.406676, 0.331691, 0.00151995, 0.00142172, 0.0117906
-0.123398, 0.0749662, -0.620745, -8.9943e-05, -0.000277592, -0.000404368, 0.426917, 0.408119, 0.333195, 0.00151705, 0.00142021, 0.0117599
-0.125455, 0.0752645, -0.613885, -8.59316e-05, -0.000272351, -0.000433156, 0.428001, 0.409641, 0.334924, 0.00151416, 0.00141866, 0.0117259
-0.126, 0.0745624, -0.604272, -8.24495e-05, -0.0002659, -0.00045547, 0.430031, 0.411231, 0.336739, 0.00151131, 0.00141683, 0.0116895
-0.125752, 0.0742932, -0.592341, -7.87035e-05, -0.00025909, -0.000481663, 0.432856, 0.412874, 0.338491, 0.00150858, 0.00141456, 0.011652
-0.127097, 0.0730503, -0.582799, -7.76087e-05, -0.000253142, -0.000490655, 0.436035, 0.414499, 0.339969, 0.0015062, 0.00141191, 0.0116173
-0.128856, 0.0718984, -0.572283, -7.70844e-05, -0.000248206, -0.000497802, 0.439819, 0.416136, 0.341165, 0.00150401, 0.00140865, 0.0115834
-0.131226, 0.0704925, -0.562213, -7.78056e-05, -0.000245187, -0.000496763, 0.443832, 0.41774, 0.341918, 0.00150209, 0.00140494, 0.0115528
-0.133301, 0.0690591, -0.552062, -7.95874e-05, -0.0002453, -0.000488955, 0.447621, 0.419204, 0.34207, 0.00150056, 0.00140121, 0.0115286
-0.135833, 0.067254, -0.541791, -8.21864e-05, -0.000248681, -0.000475084, 0.451119, 0.42052, 0.341669, 0.00149936, 0.00139719, 0.0115105
-0.138299, 0.0641166, -0.53314, -8.56368e-05, -0.000254526, -0.000452048, 0.453941, 0.421671, 0.340735, 0.00149844, 0.00139297, 0.0114982
-0.139883, 0.0611837, -0.526401, -8.85984e-05, -0.000261511, -0.000432471, 0.455852, 0.422674, 0.339393, 0.00149773, 0.00138825, 0.0114903
-0.140875, 0.0576595, -0.522178, -9.09728e-05, -0.000267514, -0.000415588, 0.456749, 0.423576, 0.337899, 0.00149719, 0.00138217, 0.0114854
-0.141067, 0.0545281, -0.520197, -9.24984e-05, -0.000271251, -0.000404325, 0.456367, 0.424375, 0.336465, 0.00149679, 0.00137433, 0.0114826
-0.139738, 0.0514786, -0.520306, -9.32662e-05, -0.000271587, -0.000399261, 0.454468, 0.424998, 0.33526, 0.00149652, 0.00136497, 0.0114813
-0.138129, 0.0487494, -0.520539, -9.36734e-05, -0.00027129, -0.00039799, 0.451038, 0.42544, 0.334471, 0.00149634, 0.00135414, 0.0114805
-0.136885, 0.0456155, -0.520505, -9.38478e-05, -0.000271034, -0.000401213, 0.446207, 0.425682, 0.334141, 0.0014962, 0.0013427, 0.0114793
-0.134933, 0.0412682, -0.521584, -9.34949e-05, -0.000268036, -0.000412529, 0.440287, 0.425779, 0.334302, 0.00149605, 0.00133096, 0.0114767
-0.134657, 0.037917, -0.5211, -9.3325e-05, -0.000268478, -0.0004221, 0.433634, 0.425773, 0.334939, 0.00149588, 0.00131927, 0.0114722
-0.132971, 0.0336598, -0.520861, -9.26802e-05, -0.000266941, -0.000440844, 0.426898, 0.425598, 0.335795, 0.00149561, 0.00130925, 0.0114638
-0.129351, 0.0296359, -0.519388, -9.18275e-05, -0.000264824, -0.000465415, 0.420684, 0.425231, 0.336771, 0.00149517, 0.00130118, 0.0114498
-0.125347, 0.026637, -0.5169, -9.11231e-05, -0.000263329, -0.000487885, 0.415276, 0.424751, 0.337906, 0.0014946, 0.0012946, 0.011431
-0.123357, 0.0236613, -0.512809, -9.04156e-05, -0.000264475, -0.00051145, 0.410986, 0.424188, 0.339182, 0.00149388, 0.00128953, 0.0114075
-0.122473, 0.0204175, -0.508862, -8.93211e-05, -0.000265665, -0.00053907, 0.408054, 0.423564, 0.340581, 0.00149298, 0.00128596, 0.0113798
-0.111616, 0.0163895, -0.517315, -8.50334e-05, -0.000252767, -0.000588036, 0.40609, 0.422928, 0.342153, 0.00149198, 0.0012832, 0.01135
-0.0997102, 0.013552, -0.529066, -8.17086e-05, -0.000237662, -0.000625797, 0.404362, 0.422288, 0.343923, 0.00149095, 0.00128047, 0.0113206
-0.0845541, 0.0116863, -0.545751, -7.99657e-05, -0.00021727, -0.000655708, 0.402581, 0.421643, 0.345829, 0.00148993, 0.00127757, 0.0112922
-0.0713271, 0.0117959, -0.562408, -8.10118e-05, -0.000198095, -0.000662476, 0.40075, 0.421053, 0.3478, 0.00148895, 0.00127458, 0.0112662
-0.0644847, 0.0136907, -0.574616, -8.3758e-05, -0.000185636, -0.000647629, 0.399007, 0.42059, 0.349782, 0.00148808, 0.0012717, 0.0112439
-0.0623762, 0.0150065, -0.584406, -8.62705e-05, -0.000177023, -0.000634148, 0.39778, 0.420244, 0.351629, 0.00148725, 0.00126933, 0.011223
-0.0646164, 0.0149825, -0.587133, -8.69214e-05, -0.000174437, -0.000632532, 0.397256, 0.420002, 0.35319, 0.00148636, 0.00126751, 0.0111999
-0.0678475, 0.0130273, -0.58515, -8.56074e-05, -0.000173919, -0.00064942, 0.39742, 0.419905, 0.354375, 0.00148531, 0.00126604, 0.0111719
-0.069095, 0.010746, -0.583498, -8.39823e-05, -0.00017322, -0.000671471, 0.398234, 0.42002, 0.355088, 0.00148419, 0.00126473, 0.0111398
-0.0697124, 0.00850595, -0.582257, -8.26058e-05, -0.000172317, -0.000692036, 0.399609, 0.420373, 0.355257, 0.00148306, 0.00126341, 0.0111062
-0.0671713, 0.00721435, -0.587709, -8.25881e-05, -0.000173626, -0.000704102, 0.401373, 0.420912, 0.354905, 0.00148195, 0.00126199, 0.0110722
-0.0629693, 0.00705994, -0.592637, -8.24318e-05, -0.000177074, -0.000707781, 0.403269, 0.421584, 0.354302, 0.00148092, 0.00126061, 0.0110419
-0.0575118, 0.0070262, -0.602312, -8.2002e-05, -0.000183539, -0.000713849, 0.405291, 0.422315, 0.353258, 0.00147994, 0.00125912, 0.0110148
-0.0522572, 0.00890813, -0.611473, -8.16487e-05, -0.000191133, -0.000707839, 0.407307, 0.423063, 0.351837, 0.00147909, 0.00125748, 0.0109934
-0.0484547, 0.0138746, -0.616266, -8.20601e-05, -0.0001964, -0.000685741, 0.409193, 0.423747, 0.350181, 0.00147848, 0.00125572, 0.0109797
-0.0468598, 0.0208258, -0.620395, -8.3006e-05, -0.000200222, -0.000660399, 0.410848, 0.424265, 0.348291, 0.00147807, 0.00125373, 0.0109727
-0.0471362, 0.0291359, -0.625823, -8.4027e-05, -0.000204387, -0.00063951, 0.412145, 0.424541, 0.34609, 0.00147784, 0.00125135, 0.0109698
-0.048509, 0.038369, -0.627837, -8.4838e-05, -0.000205605, -0.000627335, 0.412997, 0.424546, 0.343547, 0.00147769, 0.00124848, 0.0109687
-0.0506453, 0.0482898, -0.62962, -8.56173e-05, -0.00020657, -0.000621981, 0.413383, 0.424297, 0.340693, 0.00147757, 0.00124501, 0.0109683
-0.0535452, 0.0585069, -0.633761, -8.59608e-05, -0.000209895, -0.000624437, 0.413367, 0.423836, 0.33773, 0.00147745, 0.00124113, 0.0109681
-0.0581755, 0.0702874, -0.639941, -8.58868e-05, -0.000215093, -0.000636309, 0.413065, 0.423239, 0.334856, 0.00147735, 0.00123709, 0.0109676
-0.0646303, 0.0831407, -0.643163, -8.55635e-05, -0.000216603, -0.000662611, 0.412662, 0.422613, 0.332362, 0.00147729, 0.00123344, 0.0109662
-0.071595, 0.0959257, -0.639741, -8.51226e-05, -0.000211573, -0.000700121, 0.412274, 0.42205, 0.330323, 0.00147722, 0.00123041, 0.0109633
-0.078847, 0.106402, -0.641599, -8.38596e-05, -0.000211294, -0.000735717, 0.411932, 0.421585, 0.328625, 0.00147715, 0.00122785, 0.0109602
-0.0849985, 0.116399, -0.637762, -8.29162e-05, -0.000206831, -0.000768465, 0.411716, 0.421281, 0.327354, 0.00147708, 0.001226, 0.0109571
-0.0912396, 0.124727, -0.627131, -8.21655e-05, -0.00019942, -0.000797004, 0.41165, 0.421175, 0.326491, 0.00147697, 0.00122486, 0.0109539
-0.0959081, 0.131486, -0.607969, -8.23125e-05, -0.000188653, -0.000815162, 0.411653, 0.421213, 0.325779, 0.00147685, 0.00122398, 0.010951
-0.100884, 0.134035, -0.598757, -8.19824e-05, -0.000183251, -0.000827711, 0.411673, 0.421365, 0.325112, 0.00147668, 0.00122315, 0.0109478
-0.104482, 0.134922, -0.585798, -8.20259e-05, -0.000177361, -0.000835862, 0.411765, 0.421629, 0.324609, 0.00147645, 0.00122253, 0.0109433
-0.108398, 0.132634, -0.578332, -8.14789e-05, -0.000173539, -0.000852118, 0.411916, 0.422017, 0.324164, 0.00147609, 0.00122193, 0.0109363
-0.111523, 0.128527, -0.567804, -8.17332e-05, -0.000169013, -0.000869422, 0.412173, 0.422556, 0.323775, 0.00147559, 0.00122131, 0.0109267
-0.112697, 0.122268, -0.554287, -8.35338e-05, -0.000164301, -0.000886036, 0.412564, 0.423274, 0.323414, 0.00147503, 0.00122063, 0.0109148
-0.112336, 0.11449, -0.539881, -8.59764e-05, -0.000159567, -0.000908064, 0.413099, 0.424183, 0.323052, 0.00147447, 0.00121984, 0.0109007
-0.109513, 0.105392, -0.525457, -8.87078e-05, -0.000155539, -0.000934288, 0.413821, 0.425308, 0.322716, 0.00147395, 0.00121895, 0.0108849
-0.104559, 0.094275, -0.519685, -9.01526e-05, -0.000153725, -0.000980084, 0.41477, 0.4267, 0.322433, 0.00147352, 0.001218, 0.0108684
-0.0972903, 0.0836259, -0.518379, -9.17304e-05, -0.000153594, -0.00102698, 0.415934, 0.428401, 0.32225, 0.00147321, 0.00121708, 0.0108532
-0.0893902, 0.0746991, -0.518373, -9.40514e-05, -0.000153966, -0.00106362, 0.417275, 0.430397, 0.322173, 0.00147299, 0.00121616, 0.0108408
-0.0817702, 0.0673896, -0.517131, -9.67955e-05, -0.000154763, -0.00109128, 0.418787, 0.432679, 0.322193, 0.00147281, 0.00121521, 0.0108309
-0.0740103, 0.061316, -0.519653, -9.94035e-05, -0.000155529, -0.00111655, 0.420494, 0.43519, 0.322253, 0.00147265, 0.00121424, 0.0108225
-0.0679245, 0.0567052, -0.520589, -0.000101595, -0.00015646, -0.00113306, 0.422293, 0.437805, 0.322378, 0.00147249, 0.00121328, 0.0108162
-0.0629612, 0.0529705, -0.520942, -0.000103299, -0.000157557, -0.0011445, 0.424105, 0.440384, 0.322563, 0.0014723, 0.00121242, 0.0108121
-0.0580194, 0.0497837, -0.520962, -0.00010432, -0.00015883, -0.00115569, 0.425872, 0.442806, 0.322736, 0.00147216, 0.00121177, 0.0108086
-0.0514136, 0.0468464, -0.525708, -0.000104547, -0.000159674, -0.00117353, 0.42752, 0.444985, 0.322869, 0.00147207, 0.00121135, 0.0108042
-0.042844, 0.0444221, -0.542132, -0.00010454, -0.000159441, -0.00119548, 0.428956, 0.446848, 0.322983, 0.00147195, 0.00121109, 0.010799
-0.0347478, 0.0437397, -0.558337, -0.000103697, -0.000158669, -0.00121098, 0.430097, 0.448322, 0.32311, 0.00147178, 0.00121092, 0.0107952
-0.0283851, 0.0452355, -0.571546, -0.00010266, -0.000156916, -0.00121871, 0.430874, 0.449331, 0.323297, 0.00147157, 0.00121075, 0.0107935
-0.0260747, 0.0494733, -0.577251, -0.000101489, -0.000155437, -0.00122533, 0.431229, 0.449759, 0.323522, 0.00147134, 0.00121054, 0.0107925
-0.0277319, 0.0550967, -0.581489, -0.000100374, -0.000153929, -0.00123753, 0.43117, 0.449578, 0.323691, 0.0014711, 0.00121038, 0.0107902
-0.031825, 0.0610253, -0.587946, -9.93972e-05, -0.000152634, -0.00125514, 0.430762, 0.448874, 0.323737, 0.00147093, 0.00121029, 0.0107865
-0.0357995, 0.0669125, -0.596764, -9.81195e-05, -0.000151833, -0.00127868, 0.430138, 0.447815, 0.323694, 0.00147082, 0.0012102, 0.0107823
-0.0411599, 0.0742837, -0.602406, -9.62948e-05, -0.00015094, -0.00131478, 0.429432, 0.446583, 0.323614, 0.00147069, 0.00121007, 0.0107758
-0.0499717, 0.0835992, -0.606655, -9.35622e-05, -0.000149832, -0.00137031, 0.428757, 0.445332, 0.323523, 0.00147047, 0.0012099, 0.0107652
-0.0598679, 0.0934149, -0.610022, -9.04684e-05, -0.000148495, -0.00143384, 0.428215, 0.444185, 0.323426, 0.0014702, 0.0012097, 0.010753
-0.0694078, 0.103565, -0.611767, -8.75932e-05, -0.000146811, -0.00149638, 0.427843, 0.443231, 0.323348, 0.00146995, 0.00120949, 0.0107414
-0.0783916, 0.114019, -0.612691, -8.4888e-05, -0.000144789, -0.00155545, 0.427642, 0.442509, 0.323295, 0.0014697, 0.00120929, 0.010731
-0.0873501, 0.1236, -0.607866, -8.2827e-05, -0.000142866, -0.00160382, 0.427594, 0.442047, 0.32329, 0.00146943, 0.0012091, 0.0107223
-0.0946649, 0.13194, -0.604539, -8.13614e-05, -0.000140944, -0.00163863, 0.427716, 0.441789, 0.323264, 0.00146922, 0.00120894, 0.0107163
-0.101237, 0.139217, -0.601647, -8.01453e-05, -0.000139201, -0.00166434, 0.42796, 0.441713, 0.323254, 0.00146904, 0.00120881, 0.0107123
-0.107321, 0.144942, -0.592985, -7.91864e-05, -0.000138302, -0.00168179, 0.428281, 0.4418, 0.323309, 0.00146891, 0.0012087, 0.0107101
-0.112047, 0.147855, -0.583545, -7.86639e-05, -0.00013796, -0.00169035, 0.428714, 0.442032, 0.323368, 0.00146885, 0.00120859, 0.0107092
-0.114855, 0.148727, -0.579237, -7.84437e-05, -0.000137387, -0.00169433, 0.429284, 0.44244, 0.323383, 0.0014688, 0.00120847, 0.0107085
-0.117066, 0.148311, -0.570713, -7.85992e-05, -0.000137179, -0.00169645, 0.42997, 0.443052, 0.323414, 0.00146874, 0.00120828, 0.0107071
-0.117453, 0.146075, -0.562226, -7.92199e-05, -0.000136589, -0.00170049, 0.430792, 0.443835, 0.323389, 0.00146866, 0.00120797, 0.010704
-0.115976, 0.141954, -0.554659, -7.99023e-05, -0.000135553, -0.0017121, 0.431747, 0.444797, 0.323308, 0.00146855, 0.0012075, 0.0106981
-0.113187, 0.136982, -0.543992, -8.0625e-05, -0.000134418, -0.00173015, 0.432822, 0.445973, 0.323236, 0.00146841, 0.00120688, 0.0106892
-0.109371, 0.130306, -0.53598, -8.08668e-05, -0.00013306, -0.001763, 0.43405, 0.4474, 0.323161, 0.00146825, 0.00120608, 0.0106768
-0.104034, 0.122228, -0.528052, -8.07596e-05, -0.00013159, -0.00181291, 0.435461, 0.449121, 0.323098, 0.00146804, 0.00120507, 0.0106601
-0.0966022, 0.112926, -0.531872, -8.01379e-05, -0.000130674, -0.00188127, 0.437053, 0.451129, 0.323034, 0.0014678, 0.00120388, 0.010639
-0.0890815, 0.103965, -0.531863, -8.00518e-05, -0.000129683, -0.00194914, 0.438791, 0.453448, 0.323059, 0.00146757, 0.00120259, 0.0106171
-0.0825439, 0.096057, -0.527116, -8.03457e-05, -0.000129457, -0.00200795, 0.440686, 0.456029, 0.323148, 0.00146739, 0.00120125, 0.0105971
-0.076383, 0.088609, -0.52502, -8.10111e-05, -0.000129022, -0.00206172, 0.442708, 0.45875, 0.323222, 0.00146725, 0.00119997, 0.0105796
-0.0708238, 0.0823857, -0.524444, -8.18075e-05, -0.000128882, -0.00210298, 0.444758, 0.461469, 0.323287, 0.00146714, 0.00119885, 0.0105653
-0.0658395, 0.077631, -0.526586, -8.2879e-05, -0.000129022, -0.00212958, 0.446717, 0.464048, 0.323364, 0.00146705, 0.00119797, 0.010555
-0.0600743, 0.0743938, -0.534935, -8.45378e-05, -0.000129425, -0.00214618, 0.448496, 0.466392, 0.323458, 0.00146697, 0.00119732, 0.0105478
-0.053602, 0.0731234, -0.549023, -8.67574e-05, -0.000129588, -0.00215309, 0.450024, 0.468429, 0.323596, 0.0014669, 0.00119689, 0.0105437
-0.0474268, 0.0744099, -0.565734, -8.8822e-05, -0.00012888, -0.00215359, 0.45124, 0.470055, 0.323788, 0.00146677, 0.00119663, 0.0105421
-0.0424718, 0.0784646, -0.58, -8.96841e-05, -0.000127324, -0.00215654, 0.452102, 0.471168, 0.32405, 0.00146651, 0.00119645, 0.0105414
-0.0401824, 0.0848759, -0.589226, -8.86377e-05, -0.000125672, -0.00217098, 0.452544, 0.471679, 0.324332, 0.00146609, 0.00119631, 0.0105389
-0.0404252, 0.0924207, -0.594252, -8.63915e-05, -0.000124579, -0.00219562, 0.4525, 0.471573, 0.324556, 0.00146565, 0.00119623, 0.0105338
-0.0424223, 0.0997821, -0.595849, -8.46024e-05, -0.000124357, -0.00221696, 0.451971, 0.470951, 0.324602, 0.00146542, 0.00119619, 0.0105287
-0.0439424, 0.105593, -0.600492, -8.39966e-05, -0.000124634, -0.00223049, 0.451078, 0.469957, 0.32449, 0.00146537, 0.00119611, 0.0105255
-0.0448173, 0.110487, -0.609766, -8.35118e-05, -0.000125494, -0.00224404, 0.450007, 0.468746, 0.324285, 0.00146534, 0.00119597, 0.0105236
-0.0469468, 0.115775, -0.611202, -8.36574e-05, -0.00012588, -0.00225221, 0.448903, 0.467455, 0.324148, 0.00146532, 0.00119583, 0.0105217
-0.0495459, 0.121222, -0.614217, -8.36198e-05, -0.000126241, -0.0022631, 0.447923, 0.466239, 0.324038, 0.00146531, 0.0011957, 0.0105197
-0.05339, 0.126766, -0.611952, -8.35215e-05, -0.000126542, -0.00227311, 0.447165, 0.46524, 0.323982, 0.00146529, 0.00119561, 0.0105172
-0.0576243, 0.131759, -0.607885, -8.32896e-05, -0.000126892, -0.00228182, 0.446673, 0.464569, 0.323995, 0.00146525, 0.00119554, 0.0105146
-0.0619761, 0.136399, -0.600174, -8.32088e-05, -0.000127427, -0.00228815, 0.446462, 0.46426, 0.324056, 0.00146517, 0.00119549, 0.0105123
-0.0675535, 0.140159, -0.590527, -8.30713e-05, -0.000128171, -0.00229303, 0.446476, 0.464219, 0.324136, 0.00146506, 0.00119544, 0.0105104
-0.0740178, 0.142908, -0.583021, -8.26109e-05, -0.000128293, -0.00230028, 0.446709, 0.464395, 0.324212, 0.00146493, 0.00119537, 0.0105089
-0.0828111, 0.143972, -0.577729, -8.10077e-05, -0.000127176, -0.00232184, 0.447171, 0.464768, 0.324302, 0.00146467, 0.00119519, 0.0105057
-0.0945264, 0.142168, -0.573328, -7.69043e-05, -0.000123961, -0.00237763, 0.447883, 0.465315, 0.324414, 0.00146401, 0.00119475, 0.0104959
-0.109526, 0.136718, -0.570603, -6.74822e-05, -0.000116731, -0.00250219, 0.448909, 0.466007, 0.324529, 0.00146259, 0.00119392, 0.0104721
-0.128018, 0.12813, -0.567284, -4.9743e-05, -0.000104046, -0.00273299, 0.450322, 0.466814, 0.324635, 0.00145992, 0.00119257, 0.0104252
-0.147292, 0.115371, -0.568273, -2.2007e-05, -8.55555e-05, -0.00308338, 0.452194, 0.467708, 0.324726, 0.00145575, 0.00119064, 0.0103489
-0.166613, 0.0995373, -0.569679, 1.37058e-05, -6.28088e-05, -0.0035354, 0.454523, 0.468687, 0.324827, 0.00145017, 0.00118818, 0.010244
-0.185088, 0.0828995, -0.570983, 5.26499e-05, -3.8455e-05, -0.00402979, 0.457235, 0.46976, 0.324964, 0.0014439, 0.00118546, 0.0101239
-0.202045, 0.0665649, -0.571933, 8.9902e-05, -1.52146e-05, -0.0045069, 0.460212, 0.470926, 0.325157, 0.00143774, 0.00118279, 0.0100038
-0.216691, 0.0509355, -0.572653, 0.00012175, 4.81603e-06, -0.00492105, 0.4633, 0.472162, 0.325369, 0.00143235, 0.00118037, 0.00989557
-0.228565, 0.0361002, -0.573034, 0.000146307, 2.07239e-05, -0.00524801, 0.466323, 0.473473, 0.325588, 0.00142805, 0.00117835, 0.00980714
-0.237677, 0.0242598, -0.571482, 0.000161236, 3.15273e-05, -0.00545721, 0.469057, 0.474848, 0.325784, 0.00142515, 0.00117684, 0.00974659
-0.242753, 0.0141157, -0.575984, 0.000169488, 3.78068e-05, -0.0055701, 0.471317, 0.476267, 0.32591, 0.00142359, 0.00117582, 0.00971278
-0.243478, 0.00862745, -0.577062, 0.00017088, 3.97738e-05, -0.00559939, 0.47289, 0.477718, 0.325992, 0.00142312, 0.00117522, 0.0097004
-0.238303, 0.00826545, -0.577043, 0.000171006, 3.90637e-05, -0.00560572, 0.473521, 0.479146, 0.326008, 0.00142311, 0.00117494, 0.00969717
-0.225634, 0.0142436, -0.577793, 0.000177732, 3.83282e-05, -0.00567752, 0.473041, 0.480502, 0.32594, 0.0014224, 0.00117473, 0.00967958
-0.204348, 0.0277747, -0.577087, 0.00020015, 4.11455e-05, -0.00591574, 0.47149, 0.481746, 0.325808, 0.00141953, 0.00117431, 0.00961929
-0.175736, 0.0484414, -0.571238, 0.000244366, 5.03275e-05, -0.00637742, 0.469207, 0.48286, 0.32566, 0.0014133, 0.00117345, 0.0094956
-0.142697, 0.0735556, -0.567098, 0.000303953, 6.56058e-05, -0.00700316, 0.466811, 0.483867, 0.325498, 0.00140376, 0.00117208, 0.00930981
-0.108033, 0.101782, -0.565302, 0.000371514, 8.50421e-05, -0.00771509, 0.464903, 0.484795, 0.32533, 0.00139201, 0.00117036, 0.00908211
-0.0734978, 0.131631, -0.561001, 0.000445483, 0.000107572, -0.00848411, 0.463804, 0.485663, 0.325222, 0.00137896, 0.00116847, 0.00882962
-0.0392049, 0.162695, -0.555078, 0.000524843, 0.000133136, -0.00930182, 0.46365, 0.486477, 0.325178, 0.00136502, 0.00116646, 0.00855946
-0.00584251, 0.194428, -0.552571, 0.00060434, 0.000160655, -0.0101285, 0.4645, 0.487243, 0.325212, 0.00135066, 0.0011644, 0.00828128
0.0246648, 0.226107, -0.551918, 0.000679248, 0.000187599, -0.0109083, 0.466294, 0.488008, 0.325404, 0.0013369, 0.00116246, 0.00801365
0.0519446, 0.256875, -0.551001, 0.000748065, 0.000212314, -0.0116182, 0.468853, 0.48883, 0.325758, 0.00132471, 0.00116078, 0.00777332
0.0747772, 0.285177, -0.547717, 0.000806937, 0.000232487, -0.0122091, 0.471935, 0.489739, 0.326263, 0.00131462, 0.00115945, 0.00757262
0.0930474, 0.310061, -0.541052, 0.000853529, 0.00024692, -0.0126552, 0.475279, 0.490743, 0.326831, 0.00130697, 0.00115852, 0.00741902
0.109722, 0.330474, -0.542883, 0.000884156, 0.000256501, -0.0129664, 0.478628, 0.491836, 0.327349, 0.00130178, 0.00115799, 0.00731462
0.123635, 0.346195, -0.540334, 0.000905311, 0.000261348, -0.0131657, 0.48163, 0.49299, 0.32785, 0.0012988, 0.00115779, 0.00725596
0.134939, 0.357541, -0.540468, 0.000915897, 0.000262404, -0.0132642, 0.483999, 0.494183, 0.328256, 0.00129751, 0.00115776, 0.00723263
0.143137, 0.363164, -0.546489, 0.000918138, 0.000261576, -0.0132903, 0.485509, 0.495378, 0.32854, 0.0012971, 0.00115773, 0.00722895
0.146744, 0.364526, -0.549109, 0.000917773, 0.000260742, -0.0132867, 0.486013, 0.496532, 0.328725, 0.0012967, 0.00115748, 0.00722686
0.144565, 0.362434, -0.544826, 0.000917822, 0.00026128, -0.0132923, 0.48555, 0.497594, 0.328779, 0.00129549, 0.00115682, 0.00720889
0.137147, 0.357302, -0.538842, 0.000920692, 0.000265361, -0.0133409, 0.484324, 0.498505, 0.3286, 0.00129298, 0.0011557, 0.00716138
0.125154, 0.348942, -0.542429, 0.000929905, 0.000273296, -0.013464, 0.482681, 0.499211, 0.328167, 0.00128901, 0.00115404, 0.00707633
0.109253, 0.33774, -0.552362, 0.000946008, 0.000283971, -0.0136658, 0.481017, 0.499709, 0.327607, 0.00128362, 0.0011518, 0.00695026
0.0885961, 0.325289, -0.559473, 0.00096869, 0.000299317, -0.0139595, 0.479712, 0.500041, 0.327056, 0.00127697, 0.00114909, 0.0067849
0.0646169, 0.311949, -0.561186, 0.000994918, 0.000317879, -0.0143235, 0.479106, 0.500241, 0.326555, 0.00126957, 0.00114606, 0.00659011
0.0389646, 0.297518, -0.561492, 0.00102344, 0.000337634, -0.014734, 0.4794, 0.500336, 0.326098, 0.0012622, 0.00114293, 0.00638244
0.0134884, 0.281495, -0.566084, 0.00105433, 0.000356804, -0.0151684, 0.480629, 0.500356, 0.32568, 0.00125524, 0.00113983, 0.00617259
-0.0111128, 0.264623, -0.569077, 0.00108354, 0.000374677, -0.0155962, 0.482728, 0.500387, 0.325413, 0.00124882, 0.00113685, 0.0059682
-0.0344553, 0.248649, -0.572292, 0.00111176, 0.000391637, -0.0160126, 0.485564, 0.500485, 0.325323, 0.0012431, 0.00113412, 0.00577821
-0.0564563, 0.233985, -0.571276, 0.00113552, 0.000406758, -0.0163943, 0.488975, 0.500657, 0.325445, 0.00123821, 0.00113161, 0.00560642
-0.0768442, 0.220297, -0.567461, 0.00115462, 0.000419277, -0.0167298, 0.492787, 0.500877, 0.32574, 0.00123413, 0.00112934, 0.0054552
-0.0959683, 0.208493, -0.560815, 0.00116957, 0.000429996, -0.0170221, 0.496845, 0.501112, 0.326141, 0.00123083, 0.00112734, 0.00532684
-0.112428, 0.19542, -0.560746, 0.001183, 0.000437404, -0.0172613, 0.501, 0.501284, 0.326579, 0.00122832, 0.00112562, 0.00522285
-0.126278, 0.181952, -0.563339, 0.00119309, 0.000441244, -0.0174366, 0.505055, 0.501409, 0.327057, 0.00122656, 0.0011242, 0.00514398
-0.137725, 0.168805, -0.566537, 0.00119935, 0.000442424, -0.0175517, 0.508799, 0.501533, 0.327539, 0.00122549, 0.0011231, 0.00508979
-0.146543, 0.156876, -0.572883, 0.00120326, 0.000441795, -0.0176191, 0.512021, 0.50166, 0.327943, 0.00122498, 0.00112229, 0.00505818
-0.152144, 0.147632, -0.579938, 0.00120476, 0.000440457, -0.0176474, 0.514483, 0.501804, 0.328256, 0.00122483, 0.00112176, 0.0050438
-0.155144, 0.142062, -0.581755, 0.00120437, 0.000439687, -0.017654, 0.515997, 0.501997, 0.328473, 0.00122479, 0.00112143, 0.00503979
-0.154828, 0.138023, -0.578167, 0.00120459, 0.000438139, -0.017655, 0.516435, 0.502211, 0.328635, 0.00122457, 0.00112115, 0.00503959
-0.151544, 0.135767, -0.575955, 0.00120642, 0.000437193, -0.0176624, 0.51582, 0.502408, 0.328701, 0.00122388, 0.00112087, 0.00503695
-0.144664, 0.134916, -0.576068, 0.0012101, 0.000437284, -0.017685, 0.514279, 0.502632, 0.328626, 0.00122254, 0.00112067, 0.00502596
-0.132302, 0.135219, -0.578344, 0.00121745, 0.000438423, -0.0177394, 0.511995, 0.502891, 0.328348, 0.00122046, 0.00112058, 0.00500181
-0.115601, 0.136393, -0.580257, 0.00122947, 0.000440266, -0.0178322, 0.509241, 0.503146, 0.32789, 0.00121756, 0.0011205, 0.00496245
-0.0958033, 0.138476, -0.576252, 0.00124733, 0.000443291, -0.017966, 0.506247, 0.503378, 0.327288, 0.0012139, 0.00112038, 0.00490753
-0.0733961, 0.141195, -0.570771, 0.00126967, 0.000447567, -0.0181389, 0.503178, 0.503631, 0.326652, 0.00120951, 0.00112021, 0.00483573
-0.0490258, 0.145159, -0.564902, 0.00129612, 0.000453141, -0.0183505, 0.500291, 0.503946, 0.32606, 0.0012044, 0.00111998, 0.00474561
-0.0223475, 0.149609, -0.556641, 0.00132882, 0.000459963, -0.0186132, 0.497883, 0.504367, 0.325678, 0.00119858, 0.00111973, 0.00463766
0.00464113, 0.154767, -0.55052, 0.00136353, 0.000467363, -0.0189004, 0.496258, 0.504885, 0.325564, 0.00119223, 0.00111943, 0.00451629
0.0305009, 0.16146, -0.547755, 0.00139676, 0.000475021, -0.0191837, 0.495638, 0.505518, 0.325698, 0.00118581, 0.00111913, 0.00439044
0.053435, 0.170305, -0.544716, 0.00142746, 0.000482304, -0.0194372, 0.496019, 0.506259, 0.326081, 0.00117978, 0.00111883, 0.0042699
0.0732715, 0.181138, -0.541879, 0.00145395, 0.000488783, -0.0196493, 0.497235, 0.507108, 0.326702, 0.00117455, 0.00111856, 0.00416317
0.0896984, 0.193459, -0.538381, 0.00147556, 0.000494036, -0.0198129, 0.499052, 0.508039, 0.327484, 0.00117034, 0.00111835, 0.00407536
0.102925, 0.205526, -0.536012, 0.00149111, 0.000497956, -0.0199274, 0.501209, 0.508997, 0.328315, 0.00116718, 0.0011182, 0.00400846
0.113176, 0.217316, -0.532466, 0.00150227, 0.000500282, -0.0200022, 0.503453, 0.509976, 0.329076, 0.00116511, 0.00111812, 0.00396234
0.119767, 0.22949, -0.52622, 0.00150942, 0.000501156, -0.0200387, 0.505565, 0.510983, 0.329639, 0.00116398, 0.00111811, 0.00393487
0.123565, 0.241545, -0.523258, 0.00151278, 0.000500847, -0.0200486, 0.507337, 0.511958, 0.329916, 0.0011635, 0.00111809, 0.00392183
0.124295, 0.253816, -0.532299, 0.00151464, 0.000498728, -0.0200412, 0.508668, 0.512883, 0.329859, 0.00116336, 0.001118, 0.00391791
0.123105, 0.265667, -0.53862, 0.00151719, 0.000497029, -0.0200357, 0.509468, 0.513775, 0.329592, 0.00116324, 0.00111784, 0.00391772
0.119142, 0.275705, -0.547788, 0.00152183, 0.000496095, -0.0200411, 0.509746, 0.514614, 0.329108, 0.00116286, 0.00111759, 0.00391551
0.111794, 0.284232, -0.556037, 0.00152848, 0.000497054, -0.020066, 0.509597, 0.515366, 0.328487, 0.00116204, 0.00111721, 0.00390648
0.101343, 0.292377, -0.554997, 0.00153357, 0.000500308, -0.020111, 0.509178, 0.51598, 0.327776, 0.00116073, 0.00111672, 0.00388771
0.0886294, 0.297846, -0.556189, 0.00154098, 0.000505155, -0.0201794, 0.508686, 0.516425, 0.327003, 0.00115899, 0.00111612, 0.00385824
0.0746765, 0.301585, -0.55907, 0.00155056, 0.000510968, -0.0202669, 0.508333, 0.516744, 0.326257, 0.00115688, 0.00111542, 0.00381851
0.0608807, 0.30345, -0.562316, 0.00156093, 0.000517185, -0.020364, 0.508321, 0.516992, 0.325632, 0.00115443, 0.00111464, 0.00376959
0.0480305, 0.303063, -0.564408, 0.0015705, 0.000523438, -0.0204618, 0.508797, 0.517223, 0.325219, 0.00115173, 0.00111383, 0.00371372
0.0367812, 0.3008, -0.568465, 0.00158045, 0.000529003, -0.0205538, 0.509828, 0.517458, 0.325027, 0.00114891, 0.001113, 0.0036547
0.0263089, 0.299567, -0.568652, 0.00158771, 0.000534527, -0.0206395, 0.511391, 0.51773, 0.325091, 0.00114618, 0.0011122, 0.00359618
0.0172905, 0.296445, -0.570456, 0.00159446, 0.000538949, -0.0207133, 0.513399, 0.517995, 0.32536, 0.00114368, 0.00111145, 0.00354103
0.0103248, 0.289198, -0.5721, 0.00159883, 0.000541688, -0.0207661, 0.515713, 0.518222, 0.325757, 0.0011415, 0.00111077, 0.00349125
0.00492195, 0.280669, -0.570366, 0.00159991, 0.000543665, -0.0208004, 0.51817, 0.518454, 0.326229, 0.00113969, 0.0011102, 0.00344918
0.000797391, 0.271562, -0.567296, 0.00159933, 0.000545116, -0.0208205, 0.520639, 0.518734, 0.326691, 0.00113833, 0.0011097, 0.00341671
-0.00220136, 0.262584, -0.565797, 0.00159866, 0.000545917, -0.0208301, 0.522987, 0.519063, 0.327049, 0.0011374, 0.00110924, 0.00339364
-0.0041894, 0.253785, -0.565524, 0.00159793, 0.000545946, -0.0208323, 0.525096, 0.519446, 0.327292, 0.00113686, 0.00110885, 0.00337866
-0.00586996, 0.245591, -0.567323, 0.00159733, 0.00054553, -0.0208319, 0.526827, 0.519893, 0.327416, 0.00113661, 0.00110861, 0.00337012
-0.00586544, 0.238232, -0.567354, 0.00159613, 0.00054514, -0.020827, 0.528145, 0.520428, 0.327422, 0.00113648, 0.00110847, 0.0033661
-0.00437735, 0.231293, -0.565333, 0.00159505, 0.000544639, -0.0208214, 0.529062, 0.521034, 0.327303, 0.00113637, 0.00110838, 0.00336478
-0.00174581, 0.223521, -0.564375, 0.00159397, 0.000543925, -0.0208172, 0.529568, 0.521695, 0.32706, 0.00113617, 0.00110833, 0.00336441
0.0019707, 0.215649, -0.565097, 0.00159282, 0.000543165, -0.0208164, 0.529646, 0.52238, 0.326644, 0.00113577, 0.00110829, 0.00336319
0.0059418, 0.208626, -0.569354, 0.00159101, 0.000542196, -0.0208195, 0.529331, 0.523059, 0.326048, 0.00113512, 0.00110824, 0.00335923
0.0113671, 0.201897, -0.568285, 0.00159187, 0.000541807, -0.020832, 0.528695, 0.523715, 0.325328, 0.00113415, 0.00110816, 0.00335087
0.0180541, 0.195471, -0.566197, 0.00159423, 0.000541693, -0.0208539, 0.527845, 0.524324, 0.324589, 0.00113278, 0.00110807, 0.00333661
0.0251256, 0.190907, -0.564923, 0.00159723, 0.000541625, -0.0208825, 0.526925, 0.524882, 0.323935, 0.00113093, 0.00110802, 0.00331544
0.0324824, 0.187351, -0.562304, 0.00160185, 0.000541771, -0.0209178, 0.526121, 0.525424, 0.323471, 0.00112863, 0.00110799, 0.00328735
0.0397581, 0.185076, -0.557908, 0.00160839, 0.000541871, -0.0209579, 0.525616, 0.525987, 0.323277, 0.00112598, 0.00110798, 0.00325391
0.0468034, 0.183158, -0.552822, 0.00161575, 0.000541745, -0.0210004, 0.52553, 0.526583, 0.323354, 0.00112319, 0.00110796, 0.00321767
0.0529389, 0.18243, -0.545044, 0.00162489, 0.00054157, -0.0210407, 0.525911, 0.527219, 0.323642, 0.00112048, 0.00110795, 0.0031814
0.058228, 0.184144, -0.536562, 0.00163426, 0.000541648, -0.0210752, 0.526725, 0.527854, 0.324091, 0.001118, 0.00110794, 0.00314769
0.0627306, 0.189178, -0.534327, 0.00163901, 0.000541872, -0.021099, 0.527888, 0.528491, 0.324653, 0.00111586, 0.00110794, 0.00311873
0.0668639, 0.196925, -0.53612, 0.00164123, 0.000542004, -0.0211158, 0.529273, 0.529196, 0.325243, 0.00111422, 0.00110793, 0.00309595
0.0705724, 0.207765, -0.543788, 0.00164093, 0.000542086, -0.0211252, 0.530722, 0.529982, 0.325808, 0.00111308, 0.00110793, 0.00307958
0.0713494, 0.231418, -0.550933, 0.00164243, 0.000543085, -0.02112, 0.532073, 0.530829, 0.326358, 0.00111231, 0.0011079, 0.00306901
0.0674882, 0.249148, -0.5556, 0.00164302, 0.000544339, -0.0211063, 0.533266, 0.531681, 0.326737, 0.00111186, 0.00110784, 0.00306313
0.0695559, 0.256602, -0.554407, 0.00164449, 0.000544401, -0.0211072, 0.534244, 0.532458, 0.326839, 0.00111166, 0.00110779, 0.00306104
0.0712262, 0.263886, -0.556125, 0.00164543, 0.000544768, -0.0211056, 0.53495, 0.533155, 0.326704, 0.0011116, 0.0011077, 0.00306087
0.0717525, 0.269572, -0.55585, 0.00164597, 0.000545035, -0.0211036, 0.535411, 0.533795, 0.326398, 0.00111152, 0.00110754, 0.00306009
0.0716081, 0.273884, -0.553587, 0.00164583, 0.000545117, -0.0211021, 0.53573, 0.534364, 0.325963, 0.00111129, 0.00110734, 0.0030569
0.0710727, 0.276867, -0.552099, 0.00164566, 0.000545267, -0.0211021, 0.536, 0.534853, 0.325487, 0.00111088, 0.0011071, 0.00305054
0.0700082, 0.278491, -0.551078, 0.00164554, 0.000545512, -0.0211042, 0.536322, 0.535265, 0.325034, 0.00111029, 0.00110683, 0.00304135
0.0692154, 0.279119, -0.551339, 0.00164581, 0.000545793, -0.0211065, 0.536766, 0.535595, 0.324629, 0.00110957, 0.00110657, 0.0030303
0.0688597, 0.278371, -0.551496, 0.00164587, 0.000545835, -0.0211079, 0.537363, 0.535865, 0.324314, 0.00110879, 0.00110629, 0.0030184
0.0684482, 0.276714, -0.551933, 0.001646, 0.000545797, -0.0211096, 0.538123, 0.53611, 0.324099, 0.00110799, 0.00110601, 0.00300661
0.0679845, 0.274577, -0.552951, 0.00164633, 0.000545698, -0.0211114, 0.539043, 0.536372, 0.323991, 0.00110725, 0.00110573, 0.00299571
0.0676848, 0.272301, -0.553092, 0.00164621, 0.000545452, -0.0211123, 0.540103, 0.53667, 0.323975, 0.00110657, 0.00110544, 0.00298607
0.0672826, 0.270011, -0.552948, 0.00164595, 0.000545155, -0.0211131, 0.541261, 0.537004, 0.324022, 0.00110598, 0.00110515, 0.00297784
0.0669317, 0.267621, -0.552651, 0.00164559, 0.000544802, -0.0211135, 0.542487, 0.537375, 0.324103, 0.00110547, 0.00110485, 0.00297111
0.0666984, 0.265053, -0.552661, 0.00164532, 0.000544378, -0.0211135, 0.543747, 0.537788, 0.324198, 0.00110504, 0.00110456, 0.00296584
0.06662, 0.262208, -0.553341, 0.00164521, 0.000543853, -0.0211131, 0.545012, 0.538247, 0.324294, 0.00110467, 0.00110428, 0.00296193
0.0669149, 0.25957, -0.553881, 0.00164508, 0.00054329, -0.021112, 0.546262, 0.538756, 0.324381, 0.00110436, 0.00110401, 0.00295916
0.0670058, 0.257575, -0.554163, 0.0016449, 0.000542874, -0.0211113, 0.547481, 0.539317, 0.324466, 0.00110409, 0.00110375, 0.00295725
0.066722, 0.25593, -0.554956, 0.00164481, 0.000542593, -0.0211112, 0.548654, 0.539911, 0.32454, 0.00110385, 0.00110351, 0.00295606
0.0663013, 0.254724, -0.554625, 0.00164454, 0.000542426, -0.0211112, 0.549784, 0.540527, 0.324587, 0.00110363, 0.00110326, 0.00295538
0.0657325, 0.252869, -0.557192, 0.00164459, 0.000542154, -0.0211116, 0.550885, 0.541166, 0.324609, 0.00110343, 0.00110303, 0.00295503
0.0646369, 0.250958, -0.559476, 0.00164443, 0.000542051, -0.021112, 0.551942, 0.541843, 0.324634, 0.00110325, 0.00110283, 0.00295489
0.0625109, 0.249661, -0.559321, 0.00164387, 0.000542231, -0.0211127, 0.552949, 0.542566, 0.324685, 0.00110309, 0.00110266, 0.00295481
0.0599048, 0.24886, -0.557406, 0.00164325, 0.000542388, -0.0211132, 0.553876, 0.543304, 0.324777, 0.00110297, 0.00110251, 0.00295463
0.057176, 0.248544, -0.558368, 0.00164269, 0.000542869, -0.0211131, 0.554674, 0.544011, 0.324905, 0.00110285, 0.00110236, 0.002954
0.0558103, 0.2493, -0.561661, 0.00164211, 0.000543699, -0.0211115, 0.555337, 0.544682, 0.325064, 0.00110271, 0.00110219, 0.00295258
0.0563029, 0.250266, -0.567808, 0.00164133, 0.000545118, -0.0211099, 0.555849, 0.545333, 0.325301, 0.00110253, 0.00110197, 0.00295026
0.0585702, 0.250475, -0.570195, 0.00164139, 0.00054557, -0.0211109, 0.556221, 0.545985, 0.3256, 0.0011023, 0.0011017, 0.00294718
0.0620694, 0.251456, -0.568272, 0.00164236, 0.000544943, -0.0211125, 0.556458, 0.546618, 0.325895, 0.00110207, 0.00110146, 0.00294382
0.0658485, 0.252765, -0.564192, 0.00164386, 0.000543798, -0.0211149, 0.556594, 0.547192, 0.326191, 0.00110182, 0.00110124, 0.00294067
0.0717048, 0.254406, -0.563455, 0.0016449, 0.00054364, -0.021118, 0.556777, 0.547713, 0.326358, 0.00110159, 0.00110115, 0.00293809
0.0787262, 0.256214, -0.563972, 0.00164596, 0.000543453, -0.0211227, 0.557049, 0.548243, 0.326444, 0.0011014, 0.00110111, 0.00293645
0.0865959, 0.257813, -0.56399, 0.00164725, 0.00054298, -0.0211287, 0.557481, 0.548823, 0.326448, 0.00110122, 0.00110108, 0.00293552
0.0944346, 0.258833, -0.563902, 0.00164853, 0.000542258, -0.0211349, 0.558076, 0.549446, 0.326356, 0.00110101, 0.00110103, 0.00293474
0.102398, 0.259534, -0.56234, 0.00165001, 0.000541399, -0.0211412, 0.558826, 0.550113, 0.326159, 0.00110074, 0.00110093, 0.00293337
0.11048, 0.259497, -0.562655, 0.00165117, 0.000540005, -0.0211463, 0.559743, 0.550857, 0.325883, 0.00110036, 0.00110073, 0.00293065
0.118006, 0.258067, -0.557381, 0.00165213, 0.000539118, -0.0211481, 0.560819, 0.55173, 0.325563, 0.00109982, 0.00110042, 0.00292569
0.124859, 0.256142, -0.550349, 0.00165237, 0.000538766, -0.0211463, 0.562034, 0.552762, 0.325219, 0.00109909, 0.00109997, 0.00291768
0.130163, 0.253956, -0.542553, 0.00165174, 0.000539303, -0.021141, 0.563368, 0.554, 0.324902, 0.00109816, 0.00109936, 0.00290638
0.132588, 0.251651, -0.530823, 0.00165055, 0.000542172, -0.0211342, 0.564771, 0.555435, 0.324675, 0.00109713, 0.00109864, 0.00289286
0.132217, 0.249992, -0.523526, 0.00164927, 0.000545281, -0.0211282, 0.56609, 0.556964, 0.324463, 0.00109616, 0.00109771, 0.00287921
0.12768, 0.248819, -0.527037, 0.00164848, 0.000544635, -0.0211243, 0.567293, 0.558501, 0.324302, 0.00109534, 0.00109667, 0.00286726
0.122091, 0.247521, -0.531091, 0.00164765, 0.000544062, -0.0211205, 0.568417, 0.559996, 0.324227, 0.0010947, 0.00109579, 0.00285803
0.116033, 0.246709, -0.535103, 0.00164696, 0.000543889, -0.0211185, 0.569452, 0.561376, 0.324233, 0.00109423, 0.00109521, 0.00285155
0.108547, 0.24718, -0.540554, 0.00164658, 0.00054403, -0.0211194, 0.570366, 0.562577, 0.324257, 0.00109392, 0.00109486, 0.0028476
0.100974, 0.249246, -0.546736, 0.00164638, 0.000544591, -0.0211219, 0.571157, 0.56356, 0.324275, 0.00109372, 0.00109467, 0.00284569
0.0926141, 0.251657, -0.545198, 0.00164605, 0.000545949, -0.0211234, 0.57185, 0.564308, 0.324275, 0.00109361, 0.00109457, 0.00284519
0.0844295, 0.254609, -0.541882, 0.00164557, 0.000547093, -0.0211233, 0.572463, 0.564752, 0.324178, 0.00109356, 0.00109449, 0.00284517
0.0775224, 0.256272, -0.541285, 0.00164477, 0.000547893, -0.0211227, 0.573014, 0.564891, 0.323994, 0.0010935, 0.00109441, 0.00284451
0.0717362, 0.25751, -0.545352, 0.00164352, 0.000548868, -0.0211218, 0.573494, 0.564812, 0.323783, 0.00109338, 0.00109433, 0.00284237
0.0676943, 0.25906, -0.550975, 0.00164204, 0.000550189, -0.0211195, 0.573893, 0.564646, 0.323613, 0.0010932, 0.00109421, 0.00283827
0.0646704, 0.261798, -0.552661, 0.0016409, 0.000550852, -0.021114, 0.574246, 0.564517, 0.323537, 0.00109298, 0.00109399, 0.00283216
0.0610133, 0.266845, -0.549176, 0.00164011, 0.000549866, -0.0211015, 0.574578, 0.56449, 0.323583, 0.00109272, 0.00109365, 0.00282421
0.0593422, 0.273543, -0.552813, 0.00163812, 0.000550994, -0.0210839, 0.575016, 0.56462, 0.323749, 0.00109246, 0.00109324, 0.00281427
0.0595025, 0.279331, -0.558194, 0.00163631, 0.000552732, -0.0210672, 0.57555, 0.564984, 0.32407, 0.00109219, 0.00109273, 0.00280267
0.06003, 0.286223, -0.560647, 0.00163474, 0.000553194, -0.0210454, 0.576111, 0.56557, 0.324554, 0.00109194, 0.00109214, 0.00278997
0.0624158, 0.29367, -0.563692, 0.00163314, 0.000553628, -0.0210206, 0.576685, 0.566314, 0.32516, 0.00109168, 0.00109156, 0.00277664
0.0664871, 0.300028, -0.565426, 0.00163211, 0.000553483, -0.0209988, 0.577245, 0.567179, 0.325848, 0.00109143, 0.00109103, 0.00276358
0.0718661, 0.305352, -0.569356, 0.00163122, 0.00055417, -0.0209807, 0.577792, 0.568166, 0.326596, 0.0010912, 0.00109055, 0.0027516
0.0783566, 0.310487, -0.573347, 0.00163058, 0.000554678, -0.0209644, 0.578299, 0.569296, 0.32741, 0.00109104, 0.00109003, 0.00274124
0.0853313, 0.314349, -0.57067, 0.00163094, 0.000552603, -0.0209544, 0.578821, 0.570497, 0.328204, 0.00109094, 0.00108957, 0.00273319
0.0931058, 0.318006, -0.568978, 0.00163127, 0.000551046, -0.0209475, 0.57938, 0.571653, 0.328849, 0.00109088, 0.00108929, 0.00272763
0.101395, 0.321396, -0.559563, 0.00163192, 0.000548112, -0.0209442, 0.579958, 0.572694, 0.329299, 0.00109087, 0.00108913, 0.0027245
0.110136, 0.323892, -0.554693, 0.00163223, 0.000546736, -0.0209432, 0.580565, 0.573542, 0.329442, 0.00109087, 0.00108907, 0.00272319
0.11894, 0.325643, -0.553719, 0.00163241, 0.0005457, -0.0209431, 0.581237, 0.574232, 0.329254, 0.00109084, 0.001089, 0.00272294
0.127621, 0.325887, -0.55702, 0.00163258, 0.000543835, -0.0209429, 0.582002, 0.574812, 0.328816, 0.00109075, 0.00108884, 0.00272285
0.136296, 0.323952, -0.557955, 0.00163188, 0.000541867, -0.0209392, 0.582876, 0.575331, 0.328222, 0.0010905, 0.00108859, 0.00272174
0.144345, 0.320379, -0.55867, 0.00163046, 0.000539607, -0.0209314, 0.58384, 0.57581, 0.327452, 0.00109004, 0.00108815, 0.00271833
0.151829, 0.314522, -0.557228, 0.00162727, 0.000537567, -0.0209149, 0.584909, 0.576328, 0.326618, 0.0010893, 0.00108753, 0.0027114
0.158916, 0.307163, -0.550656, 0.00162137, 0.000537066, -0.0208882, 0.5861, 0.576983, 0.325817, 0.00108825, 0.00108677, 0.00270016
0.16499, 0.298449, -0.540996, 0.00161315, 0.000538221, -0.0208521, 0.58736, 0.577825, 0.325089, 0.00108695, 0.00108578, 0.00268486
0.169523, 0.289569, -0.529258, 0.00160387, 0.00054145, -0.0208124, 0.588584, 0.578843, 0.324475, 0.00108552, 0.0010846, 0.00266646
0.171734, 0.281335, -0.516169, 0.0015948, 0.000547283, -0.0207753, 0.589643, 0.579985, 0.323989, 0.00108413, 0.0010832, 0.00264657
0.168542, 0.272737, -0.513455, 0.00158918, 0.000548631, -0.0207439, 0.590511, 0.581215, 0.323646, 0.00108291, 0.0010816, 0.00262759
0.162083, 0.265437, -0.515946, 0.00158604, 0.000547669, -0.0207214, 0.591295, 0.582539, 0.32347, 0.00108184, 0.00107995, 0.00261114
0.153617, 0.259064, -0.521707, 0.00158438, 0.000545304, -0.0207057, 0.592149, 0.583943, 0.323474, 0.00108095, 0.00107857, 0.00259815
0.14413, 0.253697, -0.529256, 0.00158336, 0.000542692, -0.0206952, 0.593065, 0.585353, 0.323571, 0.00108027, 0.00107752, 0.00258884
0.134001, 0.249922, -0.538219, 0.0015827, 0.000540491, -0.0206894, 0.593996, 0.586685, 0.323687, 0.00107978, 0.00107682, 0.00258289
0.124004, 0.248451, -0.544012, 0.00158166, 0.000540367, -0.0206877, 0.594885, 0.587856, 0.323754, 0.00107946, 0.00107643, 0.00257971
0.114156, 0.248771, -0.550907, 0.00158064, 0.000540642, -0.0206873, 0.595709, 0.588791, 0.323714, 0.00107926, 0.00107619, 0.00257853
0.105286, 0.251414, -0.556859, 0.00157959, 0.000541625, -0.0206871, 0.596483, 0.589483, 0.323573, 0.00107912, 0.00107604, 0.00257837
0.0975289, 0.255738, -0.561792, 0.00157831, 0.000543, -0.0206848, 0.597194, 0.589924, 0.32335, 0.001079, 0.00107593, 0.00257823
0.0906999, 0.261984, -0.565668, 0.00157672, 0.000544626, -0.020679, 0.597849, 0.590123, 0.32307, 0.00107887, 0.00107584, 0.00257719
0.0846611, 0.270113, -0.567502, 0.00157478, 0.000546198, -0.0206677, 0.598431, 0.590126, 0.32278, 0.0010787, 0.00107572, 0.00257441
0.0801857, 0.279695, -0.568363, 0.00157255, 0.00054756, -0.0206503, 0.598961, 0.590004, 0.322529, 0.00107846, 0.00107553, 0.00256913
0.077871, 0.289938, -0.569093, 0.00157017, 0.00054867, -0.0206274, 0.599406, 0.589833, 0.322365, 0.00107814, 0.00107523, 0.0025611
0.0772931, 0.300083, -0.570044, 0.0015677, 0.000549629, -0.0206012, 0.599736, 0.589698, 0.322358, 0.00107774, 0.00107479, 0.00255049
0.078499, 0.310709, -0.570913, 0.00156513, 0.000550485, -0.0205704, 0.599961, 0.589671, 0.322542, 0.00107725, 0.0010742, 0.00253783
0.0809139, 0.321601, -0.571417, 0.00156254, 0.000551153, -0.0205357, 0.600063, 0.589826, 0.322962, 0.00107666, 0.00107337, 0.00252358
0.0863652, 0.331725, -0.574884, 0.00155987, 0.000553392, -0.0205019, 0.600123, 0.590221, 0.323619, 0.00107601, 0.00107234, 0.00250855
0.0930925, 0.339639, -0.575637, 0.00155896, 0.000554134, -0.0204744, 0.600174, 0.590862, 0.324485, 0.00107534, 0.00107118, 0.00249397
0.100769, 0.345633, -0.574141, 0.0015597, 0.000553579, -0.0204542, 0.600238, 0.591677, 0.32548, 0.00107465, 0.00107002, 0.00248084
0.107978, 0.348896, -0.565437, 0.00156372, 0.000548862, -0.0204428, 0.60026, 0.592556, 0.326537, 0.00107393, 0.00106889, 0.00246994
0.117212, 0.351541, -0.559968, 0.00156722, 0.000546648, -0.0204351, 0.600297, 0.593341, 0.327465, 0.00107322, 0.00106806, 0.00246185
0.128652, 0.353822, -0.558414, 0.00157004, 0.000546426, -0.0204312, 0.600375, 0.593997, 0.328231, 0.00107257, 0.00106745, 0.00245683
0.141051, 0.354659, -0.557831, 0.00157303, 0.000546262, -0.020431, 0.600594, 0.594551, 0.328782, 0.00107206, 0.001067, 0.00245454
0.152875, 0.352468, -0.555179, 0.00157655, 0.000544861, -0.0204319, 0.601013, 0.595001, 0.32906, 0.00107169, 0.00106666, 0.002454
0.162999, 0.347244, -0.54981, 0.00157985, 0.000542423, -0.0204304, 0.601596, 0.595312, 0.329039, 0.00107138, 0.00106636, 0.00245396
0.171654, 0.339803, -0.545043, 0.00158206, 0.000539718, -0.0204251, 0.602296, 0.595478, 0.328736, 0.0010711, 0.00106606, 0.0024533
0.17866, 0.330861, -0.542017, 0.00158281, 0.000536584, -0.0204141, 0.603097, 0.59558, 0.328255, 0.00107079, 0.0010657, 0.00245112
0.184216, 0.320636, -0.541566, 0.00158199, 0.000532707, -0.0203963, 0.60403, 0.595733, 0.327682, 0.00107041, 0.00106525, 0.00244666
0.188814, 0.308999, -0.539004, 0.00157966, 0.000528453, -0.0203697, 0.605132, 0.596062, 0.327104, 0.0010699, 0.00106473, 0.00243923
0.192828, 0.295629, -0.531552, 0.00157504, 0.000524317, -0.020332, 0.606417, 0.59665, 0.326577, 0.00106923, 0.00106414, 0.00242854
0.196202, 0.281524, -0.523053, 0.0015683, 0.000520805, -0.0202858, 0.607828, 0.597496, 0.326106, 0.00106839, 0.00106346, 0.00241478
0.198713, 0.267, -0.512546, 0.00155965, 0.00051874, -0.0202335, 0.609289, 0.598592, 0.325721, 0.00106742, 0.00106269, 0.00239862
0.199072, 0.253939, -0.503563, 0.00155067, 0.000518571, -0.0201844, 0.610692, 0.599903, 0.32541, 0.00106638, 0.00106175, 0.00238127
0.195329, 0.242457, -0.50216, 0.00154366, 0.000517177, -0.0201439, 0.611999, 0.601391, 0.325225, 0.00106537, 0.00106068, 0.00236433
0.188479, 0.232649, -0.500693, 0.00153734, 0.000517048, -0.0201122, 0.613252, 0.603014, 0.325191, 0.00106443, 0.00105967, 0.00234941
0.177536, 0.22453, -0.505353, 0.00153343, 0.000515831, -0.020091, 0.614448, 0.604673, 0.325227, 0.00106364, 0.00105877, 0.00233781
0.164667, 0.21878, -0.516156, 0.00153213, 0.000513858, -0.0200801, 0.615618, 0.606293, 0.3253, 0.00106302, 0.00105811, 0.00232993
0.151761, 0.215777, -0.526398, 0.00153179, 0.000513829, -0.0200759, 0.616749, 0.60781, 0.325394, 0.00106254, 0.00105774, 0.00232524
0.13928, 0.216291, -0.53114, 0.00153168, 0.000515798, -0.0200759, 0.617764, 0.609138, 0.325466, 0.00106221, 0.00105757, 0.00232293
0.126053, 0.22062, -0.530078, 0.00153149, 0.000518185, -0.0200759, 0.618633, 0.6102, 0.325461, 0.00106202, 0.00105747, 0.00232226
0.113414, 0.227731, -0.533532, 0.00153145, 0.000520825, -0.0200709, 0.619433, 0.611012, 0.325352, 0.00106192, 0.00105737, 0.00232207
0.104057, 0.236125, -0.541206, 0.00153091, 0.000524222, -0.0200596, 0.620232, 0.611695, 0.325189, 0.00106183, 0.00105717, 0.00232109
0.0969672, 0.246056, -0.546117, 0.00152995, 0.000527598, -0.020043, 0.620951, 0.612367, 0.325101, 0.00106171, 0.00105673, 0.00231859
0.0910986, 0.257056, -0.544595, 0.0015295, 0.000528592, -0.0200232, 0.621526, 0.613051, 0.325191, 0.0010615, 0.00105598, 0.00231426
0.0885139, 0.269885, -0.546213, 0.00152841, 0.000530964, -0.0199977, 0.621977, 0.613706, 0.325464, 0.00106116, 0.00105505, 0.00230825
0.09016, 0.283864, -0.552036, 0.00152603, 0.000535682, -0.0199692, 0.62228, 0.614303, 0.325944, 0.00106063, 0.001054, 0.00230116
0.095884, 0.296762, -0.559024, 0.00152338, 0.000541325, -0.0199439, 0.62238, 0.61479, 0.326638, 0.0010599, 0.00105283, 0.00229378
0.101785, 0.307406, -0.559287, 0.00152308, 0.000543576, -0.0199242, 0.62217, 0.615029, 0.327483, 0.00105906, 0.00105159, 0.00228675
0.105558, 0.316823, -0.551078, 0.00152455, 0.000542008, -0.0199048, 0.621527, 0.614774, 0.328318, 0.00105811, 0.00105048, 0.00228018
0.113857, 0.326758, -0.551301, 0.00152259, 0.000545679, -0.0198859, 0.620432, 0.613845, 0.328982, 0.00105692, 0.00104964, 0.00227375
0.126758, 0.337073, -0.557802, 0.00151873, 0.000552746, -0.019871, 0.618939, 0.612329, 0.329542, 0.00105545, 0.00104882, 0.00226792
0.140465, 0.343966, -0.557605, 0.00151827, 0.000558358, -0.0198583, 0.617242, 0.610516, 0.3301, 0.00105382, 0.00104791, 0.00226305
0.155587, 0.347713, -0.55763, 0.00151937, 0.000564209, -0.0198479, 0.615537, 0.60853, 0.330622, 0.00105214, 0.00104695, 0.00225918
0.170909, 0.348823, -0.556717, 0.00152219, 0.000569482, -0.0198396, 0.614005, 0.606469, 0.331052, 0.00105055, 0.00104607, 0.00225636
0.1846, 0.348503, -0.55611, 0.00152561, 0.000573623, -0.0198322, 0.612835, 0.604551, 0.331398, 0.0010492, 0.00104531, 0.00225434
0.194798, 0.345121, -0.545128, 0.00153124, 0.000574124, -0.0198229, 0.612168, 0.603031, 0.331716, 0.00104809, 0.0010446, 0.00225268
0.205298, 0.339014, -0.534671, 0.00153734, 0.000573824, -0.0198134, 0.612081, 0.601874, 0.331869, 0.00104717, 0.00104397, 0.00225117
0.21459, 0.331798, -0.530669, 0.0015425, 0.000572792, -0.0198055, 0.6125, 0.601063, 0.33179, 0.00104643, 0.0010434, 0.00224974
0.222096, 0.326442, -0.526638, 0.00154605, 0.000571651, -0.0197978, 0.613383, 0.600703, 0.331524, 0.00104583, 0.00104281, 0.00224838
0.228834, 0.320257, -0.51671, 0.00154776, 0.000570775, -0.0197902, 0.614649, 0.600817, 0.331096, 0.00104519, 0.00104204, 0.00224709
0.231623, 0.313518, -0.522307, 0.00155053, 0.000565896, -0.0197842, 0.616115, 0.601297, 0.330418, 0.00104449, 0.00104094, 0.00224593
0.234095, 0.307555, -0.523483, 0.00155142, 0.000562442, -0.0197786, 0.617758, 0.602226, 0.329648, 0.00104371, 0.00103972, 0.00224483
0.23791, 0.302636, -0.514678, 0.0015486, 0.000562651, -0.0197741, 0.619574, 0.603585, 0.328838, 0.00104277, 0.00103837, 0.00224371
0.241337, 0.297983, -0.505017, 0.00154409, 0.000564424, -0.0197705, 0.621354, 0.605177, 0.327905, 0.00104169, 0.00103673, 0.00224264
0.245342, 0.294447, -0.492205, 0.00153787, 0.00056981, -0.0197696, 0.622951, 0.606893, 0.326846, 0.00104053, 0.00103471, 0.00224144
0.239581, 0.289147, -0.501079, 0.00153859, 0.000563475, -0.0197623, 0.624215, 0.608725, 0.325656, 0.00103931, 0.00103194, 0.00224011
0.231634, 0.285011, -0.514202, 0.00154182, 0.000554842, -0.0197569, 0.625464, 0.610743, 0.3246, 0.00103794, 0.00102919, 0.00223882
0.220369, 0.280738, -0.532991, 0.00154852, 0.000543444, -0.0197526, 0.626654, 0.612816, 0.323718, 0.00103638, 0.0010266, 0.00223736
0.217608, 0.278052, -0.534658, 0.00154794, 0.000543005, -0.0197491, 0.628002, 0.6149, 0.323103, 0.00103476, 0.00102462, 0.00223564
0.213489, 0.275625, -0.538534, 0.00154879, 0.000541914, -0.0197464, 0.629131, 0.616918, 0.322579, 0.00103311, 0.00102251, 0.00223421
0.209015, 0.273456, -0.542357, 0.00154993, 0.000540973, -0.019744, 0.630124, 0.61888, 0.322176, 0.00103154, 0.00102039, 0.00223296
0.204302, 0.271673, -0.546596, 0.00155156, 0.000539786, -0.0197421, 0.631002, 0.62074, 0.321875, 0.00103009, 0.00101836, 0.00223191
0.199179, 0.269964, -0.551425, 0.00155357, 0.000538385, -0.0197403, 0.63179, 0.622468, 0.32167, 0.00102879, 0.0010165, 0.00223103
0.194291, 0.268497, -0.556215, 0.00155557, 0.000537036, -0.0197387, 0.632513, 0.624048, 0.321547, 0.00102766, 0.00101486, 0.00223033
0.189734, 0.267381, -0.560695, 0.00155746, 0.000535898, -0.0197373, 0.633184, 0.62547, 0.321488, 0.00102669, 0.00101346, 0.00222978
0.18591, 0.266725, -0.563947, 0.00155893, 0.000535321, -0.0197364, 0.633807, 0.626731, 0.321479, 0.00102589, 0.0010123, 0.00222937
0.1827, 0.266406, -0.566456, 0.0015601, 0.000534996, -0.0197357, 0.634381, 0.627834, 0.321508, 0.00102523, 0.00101136, 0.00222907
0.179762, 0.266164, -0.568986, 0.00156113, 0.00053469, -0.0197351, 0.6349, 0.628782, 0.321556, 0.00102471, 0.00101064, 0.00222885
0.177154, 0.266098, -0.571278, 0.00156198, 0.000534466, -0.0197346, 0.635362, 0.629584, 0.321608, 0.0010243, 0.00101009, 0.00222871
0.175001, 0.266233, -0.572997, 0.00156262, 0.00053436, -0.0197343, 0.635762, 0.630252, 0.321653, 0.00102399, 0.00100968, 0.00222861
0.173314, 0.266425, -0.574516, 0.00156306, 0.000534284, -0.019734, 0.636095, 0.630797, 0.321677, 0.00102375, 0.00100939, 0.00222854
0.172021, 0.266638, -0.575248, 0.00156334, 0.000534305, -0.0197338, 0.63637, 0.631239, 0.321686, 0.00102358, 0.00100918, 0.00222848
0.171538, 0.266948, -0.57535, 0.00156345, 0.000534288, -0.0197337, 0.63659, 0.631593, 0.321682, 0.00102345, 0.00100903, 0.00222843
0.171373, 0.267073, -0.575443, 0.00156349, 0.000534282, -0.0197337, 0.636758, 0.631871, 0.321663, 0.00102336, 0.00100892, 0.00222837
0.17146, 0.267101, -0.575181, 0.00156349, 0.000534264, -0.0197337, 0.636885, 0.632091, 0.321631, 0.00102329, 0.00100883, 0.0022283
0.171637, 0.266948, -0.574746, 0.00156349, 0.000534243, -0.0197338, 0.636981, 0.632265, 0.321588, 0.00102324, 0.00100875, 0.00222823
0.172068, 0.266828, -0.574219, 0.0015635, 0.000534185, -0.0197338, 0.637056, 0.632407, 0.321534, 0.0010232, 0.00100868, 0.00222814
0.172768, 0.266524, -0.573683, 0.0015635, 0.000534118, -0.0197339, 0.637122, 0.632529, 0.32147, 0.00102316, 0.00100861, 0.00222804
0.173529, 0.266294, -0.572801, 0.00156356, 0.000533986, -0.019734, 0.637198, 0.632648, 0.321409, 0.00102313, 0.00100853, 0.00222794
0.174522, 0.265815, -0.571993, 0.00156363, 0.000533853, -0.0197341, 0.637293, 0.632773, 0.321353, 0.0010231, 0.00100845, 0.00222784
0.175811, 0.265119, -0.570867, 0.00156376, 0.000533649, -0.0197342, 0.637419, 0.632914, 0.321301, 0.00102306, 0.00100836, 0.00222773
0.177354, 0.264176, -0.569962, 0.0015639, 0.00053345, -0.0197344, 0.637584, 0.633078, 0.32126, 0.00102302, 0.00100827, 0.00222763
0.178719, 0.263027, -0.568513, 0.00156412, 0.000533148, -0.0197345, 0.637796, 0.633273, 0.321228, 0.00102298, 0.00100817, 0.00222754
0.180176, 0.261815, -0.567053, 0.00156436, 0.000532818, -0.0197346, 0.638057, 0.6335, 0.321199, 0.00102293, 0.00100808, 0.00222745
0.181775, 0.260471, -0.565555, 0.00156463, 0.000532453, -0.0197347, 0.638374, 0.633764, 0.321178, 0.00102287, 0.00100797, 0.00222737
0.183408, 0.259042, -0.564106, 0.00156491, 0.00053207, -0.0197347, 0.638749, 0.63407, 0.321166, 0.00102281, 0.00100787, 0.0022273
0.185044, 0.257389, -0.562788, 0.00156519, 0.000531668, -0.0197347, 0.639183, 0.634418, 0.321156, 0.00102274, 0.00100777, 0.00222723
0.186773, 0.255811, -0.561447, 0.00156548, 0.00053125, -0.0197347, 0.63968, 0.634814, 0.321158, 0.00102267, 0.00100766, 0.00222717
0.188498, 0.254166, -0.559971, 0.00156578, 0.0005308, -0.0197346, 0.640233, 0.635252, 0.321161, 0.00102259, 0.00100755, 0.00222712
0.190073, 0.252518, -0.558784, 0.00156604, 0.000530377, -0.0197345, 0.640839, 0.635732, 0.321166, 0.0010225, 0.00100744, 0.00222708
0.191579, 0.25069, -0.558153, 0.00156624, 0.000529964, -0.0197344, 0.641495, 0.636251, 0.321169, 0.0010224, 0.00100732, 0.00222704
0.192927, 0.248874, -0.557282, 0.00156643, 0.000529534, -0.0197343, 0.642196, 0.636807, 0.321166, 0.0010223, 0.0010072, 0.00222701
0.194198, 0.247013, -0.556749, 0.00156657, 0.000529112, -0.0197341, 0.642937, 0.637397, 0.321158, 0.00102219, 0.00100708, 0.00222698
0.19551, 0.245333, -0.556435, 0.00156672, 0.000528718, -0.0197339, 0.643717, 0.638021, 0.32115, 0.00102208, 0.00100696, 0.00222695
0.196624, 0.243461, -0.556411, 0.0015668, 0.000528306, -0.0197337, 0.644534, 0.638679, 0.321148, 0.00102197, 0.00100683, 0.00222692
0.197557, 0.24177, -0.556444, 0.00156686, 0.000527932, -0.0197336, 0.645384, 0.639371, 0.321152, 0.00102184, 0.0010067, 0.00222689
0.19876, 0.239996, -0.556489, 0.00156695, 0.000527512, -0.0197333, 0.646264, 0.64009, 0.32116, 0.00102172, 0.00100656, 0.00222686
0.199693, 0.238173, -0.556561, 0.00156699, 0.000527103, -0.0197331, 0.647164, 0.640831, 0.321166, 0.00102159, 0.00100643, 0.00222683
0.200718, 0.236541, -0.556666, 0.00156704, 0.000526714, -0.0197329, 0.648078, 0.641589, 0.321169, 0.00102146, 0.00100629, 0.0022268
0.201685, 0.234855, -0.556843, 0.00156708, 0.000526319, -0.0197326, 0.649004, 0.642361, 0.32117, 0.00102133, 0.00100615, 0.00222677
0.20259, 0.233267, -0.556915, 0.00156711, 0.000525948, -0.0197324, 0.649936, 0.643141, 0.321167, 0.0010212, 0.00100601, 0.00222674
0.203589, 0.231552, -0.556832, 0.00156713, 0.00052555, -0.0197322, 0.650873, 0.64393, 0.321167, 0.00102107, 0.00100588, 0.00222671
0.204465, 0.229921, -0.557141, 0.00156715, 0.000525173, -0.0197319, 0.65181, 0.644721, 0.321165, 0.00102094, 0.00100574, 0.00222668
0.205257, 0.228426, -0.557137, 0.00156715, 0.000524838, -0.0197317, 0.652743, 0.645513, 0.321159, 0.00102081, 0.00100561, 0.00222665
0.206203, 0.227038, -0.557006, 0.00156719, 0.000524513, -0.0197315, 0.653671, 0.646302, 0.32115, 0.00102069, 0.00100547, 0.00222662
0.206967, 0.225749, -0.557199, 0.0015672, 0.000524217, -0.0197314, 0.654588, 0.647084, 0.321136, 0.00102057, 0.00100534, 0.00222659
0.207838, 0.224293, -0.557095, 0.00156722, 0.000523895, -0.0197312, 0.6555, 0.647863, 0.321127, 0.00102045, 0.00100522, 0.00222657
0.208797, 0.22279, -0.557175, 0.00156725, 0.000523556, -0.019731, 0.656407, 0.64864, 0.321125, 0.00102033, 0.0010051, 0.00222654
0.209764, 0.221375, -0.557184, 0.00156728, 0.000523236, -0.0197308, 0.657303, 0.649409, 0.321123, 0.00102022, 0.00100498, 0.00222652
0.21078, 0.219842, -0.557015, 0.00156732, 0.000522903, -0.0197307, 0.65819, 0.650169, 0.32112, 0.0010201, 0.00100486, 0.0022265
0.211669, 0.218418, -0.557332, 0.00156734, 0.000522591, -0.0197305, 0.659064, 0.650919, 0.321114, 0.00102, 0.00100475, 0.00222648
0.212394, 0.217032, -0.55781, 0.00156734, 0.000522301, -0.0197304, 0.659931, 0.651662, 0.321109, 0.00101989, 0.00100464, 0.00222646
0.213065, 0.215708, -0.558749, 0.00156734, 0.000522018, -0.0197302, 0.660793, 0.652401, 0.321108, 0.00101979, 0.00100453, 0.00222645
0.213681, 0.214399, -0.559306, 0.00156733, 0.000521755, -0.0197301, 0.661649, 0.653134, 0.321106, 0.00101968, 0.00100442, 0.00222643
0.214287, 0.213036, -0.560148, 0.00156731, 0.000521481, -0.01973, 0.662499, 0.653861, 0.321104, 0.00101958, 0.00100432, 0.00222642
0.214835, 0.211599, -0.560896, 0.00156728, 0.000521207, -0.0197299, 0.66334, 0.654579, 0.321096, 0.00101948, 0.00100421, 0.0022264
0.215404, 0.210244, -0.561407, 0.00156726, 0.000520949, -0.0197298, 0.664175, 0.65529, 0.321089, 0.00101938, 0.00100411, 0.00222639
0.216168, 0.208819, -0.562106, 0.00156727, 0.000520663, -0.0197297, 0.665003, 0.655995, 0.321083, 0.00101928, 0.00100401, 0.00222638
0.216791, 0.207452, -0.562443, 0.00156726, 0.000520406, -0.0197296, 0.665826, 0.656694, 0.321078, 0.00101919, 0.00100391, 0.00222636
0.217532, 0.206136, -0.56279, 0.00156728, 0.000520147, -0.0197295, 0.666643, 0.657387, 0.321074, 0.00101909, 0.00100381, 0.00222635
