0.00370678, -0.000616392, -0.55848, 6.38645e-05, -0.000248018, 0.000146017, 0.0316228, 0.0316228, 0.0316228, 0.0316228, 0.0316228, 0.0316228
0.00370678, -0.000616392, -0.55848, 6.38645e-05, -0.000248018, 0.000146017, 0.173642, 0.173642, 0.173642, 0.0316228, 0.0316228, 0.0316228
0.00265242, -0.000708681, -0.558164, 4.70451e-05, -8.41645e-05, 0.000160392, 0.194306, 0.194298, 0.19426, 0.0315696, 0.0315703, 0.0316069
0.00167282, -0.000940729, -0.558144, 9.89618e-06, 5.09458e-05, 0.000158119, 0.212614, 0.212562, 0.212292, 0.0314735, 0.0314785, 0.0315911
0.0020384, -0.00118144, -0.556316, -1.31706e-05, -9.07177e-05, 0.000162076, 0.228988, 0.228926, 0.227762, 0.0313178, 0.0313242, 0.0315753
0.00202635, -0.00105272, -0.554156, 7.13129e-06, -8.37581e-05, 0.000171508, 0.243853, 0.243803, 0.240593, 0.0311022, 0.0311076, 0.0315595
0.00185453, -0.00161354, -0.554901, -9.90085e-05, 1.06516e-05, 0.000162258, 0.257553, 0.257507, 0.250841, 0.0308313, 0.0308365, 0.0315438
0.00200945, -0.00158937, -0.552989, -8.19224e-05, -6.94786e-05, 0.00016729, 0.27027, 0.27026, 0.258078, 0.0305063, 0.0305091, 0.0315279
0.000144663, -0.00183421, -0.555465, -0.000137999, 0.000187986, 0.000172574, 0.282319, 0.282182, 0.263754, 0.0301277, 0.0301567, 0.0315121
-0.0021474, -0.00193702, -0.557107, -0.000157568, 0.000503456, 0.000166873, 0.293496, 0.293306, 0.267867, 0.0297065, 0.0297478, 0.0314962
-0.00349918, -0.00189128, -0.559188, -0.00016547, 0.000681879, 0.000156598, 0.303799, 0.303636, 0.270645, 0.0292279, 0.0292664, 0.0314803
-0.00362158, -0.00168483, -0.560804, -0.000153343, 0.000716214, 0.000152135, 0.313173, 0.313012, 0.272806, 0.0286565, 0.0286968, 0.0314645
-0.00180324, -0.00132182, -0.559791, -8.80358e-05, 0.000482119, 0.000164642, 0.321694, 0.321347, 0.275071, 0.0279693, 0.0280476, 0.0314486
0.00162268, -0.000479129, -0.558187, 7.28202e-05, 3.88779e-05, 0.000175286, 0.330125, 0.328954, 0.278893, 0.0271976, 0.0274334, 0.0314326
0.00405452, -0.000266594, -0.560298, 0.000125569, -0.000247687, 0.000181512, 0.338465, 0.336278, 0.283446, 0.0263958, 0.0268311, 0.0314168
0.00694409, 4.33583e-06, -0.563195, 0.000205184, -0.000571446, 0.000185162, 0.346243, 0.343436, 0.287003, 0.0256147, 0.0261784, 0.0314009
0.00941817, 0.000254076, -0.566628, 0.000257032, -0.000814435, 0.000190515, 0.353414, 0.350465, 0.28903, 0.0248941, 0.0255008, 0.0313849
0.0122429, 0.000438955, -0.566438, 0.000305149, -0.00112893, 0.000203575, 0.360001, 0.357421, 0.289037, 0.024261, 0.0248187, 0.0313686
0.0143475, 0.000763147, -0.567637, 0.000352374, -0.0013239, 0.000213358, 0.365854, 0.364259, 0.285992, 0.0236944, 0.0240793, 0.0313513
0.0145735, 0.00137298, -0.564073, 0.000411106, -0.00140127, 0.000216203, 0.371565, 0.370873, 0.281358, 0.0231412, 0.0233309, 0.031332
0.0148367, 0.00158981, -0.564087, 0.000429031, -0.00140814, 0.000213941, 0.378103, 0.377448, 0.278896, 0.0225771, 0.0226916, 0.0313117
0.0141141, 0.00172016, -0.565046, 0.000434205, -0.00130728, 0.00022245, 0.385452, 0.384339, 0.27974, 0.0220269, 0.0221643, 0.0312903
0.0137649, 0.00125314, -0.569683, 0.000365561, -0.00117653, 0.000219185, 0.393096, 0.391712, 0.282586, 0.0214943, 0.0216311, 0.0312686
0.012526, 0.000334706, -0.576908, 0.000216805, -0.000893953, 0.000194247, 0.400665, 0.399629, 0.287552, 0.021023, 0.0210292, 0.0312472
0.0108083, -0.000552696, -0.584466, 3.9227e-05, -0.000554961, 0.000151208, 0.408051, 0.408059, 0.295337, 0.0206796, 0.0204076, 0.031227
0.00934661, -0.00142183, -0.588693, -0.00014338, -0.000358793, 9.97923e-05, 0.415316, 0.416733, 0.304627, 0.0204525, 0.0198319, 0.0312056
0.00852706, -0.00145004, -0.592317, -0.000304581, -0.000267706, 7.68831e-05, 0.422632, 0.425355, 0.314284, 0.0202755, 0.0193213, 0.031188
0.00789067, -0.00125497, -0.594631, -0.000494989, -0.000213385, 5.87522e-05, 0.430114, 0.433681, 0.323678, 0.0200885, 0.0188726, 0.0311742
0.00801226, -0.000959429, -0.596541, -0.000700417, -0.00021684, 3.54479e-05, 0.437763, 0.441348, 0.33185, 0.0198076, 0.0184679, 0.0311586
0.00803312, -0.00124689, -0.597505, -0.000895588, -0.000221387, 6.47945e-06, 0.445414, 0.447756, 0.337349, 0.0193539, 0.018069, 0.0311305
0.00792825, -0.00220541, -0.597188, -0.00100137, -0.000212456, -1.31797e-05, 0.453058, 0.452196, 0.339565, 0.018685, 0.0176802, 0.0310805
0.00747721, -0.00372372, -0.596004, -0.00104122, -0.000176424, -7.54912e-06, 0.460733, 0.454249, 0.339417, 0.0178282, 0.0173145, 0.031004
0.00784128, -0.0084681, -0.59312, -0.00121132, -0.000225113, -9.32585e-05, 0.46843, 0.45376, 0.338362, 0.0168467, 0.0169781, 0.0308965
0.0074183, -0.0134039, -0.58867, -0.00107049, -0.000208134, -7.89645e-05, 0.476074, 0.450897, 0.337002, 0.015886, 0.016664, 0.0307605
0.00623309, -0.018071, -0.583607, -0.000774155, -0.000120058, 2.68755e-05, 0.483619, 0.446298, 0.336952, 0.0150511, 0.0163821, 0.0305893
0.00599023, -0.0226768, -0.578921, -0.000508195, -0.000108525, 3.18903e-05, 0.491061, 0.440805, 0.339153, 0.0143685, 0.0161385, 0.0303737
0.00613257, -0.026894, -0.576071, -0.000396309, -9.99024e-05, 2.53625e-05, 0.498379, 0.435324, 0.343387, 0.0138441, 0.0159308, 0.0301143
0.00540592, -0.029866, -0.571797, -0.000134987, -6.14919e-05, 9.75552e-05, 0.505564, 0.430746, 0.349259, 0.0134663, 0.0157548, 0.0298132
0.00476113, -0.0310087, -0.568403, 7.88115e-05, -2.35524e-05, 0.00017712, 0.512575, 0.42724, 0.356473, 0.013191, 0.0156126, 0.0294717
0.00454264, -0.0317426, -0.566124, 0.000213512, -3.34418e-06, 0.000214063, 0.519432, 0.424533, 0.364516, 0.0129738, 0.0155, 0.0290887
0.00396007, -0.0307914, -0.563072, 0.000382922, 1.55694e-05, 0.000288902, 0.526145, 0.422247, 0.372871, 0.0127902, 0.0154119, 0.0286684
0.00361251, -0.0305381, -0.561018, 0.000483956, 2.77976e-05, 0.0003416, 0.5327, 0.420006, 0.38122, 0.0126253, 0.0153455, 0.0282156
0.00334999, -0.0299654, -0.559642, 0.000544808, 3.695e-05, 0.000390323, 0.539138, 0.417517, 0.389423, 0.0124657, 0.0152956, 0.027731
0.0034798, -0.0298542, -0.559293, 0.000562344, 3.63754e-05, 0.000376347, 0.545478, 0.414905, 0.397381, 0.0123105, 0.0152585, 0.0272196
0.00405715, -0.0307302, -0.560238, 0.000535853, 2.90631e-05, 0.000294506, 0.551748, 0.413119, 0.40497, 0.0121775, 0.0152303, 0.026698
0.00379176, -0.0307295, -0.558917, 0.00058391, 2.13697e-05, 0.000332246, 0.557965, 0.41278, 0.412102, 0.0120729, 0.0152086, 0.0261754
0.00365792, -0.0319903, -0.556445, 0.000649493, 1.57321e-05, 0.000349597, 0.56414, 0.414787, 0.418706, 0.0119962, 0.0151911, 0.0256646
0.00349743, -0.0335766, -0.55418, 0.000678309, 7.34504e-06, 0.000354532, 0.570295, 0.419418, 0.424589, 0.0119315, 0.0151754, 0.0251783
0.00425166, -0.0352955, -0.553516, 0.000643463, 1.8682e-06, 0.00024575, 0.576429, 0.425517, 0.42964, 0.0118492, 0.0151616, 0.0247076
0.0041654, -0.0361608, -0.552621, 0.000618429, -7.59741e-06, 0.000258926, 0.582535, 0.432408, 0.43356, 0.0117307, 0.0151496, 0.0242513
0.00422487, -0.0368555, -0.551627, 0.000561196, -1.72602e-05, 0.000228618, 0.588594, 0.440005, 0.435988, 0.0115538, 0.0151385, 0.0238113
0.00430434, -0.0369115, -0.551518, 0.00049349, -2.32373e-05, 0.000221289, 0.594558, 0.448048, 0.436645, 0.0113022, 0.0151282, 0.0233806
0.00443421, -0.0365997, -0.551445, 0.000413158, -2.83594e-05, 0.000213602, 0.60038, 0.4562, 0.435235, 0.0109726, 0.0151184, 0.022962
0.00403761, -0.0362967, -0.549532, 0.000308347, -3.90487e-05, 0.000214199, 0.605999, 0.46425, 0.431706, 0.0105787, 0.0151083, 0.0225712
0.00481456, -0.0354805, -0.553107, 0.000278939, -2.70898e-05, 0.000260787, 0.611375, 0.472161, 0.426405, 0.0101546, 0.0150979, 0.0222207
0.00563948, -0.0350263, -0.555837, 0.000245906, -1.65656e-05, 0.000267595, 0.616496, 0.480022, 0.419987, 0.00974881, 0.0150878, 0.0219172
0.00675634, -0.035109, -0.55813, 0.000233694, -1.57629e-05, 0.00022557, 0.621379, 0.487831, 0.41239, 0.00938169, 0.0150774, 0.0216809
0.00753693, -0.035352, -0.559339, 0.000229699, -1.89497e-05, 0.000198953, 0.626092, 0.495234, 0.402906, 0.00904918, 0.0150651, 0.0215146
0.00853303, -0.0358976, -0.56139, 0.000263532, -2.6719e-05, 0.000179915, 0.630719, 0.501537, 0.391163, 0.00871967, 0.0150475, 0.0214085
0.00955913, -0.0367415, -0.563619, 0.000291793, -4.21957e-05, 0.000165064, 0.635342, 0.506019, 0.37822, 0.00836937, 0.0150201, 0.0213483
0.0103127, -0.036703, -0.563465, 0.000282996, -6.43744e-05, 0.000148762, 0.639981, 0.508495, 0.366258, 0.00802451, 0.0149801, 0.0213189
0.0108309, -0.0364405, -0.563068, 0.000276995, -8.47567e-05, 0.000146005, 0.644597, 0.508507, 0.355145, 0.00769777, 0.014924, 0.0213073
0.0113958, -0.0356911, -0.56211, 0.000262935, -0.000119425, 0.000154724, 0.6492, 0.505145, 0.344267, 0.00738619, 0.0148453, 0.0212987
0.0116536, -0.0346668, -0.561874, 0.000266743, -0.000156188, 0.000173141, 0.653812, 0.497825, 0.334457, 0.00709318, 0.0147367, 0.021275
0.0111486, -0.0317403, -0.562193, 0.000285675, -0.000196617, 0.000196639, 0.658465, 0.487001, 0.327046, 0.00682115, 0.0145931, 0.0212203
0.0107854, -0.0292518, -0.562412, 0.000292577, -0.000233177, 0.000221646, 0.663173, 0.473722, 0.322663, 0.00657099, 0.0144152, 0.021123
0.010179, -0.0258322, -0.562676, 0.000293572, -0.000266056, 0.000243519, 0.667869, 0.458924, 0.321098, 0.00634906, 0.0142107, 0.0209725
0.00938896, -0.0214903, -0.562933, 0.000286625, -0.000291711, 0.000259739, 0.67251, 0.443787, 0.321816, 0.00615823, 0.0139888, 0.0207639
0.008524, -0.018121, -0.563924, 0.000288406, -0.000297944, 0.000254758, 0.677103, 0.429453, 0.324168, 0.00599661, 0.0137581, 0.0205022
0.00753886, -0.01345, -0.565452, 0.000287831, -0.000306772, 0.000254015, 0.681666, 0.416483, 0.327507, 0.00586064, 0.0135275, 0.0202016
0.00679291, -0.00894862, -0.565908, 0.00027226, -0.000315586, 0.000257575, 0.686233, 0.405058, 0.331431, 0.00574767, 0.0133046, 0.0198775
0.00614385, -0.00614367, -0.566754, 0.000268206, -0.000309891, 0.000241106, 0.690798, 0.395676, 0.33567, 0.00565866, 0.0130953, 0.0195397
0.00557927, -0.00337733, -0.567583, 0.000264038, -0.00029819, 0.000217845, 0.695364, 0.389085, 0.340095, 0.00559654, 0.0129015, 0.0191933
0.00515045, -0.00217923, -0.568724, 0.000268906, -0.000275388, 0.000177088, 0.69994, 0.38571, 0.34465, 0.0055599, 0.0127241, 0.0188465
0.00498495, -0.00239449, -0.569481, 0.000274452, -0.000253518, 0.000139536, 0.70453, 0.385343, 0.349149, 0.00554228, 0.0125634, 0.0185131
0.00493862, -0.00425163, -0.570757, 0.00027997, -0.000240002, 0.000110059, 0.709085, 0.387418, 0.353311, 0.00553439, 0.0124207, 0.0182016
0.00496461, -0.00673648, -0.572326, 0.000276659, -0.000230158, 8.26967e-05, 0.713515, 0.391446, 0.356948, 0.00552755, 0.0122989, 0.0179156
0.00489365, -0.00912843, -0.573301, 0.000261815, -0.000224858, 5.8669e-05, 0.717722, 0.3967, 0.359707, 0.00551138, 0.0121988, 0.0176571
0.00477271, -0.0109343, -0.5728, 0.00024158, -0.000228187, 4.87413e-05, 0.721634, 0.402493, 0.361111, 0.00547868, 0.012118, 0.0174263
0.00398875, -0.0118323, -0.570034, 0.000227446, -0.00022969, 3.13337e-05, 0.725225, 0.408512, 0.360652, 0.00542712, 0.0120521, 0.0172248
0.00264458, -0.0126355, -0.566528, 0.000217741, -0.000230898, 3.93418e-06, 0.728517, 0.414852, 0.357883, 0.00535662, 0.0119953, 0.0170531
0.00112452, -0.0141304, -0.563727, 0.000199847, -0.000234364, -2.91778e-05, 0.73156, 0.421553, 0.353039, 0.00527005, 0.0119433, 0.0169136
-0.00062985, -0.0158823, -0.560946, 0.000183171, -0.00024159, -6.05623e-05, 0.734485, 0.428506, 0.347084, 0.00517065, 0.0118922, 0.0168063
-0.00221184, -0.0174651, -0.558814, 0.000172238, -0.000249129, -8.37625e-05, 0.737489, 0.435241, 0.340955, 0.00506509, 0.0118386, 0.0167263
-0.00363956, -0.0186091, -0.559114, 0.000149567, -0.000241993, -0.000118618, 0.740702, 0.44125, 0.335281, 0.00495578, 0.0117812, 0.016672
-0.00532866, -0.0200793, -0.560009, 0.00011518, -0.000237847, -0.00015076, 0.744201, 0.445937, 0.33042, 0.00484226, 0.0117186, 0.0166396
-0.0064685, -0.0211186, -0.560053, 0.000103373, -0.000226476, -0.000169098, 0.748013, 0.44871, 0.326503, 0.00473144, 0.0116481, 0.0166215
-0.00770531, -0.0227908, -0.560249, 8.89019e-05, -0.000218974, -0.000183905, 0.752114, 0.449023, 0.323542, 0.00462498, 0.011569, 0.0166132
-0.00876056, -0.0243325, -0.561264, 6.97268e-05, -0.000215098, -0.000191225, 0.756453, 0.446595, 0.321799, 0.00451927, 0.0114857, 0.0166097
-0.00858596, -0.0244371, -0.559882, 8.40541e-05, -0.000190643, -0.000187257, 0.760981, 0.441373, 0.321365, 0.00441355, 0.0114026, 0.0166057
-0.00836604, -0.0246389, -0.558632, 9.46835e-05, -0.000165355, -0.000179499, 0.765638, 0.433312, 0.321857, 0.00431306, 0.0113176, 0.0165971
-0.00835159, -0.0255185, -0.558112, 9.9551e-05, -0.000152628, -0.000175702, 0.770365, 0.422529, 0.32298, 0.00422138, 0.0112305, 0.0165824
-0.00816569, -0.0233799, -0.557559, 9.42006e-05, -0.000127815, -0.000159681, 0.77515, 0.410054, 0.324777, 0.00413688, 0.0111489, 0.0165583
-0.00622979, -0.0340561, -0.553009, 0.000166272, -0.000127264, -0.000166834, 0.779931, 0.396972, 0.327348, 0.00405696, 0.0110754, 0.0165214
-0.00787698, -0.0474934, -0.563307, 0.000166162, -0.000228588, -0.000269967, 0.784737, 0.38403, 0.330115, 0.00398605, 0.011007, 0.0164783
-0.00983155, -0.0316976, -0.561518, 0.000101816, -0.000182381, -0.000175492, 0.789571, 0.372039, 0.33275, 0.0039258, 0.0109431, 0.0164271
-0.0103392, -0.0192602, -0.557574, 6.07741e-05, -0.000126663, -8.05156e-05, 0.794349, 0.362217, 0.335381, 0.00387966, 0.0108847, 0.016368
-0.010759, -0.0114122, -0.555236, 3.39851e-05, -9.53801e-05, -1.39278e-05, 0.799086, 0.355349, 0.338171, 0.00384513, 0.0108307, 0.0162979
-0.0109825, -0.00712433, -0.55228, 2.48379e-05, -8.24132e-05, 3.23399e-05, 0.803797, 0.352009, 0.34118, 0.00382097, 0.0107814, 0.016218
-0.0112695, -0.00510278, -0.551082, 2.0173e-05, -7.83738e-05, 6.00089e-05, 0.808481, 0.351855, 0.344356, 0.00380485, 0.0107392, 0.0161255
-0.011325, -0.00482003, -0.550192, 2.22101e-05, -8.52817e-05, 5.6204e-05, 0.81312, 0.353634, 0.347535, 0.00379304, 0.0107064, 0.0160113
-0.0111004, -0.00670113, -0.549158, 2.59924e-05, -9.51153e-05, 2.70578e-05, 0.817694, 0.356352, 0.350397, 0.00378286, 0.010684, 0.0158703
-0.0110396, -0.00686495, -0.548819, 2.75568e-05, -0.000102196, 1.33398e-05, 0.822143, 0.359555, 0.352659, 0.00377169, 0.0106698, 0.0157057
-0.0109629, -0.00749739, -0.548852, 2.65672e-05, -0.000109889, -5.85737e-06, 0.826429, 0.363508, 0.354195, 0.00375589, 0.0106609, 0.0155267
-0.0110329, -0.00646318, -0.550932, 2.92272e-05, -0.000113309, 1.03163e-05, 0.83054, 0.368474, 0.354943, 0.00373165, 0.0106553, 0.0153415
-0.0111029, -0.00514298, -0.553412, 3.68209e-05, -0.000117718, 2.66341e-05, 0.834429, 0.374464, 0.354755, 0.00369901, 0.0106518, 0.0151616
-0.0108161, -0.00426272, -0.554895, 4.61594e-05, -0.000121755, 1.97217e-05, 0.838026, 0.381357, 0.353189, 0.00365809, 0.0106496, 0.0149979
-0.0102489, -0.00373908, -0.556727, 5.61564e-05, -0.000127212, 1.83173e-07, 0.841325, 0.388771, 0.349636, 0.00360536, 0.0106475, 0.0148595
-0.00972508, -0.00325024, -0.558716, 7.025e-05, -0.000134964, -2.0222e-05, 0.844388, 0.396286, 0.344118, 0.00353555, 0.0106445, 0.0147518
-0.00968208, -0.00227771, -0.558114, 7.87067e-05, -0.00014145, -3.11808e-05, 0.847294, 0.40343, 0.337813, 0.00345522, 0.0106392, 0.0146759
-0.00914751, -0.0021554, -0.559904, 9.40471e-05, -0.000153703, -5.36093e-05, 0.850036, 0.409662, 0.331745, 0.0033718, 0.0106306, 0.0146279
-0.00869737, -0.00217728, -0.561499, 0.000107287, -0.000167402, -6.43939e-05, 0.852586, 0.414193, 0.32636, 0.00329238, 0.010618, 0.0146026
-0.00834929, -0.00234858, -0.562173, 0.000111885, -0.000176294, -6.57463e-05, 0.854988, 0.416199, 0.321638, 0.00322268, 0.0106001, 0.0145932
-0.00798688, -0.00149875, -0.562365, 0.000115885, -0.000194122, -6.45549e-05, 0.857346, 0.415273, 0.317335, 0.00316291, 0.0105726, 0.0145897
-0.00802258, -0.000442411, -0.562653, 0.000118919, -0.000213952, -5.77685e-05, 0.859724, 0.411451, 0.31361, 0.00311058, 0.0105328, 0.0145794
-0.00908813, 0.0018984, -0.563246, 0.000121912, -0.000234778, -5.04036e-05, 0.862191, 0.405321, 0.310568, 0.00306517, 0.010476, 0.0145478
-0.0107532, 0.00550532, -0.564538, 0.000124394, -0.000268579, -3.12635e-05, 0.864821, 0.397951, 0.308721, 0.0030252, 0.0103998, 0.0144852
-0.0112824, 0.00698582, -0.564913, 0.000123101, -0.000289863, -1.37091e-05, 0.867672, 0.39017, 0.308319, 0.00298936, 0.0103087, 0.0143884
-0.0123174, 0.00928827, -0.565995, 0.00012324, -0.00030122, -1.12389e-05, 0.870783, 0.382951, 0.308976, 0.00295992, 0.0102064, 0.0142574
-0.0128532, 0.0104228, -0.56742, 0.000125285, -0.000311672, -4.09682e-06, 0.87418, 0.377309, 0.31058, 0.00293807, 0.0100994, 0.0140993
-0.0125289, 0.00972454, -0.568083, 0.000128165, -0.000308779, -6.75487e-06, 0.877797, 0.373709, 0.312941, 0.00292304, 0.00999854, 0.0139287
-0.0118035, 0.0078655, -0.569138, 0.000132209, -0.00030817, -1.24373e-06, 0.881491, 0.371917, 0.315594, 0.00291273, 0.00991177, 0.0137611
-0.0107015, 0.00480131, -0.570719, 0.000136459, -0.000308757, 1.09969e-05, 0.885076, 0.37129, 0.317993, 0.00290486, 0.00984228, 0.0136072
-0.00965398, 0.00231925, -0.570952, 0.000136324, -0.000309677, 2.546e-05, 0.888396, 0.371026, 0.319585, 0.00289752, 0.00978748, 0.0134762
-0.00903591, 0.00136597, -0.569007, 0.000131458, -0.000307233, 3.39335e-05, 0.891393, 0.370136, 0.319857, 0.00288875, 0.00974028, 0.0133718
-0.00862723, 0.00043328, -0.566685, 0.000125326, -0.000298936, 3.36224e-05, 0.894122, 0.368548, 0.318888, 0.00287837, 0.00969433, 0.0132945
-0.00930806, 0.00105506, -0.562648, 0.000118065, -0.000289521, 2.25241e-05, 0.896672, 0.367294, 0.31736, 0.00286826, 0.00964859, 0.0132394
-0.00983022, 0.000912563, -0.56047, 0.000114656, -0.000283115, 1.42855e-05, 0.899188, 0.367229, 0.315763, 0.00285967, 0.0096028, 0.0131998
-0.010625, 0.00109675, -0.559707, 0.000115448, -0.00025896, -1.07394e-05, 0.901817, 0.368568, 0.314269, 0.00285228, 0.00955636, 0.013171
-0.0113596, 0.00114596, -0.558604, 0.000115866, -0.000247232, -2.31375e-05, 0.904571, 0.371003, 0.313079, 0.00284517, 0.009509, 0.01315
-0.0127101, 0.00146367, -0.556356, 0.000118511, -0.000237295, -3.5426e-05, 0.907473, 0.374105, 0.312157, 0.00283763, 0.00946062, 0.0131345
-0.0130697, 0.00132673, -0.555834, 0.000118639, -0.000224547, -4.23109e-05, 0.910534, 0.377479, 0.311378, 0.00282921, 0.00941059, 0.0131225
-0.0137764, 0.00208806, -0.555008, 0.00012122, -0.00020953, -4.88015e-05, 0.913643, 0.380938, 0.310718, 0.0028195, 0.00935699, 0.0131128
-0.013683, 0.00303508, -0.555452, 0.000120288, -0.000184526, -5.51806e-05, 0.916632, 0.384419, 0.31005, 0.00280722, 0.00929827, 0.0131042
-0.0134666, 0.00394863, -0.555578, 0.000119374, -0.000164346, -5.82561e-05, 0.919256, 0.388052, 0.309204, 0.00279097, 0.00923216, 0.0130953
-0.0126684, 0.00507268, -0.556337, 0.00011611, -0.000138415, -6.09847e-05, 0.921161, 0.392052, 0.308194, 0.00277156, 0.00915717, 0.0130865
-0.0124964, 0.00564174, -0.555497, 0.000117143, -0.000122978, -6.25097e-05, 0.92195, 0.396344, 0.306908, 0.00275044, 0.00907077, 0.0130789
-0.0112188, 0.00663461, -0.555794, 0.000114951, -9.98281e-05, -6.39192e-05, 0.920696, 0.400649, 0.30549, 0.00272959, 0.0089651, 0.0130728
-0.00990805, 0.00742808, -0.556138, 0.000112305, -7.97071e-05, -6.44669e-05, 0.915671, 0.404734, 0.304177, 0.00271126, 0.00882439, 0.013068
-0.00852891, 0.00821881, -0.558026, 0.000106911, -6.10534e-05, -6.57843e-05, 0.904131, 0.408504, 0.302875, 0.0026965, 0.00862333, 0.0130637
-0.00753244, 0.00864191, -0.558814, 0.00010468, -4.96481e-05, -6.53697e-05, 0.88276, 0.411414, 0.301274, 0.00268363, 0.00833171, 0.0130595
-0.00846118, 0.0083785, -0.560175, 0.000102758, -6.01044e-05, -6.70894e-05, 0.849373, 0.413775, 0.299436, 0.00267129, 0.00793464, 0.0130553
-0.00875472, 0.00830925, -0.559439, 0.00010457, -6.26678e-05, -6.722e-05, 0.804631, 0.415812, 0.297771, 0.00265886, 0.00744064, 0.0130511
-0.00897987, 0.00828698, -0.558669, 0.00010575, -6.35185e-05, -6.72731e-05, 0.752739, 0.418037, 0.296443, 0.00264481, 0.006889, 0.0130476
-0.0109119, 0.00769376, -0.558742, 0.000108109, -8.40436e-05, -6.94197e-05, 0.699478, 0.420925, 0.295235, 0.00262817, 0.00633454, 0.0130445
-0.0110811, 0.00739333, -0.558397, 0.000110334, -8.86242e-05, -7.04889e-05, 0.649828, 0.424008, 0.293872, 0.0026087, 0.00582394, 0.0130418
-0.00959136, 0.0077356, -0.559523, 0.000108678, -7.72498e-05, -6.98865e-05, 0.606926, 0.426665, 0.292284, 0.00258676, 0.00539053, 0.0130393
-0.00967539, 0.0074604, -0.560728, 0.000109463, -8.1969e-05, -7.08383e-05, 0.571153, 0.428883, 0.290863, 0.00256429, 0.00504452, 0.0130365
-0.00936221, 0.00686598, -0.561605, 0.000111447, -8.51766e-05, -7.01792e-05, 0.541306, 0.430376, 0.289796, 0.00254317, 0.00477754, 0.0130324
-0.00881812, 0.00602573, -0.561176, 0.000114622, -8.67101e-05, -6.73293e-05, 0.515748, 0.431112, 0.289033, 0.00252446, 0.00457345, 0.0130256
-0.00858024, 0.00527533, -0.560707, 0.000117302, -8.94399e-05, -6.40929e-05, 0.493214, 0.431359, 0.28854, 0.00250869, 0.00441436, 0.0130154
-0.00819483, 0.00444738, -0.560022, 0.000120007, -9.11179e-05, -5.98333e-05, 0.47318, 0.431429, 0.288176, 0.00249574, 0.0042884, 0.0130016
-0.00775648, 0.00403232, -0.559198, 0.000121281, -9.01094e-05, -5.74227e-05, 0.455578, 0.431647, 0.287817, 0.00248542, 0.00418866, 0.0129855
-0.00742855, 0.00360254, -0.559402, 0.000122406, -8.95417e-05, -5.66586e-05, 0.440543, 0.432277, 0.287428, 0.00247748, 0.004112, 0.0129691
-0.00653596, 0.00299367, -0.560835, 0.000123778, -8.59749e-05, -5.59586e-05, 0.42828, 0.433528, 0.287046, 0.00247167, 0.00405693, 0.0129541
-0.00599228, 0.00267367, -0.560492, 0.000124445, -8.40633e-05, -5.45833e-05, 0.418946, 0.435522, 0.286848, 0.00246808, 0.00402102, 0.0129404
-0.00619861, 0.00219846, -0.55831, 0.000124492, -8.66612e-05, -5.16901e-05, 0.412677, 0.438298, 0.28686, 0.00246631, 0.00400195, 0.0129283
-0.00621173, 0.00208564, -0.557657, 0.000124588, -8.70328e-05, -5.12373e-05, 0.409559, 0.441691, 0.28694, 0.00246541, 0.00399594, 0.012919
-0.0064077, 0.0018009, -0.556929, 0.000124611, -8.72529e-05, -5.24436e-05, 0.409312, 0.445261, 0.287106, 0.00246465, 0.00399565, 0.0129109
-0.00646767, 0.00121347, -0.558067, 0.000125359, -8.61543e-05, -5.57588e-05, 0.411485, 0.448436, 0.287358, 0.0024634, 0.0039924, 0.0129024
-0.00629902, 0.000632859, -0.55938, 0.000125793, -8.4915e-05, -5.78889e-05, 0.415597, 0.45063, 0.287648, 0.00246076, 0.00397682, 0.012893
-0.00627405, -0.000122773, -0.559742, 0.000125863, -8.18799e-05, -6.21887e-05, 0.421137, 0.451269, 0.287922, 0.00245577, 0.00394059, 0.0128828
-0.00637013, -0.00140798, -0.558163, 0.000123996, -7.74139e-05, -6.76714e-05, 0.427438, 0.449971, 0.288188, 0.00244767, 0.00387703, 0.0128722
-0.006189, -0.00231899, -0.55846, 0.000123319, -7.10666e-05, -7.37068e-05, 0.433891, 0.446635, 0.288355, 0.00243659, 0.00378403, 0.0128591
-0.00621442, -0.00320675, -0.557192, 0.000122856, -6.49467e-05, -7.78209e-05, 0.4399, 0.4417, 0.288245, 0.00242279, 0.00366363, 0.012842
-0.00622647, -0.00446404, -0.556443, 0.000123815, -5.20615e-05, -8.12339e-05, 0.445073, 0.435458, 0.287988, 0.00240825, 0.00352892, 0.012819
-0.0061702, -0.00531091, -0.556891, 0.000124953, -4.26739e-05, -8.0428e-05, 0.449311, 0.428129, 0.287723, 0.0023943, 0.00339393, 0.0127916
-0.00607416, -0.00612101, -0.556912, 0.000125807, -3.5783e-05, -7.90502e-05, 0.452521, 0.420213, 0.287417, 0.00238062, 0.00326621, 0.0127634
-0.00618245, -0.00638357, -0.557699, 0.000126774, -3.31561e-05, -7.39598e-05, 0.454512, 0.412115, 0.287176, 0.00236679, 0.00314995, 0.0127364
-0.00629835, -0.00607784, -0.557291, 0.000126806, -3.52851e-05, -7.48612e-05, 0.45511, 0.404158, 0.28686, 0.00235217, 0.00304675, 0.0127115
-0.00632049, -0.00604369, -0.555569, 0.000126846, -3.52287e-05, -7.66674e-05, 0.454004, 0.39664, 0.286359, 0.00233586, 0.00295626, 0.0126902
-0.00646897, -0.00598549, -0.554928, 0.000127121, -3.5948e-05, -7.49589e-05, 0.450884, 0.389579, 0.28601, 0.00231697, 0.00287721, 0.0126751
-0.00707337, -0.00606868, -0.554689, 0.000128581, -3.70382e-05, -7.14085e-05, 0.445578, 0.382676, 0.285865, 0.0022953, 0.00280792, 0.0126659
-0.00791057, -0.00591066, -0.555542, 0.000130052, -4.02759e-05, -6.71856e-05, 0.438103, 0.375841, 0.285337, 0.00227017, 0.00274581, 0.0126595
-0.00804851, -0.00526492, -0.555506, 0.000128846, -4.29958e-05, -6.52348e-05, 0.428566, 0.369228, 0.284405, 0.00224245, 0.00269026, 0.0126525
-0.0076886, -0.00504307, -0.555196, 0.00012756, -4.25637e-05, -6.45713e-05, 0.417605, 0.363312, 0.283548, 0.00221507, 0.00264175, 0.0126462
-0.00787918, -0.00451971, -0.555294, 0.000126422, -4.49356e-05, -6.05085e-05, 0.406059, 0.358406, 0.282966, 0.00219004, 0.00260038, 0.0126416
-0.00840483, -0.00404977, -0.555904, 0.000125977, -4.81058e-05, -5.6395e-05, 0.394859, 0.354674, 0.282495, 0.0021682, 0.00256598, 0.0126372
-0.00894916, -0.0032647, -0.556967, 0.000124944, -5.16852e-05, -5.22376e-05, 0.384873, 0.352241, 0.282025, 0.00215005, 0.00253881, 0.0126317
-0.00877153, -0.00302252, -0.555883, 0.000123873, -5.15954e-05, -4.95272e-05, 0.376652, 0.35107, 0.281656, 0.00213652, 0.00251889, 0.0126264
-0.00879218, -0.00302175, -0.555292, 0.000123629, -5.19547e-05, -4.69825e-05, 0.37042, 0.350985, 0.281508, 0.00212775, 0.00250575, 0.012622
-0.00928082, -0.00357026, -0.554788, 0.000124792, -5.2893e-05, -4.63211e-05, 0.366338, 0.351808, 0.281522, 0.00212274, 0.00249855, 0.0126178
-0.00933528, -0.00383882, -0.555548, 0.000125498, -5.33201e-05, -4.65418e-05, 0.3645, 0.353369, 0.281558, 0.00212039, 0.00249596, 0.0126127
-0.00913473, -0.0039455, -0.556323, 0.00012557, -5.37135e-05, -4.73702e-05, 0.364723, 0.355345, 0.281471, 0.00211961, 0.0024956, 0.0126062
-0.0089925, -0.00393293, -0.556102, 0.000125538, -5.40247e-05, -4.77268e-05, 0.36658, 0.357359, 0.281373, 0.00211917, 0.00249505, 0.0125982
-0.00901689, -0.00388788, -0.557565, 0.000125165, -5.39934e-05, -4.72808e-05, 0.369644, 0.359139, 0.281391, 0.00211784, 0.00249212, 0.0125911
-0.0092088, -0.0040886, -0.558759, 0.000124299, -5.32684e-05, -4.69163e-05, 0.373624, 0.360585, 0.281573, 0.00211471, 0.00248444, 0.0125861
-0.0091872, -0.00422476, -0.561729, 0.000123082, -5.00839e-05, -4.93629e-05, 0.378263, 0.361769, 0.282046, 0.00210955, 0.00246944, 0.0125825
-0.00912361, -0.00401093, -0.561808, 0.000123864, -4.99271e-05, -4.89555e-05, 0.383303, 0.362742, 0.282765, 0.00210282, 0.00244676, 0.0125772
-0.00921732, -0.00389607, -0.560605, 0.000124414, -5.12803e-05, -4.72905e-05, 0.388459, 0.363447, 0.283507, 0.00209505, 0.00241875, 0.0125694
-0.00927504, -0.00410051, -0.559976, 0.000124735, -5.27579e-05, -4.68789e-05, 0.393416, 0.363849, 0.284144, 0.0020862, 0.00238764, 0.0125602
-0.00927869, -0.00409861, -0.559832, 0.000125091, -5.28585e-05, -4.779e-05, 0.397837, 0.363935, 0.284391, 0.00207653, 0.00235588, 0.0125508
-0.00930839, -0.00386596, -0.56024, 0.00012525, -5.18868e-05, -4.95568e-05, 0.401265, 0.363604, 0.284142, 0.00206649, 0.00232521, 0.0125413
-0.00893228, -0.00369553, -0.560784, 0.000126366, -5.17471e-05, -4.9211e-05, 0.403302, 0.362712, 0.283622, 0.00205656, 0.00229641, 0.0125306
-0.00855467, -0.00353117, -0.560474, 0.000127301, -5.09718e-05, -4.98777e-05, 0.403707, 0.361189, 0.283062, 0.00204726, 0.0022699, 0.0125169
-0.00795783, -0.00340074, -0.560053, 0.000128539, -5.00184e-05, -4.96672e-05, 0.402367, 0.359097, 0.28267, 0.00203936, 0.00224551, 0.0124978
-0.00805395, -0.0033009, -0.559106, 0.000128582, -4.96324e-05, -5.18499e-05, 0.399292, 0.356602, 0.282466, 0.00203331, 0.00222333, 0.0124717
-0.00818436, -0.00340238, -0.558968, 0.00012863, -4.99309e-05, -5.31732e-05, 0.394754, 0.353928, 0.282346, 0.00202919, 0.00220373, 0.0124388
-0.0088343, -0.0034366, -0.558625, 0.000128312, -5.07156e-05, -5.80845e-05, 0.389192, 0.351288, 0.282325, 0.00202669, 0.00218707, 0.0123994
-0.00942111, -0.00401551, -0.557845, 0.000128247, -5.2678e-05, -5.85117e-05, 0.383317, 0.34897, 0.282323, 0.00202534, 0.00217431, 0.0123569
-0.00932769, -0.00417164, -0.557162, 0.000128348, -5.28888e-05, -5.74225e-05, 0.377973, 0.347309, 0.28224, 0.00202461, 0.00216617, 0.0123172
-0.00922787, -0.00414472, -0.556712, 0.000128607, -5.26481e-05, -5.84202e-05, 0.373853, 0.346574, 0.282066, 0.00202416, 0.00216174, 0.0122841
-0.00938658, -0.00390597, -0.556834, 0.00012928, -5.24789e-05, -6.30767e-05, 0.371328, 0.346803, 0.281886, 0.00202374, 0.00215963, 0.0122545
-0.0090964, -0.00440187, -0.556964, 0.000129639, -5.28216e-05, -6.0294e-05, 0.370459, 0.347797, 0.281801, 0.00202285, 0.00215873, 0.0122213
-0.00926883, -0.00528508, -0.559129, 0.000130794, -5.35971e-05, -6.22416e-05, 0.371078, 0.349302, 0.281814, 0.00202118, 0.00215793, 0.0121869
-0.00848215, -0.00608601, -0.560092, 0.000130345, -5.48796e-05, -5.4728e-05, 0.372951, 0.351073, 0.28189, 0.00201902, 0.00215606, 0.0121578
-0.0088085, -0.00710898, -0.556779, 0.00012933, -5.58187e-05, -5.30594e-05, 0.375782, 0.352989, 0.282045, 0.00201707, 0.00215228, 0.0121401
-0.0099384, -0.00777484, -0.553778, 0.000128803, -5.56775e-05, -5.69158e-05, 0.379282, 0.354944, 0.282283, 0.00201569, 0.00214591, 0.0121292
-0.0109955, -0.0079759, -0.554549, 0.000129746, -5.24638e-05, -6.13603e-05, 0.383417, 0.356783, 0.282403, 0.0020147, 0.00213659, 0.0121076
-0.0116237, -0.00826213, -0.556015, 0.000130929, -5.01099e-05, -6.4098e-05, 0.388007, 0.358552, 0.28228, 0.00201338, 0.00212303, 0.0120614
-0.0118141, -0.00877067, -0.556317, 0.000131852, -4.85167e-05, -7.04136e-05, 0.392681, 0.360411, 0.28204, 0.00201174, 0.0021055, 0.012
-0.0113982, -0.00968335, -0.555527, 0.000132325, -4.65973e-05, -8.60476e-05, 0.397009, 0.362247, 0.281875, 0.00201027, 0.00208587, 0.01194
-0.0105482, -0.0110191, -0.553331, 0.000132417, -4.4025e-05, -0.000108495, 0.400528, 0.363804, 0.28193, 0.00200911, 0.00206536, 0.0118869
-0.0102451, -0.0118174, -0.552756, 0.000132061, -4.21795e-05, -0.000113706, 0.402797, 0.364754, 0.282339, 0.00200799, 0.00204439, 0.0118398
-0.00574087, -0.00938571, -0.55391, 0.000122891, -4.85383e-05, -0.000139321, 0.403748, 0.364814, 0.28283, 0.00200639, 0.00202353, 0.0117963
-0.00644836, -0.00705502, -0.550278, 0.000121743, -5.7301e-05, -0.000132509, 0.403163, 0.363862, 0.283138, 0.00200379, 0.00200296, 0.0117611
-0.00891113, -0.00983522, -0.552694, 0.000130085, -5.22004e-05, -0.000133455, 0.400777, 0.361848, 0.283159, 0.002, 0.00198295, 0.0117353
-0.010434, -0.0117363, -0.553506, 0.000133274, -5.0833e-05, -0.00012384, 0.396445, 0.358793, 0.282951, 0.00199475, 0.00196324, 0.0117183
-0.0113875, -0.0125726, -0.556172, 0.000134803, -5.21145e-05, -0.00011759, 0.390358, 0.354926, 0.282373, 0.001988, 0.00194346, 0.0117073
-0.0113402, -0.0125917, -0.556748, 0.000134575, -5.23307e-05, -0.000116386, 0.383011, 0.350596, 0.281629, 0.00198044, 0.00192386, 0.0116996
-0.0106184, -0.0121654, -0.556238, 0.0001332, -5.14309e-05, -0.000116373, 0.375059, 0.346206, 0.281044, 0.00197302, 0.00190563, 0.0116946
-0.0105772, -0.0116849, -0.556579, 0.000132292, -5.22776e-05, -0.000113471, 0.367042, 0.342108, 0.280751, 0.00196613, 0.00188975, 0.0116917
-0.010862, -0.010831, -0.557269, 0.000131295, -5.39107e-05, -0.000110412, 0.359604, 0.338636, 0.280597, 0.00195916, 0.00187683, 0.011689
-0.0107823, -0.0102689, -0.558144, 0.000130488, -5.46265e-05, -0.000107848, 0.353322, 0.336035, 0.280466, 0.00195223, 0.00186724, 0.0116841
-0.0103381, -0.00985608, -0.558565, 0.000129646, -5.47056e-05, -0.000104871, 0.348499, 0.334409, 0.280358, 0.00194613, 0.00186067, 0.0116764
-0.0095581, -0.00921209, -0.557812, 0.000128347, -5.45604e-05, -0.000100266, 0.345197, 0.333683, 0.280279, 0.00194183, 0.00185666, 0.0116684
-0.00847351, -0.00882051, -0.555841, 0.000127247, -5.42209e-05, -9.61462e-05, 0.343396, 0.333706, 0.280181, 0.00193943, 0.0018547, 0.0116619
-0.00820957, -0.00799128, -0.55757, 0.000126554, -5.53257e-05, -9.01725e-05, 0.343198, 0.334498, 0.280047, 0.00193825, 0.00185404, 0.0116547
-0.00766438, -0.00745477, -0.55957, 0.000126089, -5.68139e-05, -8.49842e-05, 0.344563, 0.336025, 0.279882, 0.00193763, 0.00185331, 0.0116453
-0.00738428, -0.0069814, -0.560998, 0.000125787, -5.78082e-05, -8.10976e-05, 0.347184, 0.338135, 0.279795, 0.00193721, 0.00185148, 0.0116357
-0.00674358, -0.00675922, -0.562069, 0.000126115, -5.8928e-05, -8.03218e-05, 0.350707, 0.340573, 0.279809, 0.00193641, 0.00184744, 0.0116297
-0.00652557, -0.00689196, -0.564804, 0.000125759, -5.81144e-05, -8.19272e-05, 0.354804, 0.343105, 0.27996, 0.00193446, 0.00183999, 0.0116273
-0.0062835, -0.00688191, -0.566971, 0.000125944, -5.63603e-05, -8.50439e-05, 0.35924, 0.345597, 0.280369, 0.00193082, 0.00182794, 0.0116255
-0.00662132, -0.00735396, -0.565725, 0.000125127, -5.79483e-05, -8.20934e-05, 0.363958, 0.347938, 0.281002, 0.00192527, 0.00181143, 0.0116205
-0.0073801, -0.00791953, -0.564754, 0.000123274, -5.85766e-05, -7.97984e-05, 0.368731, 0.349962, 0.281696, 0.00191796, 0.00179169, 0.0116108
-0.00839591, -0.00820536, -0.563213, 0.000121468, -5.84703e-05, -8.01915e-05, 0.373217, 0.351538, 0.282264, 0.0019095, 0.0017698, 0.0115959
-0.00923788, -0.00844872, -0.562367, 0.000119946, -5.82455e-05, -8.19881e-05, 0.376921, 0.35249, 0.282483, 0.00190068, 0.00174778, 0.0115778
-0.00988797, -0.00837384, -0.561651, 0.00011917, -5.74197e-05, -8.60499e-05, 0.379322, 0.352608, 0.282352, 0.00189203, 0.00172706, 0.0115573
-0.0105211, -0.00782219, -0.561802, 0.000118576, -5.57976e-05, -9.18794e-05, 0.380092, 0.351779, 0.282021, 0.00188402, 0.0017081, 0.0115352
-0.0111274, -0.00698552, -0.561585, 0.00011828, -5.37204e-05, -0.000100261, 0.379169, 0.350083, 0.281604, 0.00187751, 0.00169091, 0.0115141
-0.0118827, -0.00650887, -0.561859, 0.000117643, -5.30501e-05, -0.000106453, 0.376599, 0.347639, 0.281301, 0.00187305, 0.00167562, 0.0114934
-0.0125205, -0.00620547, -0.5622, 0.00011735, -5.28311e-05, -0.000112443, 0.372571, 0.344625, 0.281104, 0.00187021, 0.00166233, 0.0114714
-0.00877952, -0.0111266, -0.563128, 0.000124023, -5.58923e-05, -0.000103996, 0.367564, 0.341349, 0.280955, 0.00186855, 0.00165118, 0.011447
-0.0117828, -0.00797485, -0.562813, 0.000119069, -5.59586e-05, -0.000105759, 0.36225, 0.338224, 0.280879, 0.00186774, 0.00164237, 0.0114174
-0.0141352, -0.00583988, -0.561184, 0.00011919, -5.53745e-05, -0.00013078, 0.357517, 0.335722, 0.280771, 0.00186728, 0.00163626, 0.0113874
-0.0160279, -0.00429542, -0.560293, 0.0001196, -5.51912e-05, -0.000149081, 0.354079, 0.334206, 0.280596, 0.00186697, 0.00163273, 0.0113633
-0.0170174, -0.00376805, -0.559533, 0.000120217, -5.52174e-05, -0.000157454, 0.352146, 0.333704, 0.280453, 0.00186667, 0.00163099, 0.0113449
-0.0175778, -0.00378775, -0.558473, 0.0001204, -5.53575e-05, -0.000159901, 0.351488, 0.333947, 0.280391, 0.00186626, 0.00163012, 0.01133
-0.0176347, -0.00604634, -0.556814, 0.000116636, -5.74736e-05, -0.00012076, 0.351658, 0.334513, 0.280419, 0.00186569, 0.00162934, 0.0113168
-0.0179214, -0.00577854, -0.557152, 0.000119976, -5.63985e-05, -0.000154225, 0.352029, 0.334996, 0.280516, 0.00186493, 0.00162803, 0.0113036
-0.0180226, -0.00579834, -0.555662, 0.000119729, -5.68832e-05, -0.000151995, 0.352435, 0.335329, 0.28065, 0.00186391, 0.00162597, 0.011291
-0.0187205, -0.0058898, -0.554374, 0.000119519, -5.72887e-05, -0.000151372, 0.352919, 0.335623, 0.28089, 0.00186267, 0.00162315, 0.0112793
-0.0196863, -0.00606555, -0.553319, 0.000119514, -5.73406e-05, -0.000152687, 0.353674, 0.335922, 0.28122, 0.00186146, 0.00162007, 0.0112675
-0.0202193, -0.00617106, -0.553573, 0.000119916, -5.67033e-05, -0.000155742, 0.354813, 0.336276, 0.281507, 0.00186013, 0.00161719, 0.0112482
-0.020686, -0.00624916, -0.554318, 0.000120418, -5.59665e-05, -0.00015856, 0.356197, 0.336806, 0.28165, 0.00185797, 0.0016142, 0.0112127
-0.0210009, -0.00608838, -0.554774, 0.000120439, -5.58619e-05, -0.000156545, 0.357712, 0.337574, 0.28144, 0.00185461, 0.00161039, 0.0111599
-0.0218157, -0.00564039, -0.554883, 0.000120282, -5.58175e-05, -0.000149055, 0.359214, 0.338483, 0.280945, 0.00185002, 0.00160457, 0.0110936
-0.022234, -0.00488614, -0.555722, 0.000119092, -5.74949e-05, -0.000134968, 0.360753, 0.339352, 0.280312, 0.00184409, 0.00159537, 0.0110171
-0.0215217, -0.00425997, -0.556851, 0.000117376, -6.03373e-05, -0.000126762, 0.362305, 0.340026, 0.279933, 0.00183763, 0.00158349, 0.0109412
-0.0200145, -0.00405159, -0.557697, 0.000116163, -6.23493e-05, -0.000129745, 0.363708, 0.340353, 0.279974, 0.00183199, 0.00157068, 0.0108788
-0.0173694, -0.00373648, -0.557831, 0.000114715, -6.38051e-05, -0.000139546, 0.364913, 0.340265, 0.280402, 0.00182764, 0.00155781, 0.0108344
-0.0143348, -0.00390911, -0.558305, 0.000113398, -6.45679e-05, -0.000153414, 0.365809, 0.33976, 0.281117, 0.00182493, 0.00154609, 0.0108086
-0.0118905, -0.00438855, -0.55851, 0.000112651, -6.41742e-05, -0.000165271, 0.366287, 0.338887, 0.281993, 0.00182352, 0.00153599, 0.0107955
-0.00883974, -0.0051048, -0.558318, 0.000111761, -6.28019e-05, -0.000177484, 0.366125, 0.33777, 0.282861, 0.00182288, 0.00152787, 0.0107892
-0.00649463, -0.00512884, -0.558234, 0.00011083, -6.23697e-05, -0.000183941, 0.36515, 0.336512, 0.283581, 0.0018223, 0.00152176, 0.010784
0.00330733, -0.00154931, -0.559973, 0.000108269, -6.47723e-05, -0.000220103, 0.363638, 0.335183, 0.284259, 0.00182107, 0.00151673, 0.0107752
0.00181873, -0.00406542, -0.5599, 0.000106848, -6.40848e-05, -0.000202498, 0.361078, 0.333893, 0.284675, 0.00181881, 0.00151314, 0.0107578
0.000812395, -0.00587149, -0.559992, 0.000105101, -6.3903e-05, -0.000186771, 0.357691, 0.332741, 0.284942, 0.00181524, 0.0015103, 0.0107291
-0.000456452, -0.00716607, -0.559834, 0.00010373, -6.41127e-05, -0.000173321, 0.353926, 0.331901, 0.285241, 0.00181076, 0.0015077, 0.010694
0.000191196, -0.00757404, -0.559794, 0.000102861, -6.37148e-05, -0.000168052, 0.349868, 0.331422, 0.285435, 0.00180535, 0.0015058, 0.0106517
-0.000315338, -0.00777008, -0.560503, 0.000102736, -6.41993e-05, -0.000166492, 0.346206, 0.331324, 0.285552, 0.00179852, 0.00150466, 0.0105968
-0.00151925, -0.0079459, -0.560088, 0.000102543, -6.50326e-05, -0.000161152, 0.344122, 0.331612, 0.286149, 0.00179065, 0.00150373, 0.0105335
-0.00421224, -0.00833189, -0.559654, 0.000102577, -6.60742e-05, -0.000157134, 0.343989, 0.332226, 0.28745, 0.00178239, 0.0015029, 0.0104673
-0.00588861, -0.00884845, -0.559312, 0.000102146, -6.63906e-05, -0.000151911, 0.345475, 0.333051, 0.289278, 0.00177495, 0.00150211, 0.010408
-0.00746031, -0.00926179, -0.560566, 0.000102489, -6.56769e-05, -0.000153966, 0.347964, 0.333946, 0.291224, 0.00176908, 0.0015012, 0.0103616
-0.00891935, -0.00944178, -0.560758, 0.000102903, -6.48595e-05, -0.000155424, 0.350833, 0.334824, 0.292847, 0.00176445, 0.00149994, 0.0103253
-0.0106953, -0.00946971, -0.559133, 0.000103511, -6.35564e-05, -0.000158263, 0.3542, 0.335672, 0.294032, 0.00176036, 0.00149764, 0.0102925
-0.0126043, -0.00949179, -0.557951, 0.00010448, -6.15336e-05, -0.000164216, 0.357625, 0.336483, 0.294537, 0.00175681, 0.00149446, 0.0102635
-0.0137612, -0.00954515, -0.555736, 0.000105066, -6.06649e-05, -0.000169187, 0.360973, 0.337232, 0.294299, 0.0017539, 0.00149055, 0.0102392
-0.0148183, -0.00954809, -0.553983, 0.000105674, -6.00275e-05, -0.000174559, 0.364284, 0.337958, 0.293431, 0.00175133, 0.0014858, 0.0102179
-0.0158988, -0.00992605, -0.55306, 0.000106011, -5.93612e-05, -0.000177447, 0.367472, 0.338665, 0.292118, 0.00174904, 0.00148014, 0.0101995
-0.0176673, -0.00995946, -0.552739, 0.000107228, -5.73466e-05, -0.000185365, 0.37018, 0.339299, 0.290535, 0.00174724, 0.00147411, 0.010186
-0.0188955, -0.0103336, -0.552747, 0.00010791, -5.6152e-05, -0.000189575, 0.371948, 0.339783, 0.288825, 0.00174603, 0.00146872, 0.0101777
-0.0200326, -0.0109068, -0.55272, 0.00010846, -5.54923e-05, -0.000193232, 0.37267, 0.340101, 0.287248, 0.0017452, 0.00146404, 0.0101723
-0.0214141, -0.0115403, -0.554122, 0.000109485, -5.34623e-05, -0.000196559, 0.37238, 0.340286, 0.285971, 0.00174456, 0.00146054, 0.0101678
-0.0230752, -0.012013, -0.555462, 0.00011047, -5.21017e-05, -0.000198753, 0.371509, 0.340309, 0.285209, 0.00174394, 0.00145824, 0.0101611
-0.0237075, -0.0123517, -0.557412, 0.000111017, -5.06503e-05, -0.000196742, 0.370707, 0.340248, 0.285171, 0.0017431, 0.0014565, 0.0101497
-0.0233767, -0.0125579, -0.55835, 0.00011132, -4.98282e-05, -0.000196174, 0.370184, 0.340199, 0.285798, 0.00174206, 0.00145462, 0.0101355
-0.0216454, -0.0125513, -0.562006, 0.00011151, -4.71606e-05, -0.000189404, 0.370174, 0.340158, 0.286927, 0.00174068, 0.00145284, 0.0101175
-0.0205436, -0.0124017, -0.563602, 0.000111574, -4.61214e-05, -0.000186046, 0.370693, 0.34008, 0.288343, 0.00173876, 0.00145114, 0.0100941
-0.0203575, -0.0118272, -0.56529, 0.00011132, -4.52155e-05, -0.000180791, 0.370959, 0.340037, 0.289597, 0.00173674, 0.00144901, 0.0100711
-0.0198052, -0.0111077, -0.566379, 0.000110921, -4.48923e-05, -0.000175607, 0.371606, 0.340015, 0.290654, 0.00173462, 0.00144717, 0.0100481
-0.0180864, -0.0105031, -0.567759, 0.000110899, -4.46068e-05, -0.000174025, 0.372235, 0.340019, 0.291266, 0.00173275, 0.00144545, 0.0100284
-0.016088, -0.00999124, -0.568496, 0.000110808, -4.50852e-05, -0.000172879, 0.372923, 0.340069, 0.291391, 0.00173143, 0.00144408, 0.0100147
-0.0146106, -0.00968456, -0.567802, 0.000110496, -4.60906e-05, -0.000170198, 0.373992, 0.340129, 0.291092, 0.00173049, 0.001443, 0.0100054
-0.0126911, -0.00931044, -0.56513, 0.000109905, -4.7101e-05, -0.000164973, 0.375696, 0.340181, 0.290464, 0.00172973, 0.00144158, 0.00999825
-0.0104381, -0.00899183, -0.562903, 0.000109362, -4.76946e-05, -0.000160098, 0.377756, 0.340229, 0.289549, 0.00172915, 0.00143913, 0.00999336
-0.00802437, -0.00893334, -0.561672, 0.000109014, -4.84593e-05, -0.000156757, 0.379739, 0.340284, 0.288442, 0.00172877, 0.00143536, 0.00999087
-0.00066768, -0.00757948, -0.555682, 0.000108728, -4.56815e-05, -0.000150991, 0.38128, 0.340375, 0.287316, 0.00172841, 0.00143, 0.00998927
0.000309573, -0.00844641, -0.557784, 0.000107867, -4.98071e-05, -0.000146284, 0.381877, 0.34055, 0.286309, 0.00172783, 0.00142347, 0.00998656
0.00188355, -0.00914768, -0.559632, 0.000106593, -5.33723e-05, -0.000139924, 0.381203, 0.340876, 0.28554, 0.00172675, 0.00141627, 0.00998052
0.00218263, -0.00961915, -0.560639, 0.000105816, -5.51555e-05, -0.000136152, 0.379225, 0.341409, 0.285131, 0.00172501, 0.00140839, 0.00997046
0.00930195, -0.00916186, -0.566437, 0.000104197, -6.23109e-05, -0.00013194, 0.376043, 0.342199, 0.285143, 0.00172241, 0.00139985, 0.00995526
0.00658872, -0.00991849, -0.565029, 0.00010316, -6.23647e-05, -0.000122549, 0.371852, 0.343319, 0.285475, 0.00171871, 0.001392, 0.00993334
0.00496167, -0.0102587, -0.563327, 0.000102652, -6.18086e-05, -0.000115765, 0.367403, 0.344811, 0.286045, 0.00171361, 0.00138605, 0.00990171
0.0019573, -0.0104624, -0.56216, 0.000101915, -6.29212e-05, -0.000108803, 0.363723, 0.346638, 0.286954, 0.00170734, 0.00138172, 0.0098617
-0.00197024, -0.0105251, -0.561178, 0.000101333, -6.44716e-05, -0.00010375, 0.361441, 0.348729, 0.288255, 0.00170035, 0.00137868, 0.00981576
-0.00653551, -0.0107081, -0.560681, 0.000100573, -6.59489e-05, -9.87047e-05, 0.360546, 0.350988, 0.289864, 0.00169334, 0.00137644, 0.00976879
-0.00779997, -0.0112912, -0.5586, 9.96441e-05, -6.55441e-05, -8.93063e-05, 0.361068, 0.353284, 0.291597, 0.00168699, 0.00137487, 0.00972506
-0.0108699, -0.0119586, -0.560536, 9.85095e-05, -6.5859e-05, -8.31811e-05, 0.362994, 0.355552, 0.29329, 0.00168132, 0.0013734, 0.00968451
-0.0130642, -0.0121655, -0.560021, 9.86601e-05, -6.43239e-05, -8.32494e-05, 0.365898, 0.357701, 0.294726, 0.00167643, 0.00137134, 0.00964802
-0.0154205, -0.0122667, -0.558609, 9.93355e-05, -6.15796e-05, -8.64877e-05, 0.369619, 0.359623, 0.295734, 0.00167258, 0.00136828, 0.00961793
-0.0170952, -0.012218, -0.556251, 0.000100057, -5.93227e-05, -9.00197e-05, 0.374085, 0.361333, 0.296222, 0.00166944, 0.00136374, 0.00959225
-0.0185955, -0.0124256, -0.554709, 0.000100253, -5.75507e-05, -9.0256e-05, 0.379152, 0.362881, 0.296172, 0.0016667, 0.00135714, 0.00956883
-0.0198825, -0.012345, -0.553468, 0.000100709, -5.62446e-05, -9.3566e-05, 0.384203, 0.364103, 0.295556, 0.00166477, 0.00134907, 0.00955189
-0.0217092, -0.0121002, -0.55326, 0.000101518, -5.36459e-05, -9.94116e-05, 0.388079, 0.364734, 0.294261, 0.00166399, 0.00134237, 0.00954529
-0.0233622, -0.0117116, -0.554274, 0.000102245, -5.06219e-05, -0.000103421, 0.390529, 0.364743, 0.292512, 0.0016637, 0.00133654, 0.00954331
-0.0245185, -0.0116137, -0.55521, 0.000102829, -4.83298e-05, -0.000106342, 0.39177, 0.364534, 0.290741, 0.00166329, 0.00132914, 0.00954095
-0.0260166, -0.0118511, -0.555958, 0.000103584, -4.62642e-05, -0.000110912, 0.391558, 0.364415, 0.289268, 0.00166259, 0.00131881, 0.00953729
-0.0273611, -0.0120567, -0.557056, 0.000104455, -4.40446e-05, -0.000116165, 0.389468, 0.364243, 0.288216, 0.00166172, 0.00130769, 0.00953259
-0.0288029, -0.0128308, -0.557957, 0.000105309, -4.26762e-05, -0.000122063, 0.385704, 0.364, 0.287724, 0.00166068, 0.00129617, 0.00952569
-0.0304308, -0.0136716, -0.55947, 0.000106299, -4.11893e-05, -0.000127365, 0.380989, 0.363654, 0.287647, 0.00165968, 0.00128752, 0.00951726
-0.0320422, -0.014416, -0.561676, 0.000107303, -3.95949e-05, -0.000131315, 0.376309, 0.363186, 0.288037, 0.00165852, 0.00128095, 0.0095052
-0.0319618, -0.0147818, -0.565397, 0.000108545, -3.62469e-05, -0.000134192, 0.372559, 0.362636, 0.288891, 0.0016572, 0.00127623, 0.00949021
-0.0287952, -0.0151094, -0.569551, 0.000110104, -3.16618e-05, -0.000138665, 0.370371, 0.361925, 0.290153, 0.00165554, 0.00127328, 0.0094715
-0.0249782, -0.014788, -0.572798, 0.000111086, -2.79307e-05, -0.000141116, 0.369027, 0.361108, 0.291643, 0.00165362, 0.00127071, 0.00945092
-0.023139, -0.0148088, -0.573287, 0.000111577, -2.67893e-05, -0.000143979, 0.367317, 0.360367, 0.293074, 0.00165181, 0.00126728, 0.00943259
-0.021405, -0.0149074, -0.573201, 0.000111882, -2.63679e-05, -0.000145807, 0.364843, 0.359831, 0.294317, 0.00165026, 0.00126256, 0.00941745
-0.0207163, -0.0152011, -0.572251, 0.000111571, -2.74686e-05, -0.000143513, 0.361882, 0.359558, 0.295441, 0.00164894, 0.00125693, 0.00940442
-0.0209734, -0.015573, -0.570214, 0.000110412, -3.02098e-05, -0.00013519, 0.359158, 0.359515, 0.296545, 0.00164782, 0.00125156, 0.00939291
-0.0213862, -0.0158464, -0.5683, 0.000109324, -3.24313e-05, -0.000127188, 0.357379, 0.359629, 0.297567, 0.00164696, 0.00124762, 0.00938332
-0.0226185, -0.0161365, -0.566038, 0.000108296, -3.40188e-05, -0.000119897, 0.356758, 0.359933, 0.298335, 0.0016464, 0.00124521, 0.00937593
-0.0238053, -0.0164467, -0.564153, 0.000107789, -3.43327e-05, -0.000116579, 0.357218, 0.360523, 0.298619, 0.00164613, 0.00124388, 0.00937097
-0.0250868, -0.0166195, -0.564206, 0.000107787, -3.3526e-05, -0.000117306, 0.358453, 0.361474, 0.298337, 0.00164604, 0.00124285, 0.00936803
-0.0261324, -0.0171934, -0.562613, 0.000107736, -3.24207e-05, -0.000117747, 0.360221, 0.362818, 0.297469, 0.00164593, 0.00124156, 0.00936683
-0.0270125, -0.018037, -0.56013, 0.000107862, -3.06898e-05, -0.000119242, 0.362204, 0.364445, 0.296226, 0.00164564, 0.00123987, 0.00936626
-0.0275688, -0.0189556, -0.557944, 0.000108113, -2.89784e-05, -0.000121535, 0.364161, 0.36615, 0.294735, 0.00164516, 0.00123783, 0.00936554
-0.027979, -0.0194069, -0.557977, 0.000107965, -2.87335e-05, -0.000121714, 0.36592, 0.36779, 0.29317, 0.00164459, 0.00123563, 0.00936451
-0.028418, -0.0200278, -0.559235, 0.000107294, -2.94549e-05, -0.000119681, 0.367394, 0.369269, 0.291702, 0.00164399, 0.00123355, 0.00936321
-0.0285566, -0.0203113, -0.559832, 0.000106967, -2.9873e-05, -0.000118374, 0.368478, 0.370472, 0.290272, 0.00164336, 0.00123152, 0.00936149
-0.0286713, -0.0202878, -0.560801, 0.00010661, -3.0559e-05, -0.000116574, 0.36909, 0.371279, 0.288945, 0.00164276, 0.00122967, 0.00935929
-0.0284931, -0.0196354, -0.561539, 0.000106506, -3.10166e-05, -0.000116053, 0.369106, 0.371486, 0.287637, 0.00164228, 0.00122787, 0.00935693
-0.0276527, -0.018569, -0.56208, 0.000106363, -3.12688e-05, -0.00011553, 0.368468, 0.370957, 0.286322, 0.00164188, 0.0012261, 0.00935472
-0.0263863, -0.0165432, -0.563993, 0.000105062, -3.2448e-05, -0.000109179, 0.367185, 0.369676, 0.284875, 0.00164125, 0.00122404, 0.00935177
-0.0242979, -0.0142682, -0.565396, 0.000103152, -3.32363e-05, -9.91352e-05, 0.365565, 0.367871, 0.283404, 0.00164007, 0.00122174, 0.00934648
-0.0214254, -0.0118827, -0.565254, 0.000101131, -3.28152e-05, -8.83622e-05, 0.364053, 0.365942, 0.28213, 0.00163862, 0.00121966, 0.00933946
-0.018436, -0.00987142, -0.564657, 9.91193e-05, -3.21903e-05, -7.71119e-05, 0.362913, 0.364216, 0.281203, 0.00163722, 0.00121818, 0.00933188
-0.0165512, -0.00921043, -0.560556, 9.9034e-05, -3.01439e-05, -7.56538e-05, 0.362255, 0.362848, 0.280626, 0.00163593, 0.00121738, 0.00932356
-0.0144309, -0.00735374, -0.562893, 9.67443e-05, -3.09357e-05, -6.30742e-05, 0.362087, 0.361888, 0.28028, 0.00163467, 0.00121699, 0.0093137
-0.0128242, -0.00628079, -0.564124, 9.53179e-05, -3.13345e-05, -5.4459e-05, 0.362337, 0.361309, 0.280083, 0.00163348, 0.0012168, 0.00930349
-0.0116157, -0.00598624, -0.561457, 9.47023e-05, -3.13114e-05, -4.90659e-05, 0.362857, 0.361145, 0.28002, 0.00163261, 0.0012167, 0.00929536
-0.0112976, -0.00567105, -0.559301, 9.44409e-05, -3.15225e-05, -4.65953e-05, 0.363483, 0.361364, 0.280064, 0.00163205, 0.00121658, 0.00929004
-0.0117908, -0.00539139, -0.559297, 9.46447e-05, -3.14155e-05, -4.79081e-05, 0.364127, 0.361831, 0.280102, 0.00163169, 0.00121643, 0.00928725
-0.0126302, -0.00582144, -0.558477, 9.46621e-05, -3.13237e-05, -4.8389e-05, 0.364724, 0.362507, 0.280139, 0.00163146, 0.00121629, 0.0092862
-0.0141701, -0.00615208, -0.557251, 9.45994e-05, -3.1252e-05, -4.77704e-05, 0.365257, 0.363343, 0.280226, 0.00163128, 0.00121608, 0.00928577
-0.016024, -0.00649663, -0.556993, 9.43609e-05, -3.08774e-05, -4.62455e-05, 0.365855, 0.364354, 0.280349, 0.00163111, 0.00121577, 0.00928487
-0.0178582, -0.00745016, -0.555918, 9.39323e-05, -3.04895e-05, -4.46481e-05, 0.366645, 0.365626, 0.280492, 0.00163091, 0.00121533, 0.0092834
-0.0201305, -0.00856388, -0.554237, 9.32306e-05, -3.00104e-05, -4.17512e-05, 0.367671, 0.367213, 0.280683, 0.00163064, 0.0012147, 0.00928169
-0.022358, -0.00980714, -0.553233, 9.2443e-05, -2.90851e-05, -3.91986e-05, 0.36895, 0.369096, 0.280832, 0.00163029, 0.00121401, 0.00927983
-0.0247198, -0.0112848, -0.5522, 9.14574e-05, -2.77987e-05, -3.62127e-05, 0.370435, 0.371224, 0.280881, 0.00162991, 0.00121331, 0.00927712
-0.0272041, -0.0127462, -0.552966, 9.03728e-05, -2.6169e-05, -3.20097e-05, 0.372143, 0.373581, 0.280867, 0.00162957, 0.00121248, 0.00927286
-0.0295497, -0.0139756, -0.55344, 8.94713e-05, -2.45522e-05, -2.87493e-05, 0.374082, 0.376142, 0.280901, 0.00162928, 0.00121152, 0.0092669
-0.031344, -0.015321, -0.554921, 8.86663e-05, -2.29547e-05, -2.73904e-05, 0.376263, 0.378891, 0.280954, 0.00162902, 0.00121045, 0.00925995
-0.0332159, -0.0164545, -0.556765, 8.79829e-05, -2.1288e-05, -2.57803e-05, 0.378604, 0.381779, 0.281054, 0.00162877, 0.00120937, 0.0092538
-0.0344004, -0.0171702, -0.558902, 8.75948e-05, -2.02191e-05, -2.48358e-05, 0.380977, 0.384635, 0.281147, 0.00162854, 0.0012084, 0.0092485
-0.0353251, -0.0182707, -0.559035, 8.72147e-05, -1.93768e-05, -2.61007e-05, 0.383253, 0.387299, 0.281214, 0.00162835, 0.00120762, 0.00924468
-0.0357874, -0.0194431, -0.559728, 8.69092e-05, -1.88267e-05, -2.77053e-05, 0.385315, 0.389618, 0.281255, 0.00162818, 0.00120704, 0.0092428
-0.0357084, -0.0202719, -0.560825, 8.67273e-05, -1.86314e-05, -2.8426e-05, 0.386943, 0.391461, 0.281365, 0.00162799, 0.00120665, 0.00924215
-0.0349812, -0.0210622, -0.56279, 8.66409e-05, -1.86177e-05, -2.89567e-05, 0.388059, 0.39268, 0.281453, 0.00162781, 0.00120645, 0.00924169
-0.0341727, -0.0213413, -0.561832, 8.65505e-05, -1.87859e-05, -2.85015e-05, 0.388579, 0.393215, 0.281513, 0.0016277, 0.00120638, 0.00924119
-0.0328997, -0.0209949, -0.563061, 8.6743e-05, -1.87703e-05, -2.9275e-05, 0.388498, 0.393097, 0.281574, 0.00162761, 0.00120635, 0.00924054
-0.0317092, -0.0200362, -0.564544, 8.70144e-05, -1.85724e-05, -3.10319e-05, 0.38783, 0.392331, 0.281577, 0.00162748, 0.00120628, 0.00923969
-0.0299232, -0.0188308, -0.565839, 8.73519e-05, -1.81512e-05, -3.37659e-05, 0.386644, 0.390972, 0.281505, 0.00162737, 0.00120606, 0.00923843
-0.0273246, -0.0175963, -0.567101, 8.76414e-05, -1.74384e-05, -3.63921e-05, 0.385076, 0.389124, 0.2814, 0.00162731, 0.00120565, 0.00923565
-0.0244224, -0.0160464, -0.566746, 8.75586e-05, -1.63447e-05, -3.78023e-05, 0.383292, 0.386951, 0.281233, 0.00162718, 0.00120505, 0.00922869
-0.0218612, -0.0144829, -0.566174, 8.71526e-05, -1.52283e-05, -3.7977e-05, 0.38149, 0.384651, 0.280993, 0.00162689, 0.00120433, 0.00921832
-0.018957, -0.0126144, -0.565404, 8.61909e-05, -1.39868e-05, -3.53628e-05, 0.379882, 0.382357, 0.280732, 0.0016265, 0.00120367, 0.00920842
-0.0164916, -0.0102349, -0.565173, 8.48087e-05, -1.30218e-05, -3.1236e-05, 0.37866, 0.380159, 0.280469, 0.00162585, 0.00120316, 0.00920004
-0.0140949, -0.00827103, -0.563981, 8.30645e-05, -1.21797e-05, -2.32404e-05, 0.377937, 0.378205, 0.280231, 0.00162487, 0.0012028, 0.00919178
-0.0118789, -0.00676876, -0.562618, 8.12364e-05, -1.17249e-05, -1.30469e-05, 0.377757, 0.376655, 0.280081, 0.00162366, 0.00120263, 0.00918219
-0.0101215, -0.00567681, -0.562021, 7.98432e-05, -1.16526e-05, -4.39113e-06, 0.37807, 0.375619, 0.280003, 0.00162251, 0.00120252, 0.00917184
-0.00883056, -0.005346, -0.561852, 7.90996e-05, -1.17661e-05, 1.08995e-06, 0.37864, 0.375108, 0.280006, 0.00162175, 0.00120244, 0.00916397
-0.00823844, -0.00519443, -0.560991, 7.8823e-05, -1.18597e-05, 3.20491e-06, 0.379315, 0.375079, 0.280041, 0.00162137, 0.00120234, 0.00915967
-0.00856155, -0.00562433, -0.558819, 7.87873e-05, -1.18571e-05, 3.56329e-06, 0.380062, 0.375517, 0.280063, 0.00162117, 0.00120222, 0.00915791
-0.00852841, -0.00650522, -0.556155, 7.84283e-05, -1.20938e-05, 5.25074e-06, 0.38079, 0.376402, 0.280113, 0.00162085, 0.00120205, 0.00915696
-0.00950054, -0.00727493, -0.554664, 7.78122e-05, -1.21801e-05, 8.39116e-06, 0.381422, 0.37767, 0.280228, 0.00162011, 0.00120184, 0.00915454
-0.0106932, -0.00801782, -0.554908, 7.68923e-05, -1.19388e-05, 1.29495e-05, 0.382093, 0.379216, 0.280308, 0.00161901, 0.00120165, 0.0091503
-0.0124672, -0.00891999, -0.554206, 7.57031e-05, -1.15042e-05, 1.91714e-05, 0.382973, 0.38098, 0.280326, 0.00161786, 0.00120144, 0.00914591
-0.014582, -0.00970059, -0.553239, 7.46365e-05, -1.07393e-05, 2.49135e-05, 0.384137, 0.382932, 0.280296, 0.00161685, 0.00120112, 0.00914217
-0.0170788, -0.0104922, -0.55255, 7.35191e-05, -9.58267e-06, 3.09252e-05, 0.385621, 0.385086, 0.280215, 0.00161602, 0.00120062, 0.00913901
-0.0191354, -0.0113702, -0.550866, 7.28008e-05, -8.32394e-06, 3.37577e-05, 0.387455, 0.387459, 0.280139, 0.00161536, 0.0011999, 0.00913642
-0.0211358, -0.0123121, -0.548781, 7.23186e-05, -6.86757e-06, 3.45638e-05, 0.389683, 0.390068, 0.280087, 0.00161485, 0.00119889, 0.00913453
-0.0231557, -0.0132722, -0.546585, 7.22861e-05, -4.80455e-06, 3.17931e-05, 0.392401, 0.392895, 0.279982, 0.00161448, 0.00119739, 0.00913213
-0.0248826, -0.0147304, -0.546487, 7.2257e-05, -2.66074e-06, 2.52855e-05, 0.39556, 0.395902, 0.279879, 0.00161416, 0.00119537, 0.00912787
-0.0266739, -0.0158725, -0.549707, 7.23215e-05, -8.90639e-07, 1.93461e-05, 0.398945, 0.398988, 0.279813, 0.00161388, 0.00119313, 0.00912136
-0.0280943, -0.0166161, -0.555707, 7.22868e-05, -2.6182e-09, 1.54076e-05, 0.402375, 0.402011, 0.279764, 0.00161363, 0.00119091, 0.00911312
-0.0285463, -0.0175457, -0.561062, 7.21e-05, 7.79933e-07, 1.10842e-05, 0.405626, 0.404966, 0.2798, 0.00161324, 0.0011892, 0.0091087
-0.0287304, -0.0187578, -0.565814, 7.17091e-05, 2.00993e-06, 7.32851e-06, 0.408474, 0.407746, 0.279937, 0.00161231, 0.00118789, 0.00910577
-0.0293264, -0.0202923, -0.56519, 7.0447e-05, 1.93916e-06, 1.21919e-05, 0.410759, 0.410162, 0.280177, 0.00161066, 0.00118675, 0.00909935
-0.0291842, -0.0213285, -0.564411, 6.93596e-05, 1.36858e-06, 1.83014e-05, 0.412388, 0.412032, 0.280482, 0.00160896, 0.00118589, 0.00909094
-0.0293218, -0.0218508, -0.563409, 6.88656e-05, 9.89428e-07, 2.16308e-05, 0.41319, 0.413226, 0.280795, 0.00160769, 0.00118538, 0.00908349
-0.0295931, -0.0216823, -0.561515, 6.87529e-05, 6.04428e-07, 2.28264e-05, 0.413233, 0.41378, 0.281114, 0.00160661, 0.00118494, 0.00907546
-0.0297298, -0.0212709, -0.560463, 6.88402e-05, 4.61827e-07, 2.20825e-05, 0.412695, 0.413755, 0.281466, 0.00160563, 0.00118438, 0.00906625
-0.0289413, -0.0201725, -0.560247, 6.93623e-05, 8.83818e-07, 1.76222e-05, 0.411539, 0.412987, 0.281692, 0.00160513, 0.00118385, 0.00905948
-0.0274509, -0.0185896, -0.561174, 6.97142e-05, 1.73934e-06, 1.32703e-05, 0.409726, 0.411275, 0.281795, 0.00160503, 0.00118334, 0.00905665
-0.0250902, -0.0168511, -0.562125, 6.94192e-05, 2.82178e-06, 1.27348e-05, 0.407279, 0.408529, 0.281776, 0.00160472, 0.00118282, 0.00905618
-0.0213817, -0.0147886, -0.562523, 6.81682e-05, 4.31434e-06, 1.80019e-05, 0.40445, 0.404991, 0.281645, 0.00160341, 0.00118223, 0.009054
-0.0176055, -0.0123872, -0.562801, 6.60096e-05, 5.76634e-06, 2.81761e-05, 0.401589, 0.401126, 0.281516, 0.00160093, 0.00118154, 0.00904778
-0.0141852, -0.0101429, -0.562081, 6.33874e-05, 6.87726e-06, 4.153e-05, 0.398995, 0.397347, 0.28147, 0.00159758, 0.00118082, 0.00903736
-0.0109451, -0.00818838, -0.56313, 6.10352e-05, 7.91356e-06, 5.50295e-05, 0.396951, 0.393963, 0.281489, 0.00159374, 0.00118023, 0.00902293
-0.00847625, -0.00648806, -0.564297, 5.90919e-05, 8.60217e-06, 6.66925e-05, 0.395576, 0.391277, 0.281609, 0.00159054, 0.00117983, 0.0090093
-0.00605054, -0.00514161, -0.56423, 5.75479e-05, 9.01768e-06, 7.6397e-05, 0.394706, 0.389475, 0.281866, 0.00158888, 0.00117946, 0.00900175
-0.00479658, -0.00498308, -0.563279, 5.69299e-05, 8.86196e-06, 8.09627e-05, 0.394222, 0.388551, 0.282206, 0.00158836, 0.00117905, 0.00899822
-0.00494135, -0.00504125, -0.559913, 5.60745e-05, 7.78943e-06, 8.58586e-05, 0.394131, 0.388393, 0.282557, 0.0015881, 0.00117864, 0.00899486
-0.00558991, -0.00526857, -0.557211, 5.54774e-05, 7.08778e-06, 8.86919e-05, 0.394359, 0.38888, 0.282843, 0.00158757, 0.00117828, 0.00899053
-0.0076605, -0.00593822, -0.553245, 5.43239e-05, 6.56675e-06, 9.35964e-05, 0.394864, 0.389951, 0.283016, 0.00158648, 0.00117796, 0.00898478
-0.0095636, -0.00636805, -0.5519, 5.34353e-05, 6.87579e-06, 9.75741e-05, 0.395749, 0.391584, 0.283051, 0.00158469, 0.0011776, 0.00897756
-0.0120489, -0.00708319, -0.549585, 5.21179e-05, 7.80823e-06, 0.000102819, 0.397152, 0.393703, 0.282993, 0.00158263, 0.00117705, 0.00897165
-0.0139677, -0.00814117, -0.548865, 5.06634e-05, 8.75351e-06, 0.000107934, 0.399024, 0.396172, 0.282921, 0.00158078, 0.00117626, 0.00896842
-0.0157415, -0.00906829, -0.548428, 4.94751e-05, 9.90824e-06, 0.000111559, 0.40129, 0.398901, 0.282831, 0.00157925, 0.00117523, 0.00896685
-0.0182313, -0.010678, -0.545093, 4.77821e-05, 1.21088e-05, 0.000114314, 0.40389, 0.401865, 0.282722, 0.00157796, 0.00117395, 0.00896596
-0.0202234, -0.0119037, -0.545504, 4.6658e-05, 1.3888e-05, 0.000115949, 0.406736, 0.404949, 0.282551, 0.00157719, 0.00117243, 0.00896465
-0.0220545, -0.0128541, -0.546746, 4.59117e-05, 1.53855e-05, 0.000116925, 0.409694, 0.408025, 0.282249, 0.0015769, 0.00117057, 0.00895966
-0.0227587, -0.0138509, -0.54816, 4.5361e-05, 1.59081e-05, 0.000115784, 0.412577, 0.411043, 0.281852, 0.00157666, 0.00116858, 0.00895144
-0.0226779, -0.0150031, -0.55087, 4.47018e-05, 1.54887e-05, 0.00011408, 0.415205, 0.413907, 0.281536, 0.00157642, 0.00116707, 0.0089454
-0.0219096, -0.01583, -0.553302, 4.42233e-05, 1.47561e-05, 0.000113029, 0.417389, 0.41642, 0.281298, 0.00157613, 0.00116614, 0.00894297
-0.0213929, -0.0164701, -0.55649, 4.3655e-05, 1.39666e-05, 0.000114274, 0.419016, 0.418387, 0.281126, 0.00157579, 0.00116563, 0.00894209
-0.0211588, -0.0165949, -0.559512, 4.33656e-05, 1.32273e-05, 0.000115556, 0.420081, 0.419601, 0.280979, 0.00157558, 0.00116528, 0.00894162
-0.0208799, -0.0157543, -0.561444, 4.30686e-05, 1.2495e-05, 0.0001177, 0.420601, 0.41996, 0.280774, 0.00157543, 0.0011649, 0.0089408
-0.0207893, -0.0144569, -0.562825, 4.22861e-05, 1.17024e-05, 0.000122947, 0.420888, 0.419498, 0.280484, 0.00157463, 0.00116427, 0.00893516
-0.0204289, -0.0127747, -0.563374, 4.06676e-05, 1.09224e-05, 0.000133613, 0.421658, 0.418409, 0.280134, 0.00157108, 0.00116309, 0.00890725
-0.01959, -0.0109527, -0.562382, 3.79474e-05, 1.0329e-05, 0.000151694, 0.423486, 0.417129, 0.27979, 0.00156253, 0.00116091, 0.00883479
-0.0176327, -0.00980598, -0.5612, 3.17441e-05, 8.24129e-06, 0.000194767, 0.426715, 0.416093, 0.279575, 0.00154771, 0.00115748, 0.00870378
-0.0163313, -0.00937439, -0.561185, 2.62346e-05, 5.99563e-06, 0.000234013, 0.431302, 0.415452, 0.279536, 0.00152641, 0.00115265, 0.00851114
-0.0155415, -0.00928704, -0.5605, 2.21214e-05, 4.38243e-06, 0.00026291, 0.43669, 0.415121, 0.279629, 0.00150321, 0.00114728, 0.00829703
-0.015622, -0.0367181, -0.560073, 7.79967e-06, -1.70868e-06, 0.00037273, 0.442237, 0.414959, 0.279832, 0.00148367, 0.00114257, 0.00811141
-0.0156416, -0.0641787, -0.556247, -3.22454e-06, -7.37009e-06, 0.000454298, 0.447524, 0.414805, 0.280049, 0.00146965, 0.00113901, 0.00797272
-0.0154095, -0.036515, -0.556615, 2.99213e-06, -2.08444e-06, 0.000405017, 0.45215, 0.414617, 0.28023, 0.00146117, 0.00113668, 0.0078836
-0.0149245, -0.0163978, -0.557952, 6.6668e-06, 2.28508e-06, 0.000375024, 0.45539, 0.414454, 0.280439, 0.00145803, 0.00113553, 0.00784672
-0.0146563, -0.00359728, -0.558937, 1.0469e-05, 5.8825e-06, 0.000344673, 0.456336, 0.414417, 0.280676, 0.00145766, 0.001135, 0.00784094
-0.0147873, 0.00393475, -0.558838, 1.30455e-05, 7.76853e-06, 0.000325185, 0.454159, 0.414566, 0.280796, 0.00145568, 0.00113436, 0.00782577
-0.0157869, 0.00774303, -0.557698, 1.34984e-05, 7.90766e-06, 0.000323256, 0.448358, 0.41492, 0.280795, 0.00144657, 0.00113243, 0.00774792
-0.0176288, 0.00907136, -0.557759, 1.04135e-05, 6.76465e-06, 0.000345064, 0.439627, 0.415312, 0.280678, 0.00142653, 0.00112843, 0.00756957
-0.0207962, 0.00880035, -0.561395, 7.35503e-07, 4.04669e-06, 0.00040664, 0.429786, 0.415643, 0.280538, 0.00139561, 0.00112239, 0.00728606
-0.0209307, 0.00701363, -0.561119, 2.55454e-07, 3.63695e-06, 0.000409136, 0.420971, 0.415961, 0.280507, 0.00135775, 0.00111504, 0.00692837
-0.0215434, 0.00456816, -0.561006, -1.83205e-06, 2.55833e-06, 0.000421803, 0.414588, 0.416296, 0.280699, 0.00131822, 0.00110738, 0.00654399
-0.020522, 0.0397608, -0.561303, 7.3346e-06, 9.35619e-06, 0.000392298, 0.411104, 0.416661, 0.281164, 0.00128268, 0.00110048, 0.00618953
-0.0220599, 0.0615042, -0.562205, 5.70289e-06, 1.09692e-05, 0.000426451, 0.410127, 0.417098, 0.281828, 0.00125392, 0.00109501, 0.0058959
-0.019065, 0.10689, -0.560933, 2.40624e-05, 2.0742e-05, 0.000355846, 0.410883, 0.417701, 0.282627, 0.00123301, 0.00109115, 0.00567839
-0.0163416, 0.0798085, -0.55623, 2.89768e-05, 1.91601e-05, 0.000295486, 0.412594, 0.418449, 0.28341, 0.0012194, 0.00108881, 0.00553597
-0.0166636, 0.0592684, -0.557434, 2.42868e-05, 1.7379e-05, 0.000299149, 0.414556, 0.419282, 0.284177, 0.00121224, 0.00108766, 0.00546247
-0.0176971, 0.0487565, -0.55924, 2.14342e-05, 1.67265e-05, 0.000303848, 0.416246, 0.420121, 0.284855, 0.00120943, 0.00108721, 0.00543573
-0.0196184, 0.027074, -0.561441, 1.91755e-05, 1.63692e-05, 0.000293596, 0.417358, 0.420843, 0.285307, 0.00120887, 0.00108706, 0.00543164
-0.0210536, 0.00247539, -0.56503, 1.9283e-05, 1.66523e-05, 0.000268371, 0.417747, 0.421438, 0.28556, 0.00120882, 0.00108677, 0.00542967
-0.0217141, -0.0113916, -0.565537, 1.92037e-05, 1.64972e-05, 0.000256457, 0.417552, 0.421968, 0.285621, 0.00120788, 0.00108602, 0.00541385
-0.0228446, -0.00782268, -0.5646, 1.97154e-05, 1.70289e-05, 0.000253672, 0.417063, 0.422504, 0.285458, 0.00120498, 0.00108455, 0.00537144
-0.0243732, -0.00663212, -0.563102, 2.10898e-05, 1.81941e-05, 0.000241069, 0.416609, 0.423046, 0.285105, 0.00119944, 0.00108211, 0.00529278
-0.0262667, -0.00622508, -0.560801, 2.30806e-05, 1.99112e-05, 0.00022132, 0.416635, 0.423558, 0.284626, 0.00119113, 0.00107872, 0.00517575
-0.0271417, -0.0240852, -0.555652, 1.91648e-05, 1.80408e-05, 0.000224013, 0.417597, 0.424016, 0.284101, 0.00118031, 0.00107454, 0.00502396
-0.0256588, -0.0513558, -0.551881, 9.852e-06, 1.25521e-05, 0.000259507, 0.419757, 0.42448, 0.283693, 0.0011678, 0.00106998, 0.00484978
-0.0229472, -0.0768275, -0.551805, -2.20956e-07, 6.77874e-06, 0.000307848, 0.423111, 0.425045, 0.283485, 0.0011548, 0.00106542, 0.00466973
-0.0220584, -0.114404, -0.564781, 1.26614e-06, 4.61467e-06, 0.00028496, 0.42752, 0.425746, 0.283468, 0.00114212, 0.00106104, 0.00449331
-0.0212643, -0.131409, -0.571824, 1.51705e-06, 2.89466e-06, 0.000279141, 0.432757, 0.42657, 0.283614, 0.00113046, 0.00105695, 0.00432729
-0.0204917, -0.133687, -0.573811, 3.12494e-07, 1.45549e-06, 0.000290906, 0.438434, 0.427458, 0.283797, 0.00112074, 0.00105347, 0.00418721
-0.0193693, -0.125791, -0.573326, -9.19303e-07, 5.60406e-07, 0.000311243, 0.444141, 0.428359, 0.283972, 0.00111342, 0.00105074, 0.00408177
-0.0179176, -0.112218, -0.570413, -1.77643e-06, 3.52721e-07, 0.000329936, 0.449495, 0.429237, 0.284152, 0.00110844, 0.00104876, 0.00401167
-0.0166588, -0.0949324, -0.567368, -3.08505e-07, 7.99766e-07, 0.000333959, 0.454098, 0.430051, 0.28435, 0.00110554, 0.0010475, 0.00397278
-0.0156104, -0.0767138, -0.568446, 2.76908e-06, 7.48378e-07, 0.000328347, 0.457581, 0.430711, 0.284468, 0.00110425, 0.00104677, 0.00395637
-0.0140246, -0.0568856, -0.565061, 4.98688e-06, 1.68813e-06, 0.000321119, 0.459589, 0.431152, 0.284504, 0.00110394, 0.00104643, 0.00395282
-0.0128279, -0.0383257, -0.560573, 6.9681e-06, 2.20736e-06, 0.000313218, 0.459963, 0.431437, 0.284453, 0.00110389, 0.00104632, 0.00395253
-0.0124869, -0.0218575, -0.556767, 8.86974e-06, 1.77395e-06, 0.000306852, 0.458698, 0.431703, 0.284418, 0.00110353, 0.00104629, 0.00394667
-0.0133193, -0.00781679, -0.55469, 9.9035e-06, 9.78324e-07, 0.000307155, 0.456091, 0.431995, 0.284347, 0.00110242, 0.0010462, 0.00392958
-0.0145869, 0.00362833, -0.553611, 1.01777e-05, 9.89271e-08, 0.000312384, 0.452435, 0.432286, 0.28411, 0.00110031, 0.001046, 0.00389786
-0.015658, 0.0123971, -0.553221, 1.01387e-05, -8.11655e-07, 0.000318148, 0.448029, 0.432534, 0.283703, 0.00109707, 0.00104562, 0.00384945
-0.0169389, 0.0186995, -0.553305, 9.63622e-06, -1.86318e-06, 0.000325856, 0.443317, 0.432808, 0.283226, 0.00109265, 0.00104504, 0.00378236
-0.0198517, 0.0239776, -0.556177, 6.04836e-06, -3.38776e-06, 0.000349809, 0.43903, 0.433156, 0.282704, 0.00108732, 0.00104436, 0.0037012
-0.0210916, 0.0264115, -0.557957, 4.12699e-06, -4.04898e-06, 0.000361612, 0.435772, 0.433638, 0.282296, 0.00108153, 0.00104369, 0.0036137
-0.0213679, 0.02695, -0.558649, 3.51572e-06, -4.14959e-06, 0.000364761, 0.43379, 0.434294, 0.282134, 0.00107571, 0.0010431, 0.00352696
-0.0219577, 0.0263189, -0.55894, 2.59261e-06, -4.26841e-06, 0.000370056, 0.433078, 0.43513, 0.282261, 0.0010703, 0.00104262, 0.0034476
-0.0227448, 0.05246, -0.567582, 2.93452e-06, -5.36271e-06, 0.00038306, 0.433442, 0.436135, 0.282665, 0.00106573, 0.00104223, 0.00338074
-0.0170756, 0.0723823, -0.58074, 5.68571e-06, -3.85506e-06, 0.00035572, 0.434574, 0.437242, 0.283271, 0.00106206, 0.00104191, 0.00332689
-0.00887559, 0.0750054, -0.595788, 4.86743e-06, -5.70626e-07, 0.000323482, 0.436125, 0.438327, 0.283921, 0.00105937, 0.0010417, 0.00328776
-0.009571, 0.0752077, -0.597397, 3.87688e-06, -4.83086e-07, 0.000328742, 0.437752, 0.439316, 0.284522, 0.00105769, 0.00104158, 0.00326339
-0.0145197, 0.074118, -0.587138, 4.41609e-06, -1.61993e-06, 0.000339958, 0.439134, 0.440092, 0.285059, 0.00105685, 0.0010415, 0.00325074
-0.0212205, 0.0572462, -0.569944, 4.23352e-06, -2.6417e-06, 0.000346056, 0.440044, 0.440584, 0.285517, 0.00105656, 0.00104144, 0.00324611
-0.0263468, 0.0456151, -0.556109, 3.70401e-06, -3.39173e-06, 0.000346684, 0.440475, 0.440901, 0.28584, 0.00105654, 0.0010414, 0.00324566
-0.0289321, 0.031662, -0.545817, 2.3232e-06, -3.63965e-06, 0.000346078, 0.440521, 0.441181, 0.285997, 0.00105645, 0.00104132, 0.00324503
-0.0304282, 0.0269259, -0.540806, 1.46959e-06, -3.55175e-06, 0.000345767, 0.440331, 0.441512, 0.28594, 0.00105604, 0.00104119, 0.0032403
-0.0292714, 0.0368075, -0.539773, 1.63611e-06, -3.97851e-06, 0.000348911, 0.439969, 0.441878, 0.285671, 0.00105505, 0.00104087, 0.00322682
-0.0308215, 0.031084, -0.538329, 1.53956e-06, -3.60159e-06, 0.000342712, 0.439619, 0.442213, 0.285139, 0.00105314, 0.00104026, 0.00319954
-0.0315581, 0.0067153, -0.537137, -5.26911e-07, -5.4749e-06, 0.000338289, 0.439549, 0.442462, 0.28455, 0.00105021, 0.00103936, 0.00315662
-0.0318838, -0.0120894, -0.532064, -5.04876e-06, -7.39288e-06, 0.000341321, 0.440079, 0.44266, 0.28405, 0.0010463, 0.00103825, 0.00309949
-0.0319031, -0.042786, -0.530053, -9.7478e-06, -1.06632e-05, 0.000343454, 0.441466, 0.442881, 0.283751, 0.00104174, 0.00103697, 0.0030326
-0.0325921, -0.0833338, -0.539985, -7.36168e-06, -1.38397e-05, 0.000324217, 0.443854, 0.443261, 0.283701, 0.00103699, 0.00103553, 0.00296141
-0.0320905, -0.104984, -0.548144, -6.17458e-06, -1.61275e-05, 0.00031932, 0.447193, 0.443951, 0.283879, 0.00103246, 0.00103395, 0.00289192
-0.0310537, -0.113122, -0.554604, -4.87936e-06, -1.73643e-05, 0.000321845, 0.451168, 0.444956, 0.28426, 0.00102865, 0.00103239, 0.00283287
-0.029695, -0.111986, -0.558921, -3.09079e-06, -1.79938e-05, 0.000327071, 0.455342, 0.446145, 0.284767, 0.0010258, 0.00103105, 0.00278965
-0.0281401, -0.104788, -0.562122, -4.18155e-07, -1.81071e-05, 0.000330833, 0.459296, 0.447359, 0.285403, 0.00102396, 0.00103005, 0.00276222
-0.0268579, -0.0930383, -0.562918, 2.15409e-06, -1.76075e-05, 0.000332271, 0.462644, 0.448459, 0.28608, 0.00102305, 0.00102941, 0.00274821
-0.0253872, -0.0781329, -0.562256, 4.13579e-06, -1.68276e-05, 0.00033402, 0.465043, 0.44928, 0.286561, 0.00102279, 0.0010291, 0.00274331
-0.023882, -0.0622632, -0.563859, 5.2894e-06, -1.59247e-05, 0.000336021, 0.466304, 0.449743, 0.286765, 0.00102276, 0.001029, 0.00274263
-0.0227132, -0.0466088, -0.566929, 5.18172e-06, -1.51163e-05, 0.000339089, 0.466429, 0.449878, 0.286715, 0.00102266, 0.00102897, 0.00274222
-0.0213763, -0.0321192, -0.56818, 4.73024e-06, -1.41924e-05, 0.000341976, 0.465547, 0.449794, 0.286527, 0.00102227, 0.00102895, 0.0027393
-0.019815, -0.0193224, -0.571273, 3.81629e-06, -1.3381e-05, 0.000343105, 0.463857, 0.449618, 0.286232, 0.00102148, 0.0010289, 0.00273177
-0.0192519, -0.00884933, -0.569951, 4.37809e-06, -1.31095e-05, 0.000342472, 0.46166, 0.44946, 0.285933, 0.00102026, 0.00102879, 0.00271883
-0.0193696, -0.00108533, -0.56648, 6.15775e-06, -1.33928e-05, 0.000340321, 0.459263, 0.449311, 0.285645, 0.00101858, 0.00102864, 0.00270084
-0.0200522, 0.00410836, -0.563344, 7.98302e-06, -1.39547e-05, 0.00033907, 0.456898, 0.449233, 0.285362, 0.00101641, 0.00102846, 0.00267679
-0.0211394, 0.00750995, -0.561086, 9.23869e-06, -1.45164e-05, 0.000340112, 0.454843, 0.449289, 0.285074, 0.00101379, 0.0010283, 0.00264601
-0.0222834, 0.00941677, -0.56003, 9.6229e-06, -1.49283e-05, 0.000343499, 0.453416, 0.449545, 0.284844, 0.00101081, 0.00102816, 0.00260915
-0.0237334, 0.010613, -0.560019, 9.04702e-06, -1.524e-05, 0.000349974, 0.452853, 0.450042, 0.284782, 0.00100756, 0.00102804, 0.00256828
-0.0232443, 0.0485558, -0.562968, 1.69864e-05, -2.01059e-05, 0.000328601, 0.453219, 0.450786, 0.285008, 0.00100435, 0.00102794, 0.00252757
-0.0254391, 0.0718342, -0.568454, 1.84147e-05, -2.3272e-05, 0.000333437, 0.454393, 0.451721, 0.285511, 0.00100147, 0.00102785, 0.00249053
-0.0279048, 0.0780499, -0.572564, 1.64818e-05, -2.40952e-05, 0.000345659, 0.456096, 0.45283, 0.286136, 0.000999314, 0.00102777, 0.00246224
-0.0280198, 0.0380339, -0.568621, 6.55009e-06, -1.70822e-05, 0.000362742, 0.457991, 0.454029, 0.286754, 0.00099798, 0.00102767, 0.00244405
-0.033789, 0.0509589, -0.571309, 7.86449e-06, -1.92396e-05, 0.000374649, 0.459749, 0.455179, 0.287305, 0.000997407, 0.00102755, 0.00243558
-0.0348132, 0.053083, -0.572574, 7.96028e-06, -1.9609e-05, 0.000376689, 0.461184, 0.456157, 0.287695, 0.000997215, 0.0010274, 0.00243181
-0.0323399, 0.0421012, -0.566357, 6.77076e-06, -1.72935e-05, 0.000372602, 0.462182, 0.456928, 0.287896, 0.000997165, 0.00102724, 0.00243088
-0.0293404, 0.0264916, -0.565889, 5.49784e-06, -1.42818e-05, 0.000367377, 0.462699, 0.457509, 0.287933, 0.000996978, 0.00102706, 0.00243066
-0.0292168, 0.0223582, -0.565508, 5.1689e-06, -1.34052e-05, 0.000366188, 0.462832, 0.457962, 0.287729, 0.000996355, 0.00102683, 0.00242872
-0.0249279, -0.0254099, -0.562045, 1.60715e-06, -4.63989e-06, 0.000353427, 0.462657, 0.45827, 0.287232, 0.000995082, 0.00102656, 0.00242231
-0.0215717, -0.0550337, -0.560361, -9.73683e-07, -4.66992e-07, 0.000349046, 0.462329, 0.458358, 0.286499, 0.000992774, 0.00102619, 0.0024067
-0.019785, -0.0717955, -0.560488, -1.84452e-06, 1.28318e-06, 0.000346739, 0.462151, 0.458261, 0.285645, 0.000989535, 0.0010257, 0.00238196
-0.0186251, -0.078277, -0.561206, -2.08268e-06, 1.57892e-06, 0.00034805, 0.462407, 0.458092, 0.284816, 0.000985762, 0.00102511, 0.00235128
-0.0178425, -0.0776601, -0.561185, -2.62301e-06, 1.2173e-06, 0.00035197, 0.463282, 0.457971, 0.284163, 0.000981931, 0.00102447, 0.00231851
-0.0172653, -0.0727647, -0.560762, -3.15436e-06, 5.94928e-07, 0.000356983, 0.464784, 0.45798, 0.283791, 0.000978448, 0.00102383, 0.00228767
-0.0168321, -0.0646904, -0.558316, -4.54348e-06, 1.90485e-07, 0.000362369, 0.466828, 0.458159, 0.283708, 0.00097553, 0.00102321, 0.00226124
-0.0166168, -0.0556583, -0.55705, -4.57761e-06, -3.17459e-07, 0.000365678, 0.469257, 0.458546, 0.283836, 0.000973295, 0.00102259, 0.00224094
-0.0167684, -0.0465224, -0.555687, -4.0598e-06, -5.93099e-07, 0.000366565, 0.471765, 0.459144, 0.284034, 0.000971895, 0.001022, 0.00222819
-0.0168904, -0.0377663, -0.555304, -2.98561e-06, -1.01791e-06, 0.000366597, 0.474015, 0.459892, 0.284193, 0.000971254, 0.0010215, 0.00222236
-0.0177208, -0.0296727, -0.554218, -1.87817e-06, -1.00079e-06, 0.000365407, 0.475765, 0.460687, 0.284231, 0.00097106, 0.00102113, 0.00222086
-0.0183137, -0.0221745, -0.553001, -8.39312e-07, -9.96891e-07, 0.000364865, 0.476935, 0.461455, 0.284128, 0.00097099, 0.0010209, 0.00222083
-0.0194805, -0.015561, -0.552997, -1.34507e-07, -1.1138e-06, 0.000365455, 0.477558, 0.462152, 0.283925, 0.000970839, 0.00102078, 0.00222024
-0.020966, -0.00966937, -0.553826, 1.14332e-07, -1.39806e-06, 0.000367521, 0.477776, 0.462787, 0.283677, 0.000970554, 0.00102073, 0.00221825
-0.0224318, -0.0050972, -0.555664, -2.23319e-07, -1.82814e-06, 0.000370556, 0.477704, 0.463371, 0.283388, 0.000970151, 0.00102068, 0.00221466
-0.0235811, -0.00131134, -0.556364, -4.41728e-07, -2.42313e-06, 0.000373827, 0.477393, 0.463859, 0.283049, 0.000969643, 0.00102057, 0.00220945
-0.0242499, 0.00189102, -0.559299, -1.6739e-06, -2.78859e-06, 0.000377137, 0.476843, 0.464164, 0.282791, 0.000969019, 0.00102041, 0.00220285
0.00726392, 0.0075469, -0.55121, 4.2804e-06, -2.84395e-06, 0.000325242, 0.47607, 0.464272, 0.282713, 0.000968301, 0.00102016, 0.00219533
0.0510107, 0.0176025, -0.534847, 1.40813e-05, -4.10961e-06, 0.00025713, 0.475207, 0.46429, 0.282835, 0.000967548, 0.0010198, 0.0021869
0.0649872, 0.037386, -0.521579, 1.80506e-05, -1.0115e-05, 0.000253453, 0.474362, 0.464312, 0.283213, 0.000966791, 0.00101923, 0.00217818
0.099681, 0.0484589, -0.507951, 2.56481e-05, -1.43704e-05, 0.000200609, 0.473792, 0.46444, 0.28376, 0.000966165, 0.00101859, 0.00217123
0.122213, 0.0608918, -0.508482, 2.6541e-05, -1.48912e-05, 0.00017643, 0.473652, 0.464751, 0.28431, 0.000965696, 0.0010181, 0.0021667
0.130798, 0.0654771, -0.519361, 2.39133e-05, -1.31255e-05, 0.000170473, 0.474037, 0.465326, 0.284651, 0.000965361, 0.0010179, 0.00216455
0.102127, 0.0723557, -0.540572, 2.03877e-05, -7.58312e-06, 0.000190443, 0.474875, 0.466177, 0.284775, 0.000965052, 0.00101781, 0.00216381
0.0608485, 0.0613062, -0.563802, 1.38511e-05, -7.24984e-08, 0.000213704, 0.476044, 0.467217, 0.284691, 0.00096458, 0.00101767, 0.00216243
-0.0146418, 0.031755, -0.589903, 6.19216e-07, 1.35838e-05, 0.000256475, 0.477402, 0.468391, 0.284371, 0.000963819, 0.00101734, 0.00215817
-0.0964027, -0.00851087, -0.608219, -2.09317e-05, 2.95294e-05, 0.000320285, 0.478879, 0.469702, 0.283923, 0.000962658, 0.00101673, 0.00214851
-0.144793, -0.0337131, -0.618398, -3.76035e-05, 3.86934e-05, 0.000368099, 0.480432, 0.4712, 0.283397, 0.000961108, 0.00101586, 0.00213235
-0.16855, -0.0480275, -0.619063, -4.87409e-05, 4.42053e-05, 0.00040208, 0.482021, 0.472941, 0.282846, 0.000959367, 0.00101478, 0.00211244
-0.174601, -0.0546121, -0.615653, -5.41254e-05, 4.62544e-05, 0.0004218, 0.483522, 0.474836, 0.2823, 0.000957724, 0.00101354, 0.0020927
-0.1679, -0.0557325, -0.60936, -5.43689e-05, 4.69188e-05, 0.000429103, 0.484853, 0.476745, 0.281808, 0.000956395, 0.00101224, 0.00207673
-0.152224, -0.0538664, -0.601765, -5.13039e-05, 4.69577e-05, 0.000431268, 0.48597, 0.478492, 0.281435, 0.000955451, 0.00101104, 0.00206598
-0.130805, -0.0496229, -0.592256, -4.63512e-05, 4.75215e-05, 0.000431163, 0.486878, 0.479938, 0.281228, 0.000954866, 0.00101013, 0.0020602
-0.106922, -0.044296, -0.582005, -4.10696e-05, 4.80678e-05, 0.000432907, 0.487631, 0.480988, 0.281178, 0.000954538, 0.00100952, 0.00205815
-0.0826054, -0.038031, -0.572362, -3.59613e-05, 4.80312e-05, 0.000437465, 0.488279, 0.481595, 0.281239, 0.000954343, 0.00100913, 0.0020579
-0.0593319, -0.0318659, -0.563779, -3.13642e-05, 4.72744e-05, 0.000445005, 0.488832, 0.481761, 0.281357, 0.000954175, 0.00100884, 0.0020574
-0.0377582, -0.026053, -0.557677, -2.74146e-05, 4.61297e-05, 0.000453978, 0.489246, 0.481557, 0.281507, 0.000953971, 0.00100856, 0.00205529
-0.0177164, -0.0206199, -0.552585, -2.41995e-05, 4.48517e-05, 0.000463119, 0.489569, 0.48111, 0.281647, 0.000953713, 0.00100831, 0.00205115
-0.000872205, -0.015744, -0.548513, -2.19347e-05, 4.38385e-05, 0.000471364, 0.489756, 0.480522, 0.281785, 0.0009534, 0.00100807, 0.00204545
0.0127267, -0.011066, -0.54651, -2.05611e-05, 4.34834e-05, 0.000479616, 0.489871, 0.479862, 0.281886, 0.000953038, 0.00100786, 0.00203865
0.0234413, -0.00759531, -0.543683, -1.95684e-05, 4.28758e-05, 0.000486135, 0.490031, 0.479264, 0.281926, 0.000952658, 0.0010077, 0.00203114
0.0314387, -0.00457185, -0.542774, -1.9e-05, 4.25176e-05, 0.000491943, 0.490277, 0.478834, 0.28195, 0.000952298, 0.00100753, 0.00202342
0.0370835, -0.00282852, -0.541914, -1.85331e-05, 4.20655e-05, 0.000495301, 0.490661, 0.478641, 0.28197, 0.000951989, 0.00100739, 0.00201608
0.0401947, -0.00183425, -0.542122, -1.82907e-05, 4.18546e-05, 0.000497136, 0.491185, 0.478703, 0.282004, 0.000951751, 0.00100726, 0.00200966
0.0413064, -0.0014979, -0.544038, -1.81973e-05, 4.2003e-05, 0.000497623, 0.491836, 0.479007, 0.282076, 0.000951577, 0.00100713, 0.00200423
0.0410649, -0.00164954, -0.546154, -1.82005e-05, 4.2283e-05, 0.000497265, 0.492638, 0.47955, 0.282177, 0.000951458, 0.00100701, 0.00199967
0.0396476, -0.00215041, -0.548175, -1.82996e-05, 4.27641e-05, 0.000496392, 0.493576, 0.480322, 0.28235, 0.000951382, 0.00100685, 0.0019959
0.0375124, -0.00288757, -0.550569, -1.84493e-05, 4.35116e-05, 0.000495307, 0.494606, 0.481284, 0.282635, 0.000951334, 0.00100666, 0.00199283
0.0348053, -0.00399436, -0.553428, -1.86395e-05, 4.45268e-05, 0.000493896, 0.495637, 0.482349, 0.283019, 0.000951306, 0.00100645, 0.00199044
0.0318133, -0.00526689, -0.555749, -1.88443e-05, 4.55149e-05, 0.000492682, 0.4966, 0.483442, 0.283453, 0.00095129, 0.00100625, 0.00198861
0.0284862, -0.00670576, -0.557485, -1.90266e-05, 4.64158e-05, 0.000491655, 0.497438, 0.484505, 0.28393, 0.000951278, 0.00100605, 0.0019872
0.0255284, -0.00827699, -0.559672, -1.9178e-05, 4.7299e-05, 0.000490762, 0.498131, 0.485502, 0.284432, 0.00095127, 0.00100587, 0.00198619
0.0228472, -0.00943492, -0.561664, -1.9273e-05, 4.79783e-05, 0.000490464, 0.498693, 0.486392, 0.284883, 0.000951261, 0.00100572, 0.00198562
0.0203785, -0.0108435, -0.564119, -1.94005e-05, 4.86112e-05, 0.000490472, 0.499136, 0.487133, 0.285241, 0.000951241, 0.00100562, 0.00198543
0.0182119, -0.0120065, -0.565164, -1.94618e-05, 4.89683e-05, 0.000490978, 0.499505, 0.487726, 0.285481, 0.000951181, 0.00100553, 0.00198534
0.0536982, -0.00438404, -0.55846, -2.09206e-05, 4.54942e-05, 0.000481745, 0.499926, 0.488246, 0.285564, 0.000951048, 0.00100545, 0.00198503
0.0347457, -0.00978928, -0.561039, -1.99633e-05, 4.79573e-05, 0.000487399, 0.500518, 0.488813, 0.285456, 0.000950841, 0.00100535, 0.00198454
0.0213185, -0.0135948, -0.56217, -1.9133e-05, 4.99944e-05, 0.000491784, 0.501302, 0.489419, 0.285181, 0.000950484, 0.00100523, 0.00198311
0.0113591, -0.0162906, -0.563361, -1.85518e-05, 5.1589e-05, 0.000494785, 0.502206, 0.49004, 0.284735, 0.000949952, 0.00100504, 0.00198007
0.0048207, -0.0179094, -0.561992, -1.79265e-05, 5.32982e-05, 0.000495767, 0.503151, 0.490697, 0.284022, 0.000949255, 0.00100459, 0.00197507
0.00110991, -0.0191582, -0.561562, -1.77517e-05, 5.42474e-05, 0.000496925, 0.504106, 0.491445, 0.283199, 0.000948382, 0.00100392, 0.00196777
-0.000516573, -0.0196154, -0.559019, -1.75623e-05, 5.59135e-05, 0.000496854, 0.50497, 0.492334, 0.282283, 0.000947363, 0.00100285, 0.00195801
-0.000231877, -0.0197532, -0.556129, -1.76818e-05, 5.77705e-05, 0.000496898, 0.50569, 0.493451, 0.28136, 0.000946216, 0.00100117, 0.00194576
0.000988138, -0.0197137, -0.552912, -1.79935e-05, 5.9968e-05, 0.000496878, 0.506314, 0.494891, 0.280603, 0.000944972, 0.000999001, 0.00193158
0.00132541, -0.0192517, -0.551662, -1.78461e-05, 6.08363e-05, 0.000495511, 0.506967, 0.496667, 0.280165, 0.000943721, 0.000996862, 0.00191689
0.00124437, -0.0187487, -0.551677, -1.75492e-05, 6.08786e-05, 0.000494015, 0.507531, 0.498692, 0.280002, 0.000942584, 0.000994458, 0.00190366
0.00154821, -0.0184735, -0.552637, -1.73194e-05, 6.00395e-05, 0.00049343, 0.508033, 0.500807, 0.280113, 0.000941628, 0.000992166, 0.00189266
0.00247015, -0.0176176, -0.550589, -1.72723e-05, 6.1474e-05, 0.000491739, 0.508429, 0.502789, 0.280421, 0.00094093, 0.000990134, 0.00188484
-0.0472326, -0.0225944, -0.55146, -1.58015e-05, 6.85134e-05, 0.000484905, 0.508852, 0.50447, 0.280808, 0.000940477, 0.000988728, 0.00188047
-0.0232314, -0.0189974, -0.550584, -1.62683e-05, 6.58655e-05, 0.000486649, 0.509325, 0.505715, 0.280992, 0.000940177, 0.000987952, 0.00187813
-0.00659592, -0.0170419, -0.550373, -1.66745e-05, 6.43097e-05, 0.00048792, 0.509825, 0.506472, 0.281095, 0.000940032, 0.000987658, 0.00187787
0.00599913, -0.0149948, -0.550851, -1.6892e-05, 6.32442e-05, 0.000488489, 0.510258, 0.506756, 0.281045, 0.000939976, 0.000987609, 0.00187765
0.0139276, -0.0137112, -0.552132, -1.7012e-05, 6.28609e-05, 0.000488613, 0.510545, 0.506649, 0.28084, 0.000939937, 0.00098745, 0.00187603
0.0187413, -0.0129807, -0.55171, -1.71691e-05, 6.23756e-05, 0.00048853, 0.510638, 0.506214, 0.280529, 0.000939881, 0.000986961, 0.00187244
0.0211009, -0.0126468, -0.551509, -1.72524e-05, 6.21332e-05, 0.000488431, 0.51058, 0.505563, 0.280174, 0.000939774, 0.000986167, 0.00186662
0.0211985, -0.0122, -0.552101, -1.73257e-05, 6.23631e-05, 0.000489225, 0.51043, 0.504876, 0.279841, 0.000939611, 0.0009851, 0.00185871
0.0204598, -0.0120136, -0.552894, -1.73507e-05, 6.2813e-05, 0.000489872, 0.510185, 0.504304, 0.279622, 0.00093941, 0.000983742, 0.00184936
0.0194758, -0.01169, -0.555718, -1.73873e-05, 6.4591e-05, 0.000490833, 0.509846, 0.503935, 0.279594, 0.000939185, 0.000982103, 0.00183922
0.018114, -0.0116541, -0.557603, -1.73748e-05, 6.59576e-05, 0.000491302, 0.509409, 0.503855, 0.279823, 0.000938966, 0.000980149, 0.00182908
0.0169887, -0.0116652, -0.559782, -1.73687e-05, 6.76535e-05, 0.00049158, 0.508935, 0.504116, 0.280356, 0.00093878, 0.000977952, 0.00181955
0.0154506, -0.0119673, -0.560069, -1.73282e-05, 6.80056e-05, 0.000491361, 0.508521, 0.504697, 0.281166, 0.000938638, 0.000975724, 0.00181114
0.0139224, -0.0123517, -0.56039, -1.73163e-05, 6.8389e-05, 0.000490938, 0.508167, 0.505496, 0.282207, 0.000938526, 0.000973603, 0.00180401
0.0126459, -0.0126888, -0.561142, -1.73522e-05, 6.90546e-05, 0.000490479, 0.50786, 0.506408, 0.283423, 0.000938426, 0.000971677, 0.00179806
0.0114364, -0.0129941, -0.561306, -1.74086e-05, 6.92581e-05, 0.00049011, 0.507677, 0.50738, 0.2847, 0.000938334, 0.00097009, 0.00179321
0.0109535, -0.0131905, -0.560934, -1.74209e-05, 6.90713e-05, 0.000489975, 0.507626, 0.508405, 0.285998, 0.000938261, 0.00096876, 0.00178966
0.0106164, -0.0133963, -0.560958, -1.74483e-05, 6.91067e-05, 0.000489787, 0.507724, 0.509451, 0.287265, 0.0009382, 0.000967627, 0.00178744
0.0107769, -0.0139487, -0.561263, -1.74455e-05, 6.91903e-05, 0.000489388, 0.508009, 0.510441, 0.288392, 0.000938129, 0.000966736, 0.00178636
0.0474625, -0.0148908, -0.558156, -1.16797e-05, 6.33939e-05, 0.000492564, 0.508505, 0.511305, 0.289254, 0.000938014, 0.000966122, 0.00178607
0.0304783, -0.0154233, -0.559303, -1.48977e-05, 6.59253e-05, 0.00049129, 0.509189, 0.512043, 0.289713, 0.000937827, 0.000965694, 0.00178603
0.0186457, -0.0153732, -0.559897, -1.74379e-05, 6.77192e-05, 0.000491039, 0.51004, 0.512635, 0.289851, 0.000937525, 0.00096536, 0.00178582
0.0102398, -0.0152966, -0.56163, -1.9657e-05, 6.89803e-05, 0.000491249, 0.510974, 0.513083, 0.289656, 0.000937077, 0.000964976, 0.00178486
0.00464333, -0.0148684, -0.563706, -2.13166e-05, 6.96744e-05, 0.000491184, 0.511932, 0.513428, 0.289098, 0.000936485, 0.000964382, 0.00178272
0.00165847, -0.0149906, -0.563361, -2.2167e-05, 7.02123e-05, 0.000491412, 0.512846, 0.5137, 0.288176, 0.000935769, 0.000963447, 0.001779
0.00100325, -0.0151504, -0.56169, -2.22845e-05, 7.08938e-05, 0.000491553, 0.513707, 0.513961, 0.287065, 0.000934934, 0.000962219, 0.00177333
0.00206954, -0.0156275, -0.557602, -2.19544e-05, 7.2665e-05, 0.000492026, 0.514449, 0.514307, 0.28574, 0.000934011, 0.000960528, 0.00176545
0.00378449, -0.0162124, -0.554995, -2.16371e-05, 7.37937e-05, 0.000492855, 0.51506, 0.514832, 0.284383, 0.000933016, 0.000958391, 0.00175547
0.00584501, -0.0163461, -0.553817, -2.10769e-05, 7.42115e-05, 0.000492866, 0.515561, 0.515645, 0.28315, 0.000931963, 0.000955848, 0.00174395
-0.0136875, -0.0155466, -0.558421, -2.6852e-05, 7.43041e-05, 0.000494775, 0.515968, 0.516802, 0.282155, 0.000930889, 0.000952983, 0.00173172
-0.00151672, -0.0155404, -0.554752, -2.35031e-05, 7.53445e-05, 0.000492323, 0.516231, 0.518275, 0.281444, 0.000929852, 0.000949802, 0.00171892
0.00730434, -0.0156191, -0.552686, -2.1517e-05, 7.54958e-05, 0.000491385, 0.516439, 0.519988, 0.281112, 0.000928976, 0.000946751, 0.00170778
-0.0300049, -0.0151546, -0.553666, -2.88448e-05, 8.13923e-05, 0.00049315, 0.516569, 0.52183, 0.281107, 0.000928287, 0.000943841, 0.00169876
-0.00467478, -0.0139123, -0.54856, -2.60223e-05, 8.16027e-05, 0.000490262, 0.516666, 0.52367, 0.281255, 0.000927751, 0.000941259, 0.00169101
0.0113132, -0.0122502, -0.547103, -2.53597e-05, 8.04744e-05, 0.000488456, 0.516883, 0.525355, 0.281602, 0.000927409, 0.000939447, 0.00168694
0.021933, -0.0103112, -0.545259, -2.58064e-05, 8.01551e-05, 0.000487424, 0.517188, 0.526716, 0.281929, 0.00092718, 0.000938123, 0.00168553
0.0279907, -0.00877134, -0.544128, -2.65738e-05, 7.97546e-05, 0.000487088, 0.517646, 0.527656, 0.28207, 0.000926988, 0.00093735, 0.00168544
0.0305883, -0.0080713, -0.545445, -2.70048e-05, 7.90855e-05, 0.000487107, 0.518221, 0.528133, 0.281913, 0.000926747, 0.000936951, 0.00168496
0.03096, -0.00738164, -0.547679, -2.69146e-05, 7.88846e-05, 0.000487769, 0.518748, 0.528167, 0.281468, 0.000926396, 0.000936523, 0.00168257
0.0297622, -0.00705753, -0.549014, -2.6411e-05, 7.90478e-05, 0.000488851, 0.519084, 0.527839, 0.280847, 0.000925889, 0.00093577, 0.0016778
0.0282876, -0.00756682, -0.550744, -2.56012e-05, 7.97745e-05, 0.000489015, 0.519276, 0.527369, 0.280195, 0.000925227, 0.000934643, 0.00167089
0.0264379, -0.0086015, -0.553221, -2.44582e-05, 8.12192e-05, 0.000488702, 0.519453, 0.527042, 0.279653, 0.000924502, 0.000933176, 0.00166228
0.0246143, -0.00967976, -0.555891, -2.35002e-05, 8.29874e-05, 0.000488916, 0.519719, 0.527052, 0.279353, 0.000923811, 0.000931512, 0.00165297
0.0236108, -0.0108888, -0.557327, -2.30396e-05, 8.43343e-05, 0.00048764, 0.520079, 0.527436, 0.279395, 0.000923176, 0.000929743, 0.0016442
0.0222166, -0.0117378, -0.559255, -2.27526e-05, 8.59103e-05, 0.000487627, 0.520565, 0.528121, 0.279788, 0.000922623, 0.000928049, 0.00163664
0.0237892, 0.0245062, -0.568467, -2.69761e-05, 8.01575e-05, 0.000543987, 0.52111, 0.528991, 0.280498, 0.000922125, 0.000926443, 0.00163062
0.0280482, 0.0554116, -0.578333, -3.15859e-05, 7.97579e-05, 0.00058248, 0.521579, 0.529869, 0.281471, 0.000921615, 0.000924746, 0.00162587
0.019746, 0.0193453, -0.572018, -2.7337e-05, 7.90507e-05, 0.000544333, 0.521757, 0.530484, 0.282618, 0.000921081, 0.000922983, 0.00162245
0.0122026, -0.00612924, -0.568952, -2.38605e-05, 7.53328e-05, 0.000524935, 0.521377, 0.530459, 0.283731, 0.000920571, 0.000921532, 0.00162077
0.0124097, -0.00896359, -0.544009, -1.65617e-05, 6.23889e-05, 0.000530083, 0.520275, 0.529606, 0.2847, 0.000920003, 0.000920219, 0.00161995
0.0044232, -0.0254104, -0.55538, -1.60734e-05, 6.08814e-05, 0.000519063, 0.51842, 0.527837, 0.285373, 0.000919237, 0.000918957, 0.00161915
-0.00129833, -0.0344792, -0.563795, -1.6683e-05, 5.86073e-05, 0.000515283, 0.516248, 0.525473, 0.285768, 0.00091835, 0.000917735, 0.00161801
-0.00473304, -0.0387816, -0.568421, -1.72104e-05, 5.68854e-05, 0.000513593, 0.514033, 0.52276, 0.285983, 0.00091739, 0.000916472, 0.00161639
-0.00586622, -0.0395389, -0.569361, -1.7506e-05, 5.63953e-05, 0.000513146, 0.51196, 0.520052, 0.286175, 0.000916396, 0.000915089, 0.00161435
-0.00541106, -0.038302, -0.56852, -1.75061e-05, 5.69732e-05, 0.000512732, 0.510344, 0.517573, 0.286248, 0.00091531, 0.000913743, 0.00161194
-0.00372625, -0.0359673, -0.566272, -1.69667e-05, 5.84479e-05, 0.000511887, 0.509186, 0.51544, 0.286198, 0.00091412, 0.00091239, 0.0016095
-0.00199399, -0.0327174, -0.563326, -1.63871e-05, 6.06771e-05, 0.000509856, 0.508551, 0.51382, 0.285973, 0.000912868, 0.000910985, 0.00160714
0.000628804, -0.0299418, -0.559619, -1.52467e-05, 6.32623e-05, 0.000508227, 0.508525, 0.512922, 0.285553, 0.000911554, 0.000909392, 0.001605
0.00321883, -0.0270151, -0.556965, -1.39059e-05, 6.56901e-05, 0.00050632, 0.509063, 0.512851, 0.285, 0.000910218, 0.000907662, 0.00160334
0.00466855, -0.0244744, -0.556363, -1.27965e-05, 6.7071e-05, 0.000504459, 0.510173, 0.513652, 0.284288, 0.000908948, 0.000905743, 0.00160193
0.00715268, -0.0219639, -0.554162, -1.10634e-05, 6.87821e-05, 0.000502454, 0.511756, 0.515296, 0.2835, 0.000907708, 0.000903572, 0.00160081
0.00964136, -0.0202328, -0.55183, -9.61356e-06, 6.99537e-05, 0.000501113, 0.513629, 0.517597, 0.2827, 0.000906461, 0.000901137, 0.00160001
0.00980862, -0.0181652, -0.553273, -8.12208e-06, 6.91432e-05, 0.000499812, 0.515523, 0.520298, 0.281896, 0.000905264, 0.000898278, 0.00159947
0.00994886, -0.0165994, -0.553719, -6.97957e-06, 6.86927e-05, 0.000499131, 0.517361, 0.523241, 0.281161, 0.000904068, 0.000895283, 0.00159905
0.0110245, -0.0156336, -0.553494, -6.50365e-06, 6.81596e-05, 0.000498541, 0.519049, 0.526259, 0.280539, 0.000902797, 0.000892142, 0.00159869
0.0108404, -0.0157323, -0.554851, -6.32243e-06, 6.70849e-05, 0.000498259, 0.520427, 0.529108, 0.280053, 0.000901463, 0.0008889, 0.00159839
0.0118138, -0.0154908, -0.553667, -6.79602e-06, 6.76098e-05, 0.000498542, 0.52159, 0.531677, 0.279737, 0.000900006, 0.0008859, 0.001598
0.0106161, -0.0156707, -0.556268, -6.03713e-06, 6.59797e-05, 0.00049858, 0.522455, 0.533917, 0.279567, 0.000898423, 0.000882857, 0.00159771
0.0110761, -0.0156581, -0.555128, -6.35369e-06, 6.67002e-05, 0.000498625, 0.522964, 0.535656, 0.279514, 0.000896753, 0.000879937, 0.00159744
0.0105598, -0.0158193, -0.556141, -5.9941e-06, 6.6203e-05, 0.000498682, 0.523325, 0.536959, 0.27954, 0.000894914, 0.000877252, 0.0015972
0.0107566, -0.0158893, -0.556243, -6.12456e-06, 6.61943e-05, 0.000498619, 0.523531, 0.537819, 0.279607, 0.000892962, 0.000874766, 0.00159699
0.0103531, -0.0162084, -0.557735, -5.73276e-06, 6.57274e-05, 0.000498609, 0.523613, 0.538264, 0.279682, 0.000890964, 0.00087254, 0.00159682
0.0082197, -0.0175596, -0.560915, -3.98418e-06, 6.52634e-05, 0.000498967, 0.52358, 0.538367, 0.279745, 0.000889005, 0.000870531, 0.00159666
0.00921506, -0.0172656, -0.559596, -4.76801e-06, 6.55138e-05, 0.000498819, 0.523476, 0.538214, 0.27977, 0.000887166, 0.000868814, 0.00159656
0.0095201, -0.01734, -0.559416, -4.953e-06, 6.56256e-05, 0.000498771, 0.523298, 0.537882, 0.279765, 0.000885522, 0.000867355, 0.00159648
0.00952454, -0.0176713, -0.559701, -4.87478e-06, 6.57714e-05, 0.000498755, 0.523056, 0.537447, 0.27972, 0.000884101, 0.000866121, 0.00159644
0.00961052, -0.018178, -0.560813, -4.69621e-06, 6.60161e-05, 0.000498717, 0.522774, 0.536969, 0.279641, 0.000882925, 0.00086508, 0.00159641
0.00973345, -0.0181332, -0.560346, -4.81347e-06, 6.598e-05, 0.000498715, 0.522466, 0.536499, 0.27953, 0.00088199, 0.000864206, 0.00159639
0.00966621, -0.0181675, -0.560301, -4.78884e-06, 6.59837e-05, 0.000498713, 0.522167, 0.53607, 0.279408, 0.00088128, 0.000863489, 0.00159638
0.00997849, -0.0183198, -0.560168, -4.88632e-06, 6.60348e-05, 0.000498705, 0.521891, 0.53571, 0.279283, 0.000880766, 0.000862904, 0.00159637
0.010344, -0.0186915, -0.560478, -4.93005e-06, 6.62046e-05, 0.000498699, 0.521663, 0.535425, 0.279157, 0.000880413, 0.000862442, 0.00159637
0.0104081, -0.0188612, -0.56001, -4.96352e-06, 6.61642e-05, 0.000498698, 0.521492, 0.535227, 0.279036, 0.000880186, 0.000862081, 0.00159637
0.0104321, -0.0191368, -0.559527, -4.97895e-06, 6.6129e-05, 0.000498696, 0.5214, 0.535121, 0.278932, 0.000880051, 0.00086181, 0.00159636
0.0105393, -0.0193144, -0.559714, -4.98518e-06, 6.61853e-05, 0.000498702, 0.521384, 0.535105, 0.278838, 0.000879979, 0.000861609, 0.00159635
0.010428, -0.0195123, -0.559209, -4.9823e-06, 6.61253e-05, 0.0004987, 0.521456, 0.53518, 0.278758, 0.000879945, 0.000861464, 0.00159634
0.010391, -0.0196205, -0.559413, -4.98363e-06, 6.61649e-05, 0.000498701, 0.521616, 0.535346, 0.278699, 0.000879929, 0.00086136, 0.00159633
0.0104081, -0.0195678, -0.559487, -4.98222e-06, 6.61705e-05, 0.0004987, 0.521861, 0.535599, 0.27865, 0.00087992, 0.000861284, 0.00159632
0.0104601, -0.0194038, -0.559324, -4.97051e-06, 6.61493e-05, 0.000498692, 0.522186, 0.535933, 0.278608, 0.000879908, 0.000861227, 0.00159631
0.0102543, -0.0192126, -0.559496, -4.96416e-06, 6.6177e-05, 0.000498676, 0.522588, 0.536345, 0.278578, 0.000879889, 0.00086118, 0.0015963
0.0103881, -0.019496, -0.559439, -4.98131e-06, 6.61564e-05, 0.000498694, 0.523058, 0.536827, 0.278555, 0.00087986, 0.000861138, 0.00159629
0.0103675, -0.0196918, -0.559505, -4.99917e-06, 6.61577e-05, 0.000498704, 0.523588, 0.537371, 0.278537, 0.000879822, 0.000861096, 0.00159628
0.0104512, -0.0198146, -0.559401, -5.00504e-06, 6.61413e-05, 0.000498714, 0.524168, 0.537968, 0.278523, 0.000879777, 0.000861052, 0.00159626
0.0103837, -0.0199645, -0.559527, -5.02482e-06, 6.61436e-05, 0.000498721, 0.524795, 0.538613, 0.278516, 0.000879725, 0.000861006, 0.00159625
0.0103886, -0.0200749, -0.559691, -5.0384e-06, 6.61408e-05, 0.000498728, 0.525458, 0.539298, 0.278513, 0.000879669, 0.000860957, 0.00159624
0.0102712, -0.0202711, -0.560043, -5.07062e-06, 6.61456e-05, 0.000498739, 0.526153, 0.540015, 0.278515, 0.00087961, 0.000860906, 0.00159623
0.0101963, -0.0204775, -0.56032, -5.1006e-06, 6.61452e-05, 0.000498752, 0.526867, 0.540754, 0.278517, 0.00087955, 0.000860854, 0.00159622
0.0100896, -0.0206314, -0.560526, -5.12391e-06, 6.6149e-05, 0.00049876, 0.527592, 0.541503, 0.278514, 0.00087949, 0.000860801, 0.00159621
0.0100894, -0.020691, -0.560602, -5.13098e-06, 6.61466e-05, 0.000498762, 0.528323, 0.542258, 0.278511, 0.000879431, 0.000860748, 0.0015962
0.00996568, -0.0207542, -0.560664, -5.1423e-06, 6.61573e-05, 0.000498767, 0.529058, 0.543017, 0.278514, 0.000879374, 0.000860696, 0.0015962
0.0098888, -0.0208512, -0.56062, -5.15427e-06, 6.61653e-05, 0.000498771, 0.529794, 0.543775, 0.278522, 0.000879319, 0.000860645, 0.00159619
0.00982493, -0.0209554, -0.560542, -5.16776e-06, 6.61725e-05, 0.000498776, 0.530527, 0.544529, 0.278527, 0.000879266, 0.000860596, 0.00159618
0.0102692, -0.0207769, -0.56008, -5.14001e-06, 6.61322e-05, 0.000498762, 0.531257, 0.545278, 0.278535, 0.000879214, 0.000860548, 0.00159617
0.0102111, -0.0208951, -0.560301, -5.15562e-06, 6.6137e-05, 0.000498769, 0.531982, 0.546021, 0.278545, 0.000879165, 0.000860502, 0.00159617
0.0102647, -0.021055, -0.560461, -5.17247e-06, 6.61286e-05, 0.000498775, 0.5327, 0.546756, 0.278545, 0.000879116, 0.000860457, 0.00159616
0.0103533, -0.0210747, -0.560607, -5.17401e-06, 6.61175e-05, 0.000498775, 0.533417, 0.547488, 0.278547, 0.000879069, 0.000860412, 0.00159615
0.0104311, -0.0210871, -0.560719, -5.17534e-06, 6.61089e-05, 0.000498775, 0.534131, 0.548217, 0.278552, 0.000879022, 0.000860369, 0.00159615
0.0104731, -0.0210613, -0.560754, -5.17246e-06, 6.61037e-05, 0.000498774, 0.534838, 0.548937, 0.278555, 0.000878977, 0.000860326, 0.00159614
0.0104704, -0.0211079, -0.560831, -5.1776e-06, 6.61049e-05, 0.000498776, 0.535537, 0.549649, 0.278556, 0.000878932, 0.000860285, 0.00159613
0.0104246, -0.0210982, -0.560093, -5.17609e-06, 6.6111e-05, 0.000498776, 0.536226, 0.55035, 0.278552, 0.000878889, 0.000860245, 0.00159613
0.0105091, -0.021426, -0.559987, -5.21369e-06, 6.6105e-05, 0.000498788, 0.536905, 0.551041, 0.278547, 0.000878847, 0.000860205, 0.00159612
0.0106903, -0.0211533, -0.55949, -5.18417e-06, 6.60842e-05, 0.000498775, 0.537579, 0.551727, 0.278544, 0.000878805, 0.000860167, 0.00159612
0.0108097, -0.0210681, -0.559031, -5.17837e-06, 6.60721e-05, 0.000498772, 0.538251, 0.552411, 0.278545, 0.000878764, 0.000860128, 0.00159611
0.0107192, -0.0211979, -0.559358, -5.1906e-06, 6.60814e-05, 0.000498778, 0.538922, 0.553093, 0.278551, 0.000878724, 0.000860091, 0.0015961
0.0106834, -0.0209395, -0.558966, -5.16188e-06, 6.60828e-05, 0.000498765, 0.539593, 0.553776, 0.278552, 0.000878683, 0.000860053, 0.0015961
